~o
<STREAMINFO> 1 25
<VECSIZE> 25<NULLD><MFCC_D_N_Z_0><DIAGC>
~s "silst"
<MEAN> 25
 -1.772120e+000 7.280416e-001 -1.226020e+000 -5.767808e-001 4.297909e-001 4.382836e-001 -6.287000e-001 1.199385e-001 -1.005710e+000 9.707640e-002 -1.158755e+000 1.604895e+000 -1.992024e-001 -1.912564e-001 -2.832697e-002 -1.607195e-001 8.462637e-002 -1.199666e-001 7.998267e-002 -7.726102e-002 2.823306e-001 -2.170976e-001 1.494503e-001 2.580573e-002 6.950020e-001
<VARIANCE> 25
 4.478331e+001 4.717785e+001 4.705222e+001 1.008893e+002 6.968449e+001 4.563937e+001 7.360838e+001 4.421368e+001 5.406331e+001 4.735853e+001 4.567221e+001 2.885238e+001 2.340687e+000 3.711212e+000 3.387307e+000 6.583232e+000 4.487569e+000 4.292059e+000 5.130516e+000 3.141702e+000 3.828199e+000 3.549812e+000 3.413579e+000 2.598299e+000 1.916243e+001
<GCONST> 1.120014e+002
~h "@"
<BEGINHMM>
<NUMSTATES> 5
<STATE> 2
<MEAN> 25
 -4.489069e+000 3.038672e+000 -2.305079e+000 3.613176e+000 1.358754e+000 9.804767e-001 2.257941e+000 -3.194867e-001 1.372711e-001 2.357023e+000 1.138838e+000 1.067409e+000 3.229898e-003 -3.969045e-002 -7.500108e-002 3.176557e-003 -2.852858e-002 -1.843286e-001 -4.159437e-002 -7.739298e-002 -1.852950e-001 -1.193268e-001 1.672375e-002 1.521695e-002 5.875459e-002
<VARIANCE> 25
 1.317678e+001 1.341031e+001 1.523775e+001 4.844909e+001 1.577850e+001 1.732954e+001 3.448597e+001 3.774821e+001 3.162401e+001 2.646731e+001 1.811804e+001 1.346328e+001 6.423452e-001 6.384445e-001 8.996048e-001 1.072469e+000 1.038115e+000 1.545055e+000 1.553903e+000 1.831432e+000 1.738564e+000 1.912653e+000 1.545064e+000 1.267917e+000 4.994087e-001
<GCONST> 8.450576e+001
<STATE> 3
<MEAN> 25
 -1.707519e+000 -1.035570e+000 -1.293733e+000 -5.186750e-001 4.129627e-001 -3.089757e-002 1.072648e+000 -2.033123e+000 -2.251906e+000 -1.096817e-001 5.061010e-001 1.433431e+000 2.183266e+000 -1.283020e+000 1.024699e-001 -1.547833e+000 -6.790470e-001 -7.512242e-001 -1.035328e+000 -1.443134e-001 -3.360568e-001 -1.273197e+000 -1.994499e-001 1.493708e-001 3.314687e+000
<VARIANCE> 25
 3.586740e+001 4.594632e+001 2.976712e+001 5.198809e+001 4.536143e+001 5.280714e+001 4.295663e+001 4.797428e+001 5.619185e+001 4.509056e+001 2.332050e+001 2.425126e+001 3.419999e+000 4.923933e+000 3.274953e+000 8.745652e+000 5.082508e+000 7.373693e+000 7.744442e+000 6.912104e+000 6.787523e+000 6.593874e+000 3.305542e+000 3.459047e+000 7.045141e+000
<GCONST> 1.122588e+002
<STATE> 4
<MEAN> 25
 4.732306e+000 -2.593946e+000 3.767094e-001 -3.385088e+000 6.296001e-002 -1.486052e+000 -4.250113e+000 -1.922847e+000 -2.010754e+000 -2.942571e+000 -1.444400e+000 -3.629713e-001 7.150627e-001 -4.062488e-002 7.281914e-002 -4.070888e-001 -4.454528e-002 -2.986826e-001 -4.099823e-001 3.314434e-001 1.444851e-001 -1.918125e-001 -4.483163e-001 -2.474957e-001 6.937446e-001
<VARIANCE> 25
 3.541638e+001 3.419069e+001 5.889116e+001 8.281465e+001 4.063660e+001 5.716722e+001 4.310806e+001 7.832308e+001 6.312013e+001 6.705710e+001 3.977669e+001 4.534287e+001 3.410593e+000 3.286400e+000 3.564927e+000 6.360217e+000 3.612786e+000 4.740367e+000 4.526296e+000 6.615870e+000 3.970413e+000 2.979351e+000 3.042777e+000 2.928778e+000 2.804736e+000
<GCONST> 1.107288e+002
<TRANSP> 5
 0.000000e+000 1.000000e+000 0.000000e+000 0.000000e+000 0.000000e+000
 0.000000e+000 8.623185e-001 1.376815e-001 0.000000e+000 0.000000e+000
 0.000000e+000 0.000000e+000 6.474240e-001 3.525760e-001 0.000000e+000
 0.000000e+000 0.000000e+000 0.000000e+000 6.648821e-001 3.351179e-001
 0.000000e+000 0.000000e+000 0.000000e+000 0.000000e+000 0.000000e+000
<ENDHMM>
~h "a"
<BEGINHMM>
<NUMSTATES> 5
<STATE> 2
<MEAN> 25
 2.324438e+000 -1.768247e+000 -4.369251e-001 -1.607051e+000 4.049532e-001 -1.613701e+000 -1.183954e+000 -6.921093e-001 -2.073314e-001 -1.294249e+000 -1.001564e+000 -2.220803e-001 1.432115e+000 -1.505943e+000 -6.564073e-001 -1.434626e+000 -3.530185e-001 -7.647286e-001 -5.270640e-001 6.590043e-001 2.277265e-001 -7.173648e-001 -1.372331e-001 -1.275290e-002 2.323966e+000
<VARIANCE> 25
 3.535681e+001 5.917436e+001 3.946337e+001 7.841295e+001 6.562669e+001 5.284827e+001 5.158357e+001 5.877871e+001 6.479038e+001 3.861008e+001 4.385698e+001 3.533611e+001 3.037332e+000 4.210123e+000 4.268237e+000 5.944464e+000 6.417305e+000 5.072897e+000 5.114621e+000 5.887805e+000 5.419202e+000 3.992385e+000 4.906091e+000 4.037044e+000 4.450140e+000
<GCONST> 1.131925e+002
<STATE> 3
<MEAN> 25
 7.292218e+000 -7.751039e+000 -5.281632e+000 -6.409441e+000 -2.072073e+000 -3.971696e+000 -7.711648e-002 2.385056e+000 1.837455e-001 -3.088014e+000 5.259583e-001 7.800879e-001 6.418748e-002 -4.584756e-001 -4.101793e-001 -1.500534e-001 9.212078e-002 1.497051e-001 3.545111e-001 3.588598e-001 1.649199e-001 6.545812e-002 -9.226865e-002 -1.227890e-001 1.951594e-001
<VARIANCE> 25
 1.168874e+001 3.566108e+001 4.456752e+001 5.540956e+001 6.096955e+001 4.636864e+001 5.116881e+001 5.014157e+001 7.635249e+001 3.580166e+001 5.744821e+001 4.248192e+001 5.265434e-001 1.583010e+000 1.632829e+000 1.738970e+000 2.126100e+000 2.174146e+000 2.287393e+000 2.529656e+000 2.442324e+000 2.011015e+000 2.413789e+000 1.832920e+000 1.081614e+000
<GCONST> 9.860675e+001
<STATE> 4
<MEAN> 25
 5.867721e+000 -6.952762e+000 -3.919716e+000 -6.867397e+000 -1.660208e-001 -1.921698e+000 -1.816489e+000 3.833955e+000 1.091418e+000 -2.340031e+000 -3.344461e+000 -1.403722e+000 -2.055864e-001 5.259094e-001 1.695585e-001 3.557109e-001 8.749995e-002 1.310139e-001 5.639048e-002 -7.602358e-002 -6.498829e-003 9.738629e-002 -1.638476e-002 7.462437e-002 -6.547823e-001
<VARIANCE> 25
 1.280563e+001 3.755994e+001 3.027210e+001 5.683007e+001 4.766954e+001 2.625643e+001 5.392600e+001 3.653785e+001 3.845093e+001 2.849909e+001 5.473902e+001 3.813920e+001 3.760771e-001 1.140023e+000 9.544337e-001 1.291198e+000 1.490384e+000 1.437815e+000 1.790069e+000 1.696912e+000 1.411748e+000 1.425562e+000 1.510100e+000 1.276487e+000 9.899452e-001
<GCONST> 9.151510e+001
<TRANSP> 5
 0.000000e+000 1.000000e+000 0.000000e+000 0.000000e+000 0.000000e+000
 0.000000e+000 7.324533e-001 2.675467e-001 0.000000e+000 0.000000e+000
 0.000000e+000 0.000000e+000 7.076624e-001 2.923376e-001 0.000000e+000
 0.000000e+000 0.000000e+000 0.000000e+000 8.592319e-001 1.407681e-001
 0.000000e+000 0.000000e+000 0.000000e+000 0.000000e+000 0.000000e+000
<ENDHMM>
~h "b"
<BEGINHMM>
<NUMSTATES> 5
<STATE> 2
<MEAN> 25
 -2.037871e+000 1.629180e+000 1.976945e+000 2.890597e+000 2.121945e+000 -5.657211e-001 1.435320e+000 -1.256698e+000 -1.608141e+000 -1.235046e+000 -1.720043e+000 -5.209280e-001 -4.576880e-001 -1.482479e-002 -2.043365e-001 8.399107e-002 -2.096434e-002 1.684556e-001 2.384616e-001 1.399106e-001 2.086385e-001 2.144141e-001 2.559109e-001 1.620719e-001 -5.569865e-001
<VARIANCE> 25
 5.438367e+001 2.855510e+001 5.671840e+001 5.778813e+001 3.896688e+001 4.556707e+001 4.817928e+001 4.006292e+001 4.926628e+001 4.637875e+001 3.854585e+001 2.307553e+001 1.254242e+000 1.180817e+000 1.552982e+000 2.131014e+000 1.868100e+000 2.404759e+000 2.073429e+000 2.231231e+000 2.702130e+000 2.530248e+000 1.984979e+000 1.632641e+000 1.257241e+000
<GCONST> 9.891241e+001
<STATE> 3
<MEAN> 25
 -4.058097e+000 4.359006e+000 -2.333621e+000 4.700500e+000 1.491025e+000 5.148642e-001 1.159782e+000 -1.286517e+000 -1.163702e+000 5.053158e-001 -1.050613e+000 1.263414e+000 -2.446378e-001 -2.037061e-002 -1.299725e-001 4.089106e-002 -7.174069e-002 -1.730741e-002 -2.606276e-002 -9.883641e-002 -8.265329e-003 2.113097e-001 8.868466e-002 -5.042111e-002 -2.903804e-001
<VARIANCE> 25
 1.963899e+001 1.225395e+001 2.059788e+001 4.922139e+001 2.185445e+001 2.183236e+001 3.123280e+001 3.157623e+001 2.736473e+001 3.834085e+001 1.866021e+001 2.000390e+001 2.380596e-001 5.126898e-001 6.981242e-001 1.031788e+000 1.518398e+000 1.768443e+000 1.892265e+000 1.880281e+000 1.755036e+000 1.804067e+000 1.555889e+000 1.229111e+000 1.583236e-001
<GCONST> 8.407489e+001
<STATE> 4
<MEAN> 25
 -4.059221e+000 2.438811e+000 -1.198554e+000 4.533711e+000 2.211924e+000 3.530978e+000 4.908609e+000 1.281955e+000 3.106068e+000 2.169511e+000 2.020593e+000 6.297253e-001 -4.762017e-002 4.004975e-002 4.364411e-002 5.456923e-002 2.401224e-002 1.277474e-002 1.363205e-002 -6.630936e-002 -5.555073e-002 1.738511e-003 8.720526e-003 -1.067884e-002 -4.356648e-002
<VARIANCE> 25
 4.000646e+000 7.645237e+000 1.012695e+001 2.202083e+001 9.747807e+000 1.260003e+001 1.562489e+001 1.487711e+001 1.557183e+001 1.487195e+001 1.419129e+001 1.179786e+001 1.235338e-001 3.095283e-001 4.103247e-001 5.020192e-001 6.544849e-001 6.868922e-001 8.771278e-001 1.006850e+000 1.117323e+000 1.164941e+000 1.028006e+000 9.044947e-001 8.572794e-002
<GCONST> 6.756622e+001
<TRANSP> 5
 0.000000e+000 1.000000e+000 0.000000e+000 0.000000e+000 0.000000e+000
 0.000000e+000 6.565759e-001 3.434241e-001 0.000000e+000 0.000000e+000
 0.000000e+000 0.000000e+000 7.919505e-001 2.080495e-001 0.000000e+000
 0.000000e+000 0.000000e+000 0.000000e+000 9.369500e-001 6.304995e-002
 0.000000e+000 0.000000e+000 0.000000e+000 0.000000e+000 0.000000e+000
<ENDHMM>
~h "c"
<BEGINHMM>
<NUMSTATES> 5
<STATE> 2
<MEAN> 25
 -3.672427e+000 1.713838e+000 -1.288288e+000 3.497272e+000 2.704908e+000 5.333926e+000 3.130115e+000 4.000450e-001 3.446039e+000 3.555792e+000 1.118129e+000 1.992863e+000 -1.294603e-001 -1.074858e-001 -7.428260e-002 -6.216328e-002 -9.792795e-003 4.664789e-002 1.686618e-001 1.233532e-001 3.364721e-002 9.358264e-002 9.983604e-002 1.011302e-001 -1.022570e-001
<VARIANCE> 25
 5.780777e+000 6.530077e+000 1.601312e+001 3.776740e+001 1.064374e+001 2.108248e+001 1.455505e+001 1.369017e+001 1.775914e+001 2.243114e+001 1.051598e+001 1.281075e+001 1.353828e-001 3.995853e-001 4.965272e-001 1.157443e+000 6.729657e-001 1.069102e+000 1.699279e+000 1.377219e+000 1.656729e+000 1.598887e+000 1.012318e+000 8.500043e-001 1.506770e-001
<GCONST> 7.356271e+001
<STATE> 3
<MEAN> 25
 -4.386654e+000 -2.053899e+000 1.177614e+000 2.208238e+000 3.530558e-001 2.727041e+000 5.072660e+000 3.028231e+000 3.127132e-001 1.553919e+000 2.527778e+000 3.209370e+000 -3.348846e-001 -1.478300e+000 1.169432e+000 1.073602e+000 -5.969197e-001 -1.788189e+000 1.072183e-001 8.082790e-001 -1.195700e+000 -1.420096e+000 5.148646e-004 1.732480e-001 7.083514e-001
<VARIANCE> 25
 1.038703e+001 2.586236e+001 2.652982e+001 3.672837e+001 7.225432e+000 3.152293e+001 2.333356e+001 2.694596e+001 2.983170e+001 2.200626e+001 1.161764e+001 9.909752e+000 4.952760e-001 4.063483e+000 2.216607e+000 4.329669e+000 1.458801e+000 1.544756e+000 2.726127e+000 3.773286e+000 2.757940e+000 1.899154e+000 1.961206e+000 1.247852e+000 8.092514e-001
<GCONST> 8.997049e+001
<STATE> 4
<MEAN> 25
 -8.423046e+000 -2.357579e+000 4.266712e+000 -2.763613e-001 -3.825713e-001 -1.858504e+000 3.949764e+000 -4.686379e-001 -4.627093e-002 3.924016e-001 2.733236e+000 3.932293e+000 6.447472e-001 -5.687826e-001 7.143975e-001 -7.893373e-001 2.429347e-002 -8.202738e-001 -1.233917e+000 -6.598054e-001 2.476076e-002 -2.860098e-001 -1.098852e-001 -3.098659e-001 2.046713e+000
<VARIANCE> 25
 6.647993e+001 2.328424e+002 7.712873e+001 6.594951e+001 8.344128e+001 3.932434e+001 8.075397e+001 4.318301e+001 5.881748e+001 3.098236e+001 2.170856e+001 3.217631e+001 1.247643e+001 1.648767e+001 1.087425e+001 5.515520e+000 9.988699e+000 3.314118e+000 8.366095e+000 5.941464e+000 5.386645e+000 4.028710e+000 3.202546e+000 5.111273e+000 3.518048e+000
<GCONST> 1.183951e+002
<TRANSP> 5
 0.000000e+000 1.000000e+000 0.000000e+000 0.000000e+000 0.000000e+000
 0.000000e+000 9.410223e-001 5.897763e-002 0.000000e+000 0.000000e+000
 0.000000e+000 0.000000e+000 5.843553e-001 4.156447e-001 0.000000e+000
 0.000000e+000 0.000000e+000 0.000000e+000 8.340819e-001 1.659181e-001
 0.000000e+000 0.000000e+000 0.000000e+000 0.000000e+000 0.000000e+000
<ENDHMM>
~h "d"
<BEGINHMM>
<NUMSTATES> 5
<STATE> 2
<MEAN> 25
 6.431354e+000 1.616021e+000 -5.379770e-001 -2.203645e+000 -6.821609e-001 3.322817e-001 -6.689523e+000 -6.195715e+000 -4.818789e+000 -3.606778e+000 1.348184e+000 1.217090e+000 -1.819589e-001 3.550319e-001 -1.687062e-002 1.265277e-001 4.248290e-005 1.252384e-001 3.928046e-001 8.729095e-002 1.947826e-002 -1.289494e-002 -3.935198e-002 7.257533e-002 -4.832074e-001
<VARIANCE> 25
 1.731564e+001 2.596343e+001 2.282972e+001 4.432822e+001 6.670867e+001 4.518447e+001 6.621846e+001 6.088629e+001 3.720669e+001 1.991297e+001 6.502163e+001 2.793085e+001 5.606337e-001 1.212093e+000 1.405888e+000 1.983738e+000 1.782865e+000 2.124781e+000 2.342193e+000 2.142370e+000 1.780529e+000 1.763663e+000 2.785839e+000 1.789066e+000 1.179483e+000
<GCONST> 9.590011e+001
<STATE> 3
<MEAN> 25
 2.521622e+000 4.399389e+000 1.627974e+000 2.901417e+000 2.720038e-001 1.266819e+000 -1.563203e+000 -1.643357e+000 -1.240517e+000 -2.116558e+000 -1.541705e+000 2.224484e-001 -5.695910e-001 1.790922e-001 -1.396303e-001 2.037768e-001 1.801924e-001 1.202870e-001 4.946377e-001 3.624391e-001 4.131458e-001 4.706472e-001 2.780860e-001 5.735980e-002 -6.834810e-001
<VARIANCE> 25
 1.798506e+001 1.705308e+001 2.490232e+001 4.132020e+001 4.606517e+001 3.499749e+001 3.478200e+001 3.791103e+001 2.693017e+001 2.294141e+001 3.121715e+001 2.055136e+001 2.535317e-001 8.109689e-001 8.072680e-001 1.027921e+000 1.253496e+000 1.592009e+000 1.504526e+000 1.369590e+000 1.482948e+000 1.971370e+000 1.479799e+000 1.229212e+000 2.034191e-001
<GCONST> 8.579299e+001
<STATE> 4
<MEAN> 25
 -3.278645e+000 1.899797e+000 -8.829424e-002 2.822071e+000 1.457097e+000 2.584934e+000 2.680089e+000 5.184039e-001 2.234995e+000 2.605938e+000 9.696715e-001 3.327853e-001 -7.306320e-002 2.251159e-002 5.787040e-003 4.140807e-002 6.803399e-002 9.550808e-003 1.560991e-002 -4.397367e-002 -3.108043e-002 5.020156e-002 5.147285e-002 1.204612e-002 -6.168175e-002
<VARIANCE> 25
 6.391029e+000 8.903778e+000 1.222981e+001 1.896459e+001 1.115549e+001 1.449322e+001 1.608212e+001 1.931796e+001 1.840624e+001 1.530558e+001 1.429082e+001 1.233479e+001 1.825434e-001 3.523688e-001 4.175684e-001 4.812944e-001 6.935570e-001 7.846872e-001 9.434578e-001 1.087119e+000 1.133422e+000 1.122911e+000 1.069685e+000 9.471539e-001 8.765046e-002
<GCONST> 6.996040e+001
<TRANSP> 5
 0.000000e+000 1.000000e+000 0.000000e+000 0.000000e+000 0.000000e+000
 0.000000e+000 8.217130e-001 1.782870e-001 0.000000e+000 0.000000e+000
 0.000000e+000 0.000000e+000 7.423098e-001 2.576902e-001 0.000000e+000
 0.000000e+000 0.000000e+000 0.000000e+000 9.441360e-001 5.586406e-002
 0.000000e+000 0.000000e+000 0.000000e+000 0.000000e+000 0.000000e+000
<ENDHMM>
~h "e"
<BEGINHMM>
<NUMSTATES> 5
<STATE> 2
<MEAN> 25
 4.787446e+000 -3.620448e+000 -5.633303e-001 6.169773e+000 1.998152e+000 -8.535811e+000 -9.583193e+000 -8.745370e+000 -5.728134e+000 3.641274e-001 2.309135e+000 -3.802413e-001 -4.794288e-003 -3.839482e-002 7.479725e-002 1.720575e-001 -6.069085e-002 -2.403775e-001 -1.802457e-001 1.035638e-001 2.037892e-001 1.326935e-001 -7.008549e-002 -1.914211e-001 -1.973355e-002
<VARIANCE> 25
 1.104250e+001 3.331381e+001 5.105352e+001 4.204883e+001 2.334922e+001 6.002301e+001 7.445688e+001 3.943259e+001 3.030801e+001 5.247697e+001 5.057872e+001 3.201847e+001 5.290192e-001 1.845586e+000 1.561292e+000 1.754108e+000 1.107252e+000 4.544804e+000 3.290791e+000 2.139802e+000 2.763342e+000 2.624598e+000 2.192461e+000 1.741362e+000 8.823666e-001
<GCONST> 9.726525e+001
<STATE> 3
<MEAN> 25
 2.080230e+000 2.035230e+000 1.803867e+000 4.706737e+000 1.955842e+000 4.954233e-001 -2.056647e+000 -2.865302e+000 -1.238756e+000 -3.142271e+000 -2.809128e+000 -3.789806e+000 -5.304361e-001 3.792852e-001 -1.352022e-001 -1.275910e-001 5.087214e-001 1.134373e+000 9.958937e-001 3.942553e-001 2.473411e-001 3.053228e-002 -2.570312e-001 2.208643e-001 -7.067679e-001
<VARIANCE> 25
 1.280620e+001 1.041755e+001 1.672773e+001 3.803585e+001 3.768016e+001 3.726371e+001 3.138026e+001 2.661613e+001 2.989062e+001 4.822936e+001 3.600476e+001 2.180088e+001 2.478658e-001 8.046123e-001 1.141702e+000 1.052067e+000 1.305461e+000 1.577638e+000 1.633476e+000 1.462082e+000 2.030393e+000 2.039156e+000 2.205722e+000 1.641217e+000 1.919779e-001
<GCONST> 8.643086e+001
<STATE> 4
<MEAN> 25
 -3.870348e+000 1.218857e+000 -7.069004e-001 3.488528e+000 2.415960e+000 4.191277e+000 3.337585e+000 8.865854e-001 3.303269e+000 2.347062e+000 1.077811e+000 4.918422e-001 -9.604555e-002 8.001954e-003 -3.155551e-002 -9.246143e-004 9.906057e-003 4.168344e-002 1.099791e-001 1.201847e-001 1.205352e-001 9.947347e-002 1.037362e-001 4.200500e-002 -8.863834e-002
<VARIANCE> 25
 3.908389e+000 6.215843e+000 9.211948e+000 2.516598e+001 9.336231e+000 1.534390e+001 1.458653e+001 1.344283e+001 1.641439e+001 2.063556e+001 1.056752e+001 1.000243e+001 1.223425e-001 3.115654e-001 4.517872e-001 5.387625e-001 7.210993e-001 8.233347e-001 1.013211e+000 8.642609e-001 1.295289e+000 1.326243e+000 1.014562e+000 9.237539e-001 7.510466e-002
<GCONST> 6.786523e+001
<TRANSP> 5
 0.000000e+000 1.000000e+000 0.000000e+000 0.000000e+000 0.000000e+000
 0.000000e+000 9.034445e-001 9.655547e-002 0.000000e+000 0.000000e+000
 0.000000e+000 0.000000e+000 8.105887e-001 1.894113e-001 0.000000e+000
 0.000000e+000 0.000000e+000 0.000000e+000 9.399645e-001 6.003539e-002
 0.000000e+000 0.000000e+000 0.000000e+000 0.000000e+000 0.000000e+000
<ENDHMM>
~h "f"
<BEGINHMM>
<NUMSTATES> 5
<STATE> 2
<MEAN> 25
 -7.489672e+000 -3.431742e+000 1.186640e+000 2.885476e+000 5.752795e+000 -6.333360e-001 4.094908e+000 -1.312784e-001 3.768458e+000 2.120974e+000 2.297392e+000 2.156394e+000 3.347549e-001 -3.949205e-001 -1.200878e-001 -7.247954e-001 -2.042904e-001 -2.456780e-001 -1.449262e-001 -2.475439e-001 -1.470878e-001 -1.958977e-001 -3.104616e-001 -3.202055e-001 8.872262e-001
<VARIANCE> 25
 2.508992e+001 3.141783e+001 9.315084e+000 2.455574e+001 2.161398e+001 3.428381e+001 1.972933e+001 1.361510e+001 1.629215e+001 1.440810e+001 9.448674e+000 9.890882e+000 6.351584e+000 2.086594e+000 1.633730e+000 2.218933e+000 3.575756e+000 2.656913e+000 2.699349e+000 1.540799e+000 2.832537e+000 2.135699e+000 1.146148e+000 1.957497e+000 1.095423e+000
<GCONST> 9.049458e+001
<STATE> 3
<MEAN> 25
 7.381309e+000 -5.165232e+000 -9.678991e+000 -7.486148e+000 -9.893382e+000 -5.463659e+000 6.167431e+000 6.491706e+000 -3.844777e+000 -6.503887e+000 -3.558156e-001 6.355774e-001 9.292573e-001 -4.447672e-001 -6.844168e-001 -8.305981e-001 -6.292223e-001 2.224040e-001 -2.226761e-002 5.976275e-001 -2.796693e-001 -1.976716e-001 -6.294051e-002 -3.011992e-001 6.800164e-001
<VARIANCE> 25
 1.401087e+001 1.418846e+001 1.458607e+001 1.447021e+001 4.288663e+001 3.049026e+001 4.380178e+001 3.859566e+001 2.003033e+001 2.185300e+001 1.731293e+001 2.292802e+001 4.222765e+000 1.408922e+000 2.460496e+000 4.514894e+000 1.169084e+000 1.694717e+000 2.924459e+000 1.639563e+000 1.343003e+000 8.526985e-001 1.593430e+000 2.266468e+000 1.899791e+000
<GCONST> 9.176928e+001
<STATE> 4
<MEAN> 25
 5.626190e+000 -8.585890e+000 -4.436570e+000 -1.628448e+001 6.854766e+000 4.971713e+000 -4.193752e+000 -2.459752e+000 1.552096e+000 2.016200e-001 8.739785e-001 -5.816475e+000 8.666398e-004 1.683900e-001 1.331252e-001 -6.663785e-003 -4.658356e-002 -5.040500e-002 2.031438e-001 -2.476540e-001 -4.984959e-002 9.293832e-002 -1.522412e-001 -1.548942e-001 2.646666e-002
<VARIANCE> 25
 2.212633e+001 2.742999e+001 2.802543e+001 5.676965e+001 9.548829e+001 3.354111e+001 5.424063e+001 1.866147e+001 4.274295e+001 2.621158e+001 1.781389e+001 1.812163e+001 2.112756e+000 2.783309e+000 2.295887e+000 6.814888e+000 3.886596e+000 2.681273e+000 3.947545e+000 2.102489e+000 2.854494e+000 1.386604e+000 1.893648e+000 1.349622e+000 4.074951e+000
<GCONST> 1.002184e+002
<TRANSP> 5
 0.000000e+000 1.000000e+000 0.000000e+000 0.000000e+000 0.000000e+000
 0.000000e+000 8.969430e-001 1.030570e-001 0.000000e+000 0.000000e+000
 0.000000e+000 0.000000e+000 7.336987e-001 2.663013e-001 0.000000e+000
 0.000000e+000 0.000000e+000 0.000000e+000 8.943839e-001 1.056161e-001
 0.000000e+000 0.000000e+000 0.000000e+000 0.000000e+000 0.000000e+000
<ENDHMM>
~h "g"
<BEGINHMM>
<NUMSTATES> 5
<STATE> 2
<MEAN> 25
 -3.886687e+000 3.202097e+000 -1.006160e+000 4.645374e+000 2.145206e+000 7.937602e-001 1.701774e+000 -9.917146e-001 1.656433e-001 2.321523e-001 -1.113149e+000 9.265564e-001 -9.160881e-002 -9.880670e-002 -2.094279e-001 -1.446303e-001 -4.203859e-002 -2.616583e-002 -2.622428e-002 -7.482554e-002 -1.447087e-001 1.152968e-001 9.095732e-002 -5.331147e-002 -7.491884e-002
<VARIANCE> 25
 9.512308e+000 1.212790e+001 2.395596e+001 2.602288e+001 1.297383e+001 1.776220e+001 2.718670e+001 2.686552e+001 2.028364e+001 2.673783e+001 1.773121e+001 1.805978e+001 4.029388e-001 8.355576e-001 1.092969e+000 1.312902e+000 1.401641e+000 1.503249e+000 1.907097e+000 2.368267e+000 1.592604e+000 1.922584e+000 1.655987e+000 1.134386e+000 4.480669e-001
<GCONST> 8.370094e+001
<STATE> 3
<MEAN> 25
 -4.839333e+000 -5.167229e+000 -7.433452e-001 3.023492e-001 -2.658064e-001 -7.573514e-002 1.520352e+000 -1.448808e+000 -3.086916e+000 2.069346e+000 5.838167e-001 -1.605922e+000 3.986872e-001 -1.794816e+000 4.374937e-001 -1.722029e+000 -1.069142e+000 -4.017900e-001 -2.141200e-001 3.372213e-001 -2.379538e-001 -4.081917e-001 4.993308e-001 -3.200877e-001 2.552780e+000
<VARIANCE> 25
 2.357595e+001 1.159902e+002 3.349213e+001 5.151069e+001 6.155990e+001 8.063584e+001 3.946698e+001 3.248349e+001 1.702105e+001 3.848247e+001 2.479240e+001 2.805094e+001 1.759366e+000 1.349331e+001 4.891433e+000 8.680234e+000 1.574602e+001 6.453779e+000 5.930511e+000 7.417942e+000 3.007697e+000 4.671215e+000 4.930392e+000 3.764463e+000 4.966763e+000
<GCONST> 1.124965e+002
<STATE> 4
<MEAN> 25
 -4.279949e-001 -1.542048e+000 -2.143578e+000 -3.334278e+000 1.153474e+000 -8.509626e-001 -2.153348e+000 -3.495231e+000 -4.873966e+000 2.237784e+000 2.621409e+000 -1.014212e+000 1.338603e+000 4.181806e-001 7.982923e-001 -6.184180e-001 -1.074847e+000 -4.816755e-001 -1.665928e+000 -4.796788e-001 -5.407227e-001 -3.554907e-001 7.441311e-001 1.001175e-001 1.878070e+000
<VARIANCE> 25
 2.600154e+001 4.237936e+001 1.082603e+002 6.808321e+001 1.669865e+002 5.503740e+001 7.726074e+001 8.626643e+001 3.332182e+001 6.596433e+001 4.529776e+001 4.571643e+001 1.815790e+000 3.557111e+000 7.637424e+000 7.180656e+000 9.596416e+000 4.025382e+000 5.807337e+000 4.520859e+000 2.450715e+000 6.549350e+000 3.655823e+000 2.978536e+000 6.153169e+000
<GCONST> 1.148908e+002
<TRANSP> 5
 0.000000e+000 1.000000e+000 0.000000e+000 0.000000e+000 0.000000e+000
 0.000000e+000 9.077390e-001 9.226098e-002 0.000000e+000 0.000000e+000
 0.000000e+000 0.000000e+000 5.919315e-001 4.080685e-001 0.000000e+000
 0.000000e+000 0.000000e+000 0.000000e+000 5.798043e-001 4.201957e-001
 0.000000e+000 0.000000e+000 0.000000e+000 0.000000e+000 0.000000e+000
<ENDHMM>
~h "h"
<BEGINHMM>
<NUMSTATES> 5
<STATE> 2
<MEAN> 25
 1.545922e-001 -6.423986e+000 -2.711170e+000 -1.668660e+000 2.760123e+000 -5.276226e-002 5.429135e+000 2.337845e+000 -6.549608e-001 -8.537378e-001 -6.695189e-001 3.974722e-001 -4.635329e-001 8.622759e-002 -1.271976e-001 3.567956e-001 -9.076861e-002 3.788436e-001 3.607894e-001 1.647625e-001 2.550586e-001 2.959387e-001 2.697484e-001 3.276206e-001 -8.951727e-001
<VARIANCE> 25
 2.941842e+001 3.520388e+001 2.335449e+001 4.209387e+001 8.001164e+001 3.622290e+001 4.960128e+001 2.917471e+001 4.266608e+001 4.010964e+001 3.491543e+001 3.160077e+001 6.351436e-001 1.163315e+000 1.011093e+000 1.651749e+000 1.560289e+000 1.494883e+000 2.221319e+000 1.517331e+000 2.123594e+000 2.098294e+000 1.618166e+000 1.300733e+000 5.012527e-001
<GCONST> 9.330073e+001
<STATE> 3
<MEAN> 25
 -1.834777e+000 -4.585548e+000 -3.736694e+000 2.317932e+000 2.880595e+000 1.916738e+000 5.226938e+000 3.544494e+000 1.987851e+000 1.094647e+000 7.644740e-001 2.612159e+000 -1.995794e-001 7.169795e-001 1.713881e-001 2.314568e-001 -1.058044e-001 2.779967e-001 -1.344671e-001 5.565327e-003 4.304326e-001 2.732338e-001 1.318309e-001 -1.219790e-001 -6.704280e-001
<VARIANCE> 25
 5.939869e+000 2.566468e+001 1.191624e+001 3.228075e+001 2.448371e+001 1.588412e+001 1.966777e+001 2.149513e+001 2.211159e+001 1.939614e+001 2.240100e+001 2.329127e+001 1.723415e-001 6.124747e-001 5.958398e-001 8.386422e-001 9.555374e-001 8.816682e-001 1.088250e+000 1.385670e+000 1.367587e+000 1.320045e+000 1.406554e+000 1.100636e+000 1.295611e-001
<GCONST> 7.753580e+001
<STATE> 4
<MEAN> 25
 -3.722019e+000 1.377812e+000 -2.034206e+000 5.114940e+000 1.261485e+000 2.855974e+000 4.119349e+000 1.590687e+000 2.931646e+000 2.553140e+000 2.383056e+000 1.315610e+000 -3.537120e-002 4.111008e-002 2.609561e-002 6.664098e-002 1.787315e-002 6.967624e-003 -2.711865e-002 -8.767199e-002 -4.016726e-002 -6.540842e-003 1.190727e-002 1.689557e-002 -4.457974e-002
<VARIANCE> 25
 3.289317e+000 8.076219e+000 7.908236e+000 2.813981e+001 1.125746e+001 1.080168e+001 1.816471e+001 1.706807e+001 1.681229e+001 1.532220e+001 1.366351e+001 1.107126e+001 9.186610e-002 2.601270e-001 3.834976e-001 5.876060e-001 7.108986e-001 8.837906e-001 1.146016e+000 1.199924e+000 1.007059e+000 1.239732e+000 1.152393e+000 9.318494e-001 6.026880e-002
<GCONST> 6.785345e+001
<TRANSP> 5
 0.000000e+000 1.000000e+000 0.000000e+000 0.000000e+000 0.000000e+000
 0.000000e+000 8.229473e-001 1.770527e-001 0.000000e+000 0.000000e+000
 0.000000e+000 0.000000e+000 8.213847e-001 1.786153e-001 0.000000e+000
 0.000000e+000 0.000000e+000 0.000000e+000 9.540281e-001 4.597191e-002
 0.000000e+000 0.000000e+000 0.000000e+000 0.000000e+000 0.000000e+000
<ENDHMM>
~h "i"
<BEGINHMM>
<NUMSTATES> 5
<STATE> 2
<MEAN> 25
 -1.310657e+000 -1.016351e+000 1.162320e+001 1.944513e+000 -3.589072e+000 -3.232748e+000 -2.461190e+000 -3.732116e+000 -4.155044e+000 -1.222568e-001 1.801219e+000 -2.683050e+000 6.822790e-001 -7.219206e-003 1.870882e+000 3.661799e-001 -6.303322e-001 -6.176293e-001 -1.679875e+000 -5.686955e-001 -9.546340e-001 -6.375626e-001 -1.663838e-001 -7.572956e-001 1.250476e+000
<VARIANCE> 25
 5.047995e+001 8.242846e+001 9.514349e+001 1.278954e+002 1.220707e+002 8.261575e+001 8.319077e+001 6.139681e+001 6.055620e+001 5.684370e+001 4.711058e+001 4.060902e+001 3.517627e+000 3.906824e+000 7.305864e+000 1.034173e+001 8.310487e+000 6.989680e+000 6.900501e+000 5.159899e+000 5.759163e+000 4.776108e+000 3.906911e+000 2.429265e+000 3.696767e+000
<GCONST> 1.185967e+002
<STATE> 3
<MEAN> 25
 1.819839e+000 -1.189679e+000 9.476273e+000 1.221943e+001 3.068317e+000 -9.040556e+000 -9.962067e+000 -1.908773e+000 -3.387320e+000 -6.705593e+000 -4.193521e+000 -5.176281e+000 -9.348234e-002 2.735134e-001 4.434835e-002 -2.415237e-001 -1.915465e-001 2.545863e-001 1.130366e-001 8.148757e-002 8.780233e-002 3.145018e-002 -1.870981e-001 9.771612e-003 -2.165330e-001
<VARIANCE> 25
 7.334594e+000 2.764619e+001 3.889229e+001 9.734926e+001 7.209457e+001 4.545404e+001 2.819569e+001 4.113717e+001 3.284099e+001 2.369337e+001 3.326813e+001 2.636511e+001 2.651136e-001 8.308710e-001 1.086341e+000 1.694578e+000 1.479653e+000 2.951133e+000 1.742057e+000 2.038365e+000 1.662537e+000 1.685747e+000 1.444196e+000 1.228801e+000 4.395181e-001
<GCONST> 9.070304e+001
<STATE> 4
<MEAN> 25
 -3.770184e-001 5.383080e+000 1.646436e+001 -4.296269e+000 -9.382195e+000 2.021591e-001 -8.018523e+000 -7.422825e+000 -6.895027e+000 -1.337352e+000 1.173497e+000 -2.903848e+000 -7.978662e-002 2.471823e-002 -8.216690e-001 3.020836e-001 5.448915e-001 1.836343e-001 5.450528e-001 2.140288e-001 3.808861e-001 2.044466e-001 -1.568531e-002 3.875757e-001 -7.843160e-001
<VARIANCE> 25
 1.589461e+001 2.169819e+001 6.234748e+001 7.964552e+001 7.003683e+001 3.030349e+001 4.547721e+001 5.518665e+001 4.067886e+001 3.732320e+001 4.232177e+001 3.050546e+001 4.610695e-001 8.070894e-001 1.907487e+000 2.275453e+000 2.085914e+000 1.939993e+000 2.144541e+000 2.085234e+000 1.591787e+000 1.732562e+000 1.557208e+000 1.462459e+000 1.049243e+000
<GCONST> 9.553787e+001
<TRANSP> 5
 0.000000e+000 1.000000e+000 0.000000e+000 0.000000e+000 0.000000e+000
 0.000000e+000 8.080717e-001 1.919283e-001 0.000000e+000 0.000000e+000
 0.000000e+000 0.000000e+000 8.700069e-001 1.299931e-001 0.000000e+000
 0.000000e+000 0.000000e+000 0.000000e+000 8.673730e-001 1.326270e-001
 0.000000e+000 0.000000e+000 0.000000e+000 0.000000e+000 0.000000e+000
<ENDHMM>
~h "j"
<BEGINHMM>
<NUMSTATES> 5
<STATE> 2
<MEAN> 25
 -2.791050e+000 3.195011e+000 -2.783107e+000 8.189621e+000 -1.174944e+000 1.625450e+000 2.425052e+000 1.829884e+000 -7.499293e-001 -6.905323e-001 6.932698e-001 1.923530e+000 -2.102519e-001 -1.824275e-001 -9.276108e-002 -5.267775e-002 5.528952e-002 1.975810e-001 5.658783e-002 6.368517e-002 8.056118e-002 1.033274e-001 1.466878e-001 9.946207e-002 -1.326356e-001
<VARIANCE> 25
 7.607114e+000 1.399126e+001 1.536518e+001 2.752231e+001 1.499826e+001 2.517116e+001 2.667546e+001 1.670208e+001 2.180185e+001 1.980284e+001 1.830523e+001 1.567253e+001 2.989036e-001 6.347588e-001 7.387878e-001 1.071519e+000 1.356424e+000 2.037413e+000 2.097163e+000 1.412037e+000 1.733644e+000 1.699769e+000 1.342104e+000 1.072422e+000 6.185815e-001
<GCONST> 8.159226e+001
<STATE> 3
<MEAN> 25
 -6.034774e+000 -1.048611e+000 5.989588e+000 -3.817946e+000 -6.041803e-001 -6.864325e+000 4.453373e+000 -1.312576e+000 1.973314e+000 -2.739582e+000 3.038464e+000 1.618253e+000 2.722622e-001 -3.501280e-001 3.485287e-001 -5.653569e-001 -2.863854e-001 -6.307409e-001 -3.253402e-001 -4.152273e-002 3.365592e-002 -2.517799e-001 1.289773e-001 1.790769e-002 1.405072e+000
<VARIANCE> 25
 8.548484e+001 6.884938e+001 6.000008e+001 7.209147e+001 4.251884e+001 6.070038e+001 8.207553e+001 2.205638e+001 3.798112e+001 4.185276e+001 2.209377e+001 3.376972e+001 8.614860e+000 4.650606e+000 4.208126e+000 6.008204e+000 6.307112e+000 5.171127e+000 7.467758e+000 2.406721e+000 3.428192e+000 3.002737e+000 2.199288e+000 3.213665e+000 1.032922e+001
<GCONST> 1.122590e+002
<STATE> 4
<MEAN> 25
 -1.926234e+000 1.949930e-001 -1.041465e+000 -5.997621e-001 -1.998091e-001 2.638159e+000 2.687356e+000 1.722149e+000 2.873675e+000 3.316816e+000 1.265485e+000 4.733804e-001 -1.096171e-001 -9.704123e-003 6.923379e-002 7.900791e-002 7.983506e-002 7.260051e-002 2.270993e-002 9.283449e-003 1.089114e-001 5.193148e-002 -5.257734e-002 -1.232060e-001 -1.602320e-001
<VARIANCE> 25
 1.984140e+001 9.246657e+000 1.396891e+001 2.260555e+001 1.398192e+001 2.240983e+001 1.798739e+001 1.499097e+001 2.344269e+001 1.453854e+001 8.806654e+000 9.507799e+000 1.908803e-001 4.187345e-001 4.339910e-001 5.832004e-001 5.611171e-001 9.691460e-001 8.771487e-001 1.068378e+000 1.100884e+000 9.949134e-001 8.774498e-001 8.824157e-001 2.067051e-001
<GCONST> 7.220139e+001
<TRANSP> 5
 0.000000e+000 1.000000e+000 0.000000e+000 0.000000e+000 0.000000e+000
 0.000000e+000 9.000363e-001 9.996363e-002 0.000000e+000 0.000000e+000
 0.000000e+000 0.000000e+000 9.079923e-001 9.200772e-002 0.000000e+000
 0.000000e+000 0.000000e+000 0.000000e+000 9.518762e-001 4.812377e-002
 0.000000e+000 0.000000e+000 0.000000e+000 0.000000e+000 0.000000e+000
<ENDHMM>
~h "k"
<BEGINHMM>
<NUMSTATES> 5
<STATE> 2
<MEAN> 25
 -3.447624e+000 2.895397e+000 -1.885018e+000 4.843096e+000 1.203063e+000 3.062505e+000 2.197068e+000 7.451527e-001 1.575234e+000 9.053435e-001 1.853962e-001 1.836470e+000 -1.991562e-001 -1.100522e-001 -2.632599e-001 1.740543e-002 1.995101e-001 2.209898e-001 2.608497e-001 -3.583058e-002 -1.054131e-001 1.134393e-001 1.355120e-001 1.744349e-001 -1.505589e-001
<VARIANCE> 25
 5.163787e+000 1.006117e+001 2.289522e+001 4.464113e+001 1.895310e+001 2.433130e+001 2.097268e+001 2.054715e+001 2.335235e+001 2.813472e+001 1.773567e+001 1.672273e+001 3.925907e-001 7.049816e-001 1.055438e+000 1.406590e+000 1.425749e+000 1.869998e+000 2.104309e+000 1.928885e+000 2.462711e+000 2.034521e+000 1.554836e+000 1.250296e+000 4.975544e-001
<GCONST> 8.427693e+001
<STATE> 3
<MEAN> 25
 -4.132612e+000 4.299311e-001 -3.332114e+000 4.521321e-001 1.085000e+000 2.710977e+000 3.751493e+000 -1.437898e+000 -3.198012e+000 7.584896e-001 1.209918e+000 2.132214e+000 2.420587e-001 -2.345296e+000 -5.997211e-001 -1.924604e+000 -8.157326e-001 -1.967554e-001 6.243332e-001 -9.084691e-001 -1.520166e+000 -8.042076e-001 8.058770e-001 -1.107821e-001 3.173177e+000
<VARIANCE> 25
 1.475592e+001 4.111324e+001 2.481770e+001 6.667812e+001 4.404851e+001 4.825643e+001 4.768631e+001 3.631893e+001 4.255984e+001 3.370549e+001 2.269409e+001 1.760699e+001 2.492108e+000 6.955352e+000 5.285513e+000 7.475227e+000 1.329010e+001 9.399035e+000 1.119138e+001 7.770470e+000 6.188790e+000 9.132991e+000 4.461468e+000 3.700259e+000 5.698733e+000
<GCONST> 1.125452e+002
<STATE> 4
<MEAN> 25
 2.313687e+000 -7.654591e+000 -1.334082e+000 -1.140776e+001 3.045434e+000 1.687689e+000 2.430477e+000 -4.969684e-001 1.418454e+000 2.047713e+000 1.521442e+000 -2.576473e+000 8.937611e-001 -1.055602e-001 3.480829e-001 -5.350071e-001 -2.322818e-001 -4.098255e-001 -6.655692e-001 -1.263478e-001 3.634229e-001 -1.169918e-002 -1.179029e-001 -3.137777e-001 1.176236e+000
<VARIANCE> 25
 4.734469e+001 7.500323e+001 5.796125e+001 1.314696e+002 1.594022e+002 6.856011e+001 7.247206e+001 6.060397e+001 1.026038e+002 6.314999e+001 4.275198e+001 4.517344e+001 3.873634e+000 5.196875e+000 4.519614e+000 1.184771e+001 6.475887e+000 4.964970e+000 5.699906e+000 4.715220e+000 5.821267e+000 3.569973e+000 3.403288e+000 3.559239e+000 8.138742e+000
<GCONST> 1.184590e+002
<TRANSP> 5
 0.000000e+000 1.000000e+000 0.000000e+000 0.000000e+000 0.000000e+000
 0.000000e+000 8.765991e-001 1.234008e-001 0.000000e+000 0.000000e+000
 0.000000e+000 0.000000e+000 4.965825e-001 5.034175e-001 0.000000e+000
 0.000000e+000 0.000000e+000 0.000000e+000 8.088374e-001 1.911626e-001
 0.000000e+000 0.000000e+000 0.000000e+000 0.000000e+000 0.000000e+000
<ENDHMM>
~h "l"
<BEGINHMM>
<NUMSTATES> 5
<STATE> 2
<MEAN> 25
 7.682677e+000 -3.025896e+000 1.459998e+000 -1.863771e+000 -2.068622e+000 -2.704860e+000 -4.896050e+000 3.945553e-001 6.073963e-001 -5.281711e+000 -5.792169e+000 -7.150764e-001 2.293811e-001 -2.313931e-001 -1.031173e-001 -1.650665e-002 -3.398951e-001 -5.753980e-001 6.712078e-002 2.320348e-001 1.298250e-001 6.602784e-002 -1.452524e-001 3.681541e-001 8.262371e-002
<VARIANCE> 25
 1.200288e+001 3.751632e+001 4.063791e+001 8.775498e+001 3.059513e+001 4.940839e+001 8.213388e+001 6.984035e+001 7.515231e+001 1.267116e+002 4.754161e+001 3.552012e+001 5.079878e-001 1.511848e+000 2.125172e+000 2.996615e+000 2.352448e+000 2.811699e+000 4.378356e+000 4.480221e+000 2.983081e+000 4.781009e+000 4.020850e+000 2.304965e+000 9.223366e-001
<GCONST> 1.040610e+002
<STATE> 3
<MEAN> 25
 7.656941e+000 -2.889003e+000 -2.478965e+000 -3.578407e+000 -6.663969e+000 -7.823470e+000 -4.109715e+000 1.223849e+000 -1.478724e+000 -4.457543e+000 -1.929865e+000 2.731152e+000 -6.399950e-002 1.543881e-001 1.015717e-001 -3.366378e-002 -5.954115e-002 5.960658e-002 1.915252e-002 -4.527889e-002 4.573777e-002 2.323260e-001 7.711247e-002 -8.202245e-002 -1.346980e-001
<VARIANCE> 25
 6.864069e+000 3.093549e+001 3.987593e+001 3.784472e+001 2.756074e+001 4.659577e+001 4.854584e+001 6.045609e+001 8.428754e+001 6.853371e+001 6.891020e+001 3.163486e+001 2.258588e-001 8.141675e-001 8.728366e-001 1.041974e+000 1.161354e+000 1.687935e+000 1.530396e+000 1.689124e+000 1.768326e+000 1.833880e+000 1.779901e+000 1.327163e+000 3.310129e-001
<GCONST> 9.088033e+001
<STATE> 4
<MEAN> 25
 2.242918e+000 4.672118e-002 1.000488e+000 -3.935457e+000 -1.588310e+000 -1.925837e+000 -4.446767e+000 -3.449676e-001 1.089160e+000 1.355714e+000 -2.317803e+000 -1.547016e+000 -1.867780e-001 1.812989e-001 9.959258e-002 1.547924e-001 1.546419e-001 2.167065e-001 1.223236e-001 -1.908596e-002 -4.726005e-002 1.823160e-002 1.035540e-001 -2.812166e-002 -2.998605e-001
<VARIANCE> 25
 3.134677e+001 1.970109e+001 3.083434e+001 6.882848e+001 2.119794e+001 4.829363e+001 8.340656e+001 3.666875e+001 2.727988e+001 3.789510e+001 2.912803e+001 1.909015e+001 2.197911e-001 4.526196e-001 6.261424e-001 9.309347e-001 9.069422e-001 1.347176e+000 1.276071e+000 1.607834e+000 1.362355e+000 1.367802e+000 1.315899e+000 9.786298e-001 2.482585e-001
<GCONST> 8.580520e+001
<TRANSP> 5
 0.000000e+000 1.000000e+000 0.000000e+000 0.000000e+000 0.000000e+000
 0.000000e+000 7.562070e-001 2.437930e-001 0.000000e+000 0.000000e+000
 0.000000e+000 0.000000e+000 8.366489e-001 1.633511e-001 0.000000e+000
 0.000000e+000 0.000000e+000 0.000000e+000 8.359681e-001 1.640319e-001
 0.000000e+000 0.000000e+000 0.000000e+000 0.000000e+000 0.000000e+000
<ENDHMM>
~h "m"
<BEGINHMM>
<NUMSTATES> 5
<STATE> 2
<MEAN> 25
 6.069232e+000 -5.013340e-001 -6.724939e-001 -1.622438e+000 -9.792711e-001 -1.820237e+000 -1.573438e+000 -2.984720e+000 -2.133472e+000 -1.340011e+000 -1.818858e+000 -2.334157e+000 -2.444231e-001 1.056282e+000 8.554695e-001 1.280933e+000 2.712091e-001 4.896054e-001 -3.097294e-002 -1.029916e+000 -6.638322e-001 2.844074e-001 -5.079720e-001 -1.814229e-001 -9.984982e-001
<VARIANCE> 25
 1.239222e+001 2.603627e+001 2.877424e+001 4.209645e+001 3.353786e+001 3.693259e+001 3.621152e+001 1.214933e+002 5.033118e+001 3.948623e+001 3.168811e+001 2.143328e+001 5.520076e-001 1.369371e+000 2.061741e+000 2.821336e+000 2.934575e+000 3.367592e+000 2.529255e+000 3.406094e+000 3.412169e+000 1.930350e+000 2.636237e+000 2.256519e+000 1.049281e+000
<GCONST> 9.809090e+001
<STATE> 3
<MEAN> 25
 4.207382e+000 4.065941e+000 2.701108e+000 3.128292e+000 1.289120e+000 2.890087e+000 -2.290688e-001 -5.347473e+000 -3.335042e+000 -1.271434e+000 -3.528853e+000 -2.962668e+000 -2.886169e-001 3.573192e-001 1.239472e-001 3.612352e-001 3.271598e-001 4.881181e-001 3.586633e-001 1.352026e-001 7.344669e-002 -7.484975e-002 -8.900939e-002 -1.254067e-001 -4.734050e-001
<VARIANCE> 25
 1.460674e+001 1.695782e+001 2.519543e+001 2.990477e+001 3.115455e+001 3.125404e+001 3.949432e+001 1.054722e+002 7.096986e+001 4.705792e+001 2.808812e+001 2.617045e+001 2.188638e-001 5.239651e-001 7.393214e-001 1.025978e+000 1.106758e+000 1.298812e+000 1.342754e+000 1.772731e+000 1.351413e+000 1.435071e+000 1.348947e+000 1.268374e+000 2.900046e-001
<GCONST> 8.676283e+001
<STATE> 4
<MEAN> 25
 1.483631e+000 2.575561e+000 1.458301e+000 2.128932e+000 3.458352e+000 2.107949e+000 2.567551e+000 2.083751e+000 4.579411e+000 1.620620e+000 -2.375962e+000 -4.748027e+000 -2.156286e-001 -1.856636e-001 -1.784709e-001 -1.964463e-001 -8.172753e-002 -2.758297e-001 -1.054564e-001 2.327058e-001 1.820040e-001 7.490551e-002 1.232061e-001 1.563004e-001 -7.398444e-002
<VARIANCE> 25
 2.705589e+001 3.577426e+001 2.822637e+001 8.758824e+001 8.591768e+001 3.679432e+001 9.376960e+001 9.030392e+001 7.362062e+001 4.857174e+001 4.452562e+001 5.724291e+001 7.056654e-001 1.441084e+000 1.730073e+000 3.696865e+000 3.701116e+000 2.058235e+000 3.391645e+000 4.116504e+000 2.847180e+000 2.556572e+000 2.278993e+000 2.568052e+000 1.749965e+000
<GCONST> 1.046138e+002
<TRANSP> 5
 0.000000e+000 1.000000e+000 0.000000e+000 0.000000e+000 0.000000e+000
 0.000000e+000 7.276312e-001 2.723688e-001 0.000000e+000 0.000000e+000
 0.000000e+000 0.000000e+000 7.719914e-001 2.280085e-001 0.000000e+000
 0.000000e+000 0.000000e+000 0.000000e+000 6.892249e-001 3.107751e-001
 0.000000e+000 0.000000e+000 0.000000e+000 0.000000e+000 0.000000e+000
<ENDHMM>
~h "n"
<BEGINHMM>
<NUMSTATES> 5
<STATE> 2
<MEAN> 25
 7.257151e+000 -2.042806e+000 -1.424588e+000 -1.218537e+000 -1.771076e+000 -7.948666e-001 -1.863129e+000 -2.065365e+000 -2.271127e-001 -1.586807e+000 -2.184674e+000 -6.438335e-001 -2.799131e-001 1.300356e+000 8.314345e-001 1.425418e+000 1.643529e-001 6.254827e-001 3.916765e-001 -1.174149e+000 -1.521131e-001 3.801790e-001 -7.945703e-001 -7.824928e-001 -1.256624e+000
<VARIANCE> 25
 1.281854e+001 3.854352e+001 4.315882e+001 5.437205e+001 6.215169e+001 4.046362e+001 4.840383e+001 5.829393e+001 4.370876e+001 3.504227e+001 4.791320e+001 4.044800e+001 5.798570e-001 2.249132e+000 2.293296e+000 2.472229e+000 3.821692e+000 2.718119e+000 3.334136e+000 4.448899e+000 2.618232e+000 2.930095e+000 2.854639e+000 3.423511e+000 1.242100e+000
<GCONST> 1.021610e+002
<STATE> 3
<MEAN> 25
 4.792529e+000 3.885351e+000 7.417563e-001 4.890944e+000 3.388387e+000 5.007781e+000 3.513489e+000 -1.938816e+000 -1.089291e+000 1.521079e-001 -3.792083e+000 -3.496599e+000 -5.705261e-001 5.632527e-001 2.988574e-001 2.467542e-001 3.853983e-001 4.542647e-001 2.197247e-001 1.311790e-001 -5.558372e-004 8.347278e-002 -2.246778e-001 7.290676e-002 -7.724631e-001
<VARIANCE> 25
 1.180661e+001 2.713605e+001 2.195569e+001 3.467923e+001 1.034012e+002 6.596371e+001 6.477142e+001 4.144357e+001 2.591325e+001 3.884679e+001 3.446346e+001 3.108330e+001 2.873200e-001 9.398677e-001 1.226298e+000 1.480493e+000 2.265692e+000 1.663827e+000 2.105288e+000 2.177125e+000 1.885944e+000 1.753445e+000 1.974714e+000 2.201727e+000 4.844259e-001
<GCONST> 9.304303e+001
<STATE> 4
<MEAN> 25
 -1.610794e+000 2.494378e+000 1.989796e-001 2.635648e+000 1.764984e+000 2.640697e+000 2.106639e+000 -3.381794e-001 7.840227e-001 8.072208e-001 -1.050007e+000 -8.867618e-001 -2.173161e-001 -3.175990e-002 -7.485346e-003 6.762307e-002 6.454914e-002 2.998994e-002 6.727204e-002 9.270640e-003 4.135182e-002 1.328790e-001 1.418627e-001 8.775640e-002 -1.691366e-001
<VARIANCE> 25
 1.533413e+001 1.151059e+001 1.629155e+001 2.133939e+001 1.890918e+001 1.995426e+001 2.977005e+001 2.994901e+001 2.399288e+001 2.352168e+001 2.639724e+001 2.207332e+001 2.270835e-001 4.280123e-001 5.309591e-001 6.574119e-001 7.523466e-001 1.022017e+000 1.254261e+000 1.326964e+000 1.357945e+000 1.218141e+000 1.183190e+000 1.044678e+000 1.744275e-001
<GCONST> 7.823296e+001
<TRANSP> 5
 0.000000e+000 1.000000e+000 0.000000e+000 0.000000e+000 0.000000e+000
 0.000000e+000 6.786465e-001 3.213535e-001 0.000000e+000 0.000000e+000
 0.000000e+000 0.000000e+000 7.396354e-001 2.603646e-001 0.000000e+000
 0.000000e+000 0.000000e+000 0.000000e+000 9.175379e-001 8.246215e-002
 0.000000e+000 0.000000e+000 0.000000e+000 0.000000e+000 0.000000e+000
<ENDHMM>
~h "o"
<BEGINHMM>
<NUMSTATES> 5
<STATE> 2
<MEAN> 25
 1.961581e+000 2.193166e-003 2.782852e+000 -3.796589e+000 -4.578170e+000 -2.447683e+000 -3.105494e+000 -1.794674e-001 7.566154e-001 -1.378343e+000 7.766592e-001 -9.276767e-001 1.804098e+000 -1.655188e-001 2.088305e-001 -7.229210e-001 -1.321950e+000 -1.119070e+000 -1.240703e+000 7.022203e-002 6.283389e-001 -6.420879e-001 -2.930973e-001 -5.730468e-002 1.891997e+000
<VARIANCE> 25
 3.778762e+001 3.748211e+001 3.993892e+001 7.564136e+001 9.559650e+001 6.244678e+001 5.844964e+001 4.994743e+001 8.931892e+001 3.347873e+001 3.576768e+001 2.825129e+001 2.988395e+000 4.745965e+000 3.867113e+000 8.057616e+000 6.246442e+000 8.600720e+000 4.761998e+000 5.073885e+000 9.953914e+000 3.505208e+000 3.223377e+000 2.430762e+000 4.183288e+000
<GCONST> 1.131128e+002
<STATE> 3
<MEAN> 25
 7.469930e+000 1.768088e+000 1.277180e+000 -3.519868e+000 -1.120756e+001 -9.348514e+000 -5.095119e+000 4.149091e+000 4.536147e+000 -3.678694e+000 -2.299911e+000 2.303202e-003 -9.654329e-002 8.387887e-002 -4.357276e-001 -9.435929e-002 4.610645e-001 3.691645e-001 2.817037e-001 -5.647227e-003 -2.555897e-001 2.246868e-001 1.767662e-001 1.162491e-001 -2.653955e-001
<VARIANCE> 25
 7.050592e+000 2.730573e+001 2.536066e+001 3.928947e+001 4.303351e+001 6.567891e+001 3.844238e+001 4.167791e+001 1.559313e+002 5.364689e+001 3.592976e+001 1.660950e+001 3.202085e-001 1.441597e+000 9.597415e-001 1.100783e+000 1.939671e+000 1.889281e+000 1.522842e+000 2.318729e+000 2.913319e+000 1.733843e+000 1.466157e+000 1.099031e+000 7.866757e-001
<GCONST> 9.255954e+001
<STATE> 4
<MEAN> 25
 6.730517e+000 -1.325369e-001 -2.611317e+000 -9.601657e+000 -3.401297e-001 1.369941e+000 -8.476746e+000 -5.224650e+000 -1.094718e+000 2.056990e+000 2.942291e+000 -2.360259e+000 -2.593758e-001 -8.399036e-002 -3.271036e-002 5.810089e-001 1.922614e-001 2.185631e-002 2.051985e-001 -1.592549e-002 2.331276e-003 1.909826e-001 4.961552e-002 -1.967804e-003 -3.914019e-001
<VARIANCE> 25
 1.249376e+001 3.461588e+001 3.443108e+001 1.145225e+002 5.054467e+001 5.912980e+001 6.561543e+001 4.280609e+001 4.059011e+001 5.294167e+001 3.108425e+001 2.934928e+001 4.831437e-001 9.373413e-001 1.271843e+000 3.038213e+000 2.042368e+000 2.336232e+000 2.720628e+000 2.235536e+000 1.962793e+000 2.077874e+000 2.078224e+000 1.479088e+000 8.629282e-001
<GCONST> 9.703677e+001
<TRANSP> 5
 0.000000e+000 1.000000e+000 0.000000e+000 0.000000e+000 0.000000e+000
 0.000000e+000 7.558885e-001 2.441116e-001 0.000000e+000 0.000000e+000
 0.000000e+000 0.000000e+000 8.430831e-001 1.569168e-001 0.000000e+000
 0.000000e+000 0.000000e+000 0.000000e+000 8.492145e-001 1.507855e-001
 0.000000e+000 0.000000e+000 0.000000e+000 0.000000e+000 0.000000e+000
<ENDHMM>
~h "p"
<BEGINHMM>
<NUMSTATES> 5
<STATE> 2
<MEAN> 25
 -4.059581e-001 2.544425e+000 -9.668829e-001 -1.247326e+000 -1.219062e-001 8.030875e-001 5.626310e-001 9.578002e-001 2.072470e-002 2.568625e+000 2.519637e+000 1.817719e-001 -9.139544e-001 -8.141974e-002 -2.890595e-001 2.103596e-001 -4.822988e-002 1.939673e-001 1.688747e-001 -9.390459e-002 4.066959e-002 1.435802e-001 2.468023e-001 1.508443e-001 -1.016931e+000
<VARIANCE> 25
 2.348819e+001 4.269833e+001 4.150944e+001 3.648368e+001 3.872332e+001 4.217070e+001 3.320301e+001 3.568632e+001 4.179482e+001 4.574285e+001 3.604165e+001 2.911496e+001 1.239391e+000 3.620667e+000 3.103250e+000 2.175522e+000 1.742906e+000 3.080066e+000 2.396161e+000 2.769515e+000 4.292626e+000 4.504540e+000 2.998485e+000 1.904949e+000 1.839369e+000
<GCONST> 1.014657e+002
<STATE> 3
<MEAN> 25
 -1.950491e+000 2.648575e+000 -2.092443e+000 -1.441058e-001 2.422859e-001 1.353722e+000 1.019846e+000 -3.262239e-001 6.126893e-002 2.504883e+000 1.729512e+000 1.703300e+000 -5.381247e-001 -1.094344e-001 -7.660615e-002 2.848907e-001 1.744334e-001 9.865674e-002 9.974195e-002 -2.205889e-001 2.714259e-002 1.619245e-001 -1.152023e-001 -4.937481e-002 -4.992562e-001
<VARIANCE> 25
 1.458751e+001 1.106924e+001 1.981652e+001 3.671653e+001 2.459106e+001 2.689264e+001 3.577431e+001 3.214443e+001 3.078118e+001 2.808224e+001 2.513577e+001 1.849553e+001 3.553726e-001 5.977919e-001 9.045968e-001 1.000641e+000 1.112131e+000 2.451838e+000 1.900638e+000 1.930342e+000 1.823474e+000 1.827340e+000 1.436060e+000 1.452049e+000 2.883557e-001
<GCONST> 8.541577e+001
<STATE> 4
<MEAN> 25
 -4.066462e+000 9.532614e-001 -1.915082e-001 2.458931e+000 1.548810e+000 2.926708e+000 3.455450e+000 1.225202e+000 3.219937e+000 3.038747e+000 1.211023e+000 3.910335e-001 -5.914730e-002 -4.462515e-003 -9.151832e-004 2.108348e-002 3.466834e-002 3.432477e-002 4.934457e-003 -2.948400e-002 -2.210861e-002 -8.117413e-003 1.540881e-002 1.633201e-002 -3.766615e-002
<VARIANCE> 25
 4.984441e+000 5.403719e+000 8.235445e+000 1.403615e+001 9.148764e+000 1.545087e+001 1.455573e+001 1.399427e+001 1.766850e+001 1.461864e+001 1.007166e+001 9.454718e+000 1.303413e-001 3.095677e-001 4.274084e-001 4.063998e-001 6.302060e-001 7.430907e-001 8.656670e-001 9.448175e-001 1.022853e+000 1.039136e+000 8.954722e-001 8.640585e-001 1.084149e-001
<GCONST> 6.603106e+001
<TRANSP> 5
 0.000000e+000 1.000000e+000 0.000000e+000 0.000000e+000 0.000000e+000
 0.000000e+000 5.467535e-001 4.532464e-001 0.000000e+000 0.000000e+000
 0.000000e+000 0.000000e+000 7.348855e-001 2.651146e-001 0.000000e+000
 0.000000e+000 0.000000e+000 0.000000e+000 9.335372e-001 6.646273e-002
 0.000000e+000 0.000000e+000 0.000000e+000 0.000000e+000 0.000000e+000
<ENDHMM>
~h "r"
<BEGINHMM>
<NUMSTATES> 5
<STATE> 2
<MEAN> 25
 6.226968e+000 -6.665045e+000 5.139269e-001 -5.299028e+000 -5.513995e+000 -5.110638e-001 -3.866950e+000 -6.324714e-002 -1.562876e+000 -1.249344e+000 9.888742e-001 1.216974e-001 -3.349104e-002 2.163331e-001 1.679023e-001 3.642693e-001 9.096100e-002 1.393369e-001 1.681862e-001 -3.850770e-001 -1.912831e-001 -2.490693e-001 6.023502e-002 3.201965e-001 -5.164225e-001
<VARIANCE> 25
 2.233436e+001 4.759816e+001 8.119352e+001 8.446207e+001 6.041844e+001 8.170896e+001 5.179064e+001 6.772092e+001 7.509150e+001 4.390411e+001 4.901049e+001 4.370015e+001 1.096767e+000 2.552684e+000 2.457625e+000 4.039271e+000 3.396797e+000 3.898151e+000 3.227203e+000 3.783910e+000 3.262443e+000 2.649979e+000 2.616850e+000 2.244155e+000 1.914327e+000
<GCONST> 1.071733e+002
<STATE> 3
<MEAN> 25
 4.394835e+000 5.121995e-001 -3.978753e+000 -2.841515e+000 -3.647300e-001 2.132563e+000 -6.333962e-001 -2.972675e+000 -2.692865e+000 -2.224630e+000 4.851581e-001 3.361939e+000 -6.764205e-001 7.221497e-001 -1.132262e-001 6.919162e-001 4.423259e-001 3.479240e-002 3.889026e-001 1.283611e-001 1.172925e-001 3.068098e-001 -2.131968e-001 -9.986142e-002 -1.299004e+000
<VARIANCE> 25
 2.414961e+001 2.112579e+001 4.105081e+001 5.451410e+001 5.652232e+001 7.064220e+001 4.591075e+001 3.262284e+001 4.069088e+001 3.152992e+001 3.542366e+001 3.028215e+001 6.733289e-001 1.363219e+000 2.109315e+000 1.980617e+000 2.098589e+000 2.783980e+000 3.088380e+000 2.190967e+000 2.890146e+000 2.502687e+000 2.271554e+000 1.856773e+000 1.163766e+000
<GCONST> 9.822469e+001
<STATE> 4
<MEAN> 25
 -2.580208e+000 1.605402e+000 -2.507211e+000 2.264787e+000 1.398110e+000 2.555492e+000 3.492605e+000 1.279393e+000 2.831051e+000 2.557865e+000 1.812904e+000 1.363879e+000 -2.045055e-001 3.403452e-002 5.294884e-002 9.520457e-002 7.099428e-002 6.940998e-002 1.043351e-001 8.367191e-002 1.221809e-001 1.301544e-001 3.246116e-002 -1.080881e-002 -2.092784e-001
<VARIANCE> 25
 1.464807e+001 8.215527e+000 1.580505e+001 3.748486e+001 1.767096e+001 1.853710e+001 2.142829e+001 1.922776e+001 2.541520e+001 2.034478e+001 1.627463e+001 1.230422e+001 2.533336e-001 3.661266e-001 5.537988e-001 7.006500e-001 9.005169e-001 1.006366e+000 1.358883e+000 1.342117e+000 1.434475e+000 1.468978e+000 1.206897e+000 1.007140e+000 2.319580e-001
<GCONST> 7.713929e+001
<TRANSP> 5
 0.000000e+000 1.000000e+000 0.000000e+000 0.000000e+000 0.000000e+000
 0.000000e+000 7.634403e-001 2.365597e-001 0.000000e+000 0.000000e+000
 0.000000e+000 0.000000e+000 7.371414e-001 2.628587e-001 0.000000e+000
 0.000000e+000 0.000000e+000 0.000000e+000 9.078197e-001 9.218030e-002
 0.000000e+000 0.000000e+000 0.000000e+000 0.000000e+000 0.000000e+000
<ENDHMM>
~h "s"
<BEGINHMM>
<NUMSTATES> 5
<STATE> 2
<MEAN> 25
 -5.039047e+000 1.998528e+000 -2.881332e-001 1.358508e-002 1.913226e+000 -6.161011e-001 4.694306e+000 -5.741659e-001 1.971755e+000 1.789666e+000 1.051543e+000 6.287743e-001 -1.837740e+000 1.053309e-002 1.427547e+000 -1.184402e-001 -3.408676e-001 4.008616e-001 1.217818e+000 -3.565732e-001 1.808923e-001 3.248273e-001 7.173236e-001 -1.025278e-001 5.638760e-001
<VARIANCE> 25
 7.120084e+001 1.289217e+002 9.071708e+001 8.674606e+001 6.535467e+001 4.792073e+001 8.453140e+001 4.843552e+001 8.146131e+001 4.725627e+001 3.856094e+001 3.052426e+001 6.338131e+000 1.194142e+001 1.081298e+001 6.847188e+000 6.319743e+000 4.129746e+000 7.593307e+000 4.163555e+000 4.025864e+000 4.128564e+000 3.996252e+000 2.374121e+000 3.358088e+000
<GCONST> 1.173543e+002
<STATE> 3
<MEAN> 25
 -1.153472e+001 -1.283357e+001 2.074721e+001 -6.124150e+000 -9.823771e+000 3.712000e+000 6.465101e+000 -3.482487e+000 -6.589766e+000 5.238433e-001 6.111840e+000 -1.909590e-001 -4.455833e-001 6.527957e-002 -2.963769e-001 -6.768889e-002 5.564876e-001 8.854469e-002 -5.732787e-002 4.570626e-002 4.482075e-001 3.473984e-002 -2.101433e-002 -1.512227e-003 3.782115e-002
<VARIANCE> 25
 6.430446e+001 1.258770e+002 1.460438e+002 4.585236e+001 9.292052e+001 1.005641e+002 4.087864e+001 4.111779e+001 5.668446e+001 6.175430e+001 2.902779e+001 3.210477e+001 6.494302e+000 4.200383e+000 7.240365e+000 3.048988e+000 2.550138e+000 2.956346e+000 2.776513e+000 2.699183e+000 2.488229e+000 2.577456e+000 2.333322e+000 1.787803e+000 1.533894e+000
<GCONST> 1.094720e+002
<STATE> 4
<MEAN> 25
 -1.495675e+001 2.545299e+000 3.642300e+000 -2.964637e+000 5.026951e+000 -6.061664e-002 6.940414e+000 5.378850e-001 1.480569e+000 3.751989e+000 2.835327e+000 9.972805e-001 2.258112e-001 -6.886572e-006 -9.860792e-002 1.032444e-001 -7.259572e-003 -3.939703e-002 -2.120033e-001 -1.071100e-001 2.563406e-002 -1.032393e-001 -1.490373e-001 1.043285e-002 -1.482176e-001
<VARIANCE> 25
 4.165947e+001 5.213079e+001 6.504600e+001 5.911109e+001 3.054041e+001 3.884579e+001 3.180052e+001 3.693197e+001 2.946912e+001 3.201745e+001 1.721756e+001 1.526571e+001 2.926151e+000 1.010064e+000 1.498228e+000 1.530316e+000 1.553181e+000 1.571432e+000 2.213514e+000 2.163136e+000 2.136413e+000 1.974236e+000 1.622720e+000 1.352384e+000 5.245464e-001
<GCONST> 9.440505e+001
<TRANSP> 5
 0.000000e+000 1.000000e+000 0.000000e+000 0.000000e+000 0.000000e+000
 0.000000e+000 7.227594e-001 2.772406e-001 0.000000e+000 0.000000e+000
 0.000000e+000 0.000000e+000 7.493049e-001 2.506951e-001 0.000000e+000
 0.000000e+000 0.000000e+000 0.000000e+000 8.893702e-001 1.106298e-001
 0.000000e+000 0.000000e+000 0.000000e+000 0.000000e+000 0.000000e+000
<ENDHMM>
~h "t"
<BEGINHMM>
<NUMSTATES> 5
<STATE> 2
<MEAN> 25
 -2.004996e+000 2.259497e+000 -1.201556e+000 -1.211067e-001 1.828396e+000 -1.651885e+000 1.670855e+000 -6.480041e-001 4.310612e+000 1.008043e+000 -5.546070e-001 5.037872e-001 1.240982e-001 -5.642497e-001 4.078931e-001 -1.032915e+000 2.192274e-001 -3.702022e-001 -6.708894e-001 -6.066336e-001 1.137913e-001 1.912028e-001 4.491014e-001 -4.089411e-001 1.854631e+000
<VARIANCE> 25
 2.822730e+001 2.442652e+001 2.190505e+001 5.649747e+001 3.395568e+001 4.342266e+001 6.382363e+001 4.333149e+001 5.271574e+001 3.886688e+001 3.650579e+001 3.457770e+001 4.762318e+000 4.195058e+000 3.328736e+000 1.014592e+001 5.070595e+000 5.021363e+000 1.041382e+001 5.435411e+000 6.885638e+000 4.647707e+000 5.115592e+000 4.744511e+000 1.565941e+001
<GCONST> 1.127843e+002
<STATE> 3
<MEAN> 25
 3.304535e-001 6.192845e-001 5.549194e-001 -3.060647e+000 -1.880847e-001 -9.716297e-001 -1.806506e+000 9.893396e-002 1.089926e+000 2.435659e+000 -6.336083e-001 -2.159401e+000 1.648076e-001 1.684682e-002 -2.565340e-001 -1.646298e-001 -3.000651e-001 2.600154e-001 -4.665246e-001 -1.363299e-001 -1.033304e+000 5.896614e-002 2.314383e-001 -7.446048e-002 -2.135882e-001
<VARIANCE> 25
 2.141351e+001 4.058226e+001 3.067898e+001 6.515543e+001 3.120009e+001 4.457751e+001 5.026190e+001 5.674799e+001 4.414534e+001 4.385180e+001 3.819580e+001 2.870289e+001 3.429500e+000 2.550505e+000 2.835124e+000 4.764419e+000 2.718876e+000 4.869961e+000 6.284821e+000 4.939717e+000 7.779136e+000 5.395110e+000 3.383562e+000 2.713643e+000 4.770492e+000
<GCONST> 1.083835e+002
<STATE> 4
<MEAN> 25
 -3.496165e+000 2.851986e+000 -2.197592e+000 2.903760e+000 1.089960e+000 2.096112e+000 2.200119e+000 6.176177e-001 1.084144e+000 1.971557e+000 4.388566e-001 1.179788e+000 -1.224304e-001 -2.133099e-002 2.032855e-002 5.973868e-002 -6.521127e-002 -3.565520e-002 6.617472e-002 -1.156085e-001 -2.513615e-001 -3.538129e-002 8.869044e-002 9.984578e-002 -7.352846e-002
<VARIANCE> 25
 1.410895e+001 1.251309e+001 1.753108e+001 5.498270e+001 1.682076e+001 2.642537e+001 3.439930e+001 2.727906e+001 3.653692e+001 2.587086e+001 1.945020e+001 1.581721e+001 6.127422e-001 8.309641e-001 1.003719e+000 1.353928e+000 1.187236e+000 2.203020e+000 2.301561e+000 2.169415e+000 2.774292e+000 2.319519e+000 1.612361e+000 1.512188e+000 8.755007e-001
<GCONST> 8.833430e+001
<TRANSP> 5
 0.000000e+000 1.000000e+000 0.000000e+000 0.000000e+000 0.000000e+000
 0.000000e+000 4.695217e-001 5.304783e-001 0.000000e+000 0.000000e+000
 0.000000e+000 0.000000e+000 2.615890e-001 7.384110e-001 0.000000e+000
 0.000000e+000 0.000000e+000 0.000000e+000 8.289275e-001 1.710726e-001
 0.000000e+000 0.000000e+000 0.000000e+000 0.000000e+000 0.000000e+000
<ENDHMM>
~h "u"
<BEGINHMM>
<NUMSTATES> 5
<STATE> 2
<MEAN> 25
 3.113934e+000 2.256979e+000 4.251497e+000 -1.197108e+000 -1.982014e+000 3.487890e-002 -4.920390e+000 -2.189841e+000 -3.274207e+000 -1.866894e+000 -4.070461e-001 -1.458402e+000 1.154362e+000 6.754614e-001 5.315914e-001 -7.064892e-001 -8.227939e-001 -8.792140e-002 -1.297689e+000 -1.651546e-001 -7.157667e-001 -9.786719e-001 -6.690335e-002 -1.311058e-001 1.098531e+000
<VARIANCE> 25
 3.353761e+001 4.834142e+001 4.505254e+001 8.580521e+001 5.783862e+001 5.369497e+001 7.448342e+001 5.653175e+001 7.124070e+001 9.391838e+001 4.524302e+001 3.083396e+001 2.601545e+000 6.346692e+000 4.123685e+000 7.050241e+000 4.098234e+000 7.750585e+000 6.605758e+000 5.493920e+000 6.638936e+000 5.974035e+000 4.576011e+000 3.481481e+000 3.277162e+000
<GCONST> 1.148927e+002
<STATE> 3
<MEAN> 25
 7.441129e+000 6.672270e+000 4.123120e+000 -6.053411e+000 -6.536959e+000 7.251279e-001 -9.555801e+000 -3.951514e-001 -6.011724e+000 -3.721366e+000 2.026471e+000 -1.572529e-001 7.611805e-002 2.180945e-001 -2.615699e-001 -1.354174e-001 -3.129804e-002 1.509665e-001 2.021198e-001 8.704185e-002 -7.469892e-002 2.139864e-002 7.665718e-002 2.025722e-001 -2.744983e-001
<VARIANCE> 25
 8.773523e+000 3.261465e+001 5.284819e+001 7.845939e+001 3.846480e+001 9.045235e+001 4.469436e+001 7.013132e+001 1.234702e+002 8.354688e+001 5.568232e+001 3.232023e+001 3.215905e-001 1.266985e+000 1.175992e+000 2.074183e+000 2.514050e+000 2.901578e+000 2.281613e+000 2.297324e+000 2.288112e+000 2.872007e+000 2.254368e+000 1.678685e+000 4.774476e-001
<GCONST> 9.898692e+001
<STATE> 4
<MEAN> 25
 5.595562e+000 5.979253e+000 1.131272e+000 -5.075327e+000 -4.212992e+000 6.319429e-002 -6.065112e+000 -4.259141e+000 -5.782989e+000 -4.610235e+000 6.934412e-001 -2.792530e-001 -3.020849e-001 -1.977507e-001 -1.832156e-001 5.287536e-001 3.183909e-001 1.402994e-002 3.330876e-001 -9.261739e-002 1.878604e-001 2.411968e-001 -1.152676e-001 -7.331946e-002 -3.441903e-001
<VARIANCE> 25
 1.730210e+001 2.392611e+001 2.422106e+001 8.149659e+001 3.117295e+001 4.205324e+001 5.511137e+001 3.510911e+001 4.996544e+001 4.108794e+001 4.081414e+001 2.304337e+001 3.085416e-001 5.862959e-001 6.559661e-001 1.594703e+000 1.380962e+000 1.554754e+000 1.641654e+000 1.573214e+000 1.643673e+000 1.744414e+000 1.515574e+000 1.228276e+000 4.746840e-001
<GCONST> 8.975805e+001
<TRANSP> 5
 0.000000e+000 1.000000e+000 0.000000e+000 0.000000e+000 0.000000e+000
 0.000000e+000 7.380072e-001 2.619928e-001 0.000000e+000 0.000000e+000
 0.000000e+000 0.000000e+000 8.181741e-001 1.818259e-001 0.000000e+000
 0.000000e+000 0.000000e+000 0.000000e+000 8.565828e-001 1.434171e-001
 0.000000e+000 0.000000e+000 0.000000e+000 0.000000e+000 0.000000e+000
<ENDHMM>
~h "w"
<BEGINHMM>
<NUMSTATES> 5
<STATE> 2
<MEAN> 25
 6.988877e+000 2.921697e+000 -7.166924e-001 -5.298333e+000 -9.312908e+000 -6.327307e+000 -1.215633e+000 5.040518e+000 6.393149e+000 -5.266422e+000 -4.486707e+000 1.116767e+000 -1.370519e-002 -1.605757e-002 -3.392176e-001 4.566030e-002 -4.117554e-002 -2.332332e-001 3.485727e-001 6.819151e-001 1.689492e-001 -4.353841e-002 -4.679893e-003 1.940718e-001 -1.262305e-001
<VARIANCE> 25
 6.420360e+000 7.982410e+001 2.918030e+001 2.852503e+001 3.281163e+001 6.576620e+001 3.374374e+001 2.883727e+001 8.236909e+001 1.459958e+001 2.034033e+001 1.882027e+001 4.696215e-001 3.917409e+000 2.880624e+000 1.016136e+000 2.552203e+000 3.340190e+000 2.285092e+000 3.893159e+000 3.511961e+000 1.847412e+000 1.364842e+000 1.662138e+000 9.130825e-001
<GCONST> 9.511800e+001
<STATE> 3
<MEAN> 25
 4.502578e+000 -2.249690e+000 -4.098731e+000 -4.460766e+000 -6.067565e+000 1.013079e+000 7.336467e+000 9.937119e+000 4.550700e+000 -3.119516e+000 2.032717e+000 4.144026e+000 -6.752117e-001 2.026348e-001 -1.930187e-001 8.719017e-002 6.527001e-001 6.378343e-001 1.078035e-001 -5.845407e-001 -4.982429e-001 9.462581e-001 6.113189e-001 9.541037e-003 -7.383396e-001
<VARIANCE> 25
 2.929289e+001 3.977350e+001 6.147392e+001 1.738243e+001 3.356200e+001 9.046838e+001 2.736211e+001 3.710509e+001 5.055260e+001 3.369936e+001 4.445627e+001 1.992875e+001 5.409902e-001 1.527007e+000 1.135169e+000 1.134404e+000 1.550341e+000 3.900941e+000 2.311655e+000 3.100797e+000 3.280994e+000 2.047405e+000 2.674017e+000 1.594471e+000 5.403179e-001
<GCONST> 9.572042e+001
<STATE> 4
<MEAN> 25
 -6.029965e+000 1.055269e+000 -1.315305e+000 2.850412e+000 2.626950e+000 -3.628426e-001 4.681880e+000 -3.151011e-001 3.327430e-001 4.596048e+000 2.598096e+000 1.250073e+000 -1.130892e-001 -7.753333e-002 -1.058291e-002 5.630584e-002 8.241590e-002 -6.127013e-002 -3.042153e-002 -4.751486e-002 -3.844296e-002 6.383853e-002 5.896439e-002 2.172536e-002 -5.397038e-002
<VARIANCE> 25
 1.256827e+001 1.842463e+001 2.307908e+001 2.694526e+001 1.607232e+001 3.265002e+001 3.220502e+001 1.464632e+001 3.398833e+001 1.333378e+001 2.021796e+001 9.365575e+000 8.380844e-002 3.612939e-001 4.389895e-001 4.538235e-001 6.043897e-001 1.293783e+000 1.172578e+000 1.179313e+000 1.429090e+000 1.042706e+000 1.025608e+000 9.582808e-001 8.030377e-002
<GCONST> 7.443085e+001
<TRANSP> 5
 0.000000e+000 1.000000e+000 0.000000e+000 0.000000e+000 0.000000e+000
 0.000000e+000 8.712031e-001 1.287969e-001 0.000000e+000 0.000000e+000
 0.000000e+000 0.000000e+000 8.141140e-001 1.858860e-001 0.000000e+000
 0.000000e+000 0.000000e+000 0.000000e+000 9.373751e-001 6.262493e-002
 0.000000e+000 0.000000e+000 0.000000e+000 0.000000e+000 0.000000e+000
<ENDHMM>
~h "y"
<BEGINHMM>
<NUMSTATES> 5
<STATE> 2
<MEAN> 25
 5.729537e+000 -6.424520e+000 -1.238379e+000 2.718337e+000 2.165613e+000 -7.260165e+000 -8.176444e+000 -5.010024e+000 -2.855544e+000 -1.202630e+000 4.704016e+000 1.453992e+000 -4.201379e-001 2.879564e-001 1.292102e+000 1.398960e+000 4.321041e-001 -7.601379e-001 -1.137664e+000 1.092580e-001 -1.016608e-002 -5.160095e-001 -3.534447e-001 -9.894650e-001 -2.194189e-001
<VARIANCE> 25
 6.282803e+000 2.127786e+001 3.073766e+001 7.802229e+001 4.648875e+001 2.849067e+001 4.780148e+001 4.610973e+001 2.427109e+001 3.414351e+001 4.103618e+001 3.470084e+001 2.062667e-001 5.961238e-001 1.097186e+000 1.463603e+000 2.109003e+000 1.637886e+000 2.159510e+000 1.703651e+000 1.883600e+000 2.664593e+000 3.089011e+000 2.063039e+000 2.620422e-001
<GCONST> 9.053889e+001
<STATE> 3
<MEAN> 25
 3.858927e+000 -4.550466e+000 4.562331e+000 8.092065e+000 2.609746e+000 -9.782158e+000 -1.097203e+001 -5.230741e+000 -3.621146e+000 -3.782185e+000 4.836623e-001 -2.545261e+000 2.517992e-001 -1.936249e-001 -7.379801e-001 -8.525220e-001 -5.262130e-001 9.064851e-002 5.362843e-001 -8.219225e-003 -2.704618e-001 5.633482e-001 6.907196e-001 7.531163e-001 1.902232e-001
<VARIANCE> 25
 7.109923e+000 3.344595e+001 4.629538e+001 8.358080e+001 5.019852e+001 3.166588e+001 4.279196e+001 5.461092e+001 2.046917e+001 3.091797e+001 5.704499e+001 2.895981e+001 4.447406e-001 7.979676e-001 3.314523e+000 2.476154e+000 2.099072e+000 2.885989e+000 4.021886e+000 2.499110e+000 1.619839e+000 2.705377e+000 3.122141e+000 1.982675e+000 5.744796e-001
<GCONST> 9.659138e+001
<STATE> 4
<MEAN> 25
 2.118404e+000 -3.556880e+000 1.252383e+001 -9.933383e+000 -1.025838e+001 -6.308524e+000 -4.312617e+000 1.663532e+000 -6.042336e+000 2.022913e-001 2.750953e-001 4.815839e-001 3.892490e-002 -5.429957e-003 -1.558972e-001 -7.496082e-002 -8.855332e-002 7.591350e-002 1.024282e-001 6.585590e-002 5.973097e-002 1.510689e-002 -1.648403e-001 -8.475444e-002 -4.987556e-002
<VARIANCE> 25
 1.157330e+001 5.263594e+001 7.916545e+001 2.528188e+001 4.408495e+001 2.784696e+001 3.830199e+001 8.123473e+001 2.809966e+001 2.540783e+001 5.284269e+001 1.841201e+001 4.198987e-001 2.693577e+000 2.853160e+000 1.117370e+000 4.407476e+000 1.768324e+000 2.743426e+000 4.406753e+000 2.252152e+000 2.230751e+000 3.168676e+000 1.317454e+000 8.561953e-001
<GCONST> 9.728368e+001
<TRANSP> 5
 0.000000e+000 1.000000e+000 0.000000e+000 0.000000e+000 0.000000e+000
 0.000000e+000 7.926574e-001 2.073426e-001 0.000000e+000 0.000000e+000
 0.000000e+000 0.000000e+000 8.578615e-001 1.421385e-001 0.000000e+000
 0.000000e+000 0.000000e+000 0.000000e+000 9.202408e-001 7.975924e-002
 0.000000e+000 0.000000e+000 0.000000e+000 0.000000e+000 0.000000e+000
<ENDHMM>
~h "z"
<BEGINHMM>
<NUMSTATES> 5
<STATE> 2
<MEAN> 25
 -5.770267e+000 -1.497333e+000 1.966095e+000 5.531280e+000 -7.592415e-001 -9.378735e-001 8.658861e+000 1.314878e+000 -1.592871e+000 4.699777e+000 -7.012517e-001 1.342696e+000 -5.127093e-002 1.615974e-001 1.040466e-001 2.984771e-001 1.558030e-002 -6.866451e-002 6.495900e-002 -2.243192e-002 -1.049183e-001 -1.263652e-001 7.821449e-002 -1.344614e-001 -1.549161e-001
<VARIANCE> 25
 3.413806e+000 8.968421e+000 3.306514e+001 3.052871e+001 1.132747e+001 1.301317e+001 4.003557e+001 1.939192e+001 2.792608e+001 3.888232e+001 2.809851e+001 1.488151e+001 1.547516e-001 3.824587e-001 8.540409e-001 8.830317e-001 1.111206e+000 1.195367e+000 1.634288e+000 2.238919e+000 2.326277e+000 2.980505e+000 2.296592e+000 1.103974e+000 8.807496e-002
<GCONST> 7.986836e+001
<STATE> 3
<MEAN> 25
 -3.916069e+000 5.032446e+000 3.553151e+000 5.118634e+000 5.492632e+000 2.639991e+000 -6.680912e-001 -5.368635e+000 -2.014093e+000 3.068190e-001 -1.856884e+000 -5.958650e-001 1.376215e-001 8.067883e-002 4.304751e-001 -1.595237e-001 5.219064e-001 -7.020406e-001 -1.923020e-001 -4.797816e-002 -1.090020e+000 6.441566e-001 1.720364e-002 6.778413e-002 2.204019e-001
<VARIANCE> 25
 2.796690e+000 5.487133e+000 3.408600e+001 2.548252e+001 1.635212e+001 2.774183e+001 1.998431e+001 3.356433e+001 2.616468e+001 2.619122e+001 8.736241e+000 2.323632e+001 4.078731e-001 6.007873e-001 5.873266e-001 1.255789e+000 5.945598e-001 9.152499e-001 2.598593e+000 4.640026e+000 1.623413e+000 1.210974e+000 1.003400e+000 1.912099e+000 1.190497e-001
<GCONST> 7.928320e+001
<STATE> 4
<MEAN> 25
 5.714741e+000 4.202075e+000 3.217790e+000 -5.224798e+000 -5.888110e+000 -1.734807e+000 -4.549479e+000 -2.746821e+000 -1.098403e+001 -4.199251e+000 4.250776e+000 -3.766304e+000 9.479021e-002 -6.430325e-003 1.724338e-002 -2.926833e-002 -1.359259e-001 -1.066941e-002 -1.280342e-001 -3.386145e-002 -6.654465e-002 -3.419057e-001 5.548318e-002 2.951590e-002 7.292326e-002
<VARIANCE> 25
 2.513215e+001 3.553392e+001 7.984991e+000 7.657549e+001 4.903612e+001 2.990195e+001 9.670766e+001 2.551187e+001 1.039330e+002 4.788305e+001 1.699273e+001 3.071408e+001 6.445082e-001 7.470737e-001 5.908803e-001 2.006931e+000 1.035431e+000 2.504621e+000 4.662527e+000 1.187102e+000 2.072996e+000 1.708032e+000 1.461859e+000 1.180540e+000 1.663433e+000
<GCONST> 9.345127e+001
<TRANSP> 5
 0.000000e+000 1.000000e+000 0.000000e+000 0.000000e+000 0.000000e+000
 0.000000e+000 9.676881e-001 3.231195e-002 0.000000e+000 0.000000e+000
 0.000000e+000 0.000000e+000 8.622290e-001 1.377710e-001 0.000000e+000
 0.000000e+000 0.000000e+000 0.000000e+000 9.594218e-001 4.057822e-002
 0.000000e+000 0.000000e+000 0.000000e+000 0.000000e+000 0.000000e+000
<ENDHMM>
~h "ai"
<BEGINHMM>
<NUMSTATES> 5
<STATE> 2
<MEAN> 25
 7.052696e+000 -3.985404e+000 8.712171e-001 -3.769735e+000 -2.632002e+000 1.325284e-001 -2.018452e+000 1.649822e+000 4.125760e+000 -3.411726e+000 -3.508132e+000 9.336334e-001 1.141798e-001 -1.413576e+000 -8.865023e-001 -9.152069e-001 8.009132e-001 -4.595933e-001 4.357261e-001 1.166640e+000 6.181445e-001 -4.695157e-001 6.369949e-001 2.267685e-001 1.203295e+000
<VARIANCE> 25
 1.742873e+001 8.651755e+001 4.893326e+001 7.642421e+001 7.878769e+001 6.468439e+001 9.163430e+001 8.546446e+001 1.457970e+002 1.056266e+002 5.436229e+001 3.818155e+001 1.462156e+000 3.365284e+000 4.641601e+000 5.197065e+000 6.937843e+000 5.451132e+000 5.448218e+000 6.732147e+000 4.719544e+000 5.284908e+000 4.452717e+000 3.631417e+000 1.389060e+000
<GCONST> 1.146144e+002
<STATE> 3
<MEAN> 25
 5.728291e+000 -1.000275e+001 4.027322e-001 -1.643901e+000 3.495987e+000 -6.226287e+000 -1.072032e+000 3.259296e+000 -3.168469e-001 -3.465813e+000 1.724413e+000 -1.792614e+000 -2.903052e-001 2.979074e-001 8.875899e-001 6.662086e-001 -1.410954e-001 -2.592141e-001 -2.066524e-001 -3.156874e-002 -4.241404e-001 2.069531e-001 9.900676e-002 -2.693012e-001 -4.141754e-001
<VARIANCE> 25
 9.164889e+000 2.228233e+001 9.670649e+001 1.759949e+002 8.208050e+001 3.726015e+001 4.948278e+001 3.110977e+001 4.244517e+001 2.741975e+001 6.016338e+001 2.950886e+001 3.337519e-001 7.610294e-001 1.468527e+000 1.439136e+000 2.743314e+000 2.045999e+000 2.320773e+000 1.764337e+000 2.463354e+000 1.910083e+000 2.113985e+000 1.402533e+000 2.762679e-001
<GCONST> 9.477597e+001
<STATE> 4
<MEAN> 25
 -9.597110e-001 4.239499e-001 9.354223e+000 2.079137e+000 -3.178734e+000 -2.514204e+000 -1.455090e+000 4.070093e-001 -4.834399e+000 1.932778e+000 1.891018e+000 -1.780700e+000 -4.034400e-001 7.383124e-001 -9.261282e-001 3.551381e-001 1.249717e-001 7.817186e-001 2.597446e-001 -3.752680e-001 4.017613e-001 2.666627e-001 -3.104818e-001 2.721770e-001 -1.394273e+000
<VARIANCE> 25
 1.099528e+001 1.950858e+001 8.508453e+001 1.272334e+002 1.283791e+002 4.289273e+001 6.203778e+001 4.065057e+001 4.598320e+001 4.340945e+001 3.655885e+001 2.102571e+001 2.830366e-001 1.235547e+000 2.561399e+000 3.900457e+000 2.250360e+000 1.829568e+000 2.293098e+000 2.267077e+000 2.296315e+000 2.430725e+000 1.907832e+000 1.758808e+000 1.128505e+000
<GCONST> 9.866052e+001
<TRANSP> 5
 0.000000e+000 1.000000e+000 0.000000e+000 0.000000e+000 0.000000e+000
 0.000000e+000 8.365546e-001 1.634454e-001 0.000000e+000 0.000000e+000
 0.000000e+000 0.000000e+000 9.245641e-001 7.543588e-002 0.000000e+000
 0.000000e+000 0.000000e+000 0.000000e+000 8.695608e-001 1.304391e-001
 0.000000e+000 0.000000e+000 0.000000e+000 0.000000e+000 0.000000e+000
<ENDHMM>
~h "au"
<BEGINHMM>
<NUMSTATES> 5
<STATE> 2
<MEAN> 25
 6.501496e+000 -3.181439e+000 -8.445405e+000 -5.336308e+000 -5.864522e+000 -4.971695e+000 3.761112e+000 7.561096e+000 -2.196303e+000 -8.165196e+000 -1.442918e+000 4.181870e+000 1.653897e-001 -3.921452e-001 -4.201184e-001 -1.206284e-002 -3.383155e-001 -4.262948e-001 5.044726e-001 1.029218e+000 1.631556e-001 -4.621648e-001 -3.710678e-002 1.196144e-001 1.587048e-001
<VARIANCE> 25
 3.808221e+000 1.150105e+001 1.419514e+001 1.729523e+001 2.310375e+001 3.024045e+001 2.364328e+001 2.934207e+001 9.446188e+000 2.548905e+001 1.636205e+001 4.490531e+000 1.062013e-001 7.946916e-001 1.054941e+000 5.394717e-001 4.757332e-001 6.740893e-001 1.601591e+000 1.498590e+000 7.103319e-001 9.168657e-001 1.433690e+000 6.967029e-001 1.372785e-001
<GCONST> 7.238856e+001
<STATE> 3
<MEAN> 25
 5.015483e+000 4.791952e-001 -2.864991e+000 -4.984566e+000 -1.078034e+001 -9.457411e+000 3.049508e+000 1.050086e+001 1.236959e+000 -6.477880e+000 -2.501185e+000 2.091003e-001 -3.849241e-001 9.409673e-001 1.017506e+000 -3.798182e-002 2.358899e-002 3.932394e-001 -8.626640e-001 -1.327617e+000 1.605007e-001 8.500715e-001 1.229365e-001 -5.660102e-001 -4.799515e-001
<VARIANCE> 25
 8.597885e+000 1.673017e+001 2.360791e+001 1.941710e+001 1.606606e+001 2.365924e+001 3.175128e+001 5.289511e+001 8.489513e+000 2.809086e+001 1.460529e+001 1.496591e+001 2.160028e-001 3.165724e-001 4.488408e-001 7.466435e-001 1.968448e+000 1.668061e+000 1.090366e+000 2.014288e+000 1.224545e+000 1.444483e+000 1.856168e+000 1.030413e+000 6.021153e-002
<GCONST> 7.788020e+001
<STATE> 4
<MEAN> 25
 8.789540e+000 5.308843e+000 9.434801e-001 -4.447611e+000 -7.169264e+000 -4.215768e+000 -3.885533e+000 8.475219e+000 5.288056e+000 -8.845664e+000 6.100490e-001 6.031075e+000 -5.281972e-001 5.366302e-001 2.090411e-001 3.723087e-001 1.262197e-001 -8.310429e-002 2.521435e-001 -2.243441e-001 2.226410e-001 5.769831e-001 8.684665e-002 -1.282686e-001 -9.225649e-001
<VARIANCE> 25
 2.833007e+001 9.703879e+001 8.028615e+001 4.547920e+001 1.523142e+001 3.058388e+001 3.962480e+001 3.411161e+001 9.450375e+001 7.617795e+001 3.745898e+001 2.636584e+001 6.383086e-001 1.559602e+000 1.023466e+000 2.770536e+000 1.534817e+000 1.712883e+000 2.504086e+000 1.614271e+000 2.527905e+000 4.011351e+000 1.230760e+000 9.921051e-001 8.612848e-001
<GCONST> 9.696679e+001
<TRANSP> 5
 0.000000e+000 1.000000e+000 0.000000e+000 0.000000e+000 0.000000e+000
 0.000000e+000 8.948535e-001 1.051464e-001 0.000000e+000 0.000000e+000
 0.000000e+000 0.000000e+000 8.604854e-001 1.395147e-001 0.000000e+000
 0.000000e+000 0.000000e+000 0.000000e+000 8.631567e-001 1.368433e-001
 0.000000e+000 0.000000e+000 0.000000e+000 0.000000e+000 0.000000e+000
<ENDHMM>
~h "ng"
<BEGINHMM>
<NUMSTATES> 5
<STATE> 2
<MEAN> 25
 6.187634e+000 -4.966114e+000 -7.652723e-001 -5.092086e+000 2.102340e+000 8.687000e-001 1.910871e+000 1.312256e+000 3.405179e+000 -2.690761e+000 -3.000046e-001 -2.164022e+000 -1.191101e-001 9.875507e-001 2.195928e-001 8.661647e-001 2.114995e-001 5.226009e-001 -2.386906e-001 -3.008633e-001 -4.503755e-001 3.891626e-001 -6.591027e-002 -2.623038e-001 -8.887633e-001
<VARIANCE> 25
 1.626074e+001 5.218353e+001 2.181362e+001 1.189186e+002 7.569812e+001 2.273031e+001 4.199439e+001 5.163749e+001 4.836052e+001 2.993699e+001 2.277211e+001 1.928367e+001 3.300466e-001 1.329994e+000 1.301738e+000 1.643699e+000 4.655076e+000 1.703521e+000 1.884479e+000 1.719588e+000 2.679403e+000 1.663531e+000 2.213936e+000 1.628126e+000 5.933269e-001
<GCONST> 9.448466e+001
<STATE> 3
<MEAN> 25
 3.681867e+000 4.798420e+000 8.739610e-001 3.662195e+000 3.433293e+000 3.586322e+000 3.601611e+000 2.207952e+000 9.617932e-001 -2.550077e-001 -1.775440e+000 -3.306835e+000 -5.587689e-001 9.386501e-001 7.327650e-001 5.241588e-001 3.574411e-001 4.188652e-001 1.267684e-001 -2.732624e-001 -9.472460e-002 3.172837e-001 6.748000e-002 1.326542e-001 -8.548329e-001
<VARIANCE> 25
 1.377448e+001 2.788928e+001 2.129980e+001 5.031002e+001 5.722705e+001 2.516860e+001 4.527205e+001 4.563614e+001 2.365090e+001 3.888141e+001 3.007955e+001 3.829161e+001 4.270140e-001 6.849747e-001 1.019196e+000 1.287445e+000 1.867262e+000 1.901881e+000 2.148551e+000 2.068427e+000 1.405434e+000 1.467282e+000 1.192121e+000 2.166634e+000 3.671538e-001
<GCONST> 9.012585e+001
<STATE> 4
<MEAN> 25
 -1.978823e+000 4.969612e+000 3.623451e-001 4.049334e+000 4.232889e+000 3.590635e+000 3.446836e+000 1.136060e+000 8.704884e-001 2.904040e+000 -3.193566e-001 1.168197e-002 -3.519654e-001 -2.047619e-001 -1.823588e-001 -1.786385e-001 -1.083317e-001 -1.713021e-001 -6.380424e-002 -1.394284e-001 -6.441639e-002 2.308408e-001 6.237789e-002 1.621147e-001 -2.326216e-001
<VARIANCE> 25
 1.710439e+001 2.212570e+001 2.300304e+001 3.275938e+001 3.448116e+001 2.343846e+001 3.239231e+001 2.974824e+001 3.064969e+001 3.270650e+001 1.921137e+001 2.160497e+001 2.494035e-001 4.893471e-001 6.623844e-001 9.066472e-001 1.181769e+000 1.406810e+000 1.612325e+000 1.612896e+000 1.441279e+000 1.533802e+000 1.280306e+000 1.163129e+000 2.085864e-001
<GCONST> 8.348678e+001
<TRANSP> 5
 0.000000e+000 1.000000e+000 0.000000e+000 0.000000e+000 0.000000e+000
 0.000000e+000 7.338745e-001 2.661256e-001 0.000000e+000 0.000000e+000
 0.000000e+000 0.000000e+000 6.827999e-001 3.172000e-001 0.000000e+000
 0.000000e+000 0.000000e+000 0.000000e+000 8.901876e-001 1.098124e-001
 0.000000e+000 0.000000e+000 0.000000e+000 0.000000e+000 0.000000e+000
<ENDHMM>
~h "ny"
<BEGINHMM>
<NUMSTATES> 5
<STATE> 2
<MEAN> 25
 -2.249022e+000 -1.225435e+000 1.092432e+000 2.528599e+000 -4.171517e-001 -1.198922e+000 1.779201e+000 -1.401706e+000 8.446348e-001 2.590530e+000 2.358171e+000 -1.338530e+000 -2.576568e-001 3.035468e-001 4.594822e-002 4.814269e-001 -8.146141e-001 -3.697204e-002 9.146162e-001 -9.736279e-001 -7.331800e-004 8.991867e-001 1.021518e+000 -1.142879e-002 -4.325202e-001
<VARIANCE> 25
 6.204131e+001 3.239879e+001 2.835172e+001 2.534057e+001 5.149511e+001 2.865860e+001 5.243235e+001 3.840839e+001 4.286668e+001 2.597517e+001 1.793183e+001 2.687910e+001 1.588349e+000 1.831371e+000 1.310724e+000 1.146023e+000 1.906302e+000 2.112180e+000 3.976088e+000 6.092182e-001 1.606062e+000 2.316275e+000 3.526479e+000 2.814661e+000 1.629030e+000
<GCONST> 9.607696e+001
<STATE> 3
<MEAN> 25
 1.818848e+000 9.426132e-001 -1.686395e+000 -4.614072e-001 -7.989415e-001 -3.487340e+000 4.012781e+000 -3.075059e+000 -3.488475e+000 2.477023e-001 2.049104e+000 -1.545240e+000 2.498089e-002 2.463433e-001 5.462888e-002 -3.124639e-002 -2.386566e-001 2.601993e-001 6.496508e-001 2.909798e-001 2.215529e-001 -2.482067e-001 -2.858638e-001 -2.076875e-001 -5.143716e-001
<VARIANCE> 25
 3.820303e+001 2.572439e+001 1.617980e+001 3.078451e+001 3.678884e+001 1.306062e+001 3.654852e+001 3.136991e+001 2.669819e+001 1.342709e+001 1.452604e+001 1.753525e+001 2.555594e-001 3.920445e-001 5.710384e-001 9.027727e-001 1.040758e+000 9.052364e-001 1.494647e+000 8.768429e-001 1.014700e+000 1.371680e+000 1.251047e+000 7.989857e-001 2.454032e-001
<GCONST> 7.986230e+001
<STATE> 4
<MEAN> 25
 -3.764303e+000 1.878098e+000 -1.835724e+000 3.778698e+000 1.974095e+000 1.898743e+000 4.750704e+000 2.386808e+000 3.753534e+000 1.081696e+000 1.303171e+000 7.505719e-001 1.433229e-002 5.228077e-002 8.199982e-002 1.911266e-001 1.824306e-001 1.632498e-001 -2.821560e-002 8.363489e-002 -6.112000e-002 -3.330160e-002 -3.389896e-002 -4.426286e-002 -6.428175e-002
<VARIANCE> 25
 5.937438e+000 8.205479e+000 6.147402e+000 1.740817e+001 1.564157e+001 1.229442e+001 1.733802e+001 1.337643e+001 1.078897e+001 1.171674e+001 9.926463e+000 1.459055e+001 1.447573e-001 2.350522e-001 3.975424e-001 5.188891e-001 5.679567e-001 4.868048e-001 9.312762e-001 8.569660e-001 8.817933e-001 9.872068e-001 7.141319e-001 9.482420e-001 7.724329e-002
<GCONST> 6.546695e+001
<TRANSP> 5
 0.000000e+000 1.000000e+000 0.000000e+000 0.000000e+000 0.000000e+000
 0.000000e+000 4.536071e-001 5.463928e-001 0.000000e+000 0.000000e+000
 0.000000e+000 0.000000e+000 8.035552e-001 1.964448e-001 0.000000e+000
 0.000000e+000 0.000000e+000 0.000000e+000 9.487544e-001 5.124557e-002
 0.000000e+000 0.000000e+000 0.000000e+000 0.000000e+000 0.000000e+000
<ENDHMM>
~h "oi"
<BEGINHMM>
<NUMSTATES> 5
<STATE> 2
<MEAN> 25
 -1.123357e+000 9.354144e-001 5.963669e+000 -4.850089e+000 -5.711822e+000 5.593465e+000 1.599603e+000 -6.797223e+000 -7.486724e-001 8.285007e+000 7.666216e-001 -1.279728e+000 -5.211543e-001 9.921644e-002 -8.257787e-001 6.149895e-001 8.303646e-001 1.906063e-001 1.121332e+000 7.365531e-001 4.391349e-001 -1.407348e-001 -3.178077e-001 7.290041e-002 -7.484885e-001
<VARIANCE> 25
 1.351191e+001 5.296143e+000 4.561269e+001 5.137279e+001 2.271383e+001 1.306065e+001 3.880424e+001 2.287042e+001 3.681352e+001 2.691240e+001 1.340446e+001 8.023357e+000 4.516459e-001 5.830441e-001 7.834563e-001 9.287646e-001 1.818100e+000 1.363185e+000 9.068894e-001 1.162228e+000 2.479959e+000 1.800142e+000 1.698509e+000 7.862239e-001 1.724708e-001
<GCONST> 8.136987e+001
<STATE> 3
<MEAN> 25
 -1.058801e+001 4.899556e+000 -6.254797e+000 -1.794958e+000 3.461908e+000 -4.286874e+000 -4.927502e+000 -6.735038e+000 -7.949142e+000 4.581926e+000 -3.952369e+000 -2.373816e-001 -6.099164e-002 4.794281e-002 2.818493e-002 -3.973036e-002 -2.670441e-002 -1.179138e-001 -9.637698e-003 -5.998414e-002 -1.137163e-001 -1.450572e-002 -3.771870e-002 6.496020e-002 -4.265367e-002
<VARIANCE> 25
 2.905157e+000 2.020583e+000 3.105206e+000 5.974481e+000 6.182338e+000 6.656272e+000 1.523873e+001 1.074435e+001 6.396723e+000 6.850025e+000 7.413046e+000 6.281366e+000 1.010337e-001 1.819830e-001 2.875852e-001 4.738935e-001 6.361065e-001 6.936362e-001 7.849011e-001 1.392045e+000 4.984248e-001 4.503835e-001 6.350438e-001 5.925806e-001 2.134210e-002
<GCONST> 5.403659e+001
<STATE> 4
<MEAN> 25
 -2.574741e+000 4.034686e+000 -7.973008e+000 9.768239e+000 3.288715e-001 1.427803e+000 4.517583e+000 1.118733e+000 7.581575e-001 -2.979176e+000 -1.286665e+000 4.797930e+000 8.638826e-003 8.192609e-003 -2.320201e-002 4.980858e-002 6.701570e-003 1.872528e-003 5.581326e-002 5.358088e-002 -1.751938e-002 2.065744e-002 -4.862118e-002 1.915219e-002 -1.653312e-002
<VARIANCE> 25
 2.392028e+000 3.499200e+000 6.871542e+000 1.395201e+001 1.252890e+001 1.764709e+001 1.888968e+001 2.095875e+001 1.444481e+001 2.222357e+001 1.352655e+001 1.349823e+001 1.921133e-001 3.811596e-001 5.974072e-001 1.122147e+000 1.484972e+000 1.898675e+000 2.568607e+000 2.697779e+000 1.246542e+000 2.128871e+000 1.385036e+000 1.849327e+000 6.191586e-002
<GCONST> 7.408585e+001
<TRANSP> 5
 0.000000e+000 1.000000e+000 0.000000e+000 0.000000e+000 0.000000e+000
 0.000000e+000 8.501469e-001 1.498531e-001 0.000000e+000 0.000000e+000
 0.000000e+000 0.000000e+000 9.412434e-001 5.875654e-002 0.000000e+000
 0.000000e+000 0.000000e+000 0.000000e+000 9.768414e-001 2.315862e-002
 0.000000e+000 0.000000e+000 0.000000e+000 0.000000e+000 0.000000e+000
<ENDHMM>
~h "sp"
<BEGINHMM>
<NUMSTATES> 3
<STATE> 2
~s "silst"
<TRANSP> 3
 0.000000e+000 1.947889e-001 8.052111e-001
 0.000000e+000 8.156543e-001 1.843457e-001
 0.000000e+000 0.000000e+000 0.000000e+000
<ENDHMM>
~h "sy"
<BEGINHMM>
<NUMSTATES> 5
<STATE> 2
<MEAN> 25
 -3.370627e-002 -1.104955e+001 8.794770e+000 4.497611e+000 1.332745e+000 9.088894e-001 6.534334e+000 6.999521e+000 -7.951300e-001 -3.446751e+000 6.008292e+000 1.219354e-002 -1.590929e+000 -1.779712e+000 1.469224e+000 7.900719e-002 6.642333e-002 3.104708e-001 -3.605100e-002 1.683276e-001 3.916383e-001 2.459889e-002 2.665625e-001 9.099088e-001 2.702697e-001
<VARIANCE> 25
 5.788261e+001 5.608194e+001 2.371501e+002 3.965976e+001 1.804355e+001 1.487564e+001 4.150341e+001 4.139385e+001 2.624242e+001 1.001645e+001 5.138039e+001 1.821395e+001 3.044265e+000 2.904248e+000 1.054077e+001 7.408968e-001 1.384469e+000 2.061255e+000 2.346203e+000 1.673463e+000 1.267441e+000 1.375187e+000 4.064688e+000 1.885340e+000 3.287792e-001
<GCONST> 9.676644e+001
<STATE> 3
<MEAN> 25
 -6.019002e+000 -6.788824e+000 8.924095e+000 4.164654e-001 1.849028e+000 -1.353139e+000 1.334174e+000 -5.095661e-001 1.743045e+000 -4.249168e+000 5.966937e+000 3.598859e+000 1.174105e+000 3.923266e-001 -1.051024e+000 -2.484379e-001 -8.277701e-001 -6.966740e-001 -3.148972e-001 -3.685988e-001 -2.172143e-001 3.829985e-002 3.406048e-001 4.198645e-002 2.866232e-001
<VARIANCE> 25
 8.658002e+001 5.194532e+001 8.581449e+001 4.900235e+001 5.928714e+001 4.979047e+001 2.780838e+001 3.465284e+001 5.369135e+001 1.061078e+001 8.758786e+000 7.697350e+000 4.989747e+000 2.969010e+000 4.179042e+000 1.280541e+000 3.797074e+000 3.492702e+000 3.575951e+000 3.516397e+000 2.065198e+000 1.024055e+000 1.129396e+000 1.430759e+000 3.228507e-001
<GCONST> 9.770711e+001
<STATE> 4
<MEAN> 25
 3.322392e+000 -9.730116e+000 -3.949538e+000 2.983196e+000 -1.885057e+000 -5.930798e+000 2.499549e+000 5.639098e+000 -2.231569e+000 -2.152612e+000 2.765442e+000 -4.724973e-001 -3.150038e-001 -1.286048e-001 3.128824e-001 5.178622e-001 4.125628e-001 9.067672e-002 8.641439e-002 1.536052e-001 7.929946e-002 1.180327e-001 -1.665476e-001 -1.729306e-001 -1.776873e-001
<VARIANCE> 25
 3.890863e+001 2.968837e+001 4.056903e+001 1.020425e+002 5.759883e+001 2.875596e+001 3.021572e+001 3.130297e+001 2.509285e+001 3.609277e+001 1.703990e+001 1.579496e+001 3.879289e-001 1.253780e+000 1.363768e+000 1.471297e+000 1.505237e+000 1.342049e+000 1.322446e+000 1.872868e+000 1.079701e+000 1.244983e+000 8.184209e-001 1.242531e+000 9.551937e-002
<GCONST> 8.754552e+001
<TRANSP> 5
 0.000000e+000 1.000000e+000 0.000000e+000 0.000000e+000 0.000000e+000
 0.000000e+000 7.666841e-001 2.333160e-001 0.000000e+000 0.000000e+000
 0.000000e+000 0.000000e+000 8.725548e-001 1.274452e-001 0.000000e+000
 0.000000e+000 0.000000e+000 0.000000e+000 9.385152e-001 6.148471e-002
 0.000000e+000 0.000000e+000 0.000000e+000 0.000000e+000 0.000000e+000
<ENDHMM>
~h "sil"
<BEGINHMM>
<NUMSTATES> 5
<STATE> 2
<MEAN> 25
 -7.290789e+000 5.608646e+000 -5.542044e+000 -2.942352e+000 3.244460e-001 -3.120716e+000 -4.327032e+000 -4.173950e+000 -5.677736e+000 4.352969e+000 -3.066720e+000 2.361585e-001 1.279195e-001 -6.686534e-002 1.010215e-002 -1.564316e-002 -1.893782e-002 9.245257e-002 -2.831939e-002 -1.696854e-002 8.560976e-002 6.640531e-003 3.736239e-002 5.571847e-002 1.323104e-001
<VARIANCE> 25
 2.792791e+001 1.795645e+001 1.330272e+001 3.605160e+001 2.644027e+001 3.611423e+001 2.179030e+001 3.165727e+001 2.301692e+001 1.693144e+001 1.675625e+001 1.099353e+001 2.860909e-001 2.407008e-001 4.640641e-001 5.992680e-001 7.357238e-001 1.046926e+000 1.067190e+000 1.043951e+000 1.105882e+000 1.090587e+000 9.979336e-001 8.460541e-001 1.977669e-001
<GCONST> 7.720594e+001
<STATE> 3
~s "silst"
<STATE> 4
<MEAN> 25
 -4.370179e+000 2.069883e+000 -1.284206e+000 5.272312e+000 2.210554e+000 3.523043e+000 4.142873e+000 1.404093e+000 3.103772e+000 1.958667e+000 1.346663e+000 1.497733e+000 -3.231016e-002 1.268130e-002 9.310402e-003 6.705285e-003 -4.339383e-003 1.329556e-002 3.112266e-003 -2.325696e-003 3.323970e-002 -4.550812e-003 1.226906e-002 5.283283e-003 -3.705866e-002
<VARIANCE> 25
 2.990716e+000 8.367640e+000 1.132864e+001 3.375126e+001 1.204329e+001 2.048337e+001 1.614150e+001 1.483953e+001 2.133542e+001 2.574584e+001 1.383271e+001 1.247595e+001 1.271347e-001 2.698699e-001 4.431826e-001 6.392320e-001 8.519174e-001 9.855877e-001 1.219634e+000 1.179578e+000 1.299309e+000 1.406367e+000 1.184525e+000 9.968546e-001 8.891858e-002
<GCONST> 7.146379e+001
<TRANSP> 5
 0.000000e+000 1.000000e+000 0.000000e+000 0.000000e+000 0.000000e+000
 0.000000e+000 8.595457e-001 4.567090e-002 9.478341e-002 0.000000e+000
 0.000000e+000 0.000000e+000 8.969544e-001 1.030456e-001 0.000000e+000
 0.000000e+000 1.224431e-002 0.000000e+000 9.633839e-001 2.437188e-002
 0.000000e+000 0.000000e+000 0.000000e+000 0.000000e+000 0.000000e+000
<ENDHMM>
