~o
<STREAMINFO> 1 39
<VECSIZE> 39<NULLD><MFCC_D_A_0><DIAGC>
~s "silst"
<MEAN> 39
 -7.876647e+000 -2.744521e+000 -1.701805e+000 -2.324417e+000 -2.974170e+000 1.340284e+000 -6.124042e+000 3.808059e+000 1.415964e+000 5.696155e-001 -1.277553e+000 1.215554e-001 5.457958e+001 2.859324e-001 -3.763421e-001 5.445723e-002 -6.992616e-001 -1.149857e-001 -1.987232e-001 -4.687144e-001 -7.279366e-002 -2.183628e-002 -3.142035e-001 -8.301494e-002 -1.105482e-001 1.076928e+000 2.502691e-002 -1.489477e-002 -3.591986e-002 -4.921014e-002 -5.036558e-002 3.146070e-002 -6.788177e-003 1.782469e-003 -1.350908e-002 -1.074481e-002 -2.124241e-002 -3.857329e-002 4.435001e-002
<VARIANCE> 39
 5.304852e+001 4.728324e+001 4.605432e+001 7.874087e+001 6.032388e+001 6.613085e+001 9.373988e+001 6.363434e+001 4.323585e+001 4.268436e+001 4.484286e+001 2.526972e+001 1.888950e+002 3.447963e+000 3.840027e+000 3.368559e+000 6.419935e+000 4.226415e+000 4.031805e+000 6.173679e+000 3.752679e+000 3.244042e+000 3.178479e+000 3.326265e+000 2.307048e+000 9.864827e+000 4.799643e-001 6.368577e-001 5.509855e-001 1.023956e+000 7.328348e-001 7.227778e-001 1.004845e+000 5.835012e-001 5.339673e-001 5.812148e-001 5.384743e-001 4.486353e-001 1.556391e+000
<GCONST> 1.377003e+002
~h "@"
<BEGINHMM>
<NUMSTATES> 5
<STATE> 2
<MEAN> 39
 -1.069368e+001 -9.704782e-001 -1.946459e+000 3.780076e+000 -1.597587e+000 1.936840e+000 -2.219040e-001 -7.083253e-001 3.319766e+000 -4.403515e-001 9.619511e-001 1.395398e+000 5.800756e+001 1.117863e-001 -2.801667e-001 -9.702072e-002 -1.438051e-001 5.903959e-002 -8.135698e-002 1.327701e-001 3.912340e-002 -8.156220e-002 -1.270571e-001 6.536755e-002 1.596580e-001 4.329774e-001 2.640651e-001 -2.883554e-001 1.698364e-002 -1.716774e-001 -1.265935e-001 -4.860007e-002 -1.387375e-001 5.780484e-002 -4.101247e-002 -2.079425e-001 -5.054402e-002 5.693456e-002 4.158540e-001
<VARIANCE> 39
 9.094471e+001 5.800095e+001 3.618655e+001 9.190993e+001 1.084787e+002 1.052576e+002 6.999417e+001 5.611139e+001 4.844039e+001 3.770033e+001 3.952588e+001 3.153579e+001 1.887634e+002 2.022152e+000 2.707089e+000 2.032733e+000 2.779110e+000 2.545762e+000 3.013697e+000 3.519317e+000 2.435416e+000 2.426596e+000 2.685501e+000 1.938864e+000 1.589747e+000 3.790416e+000 4.133246e-001 4.291911e-001 3.984689e-001 5.816947e-001 4.266934e-001 5.950617e-001 6.571082e-001 5.547239e-001 4.873022e-001 5.441215e-001 4.164454e-001 3.065754e-001 6.393699e-001
<GCONST> 1.284005e+002
<STATE> 3
<MEAN> 39
 -1.905605e-001 -1.054903e+001 -1.530252e+000 7.034650e+000 -7.343747e+000 5.997946e+000 -3.317117e+000 2.148787e+000 5.614720e+000 -7.291524e+000 1.681981e-001 3.086161e+000 6.988166e+001 1.155262e+000 -5.046056e-001 -5.642464e-002 -4.658346e-001 -5.497021e-002 -2.822178e-001 -6.095379e-001 6.050009e-001 2.043564e-001 -1.008996e+000 -2.837462e-001 5.778407e-003 1.630104e+000 6.364227e-002 2.018726e-001 -2.407954e-002 -4.976068e-002 -4.399023e-002 -3.193127e-002 -1.569761e-001 -6.228591e-002 -6.735551e-002 6.026330e-002 -7.532753e-002 -1.168200e-001 -1.320148e-001
<VARIANCE> 39
 1.158509e+002 9.786214e+001 7.799687e+001 1.800841e+002 1.246078e+002 2.115565e+002 9.842894e+001 1.105328e+002 7.420065e+001 9.652444e+001 6.692064e+001 6.550131e+001 1.065123e+002 4.163160e+000 6.389046e+000 4.594023e+000 7.339656e+000 5.447843e+000 8.685781e+000 7.310008e+000 8.180578e+000 4.436668e+000 6.806081e+000 4.850402e+000 3.510839e+000 7.665030e+000 5.961803e-001 8.774144e-001 8.325692e-001 8.582788e-001 8.844946e-001 1.407852e+000 1.149294e+000 1.155667e+000 7.413828e-001 9.588187e-001 6.722811e-001 5.988722e-001 7.415950e-001
<GCONST> 1.529631e+002
<STATE> 4
<MEAN> 39
 -4.685755e+000 -5.497273e+000 1.538762e+000 -4.368500e+000 1.199003e+000 -5.463534e+000 -4.704136e+000 -4.165292e+000 2.524697e+000 -7.110757e+000 8.028783e-001 -2.804175e+000 7.204278e+001 8.006272e-001 -8.384466e-003 -8.879282e-002 -2.519226e-001 -5.331904e-001 9.182590e-002 -4.201408e-001 -3.982216e-001 -6.268476e-001 -1.645896e-001 -3.494303e-001 -2.561719e-001 3.931774e-001 -2.961032e-001 1.373795e-002 -1.268445e-003 1.494231e-001 8.216800e-002 1.690582e-001 3.723961e-001 -1.209152e-001 -6.527217e-002 1.916521e-001 1.522675e-001 5.361868e-002 -2.872737e-001
<VARIANCE> 39
 7.826332e+001 5.560342e+001 1.160175e+002 1.340699e+002 1.786628e+002 1.264426e+002 1.670498e+002 1.795018e+002 1.004516e+002 9.489210e+001 7.808970e+001 6.136114e+001 1.095587e+002 3.125936e+000 3.119337e+000 3.325830e+000 3.710253e+000 4.322474e+000 4.090820e+000 5.342353e+000 4.900955e+000 4.246037e+000 3.624496e+000 2.880588e+000 2.341464e+000 4.720735e+000 5.418079e-001 5.871887e-001 6.327692e-001 7.193905e-001 5.304077e-001 5.797175e-001 9.387391e-001 8.556266e-001 6.059870e-001 6.083578e-001 5.493687e-001 4.736025e-001 4.844051e-001
<GCONST> 1.430974e+002
<TRANSP> 5
 0.000000e+000 1.000000e+000 0.000000e+000 0.000000e+000 0.000000e+000
 0.000000e+000 5.647014e-001 4.352985e-001 0.000000e+000 0.000000e+000
 0.000000e+000 0.000000e+000 7.125642e-001 2.874359e-001 0.000000e+000
 0.000000e+000 0.000000e+000 0.000000e+000 4.063011e-001 5.936989e-001
 0.000000e+000 0.000000e+000 0.000000e+000 0.000000e+000 0.000000e+000
<ENDHMM>
~h "a"
<BEGINHMM>
<NUMSTATES> 5
<STATE> 2
<MEAN> 39
 -6.696985e+000 -4.690723e+000 -1.547681e+000 -4.129611e+000 -1.532868e+000 -2.476653e+000 -3.395907e+000 -1.030811e+000 1.469484e+000 -3.436844e+000 4.993536e-001 -1.530701e+000 6.577946e+001 6.359823e-001 -6.909093e-001 -3.334412e-001 -6.265647e-001 -1.860256e-001 -4.322066e-001 -3.245319e-001 1.352660e-001 -2.076807e-001 -3.886362e-001 -3.142536e-001 -1.480002e-001 1.099668e+000 3.291779e-002 -6.489483e-002 -2.192534e-002 7.723242e-003 -4.474115e-002 1.159039e-002 -2.868048e-003 9.318510e-002 -2.657734e-002 -1.346239e-002 -2.778227e-002 5.158325e-002 2.607541e-002
<VARIANCE> 39
 5.963644e+001 6.269293e+001 5.409948e+001 1.264766e+002 1.206717e+002 1.288241e+002 1.145949e+002 1.082990e+002 7.560292e+001 5.927921e+001 7.230462e+001 4.051665e+001 1.948246e+002 2.479068e+000 2.570282e+000 2.520899e+000 3.974768e+000 3.129884e+000 3.220340e+000 3.549603e+000 4.217494e+000 3.564151e+000 3.059656e+000 3.488804e+000 2.592556e+000 4.109661e+000 3.500788e-001 3.963485e-001 3.873017e-001 5.733501e-001 5.363619e-001 6.089028e-001 5.945734e-001 6.704670e-001 5.850482e-001 5.130016e-001 6.022578e-001 4.445908e-001 5.142649e-001
<GCONST> 1.359479e+002
<STATE> 3
<MEAN> 39
 -3.398494e+000 -9.685765e+000 -2.854499e+000 -6.099517e+000 -4.476171e+000 -2.962314e+000 -5.392497e+000 5.803485e-001 2.659136e+000 -6.082837e+000 -2.435803e+000 -1.648555e+000 7.069047e+001 -1.127810e-001 2.825544e-001 -1.879840e-001 4.262533e-001 -1.200262e-001 1.671221e-001 8.383822e-002 6.620675e-002 -1.680259e-001 6.921300e-002 -8.869798e-002 7.211403e-002 -5.890880e-001 -1.118341e-001 1.375171e-001 6.615171e-002 1.483174e-001 2.627894e-002 8.587281e-002 6.434680e-002 -6.296711e-002 -3.031983e-002 4.698430e-002 5.505386e-002 2.402061e-002 -1.625911e-001
<VARIANCE> 39
 8.079487e+001 6.589727e+001 5.451176e+001 1.834124e+002 1.444085e+002 1.746366e+002 1.219647e+002 1.058165e+002 1.023267e+002 5.195997e+001 8.674043e+001 7.623532e+001 1.486938e+002 8.042021e-001 2.316300e+000 1.721855e+000 2.536376e+000 2.565085e+000 2.481010e+000 2.824849e+000 3.174761e+000 2.112169e+000 2.090786e+000 2.525332e+000 1.733839e+000 2.085443e+000 1.317963e-001 2.679729e-001 2.761853e-001 3.415170e-001 3.885812e-001 4.575605e-001 5.268677e-001 5.279447e-001 4.255245e-001 3.759060e-001 4.196326e-001 3.370704e-001 1.731716e-001
<GCONST> 1.270297e+002
<STATE> 4
<MEAN> 39
 -5.847957e+000 -5.511085e+000 -4.561123e+000 -3.702389e+000 -3.599062e+000 -6.324441e-001 -6.000986e+000 4.304261e+000 5.316965e-001 -2.399193e+000 -4.362354e+000 -2.119601e+000 5.883843e+001 -2.062016e-001 2.963248e-001 2.125385e-003 3.807005e-001 2.870071e-002 1.078949e-001 1.633613e-001 -6.596459e-002 -2.567796e-002 3.416604e-002 1.315706e-001 1.454540e-001 -4.951637e-001 -1.803081e-002 2.424315e-002 6.518389e-002 2.356392e-003 2.273845e-002 1.137247e-002 3.915251e-003 -4.708704e-002 -6.414225e-003 -4.585279e-003 4.851607e-002 1.512056e-003 -3.230259e-004
<VARIANCE> 39
 5.475743e+001 5.038627e+001 3.822352e+001 9.605589e+001 6.249574e+001 8.228822e+001 7.899600e+001 8.682938e+001 4.940874e+001 4.277209e+001 6.619118e+001 3.337539e+001 2.184299e+002 4.899999e-001 1.329709e+000 1.180019e+000 1.731147e+000 1.513049e+000 1.705458e+000 2.060164e+000 1.946133e+000 1.741434e+000 1.689303e+000 1.853192e+000 1.403838e+000 1.249169e+000 8.612914e-002 2.017359e-001 1.754342e-001 2.934233e-001 2.792068e-001 3.044510e-001 3.709863e-001 3.691607e-001 3.237689e-001 3.120480e-001 3.249438e-001 2.402381e-001 1.577742e-001
<GCONST> 1.126482e+002
<TRANSP> 5
 0.000000e+000 1.000000e+000 0.000000e+000 0.000000e+000 0.000000e+000
 0.000000e+000 5.170037e-001 4.829963e-001 0.000000e+000 0.000000e+000
 0.000000e+000 0.000000e+000 4.640516e-001 5.359484e-001 0.000000e+000
 0.000000e+000 0.000000e+000 0.000000e+000 7.093777e-001 2.906223e-001
 0.000000e+000 0.000000e+000 0.000000e+000 0.000000e+000 0.000000e+000
<ENDHMM>
~h "b"
<BEGINHMM>
<NUMSTATES> 5
<STATE> 2
<MEAN> 39
 -7.317997e+000 -1.657028e+000 -2.761964e+000 -8.985628e-002 -2.185704e+000 -4.430864e+000 -4.707477e+000 -1.008296e-001 -8.538713e-001 -5.269112e+000 2.468366e+000 3.529541e-001 6.934903e+001 -2.716130e-001 7.549797e-002 4.313705e-002 1.208205e-001 9.837394e-002 3.366394e-001 3.520025e-001 4.999340e-002 1.850967e-001 2.904559e-001 5.189067e-002 -4.470425e-002 -3.168802e-001 3.335435e-004 7.239989e-003 4.982125e-002 8.708840e-003 3.137121e-002 4.513852e-002 -7.994388e-003 -3.777721e-003 1.461841e-002 3.233359e-002 -2.827853e-002 -4.715731e-002 1.795628e-002
<VARIANCE> 39
 4.732050e+001 2.843520e+001 5.571452e+001 1.078023e+002 8.149803e+001 1.761389e+002 8.512471e+001 7.473657e+001 6.917220e+001 4.946616e+001 5.723980e+001 3.327987e+001 2.271015e+002 2.920786e-001 6.890675e-001 1.012840e+000 1.155025e+000 1.287548e+000 1.808192e+000 1.671138e+000 1.477928e+000 1.612105e+000 1.965615e+000 1.621363e+000 1.242355e+000 3.033592e-001 2.796678e-002 1.126715e-001 1.397762e-001 1.432296e-001 2.008735e-001 2.524152e-001 2.797522e-001 2.767248e-001 2.868018e-001 3.263517e-001 2.791268e-001 2.081639e-001 3.051821e-002
<GCONST> 1.040764e+002
<STATE> 3
<MEAN> 39
 -1.028553e+001 -4.732526e-002 -4.320096e+000 4.533011e+000 -1.730998e+000 5.332501e+000 -4.017417e-001 4.776291e+000 3.213913e+000 7.465130e-001 1.641814e+000 1.119677e+000 5.179389e+001 -1.413785e-001 5.409474e-002 3.617691e-002 6.452758e-002 2.125510e-002 6.693003e-002 1.374083e-001 -5.318167e-004 5.905460e-002 1.001727e-001 7.517885e-002 5.316763e-003 -1.372146e-001 1.686882e-002 -5.033784e-003 1.289808e-002 -2.600549e-003 -2.821098e-003 -2.278771e-002 -2.233086e-002 -5.738014e-003 -8.901994e-004 -1.560041e-002 -3.075929e-002 -4.914933e-003 2.354144e-002
<VARIANCE> 39
 3.182536e+001 1.635298e+001 1.649129e+001 3.429234e+001 3.098408e+001 5.753784e+001 4.249988e+001 4.752574e+001 2.763178e+001 2.922355e+001 2.191338e+001 2.116378e+001 2.237821e+002 1.439606e-001 3.293741e-001 4.799108e-001 6.724010e-001 7.258656e-001 9.311312e-001 1.094283e+000 1.096298e+000 1.108584e+000 1.229022e+000 1.086728e+000 9.498783e-001 1.320606e-001 1.897250e-002 5.582508e-002 8.385882e-002 1.121070e-001 1.479162e-001 1.666900e-001 2.006119e-001 2.099418e-001 2.118991e-001 2.521467e-001 2.165339e-001 1.915473e-001 1.478695e-002
<GCONST> 8.282406e+001
<STATE> 4
<MEAN> 39
 -9.249893e+000 -5.023889e+000 5.314073e+000 -1.010019e+001 1.499111e+001 -1.125024e+001 1.417408e+001 -1.134742e+001 1.319397e+001 -7.040301e+000 1.127871e+001 -3.135858e+000 7.036275e+001 -8.640755e-002 6.654928e-002 3.775382e-002 4.639223e-002 4.260570e-002 4.470520e-002 3.571491e-002 3.488506e-002 5.617534e-002 -1.939615e-002 -5.935567e-002 -2.808748e-002 -1.403718e-001 1.679442e-002 -1.020307e-002 7.359431e-003 -4.353286e-003 -3.854558e-003 -1.679900e-002 -3.217538e-002 -2.738507e-002 -3.523974e-002 -1.650077e-002 -1.253174e-002 -4.664108e-003 3.425220e-002
<VARIANCE> 39
 2.860619e+001 1.331327e+001 2.577890e+001 4.891320e+001 6.393780e+001 5.254071e+001 5.300491e+001 3.951115e+001 4.143346e+001 1.824631e+001 2.866286e+001 1.537726e+001 7.087240e+001 2.285064e-001 3.889932e-001 4.463468e-001 5.966265e-001 7.332512e-001 9.095908e-001 8.829705e-001 9.619308e-001 1.059644e+000 9.393975e-001 9.076048e-001 8.786469e-001 2.487173e-001 3.711541e-002 6.957102e-002 8.861784e-002 1.124277e-001 1.347385e-001 1.615136e-001 1.723064e-001 1.938161e-001 2.163839e-001 1.918012e-001 1.859945e-001 1.730245e-001 3.822868e-002
<GCONST> 8.389149e+001
<TRANSP> 5
 0.000000e+000 1.000000e+000 0.000000e+000 0.000000e+000 0.000000e+000
 0.000000e+000 5.768926e-001 4.231074e-001 0.000000e+000 0.000000e+000
 0.000000e+000 0.000000e+000 8.813311e-001 1.186689e-001 0.000000e+000
 0.000000e+000 0.000000e+000 0.000000e+000 8.723173e-001 1.276827e-001
 0.000000e+000 0.000000e+000 0.000000e+000 0.000000e+000 0.000000e+000
<ENDHMM>
~h "c"
<BEGINHMM>
<NUMSTATES> 5
<STATE> 2
<MEAN> 39
 -1.529837e+001 4.517057e-001 -6.011603e+000 4.180860e+000 -6.495144e+000 -6.382898e+000 -8.876246e+000 -4.687913e+000 -8.025338e+000 -8.305176e+000 -3.950539e+000 -2.381397e+000 4.396959e+001 -5.527753e-002 3.621937e-002 -1.732405e-001 2.594790e-002 6.778961e-002 1.019385e-001 1.027483e-001 1.440990e-001 7.112537e-002 1.468084e-001 3.138278e-001 2.645455e-001 -1.416209e-001 2.313983e-002 -1.864444e-002 4.188110e-002 -1.050833e-002 -3.641820e-002 -5.030542e-002 -2.416704e-003 -7.047486e-002 -2.540397e-002 6.690041e-002 -5.106082e-002 -4.145961e-002 8.636899e-002
<VARIANCE> 39
 1.263160e+001 5.233381e+000 1.428540e+001 2.815067e+001 2.354977e+001 3.601565e+001 3.321328e+001 2.535821e+001 2.687416e+001 2.384832e+001 1.858611e+001 1.409833e+001 1.672733e+002 3.932683e-001 3.866400e-001 7.626902e-001 1.236799e+000 1.598149e+000 1.132565e+000 2.333386e+000 2.725666e+000 1.347568e+000 2.293302e+000 1.591172e+000 1.372891e+000 2.679060e-001 7.827814e-002 6.937163e-002 1.210617e-001 2.513874e-001 2.702159e-001 1.922466e-001 5.155970e-001 5.635839e-001 2.721994e-001 5.488709e-001 3.188038e-001 2.889663e-001 3.635769e-002
<GCONST> 9.308796e+001
<STATE> 3
<MEAN> 39
 -1.060845e+001 -9.759437e-001 -4.756894e+000 2.746424e+000 -4.625051e+000 1.507256e+000 -6.444451e+000 -4.572254e+000 -3.809802e+000 -3.177669e+000 1.122028e+000 7.282091e-001 6.028683e+001 1.417841e-001 9.512074e-002 -6.452285e-002 -5.233557e-001 -4.777679e-001 -5.193003e-001 -6.969311e-001 -3.058353e-001 -4.374221e-001 -7.146680e-002 -1.553270e-001 -3.832355e-001 2.656907e-001 -3.022254e-002 -9.207015e-002 -8.637568e-002 -1.769451e-001 -2.712417e-001 -3.566880e-001 1.113705e-001 3.920496e-001 1.149817e-001 -1.960694e-001 -1.955426e-001 -1.611283e-001 8.528139e-002
<VARIANCE> 39
 6.384051e+001 5.228154e+000 2.832677e+001 5.809678e+001 4.344272e+001 1.258097e+002 4.562091e+001 3.518750e+001 3.145475e+001 3.424458e+001 1.693614e+001 2.161873e+001 2.539628e+002 7.516993e-001 3.291259e-001 4.789007e-001 1.428755e+000 1.932802e+000 1.812703e+000 2.178978e+000 2.418833e+000 3.321395e+000 3.216231e+000 1.541785e+000 1.268316e+000 2.039594e-001 8.282187e-002 6.837130e-002 1.146976e-001 1.478290e-001 3.118843e-001 1.999868e-001 2.622310e-001 2.839560e-001 3.928973e-001 3.987679e-001 2.832507e-001 3.412456e-001 7.816564e-002
<GCONST> 1.005300e+002
<STATE> 4
<MEAN> 39
 -1.234817e+001 -7.177200e+000 -4.744470e+000 -1.311091e+001 -3.739856e+000 -8.684650e+000 -1.075079e+001 -7.530490e+000 -3.968277e+000 -3.797492e+000 -3.051621e+000 -9.912065e+000 6.893850e+001 -1.691621e-001 2.146384e-001 -9.580770e-002 -4.478782e-001 -1.370285e-002 -2.223941e-001 3.590185e-001 1.306207e-001 2.403985e-001 -3.887763e-002 -1.427295e-001 -1.683240e-001 8.213916e-001 -3.964628e-002 3.276414e-002 5.574368e-003 7.442378e-002 5.699803e-002 -1.542149e-002 9.210811e-002 1.089373e-001 4.213198e-002 -2.685985e-002 3.702239e-002 1.399965e-001 -5.093285e-003
<VARIANCE> 39
 6.972623e+001 1.255315e+002 5.695690e+001 1.573378e+002 6.555762e+001 4.269099e+001 8.310252e+001 8.184722e+001 5.177954e+001 2.812522e+001 2.142674e+001 2.880788e+001 1.690559e+002 3.404682e+000 5.410270e+000 3.344593e+000 7.286172e+000 4.864793e+000 1.795311e+000 2.332904e+000 7.330446e+000 3.477645e+000 2.802766e+000 1.742178e+000 2.033611e+000 6.415571e+000 4.953382e-001 5.371026e-001 6.271384e-001 7.203308e-001 8.040090e-001 4.084365e-001 2.912191e-001 1.256929e+000 6.540290e-001 3.936082e-001 3.693736e-001 2.998917e-001 4.884104e-001
<GCONST> 1.334586e+002
<TRANSP> 5
 0.000000e+000 1.000000e+000 0.000000e+000 0.000000e+000 0.000000e+000
 0.000000e+000 8.797210e-001 1.202790e-001 0.000000e+000 0.000000e+000
 0.000000e+000 0.000000e+000 4.823605e-001 5.176395e-001 0.000000e+000
 0.000000e+000 0.000000e+000 0.000000e+000 8.372660e-001 1.627341e-001
 0.000000e+000 0.000000e+000 0.000000e+000 0.000000e+000 0.000000e+000
<ENDHMM>
~h "d"
<BEGINHMM>
<NUMSTATES> 5
<STATE> 2
<MEAN> 39
 -5.116326e+000 -3.818547e+000 -2.194545e+000 1.329657e+000 -3.305102e+000 -8.121470e-001 -3.134139e+000 3.030586e+000 -4.581255e-001 -6.501263e+000 -2.349758e+000 -1.229149e+000 6.613744e+001 -4.519924e-001 3.245243e-001 1.738877e-002 1.497095e-001 2.412186e-001 5.276467e-001 4.861414e-002 -2.932243e-001 1.265128e-001 4.214997e-001 9.390876e-002 -8.605921e-002 -7.550340e-001 -1.716197e-003 -5.327006e-002 -3.577037e-002 -5.913105e-002 -7.749576e-003 8.592064e-003 -4.020238e-002 -5.736034e-002 1.551393e-002 4.897291e-002 6.565407e-002 3.741877e-002 2.469168e-002
<VARIANCE> 39
 4.700967e+001 3.312622e+001 4.889644e+001 8.252933e+001 8.270321e+001 1.632236e+002 7.694073e+001 8.739754e+001 6.999509e+001 3.941651e+001 4.706494e+001 3.296594e+001 1.692805e+002 5.538108e-001 8.399181e-001 1.396094e+000 1.050536e+000 1.156070e+000 2.190964e+000 1.459005e+000 2.679840e+000 1.730042e+000 1.604657e+000 1.286680e+000 1.391815e+000 3.991196e-001 4.675428e-002 9.451208e-002 2.228699e-001 1.615801e-001 1.978113e-001 3.739834e-001 2.998965e-001 4.914021e-001 2.960238e-001 3.114679e-001 2.943738e-001 2.922279e-001 5.333872e-002
<GCONST> 1.076189e+002
<STATE> 3
<MEAN> 39
 -4.526552e+000 -3.139564e+000 -4.022650e+000 2.247747e+000 -6.483569e+000 6.479351e+000 -8.067147e+000 -2.487611e+000 5.838050e-001 -2.449009e+000 8.434529e-001 1.719008e+000 5.752971e+001 -2.445981e-001 1.514843e-001 -1.455004e-001 -4.969864e-002 6.848669e-002 -7.210867e-003 2.725896e-002 -8.501358e-002 -2.167567e-002 1.465773e-001 6.923822e-002 7.871224e-002 -3.725850e-001 2.326187e-002 -1.750266e-003 3.461330e-002 -4.556106e-003 -4.404767e-003 -1.140826e-002 5.351919e-002 5.443634e-002 3.830837e-002 -3.184550e-002 -2.718543e-002 -4.179072e-002 3.573297e-002
<VARIANCE> 39
 3.469631e+001 3.085175e+001 3.018164e+001 7.580386e+001 6.091711e+001 9.457265e+001 8.123421e+001 5.337757e+001 3.523024e+001 2.700275e+001 4.363581e+001 3.476781e+001 9.997058e+001 2.678647e-001 5.405481e-001 6.112202e-001 1.112200e+000 1.124518e+000 1.209447e+000 1.491612e+000 1.519699e+000 1.316520e+000 1.144069e+000 1.233003e+000 1.029241e+000 1.851779e-001 2.535723e-002 7.472476e-002 9.490434e-002 1.437095e-001 1.293967e-001 1.443593e-001 1.898135e-001 2.470187e-001 2.272225e-001 2.145358e-001 2.184171e-001 1.832301e-001 1.646248e-002
<GCONST> 9.202827e+001
<STATE> 4
<MEAN> 39
 -1.184478e+001 4.202976e-001 -2.763206e+000 2.831541e+000 -5.195791e-001 1.260060e-001 2.864385e-001 3.026530e+000 2.178230e+000 -7.815493e-001 1.741505e-001 -9.475576e-001 6.039701e+001 -1.101731e-001 6.334748e-002 6.661659e-002 3.572591e-002 3.012525e-002 5.780168e-002 5.881931e-002 -1.763125e-002 7.033676e-002 9.042238e-002 6.361223e-002 8.994589e-004 -1.289696e-001 2.637992e-002 -1.708380e-002 7.886255e-003 -6.186960e-004 -1.515889e-002 -3.812431e-002 -2.997952e-002 -2.528490e-002 -4.739899e-002 -4.103152e-002 6.434445e-003 6.393498e-003 3.543860e-002
<VARIANCE> 39
 2.867178e+001 1.060191e+001 1.587501e+001 2.344772e+001 1.988673e+001 4.682883e+001 3.041378e+001 3.256511e+001 3.289861e+001 2.941955e+001 2.226165e+001 1.454290e+001 2.146592e+002 2.006306e-001 3.895129e-001 4.563484e-001 5.183102e-001 7.892901e-001 1.037876e+000 1.200286e+000 1.110361e+000 1.314631e+000 1.297900e+000 1.161610e+000 9.275302e-001 1.375691e-001 2.940182e-002 7.304461e-002 8.174476e-002 1.040752e-001 1.522783e-001 1.956740e-001 2.394686e-001 2.218186e-001 2.378354e-001 2.395926e-001 2.014194e-001 1.784487e-001 1.951675e-002
<GCONST> 8.230864e+001
<TRANSP> 5
 0.000000e+000 1.000000e+000 0.000000e+000 0.000000e+000 0.000000e+000
 0.000000e+000 5.268822e-001 4.731178e-001 0.000000e+000 0.000000e+000
 0.000000e+000 0.000000e+000 7.000743e-001 2.999257e-001 0.000000e+000
 0.000000e+000 0.000000e+000 0.000000e+000 9.025282e-001 9.747182e-002
 0.000000e+000 0.000000e+000 0.000000e+000 0.000000e+000 0.000000e+000
<ENDHMM>
~h "e"
<BEGINHMM>
<NUMSTATES> 5
<STATE> 2
<MEAN> 39
 -9.277452e+000 -3.002983e+000 -4.327320e+000 2.071080e+000 -1.120498e+000 -8.457163e+000 -1.947254e+000 -1.933939e+000 -3.039162e+000 -7.518596e+000 1.583183e+000 -2.826823e+000 7.376064e+001 -2.193282e-002 -9.563889e-002 7.647133e-002 4.626316e-001 -2.335295e-003 -4.166244e-001 -2.776301e-001 -3.800003e-001 -5.261006e-001 4.456723e-002 -5.830419e-002 -1.486256e-001 -5.073502e-002 -4.695479e-003 -5.425275e-002 -6.393562e-002 -1.176708e-001 -5.797418e-002 8.427282e-002 -4.156837e-002 -2.348059e-002 3.599978e-002 1.174026e-001 1.609617e-001 8.680423e-002 7.220083e-004
<VARIANCE> 39
 5.042081e+001 5.782217e+001 6.115821e+001 7.216961e+001 6.172752e+001 1.042601e+002 6.856161e+001 6.587587e+001 4.987866e+001 3.738627e+001 7.613168e+001 4.953404e+001 2.221050e+002 7.200775e-001 1.851434e+000 2.085127e+000 8.246825e-001 5.067642e-001 3.418523e+000 1.976739e+000 2.169445e+000 2.489813e+000 3.278323e+000 2.365530e+000 2.502814e+000 6.586177e-001 4.383793e-002 2.832329e-001 2.366167e-001 1.388910e-001 9.748282e-002 4.037901e-001 1.878056e-001 2.821630e-001 3.364217e-001 4.120689e-001 3.009942e-001 3.913609e-001 5.751060e-002
<GCONST> 1.117500e+002
<STATE> 3
<MEAN> 39
 -1.289758e+001 -9.180428e-001 -4.798577e+000 -2.892680e-001 -2.676819e+000 -9.381536e+000 -3.887803e-001 1.006001e+000 -2.469496e+000 -7.153664e+000 1.696258e+000 -3.400319e-001 7.848510e+001 -3.347529e-002 5.739963e-002 5.496293e-002 1.858626e-002 2.024539e-002 6.369326e-002 -3.489653e-003 -3.502759e-002 2.973206e-002 5.252451e-002 -3.450910e-002 -3.619558e-002 -5.028944e-002 -3.053182e-003 1.602431e-002 1.685637e-002 -7.803169e-003 7.744903e-004 2.656780e-002 3.653588e-003 -1.813616e-003 8.252033e-003 -1.016855e-002 -8.731703e-003 -9.159061e-003 -4.249294e-003
<VARIANCE> 39
 3.318968e+001 2.502086e+001 3.618856e+001 3.321893e+001 3.705706e+001 9.659446e+001 4.980305e+001 3.699602e+001 4.465227e+001 5.812795e+001 2.908009e+001 1.983405e+001 4.444521e+001 4.689857e-001 7.475541e-001 8.824741e-001 9.211403e-001 1.152019e+000 2.461098e+000 1.439871e+000 1.725874e+000 1.714646e+000 1.993457e+000 1.356376e+000 1.312807e+000 2.648016e-001 4.536581e-002 1.105516e-001 1.035404e-001 1.277093e-001 1.747471e-001 3.364295e-001 2.533177e-001 2.935509e-001 2.770063e-001 3.202367e-001 2.179015e-001 2.109631e-001 2.630886e-002
<GCONST> 9.618684e+001
<STATE> 4
<MEAN> 39
 -1.625897e+001 -3.498857e-001 -6.301157e+000 3.172510e+000 -4.331516e+000 -7.591282e+000 -7.729584e+000 -4.614292e+000 -8.204259e+000 -6.842100e+000 -4.308940e+000 -3.539515e+000 4.303062e+001 -4.643974e-002 1.278141e-003 -5.055246e-003 -7.810346e-003 -2.045031e-002 8.970116e-002 7.082742e-002 1.593491e-002 6.414382e-002 6.363826e-002 7.748385e-002 3.658361e-002 -6.922267e-002 9.333577e-003 -1.801248e-004 3.907163e-003 8.186348e-004 -4.614341e-003 -1.821173e-002 -1.096459e-002 3.967993e-003 1.074351e-002 -2.228902e-002 1.040772e-002 8.234961e-004 1.482434e-002
<VARIANCE> 39
 1.048844e+001 9.593617e+000 1.189143e+001 1.751505e+001 2.441236e+001 2.470224e+001 3.398249e+001 2.226041e+001 3.492317e+001 2.435850e+001 2.353241e+001 1.214315e+001 1.504073e+002 1.750431e-001 4.206718e-001 7.708216e-001 1.442529e+000 1.716051e+000 1.588687e+000 2.390541e+000 1.740604e+000 2.111200e+000 2.032854e+000 1.882338e+000 1.333382e+000 7.696705e-002 3.306371e-002 8.425984e-002 1.496445e-001 2.997584e-001 3.689274e-001 3.430113e-001 5.044894e-001 3.437931e-001 4.444319e-001 4.241712e-001 3.888137e-001 2.675048e-001 1.629672e-002
<GCONST> 9.095618e+001
<TRANSP> 5
 0.000000e+000 1.000000e+000 0.000000e+000 0.000000e+000 0.000000e+000
 0.000000e+000 5.601017e-001 4.398983e-001 0.000000e+000 0.000000e+000
 0.000000e+000 0.000000e+000 9.429582e-001 5.704182e-002 0.000000e+000
 0.000000e+000 0.000000e+000 0.000000e+000 9.445218e-001 5.547824e-002
 0.000000e+000 0.000000e+000 0.000000e+000 0.000000e+000 0.000000e+000
<ENDHMM>
~h "f"
<BEGINHMM>
<NUMSTATES> 5
<STATE> 2
<MEAN> 39
 -2.067495e+001 2.681614e-001 -5.255331e+000 7.480316e-001 -1.463280e+000 -8.781864e+000 -4.434826e+000 -4.221397e+000 -6.009902e+000 -2.758764e+000 -5.952877e+000 -3.615854e+000 5.510983e+001 3.169632e-001 -1.839166e-002 2.603620e-001 8.039454e-001 -8.319250e-001 -2.200815e-001 -4.808961e-001 -1.701192e-001 -1.390517e-001 -2.428953e-001 -2.488111e-001 1.603868e-001 -4.565821e-001 1.575195e-001 -1.909641e-001 5.693902e-002 3.800099e-003 -8.323456e-002 1.540648e-001 -1.929841e-001 1.237141e-001 5.324898e-002 -2.487997e-001 1.193988e-001 -9.162851e-002 4.384159e-002
<VARIANCE> 39
 5.671741e+001 1.282202e+001 3.334089e+001 3.111999e+001 3.571557e+001 3.324615e+001 4.457167e+001 4.398917e+001 3.922948e+001 2.490729e+001 2.891968e+001 5.775216e+001 1.205980e+002 4.114120e+000 1.307755e+000 2.340612e+000 3.081062e+000 5.845418e+000 1.700274e+000 3.897016e+000 2.632357e+000 4.636162e+000 2.545807e+000 2.300448e+000 4.080976e+000 2.733769e+000 2.911412e-001 1.289504e-001 3.282435e-001 2.848202e-001 6.133966e-001 2.955825e-001 4.086335e-001 4.740165e-001 7.759745e-001 4.401522e-001 3.762702e-001 8.386838e-001 1.925675e-001
<GCONST> 1.200897e+002
<STATE> 3
<MEAN> 39
 -1.297325e+001 -1.208828e+000 -1.526234e+000 3.294353e+000 -9.325165e+000 -5.378938e+000 -9.482697e+000 -1.966295e+000 -7.050362e+000 -5.571901e+000 -2.005737e+000 -2.380833e+000 4.445090e+001 4.976728e-002 -2.663238e-002 -1.466032e-001 1.214695e-001 1.190009e-001 1.503310e-001 -7.928786e-003 1.132096e-001 -1.400208e-002 -1.472977e-001 5.492374e-002 3.104735e-002 -2.224473e-001 -8.873677e-002 8.966822e-003 -3.782857e-002 -2.604651e-002 1.125301e-001 -7.591217e-002 1.232432e-001 3.676353e-002 7.964376e-002 4.201933e-002 -2.416067e-002 -1.538704e-003 3.637061e-002
<VARIANCE> 39
 1.863681e+001 9.927736e+000 7.996045e+001 1.373928e+001 4.310651e+001 2.832328e+001 2.834739e+001 2.611730e+001 1.961510e+001 2.957090e+001 3.424610e+001 1.580753e+001 1.078822e+002 5.617156e-001 8.666597e-001 9.381210e-001 1.264240e+000 1.965329e+000 2.887115e+000 2.581057e+000 2.754550e+000 1.766103e+000 3.175699e+000 2.017681e+000 1.293322e+000 7.680225e-001 1.458026e-001 1.660011e-001 1.583859e-001 2.544425e-001 3.307806e-001 6.824647e-001 6.170468e-001 6.183386e-001 4.646583e-001 6.780587e-001 3.342541e-001 2.206836e-001 1.132115e-001
<GCONST> 1.051949e+002
<STATE> 4
<MEAN> 39
 -8.717732e+000 -3.912680e+000 -5.659448e+000 -1.599789e-002 -9.023997e-001 3.286397e+000 -3.897813e+000 9.796701e+000 4.782155e+000 3.693281e+000 -1.130273e+000 -1.504562e-001 4.919069e+001 -1.578519e-001 -4.734789e-002 -3.654563e-002 9.108176e-004 1.166123e-001 -4.344406e-002 9.065248e-002 -8.839080e-003 8.951291e-002 -8.176396e-003 2.150386e-002 4.981275e-002 1.105666e-001 3.695351e-002 3.400040e-002 -2.867499e-002 -3.909622e-002 -4.065494e-002 2.047995e-004 -2.694668e-002 -2.471630e-002 -3.244138e-002 2.174004e-002 -7.624948e-003 -8.863141e-003 6.450152e-003
<VARIANCE> 39
 5.417461e+001 3.510284e+001 2.162166e+001 3.765191e+001 3.766592e+001 1.915957e+001 6.785020e+001 2.564693e+001 3.209529e+001 2.982512e+001 3.792015e+001 2.821269e+001 6.596763e+001 2.170610e+000 1.773868e+000 1.103247e+000 1.643752e+000 1.495964e+000 1.059087e+000 2.824218e+000 1.761738e+000 1.961287e+000 1.446911e+000 1.934924e+000 1.434244e+000 9.978576e-001 3.283831e-001 2.779812e-001 2.025359e-001 2.824786e-001 2.419977e-001 2.359392e-001 4.661821e-001 3.450125e-001 3.575394e-001 2.750013e-001 3.128254e-001 2.421924e-001 1.287932e-001
<GCONST> 1.071770e+002
<TRANSP> 5
 0.000000e+000 1.000000e+000 0.000000e+000 0.000000e+000 0.000000e+000
 0.000000e+000 7.999368e-001 2.000633e-001 0.000000e+000 0.000000e+000
 0.000000e+000 0.000000e+000 9.009692e-001 9.903080e-002 0.000000e+000
 0.000000e+000 0.000000e+000 0.000000e+000 9.596002e-001 4.039989e-002
 0.000000e+000 0.000000e+000 0.000000e+000 0.000000e+000 0.000000e+000
<ENDHMM>
~h "g"
<BEGINHMM>
<NUMSTATES> 5
<STATE> 2
<MEAN> 39
 -4.296340e+000 -5.638577e+000 -4.547963e+000 6.312645e+000 -6.905412e+000 9.133713e+000 -5.650602e+000 -1.637499e+000 3.085224e+000 -1.345752e+000 1.031919e+000 3.901612e+000 6.143678e+001 -2.015406e-001 -1.982299e-002 -3.269791e-001 -2.228845e-001 -1.434764e-001 -1.139234e-001 -2.220476e-001 -5.180890e-001 -3.177788e-001 1.373333e-001 -3.011486e-002 1.455862e-002 -2.634568e-001 2.306334e-002 -1.167594e-001 5.736816e-002 -3.862674e-002 -8.768708e-002 -2.104964e-002 1.616839e-002 5.597096e-002 -6.875824e-003 -1.862144e-002 3.383162e-002 -9.008159e-002 9.952453e-002
<VARIANCE> 39
 4.508413e+001 3.229898e+001 4.147043e+001 8.587419e+001 5.226485e+001 1.040919e+002 5.614075e+001 6.411887e+001 4.197474e+001 2.682844e+001 2.251962e+001 4.861686e+001 9.141455e+001 2.383531e-001 6.152775e-001 6.234882e-001 1.335254e+000 1.292648e+000 9.594684e-001 1.415846e+000 1.520752e+000 1.499620e+000 1.488769e+000 1.434202e+000 1.230122e+000 3.154831e-001 3.371349e-002 1.485674e-001 1.288986e-001 2.363469e-001 2.930027e-001 1.826253e-001 2.548384e-001 2.782032e-001 2.392758e-001 2.830146e-001 2.682288e-001 2.529812e-001 5.231262e-002
<GCONST> 9.887017e+001
<STATE> 3
<MEAN> 39
 5.087913e-001 -1.336622e+001 -1.858721e+000 1.672660e+001 -3.523559e+000 6.276434e+000 -4.695007e+000 8.981240e-001 4.173615e+000 -9.079164e+000 -1.487211e-001 5.474017e+000 6.927470e+001 1.155845e-001 -1.678577e-001 1.063770e-001 1.439922e-001 5.072486e-002 5.032652e-002 1.041937e-001 1.923514e-001 6.202642e-002 -1.310762e-001 8.052485e-002 6.558691e-002 1.677059e-001 3.281469e-002 -5.464016e-002 -6.844666e-003 -1.635717e-001 -1.046114e-001 8.595755e-003 -4.814992e-002 -2.744787e-002 3.308943e-002 4.157133e-002 3.237823e-002 -1.446724e-002 8.219359e-002
<VARIANCE> 39
 9.459795e+001 1.365797e+002 9.810291e+001 2.011649e+002 1.016435e+002 1.226350e+002 7.184168e+001 8.645776e+001 4.733824e+001 1.122728e+002 5.698055e+001 9.086932e+001 1.307358e+002 1.566366e+000 5.956469e+000 3.790888e+000 6.467013e+000 5.082983e+000 4.967140e+000 3.556505e+000 3.704940e+000 2.476099e+000 5.020303e+000 3.358699e+000 3.255942e+000 1.979958e+000 1.900477e-001 1.022222e+000 5.548891e-001 9.566754e-001 9.171811e-001 9.543344e-001 6.610755e-001 6.985675e-001 4.685056e-001 7.123734e-001 5.050983e-001 6.332746e-001 3.444543e-001
<GCONST> 1.415567e+002
<STATE> 4
<MEAN> 39
 -7.359252e+000 -6.529296e+000 -2.495605e-001 -3.662411e+000 -8.734251e+000 2.855007e+000 -2.843415e+000 4.714633e-001 1.475313e+000 -3.352628e+000 3.789655e+000 -2.576446e-001 6.401225e+001 1.173410e+000 -2.406376e-001 8.452422e-001 -8.680224e-001 -9.281254e-001 -8.256466e-002 -5.385630e-001 -3.558811e-002 6.175484e-001 -2.155164e-001 8.632840e-002 -1.050382e-001 1.697410e+000 1.777108e-001 2.318952e-001 8.252404e-004 2.143295e-001 1.113049e-001 -9.532797e-002 -2.237684e-001 -1.480413e-001 1.641556e-001 -1.276569e-002 -1.081372e-001 1.932626e-002 1.583870e-002
<VARIANCE> 39
 6.824059e+001 1.269052e+002 1.062830e+002 9.475926e+001 3.491934e+002 2.136590e+002 1.039616e+002 1.352437e+002 9.951826e+001 7.288601e+001 5.977435e+001 3.781023e+001 1.880128e+002 4.194893e+000 1.212607e+001 5.944762e+000 1.266880e+001 1.674702e+001 4.256239e+000 5.879457e+000 7.328398e+000 4.775802e+000 4.482899e+000 5.681261e+000 4.297940e+000 5.989077e+000 4.650804e-001 1.908546e+000 9.330636e-001 2.054265e+000 2.769669e+000 8.512490e-001 9.452978e-001 9.997806e-001 5.412620e-001 6.585349e-001 1.061639e+000 6.225614e-001 8.295657e-001
<GCONST> 1.566110e+002
<TRANSP> 5
 0.000000e+000 1.000000e+000 0.000000e+000 0.000000e+000 0.000000e+000
 0.000000e+000 7.738858e-001 2.261142e-001 0.000000e+000 0.000000e+000
 0.000000e+000 0.000000e+000 7.515488e-001 2.484513e-001 0.000000e+000
 0.000000e+000 0.000000e+000 0.000000e+000 6.713220e-001 3.286780e-001
 0.000000e+000 0.000000e+000 0.000000e+000 0.000000e+000 0.000000e+000
<ENDHMM>
~h "h"
<BEGINHMM>
<NUMSTATES> 5
<STATE> 2
<MEAN> 39
 -6.871655e+000 -5.247357e+000 -5.802069e+000 -2.480860e+000 -1.833954e+000 -2.554039e+000 -7.503543e-001 4.176779e+000 -3.836314e+000 -6.685474e+000 -1.152504e+000 -1.771337e+000 6.735862e+001 -4.321129e-001 -2.228046e-002 2.332022e-001 4.413735e-001 3.714435e-001 2.282333e-001 3.709844e-001 5.049050e-002 2.598405e-001 2.687419e-001 1.268151e-001 9.525644e-002 -4.466676e-001 2.418091e-003 7.411515e-002 1.901827e-002 -2.792419e-002 -8.905112e-003 1.327378e-002 -4.145060e-002 -1.443979e-004 3.455558e-002 2.778711e-003 5.120509e-003 1.079679e-002 -1.807027e-002
<VARIANCE> 39
 3.466071e+001 5.556832e+001 3.029036e+001 5.195431e+001 5.579281e+001 7.545526e+001 7.808652e+001 4.077357e+001 3.450504e+001 3.504720e+001 6.087320e+001 2.969195e+001 2.149869e+002 3.324273e-001 1.045042e+000 7.664575e-001 1.036866e+000 1.038994e+000 1.503321e+000 1.774506e+000 1.335183e+000 1.527031e+000 1.622313e+000 1.659254e+000 1.357418e+000 2.944704e-001 4.027693e-002 1.334398e-001 1.088771e-001 1.903083e-001 1.809965e-001 2.794396e-001 3.035986e-001 2.473651e-001 2.469501e-001 2.796620e-001 2.502380e-001 2.268682e-001 2.804991e-002
<GCONST> 9.970757e+001
<STATE> 3
<MEAN> 39
 -1.047272e+001 -2.671792e+000 -3.795991e+000 3.718224e+000 -2.508106e+000 3.771685e+000 -5.836249e-001 2.479930e+000 2.539265e+000 1.524588e+000 1.708536e+000 1.970643e+000 5.577087e+001 -6.251253e-002 1.107121e-001 5.325260e-002 7.538868e-002 -2.923455e-002 6.302075e-002 1.273170e-002 -5.365188e-002 8.545277e-002 1.263665e-001 2.763681e-002 5.861608e-003 -1.310399e-001 2.313326e-002 8.803284e-004 -9.872338e-003 3.333228e-003 -1.053017e-002 -9.524641e-003 1.238231e-002 2.148678e-003 -3.343142e-002 -3.523972e-002 -5.928232e-003 -1.007305e-003 2.241367e-002
<VARIANCE> 39
 1.793511e+001 2.590894e+001 1.657579e+001 2.266090e+001 4.508107e+001 3.810953e+001 3.725896e+001 3.559285e+001 1.900228e+001 2.028424e+001 2.006006e+001 2.258699e+001 1.425084e+002 1.093690e-001 3.397607e-001 3.985594e-001 5.800218e-001 6.365966e-001 8.737996e-001 1.149966e+000 1.124043e+000 1.224223e+000 1.070341e+000 1.199078e+000 1.024959e+000 9.645262e-002 1.836203e-002 5.580055e-002 7.372002e-002 1.189936e-001 1.242622e-001 1.715323e-001 2.193761e-001 2.114462e-001 2.337439e-001 1.906259e-001 2.430187e-001 2.095526e-001 9.128965e-003
<GCONST> 7.914343e+001
<STATE> 4
<MEAN> 39
 -1.031099e+001 -8.558834e-001 -4.404510e+000 4.431840e+000 -2.077067e+000 4.923591e+000 1.229789e+000 6.495476e+000 3.190747e+000 3.289127e+000 1.495457e+000 1.285598e+000 4.553263e+001 -6.072125e-002 2.122053e-001 2.838319e-002 2.020180e-001 -2.743226e-002 -1.836534e-002 1.118804e-001 4.209867e-003 -3.894340e-002 -3.776904e-003 5.031458e-002 1.827809e-002 -1.580612e-001 1.405644e-002 -5.217586e-002 4.612091e-002 -1.830770e-002 1.452931e-004 -9.264686e-002 -3.325919e-002 -1.199566e-002 -1.514119e-002 -6.291007e-002 -5.489066e-004 1.508587e-002 7.710671e-002
<VARIANCE> 39
 1.012658e+001 2.085278e+001 1.299115e+001 3.249067e+001 2.949870e+001 3.493307e+001 2.739349e+001 4.223196e+001 2.343870e+001 3.010004e+001 2.154980e+001 1.631538e+001 1.011709e+002 1.838976e-001 5.123300e-001 5.808901e-001 1.014754e+000 8.417412e-001 1.299735e+000 1.097370e+000 1.459770e+000 1.242342e+000 2.138195e+000 1.423875e+000 1.152045e+000 2.449444e-001 5.569551e-002 9.308324e-002 1.282945e-001 2.109400e-001 1.745099e-001 2.720699e-001 2.114383e-001 3.373954e-001 3.089085e-001 4.932331e-001 3.087334e-001 2.173076e-001 5.733502e-002
<GCONST> 8.983850e+001
<TRANSP> 5
 0.000000e+000 1.000000e+000 0.000000e+000 0.000000e+000 0.000000e+000
 0.000000e+000 8.087499e-001 1.912501e-001 0.000000e+000 0.000000e+000
 0.000000e+000 0.000000e+000 9.095605e-001 9.043951e-002 0.000000e+000
 0.000000e+000 0.000000e+000 0.000000e+000 8.009066e-001 1.990933e-001
 0.000000e+000 0.000000e+000 0.000000e+000 0.000000e+000 0.000000e+000
<ENDHMM>
~h "i"
<BEGINHMM>
<NUMSTATES> 5
<STATE> 2
<MEAN> 39
 -1.168615e+001 -5.793518e+000 3.553435e+000 -6.247482e+000 -4.391789e+000 -7.162963e+000 -8.553543e+000 -4.482602e+000 -3.519737e+000 -4.610761e+000 -1.298214e+000 -5.928647e+000 6.451871e+001 4.106009e-001 -2.121018e-001 1.466097e+000 -6.727989e-001 -9.000740e-001 -3.060130e-001 -9.888512e-001 -3.021962e-001 -9.416451e-001 -9.535169e-002 1.946694e-001 -3.755373e-001 1.093109e+000 9.510457e-003 8.727454e-003 3.170551e-004 -7.964391e-002 2.517533e-002 6.691264e-002 -8.222160e-003 3.006391e-002 1.544998e-003 5.186077e-002 -6.591206e-003 -1.669490e-002 3.227784e-003
<VARIANCE> 39
 6.396368e+001 9.375930e+001 1.166549e+002 1.811473e+002 1.590430e+002 1.032418e+002 1.305602e+002 8.417289e+001 9.214230e+001 5.964476e+001 6.005611e+001 5.740194e+001 2.042852e+002 2.864626e+000 2.853858e+000 7.108528e+000 6.532927e+000 5.667097e+000 4.415435e+000 5.624012e+000 4.187301e+000 5.582802e+000 3.819085e+000 3.347757e+000 2.774053e+000 6.050702e+000 4.598837e-001 3.774564e-001 9.563430e-001 8.127921e-001 8.815848e-001 7.507012e-001 9.668282e-001 6.927598e-001 9.419833e-001 6.227341e-001 5.422597e-001 4.537716e-001 7.784910e-001
<GCONST> 1.458264e+002
<STATE> 3
<MEAN> 39
 -4.935800e+000 -1.015895e+001 7.342782e+000 5.542115e-001 -2.569762e+000 -5.375187e+000 -8.840289e+000 -2.010300e+000 -1.127193e+000 -6.998427e+000 1.530223e+000 -6.319423e+000 7.346949e+001 -1.196989e-001 4.060533e-001 5.540827e-003 -6.719401e-002 -1.806481e-001 2.387166e-001 -3.790777e-002 -2.466115e-001 -1.244710e-001 1.420897e-001 -1.233981e-001 1.098885e-001 -3.352403e-001 -5.679376e-002 7.723060e-002 -1.781138e-001 4.017186e-002 8.417683e-002 8.075685e-002 1.251657e-001 -1.166781e-002 1.074893e-001 1.944645e-002 -7.651362e-003 8.702980e-002 -1.150985e-001
<VARIANCE> 39
 5.016778e+001 7.730878e+001 1.303786e+002 6.764545e+002 1.358093e+002 2.010943e+002 1.164812e+002 9.506841e+001 1.606333e+002 5.603117e+001 5.728874e+001 3.530987e+001 7.501918e+001 4.853109e-001 1.224399e+000 1.870369e+000 3.239436e+000 2.308553e+000 2.512758e+000 2.429216e+000 2.777984e+000 2.775152e+000 1.915571e+000 2.145600e+000 1.558058e+000 6.727863e-001 1.104831e-001 1.845304e-001 2.945952e-001 4.892058e-001 4.527461e-001 4.685876e-001 4.417868e-001 5.111394e-001 5.485200e-001 3.614879e-001 4.115605e-001 2.446739e-001 8.393038e-002
<GCONST> 1.240597e+002
<STATE> 4
<MEAN> 39
 -1.130849e+001 2.937573e-001 1.138957e+001 -9.370489e+000 -1.406965e+001 -8.814199e+000 -1.465582e+001 -7.882973e+000 -1.424750e+001 -4.180434e+000 -7.197820e-001 -6.786229e+000 6.122877e+001 -7.029273e-002 4.648343e-002 -5.513729e-001 4.327455e-001 4.045281e-001 6.384805e-002 2.806809e-001 1.500670e-001 2.479376e-001 -4.500658e-003 -9.574268e-002 2.478144e-001 -6.204572e-001 -8.599408e-003 -3.783452e-002 -7.688001e-002 6.865346e-002 5.497396e-002 -3.226813e-002 8.111262e-002 4.307329e-002 5.145111e-002 -3.631606e-003 2.072589e-002 4.475134e-002 -1.303641e-002
<VARIANCE> 39
 2.795512e+001 2.690461e+001 1.361883e+002 1.232914e+002 9.632977e+001 1.017009e+002 1.051398e+002 8.157696e+001 1.041529e+002 4.907024e+001 4.240212e+001 4.829370e+001 1.603261e+002 5.910357e-001 9.901473e-001 2.339167e+000 2.972190e+000 2.891150e+000 2.358932e+000 3.043864e+000 3.305851e+000 2.240233e+000 2.251008e+000 1.846029e+000 1.848221e+000 1.327108e+000 8.301424e-002 1.392615e-001 2.500013e-001 3.686910e-001 4.350244e-001 3.580992e-001 4.573552e-001 5.517511e-001 3.672193e-001 3.814758e-001 3.447618e-001 2.811283e-001 1.115142e-001
<GCONST> 1.197029e+002
<TRANSP> 5
 0.000000e+000 1.000000e+000 0.000000e+000 0.000000e+000 0.000000e+000
 0.000000e+000 7.400001e-001 2.599999e-001 0.000000e+000 0.000000e+000
 0.000000e+000 0.000000e+000 6.296792e-001 3.703208e-001 0.000000e+000
 0.000000e+000 0.000000e+000 0.000000e+000 8.616434e-001 1.383566e-001
 0.000000e+000 0.000000e+000 0.000000e+000 0.000000e+000 0.000000e+000
<ENDHMM>
~h "j"
<BEGINHMM>
<NUMSTATES> 5
<STATE> 2
<MEAN> 39
 -9.986081e+000 -5.717123e+000 -5.764469e-001 -5.358890e+000 -2.712020e-001 -1.009636e+001 -2.409528e+000 -7.272660e+000 -9.935945e-001 -9.538013e+000 -3.356489e+000 -4.837570e+000 6.224386e+001 -6.176662e-002 -5.534960e-002 3.033864e-002 -4.675647e-001 -2.420651e-002 -8.662130e-001 4.007452e-001 3.642904e-001 4.655096e-001 -5.224516e-001 -2.861742e-002 1.543286e-001 1.240956e+000 -1.469430e-001 2.651373e-001 -8.229538e-002 -1.020398e-002 -1.552766e-001 7.485212e-002 -1.765248e-001 3.083757e-001 -1.385644e-001 3.777026e-002 3.243657e-001 4.470918e-002 -2.722363e-002
<VARIANCE> 39
 3.836386e+001 4.110080e+001 4.057611e+001 1.489258e+002 6.610478e+001 1.646199e+002 4.228203e+001 5.761593e+001 4.059295e+001 7.767077e+001 4.252544e+001 3.970844e+001 2.174206e+002 1.585006e+000 4.626951e+000 2.719984e+000 7.826049e+000 6.560043e+000 5.081322e+000 4.352919e+000 2.226413e+000 4.945475e+000 2.473738e+000 5.635172e+000 3.162892e+000 1.177734e+001 3.797655e-001 5.964469e-001 5.368149e-001 1.146777e+000 1.342593e+000 7.317716e-001 6.359117e-001 5.370257e-001 5.954817e-001 3.483692e-001 9.103941e-001 4.897785e-001 1.564781e+000
<GCONST> 1.393938e+002
<STATE> 3
<MEAN> 39
 -1.444982e+001 1.631113e+000 8.596132e-001 -1.680222e+000 -4.709501e+000 -7.013468e+000 -3.270254e+000 -1.987131e+000 -8.185575e-001 -6.392239e+000 2.025678e+000 1.582337e+000 6.676619e+001 3.118628e-001 -4.494072e-001 -2.422760e-001 -1.057934e+000 -8.025703e-001 -1.049551e+000 -3.103827e-001 5.958951e-001 1.515039e-001 -4.407757e-001 5.837508e-001 2.143404e-001 1.255383e+000 2.585945e-001 -2.561867e-001 -1.879234e-001 -1.123128e-001 1.170437e-001 4.861562e-002 -2.466071e-002 -7.976288e-002 -1.554443e-002 -1.322256e-002 -2.010045e-001 -4.001215e-001 -5.069736e-002
<VARIANCE> 39
 1.584294e+002 4.913780e+001 5.177034e+001 1.375001e+002 6.530392e+001 1.550831e+002 6.764176e+001 5.709803e+001 7.808047e+001 5.932254e+001 5.410039e+001 3.716074e+001 1.826357e+002 1.175222e+001 4.301426e+000 5.472191e+000 5.851531e+000 6.452332e+000 7.017902e+000 7.176652e+000 4.569162e+000 3.350681e+000 4.453480e+000 3.482304e+000 5.850307e+000 5.476493e+000 1.873901e+000 4.997479e-001 1.004769e+000 8.631113e-001 1.276003e+000 1.312636e+000 1.324374e+000 7.473015e-001 7.777707e-001 6.823562e-001 4.246777e-001 6.151924e-001 4.963426e-001
<GCONST> 1.479749e+002
<STATE> 4
<MEAN> 39
 -6.047198e+000 -7.010352e+000 3.086555e+000 -1.420324e+001 1.184977e+001 -1.642339e+001 1.320712e+001 -1.164708e+001 7.363580e+000 -1.195885e+001 1.009765e+001 -2.407818e+000 7.634933e+001 6.672046e-003 -2.170325e-002 -7.494836e-002 -7.336165e-002 3.445145e-002 6.115812e-002 2.560766e-002 2.984946e-002 5.600276e-002 7.439529e-002 -1.614124e-001 -2.452690e-001 -1.509423e-001 -6.169622e-002 4.593895e-002 6.305569e-002 5.950917e-002 2.282684e-002 6.631918e-002 3.277998e-002 -2.889750e-002 -5.619662e-003 6.014574e-002 -1.854916e-002 5.938737e-002 -7.298511e-002
<VARIANCE> 39
 3.659960e+001 2.935557e+001 1.836954e+001 4.639045e+001 7.731694e+001 5.621600e+001 7.952493e+001 4.340768e+001 4.770543e+001 2.823116e+001 5.602985e+001 2.919624e+001 1.114137e+002 5.171465e-001 6.672357e-001 9.696094e-001 9.645503e-001 1.555009e+000 1.340891e+000 1.284902e+000 1.009581e+000 9.294686e-001 8.196860e-001 1.404052e+000 1.309199e+000 3.129628e-001 8.266137e-002 8.635980e-002 1.316409e-001 1.712456e-001 2.947710e-001 2.303913e-001 2.486462e-001 2.359125e-001 1.960301e-001 1.921092e-001 3.017794e-001 2.409644e-001 4.345992e-002
<GCONST> 9.698977e+001
<TRANSP> 5
 0.000000e+000 1.000000e+000 0.000000e+000 0.000000e+000 0.000000e+000
 0.000000e+000 5.723093e-001 4.276908e-001 0.000000e+000 0.000000e+000
 0.000000e+000 0.000000e+000 7.476478e-001 2.523522e-001 0.000000e+000
 0.000000e+000 0.000000e+000 0.000000e+000 8.901172e-001 1.098828e-001
 0.000000e+000 0.000000e+000 0.000000e+000 0.000000e+000 0.000000e+000
<ENDHMM>
~h "k"
<BEGINHMM>
<NUMSTATES> 5
<STATE> 2
<MEAN> 39
 -1.186103e+001 -4.094834e-001 -3.746682e+000 2.536420e+000 -4.702267e+000 -7.757714e-001 -4.391017e+000 -2.056546e+000 -2.509617e+000 -3.799025e+000 -7.298757e-001 -7.286911e-001 5.421285e+001 2.058974e-002 -2.401527e-001 -3.996346e-001 -4.016683e-003 1.282175e-001 -3.498907e-001 3.689678e-003 -1.160179e-001 -3.909687e-001 -1.177680e-001 4.577308e-002 3.518671e-001 1.694228e-001 1.286264e-001 -3.342867e-001 2.838794e-002 -1.879117e-001 -1.650406e-001 -1.505935e-001 -7.324205e-003 5.065982e-002 -3.850554e-002 -9.833647e-002 8.120029e-002 -2.446055e-002 4.843262e-001
<VARIANCE> 39
 5.123728e+001 1.636274e+001 3.470083e+001 4.485744e+001 5.983861e+001 1.297705e+002 6.289149e+001 4.877375e+001 7.874665e+001 3.446711e+001 3.257497e+001 2.808070e+001 2.537042e+002 1.174786e+000 1.414958e+000 1.701628e+000 1.987170e+000 2.389147e+000 2.401874e+000 2.724115e+000 2.809710e+000 2.606220e+000 2.661869e+000 2.055269e+000 1.559575e+000 1.942535e+000 2.370956e-001 4.141230e-001 4.795962e-001 4.447842e-001 5.863338e-001 5.565209e-001 5.661975e-001 6.610640e-001 5.622344e-001 6.361650e-001 4.488435e-001 3.941528e-001 4.610060e-001
<GCONST> 1.227776e+002
<STATE> 3
<MEAN> 39
 -3.333588e+000 -1.054064e+001 -1.118071e+000 3.152570e+000 -1.336137e+001 6.792589e+000 -2.000741e+000 2.283603e+000 2.799810e+000 -7.698111e+000 3.254743e+000 2.995176e+000 6.794163e+001 1.224100e+000 -1.167387e+000 1.229680e-001 -3.616243e-001 -7.677331e-001 -7.681575e-001 1.415805e-001 4.780081e-001 4.429840e-001 -6.044709e-001 1.979085e-001 -1.323406e-001 2.262159e+000 2.065788e-001 1.685434e-001 -1.536116e-001 -2.048111e-001 1.430330e-001 -1.124582e-001 -1.584602e-001 3.239352e-002 2.214056e-001 1.436884e-001 -6.528322e-002 -1.253207e-001 1.006840e-001
<VARIANCE> 39
 1.245022e+002 1.208808e+002 5.407370e+001 7.241554e+001 1.796405e+002 2.408179e+002 6.748575e+001 7.213492e+001 1.140007e+002 7.981010e+001 4.967147e+001 3.945438e+001 1.806022e+002 3.814270e+000 9.451370e+000 4.645931e+000 9.140039e+000 1.046912e+001 7.542755e+000 7.217646e+000 5.258186e+000 6.853056e+000 7.670284e+000 4.124158e+000 3.210771e+000 5.821907e+000 6.004182e-001 1.725047e+000 6.648855e-001 1.759927e+000 1.873845e+000 1.280205e+000 1.460530e+000 9.761509e-001 1.069519e+000 1.259794e+000 7.143303e-001 5.307798e-001 8.479154e-001
<GCONST> 1.548585e+002
<STATE> 4
<MEAN> 39
 -1.036388e+001 -7.453553e+000 -2.816836e+000 -1.348514e+001 -3.015420e+000 -9.730828e+000 -1.141811e+001 -6.250575e+000 -6.372370e+000 -4.291472e+000 -4.302643e+000 -8.467966e+000 6.452057e+001 1.420451e-001 -7.967108e-002 5.309532e-003 -3.004131e-001 -5.611571e-002 -9.365125e-002 -9.840515e-002 -1.245375e-001 9.559955e-002 1.538606e-003 -4.497109e-003 -1.047066e-001 3.640659e-001 -3.549311e-002 1.936199e-002 1.132751e-003 5.905289e-002 -3.474402e-002 3.236638e-002 3.287160e-002 1.435123e-002 -3.025900e-003 -2.127823e-002 -1.067917e-002 3.379811e-002 -9.009805e-002
<VARIANCE> 39
 5.797701e+001 8.802782e+001 8.569543e+001 1.889569e+002 1.209526e+002 7.543848e+001 7.896638e+001 8.102225e+001 9.097107e+001 4.395091e+001 5.197976e+001 5.343314e+001 2.290386e+002 2.399961e+000 3.664152e+000 4.459378e+000 8.642996e+000 4.634490e+000 3.208554e+000 4.188176e+000 4.776043e+000 4.199172e+000 2.948999e+000 3.033513e+000 2.824733e+000 7.244498e+000 3.499917e-001 4.269410e-001 7.263724e-001 1.036329e+000 7.154547e-001 5.240213e-001 7.445316e-001 8.300915e-001 6.572457e-001 5.184176e-001 5.347006e-001 4.676082e-001 6.748226e-001
<GCONST> 1.411088e+002
<TRANSP> 5
 0.000000e+000 1.000000e+000 0.000000e+000 0.000000e+000 0.000000e+000
 0.000000e+000 5.970970e-001 4.029030e-001 0.000000e+000 0.000000e+000
 0.000000e+000 0.000000e+000 6.306149e-001 3.693851e-001 0.000000e+000
 0.000000e+000 0.000000e+000 0.000000e+000 9.050334e-001 9.496652e-002
 0.000000e+000 0.000000e+000 0.000000e+000 0.000000e+000 0.000000e+000
<ENDHMM>
~h "l"
<BEGINHMM>
<NUMSTATES> 5
<STATE> 2
<MEAN> 39
 -3.457752e+000 -7.809281e+000 -2.564501e+000 -7.062062e+000 -4.132873e-001 -5.010777e+000 -5.366102e+000 -2.537164e+000 1.143404e+000 -5.611606e+000 4.271922e-002 -2.147389e+000 7.177601e+001 7.206517e-002 -2.523168e-001 -1.472910e-001 9.939343e-002 -2.713908e-001 -1.442492e-001 3.406396e-001 2.461785e-001 3.636604e-002 1.434133e-001 -2.253017e-001 9.243622e-002 1.965909e-002 -3.163414e-002 1.205041e-001 1.749059e-001 2.596213e-002 7.625638e-003 1.842051e-002 -7.548286e-002 -1.432372e-001 1.114924e-001 7.094003e-002 1.453114e-002 -8.392155e-004 -8.959389e-002
<VARIANCE> 39
 6.204519e+001 4.712919e+001 7.002250e+001 2.040436e+002 1.763778e+002 1.892370e+002 1.453944e+002 1.450702e+002 9.993870e+001 7.655772e+001 1.076340e+002 4.391197e+001 1.581426e+002 3.359263e-001 8.665695e-001 1.178281e+000 1.453067e+000 1.677679e+000 2.014105e+000 2.294598e+000 2.749438e+000 2.094341e+000 1.638042e+000 1.442535e+000 1.538135e+000 5.250500e-001 7.538343e-002 1.414674e-001 2.134810e-001 2.544850e-001 3.261242e-001 3.706551e-001 3.718884e-001 3.753704e-001 3.994623e-001 2.951941e-001 2.778239e-001 2.644847e-001 8.554116e-002
<GCONST> 1.170703e+002
<STATE> 3
<MEAN> 39
 -1.929965e+000 -6.981078e+000 -4.515877e+000 -3.319960e+000 -8.017457e+000 -1.700690e+000 -8.754556e+000 3.388279e+000 1.996486e-001 -3.667417e+000 -2.242016e+000 3.057828e-001 6.792406e+001 -7.402782e-002 2.188480e-001 1.881244e-001 3.269177e-002 -1.411676e-001 -9.011420e-003 -3.111062e-002 -8.326266e-002 1.909811e-001 1.450022e-001 1.341367e-002 -3.873541e-002 -1.886138e-001 -2.060957e-002 6.891752e-002 5.847820e-002 1.345984e-002 4.654917e-002 3.383894e-002 -6.354376e-002 -6.461335e-002 1.683255e-003 4.335504e-003 -3.313669e-003 -3.011455e-002 -3.939760e-002
<VARIANCE> 39
 5.505960e+001 4.250369e+001 6.843389e+001 1.666499e+002 6.361870e+001 1.509011e+002 1.063399e+002 1.013137e+002 8.450589e+001 8.301864e+001 6.470104e+001 4.275004e+001 1.461063e+002 1.439408e-001 6.188282e-001 6.643482e-001 8.410915e-001 1.111283e+000 1.268992e+000 1.255276e+000 1.534525e+000 1.307611e+000 1.362983e+000 1.354745e+000 1.149730e+000 1.655235e-001 2.300447e-002 7.860181e-002 8.536001e-002 1.364329e-001 1.656790e-001 2.335639e-001 2.340933e-001 2.392924e-001 2.278551e-001 2.213818e-001 2.326983e-001 1.936667e-001 1.956259e-002
<GCONST> 9.929514e+001
<STATE> 4
<MEAN> 39
 -7.597932e+000 -5.349908e+000 4.941710e+000 -1.217117e+001 1.283379e+001 -1.395121e+001 1.271606e+001 -1.279251e+001 1.122772e+001 -8.090460e+000 1.121354e+001 -3.394346e+000 7.375661e+001 -7.705487e-002 3.205606e-002 2.238428e-002 5.113275e-002 4.002323e-002 7.854689e-002 3.130908e-002 4.124089e-002 7.737715e-002 5.036408e-002 -2.673053e-002 -1.384775e-003 -1.401946e-001 2.394798e-004 7.750186e-004 3.981765e-003 3.151697e-003 4.854030e-003 -5.846171e-003 -1.900445e-002 -1.110500e-002 -1.159579e-002 -1.280838e-002 -5.517128e-003 -6.407280e-003 6.563189e-003
<VARIANCE> 39
 3.743496e+001 1.447254e+001 3.851051e+001 5.154853e+001 7.388094e+001 5.910019e+001 7.969374e+001 5.414604e+001 5.210790e+001 3.349229e+001 4.242928e+001 2.026605e+001 6.132088e+001 2.759372e-001 5.371589e-001 7.027138e-001 8.458986e-001 1.102730e+000 1.087840e+000 1.290561e+000 1.114305e+000 1.257291e+000 1.230200e+000 1.229004e+000 9.534897e-001 4.597043e-001 3.732679e-002 8.173440e-002 9.751809e-002 1.321993e-001 1.822827e-001 1.838727e-001 2.370278e-001 1.999268e-001 2.330795e-001 2.340384e-001 2.303149e-001 1.783953e-001 4.371548e-002
<GCONST> 9.276891e+001
<TRANSP> 5
 0.000000e+000 1.000000e+000 0.000000e+000 0.000000e+000 0.000000e+000
 0.000000e+000 2.690856e-001 7.309145e-001 0.000000e+000 0.000000e+000
 0.000000e+000 0.000000e+000 7.461573e-001 2.538427e-001 0.000000e+000
 0.000000e+000 0.000000e+000 0.000000e+000 9.030800e-001 9.691994e-002
 0.000000e+000 0.000000e+000 0.000000e+000 0.000000e+000 0.000000e+000
<ENDHMM>
~h "m"
<BEGINHMM>
<NUMSTATES> 5
<STATE> 2
<MEAN> 39
 -6.581471e+000 -1.628509e+000 -1.571352e+000 -4.333014e-001 -2.640373e+000 -1.555286e+000 -4.345324e+000 -1.354320e+000 -1.993497e+000 -3.954718e+000 1.689395e-001 -1.984308e+000 6.614717e+001 -2.068224e-001 2.608076e-001 1.230670e-001 4.094467e-001 1.058178e-001 2.371857e-001 9.676047e-002 -2.625503e-001 -9.187432e-002 1.543823e-002 8.646920e-002 9.990334e-003 -4.621791e-001 -2.175039e-003 -4.842098e-002 -1.067033e-002 -1.135669e-001 8.218033e-003 -4.554648e-002 5.527958e-002 6.460109e-002 5.439841e-002 -6.418311e-002 -4.966309e-002 -1.955249e-002 5.799029e-002
<VARIANCE> 39
 4.640639e+001 3.760555e+001 3.402819e+001 1.026326e+002 6.975644e+001 1.024990e+002 8.563041e+001 8.243571e+001 8.407457e+001 4.194989e+001 5.026776e+001 3.366631e+001 1.892167e+002 2.667089e-001 7.125703e-001 1.029868e+000 1.301086e+000 1.382897e+000 1.770809e+000 1.760883e+000 2.096916e+000 1.642072e+000 1.173378e+000 1.064438e+000 1.271032e+000 4.354013e-001 3.272627e-002 9.571842e-002 1.215335e-001 2.426270e-001 2.424708e-001 3.144022e-001 2.516829e-001 3.485732e-001 2.666682e-001 2.332644e-001 2.231339e-001 2.496565e-001 4.039834e-002
<GCONST> 1.036716e+002
<STATE> 3
<MEAN> 39
 -6.804468e+000 -3.352864e+000 2.835898e-001 1.610507e+000 -1.927310e+000 2.796172e-002 -4.568430e+000 -9.537531e-001 7.290335e-001 -4.446510e+000 7.962376e-001 -1.775796e+000 6.413300e+001 -1.749092e-001 1.250150e-001 -2.291224e-001 -1.985206e-001 1.120478e-002 2.468573e-001 1.609320e-001 -1.157868e-001 3.193491e-003 4.782881e-002 7.700177e-002 3.734341e-002 -4.044078e-001 6.299169e-003 -4.413830e-002 -3.212080e-002 -1.426176e-001 8.475609e-003 -2.988810e-002 2.658248e-002 9.165906e-002 1.865278e-002 -1.574944e-002 -3.745075e-002 1.737743e-002 4.489731e-002
<VARIANCE> 39
 8.131336e+001 5.716971e+001 5.243690e+001 2.004784e+002 9.895628e+001 1.253467e+002 1.042381e+002 1.139598e+002 1.408238e+002 6.449494e+001 5.976092e+001 4.149717e+001 2.345624e+002 3.299305e-001 7.239705e-001 9.600556e-001 1.592890e+000 1.368777e+000 1.685569e+000 1.767553e+000 1.761710e+000 1.398188e+000 1.911887e+000 1.298815e+000 2.156254e+000 5.360759e-001 3.761049e-002 9.141291e-002 1.615975e-001 2.509138e-001 2.107355e-001 2.944050e-001 3.619080e-001 3.577285e-001 2.923484e-001 2.906783e-001 2.655177e-001 3.727346e-001 3.783205e-002
<GCONST> 1.111770e+002
<STATE> 4
<MEAN> 39
 -1.053839e+001 -3.125178e+000 -3.247056e+000 -2.921728e+000 -2.054737e+000 -3.100074e+000 -7.258149e+000 -1.627231e+000 -3.550019e+000 -5.407451e+000 -1.963619e+000 -3.732956e+000 5.504671e+001 -1.683278e-001 7.771516e-002 -1.786776e-001 1.595271e-001 -1.461594e-002 1.007492e-001 1.775280e-001 1.072605e-001 -5.384351e-002 -1.997571e-002 -7.956351e-002 1.232368e-001 -3.923980e-001 2.341289e-002 3.357623e-003 3.452609e-002 2.567366e-003 -5.132230e-002 3.160510e-003 3.821003e-002 -1.378334e-002 2.531679e-002 3.444018e-002 2.031024e-003 3.926565e-002 5.046913e-002
<VARIANCE> 39
 5.198848e+001 4.963221e+001 2.747806e+001 1.361770e+002 6.745715e+001 8.650520e+001 7.750554e+001 9.018511e+001 7.630787e+001 4.446381e+001 4.825815e+001 3.450232e+001 2.919099e+002 3.554449e-001 6.249067e-001 9.184902e-001 1.886723e+000 1.997827e+000 1.805853e+000 2.222602e+000 2.310665e+000 1.415282e+000 1.738469e+000 1.399122e+000 1.245045e+000 6.538961e-001 5.930799e-002 1.117925e-001 2.198530e-001 3.227379e-001 3.546051e-001 3.245277e-001 4.663080e-001 4.521095e-001 3.385118e-001 3.341707e-001 2.560775e-001 2.155348e-001 8.846545e-002
<GCONST> 1.106207e+002
<TRANSP> 5
 0.000000e+000 1.000000e+000 0.000000e+000 0.000000e+000 0.000000e+000
 0.000000e+000 5.240490e-001 4.759510e-001 0.000000e+000 0.000000e+000
 0.000000e+000 0.000000e+000 3.787136e-001 6.212864e-001 0.000000e+000
 0.000000e+000 0.000000e+000 0.000000e+000 6.172751e-001 3.827249e-001
 0.000000e+000 0.000000e+000 0.000000e+000 0.000000e+000 0.000000e+000
<ENDHMM>
~h "n"
<BEGINHMM>
<NUMSTATES> 5
<STATE> 2
<MEAN> 39
 5.425899e+000 -1.312286e+001 -2.214202e+000 1.131497e+001 -7.378833e+000 1.233415e+001 -2.903571e+000 6.820490e-001 7.070697e+000 -7.910662e+000 4.080086e+000 5.109242e+000 7.451347e+001 5.481197e-002 -9.572058e-002 -2.362142e-002 1.130864e-001 6.101331e-002 8.844868e-002 1.159527e-001 4.127335e-002 2.549790e-002 3.609293e-002 6.301458e-002 3.314239e-002 4.374522e-002 -3.378402e-002 1.833870e-002 1.803047e-002 1.460049e-002 1.528728e-002 5.288231e-003 2.224878e-003 2.000993e-002 9.565130e-003 3.325051e-002 -3.648299e-002 -4.378331e-002 -3.179035e-002
<VARIANCE> 39
 7.935423e+001 9.642889e+001 8.000041e+001 1.464471e+002 9.934910e+001 1.704254e+002 8.474242e+001 5.888874e+001 7.286770e+001 4.220012e+001 7.203037e+001 6.898605e+001 7.775159e+001 1.229061e+000 3.853573e+000 3.568043e+000 3.123997e+000 3.916424e+000 4.710870e+000 3.424641e+000 2.774987e+000 3.481824e+000 3.136705e+000 3.969358e+000 3.519454e+000 1.535166e+000 1.577869e-001 5.848107e-001 4.714276e-001 3.946173e-001 5.732416e-001 6.564139e-001 6.000358e-001 4.896612e-001 5.989460e-001 5.595544e-001 6.530614e-001 5.463980e-001 1.651548e-001
<GCONST> 1.335342e+002
<STATE> 3
<MEAN> 39
 2.369403e+000 -7.989564e+000 -3.441486e+000 8.748568e+000 -6.516204e+000 1.420824e+001 3.859131e-001 1.820446e+000 7.017056e+000 -4.026153e+000 1.305988e+000 2.927355e+000 6.921621e+001 -5.194220e-001 3.100565e-001 3.743597e-002 -6.550153e-002 5.153848e-002 4.944858e-002 -2.751413e-002 -7.383774e-002 -1.814139e-001 1.305516e-001 -2.281029e-001 3.493249e-002 -6.048332e-001 -1.447673e-003 -6.070775e-003 2.689806e-002 -1.119286e-002 -2.974798e-002 -6.204591e-002 -5.895553e-002 -6.485666e-004 -1.746580e-002 -3.470391e-002 4.159923e-002 8.502319e-003 7.397470e-003
<VARIANCE> 39
 6.854964e+001 5.653059e+001 4.946392e+001 1.169584e+002 1.021792e+002 2.156820e+002 7.351768e+001 6.230172e+001 6.675989e+001 4.603394e+001 4.840029e+001 4.784962e+001 8.823346e+001 3.450242e-001 1.329686e+000 1.344135e+000 1.654053e+000 2.396637e+000 2.384263e+000 2.113623e+000 1.977623e+000 1.900596e+000 1.719765e+000 1.800631e+000 2.297158e+000 3.447642e-001 3.781102e-002 1.582303e-001 1.837765e-001 2.049944e-001 3.344746e-001 3.160765e-001 3.536956e-001 3.420575e-001 2.970498e-001 3.548222e-001 3.146432e-001 3.898893e-001 3.655304e-002
<GCONST> 1.116091e+002
<STATE> 4
<MEAN> 39
 -1.080247e+001 -4.973388e-001 -3.363552e+000 5.446879e-001 -3.818289e-001 -4.423206e+000 5.456508e-001 6.366984e-001 -5.292991e-001 -5.142024e+000 1.097802e+000 -1.604295e+000 7.697073e+001 -1.677671e-001 1.384743e-001 2.264909e-001 1.053726e-001 1.203302e-001 1.758670e-001 5.903323e-002 -8.325355e-002 6.361959e-002 1.509660e-001 -3.114124e-002 -8.242886e-002 -1.725036e-001 1.990286e-003 1.611194e-002 1.196055e-002 -4.127178e-003 3.761384e-003 1.077009e-002 -1.692635e-002 -1.879028e-002 -1.558932e-002 -1.940619e-004 2.367808e-003 2.802458e-003 -8.498798e-004
<VARIANCE> 39
 2.756143e+001 4.176698e+001 5.239301e+001 4.200586e+001 6.369708e+001 9.950814e+001 5.536499e+001 5.146523e+001 3.891995e+001 4.093878e+001 3.993203e+001 3.491202e+001 5.807686e+001 2.642061e-001 6.461247e-001 1.131709e+000 7.954279e-001 7.112878e-001 1.246598e+000 1.439644e+000 1.479517e+000 1.202265e+000 1.421975e+000 1.486657e+000 1.257291e+000 1.767248e-001 2.644168e-002 8.666928e-002 1.317734e-001 1.114168e-001 1.381657e-001 1.950647e-001 2.283730e-001 2.444796e-001 2.196071e-001 2.461003e-001 2.307202e-001 2.066254e-001 1.769175e-002
<GCONST> 9.320367e+001
<TRANSP> 5
 0.000000e+000 1.000000e+000 0.000000e+000 0.000000e+000 0.000000e+000
 0.000000e+000 8.047452e-001 1.952548e-001 0.000000e+000 0.000000e+000
 0.000000e+000 0.000000e+000 7.167104e-001 2.832896e-001 0.000000e+000
 0.000000e+000 0.000000e+000 0.000000e+000 8.950953e-001 1.049047e-001
 0.000000e+000 0.000000e+000 0.000000e+000 0.000000e+000 0.000000e+000
<ENDHMM>
~h "o"
<BEGINHMM>
<NUMSTATES> 5
<STATE> 2
<MEAN> 39
 3.597227e+000 -7.644276e+000 1.452674e+000 3.116558e+000 -1.577167e+001 5.589271e+000 -7.090926e+000 2.837396e+000 1.432356e+001 -7.202454e+000 1.795249e-001 3.199509e+000 7.404498e+001 3.070863e-001 -5.201444e-002 -6.289008e-001 1.024001e-001 1.122296e-001 -4.404980e-001 -1.229995e-001 -5.694062e-002 -1.736287e-001 -1.036153e-001 4.449706e-002 3.818195e-001 1.777151e-002 -1.045873e-001 -4.301514e-002 -8.521814e-002 -8.777019e-002 1.225855e-001 1.711328e-001 1.675081e-001 1.260565e-002 -2.270666e-001 2.321924e-002 9.844079e-002 -1.462675e-002 -7.416873e-002
<VARIANCE> 39
 1.247233e+002 4.942486e+001 4.738898e+001 9.638039e+001 1.717491e+002 1.886001e+002 7.153203e+001 7.696136e+001 2.385150e+002 7.236240e+001 3.621496e+001 4.811690e+001 1.074495e+002 1.599966e+000 2.096620e+000 1.658214e+000 1.739459e+000 3.840512e+000 5.350003e+000 3.059657e+000 3.034750e+000 7.448604e+000 3.264508e+000 1.958498e+000 1.565946e+000 1.530657e+000 2.206267e-001 3.563665e-001 1.994175e-001 2.727125e-001 4.319411e-001 7.178538e-001 5.479019e-001 4.593293e-001 1.000314e+000 4.643702e-001 2.644293e-001 2.501822e-001 1.285260e-001
<GCONST> 1.284446e+002
<STATE> 3
<MEAN> 39
 -4.261715e+000 -4.404466e+000 -2.638515e+000 2.150517e+000 -6.406714e+000 1.371739e+000 -6.534663e+000 -1.487008e+000 1.807594e+000 -3.396035e+000 1.883508e+000 2.193577e+000 6.627965e+001 -3.694830e-001 -1.191134e-002 -3.831678e-001 -1.155009e-001 4.156165e-001 4.431654e-001 2.014339e-001 -1.255306e-001 -2.792681e-001 4.280789e-002 -5.973169e-002 -5.644798e-002 -4.781826e-001 -6.950950e-002 3.725786e-002 8.208936e-002 8.282766e-003 1.297214e-001 2.408206e-001 1.028147e-001 3.879476e-002 1.013389e-001 3.568741e-002 3.779011e-002 -1.622410e-002 -1.688973e-002
<VARIANCE> 39
 6.697414e+001 2.726749e+001 4.370628e+001 1.316181e+002 8.313789e+001 2.353064e+002 6.504950e+001 7.214464e+001 7.146209e+001 6.943860e+001 4.039911e+001 5.100594e+001 1.685392e+002 7.698444e-001 1.048970e+000 1.507067e+000 1.140183e+000 2.027716e+000 2.983612e+000 1.532131e+000 2.334051e+000 3.078355e+000 1.999648e+000 1.854087e+000 1.356847e+000 5.648351e-001 1.169869e-001 1.892567e-001 1.522807e-001 2.162197e-001 2.786337e-001 5.227073e-001 3.221468e-001 3.850296e-001 2.885245e-001 3.960035e-001 2.583276e-001 2.785623e-001 7.085384e-002
<GCONST> 1.143323e+002
<STATE> 4
<MEAN> 39
 -3.246005e+000 -4.266008e+000 -3.877191e+000 -6.794759e+000 -7.136669e+000 2.401591e+000 -1.382438e+001 -2.136741e+000 -6.986713e-001 -3.969472e-002 3.249573e-001 -2.426115e+000 6.405010e+001 -1.478638e-001 1.750893e-001 2.342111e-002 1.702058e-001 9.213946e-002 3.258636e-001 7.944302e-002 -1.605403e-001 -2.221874e-001 -1.870531e-002 1.692595e-001 8.427324e-002 -4.101888e-001 -3.559850e-002 -1.461144e-002 8.443566e-002 9.791897e-002 -2.762983e-002 1.474134e-003 9.637336e-002 -1.294251e-002 3.065122e-002 6.372478e-003 2.867687e-002 -2.858345e-004 -9.408316e-003
<VARIANCE> 39
 4.737750e+001 3.039937e+001 4.119744e+001 1.557019e+002 6.540711e+001 1.350977e+002 1.360924e+002 7.295132e+001 5.889364e+001 6.147269e+001 4.401238e+001 4.637653e+001 1.339296e+002 6.197894e-001 1.222314e+000 1.645393e+000 1.822122e+000 2.404355e+000 2.613648e+000 1.678361e+000 1.985943e+000 1.819467e+000 1.673674e+000 1.558925e+000 1.451806e+000 6.979021e-001 9.989925e-002 1.880849e-001 1.934978e-001 2.587009e-001 3.882655e-001 3.447898e-001 3.270551e-001 3.279269e-001 2.467628e-001 2.616483e-001 2.891766e-001 2.444435e-001 9.501377e-002
<GCONST> 1.131959e+002
<TRANSP> 5
 0.000000e+000 1.000000e+000 0.000000e+000 0.000000e+000 0.000000e+000
 0.000000e+000 6.526090e-001 3.473910e-001 0.000000e+000 0.000000e+000
 0.000000e+000 0.000000e+000 4.076622e-001 5.923378e-001 0.000000e+000
 0.000000e+000 0.000000e+000 0.000000e+000 6.076844e-001 3.923156e-001
 0.000000e+000 0.000000e+000 0.000000e+000 0.000000e+000 0.000000e+000
<ENDHMM>
~h "p"
<BEGINHMM>
<NUMSTATES> 5
<STATE> 2
<MEAN> 39
 1.942136e+000 -1.049197e+001 -6.654263e-001 5.102732e+000 -1.449655e+001 1.055765e+001 -4.732359e+000 1.892257e+000 9.937454e+000 -5.497420e+000 2.105671e+000 3.768676e+000 7.070110e+001 5.178100e-001 -5.084469e-001 1.724000e-001 1.536248e-001 -3.107591e-001 -1.020948e-001 1.861414e-001 2.799107e-001 4.599825e-001 -2.439843e-001 3.593280e-001 -1.021870e-001 7.655917e-001 -2.795912e-002 7.527816e-002 -5.770598e-002 -1.460507e-002 1.290048e-001 -4.582590e-002 -1.837999e-003 6.051426e-002 6.174479e-002 4.981438e-002 -3.513282e-002 3.631602e-002 -4.000565e-002
<VARIANCE> 39
 9.073599e+001 9.186062e+001 6.418079e+001 6.381015e+001 1.305261e+002 1.331355e+002 7.297820e+001 5.649173e+001 1.460561e+002 5.118499e+001 3.825590e+001 3.060875e+001 1.108536e+002 3.968611e+000 6.009833e+000 4.106100e+000 2.984806e+000 5.070674e+000 5.373320e+000 4.285233e+000 3.755140e+000 7.620243e+000 3.745385e+000 3.411180e+000 2.291983e+000 4.018506e+000 5.557522e-001 1.109174e+000 6.782496e-001 6.082325e-001 8.587417e-001 1.043622e+000 8.141559e-001 5.667609e-001 1.147035e+000 6.567599e-001 6.130007e-001 4.374528e-001 5.183784e-001
<GCONST> 1.418545e+002
<STATE> 3
<MEAN> 39
 6.215427e+000 -9.135038e+000 -1.464730e+000 8.979457e+000 -9.451863e+000 1.937819e+001 -1.560967e+000 3.441628e+000 1.076032e+001 -6.444254e+000 4.643853e+000 4.911204e+000 7.201449e+001 -3.048398e-001 3.144347e-001 -4.638734e-002 -8.451084e-002 1.925129e-001 1.518838e-001 -5.454911e-002 -1.311738e-001 -1.616960e-001 2.218613e-001 -6.146944e-002 4.704935e-002 -4.266126e-001 -9.418054e-003 -3.135577e-002 1.476266e-002 -1.560488e-002 -5.304643e-002 -3.122814e-002 -3.399024e-002 -4.211450e-002 -3.669838e-002 -2.995014e-003 -1.036948e-002 -1.153093e-002 6.764124e-003
<VARIANCE> 39
 5.458361e+001 7.328957e+001 3.653691e+001 8.457316e+001 7.808147e+001 1.055060e+002 6.937949e+001 5.362083e+001 6.426305e+001 6.192768e+001 4.933639e+001 3.632355e+001 8.289756e+001 5.301623e-001 1.921853e+000 1.151399e+000 1.717065e+000 2.432717e+000 2.865513e+000 2.659467e+000 2.094075e+000 2.532301e+000 2.598163e+000 2.372323e+000 1.955712e+000 8.122007e-001 7.472074e-002 2.695998e-001 1.841816e-001 2.710113e-001 3.754057e-001 4.556114e-001 4.142768e-001 3.542096e-001 4.676613e-001 4.550769e-001 4.033341e-001 3.567293e-001 1.153911e-001
<GCONST> 1.167802e+002
<STATE> 4
<MEAN> 39
 -1.383857e+001 7.959785e-001 -2.140284e+000 -4.288255e-001 6.214287e-001 2.443099e+000 -2.081572e-001 2.784668e+000 2.698639e+000 1.449986e+000 2.518122e+000 8.215541e-001 6.074750e+001 -2.601003e-001 2.940467e-003 7.615957e-003 4.843824e-002 9.206866e-002 -2.529001e-002 6.973843e-002 2.677387e-002 -9.378225e-002 6.947981e-002 -4.037009e-002 -6.619626e-002 -1.571350e-001 1.271436e-001 -7.078885e-002 5.478848e-002 3.674407e-002 -5.275701e-002 -4.240836e-002 -7.586914e-002 -3.801890e-002 -8.311650e-002 -1.400697e-001 -7.519126e-002 -1.503943e-002 1.301003e-001
<VARIANCE> 39
 7.948775e+001 2.646613e+001 5.939170e+001 7.282562e+001 9.670126e+001 8.588201e+001 4.791982e+001 6.473231e+001 4.316126e+001 3.212628e+001 2.456447e+001 2.353492e+001 2.693239e+002 5.248417e-001 5.607253e-001 8.018094e-001 8.550876e-001 1.055972e+000 1.608030e+000 1.303855e+000 1.604702e+000 1.531603e+000 1.305138e+000 1.457537e+000 1.308807e+000 4.368692e-001 1.183145e-001 1.137682e-001 1.727571e-001 2.005867e-001 1.913228e-001 2.752033e-001 2.037404e-001 3.397703e-001 3.188099e-001 2.735728e-001 2.545487e-001 2.790596e-001 2.593460e-001
<GCONST> 1.044147e+002
<TRANSP> 5
 0.000000e+000 1.000000e+000 0.000000e+000 0.000000e+000 0.000000e+000
 0.000000e+000 7.844464e-001 2.155535e-001 0.000000e+000 0.000000e+000
 0.000000e+000 0.000000e+000 8.879689e-001 1.120311e-001 0.000000e+000
 0.000000e+000 0.000000e+000 0.000000e+000 7.180921e-001 2.819079e-001
 0.000000e+000 0.000000e+000 0.000000e+000 0.000000e+000 0.000000e+000
<ENDHMM>
~h "r"
<BEGINHMM>
<NUMSTATES> 5
<STATE> 2
<MEAN> 39
 4.909722e+000 -1.142482e+001 -3.824163e+000 4.772565e+000 -8.840991e+000 1.055237e+001 -5.153604e+000 -1.727913e+000 6.081099e+000 -1.007797e+001 1.564857e+000 6.778862e+000 7.355543e+001 3.756805e-003 2.708837e-002 -1.465946e-001 1.441239e-001 1.749672e-001 3.478556e-001 -4.283933e-002 -2.624316e-001 -1.656067e-001 -1.472182e-001 1.840381e-001 1.739117e-001 -8.571134e-002 -7.554490e-002 5.547369e-002 2.868333e-002 1.104667e-001 3.291188e-003 -1.427219e-001 5.244181e-002 5.759896e-002 1.643127e-002 8.638611e-002 -3.397537e-002 -5.476877e-002 -8.743039e-002
<VARIANCE> 39
 9.593707e+001 6.646032e+001 5.320750e+001 1.280226e+002 1.055409e+002 2.209314e+002 7.538873e+001 5.986939e+001 8.486538e+001 6.946364e+001 6.747281e+001 8.707063e+001 1.049968e+002 2.055348e+000 3.367674e+000 2.466530e+000 3.261536e+000 3.268028e+000 4.706458e+000 3.033914e+000 3.062699e+000 3.919141e+000 3.997243e+000 3.498116e+000 2.551325e+000 2.928584e+000 2.842101e-001 4.799978e-001 3.937996e-001 3.746760e-001 4.368864e-001 7.080601e-001 5.647553e-001 4.631722e-001 6.139023e-001 6.915531e-001 5.604748e-001 3.827373e-001 3.076592e-001
<GCONST> 1.347519e+002
<STATE> 3
<MEAN> 39
 -9.757929e-001 -5.810180e+000 -3.475742e+000 1.711279e+000 -6.702793e+000 8.438148e+000 -3.641494e+000 -1.647984e+000 4.209697e+000 -6.295603e+000 3.291866e-001 3.876470e+000 6.689326e+001 -8.381284e-001 5.391121e-001 -1.593095e-001 4.168211e-001 2.063264e-001 -4.765617e-001 3.471745e-001 -7.077445e-003 -2.635562e-001 5.741509e-001 -1.240013e-001 -2.860477e-001 -1.153548e+000 -5.597968e-002 -6.717435e-002 1.625855e-002 -6.019114e-002 -2.071367e-002 -2.534548e-002 4.891776e-002 6.535199e-002 5.915089e-002 -5.252618e-003 -2.457348e-002 -3.111393e-002 1.935335e-002
<VARIANCE> 39
 8.241826e+001 4.183261e+001 5.679861e+001 8.429435e+001 1.098279e+002 2.818275e+002 8.672614e+001 7.192873e+001 9.878217e+001 4.846235e+001 7.493294e+001 7.389568e+001 1.223002e+002 9.176348e-001 2.198234e+000 2.421655e+000 1.745963e+000 2.413834e+000 2.900250e+000 3.387321e+000 2.875296e+000 3.586785e+000 2.570894e+000 2.242151e+000 1.592404e+000 1.468433e+000 9.706262e-002 2.225956e-001 3.362092e-001 2.499335e-001 3.610810e-001 5.059353e-001 6.083329e-001 5.335707e-001 5.491561e-001 3.696702e-001 3.926522e-001 2.711890e-001 1.314635e-001
<GCONST> 1.245187e+002
<STATE> 4
<MEAN> 39
 -9.809617e+000 -2.888128e+000 -5.672565e+000 1.022395e+000 -4.988852e+000 -1.540197e+000 -3.614418e+000 -1.817616e+000 -8.695602e-001 -3.312599e+000 -7.062197e-001 -2.711968e-001 5.966356e+001 -3.788850e-001 1.706197e-001 5.946708e-002 1.746201e-001 1.263722e-001 1.018791e-001 1.828891e-001 1.384527e-001 2.263736e-001 1.406162e-001 3.865292e-002 1.732827e-003 -5.036007e-001 5.495395e-002 -5.629766e-002 -3.229886e-003 -5.634678e-002 6.141995e-003 2.242384e-002 -2.021042e-002 2.933347e-002 -1.212584e-002 -6.760519e-002 2.712712e-002 4.501133e-002 1.379401e-001
<VARIANCE> 39
 4.746133e+001 3.350999e+001 4.531874e+001 5.033276e+001 6.069150e+001 9.891249e+001 6.123914e+001 6.321571e+001 6.102668e+001 4.007907e+001 4.942936e+001 3.792131e+001 2.605184e+002 5.857901e-001 9.120532e-001 1.177167e+000 1.186970e+000 1.241665e+000 1.602420e+000 1.797253e+000 2.004518e+000 2.250077e+000 2.093047e+000 1.430344e+000 1.230005e+000 8.234694e-001 9.254003e-002 1.856425e-001 2.005328e-001 2.352468e-001 2.880471e-001 3.318307e-001 3.762571e-001 3.639609e-001 4.051451e-001 4.611754e-001 3.352590e-001 2.581269e-001 1.357721e-001
<GCONST> 1.106659e+002
<TRANSP> 5
 0.000000e+000 1.000000e+000 0.000000e+000 0.000000e+000 0.000000e+000
 0.000000e+000 7.047086e-001 2.952914e-001 0.000000e+000 0.000000e+000
 0.000000e+000 0.000000e+000 5.170149e-001 4.829851e-001 0.000000e+000
 0.000000e+000 0.000000e+000 0.000000e+000 7.141476e-001 2.858524e-001
 0.000000e+000 0.000000e+000 0.000000e+000 0.000000e+000 0.000000e+000
<ENDHMM>
~h "s"
<BEGINHMM>
<NUMSTATES> 5
<STATE> 2
<MEAN> 39
 -1.355845e+001 -1.487485e+000 -2.863587e+000 -5.029915e+000 -9.917068e-001 -5.117550e+000 -3.328963e+000 -2.700968e+000 -1.379581e+000 -3.481752e+000 9.210307e-002 -2.668631e+000 6.652921e+001 3.697402e-001 -7.697048e-001 3.621931e-001 -7.300490e-001 -8.862428e-002 -2.264234e-001 1.619365e-001 7.263251e-002 -1.576244e-001 -2.992602e-001 1.375481e-001 -1.538345e-001 1.551736e+000 1.470207e-002 -1.219303e-001 8.554305e-002 -9.708019e-002 -6.057255e-002 6.168457e-002 2.313284e-003 3.499864e-002 2.607700e-002 -3.532838e-002 9.636985e-003 -6.976619e-003 -1.228470e-002
<VARIANCE> 39
 1.460451e+002 1.260521e+002 7.968756e+001 1.850373e+002 1.223324e+002 1.326577e+002 1.261382e+002 8.213416e+001 9.592407e+001 4.529410e+001 5.849512e+001 4.069278e+001 1.689664e+002 6.995159e+000 8.896793e+000 7.408794e+000 8.928168e+000 7.678905e+000 4.679599e+000 7.595916e+000 6.233609e+000 4.439845e+000 3.721428e+000 4.056921e+000 3.405521e+000 7.789593e+000 8.726443e-001 1.068131e+000 8.091859e-001 1.235463e+000 1.114707e+000 8.760273e-001 1.114599e+000 1.044602e+000 7.584470e-001 6.360384e-001 6.828235e-001 5.765001e-001 1.267208e+000
<GCONST> 1.531969e+002
<STATE> 3
<MEAN> 39
 -5.982860e+000 -2.333511e+001 1.433085e+001 4.995601e+000 -1.770593e+001 1.512806e+001 2.658977e+000 -6.536561e-001 2.716725e+000 -7.355481e+000 7.694721e+000 3.938457e+000 7.713514e+001 2.964323e-001 4.585642e-002 -2.000431e-001 1.912392e-001 3.620459e-001 -4.753406e-002 -1.987327e-001 4.379659e-002 5.335709e-001 1.909396e-002 -1.375521e-001 -8.783916e-002 1.958239e-001 6.165136e-002 1.594354e-001 -2.242843e-001 1.007159e-001 1.287479e-001 -7.703825e-002 -4.094780e-002 5.122427e-002 4.614635e-002 4.324841e-002 -3.998746e-002 -2.634139e-002 -1.298328e-001
<VARIANCE> 39
 1.199057e+002 1.324553e+002 2.019707e+002 1.443862e+002 1.941340e+002 1.944752e+002 7.165958e+001 7.184261e+001 5.497540e+001 4.740772e+001 5.958492e+001 6.329246e+001 4.691331e+001 6.362109e+000 4.894940e+000 9.161161e+000 4.691639e+000 4.254110e+000 4.397261e+000 3.083564e+000 2.921774e+000 3.287322e+000 3.076203e+000 2.358455e+000 2.093651e+000 1.351247e+000 6.162630e-001 6.486248e-001 8.236294e-001 5.487723e-001 7.284084e-001 6.566445e-001 5.564583e-001 4.626374e-001 5.296686e-001 4.887040e-001 4.376139e-001 3.488373e-001 2.953447e-001
<GCONST> 1.389471e+002
<STATE> 4
<MEAN> 39
 -8.880034e+000 -5.135268e+000 9.588453e+000 -1.142874e+001 1.537527e+001 -1.543291e+001 1.245186e+001 -1.520706e+001 1.014311e+001 -9.402967e+000 1.102244e+001 -4.276124e+000 7.590296e+001 -3.135908e-003 2.066539e-002 -1.099224e-002 6.563205e-003 1.814592e-002 8.827539e-003 5.641123e-003 2.825728e-002 4.438567e-002 6.059836e-003 -1.927777e-003 -9.608170e-003 -3.407494e-002 -2.931507e-003 -4.946207e-003 2.417782e-003 5.015182e-003 -7.634039e-003 6.447688e-003 -6.633692e-003 -3.685940e-003 -5.136120e-003 -1.984338e-004 -4.308014e-003 1.114756e-003 -7.729505e-003
<VARIANCE> 39
 6.072575e+001 3.002565e+001 5.608509e+001 5.303989e+001 4.349935e+001 4.400496e+001 5.367233e+001 4.892472e+001 5.750906e+001 4.280255e+001 3.336595e+001 2.348057e+001 5.796949e+001 1.210665e+000 8.488554e-001 1.269451e+000 1.139289e+000 1.132105e+000 1.495283e+000 1.607394e+000 1.617229e+000 1.811074e+000 1.746537e+000 1.436423e+000 1.252138e+000 6.342271e-001 1.434409e-001 1.399480e-001 1.861530e-001 1.887075e-001 1.960497e-001 2.563378e-001 2.823099e-001 2.910622e-001 3.084911e-001 3.051526e-001 2.554212e-001 2.284828e-001 7.308644e-002
<GCONST> 1.037402e+002
<TRANSP> 5
 0.000000e+000 1.000000e+000 0.000000e+000 0.000000e+000 0.000000e+000
 0.000000e+000 8.024984e-001 1.975016e-001 0.000000e+000 0.000000e+000
 0.000000e+000 0.000000e+000 8.010759e-001 1.989240e-001 0.000000e+000
 0.000000e+000 0.000000e+000 0.000000e+000 9.567964e-001 4.320362e-002
 0.000000e+000 0.000000e+000 0.000000e+000 0.000000e+000 0.000000e+000
<ENDHMM>
~h "t"
<BEGINHMM>
<NUMSTATES> 5
<STATE> 2
<MEAN> 39
 -1.142522e+001 -3.801449e+000 -1.834300e+000 -5.386592e+000 -3.154468e+000 -5.251118e+000 -6.349551e+000 -2.932926e+000 -2.518375e-001 -2.998815e+000 -1.586158e+000 -3.542442e+000 5.999907e+001 6.752803e-001 -8.454646e-001 6.219137e-001 -1.251052e+000 1.078118e-001 -5.718893e-001 -8.578449e-001 -1.253821e-002 1.140575e-001 -2.037975e-001 9.132554e-002 -4.522086e-001 2.477067e+000 2.657691e-001 -8.588703e-002 -3.838693e-003 -1.824570e-001 -1.045686e-001 2.987124e-002 -2.534634e-001 6.362442e-002 -9.761196e-002 -2.717306e-002 -1.433185e-002 -7.787067e-002 1.970036e-001
<VARIANCE> 39
 7.261708e+001 5.747877e+001 6.705814e+001 1.255507e+002 8.481825e+001 1.399749e+002 9.943946e+001 7.159286e+001 6.530386e+001 5.312239e+001 4.416752e+001 5.261903e+001 2.298957e+002 4.915815e+000 5.456715e+000 4.535066e+000 1.097605e+001 6.439594e+000 4.313980e+000 9.358047e+000 5.290824e+000 6.385992e+000 5.858074e+000 3.882388e+000 4.447746e+000 1.614881e+001 6.634188e-001 9.124808e-001 7.785145e-001 1.473809e+000 1.013599e+000 8.858894e-001 1.539600e+000 8.845745e-001 1.170609e+000 8.935009e-001 6.014202e-001 8.015378e-001 2.619848e+000
<GCONST> 1.524361e+002
<STATE> 3
<MEAN> 39
 -4.490138e+000 -8.100549e+000 -2.583282e-001 -9.537034e+000 -3.182426e+000 -5.353783e+000 -1.018155e+001 -3.297919e+000 -1.598009e+000 -4.071852e+000 -7.487418e-001 -4.522663e+000 7.339129e+001 1.022050e+000 -9.451207e-002 -3.216135e-001 -5.828667e-001 -5.739526e-001 -3.563024e-001 -9.576033e-001 -4.585134e-003 -7.818908e-001 -1.985152e-001 -5.490225e-002 1.237084e-001 6.730437e-001 -4.038459e-001 2.712865e-001 -2.055770e-001 3.318322e-001 3.482345e-002 1.050561e-001 4.628586e-001 4.075651e-002 2.104304e-001 1.772634e-001 6.372223e-002 2.245720e-001 -5.610300e-001
<VARIANCE> 39
 5.574623e+001 6.403151e+001 5.757421e+001 2.378870e+002 1.463740e+002 1.351853e+002 1.682757e+002 1.372410e+002 1.050683e+002 8.452257e+001 6.654131e+001 5.935919e+001 8.079059e+001 2.051316e+000 3.971149e+000 2.925004e+000 4.662754e+000 4.634912e+000 7.627748e+000 4.974849e+000 5.531560e+000 8.522781e+000 4.919057e+000 3.825298e+000 2.192927e+000 2.573383e+000 3.490393e-001 5.060316e-001 4.866946e-001 9.783393e-001 7.114048e-001 7.664289e-001 9.648783e-001 9.984763e-001 9.594188e-001 9.697782e-001 7.161058e-001 4.760343e-001 6.324861e-001
<GCONST> 1.447600e+002
<STATE> 4
<MEAN> 39
 -7.543505e+000 -8.437281e+000 -2.321173e+000 -1.403835e+001 -4.299575e+000 -7.723875e+000 -1.423015e+001 -4.960175e+000 -7.409043e+000 -2.392232e+000 -5.361272e+000 -7.369073e+000 6.638090e+001 -6.787878e-002 1.910903e-001 -8.606816e-002 4.577272e-001 -1.394425e-001 -4.980339e-002 2.216703e-001 7.960705e-003 -1.224353e-002 -1.001434e-001 -1.598435e-002 1.184974e-001 -5.392287e-001 -7.470533e-002 2.288294e-002 2.474952e-002 9.219486e-002 -9.414619e-004 1.526738e-002 6.705552e-002 3.247196e-003 8.045915e-002 2.385987e-002 3.384916e-002 1.199077e-002 -7.346249e-002
<VARIANCE> 39
 3.986891e+001 6.720876e+001 4.079351e+001 1.787705e+002 8.755725e+001 6.243421e+001 8.869025e+001 8.954156e+001 9.647645e+001 6.760093e+001 6.175526e+001 5.420654e+001 2.256979e+002 7.677513e-001 1.708048e+000 1.704592e+000 3.764913e+000 3.212113e+000 2.609755e+000 3.070695e+000 3.937042e+000 3.183644e+000 2.781095e+000 2.415848e+000 1.699726e+000 2.086960e+000 1.088307e-001 2.199726e-001 2.585502e-001 5.070227e-001 4.878841e-001 4.312740e-001 5.171490e-001 5.923232e-001 5.021037e-001 5.476544e-001 4.410318e-001 2.919304e-001 2.124784e-001
<GCONST> 1.260516e+002
<TRANSP> 5
 0.000000e+000 1.000000e+000 0.000000e+000 0.000000e+000 0.000000e+000
 0.000000e+000 7.423580e-001 2.576420e-001 0.000000e+000 0.000000e+000
 0.000000e+000 0.000000e+000 4.270799e-001 5.729201e-001 0.000000e+000
 0.000000e+000 0.000000e+000 0.000000e+000 8.376981e-001 1.623019e-001
 0.000000e+000 0.000000e+000 0.000000e+000 0.000000e+000 0.000000e+000
<ENDHMM>
~h "u"
<BEGINHMM>
<NUMSTATES> 5
<STATE> 2
<MEAN> 39
 -3.131434e+000 -4.157292e+000 4.539805e-001 -1.510781e+000 -5.510019e+000 -2.743716e+000 -6.832223e+000 -3.023499e+000 -6.946990e-001 -5.180820e+000 3.271238e-001 -2.326453e+000 6.814417e+001 4.311301e-001 2.304035e-001 -1.768341e-002 -2.613497e-001 -4.415415e-001 -1.384905e-001 -5.258716e-001 -1.664719e-001 -4.883543e-001 -2.700581e-001 2.298215e-001 1.920687e-001 3.026472e-001 -6.563577e-002 -1.883763e-002 -2.789361e-002 -5.741375e-002 3.504606e-002 1.375382e-001 1.028792e-001 1.499191e-001 -1.271069e-002 1.223083e-002 7.266153e-002 -2.758948e-003 -5.808380e-002
<VARIANCE> 39
 7.203593e+001 5.664149e+001 6.738036e+001 2.205294e+002 1.875147e+002 1.800739e+002 1.756265e+002 1.141948e+002 2.034203e+002 7.342610e+001 7.140677e+001 5.904260e+001 1.404611e+002 1.553760e+000 1.824384e+000 2.689107e+000 4.094962e+000 2.700230e+000 5.368661e+000 6.012675e+000 4.580911e+000 4.907845e+000 3.690155e+000 3.581396e+000 2.933297e+000 2.886887e+000 2.428853e-001 2.681584e-001 4.202828e-001 5.817897e-001 4.599186e-001 8.321840e-001 9.390213e-001 7.292399e-001 7.774028e-001 5.845615e-001 5.595140e-001 5.554740e-001 3.450246e-001
<GCONST> 1.400729e+002
<STATE> 3
<MEAN> 39
 2.375435e+000 -1.411753e+000 2.059882e+000 5.067967e+000 -9.624498e+000 5.739923e+000 -7.999272e+000 1.073310e-001 4.931642e+000 -6.287038e+000 3.224374e+000 2.438884e+000 6.796863e+001 -3.314888e-001 1.381400e-001 -3.511260e-001 -2.490269e-001 2.282182e-001 4.877665e-001 1.403159e-001 -1.903653e-001 -2.725111e-001 4.034195e-001 -5.347378e-002 3.176206e-003 -4.915286e-001 -5.368837e-002 -1.002099e-001 -2.937186e-002 -1.888807e-002 1.895008e-002 3.313679e-002 9.718903e-002 3.256267e-002 4.111433e-002 1.132726e-003 -7.488324e-002 -3.523568e-002 -5.986128e-003
<VARIANCE> 39
 6.476345e+001 3.762284e+001 6.919616e+001 1.803806e+002 1.047802e+002 1.413199e+002 1.018282e+002 8.767875e+001 1.533367e+002 8.269929e+001 5.393202e+001 6.482167e+001 8.320215e+001 5.378963e-001 1.112403e+000 1.115428e+000 1.502325e+000 2.019313e+000 2.456579e+000 2.192709e+000 2.587551e+000 2.590841e+000 2.751175e+000 2.330289e+000 1.403173e+000 5.407985e-001 7.644226e-002 1.308428e-001 2.025884e-001 2.293535e-001 2.966256e-001 3.972378e-001 3.844495e-001 4.742200e-001 4.838709e-001 3.871008e-001 4.117265e-001 2.815029e-001 6.938733e-002
<GCONST> 1.174974e+002
<STATE> 4
<MEAN> 39
 -6.801707e+000 2.097635e+000 -3.517540e+000 -8.396327e+000 -6.725015e+000 -1.194521e+000 -1.148282e+001 -2.456398e+000 -1.119705e+001 -4.640618e+000 2.706428e-002 -2.698436e+000 6.045075e+001 -2.013960e-001 -8.829754e-002 -8.164542e-002 2.884215e-001 1.183479e-001 8.601232e-002 3.923703e-001 7.708842e-002 2.529494e-001 -8.125839e-002 -1.053022e-001 5.587707e-002 -4.083574e-001 -1.828071e-002 -5.888191e-002 1.501888e-003 5.163951e-002 2.396052e-002 -7.448903e-002 3.094805e-002 -3.989945e-004 6.108094e-002 1.570655e-002 1.134534e-002 1.963930e-002 1.171550e-002
<VARIANCE> 39
 5.446738e+001 2.722309e+001 2.454979e+001 1.584083e+002 5.348336e+001 9.158174e+001 1.072403e+002 4.436566e+001 1.843446e+002 4.672792e+001 4.588580e+001 3.085769e+001 2.142894e+002 3.758439e-001 6.325101e-001 7.148923e-001 1.740440e+000 1.653638e+000 1.742498e+000 1.837628e+000 1.771605e+000 2.113975e+000 1.986049e+000 1.748710e+000 1.274553e+000 6.136948e-001 4.403314e-002 9.448529e-002 1.245360e-001 2.245692e-001 2.387946e-001 3.127257e-001 3.212599e-001 3.193909e-001 3.455592e-001 3.332984e-001 3.127565e-001 2.085617e-001 4.915565e-002
<GCONST> 1.068272e+002
<TRANSP> 5
 0.000000e+000 1.000000e+000 0.000000e+000 0.000000e+000 0.000000e+000
 0.000000e+000 5.594905e-001 4.405095e-001 0.000000e+000 0.000000e+000
 0.000000e+000 0.000000e+000 6.193271e-001 3.806729e-001 0.000000e+000
 0.000000e+000 0.000000e+000 0.000000e+000 8.221151e-001 1.778849e-001
 0.000000e+000 0.000000e+000 0.000000e+000 0.000000e+000 0.000000e+000
<ENDHMM>
~h "w"
<BEGINHMM>
<NUMSTATES> 5
<STATE> 2
<MEAN> 39
 8.511313e+000 -1.333965e+001 1.435956e+000 1.129187e+001 -1.486477e+001 1.521325e+001 -5.056788e+000 6.809924e+000 1.625625e+001 -1.160513e+001 1.727757e+000 7.519273e+000 7.602248e+001 -1.111956e-001 3.037025e-001 -1.316026e-001 -2.113171e-001 -5.860503e-002 2.326644e-002 1.131175e-001 -2.658489e-002 -1.501386e-001 1.611348e-001 -4.648161e-003 1.248607e-001 -2.770888e-001 -1.964356e-002 1.010803e-002 3.543439e-003 -6.413839e-003 6.683388e-003 -3.146347e-002 -1.270341e-002 -4.208877e-002 -3.322344e-002 4.215568e-002 9.543126e-003 4.182236e-003 -1.371766e-002
<VARIANCE> 39
 3.190372e+001 9.366124e+001 3.721907e+001 7.431054e+001 7.101920e+001 6.686507e+001 5.253001e+001 3.412443e+001 8.616158e+001 7.120359e+001 4.488611e+001 4.607029e+001 6.448470e+001 8.669077e-001 3.351835e+000 1.473341e+000 2.278405e+000 3.690488e+000 2.636967e+000 2.537999e+000 2.235858e+000 4.543142e+000 3.552302e+000 2.245452e+000 2.670787e+000 1.806121e+000 1.056277e-001 3.996687e-001 2.078820e-001 3.516591e-001 6.349977e-001 4.457074e-001 3.946242e-001 4.054654e-001 7.527882e-001 5.981806e-001 4.194165e-001 4.548237e-001 1.615579e-001
<GCONST> 1.223839e+002
<STATE> 3
<MEAN> 39
 -2.829775e-001 -1.128890e+001 3.409143e+000 1.122803e+001 -1.462305e+001 1.420043e+001 -6.013834e+000 1.159222e+000 1.101435e+001 -3.041227e+000 1.270705e+000 2.615555e+000 6.829769e+001 -1.439615e-001 -8.585420e-002 -8.433755e-002 -9.878924e-002 -4.541662e-002 -3.088877e-004 -1.653891e-002 2.077135e-002 1.172891e-001 1.239104e-001 1.267105e-001 5.002746e-002 -8.972724e-002 2.694348e-003 -1.308395e-002 -4.210676e-003 1.419387e-002 -1.672326e-002 -4.263040e-002 -9.392284e-003 -7.238755e-003 -3.370738e-002 -2.096240e-003 -2.112271e-004 -2.844631e-002 2.722409e-003
<VARIANCE> 39
 7.184120e+001 1.818817e+002 8.846827e+001 1.516327e+002 8.419778e+001 8.029120e+001 7.402293e+001 5.983278e+001 1.111287e+002 3.809129e+001 3.787716e+001 3.592756e+001 8.572580e+001 2.330527e+000 6.182341e+000 2.788052e+000 4.717294e+000 4.238032e+000 5.347370e+000 5.237385e+000 2.768106e+000 6.080568e+000 3.186955e+000 3.068773e+000 2.026336e+000 2.333385e+000 2.549829e-001 9.312325e-001 3.609262e-001 6.136850e-001 5.506606e-001 1.068690e+000 9.218910e-001 4.484072e-001 8.948870e-001 6.322983e-001 5.412195e-001 4.345598e-001 1.840785e-001
<GCONST> 1.365017e+002
<STATE> 4
<MEAN> 39
 -9.584490e+000 1.859956e+000 -3.112985e+000 4.054844e+000 -2.857961e+000 7.766511e+000 -1.578057e+000 5.813111e+000 2.253574e+000 2.178875e+000 2.516967e+000 1.011049e+000 4.422839e+001 -9.970331e-002 1.388622e-002 3.201101e-002 1.828005e-001 8.332857e-002 4.897859e-002 9.322621e-002 3.570349e-002 -1.135182e-002 1.131747e-001 1.737574e-002 -7.857730e-002 -1.713997e-001 1.316817e-002 -1.049542e-002 1.273302e-002 1.858460e-003 1.303995e-002 2.591345e-003 -5.819092e-003 -1.367467e-003 -3.567712e-003 -1.925355e-002 -2.753942e-002 -1.572722e-002 1.989786e-002
<VARIANCE> 39
 2.498849e+001 1.716568e+001 1.835219e+001 3.590984e+001 1.870984e+001 2.061364e+001 3.467488e+001 2.364681e+001 2.875545e+001 5.625079e+001 1.283350e+001 1.127680e+001 7.910095e+001 1.943007e-001 3.816501e-001 5.703953e-001 8.983333e-001 9.231194e-001 1.065370e+000 1.121096e+000 1.237983e+000 1.364720e+000 1.674358e+000 1.289148e+000 1.220498e+000 1.717853e-001 2.620574e-002 7.294462e-002 8.254939e-002 1.691068e-001 1.853010e-001 1.735774e-001 1.827364e-001 2.104633e-001 2.242605e-001 3.074678e-001 2.565296e-001 2.633588e-001 1.415247e-002
<GCONST> 8.333328e+001
<TRANSP> 5
 0.000000e+000 1.000000e+000 0.000000e+000 0.000000e+000 0.000000e+000
 0.000000e+000 9.479336e-001 5.206640e-002 0.000000e+000 0.000000e+000
 0.000000e+000 0.000000e+000 9.038612e-001 9.613879e-002 0.000000e+000
 0.000000e+000 0.000000e+000 0.000000e+000 9.370951e-001 6.290492e-002
 0.000000e+000 0.000000e+000 0.000000e+000 0.000000e+000 0.000000e+000
<ENDHMM>
~h "y"
<BEGINHMM>
<NUMSTATES> 5
<STATE> 2
<MEAN> 39
 -7.098447e+000 -6.473751e+000 -4.725844e+000 -2.734738e+000 -1.666511e+000 -1.354211e+001 -6.637250e+000 -1.332857e+000 -3.508006e+000 -6.343377e+000 2.299677e+000 -1.099783e+000 8.089136e+001 -8.038519e-002 -1.810301e-002 1.985419e-001 2.097020e-001 -1.974076e-001 -2.745431e-001 -4.099441e-002 2.020361e-001 8.001908e-003 -2.340081e-001 -3.770337e-002 2.834818e-002 7.150356e-003 -2.747208e-002 6.754954e-002 1.017936e-001 -3.367582e-003 -4.505860e-002 1.923824e-002 7.473468e-003 -5.019212e-002 -4.995656e-002 3.609434e-002 4.300314e-002 1.193337e-002 -7.831623e-002
<VARIANCE> 39
 1.482300e+001 7.173133e+001 5.846853e+001 1.584012e+002 4.284784e+001 1.094146e+002 7.835899e+001 5.601595e+001 2.903533e+001 3.128436e+001 8.300745e+001 4.006643e+001 5.434659e+001 2.933297e-001 9.924994e-001 1.785759e+000 1.550045e+000 1.334188e+000 2.114974e+000 2.026031e+000 1.388752e+000 1.035669e+000 1.691058e+000 1.699366e+000 9.702610e-001 2.623934e-001 4.107941e-002 1.471207e-001 1.712944e-001 2.376985e-001 1.752617e-001 3.545400e-001 2.935620e-001 2.347795e-001 2.273185e-001 3.093341e-001 3.260983e-001 1.417829e-001 3.878807e-002
<GCONST> 1.023732e+002
<STATE> 3
<MEAN> 39
 -8.165685e+000 -9.850358e+000 7.822559e+000 -1.648123e+001 -1.072473e+001 -1.238663e+001 -1.072222e+001 3.252504e-001 -7.254383e+000 -4.022902e+000 -1.710614e+000 -4.484365e+000 7.415004e+001 -5.913937e-003 1.392072e-001 3.686965e-002 1.257007e-001 3.492500e-003 2.311121e-001 4.160806e-002 -1.884478e-001 -1.719756e-002 5.041743e-002 8.127891e-003 -6.915775e-002 -3.300590e-001 -3.530706e-004 2.651194e-003 -5.349687e-002 2.239211e-002 6.611761e-002 3.733462e-002 4.455331e-003 -3.625838e-002 5.420695e-002 6.764097e-003 -3.329770e-002 -1.028318e-002 -3.587414e-002
<VARIANCE> 39
 1.919891e+001 7.131792e+001 1.082692e+002 1.012498e+002 1.086088e+002 1.128599e+002 6.645039e+001 8.893165e+001 6.028865e+001 4.922520e+001 7.953776e+001 4.221674e+001 9.063286e+001 4.447563e-001 2.419585e+000 3.208458e+000 1.844461e+000 4.598164e+000 2.467889e+000 3.016209e+000 3.871165e+000 3.003274e+000 2.191084e+000 3.609555e+000 1.604727e+000 6.903233e-001 5.116855e-002 2.038246e-001 2.848369e-001 2.414548e-001 4.678344e-001 4.073862e-001 4.294351e-001 5.748689e-001 3.421744e-001 3.347028e-001 4.637197e-001 2.596694e-001 5.672133e-002
<GCONST> 1.194791e+002
<STATE> 4
<MEAN> 39
 -7.169862e+000 -5.452069e+000 7.657911e+000 -1.094373e+001 1.657742e+001 -1.498262e+001 1.321122e+001 -1.462525e+001 1.207755e+001 -9.184483e+000 1.176339e+001 -3.556151e+000 7.527949e+001 -2.909752e-002 1.514819e-002 1.604256e-002 2.920958e-002 2.223120e-002 1.561119e-002 4.320959e-003 -9.760350e-004 3.447748e-002 1.418487e-002 -7.284191e-003 -1.441512e-002 -5.126670e-002 -1.338403e-004 -1.065634e-003 -3.189922e-003 1.730080e-004 -8.331244e-004 -3.045871e-003 -1.951084e-003 1.755150e-003 -3.136516e-003 1.483984e-003 1.788015e-003 -5.246261e-004 1.842403e-003
<VARIANCE> 39
 2.840622e+001 1.893042e+001 3.382318e+001 3.380003e+001 3.387185e+001 3.664442e+001 5.100054e+001 3.933453e+001 4.099545e+001 2.882372e+001 3.204776e+001 2.435670e+001 5.928751e+001 4.922209e-001 7.616748e-001 1.185238e+000 1.159992e+000 1.180333e+000 1.296399e+000 1.750085e+000 1.549680e+000 1.608744e+000 1.666461e+000 1.780742e+000 1.405289e+000 7.980590e-001 5.988841e-002 1.164480e-001 1.590540e-001 1.732497e-001 1.981099e-001 2.191837e-001 2.839737e-001 2.805101e-001 2.826191e-001 2.926969e-001 2.989367e-001 2.370666e-001 7.769950e-002
<GCONST> 9.807129e+001
<TRANSP> 5
 0.000000e+000 1.000000e+000 0.000000e+000 0.000000e+000 0.000000e+000
 0.000000e+000 8.052570e-001 1.947430e-001 0.000000e+000 0.000000e+000
 0.000000e+000 0.000000e+000 8.910718e-001 1.089282e-001 0.000000e+000
 0.000000e+000 0.000000e+000 0.000000e+000 9.847131e-001 1.528691e-002
 0.000000e+000 0.000000e+000 0.000000e+000 0.000000e+000 0.000000e+000
<ENDHMM>
~h "z"
<BEGINHMM>
<NUMSTATES> 5
<STATE> 2
<MEAN> 39
 -7.209439e+000 -1.870337e+000 1.352135e+000 -3.902631e+000 -7.292041e+000 3.172570e+000 -2.905739e-001 5.740519e+000 -6.230053e+000 4.723989e+000 7.417817e-001 -2.214984e+000 4.982655e+001 1.760132e-002 8.608399e-002 4.929203e-002 1.472639e-001 1.532781e-003 1.107689e-002 -2.920303e-002 -6.429189e-002 -1.520121e-001 -1.022421e-001 1.043208e-001 -1.044225e-002 -5.133525e-002 4.507072e-003 -4.128514e-003 -9.015619e-003 6.277233e-003 1.472261e-002 6.209036e-004 -1.783097e-002 -1.585923e-002 1.185281e-002 9.412582e-003 -2.889950e-003 4.329928e-003 3.787826e-003
<VARIANCE> 39
 5.169265e+001 3.276727e+001 1.175104e+001 8.072854e+001 3.526587e+001 1.222180e+001 1.250167e+002 2.757242e+001 8.912850e+001 6.644593e+001 3.291166e+001 2.682817e+001 4.419796e+001 4.060148e-001 5.300083e-001 7.317333e-001 1.300696e+000 1.062512e+000 1.070173e+000 2.701291e+000 1.450340e+000 1.817684e+000 1.952200e+000 1.910988e+000 1.041325e+000 6.487981e-001 4.881950e-002 7.375097e-002 1.238004e-001 1.371153e-001 1.775642e-001 2.004568e-001 3.499068e-001 2.873552e-001 3.003187e-001 3.671579e-001 3.814088e-001 1.670901e-001 5.117984e-002
<GCONST> 9.760133e+001
<STATE> 3
<MEAN> 39
 -1.815723e+001 -4.044396e-001 -4.314359e+000 -7.761218e-001 -4.802474e+000 -9.030465e+000 -5.957959e+000 -7.235667e+000 -7.759177e+000 -9.723315e+000 -4.783049e+000 -4.392323e+000 4.984784e+001 3.869207e-002 1.102115e-001 2.063438e-001 3.343884e-001 2.803679e-001 -2.293861e-001 -1.091604e-001 -4.405490e-001 -4.012145e-001 1.729955e-001 -8.637722e-003 3.661303e-002 -4.870190e-002 -4.101893e-002 -8.910121e-002 -6.644940e-002 -5.473865e-002 2.107024e-002 -6.779859e-002 1.170580e-001 1.909538e-001 6.656057e-002 1.628343e-001 7.616078e-002 -2.540137e-003 1.194529e-002
<VARIANCE> 39
 4.175326e+000 1.302541e+001 1.873024e+001 1.433725e+001 1.915681e+001 3.115617e+001 2.016259e+001 3.155201e+001 3.095897e+001 2.324153e+001 1.359195e+001 1.690430e+001 1.714572e+002 2.799557e-001 9.620330e-001 8.675249e-001 8.103867e-001 8.830338e-001 6.487102e-001 1.331114e+000 3.402545e+000 5.212166e+000 2.678059e+000 1.047767e+000 2.191015e+000 7.405822e-002 5.545335e-002 1.578224e-001 1.403318e-001 2.133176e-001 1.502605e-001 1.391577e-001 2.731954e-001 7.044341e-001 5.999879e-001 4.846726e-001 2.305981e-001 4.021300e-001 1.820811e-002
<GCONST> 9.004507e+001
<STATE> 4
<MEAN> 39
 -1.627427e+001 -7.024704e+000 -4.128310e+000 -1.790839e+000 -2.415539e+000 -1.542130e+001 -5.483796e+000 -4.745908e+000 -1.050866e+001 -1.001150e+001 -5.837096e+000 -5.938333e+000 5.321180e+001 2.867668e-001 -8.342876e-001 2.609371e-002 -1.015564e+000 3.438777e-001 -3.301103e-002 3.905210e-001 6.824258e-001 7.164928e-001 -2.823644e-001 3.973003e-002 -5.760169e-001 1.518757e+000 4.844765e-002 4.761055e-003 8.129219e-002 -1.089651e-001 1.660046e-002 1.071773e-002 -3.316291e-002 -1.237583e-001 5.432415e-002 -2.328583e-002 -1.926266e-002 1.890885e-002 1.505189e-002
<VARIANCE> 39
 1.341843e+001 4.424887e+001 9.671610e+000 9.137421e+001 3.333222e+001 1.002479e+002 6.218582e+001 4.207013e+001 3.626719e+001 2.038385e+001 1.600174e+001 2.704166e+001 2.592838e+002 6.185829e-001 1.690533e+000 1.522934e+000 4.326499e+000 4.099477e+000 8.890421e+000 7.199081e+000 3.839137e+000 1.109921e+000 1.369653e+000 1.036968e+000 1.872505e+000 1.110767e+001 1.231914e-001 2.264279e-001 2.747121e-001 7.262467e-001 8.534712e-001 1.640241e+000 1.092653e+000 5.103456e-001 1.755058e-001 2.081899e-001 1.383209e-001 3.086419e-001 1.557792e+000
<GCONST> 1.199416e+002
<TRANSP> 5
 0.000000e+000 1.000000e+000 0.000000e+000 0.000000e+000 0.000000e+000
 0.000000e+000 9.782377e-001 2.176224e-002 0.000000e+000 0.000000e+000
 0.000000e+000 0.000000e+000 9.067239e-001 9.327614e-002 0.000000e+000
 0.000000e+000 0.000000e+000 0.000000e+000 8.892822e-001 1.107178e-001
 0.000000e+000 0.000000e+000 0.000000e+000 0.000000e+000 0.000000e+000
<ENDHMM>
~h "ai"
<BEGINHMM>
<NUMSTATES> 5
<STATE> 2
<MEAN> 39
 -1.268763e+000 -9.787882e+000 4.385697e+000 -3.479943e+000 -1.002037e+001 -1.802594e+000 -1.220867e+001 -5.973426e+000 1.418614e+000 -6.100049e+000 -2.928860e+000 -1.939484e+000 7.217027e+001 2.122065e-001 -8.304075e-001 1.876724e-001 -4.320947e-001 8.031048e-001 -7.218591e-001 2.061518e-002 9.478559e-001 9.256186e-001 -7.078834e-001 2.489291e-002 -1.516341e-001 1.086522e+000 -1.639682e-002 2.154551e-003 -6.481276e-002 -1.077415e-001 1.279894e-001 6.575660e-002 9.528542e-002 3.070989e-002 -6.989361e-003 1.001864e-001 3.708510e-002 -3.955723e-003 2.244415e-002
<VARIANCE> 39
 6.437530e+001 7.203042e+001 6.388785e+001 2.857951e+002 1.653669e+002 1.770447e+002 1.504855e+002 1.215617e+002 1.359478e+002 1.116463e+002 7.446165e+001 7.378249e+001 6.020137e+001 2.015917e+000 4.731103e+000 5.603053e+000 7.278175e+000 7.647512e+000 5.456608e+000 6.184539e+000 7.380011e+000 5.344170e+000 6.687425e+000 3.473470e+000 3.219426e+000 1.936722e+000 2.957447e-001 7.870359e-001 8.365002e-001 1.027375e+000 9.431692e-001 1.033012e+000 9.773556e-001 1.547175e+000 9.790322e-001 1.181187e+000 5.831452e-001 5.894756e-001 3.533135e-001
<GCONST> 1.493494e+002
<STATE> 3
<MEAN> 39
 4.400444e+000 -1.738268e+001 2.809648e+000 8.603244e+000 -3.078637e+000 7.938277e+000 -7.242270e+000 1.918291e+000 7.688165e+000 -9.796623e+000 3.196607e+000 -1.132643e+000 7.779881e+001 -1.640174e-001 1.786024e-001 1.765904e-001 8.261645e-002 6.939846e-003 -1.132061e-001 2.309623e-001 -1.992773e-002 -3.643043e-001 3.621429e-001 1.664652e-001 -3.093180e-003 -3.781117e-001 -9.546324e-003 4.516758e-002 4.682302e-002 1.060746e-002 -1.682743e-001 -2.253630e-002 2.485381e-003 9.327082e-003 -7.053143e-002 4.556891e-002 3.510293e-002 1.964236e-002 -5.267107e-002
<VARIANCE> 39
 6.983760e+001 5.493985e+001 3.051192e+001 5.053561e+002 1.068788e+002 2.102771e+002 5.717896e+001 5.139663e+001 9.028989e+001 3.861466e+001 8.922906e+001 5.807115e+001 4.768504e+001 4.118654e-001 1.295488e+000 1.887732e+000 2.888849e+000 3.567456e+000 2.996337e+000 2.619290e+000 2.314928e+000 2.726011e+000 1.933448e+000 2.010729e+000 2.068118e+000 5.646291e-001 5.972060e-002 1.552477e-001 2.059349e-001 3.836493e-001 4.321115e-001 4.841536e-001 3.787845e-001 4.033609e-001 4.318558e-001 3.499190e-001 2.874205e-001 2.979125e-001 4.498678e-002
<GCONST> 1.177973e+002
<STATE> 4
<MEAN> 39
 -1.022932e+001 -7.618639e+000 1.266537e+001 -1.181805e+001 -1.320805e+001 -1.574128e+001 -5.564025e+000 -1.456415e+000 -1.280981e+001 -2.027693e+000 3.178422e-001 -6.332734e+000 6.348601e+001 -4.709342e-001 7.789311e-001 -3.988945e-001 1.179699e+000 -3.144949e-001 6.148564e-001 3.861082e-002 -2.717017e-001 -1.857512e-001 3.202280e-001 3.073841e-001 1.359682e-001 -1.452955e+000 -1.513167e-003 -1.518649e-002 -2.172818e-001 -8.963034e-004 1.661239e-001 1.028310e-001 -7.671535e-002 -6.202210e-002 1.460029e-001 -1.179089e-001 -9.882053e-002 1.612638e-002 -2.720805e-002
<VARIANCE> 39
 3.281662e+001 5.422089e+001 7.109791e+001 1.536787e+002 7.977048e+001 1.250923e+002 6.175014e+001 5.885521e+001 9.830432e+001 5.294660e+001 4.511062e+001 2.418832e+001 1.404427e+002 4.286669e-001 1.066894e+000 4.336159e+000 2.782385e+000 3.625021e+000 2.707323e+000 3.084464e+000 2.763273e+000 3.653334e+000 3.272806e+000 2.948743e+000 1.711294e+000 1.291893e+000 6.859935e-002 1.880566e-001 2.778425e-001 3.730566e-001 4.335801e-001 3.837121e-001 5.079435e-001 4.722981e-001 4.105613e-001 4.096108e-001 4.420778e-001 3.488182e-001 9.686040e-002
<GCONST> 1.210292e+002
<TRANSP> 5
 0.000000e+000 1.000000e+000 0.000000e+000 0.000000e+000 0.000000e+000
 0.000000e+000 8.366787e-001 1.633213e-001 0.000000e+000 0.000000e+000
 0.000000e+000 0.000000e+000 8.982773e-001 1.017227e-001 0.000000e+000
 0.000000e+000 0.000000e+000 0.000000e+000 8.232332e-001 1.767668e-001
 0.000000e+000 0.000000e+000 0.000000e+000 0.000000e+000 0.000000e+000
<ENDHMM>
~h "au"
<BEGINHMM>
<NUMSTATES> 5
<STATE> 2
<MEAN> 39
 -7.916883e+000 -7.455220e+000 -1.130713e+001 -1.152664e+000 -1.110968e+001 -1.899600e+001 2.856320e+000 9.404898e+000 -5.784578e+000 -1.248206e+001 3.130665e+000 2.707054e+000 8.237486e+001 -2.478034e-001 2.043463e-001 3.631278e-001 1.433880e-001 -1.998884e-001 -2.278020e-001 3.192123e-001 3.108070e-001 -5.293234e-002 -1.176799e-001 -1.537935e-001 -1.906637e-002 -1.989776e-001 -5.328131e-002 1.239272e-001 1.189052e-001 -2.437713e-002 7.801251e-002 2.098389e-001 3.037625e-002 -8.137263e-002 -1.341092e-003 -6.856829e-003 -1.294612e-001 -1.782515e-001 -5.180092e-002
<VARIANCE> 39
