~o
<STREAMINFO> 1 25
<VECSIZE> 25<NULLD><MFCC_D_N_Z_0><DIAGC>
~s "silst"
<MEAN> 25
 -1.645532e+000 5.284902e-001 -6.666204e-001 -1.035244e+000 3.798038e-001 4.893645e-001 -7.591576e-001 7.528457e-002 -1.258400e+000 -6.177980e-002 -1.058645e+000 1.164073e+000 -2.189606e-001 -1.947893e-001 -5.834021e-002 -1.410989e-001 6.695345e-002 -1.335505e-001 7.245160e-002 -9.010350e-002 2.388334e-001 -1.998457e-001 1.421301e-001 2.558124e-002 6.110294e-001
<VARIANCE> 25
 5.348203e+001 4.511086e+001 5.159106e+001 1.024535e+002 6.702650e+001 4.285863e+001 7.646487e+001 4.351422e+001 5.474728e+001 4.814659e+001 4.492940e+001 3.283166e+001 2.238404e+000 3.532971e+000 3.421339e+000 6.249425e+000 4.243557e+000 4.035978e+000 4.867879e+000 3.068862e+000 3.881164e+000 3.601284e+000 3.300909e+000 2.552073e+000 1.749900e+001
<GCONST> 1.118602e+002
~h "a"
<BEGINHMM>
<NUMSTATES> 5
<STATE> 2
<MEAN> 25
 2.197209e+000 -1.733214e+000 -4.035909e-001 -1.557991e+000 4.092743e-001 -1.481891e+000 -1.018769e+000 -6.563056e-001 -1.758617e-001 -1.240892e+000 -1.055852e+000 -2.982122e-001 1.451320e+000 -1.459018e+000 -6.513621e-001 -1.396203e+000 -3.731901e-001 -7.762106e-001 -5.217078e-001 6.147686e-001 1.954445e-001 -7.399365e-001 -1.487717e-001 -2.599808e-002 2.290004e+000
<VARIANCE> 25
 3.515152e+001 5.884087e+001 3.953739e+001 7.788018e+001 6.437843e+001 5.226694e+001 4.999361e+001 5.813629e+001 6.418197e+001 3.827546e+001 4.339888e+001 3.528965e+001 3.026178e+000 4.291814e+000 4.310690e+000 5.932934e+000 6.347042e+000 4.974714e+000 5.043189e+000 5.817330e+000 5.345279e+000 4.012799e+000 4.835654e+000 4.041323e+000 4.465630e+000
<GCONST> 1.130218e+002
<STATE> 3
<MEAN> 25
 7.123474e+000 -8.087271e+000 -4.458263e+000 -6.803574e+000 -1.323405e+000 -3.886345e+000 -9.732781e-002 2.456880e+000 9.750340e-001 -2.965042e+000 -2.659994e-001 4.026117e-001 7.662293e-002 -4.135425e-001 -4.041442e-001 -9.569404e-002 4.745579e-002 1.192549e-001 3.146389e-001 3.532788e-001 1.441017e-001 5.506368e-002 -2.084220e-002 -6.234197e-002 1.484652e-001
<VARIANCE> 25
 1.173566e+001 3.725748e+001 4.705069e+001 6.977326e+001 7.132681e+001 4.709498e+001 4.920438e+001 5.056193e+001 7.737483e+001 3.441415e+001 5.787045e+001 4.363122e+001 5.293637e-001 1.711715e+000 1.653266e+000 1.901347e+000 2.248599e+000 2.175406e+000 2.346526e+000 2.697550e+000 2.399725e+000 1.956061e+000 2.445780e+000 1.797995e+000 1.239300e+000
<GCONST> 9.950502e+001
<STATE> 4
<MEAN> 25
 6.015381e+000 -6.788858e+000 -4.176155e+000 -6.696167e+000 -4.769067e-001 -1.952190e+000 -1.796466e+000 3.618803e+000 6.209962e-001 -2.448329e+000 -3.137573e+000 -1.124864e+000 -2.139855e-001 5.302122e-001 1.684522e-001 3.325253e-001 9.715922e-002 1.395974e-001 6.020937e-002 -9.957895e-002 -4.217484e-003 1.021213e-001 -2.335768e-002 6.198477e-002 -6.679947e-001
<VARIANCE> 25
 1.226317e+001 3.604586e+001 3.146297e+001 5.012518e+001 4.445410e+001 2.642007e+001 5.300466e+001 3.664948e+001 3.678387e+001 2.750520e+001 5.640018e+001 3.733872e+001 3.891212e-001 1.158073e+000 9.824303e-001 1.294899e+000 1.495228e+000 1.462396e+000 1.820486e+000 1.656585e+000 1.418382e+000 1.438516e+000 1.526985e+000 1.295555e+000 1.036660e+000
<GCONST> 9.137514e+001
<TRANSP> 5
 0.000000e+000 1.000000e+000 0.000000e+000 0.000000e+000 0.000000e+000
 0.000000e+000 7.299030e-001 2.700970e-001 0.000000e+000 0.000000e+000
 0.000000e+000 0.000000e+000 7.182398e-001 2.817602e-001 0.000000e+000
 0.000000e+000 0.000000e+000 0.000000e+000 8.561937e-001 1.438063e-001
 0.000000e+000 0.000000e+000 0.000000e+000 0.000000e+000 0.000000e+000
<ENDHMM>
~h "b"
<BEGINHMM>
<NUMSTATES> 5
<STATE> 2
<MEAN> 25
 2.923241e-001 2.125459e+000 2.625903e+000 3.414464e+000 -6.105714e-001 -2.894353e+000 -1.685300e+000 -1.491804e+000 -1.575812e+000 -2.651582e+000 -1.839552e+000 -5.152615e-001 -4.991929e-001 5.088261e-003 -2.650582e-001 1.240099e-001 1.404640e-001 3.991013e-001 3.329036e-001 1.551362e-001 3.426318e-001 3.654510e-001 2.968853e-001 1.580215e-001 -7.523543e-001
<VARIANCE> 25
 2.041835e+001 2.401258e+001 6.120138e+001 5.069991e+001 5.429018e+001 5.323085e+001 4.516182e+001 4.050261e+001 4.002460e+001 3.719909e+001 3.710821e+001 2.110383e+001 5.825493e-001 9.204732e-001 1.317011e+000 1.541985e+000 1.723824e+000 2.252850e+000 1.795791e+000 2.063068e+000 1.953079e+000 1.762994e+000 1.801688e+000 1.541538e+000 7.824970e-001
<GCONST> 9.439597e+001
<STATE> 3
<MEAN> 25
 -4.056603e+000 4.190695e+000 -2.441334e+000 4.674836e+000 1.312894e+000 5.493078e-001 1.215439e+000 -1.131873e+000 -1.094762e+000 3.487091e-001 -9.727380e-001 1.264605e+000 -2.612217e-001 -3.758498e-002 -1.309966e-001 8.668368e-003 -6.940252e-002 1.204614e-002 2.321993e-002 -2.743367e-002 3.130037e-002 1.953661e-001 1.024760e-001 -2.190652e-002 -2.882652e-001
<VARIANCE> 25
 1.764610e+001 1.189687e+001 1.996610e+001 4.875090e+001 2.148160e+001 2.149768e+001 3.028589e+001 3.015627e+001 2.629992e+001 3.784052e+001 1.836746e+001 2.044310e+001 2.382701e-001 4.924428e-001 6.975660e-001 1.032938e+000 1.535766e+000 1.798914e+000 1.926724e+000 1.928471e+000 1.769763e+000 1.878239e+000 1.517374e+000 1.202455e+000 1.484414e-001
<GCONST> 8.371111e+001
<STATE> 4
<MEAN> 25
 -4.218755e+000 2.137761e+000 -8.618678e-001 3.869651e+000 2.340396e+000 3.977721e+000 4.726114e+000 1.259196e+000 3.414962e+000 2.644923e+000 1.930019e+000 4.676166e-001 -5.465638e-002 2.628395e-002 3.094701e-002 5.022142e-002 2.618766e-002 2.184308e-002 2.242139e-002 -4.382394e-002 -2.943094e-002 1.731377e-002 1.094680e-002 -5.436251e-003 -4.509038e-002
<VARIANCE> 25
 3.342438e+000 7.187797e+000 9.672149e+000 2.152524e+001 9.034947e+000 1.307390e+001 1.425669e+001 1.362609e+001 1.469141e+001 1.513140e+001 1.324800e+001 1.086265e+001 1.107027e-001 2.862382e-001 3.740543e-001 4.609921e-001 5.945491e-001 6.398615e-001 8.176104e-001 9.261960e-001 1.076046e+000 1.120960e+000 1.005609e+000 8.693104e-001 7.713978e-002
<GCONST> 6.591545e+001
<TRANSP> 5
 0.000000e+000 1.000000e+000 0.000000e+000 0.000000e+000 0.000000e+000
 0.000000e+000 6.582013e-001 3.417987e-001 0.000000e+000 0.000000e+000
 0.000000e+000 0.000000e+000 8.071815e-001 1.928184e-001 0.000000e+000
 0.000000e+000 0.000000e+000 0.000000e+000 9.439082e-001 5.609178e-002
 0.000000e+000 0.000000e+000 0.000000e+000 0.000000e+000 0.000000e+000
<ENDHMM>
~h "c"
<BEGINHMM>
<NUMSTATES> 5
<STATE> 2
<MEAN> 25
 -3.669930e+000 1.699045e+000 -1.254477e+000 3.432229e+000 2.739163e+000 5.347154e+000 3.102006e+000 3.911233e-001 3.466858e+000 3.596135e+000 1.124532e+000 1.960707e+000 -1.287538e-001 -1.065522e-001 -7.545019e-002 -5.971998e-002 -7.383235e-003 5.691226e-002 1.742675e-001 1.202326e-001 3.850898e-002 9.717041e-002 9.792726e-002 1.025910e-001 -1.049864e-001
<VARIANCE> 25
 5.843667e+000 6.559834e+000 1.600719e+001 3.749024e+001 1.052122e+001 2.117307e+001 1.439178e+001 1.374251e+001 1.767216e+001 2.231990e+001 1.046080e+001 1.269992e+001 1.350335e-001 3.991596e-001 4.903983e-001 1.150165e+000 6.719953e-001 1.064008e+000 1.667536e+000 1.373147e+000 1.644987e+000 1.607454e+000 1.000708e+000 8.415290e-001 1.523167e-001
<GCONST> 7.346884e+001
<STATE> 3
<MEAN> 25
 -4.197715e+000 -1.738227e+000 8.126898e-001 2.377497e+000 2.164020e-001 2.935874e+000 5.213298e+000 2.797438e+000 3.137752e-001 1.549999e+000 2.418642e+000 3.248435e+000 -3.409027e-001 -1.386742e+000 1.085115e+000 9.712839e-001 -5.670308e-001 -1.761529e+000 1.199178e-001 8.213485e-001 -1.178804e+000 -1.350125e+000 1.152700e-002 1.835168e-001 6.531439e-001
<VARIANCE> 25
 1.059262e+001 2.468448e+001 2.617272e+001 3.790647e+001 7.468620e+000 3.136919e+001 2.469337e+001 2.538109e+001 2.980432e+001 2.166114e+001 1.171133e+001 9.932302e+000 4.653552e-001 3.975158e+000 2.330304e+000 4.348807e+000 1.431153e+000 1.529515e+000 2.860900e+000 3.586174e+000 2.821665e+000 1.893694e+000 1.939042e+000 1.260927e+000 8.240193e-001
<GCONST> 8.995570e+001
<STATE> 4
<MEAN> 25
 -8.534465e+000 -2.294811e+000 4.237096e+000 -1.638818e-001 -3.875575e-001 -1.911933e+000 4.025269e+000 -3.947916e-001 -3.877920e-002 3.659296e-001 2.742516e+000 4.034228e+000 6.478013e-001 -5.715257e-001 7.157909e-001 -7.810032e-001 1.615603e-002 -8.260741e-001 -1.241146e+000 -6.617895e-001 2.018662e-002 -2.943690e-001 -1.039908e-001 -3.132460e-001 2.044308e+000
<VARIANCE> 25
 6.500007e+001 2.325935e+002 7.757349e+001 6.398781e+001 8.274687e+001 3.929754e+001 7.989466e+001 4.209589e+001 5.861581e+001 3.075102e+001 2.175331e+001 3.165190e+001 1.255036e+001 1.657744e+001 1.090053e+001 5.482785e+000 9.956105e+000 3.300159e+000 8.408451e+000 5.791705e+000 5.395364e+000 4.037386e+000 3.223592e+000 5.158644e+000 3.445822e+000
<GCONST> 1.182551e+002
<TRANSP> 5
 0.000000e+000 1.000000e+000 0.000000e+000 0.000000e+000 0.000000e+000
 0.000000e+000 9.405926e-001 5.940740e-002 0.000000e+000 0.000000e+000
 0.000000e+000 0.000000e+000 6.020198e-001 3.979802e-001 0.000000e+000
 0.000000e+000 0.000000e+000 0.000000e+000 8.343840e-001 1.656161e-001
 0.000000e+000 0.000000e+000 0.000000e+000 0.000000e+000 0.000000e+000
<ENDHMM>
~h "d"
<BEGINHMM>
<NUMSTATES> 5
<STATE> 2
<MEAN> 25
 6.162708e+000 2.184788e+000 -5.808883e-001 -1.642740e+000 3.063091e-001 6.907064e-001 -6.293332e+000 -7.293550e+000 -5.405252e+000 -3.352540e+000 1.839060e+000 1.455455e+000 -2.551600e-001 3.111721e-001 1.406878e-002 1.772771e-001 1.667201e-002 5.860086e-002 4.721038e-001 1.876059e-001 3.954600e-002 3.352281e-002 -1.098769e-001 5.982501e-002 -5.154921e-001
<VARIANCE> 25
 1.935193e+001 2.381448e+001 2.406478e+001 4.775813e+001 6.426412e+001 5.116496e+001 7.417683e+001 5.411779e+001 3.812708e+001 2.234680e+001 6.610898e+001 2.702712e+001 6.149738e-001 1.219141e+000 1.474875e+000 2.083751e+000 1.834117e+000 2.356305e+000 2.562662e+000 2.253467e+000 1.844547e+000 1.850680e+000 2.989062e+000 1.810114e+000 1.278172e+000
<GCONST> 9.697179e+001
<STATE> 3
<MEAN> 25
 2.060333e+000 4.239112e+000 2.086848e+000 3.811285e+000 8.813215e-001 -3.665385e-001 -2.922776e+000 -2.676231e+000 -1.084133e+000 -7.881498e-001 -2.026083e+000 -6.323312e-001 -5.346158e-001 7.248624e-002 -1.382731e-001 9.336043e-002 7.229389e-002 2.149025e-001 5.347825e-001 3.235919e-001 3.949569e-001 3.558307e-001 2.674937e-001 7.714934e-002 -6.171623e-001
<VARIANCE> 25
 1.585466e+001 1.785444e+001 2.380340e+001 3.656461e+001 3.488279e+001 3.698102e+001 4.732372e+001 4.924229e+001 2.682219e+001 2.823693e+001 2.460914e+001 2.232476e+001 2.219366e-001 6.701962e-001 7.472331e-001 9.055691e-001 1.075393e+000 1.615617e+000 1.607841e+000 1.531805e+000 1.286750e+000 1.807350e+000 1.444574e+000 1.247030e+000 1.810410e-001
<GCONST> 8.509754e+001
<STATE> 4
<MEAN> 25
 -3.519144e+000 1.810826e+000 -2.846315e-001 2.676595e+000 1.530388e+000 2.804008e+000 2.652540e+000 5.667605e-001 2.280799e+000 2.616418e+000 1.110985e+000 4.696468e-001 -7.501833e-002 2.089756e-002 2.129386e-003 4.410681e-002 7.864229e-002 2.567904e-002 3.320681e-002 -3.637889e-002 -2.753994e-002 7.644773e-002 6.241117e-002 1.897234e-002 -6.502818e-002
<VARIANCE> 25
 5.881454e+000 8.580279e+000 1.195080e+001 1.857228e+001 1.129903e+001 1.453707e+001 1.503971e+001 1.895874e+001 1.790367e+001 1.510450e+001 1.355427e+001 1.279507e+001 1.784592e-001 3.390554e-001 4.143701e-001 4.932028e-001 6.918142e-001 7.824296e-001 8.968709e-001 1.074713e+000 1.094870e+000 1.119856e+000 1.026378e+000 1.030560e+000 8.366819e-002
<GCONST> 6.951648e+001
<TRANSP> 5
 0.000000e+000 1.000000e+000 0.000000e+000 0.000000e+000 0.000000e+000
 0.000000e+000 8.098460e-001 1.901540e-001 0.000000e+000 0.000000e+000
 0.000000e+000 0.000000e+000 7.374149e-001 2.625852e-001 0.000000e+000
 0.000000e+000 0.000000e+000 0.000000e+000 9.389791e-001 6.102088e-002
 0.000000e+000 0.000000e+000 0.000000e+000 0.000000e+000 0.000000e+000
<ENDHMM>
~h "e"
<BEGINHMM>
<NUMSTATES> 5
<STATE> 2
<MEAN> 25
 -3.984715e+000 2.313012e+000 -1.838359e+000 3.238629e+000 1.481254e+000 2.159548e+000 2.299298e+000 8.391700e-002 1.225005e+000 2.540697e+000 1.049439e+000 8.942601e-001 -4.666604e-002 -1.065024e-002 -1.533530e-002 8.085214e-002 3.710140e-002 -4.442184e-002 -1.587164e-002 -6.084125e-002 -7.216735e-002 -6.037004e-003 9.321562e-003 2.852531e-003 -4.782931e-002
<VARIANCE> 25
 1.142944e+001 1.116875e+001 1.518087e+001 4.291027e+001 1.315873e+001 1.817551e+001 2.921195e+001 3.085472e+001 2.829489e+001 2.329455e+001 1.640217e+001 1.238556e+001 3.153277e-001 5.021552e-001 7.300760e-001 8.779183e-001 8.949993e-001 1.312355e+000 1.336756e+000 1.584427e+000 1.588038e+000 1.556888e+000 1.328434e+000 1.206172e+000 2.548124e-001
<GCONST> 7.999423e+001
<STATE> 3
<MEAN> 25
 -2.792698e+000 -4.661438e-001 1.046341e+000 -6.110398e-002 1.303768e+000 1.196272e+000 2.333396e-001 -3.054780e+000 -2.515394e+000 -4.236875e-001 9.209605e-002 6.108223e-001 1.350339e+000 -5.859992e-001 1.219877e-002 -3.404236e-001 -5.575586e-001 -8.661630e-001 -6.113389e-001 -6.536213e-001 -8.162206e-001 -1.263764e+000 1.188720e-001 4.451365e-001 1.727673e+000
<VARIANCE> 25
 5.818310e+001 4.724508e+001 5.536727e+001 5.824202e+001 3.561373e+001 4.517937e+001 4.919242e+001 4.317827e+001 4.696392e+001 4.886694e+001 2.774945e+001 2.891485e+001 4.228793e+000 4.006024e+000 3.318880e+000 4.360004e+000 4.309307e+000 6.407078e+000 5.261376e+000 4.692272e+000 6.045252e+000 4.515830e+000 2.635734e+000 2.861848e+000 3.958076e+000
<GCONST> 1.101445e+002
<STATE> 4
<MEAN> 25
 4.252998e+000 -2.212045e+000 -1.775850e+000 -1.715800e-001 -9.921369e-001 -5.994483e+000 -4.665488e+000 -4.499505e+000 -3.960285e+000 -2.195580e+000 1.432812e+000 2.269176e+000 8.120733e-001 -2.991146e-001 -4.207541e-003 -5.685385e-001 -2.330017e-001 -5.928240e-001 -4.005657e-001 3.707960e-001 2.897118e-001 1.001232e-001 -1.171634e-001 -2.997846e-001 9.952922e-001
<VARIANCE> 25
 2.237880e+001 3.067744e+001 2.701382e+001 6.704278e+001 3.125863e+001 5.658334e+001 5.990688e+001 7.166223e+001 5.326248e+001 4.187986e+001 3.425215e+001 2.717402e+001 2.699469e+000 2.207583e+000 2.467503e+000 6.096369e+000 2.409469e+000 4.847517e+000 5.113316e+000 5.874755e+000 3.401751e+000 4.015374e+000 3.046996e+000 2.205616e+000 3.887730e+000
<GCONST> 1.066027e+002
<TRANSP> 5
 0.000000e+000 1.000000e+000 0.000000e+000 0.000000e+000 0.000000e+000
 0.000000e+000 8.849261e-001 1.150739e-001 0.000000e+000 0.000000e+000
 0.000000e+000 0.000000e+000 6.721669e-001 3.278331e-001 0.000000e+000
 0.000000e+000 0.000000e+000 0.000000e+000 6.614448e-001 3.385552e-001
 0.000000e+000 0.000000e+000 0.000000e+000 0.000000e+000 0.000000e+000
<ENDHMM>
~h "f"
<BEGINHMM>
<NUMSTATES> 5
<STATE> 2
<MEAN> 25
 -7.836610e+000 -3.997768e+000 1.422348e+000 2.402402e+000 5.919450e+000 -8.636767e-001 3.982480e+000 -3.025140e-001 3.775295e+000 2.274505e+000 2.384917e+000 2.100324e+000 3.369246e-001 -2.788121e-001 -1.636814e-001 -7.778342e-001 -2.225904e-001 -2.395958e-001 -1.089899e-001 -2.859711e-001 -9.033001e-002 -1.889073e-001 -3.366117e-001 -3.393896e-001 8.616286e-001
<VARIANCE> 25
 2.433988e+001 2.702963e+001 9.124764e+000 2.138697e+001 2.125957e+001 3.513398e+001 2.011744e+001 1.360621e+001 1.633791e+001 1.440371e+001 9.408584e+000 1.015716e+001 6.627463e+000 1.796797e+000 1.639726e+000 2.101778e+000 3.629298e+000 2.786304e+000 2.802175e+000 1.564655e+000 2.874403e+000 2.039009e+000 1.165470e+000 2.036507e+000 1.098538e+000
<GCONST> 9.019162e+001
<STATE> 3
<MEAN> 25
 5.315315e+000 -2.745265e+000 -4.899718e+000 -6.812723e+000 -2.924325e+000 6.117394e-001 -1.652741e+000 -1.188146e+000 -1.801724e-001 -1.444499e+000 -1.618531e+000 -3.297330e+000 3.632720e+000 -1.002130e+000 -2.584211e+000 -3.547670e+000 -1.615976e+000 1.339061e+000 -1.249436e+000 6.488813e-001 -8.893031e-001 -3.599122e-001 -6.524197e-001 -1.408027e+000 2.405296e+000
<VARIANCE> 25
 4.091208e+001 2.608688e+001 1.036584e+001 3.044077e+001 4.964312e+001 4.482991e+001 1.706703e+001 1.906379e+001 2.616473e+001 2.824433e+001 2.350031e+001 1.902395e+001 5.146264e+000 2.524167e+000 1.177262e+000 3.692114e+000 1.732522e+000 3.666938e+000 5.878912e+000 2.358312e+000 1.995393e+000 9.399188e-001 1.922882e+000 3.786693e+000 2.318239e+000
<GCONST> 9.684161e+001
<STATE> 4
<MEAN> 25
 5.688906e+000 -8.554616e+000 -4.496278e+000 -1.639353e+001 6.933108e+000 5.055818e+000 -4.290513e+000 -2.595216e+000 1.581548e+000 2.130670e-001 8.173442e-001 -5.856041e+000 2.476485e-002 1.217271e-001 6.837669e-002 -2.965756e-002 -6.766943e-002 -3.735673e-002 2.431161e-001 -1.866839e-001 -4.310864e-002 8.511745e-002 -1.449647e-001 -1.398918e-001 5.268472e-002
<VARIANCE> 25
 2.220313e+001 2.805576e+001 2.811958e+001 5.505302e+001 9.213770e+001 3.091969e+001 5.218788e+001 1.681515e+001 4.245313e+001 2.570257e+001 1.766674e+001 1.754662e+001 2.147796e+000 2.838437e+000 2.374696e+000 6.859922e+000 3.885952e+000 2.690473e+000 3.921973e+000 2.218195e+000 2.859840e+000 1.395054e+000 1.850973e+000 1.311810e+000 4.077428e+000
<GCONST> 9.997438e+001
<TRANSP> 5
 0.000000e+000 1.000000e+000 0.000000e+000 0.000000e+000 0.000000e+000
 0.000000e+000 8.905237e-001 1.094762e-001 0.000000e+000 0.000000e+000
 0.000000e+000 0.000000e+000 5.686226e-002 9.431377e-001 0.000000e+000
 0.000000e+000 0.000000e+000 0.000000e+000 8.947136e-001 1.052864e-001
 0.000000e+000 0.000000e+000 0.000000e+000 0.000000e+000 0.000000e+000
<ENDHMM>
~h "g"
<BEGINHMM>
<NUMSTATES> 5
<STATE> 2
<MEAN> 25
 -3.952526e+000 3.082309e+000 -1.144656e+000 4.892342e+000 2.197735e+000 8.840080e-001 1.783915e+000 -6.686530e-001 2.495601e-001 8.378997e-002 -1.222116e+000 9.166083e-001 -7.548241e-002 -6.342836e-002 -1.916827e-001 -1.313848e-001 -4.971104e-002 -1.741543e-002 -2.674259e-002 -8.334487e-002 -1.412936e-001 1.379077e-001 8.020658e-002 -5.962634e-002 -8.271086e-002
<VARIANCE> 25
 8.607726e+000 1.359017e+001 2.486931e+001 2.768701e+001 1.330835e+001 1.744674e+001 2.739130e+001 2.767532e+001 2.020039e+001 2.724523e+001 1.729340e+001 1.808749e+001 3.821984e-001 7.799190e-001 1.121951e+000 1.257849e+000 1.446117e+000 1.486812e+000 1.944435e+000 2.432133e+000 1.639709e+000 1.969014e+000 1.662361e+000 1.130646e+000 3.814580e-001
<GCONST> 8.367064e+001
<STATE> 3
<MEAN> 25
 -4.796082e+000 -3.798426e+000 -7.318444e-001 2.067570e+000 6.192235e-001 6.624878e-001 2.573985e+000 -1.307646e+000 -3.076194e+000 1.720710e+000 3.039870e-001 -7.843870e-001 3.773561e-001 -2.056294e+000 1.584443e-002 -1.704376e+000 -4.913655e-001 -2.034637e-001 -3.260863e-001 1.958989e-002 -2.601197e-001 -2.635844e-001 2.910868e-001 -2.652407e-001 2.756086e+000
<VARIANCE> 25
 1.967490e+001 1.163228e+002 2.916338e+001 4.782172e+001 3.351419e+001 7.418456e+001 3.875560e+001 3.491413e+001 2.071804e+001 3.086853e+001 1.980135e+001 2.313783e+001 1.792733e+000 1.275169e+001 4.141231e+000 7.283727e+000 1.317912e+001 6.241613e+000 6.791729e+000 6.597113e+000 3.290279e+000 4.622850e+000 3.114579e+000 3.377447e+000 5.455473e+000
<GCONST> 1.100598e+002
<STATE> 4
<MEAN> 25
 -1.150660e+000 -3.050349e+000 -4.242261e+000 -3.433733e+000 2.991328e+000 -1.270111e+000 -2.845506e+000 -3.311156e+000 -3.925056e+000 4.156929e+000 2.762073e+000 -8.496922e-001 1.200857e+000 2.024940e-001 8.086176e-001 -9.697608e-001 -1.045040e+000 -5.679070e-001 -1.485038e+000 -4.266356e-001 -4.927523e-001 1.543776e-002 7.900243e-001 -2.491500e-002 2.017092e+000
<VARIANCE> 25
 2.957152e+001 4.338951e+001 9.830302e+001 5.695670e+001 1.662616e+002 6.069853e+001 7.528060e+001 7.607256e+001 4.456728e+001 6.949043e+001 4.171170e+001 3.762153e+001 2.279430e+000 5.824970e+000 8.091993e+000 9.170900e+000 1.416923e+001 4.083789e+000 5.907861e+000 5.346776e+000 3.363320e+000 7.117591e+000 5.146542e+000 3.048738e+000 6.916829e+000
<GCONST> 1.172696e+002
<TRANSP> 5
 0.000000e+000 1.000000e+000 0.000000e+000 0.000000e+000 0.000000e+000
 0.000000e+000 9.079066e-001 9.209345e-002 0.000000e+000 0.000000e+000
 0.000000e+000 0.000000e+000 5.464347e-001 4.535652e-001 0.000000e+000
 0.000000e+000 0.000000e+000 0.000000e+000 6.470801e-001 3.529199e-001
 0.000000e+000 0.000000e+000 0.000000e+000 0.000000e+000 0.000000e+000
<ENDHMM>
~h "h"
<BEGINHMM>
<NUMSTATES> 5
<STATE> 2
<MEAN> 25
 2.169656e-001 -6.483138e+000 -2.710076e+000 -1.793792e+000 2.694959e+000 -9.070316e-003 5.366562e+000 2.283587e+000 -4.592912e-001 -7.897457e-001 -6.402245e-001 4.097485e-001 -4.838106e-001 8.949894e-002 -1.334561e-001 3.498391e-001 -8.778852e-002 3.828869e-001 4.177047e-001 1.731971e-001 2.318095e-001 2.933365e-001 2.479651e-001 2.969250e-001 -8.829399e-001
<VARIANCE> 25
 3.000171e+001 3.515865e+001 2.327224e+001 4.226615e+001 8.044169e+001 3.744941e+001 5.182540e+001 2.956350e+001 4.462189e+001 3.878297e+001 3.506310e+001 3.173916e+001 6.207430e-001 1.182342e+000 1.004428e+000 1.670178e+000 1.566648e+000 1.471119e+000 2.279851e+000 1.521431e+000 2.176077e+000 2.077868e+000 1.626898e+000 1.312702e+000 4.996409e-001
<GCONST> 9.347565e+001
<STATE> 3
<MEAN> 25
 -1.756507e+000 -4.640765e+000 -3.795958e+000 2.054914e+000 2.819823e+000 1.862514e+000 5.341041e+000 3.526442e+000 1.822867e+000 1.039514e+000 6.855072e-001 2.521518e+000 -1.863822e-001 7.024869e-001 1.643746e-001 2.473517e-001 -1.063209e-001 2.691462e-001 -1.357024e-001 1.810522e-002 3.986172e-001 2.516050e-001 1.210603e-001 -1.162292e-001 -6.883417e-001
<VARIANCE> 25
 6.163978e+000 2.458145e+001 1.202006e+001 3.399085e+001 2.474178e+001 1.572578e+001 1.975712e+001 2.149346e+001 2.175719e+001 2.062306e+001 2.212643e+001 2.297881e+001 1.738417e-001 6.084945e-001 5.897279e-001 8.190103e-001 9.526547e-001 8.744248e-001 1.093271e+000 1.367277e+000 1.425939e+000 1.303013e+000 1.380501e+000 1.068604e+000 1.337052e-001
<GCONST> 7.757443e+001
<STATE> 4
<MEAN> 25
 -3.757121e+000 1.443697e+000 -2.097633e+000 5.076054e+000 1.209597e+000 2.871372e+000 4.030365e+000 1.504016e+000 2.857857e+000 2.546217e+000 2.343222e+000 1.304968e+000 -3.631538e-002 3.593398e-002 2.579642e-002 6.688810e-002 1.617117e-002 -2.325943e-003 -2.472230e-002 -8.486270e-002 -3.774669e-002 -5.638107e-003 1.116963e-002 1.084815e-002 -4.351544e-002
<VARIANCE> 25
 3.476093e+000 8.165860e+000 8.164125e+000 2.979217e+001 1.133508e+001 1.099954e+001 1.852140e+001 1.735304e+001 1.705137e+001 1.602593e+001 1.363225e+001 1.101482e+001 1.050203e-001 2.657224e-001 3.956934e-001 6.041793e-001 7.129416e-001 8.869606e-001 1.175647e+000 1.183783e+000 1.016224e+000 1.252648e+000 1.145157e+000 9.451615e-001 6.124138e-002
<GCONST> 6.839725e+001
<TRANSP> 5
 0.000000e+000 1.000000e+000 0.000000e+000 0.000000e+000 0.000000e+000
 0.000000e+000 8.219432e-001 1.780567e-001 0.000000e+000 0.000000e+000
 0.000000e+000 0.000000e+000 8.259138e-001 1.740862e-001 0.000000e+000
 0.000000e+000 0.000000e+000 0.000000e+000 9.552325e-001 4.476751e-002
 0.000000e+000 0.000000e+000 0.000000e+000 0.000000e+000 0.000000e+000
<ENDHMM>
~h "i"
<BEGINHMM>
<NUMSTATES> 5
<STATE> 2
<MEAN> 25
 -1.195220e+000 -1.161685e+000 1.180719e+001 1.754212e+000 -3.439505e+000 -3.391161e+000 -2.529864e+000 -3.755990e+000 -4.358767e+000 -2.432584e-001 1.600380e+000 -2.715190e+000 6.689685e-001 1.734919e-003 1.830846e+000 4.316287e-001 -6.973683e-001 -5.996979e-001 -1.600344e+000 -5.676491e-001 -1.003832e+000 -6.361322e-001 -1.402867e-001 -6.918953e-001 1.167562e+000
<VARIANCE> 25
 5.023652e+001 8.405291e+001 9.106411e+001 1.284839e+002 1.233133e+002 8.173837e+001 8.130436e+001 6.089906e+001 5.984228e+001 5.644483e+001 4.719514e+001 4.114761e+001 3.373995e+000 3.873533e+000 7.289220e+000 1.014468e+001 8.368043e+000 7.019414e+000 6.805203e+000 5.025591e+000 5.864814e+000 4.640783e+000 3.847942e+000 2.648998e+000 3.549073e+000
<GCONST> 1.184558e+002
<STATE> 3
<MEAN> 25
 1.661394e+000 -1.222625e+000 9.551917e+000 1.282547e+001 3.196269e+000 -9.075731e+000 -9.756687e+000 -2.237029e+000 -3.422897e+000 -6.893538e+000 -4.577706e+000 -5.361508e+000 -9.170376e-002 2.610302e-001 2.420044e-002 -2.454250e-001 -1.751618e-001 2.761545e-001 1.330466e-001 9.372463e-002 1.228377e-001 5.806448e-002 -1.945866e-001 -1.494307e-002 -2.213724e-001
<VARIANCE> 25
 6.544463e+000 2.726334e+001 3.869314e+001 8.784979e+001 7.066346e+001 4.653486e+001 2.561642e+001 4.022741e+001 3.216497e+001 2.199004e+001 3.446718e+001 2.601223e+001 2.583534e-001 8.428203e-001 1.055643e+000 1.682753e+000 1.401223e+000 3.104772e+000 1.797093e+000 2.060559e+000 1.635653e+000 1.668468e+000 1.470739e+000 1.176581e+000 4.444737e-001
<GCONST> 9.022938e+001
<STATE> 4
<MEAN> 25
 -4.508991e-001 5.322023e+000 1.665131e+001 -4.430581e+000 -9.481484e+000 2.721674e-001 -8.159860e+000 -7.351161e+000 -7.107521e+000 -1.249241e+000 1.282369e+000 -3.002070e+000 -8.347394e-002 2.835103e-002 -8.271052e-001 3.037884e-001 5.599461e-001 1.829259e-001 5.370836e-001 2.083979e-001 3.797337e-001 2.035935e-001 -9.762532e-003 3.918699e-001 -7.917015e-001
<VARIANCE> 25
 1.591135e+001 2.170555e+001 6.176534e+001 8.049868e+001 7.033956e+001 3.019651e+001 4.484431e+001 5.494532e+001 3.855095e+001 3.695677e+001 4.262326e+001 3.085153e+001 4.594858e-001 8.046185e-001 1.937495e+000 2.278223e+000 2.116077e+000 1.940306e+000 2.179662e+000 2.100886e+000 1.540623e+000 1.739118e+000 1.558013e+000 1.453738e+000 1.057461e+000
<GCONST> 9.549970e+001
<TRANSP> 5
 0.000000e+000 1.000000e+000 0.000000e+000 0.000000e+000 0.000000e+000
 0.000000e+000 8.102742e-001 1.897258e-001 0.000000e+000 0.000000e+000
 0.000000e+000 0.000000e+000 8.704062e-001 1.295937e-001 0.000000e+000
 0.000000e+000 0.000000e+000 0.000000e+000 8.641563e-001 1.358437e-001
 0.000000e+000 0.000000e+000 0.000000e+000 0.000000e+000 0.000000e+000
<ENDHMM>
~h "j"
<BEGINHMM>
<NUMSTATES> 5
<STATE> 2
<MEAN> 25
 -2.877265e+000 3.441997e+000 -3.545769e+000 8.634264e+000 -9.490324e-001 2.293228e+000 2.842815e+000 2.218138e+000 -3.945657e-001 -5.128947e-001 9.349382e-001 2.229688e+000 -2.017878e-001 -1.030397e-001 -3.818324e-002 -3.952488e-002 3.201110e-002 1.871676e-001 4.512516e-002 7.665388e-002 -2.628273e-003 3.265942e-002 1.485777e-001 1.446453e-001 -1.053529e-001
<VARIANCE> 25
 7.098996e+000 1.294081e+001 8.868361e+000 2.455880e+001 1.515837e+001 2.354072e+001 2.727119e+001 1.778890e+001 2.116636e+001 1.852495e+001 1.466724e+001 1.181168e+001 3.128623e-001 5.771953e-001 6.857932e-001 1.095484e+000 1.398803e+000 2.021872e+000 2.232488e+000 1.582020e+000 1.848069e+000 1.826548e+000 1.346528e+000 1.156324e+000 4.906393e-001
<GCONST> 8.028996e+001
<STATE> 3
<MEAN> 25
 -6.399902e+000 -8.159940e-001 6.388380e+000 -3.836462e+000 -5.176094e-001 -6.708652e+000 4.723993e+000 -1.122471e+000 2.296957e+000 -2.570226e+000 3.198426e+000 1.394360e+000 1.559171e-001 -3.435001e-001 4.804661e-001 -5.350846e-001 -1.711093e-001 -6.498709e-001 -3.058739e-001 -4.139131e-002 9.939294e-002 -2.920722e-001 1.096883e-001 -7.250778e-002 1.349624e+000
<VARIANCE> 25
 8.383619e+001 6.726511e+001 5.908445e+001 7.342479e+001 4.091410e+001 6.529269e+001 8.120958e+001 2.221551e+001 3.403649e+001 4.360476e+001 2.186803e+001 3.204678e+001 8.955205e+000 4.531889e+000 4.164708e+000 6.084846e+000 6.000972e+000 5.254338e+000 7.475708e+000 2.381121e+000 3.394052e+000 3.034703e+000 2.242638e+000 2.998410e+000 1.031722e+001
<GCONST> 1.120404e+002
<STATE> 4
<MEAN> 25
 -2.898996e+000 2.627901e-001 -3.132716e-001 3.960038e-002 5.483065e-001 2.823057e+000 1.784132e+000 1.464574e+000 3.426749e+000 3.285645e+000 1.056099e+000 2.797826e-001 -8.981684e-002 -4.188136e-002 6.974272e-002 9.217410e-002 5.962297e-002 4.874835e-002 -1.315928e-002 -2.389530e-002 4.227036e-002 6.736809e-002 -5.541885e-002 -1.314007e-001 -9.648746e-002
<VARIANCE> 25
 1.296684e+001 7.207009e+000 1.385079e+001 2.076781e+001 1.124825e+001 2.346537e+001 1.279239e+001 1.338833e+001 1.712786e+001 1.314784e+001 8.575112e+000 8.746859e+000 2.046416e-001 3.861218e-001 4.570155e-001 7.118930e-001 5.415282e-001 1.108521e+000 9.459555e-001 1.105091e+000 1.143693e+000 8.803483e-001 8.962660e-001 8.717346e-001 1.590098e-001
<GCONST> 7.039394e+001
<TRANSP> 5
 0.000000e+000 1.000000e+000 0.000000e+000 0.000000e+000 0.000000e+000
 0.000000e+000 9.128128e-001 8.718719e-002 0.000000e+000 0.000000e+000
 0.000000e+000 0.000000e+000 9.059805e-001 9.401944e-002 0.000000e+000
 0.000000e+000 0.000000e+000 0.000000e+000 9.355665e-001 6.443353e-002
 0.000000e+000 0.000000e+000 0.000000e+000 0.000000e+000 0.000000e+000
<ENDHMM>
~h "k"
<BEGINHMM>
<NUMSTATES> 5
<STATE> 2
<MEAN> 25
 -3.292499e+000 3.000784e+000 -2.159367e+000 5.332066e+000 9.895972e-001 2.595125e+000 2.144404e+000 7.009486e-001 1.105661e+000 3.646250e-001 6.369289e-003 1.950053e+000 -2.051452e-001 -1.088199e-001 -2.864132e-001 2.026302e-002 1.932468e-001 2.272604e-001 2.666417e-001 -4.506536e-002 -8.798952e-002 1.533658e-001 1.600544e-001 1.912465e-001 -1.635946e-001
<VARIANCE> 25
 5.192805e+000 1.046410e+001 2.337223e+001 4.379161e+001 1.936892e+001 2.403113e+001 2.189458e+001 2.185268e+001 2.473538e+001 2.684480e+001 1.846878e+001 1.756980e+001 3.967606e-001 7.357469e-001 1.121096e+000 1.528490e+000 1.518243e+000 1.982363e+000 2.149885e+000 2.011762e+000 2.547369e+000 2.072113e+000 1.644926e+000 1.364120e+000 5.320616e-001
<GCONST> 8.518169e+001
<STATE> 3
<MEAN> 25
 -4.237606e+000 1.829774e-001 -3.495143e+000 5.362970e-001 8.344586e-001 2.644655e+000 4.030648e+000 -1.389473e+000 -3.196994e+000 9.604099e-001 1.566819e+000 2.363924e+000 2.068114e-001 -2.456567e+000 -6.009449e-001 -1.956835e+000 -7.405901e-001 -8.310621e-002 6.825624e-001 -9.244320e-001 -1.482005e+000 -7.272928e-001 9.032148e-001 -1.208751e-001 3.325493e+000
<VARIANCE> 25
 1.529126e+001 4.504552e+001 2.557730e+001 7.137283e+001 5.083935e+001 5.187267e+001 5.340236e+001 3.665156e+001 4.609175e+001 3.601799e+001 2.181250e+001 1.741198e+001 2.434858e+000 6.945349e+000 5.408742e+000 7.930667e+000 1.368604e+001 9.370018e+000 1.125286e+001 7.953096e+000 6.521965e+000 9.221198e+000 4.332226e+000 3.693842e+000 5.616056e+000
<GCONST> 1.133324e+002
<STATE> 4
<MEAN> 25
 2.431022e+000 -7.699831e+000 -1.357476e+000 -1.148454e+001 3.132703e+000 1.633203e+000 2.282737e+000 -6.016186e-001 1.474928e+000 2.201405e+000 1.608279e+000 -2.572303e+000 9.179553e-001 -1.190039e-001 3.481801e-001 -5.433977e-001 -2.007598e-001 -3.883782e-001 -6.877196e-001 -1.312021e-001 3.669386e-001 9.939451e-003 -1.197470e-001 -3.165069e-001 1.192512e+000
<VARIANCE> 25
 4.700236e+001 7.410073e+001 5.796971e+001 1.298140e+002 1.561038e+002 6.894543e+001 7.178529e+001 6.038534e+001 1.006840e+002 6.220916e+001 4.301096e+001 4.465920e+001 3.888992e+000 5.118213e+000 4.486812e+000 1.183850e+001 6.329233e+000 4.740435e+000 5.544631e+000 4.689926e+000 5.881176e+000 3.506662e+000 3.393212e+000 3.570619e+000 8.068335e+000
<GCONST> 1.182217e+002
<TRANSP> 5
 0.000000e+000 1.000000e+000 0.000000e+000 0.000000e+000 0.000000e+000
 0.000000e+000 8.753946e-001 1.246054e-001 0.000000e+000 0.000000e+000
 0.000000e+000 0.000000e+000 4.900962e-001 5.099039e-001 0.000000e+000
 0.000000e+000 0.000000e+000 0.000000e+000 8.083077e-001 1.916923e-001
 0.000000e+000 0.000000e+000 0.000000e+000 0.000000e+000 0.000000e+000
<ENDHMM>
~h "l"
<BEGINHMM>
<NUMSTATES> 5
<STATE> 2
<MEAN> 25
 7.854952e+000 -3.210655e+000 1.727123e+000 -1.542365e+000 -2.116711e+000 -3.097542e+000 -5.376880e+000 -2.399804e-001 3.552360e-001 -4.456378e+000 -4.954245e+000 -5.498837e-001 2.082667e-001 -1.630729e-001 -1.599054e-001 -1.225661e-001 -3.599953e-001 -4.510399e-001 4.750772e-002 2.938836e-001 1.874944e-001 9.472079e-002 -2.230200e-001 3.329047e-001 4.134966e-002
<VARIANCE> 25
 1.041033e+001 3.491896e+001 3.877494e+001 8.232236e+001 3.258678e+001 4.659735e+001 8.647849e+001 7.731314e+001 7.682065e+001 1.352613e+002 4.865257e+001 3.660453e+001 4.720068e-001 1.526438e+000 2.110737e+000 3.021036e+000 2.511226e+000 2.665437e+000 4.552268e+000 4.592351e+000 2.901455e+000 4.314438e+000 3.541285e+000 2.383064e+000 8.591208e-001
<GCONST> 1.037521e+002
<STATE> 3
<MEAN> 25
 7.588425e+000 -3.262717e+000 -2.937196e+000 -3.299803e+000 -6.931087e+000 -8.497425e+000 -3.396228e+000 1.827752e+000 -2.314828e+000 -5.234830e+000 -1.742963e+000 2.794897e+000 -3.515052e-002 1.278163e-001 9.980441e-002 -4.766170e-003 -9.105126e-003 4.901802e-002 -5.074795e-004 6.403140e-003 3.714267e-002 1.592649e-001 -2.102890e-002 -1.100757e-001 -1.144600e-001
<VARIANCE> 25
 5.673665e+000 2.858571e+001 4.029193e+001 3.350545e+001 2.869086e+001 4.281573e+001 5.509649e+001 6.639352e+001 7.479788e+001 5.972097e+001 5.645598e+001 2.823748e+001 1.654369e-001 7.121307e-001 7.602234e-001 9.000168e-001 1.105927e+000 1.505748e+000 1.396955e+000 1.503826e+000 1.403938e+000 1.611872e+000 1.644655e+000 1.162076e+000 2.574988e-001
<GCONST> 8.818209e+001
<STATE> 4
<MEAN> 25
 2.433879e+000 -1.363529e-001 1.285809e+000 -3.854701e+000 -1.647534e+000 -1.779573e+000 -4.394710e+000 2.758724e-001 1.130125e+000 1.041309e+000 -2.303705e+000 -1.680790e+000 -1.989843e-001 1.863883e-001 1.011874e-001 1.613699e-001 1.795259e-001 2.243346e-001 1.291542e-001 -5.356934e-002 -1.243144e-002 -7.551679e-003 7.988528e-002 -2.636780e-002 -3.227946e-001
<VARIANCE> 25
 3.060259e+001 1.818386e+001 3.144184e+001 6.822245e+001 2.010091e+001 4.590718e+001 9.514274e+001 4.193975e+001 2.694684e+001 3.807764e+001 2.800363e+001 1.971874e+001 2.054801e-001 4.798025e-001 6.600143e-001 8.908710e-001 9.329116e-001 1.362416e+000 1.369674e+000 1.667691e+000 1.422284e+000 1.435301e+000 1.347332e+000 9.780723e-001 2.499011e-001
<GCONST> 8.612675e+001
<TRANSP> 5
 0.000000e+000 1.000000e+000 0.000000e+000 0.000000e+000 0.000000e+000
 0.000000e+000 7.526472e-001 2.473528e-001 0.000000e+000 0.000000e+000
 0.000000e+000 0.000000e+000 8.558950e-001 1.441050e-001 0.000000e+000
 0.000000e+000 0.000000e+000 0.000000e+000 8.407554e-001 1.592446e-001
 0.000000e+000 0.000000e+000 0.000000e+000 0.000000e+000 0.000000e+000
<ENDHMM>
~h "m"
<BEGINHMM>
<NUMSTATES> 5
<STATE> 2
<MEAN> 25
 6.557750e+000 -8.889681e-001 -8.579668e-001 -1.550341e+000 -1.020635e+000 -1.899402e+000 -9.846097e-001 -3.479402e+000 -1.300157e+000 -4.928092e-001 -9.976385e-001 -2.635383e+000 -3.527512e-001 1.210836e+000 9.739907e-001 1.328164e+000 3.022802e-001 6.747977e-001 7.743143e-002 -9.794908e-001 -5.872183e-001 3.121697e-001 -6.633521e-001 -2.391868e-001 -1.194066e+000
<VARIANCE> 25
 1.293085e+001 3.423328e+001 3.224265e+001 4.942256e+001 3.324089e+001 3.567531e+001 4.079996e+001 1.230981e+002 5.563425e+001 4.324180e+001 4.321068e+001 2.047092e+001 3.429719e-001 1.302633e+000 1.970631e+000 2.903690e+000 3.026781e+000 3.023820e+000 2.546660e+000 3.894799e+000 3.299872e+000 2.044921e+000 2.673528e+000 2.268563e+000 7.647170e-001
<GCONST> 9.847464e+001
<STATE> 3
<MEAN> 25
 3.151285e+000 3.874690e+000 1.895662e+000 3.337962e+000 1.976463e+000 3.403115e+000 5.864646e-001 -4.094094e+000 -1.998368e+000 -1.017437e+000 -3.066633e+000 -2.745197e+000 -2.710118e-001 2.917816e-001 1.144962e-001 2.929562e-001 2.995211e-001 4.677354e-001 3.257513e-001 1.073197e-001 6.856050e-002 -3.536778e-002 -9.022570e-002 -1.147462e-001 -4.142584e-001
<VARIANCE> 25
 2.108211e+001 1.580157e+001 2.332903e+001 3.168393e+001 2.995651e+001 2.984250e+001 3.826869e+001 9.771655e+001 6.863536e+001 4.508474e+001 2.529128e+001 2.380519e+001 2.029619e-001 4.920185e-001 6.471832e-001 9.397582e-001 1.063445e+000 1.238026e+000 1.229726e+000 1.506452e+000 1.287190e+000 1.420584e+000 1.255629e+000 1.208613e+000 2.445652e-001
<GCONST> 8.552378e+001
<STATE> 4
<MEAN> 25
 1.419528e+000 2.506688e+000 1.617560e+000 1.723777e+000 3.233381e+000 1.741505e+000 1.998590e+000 1.622487e+000 4.241926e+000 1.274473e+000 -2.953632e+000 -5.036245e+000 -1.153617e-001 -2.352501e-001 -1.938414e-001 -2.185815e-001 -1.231392e-001 -3.182612e-001 -8.904390e-002 3.317155e-001 1.794672e-001 -7.700857e-004 1.411795e-001 1.709868e-001 4.796688e-002
<VARIANCE> 25
 2.721018e+001 3.782215e+001 3.010088e+001 9.365903e+001 9.281981e+001 3.773603e+001 9.702966e+001 8.778717e+001 7.761359e+001 4.804504e+001 4.321776e+001 5.687943e+001 9.016023e-001 1.621240e+000 2.055070e+000 4.334013e+000 4.191084e+000 2.309525e+000 3.734463e+000 4.714850e+000 3.217108e+000 2.666120e+000 2.382483e+000 2.766530e+000 1.986188e+000
<GCONST> 1.064957e+002
<TRANSP> 5
 0.000000e+000 1.000000e+000 0.000000e+000 0.000000e+000 0.000000e+000
 0.000000e+000 7.176443e-001 2.823557e-001 0.000000e+000 0.000000e+000
 0.000000e+000 0.000000e+000 8.124233e-001 1.875767e-001 0.000000e+000
 0.000000e+000 0.000000e+000 0.000000e+000 6.604152e-001 3.395848e-001
 0.000000e+000 0.000000e+000 0.000000e+000 0.000000e+000 0.000000e+000
<ENDHMM>
~h "n"
<BEGINHMM>
<NUMSTATES> 5
<STATE> 2
<MEAN> 25
 7.451353e+000 -1.500466e+000 -2.152009e+000 -1.597346e+000 -1.133128e+000 -4.450488e-001 -1.745858e+000 -2.442828e+000 -1.271594e-001 -2.164339e+000 -1.724975e+000 1.375024e-001 -1.781446e-001 1.248129e+000 8.151733e-001 1.415100e+000 2.245340e-001 5.065443e-001 3.397461e-001 -1.157392e+000 -1.861784e-001 4.534038e-001 -8.327926e-001 -8.543148e-001 -1.125840e+000
<VARIANCE> 25
 1.527816e+001 3.749672e+001 4.587028e+001 5.780346e+001 6.110896e+001 4.220424e+001 4.794172e+001 5.937553e+001 4.208646e+001 3.654838e+001 4.708918e+001 4.681065e+001 6.872759e-001 2.615395e+000 2.355075e+000 2.679745e+000 4.090746e+000 3.125260e+000 3.386662e+000 4.505324e+000 2.697264e+000 2.722397e+000 2.801685e+000 3.348552e+000 1.407490e+000
<GCONST> 1.033024e+002
<STATE> 3
<MEAN> 25
 4.786101e+000 3.993748e+000 7.391406e-001 4.903306e+000 3.439501e+000 4.978842e+000 3.781714e+000 -1.795556e+000 -9.946271e-001 2.644624e-001 -3.640484e+000 -3.432869e+000 -5.811836e-001 5.780277e-001 3.015712e-001 2.833191e-001 3.917072e-001 4.945445e-001 2.445676e-001 1.167680e-001 -2.099058e-002 1.192521e-001 -2.325697e-001 4.933701e-002 -8.006853e-001
<VARIANCE> 25
 1.211932e+001 2.647573e+001 2.228124e+001 3.459523e+001 1.050674e+002 6.432626e+001 6.267915e+001 4.103342e+001 2.632436e+001 3.859005e+001 3.448228e+001 3.141992e+001 2.938682e-001 9.887260e-001 1.251678e+000 1.535285e+000 2.317662e+000 1.716377e+000 2.205559e+000 2.159663e+000 1.930158e+000 1.783170e+000 2.066609e+000 2.303874e+000 5.169995e-001
<GCONST> 9.344351e+001
<STATE> 4
<MEAN> 25
 -1.596104e+000 2.603683e+000 3.558765e-001 2.554821e+000 1.771836e+000 2.642747e+000 1.974461e+000 -5.073824e-001 7.029485e-001 7.553470e-001 -1.167673e+000 -1.023279e+000 -2.201495e-001 -3.227973e-002 -1.039459e-002 7.037182e-002 6.466834e-002 2.782086e-002 7.346214e-002 1.504275e-002 5.157236e-002 1.278936e-001 1.366864e-001 9.909590e-002 -1.712073e-001
<VARIANCE> 25
 1.572659e+001 1.143969e+001 1.616953e+001 2.085661e+001 1.915878e+001 2.029754e+001 2.978168e+001 3.081066e+001 2.421211e+001 2.339705e+001 2.656024e+001 2.228016e+001 2.272317e-001 4.349948e-001 5.384713e-001 6.672465e-001 7.565306e-001 1.040300e+000 1.249683e+000 1.327350e+000 1.363287e+000 1.217501e+000 1.186530e+000 1.058728e+000 1.735182e-001
<GCONST> 7.837983e+001
<TRANSP> 5
 0.000000e+000 1.000000e+000 0.000000e+000 0.000000e+000 0.000000e+000
 0.000000e+000 6.422192e-001 3.577808e-001 0.000000e+000 0.000000e+000
 0.000000e+000 0.000000e+000 7.472748e-001 2.527252e-001 0.000000e+000
 0.000000e+000 0.000000e+000 0.000000e+000 9.143110e-001 8.568905e-002
 0.000000e+000 0.000000e+000 0.000000e+000 0.000000e+000 0.000000e+000
<ENDHMM>
~h "o"
<BEGINHMM>
<NUMSTATES> 5
<STATE> 2
<MEAN> 25
 1.692706e+000 -4.503815e-001 2.626511e+000 -4.051807e+000 -4.789567e+000 -2.300880e+000 -2.874901e+000 -6.464027e-002 9.220207e-001 -1.182705e+000 9.441106e-001 -7.360543e-001 1.856158e+000 -9.547292e-002 3.473114e-001 -6.599111e-001 -1.435538e+000 -1.034294e+000 -1.346269e+000 5.761414e-003 6.397429e-001 -6.893098e-001 -2.978797e-001 -1.256666e-001 1.845184e+000
<VARIANCE> 25
 3.921470e+001 3.753043e+001 3.651089e+001 7.666515e+001 1.048813e+002 6.142222e+001 5.899055e+001 5.191132e+001 8.972326e+001 3.404486e+001 3.584316e+001 2.729503e+001 3.084230e+000 4.864010e+000 3.840767e+000 7.572312e+000 6.440307e+000 8.571024e+000 4.917620e+000 5.074004e+000 1.025381e+001 3.356516e+000 3.325864e+000 2.419097e+000 3.480170e+000
<GCONST> 1.130630e+002
<STATE> 3
<MEAN> 25
 7.531965e+000 1.856278e+000 1.709288e+000 -3.565541e+000 -1.110577e+001 -8.708858e+000 -5.326309e+000 3.842736e+000 4.873151e+000 -3.257623e+000 -2.000249e+000 -1.657293e-001 -9.167075e-002 1.087984e-001 -4.569839e-001 -8.861178e-002 4.777776e-001 3.614043e-001 3.114147e-001 6.108624e-002 -2.540450e-001 2.282981e-001 1.874660e-001 1.061617e-001 -2.877011e-001
<VARIANCE> 25
 7.904055e+000 2.875392e+001 2.598167e+001 4.154526e+001 4.614140e+001 6.425841e+001 4.146075e+001 4.076915e+001 1.731146e+002 5.865159e+001 3.849524e+001 1.694217e+001 3.322329e-001 1.504246e+000 1.024988e+000 1.169308e+000 2.069289e+000 1.939493e+000 1.614874e+000 2.324028e+000 3.000874e+000 1.769215e+000 1.489702e+000 1.123837e+000 8.564950e-001
<GCONST> 9.371997e+001
<STATE> 4
<MEAN> 25
 6.711029e+000 5.182661e-001 -2.323954e+000 -9.142334e+000 -2.124589e-001 1.266478e+000 -8.626704e+000 -5.224181e+000 -1.518525e+000 1.594977e+000 2.773294e+000 -2.180659e+000 -2.497843e-001 -1.074164e-001 -6.722289e-002 4.933599e-001 2.351808e-001 -4.226415e-004 2.515836e-001 -3.680813e-002 -5.344298e-003 2.017910e-001 5.175443e-002 3.806826e-002 -3.701958e-001
<VARIANCE> 25
 1.275844e+001 3.273344e+001 3.792952e+001 1.135256e+002 4.729515e+001 5.940734e+001 6.155882e+001 4.236910e+001 3.717318e+001 5.489397e+001 3.397601e+001 2.933136e+001 4.723755e-001 9.940428e-001 1.273155e+000 2.600406e+000 1.843599e+000 2.295698e+000 2.562874e+000 2.099338e+000 1.939536e+000 2.050673e+000 2.009725e+000 1.539044e+000 8.080559e-001
<GCONST> 9.654519e+001
<TRANSP> 5
 0.000000e+000 1.000000e+000 0.000000e+000 0.000000e+000 0.000000e+000
 0.000000e+000 7.479730e-001 2.520270e-001 0.000000e+000 0.000000e+000
 0.000000e+000 0.000000e+000 8.232611e-001 1.767389e-001 0.000000e+000
 0.000000e+000 0.000000e+000 0.000000e+000 8.557820e-001 1.442179e-001
 0.000000e+000 0.000000e+000 0.000000e+000 0.000000e+000 0.000000e+000
<ENDHMM>
~h "p"
<BEGINHMM>
<NUMSTATES> 5
<STATE> 2
<MEAN> 25
 -3.368741e-001 3.833161e+000 -1.242905e+000 -8.823951e-001 5.013239e-001 1.315721e+000 9.327635e-001 1.224428e+000 1.578180e-001 3.042404e+000 2.380201e+000 -2.586527e-001 -9.630123e-001 -6.566344e-002 -2.154423e-001 2.182808e-001 -1.141504e-001 1.603230e-001 1.098438e-001 -6.229464e-002 1.072436e-001 3.061561e-001 3.210646e-001 1.074863e-001 -1.061143e+000
<VARIANCE> 25
 2.081687e+001 3.577965e+001 4.123481e+001 3.780456e+001 4.165209e+001 4.242981e+001 4.119138e+001 3.801511e+001 3.681676e+001 3.794858e+001 4.122443e+001 2.965948e+001 8.465945e-001 2.710258e+000 2.074712e+000 1.949751e+000 1.666224e+000 3.221768e+000 2.418420e+000 2.670294e+000 3.804593e+000 4.006293e+000 2.863957e+000 1.956052e+000 1.488083e+000
<GCONST> 9.971472e+001
<STATE> 3
<MEAN> 25
 -2.682726e+000 2.990489e+000 -1.993678e+000 -6.497282e-001 8.148478e-002 7.238133e-001 5.419596e-001 -1.087451e+000 -2.616904e-001 3.573385e+000 1.174549e+000 1.154979e+000 -4.886306e-001 -1.372886e-001 -1.569899e-001 1.656462e-001 1.723726e-001 3.629835e-002 -3.350328e-002 -2.417454e-001 -5.975005e-002 1.073694e-001 -4.525347e-002 6.250597e-002 -4.193714e-001
<VARIANCE> 25
 1.637693e+001 7.959504e+000 1.675825e+001 2.723219e+001 2.455084e+001 2.903248e+001 3.255925e+001 3.145432e+001 3.538747e+001 2.455877e+001 2.123705e+001 1.744277e+001 3.544332e-001 5.385538e-001 7.342108e-001 9.187089e-001 1.020201e+000 2.108025e+000 1.746899e+000 1.774182e+000 1.794469e+000 1.725958e+000 1.353341e+000 1.414611e+000 2.761360e-001
<GCONST> 8.346346e+001
<STATE> 4
<MEAN> 25
 -3.799298e+000 7.785728e-001 -5.890843e-002 2.511117e+000 1.555719e+000 3.239584e+000 3.705992e+000 1.428715e+000 3.628534e+000 2.964112e+000 1.266447e+000 5.518247e-001 -6.032988e-002 -1.627356e-002 1.090231e-002 2.096262e-002 3.934659e-002 3.575255e-002 4.719742e-003 -1.215584e-002 -1.830523e-002 -1.600959e-002 3.059310e-002 1.806699e-002 -3.011694e-002
<VARIANCE> 25
 3.538428e+000 5.324714e+000 8.426010e+000 1.289397e+001 9.128816e+000 1.243705e+001 1.285058e+001 1.251843e+001 1.405118e+001 1.438426e+001 1.002529e+001 9.435480e+000 1.252749e-001 3.219267e-001 4.146204e-001 4.076103e-001 6.098611e-001 6.991742e-001 8.561389e-001 9.626309e-001 1.013592e+000 1.079493e+000 9.053240e-001 8.160723e-001 1.055927e-001
<GCONST> 6.474700e+001
<TRANSP> 5
 0.000000e+000 1.000000e+000 0.000000e+000 0.000000e+000 0.000000e+000
 0.000000e+000 5.351128e-001 4.648872e-001 0.000000e+000 0.000000e+000
 0.000000e+000 0.000000e+000 7.458031e-001 2.541970e-001 0.000000e+000
 0.000000e+000 0.000000e+000 0.000000e+000 9.314002e-001 6.859981e-002
 0.000000e+000 0.000000e+000 0.000000e+000 0.000000e+000 0.000000e+000
<ENDHMM>
~h "r"
<BEGINHMM>
<NUMSTATES> 5
<STATE> 2
<MEAN> 25
 6.446086e+000 -6.489368e+000 -9.178607e-001 -4.184777e+000 -4.321229e+000 -7.009434e-001 -4.583195e+000 -2.545791e-001 -2.147661e-001 -1.078034e+000 8.028135e-001 -3.439102e-001 -1.056835e-001 9.113871e-002 1.588527e-001 2.953373e-001 2.293983e-003 1.645973e-001 2.142606e-001 -1.661509e-001 -2.598363e-001 -3.379829e-001 -6.811281e-002 3.156627e-001 -4.506648e-001
<VARIANCE> 25
 2.137343e+001 5.143167e+001 6.112653e+001 9.070985e+001 4.934732e+001 7.781075e+001 5.441468e+001 7.596211e+001 6.529167e+001 4.688498e+001 5.410309e+001 5.122533e+001 1.144077e+000 3.001080e+000 2.443001e+000 4.758532e+000 3.433339e+000 4.372391e+000 3.449727e+000 4.581236e+000 3.602612e+000 2.763931e+000 2.856253e+000 2.539911e+000 2.274723e+000
<GCONST> 1.083613e+002
<STATE> 3
<MEAN> 25
 4.552063e+000 -5.109805e-001 -2.456680e+000 -3.867908e+000 -2.275934e+000 1.989435e+000 -1.022240e+000 -1.872541e+000 -3.433396e+000 -2.421335e+000 -2.264353e-001 1.960315e+000 -5.943247e-001 7.522639e-001 -4.015810e-002 6.686795e-001 4.798545e-001 1.256487e-001 2.797707e-001 -2.115876e-002 1.608254e-001 2.531243e-001 -2.278524e-001 -8.880693e-002 -1.204691e+000
<VARIANCE> 25
 2.072170e+001 2.745873e+001 5.474210e+001 5.329342e+001 7.255672e+001 6.743530e+001 4.734775e+001 3.359286e+001 4.631329e+001 3.170556e+001 3.583907e+001 3.600734e+001 6.214236e-001 1.269367e+000 1.964947e+000 1.754889e+000 1.982552e+000 2.504511e+000 2.850070e+000 2.128677e+000 2.695298e+000 2.267836e+000 2.173600e+000 1.755246e+000 9.925056e-001
<GCONST> 9.813907e+001
<STATE> 4
<MEAN> 25
 -2.326119e+000 1.691231e+000 -2.698154e+000 2.328165e+000 1.369734e+000 2.446708e+000 3.351510e+000 1.504686e+000 3.047215e+000 2.457058e+000 1.703282e+000 1.385953e+000 -2.345153e-001 4.138103e-002 4.662540e-002 9.620641e-002 7.610201e-002 7.095454e-002 1.380658e-001 1.011610e-001 1.296398e-001 1.454217e-001 5.681506e-002 5.757850e-003 -2.352244e-001
<VARIANCE> 25
 1.517724e+001 8.473486e+000 1.534444e+001 3.766690e+001 1.826918e+001 1.939058e+001 2.373563e+001 1.950251e+001 2.726691e+001 2.225073e+001 1.720149e+001 1.301670e+001 2.580182e-001 3.628815e-001 5.684665e-001 7.212604e-001 9.525936e-001 1.008733e+000 1.392422e+000 1.313736e+000 1.448666e+000 1.481796e+000 1.270928e+000 1.055641e+000 2.344150e-001
<GCONST> 7.790121e+001
<TRANSP> 5
 0.000000e+000 1.000000e+000 0.000000e+000 0.000000e+000 0.000000e+000
 0.000000e+000 7.550698e-001 2.449302e-001 0.000000e+000 0.000000e+000
 0.000000e+000 0.000000e+000 7.673876e-001 2.326124e-001 0.000000e+000
 0.000000e+000 0.000000e+000 0.000000e+000 9.072111e-001 9.278893e-002
 0.000000e+000 0.000000e+000 0.000000e+000 0.000000e+000 0.000000e+000
<ENDHMM>
~h "s"
<BEGINHMM>
<NUMSTATES> 5
<STATE> 2
<MEAN> 25
 -3.512349e+000 1.252010e+000 4.517127e-001 -5.137239e-001 1.737407e+000 -6.490846e-001 3.480403e+000 -3.336225e-002 1.185060e+000 1.560539e+000 3.879872e-001 -1.747660e-001 -1.313195e+000 -1.891971e-001 1.345877e+000 -3.719619e-001 -3.388125e-001 1.832457e-001 8.745485e-001 -1.841278e-001 1.341035e-001 2.814906e-001 4.936378e-001 -1.847148e-001 9.957638e-001
<VARIANCE> 25
 7.214215e+001 1.205235e+002 8.267131e+001 1.039847e+002 6.473395e+001 5.014128e+001 8.890831e+001 4.839457e+001 8.862338e+001 5.680915e+001 4.253997e+001 2.996749e+001 7.298265e+000 1.149694e+001 9.794589e+000 8.834769e+000 6.168857e+000 4.575813e+000 8.390651e+000 4.135322e+000 4.223461e+000 5.096791e+000 4.689714e+000 2.513575e+000 5.994239e+000
<GCONST> 1.193077e+002
<STATE> 3
<MEAN> 25
 -1.024110e+001 -1.249383e+001 2.009645e+001 -6.444137e+000 -9.961532e+000 3.430028e+000 5.684032e+000 -2.582628e+000 -6.592539e+000 3.556097e-001 5.927833e+000 -5.156164e-001 -4.160950e-001 4.900295e-002 -3.170052e-001 -6.072898e-002 5.215001e-001 7.113754e-002 -3.861627e-002 6.394657e-002 4.903964e-001 2.456366e-002 -2.157863e-002 3.847789e-002 5.723268e-002
<VARIANCE> 25
 7.939809e+001 1.237932e+002 1.439371e+002 4.778100e+001 9.014931e+001 9.687820e+001 5.113728e+001 5.616351e+001 5.751719e+001 5.980079e+001 2.996772e+001 3.376272e+001 6.280449e+000 4.143101e+000 7.190299e+000 3.090377e+000 2.762893e+000 3.102752e+000 2.959517e+000 2.889521e+000 2.484313e+000 2.583673e+000 2.347669e+000 1.740772e+000 1.508674e+000
<GCONST> 1.104091e+002
<STATE> 4
<MEAN> 25
 -1.473102e+001 2.713730e+000 3.284335e+000 -2.743877e+000 4.982335e+000 -2.275529e-001 7.001836e+000 6.112215e-001 1.567244e+000 3.580995e+000 2.884877e+000 1.091335e+000 1.895552e-001 2.241641e-002 -8.639625e-002 1.132931e-001 -9.529065e-003 -1.646795e-002 -1.917321e-001 -9.502385e-002 4.797104e-002 -9.149306e-002 -1.354276e-001 6.416812e-004 -1.753347e-001
<VARIANCE> 25
 4.374360e+001 5.326004e+001 6.664211e+001 5.859177e+001 3.034044e+001 3.854313e+001 3.237955e+001 3.798839e+001 3.086329e+001 3.189205e+001 1.761254e+001 1.594466e+001 2.903222e+000 1.030091e+000 1.509605e+000 1.516301e+000 1.523034e+000 1.543670e+000 2.337117e+000 2.208187e+000 2.155079e+000 1.951676e+000 1.601629e+000 1.343469e+000 5.186979e-001
<GCONST> 9.464502e+001
<TRANSP> 5
 0.000000e+000 1.000000e+000 0.000000e+000 0.000000e+000 0.000000e+000
 0.000000e+000 7.601511e-001 2.398490e-001 0.000000e+000 0.000000e+000
 0.000000e+000 0.000000e+000 7.672280e-001 2.327720e-001 0.000000e+000
 0.000000e+000 0.000000e+000 0.000000e+000 8.890132e-001 1.109869e-001
 0.000000e+000 0.000000e+000 0.000000e+000 0.000000e+000 0.000000e+000
<ENDHMM>
~h "t"
<BEGINHMM>
<NUMSTATES> 5
<STATE> 2
<MEAN> 25
 -2.139466e+000 1.635333e+000 -1.197789e+000 -3.793702e-001 1.665388e+000 -1.652575e+000 1.629980e+000 -4.450690e-001 3.944720e+000 1.234783e+000 -7.733756e-002 8.574169e-001 3.099737e-001 -8.630978e-001 5.861292e-001 -1.310969e+000 2.287775e-001 -4.110196e-001 -8.284737e-001 -4.650851e-001 3.495903e-002 -1.990527e-002 2.795821e-001 -4.524554e-001 2.461117e+000
<VARIANCE> 25
 3.003136e+001 3.003137e+001 2.249358e+001 6.112690e+001 3.915417e+001 4.389041e+001 6.988506e+001 4.432199e+001 5.428052e+001 3.888861e+001 3.340731e+001 3.066535e+001 4.881090e+000 5.021892e+000 3.710766e+000 1.234457e+001 5.162335e+000 4.854116e+000 1.135584e+001 5.970035e+000 6.729665e+000 5.587566e+000 5.457879e+000 4.636366e+000 1.594304e+001
<GCONST> 1.141403e+002
<STATE> 3
<MEAN> 25
 1.065449e+000 -6.250029e-001 5.460848e-001 -3.992583e+000 2.184054e-001 -5.673515e-001 -2.757161e+000 4.399512e-001 1.032077e+000 1.619062e+000 -9.388801e-001 -2.303697e+000 5.290168e-001 1.275495e-002 -2.878234e-002 -3.605843e-001 -3.751998e-001 3.558492e-001 -6.812919e-001 -2.780102e-002 -1.126716e+000 -9.263939e-002 2.364023e-002 -2.193675e-001 2.122018e-001
<VARIANCE> 25
 2.259765e+001 4.746853e+001 3.646324e+001 7.754240e+001 3.735793e+001 4.046953e+001 6.031418e+001 5.886438e+001 4.586488e+001 5.177972e+001 4.271955e+001 2.777579e+001 4.046089e+000 3.041933e+000 3.220912e+000 5.760786e+000 2.908722e+000 5.201601e+000 6.702884e+000 5.374930e+000 8.845334e+000 6.890740e+000 4.041259e+000 2.725490e+000 5.478260e+000
<GCONST> 1.111614e+002
<STATE> 4
<MEAN> 25
 -3.462473e+000 2.577554e+000 -1.745180e+000 1.207956e+000 1.139740e+000 1.935397e+000 1.779051e+000 2.483349e-001 1.100958e+000 2.334714e+000 2.441938e-001 9.487788e-001 -6.841105e-002 5.000816e-003 1.155502e-002 2.250442e-002 -1.004632e-001 -7.883494e-002 2.868436e-002 -1.152802e-001 -2.902012e-001 -9.305719e-002 1.006348e-001 1.126608e-001 -3.415042e-002
<VARIANCE> 25
 1.843091e+001 1.649111e+001 1.965545e+001 5.688398e+001 1.975232e+001 2.993771e+001 3.854588e+001 2.909276e+001 3.987658e+001 2.897112e+001 2.195337e+001 1.851129e+001 9.103953e-001 1.122446e+000 1.161827e+000 1.473775e+000 1.360929e+000 2.569437e+000 2.450123e+000 2.320535e+000 3.137395e+000 2.457864e+000 1.649574e+000 1.502753e+000 1.193463e+000
<GCONST> 9.182387e+001
<TRANSP> 5
 0.000000e+000 1.000000e+000 0.000000e+000 0.000000e+000 0.000000e+000
 0.000000e+000 5.180469e-001 4.819531e-001 0.000000e+000 0.000000e+000
 0.000000e+000 0.000000e+000 2.197239e-001 7.802761e-001 0.000000e+000
 0.000000e+000 0.000000e+000 0.000000e+000 7.929473e-001 2.070527e-001
 0.000000e+000 0.000000e+000 0.000000e+000 0.000000e+000 0.000000e+000
<ENDHMM>
~h "u"
<BEGINHMM>
<NUMSTATES> 5
<STATE> 2
<MEAN> 25
 3.619108e+000 2.834065e+000 4.107445e+000 -1.078688e+000 -1.349904e+000 1.622127e-001 -5.612062e+000 -2.874286e+000 -2.794459e+000 -2.053097e+000 -8.002133e-001 -1.255944e+000 1.086527e+000 8.686402e-001 3.443092e-001 -7.668878e-001 -8.258615e-001 -4.731439e-002 -1.351638e+000 -2.397651e-001 -6.903988e-001 -9.261102e-001 -6.981477e-002 -4.709898e-002 8.700138e-001
<VARIANCE> 25
 3.057041e+001 4.386273e+001 3.861920e+001 8.039851e+001 5.470442e+001 5.559206e+001 6.877790e+001 5.354902e+001 7.067971e+001 9.810373e+001 5.120643e+001 3.066299e+001 2.402316e+000 5.594410e+000 3.567378e+000 6.028235e+000 3.656112e+000 8.216805e+000 5.959392e+000 4.999423e+000 6.312084e+000 5.493194e+000 4.287791e+000 3.336609e+000 2.772293e+000
<GCONST> 1.133131e+002
<STATE> 3
<MEAN> 25
 7.550981e+000 6.772029e+000 4.049916e+000 -5.729354e+000 -6.488440e+000 5.542659e-001 -9.500139e+000 -5.057281e-001 -5.529674e+000 -3.704443e+000 1.626299e+000 -3.233111e-001 8.489383e-002 2.406296e-001 -2.180364e-001 -1.471556e-001 -9.408994e-002 1.557020e-001 1.961136e-001 7.689036e-002 -8.923548e-002 5.477133e-003 1.123751e-001 1.949864e-001 -2.634356e-001
<VARIANCE> 25
 7.457183e+000 3.102988e+001 4.849219e+001 7.583229e+001 3.897527e+001 9.238536e+001 4.403303e+001 6.821056e+001 1.263932e+002 8.503078e+001 6.028348e+001 3.213657e+001 3.194153e-001 1.258328e+000 1.209777e+000 2.022277e+000 2.490273e+000 2.893270e+000 2.256646e+000 2.290382e+000 2.339385e+000 2.859501e+000 2.302903e+000 1.664978e+000 4.644057e-001
<GCONST> 9.872696e+001
<STATE> 4
<MEAN> 25
 5.613809e+000 6.110236e+000 1.074144e+000 -4.919066e+000 -4.265377e+000 2.175620e-001 -6.135761e+000 -4.313252e+000 -6.062722e+000 -4.555194e+000 7.659835e-001 -2.617199e-001 -2.951853e-001 -1.871410e-001 -1.626518e-001 5.369724e-001 2.989360e-001 -1.516581e-003 3.187914e-001 -7.440717e-002 2.076179e-001 2.269396e-001 -1.031505e-001 -5.824365e-002 -3.438626e-001
<VARIANCE> 25
 1.765609e+001 2.108276e+001 2.448163e+001 8.888563e+001 3.071492e+001 4.206532e+001 5.421934e+001 3.448127e+001 5.234785e+001 4.077896e+001 4.129939e+001 2.266494e+001 3.028081e-001 6.018615e-001 6.312793e-001 1.583216e+000 1.384092e+000 1.511809e+000 1.631215e+000 1.634889e+000 1.719361e+000 1.724411e+000 1.498963e+000 1.205142e+000 4.874493e-001
<GCONST> 8.973286e+001
<TRANSP> 5
 0.000000e+000 1.000000e+000 0.000000e+000 0.000000e+000 0.000000e+000
 0.000000e+000 7.049423e-001 2.950577e-001 0.000000e+000 0.000000e+000
 0.000000e+000 0.000000e+000 8.185488e-001 1.814512e-001 0.000000e+000
 0.000000e+000 0.000000e+000 0.000000e+000 8.595261e-001 1.404739e-001
 0.000000e+000 0.000000e+000 0.000000e+000 0.000000e+000 0.000000e+000
<ENDHMM>
~h "w"
<BEGINHMM>
<NUMSTATES> 5
<STATE> 2
<MEAN> 25
 7.071899e+000 2.824473e+000 -6.589157e-001 -5.431810e+000 -9.566327e+000 -6.539101e+000 -1.453235e+000 4.827399e+000 6.293173e+000 -5.243356e+000 -4.283196e+000 1.076682e+000 2.800509e-002 1.044946e-002 -3.512001e-001 5.731934e-002 -4.638912e-002 -3.155204e-001 3.395515e-001 7.581716e-001 2.244807e-001 -2.279357e-002 -3.624666e-002 1.477645e-001 -1.025980e-001
<VARIANCE> 25
 5.758449e+000 7.794036e+001 2.891081e+001 2.766816e+001 2.837723e+001 6.379327e+001 3.290556e+001 3.026629e+001 8.393472e+001 1.487807e+001 1.857002e+001 1.925528e+001 3.944235e-001 3.939442e+000 2.820868e+000 9.928687e-001 2.538401e+000 3.175309e+000 2.313303e+000 3.698719e+000 3.546420e+000 1.906752e+000 1.409061e+000 1.738583e+000 8.863631e-001
<GCONST> 9.454311e+001
<STATE> 3
<MEAN> 25
 4.488474e+000 -1.956321e+000 -4.034607e+000 -4.307458e+000 -5.748004e+000 1.051278e+000 7.268329e+000 9.788138e+000 4.514806e+000 -3.180274e+000 1.584284e+000 3.974672e+000 -7.025834e-001 1.905313e-001 -1.589807e-001 4.857279e-002 6.043150e-001 7.006630e-001 1.233092e-001 -6.150164e-001 -5.012248e-001 9.028383e-001 5.944110e-001 3.869952e-002 -7.518644e-001
<VARIANCE> 25
 2.878261e+001 4.509177e+001 5.905772e+001 1.812776e+001 3.721492e+001 8.788712e+001 2.634853e+001 3.669395e+001 4.979945e+001 3.267783e+001 5.026670e+001 2.032414e+001 5.795116e-001 1.498173e+000 1.192149e+000 1.168130e+000 1.602240e+000 3.929666e+000 2.249816e+000 3.166731e+000 3.192279e+000 2.035981e+000 2.610047e+000 1.552302e+000 5.372796e-001
<GCONST> 9.602493e+001
<STATE> 4
<MEAN> 25
 -6.029581e+000 1.061787e+000 -1.319240e+000 2.853557e+000 2.623720e+000 -3.616718e-001 4.680834e+000 -3.119413e-001 3.372089e-001 4.591062e+000 2.598307e+000 1.255319e+000 -1.132347e-001 -7.737353e-002 -1.027414e-002 5.632621e-002 8.115014e-002 -6.348260e-002 -3.052299e-002 -4.950650e-002 -3.957219e-002 6.441629e-002 5.949649e-002 2.255947e-002 -5.385689e-002
<VARIANCE> 25
 1.257923e+001 1.842422e+001 2.307832e+001 2.697766e+001 1.608282e+001 3.263372e+001 3.222250e+001 1.461957e+001 3.397475e+001 1.335264e+001 2.022515e+001 9.324989e+000 8.404909e-002 3.611244e-001 4.391316e-001 4.548274e-001 6.026011e-001 1.289295e+000 1.172834e+000 1.177049e+000 1.430253e+000 1.043511e+000 1.026632e+000 9.598722e-001 8.054065e-002
<GCONST> 7.443275e+001
<TRANSP> 5
 0.000000e+000 1.000000e+000 0.000000e+000 0.000000e+000 0.000000e+000
 0.000000e+000 8.705334e-001 1.294666e-001 0.000000e+000 0.000000e+000
 0.000000e+000 0.000000e+000 8.215852e-001 1.784148e-001 0.000000e+000
 0.000000e+000 0.000000e+000 0.000000e+000 9.373615e-001 6.263851e-002
 0.000000e+000 0.000000e+000 0.000000e+000 0.000000e+000 0.000000e+000
<ENDHMM>
~h "y"
<BEGINHMM>
<NUMSTATES> 5
<STATE> 2
<MEAN> 25
 5.752303e+000 -6.341049e+000 -1.194243e+000 2.706589e+000 2.006208e+000 -7.294604e+000 -8.193347e+000 -5.109726e+000 -2.857561e+000 -1.124047e+000 4.745857e+000 1.469517e+000 -4.176071e-001 2.953018e-001 1.298678e+000 1.408396e+000 4.539292e-001 -7.648268e-001 -1.174392e+000 9.416803e-002 -1.865815e-002 -5.147837e-001 -3.504548e-001 -1.002912e+000 -2.226203e-001
<VARIANCE> 25
 6.080547e+000 2.099049e+001 3.144332e+001 7.770129e+001 4.777390e+001 2.820007e+001 4.745316e+001 4.544977e+001 2.393590e+001 3.410907e+001 4.082060e+001 3.438362e+001 2.017547e-001 6.017433e-001 1.068199e+000 1.455813e+000 2.087288e+000 1.625414e+000 2.071594e+000 1.660781e+000 1.897143e+000 2.704005e+000 3.096120e+000 2.045153e+000 2.622336e-001
<GCONST> 9.036334e+001
<STATE> 3
<MEAN> 25
 3.863878e+000 -4.475307e+000 4.646894e+000 8.156522e+000 2.547338e+000 -9.789620e+000 -1.103488e+001 -5.302330e+000 -3.616246e+000 -3.759004e+000 4.685221e-001 -2.548304e+000 2.500395e-001 -1.899557e-001 -7.301015e-001 -8.463493e-001 -5.005399e-001 9.228145e-002 5.148641e-001 -1.959115e-002 -2.754012e-001 5.576018e-001 6.880125e-001 7.461715e-001 1.880511e-001
<VARIANCE> 25
 7.006113e+000 3.312606e+001 4.602737e+001 8.275180e+001 5.093844e+001 3.155033e+001 4.165203e+001 5.409187e+001 2.024576e+001 3.085739e+001 5.710838e+001 2.930723e+001 4.481317e-001 7.981803e-001 3.291828e+000 2.498557e+000 2.105058e+000 2.902718e+000 4.013894e+000 2.481316e+000 1.605796e+000 2.711503e+000 3.144901e+000 1.996098e+000 5.749514e-001
<GCONST> 9.654369e+001
<STATE> 4
<MEAN> 25
 2.234461e+000 -3.568472e+000 1.255319e+001 -9.893264e+000 -1.033203e+001 -6.381972e+000 -4.518322e+000 1.646935e+000 -6.107587e+000 1.965280e-001 2.037327e-001 3.888037e-001 3.758071e-002 -3.255453e-002 -1.833412e-001 -7.487091e-002 -5.758730e-002 8.278339e-002 1.169688e-001 9.241369e-002 5.655194e-002 -9.969146e-003 -1.702676e-001 -8.872249e-002 -3.756556e-002
<VARIANCE> 25
 1.160192e+001 5.320679e+001 8.016633e+001 2.517179e+001 4.339578e+001 2.754169e+001 3.576627e+001 8.223590e+001 2.771902e+001 2.499023e+001 5.377832e+001 1.826715e+001 4.253575e-001 2.680210e+000 2.837104e+000 1.118387e+000 4.373995e+000 1.765172e+000 2.683670e+000 4.414348e+000 2.250284e+000 2.188336e+000 3.159675e+000 1.330891e+000 8.564014e-001
<GCONST> 9.716256e+001
<TRANSP> 5
 0.000000e+000 1.000000e+000 0.000000e+000 0.000000e+000 0.000000e+000
 0.000000e+000 7.918945e-001 2.081055e-001 0.000000e+000 0.000000e+000
 0.000000e+000 0.000000e+000 8.576388e-001 1.423612e-001 0.000000e+000
 0.000000e+000 0.000000e+000 0.000000e+000 9.194012e-001 8.059880e-002
 0.000000e+000 0.000000e+000 0.000000e+000 0.000000e+000 0.000000e+000
<ENDHMM>
~h "z"
<BEGINHMM>
<NUMSTATES> 5
<STATE> 2
<MEAN> 25
 -5.770408e+000 -1.497392e+000 1.965638e+000 5.531346e+000 -7.593166e-001 -9.377621e-001 8.658398e+000 1.314719e+000 -1.592095e+000 4.698785e+000 -7.013875e-001 1.342064e+000 -5.131936e-002 1.616941e-001 1.040445e-001 2.985237e-001 1.563701e-002 -6.863202e-002 6.500593e-002 -2.257591e-002 -1.047582e-001 -1.265917e-001 7.815816e-002 -1.343291e-001 -1.549443e-001
<VARIANCE> 25
 3.413922e+000 8.967540e+000 3.306826e+001 3.052723e+001 1.132707e+001 1.301607e+001 4.003336e+001 1.939165e+001 2.792853e+001 3.889220e+001 2.809636e+001 1.488752e+001 1.547134e-001 3.825328e-001 8.540072e-001 8.829739e-001 1.111359e+000 1.195361e+000 1.634194e+000 2.239187e+000 2.326751e+000 2.980639e+000 2.296303e+000 1.104115e+000 8.805379e-002
<GCONST> 7.986918e+001
<STATE> 3
<MEAN> 25
 -3.916737e+000 5.080407e+000 3.624463e+000 5.096649e+000 5.516548e+000 2.704969e+000 -6.829826e-001 -5.431944e+000 -1.997030e+000 2.738823e-001 -1.909321e+000 -6.370629e-001 1.448824e-001 9.073783e-002 4.417834e-001 -1.716182e-001 5.180655e-001 -6.776466e-001 -2.392714e-001 -7.624906e-002 -1.108603e+000 6.625128e-001 6.225707e-003 6.348062e-002 2.082275e-001
<VARIANCE> 25
 2.823799e+000 5.318439e+000 3.394115e+001 2.570564e+001 1.645476e+001 2.765320e+001 2.018243e+001 3.352273e+001 2.638338e+001 2.630500e+001 8.556185e+000 2.326248e+001 4.070984e-001 5.959543e-001 5.810419e-001 1.252837e+000 5.992436e-001 8.673195e-001 2.404619e+000 4.607455e+000 1.605713e+000 1.191664e+000 1.003354e+000 1.930271e+000 1.057679e-001
<GCONST> 7.898115e+001
<STATE> 4
<MEAN> 25
 5.602370e+000 4.207541e+000 3.195227e+000 -5.026488e+000 -5.863814e+000 -1.751483e+000 -4.428039e+000 -2.791404e+000 -1.093418e+001 -4.155306e+000 4.289845e+000 -3.689236e+000 7.458898e-002 -3.948350e-002 -8.621277e-003 -2.362621e-003 -1.129416e-001 -5.193976e-003 -1.042480e-001 -8.825899e-003 -7.719659e-003 -3.173214e-001 6.735141e-002 3.630065e-002 6.538493e-002
<VARIANCE> 25
 2.555974e+001 3.509130e+001 8.013103e+000 7.780017e+001 4.856058e+001 2.949526e+001 9.610324e+001 2.544894e+001 1.025481e+002 4.738905e+001 1.689134e+001 3.062196e+001 6.658709e-001 8.140759e-001 6.263860e-001 2.040289e+000 1.060446e+000 2.510871e+000 4.679405e+000 1.212805e+000 2.303077e+000 1.740088e+000 1.455438e+000 1.165043e+000 1.654674e+000
<GCONST> 9.375572e+001
<TRANSP> 5
 0.000000e+000 1.000000e+000 0.000000e+000 0.000000e+000 0.000000e+000
 0.000000e+000 9.676880e-001 3.231201e-002 0.000000e+000 0.000000e+000
 0.000000e+000 0.000000e+000 8.608038e-001 1.391962e-001 0.000000e+000
 0.000000e+000 0.000000e+000 0.000000e+000 9.600692e-001 3.993079e-002
 0.000000e+000 0.000000e+000 0.000000e+000 0.000000e+000 0.000000e+000
<ENDHMM>
~h "ai"
<BEGINHMM>
<NUMSTATES> 5
<STATE> 2
<MEAN> 25
 7.055927e+000 -3.907761e+000 9.096733e-001 -3.784796e+000 -2.698244e+000 1.793447e-001 -2.057823e+000 1.588996e+000 4.084681e+000 -3.391872e+000 -3.539181e+000 9.669654e-001 1.171835e-001 -1.418381e+000 -8.925082e-001 -9.204482e-001 7.914062e-001 -4.524513e-001 4.321366e-001 1.168661e+000 6.303352e-001 -4.772390e-001 6.383314e-001 2.173872e-001 1.205786e+000
<VARIANCE> 25
 1.766278e+001 8.663913e+001 4.882881e+001 7.672791e+001 7.873885e+001 6.528007e+001 9.134900e+001 8.576579e+001 1.452295e+002 1.060089e+002 5.400106e+001 3.818580e+001 1.471198e+000 3.379706e+000 4.664257e+000 5.215853e+000 6.968636e+000 5.492107e+000 5.467035e+000 6.777536e+000 4.686714e+000 5.286403e+000 4.471199e+000 3.678136e+000 1.394379e+000
<GCONST> 1.146881e+002
<STATE> 3
<MEAN> 25
 5.751649e+000 -1.002474e+001 4.139163e-001 -1.781720e+000 3.414064e+000 -6.236120e+000 -1.028540e+000 3.275903e+000 -3.153981e-001 -3.435054e+000 1.755945e+000 -1.777236e+000 -2.919950e-001 2.964751e-001 8.884217e-001 6.757973e-001 -1.392844e-001 -2.641307e-001 -2.095814e-001 -3.423130e-002 -4.309197e-001 2.092894e-001 9.844416e-002 -2.734309e-001 -4.093360e-001
<VARIANCE> 25
 9.149457e+000 2.210279e+001 9.785936e+001 1.750538e+002 8.298733e+001 3.754947e+001 4.962362e+001 3.118876e+001 4.348676e+001 2.753828e+001 6.019028e+001 2.953377e+001 3.342464e-001 7.719001e-001 1.468227e+000 1.427477e+000 2.753811e+000 2.033825e+000 2.332264e+000 1.775489e+000 2.476014e+000 1.920224e+000 2.121380e+000 1.396843e+000 2.785294e-001
<GCONST> 9.486105e+001
<STATE> 4
<MEAN> 25
 -1.011660e+000 5.376703e-001 9.123241e+000 2.404580e+000 -2.735401e+000 -2.393101e+000 -1.503441e+000 4.334614e-001 -4.626916e+000 1.896745e+000 1.778395e+000 -1.754441e+000 -4.049904e-001 7.188736e-001 -9.249311e-001 3.123487e-001 1.165885e-001 7.781782e-001 2.850603e-001 -3.657666e-001 4.001197e-001 2.820815e-001 -3.008887e-001 2.800703e-001 -1.377367e+000
<VARIANCE> 25
 1.096503e+001 1.967157e+001 8.365695e+001 1.263084e+002 1.308198e+002 4.185125e+001 6.086666e+001 4.018873e+001 4.622139e+001 4.393414e+001 3.649240e+001 2.100382e+001 2.803243e-001 1.222879e+000 2.511890e+000 3.879565e+000 2.220928e+000 1.850337e+000 2.265906e+000 2.240499e+000 2.275918e+000 2.413295e+000 1.893949e+000 1.740265e+000 1.119861e+000
<GCONST> 9.850783e+001
<TRANSP> 5
 0.000000e+000 1.000000e+000 0.000000e+000 0.000000e+000 0.000000e+000
 0.000000e+000 8.357549e-001 1.642451e-001 0.000000e+000 0.000000e+000
 0.000000e+000 0.000000e+000 9.247254e-001 7.527459e-002 0.000000e+000
 0.000000e+000 0.000000e+000 0.000000e+000 8.727131e-001 1.272869e-001
 0.000000e+000 0.000000e+000 0.000000e+000 0.000000e+000 0.000000e+000
<ENDHMM>
~h "au"
<BEGINHMM>
<NUMSTATES> 5
<STATE> 2
<MEAN> 25
 6.496016e+000 -3.206821e+000 -8.510880e+000 -5.326214e+000 -5.860156e+000 -4.993335e+000 3.805853e+000 7.598413e+000 -2.151242e+000 -8.105832e+000 -1.381412e+000 4.221269e+000 1.685631e-001 -3.825686e-001 -4.136260e-001 -9.432620e-003 -3.354313e-001 -4.324845e-001 4.918769e-001 1.019053e+000 1.687388e-001 -4.612923e-001 -3.995093e-002 1.175252e-001 1.575745e-001
<VARIANCE> 25
 4.052913e+000 1.144682e+001 1.289779e+001 1.708338e+001 2.319034e+001 2.946551e+001 2.297772e+001 2.925257e+001 9.421484e+000 2.621381e+001 1.610970e+001 4.345480e+000 1.018424e-001 7.870501e-001 1.046494e+000 5.390151e-001 4.795316e-001 6.785675e-001 1.589260e+000 1.496018e+000 7.072338e-001 9.178975e-001 1.438817e+000 6.878950e-001 1.352142e-001
<GCONST> 7.217827e+001
<STATE> 3
<MEAN> 25
 4.990315e+000 5.108569e-001 -2.869619e+000 -4.937043e+000 -1.076231e+001 -9.440457e+000 3.014891e+000 1.046544e+001 1.250833e+000 -6.463635e+000 -2.479426e+000 2.083883e-001 -3.813384e-001 9.453039e-001 1.018163e+000 -2.985351e-002 3.023685e-002 4.065565e-001 -8.579368e-001 -1.332612e+000 1.599697e-001 8.420585e-001 1.245439e-001 -5.730230e-001 -4.798803e-001
<VARIANCE> 25
 8.939498e+000 1.680812e+001 2.284176e+001 1.906003e+001 1.609341e+001 2.329960e+001 3.165172e+001 5.278627e+001 8.372295e+000 2.797032e+001 1.461884e+001 1.483771e+001 2.173872e-001 3.055818e-001 4.442862e-001 7.448277e-001 1.968021e+000 1.679107e+000 1.096630e+000 2.063291e+000 1.204177e+000 1.465879e+000 1.852034e+000 1.031191e+000 5.941790e-002
<GCONST> 7.780532e+001
<STATE> 4
<MEAN> 25
 8.775737e+000 5.279448e+000 1.092090e+000 -4.364957e+000 -7.210476e+000 -4.343087e+000 -3.897289e+000 8.500312e+000 5.457355e+000 -8.986023e+000 5.044673e-001 5.959760e+000 -5.228906e-001 5.501661e-001 2.121109e-001 3.546155e-001 1.253888e-001 -8.434087e-002 2.505530e-001 -2.346044e-001 2.264921e-001 6.016976e-001 9.313422e-002 -1.304256e-001 -9.115415e-001
<VARIANCE> 25
 2.763323e+001 9.847645e+001 7.838246e+001 4.450208e+001 1.519984e+001 2.899483e+001 3.890463e+001 3.461713e+001 9.335289e+001 7.584020e+001 3.749126e+001 2.634972e+001 6.336548e-001 1.547596e+000 1.022336e+000 2.784211e+000 1.538428e+000 1.659519e+000 2.556123e+000 1.592621e+000 2.549101e+000 4.012635e+000 1.236205e+000 1.007317e+000 8.557186e-001
<GCONST> 9.682372e+001
<TRANSP> 5
 0.000000e+000 1.000000e+000 0.000000e+000 0.000000e+000 0.000000e+000
 0.000000e+000 8.946344e-001 1.053656e-001 0.000000e+000 0.000000e+000
 0.000000e+000 0.000000e+000 8.609864e-001 1.390136e-001 0.000000e+000
 0.000000e+000 0.000000e+000 0.000000e+000 8.608117e-001 1.391883e-001
 0.000000e+000 0.000000e+000 0.000000e+000 0.000000e+000 0.000000e+000
<ENDHMM>
~h "ng"
<BEGINHMM>
<NUMSTATES> 5
<STATE> 2
<MEAN> 25
 6.395581e+000 -4.454382e+000 -2.159907e+000 4.370980e-001 -9.003760e-001 -2.578692e+000 -1.200618e+000 -1.946595e+000 7.670448e-001 -1.308356e+000 9.305102e-001 -1.528794e+000 -2.965552e-001 8.734126e-001 3.467277e-001 5.528942e-001 4.732322e-001 7.794377e-001 4.150628e-004 2.574023e-001 3.422923e-001 3.252343e-001 -4.430140e-001 -7.640840e-001 -8.294009e-001
<VARIANCE> 25
 1.105564e+001 4.539091e+001 1.782912e+001 7.964413e+001 4.842144e+001 6.211137e+001 6.814105e+001 7.165633e+001 4.595445e+001 6.275925e+001 3.845417e+001 2.490986e+001 2.435406e-001 1.481385e+000 1.166143e+000 1.259341e+000 2.139347e+000 1.704330e+000 1.661532e+000 1.902210e+000 2.167928e+000 1.926300e+000 2.044324e+000 1.474296e+000 7.015305e-001
<GCONST> 9.474496e+001
<STATE> 3
<MEAN> 25
 4.434123e+000 1.951662e+000 1.516888e-001 2.539315e+000 5.314036e+000 2.795043e+000 2.952126e+000 2.328675e+000 2.201607e+000 1.715876e-001 -5.073289e-001 -4.003583e+000 -5.554474e-001 1.034327e+000 5.761411e-001 5.333911e-001 3.901149e-001 5.549974e-001 2.139309e-001 -6.275904e-002 -2.234054e-001 2.002936e-001 -2.909747e-002 1.652671e-001 -8.907470e-001
<VARIANCE> 25
 1.155516e+001 6.102155e+001 1.853514e+001 9.847292e+001 5.638918e+001 2.618093e+001 4.557835e+001 3.814390e+001 2.617393e+001 3.964997e+001 3.990694e+001 3.067172e+001 3.128271e-001 7.591430e-001 1.287244e+000 1.364790e+000 2.383028e+000 1.827630e+000 2.105696e+000 2.131097e+000 1.555250e+000 1.541838e+000 1.725445e+000 2.013598e+000 2.226677e-001
<GCONST> 9.154404e+001
<STATE> 4
<MEAN> 25
 -2.208023e+000 3.746225e+000 -1.986293e-003 3.989403e+000 3.290897e+000 2.926848e+000 3.494447e+000 1.087371e+000 1.310326e+000 2.171595e+000 3.082612e-001 -1.098505e-001 -2.672625e-001 -1.145786e-001 -1.044700e-001 -6.781261e-002 -6.847522e-002 -7.573407e-002 -5.231692e-004 -6.478299e-002 4.917010e-003 1.941311e-001 7.112453e-002 1.015927e-001 -2.165075e-001
<VARIANCE> 25
 1.267858e+001 1.730853e+001 1.546161e+001 2.660629e+001 2.438456e+001 1.824856e+001 2.627157e+001 2.234640e+001 2.693033e+001 2.895650e+001 1.652748e+001 1.618649e+001 2.078628e-001 3.742810e-001 5.865378e-001 7.629023e-001 9.891816e-001 1.197158e+000 1.384008e+000 1.333836e+000 1.248902e+000 1.445394e+000 1.223514e+000 1.043997e+000 1.493717e-001
<GCONST> 7.843745e+001
<TRANSP> 5
 0.000000e+000 1.000000e+000 0.000000e+000 0.000000e+000 0.000000e+000
 0.000000e+000 7.114639e-001 2.885361e-001 0.000000e+000 0.000000e+000
 0.000000e+000 0.000000e+000 7.763126e-001 2.236874e-001 0.000000e+000
 0.000000e+000 0.000000e+000 0.000000e+000 9.342741e-001 6.572592e-002
 0.000000e+000 0.000000e+000 0.000000e+000 0.000000e+000 0.000000e+000
<ENDHMM>
~h "ny"
<BEGINHMM>
<NUMSTATES> 5
<STATE> 2
<MEAN> 25
 -3.363905e+000 -4.267717e-001 4.145730e-002 3.915199e+000 3.037984e-001 -8.802778e-001 2.057931e+000 -1.773326e+000 2.032937e+000 2.402537e+000 2.535018e+000 -9.274758e-001 -2.512051e-001 3.508336e-001 1.072615e-001 5.268140e-001 -9.670510e-001 1.450070e-001 1.005735e+000 -1.064566e+000 -8.322606e-002 1.155373e+000 8.792233e-001 1.198866e-001 -4.081695e-001
<VARIANCE> 25
 5.035179e+001 2.260788e+001 2.047945e+001 1.295385e+001 4.035133e+001 2.953553e+001 4.618145e+001 1.820538e+001 2.871960e+001 2.774231e+001 1.662601e+001 1.980915e+001 1.614470e+000 1.809876e+000 1.253010e+000 1.103993e+000 1.554774e+000 2.161327e+000 4.076501e+000 7.303070e-001 1.424958e+000 2.229427e+000 3.619771e+000 2.776079e+000 1.612217e+000
<GCONST> 9.250094e+001
<STATE> 3
<MEAN> 25
 2.747569e-001 2.537951e+000 -1.207904e+000 3.580254e+000 6.915531e-001 -3.640988e+000 3.134078e+000 -5.721347e+000 -2.579092e+000 7.661633e-001 1.303896e+000 7.299901e-001 2.554909e-001 3.590645e-001 -1.762655e-001 1.010639e-001 -5.167376e-001 1.248349e-001 9.475413e-001 -1.365266e-001 -1.881513e-001 -5.188000e-001 -4.433544e-001 -2.266836e-002 -2.994283e-001
<VARIANCE> 25
 4.680978e+001 2.169629e+001 1.310235e+001 2.577027e+001 3.686344e+001 2.216852e+001 4.535033e+001 1.688798e+001 3.326092e+001 1.909193e+001 1.480695e+001 1.041463e+001 1.686440e-001 2.132966e-001 7.684858e-001 1.236032e+000 6.434262e-001 1.351549e+000 1.832113e+000 1.199765e+000 9.183040e-001 1.663600e+000 1.208599e+000 1.014215e+000 1.043824e-001
<GCONST> 7.917012e+001
<STATE> 4
<MEAN> 25
 -3.762049e+000 2.842124e+000 -2.053588e+000 5.307594e+000 2.466571e+000 1.300825e+000 5.254261e+000 1.677463e+000 4.175205e+000 1.743689e+000 1.792400e+000 1.774204e+000 2.703612e-002 -7.659247e-003 2.163669e-002 1.190839e-001 1.042337e-001 1.631811e-001 1.277399e-002 1.754667e-001 -1.063732e-001 -1.100559e-002 -2.944841e-002 -9.375049e-002 -5.489697e-002
<VARIANCE> 25
 5.950520e+000 5.275749e+000 4.690706e+000 1.366784e+001 1.361150e+001 1.390543e+001 1.916231e+001 1.471025e+001 1.263196e+001 1.113241e+001 1.080573e+001 1.343021e+001 1.053218e-001 1.606020e-001 3.129551e-001 4.375788e-001 4.391489e-001 6.447616e-001 1.096968e+000 1.034454e+000 1.002682e+000 8.536648e-001 7.801388e-001 1.019286e+000 4.694118e-002
<GCONST> 6.371581e+001
<TRANSP> 5
 0.000000e+000 1.000000e+000 0.000000e+000 0.000000e+000 0.000000e+000
 0.000000e+000 4.494447e-001 5.505553e-001 0.000000e+000 0.000000e+000
 0.000000e+000 0.000000e+000 7.314868e-001 2.685132e-001 0.000000e+000
 0.000000e+000 0.000000e+000 0.000000e+000 9.281482e-001 7.185186e-002
 0.000000e+000 0.000000e+000 0.000000e+000 0.000000e+000 0.000000e+000
<ENDHMM>
~h "oi"
<BEGINHMM>
<NUMSTATES> 5
<STATE> 2
<MEAN> 25
 -1.115701e+000 9.369127e-001 5.982115e+000 -4.867695e+000 -5.724504e+000 5.582134e+000 1.577099e+000 -6.793891e+000 -7.556117e-001 8.282119e+000 7.625754e-001 -1.293349e+000 -5.210363e-001 1.000376e-001 -8.217841e-001 6.143053e-001 8.320259e-001 1.890123e-001 1.117719e+000 7.327037e-001 4.347285e-001 -1.437716e-001 -3.188829e-001 6.870393e-002 -7.476187e-001
<VARIANCE> 25
 1.357177e+001 5.305490e+000 4.550038e+001 5.123185e+001 2.273507e+001 1.316795e+001 3.897521e+001 2.281243e+001 3.670143e+001 2.683840e+001 1.348734e+001 8.041855e+000 4.512011e-001 5.823199e-001 7.888992e-001 9.289525e-001 1.815582e+000 1.371893e+000 9.007510e-001 1.163923e+000 2.482842e+000 1.792288e+000 1.694089e+000 7.877524e-001 1.717084e-001
<GCONST> 8.138071e+001
<STATE> 3
<MEAN> 25
 -1.058963e+001 4.901720e+000 -6.254892e+000 -1.797999e+000 3.459319e+000 -4.289842e+000 -4.924881e+000 -6.735507e+000 -7.950113e+000 4.580870e+000 -3.950582e+000 -2.327797e-001 -6.072728e-002 4.726514e-002 3.011655e-002 -3.856146e-002 -2.748591e-002 -1.172516e-001 -1.176605e-002 -6.324047e-002 -1.139180e-001 -1.436532e-002 -3.777324e-002 6.555832e-002 -4.171259e-002
<VARIANCE> 25
 2.906635e+000 2.018183e+000 3.112666e+000 5.979139e+000 6.185560e+000 6.647768e+000 1.521047e+001 1.075427e+001 6.403997e+000 6.864913e+000 7.420962e+000 6.270572e+000 1.010868e-001 1.818376e-001 2.851176e-001 4.728220e-001 6.363722e-001 6.932533e-001 7.821229e-001 1.384991e+000 4.992825e-001 4.509867e-001 6.357849e-001 5.928302e-001 2.134210e-002
<GCONST> 5.402478e+001
<STATE> 4
<MEAN> 25
 -2.574817e+000 4.034527e+000 -7.972491e+000 9.767819e+000 3.288007e-001 1.427505e+000 4.518157e+000 1.119284e+000 7.587443e-001 -2.978058e+000 -1.286829e+000 4.798092e+000 8.630711e-003 8.120304e-003 -2.331049e-002 4.973884e-002 6.616149e-003 1.968749e-003 5.597339e-002 5.379435e-002 -1.727106e-002 2.083934e-002 -4.879176e-002 1.918915e-002 -1.652767e-002
<VARIANCE> 25
 2.392001e+000 3.499292e+000 6.875865e+000 1.395342e+001 1.252815e+001 1.764708e+001 1.889198e+001 2.095760e+001 1.444438e+001 2.223348e+001 1.352414e+001 1.349571e+001 1.921042e-001 3.811558e-001 5.973395e-001 1.122026e+000 1.484939e+000 1.898507e+000 2.568497e+000 2.698119e+000 1.247324e+000 2.129159e+000 1.385320e+000 1.849241e+000 6.191111e-002
<GCONST> 7.408720e+001
<TRANSP> 5
 0.000000e+000 1.000000e+000 0.000000e+000 0.000000e+000 0.000000e+000
 0.000000e+000 8.503693e-001 1.496307e-001 0.000000e+000 0.000000e+000
 0.000000e+000 0.000000e+000 9.411734e-001 5.882660e-002 0.000000e+000
 0.000000e+000 0.000000e+000 0.000000e+000 9.768422e-001 2.315775e-002
 0.000000e+000 0.000000e+000 0.000000e+000 0.000000e+000 0.000000e+000
<ENDHMM>
~h "sp"
<BEGINHMM>
<NUMSTATES> 3
<STATE> 2
~s "silst"
<TRANSP> 3
 0.000000e+000 1.973294e-001 8.026706e-001
 0.000000e+000 8.090931e-001 1.909070e-001
 0.000000e+000 0.000000e+000 0.000000e+000
<ENDHMM>
~h "sy"
<BEGINHMM>
<NUMSTATES> 5
<STATE> 2
<MEAN> 25
 -8.223106e-002 -1.105530e+001 8.803189e+000 4.529900e+000 1.372867e+000 9.025752e-001 6.486867e+000 6.955737e+000 -8.131181e-001 -3.455056e+000 5.981955e+000 3.102732e-002 -1.590504e+000 -1.772200e+000 1.452080e+000 8.154424e-002 6.647291e-002 3.055627e-001 -2.551830e-002 1.741023e-001 3.972490e-001 2.691930e-002 2.743108e-001 9.095145e-001 2.675543e-001
<VARIANCE> 25
 5.776267e+001 5.628448e+001 2.353651e+002 4.012758e+001 1.810194e+001 1.474610e+001 4.149767e+001 4.146006e+001 2.631520e+001 9.942953e+000 5.110667e+001 1.809342e+001 3.034917e+000 2.895296e+000 1.048787e+001 7.388848e-001 1.379191e+000 2.065492e+000 2.351744e+000 1.691457e+000 1.261129e+000 1.366773e+000 4.041548e+000 1.876175e+000 3.284360e-001
<GCONST> 9.672613e+001
<STATE> 3
<MEAN> 25
 -6.018424e+000 -6.756428e+000 8.925990e+000 3.794418e-001 1.837973e+000 -1.360360e+000 1.326519e+000 -5.228772e-001 1.766192e+000 -4.242344e+000 5.974397e+000 3.599892e+000 1.186322e+000 3.975014e-001 -1.054023e+000 -2.492662e-001 -8.291630e-001 -7.001805e-001 -3.191554e-001 -3.697254e-001 -2.224519e-001 3.721738e-002 3.364699e-001 3.595987e-002 2.882491e-001
<VARIANCE> 25
 8.692139e+001 5.171713e+001 8.592892e+001 4.850931e+001 5.936579e+001 4.999080e+001 2.790025e+001 3.472667e+001 5.369147e+001 1.062085e+001 8.760818e+000 7.710054e+000 4.969790e+000 2.970636e+000 4.193714e+000 1.285140e+000 3.811227e+000 3.498402e+000 3.578784e+000 3.518731e+000 2.066404e+000 1.027513e+000 1.128623e+000 1.427128e+000 3.227482e-001
<GCONST> 9.772231e+001
<STATE> 4
<MEAN> 25
 3.326946e+000 -9.726772e+000 -3.962030e+000 2.966271e+000 -1.900620e+000 -5.953233e+000 2.490436e+000 5.643161e+000 -2.236522e+000 -2.163346e+000 2.742781e+000 -4.675626e-001 -3.174011e-001 -1.313419e-001 3.132215e-001 5.163581e-001 4.124151e-001 8.901879e-002 9.098701e-002 1.569185e-001 8.110262e-002 1.243110e-001 -1.676457e-001 -1.724176e-001 -1.770937e-001
<VARIANCE> 25
 3.884047e+001 2.967748e+001 4.070732e+001 1.020090e+002 5.753590e+001 2.845398e+001 3.012046e+001 3.132247e+001 2.510813e+001 3.613888e+001 1.692955e+001 1.580294e+001 3.839793e-001 1.247156e+000 1.362774e+000 1.478330e+000 1.507086e+000 1.337190e+000 1.320698e+000 1.867002e+000 1.074206e+000 1.223427e+000 8.175910e-001 1.242301e+000 9.545871e-002
<GCONST> 8.748543e+001
<TRANSP> 5
 0.000000e+000 1.000000e+000 0.000000e+000 0.000000e+000 0.000000e+000
 0.000000e+000 7.686698e-001 2.313302e-001 0.000000e+000 0.000000e+000
 0.000000e+000 0.000000e+000 8.719867e-001 1.280133e-001 0.000000e+000
 0.000000e+000 0.000000e+000 0.000000e+000 9.385128e-001 6.148713e-002
 0.000000e+000 0.000000e+000 0.000000e+000 0.000000e+000 0.000000e+000
<ENDHMM>
~h "sil"
<BEGINHMM>
<NUMSTATES> 5
<STATE> 2
<MEAN> 25
 -7.309211e+000 5.613043e+000 -5.542320e+000 -2.931507e+000 3.359610e-001 -3.108373e+000 -4.284822e+000 -4.168664e+000 -5.671498e+000 4.362481e+000 -3.050591e+000 2.338235e-001 1.296858e-001 -6.736762e-002 1.062287e-002 -1.387000e-002 -1.735828e-002 8.963975e-002 -2.802944e-002 -1.794187e-002 8.285785e-002 -1.649352e-003 3.475944e-002 5.694968e-002 1.341972e-001
<VARIANCE> 25
 2.786447e+001 1.791460e+001 1.334465e+001 3.619779e+001 2.639854e+001 3.632022e+001 2.233935e+001 3.152122e+001 2.316750e+001 1.682007e+001 1.697557e+001 1.096784e+001 2.848689e-001 2.411692e-001 4.649618e-001 5.991213e-001 7.362604e-001 1.037854e+000 1.060132e+000 1.038500e+000 1.107262e+000 1.090478e+000 9.954100e-001 8.397228e-001 1.970382e-001
<GCONST> 7.721072e+001
<STATE> 3
~s "silst"
<STATE> 4
<MEAN> 25
 -4.367591e+000 2.104487e+000 -1.406321e+000 5.458658e+000 2.182762e+000 3.409672e+000 4.217236e+000 1.467312e+000 2.987743e+000 1.810082e+000 1.370007e+000 1.558110e+000 -3.324695e-002 1.348513e-002 1.004366e-002 7.812896e-003 -3.658437e-003 1.567431e-002 3.418927e-003 -4.982906e-003 3.042440e-002 -4.106198e-003 1.154171e-002 3.730618e-003 -3.882234e-002
<VARIANCE> 25
 3.029835e+000 8.521180e+000 1.127951e+001 3.377681e+001 1.228866e+001 2.056445e+001 1.657552e+001 1.519234e+001 2.195230e+001 2.576159e+001 1.413350e+001 1.269265e+001 1.305341e-001 2.739038e-001 4.547672e-001 6.533815e-001 8.696327e-001 1.008220e+000 1.241328e+000 1.190175e+000 1.317617e+000 1.428997e+000 1.206793e+000 1.027191e+000 9.153471e-002
<GCONST> 7.189971e+001
<TRANSP> 5
 0.000000e+000 1.000000e+000 0.000000e+000 0.000000e+000 0.000000e+000
 0.000000e+000 8.581253e-001 4.817756e-002 9.369718e-002 0.000000e+000
 0.000000e+000 0.000000e+000 9.110182e-001 8.898181e-002 0.000000e+000
 0.000000e+000 1.283924e-002 0.000000e+000 9.622151e-001 2.494562e-002
 0.000000e+000 0.000000e+000 0.000000e+000 0.000000e+000 0.000000e+000
<ENDHMM>
