~o
<STREAMINFO> 1 25
<VECSIZE> 25<NULLD><MFCC_D_N_Z_0><DIAGC>
~s "silst"
<MEAN> 25
 -2.807689e+000 1.194950e+000 -1.643042e+000 2.823720e+000 1.730471e+000 8.073238e-001 3.080851e-001 5.129205e-001 1.728974e-001 3.588310e-001 -1.220330e+000 1.669881e+000 -3.296194e-001 -1.542394e-001 -1.477363e-001 -7.396504e-002 9.251804e-002 -1.103606e-001 9.366381e-002 -9.145486e-002 2.062530e-001 -1.536867e-001 5.112777e-002 3.514835e-002 3.458032e-001
<VARIANCE> 25
 3.735387e+001 4.424792e+001 4.520131e+001 9.167395e+001 4.059854e+001 4.313086e+001 7.074342e+001 4.801967e+001 4.686840e+001 3.662770e+001 4.308275e+001 2.848947e+001 2.065482e+000 3.775506e+000 3.377719e+000 6.208136e+000 3.852129e+000 3.979021e+000 4.438958e+000 3.340066e+000 3.672743e+000 3.302346e+000 3.257682e+000 2.526320e+000 1.618010e+001
<GCONST> 1.097561e+002
~h "a"
<BEGINHMM>
<NUMSTATES> 5
<STATE> 2
<MEAN> 25
 2.131452e+000 -1.288306e+000 2.352899e-001 -1.797264e+000 3.643380e-001 -1.289283e+000 -1.363022e+000 -9.436634e-001 -4.265082e-001 -1.121478e+000 -1.210636e+000 -4.995212e-001 1.549099e+000 -1.483799e+000 -6.318049e-001 -1.527218e+000 -4.530646e-001 -8.193111e-001 -6.139711e-001 5.773669e-001 1.641799e-001 -7.308529e-001 -1.023154e-001 5.245697e-003 2.350790e+000
<VARIANCE> 25
 3.682711e+001 6.242192e+001 4.170261e+001 8.109052e+001 6.768491e+001 5.210838e+001 5.286451e+001 6.126198e+001 7.431409e+001 4.077028e+001 4.351183e+001 3.604800e+001 3.106779e+000 4.329653e+000 4.411971e+000 6.174407e+000 6.544693e+000 5.048375e+000 5.443006e+000 5.947723e+000 5.811417e+000 4.153593e+000 5.079771e+000 4.051853e+000 4.332628e+000
<GCONST> 1.139917e+002
<STATE> 3
<MEAN> 25
 7.328598e+000 -8.274998e+000 -5.068742e+000 -7.913410e+000 -7.860721e-001 -3.939159e+000 -3.339855e-002 1.274087e+000 3.427849e-001 -2.784052e+000 8.776258e-001 8.575286e-001 1.200636e-001 -6.246637e-001 -4.795687e-001 -2.275649e-001 1.280003e-001 1.156108e-001 4.572529e-001 4.678645e-001 2.095279e-001 3.718816e-002 -3.977431e-002 -2.978391e-002 3.357847e-001
<VARIANCE> 25
 9.341938e+000 3.351043e+001 4.149597e+001 7.368156e+001 7.626984e+001 4.351491e+001 4.781155e+001 4.848841e+001 8.120763e+001 3.374316e+001 5.383664e+001 4.004907e+001 3.643071e-001 1.155614e+000 1.375921e+000 1.493264e+000 2.098090e+000 1.921997e+000 1.906143e+000 2.343360e+000 2.022788e+000 1.823808e+000 2.300410e+000 1.551554e+000 5.509059e-001
<GCONST> 9.589404e+001
<STATE> 4
<MEAN> 25
 6.518444e+000 -7.739170e+000 -3.918281e+000 -8.170965e+000 -8.865143e-001 -2.199219e+000 -2.812064e+000 4.086078e+000 2.927727e-001 -2.321169e+000 -3.585963e+000 -1.433753e+000 -1.714899e-001 5.705143e-001 2.298253e-001 3.154238e-001 3.985045e-002 1.151600e-001 -3.701129e-002 -8.342452e-002 -1.215328e-002 6.758048e-002 -4.332693e-002 6.906145e-002 -6.338519e-001
<VARIANCE> 25
 8.643504e+000 3.134878e+001 3.376014e+001 4.078791e+001 4.115564e+001 2.450986e+001 4.854787e+001 3.448574e+001 3.162402e+001 2.664778e+001 5.646547e+001 3.929982e+001 3.335232e-001 9.861079e-001 9.969706e-001 1.094617e+000 1.446010e+000 1.409730e+000 1.561128e+000 1.533100e+000 1.319253e+000 1.305373e+000 1.418535e+000 1.231405e+000 7.245937e-001
<GCONST> 8.889702e+001
<TRANSP> 5
 0.000000e+000 1.000000e+000 0.000000e+000 0.000000e+000 0.000000e+000
 0.000000e+000 7.482358e-001 2.517642e-001 0.000000e+000 0.000000e+000
 0.000000e+000 0.000000e+000 7.609349e-001 2.390651e-001 0.000000e+000
 0.000000e+000 0.000000e+000 0.000000e+000 8.414460e-001 1.585540e-001
 0.000000e+000 0.000000e+000 0.000000e+000 0.000000e+000 0.000000e+000
<ENDHMM>
~h "b"
<BEGINHMM>
<NUMSTATES> 5
<STATE> 2
<MEAN> 25
 9.055985e-001 4.016443e+000 1.689538e+000 2.397265e+000 -5.996763e-001 -3.040283e-001 -7.614316e-001 -5.199904e-001 -1.543348e-001 -5.897247e-001 -8.645617e-001 -8.145639e-001 -7.494546e-001 -3.807183e-002 -2.840797e-001 1.045609e-001 2.392149e-001 5.969834e-001 5.756562e-001 3.396287e-001 6.252940e-001 7.413725e-001 5.245630e-001 2.398812e-001 -8.233848e-001
<VARIANCE> 25
 1.866738e+001 3.342695e+001 4.854065e+001 2.930849e+001 5.356681e+001 3.876975e+001 3.754778e+001 4.230228e+001 4.388540e+001 3.036664e+001 3.091068e+001 2.554261e+001 5.206662e-001 9.144756e-001 1.087040e+000 1.500051e+000 1.511950e+000 1.995779e+000 1.703039e+000 1.819278e+000 1.744024e+000 1.568188e+000 1.647192e+000 1.585714e+000 6.271691e-001
<GCONST> 9.200063e+001
<STATE> 3
<MEAN> 25
 -4.306750e+000 3.800389e+000 -2.928456e+000 5.470605e+000 1.219499e+000 8.274645e-001 2.372094e+000 -7.625272e-001 -5.631086e-001 5.777209e-001 -1.346172e-001 1.486367e+000 -1.913124e-001 -4.696002e-002 -1.053670e-001 4.394489e-003 -7.980071e-002 -5.899655e-002 -2.897891e-002 -8.879117e-002 -6.108941e-002 5.722503e-002 1.337133e-002 -4.144415e-002 -2.179874e-001
<VARIANCE> 25
 1.410300e+001 1.053053e+001 1.698024e+001 4.991669e+001 2.315184e+001 2.098670e+001 3.197240e+001 3.114544e+001 2.716054e+001 4.033274e+001 1.974633e+001 1.973186e+001 2.098797e-001 5.234114e-001 7.513642e-001 9.900867e-001 1.545915e+000 1.754380e+000 1.832624e+000 1.965385e+000 1.890091e+000 1.860945e+000 1.491896e+000 1.172649e+000 1.413217e-001
<GCONST> 8.337867e+001
<STATE> 4
<MEAN> 25
 -4.213409e+000 2.031678e+000 -6.489288e-001 3.479203e+000 2.403483e+000 4.172015e+000 4.549170e+000 1.316495e+000 3.551356e+000 2.676275e+000 1.738005e+000 3.442942e-001 -4.027260e-002 3.054446e-002 3.827703e-002 4.884136e-002 2.910632e-002 1.638590e-002 3.888950e-003 -4.438412e-002 -4.075087e-002 3.760979e-003 -1.126145e-002 -1.480426e-002 -3.591441e-002
<VARIANCE> 25
 3.388227e+000 7.139331e+000 9.229440e+000 2.073327e+001 7.925882e+000 1.265153e+001 1.268004e+001 1.345304e+001 1.460815e+001 1.370337e+001 1.305711e+001 1.084759e+001 1.026438e-001 2.703598e-001 3.513686e-001 4.261956e-001 5.485728e-001 5.823167e-001 7.660018e-001 8.861632e-001 1.004946e+000 1.066986e+000 9.670796e-001 8.568363e-001 5.883459e-002
<GCONST> 6.442353e+001
<TRANSP> 5
 0.000000e+000 1.000000e+000 0.000000e+000 0.000000e+000 0.000000e+000
 0.000000e+000 5.722295e-001 4.277705e-001 0.000000e+000 0.000000e+000
 0.000000e+000 0.000000e+000 8.251191e-001 1.748809e-001 0.000000e+000
 0.000000e+000 0.000000e+000 0.000000e+000 9.325268e-001 6.747317e-002
 0.000000e+000 0.000000e+000 0.000000e+000 0.000000e+000 0.000000e+000
<ENDHMM>
~h "c"
<BEGINHMM>
<NUMSTATES> 5
<STATE> 2
<MEAN> 25
 -3.534894e+000 1.872448e+000 -1.596144e+000 3.758394e+000 2.343833e+000 5.164688e+000 3.389328e+000 4.676912e-001 3.252829e+000 3.336942e+000 1.227104e+000 2.285918e+000 -1.285041e-001 -8.458707e-002 -6.299664e-002 -8.890587e-002 -2.943088e-002 5.090024e-002 1.653922e-001 9.015848e-002 2.153030e-002 8.737610e-002 8.584482e-002 8.805041e-002 -1.113598e-001
<VARIANCE> 25
 6.170574e+000 5.226840e+000 1.636316e+001 3.914157e+001 9.974282e+000 2.213322e+001 1.423182e+001 1.424840e+001 1.819600e+001 2.322043e+001 1.111702e+001 1.266200e+001 1.370744e-001 2.616812e-001 5.239848e-001 1.009230e+000 6.360133e-001 9.852796e-001 1.783363e+000 1.451329e+000 1.596116e+000 1.565037e+000 1.072626e+000 8.623493e-001 1.283452e-001
<GCONST> 7.288839e+001
<STATE> 3
<MEAN> 25
 -4.231581e+000 -2.169633e+000 1.203069e+000 2.086383e+000 3.493327e-001 2.677431e+000 5.087792e+000 3.181601e+000 2.915013e-001 1.656240e+000 2.745617e+000 3.414491e+000 -4.103946e-001 -1.565228e+000 1.090096e+000 1.031029e+000 -5.675197e-001 -1.791245e+000 1.984670e-001 9.686332e-001 -1.165313e+000 -1.336639e+000 9.964550e-002 2.376544e-001 6.592855e-001
<VARIANCE> 25
 1.144379e+001 2.734006e+001 2.717303e+001 3.841822e+001 7.198634e+000 3.677243e+001 2.623201e+001 3.213016e+001 3.019895e+001 2.390185e+001 1.180371e+001 9.543774e+000 3.269288e-001 4.202726e+000 2.456912e+000 4.104045e+000 1.579858e+000 1.542692e+000 2.248065e+000 3.120860e+000 2.639125e+000 1.667191e+000 1.331471e+000 1.314706e+000 8.698552e-001
<GCONST> 8.963467e+001
<STATE> 4
<MEAN> 25
 -9.830945e+000 -1.651290e+000 3.463549e+000 -9.847905e-002 -1.682751e-001 -9.903604e-001 5.473048e+000 -2.569185e-001 4.778834e-002 8.120275e-001 3.171193e+000 4.366094e+000 1.342643e-001 -5.413936e-001 9.760578e-001 -5.875266e-001 4.961037e-002 -8.217521e-001 -1.133177e+000 -4.878609e-001 1.920749e-001 -2.155426e-001 -5.892394e-002 -1.462597e-001 2.239769e+000
<VARIANCE> 25
 5.874599e+001 2.602012e+002 8.080876e+001 5.108313e+001 9.101699e+001 3.829465e+001 7.741163e+001 2.856290e+001 5.391172e+001 3.032767e+001 1.766131e+001 3.087897e+001 1.258365e+001 1.674562e+001 1.057561e+001 4.721453e+000 9.579487e+000 2.866558e+000 8.409003e+000 4.808692e+000 4.569127e+000 4.140917e+000 2.887243e+000 5.048529e+000 3.713061e+000
<GCONST> 1.166708e+002
<TRANSP> 5
 0.000000e+000 1.000000e+000 0.000000e+000 0.000000e+000 0.000000e+000
 0.000000e+000 9.344537e-001 6.554634e-002 0.000000e+000 0.000000e+000
 0.000000e+000 0.000000e+000 5.751765e-001 4.248236e-001 0.000000e+000
 0.000000e+000 0.000000e+000 0.000000e+000 8.055847e-001 1.944153e-001
 0.000000e+000 0.000000e+000 0.000000e+000 0.000000e+000 0.000000e+000
<ENDHMM>
~h "d"
<BEGINHMM>
<NUMSTATES> 5
<STATE> 2
<MEAN> 25
 4.672163e+000 1.691601e+000 1.714347e-001 7.938543e-001 -3.882310e-001 -2.309798e+000 -3.780431e+000 -2.979432e+000 -3.920443e+000 -3.330181e+000 -5.718552e-001 3.030848e+000 -7.115881e-001 8.834161e-001 -3.314761e-001 4.590389e-001 1.521300e-001 3.524121e-001 7.712374e-001 1.766770e-002 2.554435e-001 8.058644e-002 -2.882709e-001 -1.148407e-001 -1.532239e+000
<VARIANCE> 25
 2.580482e+001 2.702899e+001 2.968867e+001 4.311504e+001 4.321896e+001 4.149720e+001 4.830025e+001 6.204799e+001 7.453139e+001 2.925972e+001 6.202608e+001 3.070196e+001 7.786984e-001 1.372581e+000 2.329557e+000 2.585554e+000 1.663430e+000 2.877708e+000 2.922595e+000 2.284257e+000 2.878289e+000 2.601426e+000 2.445906e+000 2.036316e+000 1.824590e+000
<GCONST> 9.993233e+001
<STATE> 3
<MEAN> 25
 4.639441e-001 4.653278e+000 1.943175e+000 2.397367e+000 3.206325e-001 -5.169844e-001 -2.269466e+000 -2.479347e+000 -2.383786e+000 -1.053688e+000 -1.875876e+000 3.771166e-001 -3.947966e-001 1.667893e-001 -1.223900e-001 4.055769e-002 8.540523e-002 2.140586e-001 3.900712e-001 2.361639e-001 2.516543e-001 4.215778e-001 2.090974e-001 -1.006381e-002 -4.886559e-001
<VARIANCE> 25
 2.629186e+001 1.572439e+001 3.655809e+001 2.695055e+001 3.755750e+001 2.920065e+001 2.965149e+001 2.212202e+001 2.540770e+001 2.538051e+001 2.205232e+001 2.452025e+001 2.420403e-001 7.037210e-001 7.424507e-001 9.583600e-001 1.193351e+000 1.465987e+000 1.477388e+000 1.223820e+000 1.255761e+000 1.413750e+000 1.277175e+000 1.027332e+000 1.861837e-001
<GCONST> 8.331818e+001
<STATE> 4
<MEAN> 25
 -3.586950e+000 1.743927e+000 4.181491e-002 2.849466e+000 1.664398e+000 3.263979e+000 2.972415e+000 6.238892e-001 2.201557e+000 2.806478e+000 1.061204e+000 4.573639e-001 -6.804394e-002 3.042947e-002 9.388183e-003 5.383524e-002 1.009521e-001 7.948128e-002 2.917399e-002 -6.680610e-002 -2.842672e-002 5.884527e-002 6.585791e-002 9.018154e-003 -7.002340e-002
<VARIANCE> 25
 5.659256e+000 9.157922e+000 1.259531e+001 1.943135e+001 1.352624e+001 1.438333e+001 1.575302e+001 1.912666e+001 1.739664e+001 1.514088e+001 1.344013e+001 1.337005e+001 1.628942e-001 3.366944e-001 3.978708e-001 5.126513e-001 6.586526e-001 7.633244e-001 9.197447e-001 1.074105e+000 1.115890e+000 1.094216e+000 1.077456e+000 1.015823e+000 8.978999e-002
<GCONST> 6.982569e+001
<TRANSP> 5
 0.000000e+000 1.000000e+000 0.000000e+000 0.000000e+000 0.000000e+000
 0.000000e+000 6.985381e-001 3.014618e-001 0.000000e+000 0.000000e+000
 0.000000e+000 0.000000e+000 7.544272e-001 2.455728e-001 0.000000e+000
 0.000000e+000 0.000000e+000 0.000000e+000 9.047836e-001 9.521636e-002
 0.000000e+000 0.000000e+000 0.000000e+000 0.000000e+000 0.000000e+000
<ENDHMM>
~h "e"
<BEGINHMM>
<NUMSTATES> 5
<STATE> 2
<MEAN> 25
 -4.029110e+000 2.374937e+000 -2.074168e+000 4.131077e+000 1.661349e+000 1.769372e+000 3.050243e+000 6.555014e-001 1.813321e+000 2.282885e+000 1.234744e+000 1.252008e+000 -4.402067e-002 1.559003e-002 4.463469e-003 7.325176e-002 3.580852e-002 -3.981026e-002 -2.286233e-002 -8.028943e-002 -8.014476e-002 -3.612434e-003 3.300234e-002 7.794881e-003 -3.373044e-002
<VARIANCE> 25
 8.312142e+000 1.013784e+001 1.297143e+001 3.690532e+001 1.425426e+001 1.466651e+001 2.474971e+001 2.477719e+001 2.294523e+001 2.305440e+001 1.573890e+001 1.328212e+001 2.233961e-001 4.266635e-001 6.248813e-001 7.641691e-001 9.071445e-001 1.091347e+000 1.221979e+000 1.350397e+000 1.435531e+000 1.412962e+000 1.213486e+000 1.143240e+000 1.610746e-001
<GCONST> 7.653671e+001
<STATE> 3
<MEAN> 25
 -4.178106e+000 4.422029e-001 2.493858e-001 -6.417590e-001 1.878269e+000 7.419956e-002 2.010601e+000 -2.627791e+000 -1.601082e+000 8.201147e-001 9.994324e-001 1.187943e+000 1.394780e+000 -7.270225e-001 1.605496e-001 -8.043667e-001 -3.596213e-001 -7.647282e-001 -9.675728e-001 -5.548398e-001 -6.653332e-001 -1.048063e+000 -2.592147e-002 1.518968e-001 2.300369e+000
<VARIANCE> 25
 6.220877e+001 4.782835e+001 3.718163e+001 5.576792e+001 3.963849e+001 4.851155e+001 5.182298e+001 3.640837e+001 4.635447e+001 3.995440e+001 2.109258e+001 2.588099e+001 5.132590e+000 4.567883e+000 2.916875e+000 6.333494e+000 4.363672e+000 5.641050e+000 6.298989e+000 4.774745e+000 5.551655e+000 4.908806e+000 2.928403e+000 3.018850e+000 6.140535e+000
<GCONST> 1.104903e+002
<STATE> 4
<MEAN> 25
 5.929558e+000 -2.331526e+000 -2.312343e+000 -7.433407e-001 -2.881800e-001 -6.118715e+000 -6.965377e+000 -5.640363e+000 -4.904747e+000 -2.311433e+000 1.234794e+000 1.553986e+000 7.498959e-001 -2.706963e-001 -1.983138e-001 -2.918948e-001 -2.685225e-001 -6.535126e-001 -3.429862e-001 2.516625e-001 1.412877e-001 1.086754e-001 -1.460993e-001 -3.132757e-001 7.149338e-001
<VARIANCE> 25
 1.558412e+001 2.850028e+001 3.446686e+001 7.422103e+001 3.913815e+001 6.161697e+001 5.553455e+001 8.717275e+001 5.129333e+001 5.073660e+001 3.829530e+001 3.226249e+001 2.070077e+000 2.401847e+000 2.343318e+000 4.824828e+000 2.867559e+000 5.248794e+000 4.143771e+000 5.549409e+000 3.488371e+000 3.908834e+000 2.865163e+000 2.336710e+000 2.099906e+000
<GCONST> 1.062784e+002
<TRANSP> 5
 0.000000e+000 1.000000e+000 0.000000e+000 0.000000e+000 0.000000e+000
 0.000000e+000 8.986167e-001 1.013834e-001 0.000000e+000 0.000000e+000
 0.000000e+000 0.000000e+000 7.514338e-001 2.485661e-001 0.000000e+000
 0.000000e+000 0.000000e+000 0.000000e+000 6.694322e-001 3.305678e-001
 0.000000e+000 0.000000e+000 0.000000e+000 0.000000e+000 0.000000e+000
<ENDHMM>
~h "f"
<BEGINHMM>
<NUMSTATES> 5
<STATE> 2
<MEAN> 25
 -8.182104e+000 -4.184508e+000 1.820502e+000 1.874846e+000 5.824645e+000 -7.447602e-001 3.961296e+000 5.876130e-001 4.593033e+000 2.810831e+000 2.666514e+000 1.759340e+000 -3.999789e-001 -3.974860e-001 1.031208e-001 -3.573747e-001 4.995503e-001 -1.600369e-002 1.819934e-001 -1.189762e-001 1.580960e-001 1.412357e-002 -1.255783e-002 6.244922e-002 4.990624e-001
<VARIANCE> 25
 2.017628e+001 2.061968e+001 7.570662e+000 2.032422e+001 2.117356e+001 3.440413e+001 2.082245e+001 1.491800e+001 1.457447e+001 1.460792e+001 8.902843e+000 1.030804e+001 2.974411e+000 1.402046e+000 8.884222e-001 1.035590e+000 2.548329e+000 2.502124e+000 1.929533e+000 1.344069e+000 2.079181e+000 1.375653e+000 9.848704e-001 1.149302e+000 8.303919e-001
<GCONST> 8.436259e+001
<STATE> 3
<MEAN> 25
 2.377416e+000 -4.796930e+000 -3.314398e+000 -5.342244e+000 2.094275e+000 2.606587e+000 -1.340064e+000 -1.693114e+000 1.114548e+000 1.630799e+000 -3.756352e-001 -3.891673e+000 4.624121e+000 -4.593225e-001 -1.796943e+000 -4.327808e+000 -1.567223e+000 1.231248e+000 -2.127143e+000 -5.068619e-001 -1.849179e+000 -5.954957e-001 -9.962478e-001 -2.268051e+000 2.925240e+000
<VARIANCE> 25
 6.247410e+001 2.749986e+001 2.679680e+001 6.319265e+001 2.765875e+001 3.204693e+001 3.022592e+001 1.170220e+001 2.616161e+001 2.453913e+001 1.876836e+001 2.077468e+001 3.449359e+000 3.949994e+000 1.489741e+000 2.648721e+000 4.823488e+000 5.078512e+000 2.484186e+000 1.834163e+000 1.370520e+000 1.390965e+000 2.428667e+000 2.248806e+000 3.647068e+000
<GCONST> 9.825290e+001
<STATE> 4
<MEAN> 25
 5.751707e+000 -8.896372e+000 -4.453481e+000 -1.694826e+001 8.025076e+000 4.724530e+000 -4.664308e+000 -2.672739e+000 1.816562e+000 -9.931565e-002 3.476603e-001 -5.979026e+000 -1.610354e-001 2.294884e-001 1.250610e-001 2.908216e-001 -1.283399e-001 -3.178464e-001 2.505163e-001 -9.891279e-002 1.086026e-001 8.643869e-002 -1.917204e-001 -1.459372e-002 -2.331438e-001
<VARIANCE> 25
 1.994775e+001 3.019102e+001 2.562516e+001 5.455653e+001 8.256828e+001 3.324326e+001 4.977351e+001 1.361209e+001 4.079710e+001 2.355351e+001 1.751826e+001 1.734099e+001 1.075352e+000 2.461845e+000 2.334668e+000 4.389188e+000 3.986697e+000 2.656870e+000 3.879911e+000 2.062247e+000 2.757203e+000 1.868354e+000 1.813625e+000 1.034451e+000 2.359293e+000
<GCONST> 9.747765e+001
<TRANSP> 5
 0.000000e+000 1.000000e+000 0.000000e+000 0.000000e+000 0.000000e+000
 0.000000e+000 8.813049e-001 1.186952e-001 0.000000e+000 0.000000e+000
 0.000000e+000 0.000000e+000 6.071877e-001 3.928123e-001 0.000000e+000
 0.000000e+000 0.000000e+000 0.000000e+000 8.794497e-001 1.205503e-001
 0.000000e+000 0.000000e+000 0.000000e+000 0.000000e+000 0.000000e+000
<ENDHMM>
~h "g"
<BEGINHMM>
<NUMSTATES> 5
<STATE> 2
<MEAN> 25
 -4.048758e+000 2.745831e+000 -1.546691e+000 4.419860e+000 2.333782e+000 1.453379e+000 2.253025e+000 -2.024492e-001 8.282142e-001 3.868007e-001 -4.069799e-001 9.249532e-001 -4.034414e-002 1.409620e-003 -1.176111e-001 -6.211158e-002 -7.562433e-003 6.380845e-003 -3.151910e-002 -5.429280e-002 -8.641094e-002 8.326079e-002 5.100175e-002 -4.152757e-002 -8.945418e-002
<VARIANCE> 25
 6.248631e+000 8.780919e+000 1.791291e+001 2.426671e+001 1.091508e+001 1.543651e+001 2.507396e+001 2.435385e+001 2.401514e+001 2.243773e+001 1.786780e+001 1.581011e+001 2.055812e-001 5.070283e-001 7.149659e-001 8.271278e-001 1.090018e+000 1.135700e+000 1.487334e+000 1.759878e+000 1.356166e+000 1.763177e+000 1.594972e+000 1.107305e+000 1.248835e-001
<GCONST> 7.725042e+001
<STATE> 3
<MEAN> 25
 -5.454974e+000 -1.775378e+000 -1.599098e+000 3.143718e+000 1.709695e+000 7.096242e-001 3.384666e+000 -4.531335e-001 -1.394702e+000 2.653333e+000 7.328049e-001 4.661379e-002 -4.255186e-002 -2.318285e+000 -1.860957e-001 -2.070464e+000 -4.245532e-001 -3.730806e-001 5.304953e-002 3.866477e-001 -1.246395e-001 -3.003090e-002 4.230582e-001 -3.525766e-001 3.093677e+000
<VARIANCE> 25
 1.493883e+001 9.875266e+001 2.551592e+001 4.861522e+001 3.177039e+001 5.337141e+001 3.954762e+001 3.177955e+001 2.504831e+001 2.379733e+001 1.694242e+001 2.436568e+001 1.539558e+000 8.830236e+000 4.803411e+000 5.952989e+000 1.287364e+001 5.673945e+000 5.352447e+000 6.212735e+000 3.270186e+000 4.636003e+000 3.350763e+000 2.806683e+000 5.720402e+000
<GCONST> 1.078143e+002
<STATE> 4
<MEAN> 25
 -2.650680e+000 -4.314963e+000 -3.117601e+000 -4.637524e+000 1.348903e+000 -1.077167e-001 1.420994e-001 -6.974911e-001 -2.400825e+000 4.752663e+000 3.123585e+000 -1.285233e+000 1.652083e+000 9.138954e-001 1.646725e+000 -3.912090e-001 -9.401270e-001 -4.065811e-001 -1.754041e+000 -5.456986e-001 -8.049843e-001 -5.672684e-001 2.678927e-001 -3.394119e-001 1.884929e+000
<VARIANCE> 25
 2.297792e+001 5.355516e+001 1.099337e+002 7.006503e+001 2.397860e+002 6.890559e+001 5.558670e+001 5.894542e+001 5.172190e+001 6.319569e+001 4.207262e+001 3.820068e+001 2.617488e+000 7.425263e+000 6.206287e+000 9.941088e+000 1.528914e+001 3.607318e+000 4.312644e+000 4.582550e+000 4.342586e+000 6.193537e+000 4.935773e+000 2.559448e+000 6.089981e+000
<GCONST> 1.170111e+002
<TRANSP> 5
 0.000000e+000 1.000000e+000 0.000000e+000 0.000000e+000 0.000000e+000
 0.000000e+000 9.358132e-001 6.418669e-002 0.000000e+000 0.000000e+000
 0.000000e+000 0.000000e+000 6.317975e-001 3.682025e-001 0.000000e+000
 0.000000e+000 0.000000e+000 0.000000e+000 6.562546e-001 3.437454e-001
 0.000000e+000 0.000000e+000 0.000000e+000 0.000000e+000 0.000000e+000
<ENDHMM>
~h "h"
<BEGINHMM>
<NUMSTATES> 5
<STATE> 2
<MEAN> 25
 -6.667336e-001 -7.264370e+000 -1.531739e+000 -1.390224e+000 4.127543e+000 2.656985e-002 5.409948e+000 3.302976e+000 6.048906e-001 -1.574374e+000 -1.077144e+000 -3.128498e-002 -6.476400e-001 1.694642e-001 -2.982208e-001 6.293880e-001 1.619060e-001 3.402673e-001 6.660811e-001 3.151682e-003 1.112092e-001 3.611659e-001 9.765332e-002 3.787453e-001 -1.156904e+000
<VARIANCE> 25
 2.785642e+001 3.086826e+001 3.373570e+001 4.470870e+001 1.115213e+002 4.318157e+001 6.511919e+001 4.405564e+001 4.750704e+001 4.200497e+001 5.851952e+001 2.574125e+001 7.462183e-001 1.721736e+000 1.383932e+000 2.207469e+000 2.575256e+000 2.475333e+000 4.208646e+000 2.258514e+000 2.692342e+000 2.675930e+000 2.376769e+000 2.027115e+000 7.921070e-001
<GCONST> 1.001654e+002
<STATE> 3
<MEAN> 25
 -1.696616e+000 -5.093671e+000 -3.884301e+000 2.101703e+000 3.244827e+000 1.542472e+000 5.177447e+000 3.538683e+000 2.006449e+000 7.824873e-001 2.414142e-001 2.536840e+000 -1.859982e-001 6.363616e-001 1.108522e-001 2.046999e-001 -1.712941e-001 2.493626e-001 -7.222086e-002 4.122292e-002 3.384902e-001 2.351444e-001 1.763861e-001 -1.071793e-001 -7.201685e-001
<VARIANCE> 25
 5.593001e+000 2.802485e+001 1.117685e+001 4.243170e+001 2.914773e+001 1.598992e+001 1.954731e+001 2.004569e+001 2.270100e+001 2.410266e+001 2.141134e+001 2.332858e+001 1.837197e-001 6.347845e-001 6.205577e-001 9.110733e-001 1.031386e+000 9.346160e-001 1.071905e+000 1.306247e+000 1.337862e+000 1.296695e+000 1.367128e+000 1.072909e+000 1.430539e-001
<GCONST> 7.836703e+001
<STATE> 4
<MEAN> 25
 -3.444645e+000 1.477856e+000 -2.022103e+000 5.068353e+000 1.220279e+000 2.859070e+000 4.226838e+000 1.624847e+000 3.233479e+000 2.730881e+000 2.409432e+000 1.236726e+000 -3.330070e-002 3.832293e-002 3.343908e-002 5.431868e-002 8.638627e-003 2.532917e-002 -2.422323e-002 -8.074100e-002 -5.355782e-002 -1.092380e-002 1.600129e-002 1.080650e-002 -4.421287e-002
<VARIANCE> 25
 2.882951e+000 7.627551e+000 7.807867e+000 2.736198e+001 1.125876e+001 1.154253e+001 1.716160e+001 1.785791e+001 1.755970e+001 1.519725e+001 1.434756e+001 1.109639e+001 9.106744e-002 2.594987e-001 4.199295e-001 6.153333e-001 7.106169e-001 9.250141e-001 1.175518e+000 1.153793e+000 1.024379e+000 1.216446e+000 1.142949e+000 8.619866e-001 6.158565e-002
<GCONST> 6.785559e+001
<TRANSP> 5
 0.000000e+000 1.000000e+000 0.000000e+000 0.000000e+000 0.000000e+000
 0.000000e+000 8.480028e-001 1.519972e-001 0.000000e+000 0.000000e+000
 0.000000e+000 0.000000e+000 8.522919e-001 1.477081e-001 0.000000e+000
 0.000000e+000 0.000000e+000 0.000000e+000 9.426099e-001 5.739008e-002
 0.000000e+000 0.000000e+000 0.000000e+000 0.000000e+000 0.000000e+000
<ENDHMM>
~h "i"
<BEGINHMM>
<NUMSTATES> 5
<STATE> 2
<MEAN> 25
 -2.534959e+000 -1.574676e+000 1.082521e+001 3.133189e+000 -1.703669e+000 -2.746336e+000 -2.025579e+000 -4.158962e+000 -3.435850e+000 -5.706900e-001 1.567072e+000 -2.393063e+000 8.029056e-001 8.404166e-002 1.920311e+000 5.612997e-001 -5.771348e-001 -7.358297e-001 -1.851153e+000 -6.866442e-001 -1.037356e+000 -8.613648e-001 -2.528351e-001 -7.941359e-001 1.258502e+000
<VARIANCE> 25
 5.374136e+001 8.512865e+001 9.821091e+001 1.210975e+002 1.165735e+002 8.187205e+001 8.068056e+001 5.209967e+001 5.859559e+001 5.078263e+001 4.841340e+001 4.152499e+001 3.804209e+000 4.112575e+000 7.527888e+000 1.026401e+001 8.673455e+000 7.383176e+000 6.540401e+000 4.919720e+000 5.687488e+000 4.718395e+000 4.496478e+000 2.649571e+000 3.704080e+000
<GCONST> 1.186756e+002
<STATE> 3
<MEAN> 25
 1.452882e+000 -9.023861e-001 9.672561e+000 1.273946e+001 3.007953e+000 -9.177383e+000 -9.455127e+000 -2.379692e+000 -3.495172e+000 -6.958411e+000 -4.951604e+000 -5.018651e+000 -9.625100e-002 2.113325e-001 2.965662e-002 -2.022729e-001 -1.178726e-001 2.995189e-001 1.637291e-001 1.570228e-001 1.768089e-001 5.618543e-002 -1.616540e-001 -1.352635e-002 -2.318796e-001
<VARIANCE> 25
 5.691993e+000 2.367696e+001 3.662755e+001 7.772618e+001 6.249728e+001 4.327587e+001 2.494131e+001 3.702661e+001 2.944160e+001 2.113429e+001 3.226797e+001 2.431592e+001 2.314889e-001 7.462874e-001 9.076985e-001 1.548084e+000 1.283008e+000 2.968860e+000 1.595603e+000 1.930160e+000 1.502800e+000 1.534600e+000 1.325416e+000 1.147153e+000 3.945434e-001
<GCONST> 8.800500e+001
<STATE> 4
<MEAN> 25
 -3.508316e-001 5.412796e+000 1.746284e+001 -4.898739e+000 -9.929893e+000 4.594435e-001 -8.678987e+000 -7.392856e+000 -7.291383e+000 -1.245043e+000 1.413485e+000 -3.108151e+000 -7.253795e-002 8.119606e-002 -8.100445e-001 2.974159e-001 5.420718e-001 1.352248e-001 5.028545e-001 1.704836e-001 3.351557e-001 1.382820e-001 1.457230e-002 3.848794e-001 -7.795373e-001
<VARIANCE> 25
 1.516742e+001 2.175895e+001 5.553963e+001 8.208863e+001 7.310698e+001 3.028094e+001 4.230281e+001 5.547836e+001 3.971529e+001 3.776078e+001 4.328672e+001 3.255360e+001 4.688691e-001 8.958349e-001 2.097315e+000 2.326324e+000 2.182331e+000 1.803777e+000 2.222612e+000 2.049716e+000 1.571213e+000 1.657803e+000 1.532973e+000 1.461829e+000 1.007164e+000
<GCONST> 9.557359e+001
<TRANSP> 5
 0.000000e+000 1.000000e+000 0.000000e+000 0.000000e+000 0.000000e+000
 0.000000e+000 8.055977e-001 1.944024e-001 0.000000e+000 0.000000e+000
 0.000000e+000 0.000000e+000 8.769996e-001 1.230005e-001 0.000000e+000
 0.000000e+000 0.000000e+000 0.000000e+000 8.539716e-001 1.460284e-001
 0.000000e+000 0.000000e+000 0.000000e+000 0.000000e+000 0.000000e+000
<ENDHMM>
~h "j"
<BEGINHMM>
<NUMSTATES> 5
<STATE> 2
<MEAN> 25
 -3.248600e+000 2.810777e+000 -3.514165e+000 7.815910e+000 -5.742552e-001 2.789670e+000 2.960579e+000 2.012474e+000 7.364196e-002 -1.865458e-001 8.772066e-001 2.175991e+000 -1.509917e-001 -1.101316e-001 -4.624964e-003 -6.564133e-003 3.648016e-002 1.018199e-001 -4.938277e-002 1.695953e-002 -6.735119e-002 2.781124e-002 1.342818e-001 1.143871e-001 -5.253344e-002
<VARIANCE> 25
 4.791758e+000 1.247730e+001 8.571989e+000 2.738465e+001 1.424207e+001 1.999401e+001 2.538900e+001 1.738612e+001 2.110215e+001 1.813650e+001 1.407393e+001 1.127371e+001 2.545407e-001 4.855428e-001 5.743538e-001 1.022726e+000 1.296466e+000 1.897154e+000 1.921165e+000 1.378245e+000 1.660025e+000 1.718857e+000 1.309582e+000 1.053096e+000 2.793627e-001
<GCONST> 7.759754e+001
<STATE> 3
<MEAN> 25
 -6.363133e+000 -8.293853e-001 6.209004e+000 -3.754426e+000 -4.059272e-001 -6.237943e+000 4.309093e+000 -7.819001e-001 2.240104e+000 -2.423231e+000 3.155089e+000 1.200715e+000 1.032578e-001 -3.179686e-001 4.327632e-001 -5.377458e-001 -1.177242e-001 -5.278535e-001 -2.786472e-001 7.023672e-003 4.153876e-002 -2.744957e-001 1.158038e-001 -8.041220e-002 1.355208e+000
<VARIANCE> 25
 8.068268e+001 6.285073e+001 5.781307e+001 7.182716e+001 4.368907e+001 6.842118e+001 8.079967e+001 2.439982e+001 3.356202e+001 4.440610e+001 2.152063e+001 3.134597e+001 8.798692e+000 4.361692e+000 4.004948e+000 5.922399e+000 5.979227e+000 5.337183e+000 7.236002e+000 2.557980e+000 3.252733e+000 3.102335e+000 2.273383e+000 2.972924e+000 9.680536e+000
<GCONST> 1.119075e+002
<STATE> 4
<MEAN> 25
 -4.730683e+000 8.379989e-001 -7.664860e-001 -9.185372e-001 1.009277e+000 2.755839e+000 1.309644e+000 4.259672e-001 2.558555e+000 3.843270e+000 9.116471e-001 -1.240672e-001 1.802127e-002 -5.500402e-002 1.651064e-002 1.236747e-001 -1.065688e-003 2.885440e-002 -5.306754e-002 -3.469802e-002 2.539185e-003 1.224658e-002 -3.273663e-002 -1.442934e-001 -5.765846e-003
<VARIANCE> 25
 1.009608e+001 9.823609e+000 1.739181e+001 1.816727e+001 9.037098e+000 2.570166e+001 1.749385e+001 1.646239e+001 2.357138e+001 1.884848e+001 8.798347e+000 9.415212e+000 1.184550e-001 4.111468e-001 5.361797e-001 6.393985e-001 5.712125e-001 1.024222e+000 1.053684e+000 9.103863e-001 9.081822e-001 9.679528e-001 8.988082e-001 9.084965e-001 6.801362e-002
<GCONST> 7.023389e+001
<TRANSP> 5
 0.000000e+000 1.000000e+000 0.000000e+000 0.000000e+000 0.000000e+000
 0.000000e+000 9.175187e-001 8.248133e-002 0.000000e+000 0.000000e+000
 0.000000e+000 0.000000e+000 9.121331e-001 8.786689e-002 0.000000e+000
 0.000000e+000 0.000000e+000 0.000000e+000 9.108523e-001 8.914769e-002
 0.000000e+000 0.000000e+000 0.000000e+000 0.000000e+000 0.000000e+000
<ENDHMM>
~h "k"
<BEGINHMM>
<NUMSTATES> 5
<STATE> 2
<MEAN> 25
 -3.485491e+000 2.617081e+000 -1.388351e+000 4.959090e+000 1.405745e+000 3.122784e+000 2.309075e+000 6.691877e-001 1.749112e+000 1.113528e+000 2.391547e-001 1.596550e+000 -1.668763e-001 -7.120553e-002 -1.806858e-001 2.234531e-004 1.699876e-001 2.924355e-001 2.362975e-001 4.221882e-002 3.155530e-002 1.969815e-001 1.964251e-001 1.247849e-001 -1.510292e-001
<VARIANCE> 25
 4.354588e+000 9.580400e+000 2.060153e+001 4.056832e+001 1.632504e+001 2.052435e+001 1.851266e+001 1.934693e+001 2.272732e+001 2.742484e+001 1.643065e+001 1.618535e+001 2.793001e-001 4.504589e-001 7.512598e-001 1.021201e+000 1.129877e+000 1.605921e+000 1.693280e+000 1.625491e+000 1.902120e+000 1.737792e+000 1.401181e+000 1.236668e+000 2.254019e-001
<GCONST> 7.964555e+001
<STATE> 3
<MEAN> 25
 -4.635164e+000 9.167186e-001 -3.253561e+000 1.559260e+000 1.419139e+000 2.033017e+000 3.564033e+000 -5.881207e-001 -1.450020e+000 1.670614e+000 6.926407e-001 1.948700e+000 -9.056878e-002 -2.310330e+000 -6.856307e-001 -1.660946e+000 -3.999149e-001 -1.721846e-001 7.175624e-001 -8.311461e-001 -1.412729e+000 -5.950831e-001 7.146255e-001 -6.415633e-002 2.918656e+000
<VARIANCE> 25
 1.315663e+001 3.751208e+001 2.906894e+001 8.583649e+001 4.377318e+001 5.325108e+001 4.710785e+001 3.389209e+001 4.521441e+001 3.243948e+001 2.247461e+001 1.857389e+001 1.967956e+000 5.697693e+000 5.056407e+000 8.339332e+000 1.241361e+001 7.408244e+000 9.668693e+000 7.268961e+000 6.926263e+000 8.597866e+000 4.510262e+000 3.689793e+000 6.253881e+000
<GCONST> 1.120898e+002
<STATE> 4
<MEAN> 25
 9.837583e-001 -8.060586e+000 -2.558778e+000 -1.071941e+001 3.127401e+000 2.866722e+000 3.364595e+000 -1.670387e-001 3.814468e-001 2.513013e+000 3.283480e+000 -2.624541e+000 1.157733e+000 -2.360888e-001 4.817521e-001 -6.179462e-001 -2.234807e-001 -5.414146e-001 -7.919040e-001 -1.522956e-001 3.126072e-001 2.626693e-002 -1.916089e-002 -2.914146e-001 1.481894e+000
<VARIANCE> 25
 4.442284e+001 5.466370e+001 5.956017e+001 1.040975e+002 1.730440e+002 6.997220e+001 7.655219e+001 5.686937e+001 8.461362e+001 7.380418e+001 3.781254e+001 4.477765e+001 4.321760e+000 5.322087e+000 4.781188e+000 1.178299e+001 6.670108e+000 4.962731e+000 5.612576e+000 3.880682e+000 5.550549e+000 3.850808e+000 3.644118e+000 3.927954e+000 8.927131e+000
<GCONST> 1.180884e+002
<TRANSP> 5
 0.000000e+000 1.000000e+000 0.000000e+000 0.000000e+000 0.000000e+000
 0.000000e+000 8.924401e-001 1.075599e-001 0.000000e+000 0.000000e+000
 0.000000e+000 0.000000e+000 5.673435e-001 4.326565e-001 0.000000e+000
 0.000000e+000 0.000000e+000 0.000000e+000 7.253070e-001 2.746930e-001
 0.000000e+000 0.000000e+000 0.000000e+000 0.000000e+000 0.000000e+000
<ENDHMM>
~h "l"
<BEGINHMM>
<NUMSTATES> 5
<STATE> 2
<MEAN> 25
 8.023384e+000 -2.795325e+000 1.656425e+000 -7.751792e-001 -1.877838e+000 -3.079076e+000 -5.573979e+000 2.997291e-001 5.852146e-001 -4.691525e+000 -5.628164e+000 -8.200710e-001 1.858137e-001 -1.085083e-001 -1.828910e-001 -3.637627e-002 -3.469248e-001 -4.751072e-001 -2.993576e-002 1.306017e-001 2.294630e-001 9.503389e-002 -7.789174e-002 3.820536e-001 -1.095982e-002
<VARIANCE> 25
 9.769944e+000 3.556696e+001 3.398891e+001 8.010076e+001 3.770388e+001 5.023298e+001 9.136782e+001 8.168845e+001 8.542262e+001 1.487314e+002 5.060048e+001 4.086726e+001 5.567949e-001 1.751539e+000 2.315934e+000 3.449802e+000 2.680260e+000 3.275392e+000 4.440124e+000 4.603193e+000 3.094602e+000 4.538681e+000 3.806783e+000 2.581452e+000 8.636972e-001
<GCONST> 1.052790e+002
<STATE> 3
<MEAN> 25
 7.510701e+000 -3.846959e+000 -3.810777e+000 -3.775596e+000 -7.962755e+000 -8.589811e+000 -2.208871e+000 1.973759e+000 -3.658192e+000 -5.472492e+000 -6.886721e-001 3.072881e+000 -1.020317e-002 6.127306e-002 1.169162e-001 6.030944e-003 -3.299718e-002 2.343037e-002 -3.975987e-002 4.688160e-002 8.213781e-002 1.055388e-001 -3.831227e-002 -1.483240e-001 -8.393946e-002
<VARIANCE> 25
 5.585210e+000 2.246714e+001 4.005519e+001 2.930898e+001 3.089508e+001 3.918460e+001 6.462631e+001 6.453794e+001 6.658876e+001 4.920803e+001 4.093750e+001 2.421610e+001 1.458478e-001 5.221195e-001 8.068629e-001 8.486452e-001 1.039639e+000 1.341899e+000 1.400474e+000 1.203314e+000 1.327469e+000 1.417265e+000 1.522445e+000 1.073499e+000 1.823491e-001
<GCONST> 8.559816e+001
<STATE> 4
<MEAN> 25
 9.736549e-001 4.943964e-001 1.499379e+000 -2.094569e+000 -1.661603e+000 -8.429367e-001 -2.393801e+000 9.251367e-001 2.094964e+000 4.071521e-001 -1.274445e+000 -1.274293e+000 -2.370977e-001 1.247141e-001 3.135559e-002 8.899710e-002 3.336591e-001 2.966100e-001 1.286874e-001 -7.713878e-002 4.931612e-002 7.353421e-002 -1.261224e-002 -3.726706e-002 -3.183593e-001
<VARIANCE> 25
 2.792626e+001 1.409199e+001 2.989264e+001 5.510017e+001 2.677915e+001 4.188244e+001 9.535117e+001 3.839392e+001 3.094414e+001 3.532019e+001 2.174840e+001 2.066392e+001 2.023382e-001 4.506026e-001 6.311846e-001 8.075095e-001 9.271794e-001 1.308839e+000 1.368031e+000 1.674052e+000 1.387591e+000 1.395939e+000 1.301601e+000 1.042290e+000 2.415530e-001
<GCONST> 8.516009e+001
<TRANSP> 5
 0.000000e+000 1.000000e+000 0.000000e+000 0.000000e+000 0.000000e+000
 0.000000e+000 7.925761e-001 2.074239e-001 0.000000e+000 0.000000e+000
 0.000000e+000 0.000000e+000 8.635243e-001 1.364756e-001 0.000000e+000
 0.000000e+000 0.000000e+000 0.000000e+000 8.283980e-001 1.716019e-001
 0.000000e+000 0.000000e+000 0.000000e+000 0.000000e+000 0.000000e+000
<ENDHMM>
~h "m"
<BEGINHMM>
<NUMSTATES> 5
<STATE> 2
<MEAN> 25
 7.750303e+000 -1.913222e+000 -3.552616e-001 -2.759410e+000 -1.272246e+000 -5.868596e-001 -7.396681e-002 -4.413236e+000 -1.944349e+000 1.321212e+000 -1.386624e-001 -3.452201e+000 -2.586686e-001 1.483595e+000 9.838811e-001 1.809330e+000 -3.534058e-002 7.112982e-001 1.570624e-001 -1.263994e+000 -8.663189e-001 3.846160e-001 -6.824654e-001 -2.331406e-001 -1.441010e+000
<VARIANCE> 25
 1.318076e+001 3.801963e+001 4.931224e+001 6.562096e+001 4.220652e+001 4.178374e+001 5.009867e+001 1.489812e+002 7.830309e+001 4.818343e+001 3.803276e+001 2.497322e+001 5.107080e-001 1.234617e+000 2.207907e+000 3.233939e+000 4.086717e+000 2.993981e+000 3.161787e+000 4.504425e+000 4.096577e+000 2.674174e+000 3.220224e+000 2.494293e+000 8.407279e-001
<GCONST> 1.026995e+002
<STATE> 3
<MEAN> 25
 2.778249e+000 3.394825e+000 1.458540e+000 2.301612e+000 1.825560e+000 3.158080e+000 4.992692e-001 -3.307393e+000 -1.788838e+000 -1.423046e+000 -3.105213e+000 -2.492133e+000 -2.858279e-001 2.202551e-001 1.719365e-001 3.178392e-001 2.626015e-001 2.947767e-001 2.098921e-001 6.186701e-002 1.246468e-001 4.985837e-002 2.340370e-002 -6.080683e-002 -3.758220e-001
<VARIANCE> 25
 1.936931e+001 1.126250e+001 1.786576e+001 2.020736e+001 2.772414e+001 2.357201e+001 3.382261e+001 6.461654e+001 5.970490e+001 3.903604e+001 2.991734e+001 2.351780e+001 1.826093e-001 3.685865e-001 5.438238e-001 7.803016e-001 9.103908e-001 1.023643e+000 1.075129e+000 1.416205e+000 1.227250e+000 1.200846e+000 1.115371e+000 1.120521e+000 1.634323e-001
<GCONST> 8.129673e+001
<STATE> 4
<MEAN> 25
 3.606678e+000 4.636253e+000 2.517822e+000 4.482153e+000 1.985686e+000 2.507025e+000 1.035910e+000 -5.501771e-001 1.469968e+000 1.344653e+000 -3.141235e+000 -5.786837e+000 -1.568295e-002 -3.608027e-001 -4.525386e-001 -4.207778e-001 -1.760062e-001 -4.721511e-001 -2.191107e-001 6.240767e-001 2.331610e-001 -1.838233e-001 1.090779e-001 2.041441e-002 3.431808e-001
<VARIANCE> 25
 2.139235e+001 2.481930e+001 3.422806e+001 6.621349e+001 9.467850e+001 4.595064e+001 9.141964e+001 1.369935e+002 1.005969e+002 4.673121e+001 3.213582e+001 5.009193e+001 1.238839e+000 1.927674e+000 2.703903e+000 4.808267e+000 4.753400e+000 2.702686e+000 4.559992e+000 5.617072e+000 3.638726e+000 3.176462e+000 2.821553e+000 3.220502e+000 2.302998e+000
<GCONST> 1.083205e+002
<TRANSP> 5
 0.000000e+000 1.000000e+000 0.000000e+000 0.000000e+000 0.000000e+000
 0.000000e+000 7.342197e-001 2.657803e-001 0.000000e+000 0.000000e+000
 0.000000e+000 0.000000e+000 8.614313e-001 1.385687e-001 0.000000e+000
 0.000000e+000 0.000000e+000 0.000000e+000 6.059501e-001 3.940499e-001
 0.000000e+000 0.000000e+000 0.000000e+000 0.000000e+000 0.000000e+000
<ENDHMM>
~h "n"
<BEGINHMM>
<NUMSTATES> 5
<STATE> 2
<MEAN> 25
 7.125157e+000 -1.841990e+000 -1.165673e+000 -1.437408e+000 -2.308552e+000 -1.376221e+000 -1.648408e+000 -1.683353e+000 7.999211e-001 -2.522551e+000 -2.011476e+000 -1.108764e-001 -2.532124e-001 1.394607e+000 7.649703e-001 1.390316e+000 2.318954e-001 5.313824e-001 2.536254e-001 -1.049299e+000 -7.490318e-002 3.859665e-001 -8.538898e-001 -7.128821e-001 -1.328068e+000
<VARIANCE> 25
 1.440631e+001 3.900091e+001 4.456123e+001 3.825858e+001 4.890650e+001 3.424047e+001 5.424078e+001 5.632681e+001 4.059508e+001 2.881985e+001 4.848843e+001 3.732022e+001 5.765033e-001 2.178973e+000 2.396392e+000 2.243708e+000 3.641246e+000 2.659824e+000 3.510666e+000 4.167525e+000 2.546459e+000 2.613794e+000 2.474010e+000 3.125644e+000 1.124531e+000
<GCONST> 1.006551e+002
<STATE> 3
<MEAN> 25
 4.365958e+000 4.228100e+000 6.315276e-001 5.216064e+000 3.687150e+000 4.019402e+000 2.445586e+000 -2.339453e+000 -1.182596e+000 -5.090495e-002 -3.969599e+000 -3.449524e+000 -5.267938e-001 3.753530e-001 2.818636e-001 2.674408e-001 3.675283e-001 4.125164e-001 2.407239e-001 6.018469e-002 -1.342226e-001 1.071412e-001 -1.012061e-001 7.297349e-002 -6.238096e-001
<VARIANCE> 25
 1.283023e+001 2.247477e+001 1.716382e+001 2.808449e+001 8.961961e+001 6.335343e+001 6.710827e+001 4.242250e+001 2.451023e+001 3.840547e+001 3.325319e+001 3.104652e+001 2.463617e-001 8.251652e-001 9.461720e-001 1.281672e+000 1.766048e+000 1.620343e+000 1.854128e+000 1.856888e+000 1.722524e+000 1.618334e+000 1.836424e+000 2.015433e+000 3.206919e-001
<GCONST> 9.025834e+001
<STATE> 4
<MEAN> 25
 -2.050082e+000 2.808371e+000 9.679135e-001 1.867870e+000 1.362703e+000 2.905493e+000 1.645605e+000 -9.621058e-001 8.895440e-001 1.261320e+000 -1.338863e+000 -1.271143e+000 -1.951198e-001 -3.656261e-002 -3.125333e-002 6.992716e-002 5.454472e-002 1.817204e-002 6.229812e-002 -1.031292e-002 5.208092e-002 1.469350e-001 1.165485e-001 8.384904e-002 -1.554244e-001
<VARIANCE> 25
 1.568893e+001 1.035549e+001 1.452599e+001 1.929398e+001 1.865209e+001 2.028735e+001 2.874567e+001 2.886346e+001 2.525403e+001 2.230574e+001 2.230645e+001 1.784785e+001 2.132174e-001 3.862800e-001 4.930996e-001 5.135906e-001 6.780269e-001 9.698396e-001 1.179190e+000 1.237151e+000 1.358305e+000 1.153084e+000 1.051312e+000 9.295419e-001 1.440802e-001
<GCONST> 7.622745e+001
<TRANSP> 5
 0.000000e+000 1.000000e+000 0.000000e+000 0.000000e+000 0.000000e+000
 0.000000e+000 6.979106e-001 3.020894e-001 0.000000e+000 0.000000e+000
 0.000000e+000 0.000000e+000 8.032595e-001 1.967406e-001 0.000000e+000
 0.000000e+000 0.000000e+000 0.000000e+000 8.730114e-001 1.269886e-001
 0.000000e+000 0.000000e+000 0.000000e+000 0.000000e+000 0.000000e+000
<ENDHMM>
~h "o"
<BEGINHMM>
<NUMSTATES> 5
<STATE> 2
<MEAN> 25
 1.524453e+000 -1.701100e-001 2.686447e+000 -3.720128e+000 -2.808729e+000 -1.806846e+000 -2.712425e+000 3.080368e-001 1.189013e+000 -1.542284e+000 7.324624e-001 -7.387912e-001 1.854473e+000 -4.314317e-002 4.654152e-001 -9.220314e-001 -1.440576e+000 -1.131564e+000 -1.553652e+000 -2.412956e-001 4.078915e-001 -7.872179e-001 -2.431154e-001 -1.562345e-001 2.053896e+000
<VARIANCE> 25
 3.615281e+001 3.733557e+001 3.379745e+001 8.104275e+001 7.739924e+001 6.126173e+001 6.028167e+001 5.105731e+001 8.357140e+001 3.404123e+001 3.193236e+001 2.573661e+001 3.208706e+000 4.717228e+000 3.550920e+000 8.329615e+000 6.005875e+000 8.642748e+000 4.935868e+000 5.645503e+000 1.049502e+001 3.533365e+000 3.131956e+000 2.240946e+000 4.334875e+000
<GCONST> 1.126403e+002
<STATE> 3
<MEAN> 25
 7.482986e+000 2.548367e+000 2.379196e+000 -4.515301e+000 -1.197708e+001 -9.835917e+000 -4.879161e+000 4.205914e+000 5.287377e+000 -4.170768e+000 -2.277207e+000 -5.002282e-001 -3.953414e-002 2.813517e-002 -4.695771e-001 -8.805264e-002 3.746521e-001 2.890541e-001 2.585787e-001 1.552871e-002 -1.686623e-001 2.549029e-001 1.773172e-001 1.692334e-001 -2.098141e-001
<VARIANCE> 25
 5.980824e+000 3.042975e+001 2.589408e+001 3.569211e+001 4.414850e+001 4.213641e+001 3.368096e+001 4.077105e+001 1.306332e+002 4.306559e+001 2.216344e+001 1.993334e+001 3.618950e-001 1.371616e+000 9.413642e-001 1.034261e+000 2.226748e+000 2.113846e+000 1.635512e+000 2.682782e+000 3.106550e+000 1.630762e+000 1.422273e+000 1.237882e+000 8.693639e-001
<GCONST> 9.180812e+001
<STATE> 4
<MEAN> 25
 7.507280e+000 9.589936e-001 -2.563123e+000 -1.011496e+001 -2.647599e-001 2.376919e+000 -1.024995e+001 -6.798454e+000 -2.986471e+000 1.682432e+000 4.659126e+000 -1.769049e+000 -2.427498e-001 2.433407e-003 -3.933509e-002 4.369150e-001 3.003551e-001 -7.378738e-003 2.671857e-001 -4.843030e-002 -4.027185e-002 2.472004e-001 9.299880e-002 -1.768481e-002 -3.621737e-001
<VARIANCE> 25
 1.090096e+001 2.771310e+001 3.375644e+001 1.159846e+002 5.115717e+001 6.387766e+001 6.354475e+001 4.944484e+001 4.804573e+001 4.957326e+001 3.872019e+001 2.403549e+001 3.839738e-001 9.092564e-001 1.084962e+000 2.343078e+000 1.682501e+000 1.932974e+000 2.174928e+000 1.904239e+000 1.969165e+000 1.640096e+000 1.908152e+000 1.249491e+000 6.297869e-001
<GCONST> 9.474626e+001
<TRANSP> 5
 0.000000e+000 1.000000e+000 0.000000e+000 0.000000e+000 0.000000e+000
 0.000000e+000 7.601111e-001 2.398890e-001 0.000000e+000 0.000000e+000
 0.000000e+000 0.000000e+000 8.359196e-001 1.640804e-001 0.000000e+000
 0.000000e+000 0.000000e+000 0.000000e+000 8.616565e-001 1.383435e-001
 0.000000e+000 0.000000e+000 0.000000e+000 0.000000e+000 0.000000e+000
<ENDHMM>
~h "p"
<BEGINHMM>
<NUMSTATES> 5
<STATE> 2
<MEAN> 25
 8.933758e-001 2.279693e+000 -2.248285e+000 -1.789482e+000 4.282322e-001 6.063567e-001 8.220071e-001 1.539447e+000 5.947902e-002 1.788111e+000 1.332305e+000 -7.085331e-002 -8.684181e-001 3.410466e-002 -1.002095e-001 2.619823e-001 -9.255707e-002 2.509154e-001 3.737128e-001 -4.384641e-003 9.947157e-003 3.563220e-001 3.105335e-001 1.410702e-001 -1.056586e+000
<VARIANCE> 25
 2.353481e+001 4.386145e+001 4.343279e+001 4.495470e+001 3.946728e+001 4.465005e+001 3.921844e+001 3.466867e+001 3.874200e+001 4.827840e+001 4.511889e+001 2.791403e+001 7.812551e-001 2.205316e+000 1.864465e+000 2.292270e+000 1.563527e+000 2.892513e+000 2.511252e+000 2.448718e+000 3.202136e+000 3.699376e+000 2.438559e+000 1.798946e+000 1.498373e+000
<GCONST> 9.950188e+001
<STATE> 3
<MEAN> 25
 -3.058497e+000 3.209082e+000 -2.067090e+000 -1.172961e+000 -2.215481e-002 6.203851e-001 1.722231e-002 -1.701800e+000 -1.463446e+000 3.103309e+000 1.174528e+000 1.350745e+000 -4.199991e-001 -1.170535e-001 -1.097297e-001 1.539307e-001 1.288272e-001 1.428903e-002 -4.086770e-002 -2.333505e-001 -1.113536e-001 6.656999e-002 -3.957272e-002 7.050335e-002 -3.531815e-001
<VARIANCE> 25
 1.927975e+001 7.946795e+000 1.235314e+001 2.950377e+001 2.244551e+001 3.377964e+001 3.631177e+001 2.972540e+001 2.985463e+001 2.240313e+001 1.830289e+001 1.562243e+001 3.166420e-001 4.402991e-001 6.134396e-001 8.372939e-001 1.038635e+000 2.077195e+000 1.685708e+000 1.667253e+000 1.731663e+000 1.427825e+000 1.312692e+000 1.496863e+000 1.836267e-001
<GCONST> 8.170517e+001
<STATE> 4
<MEAN> 25
 -3.846925e+000 6.123570e-001 5.587063e-002 2.164067e+000 1.330258e+000 3.395663e+000 3.727626e+000 1.545577e+000 3.883279e+000 3.043438e+000 1.453264e+000 3.151286e-001 -6.383379e-002 -1.714021e-002 7.621272e-003 1.247132e-002 3.795087e-002 4.759536e-002 1.675640e-003 1.184728e-002 3.044052e-002 1.385570e-002 2.175806e-002 2.531391e-002 -4.264204e-002
<VARIANCE> 25
 3.017220e+000 4.712605e+000 7.313010e+000 1.102810e+001 7.899050e+000 1.189756e+001 1.206214e+001 1.173205e+001 1.212170e+001 1.324990e+001 9.411287e+000 8.677551e+000 9.800690e-002 2.735108e-001 3.610157e-001 3.850459e-001 5.696710e-001 6.572766e-001 7.882258e-001 9.325201e-001 9.955711e-001 1.035813e+000 8.850663e-001 8.059726e-001 6.246921e-002
<GCONST> 6.200604e+001
<TRANSP> 5
 0.000000e+000 1.000000e+000 0.000000e+000 0.000000e+000 0.000000e+000
 0.000000e+000 6.879985e-001 3.120016e-001 0.000000e+000 0.000000e+000
 0.000000e+000 0.000000e+000 7.987474e-001 2.012526e-001 0.000000e+000
 0.000000e+000 0.000000e+000 0.000000e+000 9.277904e-001 7.220962e-002
 0.000000e+000 0.000000e+000 0.000000e+000 0.000000e+000 0.000000e+000
<ENDHMM>
~h "r"
<BEGINHMM>
<NUMSTATES> 5
<STATE> 2
<MEAN> 25
 6.212446e+000 -6.743628e+000 8.108567e-001 -5.332743e+000 -5.327760e+000 -1.116420e+000 -5.124715e+000 5.257003e-001 -4.272582e-001 3.063520e-002 -2.674928e-002 -1.820303e+000 -8.476395e-002 9.598131e-002 1.538041e-001 3.729844e-001 -3.395397e-002 1.429300e-001 1.541840e-001 -2.006628e-001 -1.054927e-001 -2.635886e-001 -1.480919e-001 1.416613e-001 -3.109658e-001
<VARIANCE> 25
 1.816230e+001 4.995993e+001 6.142462e+001 8.069176e+001 6.160134e+001 6.809940e+001 5.269405e+001 6.997165e+001 6.725883e+001 4.370594e+001 5.251058e+001 4.169312e+001 1.158273e+000 2.977277e+000 2.252650e+000 4.796369e+000 3.796977e+000 3.890796e+000 3.368111e+000 4.747258e+000 3.478058e+000 2.615059e+000 2.692325e+000 2.341357e+000 2.148840e+000
<GCONST> 1.073940e+002
<STATE> 3
<MEAN> 25
 3.584952e+000 6.230450e-001 -2.658931e+000 -2.018224e+000 -3.357219e-001 2.249236e+000 -3.817651e-001 -1.758591e+000 -1.385726e+000 -2.186036e+000 -1.216011e+000 1.536458e+000 -7.385371e-001 6.656290e-001 -1.168457e-001 6.929559e-001 4.663617e-001 1.749972e-001 5.534281e-001 2.011840e-001 2.075043e-001 3.527623e-001 -4.385525e-003 1.672073e-001 -1.351084e+000
<VARIANCE> 25
 2.131983e+001 2.113027e+001 3.543761e+001 4.279531e+001 4.819056e+001 5.856855e+001 4.447289e+001 3.427885e+001 4.506487e+001 3.452667e+001 3.763022e+001 3.733109e+001 5.172638e-001 1.193516e+000 1.743325e+000 1.623910e+000 2.099394e+000 2.380109e+000 2.828423e+000 2.114609e+000 2.814701e+000 2.390929e+000 2.389587e+000 1.865182e+000 9.236270e-001
<GCONST> 9.653100e+001
<STATE> 4
<MEAN> 25
 -2.937147e+000 1.686124e+000 -2.186949e+000 2.954258e+000 1.579753e+000 2.539912e+000 4.034491e+000 1.856881e+000 3.544823e+000 2.695566e+000 1.853832e+000 1.238697e+000 -1.553593e-001 3.623772e-002 3.451479e-002 6.930260e-002 4.375896e-002 4.977133e-002 8.784337e-002 4.095465e-002 7.458054e-002 7.698431e-002 3.075289e-002 -2.357784e-003 -1.520069e-001
<VARIANCE> 25
 9.621633e+000 7.347562e+000 1.448891e+001 3.224398e+001 1.649893e+001 1.675809e+001 1.859253e+001 1.708470e+001 2.274804e+001 2.073900e+001 1.517235e+001 1.129789e+001 1.786805e-001 3.206455e-001 4.966071e-001 6.355528e-001 8.292689e-001 9.274417e-001 1.204704e+000 1.176580e+000 1.273421e+000 1.301023e+000 1.113539e+000 9.501590e-001 1.331765e-001
<GCONST> 7.365444e+001
<TRANSP> 5
 0.000000e+000 1.000000e+000 0.000000e+000 0.000000e+000 0.000000e+000
 0.000000e+000 8.068059e-001 1.931941e-001 0.000000e+000 0.000000e+000
 0.000000e+000 0.000000e+000 8.137617e-001 1.862383e-001 0.000000e+000
 0.000000e+000 0.000000e+000 0.000000e+000 9.084363e-001 9.156366e-002
 0.000000e+000 0.000000e+000 0.000000e+000 0.000000e+000 0.000000e+000
<ENDHMM>
~h "s"
<BEGINHMM>
<NUMSTATES> 5
<STATE> 2
<MEAN> 25
 -3.508368e+000 2.077404e-001 1.011932e+000 -3.375629e-001 2.067786e+000 -6.104259e-001 3.743710e+000 -7.942156e-001 8.698857e-001 9.215694e-001 5.238474e-001 2.052305e-001 -2.213323e+000 4.664457e-001 1.345598e+000 1.767449e-001 -4.315778e-001 4.838997e-001 1.508589e+000 -4.373325e-001 2.343072e-001 4.242924e-001 8.127376e-001 -6.768664e-002 2.898954e-001
<VARIANCE> 25
 6.375241e+001 1.006612e+002 7.384454e+001 7.726869e+001 6.825676e+001 5.514127e+001 8.227116e+001 4.814537e+001 7.710949e+001 6.305260e+001 4.587179e+001 2.671971e+001 4.412537e+000 1.009309e+001 1.125598e+001 5.489211e+000 6.321305e+000 4.117743e+000 6.156172e+000 4.211182e+000 3.997599e+000 4.523770e+000 4.202480e+000 2.198087e+000 2.829238e+000
<GCONST> 1.160735e+002
<STATE> 3
<MEAN> 25
 -1.122484e+001 -1.214728e+001 2.028587e+001 -5.751029e+000 -1.020358e+001 3.653577e+000 6.788532e+000 -3.542886e+000 -6.507755e+000 2.507493e-001 6.088313e+000 -6.045046e-002 -4.508524e-001 -3.134719e-002 -1.948951e-001 -1.489160e-001 4.508980e-001 1.475098e-001 -8.476737e-002 4.198842e-002 4.037579e-001 7.749872e-003 2.521240e-002 1.758384e-002 6.594504e-002
<VARIANCE> 25
 6.937069e+001 1.350820e+002 1.631287e+002 4.802538e+001 8.757722e+001 9.850328e+001 3.975132e+001 4.001459e+001 5.999642e+001 6.179898e+001 2.935221e+001 3.209853e+001 5.976303e+000 3.936103e+000 7.415194e+000 2.749893e+000 2.502026e+000 3.213984e+000 2.882883e+000 2.485085e+000 2.568069e+000 2.503748e+000 2.181001e+000 1.633813e+000 1.603119e+000
<GCONST> 1.093898e+002
<STATE> 4
<MEAN> 25
 -1.446621e+001 2.602064e+000 3.472388e+000 -2.615603e+000 4.708946e+000 4.589758e-001 6.829308e+000 8.398576e-001 1.636983e+000 3.720223e+000 2.665567e+000 8.726321e-001 -5.560191e-003 -4.868730e-002 -4.800544e-002 1.952909e-002 8.763042e-002 6.518346e-002 -7.325637e-002 8.495332e-002 1.195864e-001 8.589895e-002 -5.884076e-002 3.495726e-002 -2.032423e-001
<VARIANCE> 25
 4.554601e+001 5.761177e+001 7.262323e+001 6.036904e+001 3.024845e+001 3.548560e+001 2.731796e+001 3.698394e+001 3.160313e+001 3.176230e+001 1.687086e+001 1.529564e+001 1.610457e+000 7.784117e-001 1.118128e+000 1.213065e+000 1.112313e+000 1.336750e+000 1.544072e+000 1.672953e+000 1.640639e+000 1.401899e+000 1.282456e+000 1.188449e+000 3.817669e-001
<GCONST> 9.073434e+001
<TRANSP> 5
 0.000000e+000 1.000000e+000 0.000000e+000 0.000000e+000 0.000000e+000
 0.000000e+000 7.072575e-001 2.927425e-001 0.000000e+000 0.000000e+000
 0.000000e+000 0.000000e+000 7.451504e-001 2.548496e-001 0.000000e+000
 0.000000e+000 0.000000e+000 0.000000e+000 8.868288e-001 1.131712e-001
 0.000000e+000 0.000000e+000 0.000000e+000 0.000000e+000 0.000000e+000
<ENDHMM>
~h "t"
<BEGINHMM>
<NUMSTATES> 5
<STATE> 2
<MEAN> 25
 -8.864948e-001 2.016774e+000 -1.464719e+000 -7.385572e-001 1.497360e+000 -1.888815e+000 1.299635e+000 -8.173443e-001 3.880508e+000 9.899940e-001 -1.298580e+000 3.765757e-001 -1.233426e-001 -1.108138e-001 1.446161e-001 -7.972519e-001 4.701091e-001 -1.396982e-001 -2.432971e-001 -5.534067e-001 2.919289e-001 3.380634e-001 3.932037e-001 -1.839256e-001 8.163298e-001
<VARIANCE> 25
 2.825342e+001 2.364094e+001 2.174130e+001 6.068178e+001 3.561526e+001 3.796770e+001 6.689990e+001 4.733938e+001 5.550539e+001 4.128500e+001 4.126184e+001 3.617526e+001 3.812173e+000 3.280709e+000 2.603677e+000 8.783573e+000 3.652760e+000 4.219944e+000 9.413738e+000 4.463325e+000 5.596342e+000 3.578378e+000 4.353078e+000 4.687309e+000 1.485117e+001
<GCONST> 1.107916e+002
<STATE> 3
<MEAN> 25
 7.590926e-001 1.150497e+000 -7.249533e-001 -2.955104e+000 8.327647e-002 -1.002598e+000 -1.348811e+000 3.287472e-001 1.271986e+000 1.780640e+000 -2.157600e+000 -2.576452e+000 -3.834193e-001 2.784119e-001 -5.807558e-001 2.642042e-001 -1.958131e-001 6.276001e-001 2.725877e-001 -1.330008e-001 -6.168497e-001 3.825841e-001 3.615661e-001 1.066067e-001 -1.247920e+000
<VARIANCE> 25
 1.897536e+001 2.540780e+001 2.596098e+001 5.714026e+001 3.078589e+001 3.847959e+001 5.773218e+001 5.404062e+001 3.726297e+001 4.257369e+001 4.530142e+001 3.024656e+001 2.472790e+000 2.081307e+000 1.666701e+000 4.193038e+000 2.355160e+000 3.580629e+000 5.994940e+000 4.219947e+000 6.861537e+000 4.243454e+000 3.382803e+000 2.402141e+000 3.585878e+000
<GCONST> 1.048308e+002
<STATE> 4
<MEAN> 25
 -3.505731e+000 2.759981e+000 -2.351527e+000 3.460430e+000 8.760937e-001 2.403639e+000 2.667873e+000 2.027548e-001 1.148884e+000 2.025149e+000 8.892499e-001 1.804682e+000 -1.901046e-001 -5.774977e-002 -1.507072e-002 8.449608e-002 2.507626e-002 5.653497e-002 1.112609e-001 -1.218456e-002 -9.763213e-002 6.193077e-002 1.279336e-001 1.207347e-001 -1.490622e-001
<VARIANCE> 25
 1.051235e+001 1.069727e+001 1.418068e+001 5.081198e+001 1.609136e+001 2.334225e+001 3.159568e+001 2.431344e+001 3.105621e+001 2.404164e+001 1.867858e+001 1.500387e+001 3.830123e-001 5.897461e-001 7.592779e-001 1.119842e+000 1.050074e+000 1.774689e+000 1.927428e+000 1.897002e+000 2.181092e+000 1.921783e+000 1.455050e+000 1.463720e+000 4.786527e-001
<GCONST> 8.379466e+001
<TRANSP> 5
 0.000000e+000 1.000000e+000 0.000000e+000 0.000000e+000 0.000000e+000
 0.000000e+000 4.094816e-001 5.905184e-001 0.000000e+000 0.000000e+000
 0.000000e+000 0.000000e+000 4.089390e-001 5.910611e-001 0.000000e+000
 0.000000e+000 0.000000e+000 0.000000e+000 8.793441e-001 1.206559e-001
 0.000000e+000 0.000000e+000 0.000000e+000 0.000000e+000 0.000000e+000
<ENDHMM>
~h "u"
<BEGINHMM>
<NUMSTATES> 5
<STATE> 2
<MEAN> 25
 2.021156e+000 1.459910e+000 3.858224e+000 -5.558288e-001 -1.774950e+000 -1.624087e-001 -3.182260e+000 -1.140204e+000 -1.786553e+000 -2.752700e+000 -4.617167e-001 -1.195674e+000 1.324116e+000 6.565702e-001 8.513265e-001 -6.204401e-001 -8.487425e-001 -4.153704e-001 -1.431126e+000 -3.420533e-001 -7.269768e-001 -1.192414e+000 -2.385153e-001 -3.706415e-001 1.381606e+000
<VARIANCE> 25
 3.499779e+001 5.830187e+001 4.026149e+001 7.194114e+001 5.117074e+001 5.707970e+001 7.267055e+001 5.375127e+001 6.471323e+001 8.125304e+001 4.875591e+001 3.209061e+001 2.570894e+000 7.189587e+000 4.166985e+000 7.810322e+000 3.858592e+000 8.448390e+000 6.770660e+000 5.743208e+000 7.172687e+000 6.385350e+000 4.433133e+000 3.652346e+000 4.005087e+000
<GCONST> 1.152527e+002
<STATE> 3
<MEAN> 25
 7.906110e+000 6.787506e+000 3.395098e+000 -7.420730e+000 -6.573271e+000 1.657630e+000 -9.755404e+000 -2.393605e-001 -6.453663e+000 -2.979012e+000 2.520310e+000 -2.549515e-001 8.524887e-002 4.145607e-001 -9.972034e-002 -1.853902e-001 -1.119065e-001 2.829842e-001 9.063295e-002 4.047810e-002 -1.970399e-001 -1.437656e-001 5.532650e-002 2.411461e-001 -3.322045e-001
<VARIANCE> 25
 8.329391e+000 2.947424e+001 5.156994e+001 9.443283e+001 3.530851e+001 8.658904e+001 4.448451e+001 6.707870e+001 1.463493e+002 9.343265e+001 5.747673e+001 3.166977e+001 3.298307e-001 1.065363e+000 1.135902e+000 1.891994e+000 2.245458e+000 2.741122e+000 2.237404e+000 2.259927e+000 2.375670e+000 2.649916e+000 1.971242e+000 1.495354e+000 4.119603e-001
<GCONST> 9.818848e+001
<STATE> 4
<MEAN> 25
 5.923171e+000 7.186118e+000 2.954911e+000 -5.039562e+000 -5.065062e+000 -1.104622e+000 -7.376367e+000 -4.937671e+000 -5.351867e+000 -6.015921e+000 -3.048854e-001 -9.159034e-001 -2.258638e-001 -1.993693e-001 -1.696229e-001 5.201089e-001 2.806115e-001 6.674964e-003 3.105573e-001 -1.199743e-001 1.681308e-001 2.674363e-001 -1.559159e-001 -1.197436e-001 -2.633275e-001
<VARIANCE> 25
 1.066656e+001 1.586500e+001 2.874357e+001 6.042683e+001 2.911699e+001 4.481774e+001 4.079507e+001 3.356239e+001 3.659072e+001 3.653804e+001 4.607275e+001 2.202655e+001 2.595108e-001 5.350488e-001 5.921289e-001 1.563267e+000 1.337354e+000 1.572497e+000 1.507776e+000 1.508466e+000 1.563587e+000 1.791931e+000 1.588430e+000 1.261515e+000 3.678639e-001
<GCONST> 8.729329e+001
<TRANSP> 5
 0.000000e+000 1.000000e+000 0.000000e+000 0.000000e+000 0.000000e+000
 0.000000e+000 7.451140e-001 2.548859e-001 0.000000e+000 0.000000e+000
 0.000000e+000 0.000000e+000 8.187672e-001 1.812328e-001 0.000000e+000
 0.000000e+000 0.000000e+000 0.000000e+000 8.507430e-001 1.492570e-001
 0.000000e+000 0.000000e+000 0.000000e+000 0.000000e+000 0.000000e+000
<ENDHMM>
~h "w"
<BEGINHMM>
<NUMSTATES> 5
<STATE> 2
<MEAN> 25
 7.169866e+000 2.590313e+000 -9.212394e-001 -5.646333e+000 -9.919442e+000 -7.066639e+000 -1.753343e+000 4.808707e+000 6.128167e+000 -5.441788e+000 -4.140986e+000 1.187280e+000 8.773089e-002 -4.703188e-002 -4.027287e-001 9.615649e-002 -9.276871e-002 -2.913765e-001 3.321740e-001 7.715631e-001 2.240496e-001 -5.824332e-002 1.352502e-002 1.441131e-001 -7.178126e-002
<VARIANCE> 25
 5.490428e+000 7.416231e+001 3.176126e+001 2.518523e+001 2.417525e+001 6.218344e+001 3.012041e+001 3.186852e+001 8.537051e+001 1.711704e+001 1.702150e+001 1.912435e+001 2.960840e-001 3.948227e+000 2.825042e+000 9.743776e-001 2.418199e+000 3.113974e+000 2.415341e+000 3.659169e+000 3.624607e+000 1.873242e+000 1.407570e+000 1.704551e+000 8.487570e-001
<GCONST> 9.388877e+001
<STATE> 3
<MEAN> 25
 3.133756e+000 -1.828929e-001 -3.671506e+000 -4.036294e+000 -4.666251e+000 1.492574e+000 7.384914e+000 9.051042e+000 3.574571e+000 -1.429005e+000 1.675720e+000 3.197220e+000 -8.128726e-001 2.861352e-001 -1.914818e-001 -2.793462e-003 6.137844e-001 4.445590e-001 -1.532574e-001 -7.133840e-001 -4.967833e-001 8.697651e-001 4.224936e-001 1.368877e-001 -8.419386e-001
<VARIANCE> 25
 3.107715e+001 4.541133e+001 4.967559e+001 2.139585e+001 3.880236e+001 7.231595e+001 3.075256e+001 3.563420e+001 4.770626e+001 4.177823e+001 5.330324e+001 2.126880e+001 4.809597e-001 1.336549e+000 1.226291e+000 1.166744e+000 1.405412e+000 4.039520e+000 2.539261e+000 2.971479e+000 3.305476e+000 1.925385e+000 2.487636e+000 1.446992e+000 4.480368e-001
<GCONST> 9.573972e+001
<STATE> 4
<MEAN> 25
 -6.391186e+000 1.185973e+000 -1.572782e+000 2.641114e+000 2.638499e+000 -7.196662e-001 4.022823e+000 -7.229788e-001 1.709563e-001 4.740429e+000 2.298625e+000 1.300669e+000 -9.361906e-002 -6.864543e-002 3.613922e-002 6.985244e-002 8.272801e-002 -1.937988e-002 -1.042046e-002 -3.356714e-002 -2.060411e-002 4.582906e-002 1.489119e-002 -8.632471e-003 -3.122995e-002
<VARIANCE> 25
 1.146334e+001 1.867293e+001 2.277115e+001 2.766269e+001 1.495028e+001 3.214171e+001 3.377993e+001 1.462748e+001 3.510295e+001 1.286186e+001 2.100533e+001 9.231961e+000 8.388596e-002 3.625979e-001 4.077185e-001 4.242506e-001 6.062483e-001 1.168034e+000 1.167851e+000 1.237836e+000 1.395702e+000 1.056600e+000 1.093389e+000 9.750424e-001 6.664417e-002
<GCONST> 7.403648e+001
<TRANSP> 5
 0.000000e+000 1.000000e+000 0.000000e+000 0.000000e+000 0.000000e+000
 0.000000e+000 8.677602e-001 1.322398e-001 0.000000e+000 0.000000e+000
 0.000000e+000 0.000000e+000 8.503753e-001 1.496247e-001 0.000000e+000
 0.000000e+000 0.000000e+000 0.000000e+000 9.377803e-001 6.221973e-002
 0.000000e+000 0.000000e+000 0.000000e+000 0.000000e+000 0.000000e+000
<ENDHMM>
~h "y"
<BEGINHMM>
<NUMSTATES> 5
<STATE> 2
<MEAN> 25
 5.218017e+000 -6.222990e+000 1.636611e-002 3.686519e+000 2.184874e+000 -8.284195e+000 -9.092909e+000 -4.706693e+000 -3.462770e+000 -1.115404e+000 4.160573e+000 4.563795e-001 -4.085213e-001 4.917000e-001 1.504711e+000 1.454324e+000 2.915674e-001 -6.369879e-001 -1.024009e+000 8.179066e-002 -1.963284e-002 -6.917450e-001 -4.664768e-001 -1.115643e+000 -3.683590e-001
<VARIANCE> 25
 6.252832e+000 2.107239e+001 3.257866e+001 7.363110e+001 4.047449e+001 2.901265e+001 4.904813e+001 4.752983e+001 2.434814e+001 3.766579e+001 3.975520e+001 3.176833e+001 2.125285e-001 5.639759e-001 7.062063e-001 1.436228e+000 2.265811e+000 1.775600e+000 2.722595e+000 1.768841e+000 2.075440e+000 2.846442e+000 3.408866e+000 1.916400e+000 2.575410e-001
<GCONST> 9.054886e+001
<STATE> 3
<MEAN> 25
 3.495125e+000 -3.898692e+000 5.864081e+000 8.967752e+000 2.636698e+000 -9.985640e+000 -1.124163e+001 -5.324001e+000 -4.281234e+000 -4.114039e+000 -1.163620e-002 -3.280303e+000 2.640283e-001 -2.086041e-001 -7.679363e-001 -9.160312e-001 -5.058407e-001 -4.490535e-002 2.178576e-001 -2.723661e-001 -3.158870e-001 7.406397e-001 8.674670e-001 7.524958e-001 2.739668e-001
<VARIANCE> 25
 5.899698e+000 3.281528e+001 3.827460e+001 7.288815e+001 5.062725e+001 3.239639e+001 4.091850e+001 5.264713e+001 1.866668e+001 3.116517e+001 5.397308e+001 2.658816e+001 4.570306e-001 8.988702e-001 3.106874e+000 2.674297e+000 2.125412e+000 2.856472e+000 4.503296e+000 2.514255e+000 1.582298e+000 3.043715e+000 3.062169e+000 2.036715e+000 6.202185e-001
<GCONST> 9.624191e+001
<STATE> 4
<MEAN> 25
 1.051127e+000 -1.078255e+000 1.534647e+001 -9.598191e+000 -1.130746e+001 -6.329650e+000 -5.176063e+000 -2.629749e-001 -7.156817e+000 1.159711e+000 1.906618e+000 7.700284e-001 3.169056e-002 -5.820145e-002 -8.990366e-002 -1.260817e-001 -2.923234e-001 7.468402e-002 1.771430e-001 1.632873e-001 2.607411e-002 6.118260e-002 -4.408131e-002 -3.807008e-002 2.734971e-002
<VARIANCE> 25
 1.008587e+001 4.130465e+001 5.917817e+001 2.559195e+001 4.235743e+001 2.886553e+001 4.356076e+001 7.735163e+001 2.724243e+001 2.543783e+001 4.544775e+001 1.988997e+001 5.000452e-001 3.002978e+000 3.314097e+000 1.349639e+000 4.390426e+000 2.044630e+000 3.510191e+000 5.183892e+000 2.453175e+000 2.500019e+000 3.241882e+000 1.591942e+000 1.060642e+000
<GCONST> 9.839507e+001
<TRANSP> 5
 0.000000e+000 1.000000e+000 0.000000e+000 0.000000e+000 0.000000e+000
 0.000000e+000 7.999835e-001 2.000165e-001 0.000000e+000 0.000000e+000
 0.000000e+000 0.000000e+000 8.475950e-001 1.524050e-001 0.000000e+000
 0.000000e+000 0.000000e+000 0.000000e+000 9.006034e-001 9.939660e-002
 0.000000e+000 0.000000e+000 0.000000e+000 0.000000e+000 0.000000e+000
<ENDHMM>
~h "z"
<BEGINHMM>
<NUMSTATES> 5
<STATE> 2
<MEAN> 25
 -5.769330e+000 -1.499118e+000 1.963145e+000 5.524507e+000 -7.617070e-001 -9.386133e-001 8.656396e+000 1.314917e+000 -1.587571e+000 4.698970e+000 -7.068384e-001 1.337499e+000 -5.217610e-002 1.608885e-001 1.034842e-001 2.988336e-001 1.534024e-002 -6.859614e-002 6.600466e-002 -2.118034e-002 -1.043592e-001 -1.268016e-001 7.924253e-002 -1.335470e-001 -1.551445e-001
<VARIANCE> 25
 3.414326e+000 8.977077e+000 3.306780e+001 3.064045e+001 1.132547e+001 1.298039e+001 4.004096e+001 1.938776e+001 2.795251e+001 3.890051e+001 2.811525e+001 1.490065e+001 1.542877e-001 3.822229e-001 8.523465e-001 8.828232e-001 1.110874e+000 1.194483e+000 1.633213e+000 2.238910e+000 2.327821e+000 2.979378e+000 2.296046e+000 1.102564e+000 8.788087e-002
<GCONST> 7.986275e+001
<STATE> 3
<MEAN> 25
 -3.921061e+000 5.177134e+000 3.766273e+000 5.044456e+000 5.558690e+000 2.861823e+000 -7.082762e-001 -5.574593e+000 -1.950170e+000 1.931132e-001 -2.014941e+000 -7.136886e-001 1.633584e-001 1.148946e-001 4.685859e-001 -1.947528e-001 5.106446e-001 -6.242611e-001 -3.425546e-001 -1.417626e-001 -1.147037e+000 6.990334e-001 -2.142260e-002 5.081645e-002 1.828446e-001
<VARIANCE> 25
 2.890334e+000 4.957586e+000 3.355408e+001 2.619501e+001 1.657463e+001 2.752480e+001 2.059197e+001 3.330310e+001 2.691745e+001 2.640433e+001 8.160275e+000 2.327318e+001 4.073211e-001 5.890941e-001 5.692807e-001 1.248611e+000 6.086225e-001 7.564318e-001 1.968701e+000 4.539259e+000 1.563480e+000 1.152745e+000 1.006333e+000 1.975399e+000 7.776168e-002
<GCONST> 7.822215e+001
<STATE> 4
<MEAN> 25
 6.051781e+000 4.554854e+000 3.265076e+000 -5.795889e+000 -6.234637e+000 -1.017121e+000 -5.057748e+000 -2.856992e+000 -1.103038e+001 -3.997061e+000 4.349647e+000 -3.797492e+000 3.065653e-002 -8.737558e-002 -5.905952e-003 1.105664e-001 -3.758902e-002 -1.776170e-001 4.655827e-002 -4.413837e-002 2.132644e-003 -3.173015e-001 9.325965e-002 3.062212e-002 1.484497e-001
<VARIANCE> 25
 1.961043e+001 3.270920e+001 7.947888e+000 6.060900e+001 4.575211e+001 1.658952e+001 8.651318e+001 2.527449e+001 1.047284e+002 4.880568e+001 1.733364e+001 3.075834e+001 6.592019e-001 8.722587e-001 5.841403e-001 1.815312e+000 1.024698e+000 1.958516e+000 4.390543e+000 1.181876e+000 2.643213e+000 1.795351e+000 1.468029e+000 1.185818e+000 1.455741e+000
<GCONST> 9.206358e+001
<TRANSP> 5
 0.000000e+000 1.000000e+000 0.000000e+000 0.000000e+000 0.000000e+000
 0.000000e+000 9.677080e-001 3.229197e-002 0.000000e+000 0.000000e+000
 0.000000e+000 0.000000e+000 8.577956e-001 1.422044e-001 0.000000e+000
 0.000000e+000 0.000000e+000 0.000000e+000 9.588943e-001 4.110574e-002
 0.000000e+000 0.000000e+000 0.000000e+000 0.000000e+000 0.000000e+000
<ENDHMM>
~h "ai"
<BEGINHMM>
<NUMSTATES> 5
<STATE> 2
<MEAN> 25
 7.058021e+000 -4.963024e+000 4.009229e-001 -4.861837e+000 -2.141292e+000 9.758947e-001 -3.080154e+000 -6.053857e-001 2.328320e+000 -1.868067e+000 -2.546674e+000 5.579018e-001 7.323879e-002 -1.567539e+000 -1.063500e+000 -1.277903e+000 8.703151e-001 -5.957368e-001 4.998353e-001 1.321119e+000 5.433618e-001 -4.042461e-001 7.871349e-001 1.532052e-001 1.395375e+000
<VARIANCE> 25
 1.699479e+001 5.867380e+001 4.483819e+001 7.418623e+001 7.730283e+001 5.432477e+001 8.522329e+001 8.134325e+001 1.210075e+002 7.817661e+001 4.455387e+001 3.233931e+001 1.517943e+000 2.840104e+000 4.149618e+000 5.239575e+000 7.153905e+000 4.309044e+000 4.926958e+000 7.557141e+000 3.944493e+000 4.903734e+000 4.229176e+000 3.239648e+000 1.279614e+000
<GCONST> 1.119883e+002
<STATE> 3
<MEAN> 25
 5.830369e+000 -1.032133e+001 -2.320323e-001 -2.849097e+000 3.187257e+000 -5.803077e+000 -1.014995e+000 3.102813e+000 -4.874677e-001 -3.321661e+000 1.564292e+000 -1.547502e+000 -2.768544e-001 2.176062e-001 8.750228e-001 7.238046e-001 -1.785119e-001 -3.904436e-001 -2.680829e-001 3.065226e-002 -3.820718e-001 2.341484e-001 1.422533e-001 -3.123858e-001 -3.405775e-001
<VARIANCE> 25
 8.293985e+000 1.907739e+001 8.998617e+001 1.621914e+002 7.243023e+001 3.703397e+001 5.101564e+001 3.742965e+001 4.441242e+001 2.781724e+001 6.334313e+001 3.079572e+001 3.252161e-001 7.350012e-001 1.433969e+000 1.389163e+000 2.686925e+000 1.770895e+000 2.274870e+000 1.690633e+000 2.518123e+000 1.911525e+000 1.959602e+000 1.374086e+000 2.440249e-001
<GCONST> 9.405994e+001
<STATE> 4
<MEAN> 25
 -5.916111e-001 1.245485e-001 8.763659e+000 2.879468e+000 -2.274075e+000 -2.541686e+000 -1.934355e+000 5.347365e-001 -4.053042e+000 1.213081e+000 1.416747e+000 -2.110031e+000 -4.052902e-001 7.798921e-001 -7.049565e-001 2.787243e-001 7.594811e-002 7.971053e-001 2.884407e-001 -4.432119e-001 3.556813e-001 2.438102e-001 -2.951090e-001 2.529269e-001 -1.321395e+000
<VARIANCE> 25
 1.070493e+001 2.042111e+001 7.459907e+001 1.256717e+002 1.305668e+002 4.073244e+001 5.670017e+001 3.560905e+001 4.508536e+001 4.247038e+001 3.607909e+001 2.064725e+001 2.618707e-001 1.081054e+000 2.588813e+000 3.426020e+000 2.091153e+000 1.829976e+000 2.225969e+000 2.102142e+000 2.120576e+000 2.384187e+000 1.895764e+000 1.729427e+000 9.133311e-001
<GCONST> 9.736304e+001
<TRANSP> 5
 0.000000e+000 1.000000e+000 0.000000e+000 0.000000e+000 0.000000e+000
 0.000000e+000 8.133582e-001 1.866418e-001 0.000000e+000 0.000000e+000
 0.000000e+000 0.000000e+000 9.242439e-001 7.575612e-002 0.000000e+000
 0.000000e+000 0.000000e+000 0.000000e+000 8.972381e-001 1.027619e-001
 0.000000e+000 0.000000e+000 0.000000e+000 0.000000e+000 0.000000e+000
<ENDHMM>
~h "au"
<BEGINHMM>
<NUMSTATES> 5
<STATE> 2
<MEAN> 25
 6.517508e+000 -3.448255e+000 -8.438563e+000 -5.494341e+000 -6.198821e+000 -4.990938e+000 3.823809e+000 7.902354e+000 -1.836723e+000 -8.274005e+000 -1.286872e+000 4.254894e+000 1.579015e-001 -3.265274e-001 -3.729368e-001 -2.246876e-002 -3.621338e-001 -4.294415e-001 4.262819e-001 9.961395e-001 1.727708e-001 -4.696897e-001 -9.227545e-002 1.111365e-001 1.357033e-001
<VARIANCE> 25
 3.471587e+000 1.141552e+001 1.579385e+001 1.469501e+001 2.169012e+001 3.030996e+001 2.426375e+001 3.252034e+001 1.431555e+001 2.614596e+001 1.470554e+001 4.002398e+000 1.080909e-001 8.947572e-001 1.035387e+000 5.250438e-001 5.232508e-001 6.562719e-001 1.654166e+000 1.465091e+000 7.498662e-001 9.063107e-001 1.407813e+000 6.775137e-001 1.581728e-001
<GCONST> 7.282625e+001
<STATE> 3
<MEAN> 25
 4.910579e+000 4.717128e-001 -2.605880e+000 -5.559446e+000 -1.111939e+001 -9.518310e+000 2.511634e+000 1.046883e+001 1.581276e+000 -6.305019e+000 -2.454176e+000 1.935350e-001 -4.272229e-001 1.006245e+000 1.062536e+000 -1.847375e-002 1.038116e-001 4.145881e-001 -8.996496e-001 -1.382787e+000 7.532515e-002 8.715979e-001 8.005057e-002 -5.485799e-001 -5.265167e-001
<VARIANCE> 25
 7.402275e+000 1.683969e+001 2.401049e+001 1.489749e+001 1.345578e+001 2.666056e+001 3.137171e+001 4.976863e+001 1.232333e+001 2.907277e+001 1.391989e+001 1.372131e+001 1.672225e-001 2.628359e-001 4.006957e-001 7.349708e-001 1.796505e+000 1.684055e+000 1.085653e+000 2.007676e+000 1.098219e+000 1.479578e+000 1.813370e+000 1.142574e+000 4.214564e-002
<GCONST> 7.660796e+001
<STATE> 4
<MEAN> 25
 8.826686e+000 9.355656e+000 -8.390037e-001 -5.940326e+000 -6.547266e+000 -3.290385e+000 -4.891235e+000 7.817105e+000 2.031650e+000 -6.941761e+000 1.547935e+000 6.460741e+000 -5.720708e-001 6.939671e-001 6.375667e-002 8.951740e-001 3.946249e-001 -2.172887e-002 6.294253e-001 -2.944907e-001 -6.543789e-003 6.250682e-001 7.817151e-002 -1.942320e-001 -1.232687e+000
<VARIANCE> 25
 3.769091e+001 3.654266e+001 9.706415e+001 5.021467e+001 1.615944e+001 4.282100e+001 4.622782e+001 4.172258e+001 9.081406e+001 8.337317e+001 4.243086e+001 3.420474e+001 7.994349e-001 1.572989e+000 1.069797e+000 1.549708e+000 1.320352e+000 2.228087e+000 2.160337e+000 1.882046e+000 2.364670e+000 4.771566e+000 9.257655e-001 8.570092e-001 3.739692e-001
<GCONST> 9.640766e+001
<TRANSP> 5
 0.000000e+000 1.000000e+000 0.000000e+000 0.000000e+000 0.000000e+000
 0.000000e+000 8.953028e-001 1.046972e-001 0.000000e+000 0.000000e+000
 0.000000e+000 0.000000e+000 8.560412e-001 1.439587e-001 0.000000e+000
 0.000000e+000 0.000000e+000 0.000000e+000 8.370361e-001 1.629640e-001
 0.000000e+000 0.000000e+000 0.000000e+000 0.000000e+000 0.000000e+000
<ENDHMM>
~h "ng"
<BEGINHMM>
<NUMSTATES> 5
<STATE> 2
<MEAN> 25
 6.727170e+000 -4.108389e+000 -2.748641e+000 1.184177e+000 -1.529576e+000 -1.380301e+000 1.644434e-001 -8.251432e-001 3.289631e-001 -1.743326e+000 1.689018e+000 -7.043761e-001 -3.158105e-001 1.036029e+000 4.667363e-001 5.377954e-001 5.290999e-001 8.418588e-001 -4.988523e-002 3.801911e-001 4.787998e-001 3.349324e-001 -4.837776e-001 -6.392329e-001 -9.984104e-001
<VARIANCE> 25
 9.973571e+000 3.768038e+001 1.902010e+001 4.322935e+001 2.550096e+001 5.374801e+001 6.038496e+001 6.345295e+001 4.821550e+001 6.671073e+001 4.124545e+001 1.899519e+001 2.779581e-001 1.195385e+000 1.356577e+000 1.242276e+000 2.200197e+000 1.878380e+000 1.886771e+000 1.824047e+000 2.174459e+000 2.040215e+000 2.156518e+000 1.451225e+000 5.058219e-001
<GCONST> 9.282600e+001
<STATE> 3
<MEAN> 25
 3.506877e+000 4.984060e+000 5.873566e-001 4.968418e+000 5.717330e+000 3.953666e+000 3.947379e+000 3.715165e+000 2.223346e+000 7.457910e-001 -1.364805e+000 -3.143213e+000 -6.565785e-001 8.133025e-001 5.115159e-001 4.056156e-001 4.675892e-001 3.675265e-001 2.263005e-001 -1.192935e-001 -7.940704e-002 4.722549e-001 -8.361405e-003 1.672530e-001 -8.711787e-001
<VARIANCE> 25
 1.343172e+001 3.028703e+001 2.088744e+001 4.915959e+001 4.734398e+001 2.594990e+001 4.470258e+001 3.583575e+001 2.161386e+001 4.123585e+001 3.135044e+001 3.183213e+001 2.732953e-001 7.735181e-001 1.175145e+000 1.142039e+000 1.557594e+000 1.854935e+000 2.195094e+000 1.690948e+000 1.496799e+000 1.791926e+000 1.579225e+000 1.932067e+000 1.477989e-001
<GCONST> 8.838336e+001
<STATE> 4
<MEAN> 25
 -2.435819e+000 3.338625e+000 -2.946737e-002 4.005250e+000 2.698699e+000 3.313869e+000 4.181090e+000 1.624649e+000 2.053457e+000 2.116782e+000 4.977554e-001 6.199174e-002 -2.157129e-001 -1.457570e-001 -1.462408e-001 -9.561568e-002 -1.036786e-001 -1.024058e-001 3.428609e-002 -3.162688e-002 7.831439e-003 1.609653e-001 1.252999e-001 1.201161e-001 -1.552601e-001
<VARIANCE> 25
 1.089335e+001 1.478527e+001 1.398506e+001 2.718057e+001 1.984097e+001 1.472983e+001 1.960618e+001 1.967528e+001 2.226415e+001 2.519731e+001 1.596382e+001 1.424180e+001 1.581408e-001 3.130366e-001 4.640447e-001 6.054958e-001 7.735114e-001 9.002493e-001 1.276001e+000 1.174023e+000 1.250589e+000 1.298636e+000 1.129333e+000 8.730574e-001 8.990124e-002
<GCONST> 7.418710e+001
<TRANSP> 5
 0.000000e+000 1.000000e+000 0.000000e+000 0.000000e+000 0.000000e+000
 0.000000e+000 7.504336e-001 2.495664e-001 0.000000e+000 0.000000e+000
 0.000000e+000 0.000000e+000 8.073367e-001 1.926633e-001 0.000000e+000
 0.000000e+000 0.000000e+000 0.000000e+000 9.215788e-001 7.842126e-002
 0.000000e+000 0.000000e+000 0.000000e+000 0.000000e+000 0.000000e+000
<ENDHMM>
~h "ny"
<BEGINHMM>
<NUMSTATES> 5
<STATE> 2
<MEAN> 25
 -3.983209e+000 -2.537775e-001 -7.810774e-002 3.974710e+000 3.773070e-001 -3.916522e-001 2.233059e+000 -2.094138e+000 1.430772e+000 2.319884e+000 3.260281e+000 -1.937607e+000 -4.095683e-002 2.293906e-001 2.297097e-001 3.629216e-001 -7.408055e-001 3.081071e-001 1.096461e+000 -8.781908e-001 -9.561398e-002 1.171446e+000 2.749664e-001 -1.236396e-001 -1.450445e-001
<VARIANCE> 25
 5.030586e+001 2.483787e+001 2.180785e+001 1.302536e+001 4.302404e+001 3.144189e+001 4.969197e+001 1.392766e+001 1.985027e+001 3.423576e+001 1.302877e+001 1.431949e+001 1.654783e+000 1.736917e+000 1.164867e+000 1.180546e+000 1.553784e+000 2.032504e+000 4.140396e+000 8.574648e-001 1.614585e+000 2.642872e+000 1.720952e+000 2.396330e+000 1.125875e+000
<GCONST> 9.100414e+001
<STATE> 3
<MEAN> 25
 6.322426e-001 2.645557e+000 -1.415693e+000 4.131861e+000 4.463755e-001 -3.715789e+000 2.999245e+000 -5.997941e+000 -2.727459e+000 6.872619e-001 7.075710e-001 8.706049e-001 2.094730e-001 3.073438e-001 -1.202743e-001 9.058551e-002 -5.255278e-001 -1.033048e-001 8.741013e-001 -2.892217e-002 -1.032740e-001 -4.308303e-001 -5.060281e-001 5.890360e-002 -2.373309e-001
<VARIANCE> 25
 4.372992e+001 1.987024e+001 1.601693e+001 3.200772e+001 3.432537e+001 1.938525e+001 4.381771e+001 1.568042e+001 3.281911e+001 1.992735e+001 1.764695e+001 1.115849e+001 1.304961e-001 1.912491e-001 7.424814e-001 1.253696e+000 5.968043e-001 1.631433e+000 1.725834e+000 1.258646e+000 8.446452e-001 1.675367e+000 1.068490e+000 9.733883e-001 8.251615e-002
<GCONST> 7.863102e+001
<STATE> 4
<MEAN> 25
 -3.872404e+000 2.829369e+000 -1.956588e+000 5.379576e+000 2.551332e+000 1.385366e+000 5.478673e+000 1.802696e+000 4.220264e+000 1.711427e+000 1.930550e+000 1.866073e+000 1.823606e-002 -4.102405e-002 1.050117e-002 1.237592e-001 1.038530e-001 2.327821e-001 1.366962e-002 1.823778e-001 -1.140114e-001 -5.517225e-002 3.458058e-003 -1.092622e-001 -5.803068e-002
<VARIANCE> 25
 5.687957e+000 5.450359e+000 3.993330e+000 1.259041e+001 1.351621e+001 1.311469e+001 1.789364e+001 1.442304e+001 1.233151e+001 1.144102e+001 1.022242e+001 1.267801e+001 1.125999e-001 1.528595e-001 2.764160e-001 4.404827e-001 4.352550e-001 5.491849e-001 1.114273e+000 1.095179e+000 1.004190e+000 8.161748e-001 7.607532e-001 1.119804e+000 4.126269e-002
<GCONST> 6.289629e+001
<TRANSP> 5
 0.000000e+000 1.000000e+000 0.000000e+000 0.000000e+000 0.000000e+000
 0.000000e+000 4.289099e-001 5.710902e-001 0.000000e+000 0.000000e+000
 0.000000e+000 0.000000e+000 7.544254e-001 2.455746e-001 0.000000e+000
 0.000000e+000 0.000000e+000 0.000000e+000 9.247949e-001 7.520512e-002
 0.000000e+000 0.000000e+000 0.000000e+000 0.000000e+000 0.000000e+000
<ENDHMM>
~h "oi"
<BEGINHMM>
<NUMSTATES> 5
<STATE> 2
<MEAN> 25
 -5.642297e-001 6.195011e-001 6.919678e+000 -5.888864e+000 -6.373656e+000 5.482747e+000 3.808739e-001 -7.528730e+000 -1.501393e+000 8.519357e+000 1.037239e+000 -1.547148e+000 -5.594077e-001 1.856719e-001 -5.216488e-001 6.587293e-001 6.558433e-001 2.162831e-001 1.176701e+000 5.311798e-001 2.473099e-001 -9.569956e-002 -7.644746e-002 1.642976e-002 -7.366148e-001
<VARIANCE> 25
 1.765095e+001 5.360844e+000 3.742212e+001 3.788910e+001 2.879401e+001 1.310922e+001 4.150419e+001 2.306805e+001 3.950201e+001 2.120353e+001 1.502721e+001 7.036397e+000 4.678591e-001 6.190887e-001 1.674219e+000 9.014612e-001 2.263163e+000 1.441987e+000 1.039191e+000 1.856529e+000 2.772820e+000 1.737605e+000 1.807391e+000 8.436754e-001 1.408313e-001
<GCONST> 8.298949e+001
<STATE> 3
<MEAN> 25
 -1.059077e+001 4.909296e+000 -6.244195e+000 -1.788398e+000 3.454217e+000 -4.307234e+000 -4.940183e+000 -6.749542e+000 -7.962654e+000 4.573776e+000 -3.944788e+000 -2.204894e-001 -6.010387e-002 4.561143e-002 3.258361e-002 -3.754778e-002 -3.148760e-002 -1.123091e-001 -1.333719e-002 -7.229988e-002 -1.141284e-001 -8.514921e-003 -3.930983e-002 6.400021e-002 -3.988061e-002
<VARIANCE> 25
 2.916537e+000 1.996855e+000 3.156463e+000 6.085013e+000 6.205088e+000 6.513631e+000 1.490900e+001 1.071664e+001 6.362121e+000 6.954509e+000 7.452232e+000 6.203043e+000 1.011512e-001 1.814412e-001 2.853611e-001 4.698616e-001 6.342614e-001 6.832753e-001 7.835444e-001 1.360566e+000 5.026634e-001 4.498940e-001 6.374078e-001 5.925463e-001 2.134210e-002
<GCONST> 5.397373e+001
<STATE> 4
<MEAN> 25
 -2.572649e+000 4.039785e+000 -8.003833e+000 9.783207e+000 3.283674e-001 1.436236e+000 4.500696e+000 1.115220e+000 7.530285e-001 -3.008326e+000 -1.295027e+000 4.807872e+000 9.541163e-003 9.225784e-003 -2.283513e-002 4.924956e-002 8.818860e-003 2.234593e-003 5.425273e-002 4.714909e-002 -2.708001e-002 1.431424e-002 -4.268069e-002 1.547286e-002 -1.625500e-002
<VARIANCE> 25
 2.398759e+000 3.505512e+000 6.655040e+000 1.394751e+001 1.257780e+001 1.769267e+001 1.886859e+001 2.101080e+001 1.447035e+001 2.204701e+001 1.354713e+001 1.351551e+001 1.926486e-001 3.820646e-001 5.987769e-001 1.125783e+000 1.489132e+000 1.905173e+000 2.576309e+000 2.695473e+000 1.226146e+000 2.125307e+000 1.380611e+000 1.853126e+000 6.213356e-002
<GCONST> 7.406578e+001
<TRANSP> 5
 0.000000e+000 1.000000e+000 0.000000e+000 0.000000e+000 0.000000e+000
 0.000000e+000 8.569883e-001 1.430117e-001 0.000000e+000 0.000000e+000
 0.000000e+000 0.000000e+000 9.409948e-001 5.900521e-002 0.000000e+000
 0.000000e+000 0.000000e+000 0.000000e+000 9.767455e-001 2.325446e-002
 0.000000e+000 0.000000e+000 0.000000e+000 0.000000e+000 0.000000e+000
<ENDHMM>
~h "sp"
<BEGINHMM>
<NUMSTATES> 3
<STATE> 2
~s "silst"
<TRANSP> 3
 0.000000e+000 2.410167e-001 7.589833e-001
 0.000000e+000 8.561469e-001 1.438532e-001
 0.000000e+000 0.000000e+000 0.000000e+000
<ENDHMM>
~h "sy"
<BEGINHMM>
<NUMSTATES> 5
<STATE> 2
<MEAN> 25
 -7.945731e-002 -1.110194e+001 1.108896e+001 3.744056e+000 -3.932883e-002 1.123996e+000 6.719429e+000 7.588660e+000 -3.431075e-001 -3.579937e+000 6.420452e+000 -1.010088e-001 -1.609251e+000 -1.674014e+000 1.672656e+000 1.611313e-001 3.591596e-001 4.115658e-001 -4.155434e-001 -2.593719e-001 2.042551e-001 2.828411e-002 1.210732e-001 9.189889e-001 2.292945e-001
<VARIANCE> 25
 5.834150e+001 6.802233e+001 2.361600e+002 2.420258e+001 2.053381e+001 1.606730e+001 4.314410e+001 3.895670e+001 2.994069e+001 1.211613e+001 5.456363e+001 1.748004e+001 3.132912e+000 3.076473e+000 1.150198e+001 1.187677e+000 2.053407e+000 2.634600e+000 1.859788e+000 1.513507e+000 1.558139e+000 1.565503e+000 4.357012e+000 2.022398e+000 3.478329e-001
<GCONST> 9.847921e+001
<STATE> 3
<MEAN> 25
 -7.016913e+000 -5.483694e+000 1.068678e+001 -2.026160e+000 2.039250e+000 -1.251818e+000 1.338858e+000 -5.171971e-001 3.240651e+000 -4.573874e+000 5.826583e+000 3.465339e+000 1.010638e+000 -8.894236e-003 -1.102268e+000 1.355814e-001 -5.050114e-001 -4.202721e-001 6.604829e-002 -1.215064e-001 -1.104716e-001 1.195558e-001 3.433515e-001 -9.353700e-002 2.818292e-001
<VARIANCE> 25
 9.363956e+001 4.583215e+001 6.117804e+001 1.978159e+001 7.515665e+001 5.432365e+001 1.905818e+001 2.243067e+001 4.874870e+001 1.031880e+001 7.035785e+000 7.757618e+000 6.126142e+000 3.210658e+000 4.545846e+000 1.264230e+000 4.884569e+000 3.609369e+000 2.323427e+000 3.141639e+000 2.004555e+000 1.205300e+000 1.103829e+000 1.678689e+000 3.252492e-001
<GCONST> 9.596360e+001
<STATE> 4
<MEAN> 25
 -5.527299e-001 -1.228605e+001 -9.263098e-001 1.054537e+001 3.103434e+000 -4.991876e+000 7.499093e-001 3.738478e+000 -6.267846e-001 1.837451e+000 4.596455e+000 -8.558871e-001 -4.420445e-001 -4.240600e-001 3.200447e-001 7.053839e-001 3.140765e-001 -4.600918e-002 2.096935e-001 5.128255e-001 4.940740e-001 2.153882e-001 5.255024e-002 4.717416e-002 -1.582380e-001
<VARIANCE> 25
 3.694129e+001 2.928412e+001 2.272441e+001 5.752818e+001 2.824363e+001 3.171019e+001 1.973287e+001 3.090812e+001 2.451688e+001 1.415611e+001 8.962311e+000 1.379683e+001 4.780363e-001 1.438089e+000 1.284201e+000 8.949054e-001 1.503256e+000 7.685194e-001 1.495620e+000 1.896616e+000 1.141363e+000 1.318453e+000 4.168003e-001 1.376713e+000 1.095580e-001
<GCONST> 8.258003e+001
<TRANSP> 5
 0.000000e+000 1.000000e+000 0.000000e+000 0.000000e+000 0.000000e+000
 0.000000e+000 7.371751e-001 2.628249e-001 0.000000e+000 0.000000e+000
 0.000000e+000 0.000000e+000 8.484322e-001 1.515678e-001 0.000000e+000
 0.000000e+000 0.000000e+000 0.000000e+000 8.984584e-001 1.015417e-001
 0.000000e+000 0.000000e+000 0.000000e+000 0.000000e+000 0.000000e+000
<ENDHMM>
~h "sil"
<BEGINHMM>
<NUMSTATES> 5
<STATE> 2
<MEAN> 25
 -7.397553e+000 5.692546e+000 -5.582802e+000 -3.055199e+000 3.321733e-001 -3.166093e+000 -4.267546e+000 -4.203567e+000 -5.707102e+000 4.400652e+000 -3.113351e+000 1.742639e-001 1.275880e-001 -7.380332e-002 7.204105e-003 -3.254462e-002 -2.075863e-002 8.037614e-002 -2.935031e-002 -2.377627e-002 8.544053e-002 -8.352509e-003 5.042003e-002 5.612241e-002 1.361922e-001
<VARIANCE> 25
 2.822760e+001 1.759115e+001 1.314600e+001 3.478391e+001 2.545531e+001 3.618739e+001 2.219592e+001 3.043235e+001 2.291319e+001 1.722036e+001 1.697961e+001 1.061922e+001 2.907194e-001 2.395076e-001 4.570453e-001 6.055303e-001 7.291527e-001 1.028668e+000 1.059643e+000 1.033517e+000 1.104112e+000 1.081761e+000 1.006922e+000 8.330250e-001 2.027929e-001
<GCONST> 7.705380e+001
<STATE> 3
~s "silst"
<STATE> 4
<MEAN> 25
 -4.422263e+000 2.004389e+000 -1.372373e+000 5.411446e+000 2.317150e+000 3.590632e+000 4.155459e+000 1.513258e+000 3.059735e+000 1.961814e+000 1.441109e+000 1.547129e+000 -2.686992e-002 1.320317e-002 8.517945e-003 1.639352e-003 -1.047809e-002 9.624375e-003 -1.230559e-002 -3.336972e-003 2.770293e-002 -6.306645e-003 1.003847e-002 1.041653e-003 -2.993843e-002
<VARIANCE> 25
 3.043482e+000 8.385032e+000 1.132940e+001 3.368513e+001 1.220370e+001 2.079153e+001 1.646477e+001 1.515989e+001 2.190279e+001 2.506360e+001 1.398073e+001 1.244931e+001 1.164144e-001 2.501534e-001 4.314344e-001 6.157670e-001 8.169131e-001 9.442477e-001 1.199499e+000 1.170930e+000 1.258624e+000 1.402130e+000 1.176766e+000 9.653131e-001 7.648313e-002
<GCONST> 7.099747e+001
<TRANSP> 5
 0.000000e+000 1.000000e+000 0.000000e+000 0.000000e+000 0.000000e+000
 0.000000e+000 8.744119e-001 5.088748e-002 7.470052e-002 0.000000e+000
 0.000000e+000 0.000000e+000 8.789367e-001 1.210633e-001 0.000000e+000
 0.000000e+000 8.335347e-003 0.000000e+000 9.641914e-001 2.747318e-002
 0.000000e+000 0.000000e+000 0.000000e+000 0.000000e+000 0.000000e+000
<ENDHMM>
