~o
<STREAMINFO> 1 25
<VECSIZE> 25<NULLD><MFCC_D_N_Z_0><DIAGC>
~s "silst"
<MEAN> 25
 -2.873905e+000 1.370661e+000 -1.883151e+000 2.985532e+000 1.851044e+000 6.728420e-001 5.328189e-001 5.308137e-001 2.055441e-001 3.817031e-001 -1.201370e+000 1.702957e+000 -3.422663e-001 -1.319708e-001 -1.464072e-001 -4.799875e-002 8.846802e-002 -1.041328e-001 7.226497e-002 -1.039919e-001 1.870908e-001 -1.434415e-001 2.452449e-002 5.769308e-002 2.580948e-001
<VARIANCE> 25
 3.584180e+001 4.332220e+001 4.147452e+001 8.986736e+001 3.749676e+001 4.193764e+001 6.788424e+001 4.979419e+001 4.743083e+001 3.709805e+001 4.213590e+001 2.770498e+001 1.973048e+000 3.623606e+000 3.255523e+000 5.850289e+000 3.778379e+000 3.892300e+000 4.358098e+000 3.379211e+000 3.589424e+000 3.243264e+000 3.184884e+000 2.488935e+000 1.517065e+001
<GCONST> 1.090757e+002
~h "a"
<BEGINHMM>
<NUMSTATES> 5
<STATE> 2
<MEAN> 25
 2.110826e+000 -1.413221e+000 1.881242e-001 -1.980441e+000 3.525233e-001 -1.299062e+000 -1.342226e+000 -8.142957e-001 -2.140443e-001 -1.096160e+000 -1.220497e+000 -5.157972e-001 1.544862e+000 -1.507146e+000 -6.351430e-001 -1.536526e+000 -4.382159e-001 -8.008314e-001 -5.920736e-001 5.686269e-001 1.691552e-001 -7.204300e-001 -1.065427e-001 3.641282e-003 2.373465e+000
<VARIANCE> 25
 3.747395e+001 6.393594e+001 4.200417e+001 8.224966e+001 7.006683e+001 5.287620e+001 5.316648e+001 6.077361e+001 7.485201e+001 4.089730e+001 4.404123e+001 3.577869e+001 3.085447e+000 4.258307e+000 4.381733e+000 6.154734e+000 6.502684e+000 5.013596e+000 5.455369e+000 5.878998e+000 5.814728e+000 4.138111e+000 5.089151e+000 4.015312e+000 4.329325e+000
<GCONST> 1.140489e+002
<STATE> 3
<MEAN> 25
 7.355606e+000 -8.205623e+000 -5.471694e+000 -7.661334e+000 -9.370412e-001 -4.060559e+000 -3.255172e-002 1.187330e+000 5.943645e-003 -2.750457e+000 1.251280e+000 1.193159e+000 1.147219e-001 -6.197268e-001 -4.885684e-001 -2.281391e-001 1.505839e-001 1.217406e-001 4.937234e-001 4.628587e-001 1.913988e-001 2.586424e-002 -4.351250e-002 -2.138427e-002 3.148320e-001
<VARIANCE> 25
 8.921368e+000 3.090105e+001 4.081682e+001 7.161658e+001 7.111203e+001 4.106360e+001 4.689433e+001 4.811554e+001 7.771028e+001 3.272680e+001 5.255510e+001 3.782115e+001 3.107854e-001 9.869268e-001 1.218587e+000 1.403112e+000 1.908707e+000 1.820996e+000 1.816902e+000 2.241074e+000 1.902871e+000 1.781746e+000 2.186252e+000 1.441020e+000 4.394970e-001
<GCONST> 9.423422e+001
<STATE> 4
<MEAN> 25
 6.584141e+000 -7.827421e+000 -3.722558e+000 -8.356985e+000 -8.672480e-001 -2.191434e+000 -2.909145e+000 4.143830e+000 2.402486e-001 -2.345047e+000 -3.777552e+000 -1.546956e+000 -1.661722e-001 5.823312e-001 2.607229e-001 3.077906e-001 2.063826e-002 1.139397e-001 -9.573599e-002 -8.694498e-002 -1.672328e-002 8.356272e-002 -4.887523e-002 6.539408e-002 -6.115078e-001
<VARIANCE> 25
 8.416516e+000 3.240314e+001 3.357247e+001 4.024424e+001 4.206666e+001 2.509031e+001 4.802994e+001 3.354256e+001 3.157192e+001 2.694085e+001 5.579398e+001 3.877402e+001 3.309530e-001 9.661545e-001 1.020994e+000 1.055121e+000 1.491157e+000 1.437130e+000 1.520489e+000 1.521124e+000 1.291608e+000 1.273467e+000 1.417313e+000 1.234267e+000 6.337890e-001
<GCONST> 8.867149e+001
<TRANSP> 5
 0.000000e+000 1.000000e+000 0.000000e+000 0.000000e+000 0.000000e+000
 0.000000e+000 7.552722e-001 2.447279e-001 0.000000e+000 0.000000e+000
 0.000000e+000 0.000000e+000 7.655687e-001 2.344313e-001 0.000000e+000
 0.000000e+000 0.000000e+000 0.000000e+000 8.337322e-001 1.662678e-001
 0.000000e+000 0.000000e+000 0.000000e+000 0.000000e+000 0.000000e+000
<ENDHMM>
~h "b"
<BEGINHMM>
<NUMSTATES> 5
<STATE> 2
<MEAN> 25
 9.180187e-001 4.128392e+000 1.649959e+000 2.310258e+000 -3.172975e-001 -6.000297e-003 -5.329950e-001 -5.200663e-001 -1.679813e-001 -4.616190e-001 -7.004359e-001 -8.080417e-001 -7.420231e-001 -6.034092e-002 -2.748133e-001 9.304976e-002 1.976193e-001 5.857159e-001 5.917104e-001 3.891077e-001 6.472963e-001 7.533765e-001 5.053387e-001 2.032020e-001 -7.945516e-001
<VARIANCE> 25
 1.857764e+001 3.328584e+001 4.673371e+001 2.814829e+001 5.127364e+001 3.628874e+001 3.692735e+001 4.133732e+001 4.206753e+001 2.920662e+001 2.907978e+001 2.486737e+001 4.737485e-001 8.585120e-001 1.004827e+000 1.465329e+000 1.412416e+000 1.834397e+000 1.623152e+000 1.700806e+000 1.678017e+000 1.397289e+000 1.621614e+000 1.442572e+000 5.949955e-001
<GCONST> 9.075019e+001
<STATE> 3
<MEAN> 25
 -4.357800e+000 3.617844e+000 -2.987748e+000 5.654068e+000 1.268016e+000 9.056209e-001 2.526794e+000 -7.618085e-001 -4.463966e-001 5.848935e-001 5.548634e-002 1.583289e+000 -1.743950e-001 -3.297756e-002 -1.072778e-001 2.391064e-002 -8.125650e-002 -7.655422e-002 -4.009949e-002 -1.035810e-001 -6.655005e-002 4.276991e-002 -5.780110e-003 -5.257638e-002 -2.127994e-001
<VARIANCE> 25
 1.352051e+001 1.059085e+001 1.687837e+001 4.839362e+001 2.274357e+001 2.196607e+001 3.208241e+001 3.094806e+001 2.681165e+001 3.956944e+001 2.097275e+001 1.925432e+001 2.013664e-001 5.155917e-001 7.642651e-001 9.938897e-001 1.512812e+000 1.714400e+000 1.830398e+000 1.951972e+000 1.866084e+000 1.851843e+000 1.499130e+000 1.170610e+000 1.388073e-001
<GCONST> 8.321291e+001
<STATE> 4
<MEAN> 25
 -4.183776e+000 2.031809e+000 -6.088790e-001 3.423764e+000 2.388075e+000 4.115102e+000 4.477039e+000 1.338259e+000 3.585790e+000 2.675457e+000 1.660194e+000 2.647044e-001 -3.860482e-002 3.220430e-002 4.552999e-002 4.150859e-002 3.022226e-002 1.507728e-002 1.306479e-003 -4.302200e-002 -4.362495e-002 -3.579748e-003 -1.987731e-002 -1.682617e-002 -3.226981e-002
<VARIANCE> 25
 3.498000e+000 7.194581e+000 8.977360e+000 2.024266e+001 7.743060e+000 1.242844e+001 1.259630e+001 1.344317e+001 1.461143e+001 1.371417e+001 1.286388e+001 1.070050e+001 1.019191e-001 2.703095e-001 3.399594e-001 4.134900e-001 5.384234e-001 5.741731e-001 7.588738e-001 8.644130e-001 9.978612e-001 1.082096e+000 9.701102e-001 8.636480e-001 5.760004e-002
<GCONST> 6.419477e+001
<TRANSP> 5
 0.000000e+000 1.000000e+000 0.000000e+000 0.000000e+000 0.000000e+000
 0.000000e+000 5.916806e-001 4.083194e-001 0.000000e+000 0.000000e+000
 0.000000e+000 0.000000e+000 8.303666e-001 1.696334e-001 0.000000e+000
 0.000000e+000 0.000000e+000 0.000000e+000 9.287295e-001 7.127048e-002
 0.000000e+000 0.000000e+000 0.000000e+000 0.000000e+000 0.000000e+000
<ENDHMM>
~h "c"
<BEGINHMM>
<NUMSTATES> 5
<STATE> 2
<MEAN> 25
 -3.490565e+000 1.904912e+000 -1.620847e+000 3.818129e+000 2.307185e+000 5.149282e+000 3.431391e+000 4.734223e-001 3.218819e+000 3.310286e+000 1.261409e+000 2.336462e+000 -1.279179e-001 -8.866842e-002 -7.255896e-002 -8.713391e-002 -1.065508e-002 5.720185e-002 1.614861e-001 8.755995e-002 2.699957e-002 7.853834e-002 7.961675e-002 9.744096e-002 -1.106620e-001
<VARIANCE> 25
 6.259661e+000 5.230730e+000 1.641377e+001 3.921505e+001 9.966258e+000 2.229944e+001 1.422268e+001 1.431275e+001 1.836592e+001 2.353227e+001 1.115777e+001 1.270809e+001 1.376362e-001 2.303575e-001 5.348579e-001 9.724460e-001 6.096479e-001 9.643927e-001 1.809685e+000 1.468961e+000 1.572657e+000 1.569900e+000 1.083895e+000 8.575605e-001 1.257260e-001
<GCONST> 7.274443e+001
<STATE> 3
<MEAN> 25
 -4.137739e+000 -1.954246e+000 1.071290e+000 1.979847e+000 5.040045e-001 2.841879e+000 5.116099e+000 3.115713e+000 4.890421e-001 1.730280e+000 2.703900e+000 3.474389e+000 -4.534217e-001 -1.542396e+000 9.635141e-001 9.335486e-001 -5.695912e-001 -1.734095e+000 2.464947e-001 1.008720e+000 -1.030859e+000 -1.220681e+000 4.576033e-002 1.851947e-001 5.942374e-001
<VARIANCE> 25
 1.147345e+001 2.796149e+001 2.703306e+001 3.807964e+001 8.152602e+000 3.806678e+001 2.653908e+001 3.288365e+001 3.054721e+001 2.390286e+001 1.140488e+001 9.193934e+000 2.522240e-001 4.178170e+000 2.344164e+000 4.207160e+000 1.597656e+000 1.579070e+000 2.199140e+000 2.987958e+000 2.266897e+000 1.798764e+000 1.272898e+000 1.425017e+000 8.454388e-001
<GCONST> 8.939194e+001
<STATE> 4
<MEAN> 25
 -1.033891e+001 -1.568986e+000 3.299525e+000 -3.381701e-001 -7.215728e-002 -6.796823e-001 6.022270e+000 1.871869e-001 5.463463e-001 9.243503e-001 3.040733e+000 4.234020e+000 -7.888579e-002 -5.711823e-001 1.144725e+000 -5.306966e-001 1.446947e-001 -7.644808e-001 -1.012319e+000 -3.105053e-001 2.971432e-001 -1.978699e-001 -1.005934e-001 -1.786852e-001 2.290271e+000
<VARIANCE> 25
 5.423693e+001 2.717870e+002 8.196671e+001 5.237738e+001 9.480421e+001 3.944363e+001 7.370913e+001 2.277905e+001 5.090128e+001 3.091592e+001 1.722656e+001 3.142821e+001 1.251318e+001 1.736306e+001 9.859291e+000 4.871297e+000 9.565225e+000 2.745404e+000 8.499749e+000 4.240238e+000 4.207891e+000 4.109160e+000 2.775060e+000 5.058756e+000 3.820793e+000
<GCONST> 1.161561e+002
<TRANSP> 5
 0.000000e+000 1.000000e+000 0.000000e+000 0.000000e+000 0.000000e+000
 0.000000e+000 9.332824e-001 6.671754e-002 0.000000e+000 0.000000e+000
 0.000000e+000 0.000000e+000 5.719560e-001 4.280440e-001 0.000000e+000
 0.000000e+000 0.000000e+000 0.000000e+000 7.947491e-001 2.052509e-001
 0.000000e+000 0.000000e+000 0.000000e+000 0.000000e+000 0.000000e+000
<ENDHMM>
~h "d"
<BEGINHMM>
<NUMSTATES> 5
<STATE> 2
<MEAN> 25
 4.381522e+000 1.348059e+000 4.116347e-001 7.898746e-001 -4.841928e-001 -2.237241e+000 -3.704597e+000 -1.944382e+000 -2.832500e+000 -3.099223e+000 -1.115862e+000 3.025173e+000 -7.486245e-001 9.505975e-001 -3.655089e-001 6.292683e-001 1.497606e-001 3.495484e-001 9.315574e-001 2.881164e-002 3.291598e-001 2.314463e-002 -2.416128e-001 -7.584370e-002 -1.736843e+000
<VARIANCE> 25
 2.535282e+001 3.447234e+001 3.065095e+001 4.171024e+001 4.208656e+001 4.287029e+001 4.638141e+001 6.867976e+001 8.064845e+001 3.043996e+001 5.973101e+001 2.873744e+001 7.395245e-001 1.444839e+000 2.292956e+000 2.651557e+000 1.661495e+000 2.920242e+000 3.121424e+000 2.408438e+000 2.860786e+000 2.736628e+000 2.387843e+000 2.093795e+000 1.585268e+000
<GCONST> 1.002874e+002
<STATE> 3
<MEAN> 25
 3.885999e-001 4.848366e+000 2.116741e+000 2.487734e+000 1.844155e-001 -4.173263e-001 -2.276086e+000 -2.758467e+000 -2.419995e+000 -1.129295e+000 -1.865482e+000 3.738080e-001 -3.667151e-001 1.819063e-001 -1.153717e-001 3.279807e-002 4.779767e-002 1.446419e-001 3.591112e-001 2.319722e-001 1.998483e-001 3.961760e-001 1.711119e-001 -3.378541e-002 -4.735337e-001
<VARIANCE> 25
 2.655806e+001 1.491392e+001 3.709393e+001 2.658065e+001 3.758078e+001 2.820516e+001 2.865355e+001 2.148616e+001 2.557734e+001 2.595612e+001 2.202721e+001 2.385937e+001 2.398337e-001 7.006054e-001 7.643264e-001 9.551458e-001 1.217568e+000 1.449239e+000 1.398672e+000 1.186724e+000 1.253182e+000 1.353571e+000 1.255137e+000 9.986214e-001 1.839011e-001
<GCONST> 8.301073e+001
<STATE> 4
<MEAN> 25
 -3.526073e+000 1.802297e+000 -2.646358e-002 2.945882e+000 1.526634e+000 3.086614e+000 3.015512e+000 6.840935e-001 2.104236e+000 2.679795e+000 1.050751e+000 4.813919e-001 -6.808034e-002 3.732502e-002 1.229336e-002 5.611849e-002 1.066498e-001 8.368361e-002 2.361740e-002 -7.382435e-002 -2.709544e-002 5.540622e-002 5.830427e-002 1.772115e-003 -7.332334e-002
<VARIANCE> 25
 5.817307e+000 9.496811e+000 1.290496e+001 1.991619e+001 1.364483e+001 1.382213e+001 1.634499e+001 2.021969e+001 1.780237e+001 1.491987e+001 1.376000e+001 1.358816e+001 1.648106e-001 3.428622e-001 4.007986e-001 5.187733e-001 6.502720e-001 7.510614e-001 9.318395e-001 1.072125e+000 1.112893e+000 1.088654e+000 1.096202e+000 1.034978e+000 9.291727e-002
<GCONST> 7.014160e+001
<TRANSP> 5
 0.000000e+000 1.000000e+000 0.000000e+000 0.000000e+000 0.000000e+000
 0.000000e+000 7.058616e-001 2.941384e-001 0.000000e+000 0.000000e+000
 0.000000e+000 0.000000e+000 7.566591e-001 2.433409e-001 0.000000e+000
 0.000000e+000 0.000000e+000 0.000000e+000 9.003699e-001 9.963004e-002
 0.000000e+000 0.000000e+000 0.000000e+000 0.000000e+000 0.000000e+000
<ENDHMM>
~h "e"
<BEGINHMM>
<NUMSTATES> 5
<STATE> 2
<MEAN> 25
 -4.000069e+000 2.134958e+000 -1.971309e+000 4.004783e+000 1.610035e+000 2.027629e+000 3.174965e+000 7.879953e-001 2.143539e+000 2.504057e+000 1.414371e+000 1.142137e+000 -3.679983e-002 1.638424e-002 2.055693e-002 8.711587e-002 4.744395e-002 -3.499783e-002 -2.439076e-002 -8.631579e-002 -7.990806e-002 -2.122871e-003 4.071978e-002 2.753804e-003 -2.315318e-002
<VARIANCE> 25
 7.869131e+000 9.739623e+000 1.305852e+001 3.598208e+001 1.365820e+001 1.496753e+001 2.326263e+001 2.342582e+001 2.101821e+001 2.151659e+001 1.502304e+001 1.311973e+001 2.090871e-001 4.047292e-001 5.833575e-001 6.974105e-001 8.315110e-001 9.981139e-001 1.128956e+000 1.319804e+000 1.316140e+000 1.363523e+000 1.203525e+000 1.048201e+000 1.497369e-001
<GCONST> 7.521909e+001
<STATE> 3
<MEAN> 25
 -4.247094e+000 2.541842e-001 1.956995e-001 -5.487334e-001 1.942220e+000 -1.226843e-001 2.237257e+000 -2.305998e+000 -1.227838e+000 1.043636e+000 1.110434e+000 1.244272e+000 1.415158e+000 -8.138208e-001 1.734389e-001 -9.126961e-001 -3.333721e-001 -7.447321e-001 -1.040005e+000 -4.944936e-001 -6.286958e-001 -9.630682e-001 -7.641944e-002 1.041058e-001 2.364622e+000
<VARIANCE> 25
 6.152216e+001 4.645198e+001 3.486514e+001 5.561036e+001 3.970311e+001 4.974646e+001 5.176488e+001 3.389898e+001 4.616593e+001 3.863798e+001 2.138324e+001 2.488610e+001 5.304090e+000 4.594711e+000 2.844902e+000 6.560853e+000 4.262848e+000 5.487769e+000 6.661887e+000 5.053683e+000 5.323622e+000 4.980993e+000 3.109782e+000 2.997986e+000 6.032242e+000
<GCONST> 1.103929e+002
<STATE> 4
<MEAN> 25
 6.222824e+000 -2.466982e+000 -2.502757e+000 -1.031796e+000 5.433314e-002 -5.746392e+000 -7.086783e+000 -5.929324e+000 -5.013377e+000 -2.291474e+000 1.295108e+000 1.706089e+000 6.809113e-001 -1.841208e-001 -2.028073e-001 -1.824645e-001 -2.405039e-001 -5.947016e-001 -3.007293e-001 1.447378e-001 5.680361e-002 8.789395e-002 -1.002663e-001 -2.191490e-001 5.962803e-001
<VARIANCE> 25
 1.433859e+001 2.934276e+001 3.685944e+001 7.876087e+001 3.850690e+001 6.412510e+001 5.575262e+001 8.427137e+001 4.730936e+001 5.196725e+001 3.919600e+001 3.502679e+001 1.806288e+000 2.211170e+000 2.271470e+000 4.251370e+000 2.834880e+000 5.012765e+000 3.643869e+000 4.958283e+000 3.384394e+000 3.614482e+000 2.594100e+000 2.285865e+000 1.700966e+000
<GCONST> 1.052770e+002
<TRANSP> 5
 0.000000e+000 1.000000e+000 0.000000e+000 0.000000e+000 0.000000e+000
 0.000000e+000 8.931997e-001 1.068003e-001 0.000000e+000 0.000000e+000
 0.000000e+000 0.000000e+000 7.613382e-001 2.386618e-001 0.000000e+000
 0.000000e+000 0.000000e+000 0.000000e+000 6.967905e-001 3.032095e-001
 0.000000e+000 0.000000e+000 0.000000e+000 0.000000e+000 0.000000e+000
<ENDHMM>
~h "f"
<BEGINHMM>
<NUMSTATES> 5
<STATE> 2
<MEAN> 25
 -8.088340e+000 -4.054894e+000 2.011765e+000 1.770738e+000 5.731876e+000 -7.529518e-001 3.765095e+000 5.442534e-001 4.671280e+000 2.974287e+000 2.692936e+000 1.645275e+000 -5.487489e-001 -4.301071e-001 1.294294e-001 -3.213921e-001 5.703374e-001 -5.637248e-003 2.557974e-001 -1.409878e-001 1.567104e-001 2.423171e-002 7.103033e-002 1.638397e-001 4.764963e-001
<VARIANCE> 25
 2.111916e+001 1.934599e+001 7.058879e+000 1.965269e+001 2.273695e+001 3.414967e+001 2.192417e+001 1.552549e+001 1.459315e+001 1.447675e+001 9.086941e+000 1.063685e+001 2.225539e+000 1.224921e+000 7.814644e-001 9.385514e-001 2.400247e+000 2.629728e+000 1.803469e+000 1.309165e+000 1.990132e+000 1.307604e+000 8.257865e-001 9.003883e-001 7.570934e-001
<GCONST> 8.307738e+001
<STATE> 3
<MEAN> 25
 1.352171e+000 -5.396046e+000 -3.157997e+000 -5.185427e+000 2.576542e+000 2.071035e+000 -5.700711e-001 -1.504412e+000 1.416411e+000 1.685174e+000 -8.363295e-002 -3.438663e+000 4.629426e+000 -3.423973e-001 -1.711341e+000 -4.167059e+000 -1.451713e+000 1.163176e+000 -2.085037e+000 -4.511214e-001 -1.754155e+000 -6.410146e-001 -1.130283e+000 -2.330884e+000 2.737776e+000
<VARIANCE> 25
 6.817222e+001 2.869983e+001 2.575360e+001 6.187262e+001 2.584488e+001 3.375004e+001 3.314974e+001 1.183486e+001 2.431821e+001 2.291279e+001 1.880387e+001 2.168136e+001 3.204039e+000 4.122695e+000 1.588009e+000 3.191620e+000 5.121228e+000 4.694657e+000 2.417751e+000 1.819866e+000 1.335297e+000 1.275382e+000 2.375625e+000 1.986257e+000 4.515555e+000
<GCONST> 9.843291e+001
<STATE> 4
<MEAN> 25
 5.759420e+000 -8.945940e+000 -4.480137e+000 -1.699153e+001 8.166653e+000 4.781872e+000 -4.752773e+000 -2.605782e+000 1.874022e+000 -1.963458e-001 3.169822e-001 -5.985399e+000 -1.635137e-001 2.436467e-001 1.011273e-001 3.046961e-001 -1.334288e-001 -3.162414e-001 2.299782e-001 -7.669558e-002 1.348585e-001 9.590366e-002 -1.895595e-001 3.102742e-005 -2.677099e-001
<VARIANCE> 25
 2.016629e+001 2.997528e+001 2.509199e+001 5.445113e+001 8.115115e+001 3.355448e+001 4.949076e+001 1.348948e+001 4.100912e+001 2.311443e+001 1.740478e+001 1.739201e+001 9.944997e-001 2.362558e+000 2.302797e+000 4.018974e+000 3.818723e+000 2.697026e+000 3.870532e+000 2.016010e+000 2.733195e+000 1.890719e+000 1.802182e+000 1.021722e+000 2.035629e+000
<GCONST> 9.698103e+001
<TRANSP> 5
 0.000000e+000 1.000000e+000 0.000000e+000 0.000000e+000 0.000000e+000
 0.000000e+000 8.771646e-001 1.228354e-001 0.000000e+000 0.000000e+000
 0.000000e+000 0.000000e+000 6.446490e-001 3.553509e-001 0.000000e+000
 0.000000e+000 0.000000e+000 0.000000e+000 8.782343e-001 1.217657e-001
 0.000000e+000 0.000000e+000 0.000000e+000 0.000000e+000 0.000000e+000
<ENDHMM>
~h "g"
<BEGINHMM>
<NUMSTATES> 5
<STATE> 2
<MEAN> 25
 -4.017839e+000 2.712803e+000 -1.727551e+000 4.536356e+000 2.341125e+000 1.342214e+000 2.362353e+000 -1.646327e-001 8.312367e-001 3.519472e-001 -2.900729e-001 1.016826e+000 -4.344910e-002 -1.201280e-002 -1.260106e-001 -7.099396e-002 -1.153839e-002 2.240203e-002 -1.973498e-002 -4.183649e-002 -5.872191e-002 9.130676e-002 6.614602e-002 -2.934505e-002 -8.739476e-002
<VARIANCE> 25
 6.065921e+000 8.506480e+000 1.689419e+001 2.444349e+001 1.078185e+001 1.509248e+001 2.543023e+001 2.438616e+001 2.381319e+001 2.281225e+001 1.748646e+001 1.574029e+001 1.700390e-001 4.537041e-001 6.189378e-001 7.814260e-001 1.058896e+000 1.077530e+000 1.378406e+000 1.602220e+000 1.281352e+000 1.697296e+000 1.541285e+000 1.089051e+000 1.029367e-001
<GCONST> 7.600800e+001
<STATE> 3
<MEAN> 25
 -5.402271e+000 -9.294951e-001 -2.096507e+000 3.454665e+000 2.280125e+000 6.200198e-001 3.356971e+000 -4.054836e-001 -1.120640e+000 2.900603e+000 7.608896e-001 2.570764e-001 -9.000672e-002 -2.457585e+000 -3.294401e-001 -2.204318e+000 -3.423219e-001 -3.876206e-001 6.893302e-002 3.662523e-001 -9.515617e-002 1.078055e-001 4.713914e-001 -3.839685e-001 3.195658e+000
<VARIANCE> 25
 1.475723e+001 7.996436e+001 2.579130e+001 4.608044e+001 2.991553e+001 4.480370e+001 4.098037e+001 3.260062e+001 2.637380e+001 2.327613e+001 1.546095e+001 2.322122e+001 1.461596e+000 7.742214e+000 4.833308e+000 5.577848e+000 1.307655e+001 5.712147e+000 5.358591e+000 6.498391e+000 3.322886e+000 4.711927e+000 3.618588e+000 2.788584e+000 5.821966e+000
<GCONST> 1.072104e+002
<STATE> 4
<MEAN> 25
 -2.842860e+000 -4.924515e+000 -2.205616e+000 -5.200531e+000 1.076309e-002 -1.453247e-002 5.606247e-001 -2.001445e-001 -2.393077e+000 4.220891e+000 3.259661e+000 -1.593130e+000 1.696329e+000 1.153993e+000 1.725600e+000 -5.736157e-002 -7.485209e-001 -3.528088e-001 -1.679275e+000 -5.052287e-001 -6.949638e-001 -5.786784e-001 9.262779e-002 -3.134207e-001 1.648232e+000
<VARIANCE> 25
 2.086689e+001 6.173019e+001 1.122641e+002 7.189146e+001 2.467003e+002 7.593415e+001 5.309552e+001 6.180500e+001 4.862792e+001 6.399325e+001 4.131244e+001 3.939301e+001 2.542570e+000 7.552209e+000 5.489392e+000 9.717490e+000 1.466165e+001 3.383219e+000 4.178992e+000 4.244412e+000 4.836062e+000 5.708581e+000 4.814070e+000 2.529353e+000 5.579779e+000
<GCONST> 1.167239e+002
<TRANSP> 5
 0.000000e+000 1.000000e+000 0.000000e+000 0.000000e+000 0.000000e+000
 0.000000e+000 9.355209e-001 6.447910e-002 0.000000e+000 0.000000e+000
 0.000000e+000 0.000000e+000 6.367348e-001 3.632652e-001 0.000000e+000
 0.000000e+000 0.000000e+000 0.000000e+000 6.741328e-001 3.258672e-001
 0.000000e+000 0.000000e+000 0.000000e+000 0.000000e+000 0.000000e+000
<ENDHMM>
~h "h"
<BEGINHMM>
<NUMSTATES> 5
<STATE> 2
<MEAN> 25
 -3.526691e-001 -7.213002e+000 -1.086773e+000 -1.474379e+000 3.317748e+000 -2.108955e-001 4.929711e+000 3.096246e+000 4.674921e-001 -1.511014e+000 -7.848004e-001 -1.798710e-001 -6.264908e-001 1.184108e-001 -3.157358e-001 6.517538e-001 1.754113e-001 2.612563e-001 6.870633e-001 4.685095e-002 8.813161e-002 3.568316e-001 7.507455e-002 3.490098e-001 -1.100544e+000
<VARIANCE> 25
 2.937741e+001 3.105737e+001 4.299754e+001 4.517769e+001 1.240169e+002 4.468773e+001 7.013835e+001 4.713010e+001 4.962400e+001 4.130764e+001 5.957528e+001 2.658210e+001 7.721685e-001 1.777603e+000 1.510140e+000 2.206892e+000 2.638336e+000 2.708401e+000 4.174949e+000 2.380344e+000 2.682197e+000 2.627701e+000 2.355196e+000 2.058777e+000 9.067714e-001
<GCONST> 1.012682e+002
<STATE> 3
<MEAN> 25
 -1.615694e+000 -5.390278e+000 -3.878914e+000 1.834088e+000 3.274103e+000 1.474332e+000 5.209232e+000 3.572832e+000 1.901786e+000 8.179928e-001 2.436326e-001 2.544092e+000 -1.919788e-001 6.202155e-001 1.113878e-001 2.229228e-001 -1.814601e-001 2.541192e-001 -4.926747e-002 3.061981e-002 3.637008e-001 2.539954e-001 1.777941e-001 -9.567847e-002 -7.263428e-001
<VARIANCE> 25
 5.641689e+000 2.703946e+001 1.111356e+001 4.000905e+001 2.964735e+001 1.654709e+001 1.979402e+001 2.037958e+001 2.300681e+001 2.392936e+001 2.166084e+001 2.398998e+001 1.882919e-001 6.503980e-001 6.148510e-001 8.782707e-001 1.015042e+000 9.150077e-001 1.079584e+000 1.314198e+000 1.311992e+000 1.283771e+000 1.405313e+000 1.063026e+000 1.477051e-001
<GCONST> 7.840121e+001
<STATE> 4
<MEAN> 25
 -3.383111e+000 1.314628e+000 -1.986208e+000 4.723508e+000 1.315757e+000 2.771195e+000 4.299186e+000 1.615074e+000 3.454587e+000 2.914447e+000 2.437935e+000 1.090095e+000 -3.739924e-002 4.380541e-002 2.813563e-002 5.495285e-002 1.294865e-002 2.761324e-002 -2.168336e-002 -6.361866e-002 -4.859786e-002 -5.924000e-003 2.869655e-003 3.948111e-003 -5.178108e-002
<VARIANCE> 25
 2.901186e+000 7.383890e+000 7.828604e+000 2.614762e+001 1.099150e+001 1.150244e+001 1.705531e+001 1.817274e+001 1.710887e+001 1.455869e+001 1.443863e+001 1.075856e+001 8.607133e-002 2.534414e-001 4.096909e-001 5.978132e-001 6.682640e-001 9.140659e-001 1.100469e+000 1.170525e+000 1.044552e+000 1.208398e+000 1.121534e+000 8.444432e-001 6.387725e-002
<GCONST> 6.742829e+001
<TRANSP> 5
 0.000000e+000 1.000000e+000 0.000000e+000 0.000000e+000 0.000000e+000
 0.000000e+000 8.540487e-001 1.459513e-001 0.000000e+000 0.000000e+000
 0.000000e+000 0.000000e+000 8.520238e-001 1.479762e-001 0.000000e+000
 0.000000e+000 0.000000e+000 0.000000e+000 9.389800e-001 6.101995e-002
 0.000000e+000 0.000000e+000 0.000000e+000 0.000000e+000 0.000000e+000
<ENDHMM>
~h "i"
<BEGINHMM>
<NUMSTATES> 5
<STATE> 2
<MEAN> 25
 -2.552797e+000 -1.733917e+000 1.068137e+001 3.070071e+000 -1.393799e+000 -2.755182e+000 -1.887446e+000 -4.058638e+000 -3.183599e+000 -5.676888e-001 1.537623e+000 -2.432198e+000 8.121439e-001 7.602191e-002 1.892889e+000 6.098391e-001 -5.970120e-001 -7.881852e-001 -1.835784e+000 -6.830075e-001 -1.080851e+000 -8.630927e-001 -2.418035e-001 -7.698827e-001 1.241910e+000
<VARIANCE> 25
 5.442947e+001 8.587051e+001 9.640057e+001 1.223625e+002 1.149012e+002 8.209747e+001 8.126341e+001 5.218624e+001 5.939768e+001 5.128088e+001 4.846023e+001 4.142503e+001 3.762576e+000 4.071710e+000 7.437627e+000 1.011244e+001 8.567238e+000 7.399410e+000 6.563359e+000 4.882499e+000 5.750083e+000 4.729632e+000 4.513072e+000 2.678266e+000 3.677869e+000
<GCONST> 1.186664e+002
<STATE> 3
<MEAN> 25
 1.425769e+000 -9.206015e-001 9.670340e+000 1.276638e+001 2.978168e+000 -9.230435e+000 -9.414013e+000 -2.343491e+000 -3.503228e+000 -6.999254e+000 -5.012478e+000 -4.999576e+000 -1.021259e-001 2.116208e-001 1.613381e-002 -2.211843e-001 -1.108680e-001 3.342639e-001 1.770901e-001 1.528958e-001 1.880077e-001 7.446762e-002 -1.482089e-001 -7.610592e-003 -2.423359e-001
<VARIANCE> 25
 5.665294e+000 2.298289e+001 3.661854e+001 7.699595e+001 6.227879e+001 4.221967e+001 2.515528e+001 3.679417e+001 2.936098e+001 2.072350e+001 3.199482e+001 2.418530e+001 2.296938e-001 7.265072e-001 9.173666e-001 1.528813e+000 1.275065e+000 2.903503e+000 1.566701e+000 1.936304e+000 1.516550e+000 1.532680e+000 1.330885e+000 1.144660e+000 3.923454e-001
<GCONST> 8.782270e+001
<STATE> 4
<MEAN> 25
 -2.971359e-001 5.414615e+000 1.759905e+001 -5.043651e+000 -1.001372e+001 4.414984e-001 -8.776354e+000 -7.393480e+000 -7.340248e+000 -1.236025e+000 1.442668e+000 -3.145172e+000 -6.555337e-002 9.022686e-002 -7.906240e-001 2.910126e-001 5.203177e-001 1.325748e-001 4.886465e-001 1.571504e-001 3.269084e-001 1.405554e-001 9.611474e-003 3.767934e-001 -7.744280e-001
<VARIANCE> 25
 1.545002e+001 2.208555e+001 5.431481e+001 8.161230e+001 7.332734e+001 3.078796e+001 4.132140e+001 5.597714e+001 3.994910e+001 3.798045e+001 4.363400e+001 3.259613e+001 4.728089e-001 9.279554e-001 2.113265e+000 2.344555e+000 2.237704e+000 1.826848e+000 2.264239e+000 2.021654e+000 1.565813e+000 1.660462e+000 1.538399e+000 1.469195e+000 9.984444e-001
<GCONST> 9.570442e+001
<TRANSP> 5
 0.000000e+000 1.000000e+000 0.000000e+000 0.000000e+000 0.000000e+000
 0.000000e+000 8.104489e-001 1.895511e-001 0.000000e+000 0.000000e+000
 0.000000e+000 0.000000e+000 8.765666e-001 1.234334e-001 0.000000e+000
 0.000000e+000 0.000000e+000 0.000000e+000 8.530823e-001 1.469177e-001
 0.000000e+000 0.000000e+000 0.000000e+000 0.000000e+000 0.000000e+000
<ENDHMM>
~h "j"
<BEGINHMM>
<NUMSTATES> 5
<STATE> 2
<MEAN> 25
 -3.295091e+000 2.736594e+000 -3.396759e+000 7.804625e+000 -4.791976e-001 2.716552e+000 2.889512e+000 1.942349e+000 -5.772161e-003 -1.526208e-001 8.987741e-001 2.193882e+000 -1.481705e-001 -9.458501e-002 -2.044828e-003 -1.343065e-002 2.592889e-002 1.110569e-001 -6.624662e-002 1.152643e-002 -4.883669e-002 -2.476241e-002 1.218568e-001 7.323120e-002 -4.600926e-002
<VARIANCE> 25
 4.520353e+000 1.293983e+001 8.168985e+000 2.725922e+001 1.407249e+001 2.078883e+001 2.514723e+001 1.720936e+001 2.086532e+001 1.847602e+001 1.378508e+001 1.138919e+001 2.567883e-001 5.160490e-001 5.768684e-001 9.604989e-001 1.300950e+000 1.930830e+000 1.954266e+000 1.400479e+000 1.644227e+000 1.611446e+000 1.289562e+000 1.084047e+000 2.637086e-001
<GCONST> 7.747408e+001
<STATE> 3
<MEAN> 25
 -6.186712e+000 -8.943213e-001 6.263707e+000 -3.845738e+000 -5.662535e-001 -6.130046e+000 4.194077e+000 -7.052773e-001 2.248203e+000 -2.406490e+000 2.991715e+000 9.280499e-001 7.922208e-002 -3.307292e-001 4.233011e-001 -5.484975e-001 -1.196561e-001 -4.758247e-001 -2.716814e-001 3.098953e-002 4.196972e-002 -2.824823e-001 1.273806e-001 -8.592045e-002 1.353600e+000
<VARIANCE> 25
 8.008206e+001 6.272845e+001 5.581384e+001 7.306310e+001 4.333874e+001 7.031419e+001 7.942030e+001 2.451929e+001 3.358762e+001 4.320751e+001 2.182589e+001 3.197949e+001 8.714126e+000 4.358658e+000 3.933921e+000 5.833863e+000 5.801237e+000 5.283397e+000 7.087241e+000 2.632563e+000 3.212707e+000 3.177390e+000 2.242004e+000 2.969117e+000 9.363829e+000
<GCONST> 1.117817e+002
<STATE> 4
<MEAN> 25
 -4.978542e+000 8.730240e-001 -3.450925e-001 -7.454072e-001 1.221860e+000 2.758373e+000 1.133812e+000 1.539246e-001 2.309472e+000 3.966128e+000 9.466389e-001 -1.523355e-001 2.466994e-002 -6.965260e-002 -3.002371e-002 1.263130e-001 -1.054836e-002 1.500970e-002 -5.579659e-002 -4.489931e-002 -1.899163e-002 4.135089e-003 -5.056944e-003 -8.760943e-002 9.306881e-003
<VARIANCE> 25
 1.019532e+001 1.099982e+001 1.684430e+001 1.952436e+001 9.382309e+000 2.916478e+001 1.929039e+001 1.662029e+001 2.358997e+001 1.994149e+001 9.259346e+000 9.104001e+000 9.346756e-002 3.613973e-001 5.584688e-001 6.424768e-001 6.023335e-001 1.118561e+000 1.070567e+000 9.123333e-001 7.897202e-001 8.695073e-001 8.933090e-001 8.066853e-001 5.999459e-002
<GCONST> 7.008399e+001
<TRANSP> 5
 0.000000e+000 1.000000e+000 0.000000e+000 0.000000e+000 0.000000e+000
 0.000000e+000 9.161463e-001 8.385370e-002 0.000000e+000 0.000000e+000
 0.000000e+000 0.000000e+000 9.151009e-001 8.489911e-002 0.000000e+000
 0.000000e+000 0.000000e+000 0.000000e+000 8.996184e-001 1.003816e-001
 0.000000e+000 0.000000e+000 0.000000e+000 0.000000e+000 0.000000e+000
<ENDHMM>
~h "k"
<BEGINHMM>
<NUMSTATES> 5
<STATE> 2
<MEAN> 25
 -3.526811e+000 2.551818e+000 -1.209371e+000 4.808556e+000 1.551295e+000 3.285700e+000 2.298321e+000 6.832191e-001 1.874943e+000 1.349805e+000 3.417204e-001 1.477601e+000 -1.601566e-001 -6.338117e-002 -1.670303e-001 -2.996706e-003 1.366536e-001 2.812892e-001 2.263345e-001 5.636134e-002 5.570446e-002 2.031348e-001 2.032627e-001 1.206326e-001 -1.517158e-001
<VARIANCE> 25
 4.196233e+000 9.412809e+000 2.006149e+001 3.895128e+001 1.590135e+001 2.066880e+001 1.770243e+001 1.900523e+001 2.227246e+001 2.739386e+001 1.600959e+001 1.635000e+001 2.549493e-001 4.105492e-001 6.878357e-001 9.460102e-001 1.050218e+000 1.526800e+000 1.608400e+000 1.550720e+000 1.746380e+000 1.674044e+000 1.369863e+000 1.192141e+000 1.933081e-001
<GCONST> 7.849809e+001
<STATE> 3
<MEAN> 25
 -4.369174e+000 1.296932e+000 -3.072349e+000 1.505858e+000 1.505725e+000 2.128799e+000 3.376064e+000 -5.275770e-001 -1.113731e+000 1.652781e+000 3.274818e-001 1.791751e+000 -1.327841e-001 -2.202565e+000 -7.853156e-001 -1.512427e+000 -2.990639e-001 -1.551520e-001 7.687825e-001 -8.822349e-001 -1.451259e+000 -5.940694e-001 6.946937e-001 1.383914e-002 2.687349e+000
<VARIANCE> 25
 1.381726e+001 3.370269e+001 2.830185e+001 8.182838e+001 3.719449e+001 5.089165e+001 4.404221e+001 3.547169e+001 4.366829e+001 2.951151e+001 2.292169e+001 1.847682e+001 1.859828e+000 5.521973e+000 4.645617e+000 7.752014e+000 1.171637e+001 7.077793e+000 8.875523e+000 6.653036e+000 6.739662e+000 8.377899e+000 4.419680e+000 3.656366e+000 6.206545e+000
<GCONST> 1.109989e+002
<STATE> 4
<MEAN> 25
 8.581129e-001 -8.183538e+000 -2.798651e+000 -1.075704e+001 3.117086e+000 2.932093e+000 3.624730e+000 -1.157799e-001 3.840087e-001 2.317723e+000 3.432734e+000 -2.705637e+000 1.132478e+000 -2.452628e-001 4.741836e-001 -5.803341e-001 -2.527015e-001 -5.513899e-001 -7.502303e-001 -1.684109e-001 2.745109e-001 1.050600e-002 3.355567e-002 -2.765612e-001 1.501938e+000
<VARIANCE> 25
 4.553256e+001 5.454431e+001 5.761774e+001 1.069957e+002 1.754197e+002 7.072070e+001 7.719995e+001 5.416916e+001 8.502953e+001 7.493343e+001 3.537092e+001 4.511489e+001 4.355272e+000 5.441655e+000 4.865263e+000 1.170944e+001 6.775944e+000 5.036335e+000 5.884492e+000 3.794575e+000 5.674057e+000 4.015187e+000 3.573490e+000 4.062358e+000 9.176949e+000
<GCONST> 1.182520e+002
<TRANSP> 5
 0.000000e+000 1.000000e+000 0.000000e+000 0.000000e+000 0.000000e+000
 0.000000e+000 8.944417e-001 1.055583e-001 0.000000e+000 0.000000e+000
 0.000000e+000 0.000000e+000 5.811906e-001 4.188094e-001 0.000000e+000
 0.000000e+000 0.000000e+000 0.000000e+000 7.252934e-001 2.747066e-001
 0.000000e+000 0.000000e+000 0.000000e+000 0.000000e+000 0.000000e+000
<ENDHMM>
~h "l"
<BEGINHMM>
<NUMSTATES> 5
<STATE> 2
<MEAN> 25
 8.248841e+000 -2.851034e+000 1.436366e+000 -5.385936e-001 -1.849572e+000 -2.485507e+000 -5.488724e+000 2.315937e-001 9.855015e-001 -4.910664e+000 -5.698097e+000 -5.466979e-001 1.780416e-001 -9.375746e-002 -1.172333e-001 -2.537295e-002 -4.125099e-001 -5.009286e-001 -9.400805e-002 1.138065e-001 1.893373e-001 1.585035e-001 -4.287127e-002 3.967121e-001 3.613760e-003
<VARIANCE> 25
 9.140783e+000 3.979496e+001 3.209505e+001 7.911195e+001 3.936986e+001 4.983870e+001 9.326575e+001 8.122252e+001 9.337239e+001 1.535537e+002 5.217099e+001 4.159661e+001 5.712710e-001 1.714233e+000 2.401386e+000 3.430667e+000 2.672074e+000 3.467006e+000 4.478352e+000 4.608364e+000 3.383007e+000 4.726513e+000 3.863108e+000 2.799827e+000 7.492104e-001
<GCONST> 1.056560e+002
<STATE> 3
<MEAN> 25
 7.463137e+000 -3.814101e+000 -3.846782e+000 -3.708329e+000 -7.964173e+000 -8.749317e+000 -2.109102e+000 1.861226e+000 -3.887875e+000 -5.466082e+000 -5.844907e-001 3.229471e+000 -1.180000e-002 4.403706e-002 1.056993e-001 -3.184034e-003 -2.101362e-002 8.966429e-003 -3.434200e-002 5.290407e-002 8.377892e-002 1.160381e-001 -4.623149e-002 -1.586343e-001 -6.843539e-002
<VARIANCE> 25
 5.554729e+000 2.178826e+001 3.986217e+001 2.940311e+001 3.069378e+001 3.825780e+001 6.427395e+001 6.324838e+001 6.510480e+001 5.113713e+001 3.986671e+001 2.263079e+001 1.479244e-001 5.115849e-001 8.026080e-001 8.608144e-001 1.034540e+000 1.343373e+000 1.433868e+000 1.184742e+000 1.328846e+000 1.446728e+000 1.516340e+000 1.067383e+000 1.740820e-001
<GCONST> 8.539835e+001
<STATE> 4
<MEAN> 25
 9.170772e-001 5.361560e-001 1.534008e+000 -2.178048e+000 -1.809034e+000 -8.991480e-001 -2.320975e+000 9.124271e-001 2.098349e+000 4.693374e-001 -1.194797e+000 -1.227663e+000 -2.405881e-001 1.212646e-001 3.511625e-002 7.579287e-002 3.363680e-001 2.841308e-001 1.467711e-001 -9.978519e-002 7.600430e-002 7.883348e-002 -7.236727e-003 -4.911700e-002 -3.092971e-001
<VARIANCE> 25
 2.759545e+001 1.351108e+001 3.060470e+001 5.400270e+001 2.854745e+001 4.202934e+001 9.429156e+001 3.673219e+001 3.111326e+001 3.489507e+001 2.102063e+001 2.046134e+001 2.040921e-001 4.643112e-001 6.497558e-001 8.095494e-001 9.311855e-001 1.307216e+000 1.336645e+000 1.705038e+000 1.356055e+000 1.382493e+000 1.303759e+000 1.019410e+000 2.429055e-001
<GCONST> 8.509167e+001
<TRANSP> 5
 0.000000e+000 1.000000e+000 0.000000e+000 0.000000e+000 0.000000e+000
 0.000000e+000 7.867721e-001 2.132279e-001 0.000000e+000 0.000000e+000
 0.000000e+000 0.000000e+000 8.587841e-001 1.412159e-001 0.000000e+000
 0.000000e+000 0.000000e+000 0.000000e+000 8.268024e-001 1.731976e-001
 0.000000e+000 0.000000e+000 0.000000e+000 0.000000e+000 0.000000e+000
<ENDHMM>
~h "m"
<BEGINHMM>
<NUMSTATES> 5
<STATE> 2
<MEAN> 25
 7.774421e+000 -2.013299e+000 -4.283671e-001 -2.872406e+000 -1.147833e+000 -4.110771e-001 -5.324916e-002 -4.313534e+000 -1.892679e+000 1.414729e+000 -7.775439e-002 -3.539475e+000 -2.393542e-001 1.493752e+000 9.582160e-001 1.806442e+000 -5.047873e-002 7.124887e-001 1.673302e-001 -1.257396e+000 -8.534854e-001 3.955531e-001 -6.537790e-001 -2.194487e-001 -1.454621e+000
<VARIANCE> 25
 1.351165e+001 3.859113e+001 5.086358e+001 6.812044e+001 4.336861e+001 4.324700e+001 5.369249e+001 1.511350e+002 7.904277e+001 4.750420e+001 3.871198e+001 2.511204e+001 5.500007e-001 1.214678e+000 2.223485e+000 3.220746e+000 4.095777e+000 2.954868e+000 3.155154e+000 4.505089e+000 4.078116e+000 2.694201e+000 3.271538e+000 2.460806e+000 8.476986e-001
<GCONST> 1.030326e+002
<STATE> 3
<MEAN> 25
 2.717520e+000 3.379207e+000 1.522967e+000 2.241531e+000 1.778235e+000 3.094351e+000 4.158321e-001 -3.308686e+000 -1.756988e+000 -1.554311e+000 -3.202514e+000 -2.496682e+000 -2.811440e-001 2.112898e-001 1.825885e-001 3.259872e-001 2.581176e-001 2.873520e-001 1.996996e-001 4.090071e-002 1.029835e-001 5.224199e-002 2.283397e-002 -6.095935e-002 -3.655666e-001
<VARIANCE> 25
 1.936632e+001 1.094256e+001 1.710893e+001 1.966654e+001 2.730000e+001 2.350120e+001 3.322653e+001 6.172466e+001 5.933131e+001 3.860938e+001 2.987008e+001 2.327272e+001 1.785634e-001 3.624322e-001 5.331603e-001 7.719070e-001 8.999670e-001 1.014630e+000 1.070953e+000 1.385860e+000 1.212088e+000 1.193340e+000 1.107999e+000 1.118189e+000 1.596585e-001
<GCONST> 8.091947e+001
<STATE> 4
<MEAN> 25
 3.826606e+000 4.635012e+000 2.580414e+000 4.530473e+000 1.910020e+000 2.539170e+000 9.997053e-001 -9.643350e-001 1.018421e+000 1.339538e+000 -3.232822e+000 -5.803022e+000 -1.354963e-002 -3.528719e-001 -4.572521e-001 -4.426898e-001 -1.363188e-001 -4.511579e-001 -2.140541e-001 6.900295e-001 2.909099e-001 -1.927680e-001 1.217948e-001 1.396768e-002 3.444223e-001
<VARIANCE> 25
 2.110197e+001 2.500292e+001 3.455967e+001 6.410058e+001 9.520100e+001 4.599800e+001 9.059451e+001 1.452793e+002 1.046270e+002 4.673895e+001 3.089247e+001 4.902449e+001 1.242048e+000 1.934178e+000 2.743559e+000 4.871662e+000 4.798830e+000 2.773982e+000 4.576456e+000 5.693867e+000 3.678235e+000 3.178469e+000 2.796639e+000 3.221530e+000 2.290375e+000
<GCONST> 1.084098e+002
<TRANSP> 5
 0.000000e+000 1.000000e+000 0.000000e+000 0.000000e+000 0.000000e+000
 0.000000e+000 7.363753e-001 2.636247e-001 0.000000e+000 0.000000e+000
 0.000000e+000 0.000000e+000 8.587164e-001 1.412836e-001 0.000000e+000
 0.000000e+000 0.000000e+000 0.000000e+000 6.161696e-001 3.838304e-001
 0.000000e+000 0.000000e+000 0.000000e+000 0.000000e+000 0.000000e+000
<ENDHMM>
~h "n"
<BEGINHMM>
<NUMSTATES> 5
<STATE> 2
<MEAN> 25
 6.970354e+000 -1.836972e+000 -9.891617e-001 -1.293134e+000 -2.400130e+000 -1.492054e+000 -1.411010e+000 -1.462045e+000 6.439859e-001 -2.275325e+000 -2.039385e+000 -4.058372e-001 -2.920365e-001 1.455780e+000 7.682140e-001 1.366214e+000 2.985173e-001 5.656008e-001 2.299023e-001 -1.027173e+000 -1.084977e-001 3.665955e-001 -8.682255e-001 -7.307054e-001 -1.381412e+000
<VARIANCE> 25
 1.428430e+001 3.920326e+001 4.182671e+001 3.728083e+001 4.758450e+001 3.282999e+001 5.609562e+001 5.562388e+001 4.010375e+001 2.767167e+001 4.962388e+001 3.486390e+001 5.592050e-001 2.024427e+000 2.390326e+000 2.213415e+000 3.654742e+000 2.625131e+000 3.552698e+000 4.214722e+000 2.507157e+000 2.633941e+000 2.502973e+000 3.096280e+000 1.064186e+000
<GCONST> 1.002492e+002
<STATE> 3
<MEAN> 25
 4.252116e+000 4.173042e+000 7.859444e-001 5.059936e+000 3.505026e+000 3.762138e+000 2.013481e+000 -2.569147e+000 -1.405325e+000 -4.154630e-001 -4.082160e+000 -3.352105e+000 -5.120218e-001 3.395447e-001 2.818816e-001 2.559628e-001 3.438063e-001 3.919559e-001 2.440886e-001 4.186198e-002 -1.081805e-001 1.051865e-001 -7.224555e-002 7.140719e-002 -5.814355e-001
<VARIANCE> 25
 1.269727e+001 2.182566e+001 1.698693e+001 2.732791e+001 8.619604e+001 6.161381e+001 6.669158e+001 4.157163e+001 2.400908e+001 3.863523e+001 3.238126e+001 3.133777e+001 2.381245e-001 7.751755e-001 8.977405e-001 1.210894e+000 1.675615e+000 1.534251e+000 1.785284e+000 1.802259e+000 1.686388e+000 1.527866e+000 1.763028e+000 1.943264e+000 2.664573e-001
<GCONST> 8.933378e+001
<STATE> 4
<MEAN> 25
 -2.241080e+000 2.777357e+000 9.598413e-001 1.844351e+000 1.409845e+000 3.037115e+000 1.872651e+000 -7.221149e-001 1.117484e+000 1.463384e+000 -1.204093e+000 -1.201263e+000 -1.780227e-001 -3.974463e-002 -3.934342e-002 6.729291e-002 5.219394e-002 4.937851e-003 4.466319e-002 -2.259805e-002 5.128242e-002 1.398726e-001 1.257967e-001 1.009551e-001 -1.387720e-001
<VARIANCE> 25
 1.495004e+001 1.027821e+001 1.470945e+001 1.905951e+001 1.842064e+001 2.026901e+001 2.830064e+001 2.873475e+001 2.518097e+001 2.135736e+001 2.187058e+001 1.736836e+001 2.081630e-001 3.872626e-001 4.765535e-001 4.942628e-001 6.654516e-001 9.792403e-001 1.162032e+000 1.221168e+000 1.377514e+000 1.173432e+000 1.047186e+000 9.137811e-001 1.405766e-001
<GCONST> 7.590047e+001
<TRANSP> 5
 0.000000e+000 1.000000e+000 0.000000e+000 0.000000e+000 0.000000e+000
 0.000000e+000 7.048560e-001 2.951440e-001 0.000000e+000 0.000000e+000
 0.000000e+000 0.000000e+000 8.154399e-001 1.845601e-001 0.000000e+000
 0.000000e+000 0.000000e+000 0.000000e+000 8.627225e-001 1.372775e-001
 0.000000e+000 0.000000e+000 0.000000e+000 0.000000e+000 0.000000e+000
<ENDHMM>
~h "o"
<BEGINHMM>
<NUMSTATES> 5
<STATE> 2
<MEAN> 25
 1.388950e+000 2.128084e-001 2.230517e+000 -3.253695e+000 -1.946196e+000 -1.658288e+000 -2.576539e+000 5.971784e-002 1.112611e+000 -1.248810e+000 6.895414e-001 -4.550830e-001 1.827003e+000 -1.793678e-001 4.649313e-001 -1.216343e+000 -1.329903e+000 -1.159751e+000 -1.529734e+000 -2.788637e-001 4.656181e-001 -7.560843e-001 -2.380150e-001 -2.506601e-001 2.285908e+000
<VARIANCE> 25
 3.587469e+001 3.506995e+001 3.426721e+001 8.332482e+001 7.211270e+001 6.028089e+001 6.296231e+001 4.738601e+001 8.139307e+001 3.491988e+001 3.090114e+001 2.605456e+001 3.341640e+000 4.568548e+000 3.524331e+000 8.935340e+000 6.164042e+000 8.610713e+000 5.377827e+000 5.488210e+000 1.006836e+001 3.603142e+000 2.952588e+000 2.525975e+000 5.064591e+000
<GCONST> 1.128175e+002
<STATE> 3
<MEAN> 25
 7.472782e+000 2.553793e+000 2.346642e+000 -4.522619e+000 -1.202388e+001 -9.879086e+000 -4.923244e+000 4.241944e+000 5.299970e+000 -4.285841e+000 -2.417193e+000 -5.203283e-001 -2.781535e-002 2.234862e-002 -4.665020e-001 -7.300613e-002 3.614305e-001 2.787401e-001 2.483481e-001 1.905833e-002 -1.263397e-001 2.381840e-001 1.687179e-001 1.573522e-001 -1.986589e-001
<VARIANCE> 25
 6.044706e+000 2.989963e+001 2.586114e+001 3.566319e+001 4.405376e+001 4.112411e+001 3.286829e+001 4.097825e+001 1.315240e+002 4.208464e+001 2.111818e+001 1.986815e+001 3.656782e-001 1.397589e+000 9.264821e-001 1.025934e+000 2.222409e+000 2.157745e+000 1.685721e+000 2.716538e+000 3.004083e+000 1.655131e+000 1.412506e+000 1.263294e+000 8.846530e-001
<GCONST> 9.176407e+001
<STATE> 4
<MEAN> 25
 7.651680e+000 8.616371e-001 -2.569803e+000 -1.050593e+001 -4.104145e-001 2.499661e+000 -1.042954e+001 -6.953918e+000 -2.901060e+000 1.684828e+000 4.769565e+000 -1.711772e+000 -2.177220e-001 4.332589e-003 -2.673153e-002 3.715976e-001 3.499896e-001 1.917203e-002 2.407138e-001 -9.406148e-002 -5.302492e-002 2.268880e-001 1.012611e-001 -2.622816e-002 -3.224584e-001
<VARIANCE> 25
 1.019343e+001 2.756420e+001 3.176541e+001 1.148845e+002 5.206561e+001 6.408109e+001 6.331609e+001 4.955924e+001 5.243506e+001 4.917871e+001 3.828548e+001 2.406116e+001 3.416536e-001 8.747396e-001 1.019587e+000 2.207116e+000 1.602883e+000 1.895185e+000 1.941676e+000 1.802751e+000 1.876757e+000 1.581809e+000 1.871121e+000 1.237937e+000 5.370193e-001
<GCONST> 9.390582e+001
<TRANSP> 5
 0.000000e+000 1.000000e+000 0.000000e+000 0.000000e+000 0.000000e+000
 0.000000e+000 7.677330e-001 2.322670e-001 0.000000e+000 0.000000e+000
 0.000000e+000 0.000000e+000 8.343399e-001 1.656601e-001 0.000000e+000
 0.000000e+000 0.000000e+000 0.000000e+000 8.555663e-001 1.444337e-001
 0.000000e+000 0.000000e+000 0.000000e+000 0.000000e+000 0.000000e+000
<ENDHMM>
~h "p"
<BEGINHMM>
<NUMSTATES> 5
<STATE> 2
<MEAN> 25
 8.640711e-001 1.884553e+000 -2.115682e+000 -2.117794e+000 1.191839e-001 8.108354e-001 6.316738e-001 1.317084e+000 9.679259e-002 1.814665e+000 1.291540e+000 -3.745664e-002 -8.337952e-001 2.355313e-002 -8.691546e-002 2.480013e-001 -7.680585e-002 2.531946e-001 3.530225e-001 -5.634356e-002 -6.219968e-002 2.797139e-001 2.673337e-001 1.272155e-001 -1.007169e+000
<VARIANCE> 25
 2.370778e+001 4.649662e+001 4.149122e+001 4.535418e+001 4.000845e+001 4.509037e+001 3.683681e+001 3.351801e+001 4.017061e+001 4.883155e+001 4.346404e+001 2.701950e+001 7.964889e-001 2.841843e+000 1.990944e+000 2.350293e+000 1.720575e+000 2.938026e+000 2.438308e+000 2.437328e+000 3.308429e+000 3.874037e+000 2.578430e+000 1.807092e+000 1.624684e+000
<GCONST> 1.000961e+002
<STATE> 3
<MEAN> 25
 -3.221133e+000 3.233843e+000 -2.156360e+000 -1.229405e+000 -1.604351e-002 5.466093e-001 3.248205e-002 -1.741162e+000 -1.705698e+000 3.021530e+000 1.229752e+000 1.291100e+000 -3.977599e-001 -9.426080e-002 -9.389117e-002 1.813198e-001 1.522430e-001 -1.044923e-002 -6.260140e-002 -2.087833e-001 -1.182165e-001 4.813541e-002 -4.596989e-002 5.621001e-002 -3.376966e-001
<VARIANCE> 25
 1.879602e+001 7.802310e+000 1.157354e+001 2.823142e+001 2.149749e+001 3.362491e+001 3.757358e+001 2.879704e+001 2.806823e+001 2.179053e+001 1.726410e+001 1.484865e+001 2.954502e-001 4.411104e-001 6.213537e-001 7.897943e-001 9.907084e-001 2.028577e+000 1.660318e+000 1.663948e+000 1.736713e+000 1.346606e+000 1.313942e+000 1.432281e+000 1.697374e-001
<GCONST> 8.092960e+001
<STATE> 4
<MEAN> 25
 -3.832339e+000 6.396336e-001 9.226961e-002 2.060708e+000 1.302563e+000 3.361557e+000 3.598831e+000 1.617553e+000 3.930793e+000 3.133369e+000 1.467283e+000 2.453693e-001 -5.834397e-002 -1.351114e-002 5.163451e-005 1.331725e-002 3.274379e-002 5.149998e-002 6.744759e-003 1.240833e-002 3.813396e-002 2.918086e-002 2.887237e-002 2.226739e-002 -4.444198e-002
<VARIANCE> 25
 3.007093e+000 4.542158e+000 7.242562e+000 1.067722e+001 7.589984e+000 1.196733e+001 1.155105e+001 1.141975e+001 1.215791e+001 1.284321e+001 9.432560e+000 8.446577e+000 9.582196e-002 2.654855e-001 3.559107e-001 3.732329e-001 5.393421e-001 6.528738e-001 7.788185e-001 8.989674e-001 9.809929e-001 1.016526e+000 8.691610e-001 7.989561e-001 5.970699e-002
<GCONST> 6.145311e+001
<TRANSP> 5
 0.000000e+000 1.000000e+000 0.000000e+000 0.000000e+000 0.000000e+000
 0.000000e+000 7.200602e-001 2.799398e-001 0.000000e+000 0.000000e+000
 0.000000e+000 0.000000e+000 8.072277e-001 1.927723e-001 0.000000e+000
 0.000000e+000 0.000000e+000 0.000000e+000 9.249737e-001 7.502628e-002
 0.000000e+000 0.000000e+000 0.000000e+000 0.000000e+000 0.000000e+000
<ENDHMM>
~h "r"
<BEGINHMM>
<NUMSTATES> 5
<STATE> 2
<MEAN> 25
 6.279846e+000 -6.465840e+000 1.103985e+000 -5.767212e+000 -5.563188e+000 -1.055426e+000 -5.100994e+000 4.126053e-001 -6.375180e-001 1.632420e-001 -3.357488e-001 -2.013394e+000 -1.034212e-001 1.177979e-001 1.163779e-001 4.161087e-001 1.255856e-002 8.186023e-002 1.527313e-001 -1.574216e-001 -4.245957e-002 -2.284823e-001 -1.782792e-001 1.142205e-001 -3.239508e-001
<VARIANCE> 25
 1.807478e+001 4.988403e+001 6.190137e+001 7.496152e+001 6.341904e+001 6.739680e+001 5.341131e+001 6.927905e+001 6.636748e+001 4.307829e+001 5.182407e+001 4.049307e+001 1.139728e+000 2.922280e+000 2.306059e+000 4.773127e+000 3.784315e+000 3.709375e+000 3.377676e+000 4.737280e+000 3.467360e+000 2.527664e+000 2.559175e+000 2.300771e+000 2.193994e+000
<GCONST> 1.071228e+002
<STATE> 3
<MEAN> 25
 3.576529e+000 7.023983e-001 -3.003338e+000 -1.810769e+000 5.467378e-001 2.495925e+000 -3.631642e-001 -1.588413e+000 -1.356352e+000 -2.201471e+000 -9.978402e-001 1.968660e+000 -7.857339e-001 6.272345e-001 -1.079814e-001 6.417349e-001 4.468718e-001 1.907223e-001 6.262291e-001 2.422114e-001 2.237069e-001 3.888386e-001 9.119459e-002 1.893966e-001 -1.311249e+000
<VARIANCE> 25
 2.139023e+001 2.084187e+001 3.071177e+001 4.030090e+001 3.774235e+001 5.573775e+001 4.456129e+001 3.358375e+001 4.306682e+001 3.468111e+001 3.783239e+001 3.385491e+001 4.835493e-001 1.213122e+000 1.677351e+000 1.689703e+000 2.061739e+000 2.425812e+000 2.708296e+000 2.124790e+000 2.831570e+000 2.453920e+000 2.512762e+000 1.865447e+000 8.211982e-001
<GCONST> 9.574887e+001
<STATE> 4
<MEAN> 25
 -3.066518e+000 1.563282e+000 -2.071713e+000 2.837439e+000 1.620350e+000 2.469490e+000 4.222549e+000 1.853282e+000 3.625546e+000 2.768892e+000 1.902206e+000 1.211973e+000 -1.486205e-001 3.096071e-002 4.264950e-002 7.441302e-002 3.937092e-002 4.709710e-002 9.366379e-002 2.139201e-002 5.189296e-002 6.169207e-002 2.014371e-002 -7.158875e-003 -1.366255e-001
<VARIANCE> 25
 8.785640e+000 7.333953e+000 1.368644e+001 3.061794e+001 1.627888e+001 1.607941e+001 1.810387e+001 1.736331e+001 2.203347e+001 2.010320e+001 1.471266e+001 1.112705e+001 1.656184e-001 3.166763e-001 4.723587e-001 6.383230e-001 7.746026e-001 9.195234e-001 1.173714e+000 1.162924e+000 1.254525e+000 1.248268e+000 1.077568e+000 9.299328e-001 1.211088e-001
<GCONST> 7.282442e+001
<TRANSP> 5
 0.000000e+000 1.000000e+000 0.000000e+000 0.000000e+000 0.000000e+000
 0.000000e+000 8.157392e-001 1.842609e-001 0.000000e+000 0.000000e+000
 0.000000e+000 0.000000e+000 8.069654e-001 1.930346e-001 0.000000e+000
 0.000000e+000 0.000000e+000 0.000000e+000 9.066942e-001 9.330584e-002
 0.000000e+000 0.000000e+000 0.000000e+000 0.000000e+000 0.000000e+000
<ENDHMM>
~h "s"
<BEGINHMM>
<NUMSTATES> 5
<STATE> 2
<MEAN> 25
 -3.591583e+000 2.817709e-001 1.037476e+000 -3.576602e-001 2.095709e+000 -6.860763e-001 3.847298e+000 -7.556032e-001 7.075121e-001 7.779350e-001 5.259313e-001 2.733217e-001 -2.233328e+000 5.242614e-001 1.341055e+000 1.949922e-001 -4.251186e-001 5.256889e-001 1.500034e+000 -4.408009e-001 2.306753e-001 4.123575e-001 7.917036e-001 -6.593691e-002 2.111016e-001
<VARIANCE> 25
 6.514837e+001 9.904152e+001 7.281771e+001 7.333490e+001 6.821806e+001 5.423635e+001 8.210695e+001 4.871688e+001 7.663352e+001 6.204543e+001 4.530976e+001 2.658817e+001 4.345441e+000 9.686858e+000 1.109350e+001 5.270213e+000 6.087800e+000 4.025941e+000 5.944625e+000 4.173059e+000 3.955911e+000 4.377355e+000 4.130708e+000 2.203239e+000 2.618704e+000
<GCONST> 1.156143e+002
<STATE> 3
<MEAN> 25
 -1.122828e+001 -1.208697e+001 2.021744e+001 -5.747380e+000 -1.019821e+001 3.673698e+000 6.751188e+000 -3.546826e+000 -6.417656e+000 2.136794e-001 6.088091e+000 -6.109083e-002 -3.950717e-001 -2.990751e-002 -2.156550e-001 -1.463092e-001 4.455287e-001 1.519545e-001 -1.092056e-001 4.360975e-002 4.128966e-001 -1.431517e-002 2.776651e-002 1.830294e-002 6.516217e-002
<VARIANCE> 25
 7.079943e+001 1.368718e+002 1.655483e+002 4.853228e+001 8.836754e+001 9.805779e+001 3.943216e+001 3.994182e+001 6.104829e+001 6.153741e+001 2.948521e+001 3.243845e+001 5.828971e+000 3.869169e+000 7.210172e+000 2.733670e+000 2.446327e+000 3.258574e+000 2.870155e+000 2.451568e+000 2.567331e+000 2.487632e+000 2.130079e+000 1.617293e+000 1.605292e+000
<GCONST> 1.093293e+002
<STATE> 4
<MEAN> 25
 -1.438254e+001 2.560410e+000 3.537349e+000 -2.639169e+000 4.592745e+000 5.154704e-001 6.845110e+000 8.522501e-001 1.650773e+000 3.695211e+000 2.629415e+000 8.301373e-001 -1.652384e-002 -6.865451e-002 -5.148967e-002 2.557676e-002 8.910328e-002 6.328300e-002 -5.804214e-002 1.005239e-001 1.204404e-001 8.483346e-002 -5.123334e-002 3.681220e-002 -2.175090e-001
<VARIANCE> 25
 4.674304e+001 5.738943e+001 7.272607e+001 6.044341e+001 3.029066e+001 3.526335e+001 2.687142e+001 3.640602e+001 3.193496e+001 3.168060e+001 1.694516e+001 1.518154e+001 1.384451e+000 7.325575e-001 1.077629e+000 1.172050e+000 1.069691e+000 1.298721e+000 1.469033e+000 1.650243e+000 1.608027e+000 1.400098e+000 1.245592e+000 1.185893e+000 3.538817e-001
<GCONST> 9.018356e+001
<TRANSP> 5
 0.000000e+000 1.000000e+000 0.000000e+000 0.000000e+000 0.000000e+000
 0.000000e+000 7.196862e-001 2.803138e-001 0.000000e+000 0.000000e+000
 0.000000e+000 0.000000e+000 7.443195e-001 2.556804e-001 0.000000e+000
 0.000000e+000 0.000000e+000 0.000000e+000 8.846343e-001 1.153657e-001
 0.000000e+000 0.000000e+000 0.000000e+000 0.000000e+000 0.000000e+000
<ENDHMM>
~h "t"
<BEGINHMM>
<NUMSTATES> 5
<STATE> 2
<MEAN> 25
 7.940717e-001 1.233005e+000 -7.369970e-001 -1.790453e+000 4.177161e-001 -1.226347e+000 -1.206865e+000 -3.123603e-001 2.250731e+000 1.161725e+000 -1.435046e+000 3.782631e-001 -4.344083e-001 5.550009e-001 -1.964612e-001 8.030664e-003 2.594380e-001 2.890930e-001 -7.389044e-003 -3.189212e-001 2.191814e-001 4.253684e-001 1.549705e-001 -2.307830e-001 -7.007396e-001
<VARIANCE> 25
 2.467378e+001 2.529968e+001 2.219489e+001 6.252425e+001 3.270309e+001 3.459970e+001 5.496369e+001 4.783052e+001 5.563222e+001 4.344407e+001 3.690533e+001 3.135513e+001 2.199669e+000 2.424739e+000 2.281969e+000 6.103383e+000 2.686628e+000 3.203195e+000 6.223171e+000 3.466173e+000 4.794715e+000 2.733794e+000 3.162089e+000 2.819998e+000 7.119457e+000
<GCONST> 1.056242e+002
<STATE> 3
<MEAN> 25
 6.128579e-001 1.660262e+000 -1.127454e+000 -1.150182e+000 -6.179025e-001 -1.219814e+000 -2.227799e-001 1.309210e+000 2.079489e+000 1.076068e+000 -3.430720e+000 -3.194479e+000 -7.451980e-001 3.968194e-001 -6.222757e-001 6.148137e-001 -2.878523e-002 6.619027e-001 7.088891e-001 -1.522970e-003 -2.107111e-001 2.469530e-001 2.518547e-001 1.923923e-001 -1.794339e+000
<VARIANCE> 25
 1.610060e+001 1.964951e+001 2.737010e+001 4.764440e+001 2.932447e+001 3.527192e+001 4.836523e+001 4.886766e+001 3.473859e+001 3.704047e+001 3.765105e+001 3.968306e+001 1.058793e+000 1.278894e+000 1.452077e+000 3.018589e+000 2.065231e+000 2.523914e+000 4.037718e+000 3.521998e+000 4.357500e+000 3.203271e+000 3.099415e+000 2.360631e+000 2.148362e+000
<GCONST> 9.953320e+001
<STATE> 4
<MEAN> 25
 -3.693650e+000 3.173252e+000 -2.607393e+000 4.863798e+000 7.846543e-001 2.563712e+000 2.839632e+000 2.811255e-001 8.800769e-001 1.429832e+000 6.549233e-001 2.093438e+000 -1.688801e-001 -4.653632e-002 -6.726534e-003 7.352019e-002 3.832320e-002 4.445123e-002 1.164839e-001 -1.799120e-002 -2.723215e-002 5.730915e-002 1.115528e-001 9.612520e-002 -1.404726e-001
<VARIANCE> 25
 8.270483e+000 8.969512e+000 1.322223e+001 4.976377e+001 1.619637e+001 2.184259e+001 2.866993e+001 2.306772e+001 2.888742e+001 2.555186e+001 1.828129e+001 1.562020e+001 2.962743e-001 4.847212e-001 6.887912e-001 1.065611e+000 1.150261e+000 1.573438e+000 1.791254e+000 1.814844e+000 1.925146e+000 1.867696e+000 1.445307e+000 1.486570e+000 2.881424e-001
<GCONST> 8.168658e+001
<TRANSP> 5
 0.000000e+000 1.000000e+000 0.000000e+000 0.000000e+000 0.000000e+000
 0.000000e+000 2.047793e-001 7.952207e-001 0.000000e+000 0.000000e+000
 0.000000e+000 0.000000e+000 5.602000e-001 4.398000e-001 0.000000e+000
 0.000000e+000 0.000000e+000 0.000000e+000 9.002285e-001 9.977149e-002
 0.000000e+000 0.000000e+000 0.000000e+000 0.000000e+000 0.000000e+000
<ENDHMM>
~h "u"
<BEGINHMM>
<NUMSTATES> 5
<STATE> 2
<MEAN> 25
 1.400345e+000 1.333390e+000 3.452043e+000 -5.390065e-001 -1.012022e+000 -6.802315e-001 -2.315811e+000 -1.377586e+000 -9.514284e-001 -2.478431e+000 -1.783510e-001 -1.032235e+000 1.394409e+000 4.984729e-001 8.982986e-001 -8.344781e-001 -7.225813e-001 -5.307764e-001 -1.558100e+000 -4.692264e-001 -8.403493e-001 -1.057987e+000 -5.333278e-002 -3.648577e-001 1.753924e+000
<VARIANCE> 25
 3.670039e+001 5.457415e+001 4.055376e+001 7.218375e+001 5.512287e+001 5.744875e+001 7.381642e+001 5.704638e+001 6.805439e+001 7.749799e+001 4.885146e+001 3.282541e+001 2.867387e+000 7.090837e+000 4.114779e+000 8.136763e+000 4.463007e+000 8.553875e+000 7.785823e+000 6.266491e+000 8.260040e+000 7.029996e+000 4.855723e+000 4.042370e+000 5.210936e+000
<GCONST> 1.166298e+002
<STATE> 3
<MEAN> 25
 8.161278e+000 6.475245e+000 2.426946e+000 -8.549345e+000 -6.322867e+000 2.541801e+000 -9.956278e+000 -5.363711e-001 -7.275566e+000 -2.331816e+000 3.492668e+000 1.588430e-001 8.247501e-002 4.464658e-001 -9.032588e-002 -1.521266e-001 -1.367026e-001 3.042842e-001 8.741629e-002 3.884486e-002 -2.708270e-001 -1.771894e-001 3.075335e-002 2.570012e-001 -3.517927e-001
<VARIANCE> 25
 8.450564e+000 2.968290e+001 4.768794e+001 9.898043e+001 3.651775e+001 8.167283e+001 4.566587e+001 6.611906e+001 1.496231e+002 9.865201e+001 5.232641e+001 3.032604e+001 3.520376e-001 1.070256e+000 1.107937e+000 2.061018e+000 2.258196e+000 2.738855e+000 2.315648e+000 2.274993e+000 2.518742e+000 2.600484e+000 1.957691e+000 1.462462e+000 4.271486e-001
<GCONST> 9.832796e+001
<STATE> 4
<MEAN> 25
 5.737699e+000 7.339739e+000 3.716085e+000 -4.431151e+000 -5.243789e+000 -1.757745e+000 -7.483121e+000 -4.892774e+000 -4.836794e+000 -6.198206e+000 -9.934409e-001 -1.295454e+000 -1.727891e-001 -1.756490e-001 -1.623310e-001 4.244114e-001 2.301507e-001 1.748798e-002 2.561575e-001 -8.808272e-002 1.731238e-001 2.613783e-001 -1.394501e-001 -1.126648e-001 -2.207670e-001
<VARIANCE> 25
 1.004093e+001 1.566839e+001 3.203511e+001 5.223826e+001 2.947244e+001 4.483086e+001 3.809813e+001 3.395718e+001 3.117747e+001 3.368036e+001 4.485778e+001 2.281021e+001 2.457583e-001 5.300369e-001 6.469321e-001 1.525049e+000 1.337798e+000 1.594196e+000 1.471325e+000 1.517230e+000 1.595758e+000 1.779160e+000 1.587189e+000 1.300685e+000 3.186088e-001
<GCONST> 8.680012e+001
<TRANSP> 5
 0.000000e+000 1.000000e+000 0.000000e+000 0.000000e+000 0.000000e+000
 0.000000e+000 7.645979e-001 2.354021e-001 0.000000e+000 0.000000e+000
 0.000000e+000 0.000000e+000 8.155393e-001 1.844607e-001 0.000000e+000
 0.000000e+000 0.000000e+000 0.000000e+000 8.561644e-001 1.438356e-001
 0.000000e+000 0.000000e+000 0.000000e+000 0.000000e+000 0.000000e+000
<ENDHMM>
~h "w"
<BEGINHMM>
<NUMSTATES> 5
<STATE> 2
<MEAN> 25
 7.291547e+000 1.658779e+000 -1.470969e+000 -6.110044e+000 -1.005688e+001 -6.617329e+000 -1.235961e+000 4.719427e+000 5.713315e+000 -5.670074e+000 -4.213346e+000 1.015714e+000 6.623141e-002 9.253620e-002 -3.564413e-001 4.251230e-002 -6.795309e-002 -2.098344e-001 2.821974e-001 7.970708e-001 2.336603e-001 -6.274137e-002 4.564362e-002 1.599239e-001 -1.558835e-001
<VARIANCE> 25
 5.189513e+000 6.703600e+001 2.932186e+001 2.431324e+001 2.258115e+001 5.918146e+001 2.946241e+001 3.081707e+001 8.177516e+001 1.758159e+001 1.672064e+001 1.821745e+001 2.735819e-001 3.702595e+000 2.531448e+000 9.025311e-001 2.090144e+000 2.484752e+000 2.291550e+000 3.140415e+000 2.509023e+000 1.879689e+000 1.248602e+000 1.464428e+000 7.655739e-001
<GCONST> 9.171438e+001
<STATE> 3
<MEAN> 25
 2.535429e+000 6.762131e-001 -2.886209e+000 -3.827625e+000 -4.169295e+000 2.037876e+000 7.306321e+000 8.738491e+000 3.617481e+000 -1.015109e+000 1.631541e+000 2.844141e+000 -8.935622e-001 3.561914e-001 -1.480579e-001 4.124815e-002 6.271292e-001 3.358566e-001 -1.955265e-001 -6.778826e-001 -4.509321e-001 8.818411e-001 3.483436e-001 1.228202e-001 -9.214931e-001
<VARIANCE> 25
 2.955284e+001 4.564036e+001 4.403125e+001 2.270928e+001 4.078117e+001 6.738414e+001 3.322823e+001 3.801628e+001 4.840645e+001 4.074068e+001 5.719181e+001 2.221598e+001 4.098132e-001 1.269099e+000 1.256602e+000 1.157300e+000 1.434699e+000 4.068602e+000 2.527705e+000 3.083675e+000 3.339690e+000 1.994314e+000 2.346212e+000 1.508491e+000 3.672915e-001
<GCONST> 9.555264e+001
<STATE> 4
<MEAN> 25
 -6.457275e+000 1.300530e+000 -1.504234e+000 2.492513e+000 2.622134e+000 -8.360204e-001 3.842611e+000 -8.149475e-001 1.549639e-001 4.703795e+000 2.178779e+000 1.305604e+000 -8.866388e-002 -8.248787e-002 3.096652e-002 7.225308e-002 9.805152e-002 -1.417633e-002 -2.547943e-002 -3.958502e-002 -1.046330e-002 4.180533e-002 8.483734e-003 -6.056305e-003 -2.206223e-002
<VARIANCE> 25
 1.095637e+001 1.918296e+001 2.258621e+001 2.799851e+001 1.513619e+001 3.313179e+001 3.462541e+001 1.450988e+001 3.635648e+001 1.371371e+001 2.122229e+001 9.236206e+000 8.355194e-002 3.605531e-001 4.085133e-001 4.200071e-001 5.782990e-001 1.145143e+000 1.175995e+000 1.236391e+000 1.377830e+000 1.060445e+000 1.097433e+000 9.747390e-001 6.442660e-002
<GCONST> 7.407273e+001
<TRANSP> 5
 0.000000e+000 1.000000e+000 0.000000e+000 0.000000e+000 0.000000e+000
 0.000000e+000 8.581089e-001 1.418912e-001 0.000000e+000 0.000000e+000
 0.000000e+000 0.000000e+000 8.438089e-001 1.561911e-001 0.000000e+000
 0.000000e+000 0.000000e+000 0.000000e+000 9.357617e-001 6.423827e-002
 0.000000e+000 0.000000e+000 0.000000e+000 0.000000e+000 0.000000e+000
<ENDHMM>
~h "y"
<BEGINHMM>
<NUMSTATES> 5
<STATE> 2
<MEAN> 25
 5.097770e+000 -6.071078e+000 6.021361e-001 4.147296e+000 2.177526e+000 -8.471492e+000 -9.306002e+000 -4.657282e+000 -3.431514e+000 -1.392405e+000 3.815039e+000 8.921570e-003 -4.205919e-001 5.271035e-001 1.548200e+000 1.446839e+000 2.671724e-001 -5.724574e-001 -9.165879e-001 1.144741e-001 -2.089096e-002 -7.185156e-001 -5.169812e-001 -1.096434e+000 -4.059601e-001
<VARIANCE> 25
 6.269188e+000 2.154568e+001 3.275506e+001 7.370135e+001 4.107871e+001 2.870328e+001 4.889906e+001 4.811257e+001 2.432238e+001 3.721131e+001 4.187842e+001 3.122067e+001 2.137039e-001 5.544153e-001 6.350637e-001 1.431424e+000 2.332882e+000 1.832753e+000 2.917014e+000 1.765471e+000 2.096962e+000 2.813529e+000 3.427641e+000 1.940829e+000 2.477026e-001
<GCONST> 9.059942e+001
<STATE> 3
<MEAN> 25
 3.342845e+000 -3.825394e+000 6.293922e+000 9.233625e+000 2.687972e+000 -1.000549e+001 -1.125154e+001 -5.179786e+000 -4.286468e+000 -4.259371e+000 -3.106993e-001 -3.528144e+000 2.708746e-001 -2.107440e-001 -7.739328e-001 -8.868755e-001 -4.968081e-001 -1.209102e-001 7.273090e-002 -3.899730e-001 -3.629800e-001 8.091956e-001 9.684786e-001 7.401366e-001 2.929889e-001
<VARIANCE> 25
 5.357068e+000 3.319458e+001 3.451968e+001 7.385639e+001 5.191335e+001 3.286049e+001 4.150951e+001 5.402953e+001 1.785213e+001 3.056113e+001 5.061708e+001 2.456455e+001 4.375199e-001 9.427240e-001 3.111783e+000 2.648549e+000 2.167700e+000 2.843086e+000 4.390041e+000 2.464472e+000 1.610422e+000 3.110575e+000 3.044052e+000 2.062819e+000 6.285038e-001
<GCONST> 9.596375e+001
<STATE> 4
<MEAN> 25
 9.004873e-001 -7.368296e-001 1.562108e+001 -9.492455e+000 -1.130662e+001 -6.372790e+000 -5.347088e+000 -5.987011e-001 -7.204652e+000 1.231478e+000 2.091073e+000 7.591396e-001 3.267820e-002 -6.186083e-002 -9.042762e-002 -1.375953e-001 -3.041603e-001 6.435928e-002 1.736699e-001 1.550252e-001 3.238115e-002 6.525441e-002 -1.647425e-002 -2.306228e-002 2.818488e-002
<VARIANCE> 25
 9.534203e+000 3.920999e+001 5.645644e+001 2.715486e+001 4.444471e+001 2.971590e+001 4.559378e+001 7.628071e+001 2.792712e+001 2.525872e+001 4.565609e+001 1.966312e+001 5.152689e-001 3.015090e+000 3.322100e+000 1.457616e+000 4.337825e+000 2.098470e+000 3.641102e+000 5.247157e+000 2.485628e+000 2.534158e+000 3.173977e+000 1.653663e+000 1.091624e+000
<GCONST> 9.866709e+001
<TRANSP> 5
 0.000000e+000 1.000000e+000 0.000000e+000 0.000000e+000 0.000000e+000
 0.000000e+000 8.009231e-001 1.990769e-001 0.000000e+000 0.000000e+000
 0.000000e+000 0.000000e+000 8.355092e-001 1.644908e-001 0.000000e+000
 0.000000e+000 0.000000e+000 0.000000e+000 8.979427e-001 1.020572e-001
 0.000000e+000 0.000000e+000 0.000000e+000 0.000000e+000 0.000000e+000
<ENDHMM>
~h "z"
<BEGINHMM>
<NUMSTATES> 5
<STATE> 2
<MEAN> 25
 -5.769275e+000 -1.499048e+000 1.963059e+000 5.524693e+000 -7.616250e-001 -9.387876e-001 8.656341e+000 1.314555e+000 -1.587927e+000 4.698688e+000 -7.068135e-001 1.337764e+000 -5.208272e-002 1.609754e-001 1.036173e-001 2.989455e-001 1.539994e-002 -6.866037e-002 6.591134e-002 -2.126891e-002 -1.043879e-001 -1.267709e-001 7.907844e-002 -1.336395e-001 -1.551067e-001
<VARIANCE> 25
 3.414037e+000 8.976913e+000 3.306822e+001 3.063724e+001 1.132628e+001 1.297688e+001 4.004266e+001 1.938953e+001 2.794904e+001 3.890082e+001 2.811365e+001 1.490030e+001 1.543782e-001 3.822780e-001 8.524854e-001 8.828431e-001 1.110894e+000 1.194545e+000 1.633317e+000 2.239137e+000 2.327816e+000 2.979346e+000 2.296328e+000 1.102693e+000 8.790698e-002
<GCONST> 7.986397e+001
<STATE> 3
<MEAN> 25
 -3.919716e+000 5.181483e+000 3.770455e+000 5.048232e+000 5.560105e+000 2.861123e+000 -7.097518e-001 -5.579695e+000 -1.952156e+000 1.894870e-001 -2.018460e+000 -7.166551e-001 1.633149e-001 1.151124e-001 4.688570e-001 -1.958723e-001 5.107144e-001 -6.229727e-001 -3.445374e-001 -1.422051e-001 -1.147276e+000 7.011496e-001 -2.099014e-002 5.132791e-002 1.821420e-001
<VARIANCE> 25
 2.890581e+000 4.944755e+000 3.356408e+001 2.619275e+001 1.658345e+001 2.751329e+001 2.061258e+001 3.331239e+001 2.693252e+001 2.642180e+001 8.153364e+000 2.328608e+001 4.071997e-001 5.889210e-001 5.689382e-001 1.248524e+000 6.091411e-001 7.542563e-001 1.959621e+000 4.538752e+000 1.563920e+000 1.150046e+000 1.005386e+000 1.976842e+000 7.713372e-002
<GCONST> 7.820376e+001
<STATE> 4
<MEAN> 25
 6.284691e+000 4.639106e+000 3.341430e+000 -6.214577e+000 -6.461384e+000 -7.095173e-001 -5.472279e+000 -2.764187e+000 -1.105825e+001 -3.926606e+000 4.420647e+000 -3.925229e+000 4.833023e-002 -6.399544e-002 -3.642092e-002 6.035885e-002 -4.853183e-002 -1.112345e-001 -1.488620e-002 -4.249841e-002 1.425298e-002 -2.857074e-001 7.957341e-002 5.478124e-002 9.880953e-002
<VARIANCE> 25
 1.669091e+001 3.270807e+001 7.698608e+000 5.113784e+001 4.339791e+001 1.090343e+001 7.732064e+001 2.506506e+001 1.064579e+002 4.929736e+001 1.719848e+001 3.018824e+001 6.498046e-001 8.524195e-001 5.353040e-001 1.675982e+000 1.033121e+000 1.649372e+000 4.200894e+000 1.192138e+000 2.667584e+000 1.759373e+000 1.479479e+000 1.167656e+000 1.316721e+000
<GCONST> 9.058450e+001
<TRANSP> 5
 0.000000e+000 1.000000e+000 0.000000e+000 0.000000e+000 0.000000e+000
 0.000000e+000 9.677069e-001 3.229311e-002 0.000000e+000 0.000000e+000
 0.000000e+000 0.000000e+000 8.576353e-001 1.423648e-001 0.000000e+000
 0.000000e+000 0.000000e+000 0.000000e+000 9.581894e-001 4.181067e-002
 0.000000e+000 0.000000e+000 0.000000e+000 0.000000e+000 0.000000e+000
<ENDHMM>
~h "ai"
<BEGINHMM>
<NUMSTATES> 5
<STATE> 2
<MEAN> 25
 6.990230e+000 -4.881571e+000 2.077815e-001 -4.853077e+000 -1.949201e+000 7.719036e-001 -3.233235e+000 -5.568261e-001 2.275789e+000 -1.849110e+000 -2.623481e+000 3.898923e-001 9.676708e-002 -1.607515e+000 -1.123718e+000 -1.300832e+000 8.785872e-001 -5.641463e-001 5.117456e-001 1.349070e+000 5.815859e-001 -4.462780e-001 7.470421e-001 1.494038e-001 1.426509e+000
<VARIANCE> 25
 1.668215e+001 5.803994e+001 4.375348e+001 7.321913e+001 7.555900e+001 5.287826e+001 8.343183e+001 7.895112e+001 1.182493e+002 7.494733e+001 4.386821e+001 3.314669e+001 1.530039e+000 2.760510e+000 4.049380e+000 5.109503e+000 7.358841e+000 4.223593e+000 4.787775e+000 7.549915e+000 3.841691e+000 4.721874e+000 4.228921e+000 3.183714e+000 1.240159e+000
<GCONST> 1.115598e+002
<STATE> 3
<MEAN> 25
 6.052427e+000 -1.039830e+001 -6.211130e-001 -3.249571e+000 2.957960e+000 -5.617926e+000 -1.340831e+000 3.417040e+000 -2.869446e-001 -3.399519e+000 1.213657e+000 -1.617185e+000 -2.707309e-001 2.058780e-001 8.468367e-001 7.088106e-001 -1.804639e-001 -4.100237e-001 -2.599303e-001 3.698331e-002 -3.941413e-001 2.294930e-001 1.648513e-001 -2.893525e-001 -3.174732e-001
<VARIANCE> 25
 8.143744e+000 1.840314e+001 8.630092e+001 1.554182e+002 7.075534e+001 3.652057e+001 5.582541e+001 3.938583e+001 4.436805e+001 2.662189e+001 6.471462e+001 3.117024e+001 3.169351e-001 7.202109e-001 1.418152e+000 1.384765e+000 2.658747e+000 1.688138e+000 2.190639e+000 1.655041e+000 2.431154e+000 1.877959e+000 1.894429e+000 1.351978e+000 2.269622e-001
<GCONST> 9.366028e+001
<STATE> 4
<MEAN> 25
 -4.273133e-001 -1.220141e-001 8.734700e+000 2.971272e+000 -2.181611e+000 -2.742485e+000 -2.071662e+000 6.200206e-001 -3.918022e+000 1.088242e+000 1.450552e+000 -2.184078e+000 -4.076973e-001 7.928467e-001 -6.212019e-001 2.740721e-001 5.866591e-002 8.011677e-001 2.763034e-001 -4.381668e-001 3.499689e-001 2.418497e-001 -2.904505e-001 2.342850e-001 -1.310358e+000
<VARIANCE> 25
 1.052049e+001 2.152961e+001 7.328938e+001 1.258616e+002 1.300265e+002 4.134710e+001 5.588977e+001 3.500008e+001 4.498567e+001 4.198215e+001 3.639001e+001 2.069956e+001 2.619973e-001 1.054330e+000 2.689459e+000 3.348116e+000 2.099778e+000 1.812584e+000 2.267976e+000 2.082903e+000 2.168798e+000 2.380220e+000 1.919407e+000 1.728769e+000 8.708342e-001
<GCONST> 9.733869e+001
<TRANSP> 5
 0.000000e+000 1.000000e+000 0.000000e+000 0.000000e+000 0.000000e+000
 0.000000e+000 8.151814e-001 1.848185e-001 0.000000e+000 0.000000e+000
 0.000000e+000 0.000000e+000 9.247454e-001 7.525452e-002 0.000000e+000
 0.000000e+000 0.000000e+000 0.000000e+000 9.019374e-001 9.806264e-002
 0.000000e+000 0.000000e+000 0.000000e+000 0.000000e+000 0.000000e+000
<ENDHMM>
~h "au"
<BEGINHMM>
<NUMSTATES> 5
<STATE> 2
<MEAN> 25
 6.526314e+000 -3.436922e+000 -8.370832e+000 -5.487484e+000 -6.219072e+000 -4.992810e+000 3.843004e+000 7.957341e+000 -1.885338e+000 -8.375502e+000 -1.330312e+000 4.201307e+000 1.481752e-001 -3.320476e-001 -3.697638e-001 -2.772911e-002 -3.695647e-001 -4.300259e-001 4.457977e-001 1.000068e+000 1.720422e-001 -4.655764e-001 -9.277938e-002 1.002682e-001 1.373829e-001
<VARIANCE> 25
 3.165233e+000 1.161530e+001 1.829138e+001 1.465230e+001 2.161433e+001 3.112087e+001 2.447453e+001 3.306045e+001 1.364627e+001 2.420239e+001 1.468097e+001 4.271080e+000 1.154498e-001 9.206097e-001 1.059903e+000 5.281667e-001 5.278394e-001 6.566458e-001 1.660191e+000 1.471930e+000 7.625802e-001 9.106671e-001 1.406328e+000 6.878434e-001 1.603840e-001
<GCONST> 7.307215e+001
<STATE> 3
<MEAN> 25
 4.955869e+000 4.671181e-001 -2.523239e+000 -5.652070e+000 -1.119767e+001 -9.572176e+000 2.521747e+000 1.050065e+001 1.613839e+000 -6.291331e+000 -2.492290e+000 1.884622e-001 -4.434883e-001 1.004987e+000 1.065366e+000 -2.468562e-002 1.034027e-001 4.036320e-001 -9.024909e-001 -1.403350e+000 8.144601e-002 8.978595e-001 7.388026e-002 -5.241132e-001 -5.294544e-001
<VARIANCE> 25
 6.681699e+000 1.663301e+001 2.592529e+001 1.480292e+001 1.294967e+001 2.645824e+001 3.107477e+001 4.937858e+001 1.236758e+001 2.969910e+001 1.402826e+001 1.366599e+001 1.564651e-001 2.956265e-001 4.123428e-001 7.475364e-001 1.790394e+000 1.688157e+000 1.079535e+000 1.873689e+000 1.114441e+000 1.445179e+000 1.817178e+000 1.154386e+000 4.020214e-002
<GCONST> 7.650613e+001
<STATE> 4
<MEAN> 25
 8.804470e+000 9.484919e+000 -8.171008e-001 -5.983694e+000 -6.461843e+000 -3.120218e+000 -4.826491e+000 7.716575e+000 1.847764e+000 -6.855309e+000 1.583948e+000 6.454233e+000 -5.889472e-001 6.719056e-001 4.828174e-002 8.839458e-001 4.140953e-001 -5.065428e-003 6.291081e-001 -3.203852e-001 -1.122512e-002 6.393471e-001 8.099624e-002 -1.751852e-001 -1.238953e+000
<VARIANCE> 25
 3.861564e+001 3.336570e+001 9.924038e+001 5.076939e+001 1.595160e+001 4.450070e+001 4.720450e+001 4.198322e+001 8.960818e+001 8.250257e+001 4.217103e+001 3.498486e+001 7.981283e-001 1.583833e+000 1.080276e+000 1.567862e+000 1.300797e+000 2.273512e+000 2.115120e+000 1.821429e+000 2.368745e+000 4.804117e+000 9.444829e-001 8.479555e-001 3.713396e-001
<GCONST> 9.640818e+001
<TRANSP> 5
 0.000000e+000 1.000000e+000 0.000000e+000 0.000000e+000 0.000000e+000
 0.000000e+000 8.951852e-001 1.048147e-001 0.000000e+000 0.000000e+000
 0.000000e+000 0.000000e+000 8.547798e-001 1.452202e-001 0.000000e+000
 0.000000e+000 0.000000e+000 0.000000e+000 8.362401e-001 1.637599e-001
 0.000000e+000 0.000000e+000 0.000000e+000 0.000000e+000 0.000000e+000
<ENDHMM>
~h "ng"
<BEGINHMM>
<NUMSTATES> 5
<STATE> 2
<MEAN> 25
 6.618443e+000 -3.767526e+000 -2.628391e+000 1.023833e+000 -1.394367e+000 -8.775035e-001 4.042801e-001 -4.890092e-001 3.272514e-001 -2.020183e+000 1.425043e+000 -7.975333e-001 -3.041631e-001 1.070797e+000 4.719824e-001 5.257791e-001 5.419816e-001 8.040006e-001 -4.684962e-002 3.345919e-001 3.862599e-001 2.468231e-001 -4.942062e-001 -5.856608e-001 -1.001941e+000
<VARIANCE> 25
 9.953282e+000 3.709192e+001 1.886169e+001 4.257679e+001 2.632893e+001 5.029370e+001 5.699972e+001 6.134389e+001 5.027796e+001 6.313011e+001 4.042425e+001 1.908003e+001 2.698379e-001 1.124897e+000 1.325638e+000 1.222808e+000 2.231657e+000 1.938728e+000 1.884312e+000 1.814645e+000 2.258288e+000 1.954453e+000 2.204548e+000 1.411660e+000 4.733237e-001
<GCONST> 9.246266e+001
<STATE> 3
<MEAN> 25
 3.159441e+000 5.307504e+000 8.151053e-001 5.136837e+000 6.125128e+000 4.343004e+000 3.703511e+000 3.617936e+000 2.453934e+000 6.976528e-001 -1.348199e+000 -2.868887e+000 -6.544157e-001 6.827906e-001 4.468199e-001 3.099055e-001 3.955179e-001 3.144622e-001 2.226889e-001 -9.662766e-002 -1.257918e-002 5.300919e-001 4.717153e-002 1.815390e-001 -8.152121e-001
<VARIANCE> 25
 1.368605e+001 2.851726e+001 2.028460e+001 4.648851e+001 4.738166e+001 2.543020e+001 4.585004e+001 3.569567e+001 2.240659e+001 4.200906e+001 2.923917e+001 3.103806e+001 2.509076e-001 8.005382e-001 1.122426e+000 1.124931e+000 1.440081e+000 1.757011e+000 2.157061e+000 1.618550e+000 1.433644e+000 1.813563e+000 1.485403e+000 1.857456e+000 1.448455e-001
<GCONST> 8.776041e+001
<STATE> 4
<MEAN> 25
 -2.711428e+000 3.153586e+000 -9.541845e-002 3.972428e+000 2.494172e+000 3.331472e+000 4.353528e+000 1.735959e+000 2.218052e+000 2.165462e+000 6.623865e-001 -2.927040e-003 -2.085346e-001 -1.564474e-001 -1.419712e-001 -8.199938e-002 -1.056316e-001 -1.097860e-001 3.737377e-002 -1.642178e-002 6.559023e-003 1.598694e-001 1.312115e-001 1.265144e-001 -1.376647e-001
<VARIANCE> 25
 9.317618e+000 1.476415e+001 1.376331e+001 2.664246e+001 1.753761e+001 1.250449e+001 1.782413e+001 1.912090e+001 1.991990e+001 2.418290e+001 1.557572e+001 1.430430e+001 1.456277e-001 2.979249e-001 4.656966e-001 5.710167e-001 7.510149e-001 8.811234e-001 1.213616e+000 1.187018e+000 1.245599e+000 1.257767e+000 1.129348e+000 8.636283e-001 8.482563e-002
<GCONST> 7.302777e+001
<TRANSP> 5
 0.000000e+000 1.000000e+000 0.000000e+000 0.000000e+000 0.000000e+000
 0.000000e+000 7.700626e-001 2.299374e-001 0.000000e+000 0.000000e+000
 0.000000e+000 0.000000e+000 8.217030e-001 1.782970e-001 0.000000e+000
 0.000000e+000 0.000000e+000 0.000000e+000 9.142822e-001 8.571775e-002
 0.000000e+000 0.000000e+000 0.000000e+000 0.000000e+000 0.000000e+000
<ENDHMM>
~h "ny"
<BEGINHMM>
<NUMSTATES> 5
<STATE> 2
<MEAN> 25
 -4.026830e+000 1.401625e-002 4.807573e-002 4.044830e+000 5.725278e-001 -3.293586e-001 2.235266e+000 -1.970011e+000 1.536860e+000 2.146195e+000 3.081815e+000 -2.025460e+000 -2.916347e-002 2.337733e-001 2.407195e-001 3.311460e-001 -7.362864e-001 3.270885e-001 1.064323e+000 -8.541014e-001 -8.685156e-002 1.121557e+000 2.574009e-001 -1.530758e-001 -1.582079e-001
<VARIANCE> 25
 5.031789e+001 2.639932e+001 2.132381e+001 1.271886e+001 4.471022e+001 3.003957e+001 5.090171e+001 1.303568e+001 1.950414e+001 3.406982e+001 1.354677e+001 1.395147e+001 1.633304e+000 1.707888e+000 1.170811e+000 1.267519e+000 1.523407e+000 2.001957e+000 4.020205e+000 9.023686e-001 1.599349e+000 2.813997e+000 1.687557e+000 2.319928e+000 1.108419e+000
<GCONST> 9.097887e+001
<STATE> 3
<MEAN> 25
 5.738636e-001 2.807413e+000 -1.260951e+000 4.439894e+000 4.185408e-001 -3.595218e+000 2.868717e+000 -6.022340e+000 -2.566986e+000 5.688061e-001 4.862716e-001 8.344601e-001 2.098360e-001 2.991323e-001 -1.166494e-001 1.605813e-001 -4.987891e-001 -1.523549e-001 8.898146e-001 -7.214399e-002 -9.841430e-002 -3.811330e-001 -5.182812e-001 9.809954e-002 -2.364274e-001
<VARIANCE> 25
 4.354733e+001 1.924402e+001 1.687462e+001 3.156384e+001 3.437866e+001 2.012924e+001 4.631096e+001 1.621531e+001 3.240376e+001 2.098042e+001 1.793349e+001 1.191587e+001 1.331408e-001 1.885661e-001 7.301644e-001 1.189807e+000 5.877135e-001 1.613211e+000 1.734209e+000 1.285711e+000 8.613102e-001 1.709172e+000 1.106958e+000 9.629096e-001 7.862334e-002
<GCONST> 7.883382e+001
<STATE> 4
<MEAN> 25
 -3.873703e+000 2.840965e+000 -1.937820e+000 5.406080e+000 2.580252e+000 1.381009e+000 5.462947e+000 1.801043e+000 4.221659e+000 1.709507e+000 1.917180e+000 1.861828e+000 1.869855e-002 -4.104939e-002 1.110719e-002 1.240175e-001 1.039124e-001 2.283819e-001 1.176052e-002 1.737124e-001 -1.191422e-001 -5.487175e-002 2.341118e-003 -1.090328e-001 -5.849629e-002
<VARIANCE> 25
 5.700496e+000 5.447189e+000 4.080458e+000 1.229684e+001 1.345177e+001 1.316311e+001 1.816410e+001 1.445599e+001 1.229406e+001 1.150069e+001 1.026253e+001 1.278021e+001 1.126528e-001 1.534070e-001 2.763228e-001 4.444143e-001 4.373556e-001 5.460020e-001 1.116216e+000 1.086766e+000 1.002487e+000 8.179139e-001 7.622506e-001 1.122878e+000 4.141425e-002
<GCONST> 6.294063e+001
<TRANSP> 5
 0.000000e+000 1.000000e+000 0.000000e+000 0.000000e+000 0.000000e+000
 0.000000e+000 4.365046e-001 5.634954e-001 0.000000e+000 0.000000e+000
 0.000000e+000 0.000000e+000 7.408710e-001 2.591290e-001 0.000000e+000
 0.000000e+000 0.000000e+000 0.000000e+000 9.247624e-001 7.523752e-002
 0.000000e+000 0.000000e+000 0.000000e+000 0.000000e+000 0.000000e+000
<ENDHMM>
~h "oi"
<BEGINHMM>
<NUMSTATES> 5
<STATE> 2
<MEAN> 25
 -4.412801e-001 5.921137e-001 6.993092e+000 -6.024988e+000 -6.546976e+000 5.410367e+000 1.906085e-001 -7.584352e+000 -1.501939e+000 8.541546e+000 1.055008e+000 -1.507203e+000 -5.747973e-001 1.907978e-001 -4.718133e-001 6.665787e-001 6.071267e-001 2.350738e-001 1.209048e+000 4.851950e-001 2.139725e-001 -9.242208e-002 -5.288217e-002 8.769280e-003 -7.412240e-001
<VARIANCE> 25
 1.851827e+001 5.383582e+000 3.682137e+001 3.704653e+001 2.932426e+001 1.338817e+001 4.170953e+001 2.288992e+001 3.911055e+001 2.082920e+001 1.508150e+001 6.827223e+000 4.733450e-001 6.184779e-001 1.841229e+000 8.965033e-001 2.408055e+000 1.389603e+000 1.070497e+000 2.012215e+000 2.844681e+000 1.730377e+000 1.846780e+000 8.330847e-001 1.407555e-001
<GCONST> 8.325047e+001
<STATE> 3
<MEAN> 25
 -1.059134e+001 4.905110e+000 -6.247243e+000 -1.793177e+000 3.454317e+000 -4.301723e+000 -4.927244e+000 -6.754219e+000 -7.973190e+000 4.583613e+000 -3.943525e+000 -2.352042e-001 -5.907533e-002 4.619137e-002 3.250066e-002 -3.512121e-002 -3.025481e-002 -1.152939e-001 -1.349561e-002 -7.761826e-002 -1.182300e-001 -9.785221e-003 -3.579580e-002 6.318046e-002 -3.981680e-002
<VARIANCE> 25
 2.919407e+000 2.028276e+000 3.103336e+000 5.976612e+000 6.205834e+000 6.663753e+000 1.532711e+001 1.072713e+001 6.307760e+000 6.886799e+000 7.444047e+000 6.309792e+000 1.010520e-001 1.824897e-001 2.844914e-001 4.732541e-001 6.373204e-001 6.970512e-001 7.843380e-001 1.346301e+000 4.971814e-001 4.473126e-001 6.382790e-001 5.935720e-001 2.134210e-002
<GCONST> 5.401506e+001
<STATE> 4
<MEAN> 25
 -2.572185e+000 4.040571e+000 -8.004610e+000 9.785188e+000 3.292035e-001 1.438162e+000 4.497023e+000 1.110049e+000 7.478644e-001 -3.015381e+000 -1.291924e+000 4.804571e+000 9.506267e-003 9.831628e-003 -2.176967e-002 5.008089e-002 9.479872e-003 1.207842e-003 5.282115e-002 4.596965e-002 -2.827438e-002 1.341230e-002 -4.169486e-002 1.566687e-002 -1.634658e-002
<VARIANCE> 25
 2.398153e+000 3.503934e+000 6.642383e+000 1.393408e+001 1.257845e+001 1.768694e+001 1.884649e+001 2.101743e+001 1.447268e+001 2.197192e+001 1.356688e+001 1.354025e+001 1.926632e-001 3.819793e-001 5.992907e-001 1.126474e+000 1.488711e+000 1.906060e+000 2.576405e+000 2.692277e+000 1.221076e+000 2.122769e+000 1.378269e+000 1.853462e+000 6.215272e-002
<GCONST> 7.405493e+001
<TRANSP> 5
 0.000000e+000 1.000000e+000 0.000000e+000 0.000000e+000 0.000000e+000
 0.000000e+000 8.580946e-001 1.419054e-001 0.000000e+000 0.000000e+000
 0.000000e+000 0.000000e+000 9.408856e-001 5.911442e-002 0.000000e+000
 0.000000e+000 0.000000e+000 0.000000e+000 9.767514e-001 2.324857e-002
 0.000000e+000 0.000000e+000 0.000000e+000 0.000000e+000 0.000000e+000
<ENDHMM>
~h "sp"
<BEGINHMM>
<NUMSTATES> 3
<STATE> 2
~s "silst"
<TRANSP> 3
 0.000000e+000 2.716771e-001 7.283229e-001
 0.000000e+000 8.552437e-001 1.447563e-001
 0.000000e+000 0.000000e+000 0.000000e+000
<ENDHMM>
~h "sy"
<BEGINHMM>
<NUMSTATES> 5
<STATE> 2
<MEAN> 25
 -7.855899e-001 -1.209601e+001 1.256853e+001 3.746595e+000 -2.986765e-001 1.304078e+000 6.295218e+000 7.755764e+000 -3.240941e-002 -3.769511e+000 6.276257e+000 2.468529e-001 -1.530887e+000 -1.446918e+000 1.489332e+000 8.528240e-002 3.973780e-001 2.626102e-001 -4.722328e-001 -3.767763e-001 5.836183e-002 1.479420e-003 6.185846e-002 9.162976e-001 1.695209e-001
<VARIANCE> 25
 5.652288e+001 7.763155e+001 2.239048e+002 2.203132e+001 2.068594e+001 1.645048e+001 4.118129e+001 3.860948e+001 2.931938e+001 1.181551e+001 5.062939e+001 1.444932e+001 3.191967e+000 3.605057e+000 1.210931e+001 1.282886e+000 1.984802e+000 2.822248e+000 1.760782e+000 1.538649e+000 1.879291e+000 1.524096e+000 4.189142e+000 2.013981e+000 3.594172e-001
<GCONST> 9.854877e+001
<STATE> 3
<MEAN> 25
 -6.904666e+000 -4.733206e+000 1.020301e+001 -2.251695e+000 2.094521e+000 -1.643992e+000 1.158329e+000 -9.996567e-001 3.240681e+000 -4.592280e+000 5.738123e+000 3.501160e+000 1.023856e+000 -6.486478e-002 -1.007842e+000 1.947158e-001 -5.485184e-001 -3.248066e-001 1.399327e-001 -5.680310e-002 -3.704141e-002 1.548013e-001 3.384452e-001 -1.734321e-001 3.028789e-001
<VARIANCE> 25
 9.775846e+001 3.127913e+001 5.211020e+001 1.906022e+001 7.928320e+001 5.682065e+001 1.960571e+001 1.631059e+001 5.020841e+001 1.087007e+001 7.034331e+000 8.040724e+000 6.311682e+000 3.255672e+000 4.626186e+000 1.214100e+000 4.991731e+000 3.491801e+000 2.281146e+000 3.208508e+000 1.872939e+000 1.237204e+000 1.130111e+000 1.677996e+000 3.099846e-001
<GCONST> 9.529769e+001
<STATE> 4
<MEAN> 25
 -1.496820e+000 -1.256760e+001 -3.256783e-001 1.170613e+001 3.569538e+000 -5.117575e+000 3.866954e-001 3.598577e+000 -7.717262e-001 2.222022e+000 4.224339e+000 -7.772210e-001 -4.921848e-001 -4.728002e-001 3.748147e-001 7.298566e-001 2.693697e-001 -7.328251e-002 1.685837e-001 4.793187e-001 5.540133e-001 2.166206e-001 7.360078e-002 1.441940e-001 -1.464440e-001
<VARIANCE> 25
 2.956263e+001 3.071547e+001 1.758187e+001 4.667897e+001 2.395821e+001 3.001045e+001 1.783451e+001 3.324012e+001 2.629817e+001 1.199343e+001 6.436141e+000 1.399146e+001 4.718695e-001 1.523511e+000 1.211824e+000 9.216430e-001 1.545252e+000 6.212462e-001 1.359553e+000 1.883663e+000 1.148379e+000 1.360112e+000 4.397341e-001 1.332708e+000 1.090018e-001
<GCONST> 8.106053e+001
<TRANSP> 5
 0.000000e+000 1.000000e+000 0.000000e+000 0.000000e+000 0.000000e+000
 0.000000e+000 7.452056e-001 2.547944e-001 0.000000e+000 0.000000e+000
 0.000000e+000 0.000000e+000 8.437233e-001 1.562767e-001 0.000000e+000
 0.000000e+000 0.000000e+000 0.000000e+000 8.890726e-001 1.109274e-001
 0.000000e+000 0.000000e+000 0.000000e+000 0.000000e+000 0.000000e+000
<ENDHMM>
~h "sil"
<BEGINHMM>
<NUMSTATES> 5
<STATE> 2
<MEAN> 25
 -7.384607e+000 5.688283e+000 -5.570575e+000 -3.044094e+000 3.534066e-001 -3.149815e+000 -4.282819e+000 -4.149592e+000 -5.742005e+000 4.395747e+000 -3.107151e+000 1.586974e-001 1.283326e-001 -7.407887e-002 6.134151e-003 -3.055816e-002 -2.139931e-002 8.018573e-002 -3.256906e-002 -2.200453e-002 8.847123e-002 -6.695739e-003 5.285819e-002 5.828765e-002 1.349583e-001
<VARIANCE> 25
 2.839290e+001 1.762800e+001 1.320787e+001 3.458941e+001 2.565689e+001 3.635287e+001 2.212657e+001 3.105197e+001 2.277140e+001 1.719497e+001 1.693800e+001 1.056451e+001 2.893931e-001 2.400249e-001 4.503751e-001 6.099980e-001 7.319924e-001 1.026784e+000 1.066901e+000 1.023730e+000 1.108530e+000 1.088356e+000 9.993542e-001 8.273393e-001 2.032552e-001
<GCONST> 7.706255e+001
<STATE> 3
~s "silst"
<STATE> 4
<MEAN> 25
 -4.461017e+000 1.935929e+000 -1.294583e+000 5.222825e+000 2.385067e+000 3.675050e+000 4.219138e+000 1.555667e+000 3.241478e+000 2.084547e+000 1.526452e+000 1.503039e+000 -2.722541e-002 1.487685e-002 9.063786e-003 1.975029e-003 -1.158208e-002 1.144864e-002 -1.079311e-002 4.245963e-006 3.143974e-002 -8.859090e-003 1.031148e-002 -1.000344e-003 -2.809680e-002
<VARIANCE> 25
 2.988560e+000 8.209818e+000 1.134409e+001 3.311146e+001 1.193600e+001 2.056684e+001 1.628707e+001 1.478814e+001 2.103158e+001 2.434967e+001 1.370008e+001 1.203220e+001 1.130304e-001 2.418868e-001 4.225901e-001 5.941956e-001 7.877222e-001 9.300997e-001 1.176107e+000 1.124420e+000 1.233512e+000 1.350522e+000 1.146181e+000 9.550189e-001 7.538405e-002
<GCONST> 7.040932e+001
<TRANSP> 5
 0.000000e+000 1.000000e+000 0.000000e+000 0.000000e+000 0.000000e+000
 0.000000e+000 8.753926e-001 5.182469e-002 7.278272e-002 0.000000e+000
 0.000000e+000 0.000000e+000 8.772842e-001 1.227158e-001 0.000000e+000
 0.000000e+000 8.316837e-003 0.000000e+000 9.632089e-001 2.847429e-002
 0.000000e+000 0.000000e+000 0.000000e+000 0.000000e+000 0.000000e+000
<ENDHMM>
