~o
<STREAMINFO> 1 25
<VECSIZE> 25<NULLD><MFCC_D_N_Z_0><DIAGC>
~s "silst"
<MEAN> 25
 -4.067846e+000 -6.169938e-001 -4.787301e-001 -2.453214e-001 9.018012e-001 6.601088e-001 -1.570551e+000 1.570142e+000 -9.498742e-001 1.292954e+000 -9.499094e-001 2.635261e+000 -9.348376e-001 -6.997412e-001 4.556966e-001 -4.351470e-001 6.496871e-001 -1.030171e-001 4.961025e-001 -6.312153e-003 9.984311e-001 -4.134987e-001 7.593002e-001 1.013524e-001 4.143060e+000
<VARIANCE> 25
 3.716397e+001 5.163642e+001 3.404176e+001 7.182288e+001 4.871445e+001 4.696564e+001 7.695701e+001 4.127596e+001 4.686567e+001 5.103604e+001 5.157027e+001 2.218975e+001 2.603018e+000 6.354876e+000 5.062237e+000 8.366050e+000 6.017553e+000 5.519617e+000 6.283822e+000 3.106380e+000 4.038843e+000 4.580948e+000 3.585357e+000 2.872790e+000 5.812650e+001
<GCONST> 1.142685e+002
~h "@"
<BEGINHMM>
<NUMSTATES> 5
<STATE> 2
<MEAN> 25
 -3.742314e+000 1.212960e-001 -2.611565e+000 1.082348e+000 1.926032e+000 -1.221339e-001 3.078468e+000 -1.998677e+000 -8.193570e-001 2.073486e+000 1.751352e+000 5.444263e-001 1.373020e-002 -1.183434e-001 -6.470179e-002 2.106856e-002 -7.958051e-003 -1.758063e-001 -6.371501e-002 -1.544156e-001 -1.675943e-001 7.412665e-002 4.541116e-002 2.242665e-002 4.247681e-002
<VARIANCE> 25
 3.210456e+001 3.032636e+001 2.231796e+001 4.248682e+001 2.376029e+001 3.594790e+001 6.067974e+001 3.202322e+001 4.118962e+001 3.449545e+001 2.616506e+001 2.067542e+001 7.689303e-001 7.402541e-001 1.016614e+000 1.244865e+000 1.404010e+000 2.036218e+000 1.678760e+000 1.993206e+000 2.181400e+000 1.858604e+000 1.825560e+000 1.415692e+000 5.790005e-001
<GCONST> 9.129013e+001
<STATE> 3
<MEAN> 25
 4.796074e-001 -1.905620e+000 -2.587572e+000 -9.647598e-001 2.588302e+000 -3.225284e-001 -1.795157e+000 -4.918024e+000 -4.262254e+000 1.032467e+000 2.075662e+000 1.179416e+000 7.199390e-001 -5.411649e-001 3.015566e-002 1.120251e-001 -3.536457e-001 -6.299430e-001 -5.563545e-001 -6.810666e-001 -6.874504e-001 -2.755831e-001 1.977945e-001 1.231117e-001 9.259422e-001
<VARIANCE> 25
 6.244975e+001 4.166952e+001 3.897293e+001 4.547977e+001 4.500193e+001 5.556578e+001 6.181175e+001 4.686378e+001 5.471173e+001 5.001084e+001 3.600439e+001 2.513817e+001 1.893069e+000 3.043392e+000 2.864705e+000 2.964134e+000 3.337357e+000 7.044926e+000 4.107159e+000 3.629506e+000 4.187884e+000 5.125827e+000 3.252618e+000 2.403692e+000 2.934614e+000
<GCONST> 1.077582e+002
<STATE> 4
<MEAN> 25
 5.417003e+000 -7.928846e-002 2.386975e-001 -2.430667e+000 -1.304112e+000 -1.881906e-001 -6.400650e+000 -5.785559e+000 -4.493901e+000 -1.243895e+000 4.816009e-001 1.399246e+000 3.772102e-001 1.792345e-002 1.422573e-001 5.873791e-003 -3.611210e-001 -1.772691e-001 2.333358e-002 3.149228e-001 2.354879e-001 -2.572700e-001 -5.251367e-002 -1.392272e-002 2.679324e-001
<VARIANCE> 25
 3.044346e+001 7.725043e+001 5.104166e+001 5.870751e+001 4.345680e+001 6.092833e+001 5.630256e+001 4.554072e+001 5.148602e+001 9.390494e+001 5.554506e+001 3.074595e+001 2.235724e+000 2.885124e+000 2.762035e+000 3.260496e+000 3.325373e+000 3.920012e+000 3.530220e+000 3.661478e+000 3.189009e+000 3.610541e+000 3.687077e+000 2.324972e+000 2.823683e+000
<GCONST> 1.081915e+002
<TRANSP> 5
 0.000000e+000 1.000000e+000 0.000000e+000 0.000000e+000 0.000000e+000
 0.000000e+000 7.878466e-001 2.121534e-001 0.000000e+000 0.000000e+000
 0.000000e+000 0.000000e+000 4.987529e-001 5.012471e-001 0.000000e+000
 0.000000e+000 0.000000e+000 0.000000e+000 7.874748e-001 2.125252e-001
 0.000000e+000 0.000000e+000 0.000000e+000 0.000000e+000 0.000000e+000
<ENDHMM>
~h "a"
<BEGINHMM>
<NUMSTATES> 5
<STATE> 2
<MEAN> 25
 3.050926e+000 -2.467502e+000 -2.089417e+000 -2.220354e+000 -6.534017e-001 -1.369078e+000 -3.669329e-001 1.020415e-001 -6.804956e-001 -1.252100e+000 -3.382643e-001 6.405357e-001 9.541351e-001 -7.828646e-001 -5.930048e-001 -3.472971e-001 -2.889965e-001 -4.253023e-001 3.992591e-002 4.799166e-001 -1.201058e-002 -3.568978e-001 -5.306277e-002 2.560158e-001 1.345075e+000
<VARIANCE> 25
 4.005777e+001 5.097734e+001 3.984813e+001 5.476000e+001 4.724622e+001 3.846331e+001 4.329377e+001 4.477162e+001 6.077766e+001 3.842792e+001 4.554839e+001 2.718232e+001 2.616115e+000 2.956581e+000 3.178841e+000 3.099547e+000 3.661113e+000 3.278441e+000 3.422326e+000 3.960588e+000 4.236025e+000 3.190530e+000 4.134961e+000 2.425968e+000 4.266835e+000
<GCONST> 1.069944e+002
<STATE> 3
<MEAN> 25
 6.342295e+000 -5.542393e+000 -3.806808e+000 -3.804315e+000 -1.717535e+000 -2.071487e+000 1.496347e-001 2.260480e+000 2.047595e-002 -1.807453e+000 -3.441197e-001 1.473878e+000 2.784867e-001 -2.620345e-001 -2.078536e-001 -1.542971e-001 -1.658328e-002 9.631901e-003 3.601262e-002 2.390734e-001 -1.746750e-002 -4.211451e-003 -1.529291e-001 5.017426e-003 3.295450e-001
<VARIANCE> 25
 2.155042e+001 4.913095e+001 4.510975e+001 5.251376e+001 4.943285e+001 3.700468e+001 4.664661e+001 4.930825e+001 6.675544e+001 3.652584e+001 5.470429e+001 3.113543e+001 1.324976e+000 2.435353e+000 1.716374e+000 2.438279e+000 2.686625e+000 2.351296e+000 2.586518e+000 3.401075e+000 2.824244e+000 2.317485e+000 3.191340e+000 1.908012e+000 3.235271e+000
<GCONST> 1.026537e+002
<STATE> 4
<MEAN> 25
 4.182344e+000 -3.444984e+000 -3.436720e+000 -2.789902e+000 -6.119875e-001 -1.484524e+000 -1.122323e-001 2.690614e+000 5.456735e-001 -1.084194e+000 -2.111387e+000 5.202050e-001 -2.330602e-001 4.168432e-001 1.611367e-001 2.467637e-001 1.649052e-001 1.434655e-001 -8.276893e-003 -1.751124e-001 -6.487044e-002 3.605611e-002 -7.295708e-002 -7.297570e-002 -5.750820e-001
<VARIANCE> 25
 3.042241e+001 3.877324e+001 2.793922e+001 4.643443e+001 3.727684e+001 2.856605e+001 4.946404e+001 4.805238e+001 4.659109e+001 2.841600e+001 5.940432e+001 3.658272e+001 6.397711e-001 1.433473e+000 1.255206e+000 1.538149e+000 1.850877e+000 1.760652e+000 2.351064e+000 2.303980e+000 2.051386e+000 1.740557e+000 2.114779e+000 1.581852e+000 1.664637e+000
<GCONST> 9.623640e+001
<TRANSP> 5
 0.000000e+000 1.000000e+000 0.000000e+000 0.000000e+000 0.000000e+000
 0.000000e+000 6.095068e-001 3.904932e-001 0.000000e+000 0.000000e+000
 0.000000e+000 0.000000e+000 5.669907e-001 4.330093e-001 0.000000e+000
 0.000000e+000 0.000000e+000 0.000000e+000 8.384293e-001 1.615707e-001
 0.000000e+000 0.000000e+000 0.000000e+000 0.000000e+000 0.000000e+000
<ENDHMM>
~h "b"
<BEGINHMM>
<NUMSTATES> 5
<STATE> 2
<MEAN> 25
 1.732389e+000 9.654137e-001 -7.489029e-002 8.871178e-002 -2.979729e-001 -1.944767e+000 -1.158435e+000 -9.732539e-001 -2.393247e+000 -1.495555e+000 -1.170599e+000 2.457829e-001 -3.350041e-001 -8.185666e-002 -9.187204e-002 5.482940e-003 9.870708e-002 1.952897e-001 2.859210e-001 1.436665e-002 1.844237e-001 2.206835e-001 1.922624e-001 7.428584e-002 -3.909745e-001
<VARIANCE> 25
 4.381841e+001 3.322540e+001 4.199471e+001 5.228377e+001 5.942189e+001 3.450341e+001 5.246998e+001 4.358898e+001 5.073369e+001 3.619658e+001 4.261978e+001 2.230929e+001 1.040611e+000 1.520295e+000 1.509293e+000 1.541538e+000 1.940969e+000 1.902095e+000 2.320647e+000 2.054771e+000 2.811205e+000 2.175242e+000 2.358119e+000 1.704017e+000 1.519887e+000
<GCONST> 9.844970e+001
<STATE> 3
<MEAN> 25
 -1.480501e+000 4.028746e+000 -2.149777e+000 2.516210e+000 1.219952e+000 8.603178e-001 -1.661159e-003 -2.352398e+000 -2.107239e+000 -1.523929e-002 -9.791915e-001 1.115574e+000 -3.552420e-001 -6.724465e-002 -1.121914e-001 -5.977979e-002 -3.770320e-002 9.779810e-002 1.303462e-001 -3.691729e-002 7.368344e-002 1.235502e-001 1.470318e-002 -9.826039e-002 -3.525256e-001
<VARIANCE> 25
 2.698188e+001 1.966802e+001 2.286761e+001 5.031581e+001 2.349890e+001 2.208124e+001 3.463727e+001 3.250810e+001 2.823875e+001 3.024503e+001 2.996000e+001 2.144074e+001 2.803109e-001 5.274169e-001 7.102766e-001 9.277360e-001 1.279377e+000 1.637366e+000 1.804670e+000 1.617406e+000 1.561744e+000 1.703713e+000 1.680266e+000 1.119997e+000 2.032504e-001
<GCONST> 8.526192e+001
<STATE> 4
<MEAN> 25
 -3.786628e+000 1.470501e-001 -1.974162e+000 1.583990e+000 1.440909e+000 2.499494e+000 4.151206e+000 8.661833e-001 2.971155e+000 8.283122e-001 2.216736e+000 3.156395e-001 -5.952126e-002 4.141875e-003 2.928672e-002 3.828962e-002 2.404966e-002 1.463902e-002 1.568696e-003 7.811686e-003 9.729449e-003 -2.168668e-002 -2.989217e-002 -3.664390e-002 -5.578211e-002
<VARIANCE> 25
 5.951001e+000 9.871544e+000 1.179117e+001 1.455721e+001 1.041861e+001 1.569745e+001 1.966710e+001 1.673693e+001 1.713061e+001 1.958789e+001 1.800465e+001 1.232428e+001 1.682834e-001 3.344436e-001 4.736422e-001 5.317628e-001 7.131483e-001 8.190131e-001 1.042346e+000 1.056845e+000 1.304079e+000 1.251943e+000 1.101558e+000 9.948466e-001 1.667225e-001
<GCONST> 7.137033e+001
<TRANSP> 5
 0.000000e+000 1.000000e+000 0.000000e+000 0.000000e+000 0.000000e+000
 0.000000e+000 8.410234e-001 1.589766e-001 0.000000e+000 0.000000e+000
 0.000000e+000 0.000000e+000 7.949852e-001 2.050148e-001 0.000000e+000
 0.000000e+000 0.000000e+000 0.000000e+000 9.544205e-001 4.557944e-002
 0.000000e+000 0.000000e+000 0.000000e+000 0.000000e+000 0.000000e+000
<ENDHMM>
~h "c"
<BEGINHMM>
<NUMSTATES> 5
<STATE> 2
<MEAN> 25
 -3.894492e+000 1.801104e+000 -1.185160e+000 3.197854e+000 2.748353e+000 5.345724e+000 3.242786e+000 2.998820e-001 3.257457e+000 2.880151e+000 1.198710e+000 2.322677e+000 -1.329598e-001 -3.632501e-002 -8.698947e-002 4.074695e-002 1.038332e-002 2.734178e-002 2.067742e-001 4.192986e-002 -6.388661e-003 1.660673e-001 1.794052e-001 6.693170e-002 -1.464374e-001
<VARIANCE> 25
 5.965742e+000 8.543335e+000 1.392355e+001 3.399610e+001 1.409578e+001 2.466856e+001 1.745703e+001 1.707166e+001 1.928538e+001 2.675005e+001 1.268253e+001 1.454543e+001 2.085027e-001 5.471828e-001 5.810732e-001 1.279831e+000 9.134287e-001 1.289358e+000 2.034324e+000 1.646900e+000 1.818111e+000 1.676639e+000 1.179513e+000 9.954562e-001 2.273072e-001
<GCONST> 7.774931e+001
<STATE> 3
<MEAN> 25
 -4.014258e+000 6.704447e-001 -7.735227e-001 4.212161e+000 7.232681e-002 3.755412e+000 5.242258e+000 1.120660e+000 -6.540928e-002 1.859258e+000 2.141174e+000 3.141948e+000 -1.633134e-001 -6.869341e-001 8.189493e-001 3.826839e-001 -4.140050e-001 -1.192289e+000 1.346306e-002 9.844300e-002 -1.485276e+000 -8.057892e-001 8.419807e-002 7.431675e-002 6.002511e-001
<VARIANCE> 25
 8.223316e+000 1.684772e+001 2.415336e+001 4.917385e+001 7.564024e+000 2.285436e+001 2.171681e+001 1.915944e+001 2.422762e+001 1.612770e+001 1.100201e+001 1.065609e+001 6.525698e-001 2.560234e+000 1.911972e+000 2.784729e+000 1.393485e+000 1.444450e+000 2.214428e+000 3.097004e+000 1.662975e+000 1.776173e+000 1.520339e+000 1.234560e+000 8.067340e-001
<GCONST> 8.618204e+001
<STATE> 4
<MEAN> 25
 -2.302070e+000 -1.875012e+000 6.449567e+000 -3.504776e+000 -2.852732e+000 -3.128004e+000 1.936666e-002 -9.288261e-001 -8.983238e-001 -5.069965e-001 3.208571e+000 1.292809e+000 4.529441e-001 -3.188774e-001 -7.420861e-002 -3.329464e-001 -1.046191e-001 -3.764915e-001 -5.113701e-001 -1.598619e-002 3.104621e-002 -2.450640e-001 -5.016478e-002 -1.235095e-001 8.852726e-001
<VARIANCE> 25
 6.563383e+001 1.353149e+002 9.795811e+001 1.115541e+002 8.799703e+001 3.434781e+001 6.104895e+001 9.636311e+001 7.393473e+001 2.677818e+001 6.279719e+001 4.309308e+001 6.383621e+000 8.360019e+000 8.193900e+000 5.609557e+000 6.626904e+000 2.621887e+000 5.596365e+000 6.227278e+000 4.410940e+000 3.260750e+000 3.519253e+000 3.780101e+000 8.174591e+000
<GCONST> 1.180916e+002
<TRANSP> 5
 0.000000e+000 1.000000e+000 0.000000e+000 0.000000e+000 0.000000e+000
 0.000000e+000 9.529791e-001 4.702092e-002 0.000000e+000 0.000000e+000
 0.000000e+000 0.000000e+000 6.439953e-001 3.560047e-001 0.000000e+000
 0.000000e+000 0.000000e+000 0.000000e+000 9.384578e-001 6.154215e-002
 0.000000e+000 0.000000e+000 0.000000e+000 0.000000e+000 0.000000e+000
<ENDHMM>
~h "d"
<BEGINHMM>
<NUMSTATES> 5
<STATE> 2
<MEAN> 25
 2.823922e+000 1.637075e+000 -2.128131e-001 1.016838e+000 -2.578010e-001 -7.228960e-001 3.744485e-001 -2.091196e-001 -1.494986e+000 -2.277099e+000 -3.837443e-001 1.202283e+000 -3.682063e-001 9.580335e-002 8.110797e-002 6.583880e-002 1.667624e-001 3.723839e-001 3.390079e-001 2.048105e-001 3.695115e-001 2.976210e-001 -4.042558e-002 -1.503242e-001 -4.860884e-001
<VARIANCE> 25
 2.233675e+001 2.119508e+001 3.298819e+001 3.437524e+001 2.122893e+001 2.453502e+001 4.101099e+001 4.056826e+001 2.582886e+001 2.733715e+001 2.697952e+001 2.097912e+001 4.059804e-001 9.282617e-001 1.287253e+000 1.067118e+000 1.130417e+000 1.875547e+000 1.825469e+000 1.892973e+000 1.329413e+000 2.038063e+000 1.690018e+000 1.340770e+000 8.012949e-001
<GCONST> 8.863730e+001
<STATE> 3
<MEAN> 25
 -3.427020e+000 1.355592e+000 -9.003792e-002 1.730439e+000 1.511371e+000 2.861624e+000 2.922689e+000 1.363351e+000 2.570334e+000 1.842578e+000 3.973677e-001 5.745748e-003 -1.364358e-001 -2.193586e-002 -5.952942e-002 -2.855030e-003 4.892305e-002 3.050120e-002 -2.062870e-002 -7.267068e-002 -3.428449e-002 6.474997e-002 4.512497e-002 2.061023e-002 -1.241111e-001
<VARIANCE> 25
 8.697904e+000 1.133571e+001 1.407822e+001 1.262805e+001 9.394486e+000 1.916965e+001 1.887132e+001 1.859645e+001 1.841399e+001 1.913683e+001 1.241700e+001 1.241219e+001 1.551347e-001 2.836766e-001 3.963971e-001 3.972329e-001 5.534761e-001 7.458847e-001 8.917204e-001 1.013707e+000 1.107759e+000 1.029780e+000 9.312650e-001 8.560163e-001 1.287704e-001
<GCONST> 6.957267e+001
<STATE> 4
<MEAN> 25
 -2.604837e+000 1.763979e-001 -1.753475e+000 9.953211e-001 2.961025e+000 8.429217e-001 7.906147e-001 2.000881e-001 3.340644e-001 1.144335e+000 -3.465910e-001 3.154053e-001 2.021192e-001 -8.926826e-002 2.282212e-001 1.297145e-001 2.183375e-001 -2.733103e-001 -6.547101e-001 -1.575003e-001 -3.416924e-001 -3.796983e-001 -1.377738e-001 2.823805e-002 6.797743e-001
<VARIANCE> 25
 1.879718e+001 2.792211e+001 3.392436e+001 2.853684e+001 2.428363e+001 2.016500e+001 3.894640e+001 3.017929e+001 2.447774e+001 2.796460e+001 2.523997e+001 3.146969e+001 8.236484e-001 1.667635e+000 1.816177e+000 1.972243e+000 1.970549e+000 2.534867e+000 3.744397e+000 2.251850e+000 2.215821e+000 2.517499e+000 1.886146e+000 2.812750e+000 5.825191e+000
<GCONST> 9.603818e+001
<TRANSP> 5
 0.000000e+000 1.000000e+000 0.000000e+000 0.000000e+000 0.000000e+000
 0.000000e+000 8.024661e-001 1.975339e-001 0.000000e+000 0.000000e+000
 0.000000e+000 0.000000e+000 9.302358e-001 6.976417e-002 0.000000e+000
 0.000000e+000 0.000000e+000 0.000000e+000 7.447051e-001 2.552949e-001
 0.000000e+000 0.000000e+000 0.000000e+000 0.000000e+000 0.000000e+000
<ENDHMM>
~h "e"
<BEGINHMM>
<NUMSTATES> 5
<STATE> 2
<MEAN> 25
 5.299907e+000 -3.910208e+000 2.602728e-001 7.066072e+000 1.332718e+000 -7.125749e+000 -1.061577e+001 -6.485639e+000 -3.877812e+000 1.108501e+000 2.176441e-001 -3.264634e+000 -2.199019e-001 4.139768e-001 3.212879e-001 8.323764e-002 1.416251e-001 3.849289e-001 1.633901e-001 3.481190e-001 4.594357e-001 -4.811611e-003 -5.410217e-001 -3.790026e-001 -4.120189e-001
<VARIANCE> 25
 1.197880e+001 3.329142e+001 4.735817e+001 3.743841e+001 2.825946e+001 7.445872e+001 6.408225e+001 7.756501e+001 3.184810e+001 8.340866e+001 7.857661e+001 2.812622e+001 1.924572e-001 1.050517e+000 8.333738e-001 1.104563e+000 1.299368e+000 2.467220e+000 2.195232e+000 1.490939e+000 1.453609e+000 1.760205e+000 1.902322e+000 1.413959e+000 3.778713e-001
<GCONST> 9.278925e+001
<STATE> 3
<MEAN> 25
 2.604151e+000 2.423784e+000 1.139519e+000 4.047903e+000 4.247956e+000 2.265383e+000 -3.089936e+000 -2.336320e+000 2.810004e-001 -3.606137e-001 -3.156970e+000 -2.779555e+000 -4.471125e-001 3.345835e-001 -9.488956e-002 -2.748240e-001 2.686952e-001 7.221451e-001 5.149708e-001 1.871880e-001 3.347336e-001 6.265106e-002 1.178381e-001 2.802805e-001 -6.500320e-001
<VARIANCE> 25
 1.764304e+001 1.634546e+001 1.947185e+001 3.261638e+001 6.770686e+001 4.618267e+001 3.231723e+001 2.979527e+001 3.702874e+001 3.303917e+001 3.095666e+001 2.088649e+001 2.428471e-001 8.933906e-001 8.992693e-001 1.133060e+000 1.053785e+000 1.535777e+000 2.224453e+000 1.458986e+000 1.659249e+000 1.821442e+000 1.910793e+000 1.450915e+000 1.664619e-001
<GCONST> 8.704591e+001
<STATE> 4
<MEAN> 25
 -3.873520e+000 9.157844e-001 -9.887238e-001 3.647662e+000 2.526807e+000 3.402008e+000 2.229363e+000 6.338588e-001 2.979717e+000 1.784185e+000 6.940100e-001 5.505010e-001 -5.837035e-002 1.343418e-002 2.348967e-002 1.283850e-002 -6.517982e-002 2.172794e-003 1.021622e-001 3.047461e-002 1.794749e-002 4.369160e-002 9.618589e-002 5.296693e-002 -5.498910e-002
<VARIANCE> 25
 4.222982e+000 8.139270e+000 1.195728e+001 2.126457e+001 1.109134e+001 1.873277e+001 1.505780e+001 1.555509e+001 1.955152e+001 1.939877e+001 1.147114e+001 1.118754e+001 1.623920e-001 3.427979e-001 5.031805e-001 6.721868e-001 8.724021e-001 1.096935e+000 1.237112e+000 1.319031e+000 1.460403e+000 1.567629e+000 1.234230e+000 1.174408e+000 1.619612e-001
<GCONST> 7.246057e+001
<TRANSP> 5
 0.000000e+000 1.000000e+000 0.000000e+000 0.000000e+000 0.000000e+000
 0.000000e+000 8.738586e-001 1.261414e-001 0.000000e+000 0.000000e+000
 0.000000e+000 0.000000e+000 7.885528e-001 2.114472e-001 0.000000e+000
 0.000000e+000 0.000000e+000 0.000000e+000 9.542764e-001 4.572355e-002
 0.000000e+000 0.000000e+000 0.000000e+000 0.000000e+000 0.000000e+000
<ENDHMM>
~h "f"
<BEGINHMM>
<NUMSTATES> 5
<STATE> 2
<MEAN> 25
 -1.051088e+001 4.364007e+000 -8.819614e-002 4.123085e+000 3.338429e+000 -1.797902e+000 5.800746e+000 1.895046e-001 1.333101e+000 -2.576570e+000 1.569072e+000 9.041700e-001 -2.501738e-001 3.381628e-001 5.464892e-001 -1.760710e-001 -1.740597e-001 -7.637179e-001 -4.852614e-001 -8.555214e-001 -3.825383e-001 -1.265199e-001 3.107049e-001 3.130619e-001 1.314874e+000
<VARIANCE> 25
 6.093509e+001 7.094724e+001 3.517159e+001 2.572800e+001 2.419452e+001 5.184476e+001 4.821754e+001 2.043800e+001 2.840082e+001 2.378745e+001 2.012900e+001 1.786772e+001 5.559146e+000 1.866130e+000 1.991564e+000 1.078509e+000 4.725939e+000 2.829943e+000 3.308665e+000 1.555156e+000 2.725316e+000 1.444638e+000 2.095919e+000 1.179621e+000 1.353619e+000
<GCONST> 9.746839e+001
<STATE> 3
<MEAN> 25
 -3.141353e+000 1.276737e+000 4.620704e+000 3.822068e+000 -4.819441e+000 -3.536872e+000 -3.460837e-001 -2.270742e+000 -1.217036e+000 -4.077629e+000 6.245604e+000 2.439304e+000 1.738699e-002 -3.792219e-001 -3.246769e-001 -4.699987e-001 1.755677e-001 -7.265652e-002 1.913314e-001 -2.786888e-001 1.354232e-002 1.397191e-001 5.291658e-003 -2.156351e-001 1.859230e-001
<VARIANCE> 25
 5.049665e+001 3.557891e+001 6.882544e+001 2.903384e+001 1.296156e+002 3.328716e+001 5.369847e+001 1.292802e+001 3.865846e+001 3.170342e+001 2.443777e+001 1.901434e+001 2.137331e+000 9.779564e-001 2.987321e+000 1.483665e+000 7.553047e+000 2.502728e+000 2.428120e+000 1.538791e+000 2.739883e+000 2.308894e+000 2.552094e+000 1.651947e+000 3.685175e+000
<GCONST> 1.002771e+002
<STATE> 4
<MEAN> 25
 -1.387845e-001 -1.792644e+000 -1.171435e+000 -2.924583e+000 3.402980e+000 1.717442e+000 -5.774583e-001 -2.231548e+000 1.014986e-001 2.294904e+000 -2.386441e-001 -1.737463e+000 3.710012e-001 1.255758e-001 3.820706e-002 -1.631846e-001 -1.964853e-001 -1.281337e-001 -3.840525e-002 -1.364171e-002 -1.218769e-001 8.498423e-002 -2.787703e-001 -1.477618e-001 1.286129e-001
<VARIANCE> 25
 7.734271e+001 5.151909e+001 3.934755e+001 1.454100e+002 6.595932e+001 4.270112e+001 6.808474e+001 2.124545e+001 4.091418e+001 3.127044e+001 2.321008e+001 2.193392e+001 4.044646e+000 2.273869e+000 2.320670e+000 5.414591e+000 4.031429e+000 3.657046e+000 4.366753e+000 2.937947e+000 4.108497e+000 2.455077e+000 2.168238e+000 1.689343e+000 3.461039e+000
<GCONST> 1.063394e+002
<TRANSP> 5
 0.000000e+000 1.000000e+000 0.000000e+000 0.000000e+000 0.000000e+000
 0.000000e+000 6.907851e-001 3.092149e-001 0.000000e+000 0.000000e+000
 0.000000e+000 0.000000e+000 7.653102e-001 2.346898e-001 0.000000e+000
 0.000000e+000 0.000000e+000 0.000000e+000 9.482592e-001 5.174081e-002
 0.000000e+000 0.000000e+000 0.000000e+000 0.000000e+000 0.000000e+000
<ENDHMM>
~h "g"
<BEGINHMM>
<NUMSTATES> 5
<STATE> 2
<MEAN> 25
 -5.304543e+000 -3.412265e+000 -2.437891e+000 -2.061871e+000 -1.809765e+000 -1.866680e+000 9.389236e-001 1.627757e+000 4.069768e-002 2.295260e+000 1.510909e+000 -1.365284e+000 5.027429e-001 -5.231891e-001 6.289901e-001 -5.576686e-001 -6.501128e-001 5.461533e-002 -3.712317e-001 6.826594e-001 1.311261e-001 1.310171e-001 3.529888e-001 -5.342617e-001 2.409418e+000
<VARIANCE> 25
 2.114538e+001 1.439672e+002 8.964713e+001 9.601051e+001 1.832189e+002 6.463811e+001 5.209148e+001 4.641966e+001 4.933771e+001 5.875494e+001 3.287228e+001 3.837434e+001 2.422356e+000 1.373769e+001 6.984370e+000 1.166922e+001 1.747215e+001 4.457377e+000 6.596558e+000 5.663632e+000 4.529686e+000 5.775972e+000 4.989286e+000 3.617672e+000 9.564691e+000
<GCONST> 1.196074e+002
<STATE> 3
<MEAN> 25
 1.540232e+000 1.080575e+000 5.078310e+000 -1.021708e+000 -3.943947e+000 -1.325646e+000 -3.339861e+000 3.417663e+000 3.415764e+000 -1.063878e+000 -2.466456e+000 -1.652782e+000 1.360153e+000 1.233362e+000 4.960309e-001 1.061545e+000 -2.481547e-001 4.419376e-001 -1.375826e+000 -5.169408e-001 1.907939e-001 -2.810416e-001 -7.949333e-001 1.864057e-001 1.281300e-001
<VARIANCE> 25
 1.898491e+001 7.338210e+001 5.660045e+001 8.905533e+001 1.019292e+002 7.045558e+001 4.186382e+001 5.554289e+001 6.364652e+001 7.279977e+001 5.548884e+001 2.552935e+001 2.301482e+000 4.255865e+000 3.824512e+000 4.709942e+000 7.128742e+000 6.326756e+000 6.841608e+000 4.322522e+000 6.450125e+000 3.144197e+000 3.061105e+000 2.957351e+000 1.985362e+000
<GCONST> 1.123067e+002
<STATE> 4
<MEAN> 25
 2.462973e-001 2.849481e+000 1.855397e+000 5.388589e+000 -7.242236e-001 5.508249e-001 -5.851573e-001 5.478444e-001 -1.423512e+000 -1.069800e+000 -1.803381e+000 1.133151e+000 5.487548e-001 1.413018e-001 -1.251065e-001 -4.422363e-001 -4.233897e-001 -2.456863e-001 -5.238800e-001 -1.058018e-001 -3.084445e-001 -1.690158e-001 1.563403e-001 1.411609e-001 6.028678e-001
<VARIANCE> 25
 2.350176e+001 2.841676e+001 9.223060e+001 5.164864e+001 4.714576e+001 4.225742e+001 7.519330e+001 8.884593e+001 4.931577e+001 4.392085e+001 3.799591e+001 3.008047e+001 1.778359e+000 1.566843e+000 3.916585e+000 3.760356e+000 5.229187e+000 2.965144e+000 5.093881e+000 3.434155e+000 3.589852e+000 3.339636e+000 2.691329e+000 2.059884e+000 4.373468e+000
<GCONST> 1.070354e+002
<TRANSP> 5
 0.000000e+000 1.000000e+000 0.000000e+000 0.000000e+000 0.000000e+000
 0.000000e+000 7.671916e-001 2.328084e-001 0.000000e+000 0.000000e+000
 0.000000e+000 0.000000e+000 6.551127e-001 3.448872e-001 0.000000e+000
 0.000000e+000 0.000000e+000 0.000000e+000 7.779713e-001 2.220287e-001
 0.000000e+000 0.000000e+000 0.000000e+000 0.000000e+000 0.000000e+000
<ENDHMM>
~h "h"
<BEGINHMM>
<NUMSTATES> 5
<STATE> 2
<MEAN> 25
 1.071322e-001 -4.656300e+000 6.558486e-001 2.585686e+000 2.731595e+000 2.749620e+000 6.005529e+000 1.410529e+000 2.350877e-001 -1.470954e+000 6.279861e-001 1.510587e+000 -3.983622e-001 -2.312782e-001 -6.161643e-002 2.638000e-001 1.969140e-001 4.447824e-001 7.660599e-001 1.706754e-001 3.331308e-001 3.000843e-001 4.062340e-001 1.474981e-001 -4.637193e-001
<VARIANCE> 25
 2.259326e+001 4.087323e+001 2.878030e+001 4.587146e+001 5.415791e+001 3.100119e+001 3.652063e+001 3.470802e+001 3.486448e+001 2.557711e+001 4.473464e+001 3.003550e+001 4.396341e-001 7.800575e-001 9.380458e-001 1.276356e+000 1.559380e+000 1.630090e+000 2.492515e+000 2.024442e+000 2.841863e+000 1.951217e+000 2.205784e+000 1.932584e+000 4.237487e-001
<GCONST> 9.249326e+001
<STATE> 3
<MEAN> 25
 -3.076450e+000 -4.074087e+000 -4.513080e-001 2.967994e+000 2.997214e+000 2.420534e+000 8.529935e+000 1.765096e+000 3.244317e+000 5.880253e-001 2.341666e+000 1.962244e+000 -1.271781e-001 1.495844e-001 -9.438090e-002 -7.455848e-003 -4.107771e-002 -5.644631e-002 -1.180812e-001 -1.010626e-001 9.171115e-003 5.190239e-002 9.338417e-003 -2.803054e-002 -3.259192e-001
<VARIANCE> 25
 1.697016e+001 2.850102e+001 2.542246e+001 4.329575e+001 4.842531e+001 3.538691e+001 3.190279e+001 2.062107e+001 3.401394e+001 3.334161e+001 2.668588e+001 1.835849e+001 3.825491e-001 7.541675e-001 8.689995e-001 1.047821e+000 1.164182e+000 1.521337e+000 1.713718e+000 1.675035e+000 1.612340e+000 1.721762e+000 1.581291e+000 1.284855e+000 4.050072e-001
<GCONST> 8.741063e+001
<STATE> 4
<MEAN> 25
 -1.443764e+000 -3.417801e+000 -1.512685e+000 1.297166e+000 3.670076e+000 3.515915e-001 3.634042e+000 -1.316853e+000 -6.268619e-001 1.223043e+000 1.178048e+000 -4.233188e-001 9.095506e-002 2.485346e-001 7.897812e-002 1.345138e-001 -1.144357e-001 -1.490830e-001 -3.528064e-001 -1.017001e-001 -9.517683e-002 -6.174190e-003 -1.638281e-001 -2.989174e-002 -6.573229e-002
<VARIANCE> 25
 4.467628e+001 3.118807e+001 2.485467e+001 5.444307e+001 4.718154e+001 2.960008e+001 9.289306e+001 3.245945e+001 3.645834e+001 3.783224e+001 5.872222e+001 2.574170e+001 9.006335e-001 1.659272e+000 1.156620e+000 1.828200e+000 2.478666e+000 2.167148e+000 2.941191e+000 1.974971e+000 2.421527e+000 2.031731e+000 2.358517e+000 2.020479e+000 1.643662e+000
<GCONST> 9.844273e+001
<TRANSP> 5
 0.000000e+000 1.000000e+000 0.000000e+000 0.000000e+000 0.000000e+000
 0.000000e+000 8.286026e-001 1.713974e-001 0.000000e+000 0.000000e+000
 0.000000e+000 0.000000e+000 9.150732e-001 8.492681e-002 0.000000e+000
 0.000000e+000 0.000000e+000 0.000000e+000 8.855207e-001 1.144793e-001
 0.000000e+000 0.000000e+000 0.000000e+000 0.000000e+000 0.000000e+000
<ENDHMM>
~h "i"
<BEGINHMM>
<NUMSTATES> 5
<STATE> 2
<MEAN> 25
 1.363420e+000 -3.629248e+000 8.450886e+000 1.510024e+000 8.469353e-001 -4.634695e+000 -5.087115e+000 -3.440062e+000 -3.013824e+000 -3.571870e-001 2.046950e-001 -4.041020e+000 6.176172e-001 2.100020e-001 1.305402e+000 7.540866e-001 -5.889021e-001 -8.909119e-001 -1.320159e+000 -1.708071e-001 -7.703889e-001 -5.882215e-001 -2.830205e-001 -7.291951e-001 7.057139e-001
<VARIANCE> 25
 3.796338e+001 7.892642e+001 7.720355e+001 1.702090e+002 9.622507e+001 6.534850e+001 7.922446e+001 5.409781e+001 5.264616e+001 6.182906e+001 5.315973e+001 3.816389e+001 2.560250e+000 3.253631e+000 4.456472e+000 6.697684e+000 5.014999e+000 6.531337e+000 5.158174e+000 4.020542e+000 5.320268e+000 4.801791e+000 3.506085e+000 2.687189e+000 2.916955e+000
<GCONST> 1.148393e+002
<STATE> 3
<MEAN> 25
 1.974823e+000 -2.510349e-001 9.103725e+000 1.024762e+001 2.187303e+000 -7.521584e+000 -9.669737e+000 -2.371482e+000 -3.507113e+000 -6.697305e+000 -4.154902e+000 -5.177486e+000 -9.315007e-002 2.771604e-001 3.026569e-002 -1.727689e-001 -1.142112e-001 3.219006e-001 1.842126e-001 6.328633e-002 9.791365e-002 6.934601e-002 -1.488315e-001 -4.391563e-004 -2.566547e-001
<VARIANCE> 25
 8.206659e+000 3.521962e+001 3.978709e+001 1.006433e+002 6.336875e+001 7.874014e+001 3.156695e+001 4.140881e+001 3.123701e+001 3.627934e+001 3.729379e+001 2.707667e+001 3.024903e-001 9.474041e-001 1.134915e+000 1.658089e+000 1.318690e+000 2.911168e+000 1.745015e+000 1.900989e+000 1.612988e+000 1.779062e+000 1.452996e+000 1.159025e+000 5.243475e-001
<GCONST> 9.240628e+001
<STATE> 4
<MEAN> 25
 7.677256e-002 5.226525e+000 1.429480e+001 -1.408255e+000 -8.426020e+000 -1.071993e+000 -6.326929e+000 -4.419587e+000 -6.548956e+000 3.148514e-001 -1.232354e-002 -2.977720e+000 -1.502092e-001 -4.815265e-002 -7.123662e-001 5.025551e-003 3.447335e-001 2.178881e-001 4.349778e-001 1.671986e-001 2.169804e-001 1.544772e-001 1.042979e-001 3.710716e-001 -5.769846e-001
<VARIANCE> 25
 1.924333e+001 3.495599e+001 7.855733e+001 1.026407e+002 1.093144e+002 5.271908e+001 6.720665e+001 7.534235e+001 5.155993e+001 4.734905e+001 4.938997e+001 3.437119e+001 6.999078e-001 1.269604e+000 2.742652e+000 3.516009e+000 3.356512e+000 2.720386e+000 3.504605e+000 3.400101e+000 2.527495e+000 2.545212e+000 1.977260e+000 1.910328e+000 1.749204e+000
<GCONST> 1.044668e+002
<TRANSP> 5
 0.000000e+000 1.000000e+000 0.000000e+000 0.000000e+000 0.000000e+000
 0.000000e+000 7.650623e-001 2.349377e-001 0.000000e+000 0.000000e+000
 0.000000e+000 0.000000e+000 8.735199e-001 1.264801e-001 0.000000e+000
 0.000000e+000 0.000000e+000 0.000000e+000 8.770647e-001 1.229353e-001
 0.000000e+000 0.000000e+000 0.000000e+000 0.000000e+000 0.000000e+000
<ENDHMM>
~h "j"
<BEGINHMM>
<NUMSTATES> 5
<STATE> 2
<MEAN> 25
 -2.235093e+000 4.044013e+000 -2.552146e+000 9.002172e+000 -5.572984e-001 1.352513e+000 2.680194e+000 1.003479e+000 -2.093315e+000 -2.435228e+000 -4.231443e-001 1.648935e+000 -1.327943e-001 -1.870812e-001 -1.378520e-001 -6.199076e-002 3.468277e-002 2.295265e-001 7.058433e-002 5.186493e-003 1.324573e-001 1.565956e-001 1.675713e-001 7.602593e-002 -2.911823e-001
<VARIANCE> 25
 6.482018e+000 1.114227e+001 2.375698e+001 2.770828e+001 1.366444e+001 2.010527e+001 3.079618e+001 1.795001e+001 1.649094e+001 1.792936e+001 1.981222e+001 1.786171e+001 2.922901e-001 1.306269e+000 8.568361e-001 1.064156e+000 1.766979e+000 1.734831e+000 2.513060e+000 1.920629e+000 2.116955e+000 1.731875e+000 1.632804e+000 1.024877e+000 1.224502e+000
<GCONST> 8.386105e+001
<STATE> 3
<MEAN> 25
 -4.849845e+000 3.571619e-001 2.497125e+000 -4.594783e+000 7.148521e-001 -6.703532e+000 5.975524e+000 -3.925627e-001 2.466384e+000 -2.127970e+000 3.521347e+000 1.386775e+000 2.742539e-001 -4.399137e-001 4.094119e-001 -8.685685e-001 -4.693695e-001 -6.401274e-001 -1.035405e-001 2.630864e-001 1.072293e-001 -4.115987e-002 3.016618e-001 1.128309e-001 1.957310e+000
<VARIANCE> 25
 7.298798e+001 8.184280e+001 6.462128e+001 7.672430e+001 5.122244e+001 6.164581e+001 5.358076e+001 2.604468e+001 4.268652e+001 4.067658e+001 2.664445e+001 4.053868e+001 8.054668e+000 5.939342e+000 4.818360e+000 7.659386e+000 8.453341e+000 6.373808e+000 6.432331e+000 2.130359e+000 3.910099e+000 3.536454e+000 2.828428e+000 3.718196e+000 1.039804e+001
<GCONST> 1.142956e+002
<STATE> 4
<MEAN> 25
 -8.317973e-001 2.045296e-002 -1.292991e+000 -9.247667e-001 4.390222e-003 2.961610e+000 4.498902e+000 3.073115e+000 3.015112e+000 2.049577e+000 9.283272e-001 4.967188e-001 -1.198570e-001 -1.355315e-002 7.469050e-002 1.054854e-001 1.006430e-001 7.240946e-002 -3.402790e-002 2.982121e-002 1.312928e-001 2.647082e-002 -2.252000e-002 -1.066831e-001 -1.811416e-001
<VARIANCE> 25
 2.255774e+001 1.118429e+001 1.286508e+001 1.833478e+001 1.992022e+001 2.116910e+001 1.841457e+001 1.393702e+001 2.557372e+001 1.872807e+001 1.394041e+001 1.425154e+001 2.686875e-001 5.740728e-001 4.433545e-001 5.949928e-001 8.914928e-001 8.393819e-001 1.073586e+000 1.037159e+000 1.190415e+000 1.223178e+000 1.130057e+000 1.147821e+000 3.121690e-001
<GCONST> 7.608347e+001
<TRANSP> 5
 0.000000e+000 1.000000e+000 0.000000e+000 0.000000e+000 0.000000e+000
 0.000000e+000 9.041421e-001 9.585792e-002 0.000000e+000 0.000000e+000
 0.000000e+000 0.000000e+000 8.931646e-001 1.068354e-001 0.000000e+000
 0.000000e+000 0.000000e+000 0.000000e+000 9.610907e-001 3.890927e-002
 0.000000e+000 0.000000e+000 0.000000e+000 0.000000e+000 0.000000e+000
<ENDHMM>
~h "k"
<BEGINHMM>
<NUMSTATES> 5
<STATE> 2
<MEAN> 25
 -3.107933e+000 2.446172e+000 -1.984764e+000 4.068127e+000 1.733452e+000 2.967801e+000 1.755487e+000 7.409444e-001 1.880712e+000 9.752604e-001 3.159948e-001 1.333884e+000 -1.297095e-001 -1.826386e-001 -5.399099e-001 -9.828354e-002 7.261861e-002 -3.302135e-002 2.303180e-001 -8.615606e-002 -2.753820e-001 -1.051332e-001 2.255689e-001 2.125259e-001 -3.494617e-002
<VARIANCE> 25
 1.213062e+001 2.012902e+001 2.823439e+001 5.737577e+001 2.654224e+001 4.050201e+001 3.005342e+001 3.170458e+001 2.906341e+001 2.656006e+001 2.236718e+001 2.037339e+001 9.676231e-001 2.026895e+000 1.802639e+000 2.294490e+000 2.403553e+000 2.911979e+000 2.820400e+000 3.055072e+000 3.129372e+000 2.496123e+000 2.137842e+000 1.617965e+000 2.016744e+000
<GCONST> 9.563606e+001
<STATE> 3
<MEAN> 25
 -3.093463e+000 5.541750e-001 -3.301687e+000 8.011682e-001 1.387599e+000 1.302527e+000 2.138402e+000 -1.631129e+000 -3.016974e+000 -1.036631e-001 9.226822e-001 1.507479e+000 4.873161e-001 -1.709304e+000 -4.663287e-001 -1.469780e+000 -1.081303e+000 -3.829820e-001 3.938492e-001 -5.734331e-001 -1.293542e+000 -9.247633e-001 7.017955e-001 -1.447940e-001 2.632076e+000
<VARIANCE> 25
 2.163899e+001 3.415741e+001 2.788685e+001 5.291875e+001 3.709916e+001 4.750227e+001 4.774687e+001 4.152357e+001 4.420334e+001 3.029597e+001 2.653980e+001 2.019437e+001 3.278021e+000 7.971179e+000 4.849710e+000 6.170415e+000 9.587374e+000 1.011830e+001 9.804651e+000 6.740651e+000 6.890298e+000 6.755638e+000 4.461559e+000 2.493796e+000 5.644749e+000
<GCONST> 1.118078e+002
<STATE> 4
<MEAN> 25
 2.357496e+000 -5.033698e+000 -1.224168e+000 -9.032717e+000 9.168997e-001 1.107535e+000 3.039162e-001 -4.620031e-001 1.389005e+000 2.421709e+000 4.915008e-001 -2.969636e+000 6.015974e-001 -2.548980e-001 1.164629e-001 -4.153199e-001 -2.312140e-001 -1.796112e-001 -3.421346e-001 -1.492780e-002 1.892090e-001 5.192753e-002 -1.284135e-002 -2.219481e-001 8.976409e-001
<VARIANCE> 25
 5.966415e+001 8.764918e+001 7.955294e+001 1.397894e+002 1.264886e+002 5.477333e+001 7.010365e+001 6.748161e+001 9.651299e+001 5.290164e+001 4.640650e+001 4.304115e+001 3.776370e+000 4.469361e+000 5.000201e+000 1.054062e+001 6.199772e+000 4.561947e+000 5.527438e+000 4.950804e+000 5.856112e+000 3.610354e+000 3.577703e+000 3.313352e+000 9.017886e+000
<GCONST> 1.184339e+002
<TRANSP> 5
 0.000000e+000 1.000000e+000 0.000000e+000 0.000000e+000 0.000000e+000
 0.000000e+000 7.813835e-001 2.186165e-001 0.000000e+000 0.000000e+000
 0.000000e+000 0.000000e+000 4.246756e-001 5.753244e-001 0.000000e+000
 0.000000e+000 0.000000e+000 0.000000e+000 9.041930e-001 9.580695e-002
 0.000000e+000 0.000000e+000 0.000000e+000 0.000000e+000 0.000000e+000
<ENDHMM>
~h "l"
<BEGINHMM>
<NUMSTATES> 5
<STATE> 2
<MEAN> 25
 7.322477e+000 -1.568829e+000 -6.258342e-001 -4.969771e-001 -3.214030e+000 -4.089637e+000 -2.871225e+000 5.935462e-001 -3.612300e+000 -6.759822e+000 -4.911925e+000 1.092263e+000 2.707392e-001 -2.294340e-001 -2.729652e-001 -4.484770e-002 -3.950362e-001 -4.276561e-001 1.298219e-001 2.788427e-001 -5.663313e-002 -1.873858e-001 -2.133914e-001 3.527674e-001 2.589363e-001
<VARIANCE> 25
 1.214629e+001 3.038831e+001 3.373688e+001 5.851693e+001 3.525313e+001 4.312748e+001 6.212179e+001 6.748420e+001 7.006580e+001 9.613828e+001 5.502237e+001 2.655752e+001 5.167006e-001 1.200766e+000 1.476031e+000 2.303883e+000 1.906775e+000 2.204439e+000 3.332871e+000 3.131120e+000 2.863212e+000 3.849595e+000 3.770407e+000 1.718060e+000 1.005461e+000
<GCONST> 1.000174e+002
<STATE> 3
<MEAN> 25
 7.400097e+000 -2.511466e+000 -3.388203e+000 -3.181793e+000 -6.490202e+000 -7.101836e+000 -3.004211e+000 2.522486e+000 -3.415887e+000 -5.014015e+000 -2.322865e+000 2.643951e+000 -8.021081e-002 1.758527e-001 1.795620e-001 3.093943e-002 1.116046e-002 6.464802e-002 -1.406860e-001 -1.625897e-002 8.268213e-002 1.910438e-001 1.235127e-001 -1.638731e-001 -1.597457e-001
<VARIANCE> 25
 6.018864e+000 2.945493e+001 4.448034e+001 2.793476e+001 3.217190e+001 4.451407e+001 6.706056e+001 6.738882e+001 6.482433e+001 6.258184e+001 6.512206e+001 2.494526e+001 1.922367e-001 6.997868e-001 9.253029e-001 9.902145e-001 1.406172e+000 1.690517e+000 1.511444e+000 1.567239e+000 1.409889e+000 1.834000e+000 1.745038e+000 1.228241e+000 2.970959e-001
<GCONST> 8.976717e+001
<STATE> 4
<MEAN> 25
 -2.765911e-001 7.845302e-001 8.037532e-002 -7.381275e-001 -6.943999e-001 7.499879e-002 -6.802056e-001 1.109943e+000 2.218602e+000 1.989890e+000 -6.406881e-001 -5.149977e-001 -2.130240e-001 6.522292e-002 6.920716e-002 1.070250e-001 1.513814e-001 1.639804e-001 1.202888e-001 -1.997354e-002 8.142967e-002 1.136889e-001 1.275580e-001 4.072667e-003 -2.693241e-001
<VARIANCE> 25
 2.969866e+001 1.432226e+001 2.201687e+001 3.161754e+001 2.541492e+001 3.530652e+001 7.059007e+001 3.009272e+001 2.972246e+001 2.623373e+001 3.525015e+001 1.629671e+001 2.481430e-001 4.248516e-001 6.270322e-001 7.121198e-001 1.027320e+000 1.191233e+000 1.416203e+000 1.372861e+000 1.317296e+000 1.291212e+000 1.449337e+000 1.052464e+000 2.394643e-001
<GCONST> 8.335316e+001
<TRANSP> 5
 0.000000e+000 1.000000e+000 0.000000e+000 0.000000e+000 0.000000e+000
 0.000000e+000 7.641813e-001 2.358187e-001 0.000000e+000 0.000000e+000
 0.000000e+000 0.000000e+000 8.901400e-001 1.098600e-001 0.000000e+000
 0.000000e+000 0.000000e+000 0.000000e+000 9.288475e-001 7.115252e-002
 0.000000e+000 0.000000e+000 0.000000e+000 0.000000e+000 0.000000e+000
<ENDHMM>
~h "m"
<BEGINHMM>
<NUMSTATES> 5
<STATE> 2
<MEAN> 25
 3.778583e+000 1.606028e+000 -2.552912e-001 1.020554e+000 1.982908e+000 2.038020e+000 -9.797239e-001 -1.272648e+000 -8.146828e-001 -1.861982e+000 -3.128602e-001 -1.786452e+000 -2.867943e-001 5.217322e-001 2.646786e-001 5.376917e-001 4.256389e-001 3.619983e-001 2.450838e-001 -4.568453e-001 -1.903789e-001 9.265345e-002 6.996418e-002 6.471650e-003 -7.003129e-001
<VARIANCE> 25
 3.053158e+001 2.868526e+001 1.774439e+001 5.496790e+001 3.773191e+001 3.603608e+001 5.749255e+001 7.957160e+001 5.018425e+001 3.272343e+001 3.098273e+001 2.407911e+001 2.869357e-001 1.116377e+000 1.279487e+000 1.555871e+000 1.568780e+000 1.815643e+000 1.967358e+000 3.507751e+000 1.940306e+000 1.477896e+000 1.960844e+000 2.140008e+000 6.310460e-001
<GCONST> 9.382256e+001
<STATE> 3
<MEAN> 25
 1.465016e+000 3.516775e+000 4.166186e-001 4.313649e+000 3.343768e+000 2.736808e+000 2.239990e+000 -1.668546e+000 -3.970319e-001 -2.063548e-001 4.603761e-002 -1.228847e+000 -2.156022e-001 2.636496e-001 1.099217e-001 2.229233e-001 1.325082e-001 8.935014e-002 4.627586e-002 -9.190667e-002 -1.128969e-001 1.036359e-001 -8.514736e-002 -6.436075e-002 -4.008220e-001
<VARIANCE> 25
 3.086538e+001 2.485801e+001 2.167238e+001 5.227249e+001 3.291241e+001 2.673699e+001 5.513004e+001 1.029902e+002 6.496179e+001 4.611641e+001 4.425788e+001 3.662280e+001 3.809386e-001 7.535123e-001 9.499437e-001 1.439912e+000 1.404331e+000 1.861084e+000 1.809298e+000 2.542967e+000 1.591817e+000 2.024270e+000 1.674206e+000 1.599146e+000 5.815018e-001
<GCONST> 9.360699e+001
<STATE> 4
<MEAN> 25
 5.225786e+000 -1.813473e+000 1.604845e+000 -2.509320e+000 2.269382e+000 9.735482e-001 -3.142746e+000 -1.853445e+000 1.928364e+000 2.007815e-001 -1.731482e+000 -5.129343e+000 8.083510e-002 -2.293768e-001 -4.612130e-002 -1.448864e-001 -2.781488e-001 -2.129381e-001 -1.387649e-001 1.310484e-001 4.999939e-002 -2.597964e-001 1.241649e-002 1.140689e-001 3.230746e-001
<VARIANCE> 25
 2.506974e+001 6.061586e+001 4.537773e+001 1.644360e+002 9.023125e+001 3.877464e+001 6.752203e+001 1.301857e+002 8.002261e+001 5.298317e+001 4.289548e+001 4.439294e+001 1.289063e+000 2.814068e+000 2.609133e+000 8.061093e+000 5.833663e+000 3.073551e+000 3.734723e+000 6.635361e+000 4.144186e+000 4.086509e+000 3.107773e+000 3.297096e+000 3.869112e+000
<GCONST> 1.122769e+002
<TRANSP> 5
 0.000000e+000 1.000000e+000 0.000000e+000 0.000000e+000 0.000000e+000
 0.000000e+000 7.380422e-001 2.619577e-001 0.000000e+000 0.000000e+000
 0.000000e+000 0.000000e+000 7.981559e-001 2.018441e-001 0.000000e+000
 0.000000e+000 0.000000e+000 0.000000e+000 8.648100e-001 1.351900e-001
 0.000000e+000 0.000000e+000 0.000000e+000 0.000000e+000 0.000000e+000
<ENDHMM>
~h "n"
<BEGINHMM>
<NUMSTATES> 5
<STATE> 2
<MEAN> 25
 5.659521e+000 -7.862011e-001 -1.353804e+000 9.446498e-001 3.527333e-001 8.363478e-002 7.710987e-001 -2.453304e+000 -1.115649e+000 -1.812419e+000 -1.008405e+000 -1.769795e+000 -3.217428e-001 6.813238e-001 4.054926e-001 7.510877e-001 6.075010e-001 6.661381e-001 3.102545e-001 -4.981949e-001 -1.562184e-002 2.579694e-001 -4.156711e-001 -4.426582e-001 -8.605324e-001
<VARIANCE> 25
 1.729676e+001 3.670861e+001 4.224321e+001 4.581422e+001 6.125229e+001 3.656211e+001 4.294352e+001 5.425127e+001 3.883018e+001 3.440012e+001 3.509404e+001 3.834376e+001 7.436156e-001 2.525291e+000 2.652978e+000 1.455205e+000 2.689731e+000 2.240767e+000 3.176380e+000 4.327986e+000 2.517639e+000 2.597821e+000 2.870416e+000 2.624820e+000 7.953414e-001
<GCONST> 9.990444e+001
<STATE> 3
<MEAN> 25
 3.518122e+000 2.651942e+000 -8.780426e-001 4.506964e+000 4.333312e+000 3.210453e+000 2.784065e+000 -9.161359e-001 -1.199316e+000 -1.197938e+000 -2.513114e+000 -2.652231e+000 -5.857483e-001 4.329032e-001 1.856986e-001 1.510193e-001 3.191051e-001 3.782694e-001 4.256510e-001 3.192033e-001 2.432294e-001 1.282106e-001 -7.402125e-002 2.991000e-001 -8.168711e-001
<VARIANCE> 25
 1.733809e+001 3.861435e+001 2.833282e+001 4.077219e+001 6.264839e+001 5.624267e+001 6.700308e+001 5.549058e+001 3.873077e+001 3.725514e+001 3.335870e+001 3.512408e+001 3.863976e-001 1.441828e+000 1.420765e+000 1.311981e+000 1.822487e+000 1.792970e+000 2.266222e+000 2.052869e+000 2.403918e+000 1.992222e+000 2.078064e+000 2.258514e+000 5.245597e-001
<GCONST> 9.546075e+001
<STATE> 4
<MEAN> 25
 -2.564862e+000 1.199474e+000 -9.438516e-001 2.580217e+000 2.362962e+000 2.878440e+000 3.628821e+000 -7.859460e-002 1.922565e+000 1.056054e+000 1.114622e+000 -2.862722e-002 -1.503409e-001 -2.204726e-002 -1.422598e-002 -4.250005e-002 -3.349388e-002 -2.909503e-002 -1.837902e-002 -2.188840e-002 2.725251e-002 6.803837e-002 6.478880e-002 7.634631e-002 -1.299039e-001
<VARIANCE> 25
 1.369350e+001 2.160586e+001 1.870691e+001 2.120807e+001 1.590273e+001 2.061370e+001 2.671517e+001 2.578703e+001 2.352638e+001 2.268951e+001 2.964124e+001 1.769803e+001 2.628762e-001 4.952432e-001 6.313811e-001 7.023826e-001 8.654151e-001 1.115767e+000 1.372300e+000 1.354357e+000 1.426541e+000 1.489615e+000 1.418509e+000 1.153787e+000 2.255176e-001
<GCONST> 7.998026e+001
<TRANSP> 5
 0.000000e+000 1.000000e+000 0.000000e+000 0.000000e+000 0.000000e+000
 0.000000e+000 6.345741e-001 3.654259e-001 0.000000e+000 0.000000e+000
 0.000000e+000 0.000000e+000 7.042469e-001 2.957531e-001 0.000000e+000
 0.000000e+000 0.000000e+000 0.000000e+000 9.400676e-001 5.993239e-002
 0.000000e+000 0.000000e+000 0.000000e+000 0.000000e+000 0.000000e+000
<ENDHMM>
~h "o"
<BEGINHMM>
<NUMSTATES> 5
<STATE> 2
<MEAN> 25
 4.657578e+000 1.315175e+000 1.541718e+000 -1.525187e+000 -4.658259e+000 -2.747402e+000 -7.084173e+000 7.048400e-001 1.069115e+000 -4.688556e-001 -4.926575e-001 -8.142413e-001 7.531588e-001 -1.557875e-001 -5.183598e-001 -4.041913e-001 -1.225414e+000 -8.627728e-001 -6.387716e-001 2.443300e-001 -2.631837e-001 -2.614085e-001 1.531224e-001 1.489772e-001 5.986174e-001
<VARIANCE> 25
 2.566732e+001 2.370848e+001 2.268724e+001 5.161465e+001 8.300038e+001 8.158045e+001 7.661993e+001 6.134864e+001 1.146809e+002 5.454835e+001 3.870724e+001 1.679487e+001 1.857769e+000 1.723151e+000 1.716853e+000 3.222353e+000 4.719389e+000 6.581615e+000 5.084373e+000 5.043214e+000 5.775801e+000 3.023422e+000 1.968581e+000 2.060752e+000 1.654604e+000
<GCONST> 1.062361e+002
<STATE> 3
<MEAN> 25
 6.615307e+000 1.617798e+000 2.483982e-001 -4.690596e+000 -1.081920e+001 -6.223181e+000 -5.300776e+000 3.474077e+000 -9.690982e-001 -1.421229e+000 -2.843734e-001 -6.872077e-003 -7.055739e-002 5.356419e-003 -2.346141e-001 -7.073285e-002 3.967842e-001 4.541863e-001 2.886279e-001 -2.457963e-001 -2.142602e-001 1.122802e-001 1.914433e-001 9.164153e-002 -2.175210e-001
<VARIANCE> 25
 1.554040e+001 2.466556e+001 2.213984e+001 3.018419e+001 5.271209e+001 1.003201e+002 5.180777e+001 3.583896e+001 1.177939e+002 5.755489e+001 4.589354e+001 1.363314e+001 2.026623e-001 6.767959e-001 7.508929e-001 7.915693e-001 1.838231e+000 1.753829e+000 1.220183e+000 2.197045e+000 2.779459e+000 1.323200e+000 1.377147e+000 9.856685e-001 3.365729e-001
<GCONST> 8.992960e+001
<STATE> 4
<MEAN> 25
 1.903172e+000 2.117132e+000 -1.079431e+000 -1.625355e-002 6.117898e-001 2.778770e+000 -3.943737e+000 -2.196890e+000 -1.729491e+000 1.202480e+000 2.600304e+000 -1.124299e+000 -2.409360e-001 -9.862489e-002 -1.311723e-001 2.147525e-001 4.066046e-001 3.247012e-002 2.683752e-001 -1.339703e-001 -8.212301e-002 -1.053781e-001 -2.101940e-002 -7.177336e-004 -3.255806e-001
<VARIANCE> 25
 3.239362e+001 2.735169e+001 2.773449e+001 5.438987e+001 4.553805e+001 5.550257e+001 5.383423e+001 3.558632e+001 4.548530e+001 3.221604e+001 3.777240e+001 2.041294e+001 3.687366e-001 7.688665e-001 1.033259e+000 1.362051e+000 1.694856e+000 1.862968e+000 1.989646e+000 2.150133e+000 1.873417e+000 1.695434e+000 1.581831e+000 1.307052e+000 4.362764e-001
<GCONST> 9.212000e+001
<TRANSP> 5
 0.000000e+000 1.000000e+000 0.000000e+000 0.000000e+000 0.000000e+000
 0.000000e+000 6.856475e-001 3.143524e-001 0.000000e+000 0.000000e+000
 0.000000e+000 0.000000e+000 7.808152e-001 2.191848e-001 0.000000e+000
 0.000000e+000 0.000000e+000 0.000000e+000 8.445324e-001 1.554676e-001
 0.000000e+000 0.000000e+000 0.000000e+000 0.000000e+000 0.000000e+000
<ENDHMM>
~h "p"
<BEGINHMM>
<NUMSTATES> 5
<STATE> 2
<MEAN> 25
 7.378867e-001 1.492933e+000 1.182426e+000 -1.487153e+000 -5.367652e+000 -3.904916e+000 -1.460734e+000 1.417536e+000 6.267587e+000 2.059271e+000 7.830288e-001 -8.022174e-001 2.701849e-001 -4.990859e-002 9.601235e-002 -2.086007e-001 -3.781886e-001 -2.582366e-001 -1.929982e-001 2.242258e-001 6.285861e-001 -7.912648e-002 3.838793e-002 2.164477e-002 5.101035e-001
<VARIANCE> 25
 8.125789e+001 4.812025e+001 3.794889e+001 3.148627e+001 7.059317e+001 5.684893e+001 6.586066e+001 4.452750e+001 1.399953e+002 4.053427e+001 2.843740e+001 2.036960e+001 4.796220e+000 4.897319e+000 2.244261e+000 3.567680e+000 4.569774e+000 4.402890e+000 4.482911e+000 3.028533e+000 9.150898e+000 3.977442e+000 3.632962e+000 2.413966e+000 5.121249e+000
<GCONST> 1.108366e+002
<STATE> 3
<MEAN> 25
 1.301771e+000 7.448138e-001 -1.252562e+000 -3.137863e+000 -1.475736e+000 -1.280585e+000 5.838451e-001 2.758828e-001 3.954684e+000 -2.103710e-001 3.491869e-001 2.961741e-001 -4.513201e-001 2.328250e-001 -1.031214e-001 -4.184338e-002 4.581983e-001 3.904718e-001 -8.004876e-002 -7.723877e-002 -1.122149e-001 3.843551e-001 5.486134e-002 8.862689e-002 -6.041744e-001
<VARIANCE> 25
 4.645169e+001 3.310236e+001 2.586671e+001 2.615765e+001 3.923346e+001 3.952165e+001 8.754604e+001 3.329830e+001 9.005246e+001 3.520156e+001 4.476176e+001 2.691152e+001 6.187182e-001 2.008615e+000 1.064547e+000 1.392101e+000 1.672687e+000 1.832877e+000 2.134637e+000 2.077338e+000 3.059251e+000 2.589982e+000 2.334797e+000 1.169265e+000 9.719256e-001
<GCONST> 9.654753e+001
<STATE> 4
<MEAN> 25
 -3.064907e+000 1.122466e+000 -8.764015e-001 -3.942164e-001 1.413704e+000 2.612525e+000 1.624965e+000 5.914552e-001 2.355272e+000 2.853833e+000 7.916225e-001 3.339587e-001 -1.110765e-001 -1.911739e-002 -2.222399e-002 2.663672e-002 5.962602e-002 -6.038405e-003 -6.348042e-002 -9.900929e-002 -8.569302e-002 7.303578e-003 -2.605949e-002 -1.138571e-002 -8.903529e-002
<VARIANCE> 25
 1.511204e+001 8.330360e+000 1.135576e+001 1.668165e+001 1.554967e+001 2.315730e+001 1.731633e+001 1.817094e+001 2.875384e+001 1.593490e+001 1.197175e+001 1.181268e+001 3.354650e-001 3.915624e-001 5.200595e-001 5.716058e-001 7.983103e-001 1.183408e+000 1.152967e+000 1.168126e+000 1.399857e+000 1.211155e+000 1.061420e+000 9.511762e-001 3.227543e-001
<GCONST> 7.514774e+001
<TRANSP> 5
 0.000000e+000 1.000000e+000 0.000000e+000 0.000000e+000 0.000000e+000
 0.000000e+000 7.617434e-001 2.382566e-001 0.000000e+000 0.000000e+000
 0.000000e+000 0.000000e+000 7.036458e-001 2.963543e-001 0.000000e+000
 0.000000e+000 0.000000e+000 0.000000e+000 9.371396e-001 6.286038e-002
 0.000000e+000 0.000000e+000 0.000000e+000 0.000000e+000 0.000000e+000
<ENDHMM>
~h "r"
<BEGINHMM>
<NUMSTATES> 5
<STATE> 2
<MEAN> 25
 5.400431e+000 -3.452625e+000 -2.030686e+000 -4.460502e+000 -3.227867e+000 1.310310e+000 -3.850922e+000 1.221325e-001 -3.114505e+000 -1.016517e+000 9.780754e-001 5.909327e-001 6.149016e-002 8.955844e-002 1.198153e-002 -2.192357e-001 1.637882e-001 1.625735e-001 2.309419e-003 -1.898046e-001 -4.326709e-001 -5.262073e-001 7.200754e-002 4.221452e-001 -6.181468e-002
<VARIANCE> 25
 2.735778e+001 6.311687e+001 6.947251e+001 7.879003e+001 5.909000e+001 9.824990e+001 7.501324e+001 6.524984e+001 7.419637e+001 6.616135e+001 5.387422e+001 5.444364e+001 1.525541e+000 3.020221e+000 2.890706e+000 5.067151e+000 4.677149e+000 4.954211e+000 4.933889e+000 4.086265e+000 4.790124e+000 2.787145e+000 3.678272e+000 2.584200e+000 2.756682e+000
<GCONST> 1.118698e+002
<STATE> 3
<MEAN> 25
 6.164573e+000 1.381729e+000 -4.210895e+000 -5.396851e+000 -1.309259e+000 4.112565e+000 -1.904427e+000 -1.378960e+000 -5.891245e+000 -3.225888e+000 9.233356e-001 4.113642e+000 -3.263858e-001 4.617468e-001 5.172297e-002 5.035141e-001 4.488087e-001 -2.372666e-002 3.869914e-001 -1.257998e-001 2.418236e-003 8.692444e-002 -9.115727e-002 5.967330e-002 -7.491757e-001
<VARIANCE> 25
 2.383341e+001 4.480007e+001 4.514004e+001 7.645637e+001 7.179059e+001 8.809573e+001 5.888471e+001 4.592464e+001 8.523568e+001 3.741144e+001 4.875939e+001 4.082051e+001 8.277286e-001 1.529360e+000 1.556027e+000 2.976861e+000 2.586025e+000 2.648741e+000 3.308685e+000 2.546499e+000 2.965214e+000 2.360261e+000 3.087426e+000 1.978624e+000 1.261767e+000
<GCONST> 1.031972e+002
<STATE> 4
<MEAN> 25
 2.458965e+000 2.190942e+000 -1.562625e+000 -1.938374e+000 -8.449854e-001 1.023653e+000 -7.214555e-001 -1.338893e+000 -2.820704e+000 -1.279798e+000 -1.030350e+000 1.564768e+000 -4.437718e-001 1.292166e-001 -2.738090e-002 3.754408e-001 3.608805e-001 1.206950e-002 3.866972e-001 1.669208e-001 3.883961e-001 3.154989e-001 1.063706e-001 1.490695e-002 -6.821085e-001
<VARIANCE> 25
 2.941619e+001 2.679214e+001 4.208340e+001 4.994514e+001 5.714768e+001 4.776318e+001 4.220448e+001 3.363428e+001 4.841557e+001 3.426176e+001 3.174465e+001 2.973382e+001 7.116570e-001 1.028063e+000 1.377398e+000 1.946976e+000 1.662557e+000 2.164386e+000 2.633568e+000 2.117466e+000 2.296671e+000 2.044489e+000 2.384392e+000 1.963031e+000 1.052778e+000
<GCONST> 9.651550e+001
<TRANSP> 5
 0.000000e+000 1.000000e+000 0.000000e+000 0.000000e+000 0.000000e+000
 0.000000e+000 6.981428e-001 3.018573e-001 0.000000e+000 0.000000e+000
 0.000000e+000 0.000000e+000 6.487924e-001 3.512076e-001 0.000000e+000
 0.000000e+000 0.000000e+000 0.000000e+000 7.406060e-001 2.593940e-001
 0.000000e+000 0.000000e+000 0.000000e+000 0.000000e+000 0.000000e+000
<ENDHMM>
~h "s"
<BEGINHMM>
<NUMSTATES> 5
<STATE> 2
<MEAN> 25
 -4.393673e+000 2.221683e+000 -4.692907e-001 -2.028023e-001 6.084809e-001 6.244743e-001 4.681203e+000 1.737941e+000 1.661825e+000 1.160984e+000 1.738069e+000 1.755002e-001 -7.658098e-001 -6.126068e-001 1.200047e+000 -7.018942e-001 -1.249344e-001 2.587277e-001 4.824570e-001 3.213824e-003 1.784097e-001 1.867531e-001 4.649317e-001 -1.755239e-001 1.234631e+000
<VARIANCE> 25
 9.113412e+001 1.316954e+002 1.054733e+002 7.859293e+001 8.322770e+001 3.995932e+001 9.344841e+001 6.211307e+001 1.025666e+002 3.610374e+001 4.108072e+001 3.543025e+001 8.574254e+000 8.496268e+000 8.353313e+000 7.303452e+000 6.873081e+000 4.108061e+000 6.447027e+000 4.804806e+000 4.273324e+000 4.094129e+000 4.438729e+000 2.967282e+000 4.752485e+000
<GCONST> 1.188101e+002
<STATE> 3
<MEAN> 25
 -1.261647e+001 -1.239509e+001 1.960379e+001 -7.531407e+000 -5.398147e+000 5.313215e+000 5.702478e+000 -2.784426e+000 -5.200421e+000 2.106008e+000 6.384450e+000 -2.278450e+000 -1.222606e-001 1.725176e-002 -5.201402e-001 -3.901555e-002 6.254026e-001 -2.193016e-001 -3.838499e-001 1.452760e-001 4.629810e-001 1.234522e-001 -3.665259e-002 -8.920398e-002 1.323066e-001
<VARIANCE> 25
 5.792807e+001 1.339672e+002 1.248771e+002 4.012512e+001 8.987112e+001 5.879814e+001 4.220447e+001 5.325431e+001 5.377732e+001 3.272910e+001 3.067842e+001 1.413805e+001 6.775959e+000 3.366497e+000 5.546023e+000 3.694242e+000 2.270751e+000 2.546545e+000 2.668002e+000 3.356266e+000 2.556728e+000 2.138818e+000 1.971168e+000 1.491608e+000 7.609034e-001
<GCONST> 1.058570e+002
<STATE> 4
<MEAN> 25
 -1.377671e+001 4.922799e-001 4.780133e+000 -4.789817e+000 3.086046e+000 1.567658e+000 4.121305e+000 -6.536753e-001 9.033868e-001 4.146319e+000 2.380001e+000 -2.363354e-001 7.267123e-001 1.421833e-002 -2.576447e-001 2.301904e-001 -9.930851e-002 -1.862555e-001 -4.520986e-001 -3.113911e-001 -1.968136e-001 -3.664515e-001 -2.695815e-001 2.606870e-002 -1.359583e-001
<VARIANCE> 25
 7.594561e+001 5.629271e+001 5.600156e+001 7.246291e+001 3.401290e+001 2.787650e+001 2.643720e+001 3.615617e+001 4.302629e+001 3.589824e+001 2.067673e+001 1.739561e+001 3.693028e+000 9.521857e-001 1.668905e+000 1.754512e+000 1.929437e+000 1.612854e+000 2.290275e+000 2.370555e+000 2.498502e+000 2.541450e+000 1.740411e+000 1.441160e+000 4.442997e-001
<GCONST> 9.667641e+001
<TRANSP> 5
 0.000000e+000 1.000000e+000 0.000000e+000 0.000000e+000 0.000000e+000
 0.000000e+000 8.650692e-001 1.349308e-001 0.000000e+000 0.000000e+000
 0.000000e+000 0.000000e+000 7.644798e-001 2.355202e-001 0.000000e+000
 0.000000e+000 0.000000e+000 0.000000e+000 8.903078e-001 1.096922e-001
 0.000000e+000 0.000000e+000 0.000000e+000 0.000000e+000 0.000000e+000
<ENDHMM>
~h "t"
<BEGINHMM>
<NUMSTATES> 5
<STATE> 2
<MEAN> 25
 -1.787734e+000 9.583105e-001 -5.957916e-001 -8.989157e-001 9.949352e-001 -6.310889e-002 5.282134e-001 -6.416277e-001 2.067885e+000 5.571188e-001 8.532263e-001 2.896114e-001 8.195079e-001 -8.897536e-001 5.344488e-001 -1.350440e+000 -4.071144e-001 -1.299606e-001 -8.050733e-001 -2.253123e-002 -1.067140e-001 -6.609293e-002 4.975805e-001 -3.444752e-001 2.747146e+000
<VARIANCE> 25
 3.368525e+001 4.635167e+001 2.550425e+001 6.201364e+001 5.077655e+001 4.318002e+001 7.011252e+001 4.315359e+001 7.029712e+001 4.299339e+001 3.047708e+001 3.286767e+001 4.678830e+000 6.068555e+000 3.148972e+000 7.518879e+000 6.104079e+000 4.576030e+000 9.720511e+000 5.626585e+000 8.416858e+000 5.297385e+000 3.503284e+000 4.602284e+000 1.302163e+001
<GCONST> 1.142839e+002
<STATE> 3
<MEAN> 25
 7.883506e-001 -4.617083e-001 4.206946e-001 -3.966780e+000 -4.806286e-001 1.459659e+000 -1.607062e+000 3.127075e-001 7.673096e-003 1.120351e+000 1.337217e+000 -2.183910e-001 6.555771e-001 9.050129e-002 -8.645834e-002 -2.687971e-001 -5.688856e-001 -5.083741e-001 -2.187301e-001 1.629482e-001 -6.517460e-001 -6.906464e-001 -2.629301e-001 1.989879e-001 5.186505e-001
<VARIANCE> 25
 3.661746e+001 4.429570e+001 2.877693e+001 6.731687e+001 4.842181e+001 5.356570e+001 5.950383e+001 4.448050e+001 7.831910e+001 5.683840e+001 3.230749e+001 3.383685e+001 2.402163e+000 2.750224e+000 2.408193e+000 3.147845e+000 2.999897e+000 5.808530e+000 4.028575e+000 3.770259e+000 7.635086e+000 5.057265e+000 2.789215e+000 2.140440e+000 3.729127e+000
<GCONST> 1.082958e+002
<STATE> 4
<MEAN> 25
 2.410915e+000 1.089546e+000 -6.030568e-001 -4.154150e+000 -1.075913e+000 -1.790477e-001 -1.713582e+000 -6.163377e-001 -4.330476e+000 -1.460126e-001 1.598782e+000 9.209702e-001 3.519127e-001 1.980389e-001 -1.671427e-001 2.691290e-001 -3.203292e-001 -5.678145e-001 -9.270395e-002 -5.255404e-002 -2.398789e-001 -4.338824e-001 -4.285129e-001 5.291439e-002 2.138699e-002
<VARIANCE> 25
 5.140060e+001 4.669840e+001 2.818601e+001 1.141984e+002 5.152915e+001 4.997064e+001 6.327736e+001 4.713902e+001 1.428836e+002 5.414842e+001 3.970684e+001 3.157452e+001 1.732043e+000 2.189953e+000 2.223779e+000 3.146980e+000 2.759079e+000 4.794210e+000 4.393167e+000 2.926829e+000 5.103577e+000 3.571322e+000 2.725220e+000 1.653592e+000 3.373984e+000
<GCONST> 1.077885e+002
<TRANSP> 5
 0.000000e+000 1.000000e+000 0.000000e+000 0.000000e+000 0.000000e+000
 0.000000e+000 6.634699e-001 3.365301e-001 0.000000e+000 0.000000e+000
 0.000000e+000 0.000000e+000 4.183540e-001 5.816460e-001 0.000000e+000
 0.000000e+000 0.000000e+000 0.000000e+000 5.554094e-001 4.445906e-001
 0.000000e+000 0.000000e+000 0.000000e+000 0.000000e+000 0.000000e+000
<ENDHMM>
~h "u"
<BEGINHMM>
<NUMSTATES> 5
<STATE> 2
<MEAN> 25
 6.497675e+000 4.813926e+000 2.662784e+000 -3.262978e+000 -4.780930e+000 8.814366e-001 -8.591574e+000 -1.751575e+000 -3.960891e+000 -2.792410e+000 7.792451e-001 -4.353876e-001 1.588906e-001 4.155900e-001 2.161742e-001 -5.601973e-002 -4.304201e-001 -1.823029e-001 -1.361353e-001 -1.207173e-001 1.265333e-002 -2.649624e-001 -2.906253e-001 1.063986e-002 -1.366374e-001
<VARIANCE> 25
 1.931840e+001 2.749840e+001 4.345737e+001 8.143845e+001 5.173304e+001 8.738734e+001 5.045320e+001 5.960926e+001 8.569529e+001 7.479349e+001 4.446226e+001 2.718304e+001 7.205940e-001 2.000049e+000 1.963081e+000 2.656104e+000 2.369180e+000 3.320903e+000 3.161366e+000 3.006699e+000 2.719827e+000 2.702152e+000 2.172132e+000 1.900598e+000 9.053063e-001
<GCONST> 1.023263e+002
<STATE> 3
<MEAN> 25
 6.353087e+000 6.485564e+000 3.311434e+000 -3.056374e+000 -6.302242e+000 -3.202821e+000 -6.681817e+000 -7.279888e-001 -3.479801e+000 -4.885024e+000 -1.675855e+000 -1.825748e+000 -1.628171e-001 -3.448426e-002 -1.792454e-001 1.642338e-001 3.464192e-001 1.745321e-001 2.642230e-001 -9.373583e-002 4.936431e-002 2.087850e-001 -1.418909e-001 -1.432091e-001 -2.879958e-001
<VARIANCE> 25
 1.331416e+001 3.293741e+001 3.464574e+001 5.203408e+001 3.626933e+001 6.463995e+001 4.674279e+001 5.064797e+001 6.823669e+001 3.881567e+001 3.565968e+001 3.463007e+001 2.827959e-001 8.924878e-001 1.188915e+000 1.626614e+000 2.032337e+000 2.019093e+000 1.589703e+000 2.031738e+000 1.940358e+000 1.827537e+000 1.615312e+000 1.632614e+000 4.682062e-001
<GCONST> 9.340110e+001
<STATE> 4
<MEAN> 25
 4.309748e-002 3.416701e+000 1.442921e+000 1.793303e+000 -4.635636e-001 1.224702e+000 -9.580552e-002 -2.133926e+000 -7.803482e-001 -4.702134e-001 -1.184602e+000 -9.643452e-001 -2.023834e-001 -1.178319e-001 -1.485834e-001 6.263080e-002 2.440590e-001 1.938030e-001 1.490316e-001 -5.574567e-002 6.104020e-002 1.887095e-001 6.003065e-002 5.163470e-002 -2.135938e-001
<VARIANCE> 25
 2.439628e+001 2.731944e+001 3.057193e+001 4.367178e+001 2.663525e+001 3.136594e+001 4.883084e+001 2.612794e+001 3.704736e+001 3.323087e+001 2.558309e+001 2.463846e+001 3.295073e-001 6.185783e-001 7.958579e-001 1.235275e+000 1.343283e+000 1.660516e+000 1.607802e+000 1.561940e+000 1.570030e+000 1.693986e+000 1.295547e+000 1.362943e+000 3.137966e-001
<GCONST> 8.759024e+001
<TRANSP> 5
 0.000000e+000 1.000000e+000 0.000000e+000 0.000000e+000 0.000000e+000
 0.000000e+000 7.549849e-001 2.450151e-001 0.000000e+000 0.000000e+000
 0.000000e+000 0.000000e+000 8.338113e-001 1.661887e-001 0.000000e+000
 0.000000e+000 0.000000e+000 0.000000e+000 8.786975e-001 1.213025e-001
 0.000000e+000 0.000000e+000 0.000000e+000 0.000000e+000 0.000000e+000
<ENDHMM>
~h "w"
<BEGINHMM>
<NUMSTATES> 5
<STATE> 2
<MEAN> 25
 6.368682e+000 2.177272e+000 2.910063e+000 -2.792305e+000 -8.153017e+000 -6.425270e+000 -3.482959e+000 5.681615e+000 9.882402e+000 -7.477915e+000 -4.623752e+000 3.153532e+000 5.047525e-001 -3.629555e-001 -1.243030e-001 -5.050692e-002 -4.816718e-001 -4.441830e-001 1.034829e-001 8.056849e-001 7.396875e-001 -6.275074e-001 -1.732835e-001 2.057924e-001 5.835899e-001
<VARIANCE> 25
 2.181382e+001 1.256914e+002 4.373086e+001 4.579237e+001 5.289439e+001 5.632278e+001 3.375247e+001 3.999541e+001 8.676312e+001 5.347589e+001 1.932951e+001 2.326132e+001 1.431930e+000 6.157793e+000 3.673770e+000 2.603399e+000 5.433775e+000 4.043162e+000 2.883222e+000 3.967754e+000 7.130272e+000 3.226972e+000 2.450671e+000 2.420064e+000 2.376963e+000
<GCONST> 1.069669e+002
<STATE> 3
<MEAN> 25
 6.679317e+000 -6.075403e+000 -3.028294e+000 -4.869863e+000 -7.765166e+000 -4.148811e-001 5.251189e+000 1.048654e+001 9.973351e+000 -5.473999e+000 -1.245513e+000 4.356258e+000 -1.662628e-001 -2.023549e-001 -3.535959e-001 2.429902e-001 7.153978e-001 8.289679e-001 6.580703e-001 -1.984706e-001 -3.915036e-001 7.510437e-001 7.420952e-001 1.229071e-001 -1.843580e-001
<VARIANCE> 25
 1.213248e+001 6.293333e+001 5.228792e+001 1.720027e+001 3.086691e+001 1.078267e+002 2.621886e+001 2.624536e+001 9.957971e+001 2.614462e+001 2.620497e+001 1.913823e+001 4.492587e-001 1.726954e+000 1.482770e+000 1.099704e+000 1.560923e+000 2.962789e+000 2.650409e+000 2.453140e+000 2.526601e+000 2.231506e+000 1.508450e+000 1.516660e+000 5.300928e-001
<GCONST> 9.367409e+001
<STATE> 4
<MEAN> 25
 3.136301e+000 -9.322463e-001 -4.912160e+000 -7.797212e+000 3.360017e+000 4.030637e+000 2.415684e+000 1.635790e+000 2.706751e+000 3.643042e-001 1.903330e-001 6.068949e-001 7.938803e-003 1.677145e-001 -3.061753e-002 1.057958e-002 2.424816e-002 -2.192797e-001 -2.820921e-001 -2.330707e-001 -9.327196e-002 3.340761e-001 1.029864e-001 1.909664e-002 -3.877247e-002
<VARIANCE> 25
 6.504606e+001 3.773047e+001 1.749692e+001 9.365530e+001 2.454977e+001 3.665650e+001 5.976839e+001 2.975368e+001 3.666431e+001 3.627369e+001 3.546663e+001 2.385523e+001 1.040464e+000 1.631063e+000 1.111020e+000 1.591228e+000 1.412675e+000 2.557617e+000 1.687320e+000 1.931896e+000 3.125478e+000 1.586826e+000 1.876159e+000 1.470674e+000 1.196041e+000
<GCONST> 9.573353e+001
<TRANSP> 5
 0.000000e+000 1.000000e+000 0.000000e+000 0.000000e+000 0.000000e+000
 0.000000e+000 9.059058e-001 9.409422e-002 0.000000e+000 0.000000e+000
 0.000000e+000 0.000000e+000 8.658821e-001 1.341179e-001 0.000000e+000
 0.000000e+000 0.000000e+000 0.000000e+000 9.099994e-001 9.000065e-002
 0.000000e+000 0.000000e+000 0.000000e+000 0.000000e+000 0.000000e+000
<ENDHMM>
~h "y"
<BEGINHMM>
<NUMSTATES> 5
<STATE> 2
<MEAN> 25
 5.673296e+000 -7.531248e+000 -8.230380e-001 -9.399210e-001 2.162466e+000 -6.023818e+000 -6.095925e+000 -4.151557e+000 -1.343801e+000 -5.212849e-001 2.543365e+000 9.939216e-001 -2.635114e-001 3.996288e-002 9.239757e-001 1.171669e+000 2.105010e-001 -9.443459e-001 -9.876140e-001 2.854932e-001 1.163196e-001 -4.058339e-001 -6.931214e-002 -8.201489e-001 1.644549e-002
<VARIANCE> 25
 7.284768e+000 2.407777e+001 2.368964e+001 1.123587e+002 4.894643e+001 3.679478e+001 5.466248e+001 5.162944e+001 4.411576e+001 2.487636e+001 6.663248e+001 3.788088e+001 2.934392e-001 8.990574e-001 1.395337e+000 1.761508e+000 1.992480e+000 1.900807e+000 2.933689e+000 1.843646e+000 2.381383e+000 2.327891e+000 3.093974e+000 2.509826e+000 5.610310e-001
<GCONST> 9.504727e+001
<STATE> 3
<MEAN> 25
 4.058760e+000 -6.778463e+000 4.274435e+000 4.752298e+000 1.925742e+000 -9.642572e+000 -8.012502e+000 -2.479867e+000 -2.705230e+000 -3.356660e+000 8.972819e-001 -2.244595e+000 9.295385e-002 -3.872783e-003 -2.491150e-001 -5.779648e-001 -7.250634e-001 3.959901e-002 4.697178e-001 1.143864e-001 -4.315418e-001 4.532202e-001 6.338621e-001 5.862673e-001 1.007555e-001
<VARIANCE> 25
 7.406143e+000 3.290018e+001 5.580555e+001 1.435461e+002 4.971664e+001 4.270987e+001 6.295235e+001 6.933089e+001 3.473381e+001 3.080732e+001 6.244430e+001 3.177297e+001 4.473547e-001 1.039436e+000 3.742398e+000 2.767534e+000 2.519151e+000 2.799343e+000 3.621573e+000 2.717818e+000 1.954119e+000 2.936842e+000 3.290125e+000 1.842650e+000 5.672792e-001
<GCONST> 9.983614e+001
<STATE> 4
<MEAN> 25
 3.298161e+000 -2.405585e+000 1.129187e+001 -9.407446e+000 -8.289179e+000 -5.522116e+000 -3.568547e+000 2.604850e+000 -4.714222e+000 1.304674e+000 -7.712847e-001 8.755435e-001 1.055774e-001 -7.802725e-002 -2.875708e-001 -2.885443e-002 1.328500e-001 1.718511e-001 -3.708130e-002 -5.394397e-002 2.146451e-001 -5.489336e-002 -2.751360e-001 -1.699499e-001 -1.158134e-001
<VARIANCE> 25
 1.652736e+001 7.177793e+001 9.997710e+001 4.178743e+001 6.524725e+001 3.620804e+001 4.473104e+001 7.805953e+001 4.829761e+001 3.450057e+001 5.740701e+001 2.208747e+001 6.536511e-001 2.377032e+000 2.863160e+000 1.570642e+000 3.650521e+000 2.206541e+000 3.213801e+000 4.603679e+000 2.649381e+000 2.098561e+000 2.984949e+000 1.407369e+000 8.062282e-001
<GCONST> 1.015124e+002
<TRANSP> 5
 0.000000e+000 1.000000e+000 0.000000e+000 0.000000e+000 0.000000e+000
 0.000000e+000 8.006929e-001 1.993071e-001 0.000000e+000 0.000000e+000
 0.000000e+000 0.000000e+000 8.733733e-001 1.266267e-001 0.000000e+000
 0.000000e+000 0.000000e+000 0.000000e+000 9.271177e-001 7.288223e-002
 0.000000e+000 0.000000e+000 0.000000e+000 0.000000e+000 0.000000e+000
<ENDHMM>
~h "z"
<BEGINHMM>
<NUMSTATES> 5
<STATE> 2
<MEAN> 25
 -4.143520e+000 -1.881547e-001 -2.464396e+000 3.401726e+000 1.873452e+000 2.031686e+000 3.051617e+000 4.435938e-001 4.323854e+000 2.575974e+000 1.998865e+000 1.268010e+000 -8.780453e-002 4.676519e-002 -7.781184e-003 -6.490001e-003 7.336813e-003 1.592166e-002 -6.885087e-003 -4.778415e-002 -1.121711e-001 -8.360628e-002 5.130948e-002 -3.454990e-002 -1.416153e-001
<VARIANCE> 25
 2.967854e+000 7.764265e+000 1.627575e+001 9.411113e+000 1.950943e+001 2.278243e+001 1.483508e+001 1.578386e+001 2.911465e+001 2.451990e+001 1.422896e+001 1.653743e+001 1.387185e-001 4.645974e-001 8.145521e-001 6.958557e-001 1.066270e+000 1.067243e+000 1.118290e+000 2.203497e+000 2.242793e+000 2.198858e+000 1.446655e+000 1.274624e+000 2.797475e-001
<GCONST> 7.635554e+001
<STATE> 3
<MEAN> 25
 -4.461272e+000 3.896484e+000 5.113173e-001 6.401006e+000 3.204641e+000 6.514062e-001 -4.348395e-001 -6.228034e+000 9.375203e-002 -1.409143e+000 -8.315269e-001 7.332806e-001 2.092772e-001 2.665737e-001 4.445382e-001 3.617750e-001 3.618430e-001 -7.272533e-001 -4.571505e-001 -9.417692e-001 -7.304171e-001 4.429900e-002 -2.542543e-001 1.669736e-001 2.609589e-001
<VARIANCE> 25
 3.089445e+000 4.684844e+000 2.196600e+001 1.905948e+001 4.774704e+000 3.092582e+001 1.525543e+001 2.738950e+001 2.595694e+001 1.553584e+001 1.305358e+001 2.419548e+001 4.498324e-001 8.535307e-001 5.723050e-001 1.090036e+000 5.511970e-001 2.537255e-001 1.252959e+000 3.646017e+000 2.975354e+000 2.474188e+000 9.208049e-001 2.243138e+000 3.425215e-001
<GCONST> 7.721422e+001
<STATE> 4
<MEAN> 25
 -1.585811e-001 -5.713122e-001 -2.500421e-001 5.319996e+000 1.662503e+000 -8.799530e-001 -3.835847e+000 2.139019e+000 1.112800e-001 9.685912e-001 5.985381e-001 -1.159343e+000 5.455418e-001 -3.055257e-001 -1.578617e-002 -6.748933e-001 -8.393987e-003 3.195521e-001 -3.200448e-001 6.598939e-001 2.617037e-001 -1.363917e-001 -7.689167e-002 -4.348684e-001 1.367710e+000
<VARIANCE> 25
 2.667486e+001 1.870212e+001 1.203917e+001 4.977102e+001 2.623215e+001 7.252634e+001 1.013133e+002 2.559267e+001 3.201804e+001 3.054388e+001 1.141450e+001 2.480219e+001 6.886723e-001 1.787868e+000 1.165316e+000 3.241603e+000 3.685066e+000 6.974301e+000 6.194977e+000 2.106978e+000 8.938692e-001 1.105246e+000 7.443361e-001 1.477620e+000 1.033985e+001
<GCONST> 9.626928e+001
<TRANSP> 5
 0.000000e+000 1.000000e+000 0.000000e+000 0.000000e+000 0.000000e+000
 0.000000e+000 9.728331e-001 2.716687e-002 0.000000e+000 0.000000e+000
 0.000000e+000 0.000000e+000 8.567412e-001 1.432588e-001 0.000000e+000
 0.000000e+000 0.000000e+000 0.000000e+000 9.244546e-001 7.554542e-002
 0.000000e+000 0.000000e+000 0.000000e+000 0.000000e+000 0.000000e+000
<ENDHMM>
~h "ai"
<BEGINHMM>
<NUMSTATES> 5
<STATE> 2
<MEAN> 25
 5.932818e+000 -3.446381e+000 1.976656e+000 -4.335555e+000 -5.322358e+000 2.753108e+000 -7.106090e+000 -4.835151e+000 -9.412880e-001 2.029862e+000 1.047569e+000 5.008255e-001 3.910061e-001 -7.349842e-001 1.085339e-001 -7.149657e-001 5.404423e-001 -2.873047e-001 -4.392124e-001 5.679889e-001 3.273241e-001 -2.449261e-001 8.050476e-002 -2.870016e-001 1.471600e+000
<VARIANCE> 25
 3.844040e+001 5.078035e+001 5.187612e+001 9.389400e+001 8.719728e+001 7.598531e+001 7.813640e+001 6.691275e+001 1.067359e+002 8.002491e+001 6.553775e+001 2.755734e+001 2.616104e+000 3.577663e+000 4.377839e+000 8.244508e+000 6.805233e+000 6.542263e+000 6.500202e+000 8.621742e+000 7.389035e+000 5.513903e+000 4.764372e+000 2.712784e+000 4.910915e+000
<GCONST> 1.174292e+002
<STATE> 3
<MEAN> 25
 5.203398e+000 -8.843885e+000 3.425945e+000 -1.731534e+000 3.678606e+000 -5.283504e+000 -9.076393e-001 2.157448e+000 4.340337e-001 -4.436749e+000 1.005728e+000 -2.433911e+000 -2.160891e-001 1.714627e-001 6.850470e-001 4.434109e-001 -2.311878e-001 -2.957572e-001 4.699714e-002 1.753819e-002 -2.453777e-001 1.978950e-001 1.055045e-001 -9.282581e-002 -2.759307e-001
<VARIANCE> 25
 8.302438e+000 4.361510e+001 6.904065e+001 1.896413e+002 7.100948e+001 4.441761e+001 4.589357e+001 3.002484e+001 5.054667e+001 3.587794e+001 5.070407e+001 3.144402e+001 3.694846e-001 9.351935e-001 1.604330e+000 1.965510e+000 3.340578e+000 2.304881e+000 2.259547e+000 1.770068e+000 2.289208e+000 2.107071e+000 2.179798e+000 1.558957e+000 4.795346e-001
<GCONST> 9.705573e+001
<STATE> 4
<MEAN> 25
 -4.074518e-001 -1.014937e+000 8.400834e+000 5.121853e-001 -2.801878e+000 -1.306946e+000 -4.001685e-001 1.816544e+000 -3.949616e+000 1.279800e+000 2.158123e+000 -2.207237e-001 -2.281771e-001 4.012822e-001 -5.753096e-001 3.334630e-001 1.622667e-001 3.561217e-001 8.333087e-002 -7.877455e-002 1.382887e-001 3.272050e-002 -1.557804e-001 7.139731e-002 -8.032371e-001
<VARIANCE> 25
 2.259963e+001 5.911700e+001 1.664679e+002 1.607874e+002 1.434661e+002 5.418857e+001 7.410753e+001 5.343296e+001 7.675187e+001 4.344135e+001 5.003346e+001 2.985022e+001 8.761998e-001 2.986163e+000 4.571145e+000 5.780817e+000 4.160983e+000 2.868832e+000 3.054651e+000 3.500952e+000 3.461995e+000 2.955294e+000 3.147799e+000 1.745032e+000 4.861002e+000
<GCONST> 1.106983e+002
<TRANSP> 5
 0.000000e+000 1.000000e+000 0.000000e+000 0.000000e+000 0.000000e+000
 0.000000e+000 8.843664e-001 1.156336e-001 0.000000e+000 0.000000e+000
 0.000000e+000 0.000000e+000 9.346469e-001 6.535310e-002 0.000000e+000
 0.000000e+000 0.000000e+000 0.000000e+000 9.308617e-001 6.913838e-002
 0.000000e+000 0.000000e+000 0.000000e+000 0.000000e+000 0.000000e+000
<ENDHMM>
~h "au"
<BEGINHMM>
<NUMSTATES> 5
<STATE> 2
<MEAN> 25
 7.407753e+000 -4.172482e+000 -6.875236e+000 -8.300018e+000 9.476671e-001 -2.948676e+000 1.530893e+000 5.491873e+000 -1.856972e+000 -3.400177e+000 -5.324111e+000 1.555699e+000 1.615957e-001 -3.387137e-001 -4.073213e-001 -7.530002e-002 -4.876536e-001 -4.526877e-001 6.697584e-001 1.031043e+000 1.649582e-001 -3.007847e-001 -7.136134e-002 2.014583e-001 1.387942e-001
<VARIANCE> 25
 1.287229e+001 2.357374e+001 2.077279e+001 4.841789e+001 4.304649e+001 1.951024e+001 3.795296e+001 4.318648e+001 1.173375e+001 8.611015e+001 4.083333e+001 1.923436e+001 1.382680e-001 1.304633e+000 1.448524e+000 6.808673e-001 8.636777e-001 7.404159e-001 1.336261e+000 2.149245e+000 7.498749e-001 1.316508e+000 1.682919e+000 9.626733e-001 2.363488e-001
<GCONST> 8.420363e+001
<STATE> 3
<MEAN> 25
 5.673043e+000 -8.308569e-001 -4.972553e+000 -6.511557e+000 -9.654581e+000 -8.939930e+000 2.862524e+000 8.968909e+000 1.502711e-001 -5.946175e+000 -2.687833e+000 1.408970e+000 -2.460945e-001 4.972826e-001 5.965129e-001 4.873393e-002 3.241877e-003 -1.152510e-003 -4.886884e-001 -6.322922e-001 1.685680e-001 5.172882e-001 -1.757709e-003 -3.322203e-001 -2.620301e-001
<VARIANCE> 25
 8.386873e+000 1.975501e+001 2.362387e+001 1.546536e+001 2.149783e+001 1.857253e+001 2.209823e+001 4.682233e+001 1.008354e+001 3.645131e+001 1.544118e+001 1.320925e+001 1.484248e-001 5.430033e-001 6.654086e-001 6.035997e-001 1.201260e+000 1.374171e+000 1.269573e+000 1.978838e+000 9.053231e-001 1.311080e+000 1.505875e+000 8.258624e-001 1.110081e-001
<GCONST> 7.729737e+001
<STATE> 4
<MEAN> 25
 3.405907e+000 -9.778200e-002 4.151622e+000 -1.049369e+001 1.044550e+000 -4.526821e+000 -2.454780e+000 -1.811825e-001 -8.491908e-001 6.742808e+000 -5.138192e-001 -5.008704e+000 -1.334147e-001 2.034165e-001 4.238302e-001 4.879906e-001 -3.352306e-001 6.948642e-002 -1.374719e-001 -2.611945e-001 -3.304378e-001 -1.557085e-001 1.725364e-001 -1.178539e-001 -2.903127e-001
<VARIANCE> 25
 8.872606e+001 1.292214e+002 1.567777e+002 9.753368e+001 1.637903e+002 1.085063e+002 1.028519e+002 4.526551e+001 1.326311e+002 5.742291e+001 3.520093e+001 2.060204e+001 2.375054e+000 4.624133e+000 3.049402e+000 4.559796e+000 3.892699e+000 3.378978e+000 5.575071e+000 3.326013e+000 3.520107e+000 2.915727e+000 2.511466e+000 1.584559e+000 1.275595e+000
<GCONST> 1.131632e+002
<TRANSP> 5
 0.000000e+000 1.000000e+000 0.000000e+000 0.000000e+000 0.000000e+000
 0.000000e+000 8.596842e-001 1.403158e-001 0.000000e+000 0.000000e+000
 0.000000e+000 0.000000e+000 9.164106e-001 8.358940e-002 0.000000e+000
 0.000000e+000 0.000000e+000 0.000000e+000 9.235154e-001 7.648464e-002
 0.000000e+000 0.000000e+000 0.000000e+000 0.000000e+000 0.000000e+000
<ENDHMM>
~h "ng"
<BEGINHMM>
<NUMSTATES> 5
<STATE> 2
<MEAN> 25
 2.846548e+000 2.801447e+000 2.028009e+000 1.589431e+000 3.508551e+000 1.809290e+000 -1.101942e+000 -1.782663e-001 1.476936e+000 -2.037275e+000 -8.191350e-001 1.507846e-001 4.079884e-001 7.763822e-002 5.277932e-001 -2.460342e-001 3.555376e-002 -4.907691e-001 -4.669321e-001 7.465290e-002 -1.914562e-001 -2.607762e-001 -3.689968e-001 -6.681579e-002 7.058499e-001
<VARIANCE> 25
 2.669985e+001 6.950133e+001 4.860891e+001 8.809152e+001 8.415464e+001 6.185950e+001 7.952017e+001 4.355466e+001 4.895804e+001 5.871738e+001 2.612768e+001 4.571740e+001 1.468540e+000 5.989989e+000 2.374931e+000 5.299727e+000 4.971953e+000 3.835164e+000 3.865454e+000 3.219755e+000 4.316494e+000 4.327957e+000 2.425250e+000 4.555254e+000 4.011958e+000
<GCONST> 1.104873e+002
<STATE> 3
<MEAN> 25
 4.424553e+000 -2.140574e-001 1.039513e+000 1.531424e+000 2.219191e+000 -1.458296e+000 -2.327656e-001 6.890749e-001 2.243783e+000 -1.678160e+000 -2.244314e+000 2.965377e-001 -2.144033e-002 -3.259870e-001 -1.475669e-001 -8.142373e-002 5.013524e-002 -1.974723e-001 1.882416e-001 2.263598e-001 -1.841286e-001 1.855642e-001 2.040768e-001 2.404141e-001 2.227592e-001
<VARIANCE> 25
 2.275168e+001 6.370513e+001 3.676967e+001 1.028220e+002 1.000566e+002 5.607522e+001 6.360689e+001 5.016951e+001 7.609906e+001 4.208868e+001 3.534855e+001 4.179486e+001 7.252210e-001 3.646136e+000 2.368893e+000 2.744508e+000 3.530314e+000 3.516329e+000 3.807737e+000 2.299994e+000 3.105114e+000 2.156367e+000 2.978820e+000 2.712550e+000 2.823483e+000
<GCONST> 1.060959e+002
<STATE> 4
<MEAN> 25
 3.903469e-001 2.031363e+000 3.492119e-001 2.055551e+000 7.198225e+000 2.206888e+000 2.816938e+000 1.734986e+000 1.566544e+000 2.556745e+000 3.279438e-001 3.332117e-001 -3.994552e-001 6.645902e-002 -6.873846e-002 -5.851707e-002 -1.121693e-001 -2.397765e-002 -9.062821e-002 -1.327171e-001 -3.238708e-001 1.029438e-001 9.343264e-002 8.498642e-002 -3.819000e-001
<VARIANCE> 25
 2.808900e+001 8.141764e+001 3.141519e+001 9.658105e+001 5.692381e+001 3.642844e+001 3.871111e+001 3.368302e+001 2.878098e+001 4.160025e+001 2.365992e+001 2.781894e+001 3.464789e-001 1.226315e+000 1.338850e+000 1.518842e+000 1.959326e+000 1.955690e+000 1.966941e+000 1.642148e+000 1.538784e+000 1.692486e+000 1.466336e+000 1.422104e+000 6.624030e-001
<GCONST> 9.373695e+001
<TRANSP> 5
 0.000000e+000 1.000000e+000 0.000000e+000 0.000000e+000 0.000000e+000
 0.000000e+000 6.054935e-001 3.945065e-001 0.000000e+000 0.000000e+000
 0.000000e+000 0.000000e+000 5.487666e-001 4.512333e-001 0.000000e+000
 0.000000e+000 0.000000e+000 0.000000e+000 8.678077e-001 1.321923e-001
 0.000000e+000 0.000000e+000 0.000000e+000 0.000000e+000 0.000000e+000
<ENDHMM>
~h "ny"
<BEGINHMM>
<NUMSTATES> 5
<STATE> 2
<MEAN> 25
 -9.582899e-001 2.351466e-001 1.621194e+000 3.008640e+000 -1.717486e+000 -2.422372e+000 -2.457168e-001 -1.448241e+000 -2.080204e+000 7.869812e-001 2.132291e+000 -7.426878e-001 1.187553e-001 4.559041e-001 -1.747726e-001 8.576014e-001 -7.069911e-001 -3.646199e-001 6.799759e-001 -1.241834e+000 6.534986e-001 8.965567e-001 2.338444e-001 7.441559e-002 -9.641334e-001
<VARIANCE> 25
 6.462605e+001 1.840731e+001 6.717686e+001 1.734666e+001 4.156682e+001 2.088783e+001 3.603247e+001 3.092509e+001 4.638302e+001 2.858999e+001 1.066317e+001 1.190291e+001 1.385741e+000 1.400797e+000 1.820248e+000 1.736266e+000 1.766130e+000 1.910662e+000 2.173320e+000 3.515321e+000 8.712245e-001 1.719397e+000 3.099792e+000 1.480684e+000 1.515985e+000
<GCONST> 9.331268e+001
<STATE> 3
<MEAN> 25
 -1.208910e+000 2.972402e+000 -1.153451e+000 5.711535e+000 -1.801211e+000 -2.052703e+000 2.572550e+000 -3.765862e+000 4.539988e-001 1.346811e+000 7.930897e-001 -3.397923e-001 3.297009e-001 1.125915e-001 -2.106959e-001 1.636564e-001 -3.661129e-002 1.614394e-002 4.745685e-001 -3.609861e-001 -1.661340e-001 -3.422235e-001 -8.408968e-002 2.864340e-001 -3.761522e-001
<VARIANCE> 25
 6.434184e+001 1.495573e+001 3.236513e+001 1.530816e+001 1.560781e+001 1.909409e+001 2.756994e+001 3.898185e+001 3.722982e+001 1.981778e+001 1.990141e+001 1.415988e+001 3.702313e-001 7.631321e-001 1.080739e+000 6.186169e-001 8.439420e-001 1.525658e+000 2.154890e+000 1.812312e+000 7.688563e-001 1.388054e+000 1.916053e+000 1.228394e+000 1.430045e-001
<GCONST> 8.286823e+001
<STATE> 4
<MEAN> 25
 -2.875750e+000 -1.401698e+000 -2.773016e+000 6.077811e-001 5.786226e-001 -8.490994e-001 4.079880e+000 1.912776e+000 1.699093e+000 5.234373e-001 2.256872e+000 4.688122e-001 -3.732450e-002 2.215876e-002 3.556474e-002 -2.575997e-002 5.672622e-002 9.432801e-002 -1.007466e-001 8.709402e-002 -3.606977e-002 -9.136644e-002 -1.302853e-001 -4.098578e-002 -1.096207e-001
<VARIANCE> 25
 9.994514e+000 3.962620e+000 9.802383e+000 1.312182e+001 9.679473e+000 1.995914e+001 1.440983e+001 1.390514e+001 1.947409e+001 1.284534e+001 1.367987e+001 1.614441e+001 1.191690e-001 3.127257e-001 4.771433e-001 7.389135e-001 6.510922e-001 7.046976e-001 8.989631e-001 1.222784e+000 1.304109e+000 1.321745e+000 1.000201e+000 1.308282e+000 1.489647e-001
<GCONST> 6.985892e+001
<TRANSP> 5
 0.000000e+000 1.000000e+000 0.000000e+000 0.000000e+000 0.000000e+000
 0.000000e+000 5.572852e-001 4.427148e-001 0.000000e+000 0.000000e+000
 0.000000e+000 0.000000e+000 6.800040e-001 3.199960e-001 0.000000e+000
 0.000000e+000 0.000000e+000 0.000000e+000 9.572031e-001 4.279688e-002
 0.000000e+000 0.000000e+000 0.000000e+000 0.000000e+000 0.000000e+000
<ENDHMM>
~h "oi"
<BEGINHMM>
<NUMSTATES> 5
<STATE> 2
<MEAN> 25
 -4.595216e+000 2.299534e+000 -2.644357e+000 3.032457e+000 2.050021e+000 1.854513e+000 1.508659e+000 -1.507591e+000 -6.185573e-001 2.138004e+000 -2.307427e+000 1.919409e+000 -2.273774e-001 -1.116890e-001 -8.151458e-001 -3.306859e-001 7.303728e-002 2.190453e-001 7.738696e-002 1.594307e-001 -3.551212e-001 -6.369352e-001 2.150635e-001 -8.963399e-002 -3.596543e-001
<VARIANCE> 25
 8.801672e+000 1.243999e+001 1.978407e+001 3.816580e+001 8.692229e+000 2.307664e+001 3.100658e+001 1.727226e+001 1.831011e+001 1.994806e+001 1.144022e+001 2.860651e+001 1.112892e-001 3.550305e-001 3.945888e-001 6.231893e-001 7.103944e-001 1.988141e+000 1.170759e+000 5.081748e+000 1.792130e+000 1.189439e+000 1.413898e+000 2.170288e+000 7.346372e-002
<GCONST> 7.730722e+001
<STATE> 3
<MEAN> 25
 -1.060749e+001 4.766585e+000 -6.118486e+000 -2.107166e+000 3.437465e+000 -4.050408e+000 -5.123057e+000 -6.907805e+000 -8.021051e+000 4.602315e+000 -4.082631e+000 -1.428546e-001 -3.405277e-002 1.336603e-002 -4.201918e-003 -2.997920e-002 -1.284105e-001 -3.211092e-002 1.472217e-002 -1.272494e-001 -1.062641e-001 2.690932e-003 3.571001e-002 4.468684e-003 -4.573441e-002
<VARIANCE> 25
 2.682781e+000 3.812345e+000 4.968151e+000 5.113156e+000 5.953703e+000 9.489770e+000 1.093660e+001 9.646832e+000 6.007258e+000 7.360229e+000 6.695389e+000 5.487522e+000 8.556978e-002 1.839422e-001 2.835192e-001 4.007761e-001 5.993116e-001 7.270103e-001 7.630085e-001 1.447140e+000 5.310623e-001 4.795961e-001 6.084980e-001 6.185551e-001 2.398591e-002
<GCONST> 5.445964e+001
<STATE> 4
<MEAN> 25
 -2.559716e+000 3.969081e+000 -8.058944e+000 9.732901e+000 3.013194e-001 1.490990e+000 4.550246e+000 1.144704e+000 7.186385e-001 -2.996498e+000 -1.324237e+000 4.812312e+000 1.008339e-002 1.948149e-002 -1.990376e-002 4.297621e-002 -4.998787e-003 -4.146557e-002 7.075620e-002 3.752835e-002 -4.827821e-002 2.414402e-002 -2.075822e-002 2.476051e-002 -1.611171e-002
<VARIANCE> 25
 2.436871e+000 4.053925e+000 7.264528e+000 1.630257e+001 1.286450e+001 1.816756e+001 1.925904e+001 2.109926e+001 1.477306e+001 2.252753e+001 1.343270e+001 1.334121e+001 1.959462e-001 3.913823e-001 5.998487e-001 1.139088e+000 1.533914e+000 1.853785e+000 2.617827e+000 2.720946e+000 1.220049e+000 2.153199e+000 1.401303e+000 1.805994e+000 6.619620e-002
<GCONST> 7.470784e+001
<TRANSP> 5
 0.000000e+000 1.000000e+000 0.000000e+000 0.000000e+000 0.000000e+000
 0.000000e+000 3.302780e-001 6.697220e-001 0.000000e+000 0.000000e+000
 0.000000e+000 0.000000e+000 9.409117e-001 5.908828e-002 0.000000e+000
 0.000000e+000 0.000000e+000 0.000000e+000 9.761339e-001 2.386607e-002
 0.000000e+000 0.000000e+000 0.000000e+000 0.000000e+000 0.000000e+000
<ENDHMM>
~h "sp"
<BEGINHMM>
<NUMSTATES> 3
<STATE> 2
~s "silst"
<TRANSP> 3
 0.000000e+000 7.000000e-001 3.000000e-001
 0.000000e+000 9.000000e-001 9.999999e-002
 0.000000e+000 0.000000e+000 0.000000e+000
<ENDHMM>
~h "sy"
<BEGINHMM>
<NUMSTATES> 5
<STATE> 2
<MEAN> 25
 -9.890778e-002 -1.084480e+001 -2.241672e+000 9.285940e+000 3.205428e+000 -4.487483e+000 6.381863e-001 3.371240e+000 -1.684765e+000 9.015428e-001 3.569466e+000 -6.664640e-001 -5.863905e-001 -9.494419e-001 2.280741e-001 8.792211e-001 3.179285e-001 -2.629414e-001 1.025774e-001 4.610474e-001 4.941930e-001 3.516102e-001 3.610294e-001 1.564704e-001 1.494273e-002
<VARIANCE> 25
 3.223824e+001 3.461404e+001 5.000878e+001 6.871319e+001 2.450843e+001 2.811751e+001 2.611944e+001 3.373770e+001 2.439619e+001 2.141936e+001 1.049253e+001 1.636864e+001 6.238960e-001 2.327428e+000 1.529895e+000 7.967170e-001 1.238776e+000 1.167546e+000 2.048334e+000 1.746750e+000 9.619027e-001 1.324955e+000 9.498650e-001 1.194344e+000 2.256290e-001
<GCONST> 8.692252e+001
<STATE> 3
<MEAN> 25
 4.207083e+000 -7.963536e+000 -6.539527e+000 3.267625e+000 -7.524958e-001 -5.191306e+000 2.755512e-001 -3.140924e-001 -4.075361e+000 -1.443020e-002 6.182673e+000 1.957050e-001 5.420853e-001 5.070682e-001 -5.997214e-001 -9.287106e-001 -4.603647e-001 -6.309446e-002 -1.141074e-001 -1.571911e-001 -1.681431e-001 -2.469590e-001 -2.064633e-002 7.146964e-002 1.855346e-001
<VARIANCE> 25
 3.209685e+001 2.490865e+001 6.129218e+001 6.815176e+001 1.093357e+001 1.036623e+001 3.827297e+001 4.921553e+001 2.335299e+001 1.367072e+001 2.442891e+001 1.685524e+001 1.164478e+000 2.613810e+000 2.262092e+000 1.776176e+000 7.162410e-001 1.641328e+000 3.666329e+000 5.023482e+000 2.517288e+000 1.846946e+000 3.393541e+000 1.343922e+000 1.766881e-001
<GCONST> 9.192577e+001
<STATE> 4
<MEAN> 25
 -1.150975e+000 -7.431160e+000 8.848971e+000 1.414925e+000 -2.112489e+000 7.338622e-001 4.775998e+000 3.066236e+000 2.564751e+000 -2.690109e+000 6.651657e+000 1.131294e+000 3.903399e-001 -8.494085e-002 -2.273152e-001 -1.830582e-001 -3.554151e-002 -7.369369e-004 -3.712486e-001 -1.957479e-002 3.539685e-002 -2.340265e-001 -3.573568e-001 7.739729e-002 5.813303e-002
<VARIANCE> 25
 1.187768e+002 6.564793e+001 1.486950e+002 1.609981e+001 6.937407e+001 5.615609e+001 1.967513e+001 3.730735e+001 2.400587e+001 1.695582e+001 2.823807e+001 1.220708e+001 4.622423e+000 3.002246e+000 8.162138e+000 8.422105e-001 3.140892e+000 3.264728e+000 1.445156e+000 2.823362e+000 3.082155e+000 2.034952e+000 2.422974e+000 2.019510e+000 4.137639e-001
<GCONST> 1.002404e+002
<TRANSP> 5
 0.000000e+000 1.000000e+000 0.000000e+000 0.000000e+000 0.000000e+000
 0.000000e+000 8.977860e-001 1.022140e-001 0.000000e+000 0.000000e+000
 0.000000e+000 0.000000e+000 8.942892e-001 1.057108e-001 0.000000e+000
 0.000000e+000 0.000000e+000 0.000000e+000 9.148047e-001 8.519527e-002
 0.000000e+000 0.000000e+000 0.000000e+000 0.000000e+000 0.000000e+000
<ENDHMM>
~h "sil"
<BEGINHMM>
<NUMSTATES> 5
<STATE> 2
<MEAN> 25
 -7.429946e+000 6.406651e+000 -5.849943e+000 -3.197948e+000 6.218165e-001 -3.813396e+000 -4.602193e+000 -4.234888e+000 -6.316293e+000 4.301622e+000 -3.484904e+000 4.519936e-002 1.538200e-001 -6.822926e-002 3.585797e-003 -2.760393e-002 -3.332149e-002 8.569806e-002 -4.745906e-002 -3.532641e-002 1.174554e-001 -1.073949e-002 1.745863e-002 5.188591e-002 1.425373e-001
<VARIANCE> 25
 3.447705e+001 2.085321e+001 1.361686e+001 3.287937e+001 2.793781e+001 3.730364e+001 2.057433e+001 3.317019e+001 2.373973e+001 1.803526e+001 1.617684e+001 9.795386e+000 3.984863e-001 2.745170e-001 4.707883e-001 6.279824e-001 7.238504e-001 1.044011e+000 1.029933e+000 9.470956e-001 1.083499e+000 1.071496e+000 9.697818e-001 8.106770e-001 3.276025e-001
<GCONST> 7.828497e+001
<STATE> 3
~s "silst"
<STATE> 4
<MEAN> 25
 -4.327592e+000 1.565227e+000 -1.488738e+000 4.449624e+000 1.847368e+000 2.945461e+000 3.589403e+000 1.030110e+000 3.184706e+000 1.085564e+000 7.935162e-001 1.370360e+000 -1.925130e-002 4.960838e-003 -3.323953e-003 1.125635e-002 -1.289314e-002 2.097543e-002 2.403560e-002 -3.816016e-003 2.887694e-002 1.386336e-002 1.450309e-003 1.385940e-002 -4.794376e-002
<VARIANCE> 25
 4.810334e+000 1.019269e+001 1.296789e+001 3.579457e+001 1.224789e+001 2.812221e+001 1.792815e+001 1.702933e+001 2.388292e+001 2.975850e+001 1.447170e+001 1.340658e+001 2.180982e-001 3.813236e-001 5.268012e-001 7.128254e-001 9.796162e-001 1.216626e+000 1.418249e+000 1.329428e+000 1.398096e+000 1.524198e+000 1.285887e+000 1.046443e+000 2.315108e-001
<GCONST> 7.631067e+001
<TRANSP> 5
 0.000000e+000 1.000000e+000 0.000000e+000 0.000000e+000 0.000000e+000
 0.000000e+000 7.270020e-001 7.299808e-002 2.000000e-001 0.000000e+000
 0.000000e+000 0.000000e+000 6.528924e-001 3.471077e-001 0.000000e+000
 0.000000e+000 2.000000e-001 0.000000e+000 7.824336e-001 1.756636e-002
 0.000000e+000 0.000000e+000 0.000000e+000 0.000000e+000 0.000000e+000
<ENDHMM>
