~o
<STREAMINFO> 1 25
<VECSIZE> 25<NULLD><MFCC_D_N_Z_0><DIAGC>
~s "silst"
<MEAN> 25
 -2.140617e+000 8.288000e-001 -1.488651e+000 9.080974e-001 1.421984e+000 3.371037e-001 -7.393244e-001 3.162600e-001 -3.200677e-001 4.879053e-001 -1.510834e+000 1.382427e+000 -2.749559e-001 -1.396378e-001 -1.054184e-001 -1.357381e-001 1.028629e-001 -8.901006e-002 9.844609e-002 -6.703675e-002 2.546317e-001 -1.615448e-001 5.819938e-002 2.111554e-002 4.611600e-001
<VARIANCE> 25
 4.648745e+001 4.898651e+001 4.356880e+001 1.066650e+002 4.820319e+001 4.472829e+001 7.522894e+001 4.527826e+001 4.841575e+001 3.843509e+001 4.601046e+001 2.942511e+001 2.281435e+000 3.609627e+000 3.267830e+000 6.622983e+000 4.022077e+000 3.977236e+000 4.654285e+000 3.242417e+000 3.571290e+000 3.304179e+000 3.417227e+000 2.548327e+000 1.678851e+001
<GCONST> 1.107932e+002
~h "@"
<BEGINHMM>
<NUMSTATES> 5
<STATE> 2
<MEAN> 25
 -4.692804e+000 3.127843e+000 -2.344948e+000 4.312974e+000 1.808780e+000 1.099653e+000 2.859927e+000 -3.899573e-002 8.211238e-001 2.231706e+000 8.425751e-001 1.299698e+000 -1.672051e-002 -1.924285e-002 -4.035046e-002 4.147362e-002 -1.732606e-002 -1.427739e-001 -1.082541e-002 -9.342854e-002 -1.842123e-001 -7.083736e-002 9.551246e-003 2.905567e-002 5.084731e-002
<VARIANCE> 25
 1.113751e+001 1.156345e+001 1.377083e+001 4.245086e+001 1.630032e+001 1.559384e+001 3.261209e+001 3.154609e+001 2.900036e+001 2.612421e+001 1.733795e+001 1.350365e+001 4.394563e-001 5.639011e-001 7.360378e-001 9.059110e-001 1.036295e+000 1.379205e+000 1.515434e+000 1.641448e+000 1.688646e+000 1.791381e+000 1.457951e+000 1.233163e+000 3.171816e-001
<GCONST> 8.174952e+001
<STATE> 3
<MEAN> 25
 -2.674669e+000 -8.897226e-001 -6.247217e-001 -1.728766e-001 6.187263e-001 -3.004981e-001 1.658131e+000 -2.310677e+000 -1.793604e+000 3.591622e-001 7.732603e-001 1.409132e+000 2.139615e+000 -1.163564e+000 7.529819e-002 -1.425124e+000 -6.673438e-001 -7.171679e-001 -1.171681e+000 -2.610690e-001 -4.197495e-001 -1.229162e+000 -1.704640e-001 5.145489e-002 3.189230e+000
<VARIANCE> 25
 4.109228e+001 4.383792e+001 3.188600e+001 4.744597e+001 4.607904e+001 4.969913e+001 4.213610e+001 4.388561e+001 5.534314e+001 4.093741e+001 2.331306e+001 2.401577e+001 3.869280e+000 5.217334e+000 3.385714e+000 7.815308e+000 5.143471e+000 6.905274e+000 7.483178e+000 6.888384e+000 6.438927e+000 6.161489e+000 3.221755e+000 3.583583e+000 6.789587e+000
<GCONST> 1.119127e+002
<STATE> 4
<MEAN> 25
 5.653887e+000 -2.256343e+000 -7.112042e-001 -4.163933e+000 -3.948980e-001 -1.621576e+000 -4.601565e+000 -2.173721e+000 -1.777877e+000 -4.094306e+000 -1.288656e+000 4.752929e-001 7.799926e-001 8.838350e-002 -1.581257e-002 -4.750423e-001 -1.083534e-001 -3.709794e-001 -4.810207e-001 3.449025e-001 2.095738e-001 -3.059631e-001 -4.052831e-001 -6.860366e-002 6.877465e-001
<VARIANCE> 25
 2.046111e+001 4.170492e+001 6.127909e+001 8.169494e+001 4.386255e+001 6.613235e+001 3.700100e+001 8.100156e+001 5.836158e+001 6.442723e+001 3.985004e+001 4.954031e+001 2.791595e+000 3.214849e+000 3.331076e+000 5.219209e+000 3.685395e+000 5.086015e+000 3.953830e+000 5.507407e+000 3.984586e+000 2.849386e+000 2.639238e+000 2.616301e+000 2.216619e+000
<GCONST> 1.092322e+002
<TRANSP> 5
 0.000000e+000 1.000000e+000 0.000000e+000 0.000000e+000 0.000000e+000
 0.000000e+000 8.819433e-001 1.180567e-001 0.000000e+000 0.000000e+000
 0.000000e+000 0.000000e+000 6.964594e-001 3.035406e-001 0.000000e+000
 0.000000e+000 0.000000e+000 0.000000e+000 6.519658e-001 3.480342e-001
 0.000000e+000 0.000000e+000 0.000000e+000 0.000000e+000 0.000000e+000
<ENDHMM>
~h "a"
<BEGINHMM>
<NUMSTATES> 5
<STATE> 2
<MEAN> 25
 2.077555e+000 -1.592689e+000 6.192041e-002 -1.758027e+000 5.540481e-001 -1.301512e+000 -1.092233e+000 -8.088226e-001 -6.426957e-002 -1.068103e+000 -1.297146e+000 -4.843058e-001 1.535975e+000 -1.515347e+000 -6.263127e-001 -1.523111e+000 -3.994548e-001 -7.978495e-001 -6.066505e-001 6.198199e-001 1.806888e-001 -7.403284e-001 -1.530694e-001 -1.405654e-002 2.381499e+000
<VARIANCE> 25
 3.654844e+001 6.251038e+001 4.122725e+001 8.346996e+001 6.954513e+001 5.262217e+001 5.230098e+001 5.997766e+001 7.023686e+001 4.017484e+001 4.341291e+001 3.542714e+001 3.144584e+000 4.275776e+000 4.435868e+000 6.107031e+000 6.760510e+000 5.072874e+000 5.281481e+000 6.018595e+000 5.681711e+000 4.043448e+000 4.969730e+000 4.047945e+000 4.453216e+000
<GCONST> 1.138854e+002
<STATE> 3
<MEAN> 25
 7.555668e+000 -7.469201e+000 -5.917515e+000 -6.019570e+000 -2.931323e+000 -4.180143e+000 1.994736e-001 1.578555e+000 -9.022272e-001 -3.066553e+000 1.620753e+000 1.645786e+000 8.906080e-002 -5.650014e-001 -4.689472e-001 -2.365040e-001 1.615946e-001 1.620051e-001 4.655777e-001 4.511574e-001 2.259252e-001 4.923134e-002 -5.206657e-002 -6.730761e-002 3.003772e-001
<VARIANCE> 25
 8.930069e+000 3.068772e+001 4.162912e+001 5.068049e+001 5.370401e+001 4.292639e+001 4.899128e+001 4.978088e+001 7.679654e+001 3.218637e+001 5.147430e+001 3.795765e+001 3.830354e-001 1.313460e+000 1.429297e+000 1.485199e+000 1.932722e+000 1.982152e+000 1.929066e+000 2.287843e+000 2.164556e+000 1.898771e+000 2.305280e+000 1.711053e+000 6.292942e-001
<GCONST> 9.536316e+001
<STATE> 4
<MEAN> 25
 6.221059e+000 -7.887297e+000 -3.471190e+000 -8.498814e+000 1.250060e-001 -2.019828e+000 -2.653278e+000 4.250480e+000 1.146219e+000 -2.438581e+000 -4.232029e+000 -1.952430e+000 -1.804710e-001 5.605756e-001 2.015281e-001 3.336444e-001 5.996461e-002 9.694506e-002 -5.751114e-003 -7.096412e-002 -1.733213e-002 7.966439e-002 -3.226528e-002 7.327332e-002 -6.531420e-001
<VARIANCE> 25
 9.594334e+000 3.493906e+001 3.117333e+001 5.369512e+001 5.208605e+001 2.541920e+001 5.098796e+001 3.448466e+001 3.528449e+001 2.760574e+001 5.204190e+001 3.746852e+001 3.603520e-001 1.057318e+000 1.024392e+000 1.175056e+000 1.520987e+000 1.453722e+000 1.690258e+000 1.615215e+000 1.351740e+000 1.336499e+000 1.434099e+000 1.214075e+000 8.824502e-001
<GCONST> 9.034134e+001
<TRANSP> 5
 0.000000e+000 1.000000e+000 0.000000e+000 0.000000e+000 0.000000e+000
 0.000000e+000 7.402657e-001 2.597343e-001 0.000000e+000 0.000000e+000
 0.000000e+000 0.000000e+000 7.551221e-001 2.448779e-001 0.000000e+000
 0.000000e+000 0.000000e+000 0.000000e+000 8.434004e-001 1.565996e-001
 0.000000e+000 0.000000e+000 0.000000e+000 0.000000e+000 0.000000e+000
<ENDHMM>
~h "b"
<BEGINHMM>
<NUMSTATES> 5
<STATE> 2
<MEAN> 25
 -1.645096e+000 2.455536e+000 1.255028e+000 3.233050e+000 1.720190e+000 -9.954859e-002 1.754138e+000 -1.517145e-001 -3.092270e-002 -5.341436e-001 -7.306488e-001 -4.029993e-001 -5.005376e-001 6.403393e-002 -2.382700e-001 1.485698e-001 -1.072903e-001 1.769554e-001 3.137786e-001 1.606412e-001 2.231142e-001 2.714106e-001 3.380313e-001 1.830606e-001 -7.417153e-001
<VARIANCE> 25
 3.468282e+001 3.190847e+001 4.879182e+001 3.441372e+001 5.381303e+001 4.031413e+001 4.749829e+001 4.267981e+001 4.350886e+001 4.204772e+001 3.706401e+001 2.402483e+001 1.212229e+000 1.450523e+000 1.741172e+000 2.377106e+000 2.314532e+000 2.261004e+000 2.573055e+000 2.229427e+000 2.548606e+000 2.460720e+000 2.217950e+000 1.750851e+000 1.728650e+000
<GCONST> 9.910891e+001
<STATE> 3
<MEAN> 25
 -4.377728e+000 4.119930e+000 -2.571735e+000 5.405681e+000 1.183567e+000 4.659794e-001 1.852351e+000 -1.043278e+000 -8.870174e-001 3.180387e-001 -6.302533e-001 1.482003e+000 -1.807145e-001 -4.144244e-002 -1.115407e-001 1.673001e-002 -6.437760e-002 -1.258616e-002 -1.494674e-002 -9.222171e-002 -7.408795e-002 6.937742e-002 4.214497e-002 -4.218537e-003 -2.246625e-001
<VARIANCE> 25
 1.559868e+001 1.105514e+001 1.888198e+001 4.923618e+001 2.167215e+001 2.099914e+001 3.213951e+001 3.028990e+001 2.671701e+001 3.961579e+001 1.760837e+001 1.853404e+001 2.282709e-001 5.168222e-001 7.036092e-001 1.003088e+000 1.527770e+000 1.739183e+000 1.842367e+000 1.932326e+000 1.918016e+000 1.845562e+000 1.492948e+000 1.193052e+000 1.393553e-001
<GCONST> 8.331765e+001
<STATE> 4
<MEAN> 25
 -4.075793e+000 2.363364e+000 -1.137854e+000 4.281542e+000 2.295166e+000 3.681445e+000 4.830093e+000 1.308655e+000 3.219788e+000 2.212930e+000 2.000196e+000 5.410477e-001 -3.571646e-002 3.821385e-002 3.913547e-002 7.281315e-002 2.882576e-002 6.509886e-003 3.096405e-003 -6.708997e-002 -6.043432e-002 2.469380e-003 5.411997e-003 -1.539146e-002 -3.559947e-002
<VARIANCE> 25
 3.663299e+000 7.811841e+000 9.660028e+000 2.171389e+001 9.248371e+000 1.230950e+001 1.428730e+001 1.480312e+001 1.506458e+001 1.326061e+001 1.462160e+001 1.164381e+001 1.182294e-001 3.067490e-001 4.033707e-001 4.817856e-001 6.220687e-001 6.462071e-001 8.407720e-001 9.781919e-001 1.075319e+000 1.095034e+000 1.004484e+000 8.799713e-001 7.472917e-002
<GCONST> 6.655462e+001
<TRANSP> 5
 0.000000e+000 1.000000e+000 0.000000e+000 0.000000e+000 0.000000e+000
 0.000000e+000 5.814441e-001 4.185559e-001 0.000000e+000 0.000000e+000
 0.000000e+000 0.000000e+000 8.264428e-001 1.735571e-001 0.000000e+000
 0.000000e+000 0.000000e+000 0.000000e+000 9.291124e-001 7.088768e-002
 0.000000e+000 0.000000e+000 0.000000e+000 0.000000e+000 0.000000e+000
<ENDHMM>
~h "c"
<BEGINHMM>
<NUMSTATES> 5
<STATE> 2
<MEAN> 25
 -3.592253e+000 1.815596e+000 -1.604849e+000 3.742224e+000 2.359815e+000 5.172492e+000 3.373637e+000 4.659866e-001 3.268166e+000 3.356888e+000 1.217065e+000 2.260669e+000 -1.289779e-001 -7.937995e-002 -5.123097e-002 -8.521752e-002 -3.288852e-002 5.027243e-002 1.541433e-001 8.961915e-002 2.896330e-002 8.819652e-002 9.896741e-002 9.067148e-002 -1.111256e-001
<VARIANCE> 25
 5.915801e+000 5.128997e+000 1.628615e+001 3.929114e+001 1.003891e+001 2.211657e+001 1.428565e+001 1.429276e+001 1.819073e+001 2.320036e+001 1.111939e+001 1.271389e+001 1.360424e-001 2.736106e-001 5.030672e-001 1.025323e+000 6.416156e-001 9.964734e-001 1.755229e+000 1.449002e+000 1.620979e+000 1.568635e+000 1.057938e+000 8.627144e-001 1.297598e-001
<GCONST> 7.287218e+001
<STATE> 3
<MEAN> 25
 -4.367547e+000 -2.355920e+000 1.410369e+000 2.192874e+000 3.664039e-001 2.650863e+000 5.109581e+000 3.288238e+000 3.151700e-001 1.637580e+000 2.705344e+000 3.282551e+000 -3.526361e-001 -1.514016e+000 1.137118e+000 1.103982e+000 -5.541852e-001 -1.801118e+000 1.205712e-001 8.702885e-001 -1.219048e+000 -1.416263e+000 5.540106e-002 2.418655e-001 6.814249e-001
<VARIANCE> 25
 1.127498e+001 2.741695e+001 2.716551e+001 3.693998e+001 6.658217e+000 3.524142e+001 2.548924e+001 3.055546e+001 2.889147e+001 2.333685e+001 1.182186e+001 9.721023e+000 4.149185e-001 4.225981e+000 2.439313e+000 4.001000e+000 1.540585e+000 1.504454e+000 2.440797e+000 3.464577e+000 2.731705e+000 1.730264e+000 1.651569e+000 1.262107e+000 8.587770e-001
<GCONST> 8.991642e+001
<STATE> 4
<MEAN> 25
 -9.507205e+000 -1.685689e+000 3.732623e+000 -3.706941e-002 -2.042024e-001 -1.256856e+000 5.012386e+000 -4.134988e-001 -8.435237e-002 6.382560e-001 3.031473e+000 4.392442e+000 3.305234e-001 -5.595244e-001 8.975273e-001 -6.732987e-001 -1.756966e-002 -8.493029e-001 -1.221688e+000 -5.898183e-001 1.072602e-001 -2.436342e-001 -7.123712e-002 -1.780179e-001 2.189371e+000
<VARIANCE> 25
 5.964560e+001 2.502188e+002 7.982347e+001 5.267497e+001 8.828037e+001 3.810221e+001 7.904739e+001 3.189644e+001 5.620452e+001 3.066903e+001 1.828494e+001 3.096065e+001 1.278275e+001 1.685637e+001 1.076400e+001 5.045986e+000 9.701588e+000 3.065169e+000 8.467759e+000 5.370953e+000 4.952514e+000 4.109699e+000 3.012846e+000 5.126881e+000 3.624966e+000
<GCONST> 1.172618e+002
<TRANSP> 5
 0.000000e+000 1.000000e+000 0.000000e+000 0.000000e+000 0.000000e+000
 0.000000e+000 9.347113e-001 6.528875e-002 0.000000e+000 0.000000e+000
 0.000000e+000 0.000000e+000 5.870247e-001 4.129753e-001 0.000000e+000
 0.000000e+000 0.000000e+000 0.000000e+000 8.146519e-001 1.853481e-001
 0.000000e+000 0.000000e+000 0.000000e+000 0.000000e+000 0.000000e+000
<ENDHMM>
~h "d"
<BEGINHMM>
<NUMSTATES> 5
<STATE> 2
<MEAN> 25
 5.258810e+000 1.426007e+000 -5.256792e-001 -5.704188e-001 8.476300e-001 -1.650509e+000 -4.051768e+000 -3.877075e+000 -4.753875e+000 -3.850399e+000 -4.130120e-001 3.026447e+000 -3.105069e-001 4.204798e-001 -1.408072e-001 1.125825e-001 -3.536684e-002 1.272231e-001 4.422168e-001 9.865244e-002 1.247422e-001 6.771566e-002 -1.533452e-001 -3.483561e-002 -6.933281e-001
<VARIANCE> 25
 1.934573e+001 2.757099e+001 2.825741e+001 3.616426e+001 6.143561e+001 4.167538e+001 5.152388e+001 7.080754e+001 4.555642e+001 2.277651e+001 5.567307e+001 2.673755e+001 7.004175e-001 1.558912e+000 1.749079e+000 2.123004e+000 1.777748e+000 2.624717e+000 2.700849e+000 2.651895e+000 2.074830e+000 1.957971e+000 2.823011e+000 1.823032e+000 1.918461e+000
<GCONST> 9.805636e+001
<STATE> 3
<MEAN> 25
 1.852542e+000 4.365952e+000 1.467047e+000 2.823126e+000 3.283724e-001 1.009743e+000 -7.035049e-001 -9.482222e-001 -1.009800e+000 -1.886398e+000 -1.530585e+000 3.512124e-001 -5.284560e-001 1.514637e-001 -5.907704e-002 9.444272e-002 1.338013e-001 2.779439e-001 5.063661e-001 2.946451e-001 3.351431e-001 4.370601e-001 2.736257e-001 -4.784162e-002 -6.613044e-001
<VARIANCE> 25
 1.532279e+001 1.794599e+001 2.613181e+001 3.940913e+001 3.403412e+001 2.933306e+001 2.829631e+001 3.401349e+001 2.907557e+001 2.370794e+001 2.070356e+001 1.888862e+001 2.401597e-001 7.004231e-001 7.720653e-001 1.005479e+000 1.140247e+000 1.588542e+000 1.537385e+000 1.276505e+000 1.423607e+000 1.830221e+000 1.407060e+000 1.055415e+000 2.215577e-001
<GCONST> 8.385944e+001
<STATE> 4
<MEAN> 25
 -3.626386e+000 1.658928e+000 -7.189542e-002 2.315697e+000 1.505504e+000 2.835298e+000 2.784560e+000 8.948163e-001 2.199302e+000 2.673275e+000 9.065157e-001 2.659000e-001 -7.895303e-002 1.131265e-002 -7.308170e-003 3.506601e-002 6.971506e-002 3.582581e-002 1.561022e-002 -5.918956e-002 -3.051270e-002 6.641549e-002 6.500710e-002 1.530533e-002 -6.956438e-002
<VARIANCE> 25
 6.242079e+000 8.725628e+000 1.108027e+001 1.786991e+001 1.228838e+001 1.590339e+001 1.576691e+001 1.989428e+001 1.836432e+001 1.489699e+001 1.196260e+001 1.227489e+001 1.758659e-001 3.342622e-001 4.174594e-001 5.435740e-001 7.354373e-001 8.456310e-001 9.047719e-001 1.016504e+000 1.080957e+000 1.078053e+000 1.029279e+000 9.886057e-001 8.808579e-002
<GCONST> 6.972250e+001
<TRANSP> 5
 0.000000e+000 1.000000e+000 0.000000e+000 0.000000e+000 0.000000e+000
 0.000000e+000 7.995411e-001 2.004589e-001 0.000000e+000 0.000000e+000
 0.000000e+000 0.000000e+000 7.472683e-001 2.527317e-001 0.000000e+000
 0.000000e+000 0.000000e+000 0.000000e+000 9.284408e-001 7.155918e-002
 0.000000e+000 0.000000e+000 0.000000e+000 0.000000e+000 0.000000e+000
<ENDHMM>
~h "e"
<BEGINHMM>
<NUMSTATES> 5
<STATE> 2
<MEAN> 25
 5.313838e+000 -3.096367e+000 -7.308834e-001 5.999701e+000 2.470652e+000 -7.739992e+000 -1.068567e+001 -9.648641e+000 -5.719445e+000 6.130660e-001 2.059413e+000 -8.502613e-001 2.159933e-002 -1.166392e-001 8.347154e-002 3.042426e-001 -1.995229e-002 -3.492551e-001 -2.482854e-001 -1.595711e-002 1.214373e-001 2.560798e-001 3.033462e-002 -2.325859e-001 5.453038e-002
<VARIANCE> 25
 1.242373e+001 3.299998e+001 5.388705e+001 3.703307e+001 2.329854e+001 6.517207e+001 6.325871e+001 4.104655e+001 3.085135e+001 6.670934e+001 5.259469e+001 3.186931e+001 6.019392e-001 1.847426e+000 1.479161e+000 1.584936e+000 1.247534e+000 4.730436e+000 2.939222e+000 2.379987e+000 2.942071e+000 3.048806e+000 2.399799e+000 1.876977e+000 9.175320e-001
<GCONST> 9.809438e+001
<STATE> 3
<MEAN> 25
 1.854961e+000 2.178536e+000 2.128870e+000 4.866276e+000 2.661096e+000 9.423258e-001 -2.273957e+000 -3.095180e+000 -9.412810e-001 -2.459954e+000 -2.786669e+000 -3.809530e+000 -5.139020e-001 3.314112e-001 -2.268424e-001 -9.466372e-002 4.125812e-001 1.085098e+000 1.086250e+000 5.079067e-001 3.282218e-001 2.480355e-002 -1.492154e-001 3.106858e-001 -7.202722e-001
<VARIANCE> 25
 1.235790e+001 1.035092e+001 1.766125e+001 2.795149e+001 4.659799e+001 4.063236e+001 3.506653e+001 2.909682e+001 3.047517e+001 4.986434e+001 3.389185e+001 2.117597e+001 2.304942e-001 7.979769e-001 1.032901e+000 9.686002e-001 1.365832e+000 1.534995e+000 1.509053e+000 1.462868e+000 2.000814e+000 2.179251e+000 2.304031e+000 1.553434e+000 1.718761e-001
<GCONST> 8.620251e+001
<STATE> 4
<MEAN> 25
 -3.872841e+000 1.178529e+000 -2.107704e-001 2.913473e+000 2.584626e+000 4.485950e+000 3.141385e+000 8.628053e-001 3.596797e+000 2.880915e+000 1.222364e+000 4.051522e-001 -8.418877e-002 3.822309e-003 -2.714516e-002 -2.933249e-002 -2.303111e-002 2.827937e-002 9.386572e-002 1.257788e-001 1.153574e-001 7.053259e-002 8.463281e-002 4.632163e-002 -7.254802e-002
<VARIANCE> 25
 4.354144e+000 6.179728e+000 8.611037e+000 2.302560e+001 9.627724e+000 1.549141e+001 1.362846e+001 1.250135e+001 1.558939e+001 1.827304e+001 9.875013e+000 9.613873e+000 1.014232e-001 2.807717e-001 3.650750e-001 4.322798e-001 5.504743e-001 6.644241e-001 8.540891e-001 8.091881e-001 1.132895e+000 1.217480e+000 9.527211e-001 9.126586e-001 6.104574e-002
<GCONST> 6.548249e+001
<TRANSP> 5
 0.000000e+000 1.000000e+000 0.000000e+000 0.000000e+000 0.000000e+000
 0.000000e+000 9.029813e-001 9.701869e-002 0.000000e+000 0.000000e+000
 0.000000e+000 0.000000e+000 8.226273e-001 1.773727e-001 0.000000e+000
 0.000000e+000 0.000000e+000 0.000000e+000 9.267859e-001 7.321408e-002
 0.000000e+000 0.000000e+000 0.000000e+000 0.000000e+000 0.000000e+000
<ENDHMM>
~h "f"
<BEGINHMM>
<NUMSTATES> 5
<STATE> 2
<MEAN> 25
 -7.564059e+000 -3.623003e+000 1.543978e+000 2.109729e+000 5.520473e+000 -5.303174e-001 3.722738e+000 1.937280e-001 4.111372e+000 2.586265e+000 2.257105e+000 1.776678e+000 1.936785e-001 -3.305656e-001 -1.243383e-001 -6.920382e-001 1.183514e-002 -6.461012e-002 -7.141109e-002 -2.090452e-001 -1.680190e-002 -5.957925e-002 -2.260874e-001 -2.736094e-001 7.685521e-001
<VARIANCE> 25
 2.280773e+001 2.683711e+001 9.578794e+000 2.203820e+001 2.194758e+001 3.364795e+001 1.959245e+001 1.506457e+001 1.517233e+001 1.501727e+001 9.439579e+000 1.082380e+001 6.204564e+000 1.748775e+000 1.466657e+000 2.025118e+000 3.767895e+000 2.880437e+000 2.594849e+000 1.524149e+000 2.661920e+000 1.938556e+000 1.246080e+000 1.946919e+000 1.226740e+000
<GCONST> 9.002741e+001
<STATE> 3
<MEAN> 25
 7.247800e+000 -4.722733e+000 -9.286412e+000 -7.415437e+000 -9.894782e+000 -5.605300e+000 6.103868e+000 6.248858e+000 -3.829346e+000 -6.460642e+000 -3.642692e-001 7.089620e-001 1.010872e+000 -4.123578e-001 -7.231792e-001 -8.963792e-001 -6.661581e-001 1.201256e-001 -6.016084e-002 4.988279e-001 -3.798569e-001 -3.286422e-001 -1.196856e-001 -3.070522e-001 7.134474e-001
<VARIANCE> 25
 1.267706e+001 1.643661e+001 1.685264e+001 1.173146e+001 4.277800e+001 2.907290e+001 4.247822e+001 3.959468e+001 1.950515e+001 1.980822e+001 1.798858e+001 2.259966e+001 4.483994e+000 1.414745e+000 2.682134e+000 4.710386e+000 1.516495e+000 1.923117e+000 3.013692e+000 1.794837e+000 1.552494e+000 1.076595e+000 1.574839e+000 2.210567e+000 2.030434e+000
<GCONST> 9.270257e+001
<STATE> 4
<MEAN> 25
 5.812542e+000 -8.750046e+000 -4.660711e+000 -1.663603e+001 7.162584e+000 4.962352e+000 -4.331174e+000 -2.310581e+000 1.604435e+000 5.139625e-002 7.414774e-001 -5.893766e+000 3.776053e-002 1.452815e-001 1.178866e-001 -4.977948e-002 -5.868853e-003 -6.401428e-002 1.509491e-001 -2.258179e-001 3.114096e-003 1.046634e-001 -1.733630e-001 -1.532451e-001 3.379075e-002
<VARIANCE> 25
 2.130684e+001 2.592692e+001 2.515147e+001 5.360027e+001 9.146340e+001 3.505028e+001 5.328267e+001 1.707018e+001 4.107736e+001 2.636323e+001 1.714954e+001 1.774298e+001 1.976360e+000 2.782409e+000 2.289598e+000 6.627806e+000 3.899215e+000 2.733011e+000 4.001989e+000 2.058851e+000 2.855293e+000 1.414537e+000 1.888150e+000 1.371531e+000 3.954721e+000
<GCONST> 9.968052e+001
<TRANSP> 5
 0.000000e+000 1.000000e+000 0.000000e+000 0.000000e+000 0.000000e+000
 0.000000e+000 8.996173e-001 1.003827e-001 0.000000e+000 0.000000e+000
 0.000000e+000 0.000000e+000 7.475008e-001 2.524992e-001 0.000000e+000
 0.000000e+000 0.000000e+000 0.000000e+000 8.907687e-001 1.092313e-001
 0.000000e+000 0.000000e+000 0.000000e+000 0.000000e+000 0.000000e+000
<ENDHMM>
~h "g"
<BEGINHMM>
<NUMSTATES> 5
<STATE> 2
<MEAN> 25
 -4.070193e+000 2.958200e+000 -1.316525e+000 4.808487e+000 2.448886e+000 1.233854e+000 2.361222e+000 -4.004430e-001 5.505645e-001 6.021762e-001 -4.171379e-001 9.456121e-001 -5.296177e-002 -3.397259e-002 -1.484995e-001 -9.265272e-002 -2.851650e-002 6.401891e-003 -1.570121e-002 -7.188435e-002 -1.033130e-001 8.567912e-002 3.811263e-002 -4.656414e-002 -8.151082e-002
<VARIANCE> 25
 7.462661e+000 8.849313e+000 1.950459e+001 2.370388e+001 1.097030e+001 1.720568e+001 2.689612e+001 2.391263e+001 2.250153e+001 2.342956e+001 1.734381e+001 1.572458e+001 2.655987e-001 5.555872e-001 8.189052e-001 9.291086e-001 1.079813e+000 1.256643e+000 1.538214e+000 1.818758e+000 1.339409e+000 1.722815e+000 1.514645e+000 1.052830e+000 2.044619e-001
<GCONST> 7.871900e+001
<STATE> 3
<MEAN> 25
 -5.428065e+000 -4.226233e+000 -7.529764e-001 7.082637e-001 -1.335520e-001 2.775268e-001 2.126727e+000 -7.179277e-001 -2.403488e+000 2.194131e+000 7.713411e-001 -1.237309e+000 2.202808e-001 -2.198288e+000 2.233149e-001 -2.203497e+000 -8.496305e-001 -4.340732e-001 -2.239418e-001 4.724306e-001 -2.719748e-001 -1.851780e-001 4.712879e-001 -4.186013e-001 2.862427e+000
<VARIANCE> 25
 1.688570e+001 1.174882e+002 2.785463e+001 5.334560e+001 5.587846e+001 6.711042e+001 3.920551e+001 2.955913e+001 1.939524e+001 3.165799e+001 2.050854e+001 2.638140e+001 1.457623e+000 1.169385e+001 5.174372e+000 8.008578e+000 1.589218e+001 5.789334e+000 5.874966e+000 6.771039e+000 3.004732e+000 5.017318e+000 4.728932e+000 3.404350e+000 4.643044e+000
<GCONST> 1.106343e+002
<STATE> 4
<MEAN> 25
 -1.348892e+000 -2.731230e+000 -2.292716e+000 -4.397470e+000 1.873978e+000 3.334303e-001 -1.081246e+000 -2.340684e+000 -4.538404e+000 3.478817e+000 2.927051e+000 -1.098359e+000 1.460354e+000 9.624330e-001 1.217329e+000 -2.272961e-001 -8.332260e-001 -3.882045e-001 -1.781756e+000 -8.082992e-001 -7.398993e-001 -7.190633e-001 4.280682e-001 -9.168351e-002 1.600828e+000
<VARIANCE> 25
 2.207271e+001 4.485513e+001 1.078809e+002 7.240592e+001 2.113008e+002 5.816290e+001 6.110903e+001 7.327896e+001 3.765934e+001 6.556385e+001 4.760488e+001 3.849220e+001 2.201953e+000 4.543696e+000 6.458111e+000 7.806962e+000 1.127487e+001 4.399072e+000 5.367453e+000 3.753429e+000 3.104752e+000 5.958196e+000 3.576780e+000 2.530537e+000 5.825362e+000
<GCONST> 1.149697e+002
<TRANSP> 5
 0.000000e+000 1.000000e+000 0.000000e+000 0.000000e+000 0.000000e+000
 0.000000e+000 9.343373e-001 6.566272e-002 0.000000e+000 0.000000e+000
 0.000000e+000 0.000000e+000 6.194049e-001 3.805951e-001 0.000000e+000
 0.000000e+000 0.000000e+000 0.000000e+000 6.007389e-001 3.992611e-001
 0.000000e+000 0.000000e+000 0.000000e+000 0.000000e+000 0.000000e+000
<ENDHMM>
~h "h"
<BEGINHMM>
<NUMSTATES> 5
<STATE> 2
<MEAN> 25
 -2.333038e-001 -6.489711e+000 -2.589721e+000 -1.598279e+000 3.758783e+000 -1.984143e-001 6.074507e+000 2.988174e+000 -1.758754e-001 -1.407229e+000 -1.034597e+000 -2.375290e-001 -5.693043e-001 1.920102e-001 -1.962994e-001 5.419268e-001 -1.562050e-002 2.976883e-001 4.480718e-001 4.674799e-002 1.885959e-001 3.454568e-001 1.630380e-001 3.755383e-001 -1.063193e+000
<VARIANCE> 25
 2.762189e+001 3.432367e+001 2.781414e+001 4.352605e+001 9.746497e+001 3.667195e+001 5.581667e+001 3.695367e+001 4.691070e+001 4.157370e+001 4.558156e+001 2.897557e+001 7.223639e-001 1.565713e+000 1.207987e+000 1.940520e+000 2.039955e+000 2.004763e+000 3.447633e+000 1.879690e+000 2.352309e+000 2.421932e+000 1.942207e+000 1.636467e+000 6.760209e-001
<GCONST> 9.723226e+001
<STATE> 3
<MEAN> 25
 -1.715145e+000 -4.643016e+000 -3.802237e+000 2.153320e+000 2.838385e+000 1.835861e+000 5.434545e+000 3.597973e+000 2.030532e+000 9.369310e-001 5.741155e-001 2.501164e+000 -1.980502e-001 6.645443e-001 1.473068e-001 2.092400e-001 -1.487781e-001 2.324565e-001 -1.182566e-001 3.199787e-002 3.969422e-001 2.717029e-001 1.615511e-001 -1.232826e-001 -6.928397e-001
<VARIANCE> 25
 5.606929e+000 2.641858e+001 1.169195e+001 3.659930e+001 2.503122e+001 1.598969e+001 1.913544e+001 2.040558e+001 2.250566e+001 2.264970e+001 2.102683e+001 2.342019e+001 1.753475e-001 6.100905e-001 6.169050e-001 8.762060e-001 9.366229e-001 9.011176e-001 1.063566e+000 1.340905e+000 1.391231e+000 1.343059e+000 1.364196e+000 1.096328e+000 1.336419e-001
<GCONST> 7.774679e+001
<STATE> 4
<MEAN> 25
 -3.715636e+000 1.339349e+000 -1.874606e+000 5.047984e+000 1.236632e+000 2.789389e+000 4.367294e+000 1.635412e+000 3.112333e+000 2.741848e+000 2.521650e+000 1.268544e+000 -3.488575e-002 3.185589e-002 3.350000e-002 6.245371e-002 1.725851e-002 1.274523e-002 -4.181802e-002 -8.754035e-002 -5.037075e-002 -1.670181e-002 1.764194e-002 2.182766e-002 -4.219491e-002
<VARIANCE> 25
 3.125668e+000 8.188756e+000 7.772612e+000 2.655927e+001 1.086726e+001 1.058472e+001 1.711025e+001 1.707215e+001 1.646508e+001 1.436464e+001 1.343321e+001 1.087963e+001 8.746320e-002 2.478311e-001 3.777122e-001 5.615775e-001 6.866507e-001 8.904110e-001 1.113726e+000 1.137012e+000 9.841812e-001 1.189831e+000 1.105474e+000 8.722491e-001 5.890112e-002
<GCONST> 6.704375e+001
<TRANSP> 5
 0.000000e+000 1.000000e+000 0.000000e+000 0.000000e+000 0.000000e+000
 0.000000e+000 8.461346e-001 1.538654e-001 0.000000e+000 0.000000e+000
 0.000000e+000 0.000000e+000 8.403009e-001 1.596991e-001 0.000000e+000
 0.000000e+000 0.000000e+000 0.000000e+000 9.500613e-001 4.993867e-002
 0.000000e+000 0.000000e+000 0.000000e+000 0.000000e+000 0.000000e+000
<ENDHMM>
~h "i"
<BEGINHMM>
<NUMSTATES> 5
<STATE> 2
<MEAN> 25
 -2.419878e+000 -1.576056e+000 1.083878e+001 2.872332e+000 -2.098053e+000 -2.722087e+000 -1.902025e+000 -3.981646e+000 -3.200102e+000 -3.714958e-001 1.692925e+000 -2.452745e+000 7.972777e-001 6.326751e-002 2.004261e+000 4.778442e-001 -5.621022e-001 -6.814894e-001 -1.881797e+000 -6.492645e-001 -1.017741e+000 -8.302215e-001 -2.317074e-001 -8.375239e-001 1.345816e+000
<VARIANCE> 25
 5.315517e+001 8.405083e+001 9.980480e+001 1.218671e+002 1.146963e+002 8.398494e+001 8.113336e+001 5.226925e+001 5.947993e+001 5.072649e+001 4.937153e+001 3.981735e+001 3.944241e+000 4.207750e+000 7.553873e+000 1.064323e+001 8.675333e+000 7.311665e+000 6.535533e+000 5.023532e+000 5.779500e+000 4.852611e+000 4.527958e+000 2.459369e+000 3.791741e+000
<GCONST> 1.187933e+002
<STATE> 3
<MEAN> 25
 1.683070e+000 -1.047188e+000 9.595372e+000 1.235246e+001 2.995398e+000 -9.181940e+000 -9.769114e+000 -2.077570e+000 -3.396508e+000 -6.804256e+000 -4.542140e+000 -5.007656e+000 -9.260602e-002 2.429232e-001 5.885720e-002 -1.973490e-001 -1.358079e-001 2.631076e-001 1.366070e-001 1.167132e-001 1.368808e-001 2.497966e-002 -1.780758e-001 1.267706e-002 -2.289816e-001
<VARIANCE> 25
 6.784220e+000 2.579309e+001 3.853279e+001 8.988728e+001 6.543669e+001 4.329171e+001 2.787086e+001 3.874025e+001 3.116077e+001 2.259093e+001 3.232806e+001 2.466603e+001 2.476195e-001 7.791585e-001 9.469495e-001 1.598872e+000 1.328547e+000 2.923160e+000 1.630216e+000 1.925267e+000 1.545502e+000 1.557523e+000 1.315666e+000 1.182730e+000 4.077756e-001
<GCONST> 8.912676e+001
<STATE> 4
<MEAN> 25
 -3.030542e-001 5.460460e+000 1.715481e+001 -4.654711e+000 -9.787182e+000 3.435047e-001 -8.515623e+000 -7.266656e+000 -7.222802e+000 -1.378965e+000 1.440920e+000 -2.971185e+000 -8.902567e-002 5.547855e-002 -8.134276e-001 3.071465e-001 5.506126e-001 1.517000e-001 5.177234e-001 2.124937e-001 3.375181e-001 1.402469e-001 1.165016e-002 3.876149e-001 -7.854316e-001
<VARIANCE> 25
 1.534646e+001 2.152040e+001 5.824954e+001 8.169545e+001 7.184069e+001 3.001383e+001 4.401880e+001 5.611992e+001 3.942751e+001 3.805747e+001 4.216811e+001 3.281951e+001 4.708345e-001 8.641133e-001 2.051081e+000 2.268856e+000 2.237169e+000 1.825014e+000 2.200774e+000 2.093099e+000 1.579326e+000 1.684927e+000 1.535985e+000 1.470051e+000 1.054060e+000
<GCONST> 9.566745e+001
<TRANSP> 5
 0.000000e+000 1.000000e+000 0.000000e+000 0.000000e+000 0.000000e+000
 0.000000e+000 7.975354e-001 2.024646e-001 0.000000e+000 0.000000e+000
 0.000000e+000 0.000000e+000 8.727528e-001 1.272473e-001 0.000000e+000
 0.000000e+000 0.000000e+000 0.000000e+000 8.584098e-001 1.415902e-001
 0.000000e+000 0.000000e+000 0.000000e+000 0.000000e+000 0.000000e+000
<ENDHMM>
~h "j"
<BEGINHMM>
<NUMSTATES> 5
<STATE> 2
<MEAN> 25
 -3.005836e+000 3.340375e+000 -3.719944e+000 8.705194e+000 -1.146078e+000 2.376347e+000 3.106711e+000 2.236664e+000 -4.329488e-001 -5.102417e-001 9.877562e-001 2.348921e+000 -1.349234e-001 -1.296293e-001 1.554476e-002 -1.496104e-002 5.927560e-002 1.461588e-001 -4.359175e-003 3.815983e-002 -3.657806e-002 -5.653609e-003 1.251764e-001 9.999252e-002 -7.052403e-002
<VARIANCE> 25
 5.965560e+000 1.340406e+001 1.016486e+001 2.489723e+001 1.535810e+001 2.267912e+001 2.712361e+001 1.791006e+001 2.306895e+001 1.939464e+001 1.541803e+001 1.154295e+001 2.630894e-001 5.505996e-001 6.304947e-001 1.108705e+000 1.371269e+000 2.084281e+000 2.174993e+000 1.398898e+000 1.825170e+000 1.767888e+000 1.346974e+000 1.014421e+000 3.622837e-001
<GCONST> 7.952724e+001
<STATE> 3
<MEAN> 25
 -6.120134e+000 -7.014280e-001 6.209640e+000 -3.848550e+000 -8.000477e-001 -6.986290e+000 4.536557e+000 -1.194339e+000 2.316716e+000 -2.724552e+000 3.187557e+000 1.384796e+000 1.815938e-001 -3.357911e-001 3.676490e-001 -5.445462e-001 -1.952314e-001 -5.551819e-001 -3.388062e-001 -7.307368e-002 1.044789e-001 -3.134125e-001 7.023265e-002 -1.022687e-001 1.286243e+000
<VARIANCE> 25
 8.506843e+001 6.989233e+001 5.929232e+001 7.246948e+001 4.065224e+001 6.156138e+001 8.206353e+001 2.266599e+001 3.306200e+001 4.284752e+001 2.117912e+001 3.186493e+001 8.762217e+000 4.516754e+000 4.168854e+000 5.968565e+000 5.900801e+000 5.245358e+000 7.477170e+000 2.455356e+000 3.300383e+000 3.034240e+000 2.100545e+000 2.935658e+000 1.015873e+001
<GCONST> 1.118034e+002
<STATE> 4
<MEAN> 25
 -2.558855e+000 3.844194e-001 -1.383275e+000 -1.379562e+000 -4.381120e-001 2.439320e+000 2.632328e+000 1.669228e+000 3.010231e+000 3.309595e+000 1.060973e+000 2.601256e-001 -8.587042e-002 -2.292565e-002 6.195489e-002 1.126310e-001 9.406709e-002 9.630699e-002 3.931181e-003 1.953590e-002 6.227284e-002 5.197208e-002 -6.324347e-002 -1.207821e-001 -1.194483e-001
<VARIANCE> 25
 1.981855e+001 1.029336e+001 1.381846e+001 1.991759e+001 1.332442e+001 2.202326e+001 2.039360e+001 1.642329e+001 2.270617e+001 1.553863e+001 8.564349e+000 8.993787e+000 1.463492e-001 4.096878e-001 4.364790e-001 4.942110e-001 5.347754e-001 8.676928e-001 8.049936e-001 7.763541e-001 9.990637e-001 9.778705e-001 8.916436e-001 8.405588e-001 1.717130e-001
<GCONST> 7.092894e+001
<TRANSP> 5
 0.000000e+000 1.000000e+000 0.000000e+000 0.000000e+000 0.000000e+000
 0.000000e+000 9.082385e-001 9.176154e-002 0.000000e+000 0.000000e+000
 0.000000e+000 0.000000e+000 9.078735e-001 9.212660e-002 0.000000e+000
 0.000000e+000 0.000000e+000 0.000000e+000 9.453192e-001 5.468075e-002
 0.000000e+000 0.000000e+000 0.000000e+000 0.000000e+000 0.000000e+000
<ENDHMM>
~h "k"
<BEGINHMM>
<NUMSTATES> 5
<STATE> 2
<MEAN> 25
 -3.488707e+000 2.663571e+000 -1.516134e+000 4.728050e+000 1.410448e+000 3.141801e+000 2.242209e+000 6.629417e-001 1.697040e+000 1.121780e+000 2.648760e-001 1.624054e+000 -1.797254e-001 -7.818072e-002 -1.928460e-001 2.098646e-002 1.986197e-001 2.648133e-001 2.209182e-001 1.957367e-002 2.384338e-003 1.679864e-001 1.625714e-001 1.298729e-001 -1.600089e-001
<VARIANCE> 25
 4.270159e+000 9.064254e+000 2.104279e+001 4.128205e+001 1.676038e+001 2.217962e+001 1.818898e+001 1.923734e+001 2.279424e+001 2.756556e+001 1.664686e+001 1.585439e+001 3.114584e-001 5.209982e-001 8.286474e-001 1.101017e+000 1.175295e+000 1.639521e+000 1.802502e+000 1.701152e+000 2.076947e+000 1.760394e+000 1.398138e+000 1.246753e+000 2.953028e-001
<GCONST> 8.066306e+001
<STATE> 3
<MEAN> 25
 -4.396538e+000 7.863932e-001 -3.165141e+000 1.230236e+000 1.446782e+000 2.521266e+000 3.812158e+000 -1.037723e+000 -2.051741e+000 1.521159e+000 8.930423e-001 1.938454e+000 6.149643e-002 -2.391325e+000 -6.224791e-001 -1.817546e+000 -5.660374e-001 -2.075369e-001 6.682591e-001 -9.575817e-001 -1.477491e+000 -6.706938e-001 7.505200e-001 -8.765985e-002 3.143155e+000
<VARIANCE> 25
 1.449150e+001 3.543512e+001 2.680232e+001 7.219949e+001 4.265025e+001 4.676159e+001 4.452641e+001 3.841774e+001 4.437312e+001 3.119155e+001 2.302893e+001 1.795737e+001 2.127926e+000 6.009191e+000 5.396511e+000 7.943305e+000 1.306365e+001 8.254402e+000 1.038803e+001 7.484514e+000 6.739873e+000 8.880489e+000 4.876969e+000 3.667515e+000 5.795651e+000
<GCONST> 1.121300e+002
<STATE> 4
<MEAN> 25
 1.187524e+000 -7.655627e+000 -1.913584e+000 -1.049064e+001 2.722657e+000 1.997739e+000 2.833632e+000 -2.717948e-002 1.255957e+000 2.586884e+000 2.663283e+000 -2.588899e+000 1.087098e+000 -2.106322e-001 4.944730e-001 -6.760919e-001 -2.644948e-001 -4.430053e-001 -7.139843e-001 -1.258536e-001 3.842045e-001 -2.092623e-002 -8.346930e-002 -3.262570e-001 1.441807e+000
<VARIANCE> 25
 4.639960e+001 6.793845e+001 6.383839e+001 1.201099e+002 1.819878e+002 7.159547e+001 8.377189e+001 5.479829e+001 9.732887e+001 7.084972e+001 4.088674e+001 4.492693e+001 4.231440e+000 5.471557e+000 4.882060e+000 1.147413e+001 6.761100e+000 5.166125e+000 6.340003e+000 3.982520e+000 5.983379e+000 3.782554e+000 3.508686e+000 4.003282e+000 8.698322e+000
<GCONST> 1.190835e+002
<TRANSP> 5
 0.000000e+000 1.000000e+000 0.000000e+000 0.000000e+000 0.000000e+000
 0.000000e+000 8.949413e-001 1.050587e-001 0.000000e+000 0.000000e+000
 0.000000e+000 0.000000e+000 5.386351e-001 4.613650e-001 0.000000e+000
 0.000000e+000 0.000000e+000 0.000000e+000 7.451607e-001 2.548392e-001
 0.000000e+000 0.000000e+000 0.000000e+000 0.000000e+000 0.000000e+000
<ENDHMM>
~h "l"
<BEGINHMM>
<NUMSTATES> 5
<STATE> 2
<MEAN> 25
 7.879043e+000 -2.494834e+000 1.551615e+000 -8.805806e-001 -1.777644e+000 -2.938507e+000 -4.411375e+000 9.473983e-001 6.041058e-001 -5.878003e+000 -6.254481e+000 -8.909925e-001 2.557715e-001 -2.345527e-001 -1.099704e-001 -1.268743e-002 -3.630404e-001 -6.942643e-001 -4.720933e-002 4.914034e-002 2.319157e-001 1.078388e-001 -5.925615e-002 4.771909e-001 7.475019e-002
<VARIANCE> 25
 1.108432e+001 3.912722e+001 3.383707e+001 8.756462e+001 3.582319e+001 5.582954e+001 8.761129e+001 7.308315e+001 8.068024e+001 1.368059e+002 4.948280e+001 3.801900e+001 5.527003e-001 1.623406e+000 2.272147e+000 3.394039e+000 2.527718e+000 3.401342e+000 4.614867e+000 4.621365e+000 3.202862e+000 5.103719e+000 4.312375e+000 2.658233e+000 9.157289e-001
<GCONST> 1.055183e+002
<STATE> 3
<MEAN> 25
 7.607839e+000 -3.470407e+000 -2.614480e+000 -3.241058e+000 -7.235126e+000 -8.219865e+000 -3.382896e+000 1.235175e+000 -2.229999e+000 -5.045625e+000 -1.424534e+000 3.191586e+000 -2.398125e-002 6.192550e-002 9.854350e-002 -5.976663e-003 -5.738022e-002 6.131542e-002 6.345287e-003 -9.877062e-003 7.798178e-002 1.699982e-001 3.456846e-002 -1.091816e-001 -1.064917e-001
<VARIANCE> 25
 6.736523e+000 2.704047e+001 4.186753e+001 2.832407e+001 2.535953e+001 4.210583e+001 5.335185e+001 5.981260e+001 8.518945e+001 5.966775e+001 5.803327e+001 2.930492e+001 1.956038e-001 6.127383e-001 8.413831e-001 9.735475e-001 1.083793e+000 1.448695e+000 1.520998e+000 1.402049e+000 1.501676e+000 1.580187e+000 1.690139e+000 1.221650e+000 2.264504e-001
<GCONST> 8.823528e+001
<STATE> 4
<MEAN> 25
 8.382578e-001 2.183906e-001 1.583566e+000 -2.056134e+000 -1.239260e+000 -8.598688e-001 -2.857677e+000 3.037606e-001 2.041247e+000 7.318528e-001 -1.483687e+000 -1.290247e+000 -2.029921e-001 1.126638e-001 -7.387519e-003 4.767400e-002 2.298474e-001 2.684915e-001 1.457641e-001 -2.039765e-003 2.630531e-002 7.865674e-002 1.525117e-002 -5.822593e-002 -2.732217e-001
<VARIANCE> 25
 2.935432e+001 1.667935e+001 3.041390e+001 5.815813e+001 2.376524e+001 4.593997e+001 8.721803e+001 3.481152e+001 3.068572e+001 3.720485e+001 2.574605e+001 1.977805e+001 1.938179e-001 4.380330e-001 5.820339e-001 8.555501e-001 8.609147e-001 1.262890e+000 1.240723e+000 1.535488e+000 1.343662e+000 1.327326e+000 1.265485e+000 1.001478e+000 2.282078e-001
<GCONST> 8.480827e+001
<TRANSP> 5
 0.000000e+000 1.000000e+000 0.000000e+000 0.000000e+000 0.000000e+000
 0.000000e+000 7.749343e-001 2.250657e-001 0.000000e+000 0.000000e+000
 0.000000e+000 0.000000e+000 8.389421e-001 1.610579e-001 0.000000e+000
 0.000000e+000 0.000000e+000 0.000000e+000 8.137894e-001 1.862105e-001
 0.000000e+000 0.000000e+000 0.000000e+000 0.000000e+000 0.000000e+000
<ENDHMM>
~h "m"
<BEGINHMM>
<NUMSTATES> 5
<STATE> 2
<MEAN> 25
 7.041018e+000 -1.514919e+000 -4.996088e-001 -2.919628e+000 -1.634245e+000 -1.879861e+000 -1.653505e+000 -4.097524e+000 -2.283636e+000 2.424593e-001 -8.398935e-001 -2.800377e+000 -1.698484e-001 1.304744e+000 1.035016e+000 1.702697e+000 -9.317645e-002 5.093077e-001 -4.979040e-002 -1.378545e+000 -8.898290e-001 4.186116e-001 -6.867257e-001 -1.605141e-001 -1.285762e+000
<VARIANCE> 25
 1.358494e+001 3.244490e+001 4.243089e+001 5.344125e+001 3.993289e+001 3.922654e+001 3.929827e+001 1.221865e+002 6.221416e+001 4.685543e+001 3.463223e+001 2.375140e+001 6.837830e-001 1.368928e+000 2.339980e+000 3.302458e+000 3.853036e+000 3.664531e+000 2.931482e+000 4.075295e+000 4.249253e+000 2.702032e+000 3.052401e+000 2.570147e+000 1.156277e+000
<GCONST> 1.020378e+002
<STATE> 3
<MEAN> 25
 4.120881e+000 3.740916e+000 1.961889e+000 2.426205e+000 1.486185e+000 2.723468e+000 -5.813474e-001 -4.952734e+000 -3.449534e+000 -1.977768e+000 -3.914992e+000 -2.714469e+000 -2.961800e-001 3.330780e-001 1.689266e-001 3.646340e-001 3.621851e-001 4.209684e-001 2.838919e-001 1.002830e-001 7.971247e-002 -5.759163e-002 -3.310120e-002 -9.339401e-002 -4.593570e-001
<VARIANCE> 25
 1.392282e+001 1.368423e+001 2.219539e+001 2.408846e+001 2.832760e+001 2.764699e+001 3.113571e+001 8.096354e+001 5.831248e+001 4.167024e+001 2.578185e+001 2.313312e+001 1.805086e-001 4.174201e-001 5.956613e-001 8.870203e-001 9.876773e-001 1.106009e+000 1.102396e+000 1.501088e+000 1.209335e+000 1.235992e+000 1.183225e+000 1.152764e+000 1.809925e-001
<GCONST> 8.253204e+001
<STATE> 4
<MEAN> 25
 2.174438e+000 3.916032e+000 2.176129e+000 3.572425e+000 2.161788e+000 2.328104e+000 2.126425e+000 1.329484e+000 4.170487e+000 2.351076e+000 -1.921822e+000 -5.008839e+000 -1.771659e-001 -2.042405e-001 -1.752338e-001 -2.027087e-001 -1.027582e-001 -2.944869e-001 -9.274930e-002 3.243124e-001 2.434939e-001 4.250440e-002 1.133969e-001 -1.966169e-002 6.251728e-002
<VARIANCE> 25
 2.637523e+001 2.867707e+001 3.090503e+001 8.239202e+001 7.908578e+001 3.847377e+001 9.915898e+001 1.187066e+002 8.682791e+001 4.663962e+001 4.506642e+001 6.011036e+001 8.753129e-001 1.541148e+000 1.850454e+000 4.103361e+000 3.853512e+000 2.112577e+000 3.950859e+000 4.867032e+000 3.167014e+000 2.984720e+000 2.454984e+000 2.883855e+000 1.639861e+000
<GCONST> 1.061005e+002
<TRANSP> 5
 0.000000e+000 1.000000e+000 0.000000e+000 0.000000e+000 0.000000e+000
 0.000000e+000 7.170484e-001 2.829516e-001 0.000000e+000 0.000000e+000
 0.000000e+000 0.000000e+000 8.356405e-001 1.643595e-001 0.000000e+000
 0.000000e+000 0.000000e+000 0.000000e+000 6.528527e-001 3.471473e-001
 0.000000e+000 0.000000e+000 0.000000e+000 0.000000e+000 0.000000e+000
<ENDHMM>
~h "n"
<BEGINHMM>
<NUMSTATES> 5
<STATE> 2
<MEAN> 25
 7.102555e+000 -2.200896e+000 -1.211862e+000 -1.745559e+000 -2.298887e+000 -1.354700e+000 -1.757265e+000 -1.835114e+000 2.896788e-001 -1.864421e+000 -2.133365e+000 -5.255123e-001 -2.866358e-001 1.387527e+000 7.885020e-001 1.374839e+000 1.830842e-001 5.443938e-001 3.207152e-001 -1.093047e+000 -9.865997e-002 4.259812e-001 -7.789492e-001 -7.567753e-001 -1.316990e+000
<VARIANCE> 25
 1.286963e+001 3.788461e+001 4.280524e+001 4.923925e+001 5.028746e+001 3.365660e+001 5.184859e+001 5.604420e+001 4.322128e+001 2.874959e+001 4.929358e+001 3.454143e+001 5.977257e-001 2.177967e+000 2.382401e+000 2.304693e+000 3.699416e+000 2.585656e+000 3.575462e+000 4.108925e+000 2.453127e+000 2.648627e+000 2.816318e+000 3.077323e+000 1.193328e+000
<GCONST> 1.008829e+002
<STATE> 3
<MEAN> 25
 4.576748e+000 4.096411e+000 6.420189e-001 5.094579e+000 3.393941e+000 4.273502e+000 2.802944e+000 -2.125400e+000 -1.019738e+000 1.910499e-001 -3.824992e+000 -3.451528e+000 -5.539207e-001 4.337930e-001 2.719911e-001 2.727847e-001 4.080057e-001 4.328600e-001 2.537077e-001 1.003153e-001 -9.902599e-002 9.333917e-002 -1.286273e-001 6.064364e-002 -6.806919e-001
<VARIANCE> 25
 1.215699e+001 2.314882e+001 1.825394e+001 3.038893e+001 9.038779e+001 6.495488e+001 6.673470e+001 4.156742e+001 2.530849e+001 3.739263e+001 3.336501e+001 3.159949e+001 2.522647e-001 8.454103e-001 1.023378e+000 1.310956e+000 1.941839e+000 1.631561e+000 1.926889e+000 1.924102e+000 1.800263e+000 1.628297e+000 1.837417e+000 2.055726e+000 3.885570e-001
<GCONST> 9.099568e+001
<STATE> 4
<MEAN> 25
 -1.910698e+000 2.717926e+000 2.580270e-001 1.971848e+000 1.591603e+000 2.813395e+000 1.974734e+000 -4.215720e-001 1.225995e+000 1.166558e+000 -1.057234e+000 -8.241688e-001 -2.059771e-001 -3.750671e-002 -1.443906e-002 7.536592e-002 4.639382e-002 2.041296e-002 5.968239e-002 -6.037857e-003 3.832520e-002 1.359566e-001 1.203753e-001 7.876121e-002 -1.547209e-001
<VARIANCE> 25
 1.417824e+001 1.046323e+001 1.759879e+001 2.042532e+001 1.937633e+001 2.014501e+001 2.775850e+001 2.914600e+001 2.512729e+001 2.263074e+001 2.350810e+001 2.131803e+001 2.200912e-001 4.110369e-001 5.074518e-001 5.689908e-001 7.186215e-001 1.011279e+000 1.210730e+000 1.327331e+000 1.386064e+000 1.196837e+000 1.086877e+000 1.015406e+000 1.558086e-001
<GCONST> 7.730992e+001
<TRANSP> 5
 0.000000e+000 1.000000e+000 0.000000e+000 0.000000e+000 0.000000e+000
 0.000000e+000 6.944038e-001 3.055962e-001 0.000000e+000 0.000000e+000
 0.000000e+000 0.000000e+000 7.907898e-001 2.092101e-001 0.000000e+000
 0.000000e+000 0.000000e+000 0.000000e+000 8.929422e-001 1.070578e-001
 0.000000e+000 0.000000e+000 0.000000e+000 0.000000e+000 0.000000e+000
<ENDHMM>
~h "o"
<BEGINHMM>
<NUMSTATES> 5
<STATE> 2
<MEAN> 25
 1.713290e+000 -2.513261e-001 2.462175e+000 -3.662971e+000 -3.486460e+000 -1.936661e+000 -3.099907e+000 1.015189e-001 1.445364e+000 -1.462845e+000 6.932493e-001 -4.870208e-001 1.868274e+000 -9.916672e-002 3.996492e-001 -8.645321e-001 -1.407004e+000 -1.143355e+000 -1.507757e+000 -1.893612e-001 5.823997e-001 -7.366236e-001 -2.658353e-001 -9.792025e-002 2.058799e+000
<VARIANCE> 25
 3.801821e+001 3.529370e+001 3.460358e+001 8.011246e+001 8.401818e+001 6.185225e+001 6.036589e+001 5.363150e+001 8.459691e+001 3.273631e+001 3.241186e+001 2.307983e+001 3.216895e+000 5.078072e+000 3.742215e+000 8.234583e+000 6.244386e+000 8.919323e+000 5.057209e+000 5.878990e+000 1.043478e+001 3.695727e+000 3.160277e+000 2.240616e+000 4.405302e+000
<GCONST> 1.129843e+002
<STATE> 3
<MEAN> 25
 7.463196e+000 1.998651e+000 1.641343e+000 -4.424403e+000 -1.219329e+001 -1.043465e+001 -4.654783e+000 4.779184e+000 5.550620e+000 -4.024447e+000 -2.120180e+000 -6.942758e-002 -7.841119e-002 6.037918e-002 -4.139309e-001 -7.176478e-002 4.029230e-001 3.110527e-001 2.922498e-001 1.442722e-002 -1.602179e-001 2.854994e-001 1.856605e-001 9.739633e-002 -2.513110e-001
<VARIANCE> 25
 5.639384e+000 2.728680e+001 2.535660e+001 3.414212e+001 4.272249e+001 4.860747e+001 3.440668e+001 4.209854e+001 1.249248e+002 4.377229e+001 2.200010e+001 1.778152e+001 3.336575e-001 1.309960e+000 8.776641e-001 9.875206e-001 2.067896e+000 2.040471e+000 1.522250e+000 2.630394e+000 3.042628e+000 1.668766e+000 1.369729e+000 1.109329e+000 7.920979e-001
<GCONST> 9.090581e+001
<STATE> 4
<MEAN> 25
 7.456559e+000 1.025054e+000 -2.303535e+000 -1.093175e+001 -8.629659e-001 3.396419e+000 -9.354010e+000 -5.986344e+000 -2.280177e+000 1.351776e+000 4.803716e+000 -1.968357e+000 -2.419090e-001 -2.765357e-003 -6.818969e-002 5.177917e-001 2.515033e-001 -1.686022e-002 2.973040e-001 -2.888880e-002 -5.329634e-002 1.947399e-001 8.587355e-002 1.857680e-002 -4.188110e-001
<VARIANCE> 25
 1.140243e+001 2.985716e+001 3.141228e+001 1.116397e+002 5.093142e+001 5.509187e+001 6.465882e+001 4.798346e+001 5.017044e+001 4.517111e+001 3.567849e+001 2.307804e+001 4.298159e-001 9.117507e-001 1.092775e+000 2.685811e+000 1.908290e+000 2.122319e+000 2.397316e+000 2.092909e+000 1.929786e+000 1.558812e+000 1.703250e+000 1.245510e+000 6.621348e-001
<GCONST> 9.495110e+001
<TRANSP> 5
 0.000000e+000 1.000000e+000 0.000000e+000 0.000000e+000 0.000000e+000
 0.000000e+000 7.561408e-001 2.438592e-001 0.000000e+000 0.000000e+000
 0.000000e+000 0.000000e+000 8.421575e-001 1.578426e-001 0.000000e+000
 0.000000e+000 0.000000e+000 0.000000e+000 8.547804e-001 1.452196e-001
 0.000000e+000 0.000000e+000 0.000000e+000 0.000000e+000 0.000000e+000
<ENDHMM>
~h "p"
<BEGINHMM>
<NUMSTATES> 5
<STATE> 2
<MEAN> 25
 -9.852853e-002 2.543442e+000 -1.052271e+000 -1.228017e+000 -1.246296e-001 1.117102e+000 6.324737e-001 1.483631e+000 6.656210e-001 2.487987e+000 2.050854e+000 -4.421792e-001 -9.785320e-001 -5.409130e-002 -3.271142e-001 2.180003e-001 -8.144959e-002 2.792744e-001 2.173588e-001 -8.137388e-002 -4.575733e-002 1.741237e-001 2.903154e-001 1.652521e-001 -1.120569e+000
<VARIANCE> 25
 2.153073e+001 3.767148e+001 4.292912e+001 3.565129e+001 3.806039e+001 4.836358e+001 3.485099e+001 3.509439e+001 4.278998e+001 4.796274e+001 3.946238e+001 2.809483e+001 8.926091e-001 3.392148e+000 2.554204e+000 2.368721e+000 1.732779e+000 3.195994e+000 2.707795e+000 2.440688e+000 4.121205e+000 4.502379e+000 2.771217e+000 1.721353e+000 1.706821e+000
<GCONST> 1.007691e+002
<STATE> 3
<MEAN> 25
 -2.128802e+000 2.682960e+000 -1.957542e+000 -6.909897e-001 -5.286025e-001 9.688815e-001 6.293319e-001 -9.954814e-001 -1.025624e+000 2.556202e+000 1.753908e+000 1.616958e+000 -4.749918e-001 -7.937754e-002 -3.964854e-002 2.682705e-001 1.470931e-001 -7.717059e-003 4.662419e-002 -2.224368e-001 -8.615171e-002 1.955856e-001 -6.240123e-002 -2.455667e-002 -4.287962e-001
<VARIANCE> 25
 1.871275e+001 1.049862e+001 1.575940e+001 3.604086e+001 1.947867e+001 3.018782e+001 3.882043e+001 3.297516e+001 2.929806e+001 2.544400e+001 2.292109e+001 1.811922e+001 3.212406e-001 5.198133e-001 8.190669e-001 9.939381e-001 1.057486e+000 2.327538e+000 1.842424e+000 1.830325e+000 1.764855e+000 1.702425e+000 1.492087e+000 1.601807e+000 2.211032e-001
<GCONST> 8.432703e+001
<STATE> 4
<MEAN> 25
 -3.859793e+000 7.909015e-001 1.073471e-002 2.376031e+000 1.333437e+000 3.292654e+000 3.777484e+000 1.437640e+000 3.699356e+000 2.987716e+000 1.379161e+000 3.471152e-001 -6.163107e-002 -6.898519e-003 1.216876e-003 2.140841e-002 4.466942e-002 4.224730e-002 -1.526551e-002 -1.065888e-002 1.745842e-002 -4.613942e-003 1.296238e-002 1.852458e-002 -4.309436e-002
<VARIANCE> 25
 3.548171e+000 5.088090e+000 7.217896e+000 1.225412e+001 8.312436e+000 1.234634e+001 1.298689e+001 1.232206e+001 1.366931e+001 1.337293e+001 9.549469e+000 8.825918e+000 1.025019e-001 2.793961e-001 3.761475e-001 3.845976e-001 6.013526e-001 6.713079e-001 8.263672e-001 9.537110e-001 1.024159e+000 1.026638e+000 8.662440e-001 8.227693e-001 6.719068e-002
<GCONST> 6.305143e+001
<TRANSP> 5
 0.000000e+000 1.000000e+000 0.000000e+000 0.000000e+000 0.000000e+000
 0.000000e+000 5.763437e-001 4.236563e-001 0.000000e+000 0.000000e+000
 0.000000e+000 0.000000e+000 7.907283e-001 2.092717e-001 0.000000e+000
 0.000000e+000 0.000000e+000 0.000000e+000 9.306840e-001 6.931604e-002
 0.000000e+000 0.000000e+000 0.000000e+000 0.000000e+000 0.000000e+000
<ENDHMM>
~h "r"
<BEGINHMM>
<NUMSTATES> 5
<STATE> 2
<MEAN> 25
 6.091272e+000 -6.705267e+000 1.385002e+000 -5.375171e+000 -5.621183e+000 -1.274930e+000 -4.374660e+000 6.872851e-001 -1.079156e+000 -6.136408e-001 1.034242e-001 -1.568538e+000 -5.360706e-002 1.809775e-001 7.914428e-002 5.211562e-001 4.803275e-002 1.309491e-001 1.228477e-001 -3.675890e-001 -8.886654e-002 -2.064940e-001 -3.840544e-002 1.835446e-001 -4.036731e-001
<VARIANCE> 25
 2.010489e+001 5.016899e+001 7.231011e+001 8.190977e+001 6.492736e+001 7.064313e+001 5.298727e+001 6.864848e+001 7.035477e+001 4.302753e+001 5.287814e+001 4.418076e+001 1.029376e+000 2.773338e+000 2.385887e+000 4.525817e+000 3.494926e+000 3.763875e+000 3.082787e+000 4.401015e+000 3.303623e+000 2.541827e+000 2.511956e+000 2.357350e+000 1.942277e+000
<GCONST> 1.071347e+002
<STATE> 3
<MEAN> 25
 4.102828e+000 9.348050e-001 -3.934588e+000 -2.097174e+000 4.574076e-001 2.503232e+000 -5.736402e-001 -2.632324e+000 -1.714304e+000 -1.944285e+000 -1.483611e-001 2.613206e+000 -7.873840e-001 7.023908e-001 2.506010e-003 6.697590e-001 4.438484e-001 1.711745e-001 5.228584e-001 1.999530e-001 1.566658e-001 4.293954e-001 -7.570823e-002 4.410360e-002 -1.347888e+000
<VARIANCE> 25
 2.226032e+001 2.059756e+001 2.815209e+001 4.478772e+001 3.969780e+001 6.376403e+001 4.378563e+001 3.302190e+001 3.977521e+001 3.308513e+001 3.574548e+001 3.465423e+001 5.808747e-001 1.356836e+000 1.823422e+000 1.742842e+000 2.074144e+000 2.513792e+000 2.858405e+000 2.128999e+000 2.983448e+000 2.450039e+000 2.506732e+000 1.885714e+000 9.786766e-001
<GCONST> 9.652793e+001
<STATE> 4
<MEAN> 25
 -2.859965e+000 1.658857e+000 -2.324689e+000 2.761820e+000 1.577520e+000 2.494551e+000 3.895596e+000 1.701769e+000 3.391068e+000 2.784075e+000 1.878783e+000 1.241097e+000 -1.678132e-001 3.116739e-002 3.591730e-002 8.295370e-002 5.064313e-002 5.112738e-002 8.782956e-002 4.714677e-002 9.823737e-002 1.038455e-001 3.723116e-002 -1.079466e-002 -1.663411e-001
<VARIANCE> 25
 1.115863e+001 7.513347e+000 1.474808e+001 3.238468e+001 1.628680e+001 1.729591e+001 1.900879e+001 1.799047e+001 2.442380e+001 1.987967e+001 1.549130e+001 1.188994e+001 1.996620e-001 3.294310e-001 5.066440e-001 6.459897e-001 8.380137e-001 9.434195e-001 1.259939e+000 1.229532e+000 1.330184e+000 1.344250e+000 1.174161e+000 9.611957e-001 1.572496e-001
<GCONST> 7.463792e+001
<TRANSP> 5
 0.000000e+000 1.000000e+000 0.000000e+000 0.000000e+000 0.000000e+000
 0.000000e+000 8.067727e-001 1.932273e-001 0.000000e+000 0.000000e+000
 0.000000e+000 0.000000e+000 7.828341e-001 2.171659e-001 0.000000e+000
 0.000000e+000 0.000000e+000 0.000000e+000 9.099775e-001 9.002252e-002
 0.000000e+000 0.000000e+000 0.000000e+000 0.000000e+000 0.000000e+000
<ENDHMM>
~h "s"
<BEGINHMM>
<NUMSTATES> 5
<STATE> 2
<MEAN> 25
 -4.853494e+000 1.011320e+000 4.322172e-001 -1.903324e-001 1.947870e+000 -8.522896e-001 4.766603e+000 -1.154219e+000 8.286150e-001 1.607848e+000 1.368785e+000 5.968509e-001 -2.233059e+000 3.563172e-001 1.394024e+000 1.089135e-001 -4.056886e-001 5.262626e-001 1.475229e+000 -5.230740e-001 1.582032e-001 4.340965e-001 8.271336e-001 -5.478593e-002 4.107713e-001
<VARIANCE> 25
 6.586056e+001 1.053223e+002 7.889913e+001 7.098975e+001 6.784678e+001 4.723013e+001 8.223151e+001 4.514456e+001 7.374997e+001 5.044414e+001 3.676412e+001 2.803744e+001 4.544794e+000 1.033933e+001 1.148271e+001 5.386106e+000 6.228847e+000 3.781976e+000 6.436851e+000 4.078374e+000 4.081755e+000 4.184305e+000 3.729373e+000 2.145811e+000 3.011946e+000
<GCONST> 1.152955e+002
<STATE> 3
<MEAN> 25
 -1.151877e+001 -1.234737e+001 2.057283e+001 -5.819290e+000 -1.005138e+001 3.712771e+000 6.739366e+000 -3.698643e+000 -6.744439e+000 4.041359e-001 6.173912e+000 -5.543610e-002 -4.269079e-001 8.097369e-003 -2.411237e-001 -1.270815e-001 4.955197e-001 1.361633e-001 -7.404312e-002 6.970014e-002 4.087305e-001 -5.817685e-003 -4.490289e-003 2.580781e-002 6.160372e-002
<VARIANCE> 25
 6.567380e+001 1.350463e+002 1.571197e+002 4.710994e+001 9.149461e+001 1.006916e+002 3.955748e+001 3.964866e+001 5.644880e+001 6.288335e+001 2.888348e+001 3.244502e+001 6.103427e+000 3.968072e+000 7.231162e+000 2.789864e+000 2.467122e+000 3.111921e+000 2.852194e+000 2.534959e+000 2.517466e+000 2.491379e+000 2.248434e+000 1.624368e+000 1.613025e+000
<GCONST> 1.092680e+002
<STATE> 4
<MEAN> 25
 -1.496939e+001 2.546436e+000 3.662724e+000 -2.900203e+000 4.923354e+000 4.119977e-001 6.890034e+000 6.486619e-001 1.529676e+000 3.894896e+000 2.751573e+000 8.989408e-001 6.133452e-002 -4.385563e-002 -7.258034e-002 3.441546e-002 7.319319e-002 3.486010e-002 -1.307255e-001 4.452808e-002 1.058967e-001 2.565106e-002 -1.073726e-001 2.398001e-002 -1.889802e-001
<VARIANCE> 25
 4.180621e+001 5.745580e+001 7.188921e+001 6.158094e+001 3.093297e+001 3.696945e+001 2.768314e+001 3.764821e+001 3.131472e+001 3.218944e+001 1.676679e+001 1.511010e+001 1.952250e+000 8.368407e-001 1.212837e+000 1.302259e+000 1.240826e+000 1.363098e+000 1.754591e+000 1.796481e+000 1.762740e+000 1.537909e+000 1.400189e+000 1.217682e+000 4.235114e-001
<GCONST> 9.186118e+001
<TRANSP> 5
 0.000000e+000 1.000000e+000 0.000000e+000 0.000000e+000 0.000000e+000
 0.000000e+000 7.072136e-001 2.927864e-001 0.000000e+000 0.000000e+000
 0.000000e+000 0.000000e+000 7.437477e-001 2.562523e-001 0.000000e+000
 0.000000e+000 0.000000e+000 0.000000e+000 8.852158e-001 1.147842e-001
 0.000000e+000 0.000000e+000 0.000000e+000 0.000000e+000 0.000000e+000
<ENDHMM>
~h "t"
<BEGINHMM>
<NUMSTATES> 5
<STATE> 2
<MEAN> 25
 -1.322232e+000 2.249111e+000 -1.410759e+000 -2.955622e-001 1.590253e+000 -1.690163e+000 1.787619e+000 -6.398647e-001 4.357956e+000 8.107849e-001 -1.349471e+000 3.275544e-001 -7.408844e-002 -1.510999e-001 1.374182e-001 -7.953339e-001 3.703447e-001 -2.261487e-001 -3.871007e-001 -4.721827e-001 2.179697e-001 3.331575e-001 4.328577e-001 -1.906802e-001 9.880633e-001
<VARIANCE> 25
 2.961654e+001 2.222489e+001 2.092215e+001 5.890482e+001 3.629285e+001 3.972378e+001 6.961882e+001 4.588202e+001 5.437196e+001 3.853165e+001 3.952507e+001 3.641179e+001 4.069931e+000 3.086491e+000 2.546706e+000 8.846228e+000 4.081901e+000 4.332779e+000 9.765654e+000 4.591043e+000 6.040163e+000 3.948429e+000 4.154787e+000 4.593754e+000 1.512822e+001
<GCONST> 1.109735e+002
<STATE> 3
<MEAN> 25
 2.713994e-001 1.654000e+000 -3.895881e-001 -3.234549e+000 -3.741807e-001 -1.071935e+000 -1.227623e+000 5.357223e-001 1.394767e+000 2.262687e+000 -1.483330e+000 -2.097278e+000 -3.188432e-001 1.721385e-001 -5.700122e-001 9.669828e-002 -1.321934e-001 4.161512e-001 5.573703e-003 -1.442059e-001 -6.988975e-001 4.244891e-001 4.459309e-001 5.090557e-002 -9.498257e-001
<VARIANCE> 25
 2.134689e+001 2.790001e+001 2.490833e+001 5.733563e+001 3.202470e+001 4.234005e+001 5.471840e+001 5.377854e+001 4.073555e+001 4.137132e+001 3.955546e+001 2.877783e+001 2.607905e+000 2.169570e+000 1.824358e+000 4.261045e+000 2.291606e+000 4.108934e+000 5.872400e+000 4.220294e+000 7.421715e+000 4.467678e+000 3.442747e+000 2.518946e+000 3.521302e+000
<GCONST> 1.054235e+002
<STATE> 4
<MEAN> 25
 -3.461385e+000 2.783068e+000 -2.483990e+000 3.900252e+000 8.791133e-001 2.227719e+000 2.286480e+000 7.517340e-001 6.802490e-001 1.759214e+000 7.316983e-001 1.715135e+000 -1.673482e-001 -4.845275e-002 7.422560e-003 7.642724e-002 1.344523e-002 2.907330e-002 8.784594e-002 -3.636791e-002 -1.406074e-001 4.359792e-002 1.170464e-001 9.440589e-002 -1.247059e-001
<VARIANCE> 25
 1.076008e+001 1.061779e+001 1.378848e+001 5.280096e+001 1.716551e+001 2.331883e+001 3.230811e+001 2.606769e+001 3.167693e+001 2.406635e+001 1.818595e+001 1.566478e+001 4.020474e-001 6.069737e-001 8.057609e-001 1.181085e+000 1.145333e+000 1.905146e+000 2.057437e+000 2.008640e+000 2.202118e+000 2.096652e+000 1.506016e+000 1.530543e+000 5.391370e-001
<GCONST> 8.477856e+001
<TRANSP> 5
 0.000000e+000 1.000000e+000 0.000000e+000 0.000000e+000 0.000000e+000
 0.000000e+000 4.361232e-001 5.638767e-001 0.000000e+000 0.000000e+000
 0.000000e+000 0.000000e+000 3.537216e-001 6.462784e-001 0.000000e+000
 0.000000e+000 0.000000e+000 0.000000e+000 8.813022e-001 1.186978e-001
 0.000000e+000 0.000000e+000 0.000000e+000 0.000000e+000 0.000000e+000
<ENDHMM>
~h "u"
<BEGINHMM>
<NUMSTATES> 5
<STATE> 2
<MEAN> 25
 1.890196e+000 1.316823e+000 4.124593e+000 -6.440533e-001 -1.404001e+000 1.683836e-002 -3.778306e+000 -1.588984e+000 -2.616530e+000 -1.983178e+000 -5.345989e-001 -1.384220e+000 1.194805e+000 5.716925e-001 7.281438e-001 -5.953921e-001 -7.585024e-001 -2.709386e-001 -1.296686e+000 -2.277679e-001 -7.482879e-001 -1.097482e+000 -1.294179e-001 -3.240347e-001 1.316451e+000
<VARIANCE> 25
 3.885255e+001 5.532743e+001 4.212390e+001 7.815623e+001 5.420465e+001 5.353144e+001 7.265459e+001 5.600505e+001 6.503622e+001 8.511258e+001 4.369568e+001 3.127452e+001 3.016583e+000 6.955919e+000 4.140863e+000 7.822196e+000 3.989501e+000 7.793634e+000 6.618581e+000 5.720132e+000 6.788514e+000 6.302295e+000 4.442210e+000 3.452694e+000 3.666064e+000
<GCONST> 1.152205e+002
<STATE> 3
<MEAN> 25
 7.661899e+000 6.816189e+000 4.038018e+000 -7.014076e+000 -6.612949e+000 1.459762e+000 -9.977833e+000 -6.619120e-001 -6.500144e+000 -3.313371e+000 2.395201e+000 -5.019460e-001 9.404723e-002 3.280105e-001 -1.504851e-001 -1.381798e-001 -9.484290e-002 2.327291e-001 1.443912e-001 4.555577e-002 -1.484841e-001 -1.037085e-001 3.507413e-002 1.816007e-001 -3.073940e-001
<VARIANCE> 25
 8.382546e+000 3.014571e+001 5.339260e+001 9.016296e+001 3.463970e+001 8.754688e+001 4.251279e+001 6.718333e+001 1.271792e+002 9.203221e+001 5.432447e+001 3.202663e+001 3.200675e-001 1.142190e+000 1.139764e+000 1.932262e+000 2.283341e+000 2.800790e+000 2.188226e+000 2.280282e+000 2.303006e+000 2.692045e+000 2.105065e+000 1.578437e+000 4.330953e-001
<GCONST> 9.819676e+001
<STATE> 4
<MEAN> 25
 5.843203e+000 6.893225e+000 2.106813e+000 -4.905057e+000 -4.635793e+000 -5.998279e-001 -6.754508e+000 -4.650081e+000 -5.700880e+000 -5.554404e+000 1.105254e-001 -5.516486e-001 -2.801301e-001 -1.997299e-001 -1.887479e-001 5.621222e-001 3.183762e-001 -1.547610e-003 3.380645e-001 -1.313232e-001 1.926396e-001 2.827528e-001 -1.270717e-001 -8.664544e-002 -3.374923e-001
<VARIANCE> 25
 1.236271e+001 1.769114e+001 2.581527e+001 7.107706e+001 3.153904e+001 4.154801e+001 4.334729e+001 3.143494e+001 4.072296e+001 3.849363e+001 4.243574e+001 2.186210e+001 2.968991e-001 5.538574e-001 6.185121e-001 1.619987e+000 1.402744e+000 1.563328e+000 1.554041e+000 1.540016e+000 1.589849e+000 1.761898e+000 1.562971e+000 1.237815e+000 4.382275e-001
<GCONST> 8.815429e+001
<TRANSP> 5
 0.000000e+000 1.000000e+000 0.000000e+000 0.000000e+000 0.000000e+000
 0.000000e+000 7.617226e-001 2.382774e-001 0.000000e+000 0.000000e+000
 0.000000e+000 0.000000e+000 8.277687e-001 1.722313e-001 0.000000e+000
 0.000000e+000 0.000000e+000 0.000000e+000 8.458825e-001 1.541175e-001
 0.000000e+000 0.000000e+000 0.000000e+000 0.000000e+000 0.000000e+000
<ENDHMM>
~h "w"
<BEGINHMM>
<NUMSTATES> 5
<STATE> 2
<MEAN> 25
 7.124956e+000 2.944139e+000 -6.583041e-001 -5.424837e+000 -9.759710e+000 -6.843390e+000 -1.709854e+000 4.826329e+000 6.392062e+000 -5.247749e+000 -4.295251e+000 1.000756e+000 5.793706e-002 -1.365572e-002 -3.963369e-001 1.041021e-001 -4.914306e-002 -3.099151e-001 3.187973e-001 7.756010e-001 2.122798e-001 -4.804088e-002 8.128186e-003 1.655349e-001 -9.692930e-002
<VARIANCE> 25
 5.772794e+000 7.419014e+001 2.942834e+001 2.771108e+001 2.664100e+001 6.330116e+001 3.113634e+001 3.028971e+001 8.341939e+001 1.578232e+001 1.775874e+001 1.958838e+001 3.423313e-001 4.061014e+000 2.850900e+000 9.569201e-001 2.537435e+000 3.156780e+000 2.371426e+000 3.682844e+000 3.642875e+000 1.901289e+000 1.366037e+000 1.704935e+000 9.011965e-001
<GCONST> 9.428228e+001
<STATE> 3
<MEAN> 25
 4.115883e+000 -1.379905e+000 -3.997365e+000 -4.252786e+000 -5.397457e+000 1.325815e+000 7.384732e+000 9.765492e+000 4.360276e+000 -2.995307e+000 1.306295e+000 3.814145e+000 -7.494499e-001 2.089324e-001 -1.307731e-001 2.448213e-002 6.202620e-001 7.070679e-001 1.073710e-001 -6.490040e-001 -5.545779e-001 8.882260e-001 5.894784e-001 9.166113e-002 -7.705936e-001
<VARIANCE> 25
 2.930018e+001 4.576151e+001 5.871531e+001 1.956336e+001 4.018546e+001 8.590637e+001 2.660221e+001 3.611458e+001 4.803548e+001 3.283737e+001 5.401495e+001 2.117339e+001 5.664216e-001 1.464644e+000 1.215944e+000 1.187503e+000 1.533562e+000 4.004780e+000 2.174309e+000 3.148218e+000 3.194561e+000 1.969524e+000 2.632432e+000 1.589715e+000 5.276541e-001
<GCONST> 9.616488e+001
<STATE> 4
<MEAN> 25
 -6.275966e+000 1.176745e+000 -1.441666e+000 2.727938e+000 2.636552e+000 -5.628147e-001 4.256745e+000 -5.512581e-001 2.382844e-001 4.711523e+000 2.390870e+000 1.255192e+000 -9.625543e-002 -6.893720e-002 1.694036e-002 6.043143e-002 8.031233e-002 -3.567856e-002 -2.068792e-002 -3.385632e-002 -2.698097e-002 6.632153e-002 5.151472e-002 1.592742e-002 -3.758610e-002
<VARIANCE> 25
 1.181417e+001 1.893467e+001 2.269933e+001 2.693108e+001 1.537903e+001 3.217101e+001 3.407185e+001 1.470930e+001 3.440931e+001 1.305920e+001 2.086191e+001 9.328191e+000 7.856959e-002 3.503920e-001 4.203030e-001 4.353511e-001 6.070568e-001 1.221636e+000 1.159426e+000 1.201047e+000 1.411169e+000 1.030504e+000 1.009091e+000 9.407867e-001 7.081416e-002
<GCONST> 7.398875e+001
<TRANSP> 5
 0.000000e+000 1.000000e+000 0.000000e+000 0.000000e+000 0.000000e+000
 0.000000e+000 8.658045e-001 1.341956e-001 0.000000e+000 0.000000e+000
 0.000000e+000 0.000000e+000 8.241734e-001 1.758267e-001 0.000000e+000
 0.000000e+000 0.000000e+000 0.000000e+000 9.378400e-001 6.216000e-002
 0.000000e+000 0.000000e+000 0.000000e+000 0.000000e+000 0.000000e+000
<ENDHMM>
~h "y"
<BEGINHMM>
<NUMSTATES> 5
<STATE> 2
<MEAN> 25
 5.369514e+000 -6.360190e+000 -6.539693e-001 3.175599e+000 2.267378e+000 -7.989881e+000 -8.777785e+000 -4.854233e+000 -3.407164e+000 -9.400561e-001 4.445708e+000 9.079306e-001 -4.003780e-001 4.430198e-001 1.405184e+000 1.430643e+000 3.353294e-001 -7.105407e-001 -1.110766e+000 6.521444e-002 -4.356051e-003 -6.400326e-001 -4.122569e-001 -1.079101e+000 -3.118850e-001
<VARIANCE> 25
 6.176345e+000 2.134740e+001 3.218322e+001 7.423404e+001 3.959601e+001 2.919209e+001 4.828374e+001 4.577040e+001 2.458995e+001 3.759639e+001 3.877243e+001 3.284216e+001 2.080249e-001 5.767472e-001 8.619101e-001 1.476177e+000 2.128721e+000 1.678616e+000 2.440609e+000 1.733148e+000 1.992537e+000 2.780738e+000 3.238301e+000 1.957688e+000 2.610994e-001
<GCONST> 9.039144e+001
<STATE> 3
<MEAN> 25
 3.640877e+000 -4.029258e+000 5.399486e+000 8.630110e+000 2.565979e+000 -9.919474e+000 -1.123674e+001 -5.383752e+000 -4.181211e+000 -3.956810e+000 1.750633e-001 -3.035491e+000 2.526927e-001 -2.067356e-001 -7.447636e-001 -9.207665e-001 -5.054812e-001 1.479761e-002 3.519894e-001 -1.479550e-001 -2.619468e-001 6.579904e-001 7.685771e-001 7.517064e-001 2.519677e-001
<VARIANCE> 25
 6.379610e+000 3.281746e+001 4.168581e+001 7.301109e+001 4.795686e+001 3.196447e+001 4.094738e+001 5.145599e+001 1.962089e+001 3.207323e+001 5.595500e+001 2.837771e+001 4.616723e-001 8.468346e-001 3.091144e+000 2.652063e+000 2.012669e+000 2.860177e+000 4.542926e+000 2.537585e+000 1.514899e+000 3.013134e+000 3.112384e+000 2.012506e+000 6.177241e-001
<GCONST> 9.634572e+001
<STATE> 4
<MEAN> 25
 1.341366e+000 -1.845069e+000 1.466019e+001 -9.771949e+000 -1.111876e+001 -6.305433e+000 -4.934146e+000 5.420457e-001 -6.940875e+000 9.824170e-001 1.412898e+000 6.869074e-001 3.798419e-002 -4.689468e-002 -9.710842e-002 -9.325022e-002 -2.635728e-001 6.821160e-002 1.515633e-001 1.355517e-001 2.128812e-002 5.362244e-002 -7.639625e-002 -4.285472e-002 1.107598e-002
<VARIANCE> 25
 1.075379e+001 4.616280e+001 6.229814e+001 2.408359e+001 4.069720e+001 2.761605e+001 4.067684e+001 8.048043e+001 2.683973e+001 2.500592e+001 4.666212e+001 1.932299e+001 4.756902e-001 2.898233e+000 3.266495e+000 1.265144e+000 4.461873e+000 1.930464e+000 3.281023e+000 4.931543e+000 2.437923e+000 2.438868e+000 3.290962e+000 1.500310e+000 1.003785e+000
<GCONST> 9.795974e+001
<TRANSP> 5
 0.000000e+000 1.000000e+000 0.000000e+000 0.000000e+000 0.000000e+000
 0.000000e+000 8.016722e-001 1.983279e-001 0.000000e+000 0.000000e+000
 0.000000e+000 0.000000e+000 8.577946e-001 1.422054e-001 0.000000e+000
 0.000000e+000 0.000000e+000 0.000000e+000 9.078877e-001 9.211229e-002
 0.000000e+000 0.000000e+000 0.000000e+000 0.000000e+000 0.000000e+000
<ENDHMM>
~h "z"
<BEGINHMM>
<NUMSTATES> 5
<STATE> 2
<MEAN> 25
 -5.768936e+000 -1.499468e+000 1.962837e+000 5.523461e+000 -7.616518e-001 -9.387645e-001 8.656366e+000 1.314772e+000 -1.587353e+000 4.699073e+000 -7.075897e-001 1.338181e+000 -5.212063e-002 1.608521e-001 1.035986e-001 2.989327e-001 1.532736e-002 -6.868448e-002 6.601591e-002 -2.106361e-002 -1.044227e-001 -1.266351e-001 7.915550e-002 -1.337814e-001 -1.551346e-001
<VARIANCE> 25
 3.414906e+000 8.977724e+000 3.306663e+001 3.065311e+001 1.132625e+001 1.297596e+001 4.004194e+001 1.938937e+001 2.795785e+001 3.889341e+001 2.812221e+001 1.489610e+001 1.544805e-001 3.823668e-001 8.525202e-001 8.828400e-001 1.110772e+000 1.194524e+000 1.633442e+000 2.239230e+000 2.327534e+000 2.979174e+000 2.296491e+000 1.102674e+000 8.791957e-002
<GCONST> 7.986578e+001
<STATE> 3
<MEAN> 25
 -3.917447e+000 5.033918e+000 3.558293e+000 5.105104e+000 5.492385e+000 2.664927e+000 -6.649549e-001 -5.378022e+000 -2.004689e+000 3.029134e-001 -1.857645e+000 -5.842893e-001 1.408394e-001 8.411001e-002 4.341200e-001 -1.582988e-001 5.215282e-001 -6.986079e-001 -1.988914e-001 -5.420750e-002 -1.094751e+000 6.455980e-001 1.315846e-002 6.295122e-002 2.187015e-001
<VARIANCE> 25
 2.802210e+000 5.479776e+000 3.400045e+001 2.553569e+001 1.628978e+001 2.781941e+001 2.002346e+001 3.352125e+001 2.617776e+001 2.605492e+001 8.724957e+000 2.318566e+001 4.097515e-001 6.006857e-001 5.892262e-001 1.256067e+000 5.939382e-001 9.075000e-001 2.573108e+000 4.641150e+000 1.606411e+000 1.209818e+000 1.009421e+000 1.918690e+000 1.161748e-001
<GCONST> 7.923707e+001
<STATE> 4
<MEAN> 25
 5.874074e+000 4.295966e+000 3.272882e+000 -5.476139e+000 -6.006522e+000 -1.597102e+000 -4.724489e+000 -2.794168e+000 -1.106813e+001 -4.145142e+000 4.271556e+000 -3.840184e+000 8.236632e-002 -1.387897e-002 3.531250e-002 6.620650e-003 -1.157604e-001 -5.814642e-002 -7.805278e-002 -4.857237e-002 -7.761922e-002 -3.432691e-001 7.742096e-002 2.709401e-002 1.048214e-001
<VARIANCE> 25
 2.345241e+001 3.528964e+001 7.766662e+000 7.248201e+001 4.857158e+001 2.835909e+001 9.534534e+001 2.559585e+001 1.046118e+002 4.834660e+001 1.713536e+001 3.061352e+001 6.418159e-001 7.531722e-001 5.606308e-001 1.928501e+000 1.019513e+000 2.358094e+000 4.530070e+000 1.172628e+000 2.087036e+000 1.727958e+000 1.438153e+000 1.191824e+000 1.595636e+000
<GCONST> 9.300493e+001
<TRANSP> 5
 0.000000e+000 1.000000e+000 0.000000e+000 0.000000e+000 0.000000e+000
 0.000000e+000 9.677069e-001 3.229307e-002 0.000000e+000 0.000000e+000
 0.000000e+000 0.000000e+000 8.621150e-001 1.378850e-001 0.000000e+000
 0.000000e+000 0.000000e+000 0.000000e+000 9.588996e-001 4.110037e-002
 0.000000e+000 0.000000e+000 0.000000e+000 0.000000e+000 0.000000e+000
<ENDHMM>
~h "ai"
<BEGINHMM>
<NUMSTATES> 5
<STATE> 2
<MEAN> 25
 7.100051e+000 -5.187425e+000 3.890690e-001 -4.885989e+000 -2.329190e+000 1.095090e+000 -2.992525e+000 -3.936112e-001 2.562633e+000 -1.831277e+000 -2.432697e+000 4.661397e-001 4.754999e-002 -1.518625e+000 -1.055197e+000 -1.156156e+000 9.106094e-001 -6.250342e-001 4.756380e-001 1.286269e+000 5.889586e-001 -4.309045e-001 8.009606e-001 1.511901e-001 1.337682e+000
<VARIANCE> 25
 1.730876e+001 5.994371e+001 4.651392e+001 7.423940e+001 7.718414e+001 5.388889e+001 8.910730e+001 8.208958e+001 1.262343e+002 8.156884e+001 4.552420e+001 3.178828e+001 1.520778e+000 2.853146e+000 4.326824e+000 5.122133e+000 7.068853e+000 4.317612e+000 5.131381e+000 7.565400e+000 4.060986e+000 5.053447e+000 4.169767e+000 3.355287e+000 1.261291e+000
<GCONST> 1.123217e+002
<STATE> 3
<MEAN> 25
 5.746577e+000 -1.017212e+001 4.813000e-002 -2.050000e+000 3.455354e+000 -6.103257e+000 -9.503988e-001 2.840260e+000 -3.622809e-001 -3.240088e+000 1.836579e+000 -1.750849e+000 -2.784301e-001 2.527817e-001 8.986840e-001 7.353556e-001 -1.616038e-001 -3.586400e-001 -2.477652e-001 1.072848e-002 -3.711745e-001 2.214725e-001 1.018218e-001 -3.104750e-001 -3.824894e-001
<VARIANCE> 25
 8.701838e+000 2.101055e+001 9.269379e+001 1.701780e+002 7.682117e+001 3.630650e+001 4.983096e+001 3.668039e+001 4.498901e+001 2.847135e+001 6.017620e+001 3.014222e+001 3.279347e-001 7.297676e-001 1.449376e+000 1.405173e+000 2.719448e+000 1.902857e+000 2.348674e+000 1.720987e+000 2.569973e+000 1.936449e+000 2.057071e+000 1.438966e+000 2.612449e-001
<GCONST> 9.459402e+001
<STATE> 4
<MEAN> 25
 -7.979233e-001 1.989557e-001 8.886256e+000 2.791928e+000 -2.535350e+000 -2.585060e+000 -1.562637e+000 5.393705e-001 -4.306429e+000 1.608281e+000 1.717078e+000 -1.874323e+000 -4.110451e-001 7.655141e-001 -8.144814e-001 2.937451e-001 8.202551e-002 7.815997e-001 2.495477e-001 -4.097662e-001 3.739865e-001 2.631471e-001 -2.733139e-001 2.660028e-001 -1.345783e+000
<VARIANCE> 25
 1.094069e+001 1.981806e+001 8.008138e+001 1.249018e+002 1.301860e+002 4.156014e+001 5.869400e+001 3.828260e+001 4.620988e+001 4.281051e+001 3.593106e+001 2.005615e+001 2.634971e-001 1.133938e+000 2.561202e+000 3.574709e+000 2.110149e+000 1.823183e+000 2.283323e+000 2.144285e+000 2.192692e+000 2.398479e+000 1.851146e+000 1.706325e+000 1.009527e+000
<GCONST> 9.778185e+001
<TRANSP> 5
 0.000000e+000 1.000000e+000 0.000000e+000 0.000000e+000 0.000000e+000
 0.000000e+000 8.027670e-001 1.972330e-001 0.000000e+000 0.000000e+000
 0.000000e+000 0.000000e+000 9.231869e-001 7.681315e-002 0.000000e+000
 0.000000e+000 0.000000e+000 0.000000e+000 8.850128e-001 1.149871e-001
 0.000000e+000 0.000000e+000 0.000000e+000 0.000000e+000 0.000000e+000
<ENDHMM>
~h "au"
<BEGINHMM>
<NUMSTATES> 5
<STATE> 2
<MEAN> 25
 6.526250e+000 -3.372096e+000 -8.342582e+000 -5.544528e+000 -6.154314e+000 -4.851857e+000 3.703574e+000 7.708303e+000 -1.942131e+000 -8.251637e+000 -1.329737e+000 4.228167e+000 1.520808e-001 -3.724293e-001 -4.077281e-001 -2.759417e-002 -3.305455e-001 -4.197725e-001 4.795383e-001 1.005237e+000 1.578219e-001 -4.617061e-001 -7.369794e-002 1.371287e-001 1.456157e-001
<VARIANCE> 25
 3.445397e+000 1.197161e+001 1.740383e+001 1.505410e+001 2.109502e+001 3.138897e+001 2.420683e+001 3.016048e+001 1.363901e+001 2.490947e+001 1.505073e+001 4.275258e+000 1.141882e-001 8.290837e-001 1.047935e+000 5.344071e-001 4.806864e-001 6.606770e-001 1.617421e+000 1.481533e+000 7.335943e-001 9.041929e-001 1.425014e+000 6.536862e-001 1.492321e-001
<GCONST> 7.272201e+001
<STATE> 3
<MEAN> 25
 4.901396e+000 5.076523e-001 -2.594249e+000 -5.492748e+000 -1.088744e+001 -9.451466e+000 2.818229e+000 1.038406e+001 1.489466e+000 -6.237872e+000 -2.442676e+000 2.412121e-001 -4.227511e-001 9.671315e-001 1.028542e+000 -3.708373e-002 8.890426e-002 3.812285e-001 -8.768436e-001 -1.377392e+000 8.283001e-002 8.721687e-001 7.574799e-002 -5.590352e-001 -5.165913e-001
<VARIANCE> 25
 7.339020e+000 1.705582e+001 2.522776e+001 1.426186e+001 1.463672e+001 2.546757e+001 3.109279e+001 5.257220e+001 1.104902e+001 2.788718e+001 1.398546e+001 1.549473e+001 1.733910e-001 2.777001e-001 4.341000e-001 7.490734e-001 1.840638e+000 1.704543e+000 1.060547e+000 2.012334e+000 1.115828e+000 1.412877e+000 1.786695e+000 1.058624e+000 4.783048e-002
<GCONST> 7.688843e+001
<STATE> 4
<MEAN> 25
 8.812542e+000 8.415476e+000 -3.495562e-001 -5.712848e+000 -6.935770e+000 -3.699999e+000 -4.838652e+000 8.266949e+000 2.982321e+000 -7.497025e+000 1.340248e+000 6.369010e+000 -5.629388e-001 7.140279e-001 1.061275e-001 8.763524e-001 3.262787e-001 -1.078222e-001 4.982057e-001 -2.727075e-001 1.322949e-003 5.719325e-001 3.884618e-002 -2.261824e-001 -1.220392e+000
<VARIANCE> 25
 3.544750e+001 5.635835e+001 9.587064e+001 4.584740e+001 1.710562e+001 4.030169e+001 4.378705e+001 4.011554e+001 9.697696e+001 8.347973e+001 4.161074e+001 3.139465e+001 7.298538e-001 1.521415e+000 1.053595e+000 1.519196e+000 1.332941e+000 2.038159e+000 2.294533e+000 1.841230e+000 2.262001e+000 4.605749e+000 8.892744e-001 7.881973e-001 3.675744e-001
<GCONST> 9.611889e+001
<TRANSP> 5
 0.000000e+000 1.000000e+000 0.000000e+000 0.000000e+000 0.000000e+000
 0.000000e+000 8.953862e-001 1.046138e-001 0.000000e+000 0.000000e+000
 0.000000e+000 0.000000e+000 8.594493e-001 1.405507e-001 0.000000e+000
 0.000000e+000 0.000000e+000 0.000000e+000 8.424047e-001 1.575952e-001
 0.000000e+000 0.000000e+000 0.000000e+000 0.000000e+000 0.000000e+000
<ENDHMM>
~h "ng"
<BEGINHMM>
<NUMSTATES> 5
<STATE> 2
<MEAN> 25
 6.363727e+000 -5.426134e+000 -9.027822e-001 -5.122079e+000 2.057589e+000 9.431750e-001 2.270456e+000 1.271362e+000 3.304174e+000 -2.596893e+000 -1.457728e-001 -1.852915e+000 -6.170029e-002 1.116951e+000 1.479691e-001 9.936944e-001 7.256225e-002 5.163293e-001 -1.597894e-001 -3.203202e-001 -5.373223e-001 4.234919e-001 -4.213466e-002 -1.204836e-001 -1.008752e+000
<VARIANCE> 25
 1.546715e+001 4.863493e+001 2.534674e+001 1.120999e+002 6.906775e+001 2.086269e+001 4.037703e+001 5.294260e+001 5.333440e+001 2.817843e+001 2.297675e+001 1.820809e+001 3.886935e-001 1.088124e+000 1.340216e+000 1.432622e+000 4.644940e+000 1.656394e+000 1.837322e+000 1.741637e+000 2.771191e+000 1.676004e+000 2.375768e+000 1.746643e+000 5.019594e-001
<GCONST> 9.407889e+001
<STATE> 3
<MEAN> 25
 3.427198e+000 5.257751e+000 5.510901e-001 3.887369e+000 3.432619e+000 3.720724e+000 4.144550e+000 2.115797e+000 1.051412e+000 -3.293388e-001 -1.735370e+000 -3.085447e+000 -6.562037e-001 8.596985e-001 7.539724e-001 4.625808e-001 4.748944e-001 3.181149e-001 2.988615e-002 -1.921804e-001 1.287714e-002 4.063198e-001 1.403261e-002 1.002188e-001 -8.327925e-001
<VARIANCE> 25
 1.240828e+001 2.328980e+001 1.893365e+001 4.600420e+001 5.198801e+001 2.362650e+001 4.148190e+001 5.231422e+001 2.317756e+001 4.108976e+001 3.155413e+001 3.691232e+001 3.209996e-001 6.742840e-001 9.245617e-001 1.091172e+000 1.324688e+000 1.761274e+000 1.912436e+000 2.043705e+000 1.407942e+000 1.722024e+000 1.266160e+000 2.053339e+000 2.889141e-001
<GCONST> 8.838629e+001
<STATE> 4
<MEAN> 25
 -2.115527e+000 4.673199e+000 3.629954e-001 3.710310e+000 4.101970e+000 3.657526e+000 3.809741e+000 1.188118e+000 1.477805e+000 3.550643e+000 -2.707736e-003 4.244944e-002 -3.222763e-001 -2.654209e-001 -2.347192e-001 -2.522171e-001 -1.935734e-001 -2.052269e-001 -8.205933e-002 -1.161753e-001 -5.853778e-002 1.960209e-001 1.180182e-001 1.941226e-001 -1.958878e-001
<VARIANCE> 25
 1.561612e+001 2.272964e+001 2.214284e+001 3.471841e+001 3.185676e+001 2.017527e+001 2.651476e+001 2.671995e+001 3.010166e+001 3.028535e+001 1.924180e+001 1.824996e+001 2.362453e-001 4.186355e-001 6.028453e-001 8.445699e-001 1.021991e+000 1.247131e+000 1.577046e+000 1.526924e+000 1.451146e+000 1.515110e+000 1.342880e+000 1.002253e+000 1.553282e-001
<GCONST> 8.152444e+001
<TRANSP> 5
 0.000000e+000 1.000000e+000 0.000000e+000 0.000000e+000 0.000000e+000
 0.000000e+000 7.102953e-001 2.897047e-001 0.000000e+000 0.000000e+000
 0.000000e+000 0.000000e+000 7.558647e-001 2.441353e-001 0.000000e+000
 0.000000e+000 0.000000e+000 0.000000e+000 8.729727e-001 1.270273e-001
 0.000000e+000 0.000000e+000 0.000000e+000 0.000000e+000 0.000000e+000
<ENDHMM>
~h "ny"
<BEGINHMM>
<NUMSTATES> 5
<STATE> 2
<MEAN> 25
 -2.054364e+000 -7.703665e-001 1.292374e+000 2.651855e+000 -8.427259e-001 -1.021591e+000 2.533169e+000 -2.101634e+000 5.993163e-001 2.755092e+000 2.402508e+000 -2.142468e+000 -2.046130e-001 3.642536e-001 2.435181e-002 4.522750e-001 -8.126807e-001 -1.185381e-001 9.171606e-001 -1.013249e+000 1.285325e-002 8.397064e-001 1.082897e+000 1.716680e-002 -4.762609e-001
<VARIANCE> 25
 6.674355e+001 2.187219e+001 3.132351e+001 1.626639e+001 5.700056e+001 2.919511e+001 4.206982e+001 1.724769e+001 4.858229e+001 2.596211e+001 1.713667e+001 3.202262e+001 1.694098e+000 1.779785e+000 1.269792e+000 1.033645e+000 1.832352e+000 2.266728e+000 3.947990e+000 6.331886e-001 1.724550e+000 2.560187e+000 3.835834e+000 2.705522e+000 1.608991e+000
<GCONST> 9.493418e+001
<STATE> 3
<MEAN> 25
 1.855634e+000 8.989226e-001 -1.595703e+000 -7.920618e-001 -1.334761e+000 -3.094946e+000 4.274840e+000 -2.520822e+000 -3.480164e+000 1.826250e-001 1.709656e+000 -1.944179e+000 -4.611271e-002 2.021026e-001 -4.330475e-003 5.731810e-002 -2.751800e-001 1.897479e-001 6.106178e-001 3.035683e-001 2.386371e-001 -2.397407e-001 -2.370962e-001 -1.125203e-001 -5.520214e-001
<VARIANCE> 25
 3.528610e+001 1.923427e+001 1.622675e+001 2.865937e+001 3.615639e+001 1.309321e+001 3.238215e+001 3.248678e+001 2.502909e+001 1.171472e+001 1.462914e+001 1.871111e+001 2.220293e-001 3.693628e-001 5.782099e-001 9.766024e-001 1.060513e+000 8.549711e-001 1.395494e+000 8.644639e-001 9.499079e-001 1.339126e+000 1.182549e+000 8.092584e-001 2.222653e-001
<GCONST> 7.873069e+001
<STATE> 4
<MEAN> 25
 -3.915443e+000 1.993274e+000 -2.080818e+000 4.001881e+000 1.900113e+000 1.743522e+000 4.974762e+000 2.149496e+000 3.945530e+000 1.405244e+000 1.599018e+000 1.059852e+000 -1.310945e-002 1.389301e-002 4.289079e-002 1.295588e-001 1.574105e-001 1.524982e-001 -1.848396e-002 8.258794e-002 -7.586583e-002 -3.778992e-003 -8.122072e-003 -3.529830e-002 -5.872274e-002
<VARIANCE> 25
 6.700702e+000 6.568483e+000 4.806962e+000 1.449113e+001 1.473045e+001 1.211210e+001 1.648592e+001 1.336335e+001 1.129148e+001 1.010116e+001 9.405251e+000 1.431353e+001 1.154428e-001 1.696731e-001 3.030505e-001 4.614158e-001 4.344573e-001 4.854248e-001 9.715965e-001 8.961287e-001 8.939966e-001 8.924243e-001 6.978321e-001 9.311650e-001 4.617837e-002
<GCONST> 6.286609e+001
<TRANSP> 5
 0.000000e+000 1.000000e+000 0.000000e+000 0.000000e+000 0.000000e+000
 0.000000e+000 4.666743e-001 5.333257e-001 0.000000e+000 0.000000e+000
 0.000000e+000 0.000000e+000 8.232561e-001 1.767439e-001 0.000000e+000
 0.000000e+000 0.000000e+000 0.000000e+000 9.447587e-001 5.524128e-002
 0.000000e+000 0.000000e+000 0.000000e+000 0.000000e+000 0.000000e+000
<ENDHMM>
~h "oi"
<BEGINHMM>
<NUMSTATES> 5
<STATE> 2
<MEAN> 25
 -8.479862e-001 7.410709e-001 6.585776e+000 -5.420159e+000 -6.036534e+000 5.608310e+000 9.066196e-001 -7.299126e+000 -1.352615e+000 8.353622e+000 9.956779e-001 -1.457563e+000 -5.343040e-001 1.535970e-001 -6.752810e-001 6.246990e-001 7.747651e-001 2.337195e-001 1.132550e+000 6.371253e-001 3.422537e-001 -1.150260e-001 -1.892491e-001 2.106435e-002 -7.453750e-001
<VARIANCE> 25
 1.520956e+001 5.428974e+000 4.131428e+001 4.379030e+001 2.535899e+001 1.261322e+001 4.043292e+001 2.380959e+001 4.051794e+001 2.395304e+001 1.529815e+001 7.498149e+000 4.499989e-001 6.129320e-001 1.184188e+000 9.105408e-001 1.872393e+000 1.479408e+000 9.078147e-001 1.440126e+000 2.587974e+000 1.758829e+000 1.744520e+000 8.455092e-001 1.564298e-001
<GCONST> 8.224230e+001
<STATE> 3
<MEAN> 25
 -1.059005e+001 4.904986e+000 -6.251441e+000 -1.794716e+000 3.457680e+000 -4.296092e+000 -4.931314e+000 -6.738085e+000 -7.950881e+000 4.576352e+000 -3.948650e+000 -2.257403e-001 -6.073638e-002 4.657234e-002 3.114249e-002 -3.860011e-002 -2.882371e-002 -1.153017e-001 -1.257017e-002 -6.487364e-002 -1.129549e-001 -1.232149e-002 -3.880745e-002 6.570272e-002 -4.104973e-002
<VARIANCE> 25
 2.908929e+000 2.005623e+000 3.137346e+000 6.033682e+000 6.190060e+000 6.578789e+000 1.503755e+001 1.074537e+001 6.405684e+000 6.906351e+000 7.434908e+000 6.230859e+000 1.011378e-001 1.814533e-001 2.848811e-001 4.712277e-001 6.351219e-001 6.880224e-001 7.818431e-001 1.380781e+000 5.014433e-001 4.509251e-001 6.361356e-001 5.925752e-001 2.134210e-002
<GCONST> 5.400169e+001
<STATE> 4
<MEAN> 25
 -2.572492e+000 4.040101e+000 -8.003785e+000 9.783980e+000 3.286449e-001 1.436798e+000 4.499204e+000 1.113139e+000 7.510486e-001 -3.010990e+000 -1.293721e+000 4.806644e+000 9.523394e-003 9.452169e-003 -2.240860e-002 4.957731e-002 9.051398e-003 1.853068e-003 5.368796e-002 4.671687e-002 -2.746694e-002 1.403512e-002 -4.237674e-002 1.558427e-002 -1.628634e-002
<VARIANCE> 25
 2.398760e+000 3.504637e+000 6.652719e+000 1.394071e+001 1.257743e+001 1.769015e+001 1.885967e+001 2.101369e+001 1.447073e+001 2.201775e+001 1.355509e+001 1.352251e+001 1.926501e-001 3.820150e-001 5.989769e-001 1.125994e+000 1.488888e+000 1.905334e+000 2.576286e+000 2.694282e+000 1.224383e+000 2.124362e+000 1.379716e+000 1.853210e+000 6.213587e-002
<GCONST> 7.406141e+001
<TRANSP> 5
 0.000000e+000 1.000000e+000 0.000000e+000 0.000000e+000 0.000000e+000
 0.000000e+000 8.540338e-001 1.459662e-001 0.000000e+000 0.000000e+000
 0.000000e+000 0.000000e+000 9.411268e-001 5.887316e-002 0.000000e+000
 0.000000e+000 0.000000e+000 0.000000e+000 9.767495e-001 2.325052e-002
 0.000000e+000 0.000000e+000 0.000000e+000 0.000000e+000 0.000000e+000
<ENDHMM>
~h "sp"
<BEGINHMM>
<NUMSTATES> 3
<STATE> 2
~s "silst"
<TRANSP> 3
 0.000000e+000 2.103698e-001 7.896301e-001
 0.000000e+000 8.546005e-001 1.453995e-001
 0.000000e+000 0.000000e+000 0.000000e+000
<ENDHMM>
~h "sy"
<BEGINHMM>
<NUMSTATES> 5
<STATE> 2
<MEAN> 25
 4.209663e-001 -1.095809e+001 9.281266e+000 3.886009e+000 7.329873e-001 1.037952e+000 6.895054e+000 7.718215e+000 -2.727571e-001 -3.393655e+000 6.273966e+000 -2.871479e-001 -1.592707e+000 -1.840875e+000 1.668623e+000 6.213878e-002 9.746640e-002 3.534895e-001 -1.971741e-001 7.701284e-002 3.116113e-001 -7.266937e-003 1.548645e-001 9.080166e-001 2.910569e-001
<VARIANCE> 25
 5.960210e+001 5.831236e+001 2.597821e+002 3.141752e+001 1.672401e+001 1.512170e+001 4.345512e+001 3.944680e+001 2.362974e+001 1.098102e+001 5.577729e+001 1.866607e+001 3.141752e+000 2.964588e+000 1.116475e+001 7.780718e-001 1.529782e+000 2.238373e+000 2.178611e+000 1.388604e+000 1.303113e+000 1.481041e+000 4.287755e+000 1.981487e+000 3.279075e-001
<GCONST> 9.700734e+001
<STATE> 3
<MEAN> 25
 -7.135759e+000 -6.055525e+000 1.050937e+001 -2.137118e+000 2.250149e+000 -8.437947e-001 1.453047e+000 4.060069e-002 3.720451e+000 -4.587580e+000 5.837060e+000 3.563305e+000 1.033238e+000 8.808995e-002 -1.131973e+000 2.233868e-003 -6.531996e-001 -5.098752e-001 2.483379e-002 -1.179176e-001 -1.340396e-001 1.177921e-003 3.391025e-001 2.190102e-002 2.781705e-001
<VARIANCE> 25
 9.334509e+001 5.294644e+001 8.648280e+001 2.021176e+001 6.926019e+001 5.172690e+001 1.883324e+001 2.964913e+001 3.812769e+001 1.021397e+001 7.758790e+000 7.507633e+000 6.021136e+000 2.902307e+000 4.482017e+000 1.067539e+000 4.406442e+000 3.599430e+000 2.319288e+000 2.960518e+000 2.063493e+000 9.875898e-001 1.019791e+000 1.636212e+000 3.251622e-001
<GCONST> 9.567421e+001
<STATE> 4
<MEAN> 25
 2.742596e+000 -1.015065e+001 -3.544055e+000 3.697070e+000 -1.535767e+000 -5.655924e+000 2.730782e+000 5.686206e+000 -2.314935e+000 -2.158772e+000 2.722046e+000 -3.989711e-001 -3.569442e-001 -1.249486e-001 3.865151e-001 5.414332e-001 3.302415e-001 2.483724e-002 6.737433e-002 1.093106e-001 1.102547e-001 1.752504e-001 -1.107386e-001 -1.375933e-001 -1.954966e-001
<VARIANCE> 25
 4.014829e+001 3.070440e+001 3.954212e+001 1.081059e+002 5.883085e+001 2.792347e+001 2.936376e+001 2.824048e+001 2.479170e+001 3.570891e+001 1.552231e+001 1.583639e+001 3.714884e-001 1.258087e+000 1.191433e+000 1.284781e+000 1.687193e+000 1.203561e+000 1.232588e+000 1.760628e+000 1.036723e+000 1.122601e+000 7.860386e-001 1.269433e+000 8.920660e-002
<GCONST> 8.672051e+001
<TRANSP> 5
 0.000000e+000 1.000000e+000 0.000000e+000 0.000000e+000 0.000000e+000
 0.000000e+000 7.415994e-001 2.584006e-001 0.000000e+000 0.000000e+000
 0.000000e+000 0.000000e+000 8.486394e-001 1.513606e-001 0.000000e+000
 0.000000e+000 0.000000e+000 0.000000e+000 9.383525e-001 6.164746e-002
 0.000000e+000 0.000000e+000 0.000000e+000 0.000000e+000 0.000000e+000
<ENDHMM>
~h "sil"
<BEGINHMM>
<NUMSTATES> 5
<STATE> 2
<MEAN> 25
 -7.435625e+000 5.682911e+000 -5.577360e+000 -3.110110e+000 3.359280e-001 -3.195857e+000 -4.274012e+000 -4.235988e+000 -5.692591e+000 4.373262e+000 -3.104818e+000 1.748518e-001 1.300642e-001 -7.241998e-002 1.073800e-002 -3.072194e-002 -2.375562e-002 9.081509e-002 -2.836313e-002 -2.868588e-002 8.141006e-002 -5.079122e-003 5.031019e-002 5.415405e-002 1.381960e-001
<VARIANCE> 25
 2.788974e+001 1.764259e+001 1.314134e+001 3.418891e+001 2.513599e+001 3.561048e+001 2.191596e+001 2.993547e+001 2.284851e+001 1.721518e+001 1.669384e+001 1.063220e+001 2.902032e-001 2.415008e-001 4.558467e-001 5.995312e-001 7.307329e-001 1.033837e+000 1.060153e+000 1.024993e+000 1.098305e+000 1.084233e+000 1.011038e+000 8.332155e-001 2.012615e-001
<GCONST> 7.693738e+001
<STATE> 3
~s "silst"
<STATE> 4
<MEAN> 25
 -4.411167e+000 1.962934e+000 -1.247445e+000 5.130628e+000 2.303294e+000 3.646253e+000 4.203698e+000 1.383543e+000 3.284084e+000 2.164412e+000 1.512871e+000 1.495118e+000 -2.846153e-002 1.169519e-002 7.523406e-003 1.109029e-003 -9.911941e-003 1.085754e-002 -8.329305e-003 -2.184432e-004 3.093503e-002 -4.284464e-003 1.004506e-002 2.842153e-003 -3.151982e-002
<VARIANCE> 25
 3.007798e+000 8.211576e+000 1.145788e+001 3.318331e+001 1.161513e+001 2.067401e+001 1.528341e+001 1.429314e+001 2.043968e+001 2.503686e+001 1.397404e+001 1.227769e+001 1.151916e-001 2.474015e-001 4.173507e-001 5.956961e-001 7.956625e-001 9.185224e-001 1.157768e+000 1.135663e+000 1.252652e+000 1.339813e+000 1.156245e+000 9.528317e-001 7.683871e-002
<GCONST> 7.040395e+001
<TRANSP> 5
 0.000000e+000 1.000000e+000 0.000000e+000 0.000000e+000 0.000000e+000
 0.000000e+000 8.759340e-001 4.801619e-002 7.604975e-002 0.000000e+000
 0.000000e+000 0.000000e+000 8.954961e-001 1.045039e-001 0.000000e+000
 0.000000e+000 7.775511e-003 0.000000e+000 9.654859e-001 2.673851e-002
 0.000000e+000 0.000000e+000 0.000000e+000 0.000000e+000 0.000000e+000
<ENDHMM>
