~o
<STREAMINFO> 1 25
<VECSIZE> 25<NULLD><MFCC_D_N_Z_0><DIAGC>
~s "silst"
<MEAN> 25
 -2.637447e+000 9.764518e-001 -1.551110e+000 1.888357e+000 1.630917e+000 7.374354e-001 -2.510870e-001 3.863791e-001 -7.302412e-002 6.360550e-001 -1.402382e+000 1.386127e+000 -3.016161e-001 -1.782071e-001 -1.129684e-001 -8.365766e-002 7.503095e-002 -1.036640e-001 7.335635e-002 -9.831452e-002 2.241953e-001 -2.012357e-001 9.356582e-002 2.059257e-002 4.814263e-001
<VARIANCE> 25
 4.053508e+001 4.484641e+001 4.587841e+001 9.304448e+001 4.415545e+001 4.383088e+001 7.378313e+001 4.493721e+001 4.751319e+001 3.668652e+001 4.700771e+001 2.983636e+001 2.207801e+000 3.789075e+000 3.492948e+000 6.552956e+000 4.126516e+000 4.108844e+000 4.731916e+000 3.337386e+000 3.801881e+000 3.405299e+000 3.521032e+000 2.681813e+000 1.790334e+001
<GCONST> 1.107313e+002
~h "a"
<BEGINHMM>
<NUMSTATES> 5
<STATE> 2
<MEAN> 25
 2.116131e+000 -1.293487e+000 1.846910e-001 -1.490556e+000 2.759185e-001 -1.299801e+000 -1.249252e+000 -8.785434e-001 -5.064400e-001 -1.175480e+000 -1.151905e+000 -4.342459e-001 1.551640e+000 -1.509221e+000 -6.314469e-001 -1.532067e+000 -4.202023e-001 -8.169069e-001 -6.117087e-001 6.016045e-001 1.430583e-001 -7.663309e-001 -1.347397e-001 -7.441942e-003 2.384792e+000
<VARIANCE> 25
 3.642382e+001 6.067888e+001 4.164513e+001 7.908381e+001 6.554385e+001 5.221911e+001 5.214003e+001 6.150784e+001 6.992062e+001 3.955177e+001 4.287307e+001 3.540411e+001 3.077215e+000 4.359484e+000 4.465292e+000 6.256979e+000 6.668638e+000 5.075822e+000 5.290522e+000 6.162204e+000 5.693204e+000 4.062565e+000 4.909582e+000 4.057362e+000 4.174246e+000
<GCONST> 1.137032e+002
<STATE> 3
<MEAN> 25
 7.290861e+000 -8.293415e+000 -4.718693e+000 -7.867632e+000 -7.786952e-001 -3.684583e+000 -2.045065e-001 1.506826e+000 6.795564e-001 -2.822168e+000 4.232613e-001 5.474145e-001 1.130059e-001 -5.816369e-001 -4.590992e-001 -1.918899e-001 1.168311e-001 1.082843e-001 4.148968e-001 4.548726e-001 1.876495e-001 5.671920e-002 -1.835428e-002 -5.786478e-002 3.025144e-001
<VARIANCE> 25
 9.977738e+000 3.634719e+001 4.324620e+001 7.531663e+001 7.693745e+001 4.699951e+001 4.947795e+001 5.078039e+001 8.268674e+001 3.459061e+001 5.488960e+001 4.191677e+001 4.323793e-001 1.387465e+000 1.498666e+000 1.639472e+000 2.185165e+000 2.085065e+000 2.110144e+000 2.451545e+000 2.221327e+000 1.866594e+000 2.367823e+000 1.667646e+000 7.925569e-001
<GCONST> 9.776189e+001
<STATE> 4
<MEAN> 25
 6.342516e+000 -7.433924e+000 -4.039855e+000 -7.758424e+000 -6.793095e-001 -2.125191e+000 -2.551922e+000 4.001547e+000 4.656775e-001 -2.357099e+000 -3.468486e+000 -1.343308e+000 -1.847285e-001 5.453371e-001 1.970407e-001 3.220714e-001 6.415188e-002 1.168753e-001 2.615816e-002 -9.191699e-002 -5.565095e-003 6.960973e-002 -2.832548e-002 7.457910e-002 -6.492663e-001
<VARIANCE> 25
 9.598846e+000 3.262231e+001 3.332684e+001 4.518200e+001 4.278926e+001 2.458116e+001 5.063640e+001 3.537589e+001 3.258842e+001 2.681341e+001 5.648284e+001 3.886251e+001 3.555292e-001 1.041618e+000 9.983384e-001 1.164532e+000 1.463587e+000 1.426945e+000 1.641346e+000 1.555238e+000 1.345438e+000 1.352190e+000 1.448880e+000 1.252487e+000 8.807086e-001
<GCONST> 8.982462e+001
<TRANSP> 5
 0.000000e+000 1.000000e+000 0.000000e+000 0.000000e+000 0.000000e+000
 0.000000e+000 7.379068e-001 2.620932e-001 0.000000e+000 0.000000e+000
 0.000000e+000 0.000000e+000 7.525793e-001 2.474207e-001 0.000000e+000
 0.000000e+000 0.000000e+000 0.000000e+000 8.509815e-001 1.490184e-001
 0.000000e+000 0.000000e+000 0.000000e+000 0.000000e+000 0.000000e+000
<ENDHMM>
~h "b"
<BEGINHMM>
<NUMSTATES> 5
<STATE> 2
<MEAN> 25
 7.558005e-001 3.376897e+000 1.828339e+000 2.527877e+000 -8.696150e-001 -6.603789e-001 -1.302431e+000 -1.029115e+000 -6.069525e-001 -1.070878e+000 -1.143740e+000 -7.934583e-001 -6.876431e-001 3.019300e-002 -3.008808e-001 1.162230e-001 2.029546e-001 5.568080e-001 5.171967e-001 2.394606e-001 5.617476e-001 6.413015e-001 4.767371e-001 2.300328e-001 -8.400276e-001
<VARIANCE> 25
 1.853024e+001 3.065305e+001 5.119693e+001 3.367127e+001 5.483758e+001 4.187954e+001 4.301700e+001 4.710819e+001 4.447696e+001 3.147378e+001 3.230231e+001 2.464405e+001 5.918145e-001 9.509770e-001 1.215932e+000 1.553270e+000 1.564084e+000 2.184886e+000 1.746604e+000 1.995308e+000 1.804592e+000 1.774687e+000 1.779789e+000 1.658540e+000 6.569218e-001
<GCONST> 9.338299e+001
<STATE> 3
<MEAN> 25
 -4.354069e+000 4.070685e+000 -2.643909e+000 5.135284e+000 1.164942e+000 5.443984e-001 2.012796e+000 -8.711845e-001 -8.366110e-001 5.343153e-001 -4.914378e-001 1.371858e+000 -2.172527e-001 -6.853266e-002 -1.218322e-001 -1.659567e-002 -7.478777e-002 -4.181560e-002 8.479037e-003 -5.025734e-002 -3.063193e-002 8.609175e-002 2.275472e-002 -2.176315e-002 -2.320901e-001
<VARIANCE> 25
 1.534045e+001 1.087105e+001 1.744381e+001 5.119762e+001 2.140884e+001 2.060568e+001 3.285658e+001 3.056944e+001 2.612424e+001 3.963810e+001 1.709610e+001 2.000376e+001 2.227287e-001 5.093395e-001 7.172121e-001 9.913766e-001 1.547916e+000 1.780265e+000 1.860133e+000 1.941072e+000 1.900687e+000 1.865763e+000 1.473531e+000 1.171896e+000 1.418129e-001
<GCONST> 8.327615e+001
<STATE> 4
<MEAN> 25
 -4.223077e+000 2.060424e+000 -8.172312e-001 3.689836e+000 2.377452e+000 4.071111e+000 4.650430e+000 1.321044e+000 3.504043e+000 2.645215e+000 1.903862e+000 4.276744e-001 -4.233068e-002 2.825931e-002 2.718837e-002 5.089240e-002 2.989369e-002 1.759365e-002 6.171660e-003 -4.438126e-002 -3.377176e-002 1.435270e-002 6.433029e-003 -8.641879e-003 -3.868997e-002
<VARIANCE> 25
 3.242253e+000 7.336008e+000 9.534482e+000 2.120148e+001 8.493505e+000 1.256914e+001 1.317880e+001 1.352329e+001 1.428208e+001 1.380985e+001 1.349726e+001 1.091880e+001 1.030241e-001 2.751015e-001 3.639043e-001 4.428206e-001 5.662875e-001 5.945603e-001 7.817106e-001 9.067255e-001 1.023721e+000 1.063238e+000 9.718679e-001 8.515449e-001 6.291706e-002
<GCONST> 6.486385e+001
<TRANSP> 5
 0.000000e+000 1.000000e+000 0.000000e+000 0.000000e+000 0.000000e+000
 0.000000e+000 5.564041e-001 4.435959e-001 0.000000e+000 0.000000e+000
 0.000000e+000 0.000000e+000 8.262408e-001 1.737592e-001 0.000000e+000
 0.000000e+000 0.000000e+000 0.000000e+000 9.371229e-001 6.287710e-002
 0.000000e+000 0.000000e+000 0.000000e+000 0.000000e+000 0.000000e+000
<ENDHMM>
~h "c"
<BEGINHMM>
<NUMSTATES> 5
<STATE> 2
<MEAN> 25
 -3.687993e+000 1.683720e+000 -1.317887e+000 3.492057e+000 2.679370e+000 5.328578e+000 3.148395e+000 4.142175e-001 3.461218e+000 3.565367e+000 1.116542e+000 1.990680e+000 -1.291028e-001 -1.073402e-001 -6.344150e-002 -5.828627e-002 -7.686798e-003 4.579358e-002 1.577493e-001 1.178445e-001 3.737865e-002 9.206925e-002 1.017634e-001 9.823668e-002 -9.998098e-002
<VARIANCE> 25
 5.650517e+000 6.379052e+000 1.596301e+001 3.800603e+001 1.078526e+001 2.137757e+001 1.443023e+001 1.378484e+001 1.774366e+001 2.245653e+001 1.054833e+001 1.266700e+001 1.353654e-001 3.988006e-001 4.821653e-001 1.149629e+000 6.736646e-001 1.063315e+000 1.694899e+000 1.375677e+000 1.644215e+000 1.602434e+000 9.998031e-001 8.376004e-001 1.504636e-001
<GCONST> 7.345689e+001
<STATE> 3
<MEAN> 25
 -4.287576e+000 -2.209412e+000 1.264887e+000 2.074689e+000 3.369690e-001 2.723758e+000 5.131704e+000 3.154294e+000 2.337632e-001 1.657166e+000 2.664376e+000 3.309736e+000 -3.695333e-001 -1.521997e+000 1.129947e+000 1.071808e+000 -5.695804e-001 -1.799869e+000 1.555545e-001 8.923867e-001 -1.228964e+000 -1.388198e+000 8.502121e-002 2.425811e-001 6.748651e-001
<VARIANCE> 25
 1.135458e+001 2.685652e+001 2.686819e+001 3.742799e+001 6.791586e+000 3.529778e+001 2.554097e+001 3.055683e+001 2.986004e+001 2.327363e+001 1.181943e+001 9.707025e+000 3.994147e-001 4.165548e+000 2.445693e+000 4.063391e+000 1.548816e+000 1.509140e+000 2.375997e+000 3.346908e+000 2.750095e+000 1.718141e+000 1.547498e+000 1.272005e+000 8.640458e-001
<GCONST> 8.981814e+001
<STATE> 4
<MEAN> 25
 -9.459599e+000 -1.744245e+000 3.714350e+000 5.642850e-003 -2.266863e-001 -1.306603e+000 4.963105e+000 -4.151316e-001 -7.901576e-002 6.812676e-001 3.109191e+000 4.408921e+000 3.291554e-001 -5.676758e-001 8.842196e-001 -6.666793e-001 -1.025266e-002 -8.389529e-001 -1.215594e+000 -5.792143e-001 1.190578e-001 -2.399586e-001 -6.657698e-002 -1.818602e-001 2.181317e+000
<VARIANCE> 25
 6.028458e+001 2.495256e+002 7.969579e+001 5.232984e+001 8.785960e+001 3.791297e+001 7.933931e+001 3.290469e+001 5.576108e+001 3.043660e+001 1.836053e+001 3.080350e+001 1.266990e+001 1.677449e+001 1.082119e+001 5.028197e+000 9.657501e+000 3.050736e+000 8.407244e+000 5.335561e+000 4.912790e+000 4.132207e+000 3.022704e+000 5.095233e+000 3.619795e+000
<GCONST> 1.172281e+002
<TRANSP> 5
 0.000000e+000 1.000000e+000 0.000000e+000 0.000000e+000 0.000000e+000
 0.000000e+000 9.405498e-001 5.945016e-002 0.000000e+000 0.000000e+000
 0.000000e+000 0.000000e+000 5.863394e-001 4.136606e-001 0.000000e+000
 0.000000e+000 0.000000e+000 0.000000e+000 8.155133e-001 1.844867e-001
 0.000000e+000 0.000000e+000 0.000000e+000 0.000000e+000 0.000000e+000
<ENDHMM>
~h "d"
<BEGINHMM>
<NUMSTATES> 5
<STATE> 2
<MEAN> 25
 5.406079e+000 1.880918e+000 -3.736345e-001 -2.568722e-001 3.740171e-001 -1.215899e+000 -4.621384e+000 -5.928413e+000 -5.750634e+000 -3.530893e+000 3.616650e-001 2.157271e+000 -4.120955e-001 5.223607e-001 -1.042296e-001 1.368096e-001 4.268770e-002 1.892828e-001 5.607436e-001 1.713665e-001 1.142381e-001 1.065348e-001 -2.330340e-001 -2.263288e-002 -8.569812e-001
<VARIANCE> 25
 2.084311e+001 2.422373e+001 2.616033e+001 4.379673e+001 6.432104e+001 4.620971e+001 6.592841e+001 6.123648e+001 4.835759e+001 2.542986e+001 6.459710e+001 2.985157e+001 7.360544e-001 1.411507e+000 1.808560e+000 2.036286e+000 1.760530e+000 2.538510e+000 2.549159e+000 1.967050e+000 2.280766e+000 2.034323e+000 2.942255e+000 1.719713e+000 1.688515e+000
<GCONST> 9.832565e+001
<STATE> 3
<MEAN> 25
 1.318629e+000 4.122138e+000 1.497603e+000 2.782484e+000 9.641875e-001 -1.148959e+000 -2.965625e+000 -2.563842e+000 -2.216821e+000 -6.440572e-001 -2.096707e+000 -3.815745e-001 -4.771882e-001 1.190417e-001 -1.124418e-001 6.680495e-002 4.929445e-002 2.351701e-001 4.804970e-001 2.641367e-001 3.804172e-001 3.673252e-001 2.576279e-001 1.023739e-001 -5.537754e-001
<VARIANCE> 25
 2.306238e+001 1.744731e+001 2.793870e+001 2.957719e+001 3.591247e+001 3.511506e+001 4.682309e+001 3.663524e+001 2.657452e+001 2.736607e+001 2.103833e+001 2.857604e+001 2.278142e-001 7.021419e-001 6.978204e-001 9.551128e-001 1.093349e+000 1.427390e+000 1.581721e+000 1.317359e+000 1.218851e+000 1.498875e+000 1.285838e+000 1.222761e+000 1.922000e-001
<GCONST> 8.458321e+001
<STATE> 4
<MEAN> 25
 -3.705512e+000 1.561012e+000 -3.167531e-001 2.718093e+000 1.772777e+000 3.092808e+000 2.872809e+000 7.403115e-001 2.178961e+000 2.511014e+000 1.169280e+000 6.396692e-001 -7.086529e-002 2.414567e-002 -2.737675e-003 4.295549e-002 7.894584e-002 5.514106e-002 3.988401e-002 -4.173620e-002 -2.412374e-002 7.032372e-002 7.552363e-002 2.090480e-002 -7.217895e-002
<VARIANCE> 25
 5.664265e+000 8.806775e+000 1.243132e+001 1.922217e+001 1.265568e+001 1.400172e+001 1.491821e+001 1.926841e+001 1.695152e+001 1.523920e+001 1.323186e+001 1.372849e+001 1.726484e-001 3.298361e-001 4.207017e-001 5.280106e-001 7.145552e-001 7.906158e-001 8.876873e-001 1.050393e+000 1.092516e+000 1.099015e+000 1.040002e+000 1.062947e+000 8.831514e-002
<GCONST> 6.977276e+001
<TRANSP> 5
 0.000000e+000 1.000000e+000 0.000000e+000 0.000000e+000 0.000000e+000
 0.000000e+000 7.588613e-001 2.411387e-001 0.000000e+000 0.000000e+000
 0.000000e+000 0.000000e+000 7.659119e-001 2.340880e-001 0.000000e+000
 0.000000e+000 0.000000e+000 0.000000e+000 9.215890e-001 7.841102e-002
 0.000000e+000 0.000000e+000 0.000000e+000 0.000000e+000 0.000000e+000
<ENDHMM>
~h "e"
<BEGINHMM>
<NUMSTATES> 5
<STATE> 2
<MEAN> 25
 -4.056400e+000 2.330317e+000 -2.041667e+000 3.961909e+000 1.643952e+000 1.942939e+000 2.699846e+000 6.294901e-001 1.586669e+000 2.459231e+000 1.064547e+000 1.072971e+000 -4.456765e-002 2.442159e-003 2.985824e-003 7.660519e-002 2.206017e-002 -4.005693e-002 -1.990802e-002 -9.129918e-002 -1.116852e-001 -1.525495e-002 2.274792e-002 3.373212e-003 -3.521584e-002
<VARIANCE> 25
 9.709760e+000 1.037741e+001 1.434034e+001 4.010178e+001 1.402016e+001 1.573325e+001 2.682574e+001 2.708714e+001 2.481007e+001 2.363309e+001 1.545534e+001 1.327280e+001 2.455031e-001 4.530193e-001 6.705433e-001 8.141188e-001 8.666578e-001 1.181612e+000 1.282936e+000 1.468032e+000 1.463706e+000 1.546380e+000 1.291854e+000 1.224209e+000 2.035294e-001
<GCONST> 7.813503e+001
<STATE> 3
<MEAN> 25
 -3.849963e+000 2.639824e-001 1.027277e+000 -5.128217e-001 1.783059e+000 5.080770e-001 1.394965e+000 -2.765564e+000 -1.987880e+000 1.009102e-001 5.046470e-001 8.419136e-001 1.312841e+000 -5.536061e-001 9.680962e-002 -4.725734e-001 -4.580096e-001 -7.945924e-001 -7.819301e-001 -5.575439e-001 -7.321996e-001 -1.196486e+000 6.455826e-002 3.125556e-001 1.879203e+000
<VARIANCE> 25
 6.882234e+001 4.769389e+001 4.605792e+001 5.815567e+001 3.997514e+001 4.635382e+001 5.524234e+001 3.776857e+001 4.675530e+001 4.537054e+001 2.296636e+001 2.926725e+001 4.982651e+000 4.360987e+000 2.973985e+000 4.921942e+000 4.336641e+000 5.776412e+000 5.756125e+000 4.718616e+000 5.731601e+000 4.369521e+000 2.654608e+000 2.898668e+000 4.978317e+000
<GCONST> 1.104256e+002
<STATE> 4
<MEAN> 25
 5.380836e+000 -2.291223e+000 -2.144862e+000 -8.565186e-001 -1.227713e+000 -5.956223e+000 -5.412217e+000 -4.732474e+000 -4.591718e+000 -2.729510e+000 1.617032e+000 2.191637e+000 8.358992e-001 -3.505487e-001 -1.176958e-001 -4.233069e-001 -3.035476e-001 -6.650031e-001 -3.690132e-001 3.008409e-001 2.139453e-001 1.764588e-001 -1.737715e-001 -3.283386e-001 8.956162e-001
<VARIANCE> 25
 1.980924e+001 2.922872e+001 3.163189e+001 6.579443e+001 3.468718e+001 5.853546e+001 5.201930e+001 8.321815e+001 5.286106e+001 4.361549e+001 3.682565e+001 2.841137e+001 2.398176e+000 2.493422e+000 2.432398e+000 5.812947e+000 2.683900e+000 5.255224e+000 4.726413e+000 5.724016e+000 3.385015e+000 4.237761e+000 3.064321e+000 2.313487e+000 3.004121e+000
<GCONST> 1.067377e+002
<TRANSP> 5
 0.000000e+000 1.000000e+000 0.000000e+000 0.000000e+000 0.000000e+000
 0.000000e+000 8.886956e-001 1.113044e-001 0.000000e+000 0.000000e+000
 0.000000e+000 0.000000e+000 7.426631e-001 2.573369e-001 0.000000e+000
 0.000000e+000 0.000000e+000 0.000000e+000 6.395224e-001 3.604776e-001
 0.000000e+000 0.000000e+000 0.000000e+000 0.000000e+000 0.000000e+000
<ENDHMM>
~h "f"
<BEGINHMM>
<NUMSTATES> 5
<STATE> 2
<MEAN> 25
 -8.070613e+000 -3.911652e+000 1.636267e+000 2.202462e+000 5.822027e+000 -5.125327e-001 4.076347e+000 4.302337e-001 4.309584e+000 2.627700e+000 2.546432e+000 1.968357e+000 -1.199287e-001 -3.443341e-001 5.825445e-003 -4.891476e-001 2.550826e-001 -4.677513e-002 1.823061e-002 -2.359419e-001 8.441664e-002 4.026505e-003 -1.483272e-001 -1.374881e-001 6.481309e-001
<VARIANCE> 25
 1.957843e+001 2.430746e+001 8.811173e+000 2.108270e+001 1.954591e+001 3.574134e+001 1.831889e+001 1.475390e+001 1.477279e+001 1.483245e+001 8.554847e+000 1.070292e+001 4.859715e+000 1.632558e+000 1.163930e+000 1.388412e+000 3.057714e+000 2.549459e+000 2.443383e+000 1.531495e+000 2.597057e+000 1.794262e+000 1.161424e+000 1.620594e+000 1.038968e+000
<GCONST> 8.752565e+001
<STATE> 3
<MEAN> 25
 3.683224e+000 -4.067635e+000 -3.979096e+000 -5.894964e+000 4.091415e-001 2.751647e+000 -2.889508e+000 -2.032827e+000 3.084666e-001 9.110752e-001 -1.344964e+000 -4.745010e+000 4.434724e+000 -6.695701e-001 -2.015146e+000 -4.334413e+000 -1.938331e+000 1.318532e+000 -2.069491e+000 -2.328405e-001 -1.729474e+000 -4.624108e-001 -7.867568e-001 -2.095735e+000 2.921353e+000
<VARIANCE> 25
 5.871239e+001 2.853691e+001 2.059312e+001 5.115138e+001 3.142714e+001 2.711040e+001 2.253015e+001 1.298957e+001 3.279775e+001 2.339891e+001 1.780312e+001 1.557388e+001 3.835852e+000 3.718631e+000 1.229675e+000 2.446986e+000 3.250597e+000 5.515879e+000 2.222060e+000 1.690762e+000 1.407704e+000 1.449673e+000 2.320709e+000 2.665172e+000 2.407308e+000
<GCONST> 9.640852e+001
<STATE> 4
<MEAN> 25
 5.767922e+000 -8.751824e+000 -4.433396e+000 -1.674825e+001 7.638686e+000 4.868312e+000 -4.472270e+000 -2.729079e+000 1.756102e+000 1.846734e-001 6.510152e-001 -5.883905e+000 -8.574054e-002 1.768426e-001 1.192350e-001 1.290745e-001 -8.908805e-002 -2.552411e-001 2.772316e-001 -1.412342e-001 4.097679e-002 8.049104e-002 -1.784480e-001 -6.680082e-002 -7.817787e-002
<VARIANCE> 25
 1.926687e+001 2.972891e+001 2.637430e+001 5.377224e+001 8.620920e+001 3.301681e+001 5.139744e+001 1.416154e+001 3.986685e+001 2.519752e+001 1.765523e+001 1.769460e+001 1.520214e+000 2.635689e+000 2.484037e+000 5.731182e+000 4.154326e+000 2.588459e+000 3.856931e+000 2.117038e+000 2.758696e+000 1.668397e+000 1.832866e+000 1.146701e+000 3.453068e+000
<GCONST> 9.878263e+001
<TRANSP> 5
 0.000000e+000 1.000000e+000 0.000000e+000 0.000000e+000 0.000000e+000
 0.000000e+000 8.914484e-001 1.085515e-001 0.000000e+000 0.000000e+000
 0.000000e+000 0.000000e+000 4.531823e-001 5.468177e-001 0.000000e+000
 0.000000e+000 0.000000e+000 0.000000e+000 8.863912e-001 1.136088e-001
 0.000000e+000 0.000000e+000 0.000000e+000 0.000000e+000 0.000000e+000
<ENDHMM>
~h "g"
<BEGINHMM>
<NUMSTATES> 5
<STATE> 2
<MEAN> 25
 -4.073175e+000 2.747990e+000 -1.399932e+000 4.401852e+000 2.316276e+000 1.367980e+000 2.135607e+000 -2.068521e-001 7.744357e-001 4.620461e-001 -6.141816e-001 8.319623e-001 -4.409911e-002 3.504623e-004 -1.344250e-001 -8.404765e-002 -1.970188e-002 -2.343209e-002 -3.570172e-002 -7.859961e-002 -1.044193e-001 8.630674e-002 2.528831e-002 -4.928727e-002 -8.549123e-002
<VARIANCE> 25
 6.640598e+000 9.590085e+000 1.824415e+001 2.479389e+001 1.134829e+001 1.629183e+001 2.572164e+001 2.524496e+001 2.396877e+001 2.290709e+001 1.699768e+001 1.571405e+001 2.757248e-001 5.880888e-001 8.234110e-001 9.218701e-001 1.171657e+000 1.249028e+000 1.592294e+000 1.898342e+000 1.392500e+000 1.796235e+000 1.596278e+000 1.064379e+000 2.011130e-001
<GCONST> 7.904185e+001
<STATE> 3
<MEAN> 25
 -5.335807e+000 -3.166692e+000 -9.984511e-001 2.111894e+000 6.152354e-001 3.196201e-001 3.095043e+000 -8.997353e-001 -2.179292e+000 2.341224e+000 5.865262e-001 -5.046436e-001 1.578402e-001 -2.209280e+000 6.846343e-002 -1.941813e+000 -4.671263e-001 -3.592132e-001 -8.633810e-002 3.961262e-001 -2.427033e-001 -1.877160e-001 4.017245e-001 -3.629612e-001 3.073790e+000
<VARIANCE> 25
 1.758934e+001 1.138057e+002 2.688706e+001 4.828173e+001 3.285654e+001 6.185130e+001 3.931802e+001 2.886714e+001 2.308049e+001 2.647791e+001 1.885703e+001 2.354234e+001 1.595173e+000 1.118061e+001 4.549114e+000 7.033493e+000 1.318397e+001 5.967231e+000 5.678697e+000 5.597930e+000 3.464820e+000 4.994790e+000 3.119924e+000 3.126010e+000 5.393667e+000
<GCONST> 1.088647e+002
<STATE> 4
<MEAN> 25
 -2.139766e+000 -3.359376e+000 -3.991354e+000 -4.003750e+000 2.730097e+000 -4.841447e-001 -6.822933e-001 -1.160620e+000 -2.824915e+000 5.027984e+000 2.926507e+000 -8.904261e-001 1.464827e+000 6.203245e-001 1.370327e+000 -7.538624e-001 -1.105152e+000 -5.087634e-001 -1.757875e+000 -4.920777e-001 -7.006038e-001 -4.569628e-001 5.118349e-001 -3.433490e-001 2.116143e+000
<VARIANCE> 25
 2.672717e+001 4.951554e+001 1.090334e+002 6.243647e+001 2.028246e+002 6.451843e+001 6.039759e+001 5.230568e+001 5.189492e+001 6.641608e+001 4.337680e+001 3.644768e+001 2.739996e+000 6.853652e+000 7.272411e+000 1.019776e+001 1.595011e+001 4.242614e+000 5.001009e+000 4.888434e+000 3.895104e+000 6.823226e+000 5.100420e+000 2.608933e+000 6.940976e+000
<GCONST> 1.174649e+002
<TRANSP> 5
 0.000000e+000 1.000000e+000 0.000000e+000 0.000000e+000 0.000000e+000
 0.000000e+000 9.352779e-001 6.472211e-002 0.000000e+000 0.000000e+000
 0.000000e+000 0.000000e+000 5.864964e-001 4.135036e-001 0.000000e+000
 0.000000e+000 0.000000e+000 0.000000e+000 6.302433e-001 3.697567e-001
 0.000000e+000 0.000000e+000 0.000000e+000 0.000000e+000 0.000000e+000
<ENDHMM>
~h "h"
<BEGINHMM>
<NUMSTATES> 5
<STATE> 2
<MEAN> 25
 -7.206122e-001 -6.881757e+000 -2.152146e+000 -1.538318e+000 4.083016e+000 -1.056189e-001 6.053841e+000 3.011858e+000 3.972469e-002 -1.430508e+000 -1.110241e+000 1.890891e-001 -6.030849e-001 1.674369e-001 -2.537865e-001 5.461114e-001 5.182806e-002 3.568694e-001 5.378528e-001 6.202276e-002 1.893660e-001 3.501932e-001 1.299717e-001 4.027967e-001 -1.127579e+000
<VARIANCE> 25
 2.734132e+001 2.834001e+001 2.882778e+001 4.067670e+001 1.063477e+002 4.020303e+001 5.947259e+001 3.823166e+001 4.816138e+001 4.295955e+001 5.074280e+001 2.637334e+001 7.430199e-001 1.559147e+000 1.207192e+000 2.094040e+000 2.238071e+000 2.094201e+000 3.642731e+000 2.033307e+000 2.452647e+000 2.615797e+000 2.193064e+000 1.721717e+000 7.842141e-001
<GCONST> 9.815634e+001
<STATE> 3
<MEAN> 25
 -1.731415e+000 -4.846593e+000 -3.858836e+000 2.081879e+000 3.182802e+000 1.698975e+000 5.226166e+000 3.690470e+000 2.134310e+000 7.792616e-001 2.925370e-001 2.502888e+000 -1.790012e-001 6.699805e-001 1.255163e-001 2.271637e-001 -1.524512e-001 2.395628e-001 -1.075201e-001 3.753698e-002 3.562849e-001 2.160270e-001 1.599015e-001 -1.223487e-001 -7.175787e-001
<VARIANCE> 25
 5.661772e+000 2.697937e+001 1.089945e+001 3.960401e+001 2.795903e+001 1.616279e+001 1.907208e+001 2.009432e+001 2.257958e+001 2.338056e+001 2.157685e+001 2.268391e+001 1.776890e-001 5.954103e-001 6.072059e-001 8.765788e-001 9.958761e-001 9.392761e-001 1.057180e+000 1.302634e+000 1.381466e+000 1.319620e+000 1.367024e+000 1.072449e+000 1.376818e-001
<GCONST> 7.794436e+001
<STATE> 4
<MEAN> 25
 -3.547220e+000 1.471224e+000 -2.055828e+000 5.075245e+000 1.208414e+000 2.890550e+000 4.125658e+000 1.605171e+000 3.093057e+000 2.620449e+000 2.386740e+000 1.382198e+000 -3.358163e-002 3.644868e-002 3.579349e-002 6.438226e-002 1.110030e-002 1.092565e-002 -2.821060e-002 -8.730052e-002 -5.643459e-002 -1.254254e-002 1.818051e-002 1.658398e-002 -4.053271e-002
<VARIANCE> 25
 2.967770e+000 7.890420e+000 7.633260e+000 2.793473e+001 1.108933e+001 1.102306e+001 1.718015e+001 1.736375e+001 1.717794e+001 1.528050e+001 1.405023e+001 1.123785e+001 9.363423e-002 2.569999e-001 4.041083e-001 6.191700e-001 7.103838e-001 8.991532e-001 1.184926e+000 1.166857e+000 1.008442e+000 1.223420e+000 1.150784e+000 8.830096e-001 5.959294e-002
<GCONST> 6.776814e+001
<TRANSP> 5
 0.000000e+000 1.000000e+000 0.000000e+000 0.000000e+000 0.000000e+000
 0.000000e+000 8.467060e-001 1.532940e-001 0.000000e+000 0.000000e+000
 0.000000e+000 0.000000e+000 8.501509e-001 1.498490e-001 0.000000e+000
 0.000000e+000 0.000000e+000 0.000000e+000 9.481883e-001 5.181170e-002
 0.000000e+000 0.000000e+000 0.000000e+000 0.000000e+000 0.000000e+000
<ENDHMM>
~h "i"
<BEGINHMM>
<NUMSTATES> 5
<STATE> 2
<MEAN> 25
 -1.976140e+000 -1.382699e+000 1.122057e+001 2.393341e+000 -2.637626e+000 -3.087536e+000 -1.807901e+000 -4.078598e+000 -3.947393e+000 -2.883727e-001 1.622016e+000 -2.520785e+000 7.669892e-001 8.587553e-002 1.856239e+000 5.194050e-001 -5.813665e-001 -6.693482e-001 -1.719711e+000 -6.796065e-001 -1.020912e+000 -7.778789e-001 -2.049982e-001 -7.544823e-001 1.192931e+000
<VARIANCE> 25
 5.422219e+001 8.372923e+001 9.602417e+001 1.262567e+002 1.195136e+002 8.214349e+001 8.023347e+001 5.645438e+001 6.162933e+001 5.061911e+001 4.843145e+001 4.049405e+001 3.697006e+000 4.018179e+000 7.564056e+000 1.032384e+001 8.570621e+000 7.171791e+000 6.633643e+000 4.952883e+000 5.710700e+000 4.672300e+000 4.361439e+000 2.609605e+000 3.694797e+000
<GCONST> 1.186973e+002
<STATE> 3
<MEAN> 25
 1.528596e+000 -1.016914e+000 9.653727e+000 1.286693e+001 2.993786e+000 -9.295636e+000 -9.589659e+000 -2.362828e+000 -3.506448e+000 -7.003407e+000 -4.845625e+000 -5.066813e+000 -9.535947e-002 2.199829e-001 3.909314e-002 -2.016725e-001 -1.282550e-001 2.718077e-001 1.513619e-001 1.427642e-001 1.577800e-001 4.640047e-002 -1.779959e-001 -1.590390e-002 -2.236822e-001
<VARIANCE> 25
 5.865176e+000 2.481763e+001 3.724695e+001 8.026258e+001 6.461572e+001 4.354430e+001 2.498577e+001 3.795250e+001 3.051034e+001 2.119858e+001 3.337574e+001 2.507463e+001 2.353878e-001 7.701698e-001 9.265890e-001 1.579691e+000 1.302405e+000 3.008142e+000 1.658417e+000 1.950976e+000 1.520456e+000 1.543296e+000 1.357764e+000 1.162508e+000 4.053623e-001
<GCONST> 8.854837e+001
<STATE> 4
<MEAN> 25
 -3.573975e-001 5.402988e+000 1.722194e+001 -4.722711e+000 -9.886966e+000 3.716309e-001 -8.528092e+000 -7.394547e+000 -7.280898e+000 -1.238745e+000 1.425623e+000 -3.049828e+000 -7.546500e-002 5.558849e-002 -8.158947e-001 3.146970e-001 5.704274e-001 1.505332e-001 4.969911e-001 1.836645e-001 3.464716e-001 1.572439e-001 1.624802e-002 3.892772e-001 -7.946342e-001
<VARIANCE> 25
 1.536608e+001 2.167722e+001 5.703336e+001 8.176412e+001 7.099763e+001 3.029461e+001 4.336286e+001 5.468768e+001 3.919152e+001 3.797674e+001 4.229156e+001 3.266581e+001 4.677565e-001 8.490819e-001 2.056853e+000 2.267023e+000 2.152496e+000 1.850673e+000 2.190369e+000 2.129477e+000 1.567757e+000 1.693671e+000 1.516379e+000 1.450288e+000 1.049525e+000
<GCONST> 9.553536e+001
<TRANSP> 5
 0.000000e+000 1.000000e+000 0.000000e+000 0.000000e+000 0.000000e+000
 0.000000e+000 8.082567e-001 1.917433e-001 0.000000e+000 0.000000e+000
 0.000000e+000 0.000000e+000 8.744246e-001 1.255753e-001 0.000000e+000
 0.000000e+000 0.000000e+000 0.000000e+000 8.573822e-001 1.426178e-001
 0.000000e+000 0.000000e+000 0.000000e+000 0.000000e+000 0.000000e+000
<ENDHMM>
~h "j"
<BEGINHMM>
<NUMSTATES> 5
<STATE> 2
<MEAN> 25
 -3.190103e+000 3.433246e+000 -3.776810e+000 8.634153e+000 -9.550716e-001 2.524874e+000 3.016207e+000 2.281023e+000 -2.777655e-001 -5.158277e-001 9.208059e-001 2.302028e+000 -1.477851e-001 -1.048515e-001 1.024870e-002 -1.792566e-002 1.927697e-002 1.641634e-001 -1.546601e-002 5.346908e-002 -6.642343e-002 4.325084e-002 1.242717e-001 1.221343e-001 -6.606366e-002
<VARIANCE> 25
 5.837510e+000 1.115701e+001 8.229787e+000 2.579155e+001 1.509436e+001 2.213296e+001 2.830221e+001 1.835097e+001 2.230437e+001 1.891678e+001 1.470484e+001 1.160841e+001 2.653983e-001 5.239893e-001 5.975231e-001 1.101754e+000 1.386718e+000 2.009103e+000 2.096272e+000 1.457824e+000 1.831670e+000 1.892231e+000 1.346387e+000 1.072951e+000 3.402164e-001
<GCONST> 7.901337e+001
<STATE> 3
<MEAN> 25
 -6.358717e+000 -9.053808e-001 6.350814e+000 -3.778984e+000 -5.761189e-001 -6.646377e+000 4.716785e+000 -1.002571e+000 2.380699e+000 -2.623118e+000 3.224498e+000 1.417984e+000 1.660886e-001 -3.323957e-001 4.623826e-001 -5.413274e-001 -1.452371e-001 -6.296399e-001 -2.786645e-001 -3.587939e-002 9.311829e-002 -2.734114e-001 9.307530e-002 -1.001813e-001 1.367787e+000
<VARIANCE> 25
 8.288408e+001 6.517512e+001 5.923918e+001 7.423811e+001 4.107706e+001 6.643872e+001 8.058447e+001 2.297076e+001 3.399303e+001 4.379874e+001 2.165768e+001 3.187680e+001 8.862132e+000 4.473088e+000 4.168898e+000 6.049448e+000 6.009318e+000 5.253683e+000 7.493829e+000 2.405388e+000 3.357939e+000 3.035528e+000 2.269015e+000 2.991449e+000 1.020089e+001
<GCONST> 1.120194e+002
<STATE> 4
<MEAN> 25
 -3.974042e+000 4.347239e-001 -8.518937e-001 -9.431316e-001 3.756928e-001 2.537743e+000 1.457491e+000 1.006958e+000 3.053660e+000 3.847684e+000 1.098260e+000 -3.162118e-002 -4.360103e-002 -5.728710e-002 6.140944e-002 8.769979e-002 3.479407e-002 2.566866e-002 -4.445515e-002 -6.367423e-002 -3.227369e-002 4.235286e-002 -5.577125e-002 -1.161069e-001 -2.914377e-002
<VARIANCE> 25
 9.478723e+000 7.361897e+000 1.436381e+001 1.816633e+001 9.506059e+000 2.150664e+001 1.385646e+001 1.524328e+001 1.942836e+001 1.495561e+001 8.507060e+000 8.417260e+000 1.626837e-001 3.602785e-001 4.363261e-001 6.794927e-001 5.158998e-001 1.044087e+000 9.447904e-001 1.087907e+000 1.083434e+000 8.861576e-001 9.102546e-001 9.054385e-001 9.506004e-002
<GCONST> 6.914159e+001
<TRANSP> 5
 0.000000e+000 1.000000e+000 0.000000e+000 0.000000e+000 0.000000e+000
 0.000000e+000 9.093742e-001 9.062584e-002 0.000000e+000 0.000000e+000
 0.000000e+000 0.000000e+000 9.068881e-001 9.311184e-002 0.000000e+000
 0.000000e+000 0.000000e+000 0.000000e+000 9.365178e-001 6.348219e-002
 0.000000e+000 0.000000e+000 0.000000e+000 0.000000e+000 0.000000e+000
<ENDHMM>
~h "k"
<BEGINHMM>
<NUMSTATES> 5
<STATE> 2
<MEAN> 25
 -3.413742e+000 2.725303e+000 -1.612461e+000 4.968674e+000 1.280144e+000 2.959936e+000 2.178617e+000 6.264333e-001 1.558261e+000 9.026011e-001 1.946187e-001 1.674678e+000 -1.822896e-001 -7.447910e-002 -2.046673e-001 1.776784e-002 2.041008e-001 2.707173e-001 2.348678e-001 2.012464e-002 5.175703e-004 1.870710e-001 1.740852e-001 1.418815e-001 -1.634066e-001
<VARIANCE> 25
 4.450252e+000 9.067733e+000 2.143834e+001 4.152702e+001 1.733364e+001 2.216777e+001 1.924749e+001 1.981047e+001 2.337973e+001 2.782243e+001 1.735361e+001 1.637534e+001 3.238661e-001 5.463685e-001 8.756039e-001 1.165416e+000 1.254397e+000 1.712900e+000 1.834468e+000 1.731529e+000 2.124469e+000 1.829196e+000 1.470720e+000 1.298021e+000 3.167636e-001
<GCONST> 8.152164e+001
<STATE> 3
<MEAN> 25
 -4.580021e+000 4.298316e-001 -3.355234e+000 1.761585e+000 1.351087e+000 2.333202e+000 4.132024e+000 -8.100768e-001 -2.033801e+000 1.514782e+000 1.153610e+000 2.173466e+000 6.851299e-002 -2.382951e+000 -6.531006e-001 -2.024277e+000 -5.642156e-001 -5.461099e-002 7.270346e-001 -8.925115e-001 -1.450387e+000 -6.296028e-001 7.921914e-001 -1.357363e-001 3.288092e+000
<VARIANCE> 25
 1.419077e+001 4.124180e+001 2.832977e+001 8.631343e+001 4.840430e+001 5.252678e+001 4.948024e+001 3.843390e+001 4.725962e+001 3.580062e+001 2.163126e+001 1.872444e+001 2.240104e+000 6.459881e+000 5.426371e+000 8.735951e+000 1.318758e+001 8.108944e+000 1.035306e+001 7.792177e+000 6.806328e+000 9.026957e+000 4.735075e+000 3.852285e+000 6.143195e+000
<GCONST> 1.133805e+002
<STATE> 4
<MEAN> 25
 1.800725e+000 -7.062367e+000 -1.966084e+000 -1.128123e+001 2.553428e+000 2.693311e+000 2.663957e+000 -5.009463e-001 5.759271e-001 2.334074e+000 2.355333e+000 -2.337908e+000 1.053358e+000 -2.049622e-001 4.628567e-001 -6.374260e-001 -1.971840e-001 -4.621820e-001 -7.019813e-001 -1.237850e-001 3.802936e-001 -9.058564e-004 -1.019801e-001 -3.110849e-001 1.369129e+000
<VARIANCE> 25
 4.580050e+001 6.607668e+001 6.048919e+001 1.117714e+002 1.727052e+002 7.025591e+001 7.673460e+001 5.955654e+001 1.042479e+002 6.903741e+001 4.520431e+001 4.438633e+001 4.121901e+000 5.064198e+000 4.747070e+000 1.173712e+001 6.429922e+000 4.917226e+000 5.970982e+000 4.185496e+000 6.407632e+000 3.666639e+000 3.713938e+000 3.821305e+000 8.364786e+000
<GCONST> 1.187620e+002
<TRANSP> 5
 0.000000e+000 1.000000e+000 0.000000e+000 0.000000e+000 0.000000e+000
 0.000000e+000 8.929687e-001 1.070314e-001 0.000000e+000 0.000000e+000
 0.000000e+000 0.000000e+000 5.442500e-001 4.557500e-001 0.000000e+000
 0.000000e+000 0.000000e+000 0.000000e+000 7.588156e-001 2.411844e-001
 0.000000e+000 0.000000e+000 0.000000e+000 0.000000e+000 0.000000e+000
<ENDHMM>
~h "l"
<BEGINHMM>
<NUMSTATES> 5
<STATE> 2
<MEAN> 25
 7.828090e+000 -2.832834e+000 1.892627e+000 -7.045333e-001 -1.865812e+000 -3.422526e+000 -5.198200e+000 5.085409e-001 2.412393e-001 -5.372275e+000 -5.460617e+000 -7.634946e-001 1.932596e-001 -1.248480e-001 -1.871161e-001 -5.736240e-002 -3.298715e-001 -4.870958e-001 -8.533601e-003 1.583658e-001 2.848572e-001 7.225303e-002 -1.107221e-001 3.739537e-001 -2.396438e-002
<VARIANCE> 25
 1.104740e+001 3.379814e+001 3.560513e+001 8.162349e+001 3.584623e+001 4.990373e+001 9.208650e+001 8.117431e+001 7.704398e+001 1.410935e+002 4.896407e+001 3.885658e+001 5.371373e-001 1.675130e+000 2.314860e+000 3.466064e+000 2.597263e+000 3.193347e+000 4.671847e+000 4.632633e+000 3.008022e+000 4.722319e+000 3.895051e+000 2.597051e+000 9.360766e-001
<GCONST> 1.051661e+002
<STATE> 3
<MEAN> 25
 7.461155e+000 -3.704213e+000 -3.570169e+000 -3.689471e+000 -7.883504e+000 -8.407770e+000 -2.264467e+000 1.834490e+000 -3.379411e+000 -5.553010e+000 -9.638600e-001 3.092125e+000 -1.444877e-002 8.034361e-002 1.191675e-001 1.129673e-002 -2.351897e-002 4.128191e-002 -1.874861e-002 1.376132e-002 7.529085e-002 1.294329e-001 -5.040499e-002 -1.355677e-001 -1.042545e-001
<VARIANCE> 25
 5.754881e+000 2.390583e+001 4.126475e+001 2.963790e+001 3.158611e+001 4.102936e+001 6.299102e+001 6.535110e+001 7.201025e+001 5.065928e+001 4.723035e+001 2.542455e+001 1.483365e-001 5.644727e-001 7.921567e-001 8.347647e-001 1.058920e+000 1.385554e+000 1.391547e+000 1.256171e+000 1.340038e+000 1.464368e+000 1.546228e+000 1.110196e+000 1.886355e-001
<GCONST> 8.635725e+001
<STATE> 4
<MEAN> 25
 1.121705e+000 3.144786e-001 1.617938e+000 -2.086416e+000 -1.497680e+000 -8.605345e-001 -2.860177e+000 7.538117e-001 2.061802e+000 5.292158e-001 -1.455383e+000 -1.385419e+000 -2.190547e-001 1.361131e-001 4.039084e-002 1.093083e-001 2.801152e-001 2.846645e-001 1.320680e-001 -7.164670e-002 4.725286e-002 7.379457e-002 1.604350e-004 -3.569265e-002 -3.108295e-001
<VARIANCE> 25
 2.899893e+001 1.614971e+001 3.034810e+001 5.716739e+001 2.406451e+001 4.206951e+001 9.710512e+001 3.950663e+001 3.013931e+001 3.670510e+001 2.394620e+001 2.022426e+001 1.959300e-001 4.593624e-001 6.232986e-001 8.305146e-001 9.134679e-001 1.317089e+000 1.357403e+000 1.607687e+000 1.372335e+000 1.432403e+000 1.280414e+000 1.005637e+000 2.298222e-001
<GCONST> 8.527573e+001
<TRANSP> 5
 0.000000e+000 1.000000e+000 0.000000e+000 0.000000e+000 0.000000e+000
 0.000000e+000 7.791568e-001 2.208432e-001 0.000000e+000 0.000000e+000
 0.000000e+000 0.000000e+000 8.658701e-001 1.341300e-001 0.000000e+000
 0.000000e+000 0.000000e+000 0.000000e+000 8.313307e-001 1.686693e-001
 0.000000e+000 0.000000e+000 0.000000e+000 0.000000e+000 0.000000e+000
<ENDHMM>
~h "m"
<BEGINHMM>
<NUMSTATES> 5
<STATE> 2
<MEAN> 25
 7.435312e+000 -1.724579e+000 -3.458960e-001 -2.237821e+000 -1.235565e+000 -1.220616e+000 -4.134745e-001 -4.120295e+000 -1.668882e+000 7.235457e-001 -4.488697e-001 -2.957022e+000 -3.057011e-001 1.464101e+000 1.081933e+000 1.675569e+000 5.437240e-002 7.118052e-001 5.705390e-002 -1.222564e+000 -8.261348e-001 4.253901e-001 -6.674178e-001 -2.134834e-001 -1.374812e+000
<VARIANCE> 25
 1.305786e+001 3.705647e+001 4.396087e+001 5.796490e+001 3.977501e+001 3.708482e+001 4.455246e+001 1.407340e+002 7.025092e+001 4.705548e+001 3.825864e+001 2.406583e+001 3.967523e-001 1.283196e+000 2.105663e+000 3.213735e+000 4.056948e+000 3.082214e+000 2.890508e+000 4.274305e+000 3.949278e+000 2.538371e+000 2.904279e+000 2.461220e+000 8.141319e-001
<GCONST> 1.012838e+002
<STATE> 3
<MEAN> 25
 3.095718e+000 3.630057e+000 1.448141e+000 2.590894e+000 1.747981e+000 3.244721e+000 4.274212e-001 -3.729640e+000 -2.224488e+000 -1.352494e+000 -3.097986e+000 -2.523271e+000 -2.847930e-001 2.620508e-001 1.576173e-001 3.070846e-001 2.891017e-001 3.656317e-001 2.655886e-001 1.005007e-001 1.264713e-001 1.764774e-002 -1.852557e-003 -9.961480e-002 -3.954186e-001
<VARIANCE> 25
 1.916435e+001 1.221549e+001 1.962905e+001 2.243498e+001 2.757866e+001 2.618407e+001 3.442465e+001 7.674989e+001 6.060133e+001 4.145165e+001 2.787620e+001 2.299732e+001 1.834047e-001 3.970240e-001 5.565605e-001 8.349190e-001 9.398497e-001 1.088477e+000 1.133886e+000 1.487718e+000 1.267040e+000 1.291361e+000 1.170574e+000 1.116656e+000 1.639554e-001
<GCONST> 8.235530e+001
<STATE> 4
<MEAN> 25
 2.453089e+000 4.213743e+000 2.584918e+000 3.906489e+000 1.986573e+000 2.230549e+000 1.399392e+000 5.336351e-001 3.001804e+000 1.577298e+000 -2.421382e+000 -5.165607e+000 -8.283456e-002 -3.449010e-001 -3.472266e-001 -3.494595e-001 -1.588328e-001 -3.944687e-001 -1.883835e-001 4.931555e-001 2.060537e-001 -5.332224e-002 1.059834e-001 2.722246e-002 2.773353e-001
<VARIANCE> 25
 2.496737e+001 2.742270e+001 3.462870e+001 7.093468e+001 8.814022e+001 4.245887e+001 9.644795e+001 1.113404e+002 9.350336e+001 4.794036e+001 4.058784e+001 5.862907e+001 1.111206e+000 1.882953e+000 2.590166e+000 4.808192e+000 4.534063e+000 2.612854e+000 4.393805e+000 5.350132e+000 3.617905e+000 3.212915e+000 2.771456e+000 3.240604e+000 2.116869e+000
<GCONST> 1.082619e+002
<TRANSP> 5
 0.000000e+000 1.000000e+000 0.000000e+000 0.000000e+000 0.000000e+000
 0.000000e+000 7.168478e-001 2.831521e-001 0.000000e+000 0.000000e+000
 0.000000e+000 0.000000e+000 8.484104e-001 1.515896e-001 0.000000e+000
 0.000000e+000 0.000000e+000 0.000000e+000 5.847219e-001 4.152781e-001
 0.000000e+000 0.000000e+000 0.000000e+000 0.000000e+000 0.000000e+000
<ENDHMM>
~h "n"
<BEGINHMM>
<NUMSTATES> 5
<STATE> 2
<MEAN> 25
 7.328314e+000 -1.856854e+000 -1.456052e+000 -1.571288e+000 -1.994185e+000 -1.101361e+000 -1.975589e+000 -1.871882e+000 7.147085e-001 -2.552879e+000 -1.839414e+000 1.341814e-001 -2.101365e-001 1.364525e+000 7.828434e-001 1.393262e+000 1.841306e-001 4.910269e-001 2.882415e-001 -1.095972e+000 -9.270868e-002 4.085146e-001 -8.413130e-001 -7.586638e-001 -1.249731e+000
<VARIANCE> 25
 1.461937e+001 3.816649e+001 4.598632e+001 4.141693e+001 5.229856e+001 3.699699e+001 5.018582e+001 5.775483e+001 4.119840e+001 3.013968e+001 4.705130e+001 4.148949e+001 5.964416e-001 2.325655e+000 2.452199e+000 2.412107e+000 3.832973e+000 2.815557e+000 3.516286e+000 4.178476e+000 2.562449e+000 2.682155e+000 2.622094e+000 3.198597e+000 1.207718e+000
<GCONST> 1.014778e+002
<STATE> 3
<MEAN> 25
 4.588555e+000 4.188807e+000 6.555209e-001 5.093396e+000 3.606376e+000 4.551939e+000 3.312728e+000 -1.792977e+000 -9.908780e-001 3.220606e-001 -3.773195e+000 -3.610436e+000 -5.673057e-001 4.490627e-001 2.893029e-001 2.927375e-001 4.222641e-001 4.650708e-001 2.370339e-001 8.322180e-002 -1.085583e-001 9.990650e-002 -1.574083e-001 3.710429e-002 -7.100436e-001
<VARIANCE> 25
 1.272592e+001 2.311312e+001 1.826950e+001 3.116002e+001 9.280176e+001 6.445403e+001 6.473196e+001 4.046115e+001 2.590115e+001 3.786807e+001 3.391763e+001 3.152264e+001 2.651628e-001 9.079786e-001 1.087438e+000 1.373557e+000 2.050803e+000 1.677595e+000 2.027448e+000 1.990136e+000 1.857239e+000 1.720286e+000 1.939057e+000 2.174989e+000 4.441087e-001
<GCONST> 9.180237e+001
<STATE> 4
<MEAN> 25
 -1.786209e+000 2.693430e+000 7.812696e-001 2.138820e+000 1.394987e+000 2.771533e+000 1.652287e+000 -8.805638e-001 9.750326e-001 1.077575e+000 -1.235772e+000 -1.176592e+000 -2.135662e-001 -3.946040e-002 -3.323252e-002 6.535508e-002 5.248284e-002 2.204230e-002 7.027592e-002 5.510375e-003 6.289796e-002 1.566353e-001 1.326657e-001 9.026446e-002 -1.657057e-001
<VARIANCE> 25
 1.607042e+001 1.070367e+001 1.459685e+001 1.959584e+001 1.883532e+001 2.006066e+001 2.854951e+001 2.961101e+001 2.436135e+001 2.270137e+001 2.398604e+001 1.919858e+001 2.239404e-001 4.000498e-001 5.099002e-001 5.464509e-001 6.855612e-001 9.863154e-001 1.203195e+000 1.311568e+000 1.344201e+000 1.158107e+000 1.067302e+000 9.730087e-001 1.493433e-001
<GCONST> 7.682600e+001
<TRANSP> 5
 0.000000e+000 1.000000e+000 0.000000e+000 0.000000e+000 0.000000e+000
 0.000000e+000 6.789950e-001 3.210050e-001 0.000000e+000 0.000000e+000
 0.000000e+000 0.000000e+000 7.836953e-001 2.163046e-001 0.000000e+000
 0.000000e+000 0.000000e+000 0.000000e+000 8.928972e-001 1.071028e-001
 0.000000e+000 0.000000e+000 0.000000e+000 0.000000e+000 0.000000e+000
<ENDHMM>
~h "o"
<BEGINHMM>
<NUMSTATES> 5
<STATE> 2
<MEAN> 25
 1.538133e+000 -2.973804e-001 2.636815e+000 -3.826210e+000 -3.918642e+000 -1.942389e+000 -2.757004e+000 2.438632e-001 1.269911e+000 -1.490820e+000 7.108544e-001 -7.854314e-001 1.861770e+000 -3.747872e-002 4.432577e-001 -7.676491e-001 -1.400178e+000 -1.122733e+000 -1.483805e+000 -1.815365e-001 5.375539e-001 -7.596624e-001 -2.663456e-001 -9.733651e-002 1.996776e+000
<VARIANCE> 25
 3.712431e+001 3.762080e+001 3.481441e+001 7.922667e+001 9.250835e+001 6.062272e+001 5.937962e+001 5.146930e+001 8.425995e+001 3.469990e+001 3.323933e+001 2.646513e+001 3.174584e+000 4.993391e+000 3.684532e+000 8.089324e+000 6.411391e+000 8.631491e+000 5.056914e+000 5.424849e+000 1.053334e+001 3.643236e+000 3.206293e+000 2.228515e+000 4.317203e+000
<GCONST> 1.130879e+002
<STATE> 3
<MEAN> 25
 7.493545e+000 2.388492e+000 1.994340e+000 -4.381677e+000 -1.191962e+001 -9.029164e+000 -5.221689e+000 4.144340e+000 4.519390e+000 -3.477364e+000 -1.595325e+000 -3.602374e-001 -5.539227e-002 4.498762e-002 -4.665780e-001 -6.671631e-002 3.827701e-001 3.270997e-001 3.015124e-001 4.010242e-002 -2.093387e-001 2.427153e-001 1.843470e-001 1.512981e-001 -2.428272e-001
<VARIANCE> 25
 6.431340e+000 2.902730e+001 2.627503e+001 3.501783e+001 4.394375e+001 5.768369e+001 3.786856e+001 3.914831e+001 1.555658e+002 5.093792e+001 3.132665e+001 1.909398e+001 3.460690e-001 1.366357e+000 9.622362e-001 1.034173e+000 2.190035e+000 2.048062e+000 1.569158e+000 2.515328e+000 3.128956e+000 1.642032e+000 1.420897e+000 1.202463e+000 8.372063e-001
<GCONST> 9.262621e+001
<STATE> 4
<MEAN> 25
 7.304287e+000 7.359495e-001 -2.787197e+000 -1.004366e+001 3.249856e-001 1.830865e+000 -9.790884e+000 -6.360516e+000 -2.032206e+000 1.807544e+000 4.048320e+000 -1.851696e+000 -2.654066e-001 -4.230586e-002 -2.114831e-002 4.829306e-001 2.919054e-001 -2.641119e-002 2.422556e-001 -2.832314e-002 -5.266461e-003 2.704638e-001 9.955482e-002 2.910356e-003 -3.759365e-001
<VARIANCE> 25
 1.231813e+001 2.936661e+001 3.471067e+001 1.201217e+002 4.879388e+001 6.470445e+001 6.425586e+001 4.578539e+001 3.681593e+001 5.032942e+001 3.556791e+001 2.547288e+001 4.166174e-001 9.506062e-001 1.154508e+000 2.554383e+000 1.759520e+000 2.070296e+000 2.415822e+000 2.045192e+000 1.909770e+000 1.792365e+000 1.913595e+000 1.303589e+000 7.288001e-001
<GCONST> 9.542503e+001
<TRANSP> 5
 0.000000e+000 1.000000e+000 0.000000e+000 0.000000e+000 0.000000e+000
 0.000000e+000 7.539400e-001 2.460600e-001 0.000000e+000 0.000000e+000
 0.000000e+000 0.000000e+000 8.394721e-001 1.605279e-001 0.000000e+000
 0.000000e+000 0.000000e+000 0.000000e+000 8.531001e-001 1.468999e-001
 0.000000e+000 0.000000e+000 0.000000e+000 0.000000e+000 0.000000e+000
<ENDHMM>
~h "p"
<BEGINHMM>
<NUMSTATES> 5
<STATE> 2
<MEAN> 25
 1.587321e-001 3.184602e+000 -1.720992e+000 -1.271015e+000 5.116833e-001 9.306426e-001 9.700280e-001 1.489581e+000 1.997343e-001 2.320699e+000 1.785932e+000 -1.070007e-001 -9.305592e-001 -1.326229e-002 -1.905954e-001 2.653766e-001 -7.596625e-002 2.500345e-001 2.920559e-001 -4.909810e-003 8.885422e-003 3.605959e-001 3.083106e-001 1.070784e-001 -1.102400e+000
<VARIANCE> 25
 2.108041e+001 4.224088e+001 4.415894e+001 4.009184e+001 3.926692e+001 4.455412e+001 4.082856e+001 3.700613e+001 3.900844e+001 4.652848e+001 4.585522e+001 2.925945e+001 8.116894e-001 2.413544e+000 1.972534e+000 2.185841e+000 1.578070e+000 3.117905e+000 2.523688e+000 2.553983e+000 3.465724e+000 3.859688e+000 2.595250e+000 1.912581e+000 1.511006e+000
<GCONST> 9.990965e+001
<STATE> 3
<MEAN> 25
 -2.969565e+000 3.181950e+000 -1.826100e+000 -1.130710e+000 -1.444477e-001 7.652406e-001 1.274910e-001 -1.692324e+000 -1.177092e+000 3.297289e+000 1.161514e+000 1.247230e+000 -4.419520e-001 -1.505334e-001 -1.441909e-001 1.884571e-001 1.632094e-001 1.401653e-002 -2.853235e-002 -2.409923e-001 -9.659631e-002 1.147948e-001 -4.847445e-002 4.338608e-002 -3.743595e-001
<VARIANCE> 25
 1.762164e+001 8.446188e+000 1.375251e+001 2.788902e+001 2.286686e+001 3.303051e+001 3.636706e+001 3.033326e+001 3.200708e+001 2.389065e+001 1.968852e+001 1.666992e+001 3.431744e-001 4.735826e-001 6.771479e-001 9.196647e-001 1.045537e+000 2.205031e+000 1.796131e+000 1.746874e+000 1.744528e+000 1.592981e+000 1.383643e+000 1.556441e+000 2.103143e-001
<GCONST> 8.288358e+001
<STATE> 4
<MEAN> 25
 -3.810932e+000 7.122751e-001 7.806840e-002 2.259933e+000 1.364415e+000 3.457669e+000 3.779682e+000 1.412713e+000 3.828095e+000 2.985671e+000 1.346581e+000 3.978343e-001 -6.190262e-002 -9.478049e-003 1.268505e-002 1.190604e-002 4.111923e-002 3.867301e-002 -1.347044e-002 -2.191449e-003 9.478929e-003 -3.995095e-003 1.830470e-002 2.352165e-002 -4.142973e-002
<VARIANCE> 25
 3.107925e+000 4.905678e+000 7.291355e+000 1.151595e+001 8.121932e+000 1.181613e+001 1.252923e+001 1.205961e+001 1.227424e+001 1.320845e+001 9.319363e+000 8.763792e+000 1.064464e-001 2.882370e-001 3.915733e-001 3.864105e-001 5.910628e-001 6.729463e-001 8.074276e-001 9.520537e-001 9.893622e-001 1.031189e+000 8.835481e-001 7.789835e-001 7.070595e-002
<GCONST> 6.261448e+001
<TRANSP> 5
 0.000000e+000 1.000000e+000 0.000000e+000 0.000000e+000 0.000000e+000
 0.000000e+000 6.340739e-001 3.659261e-001 0.000000e+000 0.000000e+000
 0.000000e+000 0.000000e+000 7.768914e-001 2.231086e-001 0.000000e+000
 0.000000e+000 0.000000e+000 0.000000e+000 9.288743e-001 7.112575e-002
 0.000000e+000 0.000000e+000 0.000000e+000 0.000000e+000 0.000000e+000
<ENDHMM>
~h "r"
<BEGINHMM>
<NUMSTATES> 5
<STATE> 2
<MEAN> 25
 6.252302e+000 -6.938179e+000 1.308639e-001 -4.588009e+000 -4.720049e+000 -1.103829e+000 -4.873554e+000 2.059044e-001 2.045121e-001 -2.560914e-001 2.737389e-001 -1.533679e+000 -1.080979e-001 1.000476e-001 1.368702e-001 4.104469e-001 -4.371215e-002 2.000849e-001 1.627484e-001 -2.048314e-001 -1.525634e-001 -3.207048e-001 -1.160363e-001 2.047989e-001 -3.788320e-001
<VARIANCE> 25
 1.916530e+001 5.204470e+001 5.797735e+001 8.845167e+001 5.340586e+001 6.996738e+001 5.180531e+001 7.453086e+001 6.566149e+001 4.433482e+001 5.424069e+001 4.521216e+001 1.189661e+000 3.071401e+000 2.367851e+000 4.795686e+000 3.521176e+000 4.051756e+000 3.439859e+000 4.823971e+000 3.492877e+000 2.588964e+000 2.744465e+000 2.424194e+000 2.292713e+000
<GCONST> 1.077797e+002
<STATE> 3
<MEAN> 25
 3.994189e+000 2.895368e-001 -2.328149e+000 -2.827900e+000 -1.106575e+000 2.229662e+000 -6.054093e-001 -1.884066e+000 -2.068835e+000 -2.341169e+000 -1.153005e+000 1.465475e+000 -6.867679e-001 7.290234e-001 -1.118842e-001 7.010479e-001 4.853504e-001 1.649382e-001 4.642211e-001 9.578686e-002 1.742756e-001 3.317840e-001 -1.162935e-001 8.115052e-002 -1.320665e+000
<VARIANCE> 25
 2.083363e+001 2.353074e+001 4.284512e+001 4.499340e+001 5.716028e+001 6.101969e+001 4.636095e+001 3.460794e+001 4.691102e+001 3.333353e+001 3.640228e+001 3.733581e+001 5.593768e-001 1.204825e+000 1.892886e+000 1.618941e+000 2.052372e+000 2.362176e+000 2.792562e+000 2.117735e+000 2.787783e+000 2.341430e+000 2.290259e+000 1.833931e+000 9.445302e-001
<GCONST> 9.714814e+001
<STATE> 4
<MEAN> 25
 -2.814880e+000 1.723622e+000 -2.391656e+000 2.875544e+000 1.592755e+000 2.556252e+000 3.868326e+000 1.744692e+000 3.382884e+000 2.623900e+000 1.784416e+000 1.309785e+000 -1.823256e-001 3.174753e-002 4.206672e-002 7.411337e-002 4.827307e-002 6.202624e-002 9.681101e-002 7.597649e-002 1.035232e-001 9.702223e-002 5.010347e-002 1.067663e-002 -1.836096e-001
<VARIANCE> 25
 1.103878e+001 7.620115e+000 1.450704e+001 3.332003e+001 1.671625e+001 1.745485e+001 1.957545e+001 1.758384e+001 2.380342e+001 2.073303e+001 1.590497e+001 1.182046e+001 2.030553e-001 3.298451e-001 5.143036e-001 6.614500e-001 8.961116e-001 9.656445e-001 1.272364e+000 1.207597e+000 1.324024e+000 1.347516e+000 1.164890e+000 9.790556e-001 1.640082e-001
<GCONST> 7.492095e+001
<TRANSP> 5
 0.000000e+000 1.000000e+000 0.000000e+000 0.000000e+000 0.000000e+000
 0.000000e+000 7.864318e-001 2.135682e-001 0.000000e+000 0.000000e+000
 0.000000e+000 0.000000e+000 8.040637e-001 1.959363e-001 0.000000e+000
 0.000000e+000 0.000000e+000 0.000000e+000 9.121519e-001 8.784815e-002
 0.000000e+000 0.000000e+000 0.000000e+000 0.000000e+000 0.000000e+000
<ENDHMM>
~h "s"
<BEGINHMM>
<NUMSTATES> 5
<STATE> 2
<MEAN> 25
 -3.419880e+000 1.629941e-001 8.908652e-001 -3.899383e-001 2.056557e+000 -5.582111e-001 3.458412e+000 -6.340773e-001 1.224425e+000 1.297881e+000 3.491458e-001 1.207613e-001 -1.996324e+000 2.401993e-001 1.409089e+000 -4.010107e-002 -4.291908e-001 3.475048e-001 1.331358e+000 -3.794227e-001 1.899634e-001 4.300695e-001 7.227609e-001 -1.128725e-001 5.923245e-001
<VARIANCE> 25
 6.329851e+001 1.051236e+002 7.740526e+001 8.890031e+001 6.706020e+001 5.414109e+001 8.154659e+001 4.720874e+001 7.507238e+001 6.299228e+001 4.552788e+001 2.693663e+001 5.023550e+000 1.075585e+001 1.084019e+001 6.775089e+000 6.344821e+000 4.339131e+000 6.939527e+000 4.198101e+000 3.918315e+000 4.872787e+000 4.526975e+000 2.292906e+000 4.520254e+000
<GCONST> 1.173838e+002
<STATE> 3
<MEAN> 25
 -1.114193e+001 -1.226453e+001 2.042131e+001 -5.750926e+000 -1.015779e+001 3.573488e+000 6.732320e+000 -3.492775e+000 -6.660060e+000 2.832078e-001 6.094993e+000 -7.291490e-002 -5.000482e-001 1.310594e-002 -2.262000e-001 -1.205910e-001 4.602856e-001 1.443471e-001 -3.155628e-002 3.546366e-002 4.203336e-001 2.383106e-002 3.179261e-002 3.018208e-002 8.024786e-002
<VARIANCE> 25
 6.824325e+001 1.320382e+002 1.565418e+002 4.725789e+001 8.688916e+001 1.008108e+002 4.090402e+001 4.040215e+001 5.744071e+001 6.275143e+001 2.992885e+001 3.193778e+001 6.326014e+000 4.127960e+000 7.800026e+000 2.847654e+000 2.544241e+000 3.171305e+000 2.840815e+000 2.617664e+000 2.552738e+000 2.508209e+000 2.246756e+000 1.657911e+000 1.593062e+000
<GCONST> 1.095974e+002
<STATE> 4
<MEAN> 25
 -1.479064e+001 2.768901e+000 3.364558e+000 -2.624512e+000 4.853728e+000 2.482468e-001 6.996776e+000 6.673353e-001 1.660990e+000 3.783140e+000 2.822240e+000 9.332547e-001 2.990947e-002 -2.463021e-002 -6.171502e-002 4.085235e-002 8.169777e-002 5.548485e-002 -1.044487e-001 5.265626e-002 1.156822e-001 5.077948e-002 -8.943540e-002 1.925989e-002 -2.071511e-001
<VARIANCE> 25
 4.271629e+001 5.881635e+001 7.319869e+001 6.244670e+001 3.113478e+001 3.681714e+001 2.817323e+001 3.813254e+001 3.173816e+001 3.215343e+001 1.709078e+001 1.564153e+001 1.959753e+000 8.843560e-001 1.221197e+000 1.298995e+000 1.228351e+000 1.421927e+000 1.723990e+000 1.814455e+000 1.756854e+000 1.536156e+000 1.379591e+000 1.210158e+000 4.250623e-001
<GCONST> 9.210294e+001
<TRANSP> 5
 0.000000e+000 1.000000e+000 0.000000e+000 0.000000e+000 0.000000e+000
 0.000000e+000 7.037823e-001 2.962177e-001 0.000000e+000 0.000000e+000
 0.000000e+000 0.000000e+000 7.481756e-001 2.518245e-001 0.000000e+000
 0.000000e+000 0.000000e+000 0.000000e+000 8.848707e-001 1.151293e-001
 0.000000e+000 0.000000e+000 0.000000e+000 0.000000e+000 0.000000e+000
<ENDHMM>
~h "t"
<BEGINHMM>
<NUMSTATES> 5
<STATE> 2
<MEAN> 25
 -1.545054e+000 2.101645e+000 -1.728644e+000 -1.493008e-001 1.804421e+000 -2.131036e+000 1.766197e+000 -8.523449e-001 4.496612e+000 8.905402e-001 -5.697312e-001 7.708861e-001 2.878468e-002 -3.751516e-001 2.134244e-001 -1.077193e+000 4.029391e-001 -2.823063e-001 -5.648339e-001 -5.956922e-001 2.430252e-001 1.719516e-001 3.532184e-001 -3.216063e-001 1.611528e+000
<VARIANCE> 25
 3.147606e+001 2.505684e+001 1.984674e+001 6.162259e+001 3.636153e+001 4.141749e+001 7.044883e+001 4.616554e+001 5.432336e+001 4.057378e+001 3.963974e+001 3.498443e+001 4.580407e+000 4.129106e+000 2.782366e+000 1.006044e+001 4.458266e+000 4.517277e+000 1.008841e+001 4.936995e+000 6.044587e+000 4.330297e+000 4.810732e+000 4.589571e+000 1.698195e+001
<GCONST> 1.124377e+002
<STATE> 3
<MEAN> 25
 1.024126e+000 5.563681e-001 -4.387514e-001 -3.734530e+000 4.011300e-001 -9.227235e-001 -2.394975e+000 3.024701e-001 1.218482e+000 2.099590e+000 -1.281447e+000 -2.492945e+000 4.347940e-002 1.236097e-001 -4.082114e-001 -1.710162e-001 -2.944986e-001 5.610645e-001 -2.904526e-001 -7.078922e-002 -9.589835e-001 3.970878e-001 2.309856e-001 -1.468657e-001 -5.684922e-001
<VARIANCE> 25
 2.071070e+001 3.573257e+001 2.629589e+001 6.654553e+001 3.247332e+001 4.101299e+001 5.558419e+001 6.010462e+001 4.453939e+001 4.357617e+001 4.427909e+001 2.978405e+001 3.745877e+000 2.511351e+000 2.252037e+000 5.120431e+000 2.555107e+000 4.376018e+000 6.810248e+000 4.787445e+000 8.140113e+000 5.398053e+000 3.648954e+000 2.467811e+000 4.574088e+000
<GCONST> 1.081708e+002
<STATE> 4
<MEAN> 25
 -3.438659e+000 2.611349e+000 -2.174781e+000 1.978378e+000 1.146124e+000 2.144631e+000 2.344348e+000 2.180596e-001 1.130075e+000 2.383218e+000 6.342410e-001 1.439614e+000 -1.907991e-001 -6.046234e-002 -9.551520e-003 5.452767e-002 -2.507538e-002 3.929920e-002 1.311382e-001 -5.973929e-002 -1.779175e-001 4.170341e-002 1.175662e-001 1.389201e-001 -1.503015e-001
<VARIANCE> 25
 1.462261e+001 1.352796e+001 1.566202e+001 5.313614e+001 1.780184e+001 2.604483e+001 3.607627e+001 2.692360e+001 3.564379e+001 2.390813e+001 1.946404e+001 1.672111e+001 5.739011e-001 7.875555e-001 9.144632e-001 1.269210e+000 1.143588e+000 1.947019e+000 2.077450e+000 2.014390e+000 2.617800e+000 2.094901e+000 1.566789e+000 1.512531e+000 7.638850e-001
<GCONST> 8.739124e+001
<TRANSP> 5
 0.000000e+000 1.000000e+000 0.000000e+000 0.000000e+000 0.000000e+000
 0.000000e+000 4.877155e-001 5.122845e-001 0.000000e+000 0.000000e+000
 0.000000e+000 0.000000e+000 2.997960e-001 7.002040e-001 0.000000e+000
 0.000000e+000 0.000000e+000 0.000000e+000 8.445219e-001 1.554780e-001
 0.000000e+000 0.000000e+000 0.000000e+000 0.000000e+000 0.000000e+000
<ENDHMM>
~h "u"
<BEGINHMM>
<NUMSTATES> 5
<STATE> 2
<MEAN> 25
 2.510209e+000 1.798197e+000 4.481289e+000 -3.955744e-001 -1.409175e+000 6.679859e-002 -4.060620e+000 -1.751817e+000 -2.197452e+000 -2.231487e+000 -9.358380e-001 -1.520531e+000 1.178753e+000 7.002851e-001 6.572211e-001 -5.844783e-001 -8.292476e-001 -2.834586e-001 -1.314975e+000 -2.314588e-001 -6.017961e-001 -1.097147e+000 -1.778415e-001 -2.437224e-001 1.115948e+000
<VARIANCE> 25
 3.281286e+001 5.470721e+001 3.929181e+001 7.483018e+001 5.374848e+001 5.520198e+001 7.298748e+001 5.403313e+001 5.901375e+001 8.635506e+001 4.870563e+001 3.042020e+001 2.500330e+000 6.554077e+000 4.049825e+000 7.083937e+000 3.650487e+000 7.990739e+000 6.615613e+000 5.389211e+000 6.208595e+000 5.768207e+000 4.255993e+000 3.446288e+000 3.305558e+000
<GCONST> 1.140978e+002
<STATE> 3
<MEAN> 25
 7.658246e+000 6.983383e+000 4.079010e+000 -6.500421e+000 -6.647182e+000 1.007427e+000 -9.712914e+000 -3.931429e-001 -5.682381e+000 -3.575402e+000 1.929883e+000 -5.591506e-001 9.399045e-002 3.382511e-001 -1.435618e-001 -1.584984e-001 -1.235988e-001 2.050382e-001 1.278047e-001 5.193333e-002 -1.550670e-001 -9.210164e-002 7.169317e-002 2.119560e-001 -2.955554e-001
<VARIANCE> 25
 7.782331e+000 3.020380e+001 5.138370e+001 8.533311e+001 3.486493e+001 8.819920e+001 4.357746e+001 6.684498e+001 1.334208e+002 9.003879e+001 6.079982e+001 3.177194e+001 2.965986e-001 1.109738e+000 1.144956e+000 1.851287e+000 2.187850e+000 2.789696e+000 2.185663e+000 2.256529e+000 2.380463e+000 2.646826e+000 2.156577e+000 1.569414e+000 4.127896e-001
<GCONST> 9.798021e+001
<STATE> 4
<MEAN> 25
 5.932064e+000 6.772413e+000 1.987807e+000 -5.354230e+000 -4.743391e+000 -4.533774e-001 -6.798315e+000 -4.754855e+000 -5.989601e+000 -5.647177e+000 3.395563e-001 -4.553644e-001 -2.840847e-001 -2.000200e-001 -1.724476e-001 5.668028e-001 3.144135e-001 1.101884e-003 3.242679e-001 -1.261089e-001 1.709568e-001 2.672242e-001 -1.449508e-001 -9.175833e-002 -3.281657e-001
<VARIANCE> 25
 1.292236e+001 1.684567e+001 2.552138e+001 7.362902e+001 3.082236e+001 4.441576e+001 4.549215e+001 3.348571e+001 4.352794e+001 3.862909e+001 4.285550e+001 2.157816e+001 2.871693e-001 5.606909e-001 5.915016e-001 1.601201e+000 1.371337e+000 1.548849e+000 1.525450e+000 1.553089e+000 1.574272e+000 1.782875e+000 1.534134e+000 1.216684e+000 4.386802e-001
<GCONST> 8.824331e+001
<TRANSP> 5
 0.000000e+000 1.000000e+000 0.000000e+000 0.000000e+000 0.000000e+000
 0.000000e+000 7.501419e-001 2.498581e-001 0.000000e+000 0.000000e+000
 0.000000e+000 0.000000e+000 8.257660e-001 1.742340e-001 0.000000e+000
 0.000000e+000 0.000000e+000 0.000000e+000 8.503537e-001 1.496463e-001
 0.000000e+000 0.000000e+000 0.000000e+000 0.000000e+000 0.000000e+000
<ENDHMM>
~h "w"
<BEGINHMM>
<NUMSTATES> 5
<STATE> 2
<MEAN> 25
 7.146032e+000 2.825034e+000 -7.376445e-001 -5.562791e+000 -9.860363e+000 -6.948304e+000 -1.770016e+000 4.721706e+000 6.216461e+000 -5.305638e+000 -4.175115e+000 1.092679e+000 7.403687e-002 -1.845129e-002 -3.903534e-001 9.908265e-002 -7.728266e-002 -3.372921e-001 3.311297e-001 7.812722e-001 2.306113e-001 -5.161310e-002 -1.858607e-002 1.216384e-001 -8.296087e-002
<VARIANCE> 25
 5.577368e+000 7.352815e+001 3.021852e+001 2.588677e+001 2.448448e+001 6.231572e+001 3.066834e+001 3.111076e+001 8.530157e+001 1.591358e+001 1.737236e+001 1.928423e+001 3.108667e-001 4.018588e+000 2.851066e+000 9.568880e-001 2.514713e+000 3.066731e+000 2.385476e+000 3.665778e+000 3.652698e+000 1.906843e+000 1.414343e+000 1.735051e+000 8.659443e-001
<GCONST> 9.397613e+001
<STATE> 3
<MEAN> 25
 3.990310e+000 -1.093972e+000 -3.930196e+000 -4.136851e+000 -5.187459e+000 1.323954e+000 7.338593e+000 9.613518e+000 4.227900e+000 -2.745249e+000 1.230316e+000 3.622005e+000 -7.667180e-001 2.283012e-001 -1.453807e-001 6.079363e-003 6.255261e-001 6.837692e-001 6.293748e-002 -6.556602e-001 -5.283511e-001 8.818098e-001 5.493546e-001 1.055600e-001 -7.896045e-001
<VARIANCE> 25
 2.951085e+001 4.718193e+001 5.669672e+001 2.074274e+001 4.070309e+001 8.271468e+001 2.708583e+001 3.593795e+001 4.815615e+001 3.447402e+001 5.519213e+001 2.174125e+001 5.550061e-001 1.457007e+000 1.211949e+000 1.198472e+000 1.523961e+000 4.017855e+000 2.229592e+000 3.092228e+000 3.209094e+000 1.946860e+000 2.610344e+000 1.560445e+000 5.201425e-001
<GCONST> 9.624947e+001
<STATE> 4
<MEAN> 25
 -6.284779e+000 1.182032e+000 -1.447980e+000 2.725724e+000 2.638165e+000 -5.815208e-001 4.229089e+000 -5.853509e-001 2.218038e-001 4.715462e+000 2.383074e+000 1.256629e+000 -9.821507e-002 -7.022994e-002 1.911985e-002 6.648645e-002 8.217921e-002 -3.355478e-002 -2.074555e-002 -3.363635e-002 -2.372912e-002 6.404240e-002 4.741585e-002 1.578083e-002 -3.921837e-002
<VARIANCE> 25
 1.177194e+001 1.889593e+001 2.279509e+001 2.699301e+001 1.526215e+001 3.210404e+001 3.397274e+001 1.464374e+001 3.446608e+001 1.302498e+001 2.084907e+001 9.343992e+000 8.076174e-002 3.533193e-001 4.196823e-001 4.357143e-001 6.081482e-001 1.216085e+000 1.158721e+000 1.208555e+000 1.412604e+000 1.033613e+000 1.020757e+000 9.506638e-001 7.192696e-002
<GCONST> 7.405225e+001
<TRANSP> 5
 0.000000e+000 1.000000e+000 0.000000e+000 0.000000e+000 0.000000e+000
 0.000000e+000 8.668531e-001 1.331469e-001 0.000000e+000 0.000000e+000
 0.000000e+000 0.000000e+000 8.308583e-001 1.691417e-001 0.000000e+000
 0.000000e+000 0.000000e+000 0.000000e+000 9.380217e-001 6.197830e-002
 0.000000e+000 0.000000e+000 0.000000e+000 0.000000e+000 0.000000e+000
<ENDHMM>
~h "y"
<BEGINHMM>
<NUMSTATES> 5
<STATE> 2
<MEAN> 25
 5.377530e+000 -6.335539e+000 -7.028845e-001 3.104985e+000 2.202932e+000 -7.982716e+000 -8.757995e+000 -4.891758e+000 -3.444449e+000 -8.647035e-001 4.519143e+000 9.933565e-001 -3.986604e-001 4.351563e-001 1.401299e+000 1.430942e+000 3.350373e-001 -7.171637e-001 -1.141615e+000 6.014820e-002 -9.415346e-003 -6.210954e-001 -4.010991e-001 -1.087454e+000 -3.071046e-001
<VARIANCE> 25
 6.165819e+000 2.095011e+001 3.226654e+001 7.338936e+001 3.975953e+001 2.904603e+001 4.840940e+001 4.552842e+001 2.412574e+001 3.736587e+001 3.824730e+001 3.280635e+001 2.068703e-001 5.817118e-001 8.725163e-001 1.488930e+000 2.142637e+000 1.652770e+000 2.361756e+000 1.731610e+000 2.021717e+000 2.824165e+000 3.252348e+000 1.944357e+000 2.624142e-001
<GCONST> 9.033222e+001
<STATE> 3
<MEAN> 25
 3.668356e+000 -4.059804e+000 5.317357e+000 8.567533e+000 2.522442e+000 -9.957766e+000 -1.122553e+001 -5.383090e+000 -4.184756e+000 -3.880571e+000 2.534823e-001 -2.973467e+000 2.517783e-001 -2.029167e-001 -7.445325e-001 -9.102265e-001 -5.042058e-001 3.411712e-002 3.750184e-001 -1.357380e-001 -2.544940e-001 6.518378e-001 7.592415e-001 7.474725e-001 2.445289e-001
<VARIANCE> 25
 6.469753e+000 3.223682e+001 4.251850e+001 7.321999e+001 4.802744e+001 3.191995e+001 4.098450e+001 5.133819e+001 1.934221e+001 3.228674e+001 5.619263e+001 2.884449e+001 4.603937e-001 8.485956e-001 3.079391e+000 2.644315e+000 2.012765e+000 2.868415e+000 4.534753e+000 2.547949e+000 1.542489e+000 3.021308e+000 3.126214e+000 2.007544e+000 6.196620e-001
<GCONST> 9.639973e+001
<STATE> 4
<MEAN> 25
 1.381522e+000 -1.876093e+000 1.468213e+001 -9.778604e+000 -1.113084e+001 -6.271626e+000 -4.942520e+000 4.397808e-001 -6.979625e+000 9.775376e-001 1.381520e+000 6.972858e-001 3.117105e-002 -5.279393e-002 -9.882188e-002 -1.098879e-001 -2.482901e-001 7.853889e-002 1.733113e-001 1.357336e-001 2.607447e-002 4.422979e-002 -9.035611e-002 -5.034669e-002 2.073569e-002
<VARIANCE> 25
 1.077036e+001 4.607163e+001 6.307846e+001 2.389376e+001 4.063758e+001 2.734448e+001 3.991379e+001 8.010875e+001 2.655619e+001 2.512276e+001 4.727476e+001 1.951425e+001 4.687639e-001 2.911039e+000 3.259442e+000 1.210433e+000 4.441465e+000 1.933539e+000 3.255876e+000 4.936935e+000 2.400801e+000 2.406634e+000 3.279521e+000 1.501616e+000 9.971192e-001
<GCONST> 9.784171e+001
<TRANSP> 5
 0.000000e+000 1.000000e+000 0.000000e+000 0.000000e+000 0.000000e+000
 0.000000e+000 8.008162e-001 1.991838e-001 0.000000e+000 0.000000e+000
 0.000000e+000 0.000000e+000 8.595959e-001 1.404041e-001 0.000000e+000
 0.000000e+000 0.000000e+000 0.000000e+000 9.069754e-001 9.302465e-002
 0.000000e+000 0.000000e+000 0.000000e+000 0.000000e+000 0.000000e+000
<ENDHMM>
~h "z"
<BEGINHMM>
<NUMSTATES> 5
<STATE> 2
<MEAN> 25
 -5.769044e+000 -1.499449e+000 1.962762e+000 5.523409e+000 -7.617218e-001 -9.384387e-001 8.656348e+000 1.315189e+000 -1.586806e+000 4.699120e+000 -7.074626e-001 1.337746e+000 -5.223305e-002 1.607857e-001 1.034444e-001 2.988006e-001 1.528734e-002 -6.859814e-002 6.610347e-002 -2.102586e-002 -1.043241e-001 -1.267229e-001 7.934255e-002 -1.336509e-001 -1.551771e-001
<VARIANCE> 25
 3.415219e+000 8.977788e+000 3.306717e+001 3.065453e+001 1.132501e+001 1.298159e+001 4.003868e+001 1.938689e+001 2.796240e+001 3.889647e+001 2.812323e+001 1.489842e+001 1.543691e-001 3.823450e-001 8.523641e-001 8.828030e-001 1.110792e+000 1.194442e+000 1.633301e+000 2.239043e+000 2.327677e+000 2.979304e+000 2.296079e+000 1.102566e+000 8.788966e-002
<GCONST> 7.986475e+001
<STATE> 3
<MEAN> 25
 -3.921174e+000 5.135437e+000 3.708107e+000 5.057252e+000 5.542606e+000 2.805372e+000 -6.957942e-001 -5.514071e+000 -1.965258e+000 2.291550e-001 -1.970042e+000 -6.787542e-001 1.568718e-001 1.059562e-001 4.588075e-001 -1.844721e-001 5.135655e-001 -6.462232e-001 -3.017298e-001 -1.169774e-001 -1.132623e+000 6.829075e-001 -1.175949e-002 5.416363e-002 1.933795e-001
<VARIANCE> 25
 2.865457e+000 5.111938e+000 3.368988e+001 2.603021e+001 1.651864e+001 2.760961e+001 2.041528e+001 3.338467e+001 2.669613e+001 2.634296e+001 8.325054e+000 2.325396e+001 4.079674e-001 5.924605e-001 5.750207e-001 1.250988e+000 6.042007e-001 8.015082e-001 2.146685e+000 4.568074e+000 1.576914e+000 1.170283e+000 1.007309e+000 1.958081e+000 8.913640e-002
<GCONST> 7.855901e+001
<STATE> 4
<MEAN> 25
 5.633495e+000 4.253191e+000 3.215300e+000 -5.068431e+000 -5.889900e+000 -1.655670e+000 -4.464392e+000 -2.816106e+000 -1.095437e+001 -4.091463e+000 4.324932e+000 -3.696998e+000 5.872514e-002 -5.811225e-002 -6.037030e-003 3.344107e-002 -8.817559e-002 -4.256634e-002 -5.016352e-002 5.590003e-003 1.630433e-002 -3.163832e-001 7.945134e-002 3.830353e-002 9.088942e-002
<VARIANCE> 25
 2.495059e+001 3.472222e+001 7.879415e+000 7.650090e+001 4.830521e+001 2.862612e+001 9.536600e+001 2.536825e+001 1.023007e+002 4.748000e+001 1.694448e+001 3.055208e+001 6.648889e-001 8.399528e-001 6.176239e-001 1.983222e+000 1.054055e+000 2.447644e+000 4.607271e+000 1.255587e+000 2.442321e+000 1.746109e+000 1.448891e+000 1.163975e+000 1.602069e+000
<GCONST> 9.364102e+001
<TRANSP> 5
 0.000000e+000 1.000000e+000 0.000000e+000 0.000000e+000 0.000000e+000
 0.000000e+000 9.677080e-001 3.229202e-002 0.000000e+000 0.000000e+000
 0.000000e+000 0.000000e+000 8.591299e-001 1.408700e-001 0.000000e+000
 0.000000e+000 0.000000e+000 0.000000e+000 9.600603e-001 3.993975e-002
 0.000000e+000 0.000000e+000 0.000000e+000 0.000000e+000 0.000000e+000
<ENDHMM>
~h "ai"
<BEGINHMM>
<NUMSTATES> 5
<STATE> 2
<MEAN> 25
 7.151910e+000 -5.172414e+000 4.442356e-001 -4.936031e+000 -2.374594e+000 1.156664e+000 -3.041878e+000 -4.313051e-001 2.586429e+000 -1.790296e+000 -2.480940e+000 4.695449e-001 2.375733e-002 -1.525514e+000 -1.040629e+000 -1.147783e+000 9.360756e-001 -6.006787e-001 4.819700e-001 1.272558e+000 6.123170e-001 -4.273626e-001 8.130677e-001 1.327325e-001 1.328363e+000
<VARIANCE> 25
 1.736727e+001 6.032617e+001 4.650612e+001 7.539796e+001 7.770750e+001 5.439050e+001 8.897722e+001 8.265536e+001 1.261505e+002 8.209803e+001 4.582956e+001 3.199494e+001 1.454349e+000 2.870582e+000 4.343007e+000 5.173084e+000 6.999776e+000 4.313167e+000 5.163496e+000 7.683213e+000 3.990267e+000 5.035254e+000 4.186597e+000 3.407993e+000 1.264612e+000
<GCONST> 1.123742e+002
<STATE> 3
<MEAN> 25
 5.756094e+000 -1.018433e+001 7.330425e-002 -2.140830e+000 3.393188e+000 -6.115305e+000 -9.185717e-001 2.866901e+000 -3.758348e-001 -3.233126e+000 1.850014e+000 -1.742002e+000 -2.803567e-001 2.529289e-001 8.991228e-001 7.374277e-001 -1.613912e-001 -3.659383e-001 -2.488113e-001 8.028986e-003 -3.780022e-001 2.218444e-001 1.038403e-001 -3.104528e-001 -3.791524e-001
<VARIANCE> 25
 8.716491e+000 2.101333e+001 9.369175e+001 1.695809e+002 7.709280e+001 3.649047e+001 4.997511e+001 3.674432e+001 4.557658e+001 2.851224e+001 6.029868e+001 3.021839e+001 3.290783e-001 7.354464e-001 1.455120e+000 1.404058e+000 2.731263e+000 1.892674e+000 2.360212e+000 1.732072e+000 2.582783e+000 1.938459e+000 2.056886e+000 1.435022e+000 2.603884e-001
<GCONST> 9.465980e+001
<STATE> 4
<MEAN> 25
 -8.090670e-001 2.252481e-001 8.806998e+000 2.984072e+000 -2.315823e+000 -2.571906e+000 -1.604754e+000 5.648135e-001 -4.228589e+000 1.571451e+000 1.670742e+000 -1.856643e+000 -4.132647e-001 7.574841e-001 -8.135241e-001 2.805551e-001 7.983009e-002 7.845330e-001 2.611729e-001 -4.037654e-001 3.841843e-001 2.585927e-001 -2.828445e-001 2.711818e-001 -1.345924e+000
<VARIANCE> 25
 1.096828e+001 1.974630e+001 7.923948e+001 1.247343e+002 1.317516e+002 4.092838e+001 5.870438e+001 3.783013e+001 4.630738e+001 4.309881e+001 3.574000e+001 2.016455e+001 2.628248e-001 1.130418e+000 2.551756e+000 3.559411e+000 2.079734e+000 1.831148e+000 2.247550e+000 2.122892e+000 2.202160e+000 2.369009e+000 1.847814e+000 1.700480e+000 1.002129e+000
<GCONST> 9.769237e+001
<TRANSP> 5
 0.000000e+000 1.000000e+000 0.000000e+000 0.000000e+000 0.000000e+000
 0.000000e+000 8.011826e-001 1.988173e-001 0.000000e+000 0.000000e+000
 0.000000e+000 0.000000e+000 9.231364e-001 7.686363e-002 0.000000e+000
 0.000000e+000 0.000000e+000 0.000000e+000 8.858284e-001 1.141715e-001
 0.000000e+000 0.000000e+000 0.000000e+000 0.000000e+000 0.000000e+000
<ENDHMM>
~h "au"
<BEGINHMM>
<NUMSTATES> 5
<STATE> 2
<MEAN> 25
 6.512666e+000 -3.416267e+000 -8.440382e+000 -5.543325e+000 -6.142377e+000 -4.889441e+000 3.724475e+000 7.754813e+000 -1.887437e+000 -8.165842e+000 -1.258409e+000 4.299923e+000 1.620576e-001 -3.557540e-001 -3.966036e-001 -2.115206e-002 -3.262733e-001 -4.285891e-001 4.482696e-001 9.912659e-001 1.580967e-001 -4.620767e-001 -8.095039e-002 1.322423e-001 1.425879e-001
<VARIANCE> 25
 3.804893e+000 1.164385e+001 1.476942e+001 1.535736e+001 2.128693e+001 3.072705e+001 2.411355e+001 3.018584e+001 1.380111e+001 2.665034e+001 1.481585e+001 3.959171e+000 1.069364e-001 8.106710e-001 1.025355e+000 5.248184e-001 4.813760e-001 6.566467e-001 1.597496e+000 1.474431e+000 7.275287e-001 9.024844e-001 1.425238e+000 6.356328e-001 1.475615e-001
<GCONST> 7.242171e+001
<STATE> 3
<MEAN> 25
 4.880193e+000 4.912848e-001 -2.686664e+000 -5.442673e+000 -1.087582e+001 -9.464212e+000 2.773227e+000 1.042305e+001 1.512365e+000 -6.243471e+000 -2.408577e+000 3.044329e-001 -4.090277e-001 9.803571e-001 1.029677e+000 -2.744226e-002 8.998759e-002 3.971207e-001 -8.656839e-001 -1.358221e+000 8.087755e-002 8.592533e-001 8.340947e-002 -5.771649e-001 -5.169509e-001
<VARIANCE> 25
 7.947963e+000 1.691466e+001 2.329222e+001 1.424881e+001 1.489536e+001 2.523307e+001 3.134965e+001 5.154075e+001 1.099864e+001 2.771663e+001 1.404874e+001 1.523439e+001 1.846352e-001 2.494488e-001 4.288576e-001 7.376081e-001 1.833908e+000 1.716798e+000 1.077368e+000 2.117891e+000 1.095381e+000 1.450332e+000 1.793075e+000 1.051388e+000 4.788132e-002
<GCONST> 7.685640e+001
<STATE> 4
<MEAN> 25
 8.776298e+000 8.385516e+000 -4.169506e-001 -5.633845e+000 -6.966108e+000 -3.806356e+000 -4.818449e+000 8.217816e+000 3.030592e+000 -7.509253e+000 1.302269e+000 6.315217e+000 -5.605300e-001 7.131982e-001 1.090817e-001 8.748323e-001 3.239570e-001 -8.323982e-002 5.289775e-001 -2.418259e-001 2.211952e-002 5.651822e-001 3.843851e-002 -2.346553e-001 -1.213918e+000
<VARIANCE> 25
 3.530040e+001 5.602493e+001 9.325939e+001 4.532605e+001 1.677588e+001 3.801624e+001 4.311549e+001 4.050665e+001 9.642508e+001 8.331876e+001 4.198636e+001 3.156785e+001 7.386110e-001 1.522313e+000 1.042771e+000 1.535111e+000 1.354713e+000 2.095574e+000 2.329169e+000 1.884831e+000 2.251944e+000 4.614916e+000 8.916911e-001 8.302075e-001 3.748084e-001
<GCONST> 9.615965e+001
<TRANSP> 5
 0.000000e+000 1.000000e+000 0.000000e+000 0.000000e+000 0.000000e+000
 0.000000e+000 8.949369e-001 1.050631e-001 0.000000e+000 0.000000e+000
 0.000000e+000 0.000000e+000 8.591353e-001 1.408647e-001 0.000000e+000
 0.000000e+000 0.000000e+000 0.000000e+000 8.425835e-001 1.574165e-001
 0.000000e+000 0.000000e+000 0.000000e+000 0.000000e+000 0.000000e+000
<ENDHMM>
~h "ng"
<BEGINHMM>
<NUMSTATES> 5
<STATE> 2
<MEAN> 25
 6.805360e+000 -4.430590e+000 -2.754241e+000 1.356867e+000 -1.495361e+000 -2.004580e+000 -4.622933e-001 -1.497734e+000 4.933532e-001 -1.066411e+000 1.782858e+000 -9.873896e-001 -3.412510e-001 1.021437e+000 3.963771e-001 5.683552e-001 4.931537e-001 8.481916e-001 -1.202470e-002 3.798271e-001 5.112317e-001 3.540639e-001 -4.531133e-001 -7.016361e-001 -9.622971e-001
<VARIANCE> 25
 1.036951e+001 4.125750e+001 1.819352e+001 4.902935e+001 2.931031e+001 5.935664e+001 6.127138e+001 6.825604e+001 4.636033e+001 6.821436e+001 4.217054e+001 2.118857e+001 2.648008e-001 1.269535e+000 1.297769e+000 1.249335e+000 2.232952e+000 1.738942e+000 1.725387e+000 1.871291e+000 2.104089e+000 2.061647e+000 2.147150e+000 1.521953e+000 5.830104e-001
<GCONST> 9.348727e+001
<STATE> 3
<MEAN> 25
 3.940071e+000 4.438740e+000 3.287802e-001 4.758807e+000 5.557889e+000 3.582626e+000 3.912762e+000 3.559603e+000 2.201766e+000 7.638273e-001 -1.144483e+000 -3.449702e+000 -6.337399e-001 9.699423e-001 5.804706e-001 4.548247e-001 5.377911e-001 4.397731e-001 1.898974e-001 -1.104048e-001 -1.382662e-001 3.821929e-001 -7.102545e-002 1.296033e-001 -9.004795e-001
<VARIANCE> 25
 1.266460e+001 3.519894e+001 2.121574e+001 5.370613e+001 4.967080e+001 2.655150e+001 4.492407e+001 3.624065e+001 2.360881e+001 4.036030e+001 3.484341e+001 3.220925e+001 2.924148e-001 7.436693e-001 1.231223e+000 1.236241e+000 1.755721e+000 1.851592e+000 2.210020e+000 1.845878e+000 1.545607e+000 1.715379e+000 1.626263e+000 1.966123e+000 1.676587e-001
<GCONST> 8.937807e+001
<STATE> 4
<MEAN> 25
 -2.236114e+000 3.712837e+000 4.275987e-002 4.450158e+000 2.903735e+000 3.127530e+000 4.155792e+000 1.312005e+000 1.550924e+000 2.107003e+000 5.525074e-001 9.709139e-002 -2.266831e-001 -1.385964e-001 -1.367990e-001 -9.121428e-002 -1.148541e-001 -1.074092e-001 2.285630e-002 -4.516730e-002 1.391343e-002 1.745484e-001 1.181114e-001 1.222389e-001 -1.792646e-001
<VARIANCE> 25
 1.174037e+001 1.541704e+001 1.467608e+001 2.843902e+001 2.208039e+001 1.651194e+001 2.268571e+001 2.111842e+001 2.557947e+001 2.776915e+001 1.699499e+001 1.515377e+001 1.811462e-001 3.367102e-001 5.249540e-001 6.755429e-001 8.467201e-001 9.981447e-001 1.403360e+000 1.225212e+000 1.279769e+000 1.429017e+000 1.203861e+000 9.365209e-001 1.070902e-001
<GCONST> 7.639656e+001
<TRANSP> 5
 0.000000e+000 1.000000e+000 0.000000e+000 0.000000e+000 0.000000e+000
 0.000000e+000 7.127906e-001 2.872094e-001 0.000000e+000 0.000000e+000
 0.000000e+000 0.000000e+000 7.910267e-001 2.089734e-001 0.000000e+000
 0.000000e+000 0.000000e+000 0.000000e+000 9.234708e-001 7.652919e-002
 0.000000e+000 0.000000e+000 0.000000e+000 0.000000e+000 0.000000e+000
<ENDHMM>
~h "ny"
<BEGINHMM>
<NUMSTATES> 5
<STATE> 2
<MEAN> 25
 -3.403612e+000 -5.068624e-001 4.109555e-003 3.687353e+000 -5.712690e-002 -7.384458e-001 2.234903e+000 -1.616288e+000 2.302243e+000 2.379326e+000 2.459476e+000 -1.031770e+000 -2.139909e-001 3.803871e-001 7.233240e-002 5.180955e-001 -9.277497e-001 1.700545e-001 9.513406e-001 -1.044760e+000 -1.139091e-001 1.123462e+000 8.742909e-001 1.299693e-001 -4.482351e-001
<VARIANCE> 25
 4.838766e+001 2.153047e+001 1.933377e+001 1.277283e+001 4.073467e+001 2.997173e+001 4.298702e+001 1.554620e+001 2.715660e+001 3.013391e+001 1.668654e+001 1.948379e+001 1.683066e+000 1.773597e+000 1.234533e+000 1.098137e+000 1.611118e+000 2.177819e+000 4.074798e+000 7.503836e-001 1.418720e+000 2.236522e+000 3.730421e+000 2.688718e+000 1.610669e+000
<GCONST> 9.221607e+001
<STATE> 3
<MEAN> 25
 4.658050e-001 2.618359e+000 -1.492461e+000 4.130025e+000 5.147675e-001 -3.692384e+000 3.000921e+000 -5.888218e+000 -2.715166e+000 4.917770e-001 7.490546e-001 8.853898e-001 2.178268e-001 3.287154e-001 -1.848225e-001 8.757426e-002 -4.990869e-001 -2.684510e-002 8.252654e-001 -1.076128e-001 -1.672051e-001 -4.733320e-001 -4.721136e-001 -2.054493e-002 -2.697353e-001
<VARIANCE> 25
 4.393604e+001 2.013789e+001 1.553703e+001 3.135290e+001 3.470098e+001 2.025933e+001 4.492647e+001 1.616224e+001 3.129618e+001 1.829593e+001 1.749238e+001 1.081769e+001 1.325119e-001 2.065486e-001 7.358757e-001 1.233937e+000 6.304516e-001 1.609190e+000 1.871057e+000 1.221456e+000 8.631202e-001 1.628325e+000 1.201021e+000 9.984226e-001 9.957612e-002
<GCONST> 7.901830e+001
<STATE> 4
<MEAN> 25
 -3.771724e+000 2.837777e+000 -2.022329e+000 5.293549e+000 2.434037e+000 1.272974e+000 5.211096e+000 1.700782e+000 4.252561e+000 1.764811e+000 1.904543e+000 1.844050e+000 1.082620e-002 -2.365133e-002 1.935134e-002 1.165776e-001 9.517643e-002 2.081106e-001 2.593348e-002 1.856070e-001 -9.539216e-002 -1.176231e-002 1.238046e-002 -1.043537e-001 -6.023887e-002
<VARIANCE> 25
 5.839046e+000 5.303431e+000 4.098063e+000 1.277383e+001 1.387576e+001 1.360400e+001 1.998153e+001 1.443114e+001 1.221928e+001 1.131582e+001 1.010782e+001 1.241593e+001 1.099530e-001 1.577713e-001 2.781107e-001 4.325468e-001 4.298055e-001 5.639969e-001 1.100272e+000 1.074491e+000 1.011950e+000 8.687001e-001 7.421408e-001 1.088670e+000 4.133924e-002
<GCONST> 6.305405e+001
<TRANSP> 5
 0.000000e+000 1.000000e+000 0.000000e+000 0.000000e+000 0.000000e+000
 0.000000e+000 4.711244e-001 5.288756e-001 0.000000e+000 0.000000e+000
 0.000000e+000 0.000000e+000 7.525722e-001 2.474278e-001 0.000000e+000
 0.000000e+000 0.000000e+000 0.000000e+000 9.269379e-001 7.306212e-002
 0.000000e+000 0.000000e+000 0.000000e+000 0.000000e+000 0.000000e+000
<ENDHMM>
~h "oi"
<BEGINHMM>
<NUMSTATES> 5
<STATE> 2
<MEAN> 25
 -8.589182e-001 7.226618e-001 6.665639e+000 -5.537354e+000 -6.014352e+000 5.636817e+000 8.623570e-001 -7.331236e+000 -1.381377e+000 8.416861e+000 9.690502e-001 -1.490905e+000 -5.310227e-001 1.563737e-001 -6.661978e-001 6.295297e-001 7.774514e-001 2.179786e-001 1.117448e+000 6.454393e-001 3.412664e-001 -1.164771e-001 -1.740663e-001 2.856875e-002 -7.371850e-001
<VARIANCE> 25
 1.536341e+001 5.423522e+000 4.046206e+001 4.203721e+001 2.555731e+001 1.252009e+001 4.005935e+001 2.374261e+001 4.056898e+001 2.325483e+001 1.524167e+001 7.447190e+000 4.513355e-001 6.160929e-001 1.197120e+000 9.120433e-001 1.881641e+000 1.490640e+000 9.110010e-001 1.446803e+000 2.602823e+000 1.768838e+000 1.734559e+000 8.532278e-001 1.512295e-001
<GCONST> 8.216129e+001
<STATE> 3
<MEAN> 25
 -1.059034e+001 4.907900e+000 -6.247020e+000 -1.790526e+000 3.455745e+000 -4.302983e+000 -4.937553e+000 -6.743900e+000 -7.956334e+000 4.573693e+000 -3.946544e+000 -2.211678e-001 -6.051322e-002 4.595257e-002 3.200712e-002 -3.827037e-002 -3.048993e-002 -1.133038e-001 -1.303203e-002 -6.849389e-002 -1.131411e-001 -1.003849e-002 -3.951952e-002 6.484484e-002 -4.039123e-002
<VARIANCE> 25
 2.913260e+000 1.997072e+000 3.154327e+000 6.076016e+000 6.198728e+000 6.524750e+000 1.491849e+001 1.072821e+001 6.387327e+000 6.941584e+000 7.446086e+000 6.203441e+000 1.011619e-001 1.813138e-001 2.852199e-001 4.700726e-001 6.343079e-001 6.838465e-001 7.826778e-001 1.370865e+000 5.027310e-001 4.506167e-001 6.367958e-001 5.924752e-001 2.134210e-002
<GCONST> 5.398165e+001
<STATE> 4
<MEAN> 25
 -2.572659e+000 4.039762e+000 -8.003290e+000 9.783153e+000 3.283629e-001 1.436097e+000 4.500688e+000 1.115016e+000 7.529276e-001 -3.008243e+000 -1.294737e+000 4.807684e+000 9.530706e-003 9.233803e-003 -2.279119e-002 4.929487e-002 8.812592e-003 2.198972e-003 5.420744e-002 4.718782e-002 -2.697733e-002 1.439886e-002 -4.275872e-002 1.554857e-002 -1.625798e-002
<VARIANCE> 25
 2.398800e+000 3.505215e+000 6.658676e+000 1.394546e+001 1.257684e+001 1.769189e+001 1.886778e+001 2.101074e+001 1.446952e+001 2.204580e+001 1.354783e+001 1.351446e+001 1.926402e-001 3.820413e-001 5.987808e-001 1.125731e+000 1.489008e+000 1.905022e+000 2.576191e+000 2.695426e+000 1.226321e+000 2.125276e+000 1.380575e+000 1.853065e+000 6.212845e-002
<GCONST> 7.406543e+001
<TRANSP> 5
 0.000000e+000 1.000000e+000 0.000000e+000 0.000000e+000 0.000000e+000
 0.000000e+000 8.533835e-001 1.466165e-001 0.000000e+000 0.000000e+000
 0.000000e+000 0.000000e+000 9.410567e-001 5.894327e-002 0.000000e+000
 0.000000e+000 0.000000e+000 0.000000e+000 9.767507e-001 2.324928e-002
 0.000000e+000 0.000000e+000 0.000000e+000 0.000000e+000 0.000000e+000
<ENDHMM>
~h "sp"
<BEGINHMM>
<NUMSTATES> 3
<STATE> 2
~s "silst"
<TRANSP> 3
 0.000000e+000 2.068356e-001 7.931644e-001
 0.000000e+000 8.476878e-001 1.523122e-001
 0.000000e+000 0.000000e+000 0.000000e+000
<ENDHMM>
~h "sy"
<BEGINHMM>
<NUMSTATES> 5
<STATE> 2
<MEAN> 25
 1.728304e-001 -1.064797e+001 9.956417e+000 4.189639e+000 4.029067e-001 9.533767e-001 6.884511e+000 7.220577e+000 -8.807918e-001 -3.500994e+000 6.338231e+000 -3.832917e-001 -1.622945e+000 -1.864761e+000 1.646440e+000 2.061450e-001 3.078800e-001 4.854956e-001 -2.399811e-001 -8.289815e-002 2.785811e-001 8.478625e-002 2.428454e-001 9.313225e-001 2.618947e-001
<VARIANCE> 25
 5.674654e+001 6.100018e+001 2.288197e+002 3.008075e+001 2.190670e+001 1.586501e+001 4.326587e+001 3.954095e+001 3.068122e+001 1.176658e+001 5.514309e+001 1.892722e+001 3.011971e+000 2.869487e+000 1.105789e+001 1.133461e+000 2.002260e+000 2.338432e+000 2.156117e+000 1.688132e+000 1.392293e+000 1.574825e+000 4.433102e+000 1.968632e+000 3.471988e-001
<GCONST> 9.848279e+001
<STATE> 3
<MEAN> 25
 -7.245538e+000 -5.806433e+000 1.096139e+001 -1.841545e+000 2.146661e+000 -8.500519e-001 1.454902e+000 -3.493246e-001 3.259826e+000 -4.491466e+000 5.932926e+000 3.475571e+000 1.015051e+000 7.578734e-002 -1.124168e+000 8.829248e-002 -5.291244e-001 -4.659370e-001 -2.650908e-002 -1.950185e-001 -1.398461e-001 7.571925e-002 3.521783e-001 -2.772223e-002 2.670800e-001
<VARIANCE> 25
 8.939639e+001 5.273716e+001 6.735968e+001 2.148754e+001 7.002874e+001 5.155933e+001 1.941908e+001 2.609026e+001 4.854315e+001 1.007428e+001 7.313417e+000 7.692148e+000 6.068366e+000 2.933986e+000 4.496391e+000 1.298513e+000 4.832287e+000 3.781687e+000 2.359924e+000 3.092046e+000 2.069036e+000 1.157063e+000 1.042169e+000 1.633200e+000 3.347415e-001
<GCONST> 9.617197e+001
<STATE> 4
<MEAN> 25
 1.558558e+000 -1.159605e+001 -1.629689e+000 7.193262e+000 1.265794e+000 -5.967714e+000 4.930273e-001 4.504624e+000 -9.052249e-001 -1.533384e-001 3.660578e+000 -1.232450e+000 -3.793485e-001 -2.780755e-001 2.423658e-001 5.895582e-001 4.653109e-001 2.251873e-002 9.672605e-002 3.402876e-001 3.232155e-001 1.816413e-001 -1.672498e-001 -7.359137e-002 -1.893181e-001
<VARIANCE> 25
 4.641486e+001 2.597366e+001 2.356635e+001 8.825018e+001 3.858388e+001 3.175648e+001 1.763888e+001 2.806071e+001 2.112913e+001 2.899433e+001 1.402136e+001 1.295480e+001 4.522117e-001 1.343908e+000 1.289092e+000 1.240113e+000 1.398507e+000 1.045994e+000 1.424795e+000 1.774266e+000 1.093965e+000 1.112209e+000 6.006321e-001 1.312042e+000 1.097460e-001
<GCONST> 8.464412e+001
<TRANSP> 5
 0.000000e+000 1.000000e+000 0.000000e+000 0.000000e+000 0.000000e+000
 0.000000e+000 7.450306e-001 2.549694e-001 0.000000e+000 0.000000e+000
 0.000000e+000 0.000000e+000 8.494795e-001 1.505205e-001 0.000000e+000
 0.000000e+000 0.000000e+000 0.000000e+000 9.182571e-001 8.174288e-002
 0.000000e+000 0.000000e+000 0.000000e+000 0.000000e+000 0.000000e+000
<ENDHMM>
~h "sil"
<BEGINHMM>
<NUMSTATES> 5
<STATE> 2
<MEAN> 25
 -7.372073e+000 5.680702e+000 -5.568951e+000 -2.990095e+000 3.277390e-001 -3.189933e+000 -4.256802e+000 -4.243804e+000 -5.699360e+000 4.354074e+000 -3.096857e+000 1.990512e-001 1.254788e-001 -7.376313e-002 9.464719e-003 -2.727068e-002 -1.337395e-002 9.373798e-002 -2.725159e-002 -2.050981e-002 7.925595e-002 -8.146566e-003 4.267934e-002 5.700601e-002 1.372854e-001
<VARIANCE> 25
 2.782675e+001 1.748079e+001 1.314254e+001 3.556310e+001 2.540943e+001 3.569477e+001 2.207045e+001 3.015589e+001 2.288956e+001 1.739041e+001 1.698373e+001 1.069578e+001 2.905574e-001 2.415346e-001 4.599504e-001 5.967817e-001 7.426729e-001 1.043330e+000 1.066593e+000 1.052821e+000 1.113685e+000 1.084976e+000 1.016079e+000 8.377361e-001 1.989780e-001
<GCONST> 7.710553e+001
<STATE> 3
~s "silst"
<STATE> 4
<MEAN> 25
 -4.370677e+000 2.111105e+000 -1.436065e+000 5.515448e+000 2.235713e+000 3.460423e+000 4.124238e+000 1.451177e+000 2.954278e+000 1.856959e+000 1.410409e+000 1.588195e+000 -2.808867e-002 1.152270e-002 8.156026e-003 2.620392e-003 -8.617635e-003 8.280089e-003 -8.148881e-003 -2.480584e-003 3.254287e-002 -2.651173e-003 9.674915e-003 1.763947e-003 -3.163269e-002
<VARIANCE> 25
 3.055067e+000 8.531180e+000 1.135551e+001 3.359060e+001 1.258938e+001 2.094238e+001 1.653160e+001 1.531632e+001 2.218784e+001 2.571869e+001 1.441981e+001 1.255029e+001 1.220648e-001 2.600794e-001 4.410979e-001 6.398291e-001 8.632997e-001 1.002873e+000 1.253480e+000 1.191425e+000 1.313457e+000 1.429550e+000 1.197316e+000 9.998552e-001 7.678918e-002
<GCONST> 7.159054e+001
<TRANSP> 5
 0.000000e+000 1.000000e+000 0.000000e+000 0.000000e+000 0.000000e+000
 0.000000e+000 8.726875e-001 4.890062e-002 7.841196e-002 0.000000e+000
 0.000000e+000 0.000000e+000 8.791189e-001 1.208811e-001 0.000000e+000
 0.000000e+000 8.840004e-003 0.000000e+000 9.649171e-001 2.624295e-002
 0.000000e+000 0.000000e+000 0.000000e+000 0.000000e+000 0.000000e+000
<ENDHMM>
