~o
<STREAMINFO> 1 39
<VECSIZE> 39<NULLD><MFCC_D_A_0><DIAGC>
~s "silst"
<MEAN> 39
 -7.032657e+000 -2.904473e+000 -1.941824e+000 -2.993222e+000 -3.411405e+000 1.702397e+000 -7.505002e+000 4.078119e+000 1.417145e+000 1.084321e+000 -2.131830e+000 -3.184672e-001 5.447064e+001 2.849092e-001 -3.671800e-001 1.667091e-002 -6.627528e-001 -1.484208e-001 -1.360432e-001 -4.782054e-001 -6.745446e-002 -4.755474e-002 -2.594175e-001 -1.517709e-001 -1.141190e-001 8.931856e-001 1.340073e-002 -2.574165e-002 -2.611045e-002 -3.747469e-002 -4.697993e-002 4.432106e-002 2.857253e-003 1.110937e-002 -1.968907e-002 -1.341278e-002 -9.269146e-003 -2.355900e-002 3.598733e-002
<VARIANCE> 39
 5.704030e+001 4.482042e+001 4.264404e+001 8.211050e+001 5.286722e+001 5.692258e+001 8.963108e+001 5.950267e+001 4.206984e+001 3.995916e+001 4.638317e+001 2.618031e+001 1.371057e+002 3.408204e+000 3.807817e+000 2.940872e+000 6.110078e+000 4.034896e+000 3.559831e+000 6.124354e+000 3.933114e+000 2.930091e+000 3.023683e+000 3.389446e+000 2.266936e+000 7.312115e+000 4.831095e-001 6.059974e-001 4.771441e-001 9.582217e-001 6.985204e-001 6.330318e-001 9.886405e-001 6.079689e-001 4.961038e-001 5.431591e-001 5.438996e-001 4.276127e-001 1.109151e+000
<GCONST> 1.352318e+002
~h "@"
<BEGINHMM>
<NUMSTATES> 5
<STATE> 2
<MEAN> 39
 -1.102462e+001 -5.562659e-001 -2.104036e+000 3.486058e+000 -1.814059e+000 1.878840e+000 -2.368112e-001 -6.967514e-001 2.862468e+000 -5.051681e-001 1.034733e+000 1.628287e+000 5.719038e+001 1.891921e-001 -3.606173e-001 -7.201277e-002 -4.615826e-002 -2.595283e-002 -1.771347e-001 8.672939e-002 -1.448165e-002 -1.620476e-001 -1.997897e-001 6.264894e-002 2.585567e-001 5.390362e-001 2.793250e-001 -2.791198e-001 2.526524e-002 -1.706196e-001 -1.407479e-001 -7.898914e-002 -1.422790e-001 2.834132e-002 -4.040681e-002 -2.133461e-001 -7.345474e-002 5.570862e-002 4.501200e-001
<VARIANCE> 39
 8.549929e+001 5.751221e+001 4.024547e+001 7.843965e+001 1.038100e+002 1.022798e+002 6.581421e+001 5.313258e+001 4.110742e+001 3.938933e+001 3.270838e+001 2.793550e+001 2.056276e+002 2.197056e+000 2.450293e+000 2.350652e+000 2.907078e+000 2.815091e+000 3.251798e+000 3.289118e+000 2.597869e+000 2.523983e+000 2.819659e+000 2.040944e+000 1.527010e+000 4.461112e+000 4.714009e-001 4.189444e-001 4.830608e-001 5.527101e-001 5.183611e-001 5.902792e-001 6.965042e-001 5.769372e-001 5.170000e-001 5.613058e-001 3.816051e-001 3.224749e-001 8.970864e-001
<GCONST> 1.292780e+002
<STATE> 3
<MEAN> 39
 -4.683222e-001 -1.041792e+001 -2.682836e+000 7.223659e+000 -7.218974e+000 5.192209e+000 -2.598507e+000 1.926152e+000 5.444562e+000 -7.522844e+000 -2.647580e-003 4.232399e+000 6.893259e+001 1.271376e+000 -3.999548e-001 -7.572563e-002 -5.292642e-001 -1.484287e-001 -3.784918e-001 -6.259063e-001 3.351369e-001 1.383469e-001 -1.034167e+000 -3.716960e-001 3.983100e-003 1.584981e+000 5.785131e-002 1.708809e-001 -1.808650e-002 -1.294461e-001 -5.874796e-002 9.256283e-003 -1.647498e-001 -4.342478e-002 -5.735379e-002 8.016634e-002 -6.389620e-002 -1.471183e-001 -1.012608e-001
<VARIANCE> 39
 1.163921e+002 1.044783e+002 7.528968e+001 1.697878e+002 1.143783e+002 2.130482e+002 8.393362e+001 1.163596e+002 6.868526e+001 9.725867e+001 6.261586e+001 5.888970e+001 1.433016e+002 4.564687e+000 6.179912e+000 4.954990e+000 7.230782e+000 5.667077e+000 9.109531e+000 7.241592e+000 7.697175e+000 4.781561e+000 6.827496e+000 4.658874e+000 3.642784e+000 9.229361e+000 5.859706e-001 7.745990e-001 8.560116e-001 7.131932e-001 8.458434e-001 1.446902e+000 1.076583e+000 1.034619e+000 7.479793e-001 9.283457e-001 6.418146e-001 5.708619e-001 7.475898e-001
<GCONST> 1.526008e+002
<STATE> 4
<MEAN> 39
 -5.657621e+000 -5.494237e+000 3.160881e+000 -6.434859e+000 2.221165e+000 -7.572097e+000 -2.799926e+000 -7.991928e+000 2.332285e+000 -7.494233e+000 2.475161e+000 -2.445647e+000 7.223798e+001 8.751513e-001 -8.185677e-002 -1.457593e-002 -4.195648e-001 -5.807656e-001 -2.065830e-002 -4.697371e-001 -3.460024e-001 -5.699890e-001 -2.054325e-001 -1.873508e-001 -1.320939e-001 7.169985e-001 -2.679502e-001 6.558984e-002 -1.053248e-001 1.588069e-001 1.013359e-001 1.885246e-001 4.036803e-001 6.470849e-002 3.756197e-002 1.901972e-001 1.303622e-001 2.010037e-002 -2.853432e-001
<VARIANCE> 39
 8.516705e+001 5.247034e+001 1.146909e+002 1.254519e+002 1.856633e+002 1.431613e+002 1.769718e+002 1.755687e+002 1.043553e+002 8.979829e+001 8.227403e+001 5.474185e+001 1.281614e+002 4.130312e+000 3.537215e+000 4.466889e+000 3.744428e+000 4.233174e+000 3.970889e+000 5.981861e+000 4.824000e+000 4.383143e+000 3.873580e+000 3.106741e+000 3.034716e+000 9.047994e+000 6.060606e-001 5.366564e-001 6.409761e-001 7.333321e-001 5.465748e-001 6.261985e-001 8.706532e-001 7.221799e-001 6.419972e-001 5.723057e-001 5.529639e-001 4.972202e-001 4.196672e-001
<GCONST> 1.449856e+002
<TRANSP> 5
 0.000000e+000 1.000000e+000 0.000000e+000 0.000000e+000 0.000000e+000
 0.000000e+000 5.752046e-001 4.247954e-001 0.000000e+000 0.000000e+000
 0.000000e+000 0.000000e+000 6.660715e-001 3.339285e-001 0.000000e+000
 0.000000e+000 0.000000e+000 0.000000e+000 4.984804e-001 5.015196e-001
 0.000000e+000 0.000000e+000 0.000000e+000 0.000000e+000 0.000000e+000
<ENDHMM>
~h "a"
<BEGINHMM>
<NUMSTATES> 5
<STATE> 2
<MEAN> 39
 -7.310093e+000 -4.396333e+000 -1.340630e+000 -4.135371e+000 -1.432279e+000 -3.611962e+000 -3.405967e+000 -2.522471e+000 9.024268e-001 -3.752936e+000 7.487162e-001 -1.672266e+000 6.646472e+001 7.796879e-001 -7.476051e-001 -3.795632e-001 -7.926602e-001 -1.711238e-001 -6.174859e-001 -4.073210e-001 1.757556e-001 -2.432909e-001 -4.841372e-001 -2.416608e-001 -8.126376e-002 1.366261e+000 1.069293e-002 -8.372457e-002 -5.819747e-002 -2.113986e-002 -2.068051e-002 2.367564e-002 5.156412e-002 1.292082e-001 2.889953e-002 2.603921e-002 -1.600452e-002 4.836817e-002 1.801731e-002
<VARIANCE> 39
 6.668283e+001 6.126410e+001 5.411864e+001 1.284167e+002 1.212018e+002 1.332072e+002 1.253613e+002 1.228456e+002 7.890697e+001 6.469872e+001 7.415155e+001 3.911771e+001 2.020467e+002 2.785845e+000 2.785373e+000 2.907165e+000 4.572925e+000 3.764024e+000 3.886017e+000 3.965339e+000 4.852276e+000 4.155748e+000 3.463011e+000 3.695261e+000 2.735575e+000 4.553830e+000 4.125172e-001 4.373374e-001 4.350718e-001 7.034177e-001 6.011164e-001 7.056835e-001 7.007958e-001 8.075416e-001 6.957954e-001 5.609660e-001 6.339653e-001 4.546502e-001 6.558348e-001
<GCONST> 1.398316e+002
<STATE> 3
<MEAN> 39
 -4.142272e+000 -1.009779e+001 -2.935174e+000 -9.065045e+000 -2.803501e+000 -5.014814e+000 -6.193727e+000 -1.113373e+000 1.632686e+000 -5.930408e+000 -2.255470e+000 -3.115835e+000 7.220566e+001 -1.061285e-001 3.132876e-001 -1.764443e-001 4.489956e-001 -9.264332e-002 1.724779e-001 1.431493e-001 2.334510e-002 -7.275150e-002 1.119891e-001 -1.236150e-001 4.701017e-002 -6.546133e-001 -1.090767e-001 1.344887e-001 8.024792e-002 1.448719e-001 -1.027055e-002 9.008566e-002 3.281064e-002 -4.470041e-002 -3.808957e-002 6.580960e-002 4.020161e-002 3.710237e-002 -1.812766e-001
<VARIANCE> 39
 6.896459e+001 5.982180e+001 5.023491e+001 1.989982e+002 1.327697e+002 1.662916e+002 1.461713e+002 1.124421e+002 9.381400e+001 6.096299e+001 1.005162e+002 7.774592e+001 1.420065e+002 6.448553e-001 2.074455e+000 1.600919e+000 2.409175e+000 2.522173e+000 2.328424e+000 2.669496e+000 3.014041e+000 2.080649e+000 2.015795e+000 1.976107e+000 1.641247e+000 1.853769e+000 1.227022e-001 2.413193e-001 2.564164e-001 3.470883e-001 4.015336e-001 4.333309e-001 5.069250e-001 5.210696e-001 3.919175e-001 3.617964e-001 3.682666e-001 3.145983e-001 1.605421e-001
<GCONST> 1.252601e+002
<STATE> 4
<MEAN> 39
 -6.315370e+000 -5.387661e+000 -5.025011e+000 -3.648986e+000 -3.069807e+000 -1.321212e+000 -5.729800e+000 3.730359e+000 3.027400e-001 -2.806543e+000 -3.810589e+000 -2.273433e+000 5.946841e+001 -2.483280e-001 3.079725e-001 1.536959e-002 4.258301e-001 -1.628209e-002 1.519663e-001 1.697640e-001 -3.790085e-003 -2.831466e-002 3.161873e-002 1.858931e-001 1.962771e-001 -5.918472e-001 -2.687452e-002 1.686117e-002 8.355273e-002 -1.298518e-003 2.755579e-002 1.494714e-002 2.868160e-003 -4.693228e-002 -3.003857e-003 -6.677412e-003 5.820529e-002 -7.237642e-003 1.242432e-002
<VARIANCE> 39
 5.500620e+001 4.951056e+001 4.237130e+001 9.797359e+001 6.231336e+001 9.181951e+001 8.122870e+001 9.079841e+001 5.260669e+001 4.769926e+001 6.745901e+001 3.867122e+001 2.465965e+002 4.913667e-001 1.272363e+000 1.190802e+000 1.797675e+000 1.474782e+000 1.716134e+000 2.015806e+000 2.015125e+000 1.759916e+000 1.693016e+000 1.766388e+000 1.485447e+000 1.276435e+000 8.176300e-002 1.965930e-001 1.769836e-001 2.918958e-001 2.777326e-001 3.103825e-001 3.729590e-001 3.776742e-001 3.131677e-001 3.137629e-001 3.209097e-001 2.605440e-001 1.517556e-001
<GCONST> 1.134084e+002
<TRANSP> 5
 0.000000e+000 1.000000e+000 0.000000e+000 0.000000e+000 0.000000e+000
 0.000000e+000 6.006591e-001 3.993409e-001 0.000000e+000 0.000000e+000
 0.000000e+000 0.000000e+000 5.787524e-001 4.212476e-001 0.000000e+000
 0.000000e+000 0.000000e+000 0.000000e+000 6.534919e-001 3.465081e-001
 0.000000e+000 0.000000e+000 0.000000e+000 0.000000e+000 0.000000e+000
<ENDHMM>
~h "b"
<BEGINHMM>
<NUMSTATES> 5
<STATE> 2
<MEAN> 39
 -8.963185e+000 -1.315120e+000 -3.997152e+000 1.420196e+000 -1.905267e+000 -6.944312e+000 -5.218432e+000 -1.265365e+000 -2.028996e+000 -5.876062e+000 2.396310e+000 -3.679117e-001 7.005855e+001 -2.575898e-001 1.211573e-001 9.160111e-002 6.181424e-002 1.520340e-001 3.444001e-001 3.660306e-001 1.877348e-001 3.190151e-001 3.371837e-001 1.081682e-003 -1.021639e-001 -2.697080e-001 -1.077674e-002 2.489421e-002 4.221585e-002 7.629253e-003 4.751111e-002 4.194439e-002 8.250020e-003 7.463764e-005 -7.639863e-004 4.608753e-002 4.155052e-003 -2.418150e-004 3.038096e-003
<VARIANCE> 39
 4.113035e+001 2.525869e+001 4.538546e+001 8.003069e+001 5.877809e+001 1.476993e+002 6.356411e+001 6.005731e+001 5.090265e+001 5.270770e+001 5.847543e+001 2.833311e+001 2.769063e+002 3.544764e-001 6.679356e-001 1.183138e+000 1.210860e+000 1.245618e+000 1.901180e+000 1.628047e+000 1.550404e+000 1.521128e+000 1.953473e+000 1.784013e+000 1.268287e+000 2.552305e-001 3.038490e-002 1.032802e-001 1.582534e-001 1.517756e-001 1.951910e-001 2.569984e-001 2.883015e-001 2.434561e-001 3.024211e-001 3.492236e-001 2.990105e-001 2.313070e-001 2.321231e-002
<GCONST> 1.024904e+002
<STATE> 3
<MEAN> 39
 -1.195833e+001 -1.408069e-001 -4.001745e+000 3.967279e+000 -8.804461e-001 4.493103e+000 6.402503e-001 4.132565e+000 3.659818e+000 1.128678e+000 2.099473e+000 9.429303e-001 5.571838e+001 -1.099625e-001 8.214987e-002 2.585310e-002 3.684659e-002 2.262891e-002 1.007195e-001 1.360810e-001 1.626848e-002 6.753685e-002 9.942210e-002 6.769398e-002 4.778338e-002 -1.274021e-001 1.417853e-002 -1.553448e-002 1.536646e-002 2.561742e-003 -6.905031e-003 -3.269586e-002 -2.176360e-002 -7.306668e-003 -2.000371e-002 -3.765526e-002 -3.131092e-002 -1.382363e-002 2.563952e-002
<VARIANCE> 39
 3.858247e+001 1.441333e+001 1.548296e+001 3.470824e+001 2.868999e+001 4.245370e+001 4.298252e+001 4.344458e+001 2.098817e+001 2.105535e+001 1.927840e+001 1.820624e+001 2.579419e+002 1.116686e-001 2.936490e-001 4.371978e-001 6.078095e-001 6.217402e-001 7.775839e-001 9.944865e-001 1.059773e+000 9.491587e-001 1.136681e+000 1.029157e+000 8.555654e-001 9.403819e-002 1.834146e-002 5.193863e-002 7.986575e-002 1.005910e-001 1.262439e-001 1.450313e-001 1.903488e-001 2.050458e-001 1.730570e-001 2.392436e-001 1.970479e-001 1.802527e-001 1.089031e-002
<GCONST> 7.852808e+001
<STATE> 4
<MEAN> 39
 -9.456762e+000 -4.906767e+000 5.378025e+000 -1.075249e+001 1.552850e+001 -1.138532e+001 1.510413e+001 -1.146505e+001 1.394328e+001 -7.035827e+000 1.176074e+001 -3.352948e+000 7.016526e+001 -1.105112e-001 3.939604e-002 5.580780e-002 7.280522e-002 6.115081e-002 7.019919e-002 5.247894e-002 4.878077e-002 7.000344e-002 5.193133e-003 -4.381120e-002 -3.661099e-002 -1.625624e-001 1.598121e-002 -9.400427e-003 9.297878e-003 -1.149472e-003 -1.163678e-002 -1.988122e-002 -2.507530e-002 -3.171097e-002 -4.066774e-002 -2.501520e-002 -9.926235e-003 -8.292793e-004 3.105025e-002
<VARIANCE> 39
 2.339690e+001 1.094745e+001 1.960870e+001 3.935374e+001 4.277086e+001 4.051247e+001 4.146027e+001 3.129879e+001 3.191771e+001 1.691228e+001 2.125023e+001 1.331806e+001 5.855756e+001 2.079528e-001 3.572549e-001 4.277285e-001 5.868155e-001 6.716469e-001 8.017898e-001 8.595130e-001 9.288792e-001 1.086919e+000 9.561709e-001 9.553421e-001 8.611007e-001 2.358521e-001 3.360505e-002 6.797010e-002 8.623834e-002 1.077418e-001 1.246381e-001 1.507816e-001 1.648197e-001 1.917728e-001 2.210632e-001 1.998382e-001 1.921410e-001 1.741153e-001 2.795361e-002
<GCONST> 7.979319e+001
<TRANSP> 5
 0.000000e+000 1.000000e+000 0.000000e+000 0.000000e+000 0.000000e+000
 0.000000e+000 7.051041e-001 2.948959e-001 0.000000e+000 0.000000e+000
 0.000000e+000 0.000000e+000 8.645366e-001 1.354634e-001 0.000000e+000
 0.000000e+000 0.000000e+000 0.000000e+000 9.098235e-001 9.017640e-002
 0.000000e+000 0.000000e+000 0.000000e+000 0.000000e+000 0.000000e+000
<ENDHMM>
~h "c"
<BEGINHMM>
<NUMSTATES> 5
<STATE> 2
<MEAN> 39
 -1.543135e+001 5.542842e-001 -5.785501e+000 3.651336e+000 -5.819688e+000 -7.910139e+000 -7.463255e+000 -5.314451e+000 -9.284310e+000 -8.179739e+000 -4.691554e+000 -4.036442e+000 4.740442e+001 -9.649315e-002 9.533054e-003 -6.646970e-002 3.263271e-002 7.335888e-002 1.640690e-001 7.735816e-002 7.401634e-002 2.060049e-001 1.042566e-001 1.005613e-001 1.906669e-001 -1.051111e-001 5.241167e-003 -3.055540e-002 1.228242e-002 -2.471826e-002 -1.900413e-002 -1.724530e-002 1.458026e-002 2.574354e-002 6.107792e-003 4.791579e-002 9.358896e-003 1.141924e-002 4.244490e-002
<VARIANCE> 39
 6.995024e+000 5.349336e+000 1.615762e+001 1.998066e+001 2.120360e+001 2.786436e+001 3.018262e+001 2.380500e+001 1.912403e+001 2.387509e+001 1.447062e+001 1.782280e+001 2.770524e+002 2.931010e-001 3.784841e-001 8.666864e-001 1.170092e+000 1.322113e+000 1.304750e+000 2.434644e+000 2.903004e+000 1.651610e+000 2.235354e+000 1.649871e+000 1.462121e+000 1.018250e-001 5.932516e-002 8.335276e-002 1.594044e-001 2.349275e-001 2.543585e-001 2.231876e-001 5.298930e-001 6.534855e-001 3.397524e-001 4.791475e-001 3.321149e-001 2.452621e-001 2.021543e-002
<GCONST> 9.080627e+001
<STATE> 3
<MEAN> 39
 -1.190953e+001 -7.076049e-001 -4.319222e+000 1.456413e+000 -3.891898e+000 3.093631e+000 -2.694059e+000 -1.887961e+000 -3.743920e-001 -1.688404e+000 1.677685e+000 1.542022e+000 6.749680e+001 1.166370e-001 -1.064432e-001 -1.180410e-001 -2.211004e-001 -4.117765e-003 7.520962e-002 -1.453585e-001 7.337974e-002 -2.963525e-002 1.297958e-001 2.153942e-001 -1.924079e-002 1.859023e-001 7.228136e-003 -2.815199e-002 -6.691848e-002 -3.194015e-002 -7.053701e-002 -1.277646e-001 1.640665e-002 2.959865e-002 -5.993109e-002 -1.226824e-001 -1.598409e-001 -2.046314e-001 4.442770e-002
<VARIANCE> 39
 7.274162e+001 3.453149e+000 1.300663e+001 3.701519e+001 4.104290e+001 1.116981e+002 5.634580e+001 3.060829e+001 2.827706e+001 3.876625e+001 7.857878e+000 2.896586e+001 1.179362e+002 3.755246e-001 3.064196e-001 5.680844e-001 9.222371e-001 1.624165e+000 1.091868e+000 1.395426e+000 1.689961e+000 1.864198e+000 2.187401e+000 9.121534e-001 1.065026e+000 1.438883e-001 4.239292e-002 4.006828e-002 5.450969e-002 1.074204e-001 3.285902e-001 2.257136e-001 2.361218e-001 2.249481e-001 2.382119e-001 3.435035e-001 1.712242e-001 2.724088e-001 4.053441e-002
<GCONST> 8.869173e+001
<STATE> 4
<MEAN> 39
 -1.560222e+001 -3.699736e+000 -7.915498e+000 -1.123058e+001 -2.232805e+000 -7.713609e+000 -4.770394e+000 -6.525877e+000 -1.913199e-001 -2.606482e+000 -3.729138e+000 -9.586182e+000 6.903854e+001 -2.498286e-001 3.189059e-001 -2.199244e-001 -2.947567e-001 1.194819e-001 -2.009275e-001 4.687801e-001 1.211594e-001 2.214356e-001 7.369468e-002 -2.346464e-001 -3.911815e-001 7.987069e-001 5.631875e-002 -5.197349e-002 5.295284e-002 1.129134e-001 5.011057e-003 -9.678838e-002 7.318912e-002 1.149765e-001 -5.782909e-002 -6.498697e-002 -1.352794e-002 1.489445e-001 -4.802766e-002
<VARIANCE> 39
 8.444167e+001 1.307092e+002 4.667414e+001 1.704503e+002 5.977675e+001 6.123788e+001 4.302238e+001 3.270077e+001 3.314162e+001 2.114765e+001 2.248272e+001 4.054432e+001 1.707779e+002 3.805978e+000 5.012575e+000 2.380794e+000 8.563671e+000 3.728059e+000 1.757972e+000 1.879623e+000 2.535151e+000 3.223200e+000 2.348506e+000 1.414305e+000 1.351611e+000 5.887305e+000 5.391963e-001 4.416688e-001 4.731704e-001 9.174113e-001 7.043499e-001 4.126022e-001 2.716373e-001 5.278819e-001 7.008828e-001 2.718284e-001 2.926272e-001 1.817268e-001 4.038213e-001
<GCONST> 1.268338e+002
<TRANSP> 5
 0.000000e+000 1.000000e+000 0.000000e+000 0.000000e+000 0.000000e+000
 0.000000e+000 9.378296e-001 6.217040e-002 0.000000e+000 0.000000e+000
 0.000000e+000 0.000000e+000 7.740694e-001 2.259306e-001 0.000000e+000
 0.000000e+000 0.000000e+000 0.000000e+000 7.121874e-001 2.878126e-001
 0.000000e+000 0.000000e+000 0.000000e+000 0.000000e+000 0.000000e+000
<ENDHMM>
~h "d"
<BEGINHMM>
<NUMSTATES> 5
<STATE> 2
<MEAN> 39
 -7.346397e+000 -4.905948e+000 -2.795994e+000 6.531269e-001 -2.149095e+000 -6.131345e+000 -2.470101e+000 2.571517e+000 -3.077030e+000 -8.507376e+000 -1.611037e+000 -1.244591e+000 6.888800e+001 -2.368736e-001 4.962785e-001 4.151391e-002 1.525911e-001 1.075465e-001 4.923886e-001 9.920334e-002 -3.533770e-001 1.468021e-001 4.860776e-001 2.324671e-002 -2.050206e-001 -6.100253e-001 -2.049684e-002 3.265158e-002 1.512828e-002 -3.081425e-002 1.457336e-002 2.954711e-002 -7.037180e-002 -7.933378e-002 8.685723e-002 8.760699e-002 1.762442e-002 -2.313482e-002 -9.779343e-004
<VARIANCE> 39
 3.574581e+001 3.167752e+001 5.266994e+001 7.871047e+001 7.813116e+001 1.559091e+002 6.341075e+001 8.514818e+001 6.050360e+001 4.358043e+001 5.608263e+001 2.862875e+001 2.038781e+002 3.237479e-001 6.965394e-001 9.438273e-001 1.199501e+000 1.009393e+000 2.019781e+000 1.218805e+000 2.268994e+000 1.346772e+000 1.511517e+000 1.234953e+000 1.066584e+000 4.012144e-001 3.049866e-002 8.363549e-002 1.441001e-001 1.808750e-001 1.533349e-001 2.776214e-001 2.265908e-001 4.283815e-001 2.361165e-001 2.721884e-001 2.755639e-001 1.927409e-001 4.336582e-002
<GCONST> 1.021284e+002
<STATE> 3
<MEAN> 39
 -5.125126e+000 -4.655162e+000 -4.053232e+000 3.555691e+000 -6.926758e+000 5.247547e+000 -7.498981e+000 -2.537920e+000 9.012929e-001 -2.422974e+000 -8.933662e-001 1.935460e+000 5.826558e+001 -2.274306e-001 1.916472e-001 -1.613791e-001 1.349546e-001 1.146024e-001 4.269103e-002 1.847973e-001 -7.949463e-002 1.146561e-001 2.595001e-001 -5.753119e-002 -5.663097e-002 -4.165732e-001 -8.149520e-003 -1.566334e-002 3.340422e-002 -2.543266e-002 2.103893e-002 -3.145222e-002 5.205806e-002 3.879886e-002 2.199694e-002 -2.148591e-002 -1.451793e-002 -1.459409e-002 3.471114e-002
<VARIANCE> 39
 2.813074e+001 2.826104e+001 3.496130e+001 6.133424e+001 6.656221e+001 8.864867e+001 5.992430e+001 6.396575e+001 3.302918e+001 2.755324e+001 4.637993e+001 3.782438e+001 9.894141e+001 2.203421e-001 5.058103e-001 5.014180e-001 1.009812e+000 1.061276e+000 1.213462e+000 1.489439e+000 1.425486e+000 1.109187e+000 1.107841e+000 1.087668e+000 8.613176e-001 2.187587e-001 2.310118e-002 7.377715e-002 7.612648e-002 1.196891e-001 1.377750e-001 1.510651e-001 2.014212e-001 2.379564e-001 1.925694e-001 2.074841e-001 2.026206e-001 1.557840e-001 1.496885e-002
<GCONST> 8.972990e+001
<STATE> 4
<MEAN> 39
 -1.211943e+001 5.275789e-001 -2.761033e+000 2.853607e+000 -3.006233e-001 9.516301e-001 8.515328e-001 3.551973e+000 3.162760e+000 -1.053907e-001 2.337283e-001 -8.204634e-001 6.022274e+001 -1.206276e-001 3.453374e-002 4.813970e-002 2.191710e-002 3.150566e-002 8.230304e-002 8.529936e-002 -1.700365e-002 7.079203e-002 1.191441e-001 7.642458e-002 3.169277e-002 -1.228454e-001 2.991316e-002 -2.032732e-002 4.471326e-003 -5.396654e-003 -1.107560e-002 -4.341224e-002 -4.043131e-002 -2.697465e-002 -5.461766e-002 -4.653805e-002 -7.008940e-004 1.622798e-003 3.741816e-002
<VARIANCE> 39
 3.019060e+001 9.567433e+000 1.538750e+001 2.473088e+001 1.866603e+001 3.793267e+001 2.591522e+001 3.236482e+001 2.591879e+001 2.524198e+001 1.954710e+001 1.320168e+001 2.084229e+002 1.771306e-001 3.257170e-001 4.235476e-001 5.273824e-001 7.617500e-001 9.543325e-001 1.200930e+000 1.133617e+000 1.137696e+000 1.207886e+000 1.031271e+000 8.987424e-001 1.286131e-001 2.698244e-002 6.641757e-002 8.035325e-002 9.947176e-002 1.465063e-001 1.926262e-001 2.378894e-001 2.264414e-001 2.167157e-001 2.266742e-001 1.925077e-001 1.760021e-001 1.606195e-002
<GCONST> 7.961236e+001
<TRANSP> 5
 0.000000e+000 1.000000e+000 0.000000e+000 0.000000e+000 0.000000e+000
 0.000000e+000 5.966262e-001 4.033738e-001 0.000000e+000 0.000000e+000
 0.000000e+000 0.000000e+000 6.765136e-001 3.234864e-001 0.000000e+000
 0.000000e+000 0.000000e+000 0.000000e+000 9.033187e-001 9.668128e-002
 0.000000e+000 0.000000e+000 0.000000e+000 0.000000e+000 0.000000e+000
<ENDHMM>
~h "e"
<BEGINHMM>
<NUMSTATES> 5
<STATE> 2
<MEAN> 39
 -1.009475e+001 -3.424118e+000 -4.469452e+000 1.259760e+000 -1.126351e+000 -8.815570e+000 -1.714713e+000 -1.201449e+000 -3.678782e+000 -7.368133e+000 1.608717e+000 -2.665854e+000 7.483560e+001 -5.885589e-003 2.098247e-002 1.521803e-001 3.677672e-001 -2.345693e-002 -3.372582e-001 -3.242167e-001 -5.049921e-001 -5.341537e-001 2.653896e-002 -3.521620e-002 -1.984525e-001 -7.918340e-002 -1.743499e-002 1.370704e-002 -5.965825e-003 -1.036593e-001 -3.438659e-002 7.107744e-002 -5.646223e-002 -6.853072e-002 6.982532e-002 1.092758e-001 1.234513e-001 8.339036e-002 -1.435319e-002
<VARIANCE> 39
 4.747917e+001 5.107816e+001 1.059398e+002 6.628991e+001 6.062620e+001 1.010903e+002 6.693800e+001 5.681517e+001 5.265185e+001 3.948793e+001 6.889619e+001 4.470961e+001 2.036681e+002 7.542076e-001 2.031931e+000 2.461011e+000 8.074541e-001 6.449578e-001 3.190063e+000 1.836313e+000 2.217824e+000 2.577955e+000 3.271646e+000 2.184057e+000 2.368297e+000 7.042961e-001 5.775325e-002 3.008716e-001 3.046404e-001 1.251463e-001 1.186989e-001 3.865016e-001 1.842954e-001 2.758799e-001 3.716400e-001 3.207192e-001 2.978423e-001 3.565770e-001 6.140841e-002
<GCONST> 1.124055e+002
<STATE> 3
<MEAN> 39
 -1.284495e+001 -3.453759e-001 -4.318232e+000 -6.205497e-001 -2.484173e+000 -8.867691e+000 -6.722465e-001 -1.674570e-002 -2.859511e+000 -6.545581e+000 2.161214e+000 -1.458365e-001 7.817598e+001 -4.044063e-002 4.218408e-002 2.440151e-002 -1.405069e-003 1.592852e-002 6.620970e-002 1.837242e-002 -1.366608e-002 3.589496e-002 4.442193e-002 -2.105799e-002 -9.951362e-003 -5.869433e-002 1.520225e-003 7.951407e-003 1.278394e-002 3.489357e-003 2.906424e-004 1.885035e-002 5.667473e-003 4.664874e-003 4.804510e-003 -2.242015e-002 -1.241865e-002 -1.754195e-002 7.105767e-004
<VARIANCE> 39
 3.281118e+001 2.429107e+001 3.559662e+001 2.472320e+001 3.973483e+001 9.740102e+001 5.181412e+001 3.170617e+001 4.924390e+001 5.260600e+001 3.111522e+001 2.104874e+001 5.083683e+001 5.068852e-001 7.926936e-001 9.317541e-001 8.565472e-001 1.294869e+000 2.324331e+000 1.430627e+000 1.807366e+000 1.800876e+000 1.877881e+000 1.422224e+000 1.259614e+000 2.816301e-001 5.000497e-002 1.105670e-001 1.036015e-001 1.197519e-001 1.864261e-001 3.151675e-001 2.586817e-001 3.166518e-001 3.112533e-001 2.737723e-001 2.180386e-001 2.053831e-001 2.854186e-002
<GCONST> 9.647614e+001
<STATE> 4
<MEAN> 39
 -1.635089e+001 -4.904078e-001 -6.536723e+000 2.985763e+000 -4.448871e+000 -8.091922e+000 -8.755595e+000 -4.484359e+000 -9.363909e+000 -7.264919e+000 -4.518042e+000 -3.577258e+000 4.022005e+001 -2.166579e-002 -2.727264e-003 -2.179486e-002 4.533485e-002 -1.432188e-002 4.669702e-002 3.218401e-002 -5.354160e-003 5.818031e-002 1.600040e-002 4.481851e-002 6.934464e-003 -6.579565e-002 5.888151e-003 2.140416e-003 5.716056e-003 -1.446328e-003 -1.031412e-002 2.273046e-003 -4.201395e-003 -4.878022e-004 1.775702e-002 -1.243006e-002 1.959956e-003 -2.324166e-003 7.717637e-003
<VARIANCE> 39
 9.175920e+000 7.874180e+000 1.417007e+001 1.773847e+001 2.520366e+001 2.257500e+001 2.784614e+001 2.403782e+001 2.750450e+001 2.321940e+001 2.274170e+001 1.259228e+001 6.237194e+001 1.725067e-001 4.050707e-001 8.780457e-001 1.450994e+000 1.779439e+000 1.680806e+000 2.467207e+000 1.797010e+000 2.215194e+000 2.058695e+000 1.882284e+000 1.327069e+000 7.327440e-002 3.276686e-002 8.181885e-002 1.747145e-001 3.095351e-001 3.839258e-001 3.753223e-001 5.227407e-001 3.547777e-001 4.675072e-001 4.298478e-001 3.883381e-001 2.742984e-001 1.327802e-002
<GCONST> 8.994262e+001
<TRANSP> 5
 0.000000e+000 1.000000e+000 0.000000e+000 0.000000e+000 0.000000e+000
 0.000000e+000 6.022940e-001 3.977060e-001 0.000000e+000 0.000000e+000
 0.000000e+000 0.000000e+000 9.259115e-001 7.408848e-002 0.000000e+000
 0.000000e+000 0.000000e+000 0.000000e+000 9.409735e-001 5.902651e-002
 0.000000e+000 0.000000e+000 0.000000e+000 0.000000e+000 0.000000e+000
<ENDHMM>
~h "f"
<BEGINHMM>
<NUMSTATES> 5
<STATE> 2
<MEAN> 39
 -2.086714e+001 3.090511e-001 -5.176123e+000 1.294454e+000 -1.602008e+000 -9.127552e+000 -4.362683e+000 -4.191591e+000 -6.263366e+000 -3.115068e+000 -6.309281e+000 -3.243091e+000 5.465999e+001 3.158035e-001 -4.024367e-002 2.655908e-001 7.151300e-001 -7.961745e-001 -4.180062e-001 -3.308627e-001 -1.033822e-001 2.232643e-002 -2.117604e-001 -6.714395e-002 2.010208e-001 -5.357789e-001 1.595436e-001 -1.815436e-001 7.818167e-002 -2.395537e-002 -6.115361e-002 2.141943e-001 -1.726691e-001 1.351629e-001 3.124832e-002 -1.713705e-001 1.586426e-001 -9.604454e-002 4.986270e-002
<VARIANCE> 39
 5.374066e+001 1.295297e+001 3.278870e+001 2.028943e+001 3.581210e+001 2.920386e+001 3.933894e+001 4.865990e+001 4.178987e+001 2.124797e+001 2.712222e+001 5.174033e+001 1.193676e+002 4.132493e+000 1.080423e+000 2.179294e+000 2.471824e+000 5.185655e+000 1.423428e+000 4.006872e+000 2.441907e+000 4.462911e+000 2.305099e+000 2.278200e+000 4.150136e+000 2.641818e+000 2.737161e-001 1.449288e-001 3.339565e-001 2.913636e-001 6.249884e-001 3.017157e-001 4.077365e-001 4.737473e-001 8.206536e-001 4.364717e-001 3.867059e-001 8.675552e-001 2.058889e-001
<GCONST> 1.184902e+002
<STATE> 3
<MEAN> 39
 -1.307655e+001 -1.290905e+000 -1.661440e+000 3.362306e+000 -9.375182e+000 -5.572498e+000 -9.424200e+000 -1.748525e+000 -6.808490e+000 -5.629167e+000 -2.159795e+000 -2.379799e+000 4.435920e+001 1.407125e-002 6.688711e-003 -1.422891e-001 1.077482e-001 9.790122e-002 1.722506e-001 4.106271e-002 1.738698e-001 -1.186621e-002 -6.567383e-002 1.560845e-001 9.418003e-002 -2.774317e-001 -7.918949e-002 1.578277e-002 -1.761428e-002 -4.426702e-002 1.273083e-001 -4.811133e-002 1.121903e-001 -1.787008e-004 3.252207e-002 4.455588e-002 -1.269801e-002 -2.377975e-003 5.051486e-002
<VARIANCE> 39
 1.722735e+001 1.117989e+001 8.125012e+001 1.261386e+001 4.205592e+001 2.551696e+001 2.671835e+001 2.971546e+001 2.235434e+001 2.858228e+001 3.507055e+001 1.506004e+001 1.067832e+002 5.575895e-001 8.408773e-001 9.094594e-001 1.263910e+000 1.926572e+000 2.907372e+000 2.582557e+000 2.735852e+000 1.747140e+000 3.033322e+000 1.883394e+000 1.358398e+000 7.713247e-001 1.430321e-001 1.668889e-001 1.580601e-001 2.530406e-001 3.218560e-001 6.836195e-001 6.084893e-001 6.132597e-001 4.298857e-001 7.036514e-001 3.407106e-001 2.216090e-001 1.077376e-001
<GCONST> 1.048718e+002
<STATE> 4
<MEAN> 39
 -8.923977e+000 -4.182328e+000 -5.293657e+000 7.017700e-001 -7.591294e-001 3.277236e+000 -3.653480e+000 1.018145e+001 4.890726e+000 3.928516e+000 -5.129849e-001 4.502929e-001 4.855078e+001 -1.489889e-001 -9.516086e-002 1.763639e-002 -1.675724e-002 1.529890e-001 -1.967064e-002 5.258237e-002 -4.344469e-002 6.893429e-002 2.059808e-002 4.351542e-002 3.988684e-002 1.402937e-001 5.901437e-002 2.660169e-002 -3.463886e-002 -3.292096e-002 -4.436674e-002 -1.219121e-002 -4.875648e-002 -2.990544e-002 -2.927921e-002 -4.963203e-003 -4.530976e-002 -2.333474e-002 1.735587e-002
<VARIANCE> 39
 4.640453e+001 3.492743e+001 2.188439e+001 3.236668e+001 4.089286e+001 1.916160e+001 6.777544e+001 2.809345e+001 3.329890e+001 3.155000e+001 3.187014e+001 3.197635e+001 6.417902e+001 1.489401e+000 1.766276e+000 1.011626e+000 1.322108e+000 1.450441e+000 1.045402e+000 2.314046e+000 1.769107e+000 1.878199e+000 1.536555e+000 1.746608e+000 1.269644e+000 8.952064e-001 2.672600e-001 2.783746e-001 1.842282e-001 2.386386e-001 2.366530e-001 2.091530e-001 3.778529e-001 3.528905e-001 3.388929e-001 2.809033e-001 2.757178e-001 2.285272e-001 1.047444e-001
<GCONST> 1.046052e+002
<TRANSP> 5
 0.000000e+000 1.000000e+000 0.000000e+000 0.000000e+000 0.000000e+000
 0.000000e+000 7.957956e-001 2.042045e-001 0.000000e+000 0.000000e+000
 0.000000e+000 0.000000e+000 9.018117e-001 9.818830e-002 0.000000e+000
 0.000000e+000 0.000000e+000 0.000000e+000 9.560349e-001 4.396511e-002
 0.000000e+000 0.000000e+000 0.000000e+000 0.000000e+000 0.000000e+000
<ENDHMM>
~h "g"
<BEGINHMM>
<NUMSTATES> 5
<STATE> 2
<MEAN> 39
 -4.527562e+000 -5.425343e+000 -4.973228e+000 5.838558e+000 -7.697385e+000 9.538261e+000 -5.867213e+000 -1.948134e+000 2.908957e+000 -1.128891e+000 7.213076e-001 4.156741e+000 6.075574e+001 -2.051972e-001 -4.532164e-002 -2.251799e-001 -1.197407e-001 -8.978336e-002 -1.593675e-001 -2.301910e-001 -4.441926e-001 -2.961197e-001 1.359103e-001 2.683176e-002 5.021481e-002 -2.163306e-001 2.018245e-002 -1.023246e-001 7.591557e-002 -1.475084e-002 -5.718354e-002 5.443533e-003 -1.422407e-002 7.037583e-002 1.739277e-002 -3.743337e-002 4.987097e-002 -7.684311e-002 9.342032e-002
<VARIANCE> 39
 4.145249e+001 2.538089e+001 2.824942e+001 5.829430e+001 4.339098e+001 8.957403e+001 6.098328e+001 6.254383e+001 4.210505e+001 2.368799e+001 2.061892e+001 4.517767e+001 7.368520e+001 2.310054e-001 5.815839e-001 4.981429e-001 9.266896e-001 1.039472e+000 9.671964e-001 1.326496e+000 1.446481e+000 1.540905e+000 1.497540e+000 1.522608e+000 1.269636e+000 2.764041e-001 2.808271e-002 1.258011e-001 1.110516e-001 2.054148e-001 2.513304e-001 1.735001e-001 2.978413e-001 2.606893e-001 2.423303e-001 2.640356e-001 2.671662e-001 2.682379e-001 4.085029e-002
<GCONST> 9.498498e+001
<STATE> 3
<MEAN> 39
 7.860938e-001 -1.352214e+001 -1.905647e+000 1.657578e+001 -3.655348e+000 6.276403e+000 -4.557624e+000 9.625836e-001 4.242373e+000 -9.040081e+000 -1.232887e-001 5.476126e+000 6.942085e+001 9.197536e-002 -1.411536e-001 1.315177e-001 1.873978e-001 1.009533e-001 5.961274e-002 4.649326e-002 2.013415e-001 3.259685e-002 -1.275130e-001 8.876766e-002 9.711734e-002 1.668337e-001 2.819517e-002 -5.217958e-002 -3.594240e-003 -1.560732e-001 -1.062593e-001 1.670726e-002 -5.978600e-002 -3.955516e-002 2.920071e-002 3.514442e-002 4.169837e-002 -9.399739e-003 7.319185e-002
<VARIANCE> 39
 9.132780e+001 1.300246e+002 9.412326e+001 2.062318e+002 9.997140e+001 1.174839e+002 7.726298e+001 8.843951e+001 4.960794e+001 1.140183e+002 5.756063e+001 9.111505e+001 1.181525e+002 1.557768e+000 5.953214e+000 3.697413e+000 6.481262e+000 4.871707e+000 4.894083e+000 3.559119e+000 3.715799e+000 2.479509e+000 4.993472e+000 3.415451e+000 3.289726e+000 1.987852e+000 1.910822e-001 1.019322e+000 5.376512e-001 9.299803e-001 8.877467e-001 9.892734e-001 6.962945e-001 7.134393e-001 4.893185e-001 7.696093e-001 5.082388e-001 6.190671e-001 3.306159e-001
<GCONST> 1.414925e+002
<STATE> 4
<MEAN> 39
 -6.530172e+000 -7.745938e+000 1.600547e+000 -4.017961e+000 -9.103115e+000 2.712265e+000 1.494352e-001 -1.088440e+000 2.601365e+000 -5.313612e+000 4.975869e+000 -2.166078e-001 6.743209e+001 9.293520e-001 -2.345430e-001 1.100004e+000 -7.017609e-001 -8.885549e-001 -2.085527e-001 -2.279317e-001 5.226284e-002 5.511122e-001 -3.925489e-001 1.566750e-001 -4.627657e-002 1.589448e+000 9.966166e-002 2.507390e-001 3.477418e-002 2.125046e-001 1.659798e-001 -1.940235e-001 -2.116095e-001 -1.198736e-001 2.766372e-001 6.374255e-002 -1.440920e-001 3.646219e-002 4.971092e-002
<VARIANCE> 39
 6.686462e+001 1.343407e+002 1.118726e+002 1.001440e+002 4.058409e+002 2.553488e+002 1.033581e+002 1.535041e+002 1.062184e+002 7.215616e+001 7.120176e+001 4.127194e+001 1.805531e+002 4.368655e+000 1.235662e+001 5.382666e+000 1.212896e+001 1.671803e+001 5.200748e+000 6.244241e+000 6.443035e+000 5.639974e+000 5.579309e+000 6.267004e+000 4.093616e+000 4.537251e+000 5.093722e-001 1.954216e+000 9.754526e-001 1.906090e+000 2.852673e+000 9.010658e-001 9.534059e-001 9.523582e-001 6.240087e-001 8.800079e-001 1.135934e+000 5.941289e-001 6.343988e-001
<GCONST> 1.579996e+002
<TRANSP> 5
 0.000000e+000 1.000000e+000 0.000000e+000 0.000000e+000 0.000000e+000
 0.000000e+000 7.920464e-001 2.079536e-001 0.000000e+000 0.000000e+000
 0.000000e+000 0.000000e+000 7.489856e-001 2.510144e-001 0.000000e+000
 0.000000e+000 0.000000e+000 0.000000e+000 6.699873e-001 3.300127e-001
 0.000000e+000 0.000000e+000 0.000000e+000 0.000000e+000 0.000000e+000
<ENDHMM>
~h "h"
<BEGINHMM>
<NUMSTATES> 5
<STATE> 2
<MEAN> 39
 -8.246873e+000 -4.486672e+000 -6.531597e+000 -7.837898e-001 -4.041601e-001 -3.553714e+000 4.347592e-001 3.357223e+000 -3.993893e+000 -6.252595e+000 -5.543550e-002 -1.772517e+000 7.095979e+001 -3.781698e-001 3.484430e-002 2.648350e-001 3.823514e-001 3.244683e-001 1.437248e-001 2.730275e-001 4.245859e-002 3.161115e-001 2.166762e-001 6.750055e-002 -4.677767e-002 -3.857226e-001 9.017224e-003 8.664412e-002 3.567877e-002 -4.037450e-002 4.879926e-003 1.373453e-002 -2.097273e-002 7.831869e-003 2.770180e-002 5.283688e-003 -2.308185e-002 -1.047943e-003 -4.967644e-003
<VARIANCE> 39
 2.833695e+001 3.458861e+001 3.323168e+001 3.949542e+001 4.572195e+001 7.683946e+001 6.771730e+001 4.233518e+001 3.665653e+001 3.620367e+001 4.814947e+001 2.518639e+001 1.901837e+002 2.753542e-001 1.177752e+000 8.639120e-001 1.096779e+000 1.212926e+000 1.765669e+000 1.637631e+000 1.485983e+000 1.410476e+000 1.603130e+000 1.632446e+000 1.223634e+000 3.709243e-001 3.252885e-002 1.480845e-001 1.277766e-001 2.131446e-001 2.121980e-001 3.219386e-001 2.660813e-001 2.609660e-001 2.378412e-001 2.826266e-001 2.537352e-001 2.263902e-001 3.255424e-002
<GCONST> 9.912473e+001
<STATE> 3
<MEAN> 39
 -1.035867e+001 -2.198122e+000 -3.502730e+000 3.186054e+000 -2.568031e+000 2.628283e+000 -1.090647e+000 1.434016e+000 3.023859e+000 1.156212e+000 1.493860e+000 1.378516e+000 5.973928e+001 -5.829209e-002 1.115230e-001 7.651954e-002 4.831271e-002 -6.512316e-002 1.095321e-002 4.394216e-002 -2.015535e-002 5.171430e-002 9.110738e-002 3.628729e-002 1.494747e-002 -1.243447e-001 2.502649e-002 -4.327754e-003 -2.132155e-002 -8.254420e-003 -5.059332e-003 4.327542e-003 9.143221e-003 -1.144037e-002 -3.317192e-002 -3.816874e-002 -4.023191e-003 1.765803e-002 2.569185e-002
<VARIANCE> 39
 2.446800e+001 2.629792e+001 2.179313e+001 2.573786e+001 5.052396e+001 4.092189e+001 3.935470e+001 3.247470e+001 1.961495e+001 1.912656e+001 2.007727e+001 2.257313e+001 1.225467e+002 1.117947e-001 2.625780e-001 3.470062e-001 4.903648e-001 5.428448e-001 7.903461e-001 1.191944e+000 1.098564e+000 1.228130e+000 1.002563e+000 1.107678e+000 9.168745e-001 8.757253e-002 1.888884e-002 5.119023e-002 6.633297e-002 9.775127e-002 1.085037e-001 1.524246e-001 2.171795e-001 2.056405e-001 2.315569e-001 1.669174e-001 2.253796e-001 1.869708e-001 1.035011e-002
<GCONST> 7.784411e+001
<STATE> 4
<MEAN> 39
 -1.019123e+001 -1.327148e+000 -4.430548e+000 4.025258e+000 -1.857333e+000 4.487200e+000 1.465539e+000 6.774738e+000 3.156779e+000 2.887669e+000 1.132985e+000 1.708197e+000 4.653855e+001 -3.690982e-002 1.674676e-001 -3.365450e-003 1.856046e-001 -3.416811e-002 -1.160439e-002 7.898547e-002 -5.062737e-002 -2.215964e-002 8.974886e-003 6.269784e-002 3.229972e-002 -1.195740e-001 1.020497e-002 -4.384346e-002 2.998335e-002 -1.045373e-002 6.906551e-003 -7.948270e-002 -4.752607e-002 -6.167674e-003 -2.204016e-002 -4.328598e-002 1.284160e-003 9.781182e-003 6.681211e-002
<VARIANCE> 39
 8.340767e+000 1.602710e+001 1.395465e+001 2.930088e+001 2.560253e+001 3.628533e+001 2.590969e+001 4.113861e+001 2.250298e+001 3.021478e+001 1.959064e+001 1.920653e+001 9.490817e+001 1.814587e-001 4.886087e-001 5.601966e-001 1.136209e+000 7.496822e-001 1.295374e+000 1.123540e+000 1.537650e+000 1.150819e+000 2.127494e+000 1.546141e+000 1.179970e+000 2.019025e-001 5.643803e-002 8.757585e-002 1.222351e-001 2.389771e-001 1.633299e-001 2.768031e-001 2.042857e-001 3.483482e-001 2.653076e-001 4.687434e-001 3.296429e-001 2.331222e-001 5.533064e-002
<GCONST> 8.880916e+001
<TRANSP> 5
 0.000000e+000 1.000000e+000 0.000000e+000 0.000000e+000 0.000000e+000
 0.000000e+000 7.911820e-001 2.088180e-001 0.000000e+000 0.000000e+000
 0.000000e+000 0.000000e+000 8.654684e-001 1.345316e-001 0.000000e+000
 0.000000e+000 0.000000e+000 0.000000e+000 8.258741e-001 1.741258e-001
 0.000000e+000 0.000000e+000 0.000000e+000 0.000000e+000 0.000000e+000
<ENDHMM>
~h "i"
<BEGINHMM>
<NUMSTATES> 5
<STATE> 2
<MEAN> 39
 -1.239659e+001 -4.728996e+000 3.844863e+000 -5.197788e+000 -4.527817e+000 -6.680103e+000 -7.283275e+000 -4.766625e+000 -3.441178e+000 -4.464352e+000 -9.859396e-001 -5.122527e+000 6.276000e+001 3.500171e-001 -2.273381e-001 1.468765e+000 -4.340871e-001 -8.098969e-001 -3.187527e-001 -9.192321e-001 -2.384773e-001 -8.075018e-001 -1.179204e-001 2.606767e-001 -4.479649e-001 1.177069e+000 3.074174e-002 7.639247e-003 4.726931e-002 -6.464445e-002 -4.116927e-003 5.695854e-002 -5.944560e-002 3.778180e-002 -4.752403e-002 5.113423e-003 -3.302876e-003 -3.032787e-002 1.698019e-002
<VARIANCE> 39
 7.096938e+001 8.822469e+001 1.172403e+002 1.683073e+002 1.554835e+002 1.010779e+002 1.317214e+002 7.984638e+001 9.454688e+001 5.741488e+001 5.756709e+001 5.399296e+001 1.996532e+002 3.160239e+000 2.926642e+000 7.383316e+000 6.464278e+000 6.003966e+000 3.949747e+000 6.353916e+000 4.490707e+000 5.873226e+000 3.641442e+000 3.488632e+000 2.844240e+000 6.098426e+000 5.089715e-001 4.005281e-001 1.070161e+000 8.349825e-001 9.488017e-001 7.027564e-001 1.086800e+000 7.752103e-001 9.917809e-001 5.791703e-001 6.172720e-001 4.600640e-001 7.970297e-001
<GCONST> 1.466235e+002
<STATE> 3
<MEAN> 39
 -4.391710e+000 -9.970511e+000 7.578934e+000 2.830736e+000 6.243488e-001 -5.323734e+000 -7.776607e+000 -2.937305e+000 1.105272e+000 -7.771634e+000 1.505621e+000 -5.947965e+000 7.428085e+001 -8.542345e-002 3.424663e-001 -5.446173e-003 -1.865140e-001 -1.219209e-001 2.193706e-001 -4.602199e-002 -1.468822e-001 -1.324598e-001 5.988254e-002 -1.042314e-001 7.411215e-002 -2.902602e-001 -3.925340e-002 8.936191e-002 -1.412468e-001 -2.344912e-002 3.089500e-002 6.740020e-002 1.171703e-001 -4.608439e-002 2.821791e-002 2.669071e-002 1.849265e-002 8.750317e-002 -1.090526e-001
<VARIANCE> 39
 4.767675e+001 7.406974e+001 1.174401e+002 6.122419e+002 1.684282e+002 2.179284e+002 1.267861e+002 1.402358e+002 1.183688e+002 6.239075e+001 5.547213e+001 3.667189e+001 7.980025e+001 4.260160e-001 1.374356e+000 2.129807e+000 2.960117e+000 2.618920e+000 2.617153e+000 2.475062e+000 2.677236e+000 2.348111e+000 2.066219e+000 2.148000e+000 1.636378e+000 7.220969e-001 9.347959e-002 1.859683e-001 2.927218e-001 4.001923e-001 4.546188e-001 4.579208e-001 4.412171e-001 4.923827e-001 4.350308e-001 3.999061e-001 4.011798e-001 2.399290e-001 8.185907e-002
<GCONST> 1.239785e+002
<STATE> 4
<MEAN> 39
 -1.121114e+001 6.907406e-001 1.331602e+001 -1.011727e+001 -1.496525e+001 -8.924676e+000 -1.556272e+001 -8.592938e+000 -1.522009e+001 -3.892729e+000 3.118305e-001 -7.228453e+000 6.263005e+001 -3.374343e-002 1.934803e-002 -5.911103e-001 4.426157e-001 3.786668e-001 4.427082e-002 3.201084e-001 9.958120e-002 2.333367e-001 -1.263186e-002 -1.032752e-001 2.933927e-001 -6.501251e-001 -1.256973e-002 -2.789779e-002 -1.074528e-001 9.036335e-002 6.422552e-002 -3.203074e-002 7.461928e-002 4.067387e-002 6.249319e-002 -3.000348e-003 1.345206e-002 5.509964e-002 -2.410206e-002
<VARIANCE> 39
 2.944452e+001 2.839686e+001 1.244631e+002 1.227535e+002 1.035664e+002 1.034317e+002 1.145289e+002 8.570642e+001 1.119882e+002 5.218655e+001 3.855634e+001 5.134037e+001 1.355959e+002 6.393079e-001 1.015111e+000 2.560068e+000 3.191734e+000 2.964156e+000 2.400352e+000 3.052566e+000 3.231394e+000 2.205375e+000 2.304651e+000 1.747325e+000 1.845573e+000 1.354683e+000 9.131761e-002 1.363000e-001 2.620629e-001 3.969586e-001 4.497187e-001 3.596264e-001 4.704318e-001 5.197179e-001 3.541439e-001 3.658720e-001 3.196942e-001 2.934013e-001 1.216306e-001
<GCONST> 1.203075e+002
<TRANSP> 5
 0.000000e+000 1.000000e+000 0.000000e+000 0.000000e+000 0.000000e+000
 0.000000e+000 7.493276e-001 2.506724e-001 0.000000e+000 0.000000e+000
 0.000000e+000 0.000000e+000 6.824778e-001 3.175222e-001 0.000000e+000
 0.000000e+000 0.000000e+000 0.000000e+000 8.356795e-001 1.643205e-001
 0.000000e+000 0.000000e+000 0.000000e+000 0.000000e+000 0.000000e+000
<ENDHMM>
~h "j"
<BEGINHMM>
<NUMSTATES> 5
<STATE> 2
<MEAN> 39
 -1.048575e+001 -5.136313e+000 -1.139649e+000 -4.409060e+000 -4.534830e-001 -1.147258e+001 -4.222766e+000 -8.130309e+000 -1.534994e+000 -9.388202e+000 -2.388921e+000 -6.197524e+000 6.281911e+001 -3.349520e-001 8.678039e-002 -1.534290e-001 -1.462117e-001 1.806674e-001 -2.983071e-001 6.585937e-001 2.802579e-001 7.373076e-001 1.553268e-001 8.635498e-002 3.317187e-001 7.439272e-001 -2.156733e-001 2.124690e-001 5.902254e-002 -6.419373e-002 -1.144833e-001 7.426020e-002 2.399000e-002 2.566140e-001 -1.035122e-001 4.348283e-002 1.926584e-001 1.343966e-001 5.336317e-002
<VARIANCE> 39
 3.618605e+001 4.215725e+001 2.773360e+001 1.337868e+002 7.092937e+001 1.867162e+002 3.124918e+001 7.339616e+001 3.742278e+001 7.354343e+001 7.063406e+001 3.161406e+001 2.406742e+002 1.394109e+000 4.527880e+000 2.554003e+000 7.937813e+000 5.273285e+000 4.498252e+000 4.953272e+000 2.358555e+000 3.652739e+000 2.268054e+000 5.201160e+000 3.074959e+000 1.097174e+001 4.339419e-001 6.038851e-001 5.105850e-001 1.059430e+000 1.220885e+000 6.725368e-001 8.309882e-001 4.238302e-001 4.670706e-001 3.120905e-001 9.802258e-001 4.733274e-001 1.571225e+000
<GCONST> 1.378920e+002
<STATE> 3
<MEAN> 39
 -1.468809e+001 1.580622e+000 3.706817e-001 -9.239198e-001 -4.535212e+000 -6.163883e+000 -3.710813e+000 -1.592335e+000 2.271111e-002 -4.528446e+000 2.359861e+000 1.526629e+000 6.632797e+001 3.239837e-001 -7.191792e-001 -1.687163e-001 -1.216056e+000 -6.735567e-001 -1.058017e+000 -2.567026e-001 5.959523e-001 2.917592e-001 -3.671838e-001 5.308647e-001 1.265403e-001 1.206930e+000 3.088536e-001 -2.294060e-001 -9.072214e-002 -1.098380e-001 5.235541e-002 1.654142e-002 -1.165004e-001 -1.072728e-001 -1.737461e-001 -1.136293e-001 -2.749614e-001 -3.707648e-001 -6.068769e-002
<VARIANCE> 39
 1.632117e+002 5.365267e+001 5.591755e+001 1.439113e+002 6.275275e+001 1.638493e+002 5.127789e+001 7.609977e+001 8.015506e+001 5.038757e+001 5.296555e+001 3.109899e+001 2.153100e+002 1.165349e+001 3.904579e+000 5.606327e+000 5.454321e+000 6.263676e+000 6.251014e+000 7.263500e+000 4.407544e+000 3.219929e+000 4.281138e+000 2.571507e+000 5.787230e+000 4.897151e+000 1.838715e+000 4.937616e-001 1.074396e+000 8.586635e-001 1.294699e+000 1.311737e+000 1.239791e+000 7.637396e-001 6.394790e-001 7.102664e-001 3.462773e-001 5.674762e-001 3.758396e-001
<GCONST> 1.465249e+002
<STATE> 4
<MEAN> 39
 -7.031721e+000 -6.012071e+000 4.139481e+000 -1.293245e+001 1.543975e+001 -1.619500e+001 1.375392e+001 -1.413889e+001 1.106881e+001 -8.755111e+000 1.283372e+001 -3.096612e+000 7.454224e+001 -2.314775e-002 1.915789e-002 1.167085e-002 -3.078532e-002 1.617482e-002 7.286950e-002 4.308102e-002 5.111870e-002 3.128037e-002 -1.562348e-002 -4.975912e-002 -3.067451e-003 -9.126902e-002 -9.466043e-003 1.247559e-002 1.225838e-002 1.104387e-002 3.249474e-003 3.112840e-003 -4.464392e-003 -8.759006e-003 -5.490003e-003 1.579416e-003 -3.665785e-003 3.585423e-003 -6.801657e-003
<VARIANCE> 39
 2.422569e+001 1.247302e+001 2.274482e+001 3.047046e+001 4.688072e+001 3.825402e+001 3.535603e+001 2.651905e+001 4.468626e+001 2.942565e+001 3.240385e+001 1.708539e+001 6.232845e+001 3.481413e-001 5.032661e-001 6.545807e-001 8.175137e-001 1.205335e+000 1.095382e+000 1.400693e+000 9.745250e-001 1.248832e+000 1.081653e+000 1.338878e+000 1.006800e+000 5.252214e-001 5.073966e-002 7.486419e-002 1.112765e-001 1.324313e-001 2.028303e-001 1.722184e-001 2.580478e-001 1.793586e-001 2.079948e-001 1.973809e-001 2.484761e-001 1.944254e-001 4.561790e-002
<GCONST> 8.854395e+001
<TRANSP> 5
 0.000000e+000 1.000000e+000 0.000000e+000 0.000000e+000 0.000000e+000
 0.000000e+000 6.184766e-001 3.815234e-001 0.000000e+000 0.000000e+000
 0.000000e+000 0.000000e+000 7.393468e-001 2.606532e-001 0.000000e+000
 0.000000e+000 0.000000e+000 0.000000e+000 9.772011e-001 2.279884e-002
 0.000000e+000 0.000000e+000 0.000000e+000 0.000000e+000 0.000000e+000
<ENDHMM>
~h "k"
<BEGINHMM>
<NUMSTATES> 5
<STATE> 2
<MEAN> 39
 -1.334505e+001 -6.736998e-001 -4.654874e+000 2.187620e+000 -5.040205e+000 -2.744071e+000 -5.388501e+000 -2.563332e+000 -3.906368e+000 -4.811960e+000 -1.816245e+000 -1.531370e+000 5.076465e+001 -1.107262e-001 -1.628245e-001 -3.565798e-001 5.259722e-002 2.827513e-001 -1.491452e-001 4.378833e-002 -1.957254e-002 -3.241139e-001 1.305345e-002 1.368602e-001 2.994246e-001 -9.317201e-003 8.521414e-002 -2.294442e-001 -1.064696e-002 -1.659752e-001 -8.654949e-002 -1.670685e-001 -2.010859e-002 -3.466940e-002 -3.957219e-002 -5.832391e-002 1.038501e-001 -6.631880e-003 4.254326e-001
<VARIANCE> 39
 4.302197e+001 1.290117e+001 2.626772e+001 2.842767e+001 5.139310e+001 1.001175e+002 6.291980e+001 4.693490e+001 7.135956e+001 3.313627e+001 3.162049e+001 2.385245e+001 2.388027e+002 7.464710e-001 1.121383e+000 1.452085e+000 1.428942e+000 2.078838e+000 2.052051e+000 2.286844e+000 2.620953e+000 2.740157e+000 2.437685e+000 1.807436e+000 1.286613e+000 1.303443e+000 1.841176e-001 3.432384e-001 4.085026e-001 4.226753e-001 5.448653e-001 5.189744e-001 4.768467e-001 5.688910e-001 5.879065e-001 6.300954e-001 3.958472e-001 3.254816e-001 4.417700e-001
<GCONST> 1.168747e+002
<STATE> 3
<MEAN> 39
 -5.972938e+000 -1.014228e+001 -1.261480e+000 2.413806e+000 -1.182326e+001 5.383154e+000 -1.806914e+000 1.738111e+000 9.996535e-001 -6.796859e+000 3.435952e+000 2.367869e+000 6.661734e+001 1.183832e+000 -1.472078e+000 8.403036e-002 -5.953400e-001 -6.150654e-001 -8.494397e-001 4.341088e-002 3.156472e-001 3.297315e-001 -5.878743e-001 3.722684e-001 -3.184715e-001 2.741056e+000 3.390236e-001 1.607097e-001 -1.075632e-001 -2.730603e-001 9.137059e-002 -1.062156e-001 -2.220871e-001 -4.048237e-003 2.421487e-001 5.815906e-002 -1.282136e-001 -2.108392e-001 2.094146e-001
<VARIANCE> 39
 1.204225e+002 1.145462e+002 5.947484e+001 7.546189e+001 1.928931e+002 2.607363e+002 7.697594e+001 7.175939e+001 1.094108e+002 8.328613e+001 4.352543e+001 3.956539e+001 1.764338e+002 3.772542e+000 9.122642e+000 5.825240e+000 1.218912e+001 1.150586e+001 8.270700e+000 7.888053e+000 6.313822e+000 6.783937e+000 8.299379e+000 3.958284e+000 3.383114e+000 5.901716e+000 5.565962e-001 1.796400e+000 7.840129e-001 2.037928e+000 2.057849e+000 1.415392e+000 1.596501e+000 1.091016e+000 1.066622e+000 1.358858e+000 7.215228e-001 5.480304e-001 9.645687e-001
<GCONST> 1.569677e+002
<STATE> 4
<MEAN> 39
 -9.962883e+000 -7.736756e+000 -3.270976e+000 -1.374286e+001 -2.555622e+000 -9.734219e+000 -1.140342e+001 -6.119111e+000 -6.082489e+000 -4.314092e+000 -4.406191e+000 -8.653358e+000 6.462203e+001 1.561417e-001 -2.865497e-002 -4.744561e-003 -2.064089e-001 -7.229060e-002 -1.195656e-001 -1.242200e-001 -1.682684e-001 5.884867e-002 -7.371052e-002 -3.378959e-002 -1.087882e-001 2.571057e-001 -5.194224e-002 2.652183e-002 -1.378503e-002 8.593944e-002 -3.807892e-002 2.627452e-002 4.728491e-002 9.284811e-003 -4.128279e-003 -1.670357e-002 -1.110803e-002 5.541753e-002 -1.029903e-001
<VARIANCE> 39
 5.580019e+001 8.951897e+001 7.897446e+001 1.994171e+002 1.169000e+002 7.830380e+001 7.612482e+001 8.097240e+001 8.982616e+001 4.464571e+001 5.204209e+001 5.404193e+001 2.296621e+002 2.532263e+000 3.720403e+000 4.070278e+000 8.321337e+000 4.551051e+000 3.165285e+000 4.068670e+000 4.872666e+000 4.287047e+000 2.925331e+000 3.071878e+000 2.715778e+000 6.602503e+000 3.471735e-001 4.435918e-001 6.624135e-001 9.953117e-001 6.990981e-001 4.826705e-001 7.231563e-001 8.359979e-001 6.560353e-001 5.175809e-001 5.279878e-001 4.514830e-001 5.968667e-001
<GCONST> 1.404322e+002
<TRANSP> 5
 0.000000e+000 1.000000e+000 0.000000e+000 0.000000e+000 0.000000e+000
 0.000000e+000 6.964015e-001 3.035986e-001 0.000000e+000 0.000000e+000
 0.000000e+000 0.000000e+000 6.313550e-001 3.686450e-001 0.000000e+000
 0.000000e+000 0.000000e+000 0.000000e+000 8.980586e-001 1.019415e-001
 0.000000e+000 0.000000e+000 0.000000e+000 0.000000e+000 0.000000e+000
<ENDHMM>
~h "l"
<BEGINHMM>
<NUMSTATES> 5
<STATE> 2
<MEAN> 39
 -3.569805e+000 -6.879074e+000 -2.321991e+000 -6.987455e+000 1.136876e+000 -6.914651e+000 -4.172539e+000 -5.057822e+000 1.233705e+000 -5.710698e+000 3.184615e+000 -1.313518e+000 7.203712e+001 8.539797e-002 -2.269749e-001 -2.480417e-001 -1.559783e-001 -2.682004e-001 1.651653e-001 3.702743e-001 1.033747e-001 1.980668e-002 3.290645e-001 -1.161978e-001 6.719998e-002 4.036085e-003 -3.634948e-002 7.380244e-002 1.557484e-001 5.565749e-002 2.895578e-002 4.747781e-002 -4.579613e-003 -1.437880e-001 7.004361e-002 3.807325e-002 -6.655238e-002 1.953253e-002 -7.699516e-002
<VARIANCE> 39
 5.875513e+001 4.734303e+001 6.184497e+001 2.015481e+002 1.757136e+002 2.153029e+002 1.421765e+002 1.772878e+002 8.838615e+001 7.633840e+001 1.107490e+002 4.134478e+001 2.082338e+002 3.373936e-001 9.158925e-001 1.121848e+000 1.684610e+000 1.327875e+000 2.223222e+000 3.101031e+000 2.716791e+000 2.151726e+000 1.634161e+000 1.510959e+000 1.675917e+000 4.893232e-001 6.795423e-002 1.581419e-001 2.314830e-001 2.705951e-001 3.152021e-001 4.367893e-001 4.339752e-001 4.198574e-001 4.300103e-001 2.905450e-001 3.119114e-001 3.045813e-001 8.951326e-002
<GCONST> 1.186106e+002
<STATE> 3
<MEAN> 39
 -2.700429e+000 -5.352266e+000 -6.467426e+000 -3.544751e+000 -7.657183e+000 -1.444570e+000 -7.003765e+000 1.550044e+000 -5.131642e-001 -4.627923e+000 -3.925262e-001 1.522740e+000 6.854936e+001 -4.038745e-002 6.808461e-002 1.193533e-001 6.325980e-002 -7.086889e-002 7.967505e-002 2.523276e-002 -1.262229e-001 1.527518e-001 1.844922e-001 2.404671e-003 -4.897456e-002 -1.179032e-001 -2.091879e-002 3.495904e-002 6.146618e-002 3.161586e-002 1.351613e-002 -6.638099e-003 -5.214445e-002 -3.857858e-002 1.152207e-002 -1.565414e-003 -1.630812e-002 -2.693298e-002 -1.976855e-002
<VARIANCE> 39
 5.344270e+001 4.967873e+001 5.846021e+001 1.786839e+002 4.831276e+001 1.719065e+002 1.136180e+002 8.822858e+001 7.415427e+001 9.139681e+001 4.794408e+001 3.857540e+001 1.854722e+002 1.259631e-001 5.576425e-001 6.285117e-001 8.823036e-001 8.198622e-001 1.285027e+000 1.203646e+000 1.327337e+000 1.242952e+000 1.276438e+000 1.245498e+000 1.058112e+000 1.385544e-001 2.309403e-002 7.708879e-002 8.796021e-002 1.487013e-001 1.305247e-001 2.356835e-001 2.033576e-001 2.243348e-001 2.112073e-001 2.232235e-001 2.200366e-001 1.931457e-001 1.862450e-002
<GCONST> 9.722347e+001
<STATE> 4
<MEAN> 39
 -6.767574e+000 -4.411442e+000 7.068786e+000 -1.170300e+001 1.330908e+001 -1.462814e+001 1.328538e+001 -1.330356e+001 1.161737e+001 -9.182048e+000 1.115391e+001 -3.578345e+000 7.384435e+001 -8.491541e-002 3.680145e-002 2.988680e-002 6.411231e-002 5.775021e-002 8.731231e-002 3.169882e-002 3.946532e-002 1.023583e-001 5.646557e-002 -2.421428e-002 -3.649842e-002 -1.453544e-001 -9.825614e-004 3.104639e-003 5.653028e-003 8.265647e-003 8.624770e-003 -3.618664e-003 -1.298880e-002 -5.795802e-003 -8.366968e-003 -1.143853e-002 -6.612845e-003 -4.833385e-003 7.016988e-003
<VARIANCE> 39
 3.449450e+001 2.241212e+001 3.512668e+001 4.088328e+001 6.054597e+001 5.226347e+001 6.411406e+001 3.785501e+001 5.003067e+001 3.110984e+001 3.164438e+001 2.150668e+001 6.102878e+001 2.545206e-001 6.344867e-001 7.135116e-001 9.073211e-001 1.007917e+000 1.051914e+000 1.257850e+000 1.139623e+000 1.327187e+000 1.364199e+000 1.247415e+000 1.014368e+000 3.611647e-001 3.483798e-002 9.667946e-002 1.086382e-001 1.497884e-001 1.654132e-001 1.806305e-001 2.148660e-001 2.135432e-001 2.400312e-001 2.544302e-001 2.182108e-001 1.873425e-001 3.796858e-002
<GCONST> 9.173911e+001
<TRANSP> 5
 0.000000e+000 1.000000e+000 0.000000e+000 0.000000e+000 0.000000e+000
 0.000000e+000 2.844719e-001 7.155282e-001 0.000000e+000 0.000000e+000
 0.000000e+000 0.000000e+000 7.651170e-001 2.348830e-001 0.000000e+000
 0.000000e+000 0.000000e+000 0.000000e+000 9.334763e-001 6.652376e-002
 0.000000e+000 0.000000e+000 0.000000e+000 0.000000e+000 0.000000e+000
<ENDHMM>
~h "m"
<BEGINHMM>
<NUMSTATES> 5
<STATE> 2
<MEAN> 39
 -8.281781e+000 -1.052110e+000 -1.271908e+000 1.815661e-001 -2.326390e+000 -1.698124e+000 -2.481446e+000 -3.783745e-001 -8.975397e-001 -4.327190e+000 -3.924082e-002 -2.183040e+000 6.830234e+001 -2.848354e-001 2.489404e-001 1.917761e-001 2.327144e-001 2.005422e-001 3.862360e-001 1.433374e-001 -2.166896e-001 7.876621e-002 1.867459e-001 -5.616000e-002 -5.697466e-002 -4.221452e-001 2.542728e-003 -3.555224e-002 -3.683436e-002 -9.824160e-002 1.669875e-003 -4.646631e-002 3.846378e-002 8.446390e-004 3.930742e-002 -3.253078e-002 -2.813262e-002 1.579306e-002 4.065517e-002
<VARIANCE> 39
 5.269118e+001 3.202939e+001 3.797724e+001 7.675024e+001 6.343026e+001 9.394556e+001 7.432327e+001 6.991113e+001 6.040302e+001 4.210807e+001 4.243693e+001 2.959904e+001 1.666446e+002 2.710219e-001 6.374707e-001 9.188297e-001 1.084592e+000 1.090123e+000 1.448728e+000 1.436342e+000 1.866385e+000 1.549855e+000 1.083341e+000 1.059080e+000 1.344501e+000 3.440395e-001 3.341983e-002 8.655398e-002 1.229590e-001 2.077611e-001 1.931354e-001 2.600257e-001 2.150701e-001 3.618888e-001 2.390515e-001 2.256825e-001 2.153888e-001 2.181296e-001 3.642245e-002
<GCONST> 9.956786e+001
<STATE> 3
<MEAN> 39
 -6.246019e+000 -2.932251e+000 2.326119e-001 -1.582595e+000 -1.062231e+000 -2.879246e+000 -2.332614e+000 -4.028109e+000 3.661475e-001 -4.652089e+000 1.842720e+000 -9.835615e-001 6.624267e+001 -2.034968e-001 1.876949e-001 -2.238688e-001 -2.618546e-001 2.758542e-002 3.197060e-001 2.443093e-001 -1.084844e-001 -5.476904e-002 6.631976e-002 -4.743652e-002 6.973866e-002 -4.492963e-001 -1.302730e-003 -5.676293e-002 -5.554138e-002 -1.045786e-001 1.745506e-002 -4.508223e-002 -3.719059e-002 4.054954e-002 5.892307e-002 -1.865689e-002 -3.009034e-003 7.465861e-003 3.831404e-002
<VARIANCE> 39
 7.652918e+001 4.061617e+001 4.878073e+001 1.633321e+002 1.156580e+002 1.796004e+002 1.265785e+002 1.328741e+002 1.555660e+002 5.515049e+001 7.778962e+001 4.696250e+001 1.941773e+002 3.458050e-001 8.022883e-001 9.496193e-001 1.234996e+000 1.300340e+000 1.366043e+000 2.087438e+000 1.504975e+000 1.709225e+000 1.674862e+000 1.385977e+000 1.849918e+000 5.201399e-001 3.782841e-002 1.136960e-001 1.714499e-001 2.386424e-001 1.774867e-001 2.819332e-001 3.666832e-001 4.198467e-001 3.208386e-001 2.336862e-001 2.634092e-001 3.389988e-001 4.988841e-002
<GCONST> 1.113236e+002
<STATE> 4
<MEAN> 39
 -1.272286e+001 -1.514303e+000 -4.123712e+000 4.385655e-001 -3.339386e+000 -4.776409e+000 -7.040318e+000 -2.676245e+000 -5.213377e+000 -5.969751e+000 -2.300659e+000 -2.764473e+000 4.941270e+001 -5.515528e-002 -4.451741e-002 -1.683937e-001 -7.066288e-002 -9.000729e-003 1.141992e-001 4.274218e-002 -2.619612e-002 8.437303e-003 2.612081e-002 3.645109e-002 4.730237e-002 -1.588651e-001 3.594951e-002 -1.112749e-002 2.009832e-002 1.970696e-002 -3.394809e-002 -1.570180e-002 1.341245e-002 1.506036e-002 3.728455e-002 5.392085e-003 3.154943e-003 1.120379e-002 5.044056e-002
<VARIANCE> 39
 4.784151e+001 2.569459e+001 3.692187e+001 6.933953e+001 5.790071e+001 8.046046e+001 6.687352e+001 6.501870e+001 7.429150e+001 3.776236e+001 4.128780e+001 2.587663e+001 2.603833e+002 3.284146e-001 6.820775e-001 1.120236e+000 1.125701e+000 2.104462e+000 2.184624e+000 2.361917e+000 2.329770e+000 1.634959e+000 2.446292e+000 1.749689e+000 1.444503e+000 4.032901e-001 5.090902e-002 1.224183e-001 2.174092e-001 2.742141e-001 4.125604e-001 4.255534e-001 5.830294e-001 5.129939e-001 3.835513e-001 4.891365e-001 2.985328e-001 2.973011e-001 7.064825e-002
<GCONST> 1.097205e+002
<TRANSP> 5
 0.000000e+000 1.000000e+000 0.000000e+000 0.000000e+000 0.000000e+000
 0.000000e+000 5.951431e-001 4.048569e-001 0.000000e+000 0.000000e+000
 0.000000e+000 0.000000e+000 3.387829e-001 6.612172e-001 0.000000e+000
 0.000000e+000 0.000000e+000 0.000000e+000 6.399724e-001 3.600275e-001
 0.000000e+000 0.000000e+000 0.000000e+000 0.000000e+000 0.000000e+000
<ENDHMM>
~h "n"
<BEGINHMM>
<NUMSTATES> 5
<STATE> 2
<MEAN> 39
 5.551440e+000 -1.384458e+001 -2.928371e+000 1.123801e+001 -7.753490e+000 1.163711e+001 -2.096797e+000 1.570605e+000 7.281516e+000 -7.890141e+000 4.237582e+000 5.112889e+000 7.486314e+001 3.145508e-002 -7.489420e-002 -3.856662e-002 1.915555e-001 7.633726e-002 1.320134e-001 1.352209e-001 7.177500e-002 -1.900870e-002 1.013488e-001 1.045758e-001 -2.005081e-002 -1.021285e-002 -3.396690e-002 2.992340e-002 3.041958e-002 1.746293e-002 3.418534e-002 2.731257e-002 -4.084616e-003 2.175881e-002 1.295884e-003 4.605041e-002 -6.619886e-002 -7.404740e-002 -3.469618e-002
<VARIANCE> 39
 8.214283e+001 8.736366e+001 8.468550e+001 1.397607e+002 1.000380e+002 1.752791e+002 8.342950e+001 6.750521e+001 7.916997e+001 4.035353e+001 7.582378e+001 6.588983e+001 8.152676e+001 1.159701e+000 3.553126e+000 3.630698e+000 2.952617e+000 3.981483e+000 4.773202e+000 3.179073e+000 2.661408e+000 3.622833e+000 3.017121e+000 4.143738e+000 3.278766e+000 1.536864e+000 1.478320e-001 5.156115e-001 4.722457e-001 3.757094e-001 5.944354e-001 6.685582e-001 5.546020e-001 4.824140e-001 6.210358e-001 5.319194e-001 6.677422e-001 5.139697e-001 1.660959e-001
<GCONST> 1.331112e+002
<STATE> 3
<MEAN> 39
 1.545565e+000 -7.125692e+000 -3.324218e+000 1.000930e+001 -6.394676e+000 1.431988e+001 8.464584e-001 2.224987e+000 7.008047e+000 -2.680936e+000 7.349609e-001 3.162918e+000 6.778265e+001 -5.298942e-001 2.818600e-001 5.426911e-002 -1.356877e-001 -2.340274e-002 4.834374e-002 -1.206045e-001 -1.376768e-001 -2.161959e-001 1.793702e-001 -1.897236e-001 1.195192e-002 -5.904962e-001 2.676870e-003 -4.078826e-002 -1.372384e-004 -3.657457e-002 -3.190576e-002 -6.923430e-002 -4.915959e-002 -1.750625e-002 -3.802831e-002 -7.463673e-002 4.070581e-002 2.433111e-002 2.986553e-002
<VARIANCE> 39
 6.262705e+001 4.873130e+001 4.484185e+001 1.016268e+002 9.517543e+001 2.016204e+002 6.939593e+001 6.398466e+001 6.248158e+001 4.168200e+001 4.953642e+001 4.147031e+001 8.623126e+001 3.574762e-001 1.260101e+000 1.269583e+000 1.598029e+000 2.369917e+000 2.300493e+000 2.133681e+000 2.018689e+000 1.880479e+000 1.859136e+000 1.832266e+000 2.149484e+000 3.275022e-001 3.190563e-002 1.381314e-001 1.598464e-001 1.948158e-001 3.199791e-001 2.840694e-001 3.225855e-001 3.293241e-001 2.980443e-001 3.754510e-001 3.161886e-001 3.677813e-001 3.039528e-002
<GCONST> 1.095386e+002
<STATE> 4
<MEAN> 39
 -1.116003e+001 5.460044e-002 -3.262963e+000 7.659733e-001 -8.070537e-001 -5.041024e+000 5.013673e-001 6.386849e-001 -1.230369e+000 -5.199859e+000 1.187088e+000 -1.895806e+000 7.770750e+001 -1.649869e-001 1.231395e-001 2.080613e-001 8.874123e-002 1.370144e-001 2.146598e-001 7.445339e-002 -5.997995e-002 6.194064e-002 1.067602e-001 -6.921606e-002 -1.003135e-001 -1.496180e-001 2.581224e-003 1.437455e-002 3.902099e-003 -1.223978e-002 8.117258e-003 1.812157e-003 -9.135192e-003 -1.479995e-002 -5.952418e-004 -1.381784e-003 1.773906e-003 8.059151e-003 2.768393e-003
<VARIANCE> 39
 2.604358e+001 3.647291e+001 5.075550e+001 3.420279e+001 5.263805e+001 9.627491e+001 5.144746e+001 4.639379e+001 3.517525e+001 3.889930e+001 3.929758e+001 3.195633e+001 4.931363e+001 2.884098e-001 7.193299e-001 1.218998e+000 8.159674e-001 7.462603e-001 1.335792e+000 1.495483e+000 1.548453e+000 1.270449e+000 1.463392e+000 1.546382e+000 1.305755e+000 1.915664e-001 2.898568e-002 9.401954e-002 1.397798e-001 1.154257e-001 1.418541e-001 2.058471e-001 2.278638e-001 2.588940e-001 2.304037e-001 2.591059e-001 2.397363e-001 2.138526e-001 1.954626e-002
<GCONST> 9.336496e+001
<TRANSP> 5
 0.000000e+000 1.000000e+000 0.000000e+000 0.000000e+000 0.000000e+000
 0.000000e+000 7.899585e-001 2.100416e-001 0.000000e+000 0.000000e+000
 0.000000e+000 0.000000e+000 7.385163e-001 2.614837e-001 0.000000e+000
 0.000000e+000 0.000000e+000 0.000000e+000 8.979434e-001 1.020566e-001
 0.000000e+000 0.000000e+000 0.000000e+000 0.000000e+000 0.000000e+000
<ENDHMM>
~h "o"
<BEGINHMM>
<NUMSTATES> 5
<STATE> 2
<MEAN> 39
 3.823723e+000 -6.854904e+000 7.200180e-001 4.334469e+000 -1.514461e+001 6.317139e+000 -5.606280e+000 3.650772e+000 1.258037e+001 -8.438272e+000 -1.079566e+000 3.747487e+000 7.340546e+001 1.404863e-001 -6.459343e-002 -4.453039e-001 3.714348e-002 3.940098e-002 -4.132484e-001 -1.280942e-001 -2.708411e-002 -3.176195e-001 -8.415215e-002 6.050673e-002 3.380972e-001 -4.354099e-002 -7.183048e-002 -4.462928e-002 -9.716904e-002 -8.399492e-002 6.806210e-002 1.262066e-001 1.549058e-001 1.651574e-003 -2.019051e-001 1.434586e-002 9.645401e-002 -8.294868e-003 -5.897557e-002
<VARIANCE> 39
 1.212691e+002 5.615173e+001 4.445708e+001 8.487110e+001 1.457105e+002 1.783154e+002 5.796813e+001 7.040442e+001 2.010802e+002 6.899061e+001 3.185284e+001 5.586792e+001 1.007363e+002 1.593364e+000 2.022292e+000 1.606534e+000 1.651227e+000 3.415519e+000 5.380061e+000 2.491758e+000 2.540154e+000 5.633278e+000 3.304503e+000 1.841125e+000 1.724820e+000 1.622133e+000 1.988356e-001 3.017809e-001 2.269750e-001 2.621072e-001 3.866049e-001 7.585614e-001 4.910779e-001 4.224337e-001 8.692871e-001 5.251309e-001 2.714709e-001 2.950310e-001 1.361744e-001
<GCONST> 1.265803e+002
<STATE> 3
<MEAN> 39
 -5.762121e+000 -5.407265e+000 -5.152316e+000 -9.938477e-001 -7.405653e+000 -5.854771e+000 -3.512498e+000 3.075685e+000 3.689762e-001 -7.406535e+000 2.354847e-001 1.744580e+000 7.095000e+001 -2.281359e-001 7.506454e-002 -2.925359e-001 -1.160062e-001 3.489228e-001 4.291034e-001 2.379691e-001 -7.347617e-002 -1.856803e-001 1.346271e-001 2.580779e-002 -1.540130e-002 -3.965926e-001 -6.565411e-002 6.272291e-002 4.331976e-002 1.321428e-002 1.130233e-001 2.366304e-001 1.438950e-001 -7.447939e-003 6.570081e-002 6.262332e-003 6.923617e-002 -1.226940e-002 -4.673808e-002
<VARIANCE> 39
 5.445704e+001 2.908621e+001 7.633478e+001 1.111683e+002 8.253475e+001 2.431582e+002 8.368818e+001 1.178849e+002 6.628754e+001 8.504279e+001 3.661099e+001 3.907984e+001 2.067287e+002 7.183240e-001 1.021579e+000 1.931391e+000 1.460485e+000 2.026651e+000 2.893586e+000 1.397027e+000 2.448369e+000 2.634517e+000 2.043903e+000 1.381881e+000 1.099327e+000 6.057496e-001 9.643132e-002 1.655966e-001 1.678002e-001 2.374635e-001 2.422967e-001 5.318005e-001 3.617842e-001 3.678702e-001 2.611444e-001 3.422094e-001 2.379320e-001 2.168333e-001 5.958460e-002
<GCONST> 1.141305e+002
<STATE> 4
<MEAN> 39
 -4.856599e+000 -4.857920e+000 -2.890033e+000 -6.752437e+000 -6.946806e+000 -1.472677e+000 -1.208257e+001 -1.387457e+000 -2.258227e+000 -2.420169e+000 -6.940143e-001 -3.695948e+000 6.742849e+001 -2.320576e-001 2.869022e-001 -7.430022e-002 3.842818e-001 1.054599e-001 4.232009e-001 1.929465e-001 -2.385381e-001 -4.087172e-001 -4.746349e-002 3.129855e-001 5.074521e-002 -5.367588e-001 -5.855061e-002 -1.952676e-002 6.108726e-002 1.292319e-001 -1.852596e-002 1.149724e-002 7.672466e-002 -4.133800e-002 7.764588e-002 4.015385e-002 1.127500e-001 4.364379e-002 -3.161188e-003
<VARIANCE> 39
 5.983816e+001 3.493283e+001 5.791621e+001 1.329574e+002 8.885564e+001 1.533674e+002 1.759547e+002 8.980970e+001 8.276177e+001 6.905922e+001 4.294414e+001 4.769016e+001 1.527260e+002 7.999026e-001 1.420281e+000 2.385281e+000 2.002476e+000 2.810649e+000 2.888420e+000 1.877431e+000 2.077874e+000 1.916164e+000 2.192764e+000 1.344778e+000 1.572749e+000 6.526356e-001 8.855641e-002 2.183789e-001 2.294468e-001 2.727880e-001 4.672426e-001 4.072207e-001 2.864562e-001 3.553258e-001 2.994933e-001 3.726158e-001 3.359469e-001 2.662047e-001 1.023660e-001
<GCONST> 1.181204e+002
<TRANSP> 5
 0.000000e+000 1.000000e+000 0.000000e+000 0.000000e+000 0.000000e+000
 0.000000e+000 7.039506e-001 2.960493e-001 0.000000e+000 0.000000e+000
 0.000000e+000 0.000000e+000 4.320107e-001 5.679892e-001 0.000000e+000
 0.000000e+000 0.000000e+000 0.000000e+000 4.223959e-001 5.776041e-001
 0.000000e+000 0.000000e+000 0.000000e+000 0.000000e+000 0.000000e+000
<ENDHMM>
~h "p"
<BEGINHMM>
<NUMSTATES> 5
<STATE> 2
<MEAN> 39
 1.476445e+000 -9.767011e+000 -2.206894e-001 4.942583e+000 -1.421892e+001 1.009613e+001 -5.290047e+000 1.443081e+000 9.315033e+000 -5.182411e+000 2.407130e+000 3.748686e+000 7.016006e+001 3.816209e-001 -3.846756e-001 3.070351e-001 1.145913e-001 -3.562268e-001 -1.311856e-001 6.450228e-002 3.450718e-001 5.817677e-001 -1.369101e-001 3.197393e-001 -8.546843e-002 6.773830e-001 -4.708213e-002 7.026237e-002 -3.783179e-002 1.092904e-002 1.397470e-001 -5.937797e-002 3.628425e-003 5.901209e-002 7.865731e-002 6.625712e-002 -3.370502e-002 2.631240e-002 -4.966319e-002
<VARIANCE> 39
 8.469053e+001 9.629918e+001 5.684409e+001 6.423270e+001 1.262754e+002 1.493937e+002 6.731001e+001 5.926822e+001 1.587529e+002 5.182877e+001 3.455217e+001 2.889704e+001 1.409187e+002 3.565180e+000 5.863917e+000 3.871655e+000 2.722435e+000 4.977563e+000 5.582840e+000 4.367604e+000 3.489388e+000 7.933187e+000 3.797462e+000 3.384720e+000 2.209483e+000 3.611718e+000 5.039160e-001 1.092265e+000 6.366094e-001 5.595221e-001 8.040758e-001 1.072808e+000 8.491156e-001 5.034898e-001 1.185192e+000 6.335868e-001 6.144397e-001 4.358014e-001 4.775868e-001
<GCONST> 1.410681e+002
<STATE> 3
<MEAN> 39
 5.897028e+000 -8.719394e+000 -1.535333e+000 8.580899e+000 -9.718311e+000 1.803640e+001 -3.100932e+000 2.921317e+000 1.078714e+001 -5.942299e+000 4.507131e+000 4.962733e+000 7.131828e+001 -3.287685e-001 2.643873e-001 -8.498169e-002 -9.901077e-002 2.166947e-001 1.275281e-001 7.562426e-003 -1.125388e-001 -1.824262e-001 2.695033e-001 -1.800745e-002 4.800338e-002 -4.232855e-001 -6.777170e-003 -4.419685e-002 1.605914e-002 -1.185925e-002 -4.059672e-002 -2.040804e-002 -1.264314e-002 -5.022960e-002 -4.333733e-002 -1.304685e-002 -9.718456e-003 -1.617357e-002 2.336750e-002
<VARIANCE> 39
 5.498120e+001 7.263936e+001 3.410839e+001 8.500622e+001 6.941406e+001 1.169039e+002 6.510558e+001 5.758948e+001 6.956660e+001 6.730067e+001 4.913340e+001 3.920535e+001 1.006453e+002 5.721658e-001 1.849756e+000 1.111534e+000 1.674127e+000 2.294797e+000 2.679473e+000 2.481012e+000 2.188950e+000 2.627443e+000 2.355171e+000 2.167990e+000 2.024031e+000 7.911211e-001 6.932529e-002 2.746880e-001 1.764648e-001 2.485327e-001 3.480295e-001 4.202722e-001 4.033563e-001 3.612671e-001 4.692942e-001 4.038654e-001 3.751664e-001 3.576334e-001 1.229092e-001
<GCONST> 1.163481e+002
<STATE> 4
<MEAN> 39
 -1.484045e+001 5.556856e-001 -2.038229e+000 -4.171844e-001 7.410592e-001 1.255668e+000 2.626755e-001 3.112321e+000 2.430910e+000 1.386146e+000 2.507902e+000 6.543866e-001 6.143734e+001 -2.728521e-001 -3.593674e-002 1.428748e-002 7.232375e-002 1.287521e-001 1.128998e-001 1.188536e-001 -8.264015e-004 -4.349494e-002 5.280211e-002 -6.372703e-002 -2.510444e-002 -1.707697e-001 1.447362e-001 -4.951664e-002 4.147164e-002 3.363883e-002 -6.361280e-002 -4.529598e-002 -7.247665e-002 -5.773369e-002 -7.852817e-002 -1.701936e-001 -8.979014e-002 -1.433252e-002 1.536657e-001
<VARIANCE> 39
 7.136586e+001 2.494293e+001 5.180618e+001 6.483407e+001 8.587719e+001 7.728698e+001 3.908051e+001 5.946081e+001 4.136896e+001 2.918067e+001 2.273884e+001 1.865637e+001 2.911594e+002 3.705886e-001 4.280366e-001 7.088044e-001 7.780066e-001 9.088522e-001 1.162089e+000 1.129578e+000 1.354485e+000 1.356379e+000 1.196282e+000 1.300452e+000 1.208515e+000 1.926553e-001 1.016410e-001 1.010910e-001 1.798571e-001 1.820303e-001 2.237416e-001 2.292994e-001 1.900317e-001 3.093658e-001 3.133381e-001 2.784994e-001 2.368833e-001 2.545991e-001 3.439357e-001
<GCONST> 9.986994e+001
<TRANSP> 5
 0.000000e+000 1.000000e+000 0.000000e+000 0.000000e+000 0.000000e+000
 0.000000e+000 7.650598e-001 2.349402e-001 0.000000e+000 0.000000e+000
 0.000000e+000 0.000000e+000 8.702143e-001 1.297856e-001 0.000000e+000
 0.000000e+000 0.000000e+000 0.000000e+000 7.419719e-001 2.580281e-001
 0.000000e+000 0.000000e+000 0.000000e+000 0.000000e+000 0.000000e+000
<ENDHMM>
~h "r"
<BEGINHMM>
<NUMSTATES> 5
<STATE> 2
<MEAN> 39
 5.256381e+000 -1.263771e+001 -2.041657e+000 6.594447e+000 -1.189776e+001 1.427774e+001 -4.134583e+000 -1.831110e-001 8.444964e+000 -8.759917e+000 2.528856e+000 6.602698e+000 7.353267e+001 -7.311638e-002 1.554293e-001 -1.171225e-001 1.015429e-001 1.293693e-001 2.199191e-001 2.026779e-002 -1.408972e-001 -1.225781e-001 -1.081128e-002 9.366156e-002 1.385990e-001 -2.080862e-001 -2.852760e-002 5.300232e-002 6.185541e-003 6.518143e-002 1.693287e-002 -7.606127e-002 2.705933e-002 3.450841e-002 9.556625e-003 5.257680e-002 -2.720196e-002 -3.389310e-002 -5.040478e-002
<VARIANCE> 39
 8.220968e+001 7.771428e+001 6.681660e+001 9.431673e+001 9.724910e+001 1.650912e+002 6.520554e+001 5.925084e+001 9.480898e+001 5.733123e+001 6.868168e+001 6.459006e+001 1.005531e+002 2.077173e+000 3.212997e+000 2.705746e+000 2.410650e+000 3.101804e+000 3.798319e+000 2.929298e+000 2.682163e+000 3.518855e+000 3.541066e+000 3.034760e+000 2.515209e+000 2.558556e+000 2.642350e-001 4.466232e-001 3.991701e-001 3.047498e-001 4.596837e-001 5.914022e-001 5.356258e-001 4.228470e-001 5.395789e-001 6.335020e-001 4.799213e-001 4.055200e-001 2.750644e-001
<GCONST> 1.315040e+002
<STATE> 3
<MEAN> 39
 -1.713403e+000 -3.928729e+000 -3.332359e+000 3.671987e+000 -4.492135e+000 9.736899e+000 -2.204142e+000 -7.060856e-001 3.882626e+000 -5.205692e+000 1.714464e+000 4.251679e+000 6.492655e+001 -8.730443e-001 4.993216e-001 -1.846775e-001 4.058079e-001 1.415837e-001 -5.207661e-001 2.262537e-001 -3.507094e-002 -1.957960e-001 6.278854e-001 -1.423977e-001 -2.546116e-001 -1.121939e+000 -4.259168e-002 -1.302592e-001 6.043622e-002 -6.028997e-002 -6.398723e-002 -2.778122e-002 2.808611e-002 3.499248e-002 6.714580e-002 -7.945316e-003 -3.418497e-002 -5.520118e-002 5.848810e-002
<VARIANCE> 39
 7.769275e+001 3.472344e+001 5.358683e+001 9.795963e+001 8.211615e+001 3.037539e+002 7.484435e+001 7.067706e+001 8.078957e+001 5.157198e+001 5.174120e+001 6.597342e+001 1.219169e+002 8.740849e-001 1.920232e+000 2.402240e+000 1.968652e+000 2.660042e+000 3.032037e+000 3.713073e+000 2.895327e+000 3.268779e+000 2.112167e+000 2.071455e+000 1.744937e+000 1.320310e+000 8.987255e-002 1.587866e-001 3.221692e-001 2.497108e-001 3.786847e-001 4.760973e-001 5.748405e-001 5.113935e-001 5.195739e-001 3.672793e-001 3.605017e-001 3.043659e-001 9.356560e-002
<GCONST> 1.222015e+002
<STATE> 4
<MEAN> 39
 -1.147092e+001 -2.285490e+000 -5.800301e+000 1.279769e+000 -4.496668e+000 -1.918752e+000 -3.151266e+000 -2.308127e+000 -1.665848e+000 -3.397012e+000 -5.650508e-001 -3.307077e-001 5.917109e+001 -3.330404e-001 1.316794e-001 6.719344e-002 9.594107e-002 1.091140e-001 1.093876e-001 1.198104e-001 1.546022e-001 1.611152e-001 1.441118e-001 3.042194e-002 5.025994e-003 -4.317243e-001 5.449763e-002 -6.333654e-002 2.492890e-002 -3.393904e-002 1.870227e-002 3.999775e-003 -5.597249e-003 2.130166e-002 -1.785662e-002 -8.156805e-002 6.873827e-003 2.807350e-002 1.338655e-001
<VARIANCE> 39
 4.543924e+001 2.923602e+001 4.002349e+001 4.237209e+001 5.407727e+001 9.844884e+001 6.146776e+001 4.940064e+001 5.614899e+001 3.626938e+001 4.312225e+001 3.363016e+001 2.846772e+002 5.166550e-001 7.366843e-001 1.128250e+000 1.117535e+000 1.352574e+000 1.637986e+000 1.885139e+000 1.926869e+000 2.164372e+000 2.092447e+000 1.351678e+000 1.232184e+000 6.836173e-001 8.767577e-002 1.492264e-001 1.984997e-001 2.044654e-001 2.710169e-001 3.197781e-001 3.958326e-001 3.568735e-001 4.092730e-001 4.470276e-001 3.048374e-001 2.408558e-001 1.125353e-001
<GCONST> 1.080065e+002
<TRANSP> 5
 0.000000e+000 1.000000e+000 0.000000e+000 0.000000e+000 0.000000e+000
 0.000000e+000 8.335558e-001 1.664442e-001 0.000000e+000 0.000000e+000
 0.000000e+000 0.000000e+000 5.684981e-001 4.315019e-001 0.000000e+000
 0.000000e+000 0.000000e+000 0.000000e+000 7.401893e-001 2.598108e-001
 0.000000e+000 0.000000e+000 0.000000e+000 0.000000e+000 0.000000e+000
<ENDHMM>
~h "s"
<BEGINHMM>
<NUMSTATES> 5
<STATE> 2
<MEAN> 39
 -1.399138e+001 -1.300357e+000 -2.480265e+000 -4.301747e+000 1.251897e+000 -5.222607e+000 -1.082798e+000 -3.451253e+000 4.349473e-001 -3.673137e+000 5.420467e-001 -2.013115e+000 6.469031e+001 2.078359e-001 -7.958261e-001 3.426229e-001 -7.095334e-001 2.478141e-001 -2.614782e-001 1.929382e-001 5.053149e-002 1.401757e-001 -2.930291e-001 2.161754e-001 -1.764685e-001 1.897713e+000 3.371643e-002 -9.135271e-002 2.560920e-002 -6.758582e-002 -8.394084e-002 5.412048e-002 -3.368687e-002 4.949268e-002 2.591814e-002 -4.596979e-002 5.236673e-002 -2.034185e-002 -9.120043e-002
<VARIANCE> 39
 1.558802e+002 1.307903e+002 8.828178e+001 1.847551e+002 1.215517e+002 1.323765e+002 1.021800e+002 7.411601e+001 6.175367e+001 4.069174e+001 5.523229e+001 3.542665e+001 2.482937e+002 7.551732e+000 9.790325e+000 6.954065e+000 9.898729e+000 7.213583e+000 5.007148e+000 6.608806e+000 4.950844e+000 4.208556e+000 3.224894e+000 4.565587e+000 3.632544e+000 1.495614e+001 9.205049e-001 1.266597e+000 8.416439e-001 1.427321e+000 1.087959e+000 8.951289e-001 1.011933e+000 8.470215e-001 7.264031e-001 5.601067e-001 7.045351e-001 6.398333e-001 2.883770e+000
<GCONST> 1.540912e+002
<STATE> 3
<MEAN> 39
 -6.235364e+000 -2.318558e+001 1.363650e+001 5.654245e+000 -1.700662e+001 1.436547e+001 2.540348e+000 -7.185987e-001 2.931139e+000 -6.926229e+000 7.174803e+000 4.216204e+000 7.634799e+001 2.428323e-001 -1.276334e-003 -3.986464e-002 1.896785e-001 3.151042e-001 -3.205229e-002 -2.188683e-001 -4.345786e-002 4.699051e-001 -3.317167e-002 -1.228009e-001 -4.935472e-002 2.354935e-001 4.653940e-002 1.738305e-001 -2.043785e-001 8.479169e-002 1.137349e-001 -7.181981e-002 -5.135164e-002 5.377096e-002 2.213539e-002 4.695428e-002 -6.646062e-002 -3.409413e-002 -1.345090e-001
<VARIANCE> 39
 1.199641e+002 1.446626e+002 2.054343e+002 1.501807e+002 2.100345e+002 2.003366e+002 7.791403e+001 7.542638e+001 5.035840e+001 5.080555e+001 6.594215e+001 6.921789e+001 5.167642e+001 6.021648e+000 5.236076e+000 9.056086e+000 4.910182e+000 4.722079e+000 4.693642e+000 3.216808e+000 2.778426e+000 3.140434e+000 3.054207e+000 2.438704e+000 2.238477e+000 1.504541e+000 5.625837e-001 7.080812e-001 7.954566e-001 5.955780e-001 7.584800e-001 7.369695e-001 5.587023e-001 4.370781e-001 5.033276e-001 4.502695e-001 4.555741e-001 3.609845e-001 2.795529e-001
<GCONST> 1.399980e+002
<STATE> 4
<MEAN> 39
 -9.992174e+000 -5.584956e+000 1.048935e+001 -1.091327e+001 1.612707e+001 -1.475146e+001 1.205111e+001 -1.519859e+001 9.329333e+000 -9.253192e+000 1.062536e+001 -4.563507e+000 7.641569e+001 -1.271860e-002 4.086258e-002 -1.380958e-002 -4.538655e-003 -1.844007e-003 -2.850242e-003 -9.127866e-003 3.397486e-002 7.848359e-002 5.200399e-004 -6.061980e-003 -2.556881e-002 -3.637344e-002 -4.354719e-004 -6.028831e-003 1.851212e-003 6.539527e-003 -1.579333e-002 1.360587e-002 -9.462093e-003 1.743395e-003 -9.029022e-003 4.220209e-003 -7.404537e-003 1.023295e-003 -9.863595e-003
<VARIANCE> 39
 7.455313e+001 3.095984e+001 6.301142e+001 6.588044e+001 4.616276e+001 4.641083e+001 6.328491e+001 5.451077e+001 6.167628e+001 4.797725e+001 3.815522e+001 2.768953e+001 6.014089e+001 1.417258e+000 8.100640e-001 1.322806e+000 1.273528e+000 1.256598e+000 1.587227e+000 1.626077e+000 1.668715e+000 1.771970e+000 1.761506e+000 1.414223e+000 1.323108e+000 5.825168e-001 1.674836e-001 1.419518e-001 2.013312e-001 2.082836e-001 2.275577e-001 2.808691e-001 2.850617e-001 3.091834e-001 3.044474e-001 3.047750e-001 2.622322e-001 2.409557e-001 6.984781e-002
<GCONST> 1.063026e+002
<TRANSP> 5
 0.000000e+000 1.000000e+000 0.000000e+000 0.000000e+000 0.000000e+000
 0.000000e+000 7.732233e-001 2.267768e-001 0.000000e+000 0.000000e+000
 0.000000e+000 0.000000e+000 7.725604e-001 2.274397e-001 0.000000e+000
 0.000000e+000 0.000000e+000 0.000000e+000 9.354138e-001 6.458620e-002
 0.000000e+000 0.000000e+000 0.000000e+000 0.000000e+000 0.000000e+000
<ENDHMM>
~h "t"
<BEGINHMM>
<NUMSTATES> 5
<STATE> 2
<MEAN> 39
 -1.148123e+001 -4.075990e+000 -2.702448e+000 -3.833632e+000 -2.458031e+000 -4.732886e+000 -5.107932e+000 -2.862683e+000 -1.987235e-001 -3.177525e+000 -1.025403e+000 -2.901660e+000 5.880179e+001 6.718816e-001 -1.088202e+000 8.621254e-001 -1.446192e+000 1.466215e-001 -7.882236e-001 -7.411054e-001 -3.463059e-002 1.552761e-001 -3.684520e-001 2.462849e-001 -4.653679e-001 3.260804e+000 3.890214e-001 -9.234168e-002 6.756774e-002 -2.813882e-001 -1.452045e-001 3.416411e-002 -3.583750e-001 2.936327e-002 -1.251598e-001 -5.428780e-002 -1.814230e-002 -1.434822e-001 3.462598e-001
<VARIANCE> 39
 6.270136e+001 5.738583e+001 5.706632e+001 1.141712e+002 9.880997e+001 1.435470e+002 9.676675e+001 7.141219e+001 6.938062e+001 4.968066e+001 4.881229e+001 4.940062e+001 2.593948e+002 4.535439e+000 5.237221e+000 4.837053e+000 1.171531e+001 6.539200e+000 4.737602e+000 9.451546e+000 6.104587e+000 6.858490e+000 6.565567e+000 4.049284e+000 4.764943e+000 1.692169e+001 6.087207e-001 1.017042e+000 7.900072e-001 1.523602e+000 1.035945e+000 1.057267e+000 1.517341e+000 9.643606e-001 1.347249e+000 1.001987e+000 6.044373e-001 8.459221e-001 3.114252e+000
<GCONST> 1.537715e+002
<STATE> 3
<MEAN> 39
 -5.349711e+000 -8.139238e+000 1.246939e+000 -8.315310e+000 -4.134993e+000 -5.991967e+000 -8.034083e+000 -2.058611e+000 -1.180437e+000 -5.247253e+000 1.311598e+000 -4.026812e+000 7.340191e+001 1.313860e+000 6.348421e-002 -2.673908e-001 -7.102550e-001 -6.314960e-001 -3.085879e-001 -1.132205e+000 2.375797e-001 -8.362133e-001 -3.935301e-001 -1.814853e-001 6.208507e-002 9.317650e-001 -3.630942e-001 3.308835e-001 -3.138679e-001 3.345871e-001 6.354880e-002 1.171745e-001 4.342650e-001 4.636091e-002 1.840599e-001 1.942084e-001 1.286072e-002 2.929649e-001 -6.652130e-001
<VARIANCE> 39
 5.728774e+001 6.795155e+001 7.257692e+001 2.205157e+002 1.541592e+002 1.843712e+002 1.679869e+002 1.144229e+002 9.819445e+001 8.203735e+001 6.502194e+001 5.527635e+001 9.526656e+001 2.497896e+000 4.735793e+000 3.481573e+000 4.116199e+000 4.669159e+000 7.451218e+000 5.905641e+000 5.148611e+000 1.036393e+001 5.188043e+000 3.502013e+000 2.403424e+000 2.383376e+000 3.710170e-001 6.044787e-001 5.862985e-001 9.621254e-001 7.014289e-001 7.795475e-001 1.064101e+000 1.026642e+000 1.100839e+000 1.071801e+000 6.649936e-001 5.456877e-001 6.716327e-001
<GCONST> 1.467327e+002
<STATE> 4
<MEAN> 39
 -7.352293e+000 -9.661871e+000 -1.334801e+000 -1.536148e+001 -3.722519e+000 -8.025434e+000 -1.366433e+001 -4.679452e+000 -6.866181e+000 -3.099454e+000 -5.800313e+000 -8.068867e+000 6.898412e+001 1.092918e-002 1.898163e-001 -7.733686e-002 4.048206e-001 -1.980587e-001 -4.450580e-002 1.884454e-001 -8.674774e-002 -4.998801e-002 -8.124487e-002 -4.849835e-002 1.149406e-001 -5.092475e-001 -7.811280e-002 2.875597e-002 1.807081e-002 9.732942e-002 -3.947120e-003 1.938525e-002 8.197126e-002 8.925928e-003 9.568387e-002 3.304827e-002 5.415658e-002 1.880937e-002 -1.030761e-001
<VARIANCE> 39
 3.850306e+001 6.606483e+001 4.586871e+001 1.747573e+002 9.241773e+001 6.909261e+001 8.722091e+001 9.963564e+001 9.641801e+001 6.147051e+001 5.988569e+001 4.793473e+001 1.894843e+002 7.140545e-001 1.631403e+000 1.746958e+000 3.746839e+000 3.479222e+000 2.578912e+000 3.121175e+000 4.310997e+000 3.340219e+000 2.779076e+000 2.449923e+000 1.713434e+000 1.788148e+000 1.095582e-001 2.284393e-001 2.664060e-001 5.096501e-001 4.740415e-001 3.917712e-001 4.830615e-001 6.071045e-001 5.388217e-001 5.497503e-001 4.502198e-001 2.900178e-001 1.783108e-001
<GCONST> 1.257307e+002
<TRANSP> 5
 0.000000e+000 1.000000e+000 0.000000e+000 0.000000e+000 0.000000e+000
 0.000000e+000 6.364003e-001 3.635996e-001 0.000000e+000 0.000000e+000
 0.000000e+000 0.000000e+000 4.032720e-001 5.967280e-001 0.000000e+000
 0.000000e+000 0.000000e+000 0.000000e+000 8.200031e-001 1.799969e-001
 0.000000e+000 0.000000e+000 0.000000e+000 0.000000e+000 0.000000e+000
<ENDHMM>
~h "u"
<BEGINHMM>
<NUMSTATES> 5
<STATE> 2
<MEAN> 39
 -4.108284e+000 -5.083194e+000 1.518796e+000 -5.384491e+000 -7.062771e+000 -4.394721e+000 -8.035789e+000 -2.109734e+000 -3.744661e+000 -4.665431e+000 7.923291e-001 -4.416840e+000 6.918715e+001 4.084790e-001 8.877113e-002 8.924834e-002 -2.538972e-001 -4.365979e-001 -2.473060e-001 -4.423603e-001 -1.948251e-002 -4.700947e-001 -2.434175e-001 2.058632e-001 2.381399e-001 3.792108e-001 -6.274015e-002 -3.899029e-003 -3.562237e-002 -3.072157e-002 4.401655e-002 9.719176e-002 1.046496e-001 1.107368e-001 1.505742e-002 -1.874616e-002 5.781551e-002 1.825630e-002 -8.499644e-002
<VARIANCE> 39
 6.578740e+001 6.666915e+001 7.847620e+001 1.937521e+002 1.906005e+002 1.915921e+002 1.820275e+002 1.270900e+002 2.437003e+002 7.570461e+001 7.309203e+001 6.699511e+001 1.366242e+002 1.610731e+000 1.898781e+000 2.968299e+000 4.701206e+000 3.266633e+000 5.456428e+000 6.216698e+000 5.065131e+000 5.197327e+000 3.981793e+000 3.522098e+000 2.781958e+000 2.979995e+000 2.653033e-001 2.770753e-001 4.510644e-001 6.344558e-001 5.548878e-001 8.941840e-001 9.640778e-001 8.400948e-001 8.214441e-001 6.406664e-001 5.818629e-001 5.332283e-001 3.577251e-001
<GCONST> 1.423582e+002
<STATE> 3
<MEAN> 39
 2.248470e+000 -1.884551e+000 2.205796e+000 5.846092e+000 -9.854029e+000 5.461669e+000 -7.020030e+000 1.091424e+000 5.899846e+000 -6.455030e+000 2.792331e+000 2.994975e+000 6.844558e+001 -3.576827e-001 1.986040e-001 -3.543577e-001 -2.286932e-001 2.651565e-001 4.802884e-001 1.138506e-001 -2.491189e-001 -3.578801e-001 3.331806e-001 -5.555950e-002 6.185075e-002 -5.374550e-001 -6.114279e-002 -9.901045e-002 -1.487628e-002 -8.832841e-003 3.671244e-002 2.659549e-002 7.076514e-002 1.044522e-002 4.480857e-002 -2.877439e-003 -4.648193e-002 -5.145746e-002 -1.194265e-002
<VARIANCE> 39
 7.055846e+001 4.047776e+001 6.386986e+001 1.694389e+002 1.051628e+002 1.633659e+002 1.006041e+002 9.129899e+001 1.481422e+002 7.656079e+001 5.011077e+001 5.582457e+001 8.865572e+001 5.187175e-001 1.098466e+000 1.136925e+000 1.367306e+000 1.948448e+000 2.734514e+000 1.975987e+000 2.835654e+000 2.595451e+000 2.667301e+000 2.002450e+000 1.433993e+000 5.471940e-001 7.506611e-002 1.408695e-001 1.810526e-001 2.305525e-001 2.827719e-001 4.068193e-001 3.887253e-001 4.838735e-001 5.049863e-001 3.999026e-001 3.529390e-001 2.731259e-001 6.928688e-002
<GCONST> 1.170524e+002
<STATE> 4
<MEAN> 39
 -8.009238e+000 1.987953e+000 -3.551623e+000 -8.161287e+000 -6.425779e+000 -2.546602e+000 -1.118761e+001 -2.658427e+000 -1.318728e+001 -5.024204e+000 1.650571e-001 -2.852914e+000 5.942709e+001 -2.560705e-001 -1.015218e-001 -1.232381e-001 3.532487e-001 1.628462e-001 2.199211e-002 4.227834e-001 5.423072e-002 3.448729e-001 -1.187021e-001 -1.264151e-001 7.379968e-002 -5.083542e-001 -1.795568e-002 -6.253050e-002 9.877915e-003 3.550311e-002 2.280781e-002 -7.014738e-002 1.412055e-002 -9.537037e-003 6.410385e-002 4.450393e-002 1.749863e-002 7.235817e-003 1.984113e-002
<VARIANCE> 39
 5.028935e+001 2.771672e+001 2.466396e+001 1.640952e+002 5.506657e+001 9.052082e+001 1.017237e+002 4.567213e+001 1.829450e+002 4.821031e+001 4.478420e+001 2.910329e+001 2.382161e+002 4.549271e-001 7.057964e-001 7.314144e-001 1.926232e+000 1.777274e+000 1.991464e+000 1.921348e+000 2.026850e+000 2.298762e+000 2.022784e+000 1.841768e+000 1.431171e+000 7.345944e-001 4.765109e-002 9.611826e-002 1.263928e-001 2.494111e-001 2.490057e-001 3.495054e-001 3.384330e-001 3.606520e-001 3.584296e-001 3.394449e-001 3.303518e-001 2.387087e-001 5.194671e-002
<GCONST> 1.089472e+002
<TRANSP> 5
 0.000000e+000 1.000000e+000 0.000000e+000 0.000000e+000 0.000000e+000
 0.000000e+000 6.181698e-001 3.818302e-001 0.000000e+000 0.000000e+000
 0.000000e+000 0.000000e+000 6.091556e-001 3.908444e-001 0.000000e+000
 0.000000e+000 0.000000e+000 0.000000e+000 8.083202e-001 1.916798e-001
 0.000000e+000 0.000000e+000 0.000000e+000 0.000000e+000 0.000000e+000
<ENDHMM>
~h "w"
<BEGINHMM>
<NUMSTATES> 5
<STATE> 2
<MEAN> 39
 8.724505e+000 -1.369210e+001 1.732310e+000 1.130532e+001 -1.506958e+001 1.534460e+001 -5.082702e+000 6.864577e+000 1.654889e+001 -1.197404e+001 1.703696e+000 7.612534e+000 7.652415e+001 -6.276041e-002 3.164804e-001 -1.450425e-001 -2.453628e-001 -5.752242e-002 6.806032e-002 1.707488e-001 4.099713e-002 -1.383627e-001 1.364997e-001 -4.202008e-002 1.036175e-001 -2.455840e-001 -1.890474e-002 1.237834e-002 7.292993e-003 3.342255e-003 1.593049e-002 -3.019844e-002 -1.424761e-002 -4.861022e-002 -2.896531e-002 4.629156e-002 8.731551e-003 2.147494e-003 -1.710542e-002
<VARIANCE> 39
 3.333820e+001 9.228497e+001 3.804954e+001 7.545255e+001 7.295270e+001 6.244549e+001 5.381508e+001 3.460785e+001 8.729609e+001 6.813277e+001 4.366323e+001 4.729217e+001 5.707879e+001 8.265218e-001 3.428632e+000 1.444379e+000 2.269992e+000 3.742784e+000 2.633526e+000 2.349416e+000 2.112682e+000 4.542506e+000 3.563677e+000 2.160206e+000 2.661308e+000 1.838641e+000 1.085260e-001 4.013749e-001 1.983326e-001 3.539423e-001 6.552821e-001 4.396623e-001 3.808174e-001 4.031068e-001 7.531335e-001 6.036038e-001 4.165553e-001 4.571985e-001 1.668417e-001
<GCONST> 1.221087e+002
<STATE> 3
<MEAN> 39
 -3.550926e-001 -1.067413e+001 3.456979e+000 1.113996e+001 -1.437348e+001 1.458955e+001 -5.918990e+000 1.242412e+000 1.097896e+001 -2.770726e+000 1.267815e+000 2.685881e+000 6.797121e+001 -2.036679e-001 -1.171247e-001 -7.177881e-002 -8.542380e-002 -2.023773e-002 -1.143957e-002 -9.873683e-002 -8.742593e-002 5.464268e-002 1.643203e-001 1.251953e-001 6.564147e-002 -1.259518e-001 8.139397e-003 -3.013843e-002 -2.277705e-002 2.886697e-002 -2.682379e-002 -8.007345e-002 1.375815e-003 7.999433e-005 -6.182507e-002 -3.718930e-002 6.741792e-003 -1.026338e-002 7.991434e-003
<VARIANCE> 39
 7.171349e+001 1.776827e+002 8.684544e+001 1.420219e+002 8.342747e+001 6.737122e+001 7.206494e+001 5.791644e+001 1.063050e+002 3.837915e+001 4.062765e+001 3.602691e+001 7.809084e+001 2.278885e+000 5.857989e+000 2.742348e+000 4.449562e+000 4.032269e+000 5.218254e+000 5.256081e+000 2.926064e+000 5.930877e+000 3.155388e+000 2.958786e+000 1.965493e+000 2.230966e+000 2.420298e-001 8.797995e-001 3.675422e-001 5.749888e-001 5.284653e-001 1.047807e+000 9.039212e-001 4.603542e-001 9.001120e-001 6.209309e-001 5.442572e-001 4.208536e-001 1.725314e-001
<GCONST> 1.354644e+002
<STATE> 4
<MEAN> 39
 -9.551695e+000 1.527336e+000 -2.683913e+000 3.316436e+000 -2.767745e+000 8.088142e+000 -1.803451e+000 5.111903e+000 1.350680e+000 7.900028e-001 2.262453e+000 7.666883e-001 4.602359e+001 -6.048105e-002 3.282234e-002 -7.775068e-002 2.394410e-001 8.812673e-002 -2.372250e-002 7.380404e-002 4.116668e-002 9.230882e-002 1.462064e-001 8.812494e-002 -6.776293e-002 -2.208100e-001 1.627219e-002 -9.132854e-003 3.105201e-003 -2.499812e-003 -1.610969e-002 -5.484055e-003 1.301055e-002 -9.888418e-003 -6.775766e-003 -8.705201e-003 9.286162e-003 -2.428663e-003 1.655187e-002
<VARIANCE> 39
 3.402295e+001 2.120970e+001 2.438360e+001 4.180380e+001 2.213276e+001 1.829173e+001 4.227505e+001 2.821187e+001 3.135934e+001 5.877266e+001 1.262302e+001 1.246755e+001 1.043794e+002 2.022775e-001 3.899708e-001 4.992314e-001 1.007443e+000 8.777725e-001 1.089978e+000 1.117733e+000 1.339052e+000 1.439100e+000 1.823928e+000 1.264539e+000 1.216133e+000 1.714730e-001 2.390760e-002 7.780688e-002 7.210243e-002 1.885549e-001 1.777501e-001 1.823869e-001 1.848358e-001 2.145361e-001 2.199196e-001 3.414454e-001 2.614149e-001 2.514516e-001 1.410997e-002
<GCONST> 8.544920e+001
<TRANSP> 5
 0.000000e+000 1.000000e+000 0.000000e+000 0.000000e+000 0.000000e+000
 0.000000e+000 9.456721e-001 5.432795e-002 0.000000e+000 0.000000e+000
 0.000000e+000 0.000000e+000 9.097090e-001 9.029097e-002 0.000000e+000
 0.000000e+000 0.000000e+000 0.000000e+000 9.163707e-001 8.362930e-002
 0.000000e+000 0.000000e+000 0.000000e+000 0.000000e+000 0.000000e+000
<ENDHMM>
~h "y"
<BEGINHMM>
<NUMSTATES> 5
<STATE> 2
<MEAN> 39
 -7.672626e+000 -5.751864e+000 -5.603342e+000 -1.959957e+000 -2.417990e+000 -1.376203e+001 -5.502053e+000 -2.990840e-001 -3.512747e+000 -7.074965e+000 2.529623e+000 -1.027610e+000 8.107944e+001 -1.005531e-001 5.893646e-002 2.330186e-001 1.932528e-001 -1.001879e-001 -1.007596e-001 -3.966927e-002 9.760823e-002 1.817178e-002 -1.147854e-001 8.702332e-003 -5.042411e-003 -3.310759e-002 -2.986695e-002 5.230102e-002 1.089542e-001 -4.506111e-003 -2.188569e-002 6.636914e-003 6.592710e-003 -3.379914e-002 -3.546120e-002 2.755072e-002 1.994474e-002 3.364653e-004 -5.538142e-002
<VARIANCE> 39
 1.397971e+001 6.813448e+001 7.603812e+001 1.269924e+002 3.639033e+001 1.138509e+002 7.765785e+001 4.262310e+001 2.944830e+001 3.079133e+001 6.759780e+001 3.572232e+001 5.332079e+001 2.802199e-001 1.051434e+000 1.926996e+000 1.434574e+000 1.097863e+000 2.239235e+000 2.091176e+000 1.705486e+000 9.647070e-001 1.573332e+000 1.609691e+000 1.059693e+000 2.561247e-001 3.046208e-002 1.536833e-001 1.752214e-001 2.066149e-001 1.675120e-001 3.717707e-001 3.209080e-001 2.870644e-001 2.138356e-001 2.649057e-001 2.590525e-001 1.479005e-001 3.492283e-002
<GCONST> 1.009451e+002
<STATE> 3
<MEAN> 39
 -8.474412e+000 -1.076235e+001 9.038498e+000 -1.803693e+001 -1.100327e+001 -1.291906e+001 -1.120217e+001 -1.859536e-001 -7.505471e+000 -4.167739e+000 -2.170904e+000 -5.156655e+000 7.410121e+001 1.689098e-002 1.091298e-001 3.186396e-002 2.173017e-001 -5.833212e-002 1.555591e-001 -2.159745e-002 -1.570574e-001 -4.728392e-002 2.926173e-002 3.008620e-002 -7.842001e-002 -3.328270e-001 6.223290e-003 -8.548218e-004 -7.160389e-002 6.942859e-003 7.655753e-002 4.679466e-002 1.637899e-002 -4.155223e-002 3.752165e-002 -1.145026e-002 -4.781476e-002 -1.234137e-002 -3.209737e-002
<VARIANCE> 39
 2.111701e+001 6.991022e+001 8.216398e+001 8.977050e+001 1.174825e+002 1.153058e+002 7.072585e+001 9.285266e+001 6.993366e+001 5.211327e+001 8.017382e+001 4.240615e+001 8.604436e+001 4.823938e-001 2.505502e+000 3.386768e+000 1.875171e+000 5.158831e+000 2.546781e+000 3.028841e+000 4.106199e+000 3.211067e+000 2.267897e+000 3.843638e+000 1.788788e+000 7.623851e-001 5.689790e-002 2.170532e-001 3.085030e-001 2.584595e-001 5.053703e-001 4.013027e-001 4.505852e-001 5.854790e-001 3.646819e-001 3.330280e-001 5.009083e-001 2.821052e-001 6.577715e-002
<GCONST> 1.211102e+002
<STATE> 4
<MEAN> 39
 -7.399390e+000 -5.632943e+000 7.814948e+000 -1.063569e+001 1.700162e+001 -1.482604e+001 1.286573e+001 -1.510055e+001 1.207197e+001 -8.897681e+000 1.166308e+001 -3.786556e+000 7.542521e+001 -3.517643e-002 2.011386e-002 1.211954e-002 3.167160e-002 2.489201e-002 2.637633e-002 1.580454e-002 1.483195e-002 4.192692e-002 1.249310e-002 -8.371986e-003 -1.224548e-002 -7.326186e-002 2.456753e-003 -2.972416e-003 -4.766229e-003 -2.301901e-003 -1.982795e-003 -4.131984e-003 1.535132e-003 2.429349e-003 -7.377848e-003 -1.611004e-004 2.642658e-003 1.427476e-003 4.045791e-003
<VARIANCE> 39
 2.752750e+001 1.862635e+001 3.459195e+001 3.546508e+001 3.476122e+001 3.922926e+001 5.449826e+001 4.292178e+001 4.116185e+001 2.951484e+001 3.251889e+001 2.538902e+001 6.208242e+001 5.015855e-001 7.358365e-001 1.242027e+000 1.115016e+000 1.119496e+000 1.269315e+000 1.868098e+000 1.640005e+000 1.600572e+000 1.717734e+000 1.920492e+000 1.407102e+000 7.375429e-001 6.101977e-002 1.128428e-001 1.640442e-001 1.578737e-001 1.814620e-001 2.116547e-001 2.997275e-001 2.945446e-001 2.848032e-001 3.035195e-001 3.223325e-001 2.328402e-001 7.630604e-002
<GCONST> 9.852307e+001
<TRANSP> 5
 0.000000e+000 1.000000e+000 0.000000e+000 0.000000e+000 0.000000e+000
 0.000000e+000 8.345739e-001 1.654261e-001 0.000000e+000 0.000000e+000
 0.000000e+000 0.000000e+000 8.773036e-001 1.226964e-001 0.000000e+000
 0.000000e+000 0.000000e+000 0.000000e+000 9.794456e-001 2.055445e-002
 0.000000e+000 0.000000e+000 0.000000e+000 0.000000e+000 0.000000e+000
<ENDHMM>
~h "z"
<BEGINHMM>
<NUMSTATES> 5
<STATE> 2
<MEAN> 39
 -7.194201e+000 -1.849999e+000 1.405971e+000 -3.881801e+000 -7.235368e+000 3.203834e+000 -3.445597e-001 5.621658e+000 -6.289710e+000 4.764788e+000 7.819397e-001 -2.176432e+000 4.989071e+001 1.660950e-002 8.213742e-002 5.233828e-002 1.590213e-001 7.064626e-003 9.229885e-003 -5.194145e-003 -6.647619e-002 -1.587445e-001 -8.896340e-002 1.236369e-001 8.244841e-003 -4.848166e-002 3.552178e-003 -7.085854e-003 -1.055851e-002 6.945089e-003 1.126928e-002 1.907778e-003 -4.059534e-003 2.921343e-003 2.182738e-002 -2.099173e-003 -1.132761e-002 -1.790989e-003 3.118454e-003
<VARIANCE> 39
 5.125771e+001 3.280484e+001 1.124241e+001 8.086295e+001 3.560272e+001 1.136935e+001 1.257989e+002 3.020840e+001 8.866887e+001 6.562363e+001 3.189902e+001 2.635576e+001 4.438307e+001 4.114658e-001 5.332842e-001 7.429471e-001 1.285112e+000 1.071488e+000 1.054146e+000 2.775152e+000 1.432851e+000 1.840797e+000 1.922062e+000 1.861972e+000 1.028012e+000 6.491488e-001 4.837982e-002 7.268324e-002 1.216817e-001 1.375263e-001 1.757658e-001 2.001708e-001 3.563156e-001 2.691272e-001 2.776663e-001 3.766872e-001 3.666746e-001 1.684882e-001 5.117881e-002
<GCONST> 9.733253e+001
<STATE> 3
<MEAN> 39
 -1.747663e+001 -1.635129e+000 -5.220763e+000 -1.143347e+000 -4.847720e+000 -1.017382e+001 -6.620435e+000 -7.581602e+000 -7.853310e+000 -7.948815e+000 -4.759484e+000 -3.534123e+000 4.935538e+001 -2.700701e-002 1.287116e-002 1.798861e-002 1.554289e-001 6.445591e-002 -1.737075e-001 -6.035805e-002 -8.691520e-002 -7.500204e-002 8.718686e-004 -5.705202e-002 -2.539427e-002 -1.945323e-001 -2.541487e-002 -4.175544e-002 -4.425082e-002 -5.167789e-002 2.953714e-003 -3.266273e-002 2.560407e-002 1.038423e-001 6.308039e-003 5.885671e-002 3.675919e-002 -3.176868e-003 1.027558e-004
<VARIANCE> 39
 4.216613e+000 9.238184e+000 1.351570e+001 1.182181e+001 1.211368e+001 2.169279e+001 1.552114e+001 2.597181e+001 2.784084e+001 2.877299e+001 1.625089e+001 1.830998e+001 8.409719e+001 2.230798e-001 6.264735e-001 7.507532e-001 1.027193e+000 7.784900e-001 1.014040e+000 1.885192e+000 3.443963e+000 4.338918e+000 3.300582e+000 1.518634e+000 1.884261e+000 1.290122e-001 5.031460e-002 1.072740e-001 1.326950e-001 2.237123e-001 1.421389e-001 2.160960e-001 4.503052e-001 7.575901e-001 6.533563e-001 5.670925e-001 3.073624e-001 3.201407e-001 2.435974e-002
<GCONST> 8.954535e+001
<STATE> 4
<MEAN> 39
 -1.599269e+001 -7.559116e+000 -4.109323e+000 -2.659310e+000 -2.208274e+000 -1.561594e+001 -5.320189e+000 -5.096963e+000 -1.010269e+001 -1.041224e+001 -5.794500e+000 -6.324723e+000 5.419848e+001 3.049535e-001 -8.296679e-001 9.161573e-002 -1.059507e+000 3.658732e-001 -4.497606e-002 4.468261e-001 6.642035e-001 7.026861e-001 -3.033425e-001 6.232313e-002 -5.633920e-001 1.468049e+000 4.338992e-002 2.884609e-002 8.933906e-002 -7.079989e-002 1.328576e-002 3.536428e-002 -2.201065e-002 -6.440122e-002 5.389646e-002 -9.244709e-003 -3.484505e-002 3.183056e-002 6.503840e-003
<VARIANCE> 39
 1.456668e+001 5.191830e+001 8.421128e+000 1.112580e+002 3.302917e+001 9.849404e+001 6.064334e+001 3.872847e+001 3.886250e+001 2.269201e+001 1.513797e+001 3.188267e+001 2.783484e+002 6.128718e-001 1.628280e+000 1.601366e+000 4.202619e+000 3.967022e+000 8.584018e+000 7.035906e+000 3.866755e+000 1.097255e+000 1.290892e+000 1.020810e+000 1.826595e+000 1.080636e+001 1.196694e-001 2.313191e-001 2.644043e-001 7.308705e-001 8.328471e-001 1.573558e+000 1.052506e+000 5.191810e-001 1.731803e-001 2.066756e-001 1.448291e-001 3.218595e-001 1.505877e+000
<GCONST> 1.201234e+002
<TRANSP> 5
 0.000000e+000 1.000000e+000 0.000000e+000 0.000000e+000 0.000000e+000
 0.000000e+000 9.782614e-001 2.173868e-002 0.000000e+000 0.000000e+000
 0.000000e+000 0.000000e+000 9.450051e-001 5.499488e-002 0.000000e+000
 0.000000e+000 0.000000e+000 0.000000e+000 8.930222e-001 1.069777e-001
 0.000000e+000 0.000000e+000 0.000000e+000 0.000000e+000 0.000000e+000
<ENDHMM>
~h "ai"
<BEGINHMM>
<NUMSTATES> 5
<STATE> 2
<MEAN> 39
 -1.732235e+000 -9.860034e+000 4.322945e+000 -3.002532e+000 -9.035861e+000 -1.430928e+000 -1.119625e+001 -6.049136e+000 1.850644e+000 -5.718669e+000 -2.897251e+000 -1.807967e+000 7.181365e+001 2.123651e-001 -9.008945e-001 2.818298e-001 -3.578257e-001 7.663268e-001 -6.972273e-001 -1.650593e-002 8.350840e-001 8.303608e-001 -8.911126e-001 -1.551376e-001 -1.817128e-001 1.191315e+000 -2.408917e-002 -1.056096e-002 -5.637968e-002 -1.025089e-001 1.663930e-001 4.106223e-002 8.046838e-002 1.349259e-002 2.822485e-002 4.644739e-002 2.310033e-002 -5.970184e-003 3.066428e-002
<VARIANCE> 39
 6.601009e+001 7.416055e+001 7.142486e+001 2.823707e+002 1.847693e+002 1.505195e+002 1.830319e+002 1.181026e+002 1.294764e+002 1.098263e+002 7.050294e+001 7.591690e+001 6.580498e+001 1.907185e+000 4.807089e+000 5.966324e+000 7.612989e+000 7.388171e+000 4.998468e+000 5.548844e+000 7.170670e+000 5.857999e+000 6.017187e+000 3.821698e+000 3.382672e+000 2.106673e+000 2.797404e-001 8.209107e-001 9.145013e-001 1.062130e+000 9.219745e-001 9.549143e-001 8.532319e-001 1.480664e+000 1.007360e+000 1.092475e+000 6.736963e-001 6.395063e-001 3.976257e-001
<GCONST> 1.497627e+002
<STATE> 3
<MEAN> 39
 4.377419e+000 -1.732671e+001 2.665332e+000 8.890684e+000 -3.027270e+000 8.343039e+000 -7.156593e+000 1.910220e+000 7.964441e+000 -9.838580e+000 3.162475e+000 -1.060741e+000 7.772582e+001 -1.622806e-001 1.740990e-001 1.289607e-001 9.383031e-002 6.817750e-002 -8.286745e-002 1.977366e-001 -4.683561e-002 -3.428906e-001 3.112366e-001 1.240850e-001 -2.918726e-002 -3.646754e-001 -3.677557e-003 4.443154e-002 5.055776e-002 1.660108e-002 -1.658950e-001 -3.440064e-002 2.349261e-003 1.655530e-002 -7.155029e-002 5.067705e-002 3.340035e-002 2.041326e-002 -6.086853e-002
<VARIANCE> 39
 7.169039e+001 5.522491e+001 3.193234e+001 4.973822e+002 1.105975e+002 1.940419e+002 5.984628e+001 5.396089e+001 8.925841e+001 3.870800e+001 8.862872e+001 5.900387e+001 5.369998e+001 4.014736e-001 1.348872e+000 1.817301e+000 2.817267e+000 3.429414e+000 2.971211e+000 2.566926e+000 2.258224e+000 2.740216e+000 1.858998e+000 1.899076e+000 2.031637e+000 5.766793e-001 5.836963e-002 1.586759e-001 2.082749e-001 3.915320e-001 4.281268e-001 4.777754e-001 3.683264e-001 4.060250e-001 4.468306e-001 3.280533e-001 2.861666e-001 2.898277e-001 4.868475e-002
<GCONST> 1.177995e+002
<STATE> 4
<MEAN> 39
 -1.078314e+001 -8.139533e+000 1.182886e+001 -1.163001e+001 -1.279983e+001 -1.597362e+001 -5.106218e+000 -1.694258e+000 -1.253756e+001 -2.119499e+000 -1.450513e-001 -6.325344e+000 6.318858e+001 -4.253279e-001 7.302861e-001 -4.056347e-001 1.225198e+000 -3.775736e-001 5.500902e-001 3.957127e-002 -2.057289e-001 -1.712351e-001 3.616401e-001 3.342492e-001 1.249650e-001 -1.443454e+000 -1.415289e-003 -4.032815e-003 -2.095132e-001 -1.607267e-003 1.595462e-001 7.217580e-002 -7.828379e-002 -6.258976e-002 1.235587e-001 -1.005876e-001 -6.114325e-002 2.217292e-003 -2.963175e-002
<VARIANCE> 39
 2.916560e+001 5.493534e+001 8.609653e+001 1.691996e+002 8.542875e+001 1.240324e+002 5.993383e+001 5.850407e+001 1.005760e+002 5.378475e+001 4.527218e+001 2.491466e+001 1.620365e+002 4.275145e-001 1.133259e+000 4.405170e+000 2.663451e+000 3.731727e+000 2.949319e+000 3.150331e+000 2.726707e+000 3.776873e+000 3.069687e+000 2.919832e+000 1.636438e+000 1.332408e+000 6.860737e-002 1.956048e-001 2.802819e-001 3.951735e-001 3.755421e-001 4.261026e-001 5.212878e-001 4.583319e-001 3.984211e-001 4.165710e-001 4.390206e-001 3.433453e-001 1.028214e-001
<GCONST> 1.216352e+002
<TRANSP> 5
 0.000000e+000 1.000000e+000 0.000000e+000 0.000000e+000 0.000000e+000
 0.000000e+000 8.341862e-001 1.658138e-001 0.000000e+000 0.000000e+000
 0.000000e+000 0.000000e+000 8.984841e-001 1.015159e-001 0.000000e+000
 0.000000e+000 0.000000e+000 0.000000e+000 8.225471e-001 1.774530e-001
 0.000000e+000 0.000000e+000 0.000000e+000 0.000000e+000 0.000000e+000
<ENDHMM>
~h "au"
<BEGINHMM>
<NUMSTATES> 5
<STATE> 2
<MEAN> 39
 -7.886500e+000 -7.929013e+000 -1.235495e+001 -1.170851e+000 -1.026084e+001 -1.850977e+001 3.445812e+000 1.033684e+001 -5.360868e+000 -1.315133e+001 2.802881e+000 2.089469e+000 8.290012e+001 -2.311757e-001 2.379013e-001 5.094496e-001 2.422308e-001 -2.673851e-001 -3.389116e-001 9.291183e-002 1.956292e-001 -2.635852e-002 -1.287763e-001 -1.628152e-001 -1.819434e-001 -1.855497e-001 -4.494411e-002 1.315140e-001 1.536966e-001 8.032971e-003 6.882212e-002 1.292118e-001 -7.130016e-002 -1.568542e-001 -5.219810e-002 -1.279246e-002 -9.747145e-002 -1.046915e-001 -5.129303e-002
<VARIANCE> 39
