~o
<STREAMINFO> 1 39
<VECSIZE> 39<NULLD><MFCC_D_A_0><DIAGC>
~h "@"
<BEGINHMM>
<NUMSTATES> 5
<STATE> 2
<MEAN> 39
 -7.371740e+000 -3.913475e+000 -7.421766e-001 -1.781191e+000 -4.876482e-001 -9.972724e-001 -8.827043e-001 -2.007697e+000 2.876521e+000 -3.849409e+000 1.970647e+000 -3.252904e-001 6.522220e+001 1.602295e-002 -1.191305e-002 -2.867128e-003 -2.384980e-002 -6.733721e-004 -4.493839e-003 5.371938e-003 4.113002e-004 -1.684706e-002 -8.153887e-003 -1.618383e-002 3.634693e-003 3.248304e-002 -3.112118e-004 -3.493170e-004 3.569702e-004 3.658059e-004 -6.254786e-004 -5.664529e-004 5.422052e-004 9.311389e-004 3.874747e-005 -1.505735e-004 -4.272841e-005 -1.721357e-005 -9.641443e-005
<VARIANCE> 39
 7.971294e+001 6.005104e+001 7.329146e+001 1.415658e+002 1.325187e+002 1.578622e+002 1.263854e+002 1.053490e+002 8.348247e+001 6.051645e+001 6.342276e+001 4.147747e+001 2.079005e+002 1.481881e+000 1.795709e+000 1.831550e+000 2.484119e+000 2.145599e+000 2.456755e+000 2.716293e+000 2.590422e+000 2.361115e+000 2.354182e+000 2.071249e+000 1.709594e+000 1.819834e+000 2.001994e-001 2.646034e-001 2.674260e-001 3.714881e-001 3.501830e-001 4.184700e-001 4.714980e-001 4.559231e-001 4.090002e-001 4.047240e-001 3.672820e-001 3.139279e-001 2.207160e-001
<GCONST> 1.260938e+002
<STATE> 3
<MEAN> 39
 -7.299128e+000 -3.972675e+000 -7.510873e-001 -1.885972e+000 -5.022252e-001 -1.026061e+000 -8.643884e-001 -2.000348e+000 2.808466e+000 -3.884106e+000 1.900156e+000 -3.159426e-001 6.537903e+001 1.537456e-002 -1.432836e-002 -1.149004e-003 -2.237836e-002 -3.878261e-003 -6.007396e-003 7.026770e-003 4.295539e-003 -1.449443e-002 -8.852664e-003 -1.593149e-002 3.109426e-003 3.318968e-002 -2.298705e-004 -4.646582e-004 5.208864e-004 7.364901e-004 -7.541871e-004 -2.910315e-004 4.064524e-004 1.010465e-003 6.636279e-004 -2.463897e-004 1.413109e-004 -1.059782e-004 -1.751433e-004
<VARIANCE> 39
 8.051858e+001 6.050531e+001 7.389362e+001 1.429432e+002 1.334473e+002 1.587028e+002 1.258857e+002 1.065087e+002 8.340669e+001 6.167065e+001 6.433224e+001 4.180157e+001 2.087492e+002 1.522616e+000 1.803416e+000 1.865597e+000 2.484578e+000 2.181183e+000 2.457274e+000 2.727490e+000 2.630268e+000 2.382848e+000 2.373962e+000 2.076474e+000 1.716172e+000 1.839003e+000 2.059967e-001 2.650497e-001 2.720829e-001 3.718927e-001 3.541621e-001 4.192879e-001 4.750298e-001 4.624093e-001 4.121944e-001 4.075370e-001 3.682353e-001 3.148777e-001 2.227956e-001
<GCONST> 1.264261e+002
<STATE> 4
<MEAN> 39
 -7.313609e+000 -3.994019e+000 -5.007625e-001 -2.661242e+000 -3.630471e-002 -1.809307e+000 -7.043900e-001 -2.305555e+000 2.750525e+000 -3.917792e+000 1.933275e+000 -6.285039e-001 6.503661e+001 1.737421e-002 -1.703142e-002 3.205103e-005 -1.799844e-002 -8.378741e-003 -4.648214e-003 4.992047e-003 7.407620e-003 -6.989260e-003 -6.872624e-003 -1.393561e-002 -1.031358e-003 3.335736e-002 -2.161635e-004 -8.383021e-005 3.848363e-004 1.176707e-003 -4.161571e-004 3.312207e-004 2.346414e-004 7.267209e-004 9.274542e-004 2.739083e-005 3.726346e-004 -2.719861e-004 -8.839460e-004
<VARIANCE> 39
 7.867759e+001 5.819585e+001 7.481615e+001 1.413811e+002 1.373694e+002 1.553336e+002 1.329000e+002 1.149949e+002 8.504578e+001 6.385422e+001 6.822765e+001 4.065962e+001 2.182460e+002 1.533122e+000 1.749701e+000 1.840047e+000 2.441190e+000 2.159658e+000 2.375423e+000 2.696860e+000 2.648485e+000 2.360785e+000 2.330204e+000 2.058016e+000 1.695852e+000 1.843431e+000 2.070032e-001 2.583010e-001 2.681413e-001 3.675190e-001 3.498661e-001 4.079825e-001 4.714319e-001 4.657122e-001 4.077162e-001 4.009414e-001 3.656322e-001 3.106063e-001 2.223827e-001
<GCONST> 1.263472e+002
<TRANSP> 5
 0.000000e+000 1.000000e+000 0.000000e+000 0.000000e+000 0.000000e+000
 0.000000e+000 7.711585e-001 2.288415e-001 0.000000e+000 0.000000e+000
 0.000000e+000 0.000000e+000 7.711572e-001 2.288429e-001 0.000000e+000
 0.000000e+000 0.000000e+000 0.000000e+000 9.029788e-001 9.702110e-002
 0.000000e+000 0.000000e+000 0.000000e+000 0.000000e+000 0.000000e+000
<ENDHMM>
~h "a"
<BEGINHMM>
<NUMSTATES> 5
<STATE> 2
<MEAN> 39
 -7.173602e+000 -4.786891e+000 -9.625003e-001 -2.112407e+000 -1.759720e+000 -1.670826e+000 -1.768937e+000 -6.752436e-001 2.220962e+000 -4.039302e+000 1.478334e+000 -8.818570e-001 6.526685e+001 1.227227e-003 -1.970465e-003 3.435513e-003 -3.129999e-003 -8.127476e-003 -2.699330e-003 -3.909949e-003 7.218331e-005 -1.208086e-003 1.044381e-003 1.770745e-003 -1.392946e-003 4.533241e-004 -5.512529e-005 2.403733e-004 5.403384e-005 -1.902188e-004 5.274426e-005 1.401842e-004 -1.747548e-004 -3.560847e-004 -7.548826e-005 9.083688e-005 1.033546e-004 -1.234085e-004 -7.010837e-005
<VARIANCE> 39
 7.904982e+001 6.348525e+001 7.094460e+001 1.373908e+002 1.296701e+002 1.597475e+002 1.246191e+002 1.054958e+002 9.913049e+001 5.494312e+001 6.918889e+001 4.475441e+001 2.317421e+002 1.189090e+000 1.769191e+000 1.795826e+000 2.375811e+000 2.273239e+000 2.230819e+000 2.573231e+000 2.470141e+000 2.401442e+000 2.188293e+000 2.044900e+000 1.697987e+000 1.956237e+000 1.531934e-001 2.441821e-001 2.499280e-001 3.368574e-001 3.622355e-001 3.763680e-001 4.370556e-001 4.165984e-001 4.058452e-001 3.834549e-001 3.524556e-001 2.979102e-001 2.013009e-001
<GCONST> 1.249606e+002
<STATE> 3
<MEAN> 39
 -7.168654e+000 -4.789691e+000 -9.451372e-001 -2.128553e+000 -1.794363e+000 -1.679962e+000 -1.788040e+000 -6.779602e-001 2.217463e+000 -4.034499e+000 1.485228e+000 -8.895258e-001 6.526670e+001 8.197159e-004 -4.587802e-004 4.192650e-003 -3.435136e-003 -7.731788e-003 -1.784483e-003 -4.571565e-003 -1.515975e-003 -1.079926e-003 1.464612e-003 2.008409e-003 -2.151711e-003 -2.074912e-004 -7.510604e-005 3.340283e-004 1.589396e-004 -7.888416e-005 1.676894e-004 1.954302e-004 -1.521636e-004 -3.461658e-004 9.735352e-005 1.132709e-004 -2.947127e-005 -1.901738e-004 -7.135107e-005
<VARIANCE> 39
 7.897871e+001 6.360462e+001 7.130693e+001 1.373098e+002 1.300411e+002 1.596623e+002 1.248592e+002 1.053705e+002 9.925734e+001 5.493677e+001 6.915942e+001 4.465454e+001 2.319617e+002 1.185556e+000 1.773898e+000 1.799139e+000 2.381014e+000 2.275288e+000 2.234177e+000 2.580406e+000 2.471391e+000 2.402066e+000 2.188842e+000 2.044968e+000 1.696937e+000 1.953032e+000 1.524787e-001 2.450985e-001 2.501465e-001 3.373898e-001 3.626432e-001 3.766551e-001 4.378570e-001 4.164905e-001 4.060706e-001 3.835804e-001 3.521343e-001 2.978784e-001 2.007924e-001
<GCONST> 1.249787e+002
<STATE> 4
<MEAN> 39
 -7.331987e+000 -4.660139e+000 -6.092088e-001 -2.871769e+000 -1.295982e+000 -2.313412e+000 -1.728667e+000 -1.034608e+000 2.176661e+000 -3.967677e+000 1.533739e+000 -1.219892e+000 6.443172e+001 -1.206944e-003 4.034007e-003 6.160205e-003 -1.278354e-003 -4.682088e-003 9.525437e-004 -4.269415e-003 -3.452732e-003 4.398840e-004 2.191332e-003 2.100244e-003 -2.484372e-003 -4.184980e-003 -2.143763e-004 4.124471e-004 2.301196e-004 2.367046e-004 3.647332e-004 2.386628e-004 -2.148139e-005 -2.361240e-004 1.609205e-004 1.317391e-004 -4.709879e-005 -1.013504e-004 -2.966840e-004
<VARIANCE> 39
 7.360194e+001 6.109081e+001 7.243791e+001 1.355916e+002 1.339365e+002 1.548058e+002 1.323457e+002 1.111859e+002 1.002868e+002 5.523936e+001 7.230235e+001 4.328334e+001 2.380322e+002 1.153590e+000 1.731601e+000 1.760454e+000 2.386873e+000 2.248518e+000 2.173441e+000 2.588066e+000 2.449088e+000 2.356985e+000 2.144538e+000 2.034477e+000 1.672432e+000 1.964301e+000 1.496271e-001 2.381401e-001 2.451354e-001 3.365337e-001 3.592409e-001 3.689842e-001 4.385222e-001 4.128549e-001 3.996466e-001 3.770565e-001 3.498864e-001 2.939814e-001 2.014002e-001
<GCONST> 1.247095e+002
<TRANSP> 5
 0.000000e+000 1.000000e+000 0.000000e+000 0.000000e+000 0.000000e+000
 0.000000e+000 7.760329e-001 2.239671e-001 0.000000e+000 0.000000e+000
 0.000000e+000 0.000000e+000 7.760340e-001 2.239660e-001 0.000000e+000
 0.000000e+000 0.000000e+000 0.000000e+000 9.082016e-001 9.179845e-002
 0.000000e+000 0.000000e+000 0.000000e+000 0.000000e+000 0.000000e+000
<ENDHMM>
~h "b"
<BEGINHMM>
<NUMSTATES> 5
<STATE> 2
<MEAN> 39
 -6.662902e+000 -4.668732e+000 -8.521637e-001 -1.323653e+000 -7.818768e-001 -1.340492e+000 -1.304943e+000 -1.150073e+000 3.122326e+000 -4.256668e+000 1.975178e+000 -5.940744e-001 6.534688e+001 5.643289e-003 -1.371191e-002 -8.959053e-003 7.281841e-003 3.918591e-003 -4.229445e-003 5.316075e-004 3.411731e-003 1.241238e-002 -3.108208e-003 3.967240e-003 4.803037e-003 8.744145e-003 2.684571e-004 -7.849545e-005 2.759394e-004 8.004431e-004 -3.651491e-004 1.653116e-004 7.066534e-005 8.066290e-004 2.866978e-004 -1.191782e-004 -1.057718e-003 -1.117738e-004 -1.181209e-003
<VARIANCE> 39
 7.778508e+001 5.634714e+001 6.166067e+001 1.396181e+002 1.306205e+002 1.734568e+002 1.235149e+002 1.074753e+002 9.620338e+001 5.658026e+001 6.892434e+001 4.450581e+001 2.326465e+002 1.008162e+000 1.658415e+000 1.513185e+000 2.164497e+000 2.013440e+000 2.268371e+000 2.340712e+000 2.156006e+000 2.353337e+000 2.124508e+000 2.008750e+000 1.644176e+000 1.913402e+000 1.308165e-001 2.286216e-001 2.273898e-001 3.203049e-001 3.216070e-001 3.747280e-001 4.042498e-001 3.726112e-001 3.974903e-001 3.764823e-001 3.423831e-001 2.849141e-001 2.083786e-001
<GCONST> 1.230830e+002
<STATE> 3
<MEAN> 39
 -6.636601e+000 -4.733589e+000 -8.863987e-001 -1.289751e+000 -7.630371e-001 -1.355490e+000 -1.301226e+000 -1.128607e+000 3.177095e+000 -4.266798e+000 1.978470e+000 -5.760554e-001 6.538150e+001 6.512159e-003 -1.547697e-002 -7.053104e-003 8.703245e-003 4.733794e-003 -3.779686e-003 9.776274e-004 6.775169e-003 1.333161e-002 -2.295927e-003 2.322413e-004 4.591601e-003 8.565531e-003 1.310084e-004 -3.708820e-004 4.413826e-004 2.073896e-004 2.149472e-004 7.588173e-005 1.886464e-004 7.573683e-004 2.138690e-004 1.894959e-004 -6.944336e-004 -8.144780e-005 1.379889e-004
<VARIANCE> 39
 7.832711e+001 5.596587e+001 6.127113e+001 1.406967e+002 1.305932e+002 1.730654e+002 1.235204e+002 1.083832e+002 9.576607e+001 5.677956e+001 6.936614e+001 4.497277e+001 2.333552e+002 1.013515e+000 1.652363e+000 1.512987e+000 2.156985e+000 2.009092e+000 2.279085e+000 2.348681e+000 2.163115e+000 2.357012e+000 2.147377e+000 2.004111e+000 1.650605e+000 1.853165e+000 1.314228e-001 2.268175e-001 2.280748e-001 3.178832e-001 3.206183e-001 3.768669e-001 4.057021e-001 3.736767e-001 3.991088e-001 3.799268e-001 3.418655e-001 2.852762e-001 1.962967e-001
<GCONST> 1.230528e+002
<STATE> 4
<MEAN> 39
 -6.772637e+000 -4.738511e+000 -6.019755e-001 -2.125026e+000 -8.628392e-002 -2.105618e+000 -9.806013e-001 -1.385383e+000 3.270234e+000 -4.164184e+000 2.147437e+000 -9.017475e-001 6.479230e+001 7.858197e-003 -1.828147e-002 -2.486080e-003 -1.206333e-003 1.838029e-003 -5.682104e-003 -1.926405e-003 9.957795e-003 1.241047e-002 1.985128e-003 4.130986e-004 3.843106e-003 1.894304e-002 2.046613e-005 -1.632817e-004 4.997912e-004 -9.125037e-004 -2.465398e-004 -7.926203e-005 -1.417357e-004 4.381751e-004 1.063208e-004 4.414518e-004 1.074298e-004 -3.721891e-005 8.605039e-004
<VARIANCE> 39
 7.344086e+001 5.266689e+001 6.238408e+001 1.409452e+002 1.337643e+002 1.653126e+002 1.315306e+002 1.169577e+002 9.542311e+001 5.730040e+001 7.360437e+001 4.422218e+001 2.409286e+002 1.003754e+000 1.595028e+000 1.490234e+000 2.166916e+000 2.010201e+000 2.195567e+000 2.379457e+000 2.157731e+000 2.322367e+000 2.134107e+000 1.981154e+000 1.653393e+000 1.915030e+000 1.315613e-001 2.174664e-001 2.244774e-001 3.159861e-001 3.228447e-001 3.681533e-001 4.092655e-001 3.720023e-001 3.959164e-001 3.771127e-001 3.403129e-001 2.869245e-001 1.976947e-001
<GCONST> 1.229824e+002
<TRANSP> 5
 0.000000e+000 1.000000e+000 0.000000e+000 0.000000e+000 0.000000e+000
 0.000000e+000 7.742853e-001 2.257147e-001 0.000000e+000 0.000000e+000
 0.000000e+000 0.000000e+000 7.742850e-001 2.257150e-001 0.000000e+000
 0.000000e+000 0.000000e+000 0.000000e+000 9.056790e-001 9.432098e-002
 0.000000e+000 0.000000e+000 0.000000e+000 0.000000e+000 0.000000e+000
<ENDHMM>
~h "c"
<BEGINHMM>
<NUMSTATES> 5
<STATE> 2
<MEAN> 39
 -1.004930e+001 -3.381492e+000 -2.940869e+000 5.056890e-001 -5.839034e+000 -2.890928e+000 -3.344463e+000 1.032267e+000 -6.028644e-001 -5.591741e+000 -4.385963e-001 -1.580079e+000 6.658288e+001 -1.790492e-002 -3.351167e-003 -5.551468e-003 8.372444e-003 -1.095638e-002 1.822636e-002 3.873665e-002 -1.695313e-002 -2.769526e-002 -1.514963e-002 1.867766e-002 4.539324e-002 -4.986306e-002 -2.657377e-004 -6.832993e-004 1.419042e-004 -9.782887e-004 5.600797e-004 -4.181720e-004 -1.423658e-003 -1.266108e-003 -1.956892e-003 -5.790914e-004 3.246999e-004 1.156985e-004 1.015193e-003
<VARIANCE> 39
 1.119040e+002 5.584291e+001 6.801252e+001 1.104866e+002 4.440216e+001 1.783075e+002 9.016076e+001 6.040997e+001 1.113450e+002 3.905574e+001 4.131518e+001 4.806316e+001 2.524671e+002 1.694488e+000 2.624645e+000 2.694013e+000 2.305465e+000 2.185539e+000 2.477428e+000 3.279974e+000 2.806919e+000 2.507268e+000 2.068665e+000 1.878667e+000 1.803955e+000 1.955773e+000 2.423436e-001 4.101636e-001 3.782186e-001 3.179252e-001 3.617715e-001 3.928735e-001 5.945892e-001 5.031385e-001 4.163316e-001 3.575673e-001 3.425697e-001 2.974023e-001 1.871976e-001
<GCONST> 1.257404e+002
<STATE> 3
<MEAN> 39
 -1.013599e+001 -3.397581e+000 -2.963403e+000 5.448930e-001 -5.878901e+000 -2.823460e+000 -3.177836e+000 9.468910e-001 -7.455445e-001 -5.660067e+000 -3.599233e-001 -1.381797e+000 6.635474e+001 -1.746089e-002 -7.123047e-003 -5.031207e-003 4.618800e-003 -8.779736e-003 1.615827e-002 3.392807e-002 -1.993058e-002 -3.454613e-002 -1.767666e-002 1.928333e-002 4.428584e-002 -4.333489e-002 1.973738e-004 -8.843783e-004 1.309800e-004 -9.240378e-004 3.601115e-004 -8.122516e-004 -1.192109e-003 -4.473763e-004 -1.722016e-003 -6.982172e-004 6.658323e-005 -4.975717e-004 1.623027e-003
<VARIANCE> 39
 1.098349e+002 5.776216e+001 6.955000e+001 1.087440e+002 4.472279e+001 1.792226e+002 8.685261e+001 5.930409e+001 1.080974e+002 3.974947e+001 4.215245e+001 4.742432e+001 2.591235e+002 1.714244e+000 2.657068e+000 2.770217e+000 2.281108e+000 2.190928e+000 2.440057e+000 3.205386e+000 2.770933e+000 2.529511e+000 2.090055e+000 1.877312e+000 1.771332e+000 1.958284e+000 2.447571e-001 4.149481e-001 3.917326e-001 3.150485e-001 3.635522e-001 3.896574e-001 5.815176e-001 4.995336e-001 4.240554e-001 3.608647e-001 3.417731e-001 2.918011e-001 1.896049e-001
<GCONST> 1.257669e+002
<STATE> 4
<MEAN> 39
 -1.054251e+001 -3.409411e+000 -2.733966e+000 -4.622065e-002 -6.222301e+000 -3.559856e+000 -3.843686e+000 3.214140e-001 -1.625716e+000 -5.697186e+000 -7.652076e-001 -1.511911e+000 6.416393e+001 -1.238484e-002 -1.474893e-002 -5.231784e-003 1.257384e-003 -5.679192e-003 8.283368e-003 2.900822e-002 -1.604830e-002 -3.703720e-002 -1.915819e-002 1.479303e-002 3.453426e-002 -3.123053e-002 8.788483e-004 -1.185902e-003 -7.368829e-005 -9.048990e-004 1.682100e-004 -1.084830e-003 -1.078451e-003 6.056100e-004 -7.412691e-004 -6.030948e-004 -3.084043e-004 -1.390299e-003 2.394995e-003
<VARIANCE> 39
 1.017174e+002 6.421378e+001 7.537848e+001 1.187025e+002 4.865823e+001 1.801763e+002 8.326288e+001 6.333559e+001 9.917028e+001 4.024331e+001 4.793455e+001 4.944536e+001 2.817443e+002 1.933318e+000 2.855258e+000 3.038029e+000 2.554461e+000 2.452603e+000 2.398789e+000 3.329162e+000 2.811343e+000 2.613985e+000 2.179740e+000 2.004189e+000 1.834129e+000 2.362109e+000 2.802661e-001 4.392280e-001 4.329678e-001 3.457651e-001 4.115407e-001 3.956486e-001 6.135505e-001 5.038089e-001 4.468280e-001 3.868529e-001 3.650478e-001 3.001419e-001 2.306884e-001
<GCONST> 1.281647e+002
<TRANSP> 5
 0.000000e+000 1.000000e+000 0.000000e+000 0.000000e+000 0.000000e+000
 0.000000e+000 7.691868e-001 2.308132e-001 0.000000e+000 0.000000e+000
 0.000000e+000 0.000000e+000 7.691873e-001 2.308127e-001 0.000000e+000
 0.000000e+000 0.000000e+000 0.000000e+000 9.009910e-001 9.900910e-002
 0.000000e+000 0.000000e+000 0.000000e+000 0.000000e+000 0.000000e+000
<ENDHMM>
~h "d"
<BEGINHMM>
<NUMSTATES> 5
<STATE> 2
<MEAN> 39
 -6.728196e+000 -3.047460e+000 -5.691707e-001 -3.240968e-001 -1.174093e+000 -8.169821e-001 -2.068048e+000 -1.165736e+000 2.404588e+000 -4.310723e+000 2.066340e+000 -5.542509e-001 6.412653e+001 -2.370780e-002 1.656245e-002 -2.020108e-003 5.464125e-004 1.250895e-002 -3.625551e-003 1.095193e-002 2.133738e-003 2.542358e-003 1.602589e-002 9.093588e-003 -3.766230e-003 -2.691659e-002 -9.854372e-004 -9.993465e-004 -7.812189e-004 -5.396785e-004 1.179270e-004 -8.228322e-004 1.871762e-004 6.017055e-004 2.986871e-004 9.266449e-004 -7.346224e-005 3.711593e-004 -2.360794e-004
<VARIANCE> 39
 8.002161e+001 5.408214e+001 5.901773e+001 1.355376e+002 1.142528e+002 1.662110e+002 1.188866e+002 1.060887e+002 8.495948e+001 6.015946e+001 6.140626e+001 4.696989e+001 2.253496e+002 1.021529e+000 1.635131e+000 1.572012e+000 2.078894e+000 2.014519e+000 2.378247e+000 2.469365e+000 2.428128e+000 2.195243e+000 2.275563e+000 1.946312e+000 1.774513e+000 1.794235e+000 1.336642e-001 2.330974e-001 2.334388e-001 3.018801e-001 3.296564e-001 4.021729e-001 4.098248e-001 4.128627e-001 3.815020e-001 3.978222e-001 3.435459e-001 3.100878e-001 1.897387e-001
<GCONST> 1.230373e+002
<STATE> 3
<MEAN> 39
 -6.837633e+000 -2.986232e+000 -5.876142e-001 -3.168780e-001 -1.114693e+000 -8.329023e-001 -2.011106e+000 -1.158738e+000 2.413373e+000 -4.236387e+000 2.103531e+000 -5.741193e-001 6.400538e+001 -2.724589e-002 1.115846e-002 -5.995861e-003 -3.409270e-004 1.243845e-002 -6.842174e-003 1.096541e-002 2.865129e-003 2.470760e-003 1.821982e-002 7.209665e-003 -4.169815e-003 -2.811668e-002 -5.095434e-004 -1.293319e-003 -8.122658e-004 -3.533871e-004 -3.878539e-004 -6.398426e-004 -1.250732e-004 6.099397e-005 7.651955e-006 2.230868e-004 -5.582214e-004 -1.761332e-004 6.171044e-005
<VARIANCE> 39
 7.900671e+001 5.372852e+001 5.941733e+001 1.346168e+002 1.143768e+002 1.654822e+002 1.186678e+002 1.051407e+002 8.518324e+001 6.030115e+001 6.079315e+001 4.634095e+001 2.246340e+002 1.010802e+000 1.624703e+000 1.570884e+000 2.086780e+000 2.009968e+000 2.382339e+000 2.447437e+000 2.408576e+000 2.196617e+000 2.268035e+000 1.929824e+000 1.759079e+000 1.768127e+000 1.318277e-001 2.303836e-001 2.324807e-001 3.030421e-001 3.298359e-001 4.025352e-001 4.061609e-001 4.093114e-001 3.818361e-001 3.972505e-001 3.416664e-001 3.082997e-001 1.863575e-001
<GCONST> 1.228442e+002
<STATE> 4
<MEAN> 39
 -7.132620e+000 -2.880285e+000 -3.945247e-001 -1.085707e+000 -6.693285e-001 -1.630105e+000 -1.975273e+000 -1.660603e+000 2.291214e+000 -4.180068e+000 2.244525e+000 -9.607533e-001 6.300344e+001 -2.915092e-002 1.709136e-003 -1.235483e-002 2.398020e-003 1.424460e-002 -6.484651e-003 1.450654e-002 3.916464e-003 3.097896e-003 1.862061e-002 3.522322e-003 -4.429034e-003 -2.700086e-002 -1.991686e-004 -1.226397e-003 -6.583394e-004 -3.324354e-004 -4.448463e-004 -1.951020e-005 -1.999814e-004 9.501430e-005 2.341511e-004 -2.688027e-005 -5.018635e-004 -8.384758e-005 5.531967e-004
<VARIANCE> 39
 7.207595e+001 5.155192e+001 6.287963e+001 1.318762e+002 1.199714e+002 1.615816e+002 1.247817e+002 1.099090e+002 8.915238e+001 5.981799e+001 6.278362e+001 4.550879e+001 2.300334e+002 9.893034e-001 1.589741e+000 1.579407e+000 2.103753e+000 2.000240e+000 2.299215e+000 2.430360e+000 2.352205e+000 2.188142e+000 2.220715e+000 1.884183e+000 1.724714e+000 1.783944e+000 1.295290e-001 2.232214e-001 2.320028e-001 3.039791e-001 3.311147e-001 3.927275e-001 4.029776e-001 4.012444e-001 3.806513e-001 3.902930e-001 3.366873e-001 3.030788e-001 1.857725e-001
<GCONST> 1.226281e+002
<TRANSP> 5
 0.000000e+000 1.000000e+000 0.000000e+000 0.000000e+000 0.000000e+000
 0.000000e+000 7.771264e-001 2.228736e-001 0.000000e+000 0.000000e+000
 0.000000e+000 0.000000e+000 7.771259e-001 2.228741e-001 0.000000e+000
 0.000000e+000 0.000000e+000 0.000000e+000 9.096580e-001 9.034201e-002
 0.000000e+000 0.000000e+000 0.000000e+000 0.000000e+000 0.000000e+000
<ENDHMM>
~h "e"
<BEGINHMM>
<NUMSTATES> 5
<STATE> 2
<MEAN> 39
 -8.830777e+000 -4.146893e+000 -5.515578e-001 -1.474312e+000 -1.072827e+000 -3.858986e+000 -2.675355e+000 -3.333861e+000 2.832750e-001 -4.663912e+000 2.176065e+000 -2.450724e+000 6.541286e+001 -3.048160e-003 -1.043717e-002 -1.865866e-002 6.577475e-003 -1.450538e-002 2.415513e-002 3.386076e-002 1.398760e-002 1.899761e-002 -9.942420e-003 4.320778e-003 1.818428e-002 -2.301213e-002 -5.440395e-004 3.524174e-004 1.220977e-004 9.768240e-004 1.602930e-003 2.210343e-004 1.388280e-003 3.758988e-004 3.123924e-004 1.708835e-004 3.024625e-004 -5.401058e-005 -1.280606e-005
<VARIANCE> 39
 8.499557e+001 4.767945e+001 6.479366e+001 1.158903e+002 1.488321e+002 1.664135e+002 1.288618e+002 9.786384e+001 1.165341e+002 4.863050e+001 6.390008e+001 3.857191e+001 2.538569e+002 7.507494e-001 1.445421e+000 1.693664e+000 2.072158e+000 2.392669e+000 2.615484e+000 2.418833e+000 2.196558e+000 2.300629e+000 2.200676e+000 1.981427e+000 1.530328e+000 1.228461e+000 9.907963e-002 2.146965e-001 2.609680e-001 3.185661e-001 4.008885e-001 4.064713e-001 4.085790e-001 3.791284e-001 3.958513e-001 3.742667e-001 3.566157e-001 2.787723e-001 1.341676e-001
<GCONST> 1.219915e+002
<STATE> 3
<MEAN> 39
 -8.861799e+000 -4.179853e+000 -6.290888e-001 -1.429108e+000 -1.118737e+000 -3.753859e+000 -2.514475e+000 -3.265349e+000 3.671146e-001 -4.709424e+000 2.199402e+000 -2.376104e+000 6.529300e+001 -5.371570e-003 -7.949014e-003 -1.776982e-002 1.046398e-002 -8.004454e-003 2.373497e-002 3.833323e-002 1.466561e-002 1.933710e-002 -8.543450e-003 5.839588e-003 1.776212e-002 -2.296338e-002 -6.511137e-004 6.395085e-004 4.822701e-005 8.036056e-004 1.586435e-003 -8.603626e-005 9.863700e-004 1.517233e-004 3.041731e-005 5.637726e-004 4.420398e-004 -1.990478e-004 -9.986108e-005
<VARIANCE> 39
 8.636328e+001 4.763623e+001 6.431208e+001 1.133695e+002 1.482813e+002 1.668674e+002 1.275983e+002 9.784447e+001 1.159650e+002 4.767276e+001 6.346750e+001 3.824356e+001 2.583607e+002 7.593099e-001 1.429460e+000 1.670073e+000 2.036302e+000 2.368788e+000 2.562292e+000 2.378819e+000 2.168471e+000 2.292125e+000 2.226925e+000 1.980598e+000 1.519287e+000 1.222070e+000 1.002271e-001 2.112602e-001 2.565449e-001 3.150862e-001 3.981139e-001 3.993755e-001 4.014414e-001 3.739619e-001 3.953702e-001 3.784373e-001 3.556893e-001 2.775808e-001 1.319533e-001
<GCONST> 1.217452e+002
<STATE> 4
<MEAN> 39
 -9.048836e+000 -4.107537e+000 -4.804545e-001 -2.142159e+000 -8.533584e-001 -4.466790e+000 -2.276813e+000 -3.597334e+000 1.241050e-001 -4.867774e+000 2.203136e+000 -2.692610e+000 6.426472e+001 -1.132356e-002 8.028360e-004 -1.203292e-002 1.591599e-002 6.421155e-004 1.542306e-002 3.348974e-002 1.351559e-002 1.656727e-002 -6.611126e-003 5.565036e-003 1.584212e-002 -2.501164e-002 -5.409198e-004 7.674449e-004 1.831713e-004 2.203340e-004 9.400818e-004 -6.747176e-004 -1.613962e-004 -1.413951e-004 -2.274570e-004 6.377658e-004 1.034932e-004 -1.514694e-004 7.974662e-005
<VARIANCE> 39
 8.081635e+001 4.608623e+001 6.595956e+001 1.104616e+002 1.532248e+002 1.591362e+002 1.353638e+002 1.034815e+002 1.190982e+002 4.620704e+001 6.637880e+001 3.790436e+001 2.737904e+002 7.661794e-001 1.337510e+000 1.626583e+000 2.023642e+000 2.327002e+000 2.414311e+000 2.379495e+000 2.137527e+000 2.257353e+000 2.219520e+000 1.947057e+000 1.492727e+000 1.319123e+000 1.025214e-001 1.955305e-001 2.505010e-001 3.162246e-001 3.938213e-001 3.858173e-001 3.999214e-001 3.665372e-001 3.924792e-001 3.801355e-001 3.523172e-001 2.733755e-001 1.383036e-001
<GCONST> 1.215516e+002
<TRANSP> 5
 0.000000e+000 1.000000e+000 0.000000e+000 0.000000e+000 0.000000e+000
 0.000000e+000 7.767395e-001 2.232605e-001 0.000000e+000 0.000000e+000
 0.000000e+000 0.000000e+000 7.767393e-001 2.232607e-001 0.000000e+000
 0.000000e+000 0.000000e+000 0.000000e+000 9.087194e-001 9.128060e-002
 0.000000e+000 0.000000e+000 0.000000e+000 0.000000e+000 0.000000e+000
<ENDHMM>
~h "f"
<BEGINHMM>
<NUMSTATES> 5
<STATE> 2
<MEAN> 39
 -1.000534e+001 -2.902323e+000 -3.905043e+000 -4.494996e+000 -5.490911e+000 -2.476199e+000 -3.743242e+000 3.149283e+000 -1.612378e+000 -1.472054e+000 -3.828735e-001 -2.307099e+000 5.807484e+001 3.435015e-003 -3.922264e-002 2.400548e-002 -2.860039e-002 4.467781e-003 1.374346e-002 -1.005492e-002 -1.355456e-002 -3.470339e-003 1.113476e-002 8.107807e-003 4.901373e-004 5.491350e-002 -1.501015e-003 6.647615e-004 1.110552e-003 2.563455e-003 2.719184e-003 -6.271798e-005 7.277939e-004 6.444042e-004 9.482992e-004 5.013531e-005 -5.302771e-004 -5.746909e-004 -6.144175e-004
<VARIANCE> 39
 5.721875e+001 3.906703e+001 7.100158e+001 1.005871e+002 6.636874e+001 1.096673e+002 1.016575e+002 9.074987e+001 6.489738e+001 6.519715e+001 2.908678e+001 3.000991e+001 2.554540e+002 1.969490e+000 1.406105e+000 1.770943e+000 2.816503e+000 2.854507e+000 2.265098e+000 3.200623e+000 2.699605e+000 2.187797e+000 1.916319e+000 1.884094e+000 1.501128e+000 1.725688e+000 2.465144e-001 2.012003e-001 2.125590e-001 3.529899e-001 4.474173e-001 3.575989e-001 5.382323e-001 4.661373e-001 3.644941e-001 3.502496e-001 3.197823e-001 2.527080e-001 1.758491e-001
<GCONST> 1.214966e+002
<STATE> 3
<MEAN> 39
 -1.000953e+001 -3.072326e+000 -3.769221e+000 -4.620595e+000 -5.440924e+000 -2.401514e+000 -3.789100e+000 3.098012e+000 -1.603860e+000 -1.404065e+000 -3.581090e-001 -2.315550e+000 5.832396e+001 -5.562564e-003 -3.448116e-002 2.913540e-002 -1.501538e-002 1.774149e-002 1.321666e-002 -6.398145e-003 -9.058288e-003 2.798512e-003 1.226043e-002 4.523831e-003 -2.001377e-003 4.850706e-002 -1.921154e-003 1.070339e-003 1.068623e-003 2.812856e-003 3.127819e-003 -2.185011e-004 3.055427e-004 8.730142e-004 1.323085e-003 1.674506e-004 -8.953743e-004 -7.219294e-004 -1.202826e-003
<VARIANCE> 39
 5.624200e+001 4.046591e+001 7.147644e+001 1.039692e+002 6.794189e+001 1.113142e+002 1.040474e+002 9.183166e+001 6.425932e+001 6.638861e+001 2.913327e+001 3.060249e+001 2.563257e+002 1.917829e+000 1.384317e+000 1.770777e+000 2.803393e+000 2.779583e+000 2.257496e+000 3.174578e+000 2.692228e+000 2.174416e+000 1.899893e+000 1.857588e+000 1.498042e+000 1.727432e+000 2.400209e-001 1.965122e-001 2.130050e-001 3.487011e-001 4.328072e-001 3.580888e-001 5.329443e-001 4.588309e-001 3.597024e-001 3.468712e-001 3.163670e-001 2.523528e-001 1.742734e-001
<GCONST> 1.213808e+002
<STATE> 4
<MEAN> 39
 -9.907142e+000 -3.268920e+000 -3.263944e+000 -4.805771e+000 -5.062964e+000 -1.557518e+000 -4.414819e+000 2.861523e+000 -1.324728e+000 -5.624576e-001 -4.997367e-001 -2.451727e+000 5.718927e+001 -2.256217e-002 -1.899238e-002 3.257881e-002 1.073882e-002 3.248316e-002 1.073461e-002 3.069115e-003 3.386399e-003 1.577198e-002 1.570345e-002 -7.159637e-003 -2.947928e-003 2.144528e-002 -1.838558e-003 1.447028e-003 1.470498e-004 3.352124e-003 2.449214e-003 -6.998536e-004 3.845291e-004 1.005383e-003 1.110548e-003 -2.400580e-004 -1.213977e-003 -3.744264e-004 -2.311595e-003
<VARIANCE> 39
 5.687207e+001 4.361773e+001 7.330561e+001 1.150962e+002 6.981141e+001 1.114323e+002 1.021124e+002 9.029504e+001 6.458948e+001 6.359462e+001 3.034488e+001 3.222898e+001 2.362612e+002 1.909341e+000 1.405834e+000 1.797124e+000 2.913568e+000 2.678055e+000 2.197350e+000 3.222409e+000 2.593480e+000 2.187780e+000 1.874886e+000 1.852045e+000 1.505938e+000 1.785981e+000 2.404613e-001 1.983676e-001 2.174331e-001 3.574488e-001 4.195634e-001 3.535908e-001 5.336842e-001 4.428259e-001 3.625520e-001 3.474970e-001 3.186221e-001 2.537972e-001 1.819700e-001
<GCONST> 1.216102e+002
<TRANSP> 5
 0.000000e+000 1.000000e+000 0.000000e+000 0.000000e+000 0.000000e+000
 0.000000e+000 7.880270e-001 2.119729e-001 0.000000e+000 0.000000e+000
 0.000000e+000 0.000000e+000 7.880273e-001 2.119727e-001 0.000000e+000
 0.000000e+000 0.000000e+000 0.000000e+000 9.213200e-001 7.867990e-002
 0.000000e+000 0.000000e+000 0.000000e+000 0.000000e+000 0.000000e+000
<ENDHMM>
~h "g"
<BEGINHMM>
<NUMSTATES> 5
<STATE> 2
<MEAN> 39
 -6.598136e+000 -4.292147e+000 3.872363e-001 5.307441e-002 -1.244455e+000 -4.791991e-001 -1.700330e+000 -1.153984e+000 2.860478e+000 -4.007595e+000 2.678787e+000 -6.674272e-001 6.376485e+001 2.118988e-002 -4.511383e-003 -1.952237e-002 3.017402e-005 1.502398e-003 -1.089452e-003 -1.306919e-002 -7.303946e-003 -7.452778e-003 1.371051e-002 4.828901e-003 -1.669697e-003 -6.436601e-004 -3.205642e-004 1.334116e-004 1.586880e-003 -5.426781e-004 -3.773079e-004 -1.578125e-003 -5.200928e-004 1.269005e-004 -1.172559e-003 -2.823159e-004 9.180520e-004 -1.797336e-004 1.106828e-003
<VARIANCE> 39
 7.283735e+001 7.127860e+001 7.906894e+001 1.347345e+002 1.513834e+002 1.783316e+002 1.185539e+002 1.186502e+002 1.043104e+002 6.617697e+001 6.107033e+001 5.053652e+001 2.436824e+002 8.638046e-001 1.902660e+000 1.917877e+000 2.601741e+000 2.780816e+000 2.310936e+000 2.512645e+000 2.393158e+000 2.175762e+000 2.416476e+000 2.075411e+000 1.653951e+000 1.621979e+000 1.074179e-001 2.964933e-001 2.723392e-001 4.004231e-001 4.582141e-001 3.899016e-001 4.067602e-001 3.981704e-001 3.548135e-001 4.147040e-001 3.669596e-001 2.807473e-001 1.727718e-001
<GCONST> 1.256159e+002
<STATE> 3
<MEAN> 39
 -6.497366e+000 -4.312312e+000 3.209441e-001 3.424533e-002 -1.250243e+000 -5.087469e-001 -1.789659e+000 -1.196858e+000 2.809591e+000 -3.939405e+000 2.718995e+000 -6.767034e-001 6.378697e+001 2.041405e-002 -4.098740e-003 -1.122958e-002 -5.109412e-003 -1.036968e-003 -9.111569e-003 -2.060149e-002 -9.648863e-003 -1.259179e-002 1.322831e-002 8.315057e-003 -1.764088e-003 6.559518e-003 -9.942005e-005 1.712669e-004 1.596987e-003 -1.111951e-003 -7.230348e-004 -1.806820e-003 -1.724403e-003 -6.190382e-004 -1.189944e-003 -3.253460e-004 6.141323e-004 -1.011487e-006 1.352112e-003
<VARIANCE> 39
 7.201605e+001 7.129716e+001 7.812316e+001 1.360864e+002 1.502161e+002 1.786999e+002 1.191218e+002 1.185799e+002 1.047220e+002 6.669103e+001 6.141129e+001 5.099981e+001 2.446725e+002 8.476599e-001 1.902462e+000 1.939000e+000 2.625732e+000 2.797543e+000 2.324653e+000 2.516258e+000 2.422486e+000 2.185083e+000 2.418968e+000 2.102859e+000 1.651910e+000 1.633041e+000 1.062653e-001 2.987768e-001 2.773723e-001 4.058811e-001 4.617165e-001 3.934245e-001 4.060384e-001 4.035855e-001 3.567046e-001 4.131053e-001 3.717772e-001 2.794277e-001 1.754349e-001
<GCONST> 1.257645e+002
<STATE> 4
<MEAN> 39
 -6.577901e+000 -4.017635e+000 4.771668e-001 -9.493914e-001 -8.121616e-001 -1.496219e+000 -2.040324e+000 -1.610371e+000 2.398498e+000 -3.817728e+000 2.810665e+000 -1.072748e+000 6.310051e+001 2.556416e-002 -7.602671e-003 1.181081e-003 -2.137604e-002 -1.167753e-002 -1.888993e-002 -3.832567e-002 -1.566113e-002 -1.708587e-002 8.870729e-003 9.057003e-003 -1.641116e-003 2.980334e-002 2.295778e-004 -1.232824e-004 9.452314e-004 -1.190443e-003 -9.538543e-004 -1.160326e-003 -1.327660e-003 -4.849444e-004 -5.589022e-004 -8.377444e-004 -1.376863e-004 3.208733e-006 1.538769e-003
<VARIANCE> 39
 6.463857e+001 6.571817e+001 7.746095e+001 1.304198e+002 1.521264e+002 1.722741e+002 1.281134e+002 1.254401e+002 1.086725e+002 6.759937e+001 6.334032e+001 4.943810e+001 2.493756e+002 8.202517e-001 1.840456e+000 1.956959e+000 2.606429e+000 2.771885e+000 2.278536e+000 2.536535e+000 2.471588e+000 2.164441e+000 2.417300e+000 2.131256e+000 1.613867e+000 1.770805e+000 1.069471e-001 2.946418e-001 2.859881e-001 4.064702e-001 4.610318e-001 3.883292e-001 4.054373e-001 4.127885e-001 3.546019e-001 4.100728e-001 3.755752e-001 2.747146e-001 1.963667e-001
<GCONST> 1.258176e+002
<TRANSP> 5
 0.000000e+000 1.000000e+000 0.000000e+000 0.000000e+000 0.000000e+000
 0.000000e+000 7.804402e-001 2.195598e-001 0.000000e+000 0.000000e+000
 0.000000e+000 0.000000e+000 7.804407e-001 2.195592e-001 0.000000e+000
 0.000000e+000 0.000000e+000 0.000000e+000 9.136325e-001 8.636752e-002
 0.000000e+000 0.000000e+000 0.000000e+000 0.000000e+000 0.000000e+000
<ENDHMM>
~h "h"
<BEGINHMM>
<NUMSTATES> 5
<STATE> 2
<MEAN> 39
 -7.419613e+000 -4.540783e+000 -1.713028e+000 -1.646499e+000 -9.258440e-001 -5.302811e-001 -1.058186e+000 -3.216327e-001 2.270947e+000 -3.418164e+000 1.276841e+000 -6.663044e-001 6.304554e+001 -1.338940e-002 1.323636e-002 1.544653e-002 1.329087e-002 5.984603e-003 5.573542e-003 -8.890301e-003 -2.371290e-002 -1.441900e-002 1.981520e-003 1.575258e-002 6.734441e-003 -2.069368e-003 1.058961e-003 1.541111e-004 1.385396e-003 -1.253449e-003 -3.296961e-004 -1.727669e-004 -9.551065e-004 -3.682729e-004 -4.947108e-004 -1.254114e-003 -1.160673e-003 -3.296022e-004 2.038632e-003
<VARIANCE> 39
 6.944532e+001 6.619385e+001 5.499144e+001 1.398738e+002 1.226744e+002 1.395825e+002 1.134193e+002 1.046850e+002 9.321307e+001 5.685285e+001 6.341962e+001 4.494507e+001 2.371920e+002 9.852747e-001 1.642077e+000 1.526063e+000 2.441404e+000 1.966903e+000 2.157245e+000 2.544657e+000 2.281976e+000 2.277783e+000 2.227974e+000 1.997079e+000 1.744511e+000 1.822073e+000 1.297418e-001 2.213133e-001 2.255858e-001 3.478067e-001 3.017403e-001 3.633233e-001 4.272524e-001 3.789844e-001 3.952050e-001 3.876615e-001 3.439221e-001 3.029274e-001 1.936747e-001
<GCONST> 1.227551e+002
<STATE> 3
<MEAN> 39
 -7.469597e+000 -4.473378e+000 -1.631641e+000 -1.605916e+000 -9.097564e-001 -5.075355e-001 -1.106252e+000 -4.252837e-001 2.205318e+000 -3.419935e+000 1.338275e+000 -6.387557e-001 6.305635e+001 -9.282834e-003 1.423842e-002 2.197658e-002 8.523697e-003 3.292504e-003 5.019947e-003 -1.257855e-002 -2.496984e-002 -1.655244e-002 -2.760805e-003 1.174872e-002 5.280041e-003 5.918276e-003 8.172987e-004 1.654839e-004 1.074850e-003 -1.285375e-003 -6.294769e-004 -2.116050e-004 -4.635323e-004 1.795853e-004 -2.720046e-004 -7.651472e-004 -9.701313e-004 -2.875687e-004 1.519785e-003
<VARIANCE> 39
 6.961395e+001 6.675792e+001 5.585442e+001 1.400669e+002 1.228405e+002 1.399864e+002 1.134812e+002 1.044837e+002 9.198877e+001 5.747187e+001 6.302387e+001 4.469003e+001 2.404370e+002 9.918594e-001 1.655352e+000 1.538820e+000 2.426638e+000 1.958236e+000 2.157497e+000 2.554917e+000 2.295213e+000 2.269065e+000 2.231034e+000 2.005141e+000 1.728202e+000 1.835336e+000 1.309489e-001 2.228773e-001 2.258934e-001 3.451253e-001 3.008977e-001 3.646654e-001 4.290005e-001 3.826002e-001 3.938763e-001 3.888129e-001 3.455267e-001 3.026025e-001 1.957293e-001
<GCONST> 1.228451e+002
<STATE> 4
<MEAN> 39
 -7.551017e+000 -4.198303e+000 -1.241787e+000 -2.247078e+000 -5.541133e-001 -8.370900e-001 -1.255366e+000 -6.564240e-001 2.042210e+000 -3.348082e+000 1.344585e+000 -8.300418e-001 6.224407e+001 -7.529872e-003 2.121302e-002 2.975099e-002 6.224571e-003 -6.148779e-003 4.297234e-003 -1.253497e-002 -2.394206e-002 -1.659041e-002 -5.005268e-003 9.782095e-003 1.920788e-003 7.423346e-003 1.767825e-004 3.988364e-004 4.507592e-004 -6.376362e-004 -8.545607e-004 -4.347373e-004 2.537824e-004 5.918863e-004 2.956529e-004 8.326260e-005 -3.200812e-004 -2.045456e-004 1.566585e-004
<VARIANCE> 39
 6.525156e+001 6.433716e+001 5.920694e+001 1.398834e+002 1.244049e+002 1.380533e+002 1.185275e+002 1.096172e+002 8.960462e+001 5.911787e+001 6.481864e+001 4.333255e+001 2.428699e+002 9.871537e-001 1.639402e+000 1.545150e+000 2.444901e+000 1.958732e+000 2.111021e+000 2.576179e+000 2.320370e+000 2.235026e+000 2.181218e+000 1.980021e+000 1.692407e+000 1.851088e+000 1.312784e-001 2.210717e-001 2.228220e-001 3.451406e-001 3.021505e-001 3.612707e-001 4.351116e-001 3.878823e-001 3.889340e-001 3.815726e-001 3.420435e-001 2.996137e-001 1.974183e-001
<GCONST> 1.227926e+002
<TRANSP> 5
 0.000000e+000 1.000000e+000 0.000000e+000 0.000000e+000 0.000000e+000
 0.000000e+000 7.752244e-001 2.247756e-001 0.000000e+000 0.000000e+000
 0.000000e+000 0.000000e+000 7.752240e-001 2.247760e-001 0.000000e+000
 0.000000e+000 0.000000e+000 0.000000e+000 9.073039e-001 9.269610e-002
 0.000000e+000 0.000000e+000 0.000000e+000 0.000000e+000 0.000000e+000
<ENDHMM>
~h "i"
<BEGINHMM>
<NUMSTATES> 5
<STATE> 2
<MEAN> 39
 -9.237785e+000 -3.757045e+000 1.464527e+000 -1.253099e+000 -1.390438e+000 -3.578065e+000 -2.794780e+000 -2.472932e+000 3.939069e-001 -4.661220e+000 1.305566e+000 -2.380913e+000 6.572482e+001 9.820997e-003 4.933744e-004 -6.475389e-003 1.414141e-002 -2.206095e-003 1.327406e-003 -1.215169e-003 6.315731e-003 4.846880e-003 5.032883e-004 2.481011e-003 3.004787e-003 -8.715595e-003 -2.883862e-005 -1.185651e-004 -8.578645e-004 -4.619095e-004 2.807417e-004 4.593844e-004 1.105868e-003 6.360497e-004 7.337055e-004 5.553773e-004 5.256823e-004 4.766182e-004 -3.175075e-004
<VARIANCE> 39
 6.648296e+001 6.420954e+001 9.184300e+001 1.526058e+002 1.355251e+002 1.666226e+002 1.299143e+002 1.029529e+002 1.029089e+002 5.844108e+001 6.195877e+001 4.493330e+001 2.263626e+002 1.127868e+000 1.657257e+000 2.093431e+000 2.722319e+000 2.362413e+000 2.589009e+000 2.818107e+000 2.484987e+000 2.382339e+000 2.301255e+000 1.992674e+000 1.675659e+000 1.771783e+000 1.480102e-001 2.405251e-001 2.772247e-001 3.707656e-001 3.752611e-001 4.107238e-001 4.653867e-001 4.294882e-001 4.071522e-001 3.874865e-001 3.480308e-001 2.915483e-001 1.830762e-001
<GCONST> 1.258452e+002
<STATE> 3
<MEAN> 39
 -9.199379e+000 -3.752741e+000 1.421785e+000 -1.195596e+000 -1.394803e+000 -3.560714e+000 -2.781374e+000 -2.435709e+000 4.241535e-001 -4.648444e+000 1.323268e+000 -2.360005e+000 6.567142e+001 9.360551e-003 -1.677904e-004 -1.125498e-002 1.132079e-002 -9.188596e-004 3.221639e-003 3.500470e-003 8.903334e-003 7.417856e-003 2.947379e-003 5.026878e-003 5.414953e-003 -1.042326e-002 -1.824666e-004 -1.576006e-004 -9.396448e-004 -8.975042e-004 1.691124e-004 4.666046e-004 9.906142e-004 5.593599e-004 4.990695e-004 4.414252e-004 5.980681e-004 5.754007e-004 -3.151189e-004
<VARIANCE> 39
 6.635726e+001 6.428706e+001 9.110062e+001 1.527556e+002 1.341883e+002 1.661575e+002 1.300161e+002 1.025920e+002 1.038823e+002 5.847450e+001 6.217709e+001 4.508292e+001 2.270647e+002 1.109766e+000 1.651522e+000 2.073267e+000 2.709425e+000 2.358711e+000 2.580790e+000 2.803071e+000 2.475567e+000 2.388609e+000 2.297835e+000 1.989905e+000 1.679325e+000 1.750919e+000 1.459379e-001 2.395401e-001 2.752822e-001 3.695160e-001 3.744413e-001 4.094454e-001 4.634778e-001 4.295924e-001 4.074809e-001 3.873644e-001 3.476883e-001 2.920655e-001 1.801174e-001
<GCONST> 1.257312e+002
<STATE> 4
<MEAN> 39
 -9.200192e+000 -3.613705e+000 1.502508e+000 -1.904856e+000 -1.277749e+000 -3.850028e+000 -2.806275e+000 -2.610111e+000 4.065535e-001 -4.487706e+000 1.281386e+000 -2.571420e+000 6.442738e+001 8.087473e-003 -1.260358e-003 -2.209970e-002 4.605665e-003 1.585756e-003 6.727412e-003 1.057565e-002 1.297813e-002 9.483242e-003 6.627665e-003 7.570000e-003 9.300685e-003 -1.510062e-002 -1.158057e-004 -2.780628e-004 -8.398377e-004 -1.278720e-003 -8.214943e-006 3.158034e-004 3.923596e-004 3.721604e-004 1.947026e-004 4.630132e-005 4.213218e-004 5.150244e-004 -4.839548e-005
<VARIANCE> 39
 6.267870e+001 6.193034e+001 9.126696e+001 1.471750e+002 1.373795e+002 1.577604e+002 1.355233e+002 1.062781e+002 1.076990e+002 5.886568e+001 6.480685e+001 4.494145e+001 2.366465e+002 1.087725e+000 1.611966e+000 2.045460e+000 2.689229e+000 2.356426e+000 2.472765e+000 2.791975e+000 2.450789e+000 2.388016e+000 2.256291e+000 1.984798e+000 1.685918e+000 1.833907e+000 1.458446e-001 2.318168e-001 2.742026e-001 3.695218e-001 3.759147e-001 3.994878e-001 4.652290e-001 4.268967e-001 4.070790e-001 3.834559e-001 3.475593e-001 2.933461e-001 1.875669e-001
<GCONST> 1.256512e+002
<TRANSP> 5
 0.000000e+000 1.000000e+000 0.000000e+000 0.000000e+000 0.000000e+000
 0.000000e+000 7.772661e-001 2.227339e-001 0.000000e+000 0.000000e+000
 0.000000e+000 0.000000e+000 7.772658e-001 2.227342e-001 0.000000e+000
 0.000000e+000 0.000000e+000 0.000000e+000 9.097668e-001 9.023320e-002
 0.000000e+000 0.000000e+000 0.000000e+000 0.000000e+000 0.000000e+000
<ENDHMM>
~h "j"
<BEGINHMM>
<NUMSTATES> 5
<STATE> 2
<MEAN> 39
 -8.343226e+000 -4.738344e+000 -6.065989e-001 -2.352346e+000 -7.513463e-001 -5.129608e+000 -1.019498e+000 -2.558392e+000 1.982789e+000 -5.714396e+000 1.299534e+000 -1.263900e+000 6.261677e+001 2.036746e-004 -2.082576e-003 5.560241e-003 -1.994233e-002 -1.508320e-002 -9.241818e-003 -4.051092e-003 1.665300e-002 5.742471e-003 -2.716289e-003 1.389989e-002 1.398643e-002 2.908719e-002 1.058511e-004 -2.005620e-004 6.646729e-004 8.435535e-004 6.995684e-004 8.230840e-004 -3.096360e-004 -3.149590e-005 6.663059e-004 -1.145854e-005 -1.683660e-004 -4.712578e-004 -2.404881e-004
<VARIANCE> 39
 6.093170e+001 5.511228e+001 6.478037e+001 1.424722e+002 1.507820e+002 1.315019e+002 1.389500e+002 1.089377e+002 9.111272e+001 5.145925e+001 6.903136e+001 4.250920e+001 2.619065e+002 1.518993e+000 1.855003e+000 1.501396e+000 2.341563e+000 2.581216e+000 2.462299e+000 2.888290e+000 2.322730e+000 2.499587e+000 1.976621e+000 1.937772e+000 1.744785e+000 2.248503e+000 2.300079e-001 2.821470e-001 2.266455e-001 3.463942e-001 4.371863e-001 4.398497e-001 5.088055e-001 4.092305e-001 4.309880e-001 3.351623e-001 3.660644e-001 3.123347e-001 2.362730e-001
<GCONST> 1.260796e+002
<STATE> 3
<MEAN> 39
 -8.338079e+000 -4.751399e+000 -5.865747e-001 -2.437588e+000 -8.045700e-001 -5.162546e+000 -1.029291e+000 -2.481126e+000 2.017826e+000 -5.721400e+000 1.352555e+000 -1.202095e+000 6.274050e+001 6.168784e-004 -2.958765e-003 8.027964e-003 -1.612945e-002 -1.129039e-002 -5.211391e-003 -5.183678e-003 1.618515e-002 8.551632e-003 -2.169571e-003 1.259378e-002 1.141207e-002 2.691912e-002 1.317751e-004 -2.243443e-004 6.353728e-004 9.921771e-004 8.274550e-004 8.794914e-004 -3.389250e-004 -1.861642e-004 5.854158e-004 -9.790185e-005 -2.864600e-004 -4.926705e-004 -4.277455e-004
<VARIANCE> 39
 6.154147e+001 5.479704e+001 6.433908e+001 1.419275e+002 1.489025e+002 1.312001e+002 1.414188e+002 1.091547e+002 9.187659e+001 5.121302e+001 6.885548e+001 4.269679e+001 2.614234e+002 1.550038e+000 1.865221e+000 1.520293e+000 2.299599e+000 2.571162e+000 2.459554e+000 2.897157e+000 2.322908e+000 2.496312e+000 1.997624e+000 1.939699e+000 1.741034e+000 2.242274e+000 2.340406e-001 2.812979e-001 2.293883e-001 3.411577e-001 4.382063e-001 4.368552e-001 5.089079e-001 4.071899e-001 4.305203e-001 3.371910e-001 3.654371e-001 3.110021e-001 2.359973e-001
<GCONST> 1.261048e+002
<STATE> 4
<MEAN> 39
 -8.566041e+000 -4.633440e+000 -5.260205e-001 -2.794448e+000 -3.870904e-001 -5.654408e+000 -8.201204e-001 -2.440734e+000 1.945007e+000 -5.842682e+000 1.495245e+000 -1.180935e+000 6.231592e+001 1.679324e-003 -4.748843e-003 7.602772e-003 -8.753058e-003 -9.358819e-004 3.917086e-003 -4.915044e-003 1.379489e-002 1.101211e-002 1.459177e-003 6.294460e-003 8.026205e-003 1.673077e-002 1.515743e-004 -1.576809e-004 5.915998e-004 1.056956e-003 8.131677e-004 9.061066e-004 -5.802268e-004 -4.824010e-004 2.053324e-004 -1.219062e-004 -4.018836e-004 -4.710667e-004 -7.049851e-004
<VARIANCE> 39
 5.997415e+001 5.103183e+001 6.272667e+001 1.342015e+002 1.480355e+002 1.248022e+002 1.466530e+002 1.148978e+002 9.295076e+001 5.048103e+001 6.927972e+001 4.224316e+001 2.652566e+002 1.543955e+000 1.750184e+000 1.475418e+000 2.126778e+000 2.515223e+000 2.350704e+000 2.781630e+000 2.279449e+000 2.390934e+000 1.987522e+000 1.920323e+000 1.691517e+000 2.053292e+000 2.350001e-001 2.608078e-001 2.243886e-001 3.231035e-001 4.351502e-001 4.157708e-001 4.859514e-001 3.977303e-001 4.148090e-001 3.350789e-001 3.597990e-001 3.008818e-001 2.149562e-001
<GCONST> 1.250282e+002
<TRANSP> 5
 0.000000e+000 1.000000e+000 0.000000e+000 0.000000e+000 0.000000e+000
 0.000000e+000 7.795718e-001 2.204281e-001 0.000000e+000 0.000000e+000
 0.000000e+000 0.000000e+000 7.795721e-001 2.204279e-001 0.000000e+000
 0.000000e+000 0.000000e+000 0.000000e+000 9.116745e-001 8.832552e-002
 0.000000e+000 0.000000e+000 0.000000e+000 0.000000e+000 0.000000e+000
<ENDHMM>
~h "k"
<BEGINHMM>
<NUMSTATES> 5
<STATE> 2
<MEAN> 39
 -8.620229e+000 -4.465623e+000 -1.468222e+000 -1.949527e+000 -3.306400e+000 -1.626034e+000 -2.423578e+000 -9.279077e-001 1.135852e+000 -4.211791e+000 1.471501e+000 -1.443948e+000 6.598461e+001 6.324193e-003 -1.892713e-003 -5.762130e-003 7.897421e-003 -1.284714e-002 -5.010763e-003 4.134967e-003 -1.025859e-003 -1.265553e-002 -1.224513e-002 -3.913987e-003 -2.241633e-005 -9.155334e-003 3.923041e-004 -1.440121e-004 -4.947309e-004 3.414137e-004 -3.712555e-004 -1.362778e-003 4.313766e-005 2.054807e-004 -1.096313e-003 -2.694823e-004 2.472064e-004 4.338332e-004 2.127334e-004
<VARIANCE> 39
 8.614992e+001 6.481420e+001 7.208170e+001 1.373189e+002 1.194614e+002 1.683767e+002 1.146569e+002 8.699480e+001 1.046391e+002 5.512632e+001 5.480150e+001 4.550853e+001 2.338293e+002 1.214687e+000 1.841926e+000 2.052314e+000 2.685251e+000 2.506578e+000 2.638603e+000 2.701813e+000 2.500992e+000 2.770635e+000 2.364571e+000 1.963091e+000 1.701971e+000 2.260593e+000 1.648468e-001 2.697757e-001 2.893146e-001 3.819033e-001 4.052764e-001 4.315752e-001 4.744013e-001 4.487492e-001 4.706783e-001 4.113154e-001 3.512510e-001 3.121989e-001 2.287307e-001
<GCONST> 1.268379e+002
<STATE> 3
<MEAN> 39
 -8.585218e+000 -4.476832e+000 -1.509771e+000 -1.911679e+000 -3.362454e+000 -1.658697e+000 -2.403399e+000 -9.307809e-001 1.065237e+000 -4.263693e+000 1.459915e+000 -1.435874e+000 6.594283e+001 9.216376e-003 -2.588122e-003 -8.772192e-003 8.094861e-003 -1.384154e-002 -8.967291e-003 4.072928e-003 -9.697612e-004 -1.617184e-002 -1.331789e-002 -3.304749e-003 1.586164e-003 -7.133783e-003 6.790949e-004 -1.307361e-004 -7.921833e-004 7.204942e-006 -1.605416e-004 -8.924232e-004 -4.591105e-006 7.605243e-005 -7.707504e-004 -2.424468e-004 8.723974e-005 3.728139e-004 4.305719e-004
<VARIANCE> 39
 8.595935e+001 6.514162e+001 7.204769e+001 1.363129e+002 1.192473e+002 1.693938e+002 1.139727e+002 8.681735e+001 1.052323e+002 5.537046e+001 5.481153e+001 4.537664e+001 2.364046e+002 1.225502e+000 1.861193e+000 2.046911e+000 2.683692e+000 2.507203e+000 2.650379e+000 2.702468e+000 2.496344e+000 2.769776e+000 2.377401e+000 1.973684e+000 1.709175e+000 2.269279e+000 1.669837e-001 2.746156e-001 2.888609e-001 3.837276e-001 4.076823e-001 4.333563e-001 4.753575e-001 4.477305e-001 4.706323e-001 4.146013e-001 3.534312e-001 3.140611e-001 2.307531e-001
<GCONST> 1.269575e+002
<STATE> 4
<MEAN> 39
 -8.636226e+000 -4.403955e+000 -1.386917e+000 -2.581935e+000 -3.089426e+000 -2.393388e+000 -2.574280e+000 -1.387619e+000 6.679167e-001 -4.189199e+000 1.318261e+000 -1.786754e+000 6.456049e+001 1.413484e-002 -3.558588e-003 -1.490916e-002 6.765123e-003 -1.244965e-002 -8.620427e-003 3.803254e-003 -7.415879e-004 -1.479879e-002 -1.117274e-002 -2.413313e-003 1.584225e-003 -4.448497e-003 5.458859e-004 -3.120039e-005 -5.631163e-004 -1.697558e-004 4.908568e-005 -1.574215e-004 -7.309795e-005 9.507653e-005 5.333993e-005 -7.523788e-005 -9.498600e-005 -6.302376e-005 3.878110e-004
<VARIANCE> 39
 7.932684e+001 6.416568e+001 7.391709e+001 1.363830e+002 1.229456e+002 1.639335e+002 1.201515e+002 9.165462e+001 1.091796e+002 5.644166e+001 5.892060e+001 4.579478e+001 2.546856e+002 1.233480e+000 1.853244e+000 2.045820e+000 2.741935e+000 2.493464e+000 2.587600e+000 2.733797e+000 2.506250e+000 2.732626e+000 2.370353e+000 2.016906e+000 1.748309e+000 2.406848e+000 1.710689e-001 2.726493e-001 2.911205e-001 3.912127e-001 4.094239e-001 4.258111e-001 4.829206e-001 4.484352e-001 4.646739e-001 4.172453e-001 3.609639e-001 3.227028e-001 2.470009e-001
<GCONST> 1.274589e+002
<TRANSP> 5
 0.000000e+000 1.000000e+000 0.000000e+000 0.000000e+000 0.000000e+000
 0.000000e+000 7.750932e-001 2.249068e-001 0.000000e+000 0.000000e+000
 0.000000e+000 0.000000e+000 7.750933e-001 2.249068e-001 0.000000e+000
 0.000000e+000 0.000000e+000 0.000000e+000 9.073881e-001 9.261186e-002
 0.000000e+000 0.000000e+000 0.000000e+000 0.000000e+000 0.000000e+000
<ENDHMM>
~h "l"
<BEGINHMM>
<NUMSTATES> 5
<STATE> 2
<MEAN> 39
 -6.523866e+000 -4.255597e+000 -5.689508e-001 -2.954595e+000 -1.897328e+000 -2.790359e+000 -2.671713e+000 -1.299480e+000 2.247717e+000 -4.379492e+000 1.037043e+000 -8.752390e-001 6.522391e+001 3.361321e-003 7.169154e-003 5.258872e-003 8.721356e-004 -2.292179e-003 3.770154e-003 -1.444035e-002 -2.110272e-004 4.721163e-003 3.771455e-003 8.647264e-003 -5.709285e-003 -1.213173e-003 -1.658114e-003 7.123002e-004 2.468382e-004 4.909737e-004 1.635932e-004 1.180123e-003 1.027416e-003 4.129533e-004 4.181849e-004 2.112327e-004 3.247779e-004 3.422990e-004 -1.781617e-003
<VARIANCE> 39
 6.927609e+001 5.493589e+001 7.173727e+001 1.409169e+002 1.309624e+002 1.625962e+002 1.467119e+002 1.126840e+002 9.923683e+001 7.181067e+001 7.137341e+001 4.538954e+001 2.215846e+002 9.868356e-001 1.522752e+000 1.556009e+000 2.445062e+000 2.120566e+000 2.362421e+000 2.716089e+000 2.446126e+000 2.222173e+000 2.322656e+000 2.083809e+000 1.644590e+000 1.658808e+000 1.307004e-001 2.201181e-001 2.221656e-001 3.509414e-001 3.411594e-001 3.982278e-001 4.528938e-001 4.162416e-001 3.712492e-001 3.963214e-001 3.551191e-001 2.917814e-001 1.775446e-001
<GCONST> 1.241283e+002
<STATE> 3
<MEAN> 39
 -6.526625e+000 -4.217146e+000 -5.364711e-001 -2.948973e+000 -1.903711e+000 -2.761172e+000 -2.723025e+000 -1.295516e+000 2.274807e+000 -4.361061e+000 1.074747e+000 -8.980176e-001 6.520741e+001 -3.445896e-003 1.006665e-002 5.956190e-003 3.286456e-003 -6.489970e-004 9.437199e-003 -9.787692e-003 6.506075e-004 6.165911e-003 4.728213e-003 1.036640e-002 -4.109405e-003 -8.465262e-003 -1.580905e-003 4.597149e-004 2.238091e-004 4.949588e-004 3.847559e-004 1.230828e-003 9.926028e-004 1.019064e-004 1.619955e-004 1.865187e-004 3.457146e-004 3.956269e-004 -1.532177e-003
<VARIANCE> 39
 7.005925e+001 5.439116e+001 7.155557e+001 1.400437e+002 1.302955e+002 1.621099e+002 1.475289e+002 1.117644e+002 1.001229e+002 7.149546e+001 7.141097e+001 4.536318e+001 2.202822e+002 9.747044e-001 1.504984e+000 1.555683e+000 2.429470e+000 2.100363e+000 2.345667e+000 2.709620e+000 2.441159e+000 2.223915e+000 2.307727e+000 2.072993e+000 1.650522e+000 1.651426e+000 1.287337e-001 2.177118e-001 2.214857e-001 3.473991e-001 3.383104e-001 3.953837e-001 4.502569e-001 4.150476e-001 3.715642e-001 3.932860e-001 3.530655e-001 2.926357e-001 1.754328e-001
<GCONST> 1.239598e+002
<STATE> 4
<MEAN> 39
 -6.683520e+000 -3.980145e+000 -8.340395e-002 -3.591356e+000 -1.306208e+000 -3.096156e+000 -2.647725e+000 -1.576048e+000 2.385362e+000 -4.128061e+000 1.365128e+000 -1.233694e+000 6.436491e+001 -1.280252e-002 1.190992e-002 7.633465e-003 7.398401e-003 2.804524e-003 1.489176e-002 -8.714903e-004 -9.008682e-004 2.906879e-003 5.547579e-003 1.471318e-002 -8.717227e-004 -1.497536e-002 -1.068879e-003 8.130734e-005 3.986388e-005 5.238658e-004 3.975632e-004 7.255420e-004 8.569243e-004 -3.109964e-004 -5.258943e-004 1.419848e-004 6.214411e-004 3.949227e-004 -9.529293e-004
<VARIANCE> 39
 6.686739e+001 5.143185e+001 7.319163e+001 1.334652e+002 1.332533e+002 1.552890e+002 1.570333e+002 1.149840e+002 1.012113e+002 7.074763e+001 7.338890e+001 4.310866e+001 2.249466e+002 9.509233e-001 1.439015e+000 1.544911e+000 2.394290e+000 2.044088e+000 2.217473e+000 2.661561e+000 2.409685e+000 2.192281e+000 2.248453e+000 2.033856e+000 1.624999e+000 1.648109e+000 1.261368e-001 2.084298e-001 2.185084e-001 3.422417e-001 3.332175e-001 3.761844e-001 4.394426e-001 4.121689e-001 3.678086e-001 3.842530e-001 3.469220e-001 2.890223e-001 1.728133e-001
<GCONST> 1.233502e+002
<TRANSP> 5
 0.000000e+000 1.000000e+000 0.000000e+000 0.000000e+000 0.000000e+000
 0.000000e+000 7.767730e-001 2.232269e-001 0.000000e+000 0.000000e+000
 0.000000e+000 0.000000e+000 7.767717e-001 2.232284e-001 0.000000e+000
 0.000000e+000 0.000000e+000 0.000000e+000 9.090171e-001 9.098287e-002
 0.000000e+000 0.000000e+000 0.000000e+000 0.000000e+000 0.000000e+000
<ENDHMM>
~h "m"
<BEGINHMM>
<NUMSTATES> 5
<STATE> 2
<MEAN> 39
 -6.894156e+000 -4.514702e+000 -1.052747e+000 -1.880084e+000 -1.799925e+000 -1.590439e+000 -2.330652e+000 -1.637777e+000 1.865160e+000 -4.060617e+000 9.929818e-001 -1.510353e+000 6.421674e+001 7.652568e-003 -8.872915e-003 -8.435985e-003 -2.922606e-003 -4.975243e-003 3.832782e-003 5.165981e-003 5.085002e-003 5.955783e-003 8.052845e-004 -2.582762e-003 -4.540049e-003 3.439086e-003 -6.590424e-004 2.475164e-004 7.343455e-004 2.927706e-004 -3.158934e-005 -2.782245e-004 7.054473e-006 2.944855e-004 -3.492070e-005 1.872816e-004 -2.408312e-006 -6.188842e-004 -3.341930e-004
<VARIANCE> 39
 7.275939e+001 6.068244e+001 6.375225e+001 1.452300e+002 1.249579e+002 1.514666e+002 1.263067e+002 1.065911e+002 1.056105e+002 5.548282e+001 6.822955e+001 4.441516e+001 2.314099e+002 8.819433e-001 1.618756e+000 1.725960e+000 2.479398e+000 2.314624e+000 2.268008e+000 2.472024e+000 2.732330e+000 2.402542e+000 2.231956e+000 2.196906e+000 1.739099e+000 1.821443e+000 1.183370e-001 2.126988e-001 2.430752e-001 3.438766e-001 3.603352e-001 3.838853e-001 4.293801e-001 4.571663e-001 4.082736e-001 3.857474e-001 3.799091e-001 3.035521e-001 1.834407e-001
<GCONST> 1.242190e+002
<STATE> 3
<MEAN> 39
 -6.868896e+000 -4.545948e+000 -1.080357e+000 -1.896822e+000 -1.817268e+000 -1.569381e+000 -2.315454e+000 -1.611750e+000 1.893994e+000 -4.048889e+000 9.844013e-001 -1.539297e+000 6.422876e+001 5.452249e-003 -7.922648e-003 -5.608378e-003 -1.843865e-003 -3.843246e-003 3.938792e-003 3.889571e-003 6.345939e-003 6.725432e-003 1.424242e-003 -2.577720e-003 -6.007858e-003 2.795619e-003 -4.416655e-004 2.940027e-004 7.161588e-004 3.527662e-004 3.623984e-004 1.078882e-004 -3.391300e-004 1.929442e-004 1.301713e-004 1.334795e-004 4.122739e-005 -2.708166e-004 -1.252492e-004
<VARIANCE> 39
 7.294716e+001 6.053828e+001 6.366418e+001 1.452187e+002 1.257202e+002 1.519080e+002 1.266617e+002 1.075243e+002 1.057159e+002 5.558574e+001 6.819041e+001 4.492630e+001 2.318362e+002 8.876247e-001 1.620434e+000 1.720892e+000 2.483998e+000 2.317948e+000 2.276789e+000 2.482118e+000 2.739023e+000 2.397897e+000 2.221097e+000 2.197441e+000 1.736844e+000 1.833669e+000 1.196446e-001 2.134601e-001 2.425223e-001 3.462896e-001 3.611142e-001 3.858764e-001 4.316741e-001 4.587928e-001 4.067721e-001 3.836948e-001 3.798278e-001 3.021320e-001 1.852916e-001
<GCONST> 1.243024e+002
<STATE> 4
<MEAN> 39
 -7.036322e+000 -4.502238e+000 -7.711691e-001 -2.682118e+000 -1.353846e+000 -2.140571e+000 -2.257215e+000 -1.935068e+000 1.869100e+000 -3.961469e+000 1.037620e+000 -1.919280e+000 6.354212e+001 2.986954e-003 -7.049101e-003 -3.035561e-003 -1.469093e-003 -2.571417e-003 2.821047e-003 -7.983302e-004 8.808115e-003 8.475842e-003 3.017432e-003 -1.833673e-003 -4.530830e-003 3.145664e-003 -1.338050e-004 -3.438346e-005 3.896300e-004 3.675089e-004 2.232851e-004 -9.364000e-005 -3.667650e-004 1.796310e-004 1.119023e-004 -7.817702e-005 1.272066e-005 2.894746e-004 9.407802e-005
<VARIANCE> 39
 6.769512e+001 5.816417e+001 6.456953e+001 1.405402e+002 1.327165e+002 1.482189e+002 1.360299e+002 1.145017e+002 1.081740e+002 5.588088e+001 7.116544e+001 4.452816e+001 2.355081e+002 8.894361e-001 1.590149e+000 1.699378e+000 2.496475e+000 2.298627e+000 2.243806e+000 2.512820e+000 2.748690e+000 2.391627e+000 2.173799e+000 2.191078e+000 1.726450e+000 1.898106e+000 1.222689e-001 2.105476e-001 2.384724e-001 3.495890e-001 3.578756e-001 3.842091e-001 4.357700e-001 4.595664e-001 4.030398e-001 3.745482e-001 3.797547e-001 2.991091e-001 1.929302e-001
<GCONST> 1.243758e+002
<TRANSP> 5
 0.000000e+000 1.000000e+000 0.000000e+000 0.000000e+000 0.000000e+000
 0.000000e+000 7.760072e-001 2.239927e-001 0.000000e+000 0.000000e+000
 0.000000e+000 0.000000e+000 7.760067e-001 2.239933e-001 0.000000e+000
 0.000000e+000 0.000000e+000 0.000000e+000 9.083441e-001 9.165588e-002
 0.000000e+000 0.000000e+000 0.000000e+000 0.000000e+000 0.000000e+000
<ENDHMM>
~h "n"
<BEGINHMM>
<NUMSTATES> 5
<STATE> 2
<MEAN> 39
 -7.054849e+000 -4.831500e+000 -6.040750e-002 -6.983480e-001 -1.155242e+000 -7.505865e-001 -6.034342e-001 -1.379415e+000 2.662681e+000 -4.424776e+000 2.040316e+000 -1.072232e+000 6.779176e+001 -4.483089e-003 4.688716e-003 6.360203e-003 1.215923e-002 6.690689e-003 1.006061e-002 4.055805e-003 7.591893e-003 1.018678e-002 6.268526e-003 -1.214919e-003 -1.019861e-002 -9.596344e-003 -6.812163e-004 8.144723e-004 -3.194081e-004 1.607870e-004 -5.953711e-005 -6.135441e-004 -5.136168e-004 -3.930957e-004 -5.768919e-004 -2.474254e-004 -1.573639e-004 6.552857e-004 -1.031097e-003
<VARIANCE> 39
 8.555169e+001 7.113403e+001 8.395304e+001 1.503916e+002 1.464319e+002 1.673508e+002 1.250246e+002 9.443923e+001 8.549950e+001 5.106643e+001 6.763342e+001 4.218106e+001 1.963851e+002 1.361132e+000 1.873314e+000 2.087684e+000 2.540711e+000 2.344555e+000 2.378862e+000 2.539366e+000 2.656223e+000 2.365508e+000 2.192917e+000 2.072250e+000 1.696082e+000 1.650528e+000 1.656687e-001 2.680791e-001 2.780710e-001 3.495420e-001 3.579676e-001 3.928836e-001 4.236785e-001 4.540018e-001 3.999599e-001 3.817502e-001 3.539285e-001 3.005856e-001 1.721546e-001
<GCONST> 1.256370e+002
<STATE> 3
<MEAN> 39
 -7.088721e+000 -4.802441e+000 -2.400616e-002 -6.460670e-001 -1.127916e+000 -7.194176e-001 -5.964460e-001 -1.350623e+000 2.698195e+000 -4.398669e+000 2.033820e+000 -1.109863e+000 6.773909e+001 -8.138161e-003 7.725809e-003 5.854000e-003 1.232084e-002 5.578571e-003 7.034074e-003 2.318072e-003 6.145779e-003 7.662266e-003 5.315576e-003 -1.411006e-003 -6.799824e-003 -1.395003e-002 -8.135729e-004 5.387162e-004 -1.054953e-004 -4.842611e-005 -3.682101e-004 -7.289691e-004 -5.663057e-004 -2.525757e-004 -5.072789e-004 -4.271280e-004 -6.549445e-005 8.500451e-004 -1.036415e-003
<VARIANCE> 39
 8.541579e+001 7.077345e+001 8.427005e+001 1.502331e+002 1.466741e+002 1.664426e+002 1.252916e+002 9.442763e+001 8.589065e+001 5.073979e+001 6.752827e+001 4.183191e+001 1.957930e+002 1.340061e+000 1.851797e+000 2.066129e+000 2.525833e+000 2.343074e+000 2.369539e+000 2.526200e+000 2.643975e+000 2.341489e+000 2.173791e+000 2.058823e+000 1.681774e+000 1.623358e+000 1.628012e-001 2.638834e-001 2.744259e-001 3.463323e-001 3.576232e-001 3.914042e-001 4.218115e-001 4.510785e-001 3.953023e-001 3.784203e-001 3.511986e-001 2.979415e-001 1.694004e-001
<GCONST> 1.253837e+002
<STATE> 4
<MEAN> 39
 -7.314373e+000 -4.643535e+000 3.543485e-001 -1.303057e+000 -4.070956e-001 -1.384512e+000 -4.156958e-001 -1.744082e+000 2.849037e+000 -4.369177e+000 2.137465e+000 -1.410846e+000 6.687521e+001 -1.701170e-002 1.017057e-002 1.054924e-002 9.926521e-003 1.416142e-003 1.745386e-003 -1.154549e-003 3.855641e-003 4.467158e-003 3.944335e-003 -9.830472e-004 -1.164431e-003 -2.006412e-002 -8.751183e-004 1.191820e-004 1.574365e-004 -3.488327e-004 -6.833264e-004 -4.342564e-004 -5.844783e-004 -6.187944e-005 -5.983890e-005 -6.656492e-004 5.181947e-005 8.512638e-004 -9.840211e-004
<VARIANCE> 39
 8.047887e+001 6.652393e+001 8.461913e+001 1.466863e+002 1.529782e+002 1.623251e+002 1.336727e+002 1.013259e+002 8.773977e+001 5.111820e+001 7.037991e+001 4.001837e+001 2.054932e+002 1.290512e+000 1.749721e+000 1.949599e+000 2.471656e+000 2.290224e+000 2.278052e+000 2.504623e+000 2.578366e+000 2.267967e+000 2.111178e+000 2.030813e+000 1.617191e+000 1.594271e+000 1.574931e-001 2.475244e-001 2.600497e-001 3.381567e-001 3.533114e-001 3.778641e-001 4.203301e-001 4.392387e-001 3.817009e-001 3.681681e-001 3.467294e-001 2.868883e-001 1.673611e-001
<GCONST> 1.246894e+002
<TRANSP> 5
 0.000000e+000 1.000000e+000 0.000000e+000 0.000000e+000 0.000000e+000
 0.000000e+000 7.716115e-001 2.283885e-001 0.000000e+000 0.000000e+000
 0.000000e+000 0.000000e+000 7.716114e-001 2.283886e-001 0.000000e+000
 0.000000e+000 0.000000e+000 0.000000e+000 9.030992e-001 9.690083e-002
 0.000000e+000 0.000000e+000 0.000000e+000 0.000000e+000 0.000000e+000
<ENDHMM>
~h "o"
<BEGINHMM>
<NUMSTATES> 5
<STATE> 2
<MEAN> 39
 -6.920168e+000 -3.770883e+000 -1.133370e+000 -1.781549e+000 -3.057688e+000 -7.570243e-002 -2.739802e+000 -2.133451e-001 2.680826e+000 -3.413611e+000 2.256852e+000 -1.133117e+000 6.447315e+001 -2.288187e-002 4.499801e-003 -5.705920e-003 1.036409e-003 1.204704e-002 -1.264269e-002 -5.744419e-003 -8.438171e-003 -5.690435e-003 9.274720e-003 3.095161e-004 -5.271825e-004 -1.320327e-002 1.503228e-004 -3.468572e-004 6.602338e-004 -2.020504e-004 -1.126037e-003 -5.374264e-004 -2.282136e-004 -7.142086e-005 -4.514959e-005 -1.104368e-003 -1.285104e-003 2.064290e-004 6.261131e-004
<VARIANCE> 39
 8.154797e+001 5.331089e+001 5.772084e+001 1.464461e+002 1.325448e+002 1.927609e+002 1.149420e+002 8.786749e+001 1.124167e+002 5.645440e+001 5.247799e+001 4.300315e+001 2.268355e+002 1.061044e+000 1.691728e+000 1.657188e+000 2.685857e+000 2.506078e+000 2.574011e+000 2.508227e+000 2.423131e+000 2.669309e+000 2.087507e+000 1.892030e+000 1.636328e+000 1.804089e+000 1.354335e-001 2.586852e-001 2.532413e-001 3.888835e-001 3.916500e-001 4.183384e-001 4.237164e-001 4.066035e-001 4.310326e-001 3.726799e-001 3.381088e-001 2.901072e-001 1.970467e-001
<GCONST> 1.245403e+002
<STATE> 3
<MEAN> 39
 -7.015141e+000 -3.757962e+000 -1.156724e+000 -1.772696e+000 -3.011678e+000 -1.393072e-001 -2.769566e+000 -2.519006e-001 2.649089e+000 -3.386618e+000 2.246710e+000 -1.134634e+000 6.442358e+001 -2.188583e-002 3.171353e-003 -2.785736e-003 5.376714e-004 7.452673e-003 -1.365969e-002 -5.887692e-003 -8.327870e-003 -6.076137e-003 4.021292e-003 -4.866106e-003 4.230670e-004 -1.052666e-002 4.229876e-004 -3.260932e-004 6.984993e-004 -1.117891e-004 -9.325084e-004 1.903970e-005 1.897221e-005 -1.229039e-004 -2.476394e-004 -1.110477e-003 -1.064916e-003 1.586238e-004 7.208028e-004
<VARIANCE> 39
 8.049873e+001 5.283862e+001 5.751854e+001 1.471861e+002 1.332169e+002 1.913300e+002 1.140985e+002 8.778810e+001 1.111490e+002 5.584238e+001 5.199212e+001 4.313612e+001 2.273505e+002 1.069812e+000 1.689466e+000 1.656512e+000 2.683146e+000 2.532218e+000 2.578050e+000 2.490647e+000 2.416212e+000 2.656953e+000 2.086012e+000 1.889608e+000 1.632893e+000 1.802229e+000 1.369824e-001 2.584045e-001 2.534219e-001 3.890381e-001 3.959251e-001 4.178742e-001 4.214893e-001 4.069087e-001 4.285839e-001 3.726450e-001 3.382827e-001 2.891441e-001 1.974693e-001
<GCONST> 1.244911e+002
<STATE> 4
<MEAN> 39
 -7.208601e+000 -3.702094e+000 -1.043418e+000 -2.399145e+000 -2.415908e+000 -6.599895e-001 -2.744615e+000 -6.013925e-001 2.445161e+000 -3.184147e+000 2.290620e+000 -1.366859e+000 6.348192e+001 -1.900329e-002 -3.306043e-004 -1.989874e-004 4.075914e-003 5.152439e-003 -7.564575e-003 -3.216540e-004 -6.449156e-003 -7.826683e-003 -2.512756e-003 -1.024220e-002 1.703159e-003 -6.687887e-003 4.050303e-004 -4.104656e-004 4.826177e-004 1.772760e-004 -3.002238e-004 9.161024e-004 6.787620e-004 8.343397e-006 -2.380903e-004 -5.021724e-004 -6.186886e-004 5.369350e-005 4.903240e-004
<VARIANCE> 39
 7.433303e+001 5.041776e+001 5.982173e+001 1.468324e+002 1.380311e+002 1.829346e+002 1.205428e+002 9.286546e+001 1.092883e+002 5.511967e+001 5.384097e+001 4.294978e+001 2.339677e+002 1.084371e+000 1.633766e+000 1.669104e+000 2.719885e+000 2.500906e+000 2.502666e+000 2.506501e+000 2.407059e+000 2.579347e+000 2.077846e+000 1.903423e+000 1.613778e+000 1.844272e+000 1.418054e-001 2.498227e-001 2.586746e-001 3.943980e-001 3.961809e-001 4.080520e-001 4.249907e-001 4.108016e-001 4.205588e-001 3.750135e-001 3.430390e-001 2.872321e-001 2.027161e-001
<GCONST> 1.245298e+002
<TRANSP> 5
 0.000000e+000 1.000000e+000 0.000000e+000 0.000000e+000 0.000000e+000
 0.000000e+000 7.742127e-001 2.257874e-001 0.000000e+000 0.000000e+000
 0.000000e+000 0.000000e+000 7.742116e-001 2.257884e-001 0.000000e+000
 0.000000e+000 0.000000e+000 0.000000e+000 9.055517e-001 9.444829e-002
 0.000000e+000 0.000000e+000 0.000000e+000 0.000000e+000 0.000000e+000
<ENDHMM>
~h "p"
<BEGINHMM>
<NUMSTATES> 5
<STATE> 2
<MEAN> 39
 -6.658066e+000 -4.125323e+000 -6.456870e-001 -1.179422e+000 -1.840660e+000 9.598987e-001 -4.984778e-001 -9.535937e-001 4.755474e+000 -3.590074e+000 3.033820e+000 9.256344e-002 6.554818e+001 -1.354736e-002 3.225395e-003 -2.356302e-004 -1.310454e-002 3.003586e-003 2.534232e-003 1.639079e-002 -1.384610e-002 2.145099e-002 -1.551873e-002 6.732437e-003 7.017425e-003 3.990331e-002 1.732519e-003 1.894098e-003 -4.259068e-004 1.378840e-003 -1.579965e-003 8.465680e-004 -1.840319e-003 1.993824e-003 -2.985963e-003 9.767051e-004 -1.814318e-003 5.767577e-004 -1.212509e-002
<VARIANCE> 39
 7.778574e+001 5.579453e+001 7.188077e+001 1.275280e+002 1.450538e+002 1.960621e+002 1.208680e+002 9.364331e+001 9.637185e+001 5.363577e+001 5.377234e+001 4.098058e+001 2.015592e+002 1.308952e+000 1.792259e+000 1.762416e+000 2.439677e+000 2.175433e+000 2.381181e+000 2.445304e+000 2.227726e+000 2.571975e+000 2.126374e+000 1.846235e+000 1.532954e+000 2.555459e+000 1.725395e-001 2.767110e-001 2.597436e-001 3.670512e-001 3.466445e-001 4.016836e-001 4.141257e-001 3.804152e-001 4.254393e-001 3.676275e-001 3.291345e-001 2.827779e-001 3.281622e-001
<GCONST> 1.250934e+002
<STATE> 3
<MEAN> 39
 -6.713869e+000 -4.094007e+000 -6.568704e-001 -1.235921e+000 -1.831355e+000 9.746439e-001 -4.404918e-001 -1.000474e+000 4.794798e+000 -3.643514e+000 3.042671e+000 1.331764e-001 6.561497e+001 -1.162950e-002 7.559950e-003 9.496654e-004 -1.125455e-002 2.833920e-003 4.675016e-003 1.359905e-002 -1.129769e-002 8.317303e-003 -1.036543e-002 1.113707e-003 9.475780e-003 1.322077e-002 2.476819e-004 9.501583e-004 3.524449e-004 3.579105e-004 2.047579e-004 4.128538e-004 -3.921451e-004 2.987022e-004 -2.939943e-003 1.109847e-003 -1.026426e-003 3.750802e-004 -4.781653e-003
<VARIANCE> 39
 7.809511e+001 5.570118e+001 7.118567e+001 1.285472e+002 1.455244e+002 1.961762e+002 1.206494e+002 9.414072e+001 9.590034e+001 5.285815e+001 5.398030e+001 4.125211e+001 1.972094e+002 1.337227e+000 1.782526e+000 1.744792e+000 2.466725e+000 2.148154e+000 2.374263e+000 2.459074e+000 2.245023e+000 2.555150e+000 2.132645e+000 1.835876e+000 1.531188e+000 2.033831e+000 1.764533e-001 2.722302e-001 2.549185e-001 3.676530e-001 3.410774e-001 3.999644e-001 4.186173e-001 3.851409e-001 4.237148e-001 3.690082e-001 3.296532e-001 2.816072e-001 2.490669e-001
<GCONST> 1.245594e+002
<STATE> 4
<MEAN> 39
 -7.073960e+000 -3.927179e+000 -3.522196e-001 -2.033904e+000 -9.926829e-001 1.973837e-001 1.445007e-001 -1.468673e+000 4.845060e+000 -3.736565e+000 3.325668e+000 -6.495544e-002 6.521561e+001 -1.342652e-002 7.493046e-003 1.929299e-003 -1.542733e-002 4.889111e-003 1.608873e-003 9.503804e-003 -1.518682e-002 -7.090850e-003 -5.029989e-003 -1.983578e-003 6.537874e-003 1.256960e-002 6.555979e-005 -9.750808e-006 5.525172e-004 -1.801964e-005 2.606318e-004 -8.107381e-007 -3.325678e-004 -3.473886e-004 -1.473498e-003 4.374613e-004 -1.025581e-004 -2.566022e-004 -4.507984e-005
<VARIANCE> 39
 7.699979e+001 5.384032e+001 7.206865e+001 1.336920e+002 1.492076e+002 1.937229e+002 1.256224e+002 1.017576e+002 9.619014e+001 5.183575e+001 5.731223e+001 4.114279e+001 2.030699e+002 1.456341e+000 1.751477e+000 1.746838e+000 2.515689e+000 2.114439e+000 2.322435e+000 2.504123e+000 2.275376e+000 2.515834e+000 2.118271e+000 1.832716e+000 1.536940e+000 1.874342e+000 1.945250e-001 2.672274e-001 2.554751e-001 3.729934e-001 3.351263e-001 3.963708e-001 4.302809e-001 3.943294e-001 4.199585e-001 3.712061e-001 3.335986e-001 2.820787e-001 2.186223e-001
<GCONST> 1.247440e+002
<TRANSP> 5
 0.000000e+000 1.000000e+000 0.000000e+000 0.000000e+000 0.000000e+000
 0.000000e+000 7.704428e-001 2.295572e-001 0.000000e+000 0.000000e+000
 0.000000e+000 0.000000e+000 7.704428e-001 2.295572e-001 0.000000e+000
 0.000000e+000 0.000000e+000 0.000000e+000 9.016352e-001 9.836484e-002
 0.000000e+000 0.000000e+000 0.000000e+000 0.000000e+000 0.000000e+000
<ENDHMM>
~h "r"
<BEGINHMM>
<NUMSTATES> 5
<STATE> 2
<MEAN> 39
 -6.439132e+000 -4.464409e+000 -7.286249e-001 -2.726998e+000 -1.788932e+000 -1.709000e+000 -2.028496e+000 -1.505659e+000 2.016455e+000 -4.281507e+000 2.130540e+000 -9.250329e-001 6.563477e+001 -1.078659e-002 1.380124e-002 4.006597e-003 1.068134e-002 -1.203431e-003 4.507753e-003 -1.484687e-003 -2.029553e-003 3.798094e-004 -5.336642e-003 -1.566814e-002 2.124168e-003 -1.664253e-002 -4.377578e-004 -1.623462e-004 1.465363e-005 4.715363e-004 -1.536535e-004 3.665178e-004 5.930152e-004 2.365606e-004 7.175613e-004 2.751829e-004 1.191285e-004 5.113297e-005 -6.982263e-004
<VARIANCE> 39
 7.662692e+001 5.983005e+001 7.006739e+001 1.413179e+002 1.398556e+002 1.857055e+002 1.243691e+002 1.031073e+002 1.020790e+002 6.202914e+001 6.777904e+001 4.543924e+001 2.272499e+002 1.132597e+000 1.855308e+000 1.802669e+000 2.469195e+000 2.375391e+000 2.383902e+000 2.666575e+000 2.372823e+000 2.508024e+000 2.162807e+000 2.046811e+000 1.722912e+000 1.935492e+000 1.476706e-001 2.773582e-001 2.623684e-001 3.584095e-001 3.886425e-001 3.974284e-001 4.608333e-001 4.111412e-001 4.222572e-001 3.785786e-001 3.524188e-001 3.060349e-001 2.135207e-001
<GCONST> 1.258749e+002
<STATE> 3
<MEAN> 39
 -6.489429e+000 -4.406722e+000 -7.128723e-001 -2.663893e+000 -1.792733e+000 -1.684810e+000 -2.025187e+000 -1.510153e+000 2.024812e+000 -4.305493e+000 2.062269e+000 -9.170148e-001 6.555132e+001 -1.247210e-002 1.269933e-002 4.300007e-003 1.256538e-002 -1.820893e-003 6.091892e-003 1.347981e-003 -6.934383e-004 3.719115e-003 -4.251997e-003 -1.500951e-002 2.228561e-003 -1.907594e-002 -3.381725e-004 -3.423065e-004 2.323102e-004 3.056244e-004 -2.576434e-004 4.328653e-004 4.513972e-004 4.955512e-004 1.004008e-003 1.355324e-004 2.830739e-004 1.140341e-004 -4.742380e-004
<VARIANCE> 39
 7.635012e+001 5.929525e+001 6.945944e+001 1.393688e+002 1.398736e+002 1.856829e+002 1.238633e+002 1.031727e+002 1.012683e+002 6.165555e+001 6.757645e+001 4.557887e+001 2.274333e+002 1.122965e+000 1.843818e+000 1.796914e+000 2.451217e+000 2.370341e+000 2.373383e+000 2.655598e+000 2.376925e+000 2.507057e+000 2.166688e+000 2.042591e+000 1.727960e+000 1.923749e+000 1.467311e-001 2.766613e-001 2.623634e-001 3.559957e-001 3.879051e-001 3.956346e-001 4.591025e-001 4.121790e-001 4.224884e-001 3.797432e-001 3.523023e-001 3.068777e-001 2.122802e-001
<GCONST> 1.257619e+002
<STATE> 4
<MEAN> 39
 -6.712290e+000 -4.224851e+000 -4.916368e-001 -3.198900e+000 -1.312057e+000 -2.219863e+000 -1.896686e+000 -1.700050e+000 2.053503e+000 -4.145530e+000 2.008626e+000 -1.211925e+000 6.454748e+001 -1.358467e-002 8.446773e-003 5.333669e-003 1.590532e-002 -9.400756e-004 8.654782e-003 5.986601e-003 2.365623e-003 9.100528e-003 -3.684686e-003 -1.233094e-002 1.873486e-003 -1.994734e-002 -2.254969e-004 -5.076933e-004 4.119064e-004 -8.570495e-005 -1.633470e-004 4.055843e-004 1.192503e-004 5.258055e-004 1.012825e-003 1.872447e-005 4.346763e-004 1.199211e-004 -4.923192e-005
<VARIANCE> 39
 7.068060e+001 5.617497e+001 6.873908e+001 1.342320e+002 1.429665e+002 1.759680e+002 1.308087e+002 1.087685e+002 1.016885e+002 6.131295e+001 6.997314e+001 4.408570e+001 2.354897e+002 1.078457e+000 1.752886e+000 1.759359e+000 2.428433e+000 2.316560e+000 2.276034e+000 2.633811e+000 2.381674e+000 2.463820e+000 2.137475e+000 2.028587e+000 1.712286e+000 1.938336e+000 1.435659e-001 2.632699e-001 2.598100e-001 3.516580e-001 3.807161e-001 3.828812e-001 4.538877e-001 4.132093e-001 4.186341e-001 3.767402e-001 3.510637e-001 3.058744e-001 2.138501e-001
<GCONST> 1.252908e+002
<TRANSP> 5
 0.000000e+000 1.000000e+000 0.000000e+000 0.000000e+000 0.000000e+000
 0.000000e+000 7.752381e-001 2.247619e-001 0.000000e+000 0.000000e+000
 0.000000e+000 0.000000e+000 7.752392e-001 2.247609e-001 0.000000e+000
 0.000000e+000 0.000000e+000 0.000000e+000 9.071028e-001 9.289724e-002
 0.000000e+000 0.000000e+000 0.000000e+000 0.000000e+000 0.000000e+000
<ENDHMM>
~h "s"
<BEGINHMM>
<NUMSTATES> 5
<STATE> 2
<MEAN> 39
 -9.840656e+000 -4.122386e+000 1.790281e+000 -2.281704e+000 4.492458e-001 -2.895788e+000 2.413350e-002 -2.911213e+000 2.144055e+000 -4.571382e+000 2.715443e+000 -1.397432e+000 6.732610e+001 3.433850e-003 -1.913515e-003 1.439386e-002 1.289563e-002 5.486957e-003 -4.977973e-003 -2.496835e-003 -9.902633e-003 2.721625e-003 -1.831989e-002 -2.386475e-003 -8.219634e-003 2.820667e-002 2.000876e-003 1.757535e-004 -1.222058e-003 1.039037e-003 -2.444838e-003 1.702008e-003 -1.394425e-003 1.799190e-003 -1.406920e-003 9.612298e-004 -2.028570e-003 9.479392e-005 -8.137035e-003
<VARIANCE> 39
 9.100017e+001 7.814143e+001 1.042946e+002 1.551734e+002 1.561519e+002 1.620054e+002 1.345961e+002 1.057981e+002 1.008411e+002 5.694791e+001 6.425572e+001 4.149619e+001 2.123046e+002 2.059190e+000 1.916509e+000 2.448618e+000 2.678575e+000 2.366007e+000 2.451745e+000 2.849373e+000 2.569425e+000 2.438487e+000 2.384582e+000 1.958935e+000 1.659631e+000 2.188527e+000 2.546162e-001 2.774129e-001 3.291588e-001 3.869933e-001 3.799212e-001 4.096650e-001 4.790017e-001 4.475305e-001 4.107514e-001 4.041082e-001 3.435216e-001 3.010468e-001 2.812718e-001
<GCONST> 1.291235e+002
<STATE> 3
<MEAN> 39
 -9.796797e+000 -4.134526e+000 1.834307e+000 -2.216594e+000 4.560154e-001 -2.903626e+000 -7.436675e-004 -2.940443e+000 2.137992e+000 -4.640705e+000 2.673372e+000 -1.430602e+000 6.737563e+001 9.952982e-003 -4.048335e-003 1.053384e-002 1.300212e-002 -6.462916e-005 -1.607143e-003 -4.905467e-003 -4.893417e-003 -2.013805e-003 -1.424203e-002 -1.020707e-002 -7.415606e-003 1.004148e-002 1.291176e-003 -5.491148e-004 -8.732352e-004 -2.175015e-004 -1.061882e-003 6.044905e-004 -3.779460e-004 9.376041e-004 -7.540449e-004 9.434302e-004 -1.525139e-003 1.060829e-004 -3.156291e-003
<VARIANCE> 39
 9.090920e+001 7.834753e+001 1.047457e+002 1.552461e+002 1.566339e+002 1.627210e+002 1.330942e+002 1.069193e+002 1.003750e+002 5.730217e+001 6.436485e+001 4.194008e+001 2.112343e+002 2.052418e+000 1.859753e+000 2.437487e+000 2.598406e+000 2.350882e+000 2.427235e+000 2.833693e+000 2.563374e+000 2.398874e+000 2.377997e+000 1.940628e+000 1.659261e+000 1.759381e+000 2.522978e-001 2.652460e-001 3.246447e-001 3.704012e-001 3.771231e-001 4.050762e-001 4.772394e-001 4.469463e-001 4.050971e-001 4.040876e-001 3.408783e-001 2.999599e-001 2.108445e-001
<GCONST> 1.283572e+002
<STATE> 4
<MEAN> 39
 -9.841606e+000 -4.024947e+000 1.988466e+000 -2.839370e+000 1.055533e+000 -3.665020e+000 1.349443e-001 -3.385842e+000 2.160198e+000 -4.829434e+000 2.576510e+000 -1.777870e+000 6.674520e+001 2.288609e-002 -5.045649e-003 -1.905153e-003 1.152644e-002 -3.764989e-003 -4.241394e-004 -5.852911e-003 -9.871245e-004 -1.698177e-003 -1.119162e-002 -1.527171e-002 -7.590022e-003 -1.074905e-003 1.030182e-003 -1.504264e-004 -1.225895e-003 -5.157519e-004 -4.496130e-004 -2.484439e-005 -6.052739e-005 3.989624e-004 2.020032e-004 4.807684e-004 -2.922748e-004 -1.160300e-004 -5.884013e-004
<VARIANCE> 39
 8.697440e+001 7.399702e+001 1.056623e+002 1.523007e+002 1.574229e+002 1.579056e+002 1.369954e+002 1.134227e+002 1.026377e+002 5.731861e+001 6.733230e+001 4.132536e+001 2.212333e+002 1.992401e+000 1.778028e+000 2.299550e+000 2.514210e+000 2.259290e+000 2.328953e+000 2.795644e+000 2.497663e+000 2.320098e+000 2.298297e+000 1.930347e+000 1.648632e+000 1.605476e+000 2.425207e-001 2.513520e-001 3.070987e-001 3.554812e-001 3.647141e-001 3.921497e-001 4.705679e-001 4.376340e-001 3.920150e-001 3.935882e-001 3.388125e-001 2.968670e-001 1.785344e-001
<GCONST> 1.274173e+002
<TRANSP> 5
 0.000000e+000 1.000000e+000 0.000000e+000 0.000000e+000 0.000000e+000
 0.000000e+000 7.722817e-001 2.277183e-001 0.000000e+000 0.000000e+000
 0.000000e+000 0.000000e+000 7.722811e-001 2.277189e-001 0.000000e+000
 0.000000e+000 0.000000e+000 0.000000e+000 9.040565e-001 9.594356e-002
 0.000000e+000 0.000000e+000 0.000000e+000 0.000000e+000 0.000000e+000
<ENDHMM>
~h "t"
<BEGINHMM>
<NUMSTATES> 5
<STATE> 2
<MEAN> 39
 -7.926970e+000 -3.944728e+000 -1.326211e+000 -2.287917e+000 -2.599243e+000 -2.364758e+000 -2.526714e+000 -1.062412e+000 1.207619e+000 -4.273527e+000 8.411540e-001 -1.402282e+000 6.453406e+001 1.056651e-002 -5.548715e-003 -1.780944e-004 -2.710478e-005 -1.741109e-003 3.301943e-003 -5.992973e-005 2.149107e-003 1.595171e-002 -8.417485e-003 5.338119e-004 4.589182e-004 1.767949e-002 -2.192603e-004 2.544906e-004 -1.383523e-004 8.259367e-004 -2.880107e-004 -2.045178e-004 -1.257585e-003 3.959351e-004 -2.618138e-003 -3.821075e-004 -9.968741e-004 -1.117076e-004 -5.036491e-003
<VARIANCE> 39
 7.947540e+001 6.087891e+001 6.487585e+001 1.364270e+002 1.190815e+002 1.539758e+002 1.226520e+002 8.891380e+001 1.068353e+002 5.686188e+001 6.187614e+001 4.333924e+001 2.346955e+002 1.160490e+000 1.753526e+000 1.767675e+000 2.584858e+000 2.228064e+000 2.512600e+000 2.747200e+000 2.430153e+000 2.579367e+000 2.350546e+000 2.061667e+000 1.615210e+000 2.429507e+000 1.554245e-001 2.565723e-001 2.573484e-001 3.682772e-001 3.584498e-001 4.144388e-001 4.726198e-001 4.233033e-001 4.338652e-001 4.177207e-001 3.640734e-001 2.924839e-001 2.865103e-001
<GCONST> 1.258797e+002
<STATE> 3
<MEAN> 39
 -7.885791e+000 -3.963945e+000 -1.328581e+000 -2.284900e+000 -2.609744e+000 -2.360574e+000 -2.541486e+000 -1.051211e+000 1.241225e+000 -4.311331e+000 8.350858e-001 -1.399869e+000 6.456403e+001 9.676033e-003 -5.433519e-003 -5.537161e-004 1.241204e-003 -1.720255e-003 3.439880e-004 -4.958465e-003 2.550717e-003 6.334905e-003 -9.379822e-003 -2.347484e-003 3.717512e-004 7.042399e-003 -3.816558e-004 6.168010e-005 8.346995e-006 3.162801e-004 6.925901e-005 -7.190839e-004 -9.550382e-004 8.588612e-005 -2.090640e-003 -2.989337e-004 -5.644521e-004 -7.675409e-005 -2.069585e-003
<VARIANCE> 39
 7.957723e+001 6.039456e+001 6.408059e+001 1.372994e+002 1.192905e+002 1.548559e+002 1.233178e+002 8.915141e+001 1.067797e+002 5.723765e+001 6.197213e+001 4.335632e+001 2.338885e+002 1.136202e+000 1.738056e+000 1.740943e+000 2.575599e+000 2.222145e+000 2.512241e+000 2.752302e+000 2.432523e+000 2.563629e+000 2.349665e+000 2.066887e+000 1.610708e+000 2.224115e+000 1.517297e-001 2.530161e-001 2.529613e-001 3.649843e-001 3.570075e-001 4.150688e-001 4.733996e-001 4.242819e-001 4.319961e-001 4.171224e-001 3.654329e-001 2.909509e-001 2.537884e-001
<GCONST> 1.255519e+002
<STATE> 4
<MEAN> 39
 -7.985566e+000 -3.876820e+000 -1.102698e+000 -3.030017e+000 -2.104475e+000 -2.933661e+000 -2.554829e+000 -1.361631e+000 1.072369e+000 -4.337233e+000 9.107670e-001 -1.701125e+000 6.368567e+001 8.805622e-003 -5.165110e-003 -2.523614e-004 2.211447e-003 2.354031e-004 -2.601150e-004 -7.532341e-003 1.963557e-003 -1.669724e-003 -9.221406e-003 -9.525616e-004 -2.624832e-004 3.939115e-003 -1.606963e-004 -9.934622e-005 4.466546e-005 1.982009e-004 2.119183e-004 8.624391e-006 -1.308267e-004 1.886088e-006 -7.488381e-004 -1.425185e-004 5.442381e-006 -2.092846e-004 -2.370242e-004
<VARIANCE> 39
 7.434250e+001 5.777034e+001 6.450939e+001 1.381823e+002 1.222193e+002 1.508233e+002 1.335721e+002 9.375304e+001 1.086713e+002 5.859599e+001 6.485865e+001 4.242584e+001 2.421437e+002 1.090690e+000 1.687653e+000 1.695451e+000 2.595991e+000 2.196207e+000 2.421312e+000 2.751722e+000 2.422585e+000 2.503273e+000 2.303833e+000 2.084319e+000 1.603289e+000 2.187472e+000 1.466603e-001 2.434148e-001 2.469040e-001 3.632685e-001 3.531156e-001 4.060818e-001 4.712046e-001 4.244983e-001 4.222524e-001 4.097949e-001 3.685751e-001 2.897920e-001 2.419681e-001
<GCONST> 1.252597e+002
<TRANSP> 5
 0.000000e+000 1.000000e+000 0.000000e+000 0.000000e+000 0.000000e+000
 0.000000e+000 7.738795e-001 2.261205e-001 0.000000e+000 0.000000e+000
 0.000000e+000 0.000000e+000 7.738784e-001 2.261216e-001 0.000000e+000
 0.000000e+000 0.000000e+000 0.000000e+000 9.058015e-001 9.419851e-002
 0.000000e+000 0.000000e+000 0.000000e+000 0.000000e+000 0.000000e+000
<ENDHMM>
~h "u"
<BEGINHMM>
<NUMSTATES> 5
<STATE> 2
<MEAN> 39
 -6.876170e+000 -3.264447e+000 -8.543583e-002 -2.084505e+000 -2.117275e+000 -2.047086e+000 -2.011458e+000 -1.766155e+000 1.661179e+000 -4.960583e+000 1.821771e+000 -1.137474e+000 6.429348e+001 3.735608e-003 -8.610523e-003 4.619258e-003 -1.825833e-003 1.806231e-004 -8.732178e-004 -4.300258e-003 5.663472e-003 4.485726e-003 -1.930986e-004 4.358374e-003 -5.260565e-003 7.038925e-003 3.345727e-005 -3.798518e-004 -3.801555e-004 1.230271e-004 4.626380e-004 1.910420e-004 -4.295920e-004 -4.341650e-004 -4.426228e-004 2.952707e-004 3.452312e-004 -3.424150e-004 2.095601e-004
<VARIANCE> 39
 7.557351e+001 6.109808e+001 7.191596e+001 1.450923e+002 1.397086e+002 1.691635e+002 1.346635e+002 9.763309e+001 1.093402e+002 6.713905e+001 6.052777e+001 4.316202e+001 2.264668e+002 1.054214e+000 1.692178e+000 1.711774e+000 2.489254e+000 2.239949e+000 2.393368e+000 2.786225e+000 2.377623e+000 2.435813e+000 2.442070e+000 2.089423e+000 1.696334e+000 1.638186e+000 1.352956e-001 2.522771e-001 2.438082e-001 3.608642e-001 3.594643e-001 3.966210e-001 4.671295e-001 4.171919e-001 4.080695e-001 4.167962e-001 3.652974e-001 3.030559e-001 1.793495e-001
<GCONST> 1.251721e+002
<STATE> 3
<MEAN> 39
 -6.860919e+000 -3.310787e+000 -7.013479e-002 -2.094702e+000 -2.110212e+000 -2.052774e+000 -2.033388e+000 -1.744959e+000 1.677590e+000 -4.953003e+000 1.847861e+000 -1.161451e+000 6.432854e+001 3.592821e-003 -1.047360e-002 2.748683e-003 -1.462406e-003 2.278549e-003 -5.171563e-004 -5.620911e-003 4.056861e-003 3.111958e-003 8.947860e-004 6.184143e-003 -6.274787e-003 7.967552e-003 5.420060e-005 -4.660755e-004 -5.402028e-004 9.845364e-005 4.896529e-004 1.628561e-004 -2.922093e-004 -4.510083e-004 -3.689117e-004 1.658182e-004 5.351048e-004 -1.073322e-004 3.072493e-004
<VARIANCE> 39
 7.569827e+001 6.119595e+001 7.156155e+001 1.458026e+002 1.399033e+002 1.692356e+002 1.353275e+002 9.716372e+001 1.102045e+002 6.664638e+001 6.067171e+001 4.308539e+001 2.258935e+002 1.050527e+000 1.694504e+000 1.714553e+000 2.492138e+000 2.237459e+000 2.396803e+000 2.787762e+000 2.375738e+000 2.440014e+000 2.432307e+000 2.087616e+000 1.695484e+000 1.650263e+000 1.345041e-001 2.520515e-001 2.432588e-001 3.606323e-001 3.590037e-001 3.972755e-001 4.672076e-001 4.167490e-001 4.084094e-001 4.145480e-001 3.644170e-001 3.028686e-001 1.808909e-001
<GCONST> 1.251710e+002
<STATE> 4
<MEAN> 39
 -6.968532e+000 -3.249584e+000 9.997079e-002 -2.897553e+000 -1.488144e+000 -2.516938e+000 -2.046614e+000 -2.008020e+000 1.636351e+000 -4.740539e+000 2.060164e+000 -1.502912e+000 6.347487e+001 7.328767e-004 -1.390089e-002 3.061137e-004 -4.469326e-004 5.251766e-003 -1.802362e-003 -4.174788e-003 3.177423e-003 3.042971e-003 2.653084e-003 7.607113e-003 -6.592159e-003 7.876067e-003 -1.033480e-004 -3.668065e-004 -3.951006e-004 2.267162e-004 4.361504e-004 1.657573e-004 -2.488429e-005 -2.870711e-004 -1.497280e-004 -1.038388e-004 3.142328e-004 6.013469e-005 1.322390e-004
<VARIANCE> 39
 7.108125e+001 5.903769e+001 7.158601e+001 1.428624e+002 1.427634e+002 1.638029e+002 1.432892e+002 9.994466e+001 1.123161e+002 6.592386e+001 6.278225e+001 4.163994e+001 2.304271e+002 1.014913e+000 1.640290e+000 1.672585e+000 2.492481e+000 2.188279e+000 2.282196e+000 2.731029e+000 2.325696e+000 2.377792e+000 2.361111e+000 2.055675e+000 1.657164e+000 1.675932e+000 1.306809e-001 2.411798e-001 2.365473e-001 3.578508e-001 3.534259e-001 3.823142e-001 4.572460e-001 4.085023e-001 3.970090e-001 4.029437e-001 3.576454e-001 2.970619e-001 1.837863e-001
<GCONST> 1.245869e+002
<TRANSP> 5
 0.000000e+000 1.000000e+000 0.000000e+000 0.000000e+000 0.000000e+000
 0.000000e+000 7.758259e-001 2.241741e-001 0.000000e+000 0.000000e+000
 0.000000e+000 0.000000e+000 7.758254e-001 2.241745e-001 0.000000e+000
 0.000000e+000 0.000000e+000 0.000000e+000 9.083415e-001 9.165850e-002
 0.000000e+000 0.000000e+000 0.000000e+000 0.000000e+000 0.000000e+000
<ENDHMM>
~h "w"
<BEGINHMM>
<NUMSTATES> 5
<STATE> 2
<MEAN> 39
 -5.826052e+000 -4.941055e+000 -1.525668e+000 1.488170e+000 -6.551229e+000 4.449773e+000 -2.429069e+000 4.606184e+000 4.273230e+000 -3.189327e+000 1.061860e+000 1.124655e+000 6.580118e+001 -4.547255e-002 7.817202e-003 -9.134966e-003 3.266988e-004 1.854466e-002 2.720786e-002 4.437998e-002 -7.836756e-003 6.388030e-003 5.257966e-002 1.947160e-002 -8.939874e-003 -3.525554e-002 -8.119049e-004 9.097319e-004 6.995425e-004 -1.531889e-004 3.802121e-004 9.263292e-004 -3.670693e-004 -1.226687e-003 1.202459e-004 7.863898e-004 -3.003883e-004 -3.902008e-004 -8.451464e-004
<VARIANCE> 39
 1.124815e+002 8.937982e+001 6.172529e+001 1.338174e+002 8.013946e+001 1.449252e+002 7.530462e+001 4.150934e+001 1.081182e+002 6.055225e+001 3.463219e+001 3.465287e+001 2.134098e+002 9.846746e-001 2.201073e+000 1.569631e+000 2.192927e+000 2.055203e+000 2.522911e+000 2.335565e+000 2.144798e+000 2.759394e+000 2.021890e+000 1.829636e+000 1.624364e+000 1.067870e+000 1.092060e-001 2.821123e-001 2.154448e-001 2.889181e-001 3.200708e-001 4.246230e-001 3.807716e-001 3.517668e-001 4.593731e-001 3.460293e-001 3.112459e-001 2.930945e-001 9.743015e-002
<GCONST> 1.198753e+002
<STATE> 3
<MEAN> 39
 -6.020709e+000 -4.902765e+000 -1.571084e+000 1.492236e+000 -6.465862e+000 4.555930e+000 -2.245344e+000 4.559766e+000 4.298276e+000 -2.964108e+000 1.144314e+000 1.086882e+000 6.565205e+001 -4.749911e-002 1.174606e-002 -6.380874e-003 -1.017783e-003 1.912525e-002 3.036598e-002 4.126386e-002 -1.288423e-002 7.063183e-003 5.460757e-002 1.778009e-002 -1.041945e-002 -3.789223e-002 -3.389508e-004 9.404990e-004 7.305795e-004 -4.685318e-004 -9.661708e-005 6.289883e-004 -9.178892e-004 -1.156574e-003 2.746716e-004 2.427413e-004 -4.783962e-004 -2.589064e-004 -5.003005e-004
<VARIANCE> 39
 1.130313e+002 8.971726e+001 6.166794e+001 1.327654e+002 8.028438e+001 1.422157e+002 7.605431e+001 4.157840e+001 1.050668e+002 5.934823e+001 3.445082e+001 3.385516e+001 2.119485e+002 1.013851e+000 2.218880e+000 1.571800e+000 2.199487e+000 2.051795e+000 2.548847e+000 2.352628e+000 2.138173e+000 2.778794e+000 2.025611e+000 1.829604e+000 1.632679e+000 1.081814e+000 1.117899e-001 2.872888e-001 2.166260e-001 2.898582e-001 3.175075e-001 4.260365e-001 3.809597e-001 3.496740e-001 4.601647e-001 3.468633e-001 3.117732e-001 2.968698e-001 9.935348e-002
<GCONST> 1.199451e+002
<STATE> 4
<MEAN> 39
 -6.349185e+000 -4.316589e+000 -1.745928e+000 8.270702e-001 -5.951218e+000 4.913760e+000 -2.205348e+000 4.508709e+000 4.009306e+000 -2.162681e+000 1.083612e+000 8.726667e-001 6.355431e+001 -3.960831e-002 1.673910e-002 -5.339258e-003 -4.264680e-003 1.470125e-002 2.503068e-002 2.647370e-002 -1.906509e-002 7.713546e-003 4.567043e-002 1.328125e-002 -9.732340e-003 -3.254221e-002 4.971056e-004 8.369834e-004 6.677064e-004 -7.288774e-004 -7.409250e-004 2.276176e-004 -1.567408e-003 -8.142157e-004 3.407865e-004 -6.326779e-004 -6.408254e-004 -6.239120e-005 6.627404e-005
<VARIANCE> 39
 1.095476e+002 8.740287e+001 5.836409e+001 1.357331e+002 7.740662e+001 1.255928e+002 7.763300e+001 4.010211e+001 9.417534e+001 5.705168e+001 3.572421e+001 3.136588e+001 2.154587e+002 1.071571e+000 2.133307e+000 1.499568e+000 2.253386e+000 1.985136e+000 2.489703e+000 2.373367e+000 2.076918e+000 2.691663e+000 1.983356e+000 1.870041e+000 1.606584e+000 1.103461e+000 1.173295e-001 2.787526e-001 2.101713e-001 2.916231e-001 3.036250e-001 4.158633e-001 3.816437e-001 3.420612e-001 4.448545e-001 3.398353e-001 3.140585e-001 2.959594e-001 1.036259e-001
<GCONST> 1.192917e+002
<TRANSP> 5
 0.000000e+000 1.000000e+000 0.000000e+000 0.000000e+000 0.000000e+000
 0.000000e+000 7.727650e-001 2.272350e-001 0.000000e+000 0.000000e+000
 0.000000e+000 0.000000e+000 7.727649e-001 2.272351e-001 0.000000e+000
 0.000000e+000 0.000000e+000 0.000000e+000 9.041402e-001 9.585989e-002
 0.000000e+000 0.000000e+000 0.000000e+000 0.000000e+000 0.000000e+000
<ENDHMM>
~h "y"
<BEGINHMM>
<NUMSTATES> 5
<STATE> 2
<MEAN> 39
 -6.722289e+000 -5.714098e+000 4.534177e-001 -3.646583e+000 -4.986236e-001 -4.358424e+000 -2.587749e+000 -2.122115e+000 1.907358e+000 -3.949136e+000 1.933653e+000 -1.180997e+000 6.690521e+001 1.199617e-002 -4.670798e-003 5.065906e-003 -1.721138e-002 -1.091488e-002 -1.504725e-002 -9.243047e-003 8.526366e-003 -6.712682e-003 5.924911e-003 -5.852344e-003 4.060155e-003 1.547426e-002 -3.692798e-004 8.971977e-004 1.735885e-004 -6.893615e-004 -1.461257e-004 7.107545e-004 8.375656e-004 8.513755e-004 2.679686e-004 3.896139e-004 7.969770e-005 1.435258e-004 -6.838315e-004
<VARIANCE> 39
 6.021191e+001 6.662712e+001 7.537736e+001 1.379271e+002 1.485006e+002 1.586641e+002 1.321510e+002 1.177847e+002 9.877002e+001 4.930510e+001 8.334831e+001 4.660193e+001 2.261257e+002 8.286348e-001 1.739916e+000 1.723060e+000 2.227268e+000 2.303182e+000 2.060327e+000 2.705235e+000 2.515347e+000 2.286839e+000 2.146220e+000 2.255706e+000 1.811833e+000 1.823417e+000 1.018338e-001 2.140840e-001 2.128126e-001 2.942703e-001 3.407534e-001 3.454525e-001 4.499262e-001 4.010829e-001 3.870726e-001 3.736217e-001 3.716667e-001 3.047062e-001 1.754228e-001
<GCONST> 1.236045e+002
<STATE> 3
<MEAN> 39
 -6.670584e+000 -5.727177e+000 4.800523e-001 -3.738179e+000 -5.500547e-001 -4.415529e+000 -2.621792e+000 -2.074196e+000 1.878811e+000 -3.919138e+000 1.906425e+000 -1.161908e+000 6.697048e+001 9.904332e-003 -2.234708e-004 4.628049e-003 -1.911677e-002 -1.105252e-002 -1.128820e-002 -5.011416e-003 1.165811e-002 -5.140939e-003 7.094030e-003 -5.534421e-003 4.933443e-003 1.067004e-002 -4.788388e-004 9.647840e-004 -5.317981e-005 -5.064824e-004 -5.167036e-005 8.739549e-004 9.223988e-004 6.815199e-004 2.881658e-004 1.871907e-004 -1.152258e-005 1.191745e-004 -1.018818e-003
<VARIANCE> 39
 6.022533e+001 6.669463e+001 7.562172e+001 1.379766e+002 1.484354e+002 1.567997e+002 1.323532e+002 1.174381e+002 9.913890e+001 4.929682e+001 8.383888e+001 4.632227e+001 2.236588e+002 8.287382e-001 1.757049e+000 1.733662e+000 2.219579e+000 2.312186e+000 2.049186e+000 2.697174e+000 2.515193e+000 2.294891e+000 2.127726e+000 2.245022e+000 1.805391e+000 1.836129e+000 1.016784e-001 2.153307e-001 2.140625e-001 2.932192e-001 3.416161e-001 3.451572e-001 4.489571e-001 4.011926e-001 3.887340e-001 3.710643e-001 3.700027e-001 3.046049e-001 1.770246e-001
<GCONST> 1.235977e+002
<STATE> 4
<MEAN> 39
 -6.682901e+000 -5.758184e+000 9.727073e-001 -4.663461e+000 -1.078944e-001 -4.967283e+000 -2.339585e+000 -2.267347e+000 2.035602e+000 -3.792086e+000 1.922459e+000 -1.441609e+000 6.642503e+001 4.258432e-003 9.391411e-003 -1.057541e-003 -1.643576e-002 -7.016888e-003 -1.327008e-003 4.474518e-003 1.406633e-002 7.099271e-004 7.217042e-003 -4.313651e-003 5.955813e-003 -5.032169e-003 -6.912832e-004 1.141708e-003 -5.116662e-004 2.997117e-004 2.940196e-004 9.884604e-004 1.026835e-003 3.089131e-004 5.210017e-004 -6.237887e-005 -1.655298e-006 1.996953e-005 -1.753707e-003
<VARIANCE> 39
 5.539716e+001 6.399693e+001 7.504205e+001 1.329399e+002 1.541132e+002 1.490777e+002 1.401676e+002 1.240056e+002 1.029356e+002 4.952692e+001 8.831992e+001 4.312969e+001 2.250800e+002 8.139666e-001 1.778256e+000 1.719860e+000 2.201404e+000 2.305224e+000 1.984951e+000 2.689392e+000 2.509828e+000 2.282777e+000 2.095492e+000 2.224212e+000 1.760640e+000 1.868281e+000 1.007400e-001 2.140823e-001 2.131287e-001 2.935489e-001 3.406115e-001 3.375997e-001 4.488954e-001 3.985865e-001 3.867216e-001 3.668470e-001 3.666528e-001 2.999177e-001 1.816360e-001
<GCONST> 1.233907e+002
<TRANSP> 5
 0.000000e+000 1.000000e+000 0.000000e+000 0.000000e+000 0.000000e+000
 0.000000e+000 7.787778e-001 2.212222e-001 0.000000e+000 0.000000e+000
 0.000000e+000 0.000000e+000 7.787780e-001 2.212220e-001 0.000000e+000
 0.000000e+000 0.000000e+000 0.000000e+000 9.114867e-001 8.851328e-002
 0.000000e+000 0.000000e+000 0.000000e+000 0.000000e+000 0.000000e+000
<ENDHMM>
~h "z"
<BEGINHMM>
<NUMSTATES> 5
<STATE> 2
<MEAN> 39
 -1.416772e+001 -1.451285e+000 -2.797585e+000 -2.219551e+000 -3.972599e+000 -3.230108e+000 -2.042933e+000 2.091796e-001 -3.770873e+000 -2.069064e+000 -7.414082e-001 -3.017638e+000 5.621529e+001 2.408683e-002 2.979629e-002 3.527413e-002 8.246670e-003 9.762033e-003 -6.654663e-002 -4.460376e-002 -3.623834e-002 -7.511135e-002 -1.234013e-001 -3.980586e-002 -3.660776e-002 2.927404e-002 2.669540e-003 4.227341e-004 5.429410e-003 -6.509929e-005 1.621946e-003 -6.019650e-003 -4.155765e-003 -5.376549e-003 -7.451804e-003 -3.683003e-003 1.316163e-004 2.864197e-003 8.508304e-003
<VARIANCE> 39
 5.844818e+001 2.343350e+001 1.909747e+001 5.367468e+001 3.484134e+001 7.659782e+001 7.405739e+001 5.567514e+001 8.458389e+001 6.388163e+001 2.930629e+001 2.074934e+001 1.945113e+002 4.069393e-001 8.317207e-001 7.240783e-001 1.293637e+000 1.108419e+000 1.693655e+000 2.358253e+000 2.028040e+000 2.312570e+000 2.066070e+000 1.442292e+000 1.309962e+000 1.169284e+000 6.042725e-002 1.123403e-001 1.279124e-001 2.030489e-001 1.933924e-001 3.093885e-001 3.641706e-001 3.789708e-001 3.757119e-001 3.636675e-001 2.745367e-001 2.189943e-001 1.358062e-001
<GCONST> 1.054858e+002
<STATE> 3
<MEAN> 39
 -1.399368e+001 -1.317331e+000 -2.563163e+000 -2.164927e+000 -3.900344e+000 -3.646998e+000 -2.283953e+000 -2.479779e-003 -4.174515e+000 -2.623339e+000 -8.717149e-001 -3.156203e+000 5.651895e+001 4.316630e-002 3.045709e-002 5.767739e-002 1.315728e-002 1.915348e-002 -1.013974e-001 -6.070569e-002 -5.166069e-002 -1.024966e-001 -1.272287e-001 -3.144035e-002 -2.916451e-002 7.531606e-002 4.702858e-003 2.504800e-004 5.152520e-003 1.401319e-003 1.944965e-003 -8.590241e-003 -4.093447e-003 -3.642458e-003 -7.337897e-003 -1.012589e-003 2.622879e-003 1.625973e-003 1.040776e-002
<VARIANCE> 39
 5.881868e+001 2.758376e+001 1.991440e+001 5.909845e+001 3.742529e+001 8.488626e+001 7.307668e+001 5.666991e+001 8.356622e+001 6.369474e+001 2.988732e+001 2.194713e+001 2.053055e+002 4.737547e-001 9.839684e-001 8.273247e-001 1.501922e+000 1.241241e+000 1.913092e+000 2.569521e+000 2.129164e+000 2.285160e+000 2.060230e+000 1.425200e+000 1.413225e+000 1.452499e+000 7.044908e-002 1.253482e-001 1.436289e-001 2.325651e-001 2.153422e-001 3.420334e-001 3.935938e-001 3.868733e-001 3.583890e-001 3.669314e-001 2.689363e-001 2.382518e-001 1.701494e-001
<GCONST> 1.083966e+002
<STATE> 4
<MEAN> 39
 -1.258021e+001 -1.339654e+000 -1.954523e+000 -2.447905e+000 -4.206128e+000 -4.673780e+000 -3.290696e+000 -8.651217e-002 -5.402058e+000 -3.376444e+000 -8.753509e-001 -3.348711e+000 5.663744e+001 6.928962e-002 1.208899e-002 5.418440e-002 -5.596187e-003 2.269875e-002 -1.385086e-001 -7.781012e-002 -3.428726e-002 -8.894499e-002 -1.052762e-001 -3.795573e-003 -1.834738e-002 1.685532e-001 3.337911e-003 -1.842628e-003 1.591492e-004 -8.570596e-004 3.271534e-004 -5.963495e-003 -3.408697e-003 8.025755e-004 -1.582071e-003 1.155979e-003 2.832811e-003 6.521161e-004 9.094680e-003
<VARIANCE> 39
 6.122183e+001 4.394855e+001 2.396059e+001 8.532609e+001 4.453246e+001 1.086573e+002 7.578191e+001 5.941312e+001 8.063938e+001 6.815388e+001 3.608763e+001 2.673663e+001 2.203803e+002 6.929692e-001 1.564004e+000 1.170933e+000 2.233598e+000 1.704917e+000 2.489461e+000 3.168459e+000 2.344072e+000 2.321695e+000 2.065403e+000 1.512699e+000 1.677003e+000 2.289622e+000 9.955464e-002 1.658141e-001 1.895107e-001 3.146837e-001 2.924730e-001 4.319251e-001 4.809445e-001 4.055577e-001 3.436968e-001 3.710424e-001 2.753157e-001 2.865591e-001 2.599575e-001
<GCONST> 1.162199e+002
<TRANSP> 5
 0.000000e+000 1.000000e+000 0.000000e+000 0.000000e+000 0.000000e+000
 0.000000e+000 7.800866e-001 2.199133e-001 0.000000e+000 0.000000e+000
 0.000000e+000 0.000000e+000 7.800868e-001 2.199132e-001 0.000000e+000
 0.000000e+000 0.000000e+000 0.000000e+000 9.126712e-001 8.732878e-002
 0.000000e+000 0.000000e+000 0.000000e+000 0.000000e+000 0.000000e+000
<ENDHMM>
~h "ai"
<BEGINHMM>
<NUMSTATES> 5
<STATE> 2
<MEAN> 39
 -6.189213e+000 -5.789903e+000 1.219965e+000 -1.901091e+000 -8.806830e-001 -3.313607e+000 -2.495048e+000 -2.877021e+000 2.541386e+000 -5.465164e+000 2.628146e+000 -1.823839e+000 6.691096e+001 -2.534967e-002 -9.421848e-004 -7.739990e-003 2.847051e-002 2.183876e-002 3.185216e-002 3.661888e-002 1.973674e-002 2.626547e-002 -1.921580e-003 1.963660e-002 2.757940e-003 -3.454664e-002 -3.186560e-004 -7.376408e-004 -4.493335e-005 -4.207170e-004 2.546366e-004 -7.895984e-004 -7.665037e-005 -5.436916e-004 -3.756250e-004 7.306048e-004 -6.086683e-005 3.752694e-004 7.807650e-004
<VARIANCE> 39
 8.415520e+001 6.897856e+001 7.738631e+001 1.885997e+002 1.599189e+002 1.830004e+002 1.408609e+002 9.532623e+001 1.161913e+002 5.606879e+001 7.183972e+001 4.675431e+001 2.043450e+002 9.192733e-001 1.808460e+000 2.042718e+000 3.110550e+000 2.485231e+000 2.572724e+000 2.557962e+000 2.535349e+000 2.501372e+000 2.478646e+000 2.241324e+000 1.706350e+000 1.935960e+000 1.217083e-001 2.525125e-001 2.532146e-001 4.191203e-001 3.728630e-001 4.439339e-001 4.293841e-001 4.586017e-001 3.959848e-001 4.187547e-001 3.737116e-001 3.045291e-001 2.000289e-001
<GCONST> 1.271226e+002
<STATE> 3
<MEAN> 39
 -6.324191e+000 -5.784853e+000 1.179874e+000 -1.780381e+000 -7.860520e-001 -3.167049e+000 -2.325383e+000 -2.793234e+000 2.655149e+000 -5.459201e+000 2.713081e+000 -1.805953e+000 6.672833e+001 -2.602973e-002 -3.477431e-003 -8.059151e-003 2.638349e-002 2.282847e-002 2.894677e-002 3.592402e-002 1.659074e-002 2.400034e-002 6.594032e-004 1.908159e-002 4.368426e-003 -3.094620e-002 -3.422345e-006 -3.726243e-004 3.297485e-004 -5.511824e-004 -3.056986e-005 -7.087676e-004 -3.568092e-004 -8.497658e-004 -8.506670e-004 4.029854e-004 -2.890748e-004 9.749253e-005 7.851268e-004
<VARIANCE> 39
 8.559905e+001 6.950069e+001 7.702868e+001 1.894948e+002 1.588007e+002 1.816738e+002 1.404422e+002 9.414116e+001 1.166458e+002 5.554608e+001 7.091600e+001 4.653011e+001 2.088046e+002 9.328448e-001 1.811803e+000 2.026845e+000 3.087016e+000 2.470854e+000 2.564273e+000 2.536008e+000 2.505238e+000 2.489978e+000 2.469989e+000 2.206131e+000 1.697435e+000 1.960588e+000 1.242545e-001 2.510932e-001 2.514549e-001 4.124113e-001 3.696143e-001 4.437858e-001 4.277534e-001 4.532918e-001 3.956366e-001 4.173456e-001 3.679782e-001 3.029143e-001 2.043188e-001
<GCONST> 1.270344e+002
<STATE> 4
<MEAN> 39
 -6.811459e+000 -5.634648e+000 1.683803e+000 -2.714230e+000 -4.457131e-002 -3.716867e+000 -1.831402e+000 -3.095913e+000 2.910357e+000 -5.201399e+000 3.011601e+000 -2.129492e+000 6.570068e+001 -2.812764e-002 -6.050534e-004 -1.118632e-002 2.226305e-002 2.207613e-002 2.812248e-002 3.533993e-002 8.873869e-003 1.595371e-002 3.932867e-003 1.532047e-002 5.831118e-003 -3.408540e-002 3.574722e-004 -6.269977e-005 5.605197e-004 -2.597229e-004 3.210018e-005 -3.151596e-004 -4.072678e-004 -9.175868e-004 -1.305694e-003 -2.161149e-004 -8.237443e-004 6.623346e-005 5.499716e-004
<VARIANCE> 39
 7.906927e+001 6.704610e+001 7.820250e+001 1.804086e+002 1.650316e+002 1.753122e+002 1.491528e+002 9.816897e+001 1.222389e+002 5.493335e+001 7.269284e+001 4.460664e+001 2.206900e+002 9.168413e-001 1.762052e+000 2.018056e+000 3.028379e+000 2.344659e+000 2.430844e+000 2.496347e+000 2.469223e+000 2.460993e+000 2.402400e+000 2.158128e+000 1.656698e+000 2.081094e+000 1.251170e-001 2.405301e-001 2.519445e-001 3.993520e-001 3.523718e-001 4.241605e-001 4.216399e-001 4.461566e-001 3.908176e-001 4.094157e-001 3.620563e-001 2.932367e-001 2.190345e-001
<GCONST> 1.266326e+002
<TRANSP> 5
 0.000000e+000 1.000000e+000 0.000000e+000 0.000000e+000 0.000000e+000
 0.000000e+000 7.756802e-001 2.243197e-001 0.000000e+000 0.000000e+000
 0.000000e+000 0.000000e+000 7.756797e-001 2.243203e-001 0.000000e+000
 0.000000e+000 0.000000e+000 0.000000e+000 9.080447e-001 9.195529e-002
 0.000000e+000 0.000000e+000 0.000000e+000 0.000000e+000 0.000000e+000
<ENDHMM>
~h "au"
<BEGINHMM>
<NUMSTATES> 5
<STATE> 2
<MEAN> 39
 -9.582124e+000 -3.268190e+000 -3.123633e+000 -3.230000e+000 -7.166165e+000 -4.257067e+000 -1.143331e+000 3.426315e+000 -8.585224e-001 -4.926586e+000 3.789764e-003 -1.695876e+000 7.034550e+001 -1.557245e-003 1.881877e-002 2.154687e-003 1.012259e-002 -2.465735e-002 -9.879326e-003 1.490101e-002 1.384644e-002 -5.828204e-003 -5.364716e-003 5.316722e-003 1.202330e-002 -3.390160e-002 3.025972e-004 5.376094e-007 -1.071582e-003 2.932557e-004 -7.870942e-005 -1.706263e-004 -7.458823e-004 2.514396e-005 3.037808e-004 -6.240450e-004 -2.387672e-004 9.903189e-004 -6.987562e-004
<VARIANCE> 39
 6.278708e+001 8.175899e+001 7.470141e+001 1.366470e+002 7.409286e+001 1.679199e+002 8.402055e+001 6.340637e+001 7.906311e+001 6.716293e+001 3.002990e+001 3.632322e+001 1.918341e+002 1.044854e+000 2.206538e+000 1.886369e+000 2.405936e+000 2.237534e+000 2.889895e+000 2.759614e+000 2.511886e+000 2.316878e+000 2.112669e+000 1.880480e+000 1.553354e+000 1.196333e+000 1.097620e-001 2.700697e-001 2.411124e-001 2.886959e-001 3.288128e-001 4.501874e-001 4.768289e-001 4.099393e-001 3.712766e-001 3.465171e-001 3.462397e-001 2.780275e-001 9.971371e-002
<GCONST> 1.208569e+002
<STATE> 3
<MEAN> 39
