~o
<STREAMINFO> 1 25
<VECSIZE> 25<NULLD><MFCC_D_N_Z_0><DIAGC>
~h "a"
<BEGINHMM>
<NUMSTATES> 5
<STATE> 2
<MEAN> 25
 3.986020e-001 -5.642630e-001 -2.299991e-001 -3.611352e-001 -7.965825e-002 -1.707930e-001 1.708921e-001 3.103351e-001 1.321885e-001 -1.247988e-001 -9.156328e-002 9.933846e-002 1.227227e-003 -1.970464e-003 3.435513e-003 -3.129999e-003 -8.127476e-003 -2.699330e-003 -3.909949e-003 7.218331e-005 -1.208086e-003 1.044381e-003 1.770745e-003 -1.392946e-003 4.533241e-004
<VARIANCE> 25
 4.213769e+001 4.786827e+001 5.385131e+001 7.564577e+001 5.143030e+001 4.606063e+001 5.716131e+001 4.623269e+001 5.085492e+001 3.879303e+001 3.792956e+001 2.790911e+001 1.189090e+000 1.769191e+000 1.795826e+000 2.375811e+000 2.273239e+000 2.230819e+000 2.573231e+000 2.470141e+000 2.401442e+000 2.188293e+000 2.044900e+000 1.697987e+000 1.956237e+000
<GCONST> 1.013128e+002
<STATE> 3
<MEAN> 25
 4.035450e-001 -5.670699e-001 -2.126501e-001 -3.772746e-001 -1.143124e-001 -1.799189e-001 1.517892e-001 3.076198e-001 1.286961e-001 -1.199969e-001 -8.468147e-002 9.167670e-002 8.197159e-004 -4.587802e-004 4.192650e-003 -3.435136e-003 -7.731788e-003 -1.784483e-003 -4.571565e-003 -1.515975e-003 -1.079926e-003 1.464612e-003 2.008409e-003 -2.151711e-003 -2.074912e-004
<VARIANCE> 25
 4.217624e+001 4.787843e+001 5.413364e+001 7.567645e+001 5.139650e+001 4.614696e+001 5.739260e+001 4.633484e+001 5.089074e+001 3.874911e+001 3.809241e+001 2.786486e+001 1.185556e+000 1.773898e+000 1.799139e+000 2.381014e+000 2.275288e+000 2.234177e+000 2.580406e+000 2.471391e+000 2.402066e+000 2.188842e+000 2.044968e+000 1.696937e+000 1.953032e+000
<GCONST> 1.013370e+002
<STATE> 4
<MEAN> 25
 4.009104e-001 -5.659720e-001 -1.277337e-001 -4.409145e-001 -1.643236e-001 -2.188294e-001 7.836906e-002 2.594114e-001 1.135526e-001 -1.302835e-001 -1.191808e-001 5.042281e-002 -1.206944e-003 4.034007e-003 6.160205e-003 -1.278354e-003 -4.682088e-003 9.525437e-004 -4.269415e-003 -3.452732e-003 4.398840e-004 2.191332e-003 2.100244e-003 -2.484372e-003 -4.184980e-003
<VARIANCE> 25
 4.152124e+001 4.719308e+001 5.443888e+001 7.768446e+001 5.107171e+001 4.474562e+001 5.844893e+001 4.642198e+001 5.004324e+001 3.784404e+001 3.842490e+001 2.773400e+001 1.153590e+000 1.731601e+000 1.760454e+000 2.386873e+000 2.248518e+000 2.173441e+000 2.588066e+000 2.449088e+000 2.356985e+000 2.144538e+000 2.034477e+000 1.672432e+000 1.964301e+000
<GCONST> 1.011156e+002
<TRANSP> 5
 0.000000e+000 1.000000e+000 0.000000e+000 0.000000e+000 0.000000e+000
 0.000000e+000 7.760329e-001 2.239671e-001 0.000000e+000 0.000000e+000
 0.000000e+000 0.000000e+000 7.760340e-001 2.239660e-001 0.000000e+000
 0.000000e+000 0.000000e+000 0.000000e+000 9.082016e-001 9.179845e-002
 0.000000e+000 0.000000e+000 0.000000e+000 0.000000e+000 0.000000e+000
<ENDHMM>
~h "b"
<BEGINHMM>
<NUMSTATES> 5
<STATE> 2
<MEAN> 25
 4.163127e-001 -9.167498e-002 -4.786553e-001 3.009340e-001 3.237481e-001 -1.605017e-001 -2.591162e-001 -2.309588e-001 -7.198512e-002 -2.090118e-001 -1.275865e-001 7.072323e-002 5.643289e-003 -1.371191e-002 -8.959053e-003 7.281841e-003 3.918591e-003 -4.229445e-003 5.316075e-004 3.411731e-003 1.241238e-002 -3.108208e-003 3.967240e-003 4.803037e-003 8.744145e-003
<VARIANCE> 25
 3.898811e+001 4.362085e+001 4.182073e+001 7.106758e+001 4.529748e+001 4.857443e+001 5.569024e+001 4.239508e+001 5.008634e+001 4.018706e+001 3.660511e+001 2.745908e+001 1.008162e+000 1.658415e+000 1.513185e+000 2.164497e+000 2.013440e+000 2.268371e+000 2.340712e+000 2.156006e+000 2.353337e+000 2.124508e+000 2.008750e+000 1.644176e+000 1.913402e+000
<GCONST> 9.965713e+001
<STATE> 3
<MEAN> 25
 4.426275e-001 -1.565340e-001 -5.128743e-001 3.348396e-001 3.425892e-001 -1.754876e-001 -2.553886e-001 -2.094959e-001 -1.720674e-002 -2.191401e-001 -1.242793e-001 8.874924e-002 6.512159e-003 -1.547697e-002 -7.053104e-003 8.703245e-003 4.733794e-003 -3.779686e-003 9.776274e-004 6.775169e-003 1.333161e-002 -2.295927e-003 2.322413e-004 4.591601e-003 8.565531e-003
<VARIANCE> 25
 3.896680e+001 4.329317e+001 4.155617e+001 7.058435e+001 4.523611e+001 4.879300e+001 5.571796e+001 4.262647e+001 4.978297e+001 4.037414e+001 3.654275e+001 2.757435e+001 1.013515e+000 1.652363e+000 1.512987e+000 2.156985e+000 2.009092e+000 2.279085e+000 2.348681e+000 2.163115e+000 2.357012e+000 2.147377e+000 2.004111e+000 1.650605e+000 1.853165e+000
<GCONST> 9.963515e+001
<STATE> 4
<MEAN> 25
 5.008439e-001 -2.938260e-001 -5.229915e-001 2.444393e-001 2.832220e-001 -2.115910e-001 -2.014006e-001 -1.119871e-001 4.423187e-002 -1.949972e-001 -9.985298e-002 7.740262e-002 7.858197e-003 -1.828147e-002 -2.486080e-003 -1.206333e-003 1.838029e-003 -5.682104e-003 -1.926405e-003 9.957795e-003 1.241047e-002 1.985128e-003 4.130986e-004 3.843106e-003 1.894304e-002
<VARIANCE> 25
 3.815622e+001 4.175377e+001 4.190566e+001 7.147672e+001 4.511150e+001 4.637865e+001 5.642734e+001 4.263915e+001 4.875479e+001 3.917508e+001 3.627686e+001 2.752356e+001 1.003754e+000 1.595028e+000 1.490234e+000 2.166916e+000 2.010201e+000 2.195567e+000 2.379457e+000 2.157731e+000 2.322367e+000 2.134107e+000 1.981154e+000 1.653393e+000 1.915030e+000
<GCONST> 9.941833e+001
<TRANSP> 5
 0.000000e+000 1.000000e+000 0.000000e+000 0.000000e+000 0.000000e+000
 0.000000e+000 7.742853e-001 2.257147e-001 0.000000e+000 0.000000e+000
 0.000000e+000 0.000000e+000 7.742850e-001 2.257150e-001 0.000000e+000
 0.000000e+000 0.000000e+000 0.000000e+000 9.056790e-001 9.432098e-002
 0.000000e+000 0.000000e+000 0.000000e+000 0.000000e+000 0.000000e+000
<ENDHMM>
~h "c"
<BEGINHMM>
<NUMSTATES> 5
<STATE> 2
<MEAN> 25
 1.072173e-001 4.055851e-001 -2.359469e-001 3.235273e-001 -6.429171e-001 6.483408e-001 9.907088e-001 5.600706e-001 9.202791e-001 -1.155389e-001 4.420062e-001 5.356091e-001 -1.790492e-002 -3.351167e-003 -5.551468e-003 8.372444e-003 -1.095638e-002 1.822636e-002 3.873665e-002 -1.695313e-002 -2.769526e-002 -1.514963e-002 1.867766e-002 4.539324e-002 -4.986306e-002
<VARIANCE> 25
 4.140183e+001 5.068279e+001 6.224157e+001 6.922065e+001 3.711538e+001 5.187651e+001 5.511458e+001 4.910511e+001 5.598437e+001 3.444462e+001 3.030980e+001 3.500264e+001 1.694488e+000 2.624645e+000 2.694013e+000 2.305465e+000 2.185539e+000 2.477428e+000 3.279974e+000 2.806919e+000 2.507268e+000 2.068665e+000 1.878667e+000 1.803955e+000 1.955773e+000
<GCONST> 1.027268e+002
<STATE> 3
<MEAN> 25
 2.055056e-002 3.894961e-001 -2.584743e-001 3.627546e-001 -6.827704e-001 7.158527e-001 1.157354e+000 4.747196e-001 7.776300e-001 -1.838537e-001 5.206935e-001 7.339128e-001 -1.746089e-002 -7.123047e-003 -5.031207e-003 4.618800e-003 -8.779736e-003 1.615827e-002 3.392807e-002 -1.993058e-002 -3.454613e-002 -1.767666e-002 1.928333e-002 4.428584e-002 -4.333489e-002
<VARIANCE> 25
 4.091861e+001 5.192986e+001 6.295793e+001 7.085263e+001 3.719166e+001 5.121328e+001 5.293415e+001 4.739192e+001 5.488279e+001 3.497385e+001 3.066589e+001 3.415366e+001 1.714244e+000 2.657068e+000 2.770217e+000 2.281108e+000 2.190928e+000 2.440057e+000 3.205386e+000 2.770933e+000 2.529511e+000 2.090055e+000 1.877312e+000 1.771332e+000 1.958284e+000
<GCONST> 1.026639e+002
<STATE> 4
<MEAN> 25
 -3.050365e-001 3.845655e-001 -1.390763e-001 4.220697e-001 -7.882651e-001 4.671786e-001 1.336830e+000 4.174756e-001 5.098787e-001 -3.910340e-001 5.714250e-001 1.008787e+000 -1.238484e-002 -1.474893e-002 -5.231784e-003 1.257384e-003 -5.679192e-003 8.283368e-003 2.900822e-002 -1.604830e-002 -3.703720e-002 -1.915819e-002 1.479303e-002 3.453426e-002 -3.123053e-002
<VARIANCE> 25
 4.101616e+001 5.748025e+001 6.826433e+001 8.479439e+001 4.105391e+001 4.878974e+001 5.086324e+001 4.846988e+001 5.260077e+001 3.446196e+001 3.487638e+001 3.530153e+001 1.933318e+000 2.855258e+000 3.038029e+000 2.554461e+000 2.452603e+000 2.398789e+000 3.329162e+000 2.811343e+000 2.613985e+000 2.179740e+000 2.004189e+000 1.834129e+000 2.362109e+000
<GCONST> 1.040742e+002
<TRANSP> 5
 0.000000e+000 1.000000e+000 0.000000e+000 0.000000e+000 0.000000e+000
 0.000000e+000 7.691868e-001 2.308132e-001 0.000000e+000 0.000000e+000
 0.000000e+000 0.000000e+000 7.691873e-001 2.308127e-001 0.000000e+000
 0.000000e+000 0.000000e+000 0.000000e+000 9.009910e-001 9.900910e-002
 0.000000e+000 0.000000e+000 0.000000e+000 0.000000e+000 0.000000e+000
<ENDHMM>
~h "d"
<BEGINHMM>
<NUMSTATES> 5
<STATE> 2
<MEAN> 25
 7.797120e-001 9.261167e-001 1.177246e-001 5.943190e-001 3.505282e-001 4.488285e-001 -3.344963e-001 -1.750203e-001 -1.025055e-001 -3.699748e-001 2.123372e-001 2.244871e-001 -2.370780e-002 1.656245e-002 -2.020108e-003 5.464125e-004 1.250895e-002 -3.625551e-003 1.095193e-002 2.133738e-003 2.542358e-003 1.602589e-002 9.093588e-003 -3.766230e-003 -2.691659e-002
<VARIANCE> 25
 3.752447e+001 4.012881e+001 4.387593e+001 6.529689e+001 4.753934e+001 4.677992e+001 6.155274e+001 4.906275e+001 4.394957e+001 4.385754e+001 3.829084e+001 3.055394e+001 1.021529e+000 1.635131e+000 1.572012e+000 2.078894e+000 2.014519e+000 2.378247e+000 2.469365e+000 2.428128e+000 2.195243e+000 2.275563e+000 1.946312e+000 1.774513e+000 1.794235e+000
<GCONST> 1.000606e+002
<STATE> 3
<MEAN> 25
 6.702739e-001 9.873394e-001 9.927861e-002 6.015379e-001 4.099291e-001 4.328894e-001 -2.775630e-001 -1.680261e-001 -9.372739e-002 -2.956388e-001 2.495227e-001 2.046145e-001 -2.724589e-002 1.115846e-002 -5.995861e-003 -3.409270e-004 1.243845e-002 -6.842174e-003 1.096541e-002 2.865130e-003 2.470760e-003 1.821982e-002 7.209665e-003 -4.169815e-003 -2.811668e-002
<VARIANCE> 25
 3.768656e+001 4.021700e+001 4.400581e+001 6.486960e+001 4.788090e+001 4.683943e+001 6.120412e+001 4.897385e+001 4.395154e+001 4.393351e+001 3.814180e+001 3.025573e+001 1.010802e+000 1.624703e+000 1.570884e+000 2.086780e+000 2.009968e+000 2.382339e+000 2.447437e+000 2.408576e+000 2.196617e+000 2.268035e+000 1.929824e+000 1.759079e+000 1.768127e+000
<GCONST> 9.998650e+001
<STATE> 4
<MEAN> 25
 5.614827e-001 9.847842e-001 3.526424e-002 5.343693e-001 3.890630e-001 3.226004e-001 -2.642280e-001 -2.353001e-001 -1.049111e-001 -2.343587e-001 3.353425e-001 1.351296e-001 -2.915092e-002 1.709136e-003 -1.235483e-002 2.398020e-003 1.424460e-002 -6.484651e-003 1.450654e-002 3.916464e-003 3.097896e-003 1.862061e-002 3.522322e-003 -4.429034e-003 -2.700086e-002
<VARIANCE> 25
 3.703300e+001 4.041124e+001 4.581664e+001 6.667277e+001 4.800457e+001 4.514259e+001 6.147908e+001 4.849976e+001 4.380179e+001 4.237768e+001 3.764067e+001 3.025757e+001 9.893034e-001 1.589741e+000 1.579407e+000 2.103753e+000 2.000240e+000 2.299215e+000 2.430360e+000 2.352205e+000 2.188142e+000 2.220715e+000 1.884183e+000 1.724714e+000 1.783944e+000
<GCONST> 9.978887e+001
<TRANSP> 5
 0.000000e+000 1.000000e+000 0.000000e+000 0.000000e+000 0.000000e+000
 0.000000e+000 7.771264e-001 2.228736e-001 0.000000e+000 0.000000e+000
 0.000000e+000 0.000000e+000 7.771259e-001 2.228741e-001 0.000000e+000
 0.000000e+000 0.000000e+000 0.000000e+000 9.096580e-001 9.034201e-002
 0.000000e+000 0.000000e+000 0.000000e+000 0.000000e+000 0.000000e+000
<ENDHMM>
~h "e"
<BEGINHMM>
<NUMSTATES> 5
<STATE> 2
<MEAN> 25
 -2.735765e-001 1.354050e-001 -1.994787e-001 9.997728e-002 4.308563e-001 8.659825e-002 -4.068828e-002 -3.850418e-001 -1.781589e-001 1.158628e-001 -1.289156e-003 1.047375e-001 1.180359e-002 -1.158654e-002 -6.361001e-003 -1.711791e-002 -3.733685e-003 1.844655e-003 1.167502e-002 3.414975e-003 -8.916632e-003 -8.549592e-003 -1.164730e-002 6.853726e-003 2.020494e-002
<VARIANCE> 25
 4.536285e+001 4.178690e+001 4.962259e+001 7.286134e+001 4.880844e+001 4.700286e+001 5.934926e+001 4.510585e+001 4.906679e+001 4.403376e+001 3.419687e+001 2.553842e+001 1.320182e+000 1.718205e+000 1.801093e+000 2.393125e+000 2.200284e+000 2.492006e+000 2.650624e+000 2.503313e+000 2.347956e+000 2.320212e+000 2.051447e+000 1.669970e+000 1.689512e+000
<GCONST> 1.010934e+002
<STATE> 3
<MEAN> 25
 -2.238951e-001 8.200996e-002 -2.235740e-001 2.838238e-002 4.093427e-001 8.743507e-002 9.171730e-003 -3.641553e-001 -2.126055e-001 7.877685e-002 -5.102069e-002 1.285291e-001 1.078453e-002 -1.291695e-002 -4.826237e-003 -1.511207e-002 -4.791159e-003 5.729930e-004 1.395319e-002 6.589863e-003 -7.009360e-003 -8.784258e-003 -1.111472e-002 6.351285e-003 2.076603e-002
<VARIANCE> 25
 4.641435e+001 4.216000e+001 5.000721e+001 7.299847e+001 4.942173e+001 4.699780e+001 5.905855e+001 4.528030e+001 4.919628e+001 4.455111e+001 3.428959e+001 2.557441e+001 1.353807e+000 1.720674e+000 1.822375e+000 2.385571e+000 2.222680e+000 2.480651e+000 2.650504e+000 2.528101e+000 2.362958e+000 2.341424e+000 2.055334e+000 1.672642e+000 1.703045e+000
<GCONST> 1.012420e+002
<STATE> 4
<MEAN> 25
 -9.794442e-002 -1.356264e-002 -2.484442e-001 -5.379226e-002 2.947786e-001 2.591103e-002 4.083442e-002 -3.003264e-001 -2.578059e-001 8.697002e-003 -1.177246e-001 1.264221e-001 1.084358e-002 -1.297301e-002 -2.713492e-003 -1.028073e-002 -6.325921e-003 -8.067670e-005 1.147715e-002 8.797632e-003 -1.628704e-003 -6.813108e-003 -9.497955e-003 2.808447e-003 2.007460e-002
<VARIANCE> 25
 4.802942e+001 4.168035e+001 4.980717e+001 7.351951e+001 4.948878e+001 4.548850e+001 6.008596e+001 4.559742e+001 4.882963e+001 4.416509e+001 3.429447e+001 2.549361e+001 1.358726e+000 1.655944e+000 1.791483e+000 2.346350e+000 2.197743e+000 2.384327e+000 2.624771e+000 2.532212e+000 2.337335e+000 2.305011e+000 2.032811e+000 1.649667e+000 1.724702e+000
<GCONST> 1.010754e+002
<TRANSP> 5
 0.000000e+000 1.000000e+000 0.000000e+000 0.000000e+000 0.000000e+000
 0.000000e+000 7.723927e-001 2.276074e-001 0.000000e+000 0.000000e+000
 0.000000e+000 0.000000e+000 7.723938e-001 2.276062e-001 0.000000e+000
 0.000000e+000 0.000000e+000 0.000000e+000 9.042851e-001 9.571488e-002
 0.000000e+000 0.000000e+000 0.000000e+000 0.000000e+000 0.000000e+000
<ENDHMM>
~h "f"
<BEGINHMM>
<NUMSTATES> 5
<STATE> 2
<MEAN> 25
 2.106777e-001 -1.751741e-001 -9.960868e-001 -1.231696e+000 -1.396369e+000 -5.791529e-001 6.939832e-001 2.883858e-001 2.395157e-001 5.878192e-002 8.203405e-001 -1.513155e-001 3.435015e-003 -3.922264e-002 2.400548e-002 -2.860039e-002 4.467781e-003 1.374346e-002 -1.005492e-002 -1.355456e-002 -3.470339e-003 1.113476e-002 8.107807e-003 4.901373e-004 5.491350e-002
<VARIANCE> 25
 5.059788e+001 3.848920e+001 6.857867e+001 1.090840e+002 6.522610e+001 4.513546e+001 6.868125e+001 5.206171e+001 4.543555e+001 3.768726e+001 2.885375e+001 2.483723e+001 1.969490e+000 1.406105e+000 1.770943e+000 2.816503e+000 2.854507e+000 2.265098e+000 3.200623e+000 2.699605e+000 2.187797e+000 1.916319e+000 1.884094e+000 1.501128e+000 1.725688e+000
<GCONST> 1.022981e+002
<STATE> 3
<MEAN> 25
 2.065054e-001 -3.451839e-001 -8.602639e-001 -1.357293e+000 -1.346383e+000 -5.044494e-001 6.481250e-001 2.371196e-001 2.480450e-001 1.267785e-001 8.451051e-001 -1.597635e-001 -5.562564e-003 -3.448116e-002 2.913540e-002 -1.501538e-002 1.774149e-002 1.321666e-002 -6.398145e-003 -9.058288e-003 2.798512e-003 1.226043e-002 4.523831e-003 -2.001377e-003 4.850706e-002
<VARIANCE> 25
 5.002749e+001 3.877492e+001 6.887461e+001 1.099307e+002 6.663150e+001 4.613395e+001 6.937874e+001 5.275136e+001 4.498198e+001 3.865126e+001 2.884330e+001 2.472048e+001 1.917829e+000 1.384317e+000 1.770777e+000 2.803393e+000 2.779583e+000 2.257496e+000 3.174578e+000 2.692228e+000 2.174416e+000 1.899893e+000 1.857588e+000 1.498042e+000 1.727432e+000
<GCONST> 1.022650e+002
<STATE> 4
<MEAN> 25
 -1.518414e-002 -5.211284e-001 -4.890757e-001 -1.472852e+000 -8.643718e-001 -2.290217e-001 3.410362e-001 -5.346275e-002 4.603738e-001 5.401538e-001 7.999840e-001 -3.308457e-001 -2.256217e-002 -1.899238e-002 3.257881e-002 1.073882e-002 3.248316e-002 1.073461e-002 3.069115e-003 3.386399e-003 1.577198e-002 1.570345e-002 -7.159637e-003 -2.947928e-003 2.144528e-002
<VARIANCE> 25
 5.035591e+001 4.027104e+001 7.090888e+001 1.157158e+002 6.710734e+001 4.595626e+001 7.175438e+001 5.053409e+001 4.482849e+001 3.887729e+001 2.955936e+001 2.494919e+001 1.909341e+000 1.405834e+000 1.797124e+000 2.913568e+000 2.678055e+000 2.197350e+000 3.222409e+000 2.593480e+000 2.187780e+000 1.874886e+000 1.852045e+000 1.505938e+000 1.785981e+000
<GCONST> 1.024261e+002
<TRANSP> 5
 0.000000e+000 1.000000e+000 0.000000e+000 0.000000e+000 0.000000e+000
 0.000000e+000 7.880270e-001 2.119729e-001 0.000000e+000 0.000000e+000
 0.000000e+000 0.000000e+000 7.880273e-001 2.119727e-001 0.000000e+000
 0.000000e+000 0.000000e+000 0.000000e+000 9.213200e-001 7.867990e-002
 0.000000e+000 0.000000e+000 0.000000e+000 0.000000e+000 0.000000e+000
<ENDHMM>
~h "g"
<BEGINHMM>
<NUMSTATES> 5
<STATE> 2
<MEAN> 25
 2.167211e-001 -2.535273e-001 6.734344e-001 1.572631e+000 1.766583e-001 -2.220989e-001 -3.789417e-002 1.875934e-001 -2.213922e-001 -3.301629e-001 3.242290e-001 -1.288779e-001 2.118988e-002 -4.511383e-003 -1.952237e-002 3.017402e-005 1.502398e-003 -1.089452e-003 -1.306919e-002 -7.303946e-003 -7.452778e-003 1.371051e-002 4.828901e-003 -1.669697e-003 -6.436601e-004
<VARIANCE> 25
 3.766822e+001 4.961924e+001 5.539190e+001 7.396436e+001 5.482902e+001 4.537756e+001 6.096956e+001 4.998973e+001 4.667472e+001 4.639822e+001 3.740150e+001 3.447682e+001 8.638046e-001 1.902660e+000 1.917877e+000 2.601741e+000 2.780816e+000 2.310936e+000 2.512645e+000 2.393158e+000 2.175762e+000 2.416476e+000 2.075411e+000 1.653951e+000 1.621979e+000
<GCONST> 1.016173e+002
<STATE> 3
<MEAN> 25
 3.174950e-001 -2.737006e-001 6.071458e-001 1.553806e+000 1.708761e-001 -2.516382e-001 -1.272212e-001 1.447150e-001 -2.722723e-001 -2.619833e-001 3.644416e-001 -1.381475e-001 2.041405e-002 -4.098740e-003 -1.122958e-002 -5.109412e-003 -1.036968e-003 -9.111569e-003 -2.060149e-002 -9.648863e-003 -1.259179e-002 1.322831e-002 8.315057e-003 -1.764088e-003 6.559518e-003
<VARIANCE> 25
 3.730743e+001 4.925023e+001 5.477640e+001 7.426984e+001 5.485316e+001 4.556313e+001 6.148229e+001 5.029254e+001 4.660402e+001 4.655069e+001 3.740561e+001 3.481031e+001 8.476599e-001 1.902462e+000 1.939000e+000 2.625732e+000 2.797543e+000 2.324653e+000 2.516258e+000 2.422486e+000 2.185083e+000 2.418968e+000 2.102859e+000 1.651910e+000 1.633041e+000
<GCONST> 1.016743e+002
<STATE> 4
<MEAN> 25
 5.882859e-001 -2.338136e-001 5.170321e-001 1.332299e+000 1.885742e-002 -4.346962e-001 -5.273451e-001 4.332636e-003 -5.173464e-001 -2.073177e-001 3.705213e-001 -1.740491e-001 2.556416e-002 -7.602671e-003 1.181081e-003 -2.137604e-002 -1.167753e-002 -1.888993e-002 -3.832567e-002 -1.566113e-002 -1.708587e-002 8.870729e-003 9.057003e-003 -1.641116e-003 2.980334e-002
<VARIANCE> 25
 3.604734e+001 4.680241e+001 5.323038e+001 7.370226e+001 5.353105e+001 4.492897e+001 6.414532e+001 5.157090e+001 4.605969e+001 4.572350e+001 3.697779e+001 3.396012e+001 8.202517e-001 1.840456e+000 1.956959e+000 2.606429e+000 2.771885e+000 2.278536e+000 2.536535e+000 2.471588e+000 2.164441e+000 2.417300e+000 2.131256e+000 1.613867e+000 1.770805e+000
<GCONST> 1.015114e+002
<TRANSP> 5
 0.000000e+000 1.000000e+000 0.000000e+000 0.000000e+000 0.000000e+000
 0.000000e+000 7.804402e-001 2.195598e-001 0.000000e+000 0.000000e+000
 0.000000e+000 0.000000e+000 7.804407e-001 2.195592e-001 0.000000e+000
 0.000000e+000 0.000000e+000 0.000000e+000 9.136325e-001 8.636752e-002
 0.000000e+000 0.000000e+000 0.000000e+000 0.000000e+000 0.000000e+000
<ENDHMM>
~h "h"
<BEGINHMM>
<NUMSTATES> 5
<STATE> 2
<MEAN> 25
 1.585476e-001 -8.536786e-001 -7.622784e-001 2.272777e-001 7.831996e-001 6.948105e-001 6.808887e-001 3.091408e-001 3.988055e-001 2.404175e-002 1.617010e-001 3.060109e-001 -1.338940e-002 1.323636e-002 1.544653e-002 1.329087e-002 5.984603e-003 5.573542e-003 -8.890301e-003 -2.371290e-002 -1.441900e-002 1.981520e-003 1.575258e-002 6.734441e-003 -2.069368e-003
<VARIANCE> 25
 3.826352e+001 4.742887e+001 4.140197e+001 7.522824e+001 5.215150e+001 4.139381e+001 5.485363e+001 4.846910e+001 4.837734e+001 4.173058e+001 3.526230e+001 2.836305e+001 9.852747e-001 1.642077e+000 1.526063e+000 2.441404e+000 1.966903e+000 2.157245e+000 2.544657e+000 2.281976e+000 2.277783e+000 2.227974e+000 1.997079e+000 1.744511e+000 1.822073e+000
<GCONST> 1.000487e+002
<STATE> 3
<MEAN> 25
 1.085724e-001 -7.862744e-001 -6.808940e-001 2.678711e-001 7.992775e-001 7.175688e-001 6.328234e-001 2.054949e-001 3.331849e-001 2.227214e-002 2.231411e-001 3.335636e-001 -9.282834e-003 1.423842e-002 2.197658e-002 8.523697e-003 3.292504e-003 5.019947e-003 -1.257855e-002 -2.496984e-002 -1.655244e-002 -2.760805e-003 1.174872e-002 5.280041e-003 5.918276e-003
<VARIANCE> 25
 3.853054e+001 4.721753e+001 4.224359e+001 7.547520e+001 5.169512e+001 4.121615e+001 5.546682e+001 4.824817e+001 4.805516e+001 4.181470e+001 3.525471e+001 2.794600e+001 9.918594e-001 1.655352e+000 1.538820e+000 2.426638e+000 1.958236e+000 2.157497e+000 2.554917e+000 2.295213e+000 2.269065e+000 2.231034e+000 2.005141e+000 1.728202e+000 1.835336e+000
<GCONST> 1.000703e+002
<STATE> 4
<MEAN> 25
 1.002225e-001 -6.572533e-001 -4.706275e-001 1.759558e-001 7.805060e-001 6.757696e-001 4.475841e-001 5.789267e-002 1.924756e-001 -4.479408e-002 1.929625e-001 3.632320e-001 -7.529872e-003 2.121302e-002 2.975099e-002 6.224571e-003 -6.148779e-003 4.297234e-003 -1.253497e-002 -2.394206e-002 -1.659041e-002 -5.005268e-003 9.782095e-003 1.920788e-003 7.423346e-003
<VARIANCE> 25
 3.869588e+001 4.671942e+001 4.499294e+001 7.855431e+001 5.194778e+001 3.969776e+001 5.695734e+001 4.856978e+001 4.693196e+001 4.122951e+001 3.555917e+001 2.761976e+001 9.871537e-001 1.639402e+000 1.545150e+000 2.444901e+000 1.958732e+000 2.111021e+000 2.576179e+000 2.320370e+000 2.235026e+000 2.181218e+000 1.980021e+000 1.692407e+000 1.851088e+000
<GCONST> 1.000587e+002
<TRANSP> 5
 0.000000e+000 1.000000e+000 0.000000e+000 0.000000e+000 0.000000e+000
 0.000000e+000 7.752244e-001 2.247756e-001 0.000000e+000 0.000000e+000
 0.000000e+000 0.000000e+000 7.752240e-001 2.247760e-001 0.000000e+000
 0.000000e+000 0.000000e+000 0.000000e+000 9.073039e-001 9.269610e-002
 0.000000e+000 0.000000e+000 0.000000e+000 0.000000e+000 0.000000e+000
<ENDHMM>
~h "i"
<BEGINHMM>
<NUMSTATES> 5
<STATE> 2
<MEAN> 25
 -4.579009e-001 -6.363785e-002 2.007118e+000 1.069605e+000 3.892412e-002 -4.118267e-001 -1.007731e+000 -7.646998e-001 -5.751413e-001 -3.101805e-001 -2.726002e-001 -7.334948e-001 9.820997e-003 4.933744e-004 -6.475389e-003 1.414141e-002 -2.206095e-003 1.327406e-003 -1.215169e-003 6.315731e-003 4.846880e-003 5.032883e-004 2.481011e-003 3.004787e-003 -8.715595e-003
<VARIANCE> 25
 3.940374e+001 4.580670e+001 7.480430e+001 8.753797e+001 5.854051e+001 5.511541e+001 6.443607e+001 4.878688e+001 5.012009e+001 4.386283e+001 3.801993e+001 2.985055e+001 1.127868e+000 1.657257e+000 2.093431e+000 2.722319e+000 2.362413e+000 2.589009e+000 2.818107e+000 2.484987e+000 2.382339e+000 2.301255e+000 1.992674e+000 1.675659e+000 1.771783e+000
<GCONST> 1.026965e+002
<STATE> 3
<MEAN> 25
 -4.194940e-001 -5.933703e-002 1.964365e+000 1.127110e+000 3.455354e-002 -3.944800e-001 -9.943091e-001 -7.274632e-001 -5.448858e-001 -2.974100e-001 -2.548968e-001 -7.125887e-001 9.360551e-003 -1.677904e-004 -1.125498e-002 1.132079e-002 -9.188596e-004 3.221639e-003 3.500470e-003 8.903334e-003 7.417856e-003 2.947379e-003 5.026878e-003 5.414953e-003 -1.042326e-002
<VARIANCE> 25
 3.909761e+001 4.566748e+001 7.414877e+001 8.730550e+001 5.832203e+001 5.495002e+001 6.421474e+001 4.863406e+001 5.033580e+001 4.372736e+001 3.800486e+001 3.003405e+001 1.109766e+000 1.651522e+000 2.073267e+000 2.709425e+000 2.358711e+000 2.580790e+000 2.803071e+000 2.475567e+000 2.388609e+000 2.297835e+000 1.989905e+000 1.679325e+000 1.750919e+000
<GCONST> 1.026100e+002
<STATE> 4
<MEAN> 25
 -3.251220e-001 -2.625317e-003 1.841934e+000 1.010788e+000 -9.441335e-002 -2.998164e-001 -8.752189e-001 -6.057055e-001 -4.183362e-001 -2.576022e-001 -2.517969e-001 -6.518463e-001 8.087473e-003 -1.260358e-003 -2.209970e-002 4.605665e-003 1.585756e-003 6.727412e-003 1.057565e-002 1.297813e-002 9.483242e-003 6.627665e-003 7.570000e-003 9.300685e-003 -1.510062e-002
<VARIANCE> 25
 3.846976e+001 4.558272e+001 7.398175e+001 8.769720e+001 5.827811e+001 5.150341e+001 6.344459e+001 4.870428e+001 5.073987e+001 4.252312e+001 3.823779e+001 3.067069e+001 1.087725e+000 1.611966e+000 2.045460e+000 2.689229e+000 2.356426e+000 2.472765e+000 2.791975e+000 2.450789e+000 2.388016e+000 2.256291e+000 1.984798e+000 1.685918e+000 1.833907e+000
<GCONST> 1.024313e+002
<TRANSP> 5
 0.000000e+000 1.000000e+000 0.000000e+000 0.000000e+000 0.000000e+000
 0.000000e+000 7.772661e-001 2.227339e-001 0.000000e+000 0.000000e+000
 0.000000e+000 0.000000e+000 7.772658e-001 2.227342e-001 0.000000e+000
 0.000000e+000 0.000000e+000 0.000000e+000 9.097668e-001 9.023320e-002
 0.000000e+000 0.000000e+000 0.000000e+000 0.000000e+000 0.000000e+000
<ENDHMM>
~h "j"
<BEGINHMM>
<NUMSTATES> 5
<STATE> 2
<MEAN> 25
 -1.647382e-001 -4.551877e-001 -3.113256e-001 9.483178e-001 -2.698330e-001 -5.622351e-001 5.714254e-001 1.227260e+000 2.064191e-001 -6.059451e-001 -3.186314e-001 6.823497e-001 2.036746e-004 -2.082576e-003 5.560241e-003 -1.994233e-002 -1.508320e-002 -9.241818e-003 -4.051092e-003 1.665300e-002 5.742471e-003 -2.716289e-003 1.389989e-002 1.398643e-002 2.908719e-002
<VARIANCE> 25
 3.797422e+001 4.239693e+001 3.942134e+001 7.343826e+001 5.112208e+001 4.464040e+001 4.997778e+001 4.185701e+001 4.972338e+001 3.640487e+001 3.055163e+001 2.702892e+001 1.518993e+000 1.855003e+000 1.501396e+000 2.341563e+000 2.581216e+000 2.462299e+000 2.888290e+000 2.322730e+000 2.499587e+000 1.976621e+000 1.937772e+000 1.744785e+000 2.248503e+000
<GCONST> 1.005697e+002
<STATE> 3
<MEAN> 25
 -1.595864e-001 -4.682537e-001 -2.913000e-001 8.630726e-001 -3.230495e-001 -5.951760e-001 5.616366e-001 1.304519e+000 2.414593e-001 -6.129576e-001 -2.656028e-001 7.441518e-001 6.168784e-004 -2.958765e-003 8.027964e-003 -1.612945e-002 -1.129039e-002 -5.211391e-003 -5.183678e-003 1.618515e-002 8.551632e-003 -2.169571e-003 1.259378e-002 1.141207e-002 2.691912e-002
<VARIANCE> 25
 3.843544e+001 4.254015e+001 3.961647e+001 7.274788e+001 4.963152e+001 4.504387e+001 5.063441e+001 4.198531e+001 5.001020e+001 3.660363e+001 3.059371e+001 2.704980e+001 1.550038e+000 1.865221e+000 1.520293e+000 2.299599e+000 2.571162e+000 2.459554e+000 2.897157e+000 2.322908e+000 2.496312e+000 1.997624e+000 1.939699e+000 1.741034e+000 2.242274e+000
<GCONST> 1.006131e+002
<STATE> 4
<MEAN> 25
 -1.903044e-001 -5.310367e-001 -4.031022e-001 9.531993e-001 -2.107822e-001 -5.916932e-001 6.652965e-001 1.550803e+000 2.691714e-001 -6.658649e-001 -2.063337e-001 9.945716e-001 1.679324e-003 -4.748843e-003 7.602772e-003 -8.753058e-003 -9.358819e-004 3.917086e-003 -4.915044e-003 1.379489e-002 1.101211e-002 1.459177e-003 6.294460e-003 8.026205e-003 1.673077e-002
<VARIANCE> 25
 3.745683e+001 4.169655e+001 3.872256e+001 6.994551e+001 4.716705e+001 4.472269e+001 5.062237e+001 4.222975e+001 4.813018e+001 3.607269e+001 3.028152e+001 2.753700e+001 1.543955e+000 1.750184e+000 1.475418e+000 2.126778e+000 2.515223e+000 2.350704e+000 2.781630e+000 2.279449e+000 2.390934e+000 1.987522e+000 1.920323e+000 1.691517e+000 2.053292e+000
<GCONST> 9.992968e+001
<TRANSP> 5
 0.000000e+000 1.000000e+000 0.000000e+000 0.000000e+000 0.000000e+000
 0.000000e+000 7.795718e-001 2.204281e-001 0.000000e+000 0.000000e+000
 0.000000e+000 0.000000e+000 7.795721e-001 2.204279e-001 0.000000e+000
 0.000000e+000 0.000000e+000 0.000000e+000 9.116745e-001 8.832552e-002
 0.000000e+000 0.000000e+000 0.000000e+000 0.000000e+000 0.000000e+000
<ENDHMM>
~h "k"
<BEGINHMM>
<NUMSTATES> 5
<STATE> 2
<MEAN> 25
 -6.328396e-002 -1.209676e-001 -1.404370e-001 -6.341427e-001 -2.027490e-002 4.605329e-001 2.501086e-001 -6.781937e-002 3.968975e-001 4.302620e-001 3.691805e-001 -8.728383e-002 6.324193e-003 -1.892713e-003 -5.762130e-003 7.897421e-003 -1.284714e-002 -5.010763e-003 4.134967e-003 -1.025859e-003 -1.265553e-002 -1.224513e-002 -3.913987e-003 -2.241633e-005 -9.155334e-003
<VARIANCE> 25
 3.934478e+001 4.964809e+001 6.123058e+001 8.114246e+001 5.666767e+001 5.249479e+001 5.078931e+001 4.205462e+001 5.463645e+001 4.295356e+001 3.193821e+001 2.782924e+001 1.214687e+000 1.841926e+000 2.052314e+000 2.685251e+000 2.506578e+000 2.638603e+000 2.701813e+000 2.500992e+000 2.770635e+000 2.364571e+000 1.963091e+000 1.701971e+000 2.260593e+000
<GCONST> 1.024638e+002
<STATE> 3
<MEAN> 25
 -2.827629e-002 -1.321754e-001 -1.819898e-001 -5.962863e-001 -7.632625e-002 4.278781e-001 2.703152e-001 -7.069099e-002 3.262695e-001 3.783587e-001 3.575936e-001 -7.920922e-002 9.216376e-003 -2.588122e-003 -8.772192e-003 8.094861e-003 -1.384154e-002 -8.967291e-003 4.072928e-003 -9.697612e-004 -1.617184e-002 -1.331789e-002 -3.304749e-003 1.586164e-003 -7.133783e-003
<VARIANCE> 25
 3.928910e+001 4.989610e+001 6.113098e+001 8.128645e+001 5.632251e+001 5.273650e+001 5.046315e+001 4.179529e+001 5.467416e+001 4.299411e+001 3.216189e+001 2.786911e+001 1.225502e+000 1.861193e+000 2.046911e+000 2.683692e+000 2.507203e+000 2.650379e+000 2.702468e+000 2.496344e+000 2.769776e+000 2.377401e+000 1.973684e+000 1.709175e+000 2.269279e+000
<GCONST> 1.025011e+002
<STATE> 4
<MEAN> 25
 9.517995e-002 -1.568203e-001 -3.076652e-001 -5.303184e-001 -1.468122e-001 3.000643e-001 3.160010e-001 -8.721033e-002 2.086179e-001 3.045574e-001 3.086020e-001 -6.178059e-002 1.413484e-002 -3.558588e-003 -1.490916e-002 6.765123e-003 -1.244965e-002 -8.620427e-003 3.803254e-003 -7.415879e-004 -1.479879e-002 -1.117274e-002 -2.413313e-003 1.584225e-003 -4.448497e-003
<VARIANCE> 25
 3.879404e+001 5.059139e+001 6.229895e+001 8.518017e+001 5.597612e+001 5.059475e+001 5.050500e+001 4.179282e+001 5.433422e+001 4.245779e+001 3.351839e+001 2.889938e+001 1.233480e+000 1.853244e+000 2.045820e+000 2.741935e+000 2.493464e+000 2.587600e+000 2.733797e+000 2.506250e+000 2.732626e+000 2.370353e+000 2.016906e+000 1.748309e+000 2.406848e+000
<GCONST> 1.026758e+002
<TRANSP> 5
 0.000000e+000 1.000000e+000 0.000000e+000 0.000000e+000 0.000000e+000
 0.000000e+000 7.750932e-001 2.249068e-001 0.000000e+000 0.000000e+000
 0.000000e+000 0.000000e+000 7.750933e-001 2.249068e-001 0.000000e+000
 0.000000e+000 0.000000e+000 0.000000e+000 9.073881e-001 9.261186e-002
 0.000000e+000 0.000000e+000 0.000000e+000 0.000000e+000 0.000000e+000
<ENDHMM>
~h "l"
<BEGINHMM>
<NUMSTATES> 5
<STATE> 2
<MEAN> 25
 1.016764e+000 -1.955128e-002 -5.946887e-002 -7.277842e-001 -5.600500e-001 -8.330755e-001 -1.294823e+000 -9.223130e-002 -8.830208e-002 -4.452380e-001 -7.287439e-001 4.056477e-003 3.361321e-003 7.169154e-003 5.258872e-003 8.721356e-004 -2.292179e-003 3.770154e-003 -1.444035e-002 -2.110272e-004 4.721163e-003 3.771455e-003 8.647264e-003 -5.709285e-003 -1.213173e-003
<VARIANCE> 25
 4.118537e+001 4.136296e+001 4.856351e+001 7.734624e+001 5.026221e+001 5.024230e+001 6.797491e+001 4.973266e+001 5.179353e+001 4.930701e+001 4.063246e+001 2.713095e+001 9.868356e-001 1.522752e+000 1.556009e+000 2.445062e+000 2.120566e+000 2.362421e+000 2.716089e+000 2.446126e+000 2.222173e+000 2.322656e+000 2.083809e+000 1.644590e+000 1.658808e+000
<GCONST> 1.010566e+002
<STATE> 3
<MEAN> 25
 1.014019e+000 1.889649e-002 -2.699307e-002 -7.221567e-001 -5.664219e-001 -8.038815e-001 -1.346115e+000 -8.826616e-002 -6.120777e-002 -4.268119e-001 -6.910372e-001 -1.871942e-002 -3.445896e-003 1.006665e-002 5.956190e-003 3.286456e-003 -6.489970e-004 9.437199e-003 -9.787692e-003 6.506075e-004 6.165911e-003 4.728213e-003 1.036640e-002 -4.109405e-003 -8.465262e-003
<VARIANCE> 25
 4.110115e+001 4.094668e+001 4.858799e+001 7.688087e+001 4.951704e+001 5.021400e+001 6.823193e+001 4.945494e+001 5.180410e+001 4.922501e+001 4.072754e+001 2.711726e+001 9.747044e-001 1.504984e+000 1.555683e+000 2.429470e+000 2.100363e+000 2.345667e+000 2.709620e+000 2.441159e+000 2.223915e+000 2.307727e+000 2.072993e+000 1.650522e+000 1.651426e+000
<GCONST> 1.009584e+002
<STATE> 4
<MEAN> 25
 9.722468e-001 7.997247e-002 1.223548e-001 -7.361468e-001 -5.712078e-001 -6.678311e-001 -1.460409e+000 -9.822538e-002 -2.507715e-002 -3.307671e-001 -5.491956e-001 -8.712637e-002 -1.280252e-002 1.190992e-002 7.633465e-003 7.398401e-003 2.804524e-003 1.489176e-002 -8.714903e-004 -9.008682e-004 2.906879e-003 5.547579e-003 1.471318e-002 -8.717227e-004 -1.497536e-002
<VARIANCE> 25
 4.076947e+001 3.943122e+001 4.940169e+001 7.739082e+001 4.739508e+001 4.762733e+001 7.045480e+001 4.814341e+001 5.075319e+001 4.721075e+001 4.047097e+001 2.670186e+001 9.509233e-001 1.439015e+000 1.544911e+000 2.394290e+000 2.044088e+000 2.217473e+000 2.661561e+000 2.409685e+000 2.192281e+000 2.248453e+000 2.033856e+000 1.624999e+000 1.648109e+000
<GCONST> 1.004779e+002
<TRANSP> 5
 0.000000e+000 1.000000e+000 0.000000e+000 0.000000e+000 0.000000e+000
 0.000000e+000 7.767730e-001 2.232269e-001 0.000000e+000 0.000000e+000
 0.000000e+000 0.000000e+000 7.767717e-001 2.232284e-001 0.000000e+000
 0.000000e+000 0.000000e+000 0.000000e+000 9.090171e-001 9.098287e-002
 0.000000e+000 0.000000e+000 0.000000e+000 0.000000e+000 0.000000e+000
<ENDHMM>
~h "m"
<BEGINHMM>
<NUMSTATES> 5
<STATE> 2
<MEAN> 25
 7.239889e-001 -1.975460e-001 -2.743753e-001 1.329637e-001 5.962367e-002 2.470138e-001 2.576086e-002 -1.644371e-001 1.120413e-001 5.586616e-002 -2.492230e-001 -3.137992e-001 7.652568e-003 -8.872915e-003 -8.435985e-003 -2.922606e-003 -4.975243e-003 3.832782e-003 5.165981e-003 5.085002e-003 5.955783e-003 8.052845e-004 -2.582762e-003 -4.540049e-003 3.439086e-003
<VARIANCE> 25
 3.525478e+001 4.581374e+001 4.922194e+001 8.043330e+001 5.312223e+001 4.324052e+001 5.396419e+001 5.333092e+001 4.990506e+001 4.105875e+001 3.703943e+001 2.880194e+001 8.819433e-001 1.618756e+000 1.725960e+000 2.479398e+000 2.314624e+000 2.268008e+000 2.472024e+000 2.732330e+000 2.402542e+000 2.231956e+000 2.196906e+000 1.739099e+000 1.821443e+000
<GCONST> 1.009173e+002
<STATE> 3
<MEAN> 25
 7.492489e-001 -2.287912e-001 -3.019828e-001 1.162313e-001 4.227743e-002 2.680802e-001 4.096527e-002 -1.384013e-001 1.408875e-001 6.759801e-002 -2.577915e-001 -3.427370e-001 5.452249e-003 -7.922648e-003 -5.608378e-003 -1.843865e-003 -3.843246e-003 3.938792e-003 3.889571e-003 6.345939e-003 6.725432e-003 1.424242e-003 -2.577720e-003 -6.007858e-003 2.795619e-003
<VARIANCE> 25
 3.554405e+001 4.547327e+001 4.911323e+001 7.993107e+001 5.347770e+001 4.358878e+001 5.397134e+001 5.382776e+001 5.003528e+001 4.125538e+001 3.692654e+001 2.877983e+001 8.876247e-001 1.620434e+000 1.720892e+000 2.483998e+000 2.317948e+000 2.276789e+000 2.482118e+000 2.739023e+000 2.397897e+000 2.221097e+000 2.197441e+000 1.736844e+000 1.833669e+000
<GCONST> 1.009542e+002
<STATE> 4
<MEAN> 25
 7.733329e-001 -3.388081e-001 -2.513293e-001 -8.765438e-004 -5.170966e-003 3.055240e-001 -5.877313e-003 -1.209262e-001 1.893063e-001 9.944985e-002 -2.982391e-001 -4.140382e-001 2.986954e-003 -7.049101e-003 -3.035561e-003 -1.469093e-003 -2.571417e-003 2.821047e-003 -7.983302e-004 8.808115e-003 8.475842e-003 3.017432e-003 -1.833673e-003 -4.530830e-003 3.145664e-003
<VARIANCE> 25
 3.543073e+001 4.479623e+001 4.945870e+001 7.958202e+001 5.443458e+001 4.246002e+001 5.569143e+001 5.493965e+001 5.007653e+001 4.062448e+001 3.678027e+001 2.857838e+001 8.894361e-001 1.590149e+000 1.699378e+000 2.496475e+000 2.298627e+000 2.243806e+000 2.512820e+000 2.748690e+000 2.391627e+000 2.173799e+000 2.191078e+000 1.726450e+000 1.898106e+000
<GCONST> 1.009263e+002
<TRANSP> 5
 0.000000e+000 1.000000e+000 0.000000e+000 0.000000e+000 0.000000e+000
 0.000000e+000 7.760072e-001 2.239927e-001 0.000000e+000 0.000000e+000
 0.000000e+000 0.000000e+000 7.760067e-001 2.239933e-001 0.000000e+000
 0.000000e+000 0.000000e+000 0.000000e+000 9.083441e-001 9.165588e-002
 0.000000e+000 0.000000e+000 0.000000e+000 0.000000e+000 0.000000e+000
<ENDHMM>
~h "n"
<BEGINHMM>
<NUMSTATES> 5
<STATE> 2
<MEAN> 25
 1.189995e-001 -3.537424e-001 3.682103e-001 4.978548e-002 2.585025e-001 2.682055e-001 4.109901e-001 1.124672e-004 -1.997638e-001 -1.762695e-001 -2.838229e-001 -4.792229e-001 -4.483089e-003 4.688716e-003 6.360203e-003 1.215923e-002 6.690689e-003 1.006061e-002 4.055805e-003 7.591893e-003 1.018678e-002 6.268526e-003 -1.214919e-003 -1.019861e-002 -9.596344e-003
<VARIANCE> 25
 4.812170e+001 5.054268e+001 6.403899e+001 7.244787e+001 5.414020e+001 4.583868e+001 5.478210e+001 4.509990e+001 4.657082e+001 3.854589e+001 3.758697e+001 2.664982e+001 1.361132e+000 1.873314e+000 2.087684e+000 2.540711e+000 2.344555e+000 2.378862e+000 2.539366e+000 2.656223e+000 2.365508e+000 2.192917e+000 2.072250e+000 1.696082e+000 1.650528e+000
<GCONST> 1.018534e+002
<STATE> 3
<MEAN> 25
 8.513063e-002 -3.246825e-001 4.046055e-001 1.020847e-001 2.858253e-001 2.993801e-001 4.179867e-001 2.891195e-002 -1.642492e-001 -1.501607e-001 -2.903198e-001 -5.168477e-001 -8.138161e-003 7.725809e-003 5.854000e-003 1.232084e-002 5.578571e-003 7.034074e-003 2.318072e-003 6.145779e-003 7.662266e-003 5.315576e-003 -1.411006e-003 -6.799824e-003 -1.395003e-002
<VARIANCE> 25
 4.780175e+001 5.034705e+001 6.368002e+001 7.241529e+001 5.382688e+001 4.582724e+001 5.486798e+001 4.519233e+001 4.629127e+001 3.851219e+001 3.769678e+001 2.648294e+001 1.340061e+000 1.851797e+000 2.066129e+000 2.525833e+000 2.343074e+000 2.369539e+000 2.526200e+000 2.643975e+000 2.341489e+000 2.173791e+000 2.058823e+000 1.681774e+000 1.623358e+000
<GCONST> 1.017158e+002
<STATE> 4
<MEAN> 25
 -1.803952e-002 -2.629968e-001 4.813621e-001 1.954553e-001 3.250122e-001 2.835660e-001 3.312750e-001 2.015241e-002 -1.486511e-001 -1.539708e-001 -3.450569e-001 -5.454221e-001 -1.701170e-002 1.017057e-002 1.054924e-002 9.926521e-003 1.416142e-003 1.745386e-003 -1.154549e-003 3.855641e-003 4.467158e-003 3.944335e-003 -9.830472e-004 -1.164431e-003 -2.006412e-002
<VARIANCE> 25
 4.696818e+001 4.851136e+001 6.115394e+001 7.286448e+001 5.158341e+001 4.458889e+001 5.566599e+001 4.526842e+001 4.555767e+001 3.792426e+001 3.809458e+001 2.579538e+001 1.290512e+000 1.749721e+000 1.949599e+000 2.471656e+000 2.290224e+000 2.278052e+000 2.504623e+000 2.578366e+000 2.267967e+000 2.111178e+000 2.030813e+000 1.617191e+000 1.594271e+000
<GCONST> 1.011236e+002
<TRANSP> 5
 0.000000e+000 1.000000e+000 0.000000e+000 0.000000e+000 0.000000e+000
 0.000000e+000 7.716115e-001 2.283885e-001 0.000000e+000 0.000000e+000
 0.000000e+000 0.000000e+000 7.716114e-001 2.283886e-001 0.000000e+000
 0.000000e+000 0.000000e+000 0.000000e+000 9.030992e-001 9.690083e-002
 0.000000e+000 0.000000e+000 0.000000e+000 0.000000e+000 0.000000e+000
<ENDHMM>
~h "o"
<BEGINHMM>
<NUMSTATES> 5
<STATE> 2
<MEAN> 25
 4.284091e-001 3.222742e-001 1.027821e-001 -6.922511e-001 -3.279416e-001 -1.310959e-001 -4.926994e-001 -3.132396e-001 2.805170e-001 4.073566e-001 8.486399e-001 -4.986761e-001 -2.288187e-002 4.499801e-003 -5.705920e-003 1.036409e-003 1.204704e-002 -1.264268e-002 -5.744419e-003 -8.438171e-003 -5.690435e-003 9.274720e-003 3.095161e-004 -5.271825e-004 -1.320327e-002
<VARIANCE> 25
 4.177373e+001 3.989901e+001 4.321249e+001 8.311621e+001 6.061768e+001 5.908353e+001 5.691273e+001 4.764936e+001 5.527708e+001 3.920293e+001 3.448468e+001 2.665374e+001 1.061044e+000 1.691728e+000 1.657188e+000 2.685857e+000 2.506078e+000 2.574011e+000 2.508227e+000 2.423131e+000 2.669309e+000 2.087507e+000 1.892030e+000 1.636328e+000 1.804089e+000
<GCONST> 1.013303e+002
<STATE> 3
<MEAN> 25
 3.334311e-001 3.351938e-001 7.942331e-002 -6.833969e-001 -2.819413e-001 -1.946826e-001 -5.224641e-001 -3.517956e-001 2.487784e-001 4.343488e-001 8.384956e-001 -5.001901e-001 -2.188583e-002 3.171353e-003 -2.785736e-003 5.376714e-004 7.452673e-003 -1.365969e-002 -5.887692e-003 -8.327870e-003 -6.076137e-003 4.021292e-003 -4.866106e-003 4.230670e-004 -1.052666e-002
<VARIANCE> 25
 4.221887e+001 3.954475e+001 4.311518e+001 8.372823e+001 6.139616e+001 5.868845e+001 5.623354e+001 4.727518e+001 5.527755e+001 3.870831e+001 3.397564e+001 2.665301e+001 1.069812e+000 1.689466e+000 1.656512e+000 2.683146e+000 2.532218e+000 2.578050e+000 2.490647e+000 2.416212e+000 2.656953e+000 2.086012e+000 1.889608e+000 1.632893e+000 1.802229e+000
<GCONST> 1.012934e+002
<STATE> 4
<MEAN> 25
 2.527577e-001 3.000873e-001 4.099939e-003 -7.580785e-001 -1.785777e-001 -1.872075e-001 -5.832387e-001 -4.326102e-001 1.342158e-001 4.707210e-001 8.236607e-001 -5.074852e-001 -1.900329e-002 -3.306043e-004 -1.989874e-004 4.075914e-003 5.152439e-003 -7.564575e-003 -3.216540e-004 -6.449156e-003 -7.826683e-003 -2.512756e-003 -1.024220e-002 1.703159e-003 -6.687887e-003
<VARIANCE> 25
 4.247227e+001 3.871682e+001 4.376877e+001 8.673322e+001 6.062791e+001 5.592115e+001 5.736929e+001 4.628642e+001 5.364710e+001 3.700080e+001 3.312542e+001 2.649792e+001 1.084371e+000 1.633766e+000 1.669104e+000 2.719885e+000 2.500906e+000 2.502666e+000 2.506501e+000 2.407059e+000 2.579347e+000 2.077846e+000 1.903423e+000 1.613778e+000 1.844272e+000
<GCONST> 1.011068e+002
<TRANSP> 5
 0.000000e+000 1.000000e+000 0.000000e+000 0.000000e+000 0.000000e+000
 0.000000e+000 7.742127e-001 2.257874e-001 0.000000e+000 0.000000e+000
 0.000000e+000 0.000000e+000 7.742116e-001 2.257884e-001 0.000000e+000
 0.000000e+000 0.000000e+000 0.000000e+000 9.055517e-001 9.444829e-002
 0.000000e+000 0.000000e+000 0.000000e+000 0.000000e+000 0.000000e+000
<ENDHMM>
~h "p"
<BEGINHMM>
<NUMSTATES> 5
<STATE> 2
<MEAN> 25
 -3.515109e-001 8.639773e-002 -3.307381e-001 -5.532644e-001 -3.799201e-001 9.810694e-002 4.089846e-001 2.387661e-001 5.374767e-001 4.061610e-001 4.587925e-001 7.115859e-002 -1.354736e-002 3.225395e-003 -2.356302e-004 -1.310454e-002 3.003586e-003 2.534232e-003 1.639079e-002 -1.384610e-002 2.145099e-002 -1.551873e-002 6.732437e-003 7.017425e-003 3.990331e-002
<VARIANCE> 25
 4.388088e+001 4.141618e+001 4.879171e+001 6.287227e+001 5.007135e+001 5.207775e+001 5.440417e+001 4.070533e+001 5.436027e+001 3.982849e+001 3.159520e+001 2.303975e+001 1.308952e+000 1.792259e+000 1.762416e+000 2.439677e+000 2.175433e+000 2.381181e+000 2.445304e+000 2.227726e+000 2.571975e+000 2.126374e+000 1.846235e+000 1.532954e+000 2.555459e+000
<GCONST> 1.006491e+002
<STATE> 3
<MEAN> 25
 -4.073142e-001 1.177142e-001 -3.419294e-001 -6.097543e-001 -3.706293e-001 1.128781e-001 4.669549e-001 1.918916e-001 5.767887e-001 3.527233e-001 4.676258e-001 1.117750e-001 -1.162950e-002 7.559950e-003 9.496654e-004 -1.125455e-002 2.833920e-003 4.675016e-003 1.359905e-002 -1.129769e-002 8.317303e-003 -1.036543e-002 1.113707e-003 9.475779e-003 1.322077e-002
<VARIANCE> 25
 4.402053e+001 4.083741e+001 4.885384e+001 6.317385e+001 5.011323e+001 5.160713e+001 5.381706e+001 4.084853e+001 5.427233e+001 3.938893e+001 3.104523e+001 2.309649e+001 1.337227e+000 1.782526e+000 1.744792e+000 2.466725e+000 2.148154e+000 2.374263e+000 2.459074e+000 2.245023e+000 2.555150e+000 2.132645e+000 1.835876e+000 1.531188e+000 2.033831e+000
<GCONST> 1.003769e+002
<STATE> 4
<MEAN> 25
 -5.976019e-001 1.978578e-001 -3.420294e-001 -7.173480e-001 -3.315336e-001 1.415399e-001 6.602355e-001 1.309484e-001 5.436802e-001 2.900389e-001 5.051420e-001 1.959708e-001 -1.342652e-002 7.493046e-003 1.929299e-003 -1.542733e-002 4.889111e-003 1.608873e-003 9.503804e-003 -1.518682e-002 -7.090850e-003 -5.029989e-003 -1.983578e-003 6.537874e-003 1.256960e-002
<VARIANCE> 25
 4.634326e+001 3.973241e+001 4.869400e+001 6.566810e+001 5.014510e+001 4.927409e+001 5.329318e+001 4.066372e+001 5.371284e+001 3.793466e+001 3.069341e+001 2.357084e+001 1.456341e+000 1.751477e+000 1.746838e+000 2.515689e+000 2.114439e+000 2.322435e+000 2.504123e+000 2.275376e+000 2.515834e+000 2.118271e+000 1.832716e+000 1.536940e+000 1.874342e+000
<GCONST> 1.003177e+002
<TRANSP> 5
 0.000000e+000 1.000000e+000 0.000000e+000 0.000000e+000 0.000000e+000
 0.000000e+000 7.704428e-001 2.295572e-001 0.000000e+000 0.000000e+000
 0.000000e+000 0.000000e+000 7.704428e-001 2.295572e-001 0.000000e+000
 0.000000e+000 0.000000e+000 0.000000e+000 9.016352e-001 9.836484e-002
 0.000000e+000 0.000000e+000 0.000000e+000 0.000000e+000 0.000000e+000
<ENDHMM>
~h "r"
<BEGINHMM>
<NUMSTATES> 5
<STATE> 2
<MEAN> 25
 8.231555e-001 -1.339346e-001 -3.387854e-001 -6.793094e-001 -4.693514e-001 -3.479365e-001 -4.100015e-001 -7.420382e-002 -3.004698e-001 -2.401507e-001 1.883503e-001 1.695204e-001 -1.078659e-002 1.380124e-002 4.006597e-003 1.068134e-002 -1.203431e-003 4.507753e-003 -1.484687e-003 -2.029553e-003 3.798094e-004 -5.336642e-003 -1.566814e-002 2.124168e-003 -1.664253e-002
<VARIANCE> 25
 4.125526e+001 4.623333e+001 5.367269e+001 7.986671e+001 5.152076e+001 5.072009e+001 5.874618e+001 4.232694e+001 5.241516e+001 4.199699e+001 3.762763e+001 2.766117e+001 1.132597e+000 1.855308e+000 1.802669e+000 2.469195e+000 2.375391e+000 2.383902e+000 2.666575e+000 2.372823e+000 2.508024e+000 2.162807e+000 2.046811e+000 1.722912e+000 1.935492e+000
<GCONST> 1.016213e+002
<STATE> 3
<MEAN> 25
 7.728621e-001 -7.625421e-002 -3.230354e-001 -6.162058e-001 -4.731528e-001 -3.237486e-001 -4.066987e-001 -7.870046e-002 -2.921171e-001 -2.641407e-001 1.200737e-001 1.775397e-001 -1.247210e-002 1.269933e-002 4.300007e-003 1.256538e-002 -1.820893e-003 6.091892e-003 1.347981e-003 -6.934383e-004 3.719115e-003 -4.251997e-003 -1.500951e-002 2.228561e-003 -1.907594e-002
<VARIANCE> 25
 4.121777e+001 4.599166e+001 5.293507e+001 7.910438e+001 5.141573e+001 5.075977e+001 5.830290e+001 4.221218e+001 5.232924e+001 4.177154e+001 3.746187e+001 2.774907e+001 1.122965e+000 1.843818e+000 1.796914e+000 2.451217e+000 2.370341e+000 2.373383e+000 2.655598e+000 2.376925e+000 2.507057e+000 2.166688e+000 2.042591e+000 1.727960e+000 1.923749e+000
<GCONST> 1.015338e+002
<STATE> 4
<MEAN> 25
 7.146633e-001 3.187384e-003 -3.017476e-001 -5.125257e-001 -4.695216e-001 -2.747097e-001 -4.003203e-001 -5.163912e-002 -2.256996e-001 -2.489554e-001 2.271218e-002 1.434380e-001 -1.358467e-002 8.446773e-003 5.333669e-003 1.590532e-002 -9.400756e-004 8.654782e-003 5.986601e-003 2.365623e-003 9.100528e-003 -3.684686e-003 -1.233094e-002 1.873486e-003 -1.994734e-002
<VARIANCE> 25
 4.022358e+001 4.478119e+001 5.138623e+001 7.899978e+001 5.028083e+001 4.837671e+001 5.886497e+001 4.225703e+001 5.146064e+001 4.049549e+001 3.720194e+001 2.750460e+001 1.078457e+000 1.752886e+000 1.759359e+000 2.428433e+000 2.316560e+000 2.276034e+000 2.633811e+000 2.381674e+000 2.463820e+000 2.137475e+000 2.028587e+000 1.712286e+000 1.938336e+000
<GCONST> 1.010964e+002
<TRANSP> 5
 0.000000e+000 1.000000e+000 0.000000e+000 0.000000e+000 0.000000e+000
 0.000000e+000 7.752381e-001 2.247619e-001 0.000000e+000 0.000000e+000
 0.000000e+000 0.000000e+000 7.752392e-001 2.247609e-001 0.000000e+000
 0.000000e+000 0.000000e+000 0.000000e+000 9.071028e-001 9.289724e-002
 0.000000e+000 0.000000e+000 0.000000e+000 0.000000e+000 0.000000e+000
<ENDHMM>
~h "s"
<BEGINHMM>
<NUMSTATES> 5
<STATE> 2
<MEAN> 25
 -1.951843e+000 -4.953391e-002 1.621541e+000 5.242189e-002 3.048792e-001 -1.197677e-001 5.985767e-001 -4.212556e-001 -4.914344e-001 -1.540710e-001 1.315415e-001 -1.593292e-001 3.433850e-003 -1.913515e-003 1.439386e-002 1.289563e-002 5.486957e-003 -4.977973e-003 -2.496835e-003 -9.902633e-003 2.721625e-003 -1.831989e-002 -2.386475e-003 -8.219634e-003 2.820667e-002
<VARIANCE> 25
 6.240745e+001 5.123021e+001 7.765528e+001 8.256758e+001 5.307273e+001 4.864531e+001 6.170342e+001 4.485596e+001 5.288746e+001 4.543106e+001 3.874583e+001 2.590725e+001 2.059190e+000 1.916509e+000 2.448618e+000 2.678575e+000 2.366007e+000 2.451745e+000 2.849373e+000 2.569425e+000 2.438487e+000 2.384582e+000 1.958935e+000 1.659631e+000 2.188527e+000
<GCONST> 1.039858e+002
<STATE> 3
<MEAN> 25
 -1.907983e+000 -6.167338e-002 1.665558e+000 1.175400e-001 3.116363e-001 -1.275974e-001 5.736818e-001 -4.504705e-001 -4.975104e-001 -2.233892e-001 8.946176e-002 -1.924922e-001 9.952982e-003 -4.048335e-003 1.053384e-002 1.300212e-002 -6.462916e-005 -1.607143e-003 -4.905467e-003 -4.893417e-003 -2.013805e-003 -1.424203e-002 -1.020707e-002 -7.415606e-003 1.004148e-002
<VARIANCE> 25
 6.256326e+001 5.101087e+001 7.827757e+001 8.271518e+001 5.304333e+001 4.846415e+001 6.161412e+001 4.468944e+001 5.253617e+001 4.515595e+001 3.871789e+001 2.629561e+001 2.052418e+000 1.859753e+000 2.437487e+000 2.598406e+000 2.350882e+000 2.427235e+000 2.833693e+000 2.563374e+000 2.398874e+000 2.377997e+000 1.940628e+000 1.659261e+000 1.759381e+000
<GCONST> 1.036461e+002
<STATE> 4
<MEAN> 25
 -1.759726e+000 -4.165640e-002 1.562410e+000 2.176384e-001 3.253768e-001 -1.798805e-001 5.466865e-001 -5.142462e-001 -4.347562e-001 -3.438386e-001 -1.089590e-001 -2.284499e-001 2.288609e-002 -5.045649e-003 -1.905153e-003 1.152644e-002 -3.764989e-003 -4.241394e-004 -5.852911e-003 -9.871245e-004 -1.698177e-003 -1.119162e-002 -1.527171e-002 -7.590022e-003 -1.074905e-003
<VARIANCE> 25
 6.290184e+001 4.961848e+001 7.673598e+001 8.459570e+001 5.106314e+001 4.728869e+001 6.202778e+001 4.452745e+001 5.232534e+001 4.324818e+001 3.903530e+001 2.700078e+001 1.992401e+000 1.778028e+000 2.299550e+000 2.514210e+000 2.259290e+000 2.328953e+000 2.795644e+000 2.497663e+000 2.320098e+000 2.298297e+000 1.930347e+000 1.648632e+000 1.605476e+000
<GCONST> 1.030972e+002
<TRANSP> 5
 0.000000e+000 1.000000e+000 0.000000e+000 0.000000e+000 0.000000e+000
 0.000000e+000 7.722817e-001 2.277183e-001 0.000000e+000 0.000000e+000
 0.000000e+000 0.000000e+000 7.722811e-001 2.277189e-001 0.000000e+000
 0.000000e+000 0.000000e+000 0.000000e+000 9.040565e-001 9.594356e-002
 0.000000e+000 0.000000e+000 0.000000e+000 0.000000e+000 0.000000e+000
<ENDHMM>
~h "t"
<BEGINHMM>
<NUMSTATES> 5
<STATE> 2
<MEAN> 25
 1.186589e-001 3.397488e-001 -1.286498e-001 -4.501594e-001 -3.712114e-001 -1.604021e-002 4.180912e-002 9.011585e-002 1.658487e-001 5.436539e-002 -1.380253e-001 -6.638891e-002 1.056651e-002 -5.548715e-003 -1.780944e-004 -2.710478e-005 -1.741109e-003 3.301943e-003 -5.992973e-005 2.149107e-003 1.595171e-002 -8.417485e-003 5.338119e-004 4.589182e-004 1.767949e-002
<VARIANCE> 25
 3.913286e+001 4.620351e+001 4.904863e+001 8.232386e+001 4.906694e+001 4.886544e+001 5.575578e+001 4.431252e+001 5.626960e+001 4.191361e+001 3.605132e+001 2.596137e+001 1.160490e+000 1.753526e+000 1.767675e+000 2.584858e+000 2.228064e+000 2.512600e+000 2.747200e+000 2.430153e+000 2.579367e+000 2.350546e+000 2.061667e+000 1.615210e+000 2.429507e+000
<GCONST> 1.016959e+002
<STATE> 3
<MEAN> 25
 1.598396e-001 3.205325e-001 -1.310287e-001 -4.471320e-001 -3.817136e-001 -1.185118e-002 2.704256e-002 1.013337e-001 1.994570e-001 1.656346e-002 -1.441042e-001 -6.396751e-002 9.676033e-003 -5.433519e-003 -5.537161e-004 1.241204e-003 -1.720255e-003 3.439880e-004 -4.958465e-003 2.550717e-003 6.334905e-003 -9.379822e-003 -2.347484e-003 3.717512e-004 7.042399e-003
<VARIANCE> 25
 3.869965e+001 4.573893e+001 4.818129e+001 8.260413e+001 4.926080e+001 4.880030e+001 5.599540e+001 4.449648e+001 5.601484e+001 4.196928e+001 3.601094e+001 2.597441e+001 1.136202e+000 1.738056e+000 1.740943e+000 2.575599e+000 2.222145e+000 2.512241e+000 2.752302e+000 2.432523e+000 2.563629e+000 2.349665e+000 2.066887e+000 1.610708e+000 2.224115e+000
<GCONST> 1.015235e+002
<STATE> 4
<MEAN> 25
 2.238664e-001 2.849765e-001 -1.412316e-001 -4.687533e-001 -3.692520e-001 1.809129e-002 -2.467222e-002 1.428136e-001 1.336132e-001 -6.891370e-002 -1.023023e-001 -4.175545e-002 8.805622e-003 -5.165110e-003 -2.523616e-004 2.211447e-003 2.354031e-004 -2.601150e-004 -7.532341e-003 1.963557e-003 -1.669724e-003 -9.221406e-003 -9.525616e-004 -2.624832e-004 3.939115e-003
<VARIANCE> 25
 3.805609e+001 4.497148e+001 4.736141e+001 8.577883e+001 4.939846e+001 4.675200e+001 5.815021e+001 4.436727e+001 5.523006e+001 4.163282e+001 3.617616e+001 2.628382e+001 1.090690e+000 1.687653e+000 1.695451e+000 2.595991e+000 2.196207e+000 2.421312e+000 2.751722e+000 2.422585e+000 2.503273e+000 2.303833e+000 2.084319e+000 1.603289e+000 2.187472e+000
<GCONST> 1.013012e+002
<TRANSP> 5
 0.000000e+000 1.000000e+000 0.000000e+000 0.000000e+000 0.000000e+000
 0.000000e+000 7.738795e-001 2.261205e-001 0.000000e+000 0.000000e+000
 0.000000e+000 0.000000e+000 7.738784e-001 2.261216e-001 0.000000e+000
 0.000000e+000 0.000000e+000 0.000000e+000 9.058015e-001 9.419851e-002
 0.000000e+000 0.000000e+000 0.000000e+000 0.000000e+000 0.000000e+000
<ENDHMM>
~h "u"
<BEGINHMM>
<NUMSTATES> 5
<STATE> 2
<MEAN> 25
 5.781729e-001 9.676205e-001 2.546850e-001 -2.925296e-001 -8.053000e-001 -6.311592e-002 -3.712637e-001 -1.174721e-001 -4.244090e-001 -6.026421e-001 -7.905702e-002 -3.994421e-002 3.735608e-003 -8.610523e-003 4.619258e-003 -1.825833e-003 1.806231e-004 -8.732178e-004 -4.300258e-003 5.663472e-003 4.485726e-003 -1.930986e-004 4.358374e-003 -5.260565e-003 7.038925e-003
<VARIANCE> 25
 4.180375e+001 4.608021e+001 4.990353e+001 8.172024e+001 5.037809e+001 4.563148e+001 6.315763e+001 4.421419e+001 5.393641e+001 4.962004e+001 3.593533e+001 2.713821e+001 1.054214e+000 1.692178e+000 1.711774e+000 2.489254e+000 2.239949e+000 2.393368e+000 2.786225e+000 2.377623e+000 2.435813e+000 2.442070e+000 2.089423e+000 1.696334e+000 1.638186e+000
<GCONST> 1.014137e+002
<STATE> 3
<MEAN> 25
 5.934258e-001 9.212800e-001 2.699897e-001 -3.027245e-001 -7.982285e-001 -6.880487e-002 -3.931870e-001 -9.628449e-002 -4.079916e-001 -5.950630e-001 -5.295972e-002 -6.392510e-002 3.592821e-003 -1.047360e-002 2.748683e-003 -1.462406e-003 2.278549e-003 -5.171563e-004 -5.620911e-003 4.056861e-003 3.111958e-003 8.947860e-004 6.184143e-003 -6.274787e-003 7.967552e-003
<VARIANCE> 25
 4.177972e+001 4.619611e+001 4.979734e+001 8.186206e+001 5.016085e+001 4.584436e+001 6.305422e+001 4.419502e+001 5.405540e+001 4.947831e+001 3.583548e+001 2.707421e+001 1.050527e+000 1.694504e+000 1.714553e+000 2.492138e+000 2.237459e+000 2.396803e+000 2.787762e+000 2.375738e+000 2.440014e+000 2.432307e+000 2.087616e+000 1.695484e+000 1.650263e+000
<GCONST> 1.014122e+002
<STATE> 4
<MEAN> 25
 6.672304e-001 7.955148e-001 2.183447e-001 -3.697989e-001 -6.714038e-001 -1.756426e-002 -5.025772e-001 -1.287561e-001 -3.975745e-001 -5.014475e-001 9.922113e-002 -1.171979e-001 7.328767e-004 -1.390089e-002 3.061137e-004 -4.469326e-004 5.251766e-003 -1.802362e-003 -4.174788e-003 3.177423e-003 3.042971e-003 2.653084e-003 7.607113e-003 -6.592159e-003 7.876067e-003
<VARIANCE> 25
 4.116770e+001 4.550005e+001 4.902163e+001 8.402729e+001 4.868876e+001 4.422366e+001 6.440285e+001 4.341819e+001 5.397663e+001 4.809119e+001 3.567820e+001 2.684810e+001 1.014913e+000 1.640290e+000 1.672585e+000 2.492481e+000 2.188279e+000 2.282196e+000 2.731029e+000 2.325696e+000 2.377792e+000 2.361111e+000 2.055675e+000 1.657164e+000 1.675932e+000
<GCONST> 1.010045e+002
<TRANSP> 5
 0.000000e+000 1.000000e+000 0.000000e+000 0.000000e+000 0.000000e+000
 0.000000e+000 7.758259e-001 2.241741e-001 0.000000e+000 0.000000e+000
 0.000000e+000 0.000000e+000 7.758254e-001 2.241745e-001 0.000000e+000
 0.000000e+000 0.000000e+000 0.000000e+000 9.083415e-001 9.165850e-002
 0.000000e+000 0.000000e+000 0.000000e+000 0.000000e+000 0.000000e+000
<ENDHMM>
~h "w"
<BEGINHMM>
<NUMSTATES> 5
<STATE> 2
<MEAN> 25
 2.522956e-001 -7.037153e-001 3.036506e-001 -1.413501e+000 -6.048152e-001 -1.074527e-001 9.224488e-001 9.571216e-001 1.111847e+000 1.946629e-002 -1.139674e-001 7.586236e-002 -4.547255e-002 7.817202e-003 -9.134966e-003 3.266988e-004 1.854466e-002 2.720786e-002 4.437998e-002 -7.836756e-003 6.388030e-003 5.257966e-002 1.947160e-002 -8.939874e-003 -3.525554e-002
<VARIANCE> 25
 5.473701e+001 6.060322e+001 5.474429e+001 8.422837e+001 5.533115e+001 5.693666e+001 6.383539e+001 4.165180e+001 6.846490e+001 4.682914e+001 3.311863e+001 2.520197e+001 9.846746e-001 2.201073e+000 1.569631e+000 2.192927e+000 2.055203e+000 2.522911e+000 2.335565e+000 2.144798e+000 2.759394e+000 2.021890e+000 1.829636e+000 1.624364e+000 1.067870e+000
<GCONST> 1.013714e+002
<STATE> 3
<MEAN> 25
 5.763246e-002 -6.654203e-001 2.582355e-001 -1.409435e+000 -5.194528e-001 -1.299343e-003 1.106172e+000 9.107194e-001 1.136890e+000 2.446869e-001 -3.151231e-002 3.808666e-002 -4.749911e-002 1.174606e-002 -6.380874e-003 -1.017783e-003 1.912525e-002 3.036598e-002 4.126386e-002 -1.288423e-002 7.063183e-003 5.460757e-002 1.778009e-002 -1.041945e-002 -3.789223e-002
<VARIANCE> 25
 5.596537e+001 6.095433e+001 5.467120e+001 8.403079e+001 5.546764e+001 5.712645e+001 6.437729e+001 4.154293e+001 6.764584e+001 4.632734e+001 3.300547e+001 2.487844e+001 1.013851e+000 2.218880e+000 1.571800e+000 2.199487e+000 2.051795e+000 2.548847e+000 2.352628e+000 2.138173e+000 2.778794e+000 2.025611e+000 1.829604e+000 1.632679e+000 1.081814e+000
<GCONST> 1.014494e+002
<STATE> 4
<MEAN> 25
 -2.738788e-001 -4.728319e-001 5.904698e-002 -1.590913e+000 -1.842750e-001 9.302199e-002 1.327102e+000 5.990012e-001 1.004205e+000 5.278062e-001 5.211825e-002 -1.005402e-001 -3.960831e-002 1.673910e-002 -5.339258e-003 -4.264680e-003 1.470125e-002 2.503068e-002 2.647370e-002 -1.906509e-002 7.713546e-003 4.567043e-002 1.328125e-002 -9.732340e-003 -3.254221e-002
<VARIANCE> 25
 5.959883e+001 5.889102e+001 5.222247e+001 8.940282e+001 5.400266e+001 5.529565e+001 6.711449e+001 3.990035e+001 6.320308e+001 4.469734e+001 3.426874e+001 2.373489e+001 1.071571e+000 2.133307e+000 1.499568e+000 2.253386e+000 1.985136e+000 2.489703e+000 2.373367e+000 2.076918e+000 2.691663e+000 1.983356e+000 1.870041e+000 1.606584e+000 1.103461e+000
<GCONST> 1.012118e+002
<TRANSP> 5
 0.000000e+000 1.000000e+000 0.000000e+000 0.000000e+000 0.000000e+000
 0.000000e+000 7.727650e-001 2.272350e-001 0.000000e+000 0.000000e+000
 0.000000e+000 0.000000e+000 7.727649e-001 2.272351e-001 0.000000e+000
 0.000000e+000 0.000000e+000 0.000000e+000 9.041402e-001 9.585989e-002
 0.000000e+000 0.000000e+000 0.000000e+000 0.000000e+000 0.000000e+000
<ENDHMM>
~h "y"
<BEGINHMM>
<NUMSTATES> 5
<STATE> 2
<MEAN> 25
 1.096865e+000 -1.652563e+000 5.898752e-001 -5.183852e-001 -2.848562e-001 -1.399271e+000 -9.008173e-001 -2.947980e-001 -3.204367e-001 -1.970882e-001 7.340553e-002 2.343930e-001 1.199617e-002 -4.670798e-003 5.065906e-003 -1.721138e-002 -1.091488e-002 -1.504725e-002 -9.243047e-003 8.526366e-003 -6.712682e-003 5.924911e-003 -5.852344e-003 4.060155e-003 1.547426e-002
<VARIANCE> 25
 3.277313e+001 5.047865e+001 5.914708e+001 8.000986e+001 5.472751e+001 4.891611e+001 6.096823e+001 4.737242e+001 4.576508e+001 3.462794e+001 4.116936e+001 2.773582e+001 8.286348e-001 1.739916e+000 1.723060e+000 2.227268e+000 2.303182e+000 2.060327e+000 2.705235e+000 2.515347e+000 2.286839e+000 2.146220e+000 2.255706e+000 1.811833e+000 1.823417e+000
<GCONST> 1.008746e+002
<STATE> 3
<MEAN> 25
 1.148566e+000 -1.665637e+000 6.165157e-001 -6.099790e-001 -3.362794e-001 -1.456404e+000 -9.348441e-001 -2.468942e-001 -3.489674e-001 -1.671017e-001 4.619124e-002 2.534828e-001 9.904332e-003 -2.234708e-004 4.628049e-003 -1.911677e-002 -1.105252e-002 -1.128820e-002 -5.011416e-003 1.165811e-002 -5.140939e-003 7.094030e-003 -5.534421e-003 4.933443e-003 1.067004e-002
<VARIANCE> 25
 3.284235e+001 5.086584e+001 6.001032e+001 7.983051e+001 5.469535e+001 4.861033e+001 6.063695e+001 4.733060e+001 4.617669e+001 3.451119e+001 4.128234e+001 2.750925e+001 8.287382e-001 1.757049e+000 1.733662e+000 2.219579e+000 2.312186e+000 2.049186e+000 2.697174e+000 2.515193e+000 2.294891e+000 2.127726e+000 2.245022e+000 1.805391e+000 1.836129e+000
<GCONST> 1.008851e+002
<STATE> 4
<MEAN> 25
 1.186424e+000 -1.709731e+000 7.868276e-001 -9.155875e-001 -4.246629e-001 -1.461924e+000 -9.128472e-001 -1.038519e-001 -3.345355e-001 -5.238112e-002 -1.008885e-001 2.381360e-001 4.258432e-003 9.391411e-003 -1.057541e-003 -1.643576e-002 -7.016888e-003 -1.327008e-003 4.474518e-003 1.406633e-002 7.099271e-004 7.217042e-003 -4.313651e-003 5.955813e-003 -5.032169e-003
<VARIANCE> 25
 3.214026e+001 5.127067e+001 6.127162e+001 7.984149e+001 5.441786e+001 4.648848e+001 6.029931e+001 4.780616e+001 4.694108e+001 3.378930e+001 4.135418e+001 2.649259e+001 8.139666e-001 1.778256e+000 1.719860e+000 2.201404e+000 2.305224e+000 1.984951e+000 2.689392e+000 2.509828e+000 2.282777e+000 2.095492e+000 2.224212e+000 1.760640e+000 1.868281e+000
<GCONST> 1.007067e+002
<TRANSP> 5
 0.000000e+000 1.000000e+000 0.000000e+000 0.000000e+000 0.000000e+000
 0.000000e+000 7.787778e-001 2.212222e-001 0.000000e+000 0.000000e+000
 0.000000e+000 0.000000e+000 7.787780e-001 2.212220e-001 0.000000e+000
 0.000000e+000 0.000000e+000 0.000000e+000 9.114867e-001 8.851328e-002
 0.000000e+000 0.000000e+000 0.000000e+000 0.000000e+000 0.000000e+000
<ENDHMM>
~h "z"
<BEGINHMM>
<NUMSTATES> 5
<STATE> 2
<MEAN> 25
 -2.468088e+000 1.264334e+000 3.701697e-001 2.140490e+000 2.423650e-001 1.963454e+000 1.331994e+000 -7.821973e-001 -5.614632e-001 1.021441e+000 1.170434e+000 -2.390538e-002 2.408683e-002 2.979629e-002 3.527413e-002 8.246670e-003 9.762033e-003 -6.654663e-002 -4.460375e-002 -3.623834e-002 -7.511135e-002 -1.234013e-001 -3.980586e-002 -3.660776e-002 2.927404e-002
<VARIANCE> 25
 2.880045e+001 2.214083e+001 2.239908e+001 6.049871e+001 3.395317e+001 4.267286e+001 5.442267e+001 2.288952e+001 7.843280e+001 4.772701e+001 2.049003e+001 2.338969e+001 4.069393e-001 8.317207e-001 7.240783e-001 1.293637e+000 1.108419e+000 1.693655e+000 2.358253e+000 2.028040e+000 2.312570e+000 2.066070e+000 1.442292e+000 1.309962e+000 1.169284e+000
<GCONST> 9.182506e+001
<STATE> 3
<MEAN> 25
 -2.294021e+000 1.398282e+000 6.045938e-001 2.195127e+000 3.146306e-001 1.546628e+000 1.090985e+000 -9.938148e-001 -9.650705e-001 4.672042e-001 1.040141e+000 -1.624518e-001 4.316630e-002 3.045709e-002 5.767739e-002 1.315728e-002 1.915348e-002 -1.013974e-001 -6.070569e-002 -5.166069e-002 -1.024966e-001 -1.272287e-001 -3.144035e-002 -2.916451e-002 7.531606e-002
<VARIANCE> 25
 2.951966e+001 2.612495e+001 2.340576e+001 6.563353e+001 3.672187e+001 4.653583e+001 5.609014e+001 2.496747e+001 7.898609e+001 4.568604e+001 2.080065e+001 2.343005e+001 4.737547e-001 9.839684e-001 8.273246e-001 1.501922e+000 1.241241e+000 1.913092e+000 2.569521e+000 2.129164e+000 2.285160e+000 2.060230e+000 1.425200e+000 1.413225e+000 1.452499e+000
<GCONST> 9.364111e+001
<STATE> 4
<MEAN> 25
 -1.274742e+000 1.485420e+000 1.055328e+000 2.076629e+000 1.075839e-002 -2.592945e-001 4.338638e-001 -1.205511e+000 -2.296304e+000 -8.988988e-001 1.157846e+000 -4.089752e-001 6.928962e-002 1.208899e-002 5.418440e-002 -5.596187e-003 2.269875e-002 -1.385086e-001 -7.781012e-002 -3.428726e-002 -8.894499e-002 -1.052762e-001 -3.795573e-003 -1.834738e-002 1.685532e-001
<VARIANCE> 25
 3.344191e+001 4.252148e+001 2.739776e+001 8.679135e+001 4.507032e+001 5.093654e+001 6.710902e+001 3.086818e+001 8.434058e+001 4.296509e+001 2.416332e+001 2.609215e+001 6.929692e-001 1.564004e+000 1.170933e+000 2.233598e+000 1.704917e+000 2.489461e+000 3.168459e+000 2.344072e+000 2.321695e+000 2.065403e+000 1.512699e+000 1.677003e+000 2.289622e+000
<GCONST> 9.881681e+001
<TRANSP> 5
 0.000000e+000 1.000000e+000 0.000000e+000 0.000000e+000 0.000000e+000
 0.000000e+000 7.800866e-001 2.199133e-001 0.000000e+000 0.000000e+000
 0.000000e+000 0.000000e+000 7.800868e-001 2.199132e-001 0.000000e+000
 0.000000e+000 0.000000e+000 0.000000e+000 9.126712e-001 8.732878e-002
 0.000000e+000 0.000000e+000 0.000000e+000 0.000000e+000 0.000000e+000
<ENDHMM>
~h "ai"
<BEGINHMM>
<NUMSTATES> 5
<STATE> 2
<MEAN> 25
 1.068944e+000 -4.633555e-001 7.909020e-001 2.726335e-001 4.641934e-002 -4.972756e-001 -1.111520e+000 -3.520549e-002 -1.082942e-003 -7.088775e-001 3.011693e-001 -3.747926e-001 -2.534967e-002 -9.421848e-004 -7.739990e-003 2.847051e-002 2.183876e-002 3.185216e-002 3.661888e-002 1.973674e-002 2.626547e-002 -1.921580e-003 1.963660e-002 2.757940e-003 -3.454664e-002
<VARIANCE> 25
 3.688809e+001 5.161764e+001 5.839082e+001 9.336128e+001 5.759690e+001 5.101178e+001 5.712847e+001 4.368986e+001 5.615967e+001 4.458930e+001 3.869821e+001 2.763279e+001 9.192733e-001 1.808460e+000 2.042718e+000 3.110550e+000 2.485231e+000 2.572724e+000 2.557962e+000 2.535349e+000 2.501372e+000 2.478646e+000 2.241324e+000 1.706350e+000 1.935960e+000
<GCONST> 1.026196e+002
<STATE> 3
<MEAN> 25
 9.339616e-001 -4.583066e-001 7.508157e-001 3.933400e-001 1.410548e-001 -3.507369e-001 -9.418441e-001 4.857566e-002 1.126736e-001 -7.029243e-001 3.861111e-001 -3.569098e-001 -2.602973e-002 -3.477431e-003 -8.059151e-003 2.638349e-002 2.282847e-002 2.894677e-002 3.592402e-002 1.659074e-002 2.400034e-002 6.594032e-004 1.908159e-002 4.368426e-003 -3.094620e-002
<VARIANCE> 25
 3.687635e+001 5.136612e+001 5.872245e+001 9.395795e+001 5.753447e+001 5.059008e+001 5.647248e+001 4.238724e+001 5.558804e+001 4.433898e+001 3.790927e+001 2.744055e+001 9.328448e-001 1.811803e+000 2.026845e+000 3.087016e+000 2.470854e+000 2.564273e+000 2.536008e+000 2.505238e+000 2.489978e+000 2.469989e+000 2.206131e+000 1.697435e+000 1.960588e+000
<GCONST> 1.024867e+002
<STATE> 4
<MEAN> 25
 6.501624e-001 -4.637355e-001 8.914113e-001 3.615886e-001 1.001039e-001 -1.579613e-001 -7.930936e-001 2.058291e-001 2.074751e-001 -5.050256e-001 5.004646e-001 -3.749628e-001 -2.812764e-002 -6.050534e-004 -1.118632e-002 2.226305e-002 2.207613e-002 2.812248e-002 3.533993e-002 8.873869e-003 1.595371e-002 3.932867e-003 1.532047e-002 5.831118e-003 -3.408540e-002
<VARIANCE> 25
 3.551370e+001 4.963328e+001 6.112539e+001 9.464583e+001 5.530146e+001 4.800173e+001 5.686127e+001 4.083757e+001 5.593719e+001 4.190120e+001 3.672019e+001 2.719426e+001 9.168413e-001 1.762052e+000 2.018056e+000 3.028379e+000 2.344659e+000 2.430844e+000 2.496347e+000 2.469223e+000 2.460993e+000 2.402400e+000 2.158128e+000 1.656698e+000 2.081094e+000
<GCONST> 1.020176e+002
<TRANSP> 5
 0.000000e+000 1.000000e+000 0.000000e+000 0.000000e+000 0.000000e+000
 0.000000e+000 7.756802e-001 2.243197e-001 0.000000e+000 0.000000e+000
 0.000000e+000 0.000000e+000 7.756797e-001 2.243203e-001 0.000000e+000
 0.000000e+000 0.000000e+000 0.000000e+000 9.080447e-001 9.195529e-002
 0.000000e+000 0.000000e+000 0.000000e+000 0.000000e+000 0.000000e+000
<ENDHMM>
~h "au"
<BEGINHMM>
<NUMSTATES> 5
<STATE> 2
<MEAN> 25
 1.182272e+000 2.496695e-001 -2.383566e-001 -2.753299e+000 -1.896185e+000 -1.160470e+000 1.069169e+000 1.563348e+000 2.038305e-001 -2.423111e-001 -3.496186e-001 -3.289045e-001 -1.557245e-003 1.881877e-002 2.154687e-003 1.012259e-002 -2.465735e-002 -9.879326e-003 1.490101e-002 1.384644e-002 -5.828204e-003 -5.364716e-003 5.316722e-003 1.202330e-002 -3.390160e-002
<VARIANCE> 25
 4.426186e+001 5.851994e+001 6.709084e+001 8.827496e+001 6.898280e+001 6.699858e+001 5.061720e+001 4.819563e+001 5.225684e+001 4.952207e+001 2.906275e+001 2.567629e+001 1.044854e+000 2.206538e+000 1.886369e+000 2.405936e+000 2.237534e+000 2.889895e+000 2.759614e+000 2.511886e+000 2.316878e+000 2.112669e+000 1.880480e+000 1.553354e+000 1.196333e+000
<GCONST> 1.021946e+002
<STATE> 3
<MEAN> 25
 1.174124e+000 3.287882e-001 -2.318553e-001 -2.688423e+000 -2.010511e+000 -1.214255e+000 1.131749e+000 1.625120e+000 1.664267e-001 -2.734107e-001 -3.240515e-001 -2.623134e-001 -3.294378e-004 1.841202e-002 -3.128364e-003 1.170209e-002 -2.497658e-002 -1.013210e-002 1.181671e-002 1.424698e-002 -4.107375e-003 -8.413068e-003 3.856291e-003 1.648659e-002 -3.740592e-002
<VARIANCE> 25
 4.349516e+001 5.658289e+001 6.596964e+001 8.589852e+001 6.719298e+001 6.787312e+001 4.990592e+001 4.708979e+001 5.351046e+001 4.893190e+001 2.932213e+001 2.534401e+001 1.027248e+000 2.145799e+000 1.863415e+000 2.337051e+000 2.219799e+000 2.907908e+000 2.746306e+000 2.503986e+000 2.340909e+000 2.114631e+000 1.898563e+000 1.572345e+000 1.157028e+000
<GCONST> 1.019599e+002
<STATE> 4
<MEAN> 25
 1.221262e+000 4.054572e-001 -2.415874e-001 -2.809640e+000 -1.868562e+000 -1.363631e+000 1.161991e+000 1.616836e+000 1.901562e-002 6.203982e-003 -9.730989e-002 -1.676918e-001 -1.644318e-003 1.452115e-002 -9.764689e-003 2.355584e-002 -2.676400e-002 -1.059548e-002 9.422314e-003 1.498341e-002 -5.721623e-003 -1.434203e-002 1.367100e-003 2.488743e-002 -5.147365e-002
<VARIANCE> 25
 4.523533e+001 5.852356e+001 6.926775e+001 9.290160e+001 6.911929e+001 7.063697e+001 5.243105e+001 4.420687e+001 6.018176e+001 5.047841e+001 3.243696e+001 2.602264e+001 1.071906e+000 2.179877e+000 1.964547e+000 2.457401e+000 2.294647e+000 2.914804e+000 2.869234e+000 2.526792e+000 2.433783e+000 2.195286e+000 2.020687e+000 1.663765e+000 1.251941e+000
<GCONST> 1.030141e+002
<TRANSP> 5
 0.000000e+000 1.000000e+000 0.000000e+000 0.000000e+000 0.000000e+000
 0.000000e+000 7.730477e-001 2.269523e-001 0.000000e+000 0.000000e+000
 0.000000e+000 0.000000e+000 7.730480e-001 2.269520e-001 0.000000e+000
 0.000000e+000 0.000000e+000 0.000000e+000 9.052539e-001 9.474605e-002
 0.000000e+000 0.000000e+000 0.000000e+000 0.000000e+000 0.000000e+000
<ENDHMM>
~h "ng"
<BEGINHMM>
<NUMSTATES> 5
<STATE> 2
<MEAN> 25
 6.478304e-001 -7.120801e-002 5.346860e-002 -2.380282e-001 1.904786e-001 1.277515e-002 1.622508e-001 3.269099e-001 -1.638759e-001 -2.223291e-002 -3.561340e-002 -3.830144e-001 -1.476460e-002 -1.108320e-002 -6.787208e-003 5.029616e-005 9.597370e-003 1.701081e-002 1.967355e-003 -2.201968e-004 4.051160e-004 5.512807e-003 9.347305e-003 4.279550e-003 -1.561426e-002
<VARIANCE> 25
 4.077253e+001 5.100405e+001 4.922906e+001 7.698787e+001 6.106441e+001 4.938333e+001 5.660081e+001 4.845486e+001 4.731005e+001 4.338924e+001 3.387176e+001 2.987156e+001 1.026440e+000 1.869284e+000 1.766476e+000 2.530453e+000 2.498073e+000 2.363347e+000 2.453614e+000 2.499097e+000 2.303263e+000 2.223070e+000 1.939407e+000 1.778178e+000 1.655055e+000
<GCONST> 1.014147e+002
<STATE> 3
<MEAN> 25
 5.832428e-001 -1.146091e-001 2.522980e-002 -2.358882e-001 2.398074e-001 8.660247e-002 1.709459e-001 3.237733e-001 -1.556343e-001 5.841609e-003 6.577221e-003 -3.625565e-001 -1.770057e-002 -7.626868e-003 -6.521703e-003 4.073195e-003 1.340958e-002 1.801639e-002 2.171486e-003 -1.997083e-003 1.400661e-003 8.167818e-003 1.133320e-002 5.074684e-003 -1.871228e-002
<VARIANCE> 25
 4.067706e+001 5.074697e+001 4.947249e+001 7.713425e+001 6.053716e+001 4.919975e+001 5.657958e+001 4.827356e+001 4.766153e+001 4.336889e+001 3.397484e+001 2.985935e+001 1.015716e+000 1.846398e+000 1.761219e+000 2.530311e+000 2.462160e+000 2.368113e+000 2.464421e+000 2.493645e+000 2.299978e+000 2.220776e+000 1.941181e+000 1.785766e+000 1.626550e+000
<GCONST> 1.013564e+002
<STATE> 4
<MEAN> 25
 5.547948e-001 -1.357084e-001 -1.731101e-003 -2.582019e-001 3.242924e-001 1.930440e-001 8.671387e-002 2.360686e-001 -2.064670e-001 1.322605e-002 1.122255e-001 -3.631433e-001 -2.007659e-002 -5.002796e-003 -7.586863e-003 7.034239e-003 1.791886e-002 1.404940e-002 2.524993e-003 -3.980912e-003 3.860460e-003 1.038843e-002 1.105039e-002 6.289338e-003 -2.014448e-002
<VARIANCE> 25
 3.967028e+001 4.920049e+001 4.839071e+001 7.901595e+001 5.818098e+001 4.770405e+001 5.756716e+001 4.775320e+001 4.703895e+001 4.203809e+001 3.389898e+001 2.948774e+001 9.662665e-001 1.734491e+000 1.710912e+000 2.489801e+000 2.353136e+000 2.315975e+000 2.472439e+000 2.449208e+000 2.256436e+000 2.180928e+000 1.928922e+000 1.766505e+000 1.612560e+000
<GCONST> 1.008764e+002
<TRANSP> 5
 0.000000e+000 1.000000e+000 0.000000e+000 0.000000e+000 0.000000e+000
 0.000000e+000 7.713929e-001 2.286071e-001 0.000000e+000 0.000000e+000
 0.000000e+000 0.000000e+000 7.713932e-001 2.286068e-001 0.000000e+000
 0.000000e+000 0.000000e+000 0.000000e+000 9.029646e-001 9.703543e-002
 0.000000e+000 0.000000e+000 0.000000e+000 0.000000e+000 0.000000e+000
<ENDHMM>
~h "ny"
<BEGINHMM>
<NUMSTATES> 5
<STATE> 2
<MEAN> 25
 -9.671957e-001 4.770611e-001 1.066549e+000 1.311517e-001 2.094888e-001 1.033296e+000 -2.065116e-001 -2.638142e-002 4.639161e-001 2.938466e-001 2.330410e-001 -6.528262e-001 -4.510739e-004 2.584832e-002 -9.259525e-003 3.911404e-002 4.693387e-003 -8.833137e-003 1.652585e-002 -4.588872e-002 7.832814e-003 -3.970897e-002 3.529422e-002 -1.045409e-002 3.639985e-002
<VARIANCE> 25
 4.486947e+001 3.041434e+001 4.346165e+001 9.234100e+001 4.558994e+001 3.045695e+001 6.931725e+001 3.846755e+001 4.667551e+001 2.430833e+001 2.580277e+001 2.293386e+001 8.838999e-001 1.448373e+000 1.395963e+000 2.907755e+000 1.909075e+000 1.637540e+000 2.365731e+000 2.000255e+000 1.851436e+000 1.590507e+000 1.847988e+000 1.566944e+000 3.569477e+000
<GCONST> 9.776244e+001
<STATE> 3
<MEAN> 25
 -9.005098e-001 5.884582e-001 1.057339e+000 3.403443e-001 1.667485e-001 1.017324e+000 -2.195184e-001 -1.715387e-001 3.956207e-001 1.454274e-001 2.889044e-001 -6.892676e-001 1.515431e-002 1.973854e-002 -7.486362e-003 3.836056e-002 -1.000592e-002 -2.351708e-003 -1.452838e-004 -2.663841e-002 -1.413182e-002 -2.665229e-002 9.664146e-003 -4.366114e-003 -1.581698e-002
<VARIANCE> 25
 4.306356e+001 2.887600e+001 4.294578e+001 8.873379e+001 4.538293e+001 3.014851e+001 6.988197e+001 3.788445e+001 4.530060e+001 2.387876e+001 2.440212e+001 2.149554e+001 8.107825e-001 1.213787e+000 1.268816e+000 2.616897e+000 1.810925e+000 1.541155e+000 2.292497e+000 1.957644e+000 1.774442e+000 1.582571e+000 1.693365e+000 1.500962e+000 1.856534e+000
<GCONST> 9.596553e+001
<STATE> 4
<MEAN> 25
 -6.867785e-001 8.947718e-001 1.248465e+000 3.623292e-001 -7.397076e-002 8.531353e-001 -5.309204e-001 -6.062698e-001 -2.591678e-003 -2.656236e-002 2.160612e-001 -7.001523e-001 2.214536e-002 1.418335e-002 6.828073e-003 3.558043e-002 -9.676696e-003 -8.750886e-003 -1.645855e-002 -2.259919e-002 -2.303141e-002 -1.519208e-002 1.395416e-003 -2.339521e-003 -1.755034e-002
<VARIANCE> 25
 4.096599e+001 2.647468e+001 4.340654e+001 8.568813e+001 4.712320e+001 3.096880e+001 7.320621e+001 3.823439e+001 4.419205e+001 2.353932e+001 2.462215e+001 1.950891e+001 7.645067e-001 1.062785e+000 1.252270e+000 2.588923e+000 1.808404e+000 1.524811e+000 2.324551e+000 1.978092e+000 1.734524e+000 1.573650e+000 1.646791e+000 1.415769e+000 1.302783e+000
<GCONST> 9.512536e+001
<TRANSP> 5
 0.000000e+000 1.000000e+000 0.000000e+000 0.000000e+000 0.000000e+000
 0.000000e+000 7.913970e-001 2.086030e-001 0.000000e+000 0.000000e+000
 0.000000e+000 0.000000e+000 7.913970e-001 2.086029e-001 0.000000e+000
 0.000000e+000 0.000000e+000 0.000000e+000 9.245582e-001 7.544181e-002
 0.000000e+000 0.000000e+000 0.000000e+000 0.000000e+000 0.000000e+000
<ENDHMM>
~h "oi"
<BEGINHMM>
<NUMSTATES> 5
<STATE> 2
<MEAN> 25
 -3.692235e+000 2.414696e+000 -4.162880e+000 1.075554e+000 3.893605e-002 6.269019e-001 4.711865e-001 -2.603701e+000 -2.305616e+000 2.498919e+000 -1.204545e+000 1.041090e+000 -7.049000e-002 5.105653e-002 -4.484677e-002 1.419133e-001 3.974512e-002 1.330232e-002 1.431972e-001 3.539779e-002 1.040823e-002 -1.945529e-002 -2.835045e-002 3.499015e-002 -1.253831e-001
<VARIANCE> 25
 3.978066e+001 1.530401e+001 4.170213e+001 9.336465e+001 2.393958e+001 3.274727e+001 5.553261e+001 3.198384e+001 3.169875e+001 3.456810e+001 1.485093e+001 2.020590e+001 6.932403e-001 5.351312e-001 1.099716e+000 1.589178e+000 1.489206e+000 1.612394e+000 2.280267e+000 1.864785e+000 1.484032e+000 1.579212e+000 1.298708e+000 1.185705e+000 3.274716e-001
<GCONST> 8.953238e+001
<STATE> 3
<MEAN> 25
 -4.035215e+000 2.659496e+000 -4.365421e+000 1.809340e+000 2.385386e-001 6.753678e-001 1.155174e+000 -2.417035e+000 -2.228426e+000 2.383169e+000 -1.347709e+000 1.196587e+000 -6.603909e-002 4.031847e-002 -4.327045e-002 1.410950e-001 4.303858e-002 6.560181e-003 1.188240e-001 3.230198e-002 9.241698e-003 -3.977196e-002 -2.467581e-002 2.725065e-002 -1.101394e-001
<VARIANCE> 25
 3.501840e+001 1.312173e+001 3.834032e+001 8.440443e+001 2.128626e+001 2.979796e+001 5.398740e+001 3.181326e+001 3.232806e+001 3.382994e+001 1.431329e+001 1.863716e+001 5.759149e-001 4.684246e-001 1.046801e+000 1.390830e+000 1.315996e+000 1.509372e+000 2.179636e+000 1.786691e+000 1.428394e+000 1.631960e+000 1.258354e+000 1.138393e+000 2.698562e-001
<GCONST> 8.765112e+001
<STATE> 4
<MEAN> 25
 -3.724183e+000 2.683296e+000 -4.461677e+000 3.188867e+000 1.451270e-001 1.189602e+000 2.493594e+000 -1.678422e+000 -1.445773e+000 1.813825e+000 -1.248187e+000 1.502713e+000 -6.595831e-002 2.984140e-002 -2.312861e-002 1.393431e-001 4.126040e-002 -1.775146e-003 8.073032e-002 3.590140e-002 2.455710e-002 -6.656130e-002 -1.241862e-002 1.920251e-002 -9.643132e-002
<VARIANCE> 25
 2.797453e+001 1.120254e+001 3.709430e+001 7.932059e+001 1.866504e+001 2.652224e+001 5.154003e+001 3.151173e+001 3.214336e+001 3.480530e+001 1.387531e+001 1.821998e+001 5.034369e-001 4.363709e-001 1.099114e+000 1.303985e+000 1.241916e+000 1.529746e+000 2.288044e+000 1.862161e+000 1.532600e+000 1.849441e+000 1.307125e+000 1.167420e+000 2.328478e-001
<GCONST> 8.677395e+001
<TRANSP> 5
 0.000000e+000 1.000000e+000 0.000000e+000 0.000000e+000 0.000000e+000
 0.000000e+000 7.882680e-001 2.117319e-001 0.000000e+000 0.000000e+000
 0.000000e+000 0.000000e+000 7.882681e-001 2.117319e-001 0.000000e+000
 0.000000e+000 0.000000e+000 0.000000e+000 9.226124e-001 7.738759e-002
 0.000000e+000 0.000000e+000 0.000000e+000 0.000000e+000 0.000000e+000
<ENDHMM>
~h "sy"
<BEGINHMM>
<NUMSTATES> 5
<STATE> 2
<MEAN> 25
 9.281805e-001 -3.943200e+000 4.211521e-001 3.987009e-001 1.543694e-001 -1.105217e+000 1.075306e+000 1.051764e+000 -4.357773e-001 -2.032909e+000 1.732035e+000 6.703141e-001 6.620071e-003 -4.171349e-002 -5.471693e-002 -5.951724e-003 -1.085890e-002 1.864078e-003 4.205358e-002 1.983703e-002 7.037349e-003 1.802713e-003 5.128966e-002 4.104116e-002 -2.630571e-003
<VARIANCE> 25
 5.300617e+001 5.756589e+001 8.206309e+001 5.300338e+001 4.776781e+001 5.434794e+001 3.726311e+001 4.682670e+001 3.557659e+001 3.762806e+001 3.585117e+001 2.117118e+001 1.851423e+000 2.455472e+000 2.492914e+000 1.785411e+000 2.201769e+000 2.426990e+000 2.418144e+000 3.168844e+000 2.132548e+000 1.836642e+000 1.879515e+000 1.430668e+000 6.640872e-001
<GCONST> 1.001705e+002
<STATE> 3
<MEAN> 25
 9.918651e-001 -4.122444e+000 1.148023e-001 3.881566e-001 1.134718e-001 -1.080166e+000 1.262912e+000 1.136479e+000 -4.294386e-001 -2.012599e+000 1.911122e+000 8.454155e-001 1.709924e-002 -3.869170e-002 -7.572404e-002 -1.317806e-002 -1.228184e-002 6.654599e-003 3.968144e-002 1.899268e-002 3.206994e-003 5.841000e-003 3.936323e-002 4.048324e-002 -1.016154e-002
<VARIANCE> 25
 5.355623e+001 5.579091e+001 8.157397e+001 5.201573e+001 4.760662e+001 5.490940e+001 3.597912e+001 4.537757e+001 3.611771e+001 3.717741e+001 3.484161e+001 2.100405e+001 1.825800e+000 2.472674e+000 2.456586e+000 1.785979e+000 2.193910e+000 2.414424e+000 2.451518e+000 3.055378e+000 2.149861e+000 1.846716e+000 1.918451e+000 1.414574e+000 6.607468e-001
<GCONST> 9.999654e+001
<STATE> 4
<MEAN> 25
 1.047274e+000 -4.474588e+000 -3.142062e-001 2.917498e-001 3.048928e-001 -8.539713e-001 1.608042e+000 1.151984e+000 -3.750489e-001 -2.048909e+000 1.959138e+000 1.280728e+000 2.705691e-002 -2.125455e-002 -9.896718e-002 -1.790000e-002 -6.917465e-003 2.735884e-002 2.943232e-002 3.809338e-003 -1.059910e-002 2.105866e-002 1.468033e-002 3.344686e-002 -3.453877e-002
<VARIANCE> 25
 5.430396e+001 5.203389e+001 7.581712e+001 5.210740e+001 4.836446e+001 5.563589e+001 3.411267e+001 4.238168e+001 3.628112e+001 3.609638e+001 3.398441e+001 2.249493e+001 1.765751e+000 2.379677e+000 2.313797e+000 1.811148e+000 2.229619e+000 2.337504e+000 2.371735e+000 2.756801e+000 2.158363e+000 1.833176e+000 1.961991e+000 1.434197e+000 6.901569e-001
<GCONST> 9.960184e+001
<TRANSP> 5
 0.000000e+000 1.000000e+000 0.000000e+000 0.000000e+000 0.000000e+000
 0.000000e+000 7.634559e-001 2.365442e-001 0.000000e+000 0.000000e+000
 0.000000e+000 0.000000e+000 7.634557e-001 2.365443e-001 0.000000e+000
 0.000000e+000 0.000000e+000 0.000000e+000 8.940988e-001 1.059012e-001
 0.000000e+000 0.000000e+000 0.000000e+000 0.000000e+000 0.000000e+000
<ENDHMM>
~h "sil"
<BEGINHMM>
<NUMSTATES> 5
<STATE> 2
<MEAN> 25
 -4.986012e+000 3.258712e+000 -2.231428e+000 3.704123e+000 1.278721e+000 2.306926e+000 1.538123e+000 1.055768e+000 -4.322891e-001 3.188192e+000 -2.702174e-001 1.338312e+000 4.233415e-002 -8.747326e-002 5.226397e-002 -1.164145e-001 1.125151e-001 -9.925487e-003 5.335616e-003 -1.012700e-001 9.496769e-002 -1.448287e-003 5.707136e-002 2.129012e-003 4.650694e-001
<VARIANCE> 25
 3.815340e+001 2.607187e+001 1.825078e+001 4.728573e+001 3.737163e+001 5.104561e+001 4.581913e+001 3.433224e+001 5.049606e+001 2.997905e+001 2.969827e+001 1.374216e+001 7.062186e-001 8.516341e-001 8.722748e-001 1.331799e+000 1.186905e+000 1.371880e+000 1.433312e+000 1.276101e+000 1.288478e+000 1.510899e+000 1.311924e+000 1.087598e+000 7.386368e+000
<GCONST> 9.161223e+001
<STATE> 3
<MEAN> 25
 -5.095296e+000 2.767473e+000 -1.891843e+000 3.096559e+000 1.908995e+000 2.118003e+000 1.793785e+000 4.661001e-001 2.584615e-001 2.961430e+000 1.245543e-001 1.339581e+000 -3.044960e-002 -1.128389e-001 8.700074e-002 -1.504603e-001 1.246378e-001 -2.700420e-002 2.592039e-002 -1.234915e-001 1.806152e-001 -7.476211e-002 9.774946e-002 1.104999e-002 6.622201e-001
<VARIANCE> 25
 2.211031e+001 2.676713e+001 1.977621e+001 5.258353e+001 2.772478e+001 4.095790e+001 4.224586e+001 2.892282e+001 4.363934e+001 3.128207e+001 2.668293e+001 1.402721e+001 8.548883e-001 1.308251e+000 1.241449e+000 1.959907e+000 1.603760e+000 1.731718e+000 1.780383e+000 1.386884e+000 1.656905e+000 1.778056e+000 1.498304e+000 1.203798e+000 1.205534e+001
<GCONST> 9.365029e+001
<STATE> 4
<MEAN> 25
 -4.895247e+000 2.161706e+000 -1.663418e+000 3.073452e+000 2.169684e+000 1.895569e+000 2.287910e+000 1.644144e-001 1.404303e+000 1.902795e+000 8.488037e-001 1.335512e+000 -3.202284e-002 -5.476416e-002 4.335509e-002 -8.201656e-002 2.603004e-003 5.011742e-004 -4.600098e-002 -4.304273e-002 1.492036e-001 -1.097889e-001 8.970632e-002 8.737304e-003 2.878859e-001
<VARIANCE> 25
 1.230577e+001 2.004166e+001 1.822314e+001 4.952230e+001 1.811615e+001 2.977919e+001 3.823988e+001 2.286824e+001 3.327312e+001 3.013355e+001 2.110929e+001 1.391288e+001 5.728158e-001 9.569857e-001 9.906560e-001 1.481371e+000 1.338589e+000 1.617855e+000 1.764905e+000 1.429730e+000 1.681382e+000 1.951032e+000 1.557482e+000 1.238526e+000 5.294861e+000
<GCONST> 8.890951e+001
<TRANSP> 5
 0.000000e+000 1.000000e+000 0.000000e+000 0.000000e+000 0.000000e+000
 0.000000e+000 7.761228e-001 2.238772e-001 0.000000e+000 0.000000e+000
 0.000000e+000 0.000000e+000 7.761231e-001 2.238769e-001 0.000000e+000
 0.000000e+000 0.000000e+000 0.000000e+000 9.082280e-001 9.177200e-002
 0.000000e+000 0.000000e+000 0.000000e+000 0.000000e+000 0.000000e+000
<ENDHMM>
