~h "a"
<BEGINHMM>
<NUMSTATES> 5
<STATE> 2
<MEAN> 25
 -3.409819e-008 9.392090e-009 5.997359e-009 -3.569183e-008 8.812157e-008 2.244295e-008 -2.435720e-008 4.588545e-008 3.120324e-008 -1.279625e-008 3.150499e-008 1.618155e-008 -1.420885e-003 -4.159432e-003 2.885503e-003 -3.371050e-003 1.861067e-003 6.800673e-004 -6.284463e-004 -2.928789e-003 7.931115e-003 -3.930187e-003 4.606651e-003 4.781970e-004 1.776792e-002
<VARIANCE> 25
 4.233403e+001 4.530307e+001 5.279357e+001 7.786665e+001 5.077378e+001 4.714515e+001 5.838447e+001 4.501833e+001 5.041414e+001 4.123397e+001 3.618155e+001 2.700005e+001 1.131233e+000 1.684988e+000 1.756823e+000 2.419261e+000 2.217220e+000 2.289905e+000 2.574711e+000 2.394419e+000 2.353169e+000 2.204960e+000 1.999490e+000 1.649467e+000 2.134210e+000
<GCONST> 1.011395e+002
<STATE> 3
<MEAN> 25
 -3.409819e-008 9.392090e-009 5.997359e-009 -3.569183e-008 8.812157e-008 2.244295e-008 -2.435720e-008 4.588545e-008 3.120324e-008 -1.279625e-008 3.150499e-008 1.618155e-008 -1.420885e-003 -4.159432e-003 2.885503e-003 -3.371050e-003 1.861067e-003 6.800673e-004 -6.284463e-004 -2.928789e-003 7.931115e-003 -3.930187e-003 4.606651e-003 4.781970e-004 1.776792e-002
<VARIANCE> 25
 4.233403e+001 4.530307e+001 5.279357e+001 7.786665e+001 5.077378e+001 4.714515e+001 5.838447e+001 4.501833e+001 5.041414e+001 4.123397e+001 3.618155e+001 2.700005e+001 1.131233e+000 1.684988e+000 1.756823e+000 2.419261e+000 2.217220e+000 2.289905e+000 2.574711e+000 2.394419e+000 2.353169e+000 2.204960e+000 1.999490e+000 1.649467e+000 2.134210e+000
<GCONST> 1.011395e+002
<STATE> 4
<MEAN> 25
 -3.409819e-008 9.392090e-009 5.997359e-009 -3.569183e-008 8.812157e-008 2.244295e-008 -2.435720e-008 4.588545e-008 3.120324e-008 -1.279625e-008 3.150499e-008 1.618155e-008 -1.420885e-003 -4.159432e-003 2.885503e-003 -3.371050e-003 1.861067e-003 6.800673e-004 -6.284463e-004 -2.928789e-003 7.931115e-003 -3.930187e-003 4.606651e-003 4.781970e-004 1.776792e-002
<VARIANCE> 25
 4.233403e+001 4.530307e+001 5.279357e+001 7.786665e+001 5.077378e+001 4.714515e+001 5.838447e+001 4.501833e+001 5.041414e+001 4.123397e+001 3.618155e+001 2.700005e+001 1.131233e+000 1.684988e+000 1.756823e+000 2.419261e+000 2.217220e+000 2.289905e+000 2.574711e+000 2.394419e+000 2.353169e+000 2.204960e+000 1.999490e+000 1.649467e+000 2.134210e+000
<GCONST> 1.011395e+002
<TRANSP> 5
 0.000000e+000 1.000000e+000 0.000000e+000 0.000000e+000 0.000000e+000
 0.000000e+000 6.000000e-001 4.000000e-001 0.000000e+000 0.000000e+000
 0.000000e+000 0.000000e+000 6.000000e-001 4.000000e-001 0.000000e+000
 0.000000e+000 0.000000e+000 0.000000e+000 7.000000e-001 3.000000e-001
 0.000000e+000 0.000000e+000 0.000000e+000 0.000000e+000 0.000000e+000
<ENDHMM>
~h "b"
<BEGINHMM>
<NUMSTATES> 5
<STATE> 2
<MEAN> 25
 -3.409819e-008 9.392090e-009 5.997359e-009 -3.569183e-008 8.812157e-008 2.244295e-008 -2.435720e-008 4.588545e-008 3.120324e-008 -1.279625e-008 3.150499e-008 1.618155e-008 -1.420885e-003 -4.159432e-003 2.885503e-003 -3.371050e-003 1.861067e-003 6.800673e-004 -6.284463e-004 -2.928789e-003 7.931115e-003 -3.930187e-003 4.606651e-003 4.781970e-004 1.776792e-002
<VARIANCE> 25
 4.233403e+001 4.530307e+001 5.279357e+001 7.786665e+001 5.077378e+001 4.714515e+001 5.838447e+001 4.501833e+001 5.041414e+001 4.123397e+001 3.618155e+001 2.700005e+001 1.131233e+000 1.684988e+000 1.756823e+000 2.419261e+000 2.217220e+000 2.289905e+000 2.574711e+000 2.394419e+000 2.353169e+000 2.204960e+000 1.999490e+000 1.649467e+000 2.134210e+000
<GCONST> 1.011395e+002
<STATE> 3
<MEAN> 25
 -3.409819e-008 9.392090e-009 5.997359e-009 -3.569183e-008 8.812157e-008 2.244295e-008 -2.435720e-008 4.588545e-008 3.120324e-008 -1.279625e-008 3.150499e-008 1.618155e-008 -1.420885e-003 -4.159432e-003 2.885503e-003 -3.371050e-003 1.861067e-003 6.800673e-004 -6.284463e-004 -2.928789e-003 7.931115e-003 -3.930187e-003 4.606651e-003 4.781970e-004 1.776792e-002
<VARIANCE> 25
 4.233403e+001 4.530307e+001 5.279357e+001 7.786665e+001 5.077378e+001 4.714515e+001 5.838447e+001 4.501833e+001 5.041414e+001 4.123397e+001 3.618155e+001 2.700005e+001 1.131233e+000 1.684988e+000 1.756823e+000 2.419261e+000 2.217220e+000 2.289905e+000 2.574711e+000 2.394419e+000 2.353169e+000 2.204960e+000 1.999490e+000 1.649467e+000 2.134210e+000
<GCONST> 1.011395e+002
<STATE> 4
<MEAN> 25
 -3.409819e-008 9.392090e-009 5.997359e-009 -3.569183e-008 8.812157e-008 2.244295e-008 -2.435720e-008 4.588545e-008 3.120324e-008 -1.279625e-008 3.150499e-008 1.618155e-008 -1.420885e-003 -4.159432e-003 2.885503e-003 -3.371050e-003 1.861067e-003 6.800673e-004 -6.284463e-004 -2.928789e-003 7.931115e-003 -3.930187e-003 4.606651e-003 4.781970e-004 1.776792e-002
<VARIANCE> 25
 4.233403e+001 4.530307e+001 5.279357e+001 7.786665e+001 5.077378e+001 4.714515e+001 5.838447e+001 4.501833e+001 5.041414e+001 4.123397e+001 3.618155e+001 2.700005e+001 1.131233e+000 1.684988e+000 1.756823e+000 2.419261e+000 2.217220e+000 2.289905e+000 2.574711e+000 2.394419e+000 2.353169e+000 2.204960e+000 1.999490e+000 1.649467e+000 2.134210e+000
<GCONST> 1.011395e+002
<TRANSP> 5
 0.000000e+000 1.000000e+000 0.000000e+000 0.000000e+000 0.000000e+000
 0.000000e+000 6.000000e-001 4.000000e-001 0.000000e+000 0.000000e+000
 0.000000e+000 0.000000e+000 6.000000e-001 4.000000e-001 0.000000e+000
 0.000000e+000 0.000000e+000 0.000000e+000 7.000000e-001 3.000000e-001
 0.000000e+000 0.000000e+000 0.000000e+000 0.000000e+000 0.000000e+000
<ENDHMM>
~h "d"
<BEGINHMM>
<NUMSTATES> 5
<STATE> 2
<MEAN> 25
 -3.409819e-008 9.392090e-009 5.997359e-009 -3.569183e-008 8.812157e-008 2.244295e-008 -2.435720e-008 4.588545e-008 3.120324e-008 -1.279625e-008 3.150499e-008 1.618155e-008 -1.420885e-003 -4.159432e-003 2.885503e-003 -3.371050e-003 1.861067e-003 6.800673e-004 -6.284463e-004 -2.928789e-003 7.931115e-003 -3.930187e-003 4.606651e-003 4.781970e-004 1.776792e-002
<VARIANCE> 25
 4.233403e+001 4.530307e+001 5.279357e+001 7.786665e+001 5.077378e+001 4.714515e+001 5.838447e+001 4.501833e+001 5.041414e+001 4.123397e+001 3.618155e+001 2.700005e+001 1.131233e+000 1.684988e+000 1.756823e+000 2.419261e+000 2.217220e+000 2.289905e+000 2.574711e+000 2.394419e+000 2.353169e+000 2.204960e+000 1.999490e+000 1.649467e+000 2.134210e+000
<GCONST> 1.011395e+002
<STATE> 3
<MEAN> 25
 -3.409819e-008 9.392090e-009 5.997359e-009 -3.569183e-008 8.812157e-008 2.244295e-008 -2.435720e-008 4.588545e-008 3.120324e-008 -1.279625e-008 3.150499e-008 1.618155e-008 -1.420885e-003 -4.159432e-003 2.885503e-003 -3.371050e-003 1.861067e-003 6.800673e-004 -6.284463e-004 -2.928789e-003 7.931115e-003 -3.930187e-003 4.606651e-003 4.781970e-004 1.776792e-002
<VARIANCE> 25
 4.233403e+001 4.530307e+001 5.279357e+001 7.786665e+001 5.077378e+001 4.714515e+001 5.838447e+001 4.501833e+001 5.041414e+001 4.123397e+001 3.618155e+001 2.700005e+001 1.131233e+000 1.684988e+000 1.756823e+000 2.419261e+000 2.217220e+000 2.289905e+000 2.574711e+000 2.394419e+000 2.353169e+000 2.204960e+000 1.999490e+000 1.649467e+000 2.134210e+000
<GCONST> 1.011395e+002
<STATE> 4
<MEAN> 25
 -3.409819e-008 9.392090e-009 5.997359e-009 -3.569183e-008 8.812157e-008 2.244295e-008 -2.435720e-008 4.588545e-008 3.120324e-008 -1.279625e-008 3.150499e-008 1.618155e-008 -1.420885e-003 -4.159432e-003 2.885503e-003 -3.371050e-003 1.861067e-003 6.800673e-004 -6.284463e-004 -2.928789e-003 7.931115e-003 -3.930187e-003 4.606651e-003 4.781970e-004 1.776792e-002
<VARIANCE> 25
 4.233403e+001 4.530307e+001 5.279357e+001 7.786665e+001 5.077378e+001 4.714515e+001 5.838447e+001 4.501833e+001 5.041414e+001 4.123397e+001 3.618155e+001 2.700005e+001 1.131233e+000 1.684988e+000 1.756823e+000 2.419261e+000 2.217220e+000 2.289905e+000 2.574711e+000 2.394419e+000 2.353169e+000 2.204960e+000 1.999490e+000 1.649467e+000 2.134210e+000
<GCONST> 1.011395e+002
<TRANSP> 5
 0.000000e+000 1.000000e+000 0.000000e+000 0.000000e+000 0.000000e+000
 0.000000e+000 6.000000e-001 4.000000e-001 0.000000e+000 0.000000e+000
 0.000000e+000 0.000000e+000 6.000000e-001 4.000000e-001 0.000000e+000
 0.000000e+000 0.000000e+000 0.000000e+000 7.000000e-001 3.000000e-001
 0.000000e+000 0.000000e+000 0.000000e+000 0.000000e+000 0.000000e+000
<ENDHMM>
~h "i"
<BEGINHMM>
<NUMSTATES> 5
<STATE> 2
<MEAN> 25
 -3.409819e-008 9.392090e-009 5.997359e-009 -3.569183e-008 8.812157e-008 2.244295e-008 -2.435720e-008 4.588545e-008 3.120324e-008 -1.279625e-008 3.150499e-008 1.618155e-008 -1.420885e-003 -4.159432e-003 2.885503e-003 -3.371050e-003 1.861067e-003 6.800673e-004 -6.284463e-004 -2.928789e-003 7.931115e-003 -3.930187e-003 4.606651e-003 4.781970e-004 1.776792e-002
<VARIANCE> 25
 4.233403e+001 4.530307e+001 5.279357e+001 7.786665e+001 5.077378e+001 4.714515e+001 5.838447e+001 4.501833e+001 5.041414e+001 4.123397e+001 3.618155e+001 2.700005e+001 1.131233e+000 1.684988e+000 1.756823e+000 2.419261e+000 2.217220e+000 2.289905e+000 2.574711e+000 2.394419e+000 2.353169e+000 2.204960e+000 1.999490e+000 1.649467e+000 2.134210e+000
<GCONST> 1.011395e+002
<STATE> 3
<MEAN> 25
 -3.409819e-008 9.392090e-009 5.997359e-009 -3.569183e-008 8.812157e-008 2.244295e-008 -2.435720e-008 4.588545e-008 3.120324e-008 -1.279625e-008 3.150499e-008 1.618155e-008 -1.420885e-003 -4.159432e-003 2.885503e-003 -3.371050e-003 1.861067e-003 6.800673e-004 -6.284463e-004 -2.928789e-003 7.931115e-003 -3.930187e-003 4.606651e-003 4.781970e-004 1.776792e-002
<VARIANCE> 25
 4.233403e+001 4.530307e+001 5.279357e+001 7.786665e+001 5.077378e+001 4.714515e+001 5.838447e+001 4.501833e+001 5.041414e+001 4.123397e+001 3.618155e+001 2.700005e+001 1.131233e+000 1.684988e+000 1.756823e+000 2.419261e+000 2.217220e+000 2.289905e+000 2.574711e+000 2.394419e+000 2.353169e+000 2.204960e+000 1.999490e+000 1.649467e+000 2.134210e+000
<GCONST> 1.011395e+002
<STATE> 4
<MEAN> 25
 -3.409819e-008 9.392090e-009 5.997359e-009 -3.569183e-008 8.812157e-008 2.244295e-008 -2.435720e-008 4.588545e-008 3.120324e-008 -1.279625e-008 3.150499e-008 1.618155e-008 -1.420885e-003 -4.159432e-003 2.885503e-003 -3.371050e-003 1.861067e-003 6.800673e-004 -6.284463e-004 -2.928789e-003 7.931115e-003 -3.930187e-003 4.606651e-003 4.781970e-004 1.776792e-002
<VARIANCE> 25
 4.233403e+001 4.530307e+001 5.279357e+001 7.786665e+001 5.077378e+001 4.714515e+001 5.838447e+001 4.501833e+001 5.041414e+001 4.123397e+001 3.618155e+001 2.700005e+001 1.131233e+000 1.684988e+000 1.756823e+000 2.419261e+000 2.217220e+000 2.289905e+000 2.574711e+000 2.394419e+000 2.353169e+000 2.204960e+000 1.999490e+000 1.649467e+000 2.134210e+000
<GCONST> 1.011395e+002
<TRANSP> 5
 0.000000e+000 1.000000e+000 0.000000e+000 0.000000e+000 0.000000e+000
 0.000000e+000 6.000000e-001 4.000000e-001 0.000000e+000 0.000000e+000
 0.000000e+000 0.000000e+000 6.000000e-001 4.000000e-001 0.000000e+000
 0.000000e+000 0.000000e+000 0.000000e+000 7.000000e-001 3.000000e-001
 0.000000e+000 0.000000e+000 0.000000e+000 0.000000e+000 0.000000e+000
<ENDHMM>
~h "sy"
<BEGINHMM>
<NUMSTATES> 5
<STATE> 2
<MEAN> 25
 -3.409819e-008 9.392090e-009 5.997359e-009 -3.569183e-008 8.812157e-008 2.244295e-008 -2.435720e-008 4.588545e-008 3.120324e-008 -1.279625e-008 3.150499e-008 1.618155e-008 -1.420885e-003 -4.159432e-003 2.885503e-003 -3.371050e-003 1.861067e-003 6.800673e-004 -6.284463e-004 -2.928789e-003 7.931115e-003 -3.930187e-003 4.606651e-003 4.781970e-004 1.776792e-002
<VARIANCE> 25
 4.233403e+001 4.530307e+001 5.279357e+001 7.786665e+001 5.077378e+001 4.714515e+001 5.838447e+001 4.501833e+001 5.041414e+001 4.123397e+001 3.618155e+001 2.700005e+001 1.131233e+000 1.684988e+000 1.756823e+000 2.419261e+000 2.217220e+000 2.289905e+000 2.574711e+000 2.394419e+000 2.353169e+000 2.204960e+000 1.999490e+000 1.649467e+000 2.134210e+000
<GCONST> 1.011395e+002
<STATE> 3
<MEAN> 25
 -3.409819e-008 9.392090e-009 5.997359e-009 -3.569183e-008 8.812157e-008 2.244295e-008 -2.435720e-008 4.588545e-008 3.120324e-008 -1.279625e-008 3.150499e-008 1.618155e-008 -1.420885e-003 -4.159432e-003 2.885503e-003 -3.371050e-003 1.861067e-003 6.800673e-004 -6.284463e-004 -2.928789e-003 7.931115e-003 -3.930187e-003 4.606651e-003 4.781970e-004 1.776792e-002
<VARIANCE> 25
 4.233403e+001 4.530307e+001 5.279357e+001 7.786665e+001 5.077378e+001 4.714515e+001 5.838447e+001 4.501833e+001 5.041414e+001 4.123397e+001 3.618155e+001 2.700005e+001 1.131233e+000 1.684988e+000 1.756823e+000 2.419261e+000 2.217220e+000 2.289905e+000 2.574711e+000 2.394419e+000 2.353169e+000 2.204960e+000 1.999490e+000 1.649467e+000 2.134210e+000
<GCONST> 1.011395e+002
<STATE> 4
<MEAN> 25
 -3.409819e-008 9.392090e-009 5.997359e-009 -3.569183e-008 8.812157e-008 2.244295e-008 -2.435720e-008 4.588545e-008 3.120324e-008 -1.279625e-008 3.150499e-008 1.618155e-008 -1.420885e-003 -4.159432e-003 2.885503e-003 -3.371050e-003 1.861067e-003 6.800673e-004 -6.284463e-004 -2.928789e-003 7.931115e-003 -3.930187e-003 4.606651e-003 4.781970e-004 1.776792e-002
<VARIANCE> 25
 4.233403e+001 4.530307e+001 5.279357e+001 7.786665e+001 5.077378e+001 4.714515e+001 5.838447e+001 4.501833e+001 5.041414e+001 4.123397e+001 3.618155e+001 2.700005e+001 1.131233e+000 1.684988e+000 1.756823e+000 2.419261e+000 2.217220e+000 2.289905e+000 2.574711e+000 2.394419e+000 2.353169e+000 2.204960e+000 1.999490e+000 1.649467e+000 2.134210e+000
<GCONST> 1.011395e+002
<TRANSP> 5
 0.000000e+000 1.000000e+000 0.000000e+000 0.000000e+000 0.000000e+000
 0.000000e+000 6.000000e-001 4.000000e-001 0.000000e+000 0.000000e+000
 0.000000e+000 0.000000e+000 6.000000e-001 4.000000e-001 0.000000e+000
 0.000000e+000 0.000000e+000 0.000000e+000 7.000000e-001 3.000000e-001
 0.000000e+000 0.000000e+000 0.000000e+000 0.000000e+000 0.000000e+000
<ENDHMM>
~h "h"
<BEGINHMM>
<NUMSTATES> 5
<STATE> 2
<MEAN> 25
 -3.409819e-008 9.392090e-009 5.997359e-009 -3.569183e-008 8.812157e-008 2.244295e-008 -2.435720e-008 4.588545e-008 3.120324e-008 -1.279625e-008 3.150499e-008 1.618155e-008 -1.420885e-003 -4.159432e-003 2.885503e-003 -3.371050e-003 1.861067e-003 6.800673e-004 -6.284463e-004 -2.928789e-003 7.931115e-003 -3.930187e-003 4.606651e-003 4.781970e-004 1.776792e-002
<VARIANCE> 25
 4.233403e+001 4.530307e+001 5.279357e+001 7.786665e+001 5.077378e+001 4.714515e+001 5.838447e+001 4.501833e+001 5.041414e+001 4.123397e+001 3.618155e+001 2.700005e+001 1.131233e+000 1.684988e+000 1.756823e+000 2.419261e+000 2.217220e+000 2.289905e+000 2.574711e+000 2.394419e+000 2.353169e+000 2.204960e+000 1.999490e+000 1.649467e+000 2.134210e+000
<GCONST> 1.011395e+002
<STATE> 3
<MEAN> 25
 -3.409819e-008 9.392090e-009 5.997359e-009 -3.569183e-008 8.812157e-008 2.244295e-008 -2.435720e-008 4.588545e-008 3.120324e-008 -1.279625e-008 3.150499e-008 1.618155e-008 -1.420885e-003 -4.159432e-003 2.885503e-003 -3.371050e-003 1.861067e-003 6.800673e-004 -6.284463e-004 -2.928789e-003 7.931115e-003 -3.930187e-003 4.606651e-003 4.781970e-004 1.776792e-002
<VARIANCE> 25
 4.233403e+001 4.530307e+001 5.279357e+001 7.786665e+001 5.077378e+001 4.714515e+001 5.838447e+001 4.501833e+001 5.041414e+001 4.123397e+001 3.618155e+001 2.700005e+001 1.131233e+000 1.684988e+000 1.756823e+000 2.419261e+000 2.217220e+000 2.289905e+000 2.574711e+000 2.394419e+000 2.353169e+000 2.204960e+000 1.999490e+000 1.649467e+000 2.134210e+000
<GCONST> 1.011395e+002
<STATE> 4
<MEAN> 25
 -3.409819e-008 9.392090e-009 5.997359e-009 -3.569183e-008 8.812157e-008 2.244295e-008 -2.435720e-008 4.588545e-008 3.120324e-008 -1.279625e-008 3.150499e-008 1.618155e-008 -1.420885e-003 -4.159432e-003 2.885503e-003 -3.371050e-003 1.861067e-003 6.800673e-004 -6.284463e-004 -2.928789e-003 7.931115e-003 -3.930187e-003 4.606651e-003 4.781970e-004 1.776792e-002
<VARIANCE> 25
 4.233403e+001 4.530307e+001 5.279357e+001 7.786665e+001 5.077378e+001 4.714515e+001 5.838447e+001 4.501833e+001 5.041414e+001 4.123397e+001 3.618155e+001 2.700005e+001 1.131233e+000 1.684988e+000 1.756823e+000 2.419261e+000 2.217220e+000 2.289905e+000 2.574711e+000 2.394419e+000 2.353169e+000 2.204960e+000 1.999490e+000 1.649467e+000 2.134210e+000
<GCONST> 1.011395e+002
<TRANSP> 5
 0.000000e+000 1.000000e+000 0.000000e+000 0.000000e+000 0.000000e+000
 0.000000e+000 6.000000e-001 4.000000e-001 0.000000e+000 0.000000e+000
 0.000000e+000 0.000000e+000 6.000000e-001 4.000000e-001 0.000000e+000
 0.000000e+000 0.000000e+000 0.000000e+000 7.000000e-001 3.000000e-001
 0.000000e+000 0.000000e+000 0.000000e+000 0.000000e+000 0.000000e+000
<ENDHMM>
~h "j"
<BEGINHMM>
<NUMSTATES> 5
<STATE> 2
<MEAN> 25
 -3.409819e-008 9.392090e-009 5.997359e-009 -3.569183e-008 8.812157e-008 2.244295e-008 -2.435720e-008 4.588545e-008 3.120324e-008 -1.279625e-008 3.150499e-008 1.618155e-008 -1.420885e-003 -4.159432e-003 2.885503e-003 -3.371050e-003 1.861067e-003 6.800673e-004 -6.284463e-004 -2.928789e-003 7.931115e-003 -3.930187e-003 4.606651e-003 4.781970e-004 1.776792e-002
<VARIANCE> 25
 4.233403e+001 4.530307e+001 5.279357e+001 7.786665e+001 5.077378e+001 4.714515e+001 5.838447e+001 4.501833e+001 5.041414e+001 4.123397e+001 3.618155e+001 2.700005e+001 1.131233e+000 1.684988e+000 1.756823e+000 2.419261e+000 2.217220e+000 2.289905e+000 2.574711e+000 2.394419e+000 2.353169e+000 2.204960e+000 1.999490e+000 1.649467e+000 2.134210e+000
<GCONST> 1.011395e+002
<STATE> 3
<MEAN> 25
 -3.409819e-008 9.392090e-009 5.997359e-009 -3.569183e-008 8.812157e-008 2.244295e-008 -2.435720e-008 4.588545e-008 3.120324e-008 -1.279625e-008 3.150499e-008 1.618155e-008 -1.420885e-003 -4.159432e-003 2.885503e-003 -3.371050e-003 1.861067e-003 6.800673e-004 -6.284463e-004 -2.928789e-003 7.931115e-003 -3.930187e-003 4.606651e-003 4.781970e-004 1.776792e-002
<VARIANCE> 25
 4.233403e+001 4.530307e+001 5.279357e+001 7.786665e+001 5.077378e+001 4.714515e+001 5.838447e+001 4.501833e+001 5.041414e+001 4.123397e+001 3.618155e+001 2.700005e+001 1.131233e+000 1.684988e+000 1.756823e+000 2.419261e+000 2.217220e+000 2.289905e+000 2.574711e+000 2.394419e+000 2.353169e+000 2.204960e+000 1.999490e+000 1.649467e+000 2.134210e+000
<GCONST> 1.011395e+002
<STATE> 4
<MEAN> 25
 -3.409819e-008 9.392090e-009 5.997359e-009 -3.569183e-008 8.812157e-008 2.244295e-008 -2.435720e-008 4.588545e-008 3.120324e-008 -1.279625e-008 3.150499e-008 1.618155e-008 -1.420885e-003 -4.159432e-003 2.885503e-003 -3.371050e-003 1.861067e-003 6.800673e-004 -6.284463e-004 -2.928789e-003 7.931115e-003 -3.930187e-003 4.606651e-003 4.781970e-004 1.776792e-002
<VARIANCE> 25
 4.233403e+001 4.530307e+001 5.279357e+001 7.786665e+001 5.077378e+001 4.714515e+001 5.838447e+001 4.501833e+001 5.041414e+001 4.123397e+001 3.618155e+001 2.700005e+001 1.131233e+000 1.684988e+000 1.756823e+000 2.419261e+000 2.217220e+000 2.289905e+000 2.574711e+000 2.394419e+000 2.353169e+000 2.204960e+000 1.999490e+000 1.649467e+000 2.134210e+000
<GCONST> 1.011395e+002
<TRANSP> 5
 0.000000e+000 1.000000e+000 0.000000e+000 0.000000e+000 0.000000e+000
 0.000000e+000 6.000000e-001 4.000000e-001 0.000000e+000 0.000000e+000
 0.000000e+000 0.000000e+000 6.000000e-001 4.000000e-001 0.000000e+000
 0.000000e+000 0.000000e+000 0.000000e+000 7.000000e-001 3.000000e-001
 0.000000e+000 0.000000e+000 0.000000e+000 0.000000e+000 0.000000e+000
<ENDHMM>
~h "l"
<BEGINHMM>
<NUMSTATES> 5
<STATE> 2
<MEAN> 25
 -3.409819e-008 9.392090e-009 5.997359e-009 -3.569183e-008 8.812157e-008 2.244295e-008 -2.435720e-008 4.588545e-008 3.120324e-008 -1.279625e-008 3.150499e-008 1.618155e-008 -1.420885e-003 -4.159432e-003 2.885503e-003 -3.371050e-003 1.861067e-003 6.800673e-004 -6.284463e-004 -2.928789e-003 7.931115e-003 -3.930187e-003 4.606651e-003 4.781970e-004 1.776792e-002
<VARIANCE> 25
 4.233403e+001 4.530307e+001 5.279357e+001 7.786665e+001 5.077378e+001 4.714515e+001 5.838447e+001 4.501833e+001 5.041414e+001 4.123397e+001 3.618155e+001 2.700005e+001 1.131233e+000 1.684988e+000 1.756823e+000 2.419261e+000 2.217220e+000 2.289905e+000 2.574711e+000 2.394419e+000 2.353169e+000 2.204960e+000 1.999490e+000 1.649467e+000 2.134210e+000
<GCONST> 1.011395e+002
<STATE> 3
<MEAN> 25
 -3.409819e-008 9.392090e-009 5.997359e-009 -3.569183e-008 8.812157e-008 2.244295e-008 -2.435720e-008 4.588545e-008 3.120324e-008 -1.279625e-008 3.150499e-008 1.618155e-008 -1.420885e-003 -4.159432e-003 2.885503e-003 -3.371050e-003 1.861067e-003 6.800673e-004 -6.284463e-004 -2.928789e-003 7.931115e-003 -3.930187e-003 4.606651e-003 4.781970e-004 1.776792e-002
<VARIANCE> 25
 4.233403e+001 4.530307e+001 5.279357e+001 7.786665e+001 5.077378e+001 4.714515e+001 5.838447e+001 4.501833e+001 5.041414e+001 4.123397e+001 3.618155e+001 2.700005e+001 1.131233e+000 1.684988e+000 1.756823e+000 2.419261e+000 2.217220e+000 2.289905e+000 2.574711e+000 2.394419e+000 2.353169e+000 2.204960e+000 1.999490e+000 1.649467e+000 2.134210e+000
<GCONST> 1.011395e+002
<STATE> 4
<MEAN> 25
 -3.409819e-008 9.392090e-009 5.997359e-009 -3.569183e-008 8.812157e-008 2.244295e-008 -2.435720e-008 4.588545e-008 3.120324e-008 -1.279625e-008 3.150499e-008 1.618155e-008 -1.420885e-003 -4.159432e-003 2.885503e-003 -3.371050e-003 1.861067e-003 6.800673e-004 -6.284463e-004 -2.928789e-003 7.931115e-003 -3.930187e-003 4.606651e-003 4.781970e-004 1.776792e-002
<VARIANCE> 25
 4.233403e+001 4.530307e+001 5.279357e+001 7.786665e+001 5.077378e+001 4.714515e+001 5.838447e+001 4.501833e+001 5.041414e+001 4.123397e+001 3.618155e+001 2.700005e+001 1.131233e+000 1.684988e+000 1.756823e+000 2.419261e+000 2.217220e+000 2.289905e+000 2.574711e+000 2.394419e+000 2.353169e+000 2.204960e+000 1.999490e+000 1.649467e+000 2.134210e+000
<GCONST> 1.011395e+002
<TRANSP> 5
 0.000000e+000 1.000000e+000 0.000000e+000 0.000000e+000 0.000000e+000
 0.000000e+000 6.000000e-001 4.000000e-001 0.000000e+000 0.000000e+000
 0.000000e+000 0.000000e+000 6.000000e-001 4.000000e-001 0.000000e+000
 0.000000e+000 0.000000e+000 0.000000e+000 7.000000e-001 3.000000e-001
 0.000000e+000 0.000000e+000 0.000000e+000 0.000000e+000 0.000000e+000
<ENDHMM>
~h "o"
<BEGINHMM>
<NUMSTATES> 5
<STATE> 2
<MEAN> 25
 -3.409819e-008 9.392090e-009 5.997359e-009 -3.569183e-008 8.812157e-008 2.244295e-008 -2.435720e-008 4.588545e-008 3.120324e-008 -1.279625e-008 3.150499e-008 1.618155e-008 -1.420885e-003 -4.159432e-003 2.885503e-003 -3.371050e-003 1.861067e-003 6.800673e-004 -6.284463e-004 -2.928789e-003 7.931115e-003 -3.930187e-003 4.606651e-003 4.781970e-004 1.776792e-002
<VARIANCE> 25
 4.233403e+001 4.530307e+001 5.279357e+001 7.786665e+001 5.077378e+001 4.714515e+001 5.838447e+001 4.501833e+001 5.041414e+001 4.123397e+001 3.618155e+001 2.700005e+001 1.131233e+000 1.684988e+000 1.756823e+000 2.419261e+000 2.217220e+000 2.289905e+000 2.574711e+000 2.394419e+000 2.353169e+000 2.204960e+000 1.999490e+000 1.649467e+000 2.134210e+000
<GCONST> 1.011395e+002
<STATE> 3
<MEAN> 25
 -3.409819e-008 9.392090e-009 5.997359e-009 -3.569183e-008 8.812157e-008 2.244295e-008 -2.435720e-008 4.588545e-008 3.120324e-008 -1.279625e-008 3.150499e-008 1.618155e-008 -1.420885e-003 -4.159432e-003 2.885503e-003 -3.371050e-003 1.861067e-003 6.800673e-004 -6.284463e-004 -2.928789e-003 7.931115e-003 -3.930187e-003 4.606651e-003 4.781970e-004 1.776792e-002
<VARIANCE> 25
 4.233403e+001 4.530307e+001 5.279357e+001 7.786665e+001 5.077378e+001 4.714515e+001 5.838447e+001 4.501833e+001 5.041414e+001 4.123397e+001 3.618155e+001 2.700005e+001 1.131233e+000 1.684988e+000 1.756823e+000 2.419261e+000 2.217220e+000 2.289905e+000 2.574711e+000 2.394419e+000 2.353169e+000 2.204960e+000 1.999490e+000 1.649467e+000 2.134210e+000
<GCONST> 1.011395e+002
<STATE> 4
<MEAN> 25
 -3.409819e-008 9.392090e-009 5.997359e-009 -3.569183e-008 8.812157e-008 2.244295e-008 -2.435720e-008 4.588545e-008 3.120324e-008 -1.279625e-008 3.150499e-008 1.618155e-008 -1.420885e-003 -4.159432e-003 2.885503e-003 -3.371050e-003 1.861067e-003 6.800673e-004 -6.284463e-004 -2.928789e-003 7.931115e-003 -3.930187e-003 4.606651e-003 4.781970e-004 1.776792e-002
<VARIANCE> 25
 4.233403e+001 4.530307e+001 5.279357e+001 7.786665e+001 5.077378e+001 4.714515e+001 5.838447e+001 4.501833e+001 5.041414e+001 4.123397e+001 3.618155e+001 2.700005e+001 1.131233e+000 1.684988e+000 1.756823e+000 2.419261e+000 2.217220e+000 2.289905e+000 2.574711e+000 2.394419e+000 2.353169e+000 2.204960e+000 1.999490e+000 1.649467e+000 2.134210e+000
<GCONST> 1.011395e+002
<TRANSP> 5
 0.000000e+000 1.000000e+000 0.000000e+000 0.000000e+000 0.000000e+000
 0.000000e+000 6.000000e-001 4.000000e-001 0.000000e+000 0.000000e+000
 0.000000e+000 0.000000e+000 6.000000e-001 4.000000e-001 0.000000e+000
 0.000000e+000 0.000000e+000 0.000000e+000 7.000000e-001 3.000000e-001
 0.000000e+000 0.000000e+000 0.000000e+000 0.000000e+000 0.000000e+000
<ENDHMM>
~h "m"
<BEGINHMM>
<NUMSTATES> 5
<STATE> 2
<MEAN> 25
 -3.409819e-008 9.392090e-009 5.997359e-009 -3.569183e-008 8.812157e-008 2.244295e-008 -2.435720e-008 4.588545e-008 3.120324e-008 -1.279625e-008 3.150499e-008 1.618155e-008 -1.420885e-003 -4.159432e-003 2.885503e-003 -3.371050e-003 1.861067e-003 6.800673e-004 -6.284463e-004 -2.928789e-003 7.931115e-003 -3.930187e-003 4.606651e-003 4.781970e-004 1.776792e-002
<VARIANCE> 25
 4.233403e+001 4.530307e+001 5.279357e+001 7.786665e+001 5.077378e+001 4.714515e+001 5.838447e+001 4.501833e+001 5.041414e+001 4.123397e+001 3.618155e+001 2.700005e+001 1.131233e+000 1.684988e+000 1.756823e+000 2.419261e+000 2.217220e+000 2.289905e+000 2.574711e+000 2.394419e+000 2.353169e+000 2.204960e+000 1.999490e+000 1.649467e+000 2.134210e+000
<GCONST> 1.011395e+002
<STATE> 3
<MEAN> 25
 -3.409819e-008 9.392090e-009 5.997359e-009 -3.569183e-008 8.812157e-008 2.244295e-008 -2.435720e-008 4.588545e-008 3.120324e-008 -1.279625e-008 3.150499e-008 1.618155e-008 -1.420885e-003 -4.159432e-003 2.885503e-003 -3.371050e-003 1.861067e-003 6.800673e-004 -6.284463e-004 -2.928789e-003 7.931115e-003 -3.930187e-003 4.606651e-003 4.781970e-004 1.776792e-002
<VARIANCE> 25
 4.233403e+001 4.530307e+001 5.279357e+001 7.786665e+001 5.077378e+001 4.714515e+001 5.838447e+001 4.501833e+001 5.041414e+001 4.123397e+001 3.618155e+001 2.700005e+001 1.131233e+000 1.684988e+000 1.756823e+000 2.419261e+000 2.217220e+000 2.289905e+000 2.574711e+000 2.394419e+000 2.353169e+000 2.204960e+000 1.999490e+000 1.649467e+000 2.134210e+000
<GCONST> 1.011395e+002
<STATE> 4
<MEAN> 25
 -3.409819e-008 9.392090e-009 5.997359e-009 -3.569183e-008 8.812157e-008 2.244295e-008 -2.435720e-008 4.588545e-008 3.120324e-008 -1.279625e-008 3.150499e-008 1.618155e-008 -1.420885e-003 -4.159432e-003 2.885503e-003 -3.371050e-003 1.861067e-003 6.800673e-004 -6.284463e-004 -2.928789e-003 7.931115e-003 -3.930187e-003 4.606651e-003 4.781970e-004 1.776792e-002
<VARIANCE> 25
 4.233403e+001 4.530307e+001 5.279357e+001 7.786665e+001 5.077378e+001 4.714515e+001 5.838447e+001 4.501833e+001 5.041414e+001 4.123397e+001 3.618155e+001 2.700005e+001 1.131233e+000 1.684988e+000 1.756823e+000 2.419261e+000 2.217220e+000 2.289905e+000 2.574711e+000 2.394419e+000 2.353169e+000 2.204960e+000 1.999490e+000 1.649467e+000 2.134210e+000
<GCONST> 1.011395e+002
<TRANSP> 5
 0.000000e+000 1.000000e+000 0.000000e+000 0.000000e+000 0.000000e+000
 0.000000e+000 6.000000e-001 4.000000e-001 0.000000e+000 0.000000e+000
 0.000000e+000 0.000000e+000 6.000000e-001 4.000000e-001 0.000000e+000
 0.000000e+000 0.000000e+000 0.000000e+000 7.000000e-001 3.000000e-001
 0.000000e+000 0.000000e+000 0.000000e+000 0.000000e+000 0.000000e+000
<ENDHMM>
~h "oi"
<BEGINHMM>
<NUMSTATES> 5
<STATE> 2
<MEAN> 25
 -3.409819e-008 9.392090e-009 5.997359e-009 -3.569183e-008 8.812157e-008 2.244295e-008 -2.435720e-008 4.588545e-008 3.120324e-008 -1.279625e-008 3.150499e-008 1.618155e-008 -1.420885e-003 -4.159432e-003 2.885503e-003 -3.371050e-003 1.861067e-003 6.800673e-004 -6.284463e-004 -2.928789e-003 7.931115e-003 -3.930187e-003 4.606651e-003 4.781970e-004 1.776792e-002
<VARIANCE> 25
 4.233403e+001 4.530307e+001 5.279357e+001 7.786665e+001 5.077378e+001 4.714515e+001 5.838447e+001 4.501833e+001 5.041414e+001 4.123397e+001 3.618155e+001 2.700005e+001 1.131233e+000 1.684988e+000 1.756823e+000 2.419261e+000 2.217220e+000 2.289905e+000 2.574711e+000 2.394419e+000 2.353169e+000 2.204960e+000 1.999490e+000 1.649467e+000 2.134210e+000
<GCONST> 1.011395e+002
<STATE> 3
<MEAN> 25
 -3.409819e-008 9.392090e-009 5.997359e-009 -3.569183e-008 8.812157e-008 2.244295e-008 -2.435720e-008 4.588545e-008 3.120324e-008 -1.279625e-008 3.150499e-008 1.618155e-008 -1.420885e-003 -4.159432e-003 2.885503e-003 -3.371050e-003 1.861067e-003 6.800673e-004 -6.284463e-004 -2.928789e-003 7.931115e-003 -3.930187e-003 4.606651e-003 4.781970e-004 1.776792e-002
<VARIANCE> 25
 4.233403e+001 4.530307e+001 5.279357e+001 7.786665e+001 5.077378e+001 4.714515e+001 5.838447e+001 4.501833e+001 5.041414e+001 4.123397e+001 3.618155e+001 2.700005e+001 1.131233e+000 1.684988e+000 1.756823e+000 2.419261e+000 2.217220e+000 2.289905e+000 2.574711e+000 2.394419e+000 2.353169e+000 2.204960e+000 1.999490e+000 1.649467e+000 2.134210e+000
<GCONST> 1.011395e+002
<STATE> 4
<MEAN> 25
 -3.409819e-008 9.392090e-009 5.997359e-009 -3.569183e-008 8.812157e-008 2.244295e-008 -2.435720e-008 4.588545e-008 3.120324e-008 -1.279625e-008 3.150499e-008 1.618155e-008 -1.420885e-003 -4.159432e-003 2.885503e-003 -3.371050e-003 1.861067e-003 6.800673e-004 -6.284463e-004 -2.928789e-003 7.931115e-003 -3.930187e-003 4.606651e-003 4.781970e-004 1.776792e-002
<VARIANCE> 25
 4.233403e+001 4.530307e+001 5.279357e+001 7.786665e+001 5.077378e+001 4.714515e+001 5.838447e+001 4.501833e+001 5.041414e+001 4.123397e+001 3.618155e+001 2.700005e+001 1.131233e+000 1.684988e+000 1.756823e+000 2.419261e+000 2.217220e+000 2.289905e+000 2.574711e+000 2.394419e+000 2.353169e+000 2.204960e+000 1.999490e+000 1.649467e+000 2.134210e+000
<GCONST> 1.011395e+002
<TRANSP> 5
 0.000000e+000 1.000000e+000 0.000000e+000 0.000000e+000 0.000000e+000
 0.000000e+000 6.000000e-001 4.000000e-001 0.000000e+000 0.000000e+000
 0.000000e+000 0.000000e+000 6.000000e-001 4.000000e-001 0.000000e+000
 0.000000e+000 0.000000e+000 0.000000e+000 7.000000e-001 3.000000e-001
 0.000000e+000 0.000000e+000 0.000000e+000 0.000000e+000 0.000000e+000
<ENDHMM>
~h "ng"
<BEGINHMM>
<NUMSTATES> 5
<STATE> 2
<MEAN> 25
 -3.409819e-008 9.392090e-009 5.997359e-009 -3.569183e-008 8.812157e-008 2.244295e-008 -2.435720e-008 4.588545e-008 3.120324e-008 -1.279625e-008 3.150499e-008 1.618155e-008 -1.420885e-003 -4.159432e-003 2.885503e-003 -3.371050e-003 1.861067e-003 6.800673e-004 -6.284463e-004 -2.928789e-003 7.931115e-003 -3.930187e-003 4.606651e-003 4.781970e-004 1.776792e-002
<VARIANCE> 25
 4.233403e+001 4.530307e+001 5.279357e+001 7.786665e+001 5.077378e+001 4.714515e+001 5.838447e+001 4.501833e+001 5.041414e+001 4.123397e+001 3.618155e+001 2.700005e+001 1.131233e+000 1.684988e+000 1.756823e+000 2.419261e+000 2.217220e+000 2.289905e+000 2.574711e+000 2.394419e+000 2.353169e+000 2.204960e+000 1.999490e+000 1.649467e+000 2.134210e+000
<GCONST> 1.011395e+002
<STATE> 3
<MEAN> 25
 -3.409819e-008 9.392090e-009 5.997359e-009 -3.569183e-008 8.812157e-008 2.244295e-008 -2.435720e-008 4.588545e-008 3.120324e-008 -1.279625e-008 3.150499e-008 1.618155e-008 -1.420885e-003 -4.159432e-003 2.885503e-003 -3.371050e-003 1.861067e-003 6.800673e-004 -6.284463e-004 -2.928789e-003 7.931115e-003 -3.930187e-003 4.606651e-003 4.781970e-004 1.776792e-002
<VARIANCE> 25
 4.233403e+001 4.530307e+001 5.279357e+001 7.786665e+001 5.077378e+001 4.714515e+001 5.838447e+001 4.501833e+001 5.041414e+001 4.123397e+001 3.618155e+001 2.700005e+001 1.131233e+000 1.684988e+000 1.756823e+000 2.419261e+000 2.217220e+000 2.289905e+000 2.574711e+000 2.394419e+000 2.353169e+000 2.204960e+000 1.999490e+000 1.649467e+000 2.134210e+000
<GCONST> 1.011395e+002
<STATE> 4
<MEAN> 25
 -3.409819e-008 9.392090e-009 5.997359e-009 -3.569183e-008 8.812157e-008 2.244295e-008 -2.435720e-008 4.588545e-008 3.120324e-008 -1.279625e-008 3.150499e-008 1.618155e-008 -1.420885e-003 -4.159432e-003 2.885503e-003 -3.371050e-003 1.861067e-003 6.800673e-004 -6.284463e-004 -2.928789e-003 7.931115e-003 -3.930187e-003 4.606651e-003 4.781970e-004 1.776792e-002
<VARIANCE> 25
 4.233403e+001 4.530307e+001 5.279357e+001 7.786665e+001 5.077378e+001 4.714515e+001 5.838447e+001 4.501833e+001 5.041414e+001 4.123397e+001 3.618155e+001 2.700005e+001 1.131233e+000 1.684988e+000 1.756823e+000 2.419261e+000 2.217220e+000 2.289905e+000 2.574711e+000 2.394419e+000 2.353169e+000 2.204960e+000 1.999490e+000 1.649467e+000 2.134210e+000
<GCONST> 1.011395e+002
<TRANSP> 5
 0.000000e+000 1.000000e+000 0.000000e+000 0.000000e+000 0.000000e+000
 0.000000e+000 6.000000e-001 4.000000e-001 0.000000e+000 0.000000e+000
 0.000000e+000 0.000000e+000 6.000000e-001 4.000000e-001 0.000000e+000
 0.000000e+000 0.000000e+000 0.000000e+000 7.000000e-001 3.000000e-001
 0.000000e+000 0.000000e+000 0.000000e+000 0.000000e+000 0.000000e+000
<ENDHMM>
~h "n"
<BEGINHMM>
<NUMSTATES> 5
<STATE> 2
<MEAN> 25
 -3.409819e-008 9.392090e-009 5.997359e-009 -3.569183e-008 8.812157e-008 2.244295e-008 -2.435720e-008 4.588545e-008 3.120324e-008 -1.279625e-008 3.150499e-008 1.618155e-008 -1.420885e-003 -4.159432e-003 2.885503e-003 -3.371050e-003 1.861067e-003 6.800673e-004 -6.284463e-004 -2.928789e-003 7.931115e-003 -3.930187e-003 4.606651e-003 4.781970e-004 1.776792e-002
<VARIANCE> 25
 4.233403e+001 4.530307e+001 5.279357e+001 7.786665e+001 5.077378e+001 4.714515e+001 5.838447e+001 4.501833e+001 5.041414e+001 4.123397e+001 3.618155e+001 2.700005e+001 1.131233e+000 1.684988e+000 1.756823e+000 2.419261e+000 2.217220e+000 2.289905e+000 2.574711e+000 2.394419e+000 2.353169e+000 2.204960e+000 1.999490e+000 1.649467e+000 2.134210e+000
<GCONST> 1.011395e+002
<STATE> 3
<MEAN> 25
 -3.409819e-008 9.392090e-009 5.997359e-009 -3.569183e-008 8.812157e-008 2.244295e-008 -2.435720e-008 4.588545e-008 3.120324e-008 -1.279625e-008 3.150499e-008 1.618155e-008 -1.420885e-003 -4.159432e-003 2.885503e-003 -3.371050e-003 1.861067e-003 6.800673e-004 -6.284463e-004 -2.928789e-003 7.931115e-003 -3.930187e-003 4.606651e-003 4.781970e-004 1.776792e-002
<VARIANCE> 25
 4.233403e+001 4.530307e+001 5.279357e+001 7.786665e+001 5.077378e+001 4.714515e+001 5.838447e+001 4.501833e+001 5.041414e+001 4.123397e+001 3.618155e+001 2.700005e+001 1.131233e+000 1.684988e+000 1.756823e+000 2.419261e+000 2.217220e+000 2.289905e+000 2.574711e+000 2.394419e+000 2.353169e+000 2.204960e+000 1.999490e+000 1.649467e+000 2.134210e+000
<GCONST> 1.011395e+002
<STATE> 4
<MEAN> 25
 -3.409819e-008 9.392090e-009 5.997359e-009 -3.569183e-008 8.812157e-008 2.244295e-008 -2.435720e-008 4.588545e-008 3.120324e-008 -1.279625e-008 3.150499e-008 1.618155e-008 -1.420885e-003 -4.159432e-003 2.885503e-003 -3.371050e-003 1.861067e-003 6.800673e-004 -6.284463e-004 -2.928789e-003 7.931115e-003 -3.930187e-003 4.606651e-003 4.781970e-004 1.776792e-002
<VARIANCE> 25
 4.233403e+001 4.530307e+001 5.279357e+001 7.786665e+001 5.077378e+001 4.714515e+001 5.838447e+001 4.501833e+001 5.041414e+001 4.123397e+001 3.618155e+001 2.700005e+001 1.131233e+000 1.684988e+000 1.756823e+000 2.419261e+000 2.217220e+000 2.289905e+000 2.574711e+000 2.394419e+000 2.353169e+000 2.204960e+000 1.999490e+000 1.649467e+000 2.134210e+000
<GCONST> 1.011395e+002
<TRANSP> 5
 0.000000e+000 1.000000e+000 0.000000e+000 0.000000e+000 0.000000e+000
 0.000000e+000 6.000000e-001 4.000000e-001 0.000000e+000 0.000000e+000
 0.000000e+000 0.000000e+000 6.000000e-001 4.000000e-001 0.000000e+000
 0.000000e+000 0.000000e+000 0.000000e+000 7.000000e-001 3.000000e-001
 0.000000e+000 0.000000e+000 0.000000e+000 0.000000e+000 0.000000e+000
<ENDHMM>
~h "k"
<BEGINHMM>
<NUMSTATES> 5
<STATE> 2
<MEAN> 25
 -3.409819e-008 9.392090e-009 5.997359e-009 -3.569183e-008 8.812157e-008 2.244295e-008 -2.435720e-008 4.588545e-008 3.120324e-008 -1.279625e-008 3.150499e-008 1.618155e-008 -1.420885e-003 -4.159432e-003 2.885503e-003 -3.371050e-003 1.861067e-003 6.800673e-004 -6.284463e-004 -2.928789e-003 7.931115e-003 -3.930187e-003 4.606651e-003 4.781970e-004 1.776792e-002
<VARIANCE> 25
 4.233403e+001 4.530307e+001 5.279357e+001 7.786665e+001 5.077378e+001 4.714515e+001 5.838447e+001 4.501833e+001 5.041414e+001 4.123397e+001 3.618155e+001 2.700005e+001 1.131233e+000 1.684988e+000 1.756823e+000 2.419261e+000 2.217220e+000 2.289905e+000 2.574711e+000 2.394419e+000 2.353169e+000 2.204960e+000 1.999490e+000 1.649467e+000 2.134210e+000
<GCONST> 1.011395e+002
<STATE> 3
<MEAN> 25
 -3.409819e-008 9.392090e-009 5.997359e-009 -3.569183e-008 8.812157e-008 2.244295e-008 -2.435720e-008 4.588545e-008 3.120324e-008 -1.279625e-008 3.150499e-008 1.618155e-008 -1.420885e-003 -4.159432e-003 2.885503e-003 -3.371050e-003 1.861067e-003 6.800673e-004 -6.284463e-004 -2.928789e-003 7.931115e-003 -3.930187e-003 4.606651e-003 4.781970e-004 1.776792e-002
<VARIANCE> 25
 4.233403e+001 4.530307e+001 5.279357e+001 7.786665e+001 5.077378e+001 4.714515e+001 5.838447e+001 4.501833e+001 5.041414e+001 4.123397e+001 3.618155e+001 2.700005e+001 1.131233e+000 1.684988e+000 1.756823e+000 2.419261e+000 2.217220e+000 2.289905e+000 2.574711e+000 2.394419e+000 2.353169e+000 2.204960e+000 1.999490e+000 1.649467e+000 2.134210e+000
<GCONST> 1.011395e+002
<STATE> 4
<MEAN> 25
 -3.409819e-008 9.392090e-009 5.997359e-009 -3.569183e-008 8.812157e-008 2.244295e-008 -2.435720e-008 4.588545e-008 3.120324e-008 -1.279625e-008 3.150499e-008 1.618155e-008 -1.420885e-003 -4.159432e-003 2.885503e-003 -3.371050e-003 1.861067e-003 6.800673e-004 -6.284463e-004 -2.928789e-003 7.931115e-003 -3.930187e-003 4.606651e-003 4.781970e-004 1.776792e-002
<VARIANCE> 25
 4.233403e+001 4.530307e+001 5.279357e+001 7.786665e+001 5.077378e+001 4.714515e+001 5.838447e+001 4.501833e+001 5.041414e+001 4.123397e+001 3.618155e+001 2.700005e+001 1.131233e+000 1.684988e+000 1.756823e+000 2.419261e+000 2.217220e+000 2.289905e+000 2.574711e+000 2.394419e+000 2.353169e+000 2.204960e+000 1.999490e+000 1.649467e+000 2.134210e+000
<GCONST> 1.011395e+002
<TRANSP> 5
 0.000000e+000 1.000000e+000 0.000000e+000 0.000000e+000 0.000000e+000
 0.000000e+000 6.000000e-001 4.000000e-001 0.000000e+000 0.000000e+000
 0.000000e+000 0.000000e+000 6.000000e-001 4.000000e-001 0.000000e+000
 0.000000e+000 0.000000e+000 0.000000e+000 7.000000e-001 3.000000e-001
 0.000000e+000 0.000000e+000 0.000000e+000 0.000000e+000 0.000000e+000
<ENDHMM>
~h "u"
<BEGINHMM>
<NUMSTATES> 5
<STATE> 2
<MEAN> 25
 -3.409819e-008 9.392090e-009 5.997359e-009 -3.569183e-008 8.812157e-008 2.244295e-008 -2.435720e-008 4.588545e-008 3.120324e-008 -1.279625e-008 3.150499e-008 1.618155e-008 -1.420885e-003 -4.159432e-003 2.885503e-003 -3.371050e-003 1.861067e-003 6.800673e-004 -6.284463e-004 -2.928789e-003 7.931115e-003 -3.930187e-003 4.606651e-003 4.781970e-004 1.776792e-002
<VARIANCE> 25
 4.233403e+001 4.530307e+001 5.279357e+001 7.786665e+001 5.077378e+001 4.714515e+001 5.838447e+001 4.501833e+001 5.041414e+001 4.123397e+001 3.618155e+001 2.700005e+001 1.131233e+000 1.684988e+000 1.756823e+000 2.419261e+000 2.217220e+000 2.289905e+000 2.574711e+000 2.394419e+000 2.353169e+000 2.204960e+000 1.999490e+000 1.649467e+000 2.134210e+000
<GCONST> 1.011395e+002
<STATE> 3
<MEAN> 25
 -3.409819e-008 9.392090e-009 5.997359e-009 -3.569183e-008 8.812157e-008 2.244295e-008 -2.435720e-008 4.588545e-008 3.120324e-008 -1.279625e-008 3.150499e-008 1.618155e-008 -1.420885e-003 -4.159432e-003 2.885503e-003 -3.371050e-003 1.861067e-003 6.800673e-004 -6.284463e-004 -2.928789e-003 7.931115e-003 -3.930187e-003 4.606651e-003 4.781970e-004 1.776792e-002
<VARIANCE> 25
 4.233403e+001 4.530307e+001 5.279357e+001 7.786665e+001 5.077378e+001 4.714515e+001 5.838447e+001 4.501833e+001 5.041414e+001 4.123397e+001 3.618155e+001 2.700005e+001 1.131233e+000 1.684988e+000 1.756823e+000 2.419261e+000 2.217220e+000 2.289905e+000 2.574711e+000 2.394419e+000 2.353169e+000 2.204960e+000 1.999490e+000 1.649467e+000 2.134210e+000
<GCONST> 1.011395e+002
<STATE> 4
<MEAN> 25
 -3.409819e-008 9.392090e-009 5.997359e-009 -3.569183e-008 8.812157e-008 2.244295e-008 -2.435720e-008 4.588545e-008 3.120324e-008 -1.279625e-008 3.150499e-008 1.618155e-008 -1.420885e-003 -4.159432e-003 2.885503e-003 -3.371050e-003 1.861067e-003 6.800673e-004 -6.284463e-004 -2.928789e-003 7.931115e-003 -3.930187e-003 4.606651e-003 4.781970e-004 1.776792e-002
<VARIANCE> 25
 4.233403e+001 4.530307e+001 5.279357e+001 7.786665e+001 5.077378e+001 4.714515e+001 5.838447e+001 4.501833e+001 5.041414e+001 4.123397e+001 3.618155e+001 2.700005e+001 1.131233e+000 1.684988e+000 1.756823e+000 2.419261e+000 2.217220e+000 2.289905e+000 2.574711e+000 2.394419e+000 2.353169e+000 2.204960e+000 1.999490e+000 1.649467e+000 2.134210e+000
<GCONST> 1.011395e+002
<TRANSP> 5
 0.000000e+000 1.000000e+000 0.000000e+000 0.000000e+000 0.000000e+000
 0.000000e+000 6.000000e-001 4.000000e-001 0.000000e+000 0.000000e+000
 0.000000e+000 0.000000e+000 6.000000e-001 4.000000e-001 0.000000e+000
 0.000000e+000 0.000000e+000 0.000000e+000 7.000000e-001 3.000000e-001
 0.000000e+000 0.000000e+000 0.000000e+000 0.000000e+000 0.000000e+000
<ENDHMM>
~h "r"
<BEGINHMM>
<NUMSTATES> 5
<STATE> 2
<MEAN> 25
 -3.409819e-008 9.392090e-009 5.997359e-009 -3.569183e-008 8.812157e-008 2.244295e-008 -2.435720e-008 4.588545e-008 3.120324e-008 -1.279625e-008 3.150499e-008 1.618155e-008 -1.420885e-003 -4.159432e-003 2.885503e-003 -3.371050e-003 1.861067e-003 6.800673e-004 -6.284463e-004 -2.928789e-003 7.931115e-003 -3.930187e-003 4.606651e-003 4.781970e-004 1.776792e-002
<VARIANCE> 25
 4.233403e+001 4.530307e+001 5.279357e+001 7.786665e+001 5.077378e+001 4.714515e+001 5.838447e+001 4.501833e+001 5.041414e+001 4.123397e+001 3.618155e+001 2.700005e+001 1.131233e+000 1.684988e+000 1.756823e+000 2.419261e+000 2.217220e+000 2.289905e+000 2.574711e+000 2.394419e+000 2.353169e+000 2.204960e+000 1.999490e+000 1.649467e+000 2.134210e+000
<GCONST> 1.011395e+002
<STATE> 3
<MEAN> 25
 -3.409819e-008 9.392090e-009 5.997359e-009 -3.569183e-008 8.812157e-008 2.244295e-008 -2.435720e-008 4.588545e-008 3.120324e-008 -1.279625e-008 3.150499e-008 1.618155e-008 -1.420885e-003 -4.159432e-003 2.885503e-003 -3.371050e-003 1.861067e-003 6.800673e-004 -6.284463e-004 -2.928789e-003 7.931115e-003 -3.930187e-003 4.606651e-003 4.781970e-004 1.776792e-002
<VARIANCE> 25
 4.233403e+001 4.530307e+001 5.279357e+001 7.786665e+001 5.077378e+001 4.714515e+001 5.838447e+001 4.501833e+001 5.041414e+001 4.123397e+001 3.618155e+001 2.700005e+001 1.131233e+000 1.684988e+000 1.756823e+000 2.419261e+000 2.217220e+000 2.289905e+000 2.574711e+000 2.394419e+000 2.353169e+000 2.204960e+000 1.999490e+000 1.649467e+000 2.134210e+000
<GCONST> 1.011395e+002
<STATE> 4
<MEAN> 25
 -3.409819e-008 9.392090e-009 5.997359e-009 -3.569183e-008 8.812157e-008 2.244295e-008 -2.435720e-008 4.588545e-008 3.120324e-008 -1.279625e-008 3.150499e-008 1.618155e-008 -1.420885e-003 -4.159432e-003 2.885503e-003 -3.371050e-003 1.861067e-003 6.800673e-004 -6.284463e-004 -2.928789e-003 7.931115e-003 -3.930187e-003 4.606651e-003 4.781970e-004 1.776792e-002
<VARIANCE> 25
 4.233403e+001 4.530307e+001 5.279357e+001 7.786665e+001 5.077378e+001 4.714515e+001 5.838447e+001 4.501833e+001 5.041414e+001 4.123397e+001 3.618155e+001 2.700005e+001 1.131233e+000 1.684988e+000 1.756823e+000 2.419261e+000 2.217220e+000 2.289905e+000 2.574711e+000 2.394419e+000 2.353169e+000 2.204960e+000 1.999490e+000 1.649467e+000 2.134210e+000
<GCONST> 1.011395e+002
<TRANSP> 5
 0.000000e+000 1.000000e+000 0.000000e+000 0.000000e+000 0.000000e+000
 0.000000e+000 6.000000e-001 4.000000e-001 0.000000e+000 0.000000e+000
 0.000000e+000 0.000000e+000 6.000000e-001 4.000000e-001 0.000000e+000
 0.000000e+000 0.000000e+000 0.000000e+000 7.000000e-001 3.000000e-001
 0.000000e+000 0.000000e+000 0.000000e+000 0.000000e+000 0.000000e+000
<ENDHMM>
~h "au"
<BEGINHMM>
<NUMSTATES> 5
<STATE> 2
<MEAN> 25
 -3.409819e-008 9.392090e-009 5.997359e-009 -3.569183e-008 8.812157e-008 2.244295e-008 -2.435720e-008 4.588545e-008 3.120324e-008 -1.279625e-008 3.150499e-008 1.618155e-008 -1.420885e-003 -4.159432e-003 2.885503e-003 -3.371050e-003 1.861067e-003 6.800673e-004 -6.284463e-004 -2.928789e-003 7.931115e-003 -3.930187e-003 4.606651e-003 4.781970e-004 1.776792e-002
<VARIANCE> 25
 4.233403e+001 4.530307e+001 5.279357e+001 7.786665e+001 5.077378e+001 4.714515e+001 5.838447e+001 4.501833e+001 5.041414e+001 4.123397e+001 3.618155e+001 2.700005e+001 1.131233e+000 1.684988e+000 1.756823e+000 2.419261e+000 2.217220e+000 2.289905e+000 2.574711e+000 2.394419e+000 2.353169e+000 2.204960e+000 1.999490e+000 1.649467e+000 2.134210e+000
<GCONST> 1.011395e+002
<STATE> 3
<MEAN> 25
 -3.409819e-008 9.392090e-009 5.997359e-009 -3.569183e-008 8.812157e-008 2.244295e-008 -2.435720e-008 4.588545e-008 3.120324e-008 -1.279625e-008 3.150499e-008 1.618155e-008 -1.420885e-003 -4.159432e-003 2.885503e-003 -3.371050e-003 1.861067e-003 6.800673e-004 -6.284463e-004 -2.928789e-003 7.931115e-003 -3.930187e-003 4.606651e-003 4.781970e-004 1.776792e-002
<VARIANCE> 25
 4.233403e+001 4.530307e+001 5.279357e+001 7.786665e+001 5.077378e+001 4.714515e+001 5.838447e+001 4.501833e+001 5.041414e+001 4.123397e+001 3.618155e+001 2.700005e+001 1.131233e+000 1.684988e+000 1.756823e+000 2.419261e+000 2.217220e+000 2.289905e+000 2.574711e+000 2.394419e+000 2.353169e+000 2.204960e+000 1.999490e+000 1.649467e+000 2.134210e+000
<GCONST> 1.011395e+002
<STATE> 4
<MEAN> 25
 -3.409819e-008 9.392090e-009 5.997359e-009 -3.569183e-008 8.812157e-008 2.244295e-008 -2.435720e-008 4.588545e-008 3.120324e-008 -1.279625e-008 3.150499e-008 1.618155e-008 -1.420885e-003 -4.159432e-003 2.885503e-003 -3.371050e-003 1.861067e-003 6.800673e-004 -6.284463e-004 -2.928789e-003 7.931115e-003 -3.930187e-003 4.606651e-003 4.781970e-004 1.776792e-002
<VARIANCE> 25
 4.233403e+001 4.530307e+001 5.279357e+001 7.786665e+001 5.077378e+001 4.714515e+001 5.838447e+001 4.501833e+001 5.041414e+001 4.123397e+001 3.618155e+001 2.700005e+001 1.131233e+000 1.684988e+000 1.756823e+000 2.419261e+000 2.217220e+000 2.289905e+000 2.574711e+000 2.394419e+000 2.353169e+000 2.204960e+000 1.999490e+000 1.649467e+000 2.134210e+000
<GCONST> 1.011395e+002
<TRANSP> 5
 0.000000e+000 1.000000e+000 0.000000e+000 0.000000e+000 0.000000e+000
 0.000000e+000 6.000000e-001 4.000000e-001 0.000000e+000 0.000000e+000
 0.000000e+000 0.000000e+000 6.000000e-001 4.000000e-001 0.000000e+000
 0.000000e+000 0.000000e+000 0.000000e+000 7.000000e-001 3.000000e-001
 0.000000e+000 0.000000e+000 0.000000e+000 0.000000e+000 0.000000e+000
<ENDHMM>
~h "t"
<BEGINHMM>
<NUMSTATES> 5
<STATE> 2
<MEAN> 25
 -3.409819e-008 9.392090e-009 5.997359e-009 -3.569183e-008 8.812157e-008 2.244295e-008 -2.435720e-008 4.588545e-008 3.120324e-008 -1.279625e-008 3.150499e-008 1.618155e-008 -1.420885e-003 -4.159432e-003 2.885503e-003 -3.371050e-003 1.861067e-003 6.800673e-004 -6.284463e-004 -2.928789e-003 7.931115e-003 -3.930187e-003 4.606651e-003 4.781970e-004 1.776792e-002
<VARIANCE> 25
 4.233403e+001 4.530307e+001 5.279357e+001 7.786665e+001 5.077378e+001 4.714515e+001 5.838447e+001 4.501833e+001 5.041414e+001 4.123397e+001 3.618155e+001 2.700005e+001 1.131233e+000 1.684988e+000 1.756823e+000 2.419261e+000 2.217220e+000 2.289905e+000 2.574711e+000 2.394419e+000 2.353169e+000 2.204960e+000 1.999490e+000 1.649467e+000 2.134210e+000
<GCONST> 1.011395e+002
<STATE> 3
<MEAN> 25
 -3.409819e-008 9.392090e-009 5.997359e-009 -3.569183e-008 8.812157e-008 2.244295e-008 -2.435720e-008 4.588545e-008 3.120324e-008 -1.279625e-008 3.150499e-008 1.618155e-008 -1.420885e-003 -4.159432e-003 2.885503e-003 -3.371050e-003 1.861067e-003 6.800673e-004 -6.284463e-004 -2.928789e-003 7.931115e-003 -3.930187e-003 4.606651e-003 4.781970e-004 1.776792e-002
<VARIANCE> 25
 4.233403e+001 4.530307e+001 5.279357e+001 7.786665e+001 5.077378e+001 4.714515e+001 5.838447e+001 4.501833e+001 5.041414e+001 4.123397e+001 3.618155e+001 2.700005e+001 1.131233e+000 1.684988e+000 1.756823e+000 2.419261e+000 2.217220e+000 2.289905e+000 2.574711e+000 2.394419e+000 2.353169e+000 2.204960e+000 1.999490e+000 1.649467e+000 2.134210e+000
<GCONST> 1.011395e+002
<STATE> 4
<MEAN> 25
 -3.409819e-008 9.392090e-009 5.997359e-009 -3.569183e-008 8.812157e-008 2.244295e-008 -2.435720e-008 4.588545e-008 3.120324e-008 -1.279625e-008 3.150499e-008 1.618155e-008 -1.420885e-003 -4.159432e-003 2.885503e-003 -3.371050e-003 1.861067e-003 6.800673e-004 -6.284463e-004 -2.928789e-003 7.931115e-003 -3.930187e-003 4.606651e-003 4.781970e-004 1.776792e-002
<VARIANCE> 25
 4.233403e+001 4.530307e+001 5.279357e+001 7.786665e+001 5.077378e+001 4.714515e+001 5.838447e+001 4.501833e+001 5.041414e+001 4.123397e+001 3.618155e+001 2.700005e+001 1.131233e+000 1.684988e+000 1.756823e+000 2.419261e+000 2.217220e+000 2.289905e+000 2.574711e+000 2.394419e+000 2.353169e+000 2.204960e+000 1.999490e+000 1.649467e+000 2.134210e+000
<GCONST> 1.011395e+002
<TRANSP> 5
 0.000000e+000 1.000000e+000 0.000000e+000 0.000000e+000 0.000000e+000
 0.000000e+000 6.000000e-001 4.000000e-001 0.000000e+000 0.000000e+000
 0.000000e+000 0.000000e+000 6.000000e-001 4.000000e-001 0.000000e+000
 0.000000e+000 0.000000e+000 0.000000e+000 7.000000e-001 3.000000e-001
 0.000000e+000 0.000000e+000 0.000000e+000 0.000000e+000 0.000000e+000
<ENDHMM>
~h "w"
<BEGINHMM>
<NUMSTATES> 5
<STATE> 2
<MEAN> 25
 -3.409819e-008 9.392090e-009 5.997359e-009 -3.569183e-008 8.812157e-008 2.244295e-008 -2.435720e-008 4.588545e-008 3.120324e-008 -1.279625e-008 3.150499e-008 1.618155e-008 -1.420885e-003 -4.159432e-003 2.885503e-003 -3.371050e-003 1.861067e-003 6.800673e-004 -6.284463e-004 -2.928789e-003 7.931115e-003 -3.930187e-003 4.606651e-003 4.781970e-004 1.776792e-002
<VARIANCE> 25
 4.233403e+001 4.530307e+001 5.279357e+001 7.786665e+001 5.077378e+001 4.714515e+001 5.838447e+001 4.501833e+001 5.041414e+001 4.123397e+001 3.618155e+001 2.700005e+001 1.131233e+000 1.684988e+000 1.756823e+000 2.419261e+000 2.217220e+000 2.289905e+000 2.574711e+000 2.394419e+000 2.353169e+000 2.204960e+000 1.999490e+000 1.649467e+000 2.134210e+000
<GCONST> 1.011395e+002
<STATE> 3
<MEAN> 25
 -3.409819e-008 9.392090e-009 5.997359e-009 -3.569183e-008 8.812157e-008 2.244295e-008 -2.435720e-008 4.588545e-008 3.120324e-008 -1.279625e-008 3.150499e-008 1.618155e-008 -1.420885e-003 -4.159432e-003 2.885503e-003 -3.371050e-003 1.861067e-003 6.800673e-004 -6.284463e-004 -2.928789e-003 7.931115e-003 -3.930187e-003 4.606651e-003 4.781970e-004 1.776792e-002
<VARIANCE> 25
 4.233403e+001 4.530307e+001 5.279357e+001 7.786665e+001 5.077378e+001 4.714515e+001 5.838447e+001 4.501833e+001 5.041414e+001 4.123397e+001 3.618155e+001 2.700005e+001 1.131233e+000 1.684988e+000 1.756823e+000 2.419261e+000 2.217220e+000 2.289905e+000 2.574711e+000 2.394419e+000 2.353169e+000 2.204960e+000 1.999490e+000 1.649467e+000 2.134210e+000
<GCONST> 1.011395e+002
<STATE> 4
<MEAN> 25
 -3.409819e-008 9.392090e-009 5.997359e-009 -3.569183e-008 8.812157e-008 2.244295e-008 -2.435720e-008 4.588545e-008 3.120324e-008 -1.279625e-008 3.150499e-008 1.618155e-008 -1.420885e-003 -4.159432e-003 2.885503e-003 -3.371050e-003 1.861067e-003 6.800673e-004 -6.284463e-004 -2.928789e-003 7.931115e-003 -3.930187e-003 4.606651e-003 4.781970e-004 1.776792e-002
<VARIANCE> 25
 4.233403e+001 4.530307e+001 5.279357e+001 7.786665e+001 5.077378e+001 4.714515e+001 5.838447e+001 4.501833e+001 5.041414e+001 4.123397e+001 3.618155e+001 2.700005e+001 1.131233e+000 1.684988e+000 1.756823e+000 2.419261e+000 2.217220e+000 2.289905e+000 2.574711e+000 2.394419e+000 2.353169e+000 2.204960e+000 1.999490e+000 1.649467e+000 2.134210e+000
<GCONST> 1.011395e+002
<TRANSP> 5
 0.000000e+000 1.000000e+000 0.000000e+000 0.000000e+000 0.000000e+000
 0.000000e+000 6.000000e-001 4.000000e-001 0.000000e+000 0.000000e+000
 0.000000e+000 0.000000e+000 6.000000e-001 4.000000e-001 0.000000e+000
 0.000000e+000 0.000000e+000 0.000000e+000 7.000000e-001 3.000000e-001
 0.000000e+000 0.000000e+000 0.000000e+000 0.000000e+000 0.000000e+000
<ENDHMM>
~h "s"
<BEGINHMM>
<NUMSTATES> 5
<STATE> 2
<MEAN> 25
 -3.409819e-008 9.392090e-009 5.997359e-009 -3.569183e-008 8.812157e-008 2.244295e-008 -2.435720e-008 4.588545e-008 3.120324e-008 -1.279625e-008 3.150499e-008 1.618155e-008 -1.420885e-003 -4.159432e-003 2.885503e-003 -3.371050e-003 1.861067e-003 6.800673e-004 -6.284463e-004 -2.928789e-003 7.931115e-003 -3.930187e-003 4.606651e-003 4.781970e-004 1.776792e-002
<VARIANCE> 25
 4.233403e+001 4.530307e+001 5.279357e+001 7.786665e+001 5.077378e+001 4.714515e+001 5.838447e+001 4.501833e+001 5.041414e+001 4.123397e+001 3.618155e+001 2.700005e+001 1.131233e+000 1.684988e+000 1.756823e+000 2.419261e+000 2.217220e+000 2.289905e+000 2.574711e+000 2.394419e+000 2.353169e+000 2.204960e+000 1.999490e+000 1.649467e+000 2.134210e+000
<GCONST> 1.011395e+002
<STATE> 3
<MEAN> 25
 -3.409819e-008 9.392090e-009 5.997359e-009 -3.569183e-008 8.812157e-008 2.244295e-008 -2.435720e-008 4.588545e-008 3.120324e-008 -1.279625e-008 3.150499e-008 1.618155e-008 -1.420885e-003 -4.159432e-003 2.885503e-003 -3.371050e-003 1.861067e-003 6.800673e-004 -6.284463e-004 -2.928789e-003 7.931115e-003 -3.930187e-003 4.606651e-003 4.781970e-004 1.776792e-002
<VARIANCE> 25
 4.233403e+001 4.530307e+001 5.279357e+001 7.786665e+001 5.077378e+001 4.714515e+001 5.838447e+001 4.501833e+001 5.041414e+001 4.123397e+001 3.618155e+001 2.700005e+001 1.131233e+000 1.684988e+000 1.756823e+000 2.419261e+000 2.217220e+000 2.289905e+000 2.574711e+000 2.394419e+000 2.353169e+000 2.204960e+000 1.999490e+000 1.649467e+000 2.134210e+000
<GCONST> 1.011395e+002
<STATE> 4
<MEAN> 25
 -3.409819e-008 9.392090e-009 5.997359e-009 -3.569183e-008 8.812157e-008 2.244295e-008 -2.435720e-008 4.588545e-008 3.120324e-008 -1.279625e-008 3.150499e-008 1.618155e-008 -1.420885e-003 -4.159432e-003 2.885503e-003 -3.371050e-003 1.861067e-003 6.800673e-004 -6.284463e-004 -2.928789e-003 7.931115e-003 -3.930187e-003 4.606651e-003 4.781970e-004 1.776792e-002
<VARIANCE> 25
 4.233403e+001 4.530307e+001 5.279357e+001 7.786665e+001 5.077378e+001 4.714515e+001 5.838447e+001 4.501833e+001 5.041414e+001 4.123397e+001 3.618155e+001 2.700005e+001 1.131233e+000 1.684988e+000 1.756823e+000 2.419261e+000 2.217220e+000 2.289905e+000 2.574711e+000 2.394419e+000 2.353169e+000 2.204960e+000 1.999490e+000 1.649467e+000 2.134210e+000
<GCONST> 1.011395e+002
<TRANSP> 5
 0.000000e+000 1.000000e+000 0.000000e+000 0.000000e+000 0.000000e+000
 0.000000e+000 6.000000e-001 4.000000e-001 0.000000e+000 0.000000e+000
 0.000000e+000 0.000000e+000 6.000000e-001 4.000000e-001 0.000000e+000
 0.000000e+000 0.000000e+000 0.000000e+000 7.000000e-001 3.000000e-001
 0.000000e+000 0.000000e+000 0.000000e+000 0.000000e+000 0.000000e+000
<ENDHMM>
~h "y"
<BEGINHMM>
<NUMSTATES> 5
<STATE> 2
<MEAN> 25
 -3.409819e-008 9.392090e-009 5.997359e-009 -3.569183e-008 8.812157e-008 2.244295e-008 -2.435720e-008 4.588545e-008 3.120324e-008 -1.279625e-008 3.150499e-008 1.618155e-008 -1.420885e-003 -4.159432e-003 2.885503e-003 -3.371050e-003 1.861067e-003 6.800673e-004 -6.284463e-004 -2.928789e-003 7.931115e-003 -3.930187e-003 4.606651e-003 4.781970e-004 1.776792e-002
<VARIANCE> 25
 4.233403e+001 4.530307e+001 5.279357e+001 7.786665e+001 5.077378e+001 4.714515e+001 5.838447e+001 4.501833e+001 5.041414e+001 4.123397e+001 3.618155e+001 2.700005e+001 1.131233e+000 1.684988e+000 1.756823e+000 2.419261e+000 2.217220e+000 2.289905e+000 2.574711e+000 2.394419e+000 2.353169e+000 2.204960e+000 1.999490e+000 1.649467e+000 2.134210e+000
<GCONST> 1.011395e+002
<STATE> 3
<MEAN> 25
 -3.409819e-008 9.392090e-009 5.997359e-009 -3.569183e-008 8.812157e-008 2.244295e-008 -2.435720e-008 4.588545e-008 3.120324e-008 -1.279625e-008 3.150499e-008 1.618155e-008 -1.420885e-003 -4.159432e-003 2.885503e-003 -3.371050e-003 1.861067e-003 6.800673e-004 -6.284463e-004 -2.928789e-003 7.931115e-003 -3.930187e-003 4.606651e-003 4.781970e-004 1.776792e-002
<VARIANCE> 25
 4.233403e+001 4.530307e+001 5.279357e+001 7.786665e+001 5.077378e+001 4.714515e+001 5.838447e+001 4.501833e+001 5.041414e+001 4.123397e+001 3.618155e+001 2.700005e+001 1.131233e+000 1.684988e+000 1.756823e+000 2.419261e+000 2.217220e+000 2.289905e+000 2.574711e+000 2.394419e+000 2.353169e+000 2.204960e+000 1.999490e+000 1.649467e+000 2.134210e+000
<GCONST> 1.011395e+002
<STATE> 4
<MEAN> 25
 -3.409819e-008 9.392090e-009 5.997359e-009 -3.569183e-008 8.812157e-008 2.244295e-008 -2.435720e-008 4.588545e-008 3.120324e-008 -1.279625e-008 3.150499e-008 1.618155e-008 -1.420885e-003 -4.159432e-003 2.885503e-003 -3.371050e-003 1.861067e-003 6.800673e-004 -6.284463e-004 -2.928789e-003 7.931115e-003 -3.930187e-003 4.606651e-003 4.781970e-004 1.776792e-002
<VARIANCE> 25
 4.233403e+001 4.530307e+001 5.279357e+001 7.786665e+001 5.077378e+001 4.714515e+001 5.838447e+001 4.501833e+001 5.041414e+001 4.123397e+001 3.618155e+001 2.700005e+001 1.131233e+000 1.684988e+000 1.756823e+000 2.419261e+000 2.217220e+000 2.289905e+000 2.574711e+000 2.394419e+000 2.353169e+000 2.204960e+000 1.999490e+000 1.649467e+000 2.134210e+000
<GCONST> 1.011395e+002
<TRANSP> 5
 0.000000e+000 1.000000e+000 0.000000e+000 0.000000e+000 0.000000e+000
 0.000000e+000 6.000000e-001 4.000000e-001 0.000000e+000 0.000000e+000
 0.000000e+000 0.000000e+000 6.000000e-001 4.000000e-001 0.000000e+000
 0.000000e+000 0.000000e+000 0.000000e+000 7.000000e-001 3.000000e-001
 0.000000e+000 0.000000e+000 0.000000e+000 0.000000e+000 0.000000e+000
<ENDHMM>
~h "z"
<BEGINHMM>
<NUMSTATES> 5
<STATE> 2
<MEAN> 25
 -3.409819e-008 9.392090e-009 5.997359e-009 -3.569183e-008 8.812157e-008 2.244295e-008 -2.435720e-008 4.588545e-008 3.120324e-008 -1.279625e-008 3.150499e-008 1.618155e-008 -1.420885e-003 -4.159432e-003 2.885503e-003 -3.371050e-003 1.861067e-003 6.800673e-004 -6.284463e-004 -2.928789e-003 7.931115e-003 -3.930187e-003 4.606651e-003 4.781970e-004 1.776792e-002
<VARIANCE> 25
 4.233403e+001 4.530307e+001 5.279357e+001 7.786665e+001 5.077378e+001 4.714515e+001 5.838447e+001 4.501833e+001 5.041414e+001 4.123397e+001 3.618155e+001 2.700005e+001 1.131233e+000 1.684988e+000 1.756823e+000 2.419261e+000 2.217220e+000 2.289905e+000 2.574711e+000 2.394419e+000 2.353169e+000 2.204960e+000 1.999490e+000 1.649467e+000 2.134210e+000
<GCONST> 1.011395e+002
<STATE> 3
<MEAN> 25
 -3.409819e-008 9.392090e-009 5.997359e-009 -3.569183e-008 8.812157e-008 2.244295e-008 -2.435720e-008 4.588545e-008 3.120324e-008 -1.279625e-008 3.150499e-008 1.618155e-008 -1.420885e-003 -4.159432e-003 2.885503e-003 -3.371050e-003 1.861067e-003 6.800673e-004 -6.284463e-004 -2.928789e-003 7.931115e-003 -3.930187e-003 4.606651e-003 4.781970e-004 1.776792e-002
<VARIANCE> 25
 4.233403e+001 4.530307e+001 5.279357e+001 7.786665e+001 5.077378e+001 4.714515e+001 5.838447e+001 4.501833e+001 5.041414e+001 4.123397e+001 3.618155e+001 2.700005e+001 1.131233e+000 1.684988e+000 1.756823e+000 2.419261e+000 2.217220e+000 2.289905e+000 2.574711e+000 2.394419e+000 2.353169e+000 2.204960e+000 1.999490e+000 1.649467e+000 2.134210e+000
<GCONST> 1.011395e+002
<STATE> 4
<MEAN> 25
 -3.409819e-008 9.392090e-009 5.997359e-009 -3.569183e-008 8.812157e-008 2.244295e-008 -2.435720e-008 4.588545e-008 3.120324e-008 -1.279625e-008 3.150499e-008 1.618155e-008 -1.420885e-003 -4.159432e-003 2.885503e-003 -3.371050e-003 1.861067e-003 6.800673e-004 -6.284463e-004 -2.928789e-003 7.931115e-003 -3.930187e-003 4.606651e-003 4.781970e-004 1.776792e-002
<VARIANCE> 25
 4.233403e+001 4.530307e+001 5.279357e+001 7.786665e+001 5.077378e+001 4.714515e+001 5.838447e+001 4.501833e+001 5.041414e+001 4.123397e+001 3.618155e+001 2.700005e+001 1.131233e+000 1.684988e+000 1.756823e+000 2.419261e+000 2.217220e+000 2.289905e+000 2.574711e+000 2.394419e+000 2.353169e+000 2.204960e+000 1.999490e+000 1.649467e+000 2.134210e+000
<GCONST> 1.011395e+002
<TRANSP> 5
 0.000000e+000 1.000000e+000 0.000000e+000 0.000000e+000 0.000000e+000
 0.000000e+000 6.000000e-001 4.000000e-001 0.000000e+000 0.000000e+000
 0.000000e+000 0.000000e+000 6.000000e-001 4.000000e-001 0.000000e+000
 0.000000e+000 0.000000e+000 0.000000e+000 7.000000e-001 3.000000e-001
 0.000000e+000 0.000000e+000 0.000000e+000 0.000000e+000 0.000000e+000
<ENDHMM>
~h "ai"
<BEGINHMM>
<NUMSTATES> 5
<STATE> 2
<MEAN> 25
 -3.409819e-008 9.392090e-009 5.997359e-009 -3.569183e-008 8.812157e-008 2.244295e-008 -2.435720e-008 4.588545e-008 3.120324e-008 -1.279625e-008 3.150499e-008 1.618155e-008 -1.420885e-003 -4.159432e-003 2.885503e-003 -3.371050e-003 1.861067e-003 6.800673e-004 -6.284463e-004 -2.928789e-003 7.931115e-003 -3.930187e-003 4.606651e-003 4.781970e-004 1.776792e-002
<VARIANCE> 25
 4.233403e+001 4.530307e+001 5.279357e+001 7.786665e+001 5.077378e+001 4.714515e+001 5.838447e+001 4.501833e+001 5.041414e+001 4.123397e+001 3.618155e+001 2.700005e+001 1.131233e+000 1.684988e+000 1.756823e+000 2.419261e+000 2.217220e+000 2.289905e+000 2.574711e+000 2.394419e+000 2.353169e+000 2.204960e+000 1.999490e+000 1.649467e+000 2.134210e+000
<GCONST> 1.011395e+002
<STATE> 3
<MEAN> 25
 -3.409819e-008 9.392090e-009 5.997359e-009 -3.569183e-008 8.812157e-008 2.244295e-008 -2.435720e-008 4.588545e-008 3.120324e-008 -1.279625e-008 3.150499e-008 1.618155e-008 -1.420885e-003 -4.159432e-003 2.885503e-003 -3.371050e-003 1.861067e-003 6.800673e-004 -6.284463e-004 -2.928789e-003 7.931115e-003 -3.930187e-003 4.606651e-003 4.781970e-004 1.776792e-002
<VARIANCE> 25
 4.233403e+001 4.530307e+001 5.279357e+001 7.786665e+001 5.077378e+001 4.714515e+001 5.838447e+001 4.501833e+001 5.041414e+001 4.123397e+001 3.618155e+001 2.700005e+001 1.131233e+000 1.684988e+000 1.756823e+000 2.419261e+000 2.217220e+000 2.289905e+000 2.574711e+000 2.394419e+000 2.353169e+000 2.204960e+000 1.999490e+000 1.649467e+000 2.134210e+000
<GCONST> 1.011395e+002
<STATE> 4
<MEAN> 25
 -3.409819e-008 9.392090e-009 5.997359e-009 -3.569183e-008 8.812157e-008 2.244295e-008 -2.435720e-008 4.588545e-008 3.120324e-008 -1.279625e-008 3.150499e-008 1.618155e-008 -1.420885e-003 -4.159432e-003 2.885503e-003 -3.371050e-003 1.861067e-003 6.800673e-004 -6.284463e-004 -2.928789e-003 7.931115e-003 -3.930187e-003 4.606651e-003 4.781970e-004 1.776792e-002
<VARIANCE> 25
 4.233403e+001 4.530307e+001 5.279357e+001 7.786665e+001 5.077378e+001 4.714515e+001 5.838447e+001 4.501833e+001 5.041414e+001 4.123397e+001 3.618155e+001 2.700005e+001 1.131233e+000 1.684988e+000 1.756823e+000 2.419261e+000 2.217220e+000 2.289905e+000 2.574711e+000 2.394419e+000 2.353169e+000 2.204960e+000 1.999490e+000 1.649467e+000 2.134210e+000
<GCONST> 1.011395e+002
<TRANSP> 5
 0.000000e+000 1.000000e+000 0.000000e+000 0.000000e+000 0.000000e+000
 0.000000e+000 6.000000e-001 4.000000e-001 0.000000e+000 0.000000e+000
 0.000000e+000 0.000000e+000 6.000000e-001 4.000000e-001 0.000000e+000
 0.000000e+000 0.000000e+000 0.000000e+000 7.000000e-001 3.000000e-001
 0.000000e+000 0.000000e+000 0.000000e+000 0.000000e+000 0.000000e+000
<ENDHMM>
~h "e"
<BEGINHMM>
<NUMSTATES> 5
<STATE> 2
<MEAN> 25
 -3.409819e-008 9.392090e-009 5.997359e-009 -3.569183e-008 8.812157e-008 2.244295e-008 -2.435720e-008 4.588545e-008 3.120324e-008 -1.279625e-008 3.150499e-008 1.618155e-008 -1.420885e-003 -4.159432e-003 2.885503e-003 -3.371050e-003 1.861067e-003 6.800673e-004 -6.284463e-004 -2.928789e-003 7.931115e-003 -3.930187e-003 4.606651e-003 4.781970e-004 1.776792e-002
<VARIANCE> 25
 4.233403e+001 4.530307e+001 5.279357e+001 7.786665e+001 5.077378e+001 4.714515e+001 5.838447e+001 4.501833e+001 5.041414e+001 4.123397e+001 3.618155e+001 2.700005e+001 1.131233e+000 1.684988e+000 1.756823e+000 2.419261e+000 2.217220e+000 2.289905e+000 2.574711e+000 2.394419e+000 2.353169e+000 2.204960e+000 1.999490e+000 1.649467e+000 2.134210e+000
<GCONST> 1.011395e+002
<STATE> 3
<MEAN> 25
 -3.409819e-008 9.392090e-009 5.997359e-009 -3.569183e-008 8.812157e-008 2.244295e-008 -2.435720e-008 4.588545e-008 3.120324e-008 -1.279625e-008 3.150499e-008 1.618155e-008 -1.420885e-003 -4.159432e-003 2.885503e-003 -3.371050e-003 1.861067e-003 6.800673e-004 -6.284463e-004 -2.928789e-003 7.931115e-003 -3.930187e-003 4.606651e-003 4.781970e-004 1.776792e-002
<VARIANCE> 25
 4.233403e+001 4.530307e+001 5.279357e+001 7.786665e+001 5.077378e+001 4.714515e+001 5.838447e+001 4.501833e+001 5.041414e+001 4.123397e+001 3.618155e+001 2.700005e+001 1.131233e+000 1.684988e+000 1.756823e+000 2.419261e+000 2.217220e+000 2.289905e+000 2.574711e+000 2.394419e+000 2.353169e+000 2.204960e+000 1.999490e+000 1.649467e+000 2.134210e+000
<GCONST> 1.011395e+002
<STATE> 4
<MEAN> 25
 -3.409819e-008 9.392090e-009 5.997359e-009 -3.569183e-008 8.812157e-008 2.244295e-008 -2.435720e-008 4.588545e-008 3.120324e-008 -1.279625e-008 3.150499e-008 1.618155e-008 -1.420885e-003 -4.159432e-003 2.885503e-003 -3.371050e-003 1.861067e-003 6.800673e-004 -6.284463e-004 -2.928789e-003 7.931115e-003 -3.930187e-003 4.606651e-003 4.781970e-004 1.776792e-002
<VARIANCE> 25
 4.233403e+001 4.530307e+001 5.279357e+001 7.786665e+001 5.077378e+001 4.714515e+001 5.838447e+001 4.501833e+001 5.041414e+001 4.123397e+001 3.618155e+001 2.700005e+001 1.131233e+000 1.684988e+000 1.756823e+000 2.419261e+000 2.217220e+000 2.289905e+000 2.574711e+000 2.394419e+000 2.353169e+000 2.204960e+000 1.999490e+000 1.649467e+000 2.134210e+000
<GCONST> 1.011395e+002
<TRANSP> 5
 0.000000e+000 1.000000e+000 0.000000e+000 0.000000e+000 0.000000e+000
 0.000000e+000 6.000000e-001 4.000000e-001 0.000000e+000 0.000000e+000
 0.000000e+000 0.000000e+000 6.000000e-001 4.000000e-001 0.000000e+000
 0.000000e+000 0.000000e+000 0.000000e+000 7.000000e-001 3.000000e-001
 0.000000e+000 0.000000e+000 0.000000e+000 0.000000e+000 0.000000e+000
<ENDHMM>
~h "@"
<BEGINHMM>
<NUMSTATES> 5
<STATE> 2
<MEAN> 25
 -3.409819e-008 9.392090e-009 5.997359e-009 -3.569183e-008 8.812157e-008 2.244295e-008 -2.435720e-008 4.588545e-008 3.120324e-008 -1.279625e-008 3.150499e-008 1.618155e-008 -1.420885e-003 -4.159432e-003 2.885503e-003 -3.371050e-003 1.861067e-003 6.800673e-004 -6.284463e-004 -2.928789e-003 7.931115e-003 -3.930187e-003 4.606651e-003 4.781970e-004 1.776792e-002
<VARIANCE> 25
 4.233403e+001 4.530307e+001 5.279357e+001 7.786665e+001 5.077378e+001 4.714515e+001 5.838447e+001 4.501833e+001 5.041414e+001 4.123397e+001 3.618155e+001 2.700005e+001 1.131233e+000 1.684988e+000 1.756823e+000 2.419261e+000 2.217220e+000 2.289905e+000 2.574711e+000 2.394419e+000 2.353169e+000 2.204960e+000 1.999490e+000 1.649467e+000 2.134210e+000
<GCONST> 1.011395e+002
<STATE> 3
<MEAN> 25
 -3.409819e-008 9.392090e-009 5.997359e-009 -3.569183e-008 8.812157e-008 2.244295e-008 -2.435720e-008 4.588545e-008 3.120324e-008 -1.279625e-008 3.150499e-008 1.618155e-008 -1.420885e-003 -4.159432e-003 2.885503e-003 -3.371050e-003 1.861067e-003 6.800673e-004 -6.284463e-004 -2.928789e-003 7.931115e-003 -3.930187e-003 4.606651e-003 4.781970e-004 1.776792e-002
<VARIANCE> 25
 4.233403e+001 4.530307e+001 5.279357e+001 7.786665e+001 5.077378e+001 4.714515e+001 5.838447e+001 4.501833e+001 5.041414e+001 4.123397e+001 3.618155e+001 2.700005e+001 1.131233e+000 1.684988e+000 1.756823e+000 2.419261e+000 2.217220e+000 2.289905e+000 2.574711e+000 2.394419e+000 2.353169e+000 2.204960e+000 1.999490e+000 1.649467e+000 2.134210e+000
<GCONST> 1.011395e+002
<STATE> 4
<MEAN> 25
 -3.409819e-008 9.392090e-009 5.997359e-009 -3.569183e-008 8.812157e-008 2.244295e-008 -2.435720e-008 4.588545e-008 3.120324e-008 -1.279625e-008 3.150499e-008 1.618155e-008 -1.420885e-003 -4.159432e-003 2.885503e-003 -3.371050e-003 1.861067e-003 6.800673e-004 -6.284463e-004 -2.928789e-003 7.931115e-003 -3.930187e-003 4.606651e-003 4.781970e-004 1.776792e-002
<VARIANCE> 25
 4.233403e+001 4.530307e+001 5.279357e+001 7.786665e+001 5.077378e+001 4.714515e+001 5.838447e+001 4.501833e+001 5.041414e+001 4.123397e+001 3.618155e+001 2.700005e+001 1.131233e+000 1.684988e+000 1.756823e+000 2.419261e+000 2.217220e+000 2.289905e+000 2.574711e+000 2.394419e+000 2.353169e+000 2.204960e+000 1.999490e+000 1.649467e+000 2.134210e+000
<GCONST> 1.011395e+002
<TRANSP> 5
 0.000000e+000 1.000000e+000 0.000000e+000 0.000000e+000 0.000000e+000
 0.000000e+000 6.000000e-001 4.000000e-001 0.000000e+000 0.000000e+000
 0.000000e+000 0.000000e+000 6.000000e-001 4.000000e-001 0.000000e+000
 0.000000e+000 0.000000e+000 0.000000e+000 7.000000e-001 3.000000e-001
 0.000000e+000 0.000000e+000 0.000000e+000 0.000000e+000 0.000000e+000
<ENDHMM>
~h "c"
<BEGINHMM>
<NUMSTATES> 5
<STATE> 2
<MEAN> 25
 -3.409819e-008 9.392090e-009 5.997359e-009 -3.569183e-008 8.812157e-008 2.244295e-008 -2.435720e-008 4.588545e-008 3.120324e-008 -1.279625e-008 3.150499e-008 1.618155e-008 -1.420885e-003 -4.159432e-003 2.885503e-003 -3.371050e-003 1.861067e-003 6.800673e-004 -6.284463e-004 -2.928789e-003 7.931115e-003 -3.930187e-003 4.606651e-003 4.781970e-004 1.776792e-002
<VARIANCE> 25
 4.233403e+001 4.530307e+001 5.279357e+001 7.786665e+001 5.077378e+001 4.714515e+001 5.838447e+001 4.501833e+001 5.041414e+001 4.123397e+001 3.618155e+001 2.700005e+001 1.131233e+000 1.684988e+000 1.756823e+000 2.419261e+000 2.217220e+000 2.289905e+000 2.574711e+000 2.394419e+000 2.353169e+000 2.204960e+000 1.999490e+000 1.649467e+000 2.134210e+000
<GCONST> 1.011395e+002
<STATE> 3
<MEAN> 25
 -3.409819e-008 9.392090e-009 5.997359e-009 -3.569183e-008 8.812157e-008 2.244295e-008 -2.435720e-008 4.588545e-008 3.120324e-008 -1.279625e-008 3.150499e-008 1.618155e-008 -1.420885e-003 -4.159432e-003 2.885503e-003 -3.371050e-003 1.861067e-003 6.800673e-004 -6.284463e-004 -2.928789e-003 7.931115e-003 -3.930187e-003 4.606651e-003 4.781970e-004 1.776792e-002
<VARIANCE> 25
 4.233403e+001 4.530307e+001 5.279357e+001 7.786665e+001 5.077378e+001 4.714515e+001 5.838447e+001 4.501833e+001 5.041414e+001 4.123397e+001 3.618155e+001 2.700005e+001 1.131233e+000 1.684988e+000 1.756823e+000 2.419261e+000 2.217220e+000 2.289905e+000 2.574711e+000 2.394419e+000 2.353169e+000 2.204960e+000 1.999490e+000 1.649467e+000 2.134210e+000
<GCONST> 1.011395e+002
<STATE> 4
<MEAN> 25
 -3.409819e-008 9.392090e-009 5.997359e-009 -3.569183e-008 8.812157e-008 2.244295e-008 -2.435720e-008 4.588545e-008 3.120324e-008 -1.279625e-008 3.150499e-008 1.618155e-008 -1.420885e-003 -4.159432e-003 2.885503e-003 -3.371050e-003 1.861067e-003 6.800673e-004 -6.284463e-004 -2.928789e-003 7.931115e-003 -3.930187e-003 4.606651e-003 4.781970e-004 1.776792e-002
<VARIANCE> 25
 4.233403e+001 4.530307e+001 5.279357e+001 7.786665e+001 5.077378e+001 4.714515e+001 5.838447e+001 4.501833e+001 5.041414e+001 4.123397e+001 3.618155e+001 2.700005e+001 1.131233e+000 1.684988e+000 1.756823e+000 2.419261e+000 2.217220e+000 2.289905e+000 2.574711e+000 2.394419e+000 2.353169e+000 2.204960e+000 1.999490e+000 1.649467e+000 2.134210e+000
<GCONST> 1.011395e+002
<TRANSP> 5
 0.000000e+000 1.000000e+000 0.000000e+000 0.000000e+000 0.000000e+000
 0.000000e+000 6.000000e-001 4.000000e-001 0.000000e+000 0.000000e+000
 0.000000e+000 0.000000e+000 6.000000e-001 4.000000e-001 0.000000e+000
 0.000000e+000 0.000000e+000 0.000000e+000 7.000000e-001 3.000000e-001
 0.000000e+000 0.000000e+000 0.000000e+000 0.000000e+000 0.000000e+000
<ENDHMM>
~h "p"
<BEGINHMM>
<NUMSTATES> 5
<STATE> 2
<MEAN> 25
 -3.409819e-008 9.392090e-009 5.997359e-009 -3.569183e-008 8.812157e-008 2.244295e-008 -2.435720e-008 4.588545e-008 3.120324e-008 -1.279625e-008 3.150499e-008 1.618155e-008 -1.420885e-003 -4.159432e-003 2.885503e-003 -3.371050e-003 1.861067e-003 6.800673e-004 -6.284463e-004 -2.928789e-003 7.931115e-003 -3.930187e-003 4.606651e-003 4.781970e-004 1.776792e-002
<VARIANCE> 25
 4.233403e+001 4.530307e+001 5.279357e+001 7.786665e+001 5.077378e+001 4.714515e+001 5.838447e+001 4.501833e+001 5.041414e+001 4.123397e+001 3.618155e+001 2.700005e+001 1.131233e+000 1.684988e+000 1.756823e+000 2.419261e+000 2.217220e+000 2.289905e+000 2.574711e+000 2.394419e+000 2.353169e+000 2.204960e+000 1.999490e+000 1.649467e+000 2.134210e+000
<GCONST> 1.011395e+002
<STATE> 3
<MEAN> 25
 -3.409819e-008 9.392090e-009 5.997359e-009 -3.569183e-008 8.812157e-008 2.244295e-008 -2.435720e-008 4.588545e-008 3.120324e-008 -1.279625e-008 3.150499e-008 1.618155e-008 -1.420885e-003 -4.159432e-003 2.885503e-003 -3.371050e-003 1.861067e-003 6.800673e-004 -6.284463e-004 -2.928789e-003 7.931115e-003 -3.930187e-003 4.606651e-003 4.781970e-004 1.776792e-002
<VARIANCE> 25
 4.233403e+001 4.530307e+001 5.279357e+001 7.786665e+001 5.077378e+001 4.714515e+001 5.838447e+001 4.501833e+001 5.041414e+001 4.123397e+001 3.618155e+001 2.700005e+001 1.131233e+000 1.684988e+000 1.756823e+000 2.419261e+000 2.217220e+000 2.289905e+000 2.574711e+000 2.394419e+000 2.353169e+000 2.204960e+000 1.999490e+000 1.649467e+000 2.134210e+000
<GCONST> 1.011395e+002
<STATE> 4
<MEAN> 25
 -3.409819e-008 9.392090e-009 5.997359e-009 -3.569183e-008 8.812157e-008 2.244295e-008 -2.435720e-008 4.588545e-008 3.120324e-008 -1.279625e-008 3.150499e-008 1.618155e-008 -1.420885e-003 -4.159432e-003 2.885503e-003 -3.371050e-003 1.861067e-003 6.800673e-004 -6.284463e-004 -2.928789e-003 7.931115e-003 -3.930187e-003 4.606651e-003 4.781970e-004 1.776792e-002
<VARIANCE> 25
 4.233403e+001 4.530307e+001 5.279357e+001 7.786665e+001 5.077378e+001 4.714515e+001 5.838447e+001 4.501833e+001 5.041414e+001 4.123397e+001 3.618155e+001 2.700005e+001 1.131233e+000 1.684988e+000 1.756823e+000 2.419261e+000 2.217220e+000 2.289905e+000 2.574711e+000 2.394419e+000 2.353169e+000 2.204960e+000 1.999490e+000 1.649467e+000 2.134210e+000
<GCONST> 1.011395e+002
<TRANSP> 5
 0.000000e+000 1.000000e+000 0.000000e+000 0.000000e+000 0.000000e+000
 0.000000e+000 6.000000e-001 4.000000e-001 0.000000e+000 0.000000e+000
 0.000000e+000 0.000000e+000 6.000000e-001 4.000000e-001 0.000000e+000
 0.000000e+000 0.000000e+000 0.000000e+000 7.000000e-001 3.000000e-001
 0.000000e+000 0.000000e+000 0.000000e+000 0.000000e+000 0.000000e+000
<ENDHMM>
~h "f"
<BEGINHMM>
<NUMSTATES> 5
<STATE> 2
<MEAN> 25
 -3.409819e-008 9.392090e-009 5.997359e-009 -3.569183e-008 8.812157e-008 2.244295e-008 -2.435720e-008 4.588545e-008 3.120324e-008 -1.279625e-008 3.150499e-008 1.618155e-008 -1.420885e-003 -4.159432e-003 2.885503e-003 -3.371050e-003 1.861067e-003 6.800673e-004 -6.284463e-004 -2.928789e-003 7.931115e-003 -3.930187e-003 4.606651e-003 4.781970e-004 1.776792e-002
<VARIANCE> 25
 4.233403e+001 4.530307e+001 5.279357e+001 7.786665e+001 5.077378e+001 4.714515e+001 5.838447e+001 4.501833e+001 5.041414e+001 4.123397e+001 3.618155e+001 2.700005e+001 1.131233e+000 1.684988e+000 1.756823e+000 2.419261e+000 2.217220e+000 2.289905e+000 2.574711e+000 2.394419e+000 2.353169e+000 2.204960e+000 1.999490e+000 1.649467e+000 2.134210e+000
<GCONST> 1.011395e+002
<STATE> 3
<MEAN> 25
 -3.409819e-008 9.392090e-009 5.997359e-009 -3.569183e-008 8.812157e-008 2.244295e-008 -2.435720e-008 4.588545e-008 3.120324e-008 -1.279625e-008 3.150499e-008 1.618155e-008 -1.420885e-003 -4.159432e-003 2.885503e-003 -3.371050e-003 1.861067e-003 6.800673e-004 -6.284463e-004 -2.928789e-003 7.931115e-003 -3.930187e-003 4.606651e-003 4.781970e-004 1.776792e-002
<VARIANCE> 25
 4.233403e+001 4.530307e+001 5.279357e+001 7.786665e+001 5.077378e+001 4.714515e+001 5.838447e+001 4.501833e+001 5.041414e+001 4.123397e+001 3.618155e+001 2.700005e+001 1.131233e+000 1.684988e+000 1.756823e+000 2.419261e+000 2.217220e+000 2.289905e+000 2.574711e+000 2.394419e+000 2.353169e+000 2.204960e+000 1.999490e+000 1.649467e+000 2.134210e+000
<GCONST> 1.011395e+002
<STATE> 4
<MEAN> 25
 -3.409819e-008 9.392090e-009 5.997359e-009 -3.569183e-008 8.812157e-008 2.244295e-008 -2.435720e-008 4.588545e-008 3.120324e-008 -1.279625e-008 3.150499e-008 1.618155e-008 -1.420885e-003 -4.159432e-003 2.885503e-003 -3.371050e-003 1.861067e-003 6.800673e-004 -6.284463e-004 -2.928789e-003 7.931115e-003 -3.930187e-003 4.606651e-003 4.781970e-004 1.776792e-002
<VARIANCE> 25
 4.233403e+001 4.530307e+001 5.279357e+001 7.786665e+001 5.077378e+001 4.714515e+001 5.838447e+001 4.501833e+001 5.041414e+001 4.123397e+001 3.618155e+001 2.700005e+001 1.131233e+000 1.684988e+000 1.756823e+000 2.419261e+000 2.217220e+000 2.289905e+000 2.574711e+000 2.394419e+000 2.353169e+000 2.204960e+000 1.999490e+000 1.649467e+000 2.134210e+000
<GCONST> 1.011395e+002
<TRANSP> 5
 0.000000e+000 1.000000e+000 0.000000e+000 0.000000e+000 0.000000e+000
 0.000000e+000 6.000000e-001 4.000000e-001 0.000000e+000 0.000000e+000
 0.000000e+000 0.000000e+000 6.000000e-001 4.000000e-001 0.000000e+000
 0.000000e+000 0.000000e+000 0.000000e+000 7.000000e-001 3.000000e-001
 0.000000e+000 0.000000e+000 0.000000e+000 0.000000e+000 0.000000e+000
<ENDHMM>
~h "g"
<BEGINHMM>
<NUMSTATES> 5
<STATE> 2
<MEAN> 25
 -3.409819e-008 9.392090e-009 5.997359e-009 -3.569183e-008 8.812157e-008 2.244295e-008 -2.435720e-008 4.588545e-008 3.120324e-008 -1.279625e-008 3.150499e-008 1.618155e-008 -1.420885e-003 -4.159432e-003 2.885503e-003 -3.371050e-003 1.861067e-003 6.800673e-004 -6.284463e-004 -2.928789e-003 7.931115e-003 -3.930187e-003 4.606651e-003 4.781970e-004 1.776792e-002
<VARIANCE> 25
 4.233403e+001 4.530307e+001 5.279357e+001 7.786665e+001 5.077378e+001 4.714515e+001 5.838447e+001 4.501833e+001 5.041414e+001 4.123397e+001 3.618155e+001 2.700005e+001 1.131233e+000 1.684988e+000 1.756823e+000 2.419261e+000 2.217220e+000 2.289905e+000 2.574711e+000 2.394419e+000 2.353169e+000 2.204960e+000 1.999490e+000 1.649467e+000 2.134210e+000
<GCONST> 1.011395e+002
<STATE> 3
<MEAN> 25
 -3.409819e-008 9.392090e-009 5.997359e-009 -3.569183e-008 8.812157e-008 2.244295e-008 -2.435720e-008 4.588545e-008 3.120324e-008 -1.279625e-008 3.150499e-008 1.618155e-008 -1.420885e-003 -4.159432e-003 2.885503e-003 -3.371050e-003 1.861067e-003 6.800673e-004 -6.284463e-004 -2.928789e-003 7.931115e-003 -3.930187e-003 4.606651e-003 4.781970e-004 1.776792e-002
<VARIANCE> 25
 4.233403e+001 4.530307e+001 5.279357e+001 7.786665e+001 5.077378e+001 4.714515e+001 5.838447e+001 4.501833e+001 5.041414e+001 4.123397e+001 3.618155e+001 2.700005e+001 1.131233e+000 1.684988e+000 1.756823e+000 2.419261e+000 2.217220e+000 2.289905e+000 2.574711e+000 2.394419e+000 2.353169e+000 2.204960e+000 1.999490e+000 1.649467e+000 2.134210e+000
<GCONST> 1.011395e+002
<STATE> 4
<MEAN> 25
 -3.409819e-008 9.392090e-009 5.997359e-009 -3.569183e-008 8.812157e-008 2.244295e-008 -2.435720e-008 4.588545e-008 3.120324e-008 -1.279625e-008 3.150499e-008 1.618155e-008 -1.420885e-003 -4.159432e-003 2.885503e-003 -3.371050e-003 1.861067e-003 6.800673e-004 -6.284463e-004 -2.928789e-003 7.931115e-003 -3.930187e-003 4.606651e-003 4.781970e-004 1.776792e-002
<VARIANCE> 25
 4.233403e+001 4.530307e+001 5.279357e+001 7.786665e+001 5.077378e+001 4.714515e+001 5.838447e+001 4.501833e+001 5.041414e+001 4.123397e+001 3.618155e+001 2.700005e+001 1.131233e+000 1.684988e+000 1.756823e+000 2.419261e+000 2.217220e+000 2.289905e+000 2.574711e+000 2.394419e+000 2.353169e+000 2.204960e+000 1.999490e+000 1.649467e+000 2.134210e+000
<GCONST> 1.011395e+002
<TRANSP> 5
 0.000000e+000 1.000000e+000 0.000000e+000 0.000000e+000 0.000000e+000
 0.000000e+000 6.000000e-001 4.000000e-001 0.000000e+000 0.000000e+000
 0.000000e+000 0.000000e+000 6.000000e-001 4.000000e-001 0.000000e+000
 0.000000e+000 0.000000e+000 0.000000e+000 7.000000e-001 3.000000e-001
 0.000000e+000 0.000000e+000 0.000000e+000 0.000000e+000 0.000000e+000
<ENDHMM>
~h "ny"
<BEGINHMM>
<NUMSTATES> 5
<STATE> 2
<MEAN> 25
 -3.409819e-008 9.392090e-009 5.997359e-009 -3.569183e-008 8.812157e-008 2.244295e-008 -2.435720e-008 4.588545e-008 3.120324e-008 -1.279625e-008 3.150499e-008 1.618155e-008 -1.420885e-003 -4.159432e-003 2.885503e-003 -3.371050e-003 1.861067e-003 6.800673e-004 -6.284463e-004 -2.928789e-003 7.931115e-003 -3.930187e-003 4.606651e-003 4.781970e-004 1.776792e-002
<VARIANCE> 25
 4.233403e+001 4.530307e+001 5.279357e+001 7.786665e+001 5.077378e+001 4.714515e+001 5.838447e+001 4.501833e+001 5.041414e+001 4.123397e+001 3.618155e+001 2.700005e+001 1.131233e+000 1.684988e+000 1.756823e+000 2.419261e+000 2.217220e+000 2.289905e+000 2.574711e+000 2.394419e+000 2.353169e+000 2.204960e+000 1.999490e+000 1.649467e+000 2.134210e+000
<GCONST> 1.011395e+002
<STATE> 3
<MEAN> 25
 -3.409819e-008 9.392090e-009 5.997359e-009 -3.569183e-008 8.812157e-008 2.244295e-008 -2.435720e-008 4.588545e-008 3.120324e-008 -1.279625e-008 3.150499e-008 1.618155e-008 -1.420885e-003 -4.159432e-003 2.885503e-003 -3.371050e-003 1.861067e-003 6.800673e-004 -6.284463e-004 -2.928789e-003 7.931115e-003 -3.930187e-003 4.606651e-003 4.781970e-004 1.776792e-002
<VARIANCE> 25
 4.233403e+001 4.530307e+001 5.279357e+001 7.786665e+001 5.077378e+001 4.714515e+001 5.838447e+001 4.501833e+001 5.041414e+001 4.123397e+001 3.618155e+001 2.700005e+001 1.131233e+000 1.684988e+000 1.756823e+000 2.419261e+000 2.217220e+000 2.289905e+000 2.574711e+000 2.394419e+000 2.353169e+000 2.204960e+000 1.999490e+000 1.649467e+000 2.134210e+000
<GCONST> 1.011395e+002
<STATE> 4
<MEAN> 25
 -3.409819e-008 9.392090e-009 5.997359e-009 -3.569183e-008 8.812157e-008 2.244295e-008 -2.435720e-008 4.588545e-008 3.120324e-008 -1.279625e-008 3.150499e-008 1.618155e-008 -1.420885e-003 -4.159432e-003 2.885503e-003 -3.371050e-003 1.861067e-003 6.800673e-004 -6.284463e-004 -2.928789e-003 7.931115e-003 -3.930187e-003 4.606651e-003 4.781970e-004 1.776792e-002
<VARIANCE> 25
 4.233403e+001 4.530307e+001 5.279357e+001 7.786665e+001 5.077378e+001 4.714515e+001 5.838447e+001 4.501833e+001 5.041414e+001 4.123397e+001 3.618155e+001 2.700005e+001 1.131233e+000 1.684988e+000 1.756823e+000 2.419261e+000 2.217220e+000 2.289905e+000 2.574711e+000 2.394419e+000 2.353169e+000 2.204960e+000 1.999490e+000 1.649467e+000 2.134210e+000
<GCONST> 1.011395e+002
<TRANSP> 5
 0.000000e+000 1.000000e+000 0.000000e+000 0.000000e+000 0.000000e+000
 0.000000e+000 6.000000e-001 4.000000e-001 0.000000e+000 0.000000e+000
 0.000000e+000 0.000000e+000 6.000000e-001 4.000000e-001 0.000000e+000
 0.000000e+000 0.000000e+000 0.000000e+000 7.000000e-001 3.000000e-001
 0.000000e+000 0.000000e+000 0.000000e+000 0.000000e+000 0.000000e+000
<ENDHMM>
~h "sil"
<BEGINHMM>
<NUMSTATES> 5
<STATE> 2
<MEAN> 25
 -3.409819e-008 9.392090e-009 5.997359e-009 -3.569183e-008 8.812157e-008 2.244295e-008 -2.435720e-008 4.588545e-008 3.120324e-008 -1.279625e-008 3.150499e-008 1.618155e-008 -1.420885e-003 -4.159432e-003 2.885503e-003 -3.371050e-003 1.861067e-003 6.800673e-004 -6.284463e-004 -2.928789e-003 7.931115e-003 -3.930187e-003 4.606651e-003 4.781970e-004 1.776792e-002
<VARIANCE> 25
 4.233403e+001 4.530307e+001 5.279357e+001 7.786665e+001 5.077378e+001 4.714515e+001 5.838447e+001 4.501833e+001 5.041414e+001 4.123397e+001 3.618155e+001 2.700005e+001 1.131233e+000 1.684988e+000 1.756823e+000 2.419261e+000 2.217220e+000 2.289905e+000 2.574711e+000 2.394419e+000 2.353169e+000 2.204960e+000 1.999490e+000 1.649467e+000 2.134210e+000
<GCONST> 1.011395e+002
<STATE> 3
<MEAN> 25
 -3.409819e-008 9.392090e-009 5.997359e-009 -3.569183e-008 8.812157e-008 2.244295e-008 -2.435720e-008 4.588545e-008 3.120324e-008 -1.279625e-008 3.150499e-008 1.618155e-008 -1.420885e-003 -4.159432e-003 2.885503e-003 -3.371050e-003 1.861067e-003 6.800673e-004 -6.284463e-004 -2.928789e-003 7.931115e-003 -3.930187e-003 4.606651e-003 4.781970e-004 1.776792e-002
<VARIANCE> 25
 4.233403e+001 4.530307e+001 5.279357e+001 7.786665e+001 5.077378e+001 4.714515e+001 5.838447e+001 4.501833e+001 5.041414e+001 4.123397e+001 3.618155e+001 2.700005e+001 1.131233e+000 1.684988e+000 1.756823e+000 2.419261e+000 2.217220e+000 2.289905e+000 2.574711e+000 2.394419e+000 2.353169e+000 2.204960e+000 1.999490e+000 1.649467e+000 2.134210e+000
<GCONST> 1.011395e+002
<STATE> 4
<MEAN> 25
 -3.409819e-008 9.392090e-009 5.997359e-009 -3.569183e-008 8.812157e-008 2.244295e-008 -2.435720e-008 4.588545e-008 3.120324e-008 -1.279625e-008 3.150499e-008 1.618155e-008 -1.420885e-003 -4.159432e-003 2.885503e-003 -3.371050e-003 1.861067e-003 6.800673e-004 -6.284463e-004 -2.928789e-003 7.931115e-003 -3.930187e-003 4.606651e-003 4.781970e-004 1.776792e-002
<VARIANCE> 25
 4.233403e+001 4.530307e+001 5.279357e+001 7.786665e+001 5.077378e+001 4.714515e+001 5.838447e+001 4.501833e+001 5.041414e+001 4.123397e+001 3.618155e+001 2.700005e+001 1.131233e+000 1.684988e+000 1.756823e+000 2.419261e+000 2.217220e+000 2.289905e+000 2.574711e+000 2.394419e+000 2.353169e+000 2.204960e+000 1.999490e+000 1.649467e+000 2.134210e+000
<GCONST> 1.011395e+002
<TRANSP> 5
 0.000000e+000 1.000000e+000 0.000000e+000 0.000000e+000 0.000000e+000
 0.000000e+000 6.000000e-001 4.000000e-001 0.000000e+000 0.000000e+000
 0.000000e+000 0.000000e+000 6.000000e-001 4.000000e-001 0.000000e+000
 0.000000e+000 0.000000e+000 0.000000e+000 7.000000e-001 3.000000e-001
 0.000000e+000 0.000000e+000 0.000000e+000 0.000000e+000 0.000000e+000
<ENDHMM>
