~o
<STREAMINFO> 1 25
<VECSIZE> 25<NULLD><MFCC_D_N_Z_0><DIAGC>
~h "proto"
<BEGINHMM>
<NUMSTATES> 5
<STATE> 2
<MEAN> 25
 -5.566273e-008 1.879506e-008 -5.791034e-009 -2.023995e-008 6.357523e-008 4.541088e-008 -1.000645e-007 7.208403e-008 2.710892e-008 1.397875e-008 5.252066e-008 -1.612889e-008 -2.415422e-003 -6.975871e-003 3.379454e-003 -3.038871e-003 2.681973e-003 7.996968e-004 1.482296e-003 -2.407815e-003 8.849333e-003 -4.080775e-003 4.818107e-003 1.648061e-003 2.987793e-002
<VARIANCE> 25
 4.400750e+001 4.544341e+001 5.287278e+001 6.956253e+001 5.183162e+001 4.904879e+001 5.897980e+001 4.533819e+001 5.445679e+001 4.147883e+001 3.802336e+001 2.720052e+001 1.159619e+000 1.668244e+000 1.750695e+000 2.277412e+000 2.319366e+000 2.290559e+000 2.588874e+000 2.440260e+000 2.515988e+000 2.217589e+000 2.104161e+000 1.670742e+000 2.398592e+000
<GCONST> 1.015615e+002
<STATE> 3
<MEAN> 25
 -5.566273e-008 1.879506e-008 -5.791034e-009 -2.023995e-008 6.357523e-008 4.541088e-008 -1.000645e-007 7.208403e-008 2.710892e-008 1.397875e-008 5.252066e-008 -1.612889e-008 -2.415422e-003 -6.975871e-003 3.379454e-003 -3.038871e-003 2.681973e-003 7.996968e-004 1.482296e-003 -2.407815e-003 8.849333e-003 -4.080775e-003 4.818107e-003 1.648061e-003 2.987793e-002
<VARIANCE> 25
 4.400750e+001 4.544341e+001 5.287278e+001 6.956253e+001 5.183162e+001 4.904879e+001 5.897980e+001 4.533819e+001 5.445679e+001 4.147883e+001 3.802336e+001 2.720052e+001 1.159619e+000 1.668244e+000 1.750695e+000 2.277412e+000 2.319366e+000 2.290559e+000 2.588874e+000 2.440260e+000 2.515988e+000 2.217589e+000 2.104161e+000 1.670742e+000 2.398592e+000
<GCONST> 1.015615e+002
<STATE> 4
<MEAN> 25
 -5.566273e-008 1.879506e-008 -5.791034e-009 -2.023995e-008 6.357523e-008 4.541088e-008 -1.000645e-007 7.208403e-008 2.710892e-008 1.397875e-008 5.252066e-008 -1.612889e-008 -2.415422e-003 -6.975871e-003 3.379454e-003 -3.038871e-003 2.681973e-003 7.996968e-004 1.482296e-003 -2.407815e-003 8.849333e-003 -4.080775e-003 4.818107e-003 1.648061e-003 2.987793e-002
<VARIANCE> 25
 4.400750e+001 4.544341e+001 5.287278e+001 6.956253e+001 5.183162e+001 4.904879e+001 5.897980e+001 4.533819e+001 5.445679e+001 4.147883e+001 3.802336e+001 2.720052e+001 1.159619e+000 1.668244e+000 1.750695e+000 2.277412e+000 2.319366e+000 2.290559e+000 2.588874e+000 2.440260e+000 2.515988e+000 2.217589e+000 2.104161e+000 1.670742e+000 2.398592e+000
<GCONST> 1.015615e+002
<TRANSP> 5
 0.000000e+000 1.000000e+000 0.000000e+000 0.000000e+000 0.000000e+000
 0.000000e+000 6.000000e-001 4.000000e-001 0.000000e+000 0.000000e+000
 0.000000e+000 0.000000e+000 6.000000e-001 4.000000e-001 0.000000e+000
 0.000000e+000 0.000000e+000 0.000000e+000 7.000000e-001 3.000000e-001
 0.000000e+000 0.000000e+000 0.000000e+000 0.000000e+000 0.000000e+000
<ENDHMM>
