~o
<STREAMINFO> 1 25
<VECSIZE> 25<NULLD><MFCC_D_N_Z_0><DIAGC>
~h "@"
<BEGINHMM>
<NUMSTATES> 5
<STATE> 2
<MEAN> 25
 -4.314131e-001 8.709558e-001 -2.381681e+000 -1.206797e+000 1.901743e+000 1.009421e+000 -8.262190e-001 -2.929528e+000 -1.695343e+000 1.818911e+000 9.952798e-001 6.214392e-001 1.734846e-001 -1.163337e-001 -1.638597e-002 2.270506e-002 -2.793246e-002 -1.517686e-001 -1.289653e-001 -2.325821e-001 -2.758611e-001 7.163785e-002 1.504381e-002 2.659392e-002 1.410974e-001
<VARIANCE> 25
 5.045741e+001 4.056375e+001 3.333504e+001 4.610416e+001 3.506510e+001 4.820181e+001 5.903475e+001 4.516481e+001 5.339945e+001 5.036271e+001 2.918134e+001 2.288127e+001 1.478683e+000 1.453622e+000 1.591268e+000 1.820537e+000 2.177749e+000 3.114075e+000 2.562154e+000 2.707043e+000 2.752414e+000 2.760262e+000 2.135893e+000 1.972733e+000 1.216287e+000
<GCONST> 9.997211e+001
<STATE> 3
<MEAN> 25
 4.874618e-001 1.290797e-001 -2.365087e+000 -1.550458e+000 1.452117e+000 4.051015e-001 -1.519538e+000 -3.824604e+000 -3.015691e+000 1.351460e+000 1.117762e+000 9.829402e-001 3.158262e-001 -1.305208e-001 7.596359e-002 2.274441e-002 -1.977789e-001 -2.141264e-001 -1.778060e-001 -1.782867e-001 -2.311018e-001 -1.147945e-001 3.459046e-003 4.142189e-002 2.610333e-001
<VARIANCE> 25
 5.743633e+001 5.258678e+001 3.782796e+001 5.076728e+001 3.841585e+001 5.462829e+001 5.884180e+001 4.844553e+001 5.173576e+001 6.049354e+001 3.221207e+001 2.490046e+001 1.825417e+000 2.243220e+000 1.909817e+000 2.088358e+000 2.932928e+000 3.974076e+000 2.992250e+000 3.022457e+000 3.285264e+000 3.476641e+000 2.136281e+000 2.142956e+000 1.748959e+000
<GCONST> 1.038274e+002
<STATE> 4
<MEAN> 25
 2.095164e+000 4.543457e-001 -1.841155e+000 -1.969410e+000 -3.644826e-001 -3.200616e-001 -2.676540e+000 -4.606887e+000 -3.934705e+000 -3.252386e-001 7.719826e-001 1.108740e+000 2.964764e-001 -4.642732e-002 1.347043e-001 1.196518e-001 -2.274088e-001 -1.126759e-001 -7.819427e-002 1.304237e-001 1.016032e-001 -2.177083e-001 -8.764645e-002 -1.477317e-002 2.586489e-001
<VARIANCE> 25
 5.452801e+001 6.913499e+001 4.256214e+001 4.964502e+001 4.113013e+001 5.324022e+001 5.626720e+001 4.677297e+001 4.835872e+001 7.996103e+001 3.526529e+001 2.811316e+001 1.936884e+000 2.319727e+000 2.243916e+000 2.325225e+000 2.943891e+000 3.558926e+000 3.081655e+000 3.244367e+000 2.955778e+000 3.033999e+000 2.387822e+000 2.128587e+000 2.065979e+000
<GCONST> 1.049151e+002
<TRANSP> 5
 0.000000e+000 1.000000e+000 0.000000e+000 0.000000e+000 0.000000e+000
 0.000000e+000 6.620095e-001 3.379906e-001 0.000000e+000 0.000000e+000
 0.000000e+000 0.000000e+000 6.547943e-001 3.452058e-001 0.000000e+000
 0.000000e+000 0.000000e+000 0.000000e+000 7.928109e-001 2.071891e-001
 0.000000e+000 0.000000e+000 0.000000e+000 0.000000e+000 0.000000e+000
<ENDHMM>
~h "a"
<BEGINHMM>
<NUMSTATES> 5
<STATE> 2
<MEAN> 25
 3.119623e+000 -2.670973e+000 -2.594729e+000 -2.191958e+000 -6.800291e-001 -8.631184e-001 7.311119e-001 1.302661e+000 1.016971e-001 -1.102287e+000 -3.675599e-003 7.289072e-001 2.415067e-001 -2.202755e-001 -1.753805e-001 -2.202095e-002 -7.149211e-002 -6.713345e-002 1.071725e-001 2.026889e-001 3.019494e-002 -5.611354e-002 -2.111232e-002 3.286065e-002 3.017519e-001
<VARIANCE> 25
 3.661372e+001 4.857731e+001 3.869707e+001 5.626760e+001 4.407450e+001 3.991531e+001 4.933344e+001 4.563516e+001 5.617253e+001 3.465363e+001 4.516692e+001 2.895622e+001 1.570445e+000 2.264566e+000 2.007991e+000 2.143677e+000 2.569320e+000 2.394390e+000 2.587328e+000 2.938996e+000 2.926522e+000 2.297626e+000 2.731537e+000 1.886682e+000 2.930621e+000
<GCONST> 1.022527e+002
<STATE> 3
<MEAN> 25
 3.727822e+000 -3.153701e+000 -2.901601e+000 -2.297271e+000 -9.303117e-001 -1.040283e+000 8.235494e-001 1.757655e+000 1.566453e-001 -1.238407e+000 -2.041136e-001 8.826673e-001 1.324333e-001 -6.027695e-002 -5.200642e-002 -1.423507e-002 -1.304594e-002 1.355260e-003 -3.595072e-003 6.517693e-002 -3.362595e-002 -1.473886e-002 -6.647880e-002 2.311270e-002 1.384990e-001
<VARIANCE> 25
 3.466445e+001 4.947836e+001 3.857976e+001 5.411306e+001 4.570158e+001 3.957506e+001 4.959729e+001 4.689968e+001 5.769428e+001 3.377125e+001 4.902786e+001 3.021041e+001 1.500577e+000 2.387176e+000 1.861416e+000 2.166982e+000 2.579945e+000 2.360376e+000 2.670131e+000 2.956656e+000 2.848180e+000 2.224842e+000 2.680925e+000 1.922473e+000 3.024495e+000
<GCONST> 1.023019e+002
<STATE> 4
<MEAN> 25
 2.966240e+000 -2.668380e+000 -2.727687e+000 -1.844009e+000 -1.165156e-001 -9.330713e-001 4.930097e-001 1.772602e+000 4.682825e-001 -8.869327e-001 -1.033354e+000 4.311569e-001 -7.613647e-002 1.826220e-001 1.005833e-001 9.196932e-002 1.060922e-001 6.991442e-002 -5.002698e-002 -1.134911e-001 -5.369183e-002 2.180062e-002 -8.218661e-002 -3.983808e-002 -1.796718e-001
<VARIANCE> 25
 3.531266e+001 4.243623e+001 3.181625e+001 5.179635e+001 4.441069e+001 3.567915e+001 5.121346e+001 4.570451e+001 4.870924e+001 3.007901e+001 5.496925e+001 3.212543e+001 1.010333e+000 1.894939e+000 1.523281e+000 1.954099e+000 2.261271e+000 2.013170e+000 2.582253e+000 2.600433e+000 2.424819e+000 1.974914e+000 2.455405e+000 1.745048e+000 2.493381e+000
<GCONST> 9.965407e+001
<TRANSP> 5
 0.000000e+000 1.000000e+000 0.000000e+000 0.000000e+000 0.000000e+000
 0.000000e+000 6.436412e-001 3.563587e-001 0.000000e+000 0.000000e+000
 0.000000e+000 0.000000e+000 6.449175e-001 3.550825e-001 0.000000e+000
 0.000000e+000 0.000000e+000 0.000000e+000 8.047500e-001 1.952499e-001
 0.000000e+000 0.000000e+000 0.000000e+000 0.000000e+000 0.000000e+000
<ENDHMM>
~h "b"
<BEGINHMM>
<NUMSTATES> 5
<STATE> 2
<MEAN> 25
 9.524602e-001 2.079401e+000 -1.021779e+000 1.545341e+000 1.380476e+000 1.994580e-001 -7.505530e-001 -1.167957e+000 -6.583719e-001 -8.868981e-001 -1.001954e-001 5.180894e-001 -2.606741e-001 -1.166573e-001 -1.096209e-001 -1.905385e-002 2.918102e-002 1.374142e-001 1.022113e-001 5.431413e-002 1.804715e-001 1.631224e-001 4.187655e-002 1.109419e-001 -3.164996e-001
<VARIANCE> 25
 3.187332e+001 3.183945e+001 2.203941e+001 3.770533e+001 3.241488e+001 3.649787e+001 4.975929e+001 3.876515e+001 4.176056e+001 3.786679e+001 3.642952e+001 2.250499e+001 7.777541e-001 1.235826e+000 1.136319e+000 1.421260e+000 1.552014e+000 1.811938e+000 2.275177e+000 1.832329e+000 2.025127e+000 2.030659e+000 2.351203e+000 1.456513e+000 1.287119e+000
<GCONST> 9.410647e+001
<STATE> 3
<MEAN> 25
 -3.291505e-001 1.749231e+000 -1.380908e+000 1.523565e+000 1.306650e+000 9.090967e-001 7.372691e-002 -1.004695e+000 -9.138916e-002 -3.427226e-001 1.411561e-001 6.189026e-001 -2.326252e-001 -6.168402e-002 -5.023760e-002 -3.336396e-002 -4.298966e-002 8.404026e-002 9.965121e-002 1.480932e-002 7.861347e-002 1.033786e-001 2.935674e-003 -4.590495e-003 -2.449730e-001
<VARIANCE> 25
 3.133151e+001 2.653144e+001 1.883967e+001 3.301091e+001 2.580292e+001 3.032377e+001 4.281093e+001 3.397621e+001 3.380006e+001 3.715334e+001 3.379065e+001 1.922858e+001 5.012187e-001 8.776402e-001 8.503593e-001 1.021812e+000 1.268071e+000 1.555742e+000 1.788339e+000 1.466872e+000 1.746123e+000 1.739545e+000 1.756701e+000 1.195919e+000 6.056760e-001
<GCONST> 8.869374e+001
<STATE> 4
<MEAN> 25
 -1.990454e+000 1.730708e-001 -1.571315e+000 1.333184e+000 1.271444e+000 1.201606e+000 2.071508e+000 3.338188e-001 1.703809e+000 3.974473e-001 1.203928e+000 4.004788e-001 -4.958950e-002 -8.230201e-003 2.566650e-002 -1.768187e-003 7.095352e-003 4.510279e-003 6.477435e-003 1.374232e-002 5.084503e-003 1.032830e-002 -2.176014e-002 -1.425274e-002 -2.567199e-002
<VARIANCE> 25
 2.116831e+001 1.542630e+001 1.591203e+001 2.308291e+001 1.667787e+001 2.002051e+001 3.669071e+001 2.633463e+001 2.555027e+001 2.379399e+001 3.246410e+001 1.561670e+001 4.118372e-001 5.672742e-001 6.790529e-001 8.736213e-001 1.053205e+000 1.080763e+000 1.462405e+000 1.366938e+000 1.631086e+000 1.588298e+000 1.639738e+000 1.169367e+000 8.550586e-001
<GCONST> 8.325676e+001
<TRANSP> 5
 0.000000e+000 1.000000e+000 0.000000e+000 0.000000e+000 0.000000e+000
 0.000000e+000 7.301332e-001 2.698668e-001 0.000000e+000 0.000000e+000
 0.000000e+000 0.000000e+000 7.630405e-001 2.369594e-001 0.000000e+000
 0.000000e+000 0.000000e+000 0.000000e+000 9.585217e-001 4.147837e-002
 0.000000e+000 0.000000e+000 0.000000e+000 0.000000e+000 0.000000e+000
<ENDHMM>
~h "c"
<BEGINHMM>
<NUMSTATES> 5
<STATE> 2
<MEAN> 25
 -2.865941e+000 1.084521e+000 -7.763050e-001 1.997520e+000 1.042919e+000 5.080617e+000 3.311246e+000 3.233741e-001 2.539050e+000 2.636290e+000 1.367820e+000 2.667904e+000 -2.206590e-001 -1.766673e-001 3.012874e-002 4.423374e-001 -1.546044e-001 -7.229469e-002 5.654184e-001 8.892161e-002 -9.002386e-002 1.103436e-001 4.348949e-002 1.049743e-001 -1.773110e-001
<VARIANCE> 25
 1.442690e+001 1.040139e+001 1.940902e+001 3.982564e+001 1.529091e+001 3.435537e+001 2.658631e+001 2.154539e+001 2.293420e+001 2.667781e+001 2.014117e+001 1.499734e+001 4.088537e-001 1.289076e+000 1.531611e+000 1.800363e+000 9.386892e-001 2.729761e+000 3.017936e+000 2.691741e+000 2.270247e+000 2.913826e+000 2.163892e+000 1.418906e+000 8.091080e-001
<GCONST> 8.855875e+001
<STATE> 3
<MEAN> 25
 -3.409193e+000 3.001812e-001 -5.147960e-001 2.938914e+000 4.630096e-001 3.810720e+000 4.011523e+000 6.384178e-001 1.411473e+000 2.327070e+000 1.962968e+000 2.892100e+000 -1.763780e-001 -4.774619e-001 3.335805e-001 2.860384e-001 -3.201565e-001 -5.951031e-001 2.240083e-001 8.356731e-002 -6.216540e-001 -3.383655e-001 3.200616e-002 -3.635272e-002 3.080094e-001
<VARIANCE> 25
 1.356822e+001 1.887543e+001 2.510497e+001 4.321633e+001 1.318572e+001 3.550811e+001 2.679156e+001 2.264800e+001 2.896551e+001 2.007819e+001 1.456880e+001 1.111204e+001 7.668270e-001 2.861483e+000 2.216822e+000 2.242381e+000 1.341579e+000 2.315481e+000 2.831161e+000 3.585686e+000 2.482413e+000 2.351851e+000 1.961930e+000 1.245391e+000 1.298640e+000
<GCONST> 9.125120e+001
<STATE> 4
<MEAN> 25
 -2.430297e+000 -1.676422e+000 2.638137e+000 -1.346027e+000 -1.597963e+000 -1.682644e+000 1.368746e+000 3.992774e-002 1.107803e-001 -9.557297e-001 1.650266e+000 1.437427e+000 3.155761e-001 -1.673685e-001 1.985651e-001 -3.510016e-001 -1.088364e-001 -2.601643e-001 -4.402520e-001 -7.886896e-002 -8.450728e-002 -2.592915e-001 -5.307975e-002 -2.158507e-001 8.730565e-001
<VARIANCE> 25
 6.232058e+001 1.272727e+002 9.468727e+001 1.214716e+002 6.756808e+001 3.423445e+001 5.411259e+001 9.074001e+001 5.963452e+001 2.897569e+001 4.732525e+001 3.945225e+001 5.618363e+000 7.864585e+000 7.010140e+000 5.258759e+000 5.896182e+000 2.424386e+000 5.256508e+000 6.257867e+000 3.968935e+000 2.860510e+000 2.990471e+000 3.322729e+000 6.548286e+000
<GCONST> 1.156618e+002
<TRANSP> 5
 0.000000e+000 1.000000e+000 0.000000e+000 0.000000e+000 0.000000e+000
 0.000000e+000 6.370071e-001 3.629929e-001 0.000000e+000 0.000000e+000
 0.000000e+000 0.000000e+000 6.594532e-001 3.405468e-001 0.000000e+000
 0.000000e+000 0.000000e+000 0.000000e+000 9.444759e-001 5.552404e-002
 0.000000e+000 0.000000e+000 0.000000e+000 0.000000e+000 0.000000e+000
<ENDHMM>
~h "d"
<BEGINHMM>
<NUMSTATES> 5
<STATE> 2
<MEAN> 25
 2.222643e-001 1.609816e+000 5.530702e-002 2.439677e+000 1.256344e+000 1.088552e+000 5.692819e-001 4.852112e-001 5.619460e-001 -8.896192e-001 -3.616748e-001 9.384204e-001 -2.778913e-001 2.941484e-001 2.545432e-002 5.484309e-002 1.477764e-001 2.347013e-001 1.560272e-001 7.500260e-003 8.030673e-002 1.663969e-001 -4.643818e-002 -3.957894e-002 -4.673558e-001
<VARIANCE> 25
 2.587155e+001 2.076826e+001 2.650224e+001 2.556761e+001 2.182997e+001 3.183886e+001 4.855044e+001 3.509053e+001 2.639180e+001 3.037294e+001 2.559591e+001 2.227342e+001 5.240731e-001 9.401491e-001 8.784273e-001 1.035058e+000 1.035328e+000 1.837262e+000 1.820523e+000 1.752963e+000 1.653059e+000 1.907600e+000 1.600340e+000 1.379600e+000 1.012523e+000
<GCONST> 8.872234e+001
<STATE> 3
<MEAN> 25
 -1.147466e+000 2.320723e+000 1.365322e-001 2.448529e+000 1.846521e+000 2.048742e+000 1.050517e+000 2.759232e-001 9.082913e-001 1.812509e-001 -2.615527e-001 8.067437e-001 -1.739582e-001 1.311970e-001 1.785610e-002 -6.089561e-004 6.694318e-002 1.030240e-001 5.262563e-002 -8.438564e-002 -7.874769e-002 9.073757e-002 2.096160e-002 -4.317365e-002 -1.914911e-001
<VARIANCE> 25
 2.162406e+001 1.826328e+001 2.413468e+001 2.122030e+001 1.943357e+001 2.908788e+001 4.541697e+001 2.975030e+001 2.935817e+001 3.032243e+001 2.313850e+001 2.098577e+001 4.715243e-001 7.415918e-001 7.231309e-001 8.629794e-001 9.431752e-001 1.558230e+000 1.706168e+000 1.602593e+000 1.529527e+000 1.754813e+000 1.375755e+000 1.347715e+000 1.057296e+000
<GCONST> 8.621619e+001
<STATE> 4
<MEAN> 25
 -5.495132e-001 1.286965e+000 -6.743560e-001 1.421486e+000 1.704390e+000 1.833041e+000 -3.091901e-001 1.192718e-001 4.411025e-001 5.589513e-001 5.049017e-001 4.926438e-001 3.641099e-002 2.750755e-002 2.319990e-002 -2.255481e-002 -1.677208e-002 2.003875e-002 -1.449366e-001 -6.218201e-002 -7.695353e-002 3.350390e-002 6.468495e-002 -6.468491e-002 1.107022e-001
<VARIANCE> 25
 2.447421e+001 1.981870e+001 2.454133e+001 2.229802e+001 2.296388e+001 2.655012e+001 5.638525e+001 3.333621e+001 2.779951e+001 2.751755e+001 2.443638e+001 2.461592e+001 6.086392e-001 1.027656e+000 9.606599e-001 1.088403e+000 1.265602e+000 1.602366e+000 2.420809e+000 1.818967e+000 1.493447e+000 1.742739e+000 1.477445e+000 1.879050e+000 2.329726e+000
<GCONST> 9.001525e+001
<TRANSP> 5
 0.000000e+000 1.000000e+000 0.000000e+000 0.000000e+000 0.000000e+000
 0.000000e+000 7.988498e-001 2.011502e-001 0.000000e+000 0.000000e+000
 0.000000e+000 0.000000e+000 8.038734e-001 1.961267e-001 0.000000e+000
 0.000000e+000 0.000000e+000 0.000000e+000 9.234117e-001 7.658833e-002
 0.000000e+000 0.000000e+000 0.000000e+000 0.000000e+000 0.000000e+000
<ENDHMM>
~h "e"
<BEGINHMM>
<NUMSTATES> 5
<STATE> 2
<MEAN> 25
 2.985057e+000 -1.617136e+000 1.120535e+000 5.359834e+000 2.260367e+000 -4.722176e+000 -7.573152e+000 -5.935700e+000 -2.454808e+000 2.287213e+000 -5.474461e-001 -3.219331e+000 -2.193236e-001 2.343141e-001 1.163483e-001 7.546348e-002 1.428059e-001 3.034445e-001 1.993445e-001 2.352499e-001 2.708690e-001 -2.411488e-002 -3.505973e-001 -1.301460e-001 -3.386802e-001
<VARIANCE> 25
 2.491476e+001 2.821371e+001 4.564732e+001 4.908774e+001 3.736902e+001 7.735326e+001 7.706396e+001 6.630223e+001 3.389167e+001 6.306076e+001 4.914553e+001 2.753017e+001 2.541405e-001 8.767931e-001 9.326789e-001 9.824358e-001 1.344353e+000 2.129024e+000 2.245752e+000 1.647230e+000 1.518593e+000 1.781841e+000 1.916302e+000 1.430602e+000 4.154851e-001
<GCONST> 9.349873e+001
<STATE> 3
<MEAN> 25
 7.121993e-001 1.114912e-001 2.607976e-001 3.198026e+000 2.751658e+000 -2.359387e-001 -2.978961e+000 -2.258624e+000 4.711882e-002 1.844478e+000 -9.286566e-001 -2.045826e+000 -2.607596e-001 2.575107e-001 2.611207e-002 -1.235961e-001 1.546318e-001 4.783403e-001 3.460465e-001 2.159860e-001 1.752876e-001 -1.082734e-001 -8.853801e-002 1.815378e-001 -3.911827e-001
<VARIANCE> 25
 2.890339e+001 2.157990e+001 2.916705e+001 5.151749e+001 4.494674e+001 6.784717e+001 5.107283e+001 3.839510e+001 3.037001e+001 4.685474e+001 3.114593e+001 2.579387e+001 2.700026e-001 7.712615e-001 8.928517e-001 1.059015e+000 1.173494e+000 1.837111e+000 2.017236e+000 1.454910e+000 1.609863e+000 1.687238e+000 1.667553e+000 1.416947e+000 3.391343e-001
<GCONST> 9.024841e+001
<STATE> 4
<MEAN> 25
 -1.974759e+000 6.336537e-001 3.761539e-001 1.728467e+000 1.286186e+000 1.525230e+000 1.252058e+000 6.115299e-002 1.492875e+000 1.002678e+000 1.597148e-001 -2.614931e-001 -4.895218e-002 1.579408e-002 8.650647e-003 -4.325937e-003 -5.039952e-003 1.560863e-002 4.037350e-002 2.038356e-002 1.347280e-002 -3.114745e-003 2.892075e-002 1.865447e-002 -6.354704e-002
<VARIANCE> 25
 1.894278e+001 1.091118e+001 1.956350e+001 2.971969e+001 2.808942e+001 3.814961e+001 2.847056e+001 2.754472e+001 3.275385e+001 2.414754e+001 1.764051e+001 1.581711e+001 3.514249e-001 4.698364e-001 7.824615e-001 9.603919e-001 1.017609e+000 1.541260e+000 1.466308e+000 1.523747e+000 1.742212e+000 1.580942e+000 1.316538e+000 1.166197e+000 5.128691e-001
<GCONST> 8.353101e+001
<TRANSP> 5
 0.000000e+000 1.000000e+000 0.000000e+000 0.000000e+000 0.000000e+000
 0.000000e+000 8.217879e-001 1.782121e-001 0.000000e+000 0.000000e+000
 0.000000e+000 0.000000e+000 7.632460e-001 2.367540e-001 0.000000e+000
 0.000000e+000 0.000000e+000 0.000000e+000 9.769660e-001 2.303405e-002
 0.000000e+000 0.000000e+000 0.000000e+000 0.000000e+000 0.000000e+000
<ENDHMM>
~h "f"
<BEGINHMM>
<NUMSTATES> 5
<STATE> 2
<MEAN> 25
 -1.066524e+000 -7.896383e-001 -3.637517e+000 -7.422544e-001 -2.925466e+000 -2.242779e+000 4.830240e+000 2.864828e+000 -9.180853e-001 -4.426761e+000 1.706933e+000 1.099817e+000 5.930312e-002 -7.521089e-002 -2.197158e-001 -2.915913e-001 -2.042189e-001 -3.777512e-001 7.184594e-002 -1.308530e-001 -2.631322e-001 -3.237661e-001 7.457451e-002 1.844859e-002 5.983858e-001
<VARIANCE> 25
 6.737189e+001 4.166628e+001 5.277158e+001 5.217710e+001 7.528461e+001 3.616500e+001 4.479585e+001 3.702803e+001 2.729008e+001 2.866432e+001 2.509180e+001 1.601595e+001 2.726290e+000 1.493215e+000 1.996838e+000 1.410769e+000 3.998254e+000 2.673676e+000 2.301722e+000 2.628753e+000 2.017282e+000 1.868853e+000 1.615904e+000 1.054964e+000 1.665072e+000
<GCONST> 9.876833e+001
<STATE> 3
<MEAN> 25
 -2.063516e+000 -1.708338e+000 -3.330823e+000 -1.447707e+000 -2.608361e+000 -2.792428e+000 5.023691e+000 2.386080e+000 -9.358810e-001 -4.454684e+000 2.951129e+000 1.683044e+000 -2.627043e-001 4.850994e-002 6.731434e-002 -2.137958e-001 4.208317e-002 -1.623447e-001 3.383221e-002 -2.841657e-001 1.799163e-002 6.612095e-002 -6.301803e-002 -1.583020e-001 5.476516e-001
<VARIANCE> 25
 7.546160e+001 3.953730e+001 4.967594e+001 6.277238e+001 1.183244e+002 4.315556e+001 5.039452e+001 4.358917e+001 3.213592e+001 2.673054e+001 2.428438e+001 1.861613e+001 2.428999e+000 1.490836e+000 1.973438e+000 1.652230e+000 4.044157e+000 2.682445e+000 2.887237e+000 2.224451e+000 2.030928e+000 1.837907e+000 2.047396e+000 1.345945e+000 2.757915e+000
<GCONST> 1.011532e+002
<STATE> 4
<MEAN> 25
 -5.454872e-001 -2.367615e+000 -1.634151e-002 -3.288618e+000 1.823863e+000 6.404033e-001 -6.583412e-001 -1.839923e+000 -8.833116e-002 1.166800e+000 1.356132e+000 -1.358110e+000 3.570502e-001 -4.530840e-002 7.088027e-002 -1.723547e-001 -9.369035e-002 3.645536e-002 -8.370467e-002 -8.124594e-004 -8.245184e-002 1.528436e-001 -2.595106e-001 -1.254952e-001 3.384479e-001
<VARIANCE> 25
 8.825960e+001 4.540524e+001 4.952287e+001 9.052692e+001 7.714170e+001 5.178482e+001 6.547494e+001 2.209027e+001 4.045309e+001 3.872113e+001 2.824079e+001 2.219154e+001 4.689541e+000 2.335285e+000 2.534940e+000 4.814059e+000 4.439564e+000 3.554118e+000 4.481723e+000 2.639319e+000 3.515725e+000 2.038704e+000 2.242171e+000 1.682251e+000 3.494467e+000
<GCONST> 1.066902e+002
<TRANSP> 5
 0.000000e+000 1.000000e+000 0.000000e+000 0.000000e+000 0.000000e+000
 0.000000e+000 8.267719e-001 1.732281e-001 0.000000e+000 0.000000e+000
 0.000000e+000 0.000000e+000 7.716364e-001 2.283636e-001 0.000000e+000
 0.000000e+000 0.000000e+000 0.000000e+000 9.500954e-001 4.990455e-002
 0.000000e+000 0.000000e+000 0.000000e+000 0.000000e+000 0.000000e+000
<ENDHMM>
~h "g"
<BEGINHMM>
<NUMSTATES> 5
<STATE> 2
<MEAN> 25
 -2.619956e+000 -1.036405e+000 1.608060e+000 2.260597e+000 -9.875632e-001 -3.908257e-001 1.310767e+000 1.060052e-001 -5.097643e-001 -3.259178e-001 -7.628005e-001 -1.162027e+000 2.631331e-001 -3.059348e-001 2.382709e-001 -1.791535e-001 -4.530297e-001 -1.472643e-002 -2.671836e-001 2.530288e-001 3.182012e-001 -2.417980e-001 4.536686e-002 -2.379632e-001 7.693828e-001
<VARIANCE> 25
 3.504953e+001 8.385599e+001 6.309454e+001 6.488858e+001 1.140144e+002 4.935996e+001 5.028541e+001 5.071836e+001 4.977021e+001 5.854977e+001 3.467506e+001 3.190085e+001 1.553692e+000 8.410668e+000 3.447740e+000 5.532808e+000 1.095197e+001 3.872506e+000 4.352927e+000 4.392241e+000 3.124347e+000 3.996501e+000 3.272941e+000 2.789407e+000 6.495798e+000
<GCONST> 1.125395e+002
<STATE> 3
<MEAN> 25
 -4.256998e-001 8.630443e-001 3.552653e+000 2.696554e+000 -2.126048e+000 -1.001250e+000 -9.766746e-001 1.020625e-001 6.510920e-001 -1.672109e+000 -1.340930e+000 -1.201186e+000 5.312261e-001 4.610204e-001 4.418555e-002 1.658171e-001 -1.197358e-001 -8.011572e-002 -5.417476e-001 -1.375420e-001 1.324143e-001 -7.705344e-002 -1.142723e-001 1.017601e-001 1.010838e-001
<VARIANCE> 25
 3.462572e+001 8.751230e+001 6.600758e+001 5.535957e+001 9.572044e+001 4.739742e+001 5.129243e+001 5.523028e+001 4.928069e+001 5.621835e+001 3.631399e+001 3.108287e+001 1.736028e+000 4.068398e+000 3.172952e+000 4.449007e+000 6.572993e+000 3.662205e+000 4.274282e+000 3.342211e+000 3.137355e+000 3.129648e+000 3.379586e+000 2.280416e+000 2.070006e+000
<GCONST> 1.089881e+002
<STATE> 4
<MEAN> 25
 7.212846e-002 2.411459e+000 -6.071067e-001 3.355913e+000 2.795201e-001 7.499731e-002 -5.166771e-001 -1.426839e+000 -1.709399e+000 -1.347158e+000 -8.890287e-001 9.504836e-002 3.011693e-001 -1.722936e-002 -2.187612e-001 -3.096107e-001 -1.995462e-001 6.474903e-002 -2.246695e-001 3.878820e-002 -1.777062e-001 1.911789e-001 1.859541e-001 1.734700e-002 3.415473e-001
<VARIANCE> 25
 2.782789e+001 3.599973e+001 6.355725e+001 4.207104e+001 5.055768e+001 3.203336e+001 6.323554e+001 5.157798e+001 5.082286e+001 4.935646e+001 3.176636e+001 2.845088e+001 1.214081e+000 1.775450e+000 3.571215e+000 3.096897e+000 4.387887e+000 2.695799e+000 4.006580e+000 2.578241e+000 2.424411e+000 3.254986e+000 2.649726e+000 1.996720e+000 2.742357e+000
<GCONST> 1.035791e+002
<TRANSP> 5
 0.000000e+000 1.000000e+000 0.000000e+000 0.000000e+000 0.000000e+000
 0.000000e+000 7.565663e-001 2.434337e-001 0.000000e+000 0.000000e+000
 0.000000e+000 0.000000e+000 6.854734e-001 3.145265e-001 0.000000e+000
 0.000000e+000 0.000000e+000 0.000000e+000 8.345731e-001 1.654269e-001
 0.000000e+000 0.000000e+000 0.000000e+000 0.000000e+000 0.000000e+000
<ENDHMM>
~h "h"
<BEGINHMM>
<NUMSTATES> 5
<STATE> 2
<MEAN> 25
 7.241639e-002 -5.321374e+000 -3.181154e-001 1.754438e+000 2.491201e+000 2.254667e+000 5.917557e+000 1.222892e+000 1.218918e+000 -8.634770e-001 1.748697e+000 9.995270e-001 -2.807827e-001 -1.926562e-001 -3.636777e-002 1.021188e-001 2.577234e-001 2.636395e-001 4.393152e-001 5.606575e-002 2.278996e-001 1.235987e-001 2.012113e-001 1.528592e-001 -2.262828e-001
<VARIANCE> 25
 2.697750e+001 3.598647e+001 2.893926e+001 5.303477e+001 6.405202e+001 3.510117e+001 4.888306e+001 3.716440e+001 4.554224e+001 2.486892e+001 3.863755e+001 2.813038e+001 5.683656e-001 1.059726e+000 1.152495e+000 1.404166e+000 1.786182e+000 1.868907e+000 2.443421e+000 1.951003e+000 2.475333e+000 1.870480e+000 1.987791e+000 1.735122e+000 1.033075e+000
<GCONST> 9.495205e+001
<STATE> 3
<MEAN> 25
 -7.443196e-001 -5.499531e+000 -5.918359e-001 2.156271e+000 3.116003e+000 2.632474e+000 6.747361e+000 1.455359e+000 1.765229e+000 -3.777128e-001 2.366202e+000 1.254408e+000 -1.820730e-001 2.459618e-002 3.488084e-003 1.073358e-001 1.196821e-001 5.251683e-003 7.302286e-002 -4.844403e-002 6.701109e-003 5.896385e-002 3.419901e-002 4.835299e-002 -1.961633e-001
<VARIANCE> 25
 2.676669e+001 3.587027e+001 2.973871e+001 5.653370e+001 7.257828e+001 3.454092e+001 5.118159e+001 3.537824e+001 4.510801e+001 3.042543e+001 3.589382e+001 2.651152e+001 6.751717e-001 1.244985e+000 1.265288e+000 1.484595e+000 1.745620e+000 1.720269e+000 2.287124e+000 1.836658e+000 2.224679e+000 1.879413e+000 1.845006e+000 1.575752e+000 1.052802e+000
<GCONST> 9.519290e+001
<STATE> 4
<MEAN> 25
 -1.346918e+000 -4.241957e+000 -4.116443e-001 2.596310e+000 3.803622e+000 1.458069e+000 5.801457e+000 -2.036637e-001 3.038572e-001 1.388380e+000 2.371382e+000 6.542092e-001 8.641596e-003 1.917226e-001 2.445699e-002 -7.783833e-003 -6.221038e-002 -6.750663e-002 -2.409449e-001 -8.554456e-002 -6.350496e-002 9.511926e-003 -7.170668e-002 -1.721073e-002 -1.229265e-001
<VARIANCE> 25
 3.516963e+001 3.277754e+001 2.951868e+001 5.198369e+001 6.274827e+001 3.013062e+001 8.028184e+001 4.801643e+001 4.558807e+001 3.948399e+001 5.280337e+001 2.610098e+001 1.133521e+000 1.400933e+000 1.217761e+000 1.863951e+000 2.313248e+000 1.654312e+000 2.822622e+000 2.441355e+000 2.403072e+000 2.114800e+000 2.277928e+000 1.931484e+000 1.657024e+000
<GCONST> 9.902538e+001
<TRANSP> 5
 0.000000e+000 1.000000e+000 0.000000e+000 0.000000e+000 0.000000e+000
 0.000000e+000 7.523254e-001 2.476745e-001 0.000000e+000 0.000000e+000
 0.000000e+000 0.000000e+000 7.499053e-001 2.500947e-001 0.000000e+000
 0.000000e+000 0.000000e+000 0.000000e+000 9.211106e-001 7.888938e-002
 0.000000e+000 0.000000e+000 0.000000e+000 0.000000e+000 0.000000e+000
<ENDHMM>
~h "i"
<BEGINHMM>
<NUMSTATES> 5
<STATE> 2
<MEAN> 25
 1.222572e+000 -1.324266e+000 9.370769e+000 5.053657e+000 -5.978042e-002 -6.086177e+000 -6.843220e+000 -3.423219e+000 -3.820791e+000 -2.976197e+000 -1.355779e+000 -3.850576e+000 1.467461e-001 1.337526e-001 6.678979e-001 5.411144e-001 -2.880828e-001 -4.573947e-001 -4.393191e-001 2.431750e-002 -2.143552e-001 -3.305230e-001 -1.430855e-001 -3.000648e-001 1.039440e-001
<VARIANCE> 25
 2.455010e+001 6.308351e+001 7.279309e+001 1.498646e+002 8.783237e+001 8.283942e+001 6.538068e+001 5.404310e+001 4.384127e+001 5.411482e+001 5.025294e+001 3.572191e+001 1.193485e+000 1.949027e+000 2.924103e+000 3.857139e+000 2.990279e+000 4.743491e+000 3.508674e+000 2.723748e+000 3.053674e+000 3.150782e+000 2.274313e+000 2.112595e+000 1.277376e+000
<GCONST> 1.071712e+002
<STATE> 3
<MEAN> 25
 1.184319e+000 -1.765898e-001 9.980895e+000 6.741625e+000 -7.112375e-001 -6.164234e+000 -7.609606e+000 -2.946049e+000 -3.854804e+000 -3.956436e+000 -2.137920e+000 -4.323909e+000 -4.249602e-002 2.274372e-001 4.637014e-002 3.865496e-002 -9.643636e-002 2.115050e-001 1.852095e-002 -4.462384e-003 2.741160e-002 2.755859e-002 -1.018462e-001 -6.213105e-002 -1.882948e-001
<VARIANCE> 25
 1.836094e+001 5.189332e+001 6.658548e+001 1.348746e+002 8.791987e+001 9.230306e+001 5.665509e+001 5.259840e+001 4.454291e+001 5.385608e+001 5.007649e+001 3.398158e+001 6.859840e-001 1.413712e+000 2.187419e+000 2.731163e+000 2.157083e+000 3.684783e+000 2.851289e+000 2.407999e+000 2.440750e+000 2.355307e+000 1.946593e+000 1.596099e+000 1.003021e+000
<GCONST> 1.027744e+002
<STATE> 4
<MEAN> 25
 2.218190e-002 2.966120e+000 1.094700e+001 2.385560e+000 -4.426237e+000 -2.231501e+000 -6.042117e+000 -3.251417e+000 -4.415751e+000 -1.097846e+000 -8.150598e-001 -3.356926e+000 -9.256633e-002 7.025360e-002 -4.723479e-001 -1.263805e-001 1.598783e-001 2.938085e-001 3.218179e-001 6.926133e-002 1.400622e-001 1.680638e-001 6.890643e-002 2.341611e-001 -3.886645e-001
<VARIANCE> 25
 2.229613e+001 4.882909e+001 8.939512e+001 1.241610e+002 1.126147e+002 6.091804e+001 6.915417e+001 6.335049e+001 5.450231e+001 5.241423e+001 5.208229e+001 3.562108e+001 8.162600e-001 1.422029e+000 2.832829e+000 3.388868e+000 3.168571e+000 3.160809e+000 3.599646e+000 3.171784e+000 2.763760e+000 2.517694e+000 2.108836e+000 1.848578e+000 1.766210e+000
<GCONST> 1.059754e+002
<TRANSP> 5
 0.000000e+000 1.000000e+000 0.000000e+000 0.000000e+000 0.000000e+000
 0.000000e+000 8.084182e-001 1.915819e-001 0.000000e+000 0.000000e+000
 0.000000e+000 0.000000e+000 8.067094e-001 1.932906e-001 0.000000e+000
 0.000000e+000 0.000000e+000 0.000000e+000 9.083019e-001 9.169813e-002
 0.000000e+000 0.000000e+000 0.000000e+000 0.000000e+000 0.000000e+000
<ENDHMM>
~h "j"
<BEGINHMM>
<NUMSTATES> 5
<STATE> 2
<MEAN> 25
 -1.475635e+000 2.282110e+000 -2.573566e+000 5.143052e+000 -3.374043e-001 4.164321e-001 2.629663e+000 8.180271e-001 -1.046410e+000 -1.262906e+000 3.189079e-001 1.819979e+000 -2.486154e-001 -1.686864e-001 -2.616021e-002 -1.111925e-001 1.290237e-001 1.826517e-001 1.840870e-001 1.059403e-002 1.335154e-001 2.228716e-001 2.775367e-001 1.742025e-001 -1.362802e-001
<VARIANCE> 25
 1.603270e+001 2.625563e+001 2.485595e+001 5.382256e+001 2.063610e+001 2.709360e+001 3.106667e+001 2.040477e+001 2.596353e+001 2.537513e+001 2.137765e+001 1.730892e+001 6.850312e-001 2.015608e+000 1.250908e+000 2.355971e+000 2.370204e+000 2.507811e+000 2.753827e+000 1.935831e+000 2.119558e+000 1.808681e+000 1.765952e+000 1.447908e+000 3.980567e+000
<GCONST> 9.289391e+001
<STATE> 3
<MEAN> 25
 -2.205533e+000 1.091391e+000 -1.979258e+000 1.528461e+000 -3.095681e-001 -8.883693e-001 3.430602e+000 6.029190e-001 2.649333e-002 -3.723096e-001 1.398945e+000 2.346470e+000 -1.547205e-001 -2.533890e-001 9.454969e-002 -4.990220e-001 -9.873319e-002 -1.861487e-001 1.734210e-001 9.454501e-002 2.038447e-001 2.567361e-001 2.614671e-001 1.201485e-001 7.334414e-001
<VARIANCE> 25
 3.768708e+001 3.908338e+001 2.745226e+001 5.988900e+001 2.938229e+001 4.056151e+001 3.065893e+001 1.945026e+001 3.804335e+001 3.163372e+001 2.129432e+001 2.158514e+001 2.379157e+000 2.592109e+000 2.170944e+000 4.125390e+000 3.311980e+000 3.476908e+000 3.129658e+000 1.568245e+000 2.169877e+000 2.044846e+000 1.822368e+000 2.006873e+000 7.042526e+000
<GCONST> 1.001291e+002
<STATE> 4
<MEAN> 25
 -6.013172e-001 -5.380769e-001 -7.892664e-001 5.240648e-001 9.734929e-001 8.334149e-001 2.541020e+000 2.341921e+000 9.673848e-001 3.368462e-001 3.296472e-001 1.093356e+000 5.241573e-003 -3.191329e-002 5.366105e-002 -2.109224e-002 -2.824713e-003 -1.390340e-002 -1.650007e-002 3.092533e-002 1.606945e-002 -1.248563e-002 -1.363971e-002 -1.367449e-002 9.055332e-002
<VARIANCE> 25
 2.560913e+001 1.872695e+001 2.298217e+001 2.975466e+001 3.628360e+001 2.783317e+001 3.272721e+001 2.098562e+001 3.617662e+001 2.704555e+001 2.212559e+001 1.976232e+001 9.562128e-001 9.949380e-001 8.678843e-001 1.214726e+000 1.696525e+000 1.599207e+000 1.811393e+000 1.201360e+000 1.728228e+000 1.458046e+000 1.505921e+000 1.286729e+000 1.658561e+000
<GCONST> 8.893389e+001
<TRANSP> 5
 0.000000e+000 1.000000e+000 0.000000e+000 0.000000e+000 0.000000e+000
 0.000000e+000 8.354228e-001 1.645772e-001 0.000000e+000 0.000000e+000
 0.000000e+000 0.000000e+000 8.025366e-001 1.974634e-001 0.000000e+000
 0.000000e+000 0.000000e+000 0.000000e+000 9.881959e-001 1.180411e-002
 0.000000e+000 0.000000e+000 0.000000e+000 0.000000e+000 0.000000e+000
<ENDHMM>
~h "k"
<BEGINHMM>
<NUMSTATES> 5
<STATE> 2
<MEAN> 25
 -1.479835e+000 7.437831e-001 -1.229358e+000 -4.327349e-001 8.843241e-001 1.961324e+000 6.964436e-001 -5.436166e-001 1.267271e+000 1.612620e+000 1.633203e-001 -3.448193e-001 -1.814104e-002 -3.312020e-001 -3.878218e-001 -3.523181e-001 -1.204936e-001 1.847542e-002 1.575513e-001 -1.163608e-001 -3.222526e-001 -1.638820e-001 2.554341e-001 1.205590e-001 2.346989e-001
<VARIANCE> 25
 2.679406e+001 4.095198e+001 4.096066e+001 5.547203e+001 4.461356e+001 4.984860e+001 3.564947e+001 3.715737e+001 4.832519e+001 3.371445e+001 2.520808e+001 2.439314e+001 1.733224e+000 3.514524e+000 3.140962e+000 3.914169e+000 3.579220e+000 3.867424e+000 3.526528e+000 3.494336e+000 4.084819e+000 3.005161e+000 2.502801e+000 1.867504e+000 4.562301e+000
<GCONST> 1.044119e+002
<STATE> 3
<MEAN> 25
 -1.074957e+000 -5.142357e-001 -1.916217e+000 -1.241942e+000 -1.312069e-001 1.600045e+000 1.107719e+000 -6.170526e-001 9.463496e-002 8.419444e-001 6.835508e-001 3.050224e-002 2.602320e-001 -5.101540e-001 -2.189518e-001 -4.724370e-001 -3.337724e-001 -1.450645e-001 2.815613e-002 -1.122422e-001 -4.644882e-001 -2.316217e-001 2.079084e-001 1.017319e-001 7.092724e-001
<VARIANCE> 25
 3.337278e+001 5.241153e+001 4.761923e+001 6.801031e+001 6.257501e+001 5.267765e+001 4.535223e+001 4.180045e+001 6.028429e+001 3.697647e+001 2.898715e+001 2.605491e+001 2.244708e+000 4.446937e+000 3.475759e+000 5.336672e+000 5.095139e+000 5.162316e+000 4.829760e+000 4.025481e+000 5.034655e+000 3.675387e+000 2.976914e+000 2.054462e+000 5.447758e+000
<GCONST> 1.093635e+002
<STATE> 4
<MEAN> 25
 1.488048e+000 -2.721773e+000 -1.360048e+000 -5.853678e+000 7.080293e-002 1.206127e+000 1.219796e-001 2.242683e-002 1.167192e+000 1.388952e+000 4.414167e-001 -1.457826e+000 3.813473e-001 -2.029496e-001 6.852269e-003 -2.633854e-001 -9.258856e-002 -1.493100e-001 -1.786048e-001 -5.112798e-003 4.206210e-002 -7.512520e-004 6.409939e-002 -8.504066e-002 6.712691e-001
<VARIANCE> 25
 5.213101e+001 7.886193e+001 8.081516e+001 1.295615e+002 1.066550e+002 4.970121e+001 5.977081e+001 6.143352e+001 8.557651e+001 5.140934e+001 4.275655e+001 4.048548e+001 3.103907e+000 4.070802e+000 4.394592e+000 7.933605e+000 5.896702e+000 4.203223e+000 5.432127e+000 4.598121e+000 5.875838e+000 3.689191e+000 3.457635e+000 2.907321e+000 7.652990e+000
<GCONST> 1.160899e+002
<TRANSP> 5
 0.000000e+000 1.000000e+000 0.000000e+000 0.000000e+000 0.000000e+000
 0.000000e+000 6.366897e-001 3.633103e-001 0.000000e+000 0.000000e+000
 0.000000e+000 0.000000e+000 6.443967e-001 3.556033e-001 0.000000e+000
 0.000000e+000 0.000000e+000 0.000000e+000 9.189286e-001 8.107142e-002
 0.000000e+000 0.000000e+000 0.000000e+000 0.000000e+000 0.000000e+000
<ENDHMM>
~h "l"
<BEGINHMM>
<NUMSTATES> 5
<STATE> 2
<MEAN> 25
 6.268706e+000 -1.535971e+000 -1.319083e+000 -2.280648e+000 -3.940970e+000 -4.162070e+000 -3.077980e+000 6.331661e-001 -2.709635e+000 -4.371419e+000 -4.226108e+000 1.120142e+000 1.177010e-001 2.779146e-002 -5.816990e-002 -1.252768e-002 -1.922981e-001 -2.104425e-001 -1.065483e-001 8.618130e-002 -5.383929e-002 -7.728015e-002 -1.563616e-001 7.426205e-002 6.997041e-002
<VARIANCE> 25
 1.992988e+001 3.362027e+001 3.333091e+001 4.508447e+001 4.172087e+001 5.281886e+001 6.268357e+001 7.048498e+001 6.382206e+001 9.063198e+001 5.898836e+001 2.665388e+001 4.659226e-001 9.971086e-001 1.238049e+000 1.668853e+000 1.723980e+000 2.024005e+000 2.402208e+000 2.539848e+000 2.205904e+000 2.640702e+000 2.573014e+000 1.454244e+000 7.810115e-001
<GCONST> 9.773568e+001
<STATE> 3
<MEAN> 25
 6.308547e+000 -1.320651e+000 -1.273725e+000 -2.364039e+000 -4.283840e+000 -4.650696e+000 -3.918063e+000 9.057253e-001 -2.229885e+000 -3.601993e+000 -3.752487e+000 1.263617e+000 -3.500779e-002 1.038922e-001 3.922996e-002 -1.141753e-002 -6.517565e-002 -9.283747e-003 -1.402132e-001 5.607693e-002 6.421152e-002 1.189410e-001 1.549524e-001 -3.157315e-002 -7.704868e-002
<VARIANCE> 25
 1.935960e+001 3.337782e+001 3.543309e+001 3.965802e+001 3.676548e+001 5.574189e+001 6.890385e+001 6.507067e+001 6.736534e+001 8.728112e+001 6.604432e+001 2.777657e+001 3.402645e-001 9.083169e-001 1.131160e+000 1.469236e+000 1.725718e+000 2.053844e+000 2.253492e+000 2.229531e+000 2.019398e+000 2.485251e+000 2.341393e+000 1.426603e+000 5.495657e-001
<GCONST> 9.632722e+001
<STATE> 4
<MEAN> 25
 2.630046e+000 3.951017e-001 -1.245458e-001 -1.312638e+000 -1.825054e+000 -1.760207e+000 -3.890524e+000 8.316760e-001 2.891860e-001 1.442295e-001 -1.557161e+000 -5.563301e-001 -1.387065e-001 7.082014e-002 3.765058e-002 6.583647e-002 7.895027e-002 7.965834e-002 8.899781e-002 2.651723e-002 5.200469e-002 3.892895e-002 9.111644e-002 -3.011891e-003 -2.123081e-001
<VARIANCE> 25
 3.061729e+001 2.303646e+001 3.047517e+001 3.823338e+001 3.297049e+001 4.024783e+001 7.520860e+001 4.438995e+001 4.390544e+001 4.515397e+001 5.082009e+001 2.206009e+001 3.484177e-001 6.986231e-001 9.500422e-001 1.072422e+000 1.499016e+000 1.448035e+000 1.783614e+000 1.922112e+000 1.675176e+000 1.703071e+000 1.881257e+000 1.267592e+000 4.541653e-001
<GCONST> 9.122519e+001
<TRANSP> 5
 0.000000e+000 1.000000e+000 0.000000e+000 0.000000e+000 0.000000e+000
 0.000000e+000 8.015007e-001 1.984993e-001 0.000000e+000 0.000000e+000
 0.000000e+000 0.000000e+000 8.001041e-001 1.998959e-001 0.000000e+000
 0.000000e+000 0.000000e+000 0.000000e+000 9.461684e-001 5.383167e-002
 0.000000e+000 0.000000e+000 0.000000e+000 0.000000e+000 0.000000e+000
<ENDHMM>
~h "m"
<BEGINHMM>
<NUMSTATES> 5
<STATE> 2
<MEAN> 25
 3.268915e+000 9.834933e-001 -6.651531e-001 1.460499e+000 1.565820e+000 8.540461e-001 2.467481e-001 -1.134617e+000 -1.193838e-001 -1.255276e+000 -3.856181e-001 -1.533394e+000 -9.449539e-002 2.514360e-001 1.536933e-001 3.586953e-001 9.585665e-002 1.476054e-001 1.036861e-001 -2.983891e-001 -1.265133e-001 1.250306e-001 1.364194e-002 -2.483464e-002 -4.184252e-001
<VARIANCE> 25
 3.192974e+001 4.241841e+001 2.825457e+001 7.847285e+001 4.442590e+001 3.871855e+001 5.693163e+001 8.558035e+001 5.472631e+001 3.965760e+001 3.389215e+001 3.115423e+001 5.224965e-001 1.448517e+000 1.580516e+000 2.583699e+000 2.236000e+000 2.106416e+000 2.167326e+000 3.729760e+000 2.352336e+000 2.052393e+000 2.146895e+000 2.238230e+000 1.108698e+000
<GCONST> 9.946346e+001
<STATE> 3
<MEAN> 25
 3.064147e+000 1.536959e+000 -2.692655e-001 2.277517e+000 1.686233e+000 1.140937e+000 7.411557e-001 -1.552727e+000 -1.638512e-001 -6.274605e-001 -3.820880e-001 -1.569973e+000 -8.203837e-002 1.871323e-001 1.342640e-001 2.280788e-001 1.817838e-002 1.020403e-001 4.560047e-002 -1.953596e-001 -1.249494e-001 9.348579e-002 -4.144846e-002 -2.453116e-003 -2.681390e-001
<VARIANCE> 25
 3.078039e+001 4.041154e+001 2.895189e+001 7.566079e+001 4.472078e+001 3.532220e+001 5.643244e+001 1.068248e+002 6.001297e+001 4.374606e+001 3.740379e+001 3.582683e+001 5.538793e-001 1.486604e+000 1.458379e+000 2.619090e+000 2.244642e+000 2.048328e+000 2.112484e+000 3.764757e+000 2.262096e+000 2.286336e+000 1.990242e+000 2.143131e+000 1.202004e+000
<GCONST> 9.993015e+001
<STATE> 4
<MEAN> 25
 3.565172e+000 1.554825e-001 2.096825e-001 -8.987730e-003 1.245647e+000 1.350876e+000 -8.469859e-001 -1.525741e+000 9.901339e-001 3.194181e-001 -9.683966e-001 -2.970546e+000 -8.120915e-002 -6.430215e-002 -3.862037e-002 -9.552691e-002 -2.554390e-002 -4.558349e-002 -8.043940e-002 1.790953e-001 7.421986e-002 -8.052559e-002 -8.273691e-003 5.862385e-002 3.440669e-002
<VARIANCE> 25
 3.246980e+001 5.175718e+001 3.757768e+001 1.092665e+002 6.484680e+001 3.539176e+001 7.349980e+001 1.286886e+002 7.367158e+001 4.591550e+001 4.178433e+001 4.610331e+001 7.350815e-001 1.826258e+000 1.679605e+000 4.960918e+000 3.478640e+000 2.299491e+000 2.884256e+000 5.224383e+000 2.951759e+000 2.840364e+000 2.349803e+000 2.354889e+000 2.106863e+000
<GCONST> 1.060659e+002
<TRANSP> 5
 0.000000e+000 1.000000e+000 0.000000e+000 0.000000e+000 0.000000e+000
 0.000000e+000 7.014952e-001 2.985049e-001 0.000000e+000 0.000000e+000
 0.000000e+000 0.000000e+000 7.023036e-001 2.976964e-001 0.000000e+000
 0.000000e+000 0.000000e+000 0.000000e+000 8.832100e-001 1.167900e-001
 0.000000e+000 0.000000e+000 0.000000e+000 0.000000e+000 0.000000e+000
<ENDHMM>
~h "n"
<BEGINHMM>
<NUMSTATES> 5
<STATE> 2
<MEAN> 25
 2.827606e+000 -4.625058e-001 -7.371213e-001 2.816602e-001 1.326757e+000 2.062323e+000 1.419818e+000 -1.320237e+000 -6.389731e-001 -5.437393e-001 -8.414724e-001 -1.671258e+000 -8.276232e-002 2.537720e-001 2.239399e-001 3.848699e-001 2.548673e-001 2.831414e-001 1.608295e-001 -7.146024e-002 -3.041345e-002 3.833602e-003 -1.184870e-001 -1.373252e-001 -3.078177e-001
<VARIANCE> 25
 3.354045e+001 4.771830e+001 5.003848e+001 5.459202e+001 6.260930e+001 4.755150e+001 4.658224e+001 4.435270e+001 3.653895e+001 3.224236e+001 3.860424e+001 3.477664e+001 9.129568e-001 2.306170e+000 2.306298e+000 1.737063e+000 2.789779e+000 2.387187e+000 2.384047e+000 3.281430e+000 2.436291e+000 2.515180e+000 2.638591e+000 2.207265e+000 1.294001e+000
<GCONST> 1.010618e+002
<STATE> 3
<MEAN> 25
 2.365712e+000 2.933537e-001 -4.695047e-001 1.453148e+000 1.894777e+000 2.677880e+000 2.162401e+000 -1.113422e+000 -4.563524e-001 -4.523638e-001 -7.912564e-001 -1.574914e+000 -1.615336e-001 2.115683e-001 5.515490e-002 2.407003e-001 1.416520e-001 1.102925e-001 1.632067e-001 8.358562e-002 4.957181e-002 1.689288e-002 -1.749028e-002 1.179700e-001 -3.540543e-001
<VARIANCE> 25
 3.208807e+001 4.482885e+001 4.742709e+001 4.727102e+001 5.548542e+001 4.757550e+001 4.797136e+001 4.241867e+001 3.302324e+001 3.172437e+001 3.548363e+001 3.216124e+001 8.219120e-001 1.849799e+000 1.980202e+000 1.525137e+000 2.297488e+000 2.144866e+000 2.101589e+000 2.830601e+000 2.280269e+000 2.223011e+000 2.287386e+000 2.000172e+000 1.014316e+000
<GCONST> 9.848444e+001
<STATE> 4
<MEAN> 25
 -9.072109e-001 8.995854e-001 -3.772349e-001 2.496628e+000 2.199268e+000 3.062790e+000 3.589836e+000 -5.831147e-001 8.201352e-001 5.602165e-001 9.340755e-002 -8.619418e-001 -1.579958e-001 2.679998e-002 -4.620254e-002 3.000743e-002 2.554684e-002 -3.585530e-002 3.586478e-002 7.091688e-002 5.025121e-003 3.121025e-003 2.056461e-002 1.200231e-001 -1.883907e-001
<VARIANCE> 25
 2.620905e+001 2.896787e+001 2.873718e+001 2.827321e+001 2.772569e+001 3.247423e+001 3.672385e+001 3.203224e+001 2.801881e+001 2.697015e+001 3.115166e+001 2.185717e+001 5.164219e-001 9.444661e-001 1.204999e+000 1.083750e+000 1.367923e+000 1.462069e+000 1.665010e+000 1.910954e+000 1.701032e+000 1.749600e+000 1.662732e+000 1.385062e+000 6.308604e-001
<GCONST> 8.916698e+001
<TRANSP> 5
 0.000000e+000 1.000000e+000 0.000000e+000 0.000000e+000 0.000000e+000
 0.000000e+000 6.452718e-001 3.547281e-001 0.000000e+000 0.000000e+000
 0.000000e+000 0.000000e+000 6.449224e-001 3.550776e-001 0.000000e+000
 0.000000e+000 0.000000e+000 0.000000e+000 8.602778e-001 1.397223e-001
 0.000000e+000 0.000000e+000 0.000000e+000 0.000000e+000 0.000000e+000
<ENDHMM>
~h "o"
<BEGINHMM>
<NUMSTATES> 5
<STATE> 2
<MEAN> 25
 3.165051e+000 1.482350e+000 9.283097e-001 -2.603130e+000 -4.570946e+000 -9.928423e-001 -3.587051e+000 1.441185e+000 1.476889e+000 4.485132e-001 8.620743e-001 -6.751543e-001 1.975676e-001 -4.811150e-003 -1.292958e-001 -1.120637e-001 -2.879985e-001 -2.777659e-001 -2.627634e-001 1.525088e-002 -3.276106e-002 6.302924e-003 1.319848e-001 4.359831e-002 8.249467e-002
<VARIANCE> 25
 3.253008e+001 2.427636e+001 2.186007e+001 4.942635e+001 8.130260e+001 9.909422e+001 7.042513e+001 4.919545e+001 9.556760e+001 4.850182e+001 3.743657e+001 1.789334e+001 9.740236e-001 1.085393e+000 1.113982e+000 2.034450e+000 3.265509e+000 4.101837e+000 2.941354e+000 2.805141e+000 3.702374e+000 1.931735e+000 1.779199e+000 1.389279e+000 1.015243e+000
<GCONST> 1.001633e+002
<STATE> 3
<MEAN> 25
 3.365623e+000 1.650082e+000 3.704460e-001 -2.760732e+000 -4.741308e+000 -1.471042e+000 -3.469958e+000 1.105847e+000 8.433446e-001 5.027601e-001 1.059998e+000 -6.051437e-001 -3.048789e-004 -1.096525e-002 -1.315950e-001 1.242448e-002 1.141719e-001 4.520964e-002 8.056968e-002 -1.624517e-001 -2.299285e-001 3.859362e-003 1.046570e-001 6.598197e-002 -1.207205e-001
<VARIANCE> 25
 3.245824e+001 2.453473e+001 1.930869e+001 4.740629e+001 7.895433e+001 1.070693e+002 6.409336e+001 4.812093e+001 9.011667e+001 4.825398e+001 3.407935e+001 1.610326e+001 6.377388e-001 8.635637e-001 9.908670e-001 1.374881e+000 2.559359e+000 3.041216e+000 1.929694e+000 2.720627e+000 2.936465e+000 1.878832e+000 1.657975e+000 1.280848e+000 6.991305e-001
<GCONST> 9.673396e+001
<STATE> 4
<MEAN> 25
 2.306836e+000 1.718471e+000 -1.134360e-002 -1.252328e+000 -1.310383e+000 9.718934e-001 -3.524280e+000 -9.048623e-001 -5.930529e-001 1.597413e+000 1.449836e+000 -1.343193e+000 -8.561385e-002 -5.612264e-002 -4.731607e-002 1.797165e-001 2.126891e-001 -2.864364e-002 1.536474e-001 -9.290127e-002 -1.849504e-001 -1.189629e-001 1.475699e-003 4.065329e-002 -1.698016e-001
<VARIANCE> 25
 3.271070e+001 2.365014e+001 2.468891e+001 4.652790e+001 5.706506e+001 7.277171e+001 5.961231e+001 3.933936e+001 5.620511e+001 3.868444e+001 3.113116e+001 2.002448e+001 7.237722e-001 8.891461e-001 1.315168e+000 1.716639e+000 2.365387e+000 2.635921e+000 2.257403e+000 2.386914e+000 2.539211e+000 2.106014e+000 1.709798e+000 1.387304e+000 8.784024e-001
<GCONST> 9.615431e+001
<TRANSP> 5
 0.000000e+000 1.000000e+000 0.000000e+000 0.000000e+000 0.000000e+000
 0.000000e+000 7.266555e-001 2.733445e-001 0.000000e+000 0.000000e+000
 0.000000e+000 0.000000e+000 7.273486e-001 2.726514e-001 0.000000e+000
 0.000000e+000 0.000000e+000 0.000000e+000 8.594853e-001 1.405146e-001
 0.000000e+000 0.000000e+000 0.000000e+000 0.000000e+000 0.000000e+000
<ENDHMM>
~h "p"
<BEGINHMM>
<NUMSTATES> 5
<STATE> 2
<MEAN> 25
 8.726176e-001 3.209312e-001 3.773242e-001 -2.244852e+000 -3.900314e+000 -1.981311e+000 -1.244300e+000 1.244772e+000 5.165960e+000 1.996196e+000 8.074460e-001 1.898304e-001 2.587439e-001 -1.312021e-001 1.261686e-001 -4.088266e-002 -2.985664e-001 -2.555585e-001 -1.545110e-001 1.332162e-001 7.030386e-001 -9.076343e-002 -9.948187e-002 -1.432524e-002 5.138241e-001
<VARIANCE> 25
 5.165488e+001 3.749004e+001 3.352772e+001 2.886019e+001 7.355508e+001 7.169305e+001 5.855407e+001 3.702641e+001 1.225966e+002 3.553803e+001 2.267127e+001 1.779636e+001 3.453230e+000 3.925392e+000 2.087584e+000 2.241812e+000 3.919796e+000 4.119651e+000 3.357618e+000 2.636189e+000 8.136499e+000 3.162775e+000 2.352340e+000 1.657433e+000 4.778485e+000
<GCONST> 1.063071e+002
<STATE> 3
<MEAN> 25
 -1.384117e-002 8.746949e-001 -8.420256e-001 -2.141345e+000 -1.458552e+000 6.103250e-001 7.957174e-001 1.120622e+000 4.180789e+000 1.480344e+000 1.012088e+000 7.850189e-001 -2.078108e-001 1.139475e-001 -8.214413e-002 1.715724e-002 3.072404e-001 1.381162e-001 -1.358285e-002 -8.357426e-002 -1.894708e-001 7.556552e-002 -7.834243e-003 7.583251e-002 -2.114449e-001
<VARIANCE> 25
 4.348560e+001 3.213810e+001 2.574558e+001 2.340311e+001 5.362871e+001 5.577457e+001 5.276418e+001 2.706663e+001 8.464766e+001 2.797172e+001 2.116220e+001 1.667138e+001 1.241860e+000 1.869489e+000 1.062446e+000 1.668968e+000 1.760050e+000 2.069004e+000 2.285083e+000 1.731243e+000 3.157883e+000 2.276353e+000 1.993935e+000 1.165174e+000 1.903350e+000
<GCONST> 9.603545e+001
<STATE> 4
<MEAN> 25
 -2.344580e+000 1.050384e+000 -1.537268e+000 -1.138780e+000 4.561274e-001 1.980559e+000 1.478485e+000 5.763041e-001 2.141118e+000 2.078643e+000 9.020646e-001 7.857759e-001 3.956348e-002 2.101235e-002 -4.653962e-002 -4.110543e-002 3.181291e-002 -8.833890e-002 -1.540394e-001 -1.556324e-001 -2.728462e-001 -6.615134e-002 -6.384536e-002 -1.029461e-002 3.731786e-002
<VARIANCE> 25
 3.008752e+001 1.730450e+001 1.707904e+001 1.953917e+001 2.640463e+001 3.685154e+001 2.895665e+001 2.517731e+001 4.796890e+001 2.174174e+001 1.454622e+001 1.269233e+001 1.033733e+000 1.036578e+000 1.004730e+000 1.303330e+000 1.531031e+000 2.082982e+000 1.814643e+000 1.413012e+000 2.055795e+000 1.892235e+000 1.452621e+000 1.085150e+000 1.074553e+000
<GCONST> 8.797809e+001
<TRANSP> 5
 0.000000e+000 1.000000e+000 0.000000e+000 0.000000e+000 0.000000e+000
 0.000000e+000 7.415485e-001 2.584515e-001 0.000000e+000 0.000000e+000
 0.000000e+000 0.000000e+000 6.930842e-001 3.069158e-001 0.000000e+000
 0.000000e+000 0.000000e+000 0.000000e+000 8.672976e-001 1.327024e-001
 0.000000e+000 0.000000e+000 0.000000e+000 0.000000e+000 0.000000e+000
<ENDHMM>
~h "r"
<BEGINHMM>
<NUMSTATES> 5
<STATE> 2
<MEAN> 25
 4.208346e+000 -2.200662e-001 -2.378127e+000 -3.548856e+000 -1.428338e+000 1.061840e+000 -2.074053e+000 -3.866310e-001 -2.078210e+000 -1.627380e+000 2.022929e-001 1.630043e+000 -2.825001e-002 5.738841e-002 -4.974789e-003 -1.909379e-001 3.768546e-002 9.261142e-002 4.685672e-002 -6.318442e-002 -2.619143e-001 -1.550164e-001 2.773028e-002 1.770253e-001 -1.027324e-001
<VARIANCE> 25
 3.259127e+001 4.667433e+001 5.102026e+001 7.509791e+001 5.311843e+001 7.797276e+001 6.467129e+001 4.628782e+001 6.394150e+001 5.082868e+001 4.783578e+001 3.736949e+001 1.219115e+000 2.521639e+000 2.244615e+000 3.491124e+000 3.385284e+000 3.396504e+000 3.680066e+000 2.685719e+000 3.572494e+000 2.447044e+000 2.866598e+000 2.097703e+000 2.382999e+000
<GCONST> 1.061786e+002
<STATE> 3
<MEAN> 25
 3.977149e+000 2.605956e-001 -2.153862e+000 -3.507623e+000 -1.156580e+000 1.173147e+000 -1.694712e+000 -7.382610e-001 -2.674982e+000 -1.893570e+000 1.606374e-001 1.892090e+000 -1.188884e-001 1.096803e-001 1.811458e-002 8.808187e-002 6.381503e-002 -3.769557e-003 1.869796e-001 -4.334230e-002 -2.114327e-002 1.659386e-002 2.353085e-002 -1.630693e-002 -2.779238e-001
<VARIANCE> 25
 3.320396e+001 3.850230e+001 4.708273e+001 7.239233e+001 5.266254e+001 7.425542e+001 6.122037e+001 4.342155e+001 6.446047e+001 4.803950e+001 4.727823e+001 3.627811e+001 1.042064e+000 1.901611e+000 1.750762e+000 3.019297e+000 3.077650e+000 2.812043e+000 3.243587e+000 2.510386e+000 3.292840e+000 2.318656e+000 2.867362e+000 1.996531e+000 2.049613e+000
<GCONST> 1.039759e+002
<STATE> 4
<MEAN> 25
 3.042872e+000 1.325376e+000 -1.784917e+000 -2.239506e+000 -1.145211e+000 4.314266e-001 -1.426948e+000 -7.883306e-001 -1.845150e+000 -1.149425e+000 -2.181710e-001 1.060689e+000 -2.323957e-001 2.050948e-002 -2.572007e-002 2.078183e-001 9.882105e-002 -6.086871e-002 2.581823e-001 3.196058e-002 2.022149e-001 1.114896e-001 9.251662e-002 -1.360821e-002 -3.934434e-001
<VARIANCE> 25
 3.567287e+001 3.152995e+001 3.768275e+001 6.045162e+001 4.971885e+001 5.346375e+001 6.112719e+001 3.924258e+001 5.572270e+001 4.032750e+001 4.113841e+001 3.202403e+001 9.289137e-001 1.330460e+000 1.565255e+000 2.412156e+000 2.498127e+000 2.399518e+000 3.023039e+000 2.493041e+000 2.699677e+000 2.208155e+000 2.736090e+000 2.042877e+000 1.838455e+000
<GCONST> 1.007383e+002
<TRANSP> 5
 0.000000e+000 1.000000e+000 0.000000e+000 0.000000e+000 0.000000e+000
 0.000000e+000 6.627132e-001 3.372868e-001 0.000000e+000 0.000000e+000
 0.000000e+000 0.000000e+000 6.545371e-001 3.454629e-001 0.000000e+000
 0.000000e+000 0.000000e+000 0.000000e+000 7.883132e-001 2.116869e-001
 0.000000e+000 0.000000e+000 0.000000e+000 0.000000e+000 0.000000e+000
<ENDHMM>
~h "s"
<BEGINHMM>
<NUMSTATES> 5
<STATE> 2
<MEAN> 25
 -7.067969e+000 6.543409e-001 2.919474e+000 -1.076790e+000 -5.980532e-001 1.462412e+000 4.412117e+000 -3.741183e-001 -6.680003e-001 1.883623e+000 1.986492e+000 -1.692083e-001 -7.360459e-001 -4.528579e-001 9.509727e-001 -5.596550e-001 -7.865820e-003 2.431541e-001 2.447583e-001 -3.134428e-002 1.828824e-001 9.836507e-002 2.737113e-001 -1.632792e-001 9.145706e-001
<VARIANCE> 25
 8.614532e+001 1.375639e+002 1.485200e+002 8.087806e+001 7.317399e+001 4.241184e+001 7.492145e+001 5.164827e+001 9.751571e+001 4.001176e+001 3.810229e+001 2.768410e+001 7.332984e+000 6.642818e+000 6.769403e+000 5.319000e+000 4.134667e+000 3.022021e+000 5.308784e+000 3.532804e+000 3.966687e+000 3.699683e+000 3.452284e+000 2.226262e+000 3.863165e+000
<GCONST> 1.152556e+002
<STATE> 3
<MEAN> 25
 -1.144985e+001 -5.780085e+000 1.165889e+001 -5.886235e+000 -1.016804e+000 3.160340e+000 4.730799e+000 -1.309843e+000 -2.355060e+000 2.593835e+000 4.185933e+000 -1.308570e+000 5.001395e-002 -1.355022e-002 -2.612720e-001 2.372293e-002 1.959289e-001 -1.827985e-001 -2.584951e-001 -7.008002e-002 9.466869e-002 -7.636660e-002 -1.050673e-002 -1.311063e-002 8.654261e-002
<VARIANCE> 25
 8.390895e+001 1.430639e+002 1.531750e+002 6.096016e+001 8.030711e+001 4.678078e+001 5.219356e+001 5.154434e+001 6.391698e+001 3.863405e+001 3.467321e+001 2.013182e+001 6.548099e+000 2.780930e+000 5.410914e+000 3.327104e+000 2.950145e+000 2.635092e+000 3.426191e+000 3.009466e+000 2.896649e+000 2.705607e+000 2.212887e+000 1.626156e+000 8.372812e-001
<GCONST> 1.083087e+002
<STATE> 4
<MEAN> 25
 -1.117260e+001 -2.218378e-001 4.335284e+000 -3.860785e+000 1.941508e+000 7.808329e-001 2.978940e+000 -1.599927e+000 2.161627e-001 2.502447e+000 1.385371e+000 -4.725294e-001 9.388337e-001 4.603587e-002 -3.098900e-001 3.144569e-001 -1.277943e-001 -3.022660e-001 -4.158545e-001 -1.686931e-001 -5.889245e-002 -3.274485e-001 -3.195826e-001 -4.006409e-002 -8.979343e-002
<VARIANCE> 25
 1.151215e+002 7.060020e+001 7.750920e+001 7.856557e+001 4.172943e+001 3.225458e+001 4.121824e+001 3.946970e+001 5.498088e+001 3.952175e+001 3.552486e+001 2.535379e+001 4.466399e+000 1.583449e+000 2.641175e+000 2.477317e+000 2.421478e+000 2.101277e+000 2.859400e+000 2.499279e+000 2.713559e+000 2.657357e+000 2.306993e+000 1.720063e+000 6.905409e-001
<GCONST> 1.031623e+002
<TRANSP> 5
 0.000000e+000 1.000000e+000 0.000000e+000 0.000000e+000 0.000000e+000
 0.000000e+000 8.766730e-001 1.233270e-001 0.000000e+000 0.000000e+000
 0.000000e+000 0.000000e+000 8.277512e-001 1.722488e-001 0.000000e+000
 0.000000e+000 0.000000e+000 0.000000e+000 8.816630e-001 1.183370e-001
 0.000000e+000 0.000000e+000 0.000000e+000 0.000000e+000 0.000000e+000
<ENDHMM>
~h "t"
<BEGINHMM>
<NUMSTATES> 5
<STATE> 2
<MEAN> 25
 -6.889930e-002 1.084707e+000 -1.125248e+000 -1.882028e+000 -2.032473e-001 4.242898e-001 -7.670013e-002 7.890026e-002 5.902798e-001 4.917296e-001 1.575313e-001 6.124231e-001 1.338199e-001 -2.861769e-001 7.418236e-002 -3.957765e-001 -1.063388e-001 1.462386e-002 -1.149177e-001 -6.326342e-002 6.753416e-002 2.430813e-002 2.086513e-001 -4.586677e-002 6.433958e-001
<VARIANCE> 25
 3.509513e+001 4.233407e+001 2.886506e+001 6.564352e+001 4.217247e+001 5.285723e+001 6.197645e+001 3.981920e+001 8.847687e+001 4.239352e+001 3.460676e+001 3.029698e+001 2.379674e+000 3.432603e+000 1.899109e+000 4.295125e+000 3.271783e+000 3.545424e+000 5.740914e+000 3.160316e+000 5.136952e+000 3.576227e+000 2.326598e+000 2.731772e+000 9.343475e+000
<GCONST> 1.080460e+002
<STATE> 3
<MEAN> 25
 5.835236e-001 3.582650e-001 -8.253832e-001 -2.920440e+000 -8.464350e-001 9.367671e-001 -2.919706e-001 1.976221e-001 -4.033964e-001 4.892210e-001 7.382802e-001 5.388424e-001 1.864181e-001 -1.133068e-001 9.061516e-004 -1.970334e-002 -1.426762e-001 -1.538305e-001 -3.993909e-003 -5.761896e-003 -1.616285e-001 -1.833460e-001 -4.370017e-004 -4.041940e-002 1.117276e-001
<VARIANCE> 25
 3.697507e+001 4.387385e+001 2.816558e+001 7.109248e+001 4.479172e+001 5.903717e+001 5.345608e+001 3.981619e+001 9.790140e+001 4.528214e+001 3.334752e+001 2.648219e+001 1.768197e+000 2.651981e+000 1.752523e+000 2.835390e+000 2.413776e+000 3.915354e+000 3.827005e+000 2.803152e+000 4.265835e+000 3.364260e+000 2.203634e+000 1.859086e+000 3.504748e+000
<GCONST> 1.047598e+002
<STATE> 4
<MEAN> 25
 6.383711e-001 4.544142e-001 -1.097160e+000 -2.593334e+000 -5.746391e-001 5.282074e-001 2.881888e-001 -6.718840e-002 -1.175827e+000 1.188349e-001 9.024677e-001 6.085228e-001 1.986017e-001 -3.099264e-002 2.361242e-002 5.242469e-002 -8.858646e-002 -2.483146e-001 -1.018173e-001 -9.271871e-002 -1.474887e-001 -1.590799e-001 -4.038953e-002 -2.633158e-002 2.451005e-001
<VARIANCE> 25
 3.944005e+001 4.544295e+001 2.641791e+001 9.402515e+001 4.924789e+001 5.538118e+001 5.919590e+001 4.062051e+001 9.880813e+001 4.518229e+001 3.617760e+001 2.577566e+001 1.484445e+000 2.207696e+000 1.709037e+000 3.236284e+000 2.366476e+000 3.338862e+000 3.917234e+000 2.729890e+000 3.767651e+000 3.238939e+000 2.423353e+000 1.764171e+000 4.239054e+000
<GCONST> 1.049267e+002
<TRANSP> 5
 0.000000e+000 1.000000e+000 0.000000e+000 0.000000e+000 0.000000e+000
 0.000000e+000 6.824118e-001 3.175882e-001 0.000000e+000 0.000000e+000
 0.000000e+000 0.000000e+000 6.269705e-001 3.730295e-001 0.000000e+000
 0.000000e+000 0.000000e+000 0.000000e+000 7.587097e-001 2.412903e-001
 0.000000e+000 0.000000e+000 0.000000e+000 0.000000e+000 0.000000e+000
<ENDHMM>
~h "u"
<BEGINHMM>
<NUMSTATES> 5
<STATE> 2
<MEAN> 25
 3.904161e+000 4.114262e+000 2.241992e+000 -1.465459e+000 -4.016616e+000 -1.514149e+000 -3.956533e+000 -7.332504e-001 -2.741054e+000 -3.906231e+000 -8.441193e-001 -3.230351e-001 8.207286e-002 1.656201e-001 5.755939e-002 -4.574340e-002 -1.545537e-001 -3.587092e-002 -1.240972e-001 5.528482e-002 7.432886e-003 -1.508259e-001 -1.436601e-001 -1.014381e-001 -1.001134e-001
<VARIANCE> 25
 2.864140e+001 3.352690e+001 3.722478e+001 5.971239e+001 5.214196e+001 6.362447e+001 6.111069e+001 5.258389e+001 7.390687e+001 6.826756e+001 3.495274e+001 2.540804e+001 7.152385e-001 1.692933e+000 1.384605e+000 2.294544e+000 2.094207e+000 2.998842e+000 2.930662e+000 2.467449e+000 2.629630e+000 3.098073e+000 2.052846e+000 1.836843e+000 8.944820e-001
<GCONST> 1.004945e+002
<STATE> 3
<MEAN> 25
 3.742063e+000 4.237520e+000 2.070746e+000 -1.134933e+000 -3.675592e+000 -1.181035e+000 -3.545464e+000 -5.315145e-001 -2.400178e+000 -3.621050e+000 -1.406125e+000 -7.941543e-001 -9.534539e-002 -3.861398e-002 -1.073285e-001 1.342364e-001 1.578626e-001 1.073878e-001 1.032013e-001 -1.079930e-002 9.994796e-002 1.131139e-001 -1.024064e-001 -6.306636e-002 -2.046437e-001
<VARIANCE> 25
 2.856233e+001 3.399320e+001 3.483861e+001 5.682679e+001 4.433233e+001 6.061940e+001 5.761913e+001 5.046628e+001 6.933337e+001 6.499805e+001 3.432319e+001 2.742778e+001 4.929135e-001 1.237631e+000 1.259969e+000 1.943653e+000 2.097548e+000 2.494662e+000 2.319419e+000 2.365013e+000 2.297732e+000 2.582001e+000 1.930676e+000 1.745355e+000 6.396238e-001
<GCONST> 9.785496e+001
<STATE> 4
<MEAN> 25
 1.617370e+000 3.580134e+000 1.157483e+000 1.012054e-001 -1.532652e+000 2.575123e-001 -1.524256e+000 -1.238932e+000 -1.539357e+000 -1.285584e+000 -1.051300e+000 -8.374420e-001 -1.270642e-001 -1.187760e-001 -1.267361e-001 1.054612e-001 1.782336e-001 1.033176e-001 1.009757e-001 -8.917435e-002 6.047688e-002 1.394465e-001 -1.286471e-002 1.139123e-002 -1.466166e-001
<VARIANCE> 25
 3.077128e+001 3.647234e+001 3.344673e+001 5.110810e+001 3.429258e+001 4.041452e+001 6.399498e+001 3.625783e+001 4.853210e+001 4.338550e+001 2.866982e+001 2.606407e+001 4.053655e-001 9.653797e-001 1.076259e+000 1.888903e+000 1.790143e+000 1.778993e+000 2.120556e+000 1.926465e+000 1.906966e+000 1.975818e+000 1.688421e+000 1.526950e+000 5.947052e-001
<GCONST> 9.375716e+001
<TRANSP> 5
 0.000000e+000 1.000000e+000 0.000000e+000 0.000000e+000 0.000000e+000
 0.000000e+000 7.290781e-001 2.709219e-001 0.000000e+000 0.000000e+000
 0.000000e+000 0.000000e+000 7.212660e-001 2.787339e-001 0.000000e+000
 0.000000e+000 0.000000e+000 0.000000e+000 8.730680e-001 1.269320e-001
 0.000000e+000 0.000000e+000 0.000000e+000 0.000000e+000 0.000000e+000
<ENDHMM>
~h "w"
<BEGINHMM>
<NUMSTATES> 5
<STATE> 2
<MEAN> 25
 5.589970e+000 1.244666e+000 5.380434e-001 -4.015013e+000 -6.926550e+000 -3.402768e+000 -1.877943e+000 6.098116e+000 7.806494e+000 -5.715796e+000 -3.666372e+000 1.195916e+000 1.724358e-001 -1.443286e-001 -1.391749e-001 1.299185e-002 -4.440128e-002 -3.501915e-002 1.596607e-001 3.976514e-001 3.213666e-001 -2.242480e-001 -1.243212e-002 8.395825e-002 1.731762e-001
<VARIANCE> 25
 3.506450e+001 1.200612e+002 4.054604e+001 4.052346e+001 5.156171e+001 7.393346e+001 5.071814e+001 4.142899e+001 1.010964e+002 4.784162e+001 2.675784e+001 5.331763e+001 1.040576e+000 4.034690e+000 2.526972e+000 1.947344e+000 3.869060e+000 3.451742e+000 2.724019e+000 3.087716e+000 5.081938e+000 2.420736e+000 2.202340e+000 1.925866e+000 1.621531e+000
<GCONST> 1.055274e+002
<STATE> 3
<MEAN> 25
 4.488544e+000 -7.969722e-001 -1.949031e+000 -3.592791e+000 -5.075856e+000 -1.003855e+000 1.999417e+000 7.205744e+000 7.279832e+000 -3.889338e+000 -2.289605e+000 2.037982e+000 -5.968371e-002 -1.545006e-001 -3.441904e-001 2.331581e-001 4.521709e-001 3.042034e-001 4.472741e-001 7.227607e-003 -1.560751e-001 2.741424e-001 3.251347e-001 1.159677e-001 -9.991395e-002
<VARIANCE> 25
 3.142502e+001 1.014232e+002 4.990922e+001 3.180046e+001 5.676577e+001 9.992595e+001 6.009624e+001 5.158616e+001 1.075129e+002 4.040812e+001 2.975879e+001 4.208393e+001 7.422981e-001 2.899455e+000 2.121084e+000 1.302699e+000 2.764423e+000 3.756407e+000 2.799820e+000 3.250667e+000 4.307212e+000 2.431968e+000 2.062296e+000 1.971117e+000 1.023876e+000
<GCONST> 1.036821e+002
<STATE> 4
<MEAN> 25
 3.261593e+000 3.351581e-001 -4.453146e+000 -5.716579e+000 3.113758e+000 3.143481e+000 3.077381e+000 2.920231e+000 2.667091e+000 -4.733344e-001 -2.937978e-001 2.416849e-001 -9.096296e-002 9.070297e-002 3.790722e-003 5.602806e-002 1.483662e-001 -1.957349e-002 -6.574969e-002 -1.297327e-001 -2.136599e-001 2.973424e-001 7.402986e-002 9.045720e-004 -8.634987e-002
<VARIANCE> 25
 5.931039e+001 5.883492e+001 2.387131e+001 1.023766e+002 3.589924e+001 4.730084e+001 5.844151e+001 3.282868e+001 4.398280e+001 4.390648e+001 3.652845e+001 3.724691e+001 1.094529e+000 1.889610e+000 1.184632e+000 1.717608e+000 1.671545e+000 2.719600e+000 1.894514e+000 2.046911e+000 3.274802e+000 1.902511e+000 1.987276e+000 2.062934e+000 1.120037e+000
<GCONST> 9.934415e+001
<TRANSP> 5
 0.000000e+000 1.000000e+000 0.000000e+000 0.000000e+000 0.000000e+000
 0.000000e+000 9.312728e-001 6.872715e-002 0.000000e+000 0.000000e+000
 0.000000e+000 0.000000e+000 8.466775e-001 1.533225e-001 0.000000e+000
 0.000000e+000 0.000000e+000 0.000000e+000 9.180239e-001 8.197604e-002
 0.000000e+000 0.000000e+000 0.000000e+000 0.000000e+000 0.000000e+000
<ENDHMM>
~h "y"
<BEGINHMM>
<NUMSTATES> 5
<STATE> 2
<MEAN> 25
 4.779238e+000 -6.846762e+000 4.448437e-001 2.718062e-001 1.956045e+000 -5.721303e+000 -5.187909e+000 -2.262349e+000 -1.815024e+000 -1.829045e+000 8.082949e-001 7.530208e-001 -3.887301e-002 -8.621341e-002 3.878782e-001 4.434663e-001 -1.149435e-001 -5.179989e-001 -3.746877e-001 1.924047e-001 -1.458535e-001 -5.074582e-002 2.118000e-001 -2.227297e-001 2.532616e-001
<VARIANCE> 25
 1.291104e+001 3.596463e+001 4.516445e+001 1.255485e+002 6.328888e+001 4.881789e+001 5.882254e+001 5.394884e+001 4.474588e+001 2.611428e+001 6.715377e+001 3.868521e+001 5.359051e-001 1.202440e+000 2.140388e+000 2.390427e+000 2.624018e+000 2.014085e+000 3.028177e+000 2.167661e+000 2.603751e+000 2.230470e+000 3.244353e+000 2.540267e+000 9.672316e-001
<GCONST> 1.003294e+002
<STATE> 3
<MEAN> 25
 4.422527e+000 -6.763550e+000 2.644951e+000 9.159766e-001 8.753526e-001 -6.998865e+000 -5.456779e+000 -5.335320e-001 -2.604617e+000 -2.083182e+000 8.240584e-001 -1.036442e-001 3.512646e-003 1.777965e-001 2.677752e-001 -4.633319e-002 -5.948495e-001 -1.338367e-001 2.544073e-002 1.112506e-001 -2.828131e-001 1.100790e-001 2.696975e-001 1.502979e-001 4.832560e-002
<VARIANCE> 25
 1.129979e+001 4.111248e+001 6.866648e+001 1.426129e+002 8.062870e+001 5.486624e+001 6.158737e+001 5.616103e+001 4.124085e+001 2.760277e+001 6.649457e+001 3.496171e+001 5.408409e-001 1.266575e+000 2.890546e+000 2.422693e+000 2.922498e+000 2.351915e+000 3.254183e+000 2.708097e+000 2.278792e+000 2.251276e+000 3.155832e+000 2.272418e+000 7.291852e-001
<GCONST> 1.015708e+002
<STATE> 4
<MEAN> 25
 4.094557e+000 -3.011170e+000 6.555078e+000 -6.125023e+000 -5.111372e+000 -4.942671e+000 -3.815240e+000 1.618048e+000 -3.464138e+000 2.715134e-001 -1.191471e+000 8.591045e-001 5.774150e-002 4.684498e-002 -2.272415e-001 -3.522825e-002 4.946185e-002 1.144416e-001 1.199626e-001 9.612965e-003 1.615168e-001 -5.217416e-002 -6.825776e-002 -3.379836e-005 -2.161297e-001
<VARIANCE> 25
 1.734292e+001 6.465356e+001 1.272082e+002 7.463412e+001 7.529558e+001 3.793168e+001 4.666049e+001 7.076829e+001 4.530345e+001 3.164032e+001 7.130833e+001 2.588639e+001 7.585449e-001 2.108371e+000 2.710122e+000 1.990459e+000 3.507747e+000 2.128179e+000 3.085930e+000 3.957258e+000 2.611296e+000 1.984934e+000 3.537035e+000 1.843539e+000 1.219095e+000
<GCONST> 1.033617e+002
<TRANSP> 5
 0.000000e+000 1.000000e+000 0.000000e+000 0.000000e+000 0.000000e+000
 0.000000e+000 7.967024e-001 2.032976e-001 0.000000e+000 0.000000e+000
 0.000000e+000 0.000000e+000 7.935601e-001 2.064399e-001 0.000000e+000
 0.000000e+000 0.000000e+000 0.000000e+000 9.544886e-001 4.551141e-002
 0.000000e+000 0.000000e+000 0.000000e+000 0.000000e+000 0.000000e+000
<ENDHMM>
~h "z"
<BEGINHMM>
<NUMSTATES> 5
<STATE> 2
<MEAN> 25
 -3.974776e+000 8.373445e-002 -2.192725e+000 3.794419e+000 1.914861e+000 2.091412e+000 2.915302e+000 2.658020e-001 4.177948e+000 2.210831e+000 1.621867e+000 1.122333e+000 -7.289052e-002 5.430413e-002 -4.882079e-003 3.707575e-002 1.393200e-002 -2.590967e-002 -2.537198e-002 -9.223067e-002 -7.025282e-002 -6.315605e-002 3.803496e-002 -5.312208e-003 -1.395410e-001
<VARIANCE> 25
 3.782581e+000 7.682338e+000 1.497633e+001 1.163556e+001 1.740945e+001 2.331599e+001 1.500055e+001 1.733917e+001 2.881751e+001 2.603064e+001 1.389514e+001 1.609045e+001 1.471779e-001 4.523222e-001 7.295663e-001 7.542373e-001 1.009114e+000 1.005507e+000 1.279454e+000 2.263048e+000 2.201607e+000 2.242054e+000 1.364599e+000 1.396191e+000 2.731150e-001
<GCONST> 7.678823e+001
<STATE> 3
<MEAN> 25
 -4.812046e+000 3.415113e+000 -2.084107e-001 6.092753e+000 3.032539e+000 3.698831e-001 1.513273e-001 -4.993425e+000 7.440689e-001 -3.324511e-001 7.266684e-002 1.845817e+000 1.623271e-001 1.055255e-001 4.513271e-001 4.120906e-001 2.694169e-001 -6.588099e-001 -3.066089e-001 -9.955035e-001 -8.188456e-001 2.416378e-001 -3.046888e-001 -4.155493e-003 3.672608e-001
<VARIANCE> 25
 2.329382e+000 4.113351e+000 1.729906e+001 2.173226e+001 6.637411e+000 3.560926e+001 1.508792e+001 2.553580e+001 2.456901e+001 2.028891e+001 1.319444e+001 2.134294e+001 4.285521e-001 8.512936e-001 5.136315e-001 9.918473e-001 6.698263e-001 4.115177e-001 1.481007e+000 3.075703e+000 3.301823e+000 2.405449e+000 8.850554e-001 2.309493e+000 1.020309e+000
<GCONST> 7.875967e+001
<STATE> 4
<MEAN> 25
 -3.397408e-001 -3.838124e-001 5.214437e-002 5.113419e+000 1.960767e+000 -7.132881e-001 -3.509091e+000 9.976668e-001 -1.180281e-001 7.113339e-001 1.918070e-001 -1.176112e+000 5.182868e-001 -2.788762e-001 6.954117e-002 -6.605257e-001 1.469253e-002 2.290215e-001 -3.334734e-001 5.073285e-001 1.580174e-001 -1.018379e-001 -6.881081e-002 -4.949400e-001 1.267755e+000
<VARIANCE> 25
 2.608701e+001 2.453538e+001 1.438108e+001 5.176608e+001 2.653879e+001 7.135962e+001 9.417366e+001 3.731438e+001 3.400568e+001 3.056228e+001 1.251316e+001 2.523907e+001 6.747031e-001 1.741445e+000 1.203050e+000 3.107659e+000 3.270899e+000 6.385745e+000 5.598172e+000 2.533614e+000 1.112294e+000 1.175224e+000 7.934459e-001 1.496229e+000 9.235616e+000
<GCONST> 9.726717e+001
<TRANSP> 5
 0.000000e+000 1.000000e+000 0.000000e+000 0.000000e+000 0.000000e+000
 0.000000e+000 9.770493e-001 2.295070e-002 0.000000e+000 0.000000e+000
 0.000000e+000 0.000000e+000 7.265877e-001 2.734123e-001 0.000000e+000
 0.000000e+000 0.000000e+000 0.000000e+000 9.319232e-001 6.807680e-002
 0.000000e+000 0.000000e+000 0.000000e+000 0.000000e+000 0.000000e+000
<ENDHMM>
~h "ai"
<BEGINHMM>
<NUMSTATES> 5
<STATE> 2
<MEAN> 25
 4.922995e+000 -4.925002e+000 9.978873e-001 -4.445479e+000 3.120385e-002 -1.150182e+000 -4.844873e+000 -1.707878e+000 3.266910e+000 -1.364664e+000 8.771781e-001 -6.226818e-001 1.185902e-001 -4.434773e-001 2.922160e-001 -3.478489e-001 5.700771e-001 -2.442637e-001 9.339375e-002 4.167719e-001 1.579116e-001 -3.641498e-001 8.254342e-002 -2.355861e-001 8.219799e-001
<VARIANCE> 25
 2.981923e+001 7.553460e+001 4.979861e+001 1.542722e+002 1.097681e+002 6.731799e+001 7.346896e+001 5.980615e+001 8.414771e+001 6.002540e+001 7.675458e+001 3.462415e+001 1.829796e+000 2.289238e+000 3.376264e+000 6.753254e+000 6.312251e+000 5.114758e+000 5.830099e+000 5.560643e+000 5.192878e+000 4.541680e+000 3.321603e+000 2.300004e+000 4.352340e+000
<GCONST> 1.144989e+002
<STATE> 3
<MEAN> 25
 4.561769e+000 -8.743731e+000 3.777099e+000 -3.434098e+000 4.179615e+000 -3.432376e+000 -1.634291e+000 9.225262e-001 2.014789e+000 -3.489756e+000 7.557992e-001 -2.655461e+000 -5.869794e-002 8.171125e-002 5.745865e-001 9.502818e-002 -9.040195e-002 -2.748913e-001 1.257625e-001 1.992400e-001 -3.670430e-001 -6.048097e-002 1.260606e-001 -1.552293e-003 -5.951309e-002
<VARIANCE> 25
 1.774888e+001 5.290420e+001 5.806569e+001 2.136207e+002 9.060891e+001 5.946066e+001 5.521454e+001 3.823551e+001 6.127553e+001 4.611256e+001 4.447357e+001 2.751925e+001 1.041762e+000 1.598070e+000 1.990479e+000 3.752624e+000 4.625825e+000 2.827219e+000 3.433588e+000 2.868052e+000 3.116995e+000 2.757364e+000 2.413062e+000 1.731092e+000 1.519947e+000
<GCONST> 1.048988e+002
<STATE> 4
<MEAN> 25
 7.758751e-001 -2.799131e+000 2.665768e+000 -1.365686e+000 1.399264e+000 -8.360868e-001 8.432308e-001 4.657045e-001 -6.407942e-001 8.407793e-001 1.739464e+000 -1.430683e+000 -5.558527e-002 1.513757e-001 -1.191404e-001 2.650050e-002 -1.276436e-002 1.008417e-001 -2.680179e-002 -5.216602e-002 2.929509e-002 6.846600e-002 -3.076522e-002 8.129640e-003 -1.518247e-001
<VARIANCE> 25
 3.331899e+001 8.423629e+001 1.108638e+002 2.255094e+002 1.098494e+002 5.162877e+001 5.690036e+001 4.663652e+001 9.091045e+001 4.004484e+001 3.405263e+001 3.933854e+001 1.458359e+000 3.012506e+000 3.573286e+000 7.579751e+000 3.783424e+000 2.923677e+000 3.161335e+000 3.664165e+000 3.586039e+000 2.748139e+000 2.656213e+000 2.212231e+000 6.120079e+000
<GCONST> 1.114428e+002
<TRANSP> 5
 0.000000e+000 1.000000e+000 0.000000e+000 0.000000e+000 0.000000e+000
 0.000000e+000 8.579739e-001 1.420262e-001 0.000000e+000 0.000000e+000
 0.000000e+000 0.000000e+000 7.754037e-001 2.245963e-001 0.000000e+000
 0.000000e+000 0.000000e+000 0.000000e+000 9.726013e-001 2.739868e-002
 0.000000e+000 0.000000e+000 0.000000e+000 0.000000e+000 0.000000e+000
<ENDHMM>
~h "au"
<BEGINHMM>
<NUMSTATES> 5
<STATE> 2
<MEAN> 25
 6.895165e+000 -5.957494e+000 -6.242740e+000 -8.306043e+000 -2.316940e+000 -5.816967e+000 2.308231e+000 7.875165e+000 -7.569287e-001 -5.075782e+000 -4.101126e+000 1.105133e+000 1.504998e-002 -1.609668e-001 -7.534306e-002 -1.317751e-001 -4.988839e-001 -2.415386e-001 3.090526e-001 4.846313e-001 3.227970e-001 -5.919196e-003 -1.160687e-001 -8.983982e-002 1.213277e-001
<VARIANCE> 25
 1.560047e+001 4.459054e+001 3.519300e+001 5.331460e+001 9.300524e+001 2.691770e+001 3.424091e+001 5.489684e+001 2.669151e+001 9.100239e+001 2.529671e+001 2.756570e+001 3.033619e-001 1.614758e+000 1.264119e+000 1.170516e+000 9.775299e-001 1.014422e+000 1.904461e+000 2.406269e+000 1.426876e+000 1.957515e+000 2.475870e+000 1.108107e+000 3.316138e-001
<GCONST> 9.186027e+001
<STATE> 3
<MEAN> 25
 5.721975e+000 -2.368388e+000 -4.821332e+000 -6.750912e+000 -7.354907e+000 -8.455041e+000 2.560242e+000 9.377549e+000 7.916736e-001 -5.305879e+000 -3.612886e+000 5.511290e-001 -2.837107e-001 5.140126e-001 5.902152e-001 1.008123e-001 -1.915415e-001 -5.672805e-002 -2.940145e-001 -4.067268e-001 2.318260e-001 4.512141e-001 3.999094e-003 -3.016579e-001 -2.785510e-001
<VARIANCE> 25
 1.501876e+001 3.374938e+001 2.881006e+001 2.768461e+001 6.465709e+001 2.731966e+001 2.632167e+001 5.744895e+001 2.042791e+001 5.928294e+001 2.058320e+001 1.902646e+001 1.947924e-001 1.162453e+000 8.516222e-001 8.979988e-001 1.338850e+000 1.474579e+000 1.599244e+000 2.584772e+000 1.135745e+000 1.699945e+000 1.679503e+000 1.055682e+000 2.345852e-001
<GCONST> 8.685081e+001
<STATE> 4
<MEAN> 25
 3.268090e+000 4.521630e-001 2.940303e+000 -9.433185e+000 1.443109e-002 -6.052662e+000 -1.111988e+000 1.676812e+000 6.981810e-001 4.570127e+000 -1.054144e+000 -3.519779e+000 -1.709840e-001 2.598495e-001 4.641984e-001 4.056212e-001 -1.798625e-001 6.646121e-002 -1.717390e-001 -3.914539e-001 -3.466749e-001 6.361350e-002 1.809881e-001 -1.115806e-001 -3.212988e-001
<VARIANCE> 25
 8.104517e+001 1.277731e+002 1.328940e+002 9.703193e+001 1.566550e+002 9.380912e+001 8.594327e+001 5.166837e+001 1.201859e+002 8.374018e+001 3.753327e+001 2.276327e+001 2.225330e+000 4.554717e+000 2.748564e+000 4.153396e+000 3.647981e+000 3.230740e+000 5.325074e+000 3.288525e+000 3.002445e+000 3.016478e+000 2.256133e+000 1.603381e+000 1.164313e+000
<GCONST> 1.123400e+002
<TRANSP> 5
 0.000000e+000 1.000000e+000 0.000000e+000 0.000000e+000 0.000000e+000
 0.000000e+000 8.302500e-001 1.697500e-001 0.000000e+000 0.000000e+000
 0.000000e+000 0.000000e+000 8.598915e-001 1.401085e-001 0.000000e+000
 0.000000e+000 0.000000e+000 0.000000e+000 9.290236e-001 7.097634e-002
 0.000000e+000 0.000000e+000 0.000000e+000 0.000000e+000 0.000000e+000
<ENDHMM>
~h "ng"
<BEGINHMM>
<NUMSTATES> 5
<STATE> 2
<MEAN> 25
 3.761158e+000 2.703188e+000 7.878177e-001 2.066164e-001 -1.087290e-001 1.661913e+000 1.786639e-001 1.694748e-001 1.082072e+000 -4.321975e-001 -2.477754e-002 -5.360597e-001 6.708819e-002 1.604219e-001 2.566794e-001 2.086258e-002 -4.186783e-002 2.772457e-002 -5.931528e-002 4.172762e-002 -2.826778e-002 -1.033002e-001 -6.230170e-002 1.039135e-001 8.248123e-002
<VARIANCE> 25
 3.873973e+001 7.311674e+001 4.928798e+001 9.557518e+001 1.205514e+002 6.187286e+001 6.735339e+001 5.089436e+001 5.565149e+001 5.144151e+001 2.556964e+001 5.083496e+001 1.082348e+000 4.486139e+000 2.251951e+000 3.711919e+000 4.804026e+000 3.871978e+000 2.423277e+000 2.940306e+000 2.849602e+000 2.345718e+000 2.023573e+000 3.051857e+000 1.833281e+000
<GCONST> 1.074567e+002
<STATE> 3
<MEAN> 25
 3.778752e+000 1.927217e+000 2.734025e-001 7.383752e-001 1.095159e+000 1.427775e+000 5.721003e-001 1.385112e-001 5.033194e-001 -4.165953e-001 -4.923454e-002 5.082432e-001 -1.383607e-001 -2.151105e-001 1.128215e-002 -1.394340e-001 2.393767e-002 -1.057399e-001 2.010948e-002 8.847962e-002 -1.091755e-001 6.982296e-002 8.545883e-002 1.353616e-001 5.164094e-002
<VARIANCE> 25
 3.788756e+001 8.438557e+001 4.331576e+001 8.933849e+001 1.150944e+002 6.580477e+001 6.254725e+001 4.813828e+001 5.836037e+001 5.467911e+001 3.078672e+001 5.194496e+001 7.941856e-001 3.219866e+000 2.345968e+000 2.829755e+000 3.625009e+000 3.984115e+000 2.536152e+000 2.591197e+000 2.663374e+000 2.371158e+000 2.286247e+000 2.663255e+000 1.760936e+000
<GCONST> 1.062657e+002
<STATE> 4
<MEAN> 25
 1.987462e+000 7.598001e-001 -5.579550e-002 1.759483e-001 3.466857e+000 1.669264e+000 1.271361e+000 -2.933878e-001 1.390120e-001 8.501278e-001 8.440706e-001 6.628543e-001 -3.054530e-001 -8.035164e-002 -2.781065e-002 -1.194770e-001 3.359197e-002 -1.229538e-001 -1.938204e-002 -1.569082e-002 -1.842557e-001 1.086061e-001 1.079606e-001 7.179351e-002 -2.019238e-001
<VARIANCE> 25
 3.722709e+001 7.882357e+001 3.191611e+001 9.069920e+001 7.916838e+001 5.001680e+001 5.675877e+001 4.629898e+001 4.439578e+001 4.141857e+001 2.848619e+001 3.820905e+001 5.203820e-001 2.037421e+000 1.707325e+000 1.882414e+000 2.605423e+000 2.879509e+000 2.487553e+000 2.419228e+000 2.254832e+000 1.781301e+000 2.010949e+000 2.304289e+000 1.148561e+000
<GCONST> 1.006673e+002
<TRANSP> 5
 0.000000e+000 1.000000e+000 0.000000e+000 0.000000e+000 0.000000e+000
 0.000000e+000 7.387168e-001 2.612832e-001 0.000000e+000 0.000000e+000
 0.000000e+000 0.000000e+000 7.147393e-001 2.852608e-001 0.000000e+000
 0.000000e+000 0.000000e+000 0.000000e+000 8.221748e-001 1.778252e-001
 0.000000e+000 0.000000e+000 0.000000e+000 0.000000e+000 0.000000e+000
<ENDHMM>
~h "ny"
<BEGINHMM>
<NUMSTATES> 5
<STATE> 2
<MEAN> 25
 1.196647e-001 1.587565e+000 -2.317223e-001 3.062949e+000 1.319852e+000 -2.108905e+000 -6.810524e-001 1.104745e-001 -3.045584e-001 -1.453110e-001 1.211869e+000 -1.839312e+000 1.743541e-001 6.811655e-001 3.344113e-002 8.739656e-001 -2.538645e-001 -1.920202e-001 1.055865e+000 -8.911751e-001 -9.936303e-003 6.620243e-001 2.991397e-001 4.702983e-003 -9.171767e-001
<VARIANCE> 25
 4.107119e+001 1.468691e+001 4.862510e+001 2.191598e+001 4.574850e+001 2.391532e+001 3.218583e+001 2.833039e+001 4.454081e+001 2.260607e+001 1.393350e+001 1.501945e+001 5.398491e-001 5.203113e-001 1.295150e+000 1.931008e+000 1.293287e+000 2.140184e+000 3.259511e+000 3.838673e+000 2.098431e+000 3.176047e+000 2.663999e+000 1.128340e+000 9.768297e-001
<GCONST> 9.155757e+001
<STATE> 3
<MEAN> 25
 -5.065957e-001 2.140371e+000 -1.555779e+000 4.014315e+000 6.318743e-001 -2.605254e+000 3.107666e+000 -5.638927e-001 3.774171e-002 5.382791e-001 2.033698e+000 -1.737684e+000 2.217746e-001 1.530417e-001 2.475668e-003 5.237752e-001 -1.851438e-001 -3.202706e-002 5.995718e-001 -5.340400e-001 -3.400708e-001 -8.606888e-003 -4.705582e-002 1.607690e-002 -3.445621e-001
<VARIANCE> 25
 4.318211e+001 1.250890e+001 2.745658e+001 2.104870e+001 2.407644e+001 1.951594e+001 2.563685e+001 2.664647e+001 3.709856e+001 1.395031e+001 1.363319e+001 1.878046e+001 2.545622e-001 5.931644e-001 1.166547e+000 1.387228e+000 7.980623e-001 1.131815e+000 2.806845e+000 2.754498e+000 1.542469e+000 2.551936e+000 1.792721e+000 1.329653e+000 4.088967e-001
<GCONST> 8.495081e+001
<STATE> 4
<MEAN> 25
 -2.184403e+000 -8.381701e-001 -2.368188e+000 1.141740e+000 4.656555e-001 -1.310952e+000 3.484190e+000 1.354686e+000 1.240646e+000 1.233062e-001 1.948233e+000 1.943916e-001 2.785917e-003 6.829884e-002 6.531319e-002 6.927424e-002 8.550338e-002 1.096373e-001 -7.208429e-002 -2.531708e-002 -4.378495e-002 -3.248220e-002 -6.819823e-002 2.905230e-002 -1.093469e-001
<VARIANCE> 25
 1.699711e+001 7.605542e+000 1.426810e+001 1.701504e+001 1.385809e+001 1.730131e+001 1.738392e+001 2.134140e+001 2.212537e+001 1.395149e+001 1.452443e+001 1.754262e+001 2.274300e-001 4.685656e-001 6.302204e-001 1.008010e+000 7.650799e-001 8.085068e-001 9.906722e-001 1.314736e+000 1.316862e+000 1.469214e+000 1.113238e+000 1.357280e+000 2.046739e-001
<GCONST> 7.554722e+001
<TRANSP> 5
 0.000000e+000 1.000000e+000 0.000000e+000 0.000000e+000 0.000000e+000
 0.000000e+000 3.451606e-001 6.548395e-001 0.000000e+000 0.000000e+000
 0.000000e+000 0.000000e+000 5.604442e-001 4.395559e-001 0.000000e+000
 0.000000e+000 0.000000e+000 0.000000e+000 9.556072e-001 4.439283e-002
 0.000000e+000 0.000000e+000 0.000000e+000 0.000000e+000 0.000000e+000
<ENDHMM>
~h "oi"
<BEGINHMM>
<NUMSTATES> 5
<STATE> 2
<MEAN> 25
 -5.605902e+000 3.553953e+000 -6.010467e+000 4.424475e+000 1.359365e+000 3.767172e-001 -7.208435e-002 -2.105739e+000 -1.493691e+000 -3.195173e-002 -1.842603e+000 2.418518e+000 -8.776743e-002 2.865884e-002 -2.173036e-001 -1.652035e-001 -5.112793e-002 -6.961791e-003 1.174720e-001 8.145633e-002 -1.119694e-001 7.577367e-003 1.067234e-001 1.097143e-001 -1.340810e-001
<VARIANCE> 25
 1.460654e+001 4.046446e+000 9.454400e+000 3.053214e+001 1.552227e+001 2.322569e+001 3.666727e+001 3.278540e+001 2.804932e+001 2.559066e+001 1.380200e+001 2.011118e+001 1.624180e-001 3.495013e-001 6.231140e-001 8.429678e-001 1.223745e+000 1.347081e+000 1.519459e+000 3.567787e+000 9.666133e-001 1.258994e+000 8.124974e-001 2.038471e+000 9.094883e-002
<GCONST> 7.785411e+001
<STATE> 3
<MEAN> 25
 -9.189339e+000 4.524880e+000 -6.316095e+000 -2.805057e-001 2.542820e+000 -2.656724e+000 -3.246329e+000 -5.563457e+000 -6.507145e+000 3.289204e+000 -3.091103e+000 9.153689e-001 -2.347790e-002 4.795839e-003 -2.118209e-003 -3.861212e-002 -7.470673e-002 -1.778252e-002 -1.620794e-002 -1.095465e-001 -9.598957e-002 -5.693600e-002 5.728349e-002 8.958603e-003 -3.030322e-002
<VARIANCE> 25
 1.174482e+001 4.513754e+000 6.524972e+000 2.165629e+001 8.086788e+000 1.756959e+001 2.199714e+001 2.347051e+001 2.266017e+001 1.896275e+001 1.021851e+001 1.027859e+001 1.106548e-001 2.107306e-001 4.320739e-001 5.218583e-001 7.132060e-001 6.678763e-001 1.008158e+000 1.492470e+000 6.215252e-001 8.036099e-001 7.466831e-001 7.751131e-001 3.634432e-002
<GCONST> 6.665189e+001
<STATE> 4
<MEAN> 25
 -2.720861e+000 4.036869e+000 -8.009450e+000 9.503481e+000 5.716449e-001 1.129464e+000 4.337201e+000 8.368044e-001 2.586830e-001 -2.985825e+000 -1.763420e+000 4.669577e+000 -9.798186e-003 -9.977719e-003 9.552591e-002 -3.098650e-002 -9.935815e-003 2.125337e-002 -6.649784e-002 1.455179e-001 1.054426e-001 -7.678874e-002 6.243192e-002 6.497989e-002 1.557959e-002
<VARIANCE> 25
 5.194911e+000 4.661278e+000 1.214172e+001 2.940016e+001 1.283168e+001 1.892048e+001 3.232223e+001 2.098409e+001 1.765255e+001 2.448041e+001 1.389104e+001 1.377076e+001 2.159763e-001 5.054194e-001 9.563301e-001 1.585202e+000 1.519756e+000 2.237152e+000 3.486605e+000 2.711671e+000 1.889980e+000 2.695898e+000 1.786053e+000 1.677221e+000 1.161293e-001
<GCONST> 8.058952e+001
<TRANSP> 5
 0.000000e+000 1.000000e+000 0.000000e+000 0.000000e+000 0.000000e+000
 0.000000e+000 9.202253e-001 7.977471e-002 0.000000e+000 0.000000e+000
 0.000000e+000 0.000000e+000 9.417119e-001 5.828811e-002 0.000000e+000
 0.000000e+000 0.000000e+000 0.000000e+000 9.689897e-001 3.101036e-002
 0.000000e+000 0.000000e+000 0.000000e+000 0.000000e+000 0.000000e+000
<ENDHMM>
~h "sy"
<BEGINHMM>
<NUMSTATES> 5
<STATE> 2
<MEAN> 25
 2.219632e+000 -8.148398e+000 -5.224945e+000 2.863492e+000 -1.748107e-001 -3.212470e+000 2.316993e+000 3.351668e+000 -2.732970e+000 -1.258695e+000 2.899354e+000 4.924550e-001 1.158384e-002 -4.535280e-001 -8.682933e-002 3.140503e-001 -2.594695e-002 -3.578661e-001 5.650990e-002 1.820745e-001 -8.595474e-002 -3.937169e-002 1.846651e-001 7.392191e-002 1.750905e-001
<VARIANCE> 25
 3.272223e+001 3.538349e+001 6.531689e+001 9.243008e+001 4.270047e+001 3.544740e+001 3.821314e+001 4.389121e+001 2.431157e+001 3.129810e+001 1.723920e+001 1.626997e+001 1.487319e+000 2.399024e+000 2.273451e+000 1.629354e+000 1.599684e+000 1.922837e+000 2.513342e+000 3.075623e+000 1.993125e+000 1.949490e+000 1.482907e+000 1.231107e+000 4.781345e-001
<GCONST> 9.569668e+001
<STATE> 3
<MEAN> 25
 2.771758e+000 -8.378253e+000 -5.013013e+000 3.830666e+000 -1.992494e-001 -4.435907e+000 1.153814e+000 1.347623e+000 -3.373091e+000 -5.591574e-001 5.108708e+000 4.757148e-001 1.309904e-001 2.052281e-001 -1.816484e-001 -4.417970e-001 -3.231677e-001 -5.154425e-002 -2.182708e-002 -1.316848e-001 -9.019241e-002 -1.344689e-001 4.698612e-002 1.262161e-001 9.789132e-002
<VARIANCE> 25
 3.923097e+001 3.338640e+001 7.655537e+001 8.237251e+001 2.206397e+001 1.741617e+001 3.527877e+001 4.947136e+001 2.559386e+001 1.788929e+001 2.498947e+001 1.365829e+001 1.534374e+000 2.772193e+000 3.305410e+000 1.641766e+000 1.067293e+000 1.627638e+000 3.500629e+000 4.219868e+000 2.304962e+000 1.574041e+000 2.464091e+000 1.530311e+000 2.346971e-001
<GCONST> 9.479983e+001
<STATE> 4
<MEAN> 25
 1.316653e+000 -8.161524e+000 4.015421e+000 1.924272e+000 -8.984983e-001 7.732364e-001 4.264348e+000 2.972695e+000 4.684136e-002 -3.909136e+000 4.289817e+000 1.184519e+000 1.303553e-001 8.445850e-002 -6.797694e-002 -8.819950e-002 1.268882e-002 1.128104e-001 -8.776662e-002 -8.176897e-002 1.354039e-001 -9.238510e-002 -2.964962e-001 1.319489e-002 -1.702002e-002
<VARIANCE> 25
 9.048949e+001 4.680193e+001 1.466122e+002 2.813758e+001 5.432317e+001 5.702788e+001 3.037297e+001 3.516072e+001 4.474118e+001 2.344158e+001 3.812022e+001 1.313178e+001 3.258674e+000 2.686113e+000 4.995422e+000 1.145761e+000 2.651518e+000 3.003708e+000 1.966538e+000 3.062257e+000 3.083804e+000 2.143504e+000 2.689465e+000 1.675659e+000 5.016285e-001
<GCONST> 1.012948e+002
<TRANSP> 5
 0.000000e+000 1.000000e+000 0.000000e+000 0.000000e+000 0.000000e+000
 0.000000e+000 9.455028e-001 5.449719e-002 0.000000e+000 0.000000e+000
 0.000000e+000 0.000000e+000 8.586028e-001 1.413972e-001 0.000000e+000
 0.000000e+000 0.000000e+000 0.000000e+000 9.516905e-001 4.830949e-002
 0.000000e+000 0.000000e+000 0.000000e+000 0.000000e+000 0.000000e+000
<ENDHMM>
~h "sil"
<BEGINHMM>
<NUMSTATES> 5
<STATE> 2
<MEAN> 25
 -7.785374e+000 6.902061e+000 -5.758986e+000 -1.472426e+000 7.047225e-001 -3.693874e+000 -3.752569e+000 -3.041918e+000 -5.832567e+000 4.614379e+000 -3.200905e+000 -1.243641e-001 1.523832e-001 -1.101787e-001 -4.624942e-002 -5.060222e-002 -3.734304e-002 4.529769e-002 -5.907185e-002 -8.700926e-002 1.157757e-001 3.784355e-002 3.840600e-002 5.788426e-002 1.676751e-001
<VARIANCE> 25
 5.448063e+001 2.440611e+001 1.556464e+001 4.130111e+001 4.043035e+001 5.681006e+001 3.575346e+001 4.101057e+001 3.503081e+001 2.153806e+001 2.212693e+001 9.958798e+000 5.793122e-001 3.165371e-001 4.541139e-001 6.747638e-001 7.086144e-001 9.269511e-001 1.029511e+000 9.923831e-001 9.392146e-001 9.661962e-001 8.254710e-001 6.886417e-001 8.831624e-001
<GCONST> 8.259250e+001
<STATE> 3
<MEAN> 25
 -3.482671e+000 6.996679e-001 -1.424600e+000 1.282858e-001 1.298136e+000 1.022487e+000 -5.825621e-001 1.340975e+000 -2.166479e+000 2.690767e+000 -2.033434e+000 2.488689e+000 -1.130667e+000 -8.439693e-001 4.923983e-001 -5.766472e-001 7.997644e-001 -2.745459e-001 6.974831e-001 -6.250989e-002 1.014342e+000 -2.757233e-001 7.750144e-001 1.215078e-001 4.816963e+000
<VARIANCE> 25
 3.319366e+001 6.453776e+001 3.857430e+001 7.283344e+001 5.270618e+001 5.335459e+001 6.152846e+001 4.414890e+001 4.479483e+001 4.985205e+001 5.439751e+001 2.215557e+001 2.518484e+000 6.908040e+000 5.127576e+000 8.462988e+000 6.266756e+000 5.159636e+000 5.394144e+000 2.729575e+000 3.550984e+000 3.865623e+000 3.645843e+000 2.699131e+000 6.501351e+001
<GCONST> 1.140843e+002
<STATE> 4
<MEAN> 25
 -4.724837e+000 1.584091e+000 -1.767314e+000 3.953613e+000 1.931350e+000 2.549339e+000 3.265050e+000 8.016189e-001 2.719584e+000 1.210675e+000 6.894946e-001 1.346840e+000 -1.678173e-002 -9.821099e-003 -2.050368e-003 -1.357511e-002 -7.876213e-003 1.230195e-002 -5.902126e-003 -6.893400e-003 3.072544e-002 1.080154e-002 3.584650e-003 5.933646e-003 1.077587e-002
<VARIANCE> 25
 5.259482e+000 1.150491e+001 1.267802e+001 3.887248e+001 1.294577e+001 2.909811e+001 2.325586e+001 1.867832e+001 2.818081e+001 2.875461e+001 1.549938e+001 1.325220e+001 2.318538e-001 4.054956e-001 5.637876e-001 8.336703e-001 1.051900e+000 1.315196e+000 1.488530e+000 1.404292e+000 1.484068e+000 1.652287e+000 1.316919e+000 1.101895e+000 6.256284e-001
<GCONST> 7.902055e+001
<TRANSP> 5
 0.000000e+000 1.000000e+000 0.000000e+000 0.000000e+000 0.000000e+000
 0.000000e+000 8.599297e-001 1.400703e-001 0.000000e+000 0.000000e+000
 0.000000e+000 0.000000e+000 5.820727e-001 4.179273e-001 0.000000e+000
 0.000000e+000 0.000000e+000 0.000000e+000 9.802272e-001 1.977279e-002
 0.000000e+000 0.000000e+000 0.000000e+000 0.000000e+000 0.000000e+000
<ENDHMM>
