~o
<STREAMINFO> 1 25
<VECSIZE> 25<NULLD><MFCC_D_N_Z_0><DIAGC>
~h "@"
<BEGINHMM>
<NUMSTATES> 5
<STATE> 2
<MEAN> 25
 -2.569044e+000 1.174995e+000 -1.560231e+000 4.152018e-001 1.105719e+000 7.673770e-001 1.091630e+000 -1.056224e+000 -3.395489e-001 1.746042e+000 3.531761e-001 7.832391e-001 2.633089e-001 -1.523925e-001 -2.371214e-002 -1.589466e-001 -6.846882e-002 -1.669227e-001 -2.265330e-001 -1.413531e-001 -1.804872e-001 -1.621905e-001 -7.326074e-002 3.054386e-002 3.233187e-001
<VARIANCE> 25
 3.362254e+001 2.876650e+001 2.634228e+001 5.785884e+001 2.756633e+001 3.289288e+001 4.564898e+001 3.911312e+001 4.628024e+001 3.886863e+001 2.237478e+001 1.782957e+001 1.735070e+000 1.688201e+000 1.464257e+000 2.379807e+000 1.962088e+000 2.967421e+000 2.956130e+000 2.933454e+000 2.691228e+000 3.007166e+000 2.060553e+000 1.761193e+000 2.110958e+000
<GCONST> 9.830345e+001
<STATE> 3
<MEAN> 25
 -1.046417e+000 -2.038856e-002 -1.533969e+000 -6.090513e-001 8.482961e-001 1.880620e-001 1.178202e-001 -1.810987e+000 -1.356709e+000 2.706152e-001 6.584204e-002 1.209911e+000 6.341284e-001 -1.955410e-001 3.949059e-002 -2.675934e-001 -1.713999e-001 -2.505061e-001 -3.598652e-001 -1.383435e-001 -1.440649e-001 -3.962741e-001 -1.273919e-001 9.545065e-002 7.219657e-001
<VARIANCE> 25
 4.593355e+001 3.986871e+001 3.434436e+001 6.152081e+001 3.654564e+001 4.806589e+001 5.017863e+001 4.808191e+001 5.147348e+001 5.280879e+001 2.425303e+001 2.476701e+001 2.757130e+000 2.791060e+000 2.086199e+000 3.379532e+000 2.940310e+000 4.487363e+000 3.883813e+000 4.194223e+000 3.787783e+000 3.863445e+000 2.282904e+000 2.233859e+000 3.296436e+000
<GCONST> 1.055503e+002
<STATE> 4
<MEAN> 25
 2.403548e-001 -5.326801e-001 -1.177488e+000 -1.369287e+000 -3.421728e-002 -7.400876e-001 -8.585549e-001 -2.223420e+000 -1.380852e+000 -5.184556e-001 -2.787972e-001 1.389459e+000 5.350196e-001 -9.390909e-002 1.184202e-001 -1.409372e-001 -1.792066e-001 -2.127086e-001 -2.319296e-001 1.671893e-001 3.419030e-002 -2.379363e-001 -2.254821e-001 -6.961557e-002 5.462348e-001
<VARIANCE> 25
 6.121690e+001 3.937105e+001 4.051704e+001 5.804007e+001 3.706394e+001 4.412250e+001 5.106374e+001 5.327623e+001 4.719623e+001 5.463143e+001 2.505775e+001 2.651792e+001 2.882455e+000 2.516120e+000 2.358587e+000 3.728280e+000 2.608817e+000 3.924693e+000 4.046499e+000 4.545536e+000 3.426273e+000 3.221606e+000 2.266949e+000 2.189830e+000 2.753132e+000
<GCONST> 1.055692e+002
<TRANSP> 5
 0.000000e+000 1.000000e+000 0.000000e+000 0.000000e+000 0.000000e+000
 0.000000e+000 6.613828e-001 3.386172e-001 0.000000e+000 0.000000e+000
 0.000000e+000 0.000000e+000 6.411768e-001 3.588232e-001 0.000000e+000
 0.000000e+000 0.000000e+000 0.000000e+000 7.655535e-001 2.344465e-001
 0.000000e+000 0.000000e+000 0.000000e+000 0.000000e+000 0.000000e+000
<ENDHMM>
~h "a"
<BEGINHMM>
<NUMSTATES> 5
<STATE> 2
<MEAN> 25
 3.250062e+000 -3.682515e+000 -3.088892e+000 -2.992482e+000 -4.048179e-001 -1.521029e+000 6.550413e-001 1.492522e+000 5.529996e-001 -1.233996e+000 -4.393634e-001 4.006685e-001 2.601260e-001 -3.525789e-001 -1.937992e-001 -1.320910e-001 -8.453212e-002 -9.789289e-002 9.416516e-002 2.524181e-001 5.187968e-002 -1.170165e-001 -5.563131e-002 8.047570e-003 3.574573e-001
<VARIANCE> 25
 3.552222e+001 5.339201e+001 3.944080e+001 6.713621e+001 4.855050e+001 4.315857e+001 4.667753e+001 4.289820e+001 5.530841e+001 3.343793e+001 4.649463e+001 3.212915e+001 1.572126e+000 2.555475e+000 2.077713e+000 2.726060e+000 2.589127e+000 2.666850e+000 2.784060e+000 2.806992e+000 2.784584e+000 2.338419e+000 2.560419e+000 2.022971e+000 3.138309e+000
<GCONST> 1.032326e+002
<STATE> 3
<MEAN> 25
 3.842994e+000 -4.370426e+000 -3.473776e+000 -3.257915e+000 -7.043342e-001 -1.602127e+000 7.170666e-001 2.045473e+000 6.829534e-001 -1.405630e+000 -6.227577e-001 4.672174e-001 1.266603e-001 -9.609509e-002 -4.563436e-002 -5.991945e-002 -2.344366e-002 3.352692e-002 -1.844613e-002 7.289748e-002 1.120063e-002 -2.397156e-002 -7.314702e-002 6.356160e-003 1.249929e-001
<VARIANCE> 25
 3.389945e+001 5.108414e+001 3.903975e+001 6.210966e+001 4.725230e+001 4.203483e+001 4.695230e+001 4.294373e+001 5.421893e+001 3.324762e+001 4.886604e+001 3.285974e+001 1.420031e+000 2.408578e+000 1.839445e+000 2.576479e+000 2.449757e+000 2.426040e+000 2.746871e+000 2.696813e+000 2.633296e+000 2.188174e+000 2.390460e+000 1.997111e+000 2.975278e+000
<GCONST> 1.022539e+002
<STATE> 4
<MEAN> 25
 2.957255e+000 -3.318306e+000 -3.063172e+000 -2.490100e+000 -8.599459e-002 -9.114329e-001 4.642518e-001 2.138243e+000 9.433267e-001 -7.761394e-001 -1.476875e+000 -1.333207e-001 -1.050336e-001 2.407684e-001 1.102172e-001 1.698530e-001 9.021956e-002 1.230871e-001 -2.544381e-002 -1.196289e-001 -1.858901e-002 5.414634e-002 -2.766489e-002 -1.912504e-002 -2.882854e-001
<VARIANCE> 25
 3.258601e+001 4.576474e+001 3.090805e+001 6.353547e+001 4.193833e+001 3.345325e+001 5.009480e+001 3.892952e+001 4.393277e+001 3.089007e+001 4.797044e+001 3.161997e+001 8.532345e-001 1.772856e+000 1.324457e+000 2.061144e+000 1.863258e+000 1.795927e+000 2.405953e+000 2.192801e+000 2.052355e+000 1.810175e+000 2.017938e+000 1.651603e+000 2.104537e+000
<GCONST> 9.774586e+001
<TRANSP> 5
 0.000000e+000 1.000000e+000 0.000000e+000 0.000000e+000 0.000000e+000
 0.000000e+000 6.712113e-001 3.287887e-001 0.000000e+000 0.000000e+000
 0.000000e+000 0.000000e+000 6.712000e-001 3.288000e-001 0.000000e+000
 0.000000e+000 0.000000e+000 0.000000e+000 8.248529e-001 1.751471e-001
 0.000000e+000 0.000000e+000 0.000000e+000 0.000000e+000 0.000000e+000
<ENDHMM>
~h "b"
<BEGINHMM>
<NUMSTATES> 5
<STATE> 2
<MEAN> 25
 1.704709e-001 2.308434e+000 -1.106168e+000 1.774450e+000 1.229146e+000 9.803734e-001 1.021037e+000 -2.579643e-001 3.780725e-002 -3.476935e-001 -7.640160e-001 2.348143e-001 -2.233052e-001 -1.015626e-001 -1.511108e-001 1.217433e-001 -2.053279e-002 -1.676550e-003 7.884798e-002 8.000875e-002 1.644401e-001 6.316121e-002 1.512583e-001 1.140190e-001 -2.348585e-001
<VARIANCE> 25
 2.801275e+001 2.755702e+001 2.524417e+001 4.241039e+001 3.088173e+001 3.383442e+001 3.806044e+001 3.344242e+001 3.973401e+001 3.322181e+001 3.124733e+001 2.516982e+001 5.407683e-001 1.058096e+000 1.093991e+000 1.436762e+000 1.458530e+000 1.808306e+000 1.765553e+000 1.613907e+000 1.793888e+000 1.957253e+000 1.829919e+000 1.508401e+000 1.221459e+000
<GCONST> 9.190764e+001
<STATE> 3
<MEAN> 25
 -7.591547e-001 2.052110e+000 -1.596235e+000 2.204069e+000 1.122923e+000 1.079135e+000 1.467797e+000 5.853287e-002 5.189049e-001 -4.504967e-002 -1.222452e-001 5.533552e-001 -1.671876e-001 -8.195912e-002 -7.522085e-002 3.983765e-002 -6.492009e-002 -2.544831e-002 3.430251e-002 1.964535e-002 2.526747e-002 4.136350e-002 1.381354e-001 5.818554e-002 -1.370770e-001
<VARIANCE> 25
 2.936583e+001 2.524700e+001 2.240746e+001 4.103501e+001 2.635192e+001 3.305667e+001 3.637247e+001 2.979736e+001 3.665578e+001 3.278368e+001 2.858646e+001 2.244897e+001 4.421721e-001 8.826475e-001 9.488938e-001 1.178625e+000 1.247072e+000 1.522472e+000 1.653568e+000 1.511275e+000 1.642440e+000 1.787179e+000 1.621162e+000 1.349249e+000 8.033812e-001
<GCONST> 8.906158e+001
<STATE> 4
<MEAN> 25
 -2.639580e+000 1.647775e+000 -1.464857e+000 3.141948e+000 1.468079e+000 1.963661e+000 3.303478e+000 8.811766e-001 1.826419e+000 1.046894e+000 1.144266e+000 6.948746e-001 -3.036464e-002 -1.848676e-002 6.386907e-002 2.089902e-004 1.176647e-002 -2.175318e-002 -2.508068e-002 -4.675142e-002 -4.943085e-002 6.948523e-003 4.138616e-003 -2.231416e-002 1.499042e-002
<VARIANCE> 25
 1.758138e+001 1.688231e+001 1.431121e+001 3.245963e+001 1.663523e+001 2.072742e+001 2.820794e+001 2.038643e+001 2.445182e+001 2.177640e+001 2.125894e+001 1.675446e+001 3.753996e-001 6.544526e-001 6.551418e-001 8.885967e-001 9.697439e-001 1.128489e+000 1.326125e+000 1.241327e+000 1.407880e+000 1.498149e+000 1.325043e+000 1.181120e+000 6.191942e-001
<GCONST> 8.149025e+001
<TRANSP> 5
 0.000000e+000 1.000000e+000 0.000000e+000 0.000000e+000 0.000000e+000
 0.000000e+000 7.251727e-001 2.748273e-001 0.000000e+000 0.000000e+000
 0.000000e+000 0.000000e+000 7.326388e-001 2.673612e-001 0.000000e+000
 0.000000e+000 0.000000e+000 0.000000e+000 9.350618e-001 6.493828e-002
 0.000000e+000 0.000000e+000 0.000000e+000 0.000000e+000 0.000000e+000
<ENDHMM>
~h "c"
<BEGINHMM>
<NUMSTATES> 5
<STATE> 2
<MEAN> 25
 -2.735326e+000 8.502769e-001 -7.612806e-001 2.431599e+000 8.068575e-001 5.323570e+000 3.388540e+000 2.006141e-001 1.873890e+000 2.240463e+000 1.503200e+000 3.295433e+000 -1.970229e-001 -2.900765e-001 9.331864e-002 5.751104e-001 -1.392439e-001 -2.556191e-001 5.937502e-001 1.191766e-001 -1.423499e-001 3.733663e-002 2.462541e-002 7.686498e-002 -1.127272e-001
<VARIANCE> 25
 1.478570e+001 1.109876e+001 2.167048e+001 4.550772e+001 1.407294e+001 3.272084e+001 2.977012e+001 1.664182e+001 2.300988e+001 2.688009e+001 2.167439e+001 1.275044e+001 4.510625e-001 1.410622e+000 1.658776e+000 1.862554e+000 1.008764e+000 3.063964e+000 3.380872e+000 2.869595e+000 2.418123e+000 3.060767e+000 2.254122e+000 1.351480e+000 8.714488e-001
<GCONST> 8.938262e+001
<STATE> 3
<MEAN> 25
 -3.186397e+000 -1.312229e-001 -4.539831e-001 3.490986e+000 2.034692e-001 3.685205e+000 4.171758e+000 5.907924e-001 7.358910e-001 1.882537e+000 1.938947e+000 3.271157e+000 -1.276825e-001 -5.050972e-001 3.837614e-001 3.118846e-001 -3.454988e-001 -7.937033e-001 1.173704e-001 3.743721e-002 -7.190837e-001 -3.989890e-001 -2.235691e-002 -6.849347e-002 3.355240e-001
<VARIANCE> 25
 1.404488e+001 2.084387e+001 2.984549e+001 4.880063e+001 1.321553e+001 3.581251e+001 3.007334e+001 2.510580e+001 2.934631e+001 1.841119e+001 1.529304e+001 1.075493e+001 9.897441e-001 2.959345e+000 2.588197e+000 2.935907e+000 1.355448e+000 2.550912e+000 3.414109e+000 3.990737e+000 2.734923e+000 2.451242e+000 2.310183e+000 1.349902e+000 1.280116e+000
<GCONST> 9.333346e+001
<STATE> 4
<MEAN> 25
 -2.241092e+000 -1.979944e+000 2.337736e+000 -1.701833e+000 -1.587402e+000 -1.890720e+000 1.216266e+000 -7.940631e-002 -6.362742e-003 -1.249570e+000 1.436436e+000 1.480934e+000 3.192097e-001 -1.504815e-001 1.571229e-001 -4.009692e-001 -1.079484e-001 -2.800137e-001 -4.380441e-001 -1.497765e-001 -8.290441e-002 -2.626943e-001 -2.507094e-002 -2.241483e-001 8.331674e-001
<VARIANCE> 25
 6.353695e+001 1.242343e+002 9.545909e+001 1.251836e+002 6.680347e+001 3.427433e+001 5.465927e+001 9.022503e+001 6.041518e+001 2.891691e+001 4.778311e+001 3.952439e+001 5.830446e+000 7.610873e+000 7.054770e+000 5.596948e+000 5.740808e+000 2.516136e+000 5.189688e+000 6.196592e+000 4.019190e+000 2.874191e+000 3.046268e+000 3.242802e+000 6.199332e+000
<GCONST> 1.157293e+002
<TRANSP> 5
 0.000000e+000 1.000000e+000 0.000000e+000 0.000000e+000 0.000000e+000
 0.000000e+000 6.094360e-001 3.905641e-001 0.000000e+000 0.000000e+000
 0.000000e+000 0.000000e+000 6.348805e-001 3.651194e-001 0.000000e+000
 0.000000e+000 0.000000e+000 0.000000e+000 9.458916e-001 5.410840e-002
 0.000000e+000 0.000000e+000 0.000000e+000 0.000000e+000 0.000000e+000
<ENDHMM>
~h "d"
<BEGINHMM>
<NUMSTATES> 5
<STATE> 2
<MEAN> 25
 2.774968e+000 1.757715e+000 5.331709e-001 1.559247e+000 6.992961e-001 1.365616e+000 -2.778188e+000 -3.214121e+000 -1.838232e+000 -2.044167e+000 -6.730212e-002 -2.263534e-001 -1.627869e-001 3.023710e-001 -1.691975e-002 1.521049e-001 1.130833e-001 2.204644e-001 1.232484e-001 -8.234054e-002 2.585720e-003 1.400210e-001 7.671198e-002 1.158507e-002 -4.170288e-001
<VARIANCE> 25
 2.811746e+001 2.198260e+001 2.303169e+001 3.478378e+001 3.790392e+001 4.319225e+001 7.631331e+001 5.566557e+001 3.052431e+001 3.485037e+001 4.151145e+001 2.826722e+001 6.640887e-001 1.052547e+000 1.189015e+000 1.392104e+000 1.541759e+000 2.338340e+000 2.374698e+000 2.514910e+000 2.066012e+000 1.950819e+000 2.098149e+000 1.689984e+000 1.030873e+000
<GCONST> 9.475711e+001
<STATE> 3
<MEAN> 25
 1.427497e+000 2.775575e+000 4.152625e-001 2.074685e+000 1.148757e+000 1.835892e+000 -1.325369e+000 -2.564583e+000 -1.352389e+000 -8.268666e-001 4.174572e-001 8.054408e-002 -2.078595e-001 2.189610e-001 -5.894713e-002 3.750103e-002 6.692889e-002 6.866671e-002 1.611834e-001 6.126145e-002 -8.815517e-003 1.464498e-001 1.336726e-001 9.720691e-002 -3.572560e-001
<VARIANCE> 25
 2.867384e+001 2.063825e+001 2.178423e+001 3.720861e+001 3.644382e+001 3.940400e+001 6.698156e+001 5.233134e+001 3.142848e+001 3.502794e+001 3.691440e+001 2.348264e+001 4.111418e-001 9.470090e-001 9.550294e-001 1.064065e+000 1.251491e+000 1.859278e+000 1.929084e+000 1.902353e+000 1.903791e+000 1.806498e+000 1.802349e+000 1.500276e+000 6.288870e-001
<GCONST> 9.121181e+001
<STATE> 4
<MEAN> 25
 -6.325716e-001 1.968134e+000 6.309732e-003 1.953755e+000 1.056030e+000 1.119427e+000 8.260509e-001 -6.640750e-001 1.533293e-001 6.406659e-001 7.524489e-001 7.876013e-001 -7.596029e-002 8.296449e-004 -1.913841e-002 1.651441e-002 3.101220e-002 -1.705553e-002 3.163432e-002 2.129644e-002 -1.770094e-003 3.392436e-002 2.479603e-002 3.194608e-002 -7.110990e-002
<VARIANCE> 25
 2.084359e+001 1.490541e+001 2.005983e+001 2.873925e+001 2.061001e+001 2.673873e+001 3.859365e+001 3.783852e+001 2.624640e+001 2.612990e+001 2.460094e+001 2.095244e+001 3.168375e-001 7.359715e-001 8.185555e-001 9.016246e-001 1.005796e+000 1.296855e+000 1.491372e+000 1.670713e+000 1.506654e+000 1.401810e+000 1.456242e+000 1.425882e+000 5.588444e-001
<GCONST> 8.473203e+001
<TRANSP> 5
 0.000000e+000 1.000000e+000 0.000000e+000 0.000000e+000 0.000000e+000
 0.000000e+000 7.614022e-001 2.385978e-001 0.000000e+000 0.000000e+000
 0.000000e+000 0.000000e+000 7.644620e-001 2.355380e-001 0.000000e+000
 0.000000e+000 0.000000e+000 0.000000e+000 9.554403e-001 4.455969e-002
 0.000000e+000 0.000000e+000 0.000000e+000 0.000000e+000 0.000000e+000
<ENDHMM>
~h "e"
<BEGINHMM>
<NUMSTATES> 5
<STATE> 2
<MEAN> 25
 3.630641e+000 -1.342667e+000 -2.661303e-001 4.042165e+000 2.129560e+000 -4.740083e+000 -8.757667e+000 -7.375809e+000 -3.319820e+000 2.058498e+000 1.349429e+000 -2.092525e+000 -1.184533e-001 1.344279e-001 1.216092e-002 1.783916e-001 7.627895e-002 1.600838e-001 8.282863e-002 1.514923e-001 3.287102e-001 1.814535e-001 -1.510737e-001 -1.232484e-001 -2.264418e-001
<VARIANCE> 25
 1.900175e+001 3.073192e+001 2.886829e+001 3.780031e+001 3.872397e+001 8.458030e+001 8.737229e+001 6.017974e+001 3.926827e+001 5.877687e+001 3.513743e+001 2.475385e+001 4.140983e-001 1.262868e+000 1.222533e+000 1.224768e+000 1.272895e+000 3.539805e+000 2.443854e+000 1.948234e+000 2.140468e+000 2.316046e+000 2.128579e+000 1.593118e+000 5.783415e-001
<GCONST> 9.558163e+001
<STATE> 3
<MEAN> 25
 1.650208e+000 4.348527e-001 1.900671e-001 2.921381e+000 1.762264e+000 6.957434e-002 -3.420572e+000 -3.546595e+000 -2.315143e-001 1.449504e+000 1.435620e-001 -1.363959e+000 -2.244834e-001 2.455479e-001 -3.631354e-002 -3.281730e-002 2.014950e-001 4.479961e-001 3.740077e-001 2.631041e-001 2.274473e-001 -1.974893e-002 -1.154206e-001 1.808645e-001 -3.476424e-001
<VARIANCE> 25
 2.361996e+001 2.270802e+001 2.293036e+001 3.984454e+001 4.466594e+001 7.446414e+001 6.245918e+001 4.166236e+001 3.549833e+001 4.874820e+001 2.681520e+001 2.508863e+001 3.546405e-001 9.237261e-001 1.022075e+000 1.039189e+000 1.301977e+000 2.364524e+000 2.006541e+000 1.688787e+000 1.976438e+000 2.001699e+000 1.792058e+000 1.497813e+000 3.989864e-001
<GCONST> 9.172337e+001
<STATE> 4
<MEAN> 25
 -1.902424e+000 1.453542e+000 2.071251e-001 2.605648e+000 1.478313e+000 2.471148e+000 1.071310e+000 1.642285e-001 1.459785e+000 8.852026e-001 4.314268e-001 8.057321e-002 -6.480357e-002 3.389096e-002 6.872219e-003 2.742810e-002 2.958377e-002 2.457775e-002 6.158970e-002 6.372557e-002 4.399808e-002 1.006353e-002 2.317778e-002 2.072025e-002 -8.555952e-002
<VARIANCE> 25
 1.683528e+001 9.460983e+000 1.722252e+001 3.215461e+001 2.601912e+001 3.993888e+001 3.253398e+001 2.511250e+001 3.101678e+001 2.792214e+001 1.599188e+001 1.469921e+001 3.151388e-001 5.167955e-001 7.508343e-001 8.780577e-001 1.096290e+000 1.612561e+000 1.552608e+000 1.467710e+000 1.533920e+000 1.628208e+000 1.276983e+000 1.169952e+000 3.687906e-001
<GCONST> 8.269118e+001
<TRANSP> 5
 0.000000e+000 1.000000e+000 0.000000e+000 0.000000e+000 0.000000e+000
 0.000000e+000 8.415392e-001 1.584608e-001 0.000000e+000 0.000000e+000
 0.000000e+000 0.000000e+000 7.944417e-001 2.055583e-001 0.000000e+000
 0.000000e+000 0.000000e+000 0.000000e+000 9.667981e-001 3.320192e-002
 0.000000e+000 0.000000e+000 0.000000e+000 0.000000e+000 0.000000e+000
<ENDHMM>
~h "f"
<BEGINHMM>
<NUMSTATES> 5
<STATE> 2
<MEAN> 25
 -3.065503e+000 -5.445594e-001 -1.154154e+000 -8.064117e-001 1.216756e+000 -3.255054e+000 3.640186e+000 -8.890175e-003 3.125825e-001 -1.412909e+000 1.698641e+000 1.589460e+000 7.260928e-001 -2.621130e-001 -1.393049e-001 -9.157391e-001 -7.504949e-001 -3.187768e-001 -2.755921e-001 -3.038268e-001 -4.475910e-001 -4.212645e-001 -2.335893e-001 -3.073868e-001 9.493002e-001
<VARIANCE> 25
 9.405993e+001 4.889556e+001 5.657741e+001 7.655249e+001 9.537996e+001 4.785521e+001 5.932494e+001 3.144186e+001 2.826224e+001 3.231337e+001 2.027164e+001 1.891430e+001 6.071487e+000 1.793044e+000 2.708621e+000 2.703017e+000 5.259972e+000 3.212380e+000 4.201500e+000 2.769746e+000 2.531445e+000 2.505904e+000 1.833891e+000 1.634154e+000 1.609635e+000
<GCONST> 1.045582e+002
<STATE> 3
<MEAN> 25
 2.085769e+000 -4.374707e+000 -2.156724e+000 -4.981713e+000 -4.476959e+000 -3.308254e+000 2.053516e+000 1.625921e+000 -2.295363e+000 -3.853104e+000 1.870134e+000 7.328331e-001 3.173116e-001 -2.713645e-001 4.051721e-002 -6.161741e-001 -3.803225e-001 1.723912e-002 -8.686368e-003 -3.742980e-002 -1.251942e-001 -4.336798e-003 -2.018221e-002 -1.864646e-001 4.451069e-001
<VARIANCE> 25
 6.254906e+001 3.093862e+001 1.018794e+002 8.890659e+001 1.385715e+002 4.440716e+001 7.756412e+001 5.114901e+001 4.108480e+001 3.950152e+001 2.001569e+001 2.309798e+001 3.089624e+000 1.573069e+000 1.650650e+000 3.037736e+000 3.295231e+000 1.895455e+000 3.261345e+000 1.930124e+000 1.976810e+000 1.690459e+000 1.560273e+000 1.621697e+000 2.392884e+000
<GCONST> 1.030375e+002
<STATE> 4
<MEAN> 25
 2.219775e+000 -3.672246e+000 -1.788755e+000 -8.488309e+000 2.458975e+000 2.377795e+000 -3.032734e+000 -2.123874e+000 1.036006e+000 6.906229e-001 8.095132e-001 -3.026495e+000 8.586466e-002 1.481888e-001 -3.418292e-002 -2.912456e-002 -6.097320e-002 1.845824e-002 1.062083e-002 -2.814179e-002 8.044155e-002 1.472834e-001 -1.413899e-001 -1.655510e-001 -1.061540e-004
<VARIANCE> 25
 4.871186e+001 3.998646e+001 6.591441e+001 1.218644e+002 9.294185e+001 3.809236e+001 8.393736e+001 2.845378e+001 3.535406e+001 3.082545e+001 1.989085e+001 2.321618e+001 3.151952e+000 2.030519e+000 1.782216e+000 5.118839e+000 3.261239e+000 2.340449e+000 4.133326e+000 2.252845e+000 2.645473e+000 1.550579e+000 1.732907e+000 1.539289e+000 3.405034e+000
<GCONST> 1.035405e+002
<TRANSP> 5
 0.000000e+000 1.000000e+000 0.000000e+000 0.000000e+000 0.000000e+000
 0.000000e+000 8.226684e-001 1.773316e-001 0.000000e+000 0.000000e+000
 0.000000e+000 0.000000e+000 7.954537e-001 2.045463e-001 0.000000e+000
 0.000000e+000 0.000000e+000 0.000000e+000 9.419803e-001 5.801975e-002
 0.000000e+000 0.000000e+000 0.000000e+000 0.000000e+000 0.000000e+000
<ENDHMM>
~h "g"
<BEGINHMM>
<NUMSTATES> 5
<STATE> 2
<MEAN> 25
 -1.680083e+000 7.255123e-001 1.026534e+000 3.805602e+000 1.771971e+000 8.713318e-001 6.449882e-001 2.074738e-001 2.704302e-001 -2.742746e-001 -3.139963e-001 -2.716804e-001 -5.620553e-002 -3.154519e-001 -2.212853e-001 -2.014853e-001 5.821859e-002 6.220605e-002 -1.168926e-002 -2.153307e-002 -1.557563e-002 1.290561e-001 4.687909e-002 -5.315596e-002 6.856102e-002
<VARIANCE> 25
 2.431158e+001 5.330863e+001 3.270433e+001 4.063480e+001 3.676469e+001 4.453736e+001 3.656667e+001 3.580758e+001 3.416961e+001 4.060304e+001 2.941154e+001 3.809600e+001 6.195131e-001 3.566013e+000 1.677884e+000 2.535764e+000 2.916239e+000 2.563598e+000 2.327892e+000 2.297384e+000 1.914498e+000 2.387186e+000 1.738309e+000 1.711806e+000 2.397993e+000
<GCONST> 9.855471e+001
<STATE> 3
<MEAN> 25
 -1.327330e+000 -2.295953e-001 6.155740e-001 2.661407e+000 1.292380e+000 7.448232e-001 3.533265e-002 1.543069e-001 -1.284651e-001 -1.561431e-001 -1.148024e-001 -4.865685e-001 1.173107e-001 -2.631779e-001 -2.268951e-002 -3.502784e-001 -2.773784e-001 -6.805485e-002 -1.245585e-001 -4.339993e-002 -5.837674e-002 -5.736864e-002 4.800618e-002 -1.027366e-001 2.418338e-001
<VARIANCE> 25
 3.076459e+001 6.571404e+001 4.056108e+001 4.810051e+001 5.925431e+001 4.428722e+001 4.327467e+001 4.446153e+001 3.035962e+001 4.193322e+001 2.522692e+001 4.402761e+001 8.268968e-001 3.744909e+000 2.135816e+000 3.427331e+000 5.932435e+000 2.865294e+000 2.993158e+000 2.966951e+000 1.816125e+000 2.754985e+000 1.986062e+000 2.001789e+000 2.169233e+000
<GCONST> 1.026340e+002
<STATE> 4
<MEAN> 25
 4.071416e-001 5.317762e-001 8.392019e-001 3.749858e-001 -9.711991e-002 -3.441309e-001 -2.211863e+000 -1.597665e+000 -1.721516e+000 -1.150126e+000 6.285859e-001 -1.360287e+000 2.860749e-001 -1.301733e-001 1.801382e-002 -3.842096e-001 -3.706536e-001 -5.069713e-002 -2.089327e-001 -1.333383e-002 -1.214967e-001 -5.660120e-002 1.532570e-001 -5.990616e-002 4.353800e-001
<VARIANCE> 25
 3.139577e+001 5.082288e+001 5.907644e+001 5.334933e+001 6.140311e+001 3.396898e+001 6.041391e+001 6.054355e+001 3.151180e+001 3.902672e+001 2.926127e+001 4.087340e+001 8.002183e-001 2.388846e+000 2.822784e+000 3.793696e+000 4.361327e+000 2.298467e+000 3.078472e+000 2.871493e+000 1.648208e+000 2.895310e+000 2.281985e+000 1.841934e+000 2.603878e+000
<GCONST> 1.028854e+002
<TRANSP> 5
 0.000000e+000 1.000000e+000 0.000000e+000 0.000000e+000 0.000000e+000
 0.000000e+000 7.590206e-001 2.409794e-001 0.000000e+000 0.000000e+000
 0.000000e+000 0.000000e+000 7.389610e-001 2.610390e-001 0.000000e+000
 0.000000e+000 0.000000e+000 0.000000e+000 8.806117e-001 1.193883e-001
 0.000000e+000 0.000000e+000 0.000000e+000 0.000000e+000 0.000000e+000
<ENDHMM>
~h "h"
<BEGINHMM>
<NUMSTATES> 5
<STATE> 2
<MEAN> 25
 -6.135522e-001 -4.070235e+000 -2.740448e+000 8.345264e-001 2.314425e+000 1.727104e+000 4.391068e+000 2.367124e+000 1.875665e+000 3.871856e-001 8.246561e-001 1.200476e+000 -2.958077e-001 1.546657e-001 -1.107484e-002 2.498731e-001 1.443044e-002 2.172207e-001 1.607812e-001 1.082416e-001 2.482224e-001 2.117455e-001 2.075904e-001 1.265319e-001 -5.250419e-001
<VARIANCE> 25
 1.926439e+001 3.833883e+001 1.655647e+001 4.498479e+001 4.889853e+001 2.339609e+001 3.281382e+001 2.675818e+001 3.493632e+001 2.991570e+001 2.911379e+001 2.126482e+001 3.987378e-001 8.282377e-001 8.120310e-001 1.232488e+000 1.219216e+000 1.349442e+000 1.766150e+000 1.480748e+000 1.760198e+000 1.627298e+000 1.599770e+000 1.369143e+000 6.489226e-001
<GCONST> 8.812104e+001
<STATE> 3
<MEAN> 25
 -1.919207e+000 -2.140453e+000 -2.638458e+000 2.566290e+000 2.039213e+000 2.435633e+000 4.287864e+000 2.241620e+000 2.162049e+000 1.506382e+000 1.910397e+000 1.419253e+000 -1.538786e-001 2.480187e-001 5.650976e-002 1.857171e-001 -1.107675e-002 9.490936e-002 -6.118308e-002 -3.965419e-002 5.276216e-002 1.099150e-001 7.962091e-002 1.849043e-002 -3.783303e-001
<VARIANCE> 25
 1.466138e+001 3.269338e+001 1.360363e+001 4.661743e+001 3.774575e+001 1.937747e+001 2.878344e+001 2.445934e+001 2.767279e+001 2.626813e+001 2.273921e+001 1.733479e+001 2.882150e-001 8.040665e-001 6.934987e-001 1.192877e+000 1.167862e+000 1.233260e+000 1.733923e+000 1.525699e+000 1.508731e+000 1.528488e+000 1.511421e+000 1.266092e+000 5.292872e-001
<GCONST> 8.482326e+001
<STATE> 4
<MEAN> 25
 -2.815430e+000 7.050973e-001 -2.122424e+000 4.469633e+000 1.630345e+000 2.685868e+000 3.375763e+000 9.391926e-001 2.085494e+000 1.843155e+000 2.157318e+000 1.496965e+000 -3.781851e-002 1.026776e-001 5.950043e-002 5.054508e-002 6.538997e-003 -8.322380e-003 -8.177654e-002 -8.161274e-002 -4.605702e-002 -2.329738e-002 -4.215949e-002 -3.062863e-002 -7.200418e-002
<VARIANCE> 25
 1.096790e+001 1.971659e+001 1.126422e+001 4.327692e+001 2.293364e+001 1.429587e+001 2.754337e+001 2.453696e+001 2.067293e+001 2.098165e+001 1.874837e+001 1.481135e+001 2.836653e-001 6.364095e-001 6.361958e-001 1.150532e+000 1.027159e+000 1.098788e+000 1.464910e+000 1.354252e+000 1.269073e+000 1.461457e+000 1.377915e+000 1.171970e+000 4.150269e-001
<GCONST> 8.051982e+001
<TRANSP> 5
 0.000000e+000 1.000000e+000 0.000000e+000 0.000000e+000 0.000000e+000
 0.000000e+000 8.415569e-001 1.584431e-001 0.000000e+000 0.000000e+000
 0.000000e+000 0.000000e+000 8.184658e-001 1.815342e-001 0.000000e+000
 0.000000e+000 0.000000e+000 0.000000e+000 9.390288e-001 6.097125e-002
 0.000000e+000 0.000000e+000 0.000000e+000 0.000000e+000 0.000000e+000
<ENDHMM>
~h "i"
<BEGINHMM>
<NUMSTATES> 5
<STATE> 2
<MEAN> 25
 -3.018251e-001 -7.048340e-001 1.165278e+001 4.389217e+000 -1.802838e+000 -4.727106e+000 -6.099222e+000 -4.483536e+000 -4.312402e+000 -2.722549e+000 -7.102602e-001 -3.833112e+000 2.172749e-001 3.377711e-002 8.700348e-001 1.944435e-001 -3.764717e-001 -3.176989e-001 -6.875299e-001 -1.334663e-001 -3.698102e-001 -2.733248e-001 -1.240126e-001 -3.005428e-001 3.803492e-001
<VARIANCE> 25
 2.936303e+001 5.935078e+001 9.052910e+001 1.559162e+002 1.147022e+002 7.770159e+001 7.033065e+001 5.763643e+001 5.060994e+001 5.249519e+001 5.222269e+001 3.604619e+001 1.383880e+000 2.329999e+000 4.450700e+000 5.170052e+000 4.128517e+000 4.868239e+000 4.850690e+000 3.146905e+000 3.724258e+000 2.940710e+000 2.531945e+000 2.175452e+000 2.305328e+000
<GCONST> 1.107607e+002
<STATE> 3
<MEAN> 25
 4.607405e-001 1.293607e-001 1.209060e+001 5.567161e+000 -1.893359e+000 -5.197552e+000 -7.884498e+000 -4.170635e+000 -4.558359e+000 -3.535523e+000 -1.714025e+000 -4.314904e+000 -1.246718e-004 1.705007e-001 -7.572751e-002 -1.192043e-001 -7.107706e-002 2.123239e-001 -1.195941e-002 1.450866e-002 4.161088e-002 9.225336e-002 -7.367127e-002 2.372682e-002 -1.614928e-001
<VARIANCE> 25
 1.770138e+001 4.372786e+001 7.640258e+001 1.646809e+002 1.153749e+002 7.977039e+001 5.361959e+001 5.368027e+001 4.497587e+001 4.910791e+001 5.160618e+001 3.391835e+001 7.303224e-001 1.492354e+000 2.579257e+000 3.330853e+000 2.707826e+000 3.843737e+000 3.396564e+000 2.593005e+000 2.577586e+000 2.264032e+000 2.027380e+000 1.664476e+000 1.349472e+000
<GCONST> 1.043336e+002
<STATE> 4
<MEAN> 25
 -3.152235e-001 2.412223e+000 1.078956e+001 1.806994e+000 -3.842156e+000 -1.594272e+000 -5.334945e+000 -3.851313e+000 -4.258065e+000 -1.120913e+000 -1.099832e+000 -2.727626e+000 -1.037788e-001 4.700692e-002 -6.531315e-001 -1.153512e-001 2.449713e-001 3.357881e-001 4.795585e-001 1.666638e-001 2.460004e-001 2.553638e-001 5.441897e-002 2.592000e-001 -4.613374e-001
<VARIANCE> 25
 2.042865e+001 3.243893e+001 7.655469e+001 1.177621e+002 1.001281e+002 4.994434e+001 5.893120e+001 5.445921e+001 4.726728e+001 4.391174e+001 4.520638e+001 3.117546e+001 5.965238e-001 1.080725e+000 2.354465e+000 3.163566e+000 2.692606e+000 2.568564e+000 2.920981e+000 2.622667e+000 2.219643e+000 2.164614e+000 1.857871e+000 1.649370e+000 1.495042e+000
<GCONST> 1.016605e+002
<TRANSP> 5
 0.000000e+000 1.000000e+000 0.000000e+000 0.000000e+000 0.000000e+000
 0.000000e+000 8.451066e-001 1.548934e-001 0.000000e+000 0.000000e+000
 0.000000e+000 0.000000e+000 8.193044e-001 1.806956e-001 0.000000e+000
 0.000000e+000 0.000000e+000 0.000000e+000 9.003985e-001 9.960147e-002
 0.000000e+000 0.000000e+000 0.000000e+000 0.000000e+000 0.000000e+000
<ENDHMM>
~h "j"
<BEGINHMM>
<NUMSTATES> 5
<STATE> 2
<MEAN> 25
 -1.101080e+000 1.653913e+000 -1.534381e+000 4.273295e+000 -4.145716e-001 1.665366e-001 8.834569e-001 1.314338e+000 -6.465564e-002 -1.467551e+000 6.436537e-001 1.909849e+000 -4.002415e-001 -2.148916e-001 -1.025612e-002 -4.528169e-001 1.251784e-001 -1.100639e-001 2.069843e-001 -9.237418e-003 1.694598e-001 1.682403e-001 2.433163e-001 2.352947e-001 5.111197e-001
<VARIANCE> 25
 2.077157e+001 3.358340e+001 2.468379e+001 6.292341e+001 2.977536e+001 4.470218e+001 2.819447e+001 2.197269e+001 3.207269e+001 2.932239e+001 1.997283e+001 2.224842e+001 1.514601e+000 2.359778e+000 1.810985e+000 4.074124e+000 3.003059e+000 3.462960e+000 2.787487e+000 1.802490e+000 2.290100e+000 2.410333e+000 2.116056e+000 1.873981e+000 7.007196e+000
<GCONST> 9.866946e+001
<STATE> 3
<MEAN> 25
 -3.785002e+000 1.839747e+000 -1.125180e-001 -3.781548e-001 -7.156035e-001 -3.091482e+000 3.211332e+000 1.323972e+000 1.604828e+000 -1.004090e+000 2.223519e+000 3.200925e+000 -1.991865e-001 -2.702894e-001 2.587699e-002 -7.285715e-001 -2.505513e-001 -3.698396e-001 9.695231e-002 1.737058e-001 1.185361e-001 6.595150e-002 2.435651e-001 4.424330e-002 1.075642e+000
<VARIANCE> 25
 6.490113e+001 5.001147e+001 2.910315e+001 6.227676e+001 3.798318e+001 6.129801e+001 4.892966e+001 2.407384e+001 4.047304e+001 3.626074e+001 2.094269e+001 3.308088e+001 7.075728e+000 3.443868e+000 2.309702e+000 5.076820e+000 5.170815e+000 4.975950e+000 5.247835e+000 2.077275e+000 2.816465e+000 3.014176e+000 2.277767e+000 3.135783e+000 8.354761e+000
<GCONST> 1.077103e+002
<STATE> 4
<MEAN> 25
 -1.538210e+000 -1.595297e+000 -1.064880e+000 7.672102e-001 8.956032e-001 5.181488e-001 3.281005e+000 3.301827e+000 1.833431e+000 1.228407e+000 3.556194e-001 1.693517e+000 -8.265591e-003 -3.385229e-002 8.143955e-002 2.198653e-002 5.088734e-002 4.681081e-002 -5.864161e-002 -3.625669e-002 -1.510829e-002 -4.950813e-002 -4.342815e-002 -9.117934e-002 2.595684e-002
<VARIANCE> 25
 2.214967e+001 2.432820e+001 1.980013e+001 3.473777e+001 3.043956e+001 3.448608e+001 2.479008e+001 2.379228e+001 2.584602e+001 2.407231e+001 1.639605e+001 2.275029e+001 1.013780e+000 1.122463e+000 8.078569e-001 8.585649e-001 1.263045e+000 1.461015e+000 1.582291e+000 1.621496e+000 1.477687e+000 1.544661e+000 1.131577e+000 1.143535e+000 1.078683e+000
<GCONST> 8.693783e+001
<TRANSP> 5
 0.000000e+000 1.000000e+000 0.000000e+000 0.000000e+000 0.000000e+000
 0.000000e+000 8.141074e-001 1.858926e-001 0.000000e+000 0.000000e+000
 0.000000e+000 0.000000e+000 7.911258e-001 2.088742e-001 0.000000e+000
 0.000000e+000 0.000000e+000 0.000000e+000 9.693519e-001 3.064810e-002
 0.000000e+000 0.000000e+000 0.000000e+000 0.000000e+000 0.000000e+000
<ENDHMM>
~h "k"
<BEGINHMM>
<NUMSTATES> 5
<STATE> 2
<MEAN> 25
 -2.361146e+000 1.648111e+000 -7.297168e-001 1.775697e-001 6.499929e-001 2.780059e+000 1.565295e+000 -1.187031e-001 1.149839e+000 1.693876e+000 3.464447e-001 7.711878e-001 -8.844832e-002 -4.443646e-001 -4.088866e-001 -3.739291e-001 5.150794e-002 2.074261e-001 3.074221e-001 -3.820015e-002 2.246782e-002 3.560909e-002 2.914897e-001 1.153005e-001 2.950943e-001
<VARIANCE> 25
 2.278019e+001 3.845436e+001 3.878236e+001 5.593003e+001 5.200945e+001 4.554035e+001 3.744350e+001 3.222268e+001 5.284627e+001 3.250494e+001 2.466049e+001 2.000570e+001 1.411919e+000 2.955508e+000 2.572103e+000 3.473031e+000 4.027734e+000 3.724370e+000 3.988405e+000 3.024796e+000 4.681653e+000 3.362157e+000 2.300286e+000 1.755872e+000 3.549091e+000
<GCONST> 1.031555e+002
<STATE> 3
<MEAN> 25
 -1.883578e+000 -2.502316e-001 -1.895753e+000 -1.203185e+000 1.049121e-001 2.696105e+000 2.200685e+000 -3.099142e-002 6.458793e-001 1.074726e+000 1.082218e+000 9.938095e-001 2.987533e-001 -6.728609e-001 -3.621324e-001 -4.760742e-001 -1.167254e-001 -1.369046e-001 6.988830e-002 -1.186746e-001 -2.303495e-001 -1.742055e-001 2.038265e-001 2.102552e-002 8.299518e-001
<VARIANCE> 25
 2.977571e+001 5.643870e+001 3.539058e+001 7.636678e+001 7.303851e+001 5.200362e+001 4.484451e+001 3.701889e+001 6.170562e+001 4.029883e+001 2.539726e+001 2.293585e+001 2.073144e+000 4.138654e+000 2.525391e+000 4.526485e+000 5.639497e+000 4.877061e+000 4.884330e+000 3.698761e+000 5.222945e+000 4.066882e+000 2.593178e+000 2.149371e+000 4.361685e+000
<GCONST> 1.081597e+002
<STATE> 4
<MEAN> 25
 1.408441e+000 -4.103683e+000 -2.767352e+000 -5.504074e+000 1.722480e+000 7.388476e-001 1.000947e+000 2.743535e-001 2.011041e+000 1.523245e+000 5.187572e-001 -1.528504e+000 4.161904e-001 -3.024467e-001 4.692521e-003 -3.100735e-001 -6.617913e-002 -2.174969e-001 -2.153815e-001 -5.058883e-002 4.088279e-002 -2.239265e-002 2.974560e-003 -1.663524e-001 8.107908e-001
<VARIANCE> 25
 4.533136e+001 7.434296e+001 5.199962e+001 1.429443e+002 1.009351e+002 4.546160e+001 5.405690e+001 5.416560e+001 6.999989e+001 5.219622e+001 3.829326e+001 3.940601e+001 3.084008e+000 4.124677e+000 3.943517e+000 7.955226e+000 5.472740e+000 4.033093e+000 4.719831e+000 4.204839e+000 4.792764e+000 3.737203e+000 3.192201e+000 2.886656e+000 7.671748e+000
<GCONST> 1.141347e+002
<TRANSP> 5
 0.000000e+000 1.000000e+000 0.000000e+000 0.000000e+000 0.000000e+000
 0.000000e+000 6.850018e-001 3.149981e-001 0.000000e+000 0.000000e+000
 0.000000e+000 0.000000e+000 6.874447e-001 3.125553e-001 0.000000e+000
 0.000000e+000 0.000000e+000 0.000000e+000 9.146312e-001 8.536876e-002
 0.000000e+000 0.000000e+000 0.000000e+000 0.000000e+000 0.000000e+000
<ENDHMM>
~h "l"
<BEGINHMM>
<NUMSTATES> 5
<STATE> 2
<MEAN> 25
 6.646982e+000 -2.447329e+000 -4.451779e-001 -3.403547e+000 -3.526876e+000 -4.192349e+000 -5.067444e+000 7.758214e-002 -9.865233e-001 -4.348326e+000 -4.557836e+000 2.419313e-001 8.874305e-002 8.296868e-002 -3.992032e-002 -4.300325e-002 -1.621399e-001 -2.254640e-001 -1.732042e-001 1.079377e-001 -2.171626e-003 -1.925778e-002 -2.240286e-001 -5.774892e-003 1.146430e-003
<VARIANCE> 25
 1.856745e+001 3.629671e+001 3.511669e+001 7.093941e+001 4.632483e+001 6.304305e+001 7.361360e+001 7.070029e+001 6.801685e+001 1.007782e+002 5.857163e+001 2.940620e+001 4.720886e-001 1.140681e+000 1.336233e+000 2.018801e+000 2.009096e+000 2.559710e+000 2.839790e+000 2.576139e+000 2.068004e+000 2.988701e+000 2.623508e+000 1.717676e+000 6.408861e-001
<GCONST> 9.998447e+001
<STATE> 3
<MEAN> 25
 6.502861e+000 -1.784762e+000 -3.663348e-001 -3.564428e+000 -3.933665e+000 -5.066475e+000 -5.799962e+000 5.341464e-001 -4.617283e-001 -3.691046e+000 -4.203310e+000 -3.846114e-003 -5.504081e-002 1.313087e-001 -4.241910e-003 -7.909907e-002 -5.769075e-002 -7.550102e-002 -7.342961e-002 1.002259e-001 6.194282e-002 1.465758e-001 1.794682e-001 -3.800717e-002 -8.624645e-002
<VARIANCE> 25
 1.842957e+001 3.672284e+001 3.503349e+001 6.560273e+001 4.172472e+001 6.645538e+001 6.977030e+001 6.857825e+001 6.901625e+001 9.255994e+001 6.583192e+001 3.177695e+001 3.924806e-001 1.098408e+000 1.231673e+000 1.839032e+000 1.957344e+000 2.649416e+000 2.515109e+000 2.598306e+000 2.154206e+000 2.793687e+000 2.525480e+000 1.635701e+000 6.124104e-001
<GCONST> 9.923530e+001
<STATE> 4
<MEAN> 25
 3.696172e+000 -3.427636e-001 -1.249981e-001 -3.296597e+000 -1.964412e+000 -2.903661e+000 -5.650815e+000 8.484463e-002 1.904208e-001 -6.749793e-001 -1.830855e+000 -1.128814e+000 -1.502356e-001 1.337783e-001 2.202697e-002 1.193129e-001 6.725824e-002 1.006508e-001 1.820335e-001 4.570819e-002 4.028258e-003 1.432418e-002 1.070354e-001 2.100820e-002 -2.744701e-001
<VARIANCE> 25
 2.731214e+001 2.881903e+001 2.918104e+001 7.711150e+001 3.172650e+001 4.936336e+001 7.781721e+001 5.266125e+001 3.767201e+001 4.827778e+001 4.571312e+001 2.483561e+001 3.563849e-001 8.199201e-001 9.273107e-001 1.575038e+000 1.511684e+000 1.660764e+000 1.959153e+000 2.137831e+000 1.651320e+000 1.808547e+000 1.678456e+000 1.315818e+000 6.575047e-001
<GCONST> 9.351768e+001
<TRANSP> 5
 0.000000e+000 1.000000e+000 0.000000e+000 0.000000e+000 0.000000e+000
 0.000000e+000 7.998688e-001 2.001312e-001 0.000000e+000 0.000000e+000
 0.000000e+000 0.000000e+000 7.955745e-001 2.044255e-001 0.000000e+000
 0.000000e+000 0.000000e+000 0.000000e+000 9.278472e-001 7.215281e-002
 0.000000e+000 0.000000e+000 0.000000e+000 0.000000e+000 0.000000e+000
<ENDHMM>
~h "m"
<BEGINHMM>
<NUMSTATES> 5
<STATE> 2
<MEAN> 25
 3.782492e+000 1.198331e+000 -5.385954e-001 1.111636e+000 6.233760e-001 8.331524e-001 1.943512e-002 -1.752182e+000 -4.563389e-001 -2.693431e-001 -1.633786e+000 -2.224162e+000 -1.426898e-001 3.060233e-001 1.854030e-001 4.280083e-001 1.942395e-001 2.987750e-001 7.082456e-002 -2.944028e-001 -9.447381e-002 7.129424e-002 -1.574518e-001 -1.242089e-001 -4.277018e-001
<VARIANCE> 25
 2.732407e+001 3.281972e+001 2.959862e+001 6.614893e+001 4.533909e+001 4.186119e+001 4.493407e+001 9.780131e+001 5.894218e+001 3.831694e+001 3.463139e+001 2.703508e+001 4.682666e-001 1.341065e+000 1.654539e+000 2.723915e+000 2.439715e+000 2.142398e+000 2.003719e+000 3.530842e+000 2.751459e+000 1.833218e+000 2.183431e+000 1.988193e+000 1.029558e+000
<GCONST> 9.859251e+001
<STATE> 3
<MEAN> 25
 3.393471e+000 1.764836e+000 3.402542e-002 1.834306e+000 1.113880e+000 1.670328e+000 3.116419e-001 -2.088640e+000 -3.585613e-001 4.053211e-002 -1.906890e+000 -2.604599e+000 -1.244349e-001 1.458295e-001 1.294713e-001 1.569753e-001 1.138728e-001 1.950424e-001 4.211806e-002 -7.173392e-002 -2.065706e-002 1.286994e-002 -6.566180e-002 -5.608844e-002 -2.209254e-001
<VARIANCE> 25
 2.668755e+001 3.434974e+001 3.036705e+001 6.332619e+001 4.665725e+001 3.529274e+001 4.657739e+001 1.101281e+002 6.654994e+001 4.180257e+001 3.504471e+001 3.299593e+001 5.083362e-001 1.372588e+000 1.467251e+000 2.852750e+000 2.449081e+000 2.116302e+000 2.071158e+000 3.827388e+000 2.478393e+000 2.069707e+000 2.032799e+000 2.013571e+000 1.142755e+000
<GCONST> 9.922778e+001
<STATE> 4
<MEAN> 25
 2.343485e+000 5.962411e-001 -2.233893e-001 6.847956e-001 1.159393e+000 1.680235e+000 -4.403789e-001 2.172481e-001 1.404789e+000 4.560156e-001 -1.783697e+000 -2.772805e+000 -1.361555e-001 -3.779477e-002 -4.061700e-002 -4.275693e-002 8.128056e-002 -4.072971e-002 1.492696e-002 2.171724e-001 9.616393e-002 -4.466331e-002 4.055629e-002 9.327033e-002 -5.743226e-002
<VARIANCE> 25
 2.930279e+001 3.886999e+001 3.072364e+001 7.892817e+001 5.072617e+001 2.850617e+001 7.128584e+001 9.546306e+001 6.162334e+001 4.135635e+001 3.583364e+001 3.852541e+001 4.982764e-001 1.368203e+000 1.313318e+000 3.248844e+000 2.486085e+000 1.826760e+000 2.291234e+000 4.063085e+000 2.500645e+000 2.313442e+000 2.005661e+000 1.908976e+000 1.384714e+000
<GCONST> 1.001892e+002
<TRANSP> 5
 0.000000e+000 1.000000e+000 0.000000e+000 0.000000e+000 0.000000e+000
 0.000000e+000 7.219812e-001 2.780189e-001 0.000000e+000 0.000000e+000
 0.000000e+000 0.000000e+000 7.249682e-001 2.750318e-001 0.000000e+000
 0.000000e+000 0.000000e+000 0.000000e+000 8.952673e-001 1.047327e-001
 0.000000e+000 0.000000e+000 0.000000e+000 0.000000e+000 0.000000e+000
<ENDHMM>
~h "n"
<BEGINHMM>
<NUMSTATES> 5
<STATE> 2
<MEAN> 25
 3.978488e+000 -2.852116e-001 -9.085702e-001 1.995021e-001 5.925137e-001 1.689798e+000 3.578469e-001 -1.290483e+000 -9.021679e-001 -1.262663e+000 -2.333319e+000 -1.709193e+000 -9.291507e-002 2.044006e-001 2.778638e-001 2.863988e-001 1.574305e-001 2.613663e-001 1.337057e-001 -1.137550e-001 -1.044444e-001 -4.790128e-002 -1.667026e-001 -2.154936e-001 -2.384968e-001
<VARIANCE> 25
 2.988966e+001 4.925371e+001 4.585875e+001 4.792579e+001 6.347001e+001 4.815462e+001 4.613879e+001 4.439319e+001 3.246563e+001 3.441235e+001 4.129338e+001 3.555980e+001 9.521753e-001 3.180302e+000 2.801117e+000 2.474755e+000 2.687831e+000 2.607906e+000 2.254976e+000 3.535938e+000 2.464154e+000 2.316271e+000 2.841608e+000 2.702634e+000 1.624330e+000
<GCONST> 1.022299e+002
<STATE> 3
<MEAN> 25
 3.453367e+000 3.422339e-001 -4.892963e-001 8.578761e-001 9.882351e-001 2.136154e+000 9.019724e-001 -1.154778e+000 -8.364726e-001 -1.274204e+000 -2.381981e+000 -1.810052e+000 -1.784037e-001 2.081483e-001 9.326041e-002 2.097146e-001 7.552601e-002 6.784771e-002 1.257641e-001 -3.667841e-002 1.024497e-002 -1.195880e-002 -1.719396e-002 6.886686e-004 -2.860848e-001
<VARIANCE> 25
 2.868913e+001 4.662729e+001 4.640747e+001 4.112113e+001 6.103610e+001 4.984644e+001 4.843779e+001 4.331020e+001 3.073537e+001 3.368091e+001 3.888432e+001 3.228629e+001 8.483358e-001 2.455958e+000 2.627877e+000 2.024649e+000 2.355800e+000 2.259672e+000 2.018920e+000 3.001301e+000 2.153496e+000 2.074701e+000 2.480618e+000 2.250763e+000 1.155579e+000
<GCONST> 9.968688e+001
<STATE> 4
<MEAN> 25
 4.447404e-001 1.247328e+000 -3.528090e-001 1.826397e+000 1.519484e+000 2.522164e+000 1.791178e+000 -5.129394e-001 -7.910354e-002 -2.124646e-001 -1.714004e+000 -1.370353e+000 -2.036766e-001 -9.587453e-003 -4.162033e-002 7.442113e-002 4.655160e-002 -2.945168e-002 6.051799e-002 6.762236e-002 1.413788e-002 8.036818e-002 1.439371e-001 1.352890e-001 -1.812469e-001
<VARIANCE> 25
 2.807724e+001 3.128277e+001 3.411722e+001 3.124147e+001 3.394563e+001 3.403074e+001 4.043828e+001 3.660381e+001 2.664945e+001 3.008783e+001 3.428637e+001 2.390212e+001 4.918520e-001 1.004867e+000 1.325422e+000 1.200283e+000 1.410430e+000 1.483162e+000 1.619190e+000 1.962388e+000 1.584900e+000 1.494401e+000 1.589113e+000 1.345511e+000 5.903071e-001
<GCONST> 9.019287e+001
<TRANSP> 5
 0.000000e+000 1.000000e+000 0.000000e+000 0.000000e+000 0.000000e+000
 0.000000e+000 6.557989e-001 3.442012e-001 0.000000e+000 0.000000e+000
 0.000000e+000 0.000000e+000 6.505643e-001 3.494357e-001 0.000000e+000
 0.000000e+000 0.000000e+000 0.000000e+000 8.471670e-001 1.528330e-001
 0.000000e+000 0.000000e+000 0.000000e+000 0.000000e+000 0.000000e+000
<ENDHMM>
~h "o"
<BEGINHMM>
<NUMSTATES> 5
<STATE> 2
<MEAN> 25
 4.271342e+000 6.845576e-001 8.764642e-001 -4.856740e+000 -6.152282e+000 -2.029892e+000 -4.184262e+000 1.075906e+000 2.818930e+000 5.738724e-001 1.510383e+000 -1.037793e+000 4.029402e-001 1.697306e-001 -5.673834e-002 6.330807e-003 -2.119893e-001 -3.753265e-001 -1.601912e-001 1.573884e-001 2.959578e-001 -8.061655e-002 -6.138398e-002 9.026208e-002 2.171743e-001
<VARIANCE> 25
 3.346371e+001 2.816224e+001 3.657791e+001 8.771996e+001 1.088877e+002 9.864111e+001 5.982562e+001 5.262891e+001 1.292203e+002 4.162465e+001 3.849344e+001 2.240542e+001 1.511325e+000 2.183452e+000 1.411993e+000 3.605400e+000 4.445671e+000 4.680429e+000 2.935415e+000 2.700855e+000 4.973436e+000 2.074651e+000 1.996157e+000 1.380081e+000 1.609913e+000
<GCONST> 1.053060e+002
<STATE> 3
<MEAN> 25
 4.681329e+000 1.421950e+000 4.325587e-001 -4.421926e+000 -6.046980e+000 -3.101244e+000 -3.621705e+000 1.407254e+000 3.340949e+000 3.000467e-001 9.227869e-001 -7.982704e-001 -2.817680e-003 9.446797e-002 -1.414671e-001 1.253802e-001 2.256460e-001 -2.504736e-002 1.533802e-001 -5.480244e-002 -6.715889e-002 5.652502e-002 -1.288031e-002 8.721864e-002 -1.810700e-001
<VARIANCE> 25
 2.967247e+001 2.998326e+001 3.221962e+001 9.262557e+001 1.032999e+002 1.012091e+002 5.343610e+001 5.446197e+001 1.177402e+002 4.325797e+001 3.318666e+001 2.335318e+001 9.182215e-001 1.617919e+000 1.212887e+000 2.453756e+000 3.074848e+000 3.431604e+000 2.268632e+000 2.673714e+000 3.674829e+000 2.189209e+000 1.718847e+000 1.342681e+000 1.176414e+000
<GCONST> 1.018875e+002
<STATE> 4
<MEAN> 25
 3.587327e+000 8.399833e-001 -6.131011e-001 -5.164519e+000 -1.851569e+000 -3.781799e-001 -2.859864e+000 -8.785489e-001 1.336895e+000 1.048045e+000 1.305099e+000 -1.137468e+000 -1.448457e-001 -1.140432e-001 -3.345415e-002 2.587029e-001 1.256695e-001 -2.296896e-002 1.835123e-001 -2.932895e-002 -2.061665e-001 1.227043e-002 -1.998350e-002 3.335159e-002 -1.658390e-001
<VARIANCE> 25
 3.124075e+001 3.414232e+001 2.973671e+001 1.261490e+002 7.467391e+001 7.081372e+001 6.055735e+001 4.529827e+001 6.321637e+001 3.871217e+001 2.734222e+001 3.049214e+001 8.228999e-001 1.114444e+000 1.479151e+000 4.031900e+000 2.679156e+000 2.940492e+000 2.410882e+000 2.617165e+000 2.699600e+000 2.348957e+000 1.766775e+000 1.555434e+000 1.328419e+000
<GCONST> 1.009150e+002
<TRANSP> 5
 0.000000e+000 1.000000e+000 0.000000e+000 0.000000e+000 0.000000e+000
 0.000000e+000 7.479186e-001 2.520814e-001 0.000000e+000 0.000000e+000
 0.000000e+000 0.000000e+000 7.432271e-001 2.567729e-001 0.000000e+000
 0.000000e+000 0.000000e+000 0.000000e+000 8.518320e-001 1.481680e-001
 0.000000e+000 0.000000e+000 0.000000e+000 0.000000e+000 0.000000e+000
<ENDHMM>
~h "p"
<BEGINHMM>
<NUMSTATES> 5
<STATE> 2
<MEAN> 25
 -9.874045e-001 1.667792e+000 -1.000020e+000 -5.474744e-001 -1.816627e-001 1.158951e+000 1.679580e+000 7.641045e-001 2.245004e+000 2.829712e+000 1.449051e+000 6.623331e-001 -2.569392e-001 -2.248724e-001 -4.923039e-002 -2.101326e-001 1.720437e-002 -7.275743e-003 8.984856e-002 -9.439414e-002 2.015232e-001 7.597340e-002 5.869832e-002 5.652175e-002 1.142658e-001
<VARIANCE> 25
 2.816783e+001 2.343385e+001 2.405226e+001 3.218577e+001 3.358012e+001 4.532359e+001 3.873419e+001 2.994657e+001 5.344000e+001 3.149507e+001 2.491478e+001 1.727960e+001 1.625939e+000 2.496671e+000 1.688368e+000 2.821110e+000 2.071422e+000 2.779839e+000 2.506169e+000 2.626405e+000 4.467165e+000 3.260938e+000 2.048925e+000 1.653651e+000 3.940001e+000
<GCONST> 9.883551e+001
<STATE> 3
<MEAN> 25
 -2.400718e+000 1.393412e+000 -1.079331e+000 -2.484413e-001 3.598889e-001 1.827530e+000 2.028605e+000 3.768745e-001 2.216725e+000 2.932730e+000 1.349353e+000 7.909488e-001 -1.770941e-001 -9.370105e-002 -3.826725e-002 -6.364949e-002 5.197703e-002 -5.848539e-003 -7.676458e-002 -1.239077e-001 -7.592205e-002 -4.376015e-002 -4.500121e-002 2.524017e-002 -4.429591e-002
<VARIANCE> 25
 2.225030e+001 1.796624e+001 1.984139e+001 2.629989e+001 2.684700e+001 3.633164e+001 3.244946e+001 2.447098e+001 4.491800e+001 2.369176e+001 2.019610e+001 1.490180e+001 1.031846e+000 1.455266e+000 1.154658e+000 1.918867e+000 1.395317e+000 2.056211e+000 2.141977e+000 1.710162e+000 2.516163e+000 2.072843e+000 1.779361e+000 1.356527e+000 1.566462e+000
<GCONST> 9.096810e+001
<STATE> 4
<MEAN> 25
 -3.100788e+000 1.204229e+000 -1.122091e+000 8.468259e-001 7.766218e-001 1.671239e+000 2.090783e+000 -5.260434e-002 1.546436e+000 2.384053e+000 1.006430e+000 1.046117e+000 1.529791e-001 -6.604900e-002 2.001269e-002 -1.154445e-001 -1.161455e-001 -1.437372e-001 -1.776600e-001 -3.570436e-002 -5.280748e-002 -1.398756e-001 -6.680136e-002 -4.414259e-002 2.061253e-001
<VARIANCE> 25
 1.876086e+001 1.297773e+001 1.656479e+001 2.555761e+001 2.049390e+001 2.750197e+001 2.665234e+001 2.452758e+001 3.572127e+001 1.990088e+001 1.359676e+001 1.273249e+001 1.234409e+000 1.055416e+000 1.020062e+000 1.498989e+000 1.397627e+000 2.025954e+000 1.781045e+000 1.595704e+000 2.300352e+000 1.630941e+000 1.340263e+000 1.137780e+000 1.262087e+000
<GCONST> 8.677915e+001
<TRANSP> 5
 0.000000e+000 1.000000e+000 0.000000e+000 0.000000e+000 0.000000e+000
 0.000000e+000 6.867451e-001 3.132549e-001 0.000000e+000 0.000000e+000
 0.000000e+000 0.000000e+000 7.271752e-001 2.728247e-001 0.000000e+000
 0.000000e+000 0.000000e+000 0.000000e+000 9.240600e-001 7.594001e-002
 0.000000e+000 0.000000e+000 0.000000e+000 0.000000e+000 0.000000e+000
<ENDHMM>
~h "r"
<BEGINHMM>
<NUMSTATES> 5
<STATE> 2
<MEAN> 25
 4.074601e+000 -1.413590e+000 -2.519648e+000 -3.786976e+000 -2.258780e+000 -8.842809e-002 -1.281867e+000 -4.352825e-001 -1.835025e+000 -1.270694e+000 1.099484e+000 1.688086e+000 -1.136312e-001 1.420531e-001 -6.945280e-002 1.238130e-001 4.681727e-002 3.151222e-002 9.499016e-002 -9.195628e-002 -2.103451e-001 -5.763077e-002 -2.413196e-002 1.718023e-001 -3.109549e-001
<VARIANCE> 25
 3.380808e+001 5.309643e+001 5.135734e+001 7.420769e+001 4.939328e+001 7.416125e+001 4.618111e+001 4.492942e+001 6.223105e+001 4.043719e+001 3.925928e+001 3.524661e+001 9.736042e-001 2.630175e+000 1.902597e+000 3.016005e+000 2.576876e+000 2.911621e+000 2.771715e+000 2.744335e+000 2.924870e+000 2.410538e+000 2.369825e+000 2.002836e+000 1.696300e+000
<GCONST> 1.033630e+002
<STATE> 3
<MEAN> 25
 3.429275e+000 -9.124053e-001 -2.697829e+000 -2.791801e+000 -1.827918e+000 1.687200e-001 -7.344443e-001 -9.718329e-001 -2.087775e+000 -1.089297e+000 8.349439e-001 1.869903e+000 -2.058261e-001 1.199664e-001 -1.047272e-003 2.912420e-001 1.006021e-001 -7.563701e-003 1.396858e-001 -3.891302e-002 2.039903e-002 8.624363e-002 -6.887672e-002 -1.412506e-002 -4.161594e-001
<VARIANCE> 25
 3.509921e+001 4.297761e+001 4.708732e+001 6.739809e+001 5.388425e+001 6.876054e+001 4.383309e+001 3.978482e+001 5.989526e+001 3.840644e+001 4.055435e+001 3.372225e+001 8.143970e-001 1.932220e+000 1.666014e+000 2.360097e+000 2.273559e+000 2.714618e+000 2.441505e+000 2.462841e+000 2.724021e+000 2.373983e+000 2.420721e+000 1.900062e+000 1.442102e+000
<GCONST> 1.011665e+002
<STATE> 4
<MEAN> 25
 1.618985e+000 8.352973e-002 -2.606957e+000 -1.218029e+000 -1.141655e+000 1.358393e-001 -3.024421e-001 -3.025402e-001 -7.571891e-001 -4.567308e-001 -7.729094e-002 1.175456e+000 -2.694824e-001 1.435473e-001 3.591867e-002 2.877206e-001 1.583539e-001 5.659512e-002 1.242338e-001 7.984189e-002 1.954185e-001 1.224754e-001 -2.708277e-002 -3.247742e-002 -4.441120e-001
<VARIANCE> 25
 3.422544e+001 2.922529e+001 3.619617e+001 6.428916e+001 4.256475e+001 4.308832e+001 4.596000e+001 3.672265e+001 4.989302e+001 3.627005e+001 3.918982e+001 2.467118e+001 5.415329e-001 1.167928e+000 1.288550e+000 1.716095e+000 1.770871e+000 1.984297e+000 2.060570e+000 2.067884e+000 2.191582e+000 1.935628e+000 1.953923e+000 1.613283e+000 1.101104e+000
<GCONST> 9.565881e+001
<TRANSP> 5
 0.000000e+000 1.000000e+000 0.000000e+000 0.000000e+000 0.000000e+000
 0.000000e+000 6.913947e-001 3.086053e-001 0.000000e+000 0.000000e+000
 0.000000e+000 0.000000e+000 6.783993e-001 3.216006e-001 0.000000e+000
 0.000000e+000 0.000000e+000 0.000000e+000 8.101066e-001 1.898934e-001
 0.000000e+000 0.000000e+000 0.000000e+000 0.000000e+000 0.000000e+000
<ENDHMM>
~h "s"
<BEGINHMM>
<NUMSTATES> 5
<STATE> 2
<MEAN> 25
 -6.031167e+000 -3.268386e-001 3.003578e+000 -5.641277e-001 2.253913e-001 2.104301e-001 4.237797e+000 -4.630188e-001 -5.488815e-001 1.078261e+000 2.171093e+000 7.988104e-002 -5.333873e-001 -3.365254e-001 7.230968e-001 -3.593894e-001 -5.362700e-002 9.932296e-002 3.540302e-001 -1.108126e-002 1.491707e-001 -2.703511e-003 2.520894e-001 -4.689118e-002 8.375473e-001
<VARIANCE> 25
 9.504671e+001 1.265791e+002 1.416883e+002 9.071803e+001 9.285394e+001 5.615288e+001 7.664862e+001 5.307766e+001 7.973072e+001 4.903731e+001 3.899093e+001 2.894431e+001 6.361953e+000 6.773298e+000 6.709980e+000 6.272907e+000 5.140221e+000 4.065892e+000 5.809779e+000 3.921074e+000 3.520110e+000 3.475052e+000 3.287311e+000 2.472206e+000 5.062067e+000
<GCONST> 1.168634e+002
<STATE> 3
<MEAN> 25
 -1.023117e+001 -5.070078e+000 1.035418e+001 -4.431040e+000 -1.367009e+000 1.396083e+000 5.274408e+000 -6.584907e-001 -1.779770e+000 9.703308e-001 3.717395e+000 2.571817e-001 1.071927e-001 4.485163e-002 -1.114511e-001 1.695030e-002 1.637341e-001 -1.352486e-001 -2.146287e-001 -3.027505e-002 1.368710e-001 -8.548678e-002 -8.597554e-002 -5.276660e-002 1.179274e-001
<VARIANCE> 25
 9.018603e+001 1.397100e+002 1.691229e+002 6.025932e+001 1.094326e+002 6.605029e+001 5.724967e+001 5.294432e+001 6.087154e+001 5.370269e+001 3.511237e+001 2.863744e+001 6.406101e+000 3.643743e+000 5.867600e+000 3.903868e+000 3.995705e+000 3.012471e+000 4.010001e+000 3.149864e+000 2.925639e+000 2.953049e+000 2.444365e+000 1.927131e+000 1.167677e+000
<GCONST> 1.116925e+002
<STATE> 4
<MEAN> 25
 -1.070644e+001 2.315251e-001 4.236336e+000 -3.218958e+000 3.093534e+000 -8.560392e-001 4.148379e+000 -9.978758e-001 2.186664e-001 1.515609e+000 1.290524e+000 3.757474e-001 9.745873e-001 -5.842423e-002 -2.690191e-001 1.259935e-001 -2.456901e-001 -2.573805e-001 -5.179767e-001 -2.394253e-001 -5.247896e-002 -3.080754e-001 -3.075373e-001 -1.055942e-001 2.150059e-002
<VARIANCE> 25
 1.033565e+002 5.847323e+001 7.338866e+001 6.916821e+001 4.598409e+001 4.127647e+001 6.137997e+001 4.443710e+001 4.922226e+001 4.093295e+001 3.487968e+001 2.437222e+001 4.709545e+000 2.015043e+000 3.343254e+000 2.952152e+000 2.825502e+000 2.412065e+000 4.110895e+000 2.999176e+000 2.810095e+000 2.829544e+000 2.460592e+000 1.843879e+000 9.352221e-001
<GCONST> 1.054889e+002
<TRANSP> 5
 0.000000e+000 1.000000e+000 0.000000e+000 0.000000e+000 0.000000e+000
 0.000000e+000 8.920968e-001 1.079032e-001 0.000000e+000 0.000000e+000
 0.000000e+000 0.000000e+000 8.342692e-001 1.657307e-001 0.000000e+000
 0.000000e+000 0.000000e+000 0.000000e+000 8.713323e-001 1.286678e-001
 0.000000e+000 0.000000e+000 0.000000e+000 0.000000e+000 0.000000e+000
<ENDHMM>
~h "t"
<BEGINHMM>
<NUMSTATES> 5
<STATE> 2
<MEAN> 25
 -1.335743e+000 9.693058e-001 -1.557456e+000 -2.908799e-001 5.837056e-001 1.302328e-001 1.224481e+000 2.035050e-001 2.376395e+000 1.089251e+000 -5.488773e-001 2.392540e-001 1.626632e-001 -3.265603e-001 1.250636e-001 -5.346595e-001 -1.346673e-002 -1.043572e-001 -2.030490e-001 -5.820854e-002 1.244734e-001 8.697815e-002 2.297758e-001 -7.301824e-002 9.723375e-001
<VARIANCE> 25
 2.847196e+001 3.774244e+001 2.705543e+001 6.359888e+001 3.946183e+001 4.289090e+001 5.172362e+001 4.054286e+001 5.915026e+001 3.730712e+001 3.207579e+001 2.844411e+001 2.753029e+000 3.343278e+000 2.215514e+000 6.496847e+000 3.470019e+000 3.835315e+000 6.003114e+000 3.691392e+000 5.039726e+000 3.748752e+000 2.743923e+000 2.823878e+000 1.153584e+001
<GCONST> 1.079796e+002
<STATE> 3
<MEAN> 25
 -3.406591e-001 3.431411e-001 -1.003938e+000 -1.725429e+000 -7.986321e-002 7.600500e-001 4.685743e-001 6.083909e-001 1.383634e+000 1.547667e+000 3.531280e-001 4.227826e-002 3.313907e-001 -9.694056e-002 -2.723941e-002 -2.317422e-001 -1.966285e-001 -7.515811e-002 -2.563993e-001 6.882188e-002 -3.562280e-001 -1.091308e-001 4.234835e-002 -4.048590e-002 3.287799e-001
<VARIANCE> 25
 2.994488e+001 3.746972e+001 2.775633e+001 6.483288e+001 3.888372e+001 4.415329e+001 5.191511e+001 4.030429e+001 6.046833e+001 3.931821e+001 3.001008e+001 2.318439e+001 2.111235e+000 2.257704e+000 1.776424e+000 3.610188e+000 2.425149e+000 4.034760e+000 4.481541e+000 3.176299e+000 4.839852e+000 3.464572e+000 2.427105e+000 1.883344e+000 3.914961e+000
<GCONST> 1.039388e+002
<STATE> 4
<MEAN> 25
 -1.016631e+000 8.965474e-001 -1.571724e+000 -3.161492e-001 3.719197e-001 1.046803e+000 1.346790e+000 1.033978e+000 9.345143e-001 1.516464e+000 6.963170e-001 4.420298e-001 2.032559e-001 -4.613059e-002 5.004369e-002 -8.656911e-002 -1.077562e-001 -1.936803e-001 -1.836263e-001 -1.199364e-001 -3.302715e-001 -2.103943e-001 1.410350e-002 2.214000e-002 2.510554e-001
<VARIANCE> 25
 2.997967e+001 3.236241e+001 2.227107e+001 8.192090e+001 3.184316e+001 3.826408e+001 5.632837e+001 3.367951e+001 5.566931e+001 3.428540e+001 2.973854e+001 1.925591e+001 1.129919e+000 1.548603e+000 1.358848e+000 2.874384e+000 1.833796e+000 2.936931e+000 3.337953e+000 2.553283e+000 3.214371e+000 2.627877e+000 2.084115e+000 1.424528e+000 2.767441e+000
<GCONST> 9.887970e+001
<TRANSP> 5
 0.000000e+000 1.000000e+000 0.000000e+000 0.000000e+000 0.000000e+000
 0.000000e+000 7.356516e-001 2.643484e-001 0.000000e+000 0.000000e+000
 0.000000e+000 0.000000e+000 6.420501e-001 3.579499e-001 0.000000e+000
 0.000000e+000 0.000000e+000 0.000000e+000 8.010595e-001 1.989404e-001
 0.000000e+000 0.000000e+000 0.000000e+000 0.000000e+000 0.000000e+000
<ENDHMM>
~h "u"
<BEGINHMM>
<NUMSTATES> 5
<STATE> 2
<MEAN> 25
 4.403443e+000 4.749473e+000 2.188039e+000 -3.286313e+000 -3.411352e+000 -2.774355e-001 -5.470458e+000 -1.594493e+000 -3.939581e+000 -3.844231e+000 3.490788e-001 1.886379e-001 3.245790e-001 3.433544e-001 2.184310e-002 -2.200719e-001 -3.359183e-001 4.897828e-002 -3.249562e-001 -4.773934e-002 -3.250295e-001 -4.162468e-001 -5.938984e-002 3.708594e-002 4.200889e-002
<VARIANCE> 25
 3.016121e+001 3.483270e+001 4.142355e+001 1.000129e+002 5.192141e+001 6.559957e+001 6.209278e+001 5.427704e+001 7.951910e+001 8.071042e+001 4.421754e+001 2.803209e+001 1.090370e+000 2.253861e+000 1.691607e+000 3.197422e+000 2.661304e+000 4.257990e+000 3.612360e+000 3.004027e+000 3.394691e+000 4.074462e+000 2.506681e+000 2.020802e+000 1.113048e+000
<GCONST> 1.051342e+002
<STATE> 3
<MEAN> 25
 4.978022e+000 5.314097e+000 2.015868e+000 -3.660737e+000 -4.008024e+000 -1.097312e-001 -5.594039e+000 -1.589476e+000 -4.349709e+000 -4.418612e+000 4.830567e-002 -7.453710e-002 3.828254e-002 2.864904e-002 -1.686393e-001 -1.551031e-002 -3.337638e-002 9.451093e-002 7.098704e-002 -2.074848e-002 -3.267696e-002 -3.461938e-002 -7.366513e-002 -1.803768e-002 -1.020097e-001
<VARIANCE> 25
 2.644419e+001 3.243956e+001 3.803857e+001 9.622588e+001 4.796415e+001 6.462944e+001 5.667487e+001 5.372301e+001 8.270870e+001 7.542414e+001 4.460545e+001 2.883450e+001 7.365241e-001 1.624241e+000 1.444072e+000 2.807177e+000 2.446485e+000 3.227424e+000 3.026999e+000 2.696682e+000 2.848900e+000 3.260288e+000 2.476697e+000 1.995069e+000 8.823295e-001
<GCONST> 1.023108e+002
<STATE> 4
<MEAN> 25
 4.081426e+000 4.458508e+000 2.382497e-001 -3.650615e+000 -2.860450e+000 6.844042e-001 -4.506978e+000 -2.199715e+000 -4.386425e+000 -2.793401e+000 1.022626e-001 -3.234254e-001 -2.143718e-001 -1.866532e-001 -1.675876e-001 2.867129e-001 1.953868e-001 2.266215e-002 2.981524e-001 -1.994450e-002 1.765156e-001 2.132253e-001 -7.505707e-002 2.943403e-002 -2.316760e-001
<VARIANCE> 25
 2.845706e+001 3.285600e+001 2.957464e+001 9.547686e+001 3.529372e+001 4.216123e+001 5.895420e+001 4.284035e+001 6.527821e+001 5.587362e+001 4.263355e+001 2.860958e+001 3.891519e-001 9.620339e-001 9.827061e-001 2.132647e+000 1.605395e+000 1.842401e+000 2.114154e+000 2.084947e+000 2.085466e+000 2.242287e+000 2.025595e+000 1.522472e+000 7.086601e-001
<GCONST> 9.583041e+001
<TRANSP> 5
 0.000000e+000 1.000000e+000 0.000000e+000 0.000000e+000 0.000000e+000
 0.000000e+000 7.451481e-001 2.548519e-001 0.000000e+000 0.000000e+000
 0.000000e+000 0.000000e+000 7.398724e-001 2.601277e-001 0.000000e+000
 0.000000e+000 0.000000e+000 0.000000e+000 8.916205e-001 1.083794e-001
 0.000000e+000 0.000000e+000 0.000000e+000 0.000000e+000 0.000000e+000
<ENDHMM>
~h "w"
<BEGINHMM>
<NUMSTATES> 5
<STATE> 2
<MEAN> 25
 5.644927e+000 -1.391872e+000 9.805890e-001 -4.954292e+000 -7.813831e+000 -2.263491e+000 8.421198e-001 5.487711e+000 1.013026e+001 -3.864646e+000 -3.278824e+000 2.495213e+000 -4.317035e-002 -1.083516e-001 -2.628080e-001 -3.170111e-002 1.082171e-001 2.785156e-001 3.041389e-001 4.334699e-001 2.269265e-001 4.880718e-002 1.715736e-001 1.448937e-001 -1.070525e-001
<VARIANCE> 25
 2.825213e+001 9.897202e+001 3.824680e+001 3.968596e+001 5.322808e+001 8.025184e+001 4.910081e+001 3.390292e+001 1.189787e+002 3.007914e+001 3.180858e+001 2.209071e+001 4.242271e-001 3.823873e+000 2.230092e+000 1.184424e+000 2.911394e+000 3.081996e+000 2.134977e+000 2.954200e+000 4.612340e+000 1.782424e+000 2.130675e+000 2.005601e+000 9.805791e-001
<GCONST> 1.007532e+002
<STATE> 3
<MEAN> 25
 3.380268e+000 -2.183996e+000 -4.667635e-001 -2.468806e+000 -3.780809e+000 2.598850e-001 4.842624e+000 6.643181e+000 6.450642e+000 -8.946000e-001 -1.411104e-001 2.851253e+000 -7.433980e-002 -1.467111e-002 -3.762471e-001 2.124148e-001 4.019501e-001 2.979690e-001 3.662515e-001 3.064592e-002 -2.675918e-001 2.294041e-001 3.665421e-001 1.087098e-001 -2.110189e-001
<VARIANCE> 25
 4.108415e+001 6.856509e+001 4.868233e+001 5.543441e+001 5.375312e+001 9.997063e+001 4.800562e+001 4.856343e+001 1.098446e+002 4.013554e+001 3.253933e+001 2.475212e+001 3.888943e-001 2.685412e+000 1.706551e+000 1.047814e+000 2.160250e+000 3.088481e+000 2.214345e+000 2.962994e+000 3.545973e+000 1.803671e+000 1.773150e+000 1.907438e+000 6.962962e-001
<GCONST> 1.003328e+002
<STATE> 4
<MEAN> 25
 -1.993255e+000 9.649218e-001 -2.236613e-001 -2.696556e-001 2.101162e+000 1.586821e+000 6.088193e+000 2.001453e+000 3.588153e-001 2.918415e+000 2.084772e+000 3.196076e-001 -1.081554e-001 5.355445e-003 -8.816475e-002 4.296811e-002 1.487113e-001 -4.747439e-002 -8.286255e-002 -8.388417e-002 -1.080478e-001 4.448806e-002 -6.922937e-003 -5.557488e-002 -1.104282e-001
<VARIANCE> 25
 5.461987e+001 3.780286e+001 2.604222e+001 1.383687e+002 2.655880e+001 3.682601e+001 4.907806e+001 2.405508e+001 3.603069e+001 3.043213e+001 2.363406e+001 1.710213e+001 2.532176e-001 1.133562e+000 6.260710e-001 1.183578e+000 1.012094e+000 1.900106e+000 1.586737e+000 1.518751e+000 1.664242e+000 1.508162e+000 1.119283e+000 1.378651e+000 3.732429e-001
<GCONST> 8.908457e+001
<TRANSP> 5
 0.000000e+000 1.000000e+000 0.000000e+000 0.000000e+000 0.000000e+000
 0.000000e+000 8.676756e-001 1.323244e-001 0.000000e+000 0.000000e+000
 0.000000e+000 0.000000e+000 7.907913e-001 2.092087e-001 0.000000e+000
 0.000000e+000 0.000000e+000 0.000000e+000 9.229482e-001 7.705186e-002
 0.000000e+000 0.000000e+000 0.000000e+000 0.000000e+000 0.000000e+000
<ENDHMM>
~h "y"
<BEGINHMM>
<NUMSTATES> 5
<STATE> 2
<MEAN> 25
 5.033788e+000 -7.045874e+000 1.814957e-001 8.550872e-001 2.203346e+000 -6.080232e+000 -6.256462e+000 -2.732785e+000 -2.474057e+000 -2.407581e+000 1.655140e+000 2.801160e-001 -1.039423e-001 -4.871647e-002 4.637865e-001 4.492308e-001 -1.389085e-003 -5.029733e-001 -4.937289e-001 5.692596e-002 -1.495570e-001 -9.531759e-002 8.806678e-002 -2.225198e-001 2.004090e-001
<VARIANCE> 25
 1.003146e+001 3.844981e+001 4.860839e+001 1.121849e+002 6.543715e+001 4.100972e+001 5.528981e+001 5.527880e+001 3.722111e+001 3.225647e+001 5.524783e+001 3.984639e+001 4.519566e-001 1.395438e+000 2.144726e+000 2.611931e+000 2.331330e+000 2.092693e+000 3.001477e+000 2.328899e+000 2.310672e+000 2.553580e+000 3.218070e+000 2.542958e+000 1.150604e+000
<GCONST> 1.000222e+002
<STATE> 3
<MEAN> 25
 4.408350e+000 -6.525728e+000 2.548540e+000 1.608771e+000 9.521110e-001 -7.782409e+000 -7.155725e+000 -1.940312e+000 -3.221110e+000 -2.744010e+000 1.342747e+000 -5.734768e-001 -1.113190e-002 1.560754e-001 1.611141e-001 -1.184819e-001 -4.594380e-001 -1.484759e-001 4.423675e-002 2.063693e-002 -1.885172e-001 1.519437e-001 2.034738e-001 1.671092e-001 3.220634e-002
<VARIANCE> 25
 1.020973e+001 4.173460e+001 6.662585e+001 1.239147e+002 7.814790e+001 4.432420e+001 5.927962e+001 5.914064e+001 3.086579e+001 3.164493e+001 5.973857e+001 3.502559e+001 4.611682e-001 1.267222e+000 2.958411e+000 2.635715e+000 2.619675e+000 2.428393e+000 3.473738e+000 2.537524e+000 1.906925e+000 2.674607e+000 3.168032e+000 2.296383e+000 7.674145e-001
<GCONST> 1.007552e+002
<STATE> 4
<MEAN> 25
 3.811397e+000 -5.455007e+000 5.517311e+000 -6.970451e+000 -4.892794e+000 -5.667464e+000 -4.306666e+000 6.671231e-001 -3.196759e+000 -8.929602e-001 -8.760511e-001 3.532229e-002 5.125386e-002 7.308169e-002 -2.502768e-001 -7.510114e-002 2.365868e-002 1.675570e-001 1.669444e-001 3.453557e-002 1.422564e-001 2.314430e-002 -6.612243e-002 2.764429e-002 -1.963566e-001
<VARIANCE> 25
 1.379133e+001 5.281904e+001 1.146173e+002 7.006767e+001 6.728406e+001 3.356924e+001 4.746482e+001 7.095039e+001 3.853333e+001 2.861292e+001 6.036997e+001 2.475747e+001 4.525322e-001 2.100319e+000 2.416542e+000 1.808124e+000 3.247500e+000 1.882908e+000 2.856124e+000 3.541613e+000 1.960799e+000 2.010600e+000 2.822203e+000 1.578150e+000 1.126519e+000
<GCONST> 1.002217e+002
<TRANSP> 5
 0.000000e+000 1.000000e+000 0.000000e+000 0.000000e+000 0.000000e+000
 0.000000e+000 8.527436e-001 1.472565e-001 0.000000e+000 0.000000e+000
 0.000000e+000 0.000000e+000 8.413166e-001 1.586834e-001 0.000000e+000
 0.000000e+000 0.000000e+000 0.000000e+000 9.575570e-001 4.244296e-002
 0.000000e+000 0.000000e+000 0.000000e+000 0.000000e+000 0.000000e+000
<ENDHMM>
~h "z"
<BEGINHMM>
<NUMSTATES> 5
<STATE> 2
<MEAN> 25
 -5.842838e+000 -9.074128e-001 2.822654e+000 6.071786e+000 -3.878692e-001 -6.812124e-001 8.547017e+000 7.635837e-001 -1.966287e+000 4.229039e+000 -7.996191e-001 1.130034e+000 -6.400852e-004 1.561921e-001 8.069519e-002 2.613706e-001 7.682168e-002 -3.263429e-002 8.271379e-004 -1.907702e-001 -2.446287e-001 2.939045e-002 1.202254e-001 -3.299367e-002 -1.207169e-001
<VARIANCE> 25
 3.745967e+000 1.123666e+001 2.978912e+001 2.537212e+001 1.306820e+001 1.550768e+001 4.271024e+001 2.091565e+001 2.538073e+001 4.229081e+001 2.381231e+001 1.298797e+001 1.807748e-001 4.189744e-001 9.148335e-001 8.053274e-001 1.131526e+000 1.032461e+000 1.628599e+000 2.117944e+000 2.183384e+000 2.609335e+000 1.900688e+000 1.263531e+000 9.985241e-002
<GCONST> 7.995357e+001
<STATE> 3
<MEAN> 25
 -3.933864e+000 4.991079e+000 3.870390e+000 5.963186e+000 4.826953e+000 2.473947e+000 1.101428e+000 -4.494925e+000 -3.275468e+000 1.255250e+000 -1.573624e+000 -1.096914e+000 2.333713e-002 -8.672341e-003 3.256951e-001 -2.408075e-001 5.491498e-001 -5.960571e-001 -9.027047e-002 6.211975e-002 -8.364027e-001 6.618193e-001 1.461105e-001 6.537578e-003 2.389515e-001
<VARIANCE> 25
 2.767246e+000 5.670111e+000 3.124655e+001 2.556229e+001 1.848919e+001 2.471287e+001 4.206363e+001 3.590619e+001 2.457763e+001 2.809579e+001 1.018049e+001 2.350519e+001 3.298250e-001 6.153221e-001 4.515045e-001 1.337449e+000 6.525078e-001 8.025042e-001 2.276655e+000 4.083681e+000 2.074688e+000 1.667704e+000 9.019495e-001 1.385328e+000 3.044412e-001
<GCONST> 8.060104e+001
<STATE> 4
<MEAN> 25
 4.363561e+000 3.252014e+000 2.314058e+000 -3.032591e+000 -4.746612e+000 -1.373439e+000 -4.129463e+000 -2.115716e+000 -9.637252e+000 -3.874267e+000 3.244385e+000 -2.735151e+000 1.191189e-001 -1.555448e-001 -4.203917e-002 -2.060714e-001 1.301638e-002 -2.197796e-002 -6.470196e-002 1.492238e-001 6.390475e-002 -2.123740e-001 1.314805e-002 -4.817878e-002 3.552651e-001
<VARIANCE> 25
 2.982325e+001 3.784697e+001 1.209453e+001 9.125468e+001 5.460402e+001 3.234483e+001 8.515750e+001 2.983608e+001 9.657091e+001 4.192136e+001 2.113094e+001 3.359721e+001 6.327283e-001 1.145449e+000 7.112213e-001 2.430830e+000 1.914638e+000 3.448188e+000 4.799787e+000 1.635303e+000 2.142103e+000 1.682411e+000 1.349314e+000 1.422081e+000 4.346166e+000
<GCONST> 9.774656e+001
<TRANSP> 5
 0.000000e+000 1.000000e+000 0.000000e+000 0.000000e+000 0.000000e+000
 0.000000e+000 9.654658e-001 3.453422e-002 0.000000e+000 0.000000e+000
 0.000000e+000 0.000000e+000 7.781991e-001 2.218010e-001 0.000000e+000
 0.000000e+000 0.000000e+000 0.000000e+000 9.664972e-001 3.350280e-002
 0.000000e+000 0.000000e+000 0.000000e+000 0.000000e+000 0.000000e+000
<ENDHMM>
~h "ai"
<BEGINHMM>
<NUMSTATES> 5
<STATE> 2
<MEAN> 25
 5.654074e+000 -4.834255e+000 2.159937e+000 -3.515683e+000 1.769427e-002 -3.582195e+000 -3.003894e+000 1.660580e+000 7.942560e-001 -2.216255e+000 -7.729868e-001 -8.749195e-001 -3.738095e-002 -1.504422e-001 4.427705e-001 1.133742e-002 3.299461e-001 -2.642420e-001 1.208977e-001 2.803157e-001 -3.741710e-003 -1.863115e-001 1.615718e-001 -1.187374e-001 2.896969e-001
<VARIANCE> 25
 2.115862e+001 9.499542e+001 8.538841e+001 1.375648e+002 1.207022e+002 5.980040e+001 6.205679e+001 5.457587e+001 8.868427e+001 7.008479e+001 6.893936e+001 3.223447e+001 1.071410e+000 3.546536e+000 4.301160e+000 5.115393e+000 6.971500e+000 3.579975e+000 4.292193e+000 4.407211e+000 3.758443e+000 4.143610e+000 4.423035e+000 2.457441e+000 1.829590e+000
<GCONST> 1.126961e+002
<STATE> 3
<MEAN> 25
 4.272123e+000 -6.013940e+000 4.747511e+000 -3.645459e-002 2.679502e+000 -4.968200e+000 -2.058522e+000 2.035269e+000 -4.012167e-001 -3.041200e+000 1.158033e+000 -1.948604e+000 -3.298364e-001 2.529108e-001 5.691318e-001 3.633297e-001 -1.152449e-001 2.591425e-002 5.494819e-002 -7.209150e-003 -1.340923e-001 1.425567e-001 -7.783124e-004 -1.152949e-001 -4.276635e-001
<VARIANCE> 25
 1.497439e+001 6.194503e+001 7.924145e+001 1.905007e+002 1.249937e+002 4.664962e+001 5.207598e+001 3.410685e+001 6.365593e+001 4.527807e+001 5.035603e+001 2.760333e+001 4.733940e-001 1.837161e+000 2.445831e+000 3.179394e+000 4.139372e+000 2.721201e+000 2.807989e+000 2.691079e+000 3.172195e+000 2.672708e+000 2.982605e+000 1.860373e+000 1.071790e+000
<GCONST> 1.040341e+002
<STATE> 4
<MEAN> 25
 3.535078e-002 -1.688850e+000 6.003934e+000 2.269072e+000 7.857844e-002 -1.291811e+000 -1.268674e+000 1.140094e+000 -2.211135e+000 -3.507628e-001 1.407978e+000 -1.402246e+000 -2.561789e-001 3.314264e-001 -2.416505e-001 2.517293e-001 8.412959e-002 3.289669e-001 1.456017e-001 -6.286220e-002 1.382539e-001 1.314270e-001 -7.126497e-002 8.351768e-002 -6.388097e-001
<VARIANCE> 25
 1.663046e+001 5.471189e+001 1.207600e+002 1.561024e+002 1.050865e+002 5.289356e+001 5.743763e+001 4.023122e+001 6.058570e+001 3.755170e+001 4.129772e+001 3.054462e+001 4.736936e-001 2.107093e+000 3.706591e+000 5.138798e+000 3.043001e+000 2.516630e+000 2.557493e+000 3.086329e+000 2.805034e+000 2.698149e+000 2.533620e+000 1.718659e+000 2.915532e+000
<GCONST> 1.054548e+002
<TRANSP> 5
 0.000000e+000 1.000000e+000 0.000000e+000 0.000000e+000 0.000000e+000
 0.000000e+000 8.887500e-001 1.112500e-001 0.000000e+000 0.000000e+000
 0.000000e+000 0.000000e+000 8.220928e-001 1.779071e-001 0.000000e+000
 0.000000e+000 0.000000e+000 0.000000e+000 9.278508e-001 7.214919e-002
 0.000000e+000 0.000000e+000 0.000000e+000 0.000000e+000 0.000000e+000
<ENDHMM>
~h "au"
<BEGINHMM>
<NUMSTATES> 5
<STATE> 2
<MEAN> 25
 5.288311e+000 -4.091045e+000 -7.188445e+000 -6.369011e+000 -4.687185e+000 -4.932394e+000 3.948425e+000 8.079360e+000 -9.780055e-001 -6.752283e+000 -2.015246e+000 1.668309e+000 4.822750e-002 2.697489e-002 -3.038262e-002 3.817931e-002 -4.694365e-001 -2.611732e-001 4.873051e-001 5.910122e-001 4.068300e-001 -8.501238e-002 1.429131e-001 -9.546065e-002 1.511249e-001
<VARIANCE> 25
 1.806462e+001 3.296043e+001 3.347368e+001 3.721941e+001 5.412444e+001 4.084511e+001 2.777537e+001 5.967427e+001 1.907999e+001 6.280944e+001 1.359571e+001 3.335271e+001 4.498403e-001 1.155438e+000 1.258540e+000 7.833339e-001 1.010915e+000 1.058007e+000 2.096312e+000 2.772192e+000 1.170048e+000 1.764112e+000 2.008993e+000 7.543136e-001 3.032863e-001
<GCONST> 8.888927e+001
<STATE> 3
<MEAN> 25
 5.066620e+000 -1.665022e+000 -5.245457e+000 -5.913621e+000 -8.538554e+000 -7.898033e+000 3.579201e+000 9.608351e+000 8.014494e-001 -6.230887e+000 -2.143242e+000 8.998135e-001 -1.274464e-001 5.985747e-001 6.449583e-001 4.649581e-002 -1.771764e-001 -7.118975e-002 -3.841756e-001 -3.433910e-001 2.585993e-001 4.458270e-001 5.605330e-002 -2.701507e-001 -2.180912e-001
<VARIANCE> 25
 1.354149e+001 2.956660e+001 3.276515e+001 2.492080e+001 4.259958e+001 3.907544e+001 2.412742e+001 5.921616e+001 1.354529e+001 4.250880e+001 1.296793e+001 2.214350e+001 5.807983e-001 8.935768e-001 1.045300e+000 9.095945e-001 1.346233e+000 1.369885e+000 1.667376e+000 2.522537e+000 1.079434e+000 1.586966e+000 1.587602e+000 1.038007e+000 3.006230e-001
<GCONST> 8.652017e+001
<STATE> 4
<MEAN> 25
 7.828934e+000 2.451427e+000 8.450629e-001 -4.438984e+000 -5.268189e+000 -4.321766e+000 -3.051054e+000 6.850935e+000 5.458237e+000 -7.230115e+000 -1.402332e+000 3.940440e+000 -4.549095e-002 3.281480e-001 1.348625e-001 2.364787e-001 -2.215490e-003 2.661061e-002 -6.598694e-002 -2.401402e-001 -1.376442e-001 5.782278e-002 4.805094e-002 7.602911e-002 -3.470364e-001
<VARIANCE> 25
 3.196639e+001 1.074564e+002 6.775488e+001 8.757254e+001 5.379464e+001 6.041859e+001 4.279355e+001 3.930235e+001 9.587821e+001 8.145017e+001 3.026005e+001 3.396563e+001 1.079742e+000 3.405848e+000 1.969402e+000 2.444321e+000 3.307293e+000 2.735636e+000 2.957592e+000 2.519085e+000 3.597124e+000 3.723861e+000 1.744691e+000 1.865272e+000 1.313929e+000
<GCONST> 1.053218e+002
<TRANSP> 5
 0.000000e+000 1.000000e+000 0.000000e+000 0.000000e+000 0.000000e+000
 0.000000e+000 8.073770e-001 1.926230e-001 0.000000e+000 0.000000e+000
 0.000000e+000 0.000000e+000 8.557258e-001 1.442743e-001 0.000000e+000
 0.000000e+000 0.000000e+000 0.000000e+000 9.291491e-001 7.085095e-002
 0.000000e+000 0.000000e+000 0.000000e+000 0.000000e+000 0.000000e+000
<ENDHMM>
~h "ng"
<BEGINHMM>
<NUMSTATES> 5
<STATE> 2
<MEAN> 25
 3.854643e+000 -3.474577e-001 -5.259774e-001 -2.447169e-001 1.878581e+000 5.551950e-001 1.843437e+000 1.554788e+000 1.369923e+000 -9.058834e-001 -1.015238e+000 -2.237475e+000 -1.375887e-001 3.571510e-001 2.007069e-001 1.139859e-001 3.239841e-001 1.581976e-001 -5.569590e-002 -1.097450e-001 -1.926184e-001 1.492003e-001 -6.067017e-002 -2.677602e-001 -2.085451e-001
<VARIANCE> 25
 2.464487e+001 6.446457e+001 2.790989e+001 9.295771e+001 6.685208e+001 3.423972e+001 4.757904e+001 5.493052e+001 3.545969e+001 4.393016e+001 2.887873e+001 2.960394e+001 6.067138e-001 2.295805e+000 1.488252e+000 2.078728e+000 2.951122e+000 2.436070e+000 2.243329e+000 2.448312e+000 2.157569e+000 2.093087e+000 1.805898e+000 2.256387e+000 1.496888e+000
<GCONST> 9.933759e+001
<STATE> 3
<MEAN> 25
 2.884927e+000 1.017712e+000 6.645250e-002 3.509479e-001 3.120483e+000 1.370079e+000 1.863236e+000 1.417796e+000 9.928588e-001 1.847273e-002 -9.140907e-001 -2.477229e+000 -2.394611e-001 2.405359e-001 1.113212e-001 1.207951e-001 2.010437e-001 7.006748e-002 -4.105301e-002 -4.741039e-002 -1.628044e-001 2.007753e-001 4.634157e-002 2.122680e-004 -2.580332e-001
<VARIANCE> 25
 2.355837e+001 7.531602e+001 2.814430e+001 8.770694e+001 7.068728e+001 3.637663e+001 4.907010e+001 4.804701e+001 3.271877e+001 4.538109e+001 2.889441e+001 3.162736e+001 6.132410e-001 1.989021e+000 1.541007e+000 1.854411e+000 2.857947e+000 2.370489e+000 2.178318e+000 2.482214e+000 1.835749e+000 1.757235e+000 1.804942e+000 2.132844e+000 1.283142e+000
<GCONST> 9.859583e+001
<STATE> 4
<MEAN> 25
 1.339107e-001 2.324239e+000 -4.756099e-001 2.378757e+000 3.964936e+000 2.168530e+000 2.778452e+000 1.353660e+000 6.299195e-001 1.214252e+000 -2.196575e-002 -9.576263e-001 -2.965857e-001 -5.131088e-003 -4.498153e-002 6.819853e-002 -1.254396e-002 -8.578601e-002 6.644272e-003 -5.106989e-002 -1.612675e-001 1.282388e-001 6.248979e-002 1.907582e-001 -2.648868e-001
<VARIANCE> 25
 2.606000e+001 5.521601e+001 2.632581e+001 6.637164e+001 5.045167e+001 2.942326e+001 4.663600e+001 3.717944e+001 2.905335e+001 3.919007e+001 2.432463e+001 2.805242e+001 4.182467e-001 1.140152e+000 1.134960e+000 1.424956e+000 1.838732e+000 1.780846e+000 1.922383e+000 2.009252e+000 1.572533e+000 1.632062e+000 1.577231e+000 1.433841e+000 6.763388e-001
<GCONST> 9.265366e+001
<TRANSP> 5
 0.000000e+000 1.000000e+000 0.000000e+000 0.000000e+000 0.000000e+000
 0.000000e+000 6.802964e-001 3.197037e-001 0.000000e+000 0.000000e+000
 0.000000e+000 0.000000e+000 6.762419e-001 3.237582e-001 0.000000e+000
 0.000000e+000 0.000000e+000 0.000000e+000 8.614374e-001 1.385626e-001
 0.000000e+000 0.000000e+000 0.000000e+000 0.000000e+000 0.000000e+000
<ENDHMM>
~h "ny"
<BEGINHMM>
<NUMSTATES> 5
<STATE> 2
<MEAN> 25
 -7.229596e-002 1.215219e-001 1.551441e+000 2.858504e+000 1.163978e+000 -2.685374e+000 -1.817451e+000 -1.210276e+000 1.050913e+000 8.149441e-002 8.983152e-001 1.019925e+000 -1.428428e-002 1.109532e+000 -4.771553e-001 4.076344e-001 -1.593331e-001 3.655818e-001 4.923601e-001 -6.682923e-001 -2.164153e-001 1.194931e-004 1.975208e-001 2.394611e-001 -1.071234e+000
<VARIANCE> 25
 3.460367e+001 1.656497e+001 3.326505e+001 7.434552e+001 5.385397e+001 2.225485e+001 4.632120e+001 1.887273e+001 3.925780e+001 1.760274e+001 1.524703e+001 1.397425e+001 4.495556e-001 5.160621e-001 1.265161e+000 4.219831e+000 9.770811e-001 1.642431e+000 2.802057e+000 2.092681e+000 1.059865e+000 2.696475e+000 2.661397e+000 3.044846e+000 9.824919e-001
<GCONST> 9.145386e+001
<STATE> 3
<MEAN> 25
 -6.948628e-001 2.396792e+000 -2.193776e-001 3.343425e+000 1.409225e+000 -1.807510e+000 8.829651e-001 -1.821526e+000 9.499793e-001 8.639424e-002 1.527395e+000 1.202287e+000 1.244123e-001 5.990592e-001 -1.130248e-001 2.839619e-001 -9.103603e-002 1.379975e-001 5.226345e-001 -2.780251e-001 -3.036479e-001 -2.151603e-001 -8.659384e-002 -5.718951e-002 -4.625139e-001
<VARIANCE> 25
 3.303117e+001 1.330519e+001 1.798190e+001 2.601018e+001 3.533161e+001 2.350540e+001 4.559802e+001 1.644800e+001 3.208519e+001 1.976089e+001 1.097859e+001 1.529846e+001 2.288665e-001 6.024166e-001 9.812391e-001 2.414800e+000 7.856981e-001 1.243945e+000 1.609697e+000 1.603513e+000 1.214461e+000 1.773906e+000 1.097737e+000 1.042568e+000 4.359323e-001
<GCONST> 8.297702e+001
<STATE> 4
<MEAN> 25
 -2.032299e+000 3.031785e+000 -1.210983e-001 2.824077e+000 6.995700e-001 1.356723e+000 1.484937e+000 -3.631159e-001 1.234839e+000 2.025336e-001 1.193507e+000 6.332258e-001 -7.806475e-002 3.332173e-002 -2.837510e-003 1.206410e-001 8.791418e-002 9.580987e-002 5.817729e-002 7.583064e-002 -3.143496e-003 2.031923e-002 -8.840112e-002 -3.145423e-002 -1.603808e-001
<VARIANCE> 25
 1.398965e+001 8.363053e+000 2.665428e+001 3.988548e+001 2.207165e+001 1.683220e+001 6.000146e+001 2.520724e+001 2.115685e+001 1.955287e+001 1.157357e+001 1.231526e+001 2.847886e-001 3.326266e-001 5.969761e-001 1.287970e+000 8.875883e-001 9.718745e-001 1.383023e+000 9.631411e-001 1.296322e+000 1.169392e+000 9.199862e-001 1.097941e+000 2.139616e-001
<GCONST> 7.830525e+001
<TRANSP> 5
 0.000000e+000 1.000000e+000 0.000000e+000 0.000000e+000 0.000000e+000
 0.000000e+000 4.123050e-001 5.876950e-001 0.000000e+000 0.000000e+000
 0.000000e+000 0.000000e+000 5.789273e-001 4.210727e-001 0.000000e+000
 0.000000e+000 0.000000e+000 0.000000e+000 9.702651e-001 2.973488e-002
 0.000000e+000 0.000000e+000 0.000000e+000 0.000000e+000 0.000000e+000
<ENDHMM>
~h "oi"
<BEGINHMM>
<NUMSTATES> 5
<STATE> 2
<MEAN> 25
 -5.226076e+000 9.887808e-001 7.508367e-001 -9.065157e-001 -5.722814e-001 1.925972e+000 1.668826e-001 -5.569087e+000 -2.102215e-001 6.068518e+000 -1.783029e+000 -2.929567e-001 -4.023889e-001 1.656532e-001 -1.080585e+000 2.695503e-001 -5.021812e-002 -6.930684e-002 1.267185e+000 6.518223e-001 3.522488e-001 5.428619e-002 1.225440e-001 7.613250e-002 -7.928712e-001
<VARIANCE> 25
 1.324370e+001 6.864017e+000 4.998837e+001 4.009295e+001 3.592928e+001 1.460012e+001 5.027592e+001 1.373038e+001 3.765207e+001 3.126939e+001 1.391513e+001 5.268651e+000 4.196376e-001 5.425724e-001 5.493019e-001 1.885658e+000 1.898841e+000 1.307761e+000 1.533533e+000 2.142486e+000 1.674289e+000 1.059634e+000 1.608266e+000 4.328681e-001 2.605810e-001
<GCONST> 8.174601e+001
<STATE> 3
<MEAN> 25
 -1.029659e+001 4.720718e+000 -5.842584e+000 -1.666249e+000 3.041175e+000 -3.957274e+000 -4.708171e+000 -6.752038e+000 -7.402500e+000 4.712392e+000 -3.765579e+000 -1.266256e-001 -4.061035e-002 5.974066e-002 -8.110023e-002 -3.106443e-003 1.612977e-002 -3.750859e-003 8.384165e-002 -7.682347e-003 -1.303481e-001 -2.878274e-002 -1.122061e-002 2.964563e-002 -7.486288e-002
<VARIANCE> 25
 5.040724e+000 3.133928e+000 6.400595e+000 6.930433e+000 9.317349e+000 9.414522e+000 1.653389e+001 1.059817e+001 1.268264e+001 8.838602e+000 8.462305e+000 6.094139e+000 1.045410e-001 1.898836e-001 4.362879e-001 5.282068e-001 7.066501e-001 6.673259e-001 8.533100e-001 1.395757e+000 5.790110e-001 5.400475e-001 6.327370e-001 5.998352e-001 4.664692e-002
<GCONST> 5.964100e+001
<STATE> 4
<MEAN> 25
 -2.951547e+000 3.484555e+000 -6.656058e+000 9.000938e+000 3.053455e-001 1.794715e+000 5.280180e+000 1.204156e+000 8.378084e-001 -1.697723e+000 -9.445797e-001 3.729856e+000 4.743717e-003 2.097486e-002 -2.765010e-002 7.316326e-002 3.356023e-002 -2.444318e-002 3.115573e-002 4.645649e-002 -5.624824e-002 -4.002123e-002 -4.295074e-002 2.312949e-002 -2.619822e-002
<VARIANCE> 25
 3.236952e+000 4.448309e+000 1.414447e+001 1.544763e+001 1.083772e+001 1.666846e+001 2.104875e+001 2.035585e+001 1.644214e+001 2.678604e+001 1.301966e+001 1.697600e+001 2.028321e-001 3.512661e-001 7.303568e-001 9.870834e-001 1.314749e+000 1.693623e+000 2.326817e+000 2.422549e+000 1.360789e+000 2.074403e+000 1.304133e+000 1.708315e+000 6.812506e-002
<GCONST> 7.545702e+001
<TRANSP> 5
 0.000000e+000 1.000000e+000 0.000000e+000 0.000000e+000 0.000000e+000
 0.000000e+000 6.612775e-001 3.387225e-001 0.000000e+000 0.000000e+000
 0.000000e+000 0.000000e+000 9.415868e-001 5.841319e-002 0.000000e+000
 0.000000e+000 0.000000e+000 0.000000e+000 9.814646e-001 1.853536e-002
 0.000000e+000 0.000000e+000 0.000000e+000 0.000000e+000 0.000000e+000
<ENDHMM>
~h "sy"
<BEGINHMM>
<NUMSTATES> 5
<STATE> 2
<MEAN> 25
 -1.319096e+000 -7.517995e+000 4.708003e+000 1.924712e+000 2.075837e+000 5.706524e-001 3.593245e+000 2.813697e+000 -5.637684e-001 -2.327013e+000 5.069606e+000 1.114227e+000 -4.030045e-001 -1.010016e+000 2.973319e-001 -8.768630e-002 -1.458064e-001 -2.292542e-001 -7.582266e-002 2.770700e-002 -1.228017e-002 -2.377867e-001 2.204747e-001 6.092642e-001 4.489403e-001
<VARIANCE> 25
 6.637581e+001 5.806392e+001 1.723348e+002 4.975336e+001 2.179811e+001 3.933148e+001 4.768795e+001 4.987305e+001 3.151736e+001 1.815943e+001 3.595422e+001 1.782144e+001 5.066494e+000 3.313227e+000 9.267113e+000 1.129972e+000 1.790111e+000 3.552311e+000 3.109091e+000 2.705271e+000 2.669222e+000 1.820025e+000 2.572653e+000 1.734385e+000 6.548039e-001
<GCONST> 1.024022e+002
<STATE> 3
<MEAN> 25
 -7.049822e-002 -8.653928e+000 1.837618e+000 1.426780e+000 3.940666e-001 -2.542039e+000 1.163438e+000 1.859321e+000 -5.768155e-001 -2.920567e+000 4.584991e+000 2.089632e+000 5.792733e-001 -2.759408e-002 -7.515407e-001 -1.293805e-001 -3.136055e-001 -4.871478e-001 -4.447270e-002 1.855938e-001 3.406264e-002 -1.046692e-001 8.966316e-002 -1.769935e-002 2.388916e-001
<VARIANCE> 25
 7.427293e+001 4.854827e+001 1.647618e+002 6.128362e+001 3.368444e+001 4.708394e+001 3.045038e+001 4.378354e+001 3.514462e+001 1.800307e+001 1.585139e+001 1.291269e+001 3.667847e+000 3.041557e+000 4.567289e+000 1.478930e+000 2.048545e+000 2.930916e+000 3.368509e+000 3.912957e+000 2.201178e+000 1.499699e+000 1.425697e+000 1.274330e+000 4.715197e-001
<GCONST> 9.942602e+001
<STATE> 4
<MEAN> 25
 3.447960e+000 -8.331896e+000 -4.426295e+000 8.575546e-001 -3.228056e-001 -3.668654e+000 2.223154e+000 3.562137e+000 -1.046301e+000 -3.161469e+000 3.097602e+000 1.309151e+000 4.759439e-002 6.385054e-002 -3.867031e-002 5.986909e-002 -7.185046e-003 1.461017e-002 -1.507147e-002 2.049256e-002 6.815968e-002 -6.934129e-003 -1.088735e-001 2.004287e-002 -8.028074e-002
<VARIANCE> 25
 4.791123e+001 2.753608e+001 6.872330e+001 6.905247e+001 5.610476e+001 3.929820e+001 2.846428e+001 3.695038e+001 3.196592e+001 3.059310e+001 3.046209e+001 1.992305e+001 1.276550e+000 2.011110e+000 1.753739e+000 1.705430e+000 2.170650e+000 1.568974e+000 2.084733e+000 2.829276e+000 1.773264e+000 1.677474e+000 1.962361e+000 1.436688e+000 3.083448e-001
<GCONST> 9.553574e+001
<TRANSP> 5
 0.000000e+000 1.000000e+000 0.000000e+000 0.000000e+000 0.000000e+000
 0.000000e+000 8.592202e-001 1.407798e-001 0.000000e+000 0.000000e+000
 0.000000e+000 0.000000e+000 8.606157e-001 1.393843e-001 0.000000e+000
 0.000000e+000 0.000000e+000 0.000000e+000 9.697170e-001 3.028295e-002
 0.000000e+000 0.000000e+000 0.000000e+000 0.000000e+000 0.000000e+000
<ENDHMM>
~h "sil"
<BEGINHMM>
<NUMSTATES> 5
<STATE> 2
<MEAN> 25
 -7.957549e+000 5.668697e+000 -5.017096e+000 -1.503572e+000 7.770442e-001 -3.333032e+000 -3.496453e+000 -2.898242e+000 -5.685887e+000 4.612923e+000 -3.243387e+000 1.270778e-001 1.116495e-001 -4.834893e-002 -3.208051e-002 -3.112315e-002 -2.613268e-002 3.801448e-002 -8.272602e-002 -6.787053e-002 1.051404e-001 7.131110e-002 5.363524e-002 4.785487e-002 8.574329e-002
<VARIANCE> 25
 3.689148e+001 2.330476e+001 1.506815e+001 3.585686e+001 3.329252e+001 4.709549e+001 2.917083e+001 3.705596e+001 2.744502e+001 1.763209e+001 1.867010e+001 1.042343e+001 4.267739e-001 2.362152e-001 4.629537e-001 6.407244e-001 6.505339e-001 9.586502e-001 9.633064e-001 9.866658e-001 9.803578e-001 9.826857e-001 8.718110e-001 7.582758e-001 3.903818e-001
<GCONST> 7.936706e+001
<STATE> 3
<MEAN> 25
 -4.420638e+000 1.032423e+000 -8.850529e-001 -5.682920e-002 9.595401e-001 1.327004e+000 -1.312639e+000 1.300684e+000 -1.744985e+000 3.128347e+000 -1.631132e+000 2.606341e+000 -7.013431e-001 -4.668798e-001 5.329037e-001 -5.821869e-001 6.083227e-001 -1.043396e-001 3.739301e-001 -2.545616e-001 8.927304e-001 -2.970614e-001 6.745492e-001 -8.444790e-003 3.000455e+000
<VARIANCE> 25
 3.218827e+001 5.184523e+001 3.668548e+001 7.569917e+001 4.408314e+001 4.374904e+001 7.318475e+001 3.984777e+001 4.161138e+001 4.558208e+001 4.972956e+001 2.040284e+001 2.441769e+000 5.712124e+000 5.017306e+000 7.960309e+000 5.399558e+000 4.853207e+000 5.307043e+000 2.183332e+000 3.456491e+000 4.180941e+000 3.650171e+000 2.473678e+000 5.433826e+001
<GCONST> 1.122137e+002
<STATE> 4
<MEAN> 25
 -4.374204e+000 2.074244e+000 -1.465765e+000 4.928449e+000 2.119177e+000 3.187982e+000 3.818009e+000 1.024299e+000 2.665288e+000 1.817496e+000 1.223290e+000 1.389124e+000 -2.516655e-002 -3.780791e-003 2.617326e-003 -1.208896e-002 -9.127881e-003 8.445948e-003 -7.407071e-003 -1.398046e-002 2.528793e-002 -4.891653e-003 1.276330e-002 5.677929e-004 -5.766459e-003
<VARIANCE> 25
 3.953131e+000 9.201190e+000 1.171983e+001 3.508138e+001 1.273740e+001 2.148756e+001 1.936188e+001 1.733414e+001 2.328607e+001 2.675834e+001 1.477315e+001 1.319208e+001 1.988102e-001 3.926155e-001 4.902020e-001 7.681504e-001 9.434531e-001 1.203951e+000 1.318234e+000 1.280732e+000 1.396423e+000 1.512340e+000 1.238952e+000 1.062534e+000 4.438811e-001
<GCONST> 7.602924e+001
<TRANSP> 5
 0.000000e+000 1.000000e+000 0.000000e+000 0.000000e+000 0.000000e+000
 0.000000e+000 8.713211e-001 1.286789e-001 0.000000e+000 0.000000e+000
 0.000000e+000 0.000000e+000 5.652766e-001 4.347235e-001 0.000000e+000
 0.000000e+000 0.000000e+000 0.000000e+000 9.801051e-001 1.989491e-002
 0.000000e+000 0.000000e+000 0.000000e+000 0.000000e+000 0.000000e+000
<ENDHMM>
